solver_type L2R_L2LOSS_SVC_DUAL
nr_class 5
label 1 2 3 4 5
nr_feature 225
bias 1
w
1.769685330579713e-28 -1.45467976184077e-28 -1.269381596757361e-28 -1.876338641451392e-28 -1.966820866623105e-28 
2.739502672353037e-28 -1.680478155197581e-28 -2.351358934317379e-28 -3.025465400058062e-28 -3.123342282843414e-28 
2.270385760331067e-28 -2.498065920027427e-28 -2.461404931230919e-28 -1.87116347844039e-28 -2.607258754571333e-28 
3.080083028748802e-28 -2.968285585645363e-28 -2.925959142376898e-28 -3.107659216510355e-28 -3.129537233915765e-28 
3.316819695501293e-28 -3.098827665905335e-28 -3.234471221859487e-28 -3.361491237813336e-28 -3.392438412207347e-28 
1.315274206347805e-28 -3.58717984863865e-28 -4.595113529583869e-28 6.590400275876626e-28 -4.59289870066498e-28 
1.09753900181666e-28 -4.778660796672005e-29 -4.164640182352636e-28 8.043659476106072e-28 -4.144105343538882e-28 
1.422571140007562e-28 -1.431845335123801e-28 -1.413874575773022e-28 -1.429817705728308e-28 -1.403095098131377e-28 
2.309115395178239e-28 -2.305860928472923e-28 -2.306727093683224e-28 -2.295856832028787e-28 -2.301410153025724e-28 
6.665971397739573e-29 -6.639957559560272e-29 -6.642663214856847e-29 -6.663287302890617e-29 -6.632141563268027e-29 
1.00702624672809e-29 -1.003095093840495e-29 -1.00350383670052e-29 -1.006619643186679e-29 -1.001914239895004e-29 
5.681876470943819e-30 -5.652175948874987e-30 -5.668191202828229e-30 -5.682717877248641e-30 -5.660961783086757e-30 
1.203653790680993e-30 -1.171247299170995e-30 -1.171724554367226e-30 -1.175365043909832e-30 -1.169868494750808e-30 
2.215738762158254e-30 -2.207091784088391e-30 -2.207991134055068e-30 -2.214846484983774e-30 -2.204493611056468e-30 
5.450567742717264e-29 -5.429235768270999e-29 -5.431448089177567e-29 -5.448311596835002e-29 -5.422844415658997e-29 
7.464872152143399e-30 -7.435740616642531e-30 -7.438770551085065e-30 -7.461866373998646e-30 -7.426987861146698e-30 
4.220767614458027e-30 -4.202614357366977e-30 -4.204326814340273e-30 -4.217380402692769e-30 -4.197677341103139e-30 
9.849863914832296e-29 -9.806739771597641e-29 -9.810885838634598e-29 -9.842089304553678e-29 -9.795599456178647e-29 
1.231885592593592e-29 -1.226960750866413e-29 -1.22746071628511e-29 -1.23127172411204e-29 -1.226741876904307e-29 
9.753084050337201e-30 -9.69469067341685e-30 -9.724884091499357e-30 -9.735091286938396e-30 -9.683695317518902e-30 
2.002877293694831e-29 -1.994936440618157e-29 -1.995749341690453e-29 -2.001945725648486e-29 -1.992601066803917e-29 
3.904344485318176e-30 -3.475266273764276e-30 -6.908007261171887e-31 -3.282476135677026e-30 -3.182931455740902e-30 
1.163249792487804e-29 -1.158710261288409e-29 -1.159182384707421e-29 -1.169454293569608e-29 -1.157346184332445e-29 
1.198183892557766e-29 -1.193508000566007e-29 -1.193994333923923e-29 -1.19770143628816e-29 -1.19210299058611e-29 
1.190127180624383e-30 -1.191681509742358e-30 -1.167514795920143e-30 -1.196004650072799e-30 -1.190134749289739e-30 
3.169780272873803e-30 -3.157410259303313e-30 -3.158696851050478e-30 -3.168503940291169e-30 -3.15369332320608e-30 
1.60031869621174e-29 -1.579238818862692e-29 -1.579882332115036e-29 -1.584788139278956e-29 -1.57737972254962e-29 
2.910927181795847e-26 -2.899567417485151e-26 -2.900748539238907e-26 -2.909755157872171e-26 -2.896154016638116e-26 
2.319989694853838e-24 -2.310935981865448e-24 -2.311877613115556e-24 -2.319055543076852e-24 -2.308215522853516e-24 
9.941307083596763e-29 -9.901076280797638e-29 -9.905110798028243e-29 -9.935864088635546e-29 -9.889420631240431e-29 
1.579048113812072e-28 -1.572883906870411e-28 -1.573524830649312e-28 -1.578410294276564e-28 -1.571032291625643e-28 
3.907292275807131e-26 -3.892044255461946e-26 -3.89362958396744e-26 -3.905719100959756e-26 -3.887462500584458e-26 
3.208566940502185e-26 -3.196045656296727e-26 -3.197347516262788e-26 -3.207275084251114e-26 -3.192283238189335e-26 
3.208566940502185e-26 -3.196045656296727e-26 -3.197347516262788e-26 -3.207275084251114e-26 -3.192283238189335e-26 
3.208566940502185e-26 -3.196045656296727e-26 -3.197347516262788e-26 -3.207275084251114e-26 -3.192283238189335e-26 
3.208684592344288e-26 -3.196162882833442e-26 -3.197464620547066e-26 -3.207392722663512e-26 -3.192400326721281e-26 
1.474095619591394e-27 -2.386898735960139e-27 -2.940134589508297e-29 -2.949263089711183e-29 -2.935477275616517e-29 
1.228453241697901e-24 -1.444514684620467e-28 -1.445103299684202e-28 -1.449590041884669e-28 -1.44281418695555e-28 
4.31192714498836e-29 -4.295099921238989e-29 -4.296850101582561e-29 -4.310190918087343e-29 -4.290043685091105e-29 
-2.320641704554307e-29 -1.064502337709473e-28 -1.650674489444915e-28 6.89127206189299e-28 -1.31610948284985e-28 
1.898104698523166e-29 -1.890697374488999e-29 -1.891467801168056e-29 -1.897347386797854e-29 -1.888471625935484e-29 
2.124251951738599e-29 -2.11596460695246e-29 -2.11682579907703e-29 -2.123398116132867e-29 -2.113474698577999e-29 
1.856015628818254e-29 -1.84877409065199e-29 -1.849526808404539e-29 -1.855269211354595e-29 -1.846598320623922e-29 
3.012347506995446e-27 -3.000592008714944e-27 -3.001814008993261e-27 -3.011134702848161e-27 -2.997059680640148e-27 
1.873012112375301e-30 -1.862568756559658e-30 -1.8640504763466e-30 -1.88812854018434e-30 -1.865940969514648e-30 
-2.837330011630223e-26 1.386719423620364e-25 -1.421450924457095e-28 -3.111419802239278e-28 -1.487288655013013e-28 
-2.018173311330005e-26 1.62432204995965e-25 -1.009620618005871e-28 -1.052039752373778e-28 -6.273849055867485e-28 
-3.451652735240535e-27 1.703893966090151e-26 -9.902888757731862e-29 -9.933635154710662e-29 -9.887202128600948e-29 
-3.174963374298085e-27 1.407954356938411e-26 -9.520883158792877e-29 -9.550443507157557e-29 -9.505801643384833e-29 
-1.424034739503432e-27 6.824451097825805e-27 -8.237593702098908e-29 -8.263169705389337e-29 -8.224544971616809e-29 
-1.120018232378633e-26 2.232137410495949e-26 -1.720265841103306e-29 -1.725606904887421e-29 -1.717540857447299e-29 
-7.437473311937063e-25 2.812827262821583e-24 -4.113488636158842e-29 -4.126260165531686e-29 -4.106972684678393e-29 
-4.687706257518409e-27 2.377153921148157e-26 -2.894033444264288e-30 -3.546076854686935e-30 -2.902221795915596e-30 
-4.142649990913417e-26 1.509784555595315e-25 -3.478411271583683e-29 -3.489211016778101e-29 -3.472901310601416e-29 
-4.231461469618446e-26 1.745371185714579e-25 -1.138054493288514e-28 -5.280756503647195e-27 -1.136251761171253e-28 
-1.053009059577189e-27 5.271090586483439e-27 -7.644864703553832e-30 -7.668600403964554e-30 -7.632754873966331e-30 
-5.214221581451263e-27 1.189530822180351e-26 -2.022136054217732e-29 -2.028414368444612e-29 -2.01893291754329e-29 
-1.906333053308221e-27 5.742561295622982e-27 -4.218344216592519e-29 -4.231441288645008e-29 -4.211662156981636e-29 
4.431083727636085e-28 -4.413807209314159e-28 -1.146888776530472e-26 -1.002442909937215e-26 -7.906844882332255e-27 
-2.408534095471165e-28 4.929994894322848e-27 -6.719261851533165e-29 -8.64203812684668e-29 -6.708618231681835e-29 
-5.440908026107095e-28 1.363439224286505e-27 -4.581345207415997e-30 -4.595569322164642e-30 -4.574088148889763e-30 
-4.182106677475162e-27 9.696002406137654e-26 -2.591829918271828e-29 -9.989514478626691e-28 -2.587724338518486e-29 
-1.658714799418939e-24 4.725614460657306e-24 -1.61734836502366e-28 -1.622369911313179e-28 -1.614786427509476e-28 
-4.945770702335798e-25 1.346897188241388e-24 -4.897868535421571e-28 -4.9130753954601e-28 -4.890110084956084e-28 
1.246498189366646e-28 -1.090884735395339e-28 -1.288714934829008e-28 -1.293147654175011e-28 -1.286673548777895e-28 
-3.235454506650382e-27 1.206666094347634e-26 -3.501532827647649e-29 -3.512404358386817e-29 -3.495986239129075e-29 
-8.693379801438492e-28 6.290568288987342e-27 -2.330283540785408e-29 -9.786053094602451e-28 -5.661122679618592e-28 
5.144236706258736e-31 9.638513946200146e-30 -3.377271448041796e-30 -3.387757173942941e-30 -3.371921705247059e-30 
-1.42295438866678e-27 4.874657789326558e-27 -7.858859441639104e-29 -1.042659367187097e-28 -7.846410631140408e-29 
-1.932399264780254e-27 7.122837338793291e-27 -9.693893601015718e-29 -9.723991117525832e-29 -9.678538023010326e-29 
-6.670940147410518e-28 2.213377620532151e-27 -4.343982209240491e-27 -2.846969934126758e-27 -2.655404537143369e-28 
-6.670940147410518e-28 2.213377620532151e-27 -4.343982209240491e-27 -2.846969934126758e-27 -2.655404537143369e-28 
-5.450424548813804e-23 1.553461212034291e-22 -2.129046674075662e-28 -2.135657259373628e-28 -2.125674503325831e-28 
5.211807991260761e-28 1.357290354326561e-37 -5.189502122546318e-25 -5.205617364888982e-25 -5.181284610629676e-25 
-6.670940147410518e-28 2.213377620532151e-27 -4.343982209240491e-27 -2.846969934126758e-27 -2.655404537143369e-28 
-1.651976004220286e-28 4.356525836488779e-28 -1.892272427837209e-27 -1.479977515284605e-27 -1.820685479317618e-28 
3.631502021072465e-27 -3.631484947208592e-27 -3.615919839861247e-24 -3.627188493234316e-24 -3.610233822524526e-24 
1.069092315540313e-26 -1.069087324831931e-26 -1.064503431741766e-23 -1.067822439660375e-23 -1.062831074342609e-23 
6.475910269892472e-30 -7.529445851866959e-29 -4.891916667564879e-26 -4.907119179596609e-26 -4.884181715278875e-26 
2.739502672353037e-28 -1.680478155197581e-28 -2.351358934317379e-28 -3.025465400058062e-28 -3.123342282843414e-28 
-2.207287129326543e-25 5.667455478592839e-25 -1.075534919008923e-27 -1.078874257402862e-27 -1.07383124852051e-27 
7.63350722259364e-29 -3.440523476124317e-29 -5.013166384751956e-26 -5.028744914957347e-26 -5.005238931878528e-26 
5.031181740907327e-29 -2.645835486124848e-29 -5.504386530692272e-29 -5.521800492356821e-29 -5.49566731973805e-29 
-1.289152685234628e-27 3.89790224658355e-27 -5.500638556949763e-27 -3.814153749101084e-27 -1.869342087838114e-27 
2.794087420134826e-29 -8.70329854251729e-30 -4.283596163125467e-26 -4.296916357041749e-26 -4.276831173876403e-26 
1.09753900181666e-28 -4.778660796672005e-29 -4.164640182352636e-28 8.043659476106072e-28 -4.144105343538882e-28 
-5.327914143987832e-25 1.347312231689332e-24 -9.121656737699753e-28 -9.149977583005634e-28 -9.107207614315758e-28 
4.038404672194624e-29 3.296992447548202e-29 -3.60968975477316e-26 -3.620916510998703e-26 -3.603991169813732e-26 
-2.04792686777487e-27 5.995831519643971e-27 -1.003946985761513e-26 -7.340078930580748e-27 -4.163737090883769e-27 
-2.154257456608338e-28 1.370292549754413e-27 -8.260925110278861e-30 -8.286573555515458e-30 -8.247839417973986e-30 
1.190127180624383e-30 -1.191681509742358e-30 -1.167514795920143e-30 -1.196004650072799e-30 -1.190134749289739e-30 
8.344648574555222e-31 -1.011282441653236e-30 -3.746463983303504e-31 -1.014835621014311e-30 -1.010188402348752e-30 
7.803612780082244e-30 -7.799220796683304e-30 -7.717395429591776e-30 -7.826577958972891e-30 -7.789961633694812e-30 
3.627748475042236e-30 -3.623015534641608e-30 -3.58344680363735e-30 -3.635745137386924e-30 -3.61875048390949e-30 
6.765033633462792e-30 -6.807283482802946e-30 -6.481392444344719e-30 -6.831210221254533e-30 -6.799270070465815e-30 
5.307385601842943e-30 -5.294468787552798e-30 -5.245739287140098e-30 -5.313080752440815e-30 -5.288236206507292e-30 
5.307385601842943e-30 -5.294468787552798e-30 -5.245739287140098e-30 -5.313080752440815e-30 -5.288236206507292e-30 
6.603707364844515e-30 -6.578626427336202e-30 -6.578433562078748e-30 -6.603661517206636e-30 -6.570924898268568e-30 
4.120392107780194e-30 -4.104882864239763e-30 -4.105947683492747e-30 -4.119846113401121e-30 -4.100052022547164e-30 
1.372436684843744e-29 -1.491929731868392e-29 -8.513468427982334e-30 -1.497171683701297e-29 -1.490173416719609e-29 
2.369993516535303e-29 -2.37486146069095e-29 -2.315788149168464e-29 -2.383214236815251e-29 -2.372065749153995e-29 
4.018565472042362e-29 -4.180796895369517e-29 -3.800482851137569e-29 -4.243648406313847e-29 -4.178868820003944e-29 
2.510644602500351e-28 -2.505587553212651e-28 -2.489475934268817e-28 -2.514391243437848e-28 -2.502638993216046e-28 
4.018565472042362e-29 -4.180796895369517e-29 -3.800482851137569e-29 -4.243648406313847e-29 -4.178868820003944e-29 
4.018565472042362e-29 -4.180796895369517e-29 -3.800482851137569e-29 -4.243648406313847e-29 -4.178868820003944e-29 
4.018565472042362e-29 -4.180796895369517e-29 -3.800482851137569e-29 -4.243648406313847e-29 -4.178868820003944e-29 
1.479189683516453e-30 -1.485963518375388e-30 -1.422709799644165e-30 -1.491185132504267e-30 -1.484223733089642e-30 
4.018565472042362e-29 -4.180796895369517e-29 -3.800482851137569e-29 -4.243648406313847e-29 -4.178868820003944e-29 
4.054522780561596e-30 -4.181503247720893e-30 -3.56311683531336e-30 -4.195722537948106e-30 -4.176593531891843e-30 
3.904344485318176e-30 -3.475266273764276e-30 -6.908007261171887e-31 -3.282476135677026e-30 -3.182931455740902e-30 
2.851447526967661e-29 -4.560691308710875e-29 -2.699220953418332e-29 -3.939394895815259e-29 -3.936662913413154e-29 
3.135051985479987e-29 -3.230671402972159e-29 -2.92308613740858e-29 -3.204701159265434e-29 -3.225280508696081e-29 
1.267210154969758e-29 -1.288265051545228e-29 -8.921458909372934e-30 -1.288240953370108e-29 -1.282244040516021e-29 
3.635614422907993e-29 -3.737160971370865e-29 -3.390551355599251e-29 -3.712491925419053e-29 -3.737777666630342e-29 
1.329373273480225e-29 -1.325542733300226e-29 -1.311819624892981e-29 -1.330185440557407e-29 -1.323982695098151e-29 
3.434794609690009e-29 -3.454203158806705e-29 -3.359516801342993e-29 -3.466339632930325e-29 -3.450136863258706e-29 
2.56404715737113e-28 -2.082072164207339e-28 -1.798163708881915e-28 -2.72700469926743e-28 -2.866776512391358e-28 
1.837858823776178e-29 -1.887877767905312e-29 -6.097484567460882e-30 -1.896555047413616e-29 -1.885681547353708e-29 
6.864654417685958e-29 -6.845043992621796e-29 -6.818091806383181e-29 -6.869135804518929e-29 -6.837045910308189e-29 
2.790465369572772e-31 -2.781711564196206e-31 -2.767778410757521e-31 -2.791520345311513e-31 -2.778436977079478e-31 
1.045568349306017e-30 -1.308106190234629e-30 7.855916355526318e-32 -1.312704081318885e-30 -1.306922773600165e-30 
4.348635674877486e-32 -4.341669703469948e-32 -4.293194967014984e-32 -4.356924325039615e-32 -4.336558644875166e-32 
1.113266560227823e-33 -1.109012163564935e-33 -1.109427219825585e-33 -1.112872388542864e-33 -1.107743463400887e-33 
4.710458781240944e-29 -5.765305725852553e-29 -3.340777768212433e-29 -5.78567580163387e-29 -5.758524125142957e-29 
7.460795552892854e-30 -3.604068025115618e-29 5.254271906059544e-29 -3.616731055145711e-29 -3.599825278874872e-29 
1.290757293015112e-26 -1.284710242427938e-23 7.548380779409245e-33 -1.28922411781746e-23 -1.283197867747006e-23 
3.116072748797266e-26 -3.101475567734788e-23 -3.113375592578501e-26 -3.112370908905359e-23 -3.097764987612176e-23 
-2.61452654888274e-22 6.136735665170353e-29 -2.462320273716959e-24 -7.483836080418177e-28 2.549814997831906e-27 
1.24632341958763e-22 -6.379560903141395e-28 2.361872289133206e-23 3.317097209876632e-27 -1.111262422581484e-26 
-3.359060784155436e-30 -5.583840246042419e-30 4.464994449310693e-29 -5.550718927767293e-30 -5.524773064803873e-30 
3.946943329268999e-27 -3.928452348345982e-24 -3.946942419821108e-27 -3.942255115258659e-24 -3.923827733333318e-24 
4.399695153666653e-23 -4.38252625113272e-23 -4.384310031759572e-23 -4.397923550527567e-23 -4.377366725316655e-23 
2.036613420714604e-30 -2.264347690288095e-30 -1.16757325481788e-30 -2.272303561895596e-30 -2.261682076798868e-30 
-5.582038393147905e-31 -7.006012830453932e-30 1.870033613503189e-29 -7.030628722412674e-30 -6.997765279993071e-30 
-2.743534230130805e-31 -2.82493113562534e-30 6.766313587704822e-30 -2.837582785978592e-30 -2.821605597462446e-30 
-2.320641704554307e-29 -1.064502337709473e-28 -1.650674489444915e-28 6.89127206189299e-28 -1.31610948284985e-28 
4.586350569334782e-29 -6.108740005322017e-29 -5.878510866394523e-29 1.26423983882818e-29 -5.866586017522908e-29 
-1.737869689717826e-24 -3.53518818289748e-28 -3.536628712736989e-28 4.499530232290848e-24 -9.101960715334869e-27 
4.360234399373492e-29 -1.460188559377249e-28 -1.434609838348003e-28 7.901619378530973e-29 -1.430797206115262e-28 
-9.873790342879654e-27 -1.722717924109932e-28 -1.723419902335443e-28 3.813155392135318e-26 -1.720689922696179e-28 
-7.455374588887786e-28 -1.016619333732835e-28 -1.017033588950658e-28 2.740107358020665e-27 -1.015422558910008e-28 
1.284410133936167e-28 -2.176723942508762e-28 -2.177610920215768e-28 2.63409789956951e-28 -2.213281053847899e-28 
-3.197485581681468e-29 -1.62724616858548e-29 -1.62790924270195e-29 7.07662989344984e-28 -1.656415514715302e-29 
-3.059622962559061e-27 -6.624923272004913e-29 -4.300701636495613e-29 1.104379915054672e-26 -5.521338703873637e-29 
-1.004684199923074e-31 -2.720887538804668e-30 -2.721985875174575e-30 5.884463819477445e-30 -2.720916894884929e-30 
-1.299451955667977e-30 -2.736464095459947e-30 -2.737558667723698e-30 1.149225373514171e-29 -2.739623792132192e-30 
-1.299451955667977e-30 -2.736464095459947e-30 -2.737558667723698e-30 1.149225373514171e-29 -2.739623792132192e-30 
-1.299451955667977e-30 -2.736464095459947e-30 -2.737558667723698e-30 1.149225373514171e-29 -2.739623792132192e-30 
-1.299451955667977e-30 -2.736464095459947e-30 -2.737558667723698e-30 1.149225373514171e-29 -2.739623792132192e-30 
-1.299451955667977e-30 -2.736464095459947e-30 -2.737558667723698e-30 1.149225373514171e-29 -2.739623792132192e-30 
-1.299451955667977e-30 -2.736464095459947e-30 -2.737558667723698e-30 1.149225373514171e-29 -2.739623792132192e-30 
-1.299451955667977e-30 -2.736464095459947e-30 -2.737558667723698e-30 1.149225373514171e-29 -2.739623792132192e-30 
3.195425091887205e-31 -2.781505986580468e-30 -2.78262903283477e-30 5.73054677752387e-30 -2.781535632226936e-30 
-1.981462576446424e-28 -1.001497111112417e-24 -1.001905181833776e-24 -7.828632832660801e-29 -1.000318138293742e-24 
1.322318552434788e-27 -1.316324387074231e-24 -1.316860750814243e-24 -1.847596972738567e-32 -1.31477479623407e-24 
2.899048816084492e-28 -6.225530920103604e-25 -6.228067403459088e-25 2.327748615050176e-30 -6.218202160284571e-25 
2.899048816084492e-28 -6.225530920103604e-25 -6.228067403459088e-25 2.327748615050176e-30 -6.218202160284571e-25 
2.899048816084492e-28 -6.225530920103604e-25 -6.228067403459088e-25 2.327748615050176e-30 -6.218202160284571e-25 
-8.459575682999701e-28 -1.271050266495498e-28 -1.2715681977576e-28 2.773748041353879e-27 -1.269553972941912e-28 
2.899048816084492e-28 -6.225530920103604e-25 -6.228067403459088e-25 2.327748615050176e-30 -6.218202160284571e-25 
2.899048816084492e-28 -6.225530920103604e-25 -6.228067403459088e-25 2.327748615050176e-30 -6.218202160284571e-25 
-1.662004177270023e-29 -4.054057492361001e-29 -4.055709441222366e-29 1.434435391275513e-28 -4.04928501384363e-29 
3.119448429555945e-29 -3.23317518909241e-29 -2.923540551709887e-29 -3.176148444613961e-29 -3.231221575250736e-29 
-2.001215886204917e-25 -2.63918280132675e-26 -3.628717046811632e-25 2.199944500320543e-26 -1.784237384241302e-25 
1.548505098032148e-29 -1.586401976943583e-29 -1.587048408695488e-29 -1.471233228294316e-29 -1.584534448086544e-29 
2.270385760331067e-28 -2.498065920027427e-28 -2.461404931230919e-28 -1.87116347844039e-28 -2.607258754571333e-28 
1.09753900181666e-28 -4.778660796672005e-29 -4.164640182352636e-28 8.043659476106072e-28 -4.144105343538882e-28 
1.315274206347805e-28 -3.58717984863865e-28 -4.595113529583869e-28 6.590400275876626e-28 -4.59289870066498e-28 
1.315274206347805e-28 -3.58717984863865e-28 -4.595113529583869e-28 6.590400275876626e-28 -4.59289870066498e-28 
1.09753900181666e-28 -4.778660796672005e-29 -4.164640182352636e-28 8.043659476106072e-28 -4.144105343538882e-28 
1.09753900181666e-28 -4.778660796672005e-29 -4.164640182352636e-28 8.043659476106072e-28 -4.144105343538882e-28 
1.705537573807714e-30 -2.287726412643542e-30 -2.443730480079507e-30 7.00198790117714e-31 -2.25494648314482e-30 
1.872760113610099e-30 -2.617989287882052e-30 -2.619056070560962e-30 -6.198434046874324e-31 -2.614907544391492e-30 
-4.818374455842324e-26 -3.036587156938102e-28 -3.037787042778597e-28 1.414590323131566e-25 -3.032975047114262e-28 
-4.818374455842324e-26 -3.036587156938102e-28 -3.037787042778597e-28 1.414590323131566e-25 -3.032975047114262e-28 
-4.818374455842324e-26 -3.036587156938102e-28 -3.037787042778597e-28 1.414590323131566e-25 -3.032975047114262e-28 
-4.818374455842324e-26 -3.036587156938102e-28 -3.037787042778597e-28 1.414590323131566e-25 -3.032975047114262e-28 
-4.818374455842324e-26 -3.036587156938102e-28 -3.037787042778597e-28 1.414590323131566e-25 -3.032975047114262e-28 
3.149904683020378e-29 -3.137841365721259e-29 -3.139140680387195e-29 -3.14751142936266e-29 -3.134156270130858e-29 
3.149904683020378e-29 -3.137841365721259e-29 -3.139140680387195e-29 -3.14751142936266e-29 -3.134156270130858e-29 
-4.667472469935728e-28 9.434128986091021e-28 -4.311369139161117e-27 -2.5945180369219e-27 2.685408886778664e-29 
-4.667472469935728e-28 9.434128986091021e-28 -4.311369139161117e-27 -2.5945180369219e-27 2.685408886778664e-29 
-6.670940147410518e-28 2.213377620532151e-27 -4.343982209240491e-27 -2.846969934126758e-27 -2.655404537143369e-28 
-3.704939318324393e-28 5.515385005459604e-28 -2.775662470581498e-27 -1.895454993926424e-27 2.782563930680706e-30 
-4.312544221699451e-29 1.601784823001844e-28 -1.747965656444979e-27 -9.015810280365258e-28 1.338498857584052e-28 
-6.916496534632123e-29 -1.460184202151194e-29 -1.315575936521063e-27 -1.136544381159114e-27 -3.367785832363875e-29 
-1.883703836116976e-28 2.312303658356114e-28 -2.076869105035475e-27 -1.159061368109349e-27 1.206398619531885e-28 
-6.916496534632123e-29 -1.460184202151194e-29 -1.315575936521063e-27 -1.136544381159114e-27 -3.367785832363875e-29 
-9.629004959176665e-29 1.616456600177698e-28 -2.593724977492568e-27 -8.453362453451718e-28 1.841109209077297e-29 
2.088257637307924e-29 -6.122430685325899e-29 -6.060016526673279e-29 -6.304094256030115e-29 3.151278653764871e-28 
3.66139950553984e-29 -5.620373686648061e-29 -5.603772904921822e-29 -5.709787247747907e-29 1.163944257670446e-28 
2.088257637307924e-29 -6.122430685325899e-29 -6.060016526673279e-29 -6.304094256030115e-29 3.151278653764871e-28 
2.088257637307924e-29 -6.122430685325899e-29 -6.060016526673279e-29 -6.304094256030115e-29 3.151278653764871e-28 
3.641931375370059e-28 -4.18353111193787e-28 -4.185235830101131e-28 -4.198230116304648e-28 -6.380466192565514e-29 
2.088257637307924e-29 -6.122430685325899e-29 -6.060016526673279e-29 -6.304094256030115e-29 3.151278653764871e-28 
6.361581214567671e-30 -6.331775178075245e-27 -6.334354736839704e-27 -6.354022109898448e-27 7.755526909234869e-28 
-4.421380909694989e-26 -1.10125071994627e-28 -1.101699458446979e-28 -1.105120006219899e-28 1.920005780100174e-25 
3.781862936595435e-29 -5.12406522684559e-29 -5.121264059680937e-29 -5.147531539049148e-29 2.521883504190979e-29 
-2.674239294768372e-24 -1.037325241164461e-28 -1.037747932846985e-28 -1.040969922830261e-28 2.050170355763962e-23 
1.659143289283055e-30 -1.654615478943569e-30 -1.655289692246689e-30 -1.660429033268983e-30 -1.642231534052053e-30 
4.052286755175018e-28 -3.641062296534263e-25 -3.642384043987223e-25 -3.653855291342176e-25 5.194876086182966e-29 
-1.25217118562145e-27 -1.297748167356376e-28 -1.261840806074375e-28 -9.344197650991399e-28 1.425206745511415e-26 
-1.263230753925838e-27 -1.33719928142071e-28 -1.323771302678746e-28 -5.85582623861104e-28 1.118056606078626e-26 
1.507543023698654e-28 -2.981477958657049e-25 -2.982613039991291e-25 -2.991953464180497e-25 -1.270620516279038e-28 
4.135964647600734e-28 -4.388387605104584e-25 -4.390008310000964e-25 -4.403806364914499e-25 -4.152670026547901e-28 
1.035486078406336e-28 -1.037218776944642e-28 -1.037550419148654e-28 -1.040910195374087e-28 -1.001241034981319e-28 
-3.688300846438199e-27 -3.107759174060855e-30 -3.072500221870599e-30 -3.082039707634923e-30 2.305164702589263e-26 
2.786664542399674e-29 -3.179183545156325e-29 -3.180479007868167e-29 -3.19035372740542e-29 -1.012293864345892e-29 
6.445489652281865e-29 -9.320126268033321e-29 -9.323924017869787e-29 -9.352872885850178e-29 9.654976411870474e-29 
-1.988283612991957e-27 -2.541513167736651e-27 -7.091823794753827e-28 -4.536681433471293e-27 -5.556113400809185e-28 
-6.999423415718766e-28 -2.00066308105144e-28 -2.001397026939783e-28 -2.00761094389897e-28 4.67486940155171e-27 
-3.888006885471594e-28 -2.569319019345169e-27 -1.286289208018754e-27 -5.85806507580217e-27 2.181504352930561e-25 
-2.273309672755583e-26 -2.165855165853102e-28 -2.082303949410627e-28 -2.08876908227157e-28 1.92915870654985e-25 
3.808376425635169e-31 -3.798275369570047e-31 -3.799823102895125e-31 -3.811620754487894e-31 -3.766720641977605e-31 
-1.100249398452027e-29 -1.950538434200343e-29 -1.951333245170543e-29 -1.957391725062169e-29 9.000291614867813e-29 
2.790015312355913e-28 -4.46849647135189e-28 -4.470317308411267e-28 -4.484196703592062e-28 3.661472700899822e-28 
-3.064260153568555e-30 -2.807199080180911e-30 -2.808342964686957e-30 -2.817062280854043e-30 2.806797088932582e-29 
5.196684721733307e-29 -5.187542249159192e-29 -5.22011199967032e-29 -5.214983091858889e-29 -5.169096897785544e-29 
1.834267040274736e-30 -1.825753876300196e-27 -1.826497154203979e-27 -1.832168731753262e-27 8.340665630458482e-26 
-3.959221696519805e-27 -1.672667651437016e-27 -1.671603178753502e-27 -7.615008404412944e-27 7.390133196836298e-26 
-2.659991624050281e-41 -4.42549491793844e-26 -4.425581709379172e-26 -4.441042034596995e-26 1.866114748385758e-39 
-1.467387224412661e-25 -1.111214975158901e-28 -1.11166777640554e-28 -1.115119271220279e-28 5.749346216810914e-25 
-2.385654283654723e-27 -1.034579672382392e-28 -1.035001245996313e-28 -1.038214707394471e-28 2.779759463775866e-26 
7.93879305906052e-30 -7.992936833756788e-30 -7.996193811550762e-30 -8.032122838642114e-30 -7.36809445862499e-30 
-3.959221696519805e-27 -1.672667651437016e-27 -1.671603178753502e-27 -7.615008404412944e-27 7.390133196836298e-26 
6.193989406711079e-40 -6.16981746846281e-40 -6.172331565645161e-40 -6.191495356708958e-40 -6.162554295362551e-40 
