solver_type L2R_L2LOSS_SVC_DUAL
nr_class 10
label 1 2 3 4 5 6 7 8 9 10
nr_feature 900
bias 1
w
-0.0002628437397797022 0.0001620844646908162 0.001125395891026782 -0.0001134684802378953 0.0001711308936655361 -0.0002752296127822575 3.026827792562996e-05 0.0003969532364774613 0.0006980879996203301 -0.001154173236075777 
0.0001194163566332137 -0.0001976751797778333 0.0004478664160189304 0.001343203647328367 0.0006537959962510531 -0.0007695183751697429 0.0007215392537586633 0.0005406408248268791 -0.000826684002607402 0.000151682351937255 
9.427474308090368e-05 2.363395161832455e-05 -0.000452508695412348 0.0004589012703959389 0.0005911606336795724 -0.0002836849483863831 -0.000139502836240976 -0.0006766431184987413 -0.0006514543195100679 0.000740741558858653 
-0.001385094752150747 -6.665916105398834e-05 0.0001475613919486818 0.001143330243136326 -3.225185495656129e-05 0.0004357910285502065 0.0004436723310187386 -0.0003953921693179884 -0.0004024447804835183 0.0006407093808919712 
-0.001598275223228407 -6.344469613814185e-05 0.0003029314506079783 -0.0005625279721159743 -5.063529447628557e-05 -0.0003604550024262284 0.0004993066323766576 -6.412601950968628e-05 0.0007677044235366757 0.0001954134741117782 
-0.0009780420029686532 0.0005283835276333107 -2.031670917263038e-09 0.0006216284624074625 0.0001029793904847928 -0.0008802887184305185 0.000935865571801049 -0.0007539910307918118 0.0008471706726854504 8.936240831383497e-06 
-0.0008439491512810853 -0.0003256546106738086 0.0002277034015603915 0.001799723926263766 -0.0006824527244450537 -0.001183061497657075 -7.098474665952629e-06 0.0008741775646723623 -8.091931960365448e-05 0.0005598005321440579 
-0.0001102989500029429 -0.0007392251991473064 0.0007365960460362689 0.0003584506410758528 -0.0001223043015895971 -0.0008489486950747398 0.0002198166213083542 -8.296743733407239e-05 -0.0003754690869115862 -9.228212508262047e-05 
-0.002101132626254209 0.0001211153352795349 0.0005698448007671373 0.0006714495982778908 -0.0002974224680551216 -0.0004573955283097363 7.080101164741284e-05 -0.0006339891163214935 0.002271657584222672 6.24522945654784e-05 
-0.0001122060189634213 -0.0003009093484052595 0.000549569402236396 -0.0004803427686068746 0.0006321639703866275 0.001333456188483172 -5.032090907746059e-05 0.0006183014083647167 -0.000229549923128817 3.704227781111319e-05 
3.160022192721526e-05 0.0003377009753066145 -0.0006690090900389779 0.0003211343187890244 0.0004188499619525671 -0.0005246576766153484 -0.0004526001681905556 -0.001207492074210131 0.00168689148952441 0.00101812090301071 
-0.001126079850562554 0.0002226462631085484 0.0001785721290415274 0.001148563662063541 7.214692922566593e-05 -0.0004411306761472272 0.0001363476190166213 -0.000856862142869472 -0.0002280330776056994 0.0001563307131043825 
0.0003586254927207553 0.0001256742021188364 0.0004349994640005112 -0.0002221980422618768 0.001095728082371014 0.000486538407551498 -0.001018484475576942 0.0009156970518693309 2.465833756518832e-05 7.745496273530628e-05 
0.0007186387023838506 -0.0005818893238743212 2.345767826926718e-05 -0.001196940455692711 0.0009352919374493469 0.001224199921393386 0.000605649151943014 0.0001733579186671768 -0.0008974539192019885 -0.0005890846531377819 
0.0006241108081127604 0.0002686297819038421 -0.001225503486718654 8.227519695601102e-05 0.0002402324788031468 0.001576508804527714 0.0003228727041859913 -0.0002977317322841863 -0.0003299920749251212 -0.0009931909190499116 
0.0002628539316349881 5.176305624505719e-06 -0.0005956355557049139 0.0005123067501594992 0.000323032707752646 0.0002634058573131757 -0.0009137608184572339 0.0002057656391745542 -0.0009112738538795549 -0.0004965977974269338 
-0.001508954426131183 1.420110087202575e-05 -0.0001071132367377281 -0.0006197163669098648 -0.0001113146011312913 0.0009546989492241162 2.359400629823476e-05 0.001193708108664402 0.000552618772027619 -0.001003056928855281 
2.753791124995588e-05 -9.530253299149979e-05 0.0003831413435341491 0.000133689843115146 0.0008860774681533889 0.0006017732984449208 -0.0008271967581715144 -0.0005065041354934169 -0.0002984916021507182 0.0005031746821888964 
-0.00300905669199549 0.0009447780371303189 0.0003350442485030654 0.0009454221636821106 1.623184139961033e-05 0.0003396935862339442 0.0003084216562054773 -0.002081760708420284 0.001777609376245605 0.0005050087367290816 
-0.001522428491996585 -0.0002835908815892015 -0.0006538989005674215 0.0002403703146913182 -0.0005192589606772373 -0.0001276775410241992 0.001414134244033786 0.001677874853075582 -0.0001997155362868376 -0.0004429334675684507 
-0.0006092823425647171 -0.0004537982835158694 -0.0001661863724122618 0.0006060583439259048 0.0006147040613971835 0.0005268977924798257 -0.0003105506816385293 3.925655138757369e-05 0.0003159143280916418 0.0008285907596192292 
0.0009607540105106995 0.000477459150784121 -0.002115856975718502 -4.371731081768596e-05 0.0003516101918781502 0.002302954228230591 -0.0001768244100381193 -0.0003949673369161041 -0.001905614603968387 0.0006236503691235932 
-0.0007285347896318865 -0.0001133545787608254 0.0009578307790547192 0.0004922434735417976 -0.0001377173351774536 0.0002116118415718262 0.0002576059725355797 0.0008225658101833782 -0.000222131908537246 -0.0007768899112770462 
-0.0002329539839460998 -0.0001469437280769136 -0.001876075601821622 0.001976996969632034 -0.0002555092671916337 -0.0004948476147626409 0.0003241034159064385 0.0003642664536488904 -0.0004992495892795819 0.0003533291604423686 
-0.0007658309348900958 0.0005796246962822573 0.0003460902364575143 0.0002189476558581693 -7.563986645520438e-05 0.0005052075911777504 -0.0001857201942245258 -4.615585591387226e-05 0.0006215258356109258 -0.0004727682616236309 
-0.0004360551300884654 -0.0003270023119789303 -0.000127080079668942 0.0003610823225260217 0.0008225423128066383 0.0001586366950204569 0.0004913070440277765 0.000209453679745728 0.0005652453892069069 -0.0008007163155026736 
-0.0008210237089003892 -0.0004604324242929932 0.0006049504479303769 -4.342539147865726e-05 0.001174210594572138 0.001247719868337687 -0.0002660230330358275 0.0003833432249918494 -0.000535938108424473 -0.000165447931180553 
0.0003990914585672895 -3.315587100779919e-05 -0.0009408543225093714 0.001306442552964722 0.0005615379300136505 -0.0004502118840477546 -0.0006367411717570632 -0.0002706993258701903 -0.0005872755323354292 -0.0001320538600897159 
-6.02823514448179e-05 4.365881924231813e-05 0.001414605817819132 -0.0006389463881193911 0.0003603593671306126 -0.0002051845647520378 -0.0007127420898898259 6.677128680797421e-05 -0.0002803892144205418 9.070765250432622e-05 
-0.001269807630737255 -3.551649696659123e-05 0.0005566574287341851 -0.001181860950659494 2.876410065737332e-05 0.0009902619665439468 -0.001083840189367347 0.0009067480214795928 0.00133461842455313 -0.0006724955508914485 
-0.0008538272497863815 -0.0005324535430691737 0.001566465478096653 -4.706296169877741e-05 0.001090630007210666 -0.0001019043809048 0.0005491344190694052 -0.0009419045198196785 0.0008105938982777671 0.0008990415606427517 
-0.0005312768200609447 1.08228311298248e-05 -0.001217673105987882 0.0001227100723851528 0.0002744432472357964 0.0009103980212720723 0.0003954415747093812 -0.0004459370212246555 0.001062848802509837 0.0001869762193516431 
0.001731039434075152 0.0003015829395137974 -0.001383985979322396 0.000506300645299023 -0.0002529975381794785 0.000780222948162866 -0.001176129799346375 -0.0006322542460173211 -0.0007478256347993779 -7.100816178862266e-05 
-0.001465490889185032 0.0002281296477024428 -0.0004537491748314013 -1.378489562648316e-05 0.001234046827644431 -5.103387397984407e-05 -0.000252666625297289 -5.801701904795397e-05 -0.0005156250930887557 -0.0001877112156267376 
-0.00127031720012949 -0.0005020115648060169 0.0008174597060420459 0.00120115616639668 1.476221501902269e-05 -0.0009040236432660686 0.0009080106056006164 0.0005782604060502806 0.0001252706844374611 0.0002004551519166755 
-0.001267533673159359 -0.0002400921580171931 -0.0002732074972550406 0.0007917035263463443 0.0003061257091651142 -0.0003962239875258458 -0.0005464034066379224 -0.0002109770374763611 -0.0009590191099413582 0.001060424267403262 
-0.0007552078533489097 -0.0001628565114626755 -0.0002811373587375018 0.000139418373666342 0.0002632322866164868 0.0001771903512567101 0.0002283598750666604 -0.0006867483792910819 0.0001667218845754065 0.0001379428757170951 
-0.0002873639254365153 -0.0002792544239546796 0.001184146904074871 -0.0003318281729127885 0.0007468057389768874 0.0006049348851837734 -0.0002698515526598293 0.000398017636057612 0.0003267179103323827 0.0002326380858598837 
-0.001150872897671423 -0.0002922348747714715 0.0016116817098228 -3.794952258983678e-05 0.001807105066894664 -0.0001519554842450899 -0.000406963985540136 0.0009793879666363532 -0.0009636181786763467 0.0003576114386867594 
0.0002893847772357387 0.0003307367840110453 0.001348819993911281 -0.0007779504779308244 0.0004321030105450266 0.0006430497497816332 0.0001738567363689408 -0.0003443935803128233 7.376756482263091e-05 -0.001645470322564628 
-0.0004530283583624353 0.000330438493687801 3.221906603418189e-05 -0.0008980301259136522 0.0002111872413074709 0.0001778211272315038 0.0006806488426243742 0.0003265028810003083 -2.520050759486353e-05 -0.001711796651277695 
-0.0006757536713342873 -0.0002274291896924204 0.001496837889049724 -0.0004803646947964953 -0.0001071523747400471 0.001066672587498009 -0.0005237588215308608 0.0003326951087562281 6.17851442964466e-07 -0.0008293774114876094 
-0.0005530568058901786 -0.000516229859912515 0.000255810312419026 -0.000449946285611701 0.0005797764624672049 0.0007978841592926411 -0.001084225856212162 -6.368109650559928e-05 8.010287877822516e-05 0.0004985916172282897 
-0.001086434684560483 0.0004365449124730931 -0.0002524610628174988 -0.000193774969136096 -0.00116077888937226 0.0007913972905613056 0.0007481520958860958 0.001085928647088737 -3.122630325795105e-06 0.0004554601889641241 
-0.001757826513634854 -3.547663473321373e-05 0.0001049149704010065 0.0003682565452319344 0.0003888124550488295 0.0002131941816766106 0.0002344523371870723 0.000446689644839269 2.026180666815576e-05 0.0009112209188110496 
-2.023852093794337e-05 -0.0003069519387241273 -0.000340511630632115 -0.0009157810439639953 0.001471699925349994 0.0006214393001549044 -0.0009553646792811087 0.0003476912541301152 0.000426990578746142 -4.283588700579976e-05 
-0.0002817940578158011 0.0003713628231547611 0.0007641520788543928 0.0004753934358327937 -0.0004906240703156416 0.0003833577268400986 -0.0004386253794571556 0.0001942684652203625 7.578058685797106e-05 0.0001650699257319854 
0.0002674464483099403 0.0006763346956042229 -0.0001141442464430592 0.000304732604865314 -0.0005847651426063269 -0.0001747354037613542 -0.0004986235870920922 0.0001595800488766499 0.0008083472988289875 -0.0006077829083178745 
0.0003492405271106446 0.0006069575254081433 -1.650286836416436e-05 -0.0003852670861022583 -0.0008111606905349723 0.0005859906767342604 0.001333292230623261 -0.0002100020785953314 -0.0006188746082169529 -0.001451970200970169 
-0.0006173850925264732 -0.0002656079006446407 3.255777378124399e-05 2.050280349060576e-05 0.0008311697469801196 -0.0009841279282885172 0.0001002490971533711 -0.0009429093884660132 -0.0008266113116165925 0.0002045312831441094 
-0.0003481822906536048 -0.0001034438323175487 0.0009254530614280508 0.0006287153977399368 9.101116938266164e-05 0.0001453136316421641 -0.0002152815585147119 -0.0003353932771390822 -0.0008798468703610554 0.001008834143792032 
-0.001151184281765607 0.0003229806621152828 -0.001034432373328828 -0.0003552171746895756 0.0003970419609863492 0.0009422295486742027 -1.781407130615098e-05 0.0004900893025577979 -1.897450993725451e-05 -0.0002498420258813907 
-0.0007531445613740281 -8.78407352803406e-05 0.000488784606446425 -0.0004592673919716081 0.000934019218888519 0.0002061597605766773 -0.0001772442681337001 0.0006818919982509579 0.0002608864783729638 -0.000533533604739436 
-0.001248180320331488 0.0002638417507814807 0.0006185158394856549 0.0004303258077704894 -0.0001580659850228512 0.0009926988506818992 -0.001524676941187751 -0.00171283728772157 0.0004970074945518722 0.000971279220390739 
-0.0003571453495853266 -0.0005724136001603659 0.001810169665509805 -0.0002170170196626028 0.00103491492785079 -0.0002319981791662392 0.000832398975353482 -0.0002034521348762671 0.0004293502909647554 -0.0007310679663985841 
-0.001290472674335479 0.0004992181930994491 0.001788261810927243 5.213906645744969e-05 0.0003642773079418275 -0.00134415855592418 0.000232903312282689 0.001396532167549391 -0.001203241487373277 -0.001070706967798932 
-0.0009247155727018173 0.0005719404277673128 0.0007251979880893596 -0.0003812284659648604 -0.0003881437077675594 0.0007878815338597356 0.0001309713198826162 -0.000924949739253516 -0.0002042909021758401 1.591534695020497e-06 
-0.001747689371573136 0.0001217235147469382 0.0004742203714048319 0.0004429593640258799 0.0005676152799002086 0.0006491306323873947 0.001557745546035545 0.0002859395238208636 0.001390937777165394 -0.0005154016476381505 
-0.0003853221964011905 -0.0001832905471307928 -0.0009008607357337741 -0.0001549971697618827 2.948715170210648e-05 0.00175935002256623 -0.0002989506385591696 -0.001167370716807722 0.001198977428809267 0.0006643418712013262 
-0.001288597990554036 -0.0005086917981075301 -0.0008289423761111937 0.0007765534399691073 0.000520099275410242 0.001052674370829512 -0.0006434339169868271 0.000990262050100792 0.0001951437878415556 -0.0002000322862220444 
0.0001619407676234393 0.0006754988134845869 -0.001126547978305329 0.0007419206656982259 -0.000722824645701382 0.0004588579608777905 -0.000825342395255431 -9.382932612268414e-05 -0.0003455010154371081 -0.0005646952140985046 
-0.0006895667316007135 7.3821068900158e-05 0.0002898071081584961 0.0005471673161517312 0.0003878032335753135 -0.0003091472076079289 0.0003274403302244009 0.0002225193403722541 0.000820336625926937 4.307763596609588e-05 
-0.002044198127939962 0.0001620489686654481 0.0004500297041889357 -0.001059321098125868 -3.990686813830873e-05 0.001019810728976258 0.0002775505315824833 -0.001225770658770886 0.0003485129203852807 -0.000592507137557767 
-0.00102220553288497 0.0001636255785264965 0.001599865859135574 -0.001156752310655641 0.0001714056682538704 8.754210412431893e-05 0.0007212206468138935 -0.001210557184681319 0.0007457818746671689 0.000174540017978763 
-0.0006622800745711161 -7.069831223033468e-06 0.000426519916604563 0.0002832763211275439 0.001144509683295966 -0.000563856145218492 9.976552011926168e-05 0.000747694463334089 0.0003943998317598371 -0.000587269687322975 
0.0006556701602969509 0.0006461807130740393 -0.0005913074393104798 0.0003825459734948924 0.0009517829985419416 0.0005431218010832245 -0.001063095797355825 0.0006675938689790338 -0.00057506844750083 -0.0009049186649154346 
-0.0005318460884749792 -8.937170173755935e-05 0.0002095919701185084 -5.358455109736629e-05 -0.0001577389006817939 0.00087590171222726 0.000424376364119523 0.000644800945818231 -0.0003466838572422645 0.0006815804934718842 
0.0002208723824995173 -0.0004848622501163563 -0.0001806394780897701 -0.0005811158911819353 -5.339136179950277e-05 0.0008692465511393066 -0.001207447937986778 -0.0006728252745989309 -2.79966548335973e-05 0.001637684018894426 
0.0005966466378613299 0.0001783983239284377 -0.0008060399628244437 -0.0008899375153748206 -0.0004280242362759175 0.002081872206922772 -0.0008364824565505485 0.0002812556886371151 0.0004005754436874062 0.0001015617232129425 
6.549777793999304e-05 -0.0001306659943171841 -0.0006562927699069619 -3.879048913540341e-05 0.0008387100598272316 -0.000343118548809358 0.0001785343942539259 -0.001647774050058458 0.0007820615860363813 -0.0004738930459634853 
-0.0003434707853906035 -0.000235673754893818 0.0002513702268997549 0.0001367215823664645 0.0003856862329803473 -7.951170387918162e-05 0.0001947147838961686 -0.0009211584999980351 0.0009848811943352033 0.0007817311026671622 
-1.750039533904673e-05 5.802273813655393e-05 0.0006604317907996222 -0.0001693316437829208 0.0007739024979877571 -0.0002214490334042042 3.233740153626595e-05 0.0006049875080254453 -0.000377874688071814 0.0007135925152885819 
-0.0009597363506817882 -0.0006367581655077948 0.001318050817571882 0.0001598745742062725 0.0006146903309571815 -0.0006240482784559199 0.0002794590614688743 -0.0008141124469766836 0.0009172277258540374 0.0004691966842004337 
-0.001550810217062185 -0.000536407850710565 0.001539420770758775 -0.0008561570477336191 -0.0001337435373636163 -0.0007882174927524091 0.00171016026932655 0.0003754437440852771 0.0001973743218104324 0.00128818863117669 
0.0003624007945769209 -0.000758228655171161 -0.00176213440894807 -4.514258416867996e-05 0.0001212136517883739 0.002343769896717652 0.001561855190896171 -0.002556272246856205 0.0002757271416934868 0.0002756495823707775 
5.443692527140465e-05 -0.000348178901682589 -0.0007477537042662485 0.001018803904525944 0.000178417119384513 -0.0005078656143900105 0.0003118256603685428 0.0004912734781917999 -0.0003069973683453749 -0.0006898655160973059 
0.0006891334972672266 0.0001728735050368035 -0.0001935610295464884 -0.0005759470440910199 -7.828642009353245e-05 -0.000740550980763748 -0.0007510442794022512 -0.00106058586472908 -0.0003789618326210248 -0.0006640325329320325 
-0.001137687502164594 0.0002583896563185732 0.002254790710762409 0.0006196499078886354 -0.0001432738716693048 -0.000625593381112868 -0.001000423136668133 0.0008577678474179745 -0.0001044088590483819 -0.0002509845361816005 
-0.0003046730188139135 -8.704968263498792e-05 0.001369802319178706 -0.001282608253552348 0.0006050041306085906 0.000679445499115873 -0.0002289807791501593 0.0003814827963481347 0.000344414501920081 -0.0005374378376084012 
0.0005555576416175849 0.0003578485149429074 -0.001289597681491878 -0.0004630121187784364 -8.760794530663344e-05 0.0005187505280575942 -0.0002777099747084923 -0.0009509175592653389 0.0008317261144609503 -0.0003111832759645245 
-0.0001406637973284104 -0.000590509669578437 0.0009632014794888046 -0.001431830219885483 -6.918566305185681e-05 0.0001366950348101875 0.0001477121012395985 -0.001227904454221431 -0.001054745254748644 0.00107432823833706 
-0.001374368244106934 -0.0005351240699982231 0.00183951364149567 -0.0007599340602625932 -0.0005194855445838182 -0.0006875166333359232 2.811542845548863e-05 -0.0002939154702216902 0.0007613989938401999 0.0002479680543497792 
0.0003960005690328047 0.0002045265555764458 -0.0001807442683885629 -0.0002640911810167211 0.001297374500670035 -6.40913645358059e-05 -0.0009313680101771646 -0.0007251617668866116 -0.0002608588039714222 -0.0002965099430457708 
0.0004382767050837626 4.101574607807042e-05 0.0003980815129037376 8.648549007967768e-05 0.00113213150550993 -0.0004951093202241364 -0.0003570287977759329 -2.053482731503275e-05 -0.0004409730599910774 0.0004915373746565921 
-0.000241637498026658 0.0007746434004864324 -6.733610296804003e-05 0.0006469607846246965 0.000226173874343483 9.318470839673975e-05 0.000532574859331173 -0.001164753307840605 4.090824153733488e-05 -0.0002489706861706483 
-0.00264089399794002 -0.0001925269015550036 0.001885507895372991 -0.000734490545408523 7.830219360187388e-05 -0.0008329252659018831 0.0005993983358552011 -0.0002784463111879568 0.0009381603874313761 0.0002046027702078939 
-0.0009283580790765358 -0.000445390936115785 0.0008872940790474658 0.0001142316765377543 0.0008982357599352708 -0.0002636992187793245 0.0009084775545729097 -0.0004644180412153944 6.03528893734054e-05 6.094738663701428e-06 
-0.002295905583543849 0.0004959177610791575 -0.0003723878272546171 0.0003951554407528647 -8.694010241700126e-05 0.001097606384008386 -0.001267718089724256 -0.000958584599193372 0.002735196003796691 -0.0006982872889685546 
-0.0004176652860705521 0.000243662266213945 0.0008681608023898655 0.0005959180395044112 -0.0003681797910270715 7.856916635479047e-05 -0.0004041939263793983 -0.0002136676872158227 -0.0008785073701215676 0.001337367848081953 
-0.001469884372402189 -0.0001822013309449559 0.0009222600705528359 -0.002414518471784043 0.0002927607544532181 0.001240425678022304 -0.0002586883500046695 0.0009932185972059565 -0.0003819793589553002 -0.0008051027472012933 
0.0009286136748752683 -0.001043082321096004 0.0001378980489821962 -0.0001058187792755247 0.0007914876501405097 1.397907104417986e-05 0.0005027313889668706 -0.001340582394479662 0.000420980793810538 0.0009817160969710697 
-0.001487186118788911 -0.0001582926677994454 0.001812529243672106 -0.0006762972023147073 0.0006496505413654355 2.379922786390582e-05 0.0004894556085800357 -0.000331522570922223 0.0009490879511741605 0.0001538785934439229 
-0.0006946721635822475 -0.0002821276546159668 0.0009381046736723489 -0.001086896186132156 0.001336462169257606 0.000511237955121099 6.052631138615108e-07 -0.0003067534360024752 -0.0003413976277812242 -0.001010572554190779 
-0.001178185777864831 0.0002282287079413775 0.000902451853571139 0.0001676275412376452 -0.0001293080423165983 -0.001121444266536793 0.001748315325243237 0.001037725825198067 5.89831836510651e-05 -0.0001378797779246402 
0.000200369051451973 7.341912274776457e-05 -0.0001958125298538241 0.0006892901620384064 0.0001251531351830172 -0.000769895267578089 0.0007029594213319853 -0.002162022594875366 -7.085773467492231e-05 0.0004920307532686979 
0.0005331880550304466 -0.001067774756067148 -8.963343729210101e-05 -0.0005305015421315552 -0.0004289968858024251 0.000534802014815447 -0.0003080184049674583 -0.0002662630741251517 0.0007265805585237115 0.0006245877052354911 
0.001033393289931667 0.0001179172288568167 -0.001884439280283322 -0.000427705975650887 0.0008522423505068308 0.0003214082685448328 -0.0002276141699792762 0.0003958178585292318 -0.0005387976010294293 -0.0001945154616303953 
-0.0002412718610573701 -0.0001137980166130546 -0.0006004542394602473 0.0001932015978734045 2.920756607031598e-05 -0.0006830645526195271 0.0003428172445822143 0.000498102607917254 0.001375566691303318 -0.0001226595992541405 
0.001465023656578916 -0.0006488553726206476 -0.0001584318418180794 -0.0004731608126905547 0.001069924170570929 1.022616088716546e-05 0.0002501172829533542 -0.0001364805309797139 -0.0002346729454239162 0.0008327775404568596 
0.0005210726334433045 0.0001369896314583116 0.0001673305689888672 0.0001506224045016889 1.099928787140248e-05 -0.0003428123438555829 0.0005932104610806177 -0.000622756183848702 -6.474722565188281e-06 -0.0008369045416956645 
-0.0008399275042093807 6.590245184104869e-05 -0.0009922318090546175 0.0001725590858385598 0.0003260685541460944 0.0006090831980171175 0.0008287814588861464 6.162352102248291e-05 0.001086615806681197 -0.0006878512176454243 
0.0008713789124005974 0.0006065161222221655 -0.0002064069890568064 0.0004116362976665002 0.00098343499516643 -0.0001665967393270518 0.0002938147202944952 6.303452543716801e-05 0.0001634201827995377 -0.001041578911595286 
0.0004602284573650496 -0.0001115121166533275 8.787258534076186e-05 -0.0002226786261893058 0.0003828740540115423 0.0002453889277311812 -0.0006463925047436647 -0.0001072060679976774 0.0009428702618476051 -0.0006663666463468092 
0.001017510906576699 7.711344971243421e-05 -0.0008447110615079274 -0.0007350563340685249 0.001291278870057966 0.0002022313470687691 -0.0005840421072204571 0.0006770501034897184 -0.0004313360267854686 0.000684986404118671 
0.0009013076164038855 0.0008813715579611614 -0.0003621854964995253 -4.230443881562479e-05 -3.641512152041219e-05 0.0005429240330126566 0.000564793548217352 7.071595864299997e-05 -0.0003514192755030471 -0.000787939836142429 
0.0002111374897774501 0.0009530484356325597 0.0001309525338045251 0.0005090438411906633 0.0002387933235622161 -8.58321548801834e-05 -0.001091726756264016 -0.0006791819702418083 0.0007245235576920147 -0.001208391614135445 
0.0005199743855999793 -0.0005985492912140626 0.0004442767958480009 0.0001485550762001361 0.0003002899431205104 -0.0001600345106112033 0.0005373474805994465 0.001802872986733829 0.001200984684770722 0.001728080696161225 
-0.0001857728459426127 0.0002668841214191989 -0.0001187896856988057 0.0003659349858581908 0.00094067848132975 3.800205742948636e-05 6.096938997339463e-05 -0.0004832731525547164 0.0005792120871882862 -0.001454282559475206 
0.0003349036968663483 0.0004614190532744559 -0.00149238772228712 -0.0003054287761995353 -0.0001919232424276569 0.0004590574405720482 0.001558501909526257 -0.0001519362896360123 -0.0007798820241764667 -0.0004546320689903398 
0.0002355981863465706 0.0006209763801514542 0.0003605102153818792 -0.0004046334427495633 9.733159844334667e-05 -0.0003125605921584934 0.0007963933321440519 0.0001762273968381201 -0.0003214145772285497 -0.0002304418144913588 
-0.0007409270625098374 -0.0005529197919919358 -0.000527850405357525 0.000156619608907865 1.862760002443828e-05 -8.068003334979051e-05 0.001416196293148049 -0.001054216209963089 -0.0007078700601004838 0.001456900067991078 
-0.0008558331661169352 0.0005064136015180258 7.889761346849532e-05 0.0005648070009828107 0.0009090328092913213 -4.090990299930026e-05 -0.0007504519547319215 7.543847665157967e-06 0.0005243906381060207 -0.0003906118120304893 
4.129681905301158e-05 -0.000264524920289025 0.00146126588676321 -0.0008395846913701441 0.0002732738671277646 -0.0001939157170718682 9.193646559955707e-05 -0.000108016727302362 0.0004008039840314015 -0.0001036327271387901 
-0.001274326978962229 0.0001093857493852751 -0.0009985162862320431 0.0008798409134745959 0.0003911052259527502 -0.0004084313888799242 -0.0007193454292296893 0.001025318848596883 0.0007194287606585477 0.0005467763504193178 
0.0009130564545861877 5.973696003107056e-05 0.001313203083798804 -0.0008842165868931856 -7.31154378618395e-05 9.217975238469059e-05 -0.0002042680635639143 -0.0005351037208206076 -0.000798710549306833 9.136619482748671e-05 
-0.001623983956786514 0.001193922417302966 -0.0004129734234798131 0.0005527978342119719 -0.0001663722307008842 0.0003656012487469981 -0.0005287183876807698 -0.0008545436424717282 0.0002864089950427393 0.001657236509877934 
-0.0002591349849781492 0.000344401923983807 -0.0002017352718993649 -0.0005978392994055661 0.0002936050642905594 0.0009595764415488657 -3.307739090424504e-05 0.0006315255551227207 -0.0009255540551435263 -0.001823846373701123 
-0.0008420875967578692 -0.0001075725128572637 0.001131271151888599 -0.0001287873786856389 0.0001915733851986418 -0.0006096332356763863 0.0002890589288984053 8.460038651302997e-05 -8.27866414920877e-05 -0.0006382224735321628 
-0.0005843467645723575 -8.401138556335721e-05 -0.0006929398847424404 -0.0002803209243995084 0.0004909096338409583 -0.0004270728896115818 0.001539417002001198 -0.001447190337438992 0.001063467380192236 0.00181221907498163 
0.002095291116609208 0.0008752711034216979 -0.0007155145785107299 -0.0003225055212958948 -0.001116301172057712 0.0009347363522942517 0.000747660345804956 -0.0003397989499781633 0.0005091717232624257 0.0003986940477540071 
-0.0002464288970519018 0.0002044725474382191 -0.0009646038876736071 -0.000382961845083605 0.0001124736576219371 0.0004419065155741991 2.588932993076807e-05 0.0003189144699004816 -0.0004455391517845773 -0.001124573849964263 
-0.000376559029421513 0.0002115330041353587 0.0003772154737932995 0.0001050946678732986 -0.0001539499134619746 0.0003518032990337309 -0.000811685874711652 0.0006735317276972319 -0.0001071552832177246 -0.001127136653684189 
-0.0007037158482172324 0.0005376289313228018 -0.0002252267988175977 0.0001950551598581513 0.0002160041253422438 -0.0006506309487014901 0.0004532265741784776 0.0001865506176869862 0.0001482867577372733 0.0002955184094769999 
0.0007937518117695163 9.198591546199135e-05 -0.001657352781149718 0.0007653722780000136 0.0003201387927365048 -0.001338211344048788 -0.0004170801487145016 -0.002007734949107081 0.0006368337487391973 0.0002717037416196985 
-0.0001418556235487088 0.0004212270542560723 -0.0001334487448592803 -0.0008587452597731095 2.920675055048122e-05 0.001028641553690725 0.0005541901956248588 -0.0008369607398674819 -0.0001767407808267758 0.0002382352888791625 
0.001099914293663296 -0.0001476478811184085 -0.000550048622252419 -0.0004885869210725209 -3.343249569791542e-05 6.712499662863485e-05 0.0003800790600678423 -1.996779274601061e-06 -1.761206984681019e-06 -0.0009651639807290729 
0.0002723211706317725 -0.0002984598140909641 -0.0002524264026564117 0.0004758379225699992 0.0007118685578470123 -0.0003495627358880402 -9.391650400088955e-05 -0.0009761393645379916 0.000248626532032956 0.0002842063468178969 
0.0001074547474459379 0.0007498548106011896 0.0009093578068427294 0.0006336910895247637 0.0006068645079222659 0.0008608701903397411 -0.0004659613846797042 -0.0003517165258805936 -0.0008454930515982086 -0.0002478933301844898 
-0.001114458759806336 -0.000163987488263779 0.00060374951157461 -0.0007456614107240146 0.0009499649518776609 -0.0005383757960152293 -0.0003585155466168787 7.681310733054303e-06 -0.001146015438553088 -7.778885887597202e-05 
-6.141117757669846e-05 6.968417924369518e-05 5.175607792404685e-05 1.711954657437215e-05 -0.0002867722389627674 -0.0005177831993764514 -0.0006821032092861177 5.789853833290895e-05 0.0006771781155641772 -0.0004120915482995736 
0.0002533361121064762 0.0005038260118442849 0.0004166024110677309 -0.0006168400284433319 0.0004064858409464164 0.0005081312721399106 0.002084082571988315 -3.373660945922249e-05 -0.0006327888350379899 -0.0006531186109426889 
0.0005133773746671659 3.13342814671534e-06 7.802207723437473e-05 -0.0002664615825837461 -0.0001590983796673981 -0.0003324329020692531 -0.0006462584624752301 0.000180377784003396 0.001044997532052497 -0.0003491520713527442 
1.787173997820484e-05 0.0003272676918049124 0.0004981163499417586 0.0004548106656623244 0.0002001216493862506 -0.0002542510053048124 -0.0003762685768429052 -0.0003095494685869239 0.0005270383907160975 -0.0009564417518797842 
-0.0008636366081918993 0.0001063728040590925 0.0004560139848124846 -0.0005899851395952718 -0.0001535944354587093 -0.0001684398723166567 -0.0001567258604152722 0.001326368714113311 0.001072167957553493 -0.0004835363073132061 
0.0007771736340998366 -0.0004658104166461595 -0.0007714975469686928 -0.001085961176865929 0.0002728118912136411 -0.0004427172612232473 0.001663160669275946 0.001256457172728143 -0.001968664426331353 0.0004558019780502202 
-0.0007350107060142447 -0.0001217515988795442 -0.0001572028838414167 -0.0005723316363371318 0.0003564616919609117 8.627486009164421e-05 0.0001126381801030667 5.254571203069286e-05 0.0009343374849635366 -0.0006674591892557664 
0.001426143171471805 -0.0002705004552169422 -0.0005649709814390694 4.488613457199241e-05 0.0003315013223843572 7.625890412822449e-05 0.0003624583071984166 0.0003786545310540246 -0.001460312102587466 -5.306958295107892e-05 
-0.001691395551781214 8.784298968816686e-05 -0.0001541248031063859 -0.000152494652815398 0.000260360855340977 -0.001171203011941123 0.0001330492197302904 -0.001157715002226424 0.0005658918571723597 0.001485875856601711 
0.001196831905395658 9.328378760879602e-05 2.300693763973513e-05 0.0001879180301960613 -2.910498936310374e-05 0.0001745932472170087 -3.751730758570821e-05 0.001559211285182913 -0.001423987405422544 -2.49829146699398e-05 
-0.0002854196549350476 -9.464557825756371e-05 0.0003164558726850148 -0.001438691143954393 -0.0001670356449367924 -0.0007880296586110132 0.001524923538723864 0.001408280565979687 -0.0004990808028157181 0.0006372123778188823 
0.0005579717938505201 0.0001344582216655536 0.0002558371181903831 -0.0006568884104081838 0.0002597953993710748 0.0002539713924008692 0.001120899738935421 -0.001007553786521214 -0.0002641388734629091 0.0005976887646839635 
-0.0004857932261105032 0.0005501813047807041 -0.0004379068245885093 -0.0002375038574111346 -0.0001402738943867787 -0.0007747490982004169 -0.0004710876201880159 -0.0002842951844047102 0.0001378077267033838 -0.0002264753744446541 
0.0006361701615028057 0.0001398663463964825 -0.000342980160028801 0.0002987855306983672 8.974996626749844e-06 -5.213489589618214e-05 0.0003030310048512856 0.0002220850245389431 -0.001497516235636419 0.001074090458663556 
-0.0003769023139165539 0.0004030568492905566 0.0007239221086118967 -0.0002552634037707848 -8.843454529826005e-05 -0.0001457825948717269 0.000300070455674681 0.0003161859876199612 7.54593219622237e-05 0.0003509601212372973 
-0.0007416894534857697 4.999709301893042e-05 -0.0004965954806747075 -0.0004407679413258522 -0.0001140267142212947 -0.0006425435535128301 0.0001461394867636339 0.0002285671174510982 0.001258555828687531 0.0007023200622102629 
-0.0003286889707140247 -2.577311693978187e-05 0.0002407756096136657 0.0009847073429598372 -3.762590096138757e-05 -0.0009160261387447339 -7.756521147031859e-05 3.039939637704229e-05 0.001017384373177034 0.0007825276861525449 
0.0003554425847535146 0.0006820978605182334 -0.0005896608316400492 -0.0004933289937338482 -0.000399137122001133 0.0002207799620989837 0.00136921155761552 -0.0007288961369677855 0.000747042804494556 -0.001298840204820218 
0.0009127229545165041 -0.000350226058127379 0.0007257332386202361 -0.0008628132977619852 0.000610783615700799 -5.827250943483382e-06 -0.0003802729452850993 -0.0002170995619003494 -0.001448116197211461 0.0001695760942578981 
-0.001074430727871399 0.0004294260338438784 -0.0002011177931684579 9.928529361289185e-05 0.000571918409821663 -0.0006993488105045474 -0.0004637922665923561 -0.0002407729715651474 0.0009435381250187898 -0.000607662263916791 
0.0002042858733728489 -9.543081411098201e-05 -0.001312130906810484 -0.000160659884413869 0.000602507454557901 1.51480075810844e-05 0.0006967926497340415 -0.001174893027546147 -0.0002134977641095931 -0.000959872584078751 
0.0005673376428012021 -7.040003108172773e-05 -0.0009373624374430945 0.0008337493661914693 -0.0005377990563890688 -0.0002846814352817941 0.0007453930036817739 0.0001943911791460715 0.001436032400247218 -0.001798875241089597 
0.0002275761806640995 0.0006950523736000284 -0.000118180676355443 0.0001150846198294657 0.0001570304963991458 0.000182348882312427 -0.0005180446026407095 0.002070678146448763 0.002102221987236299 -0.0006726146079618887 
0.0007167281409615277 -0.0004267670850772384 -0.0009414596498844996 -0.0002795311970913579 -0.0001447059323875924 -0.000633455925378468 8.610127997184186e-05 -0.0005156976941196828 7.82124427085996e-05 0.0003294938910404194 
-0.0004945180635170674 6.158157974571123e-05 0.0001421208204602387 -0.000353827798684522 0.0006317112792019154 8.066655993323892e-05 -0.0001385450994610026 -0.001852336955656326 -0.0009263286041014642 0.0004483432121855783 
0.0002231182268874866 0.0006211617473481241 0.0003603476918205886 -0.0006238975713544419 0.0005498198185011671 -0.0005987425347585289 -0.0001390384454547723 6.882134055934761e-05 2.16699431810639e-05 -0.0001233632414397446 
0.0002616961831353658 0.0002645391415662485 -0.0007205381108606597 0.0005045611762831451 0.0008698053820563817 -5.049287968411792e-05 -0.001228740008077828 -0.000148259617176587 0.001547875334356755 0.001108748835047945 
0.0002726231329828814 -0.0003943379841827229 0.0003083801261568863 -0.0002986315569896507 -0.0004211194584519851 0.0002765163870767934 0.001919593739166025 0.0007077516701280021 0.0002360986936872429 -0.0007110231473027781 
9.100573749008354e-06 0.0001192388244743455 0.0002318177898430803 -0.0008621528264473569 0.001421017582673032 0.0003494335726893994 -3.164288921145987e-05 8.660939091954916e-05 -0.0005898632481636325 0.0008656076258523024 
-0.0007160185494613629 0.0005124318735771929 0.0006040920342231419 -0.001059074528173714 0.0009323659267837794 -0.0006000377612652925 0.0004127861659600674 -0.0004455421650877957 0.001642152262577726 0.0007618826144081461 
0.0003862455788264827 0.0006265191322140489 -0.0006791148522099137 -1.108590199374003e-05 0.0003750680756892971 -0.000488910116120024 5.515884350009799e-05 -0.0006376568230741395 0.0001159060555026425 0.0007931177963245592 
0.0002104836646542448 0.0001010267206002291 -0.0002633950880872383 8.651308310835619e-05 -0.0003421950362080333 0.0001837014398590971 -0.0005070479068040776 -0.0004105912177111002 0.0007754824880488924 -0.0006890883042202185 
0.001674244178083576 -0.0001464684830677442 0.0004732689323715391 0.0003809364701581334 3.336800548570729e-05 -0.0008772474222380263 0.0008822589242103911 0.0005983376335705254 -0.001880121429509772 0.00105061085166779 
0.0004756755731590008 0.0003374934592569069 0.0002533841540217536 -0.0001358105321922 0.0008731271197283864 -0.0009156461705616744 -0.0006682279085089065 -0.000206580000418774 -0.0001369483258680629 3.526693205413314e-05 
0.0003533511686856119 0.000108895291985042 0.00127962764050119 -0.000727627649614816 0.0002553724946027401 -0.00180273725128323 0.0008393352156528429 0.0008379021088389924 -0.001117073280189075 0.0003414172418204636 
1.493283527970569e-05 0.0006610983524047786 -9.051539936095446e-06 -0.0004076431882358383 0.0003037238127647758 -0.0002004044450005138 -0.0005965938904918599 0.0005363140050912367 0.001712503040373961 -0.0009834968122841058 
9.061411187592658e-05 0.0005018953280219037 8.233158014266352e-06 7.692747937376988e-05 0.0002125930821186277 0.0001911149388085985 0.0008604112705084304 -0.0005220033825986232 0.001117541662190267 0.0006044439636751212 
0.0002481220380611597 0.001309702318552547 0.0001342168087954587 -0.0002559042222445873 0.0001320052213946542 -0.001036217366334689 8.600819091556319e-05 0.0007539553237382918 0.001569612724807564 -0.0003429342345069424 
0.0003919240083856634 0.0009599637256944399 -0.000154958911630375 -0.000737872051237662 9.989618356133403e-05 -8.768433102968749e-05 0.000955610867057317 0.00118390951391204 -0.0003565291791749322 0.000445590598928335 
9.618541368221698e-05 0.0005470840443367355 9.014519023664236e-05 -0.0005586549029928188 0.0006505388662410659 0.0007915545705012184 -0.001368328087157452 -0.0007879662121542798 -0.000840898850368653 0.0002417281465985339 
-0.0008987408842336737 0.0003131620946489635 -0.0007550523674705781 0.0008810251184455961 1.675491461695758e-05 -0.0005014430675183892 0.000108328707060646 -0.0006363198100633171 7.87989366211949e-08 0.0002999161961152116 
-0.0001264182381456666 -0.0004569258977301419 -0.002093370405019576 0.0002260490123283971 0.0004399137773071858 0.000737169702248222 0.0006369203216236486 -0.000169282091383695 -9.486516659182384e-05 0.0001259583715421074 
0.0004386086786442331 -0.001013144516725758 -1.369233416662797e-05 0.0008161145343793501 0.0007367229767825279 -0.00108510720142067 -0.0007063229617312909 -5.973576272298031e-06 -0.0009319492397671303 0.0007466803701398421 
0.0007028101730388053 -0.0005497813636380899 -6.187797709127919e-05 -0.0007459415408854625 0.0005503448412054343 -1.187700560451823e-05 -0.0001219148665146423 0.0003696673389310959 -4.703406278530746e-05 -8.275212417752079e-05 
-8.375173610857854e-05 0.0003099217688871849 -0.0007365241313783048 0.0007088288540756666 3.200113400327061e-05 -0.0005076686770236531 0.000874132663741045 0.0002810269642843276 -0.0006891969452510878 0.001378009705339428 
-0.0007448243765071105 0.0001002747351679863 0.0003703557087951634 0.0003914707458628341 0.0008369348559020995 2.359867542390015e-05 -0.0004391224684630815 -0.0010309819539815 0.0003570597168451245 0.0002263031833640403 
0.0009773771037129254 0.0002999865547258263 0.0007347482090411663 0.0005524438531695254 0.0004136908363538292 -0.0003682719194167224 -0.0004491549272733932 -0.0005646853925525591 -0.0008206400752694765 0.0006099754284122261 
0.0007978726904940635 0.0001864514817705004 -0.001631800833045394 0.0005622009404144659 -0.000350586243805648 0.0001048473291597344 0.0009418241667908979 -0.0009503450277014692 0.0004440512896612323 -0.0006753055834356457 
-0.0004008422673540423 -0.0003030718525863251 0.0006237514695350276 0.0009440110589895509 0.0008882931828620061 -0.0008959286901084098 0.000305109235277679 0.000759016208742758 0.0003380320718329651 -0.0009918715128083614 
-1.470761644230717e-05 0.0004420696679333824 -0.0002893673202453611 0.0002158907364512421 0.000355445931610614 -0.000138296901337452 0.001201910459808632 -0.0008566992792291367 -0.0001685698998771038 -0.0006469605887584817 
-0.001200091860005887 -0.0004161836981911726 0.0009564163486845174 -0.000490722543370149 0.0001813707458582952 -0.000654970017826102 0.0002342915584632514 -0.0008404160524947515 0.0005876091737863533 -0.0001366583762565024 
0.001605850226358428 -0.0006081647322480364 -0.002065388921706826 -0.0007670166794039151 0.0002242156736167017 0.001618768088626343 -0.0001161242380677312 -0.0002217388750912893 -0.0007487538479762795 -0.0006351305129943364 
0.001078240062087425 -7.177396794442823e-05 0.002209176853086213 -0.0002995106995517054 -0.0002892442963641903 0.0002383536102892411 -0.0001355209129497529 -0.001679821301515723 0.000228626203561228 0.0005137997270259575 
-0.0008762877295497276 0.0001887171703299798 -0.0003804381754874781 -0.0003376611264598901 -0.0004097556308128319 -0.001504437121692047 -0.0004904187697837569 -0.001561247648726589 0.000469304493739641 0.0004455754457234652 
0.001363714957673194 -0.0008040338960944064 -0.001115622028298231 -0.0004529020303127401 0.0001724375095177482 0.0003985353451349465 0.0002705445556258343 -0.0006058449257459546 -0.00131194360775641 0.0001228709955508296 
2.301038039985993e-05 0.0007293866390352521 -0.000194536629857595 -0.0004986781331358912 -4.682343260315587e-06 0.0002752434896216039 -0.0003126013749641421 -0.0008467457442904448 0.000882019830954559 -0.0006826084168279748 
0.002316405352712855 -0.0009410022854273154 -0.002586999742291645 0.0009898781739444593 -0.0004194101610918369 0.0012464139023684 0.0004409913926919331 3.797148093301347e-05 -0.0007673561785516979 -0.0002821971739488925 
0.0006017598142035377 -0.0004306147590913348 0.0003094334580657345 0.001111605634696206 -0.0002829510773366669 -0.001113927278892796 -0.0004827860636354 -0.0006373491673616597 -0.0007610793157143992 9.873325844549095e-05 
0.0005271669722938107 0.000261056677707657 -0.001356970253351847 1.435716419844817e-05 -0.0005639507512742981 -0.000319081583441775 0.0003750373899153295 0.0006787177920583316 0.0009178508189965238 0.0001645774035954664 
-0.0005752840136537619 -0.0003804202135812972 0.0001273508795585888 -0.001531511142113675 -1.169590462674469e-05 0.001001546346267318 0.001703509994918059 0.0006371815897149968 0.0007009230720090216 0.0005450146769479617 
-0.0004295264729591108 0.00022885178854578 -0.000535856999118216 0.001819817746773111 -0.0001015621670588823 -0.00118735524822202 -0.001816936338933262 -0.0001599722155257532 0.0004318479503033696 -0.0003040964283571297 
0.0004814053204347158 0.0003533189033366057 0.0005336151555140075 -0.0009056490701327275 0.0001382265988178517 0.0005430003009560701 4.363723172109438e-05 0.001610279880568 -0.0004529210751510028 0.001246542291865538 
4.296425789717783e-05 -0.0003012817948887804 -0.001654298390634919 -0.001159408365700195 -0.0003047629573454639 0.001409625305615438 -0.00049057853460179 -0.0009651035771195986 0.002171399892184282 6.189229289586027e-05 
0.0001430822860266636 0.000150150159494856 0.0008116981265617066 -0.0001200448451274961 -0.0007584915649616338 0.00085002981749884 -4.428143319830348e-06 0.0001789874990995413 -0.0001595344768577044 -0.0001786052628143976 
-0.0006969541117632341 0.0009806180519300858 0.0003165183918604535 1.07345958368074e-05 0.0005723774130609927 0.002003308087119414 -0.0009901990224565171 -0.0002349821584570659 -0.001302037345767716 -0.0001713671504561995 
0.001129759905650509 -0.0001788669662402394 -0.0009029429928772159 -0.0006075863646443746 0.0001430266760897726 -0.000235299471078096 0.0006052618501217611 -0.0002178369763277266 -0.002486316412062841 0.00140850646777834 
0.002004079894143734 0.0003852940962468124 0.0005365358370027147 -0.0002933968696487555 -0.0003499191209557285 -0.0002789218248830887 -0.0005203937305776725 -0.0005152451977165116 -0.0004971352624682884 -0.001807500611209221 
0.0009162369881467336 -9.131242019587034e-05 0.0003057230712705467 -0.0004459794390431304 -0.0004576606953891851 -0.00166643885733465 -0.0007611803311277536 -0.001436679593851558 -0.0003705302931299873 0.001174616736306738 
0.000460189679222613 0.000369980047773934 0.001490699718671606 -0.0007086393288809081 -0.000558613536989029 0.0007643942856807107 0.0004723262799673934 -0.0002920379159598885 -0.0008349387547123917 0.0004221124364850034 
-0.001004156407686207 0.0003443771509805198 -0.0001367144609369125 -0.0002647998693828711 0.0005181982763532286 -2.867143956861306e-05 -5.473794379869914e-05 0.001565992881285632 -0.0008906272543668183 0.0007421215798452646 
0.001026522289937131 -0.0005925236853524157 -0.0002060199944325257 0.0009593321539263642 -6.43950769030952e-05 0.0001844060169331502 -0.0001751071072800965 0.0001525638191165331 -0.00066363216596549 -4.743933322184271e-06 
-0.001311651665988109 -0.0001316986995768513 -0.0001983029424464622 -0.0006541863456959394 -0.001191104640878744 0.0003948684109579008 0.001511225202912956 0.0001046726319164345 -0.0001120627446388147 -0.0006618391581124473 
0.0003480481373399405 -0.0007904574154166094 0.0003464217236856145 0.001073091398024307 -0.001266646434026117 -9.118531533072388e-05 -0.001032647494987142 -0.0003302143971592602 0.002020692786829759 1.389857799428595e-05 
-9.776121741530188e-06 4.511164625422247e-05 0.0001286319862055423 -0.0004417431860482802 -0.0004055570969130029 -0.0004674046844506585 -0.0007047821723289041 0.001007106092584635 0.0002968348894105432 0.00118042571296469 
0.0003008954731362184 9.368249163350099e-05 -0.0003742398176843339 -0.0006445539964054716 -0.001050401042849756 -0.0008734753556164295 -0.000604323781768446 0.001349094734799434 0.002507244521769525 -0.00123526501949654 
0.002925630461191292 0.0001189645026621652 0.0008965524837259882 0.002132403890970568 -0.0002424781820549653 -0.001041591770742554 -0.002004617063443052 -0.0007284105861730738 -0.001833285768455682 -0.0007539588899926438 
0.0007805802204220875 -0.0006818163260607878 -0.002276043742656243 -9.684854361834957e-05 -0.0002877630777331601 0.001196310925163887 0.001007601531009206 -0.0004885695114072077 0.002113686218700968 0.0007864558457198763 
0.0004853443646751679 -0.0002377088960220381 0.002995242242253415 -0.000541456999607196 -0.0002930895603697889 -0.0008559807750915661 -0.001119964296894908 0.001520871959980538 -0.0003529403485966287 -0.001918902159777795 
-0.001699381898984973 3.252052916734107e-05 -0.0005128356228273185 -0.0001600010404100812 -0.0002772539336332211 0.0009574498005931357 0.001071684993066294 -0.0006560978834280188 -9.500353185607838e-05 0.0006282870903032568 
0.001669409665521726 5.299425423855448e-05 -0.0001165481352482301 -0.001385201504138388 -0.000267489822695815 0.0003408063322925622 -0.0005360762409396576 0.001788015986687079 0.000183624007885095 0.000738121551773878 
0.0008793928397806398 -0.0003854327051531458 -0.0008403578148852604 -0.0004218162211020654 -0.0002812775218199548 -0.0001048179731617108 9.363644374017129e-06 -0.0003392694696534177 -0.001045388612114461 -0.0003644819729183883 
-7.467135190238576e-05 -0.0003134780762935264 -0.001020745567843817 0.001124537003704982 -0.0004292465980986333 -2.428061356799691e-05 0.0007490285905877808 -0.0002892468777825114 -5.57413100653874e-06 -0.0007125850749725531 
-0.0003475608497150912 0.0004833647879170143 -0.002054157881055883 -0.0002531600667161516 -0.0004195190177771625 0.001123813574128613 2.005541692707307e-05 -0.00100401981237085 0.0004632636846722006 -0.0005232303463862695 
0.0009622256190524568 0.0004929957019689121 0.0002446088485964008 0.001210447506217101 -0.0004558419338108043 0.0003982331042912501 -0.0001857251651417166 -0.0003586006734307033 -0.0008992955792473619 -0.001479956171984217 
-8.075929897469995e-05 0.0001236471566087483 -0.001584102968397516 0.0003115917978678177 -0.0005228134811904584 0.0003540027344989517 0.0002530063579386901 0.001221789334884158 0.0001410817593203541 -0.0008695251348977857 
-0.0005366581525758904 -0.0004279060792045218 0.0007990703697279027 -0.0005462012085893742 0.0008337602311129725 -0.0005838187419528457 -0.001459598897192358 -0.0008730889493228123 0.0004090547522790499 0.0005717040357193031 
-0.0002129680121117142 -0.0001999578825678597 -0.0018380977720367 1.872885205861113e-05 0.0001609614839394624 0.001217232572406976 -0.0003455288084461909 0.0001375707293311544 0.001110471847332975 -0.0005304858168040218 
-0.001943239564337501 -0.001050995107181283 0.0005138540115068896 0.0001895433384407443 0.0004832121951091894 -0.0003153426975155165 0.000375994278632357 -0.0001610795707368883 0.001352805713926616 0.0009995141591640278 
0.001424577692569265 0.0003549632446617683 -0.0002154624112239683 -0.0003509673570567869 0.0003658821954813401 0.0004562003925260776 -0.0009146490451188032 -0.0003069564249496048 -0.001141089484051608 -0.000767759562961821 
-0.0006075628142285051 -0.0001697987435220654 0.0006512259780276102 0.0005232262160140688 0.0001992834257316352 0.0003534333797509641 -0.0004467481737824047 -0.00174931101249542 0.001499594241903699 0.0009039362412152968 
0.0009042930567098312 -0.0007349716352386791 -0.001478210061357891 0.0005537723483926669 0.0006080426407131552 0.0008456055567570502 5.724522241661635e-05 0.0003096002290010367 -0.0004743159567279655 -0.001117014232906234 
-0.0003804812108824513 -0.0001236058244809459 -0.001431227272394861 -0.001618911572933567 -0.0001098761402905183 0.0009578643758638345 -0.001729889706449196 -0.001438264459912551 0.00020388529134018 0.001255659881414777 
-0.0009018126571004509 -0.0003577753090274224 -0.0004509955846385509 -0.001184128793588973 -0.0003187174021838343 0.001109002857006546 0.0007660993232846245 0.002260646680914822 -0.0002788669889978636 0.001422954781548095 
-0.00129623564274959 -0.0008161901705575639 0.0003712642279411825 0.0004042434960681013 0.0004393361058619754 0.0001723422006178707 -0.0001644864331276807 0.001746116851492605 0.001070854242977395 0.001987335349513912 
0.0006580637164139519 2.268895695765731e-05 -0.002267939307996018 -0.0007213230164804809 -0.001647773774795062 0.001138913224021369 -0.001746596423722566 0.002430761985688022 -0.0001989340121328644 0.0006182734247201364 
0.001283246657624605 -0.0003530565206774892 -0.001591556991830718 0.0008766031618607278 -0.000361644998434537 0.001288544726913608 0.000542847038396872 0.002204316767683783 -0.0009225403559931657 -0.001609200878062331 
0.001357358834794088 -0.0006752417865272463 0.0007974534105885176 -0.002853961885840097 0.0008159395033535482 -0.0002637749577148527 0.0003087161909839498 0.002378050275676735 -0.000327236475914478 -0.001066512698725252 
0.0008468985726159817 -0.0001743690391528386 -0.0005791022589025314 2.96808596665334e-05 0.0007765160116005293 9.042836748243873e-06 -1.586192243961479e-05 -0.001007305113601989 -0.0001512259429510443 -0.001835901471063523 
0.0001552221170860758 -0.0001520436776915833 0.0007927191857336041 -2.382328143371378e-05 -0.00012448582377884 0.0007068845124325511 -0.0008883985093393054 -0.001458321162955869 0.0003079344757227521 0.001223872173048896 
-0.0001841864293971355 0.000480966437578822 0.0008919669174044221 -0.001503551248050191 -0.0001553259237079183 0.001257022323170331 0.0005162725128175587 -0.0001738112264130826 -0.0007089489878081547 -0.0004450895127005181 
0.0002463919907632182 -0.0005125227649163657 0.0009317025865212699 0.001524659803154461 0.000363743852239589 -0.0001575257551378106 0.0001520054495529828 -0.001534449124825899 -0.0001593561016442626 0.0005401312470827632 
-0.001336373954916611 0.0002986507340129417 9.080225348150863e-05 -0.0006390693623379213 0.0001908666132207339 0.0008149327786777523 0.001002297197654924 -0.0009779884262917948 0.001042421621695942 -0.001213040967375906 
-8.616476575900056e-05 -0.0005471116588560879 -0.0007027291961014255 0.0002219631599824807 -0.001661682302230642 0.0004827555445952314 0.0008856592173456056 -0.001914545307589011 0.0004682568068932458 0.0003563955045095686 
-2.495043329980823e-05 -0.0007497693711163152 0.001731006699099369 0.0004053517064103147 -0.001480244323958327 -0.0006001400195627792 0.0001365034002063261 -0.0008828922633443191 -0.0003349575000899219 -0.0003663728770663708 
-0.0002314122201182751 5.843105160027816e-05 -0.0002491713348224537 0.0007743434374093661 -2.973164752229786e-05 -0.000450042565802612 -7.513717251457914e-05 -0.0001581984227073012 -0.0001718752191222347 0.001061456496230835 
-0.0004740081297921079 -0.0001490754270772161 -0.00162669858487142 -0.000155702530355935 -0.0008634649206413125 0.001663735124177066 0.0003085034346833969 6.439051332347792e-05 0.0009023344690516315 0.001167462698223206 
0.001426639513016922 -0.0001518632411302841 -0.0002837814310618249 -0.001428973438666716 -0.0009094791890902576 0.0004798966569921575 4.482555509508782e-05 0.0009242254045774159 0.00100390349142725 0.0003471203619938823 
-0.0007917737692625923 -0.0005053548418166282 -0.001836996422291254 -0.001281906770252706 0.00068237551328876 -0.0004653257131934707 0.0003930479140411061 0.0004603061724028688 0.001218210899757316 0.0001334120787383715 
-0.001062332505956742 -0.0005364384929930224 5.152468396076642e-05 -0.0005187379590896623 -0.0008560248063620466 0.0005243905493935292 -0.000901729253642617 0.0003411155951874732 0.001956636502731775 0.000469823304606062 
-0.0001808659087471755 -0.0002865447816489863 -0.001876831388208186 0.001421366949896991 -0.001202873586475981 0.0001038756045254282 0.0006030876022253375 -0.001338584336658233 -0.0003006009673231804 0.0005388032354184996 
-0.001194576953639459 -0.0006247582306059887 0.0007284549665718322 -0.0008260924917359359 -0.000728599473343248 0.0004106879510551114 0.001946051209237544 -0.0001843459320005568 -0.000337673467525016 0.0006301724074568103 
-0.001395911136073207 -0.0003793534965635894 0.0007453386609743092 0.00153771882278503 0.0005466923406889446 -0.0004153136566478395 -0.001465169080076884 0.001551276840137974 9.856897483785022e-05 0.0005731822523679841 
-0.0004441186870892172 0.000382503889523464 -4.133689554970386e-06 -0.0006204770282124205 -0.0004162562904474104 0.0009668401474944802 0.0002391248872561277 0.001839307810260479 -0.001094873601500375 -0.001498996623377974 
0.00100488640527443 2.278438173829962e-05 0.0001499569284602039 0.0008096107885123835 -0.0005200376322045182 0.0006659747957567748 -0.001098052124575388 0.000169916772983252 -0.0004361814274987518 -0.0005999571176263905 
-0.000852870457706996 -0.000972040187206295 0.0004201185083924038 -0.00104818258315738 -0.0005336913646260961 0.00145639562427408 0.001377989464694043 0.0005509657196495158 0.002264263338795885 -0.001815111562867837 
0.0009269774617365163 -0.000794990245036373 0.0001640321384797061 0.0006534651894682176 -0.0005193605784841367 0.001372526077456922 6.413641674162473e-05 9.364470490276645e-05 -0.00253834563452814 0.0005224089627032589 
0.001430847827035989 -0.0002318483795701919 -0.0005304189952907888 0.00117534867017722 0.0005960479914884617 -0.000882228920317265 -0.000567534511699533 -0.001878101269997718 0.0008516302145902924 -0.0001371470326292622 
0.0004216569724294735 -0.0005075747321536491 -0.0004437772051368659 -0.0008690186375005435 -0.0009126005259377854 6.013132771452253e-05 -0.0001948560411021635 0.0003337609987278045 0.0009755322172002752 0.0005486758201513007 
-0.0001066552859688571 0.0004615257683274492 0.0005667114393621145 0.0005242903864558018 -0.001689463779735224 -0.0008848214293892685 0.0006124891911732838 -0.0002044377481238595 -0.0005537734351827105 -0.0002701584382326526 
-0.0005737169413342224 -0.0009968351508014188 -0.0023805145877063 -0.0003497162388479118 0.0005297990657942518 0.001270052094067107 -0.0002905689982287761 0.0017121781984685 2.475972182637204e-06 0.0008648679432081062 
0.0009384362056467889 -0.001124117866559127 -0.00221479814244742 0.0004163656248198809 0.0007849399179903175 0.0001514009368353752 -0.0007308135408699517 0.0006473724303302024 0.0001674387176662068 -0.001357615168452607 
0.0006028289596170159 -4.995437274165203e-05 0.001280945868851321 -0.0001706962580541286 5.397544817675435e-05 0.0009696419087700173 -0.0006500140901371474 0.0001406395787919583 -0.0004168179725847442 0.001126596860931282 
5.459308994554516e-05 0.0003455762786198665 0.00078169277258658 -0.001386795557010155 0.0003070192845113874 0.0008263492745281114 -0.000951697839774678 0.000496948925686521 -0.001379503035204529 0.0001847777481598339 
0.0005705220280414807 -0.0002972709996192151 0.0003923320999184831 0.001233161269153598 0.001157097694659772 0.001110572662856344 -0.001274376869421071 0.0004568883079603708 -0.001234177284757383 0.001132422069041095 
-0.0003115646027592354 -0.0002387116882462105 -0.0004795994376159492 -0.0004738342963028625 -0.0006258750092699021 0.000388194964123218 -0.0002148859123848915 0.0005593354205910593 -0.001237379070439559 0.001794666605575247 
0.0002988958202767948 0.0005739967266189924 -5.922596491424011e-05 0.0004812299019366894 0.0001035789073496927 0.0001404179105096288 -7.60335517084479e-05 0.0002021097423244365 -0.002095604961751794 -0.0007587625687861945 
-0.00144614044354072 0.0005375563802307641 0.001017810472309094 0.0004521369594695841 0.0001603140447000649 -0.0001982459824565359 0.0009002910322184793 -0.001039352637050339 -0.0005296871549132499 -1.942638635111352e-05 
0.0001953755301600741 0.0001179164289273576 0.0006663015644819382 -0.0005756699644082792 0.0002131585012006085 0.0006171953741012399 0.0002491859613535625 0.0005153647702524633 -0.001409786712085401 -0.0006241770020833645 
-0.0008554801086256113 -0.0006065118699664714 -0.0007674462725920641 0.0003710110492698172 0.0004334248460957004 0.001272268739141665 -0.0004497267842277199 0.0008627376793746216 0.000336039296897107 0.001490358416418596 
0.001503465959296778 -0.000373857255478466 -0.001611815846902413 0.001472796613874568 -0.0006736666828977389 0.0003503059756386809 -0.00144480512473974 0.0001621494205593503 -0.001003538771980359 -0.0004018044822794513 
-0.0008685287413119598 0.000150958704124781 0.0001725511745086123 -0.0001155491297947364 0.0003449170640808379 -0.0004382049344175605 0.0003372362196039853 0.0002069937669936146 -0.001090689149883104 -0.001013448260813101 
0.0003129073175653876 -0.0003669680607096302 -0.001201489479081275 0.001336670233838067 -0.0002100472162621468 -0.001276809108787918 -5.115352915672774e-05 0.0004537831822501621 -0.0008350699418237253 0.000972166775955069 
0.0007685834410320214 -0.0005088644277710921 -0.001285008734526936 -0.0005443938428294242 -0.0002459754471315374 0.0004861054615400119 -0.001937006409429322 -0.0003717360589473065 -0.0009439392906418987 0.0006604558016784792 
0.0007288144107755414 -0.0009994100021864152 -0.001515513913129941 0.0005051410698959187 0.001916608591465894 0.0005699855514636158 0.0006918124014880513 -0.001030693159077784 -3.339139000645697e-05 -0.0003900262579719021 
-0.0004265354507277445 -0.0001606313254131787 8.567420247564933e-05 -1.009874739610281e-05 -0.0008532308579937037 0.0005272728114874314 0.000372411907033623 0.0003464698259921908 0.000213351563544676 -0.0006140775929658246 
-0.0004604182129174464 -0.0004359797746908489 -0.0002156390467457815 0.0008291281571783431 -0.0007242980478320838 -0.002159912661618133 4.479619373556907e-05 -0.0007305852644135113 0.0002706034692975878 0.0008339051336733747 
0.001399533312892153 0.0001646182521020039 0.0006652718636285999 -0.0002781177774936221 -3.085024042017572e-05 -0.0004377341633613367 0.0004888283280714881 -6.514624125520036e-05 -0.001229250839134693 0.0004741188412546618 
-0.0001999777553693524 -0.0004900827190087792 -0.001095272309225487 -0.0001478269358242055 -0.0002167000177915237 -0.0004773413837403566 0.0008954652792511263 -0.00072915194996083 0.0007725931912433753 0.001578212748882913 
0.001616956254092892 -0.0004474353373342158 0.001122379640052449 -0.0002093847465497332 0.001000579798420821 -0.0003220740725024753 -0.001531851676420715 -5.06779700428311e-05 -0.0005117210356789328 -0.0004111096532072096 
4.971990038261445e-05 -0.0008693680405742513 0.0008892780627791614 0.0004174442959691551 -0.0003556831123152813 -0.0002962339078609938 0.000197203268703842 -0.00130072890829614 0.0005861236197851781 0.00203365278143959 
0.001682760358940684 -0.0007749280335968471 -0.002118140216828459 1.435205110920778e-05 -0.0005659658822422249 0.001245676689731384 -0.0003062514139642828 0.001180523564157384 0.0007894131698963654 -0.0003812263572338248 
0.00121962009971946 -0.0003625182546562577 0.001780525768592779 4.579060390252374e-05 0.0002802405577013248 0.000367512679546408 -0.0008724344934050409 -0.00116672095226345 -0.002126600956693009 -0.0002605751236175077 
0.0006795048312736941 0.0003698100439683487 0.0008081835631529836 -0.0009631012993000229 -0.0006772253436373768 -0.001163525597561554 -6.657584747541373e-05 0.0005699360066399585 0.0003091836062065671 0.0001169333302130551 
0.0002690630829391376 0.0005105809355235347 -0.000715718699028967 0.0001688077885765694 -0.001162940654806115 -0.0005308592692649509 0.0002129708603140871 0.0005384742284484612 0.0005311406392807365 0.0005457742855029398 
-0.0003123099140716318 -0.0001224626637118138 0.001867397362296053 9.541545649392418e-05 0.0001944325133570054 -0.001685279234298503 0.0007866965567968338 0.001295949043503029 -0.0005218448663411821 -0.001370575701168747 
-0.001050466946453123 0.0006353578734161245 0.00114614942577717 0.0001701717573817991 0.000286342517751909 -1.131050500008949e-05 -0.0009386353333710706 -5.731812056777828e-05 -0.002009072826302176 0.0007247441479155672 
-0.000625159514506448 0.0007798084747050837 0.000698916386413453 0.00080948571969018 0.0008365564178459624 -0.0004583463821203881 -0.000173538051806214 0.001237212371802688 -0.0004620523726060118 -0.001724140913567849 
-0.0001522953677114135 -0.0001439382076048295 0.001616351683092992 0.0008652807858354914 0.0001627624149256361 -0.001058577906855558 -0.0003207229901700365 0.0006576288449294475 -0.0001697063852409199 0.0005147198660161699 
-0.001285239332968989 0.0004840814170365286 -0.001898886118847886 0.001074451214019457 -0.0001246989897098079 6.451575159873964e-06 0.0004026610599683783 0.001269145851301784 0.0002638736278065841 0.0004902285096906282 
1.973445655281765e-05 0.001270883573323312 0.001759892771892118 0.0006509772704331283 -0.0006561836116164598 -0.001570575850847819 0.0006722680063589128 -5.171301313739074e-05 -0.0008167953002908914 -0.003286107532294984 
0.0009694214621897696 0.0002633734224030015 0.0009293416396061754 -7.937635907810619e-05 -0.001339195280852131 -0.001208978274273387 0.0007091773237875232 0.0008203194824189854 0.0007597322272431683 -0.001534511815471127 
8.118307695248788e-05 -0.0003684221427454455 -0.0001193954364501212 -0.0002924539368432566 -0.0001981805764853857 0.0006386311920586388 -0.0007919311346883172 0.00170607920702484 -4.916950317281763e-06 0.001171445177834141 
-0.000935688278430792 0.0003446358934159851 0.001486854608399922 0.0001660426054031169 8.339798000802256e-05 -0.0007246162032764717 -0.0009217321405777883 0.0004397038128089609 -0.0005609291331979788 0.0008860855375172049 
0.0007102015694595577 0.0003956696704860102 0.0009247862877942291 -1.863919473867694e-05 -0.0001536962868656849 -0.0003068750491640442 -2.229440661664412e-05 -0.0006107777202668637 -0.000108479050731716 0.0002109059506495463 
-0.0004479091327421856 -2.972011342363206e-05 -0.0005372616578273391 -1.189065058768723e-05 1.286204304273707e-05 0.0001885703579336994 -0.0002290448984616967 -0.0005503941899019547 0.00134002052826296 -0.0004767285695882692 
0.0001847500499746066 0.0001437537754593426 -0.0009282021359496045 -2.928346728348097e-05 -0.0009275191418740945 0.0001887776043454628 0.0002367178883196774 -0.0003979870828212152 -0.001322492781340855 0.002107546588837794 
-0.0004876549765530138 -0.0005444777244161545 -0.001840588189561205 0.001777823860340184 9.096546349222647e-05 -0.0006055432309316917 -0.000976001310459233 0.0003426338452594321 -4.814223495822958e-05 0.001863055140714962 
0.001587133856896226 0.0004836841871656143 -0.00278810145975011 -0.00123706141139309 0.001693625698398551 0.001296101709696117 -0.001766047302528006 0.000705343925505504 -0.0001178827644796471 -0.002430517391916402 
0.0006394754378154161 -0.0007440197197072948 6.926611472558131e-05 6.402543683413962e-05 -0.0003430285234139425 -0.0004232656085248052 -0.0005213749247412524 0.0001888142009042448 0.0004787150537666622 -0.0005244830762628344 
0.0009291396227391847 0.0009086085171786791 -0.0001973109755611403 0.001627525229488496 0.001729930247161981 -0.0001464956799143058 1.567722417702424e-05 0.000662740652566937 -0.00173252979644658 -0.0001803689926158674 
-0.0009231475084969919 0.0004131775379605007 -0.0007614019423037883 0.0006134588990122073 0.0006069686965481286 -0.0001911839018807835 0.000725496859128481 0.0008205811669227133 -4.751870421624128e-05 -0.0002417976817644002 
-0.001020592011212484 -0.0003263530276000553 -0.0001372993720653554 -7.097837517596443e-05 0.0004002854818401214 -0.0001498708063826113 0.0001835449503021717 -0.001385623407989781 0.0007893460609987097 0.0004706418543291628 
-0.00110563457329545 0.0001257929224517053 0.00117212869892952 0.0004672170693339025 -0.0001308512741443171 0.0002345444910460014 0.0001598365476942895 0.0002707278527800955 -0.0004709363877848343 0.000603659226107595 
0.0002549049984347753 -0.0001747073688437803 -0.001510102133712667 -0.0002305703435176539 -0.0001993799237653978 0.0004274393660096218 0.0005571491016197447 -0.0007699856671675869 -0.0006662817639999156 0.001307843143312598 
0.0003191813499307359 0.0005467727207851711 0.0005483882915274223 0.00182319066578933 -9.268194000672684e-05 -0.0009766106469126848 -0.0003933328092673633 0.001410466850849864 -0.001016248417290513 -0.002058845819833558 
0.0002666915798193562 4.793346345689191e-06 0.0003415865145916076 0.0007233618212775525 -0.000502333470702612 -7.432797718328944e-05 0.0005223007152760494 -0.0002833415157550015 -0.000207597820510167 0.001391371143223305 
-0.001024255642280181 0.0003367546610967894 0.0005991857640981228 0.0006212030144817596 0.0003647781988780305 0.0001686899989696549 0.0008819694410642342 -0.001025468539275724 -0.0008738241904266114 -0.0001509501716185813 
-0.001450511691328391 0.0008607779888805979 0.0003035689492731371 -0.0007857661136427865 -0.0003745410745538034 0.0002454726438764649 0.0003752607255541553 -0.0007661051168404434 -0.0001977717174704318 0.0006198906468821713 
0.0009506929906120654 -0.0006706737996069962 0.0004195588165570921 0.001062398575988255 -0.0006882496201568637 -0.001362455918538557 0.0007196205381231169 0.0009371675542204247 -0.001367597989656611 0.001449827175443402 
0.001591997556494759 -0.0009763683335445249 -0.0004116957317875301 0.0009885806637911221 0.001477732870010336 0.0004891045160885239 -0.0006343073322636967 0.001836100197805755 -0.00209397873456473 -0.00166049957348599 
-0.0001747558058512977 -0.0003482142963656167 0.0004744379661464817 0.001179909551475149 0.0002539794137450696 -0.0009839734514603003 0.0001200568487543391 -0.002936404676525184 -0.002010436490227509 0.001058954429667322 
-0.0004405613779786965 -0.0001790252996261938 0.0008523681435313593 0.001457416156043609 0.000507145360906409 -0.001167837944473728 0.0004565191332057293 -0.001457816288744771 0.001726710831102503 -9.606056919966616e-05 
0.0006989057857419459 0.0008769064409011989 -0.0002152156093343092 0.000726840154513941 -0.0008783645440013071 -0.001242170233911667 -0.001191757563574939 -0.001148436924369601 -7.815119117907221e-05 0.0002920053328545565 
0.000317483095719924 -9.869325671926157e-05 0.001160427315141963 -0.000797244500152336 -7.946871223191843e-05 0.0009384657454694033 0.0005451138597894911 -0.0004463378391417769 0.0004063062640128352 -0.0004698234452331334 
-0.001270788901545128 -0.0004860842045605892 0.000728779413277903 0.0003042487416268803 -0.0003109892232996691 -0.0003645552523234127 -0.0002664713248076477 -0.00108055007527938 -0.0008315390390364788 0.001093729448158329 
-0.0005480653316798458 -0.000587130806957388 -0.0003745598528825597 -9.492878499074649e-05 0.001190562763101636 0.0005569961334627682 -0.0008876515329490211 -0.0003281113160554133 0.0002489330919292582 -0.0003510008705334898 
0.0001045019357062373 -0.0001743377919079409 -0.0004167568173747187 0.000848169350279821 -0.001535752654321287 -0.001052928594072579 0.0003360990195090541 0.001074644036133286 0.001470151149777581 0.001358654210073896 
0.0008574150641911955 -0.0003952169772142961 -0.0004471649333181744 0.0005731041063776928 -0.001424274632730843 -0.001420672187345927 5.327374668006278e-05 0.002249771156816795 7.606486780832003e-05 -0.0007992672576347281 
0.0002791732821400379 0.0002866230438214643 0.0008985077871413283 0.000978315156826424 0.0002649560606558863 -0.0003431299992521653 -0.0001098211153548631 0.0004475769421945519 -0.001317114776448125 -6.48060383329278e-05 
0.0001994912057182037 7.618038805463386e-05 0.0002999303936606086 0.0001228256857535385 -0.0001720179172409506 -0.0004050756369880169 0.0001287000998626664 0.0005500208780550064 0.0003168425189514569 6.542644669073305e-05 
5.489252383697063e-05 0.0007844416543793297 -0.0009259841093767275 0.0007130739339741052 -0.0001406766658472851 -0.0009510127645198729 -0.0006737066890053278 -0.0004242630954113172 -2.673311550666896e-05 0.0007719019563450205 
-3.998813969554648e-05 -2.604557008149657e-05 -0.000267758549590066 -0.0001387522762008014 0.0007577843129026035 -0.000792241224432237 0.001572331984622453 -6.322802969456863e-05 -0.001389344751077812 0.0009728286045345994 
0.0005154050139481176 0.001193112385741267 0.0006646616337302271 0.0009701902639838197 -0.0003645654055242691 -0.000390999341742453 -0.0006452085703053576 -0.0003435741036917411 0.0005992399555017751 -0.0004347613264783773 
-0.0002979126007462914 0.000247970053314069 -0.001472081860386161 0.0003855141616081711 0.001079161249400969 0.0009965705255731692 -0.001737463525776229 -0.0004314545766582307 0.001180373589757967 0.0006055870053881358 
0.0004362931538872388 0.0004982099239124432 -0.0001272969560218909 0.0006576612493476462 0.0008367689932529276 -0.0003080617815106156 -0.0003019024828536941 -0.000794149833478527 -0.002100443842723062 -0.002462807319329607 
-0.0004417718733941237 0.0002771249251420358 0.0002785997152263436 -0.001619343896779646 -7.797845634790318e-05 0.000279613800962192 0.0003997779090593681 0.0003802600270908343 0.002108693430941596 -0.0002411868275934366 
-0.0005684650354383261 0.000140664051774906 0.0002815585283988608 -0.0007202927781439552 -0.0003972080485411518 -0.0003396473734196855 3.549248801007882e-05 -0.0001005232723322999 0.000336217013484029 0.0003728458617692376 
-0.0007063261089622249 -0.00093765710025238 0.0005835817337698826 -0.0004015353958909488 -0.0002720842921627821 0.0001054308435680146 0.0004027982724957775 0.0007695372697395709 -0.0008944701009835579 0.001679817491783729 
0.001246768801302346 -0.0004118642625706795 -0.00137828637403522 0.001406487963994532 0.0002885011623201465 0.0003334249425647424 0.0002649151238593222 5.241844422866859e-06 -0.001176215978264643 -0.0005040679494248181 
0.0002179537502228159 -0.0002149376368604476 0.000729977572600091 0.0004625543899303595 0.0004073194889510252 -0.0001142231515617849 0.000240042071402305 -9.777296816426753e-05 -0.0002345676303958971 0.0003011194093295842 
0.0007969170977551389 -0.0001846905661493291 0.0006972045380310372 2.535886936896595e-05 -0.0005397655761184241 0.0005243530164238818 -0.0001223112638684146 0.000806304751934708 -0.001634260619487487 9.608906404930492e-05 
0.0007281593277168879 0.0001907420716947685 -2.470894595553684e-05 0.001294725464825373 0.0003825077622355264 -0.000640263716798047 -0.00115568618145652 -0.001703036619755213 -0.0005003659653483849 0.001315248916598575 
0.0001794894443320196 0.0002859436122150475 0.00183800073590046 -0.001092118887299652 0.000423739154178826 -0.001510973101295326 8.284080674014284e-05 -0.0001011616712336226 -0.0005279465507700002 -2.49908111043446e-05 
0.002147273423187729 0.0003280990268740908 0.0008939049979651854 -0.0005849763013460055 0.0007253119980158597 0.001379375235500232 -0.001985080255426733 -7.769009890192446e-05 -0.001335523664095308 -0.0006280257997985379 
0.0001116732607930564 -0.0002259810831939696 -0.001627185454166237 0.001852083040424212 -0.0003386895976165642 -0.0002386495955955196 -0.0003112637221496534 0.0002776295994160002 0.0001708653915175977 -0.0006597209092129358 
0.001104762249219836 0.0004349713900362454 0.0003943783296959738 0.0004135631316319755 -0.0008332404490657843 -0.0002578355170657912 -0.0003038116961700787 -0.00103683952562002 -0.002544004686802497 0.0006342242301583204 
-0.0001968223953915982 -9.604307877818383e-05 3.24379795785478e-05 0.0007126497806512613 -0.0002949167015988438 0.0006671256974859617 -0.001143200127777888 -0.0008501478450188038 -0.001967992583625843 0.0008427699130352077 
-8.440201664951037e-05 -0.0004174337263652664 -0.001888499520199129 0.0005173377528191384 -0.0001384918578463539 0.001607352767413486 -0.000860384995583171 1.278906293735398e-05 -0.0003140905860278398 0.001206267680251293 
-0.0007446543428360973 4.605579051018139e-05 -0.001223040180444546 0.002622813997803877 -0.0009232150417161912 -0.0007616982127872041 0.001162326221206123 0.0004982472656168451 -0.0004013494895466879 0.0003761220194208942 
0.0003011886445243122 -6.690192509850411e-05 0.001562855719850694 0.0007714777945516165 -0.001117449742843349 -0.001082219256509466 -0.002281820083709471 -0.002111312409626292 0.0003955393639808191 0.0002653672337519311 
-0.001428484053951067 -0.0007844226489997775 0.001063373306125631 -0.0003027784579441668 -0.0004562218395570072 -0.0004058380677135397 -0.0008093985652587556 -0.000262447472712885 0.001359117932282151 -0.001943342027775496 
-0.001505578678176357 0.0002372860612745128 0.0007839936361604118 -0.0002682638609871524 -0.0002426492387503835 -0.0002501540849472081 -8.351512859425954e-05 0.0005379537849406078 -0.0006709904056884439 0.001582986324160266 
-0.0002021364669736558 0.0002653952363695678 -0.0008472338526584785 0.0003236075358272068 -0.0005158609268894233 0.0002249136998735064 -0.002679248826832639 0.002121574256171454 8.178950733655346e-05 0.0002732527620371282 
-0.0006683925828838414 0.0004036120062596547 -0.0005983391742974605 0.0005750381987247482 0.0007571232010298876 -0.00085712393189895 0.0001637412593068591 -0.0001554240385227238 0.0001161470108590939 -0.001143384173797732 
-0.0007250637676480081 0.0001860391543900421 0.0004395690377516619 0.00107992029286931 0.0005789330808022865 -0.0008789927842574074 -0.0004014989463935527 -0.001660982229757592 -0.0001864318963630147 0.0001567596853885023 
-0.001424248366431549 -4.079626457139664e-05 -0.003123675455996054 0.00123696609692414 0.0004111644138842671 0.0006145019939581413 0.0005253969128780334 0.0002396129652590031 -0.0001340490582875271 -0.000105492869715814 
-0.001534362626664659 -0.0005174108234673539 -0.0007835510424423784 -0.0005309543118605405 -0.0002101599474356583 0.001755866505298835 0.0003591333058771855 -0.0004035875940373327 0.000840847376442605 0.001629084648216372 
-0.0004152553855491808 -0.0001040983496621385 -0.0001060582286387168 0.001605067115328478 -0.000176347811581543 -0.001721411984531965 -0.001297167398838637 -0.001195912511171973 0.002039701475808501 -0.001780077775204076 
0.002257322682320111 -1.479588602266134e-05 0.0003516599550195146 -0.0002701257752456867 -0.0007620070595044816 0.0003299642640021823 -0.001588575443389031 -0.0009439720056114573 -0.001063108199719682 0.0009094276660052868 
-0.001361240793589031 0.001947741884644855 -0.001011529028263255 0.0009922359775838174 -0.001389934616796242 -0.0001995530854005901 0.0004087316784065133 -0.001592593101507423 -0.000184002010873821 -0.0003901574500333436 
0.0009682359004740159 4.825544671765219e-05 -0.00143243728181866 -0.0009121785497630072 -8.250002116817262e-05 -0.0009004907468711757 -0.0005965412864035007 0.000905275885217771 -0.0005118257113775346 0.0009256338565596375 
-0.0006335115241805403 0.0004650813641221945 -0.000510776912342297 0.0008076057442834658 0.0001574794733131364 -0.0004474042438826049 0.0007529298603571284 -0.0008040842634511068 0.001325136919073154 -0.001018698482797264 
-0.0009887368547635376 -0.0002836746861306424 -1.980681281501292e-05 0.001051075199905367 -7.419554136691833e-05 -0.0004936611034851483 -0.0007951550898033694 -0.0001627659490431951 -0.001450361998186684 6.454084753495838e-05 
-0.001652993456673456 0.0008307383392871048 0.00123682368313979 -0.001302276001528009 0.0005795859031832639 -0.0006636434667929935 -5.112142257102689e-05 0.0006544599575931863 -0.001918566693956994 0.001435249979814831 
-0.001887172240701458 0.000244428781599728 -0.0003535833337404869 0.0007686028113453643 -0.0002359853091423223 0.0002354289806227811 0.0009034168059358003 -0.0008480311140335628 -0.00102003921132292 0.001952639895651698 
0.0005638095225930618 -0.0006051103041318815 0.001026144572642148 0.0009710218103002221 -1.121786447010715e-05 -0.0008088861955481486 0.00054130484016782 -0.0006288285163460484 -0.0009083909303740174 0.001772894846445867 
-0.0004021460842727823 4.193810980073918e-05 -0.001005099756784913 0.001093998602894595 -0.0001832485486234948 0.000222969566942179 0.0004264635854494034 -0.001184116146404444 0.001296537271353767 0.0007717946040378996 
-0.0009760313769382025 -0.0007137246111012182 -0.001090509709368647 0.000404557037496839 0.0003980465710051111 0.0005895478342217034 -0.001140784898664504 0.0009781890344007834 0.001410684708775448 -0.001870033113909975 
0.0005660125337915428 0.000548098576122532 -0.0007591807669704731 0.001368162024090327 -0.0006248153885958976 -0.00136165958218864 8.606686246276413e-05 -0.0002627720604052156 -0.0005569203739092975 -0.0007007530976078565 
-0.001291654995931592 -0.0005350341547330169 -0.001229244504287644 -0.0001133285029735159 -0.0004146249630481458 0.000209069888276314 0.0006463406777270806 -0.0001845055199494029 0.001699003342063592 6.02324940236857e-06 
-8.304996693026735e-05 -0.0003958028249186707 0.0004664418271766803 -0.0003478295402062676 0.001851386957117169 -0.0003578737099127253 -0.0001462412314956403 2.295725744217181e-05 0.0002293507487670017 -0.00140073682592529 
-0.0004870914004193246 0.0007876515946002954 -0.000222171132372966 0.0007008893383045196 0.000545484479802483 -0.0004547150809634737 0.0003305308453474878 -0.0009664400079610728 0.0003376070140240631 -0.002303352600723103 
0.0003384929298567147 -0.0001719905234216829 -0.001041225462361931 0.001322903090984681 0.0008163074428532243 -0.001113148864905457 0.0007034820923618201 0.001813305241466431 -0.0005166631122783005 -0.0008205349254824916 
-0.0006629743288234231 0.0003148182775420545 0.0006071426806866167 -0.00100930975476199 0.0005452158185396807 -0.002183128087912591 0.0008532683071725448 0.0009129039023535947 0.0001179840680141865 -0.001031161944679262 
-0.0001217325472729393 -0.0002074900061796744 0.0004417914520712481 -0.0003231753142605461 0.0001849712485348777 -4.08736786138706e-05 0.0005140346007691579 -4.679530104289003e-05 0.0002432490927172534 -0.0008154882849332418 
0.0004926791278916381 -0.0005526328465930208 -0.001918650152264239 -7.038001568642777e-06 0.0004353637785935107 0.0006885546679182976 0.0002887462539549992 0.001264203893038247 -0.0007207728453350107 -0.0003928145420556923 
-0.0004029557458397947 0.0003592574413952251 0.00080918458703187 -0.0004945532540415454 0.0009661740226393606 -0.0006167375165698213 -0.0001818440442339539 -0.001283757047178049 -0.001517084630199905 0.001557745682919243 
-0.0009212521414821328 0.0003854822224460544 0.000745901095144624 0.0005509647830639295 0.0006071823959720464 0.0001952279578369955 -0.001354478736740268 0.0004982132163425771 -0.001843592750243551 -0.001607511856645412 
0.0006287172287468607 -0.0008843551550021124 -0.0004734343209943521 -0.001013261950940691 -0.0006595965433141413 -0.0002968221077063236 -0.0009930092372968473 0.001394328624852841 0.0004939323877812987 0.0001264878641020516 
0.0007915196996268604 -7.618568814440382e-05 0.001088434629111117 -0.0005085342275842706 0.0003477427322735091 -0.0006089303963568601 -0.0003807816438006695 0.00184408532663587 -0.001482672734011378 0.0002403914586685627 
-0.0009318556390180718 -0.000828175486628208 0.001488514921356705 -0.0007671563075889094 -0.0004740628808309066 -0.0002844015170444137 -0.0008259902124961275 0.002225193208839811 0.0008579269571374255 -1.378574744328258e-05 
-0.001398490127144392 0.0002427695684534487 -4.969496700718208e-06 -0.002082914731520801 -2.992062322878512e-05 -0.0005473522849163993 0.001794081187673318 -0.0007603392032043299 -0.0009444215724962967 0.0003877820899899372 
-0.0008407334827757864 -0.0003619724398205158 0.0004610059676709016 -0.00102325634538906 0.0002041854017561973 0.001638245726603011 0.0006239226989136342 -0.00142883250353419 -0.0002292326355507224 -0.0003850719487800557 
0.0002851768880438535 0.0001718669538571124 -0.001249164781070732 -0.000402476874930512 -5.149371459043114e-05 0.0002758373580661584 0.001014082633673455 -0.0004578173803426684 -0.002124723830096531 0.00150979328717086 
0.0007643944253912108 -2.841566856021561e-05 0.0003912006669224511 -0.001192541199956003 -0.0001815640621177594 0.000671238133493552 -0.0007558528379400111 -0.002066904424584454 0.0008184091920444623 0.0006569254077355973 
-0.0001943984868454443 0.0003445986449669647 -1.279283847168616e-05 0.000320773170006691 -0.0006170104674433088 0.0002992923002363406 0.0003887908661893706 -0.0001842625916061103 -0.000120061245419517 0.001470615978745236 
-0.0002829092995517643 0.0001680808785322064 -0.002402910350685171 0.0004566483762894408 -0.0006003393486798751 -0.001417326641077133 0.0001969214628062527 0.0003686380636020256 0.003418437086212791 0.0002602956099419127 
-0.0009957831556898201 -9.529433717015807e-05 -0.0002228926216705049 0.000126248636721041 -0.0002539075896295368 0.000371312951427266 -0.000128451548689658 -0.0002375318294555819 0.001445166097531222 -0.001506719754625322 
-0.0009886567279151618 -0.0003175508330032341 -0.001249343996893517 0.000672931511304987 -0.001185362066299628 -6.942925647382832e-05 0.0005268442440893849 0.0001876049779677983 -0.0006901888296415964 -0.001136330054289108 
-0.000260892727783464 -0.0003504584112051021 -0.001165133396537466 0.0009543652778695329 -0.0008466130243081331 0.0001931965318339482 0.0007710579979024484 4.3099125190671e-05 -0.0002357503793986591 7.761911718036451e-05 
5.871827761763431e-05 0.0007571495472783635 0.001323229191333679 -0.000117084318356518 0.0003482062999321785 0.0001614844153579224 0.001258451573049371 0.0009924834573844165 -0.002199400660091689 -0.0001689150515685907 
0.001209717817551331 0.0006949125623666814 0.0008719278136309769 0.0001259026897701114 -0.00068688057590775 -0.0003049638848082525 -0.0005549510030586013 0.0002427083739835852 -0.001641973906096564 -0.0005130165756782253 
-0.0007575145140162911 0.001380581176497683 -0.0001996056047910485 -0.000815689805622662 -8.561436058809381e-05 -0.0002184560889560251 0.0006574061322789446 -0.0009937628063729359 0.00102815008369162 -0.001720504548824481 
0.0007851299669494424 0.0003491056736311513 -0.0001752440622178566 0.0004641725687503645 -5.893568068844145e-05 -0.0004149831475787745 0.0004218232660572001 -0.0006517543072891766 -0.001087942089748537 9.629101240188097e-05 
-0.001124169664868916 0.0009698063908139916 0.00178634297992121 -0.001152570258459902 0.0002364320239971497 0.001771992120003273 0.002164717552086178 -0.0005925707250464798 -0.000776120136381554 -0.000880275654506752 
0.00201262717383049 -2.472388262385322e-05 -0.0002076900589658941 3.532335501976985e-05 0.0008498102526723553 -0.0002302533973333395 -0.0003235708331730293 6.164670657226561e-05 -0.001363136175404151 -0.0004742199832040016 
0.0002887127266607192 0.0006187663388080611 6.200190182527504e-05 -0.0001476406471930956 0.000905536537992232 0.0004212350556539474 -0.001542471738625548 0.0003598263006073123 -0.0001543090814699615 -0.001065263563067474 
0.0002312215798133658 3.901024861311976e-05 -2.837159200386641e-05 0.0005321937871070401 -0.001267404358281484 0.0001469864536029284 0.001392778909702029 0.001411148310141662 -0.0007618617163802675 -0.0004240566055250092 
0.001563450189807254 0.0005724717297145405 -0.0009905494970895829 0.001602118689856148 0.0007016908572774509 0.0002263775275020792 -0.001345371226243986 0.0007091887013152645 -0.000606993337879118 -0.001741281028019043 
-0.0005403536540053686 -0.0006076150769127602 -8.849720280007308e-05 0.001203703742987398 -0.0002791259126933764 -0.0006783081390501507 0.00130173415389661 0.0007122808159306669 0.001095885867379336 -0.001283037809885648 
-0.001009449729087109 0.0009270498702591119 0.0003442581410706837 0.0002781130252167858 -0.000457641007037103 7.156555597422118e-05 1.317778748528829e-05 0.001723798420352442 -0.001564502171126218 -0.0009545552752165807 
0.0001793410531967625 0.0004004343710327481 -0.001146017044094423 0.0001605308816835216 -0.0010523135754333 0.001179382744615243 0.0008399008695608788 -0.0001199742123244325 0.001361347478628097 -0.002084456424256995 
-0.0004574550850482953 -0.001502958653915783 -0.0002626180776002424 -0.0001423485193987122 0.0001525166437653859 -0.0002863901548570356 0.00119934252317407 -0.0007096858694914768 0.001126424556231566 -0.001990914895550772 
0.001457953783156267 -0.0005951422886002107 -4.731481166261646e-05 9.451948082590123e-06 -0.0006115258915248541 0.0002853686008759117 0.001002154479060309 -0.0007543761372086357 -0.0002293989932675738 -0.0002075234336860754 
-0.0001039104331957461 0.00127292785352452 0.0005195176872027086 -0.0004423839519815672 -0.0007519444505546414 -0.0007603134350198369 -0.002225713994813856 0.001139935361235785 -0.0006912153871274884 -0.0001704483467270646 
5.224871729174307e-05 0.0002243442891767384 0.0008261317452774851 -9.21032935749879e-05 -0.00128560928885976 -1.83171186313356e-05 0.001385554741690808 -5.307296800226841e-06 -0.0004701105010991516 -0.001211000406797653 
0.0004696782491693095 0.001080429450976557 -0.0004531898040283333 0.0004923887875198215 0.0009046554559741947 0.000282699777719299 0.0004134156632793742 -0.001878087912633811 -0.001682976704133323 0.0001294444278384398 
-0.001959440693346096 0.000418535466792771 -0.001277249924252892 0.001629566419506358 0.0003998580503568887 -0.0001482466827339317 0.0004005167638540263 0.001518518793997894 0.001110506386456796 -0.002506206837567947 
-0.001130904240026398 0.0003564626798800084 0.001395314165923259 -0.0006923164094834876 -0.001061392097762097 -0.0002246220368803003 0.001302838543491863 -1.155741448468946e-05 0.00121212732028255 -0.001041562391793148 
0.001027611483636396 0.000347990529093989 0.0008178771451525422 0.0003046479807599925 -0.0003792638003343796 -0.00067914118402744 0.0011184691424052 -0.001166530492821088 -0.0003806240825132315 -0.000180146911747335 
-0.002138610582741433 0.001189138176684374 -0.0006534982658867275 -0.0004404542037196239 -6.023346524207759e-05 0.0002992132194693294 -0.0004691902535170451 0.0005557399215466143 0.002564565514212031 -0.001691788869147938 
-0.0004468224851395688 -0.0005399191504483772 -0.001149093775228785 -0.001275664028726214 0.0009321635796086834 0.0007423398625669903 0.00162502224069167 -0.001551808072385863 -0.00095710013170636 -0.001396527585804108 
-0.0004217485762947178 -0.000803956404892331 0.00194397339231872 -0.0001978416550396522 -0.001477478246100981 -0.001576047023696325 0.001785644963583487 -0.0009390042347520736 -0.0004152841569496241 0.0007952398876901 
0.001800864816884192 -0.0001056721433567033 0.000855079471873738 -0.0001365143161311176 -0.0003655446969920225 -0.0013042123100865 -0.001096518991437756 0.003062097432321769 -0.002636461641289874 -0.001157038239146696 
-0.0001047768505846591 0.0005925774539730582 -0.00145334634532584 -0.0001274832723043922 -9.227864551820452e-06 0.0007102537770716571 0.001357178669466347 -0.0003305120853660271 0.0007158142921093979 -0.001838119493288635 
0.0007701715672021877 -9.213090725627481e-05 0.0002972767974140639 -0.0001554698857183973 -0.001787096919339465 -0.0003488605558894849 0.0005243549597725485 0.001779785309976025 -0.001129338662145685 -1.351712704574047e-05 
0.0009903276985885716 0.001355705026530623 -0.0006707589609250565 -0.0007405225770123488 -0.000353361842362914 0.0002996739041146282 -0.001950299144282924 0.0006949225582486592 -0.0003113975767481381 -0.0008170256169704833 
0.001866219796813571 6.428552113840187e-05 -0.00143228324939541 0.0004037684133196183 0.0001196134477029627 0.001010864681584346 0.0007113835122124127 0.0004827120973233286 -0.0004197031116374404 0.0004324363671271451 
-0.0008078096470009093 0.000572392039966419 -0.002814833974736057 0.0008331188408427744 -0.0009298758802685385 -0.0001947044240014061 0.001233096380018109 0.0004198002494102588 -0.0004082915260188535 -0.001944620464812412 
-0.0008283279217006714 0.0004194960881978227 -0.0006306808880209977 0.0002833289999688362 -0.001097122575347738 -0.001201502830737267 0.001151521103182591 -0.0009822269545749663 0.0005555270549624596 -0.000448142959940494 
-0.0005339548093363555 0.0001992590609603985 0.0003394377914398009 -0.0002069889790720714 0.0009809071714040603 -0.001442081005930643 0.0006012119017458322 0.001281371490510862 -0.0009957864351900225 -0.0006055845787976025 
0.0007968196541805071 0.000195290501980749 -0.0001281529008430371 -0.0001011889428780792 -0.001761658217090271 0.0002749681001976297 0.0001048718025720489 0.0009815609660987837 -0.001311772008450123 0.0008636022270284806 
8.678482304134313e-05 0.0003693894443036316 0.0004856907533818694 0.0002585803488913661 -0.0008939971534797893 0.002312567433715652 0.0008289743549887678 -0.00168607349355061 -0.001786420874888892 0.0005955726004371839 
-0.0007358474956677544 0.0005555981803809227 -0.0003022136692268815 0.001805252601840227 2.196221332710921e-05 0.0003802643107075545 -0.0004190718524674111 -0.0001619638356771492 -0.001387442372688976 0.000103128883722725 
0.0001515898991667351 0.0007347991638639718 0.001463279778104531 7.75547020824934e-05 -0.002119418889046629 -0.001323393723035106 -8.739694067377337e-05 -0.000161355024967075 0.0002461364290003591 -0.0005160355462015706 
-0.001667894192825366 -0.0003175118963436519 0.001074623020160769 -0.00135031172570975 -0.0001624354881404664 -0.0006005772704032278 0.0005096086637896675 -0.0002430680875778506 -0.0003660807002598792 -0.0005466964179907309 
0.0006898738417246821 -0.000579576046959483 0.001014958852706192 0.0005989925519651226 -0.0003803333836759142 -0.001151057023390146 -0.001243939264237572 0.0005845856950149175 0.0009717884100859242 -0.002582901170102754 
-6.187528917228579e-05 -0.0002660594688933058 -0.001554988867807574 0.001295983048652574 0.0003773708410820417 0.0005289067576403324 0.002142316237880573 -0.001306200553568984 -2.926294679847965e-05 0.0001017783457195901 
0.0001406247554802377 0.000386199140262233 0.001030093376479874 -0.0007613357239136311 0.0002887899509173183 -0.0002184153236262919 -0.001141967231084035 -0.0001994613806277721 -0.0002554711827732385 0.0003977954465737939 
-0.00161526380938647 0.0005122546890822822 0.0009760470294740244 0.0005646129283839416 -0.001280428260442239 -0.0007375103085771669 -0.0004224981653725608 -0.000328817859688207 -0.0002963973255030948 0.0003878843189308161 
0.0005284577225874741 -0.000190357655208263 0.0004167503913836551 -0.001052822009390389 0.0003630310711229736 0.0009098605349373179 0.00048241017321297 0.001947174735609256 -0.0005055836586178937 -0.0006252405897430065 
0.0005641818068879603 -3.572545081667247e-05 -0.0001912425163098699 -0.0005990981095366568 -0.000124026641085377 0.000500969975192498 0.001050445434268903 -0.0005284306468509304 -0.0002405741246168414 -0.0003297098762063401 
0.0001292780571079817 -0.0001050724281506493 -0.0004144263514352798 -0.0004775720183684229 -0.0009333540691976977 0.0005480472663982692 0.0002468257780907218 0.0004200102232060652 -0.001266889459135889 0.0007806952291846119 
0.001787612163328247 -0.0002193639363135349 0.001052867893456993 -0.001644983213541487 -0.000611268495620051 0.001104597751328429 1.148560387936863e-05 5.377508285361257e-05 -0.002073632542613846 0.0003513406606270847 
0.0003720546469538634 0.001513463219693656 -0.0005400656710083163 0.0003441151363027089 -0.0004622750290301379 -0.001241334511479799 0.0002983376656464652 -0.0001664650763390686 -0.000643312613603696 -0.001373951478705323 
-0.000471677698115984 0.001177622457772476 -0.0006340951643164466 -0.000150583596431744 -0.001117626724238204 -0.000482316419108358 -0.0001732631006916664 -3.238606576730704e-05 0.0005000031557998926 -0.001608176423034718 
0.000112645884029018 0.0007140280086659125 0.001699248852730554 -0.0007066414191290173 -0.0009363654173038223 -0.000450729639576044 0.0009903873104848125 0.001540290973216702 -0.001480237529839921 -0.001878559673963133 
0.0007828863927478301 -7.296386776183668e-05 -0.001115615088962705 0.0004273468787257786 0.0002704737850208061 -0.0006298085131640693 0.0009806384781166375 -8.518574677696923e-05 -0.0009448126716865686 -9.171627800608895e-05 
0.000467419532150695 0.0007409514043594913 -0.0007469619331252189 0.00130566432012107 -3.701041264351662e-05 2.359794201626293e-05 0.0002098631329292543 -0.0001641023581453918 -0.001380205894064465 -0.001418337466492258 
-0.001099046130273825 -1.838661462847236e-05 -0.0006542297315688641 -0.0009415507352527538 -0.0004001549045796378 -0.0002848926841416643 0.0006509154223023057 0.0004328914941699655 -0.0002337501917045387 0.0003841066662364193 
-0.001109475324183892 0.0007694350753313935 -0.001088836988331361 0.0008339067042030522 0.0006954715741236446 -0.0002580984090648897 0.0003218936759428477 0.0005590644325435243 0.0009684360517280201 -0.001277767434308468 
-0.0007454204607913489 0.0004974098227914503 0.0007785433990447522 0.0002351543388523482 -0.0005127852801691696 0.0001225506861188103 -0.0007575144065372021 0.0001311502745346478 0.0001508867012979982 0.001342824396901915 
0.0003232946557047915 -0.001096579988953807 0.0005996189152351344 0.000297938487280738 -0.001252300850798088 -0.001497222282178962 0.0001453207517449273 0.001638745366973111 -0.0008128410768267958 0.0007050914161856666 
-0.000606283468850037 0.0003191740883891596 0.0006952288105267968 2.493530680737275e-06 -0.0002011345409901428 0.0007447641325752517 -0.0001585475913184359 -0.0008866637475551897 -0.0002527744149537019 -0.0001501673644089159 
-0.001384526266066782 0.0005858681415314379 -0.0008307501287875452 -0.0001080839708201546 -0.0006001136170936768 0.0002296814976606017 0.0002691770829685795 0.0005552592003687052 0.001830705001816575 -0.0008158598601703591 
0.001112219825733817 -0.000389918781228095 -0.0001700588143251264 0.001320469306954319 -0.001516367367422461 -3.848640631154781e-05 -0.0008245414612074783 0.0001722866609753287 -0.001087742750226017 -1.682324115423559e-05 
-0.0005601742646555054 -0.0006570024815412366 0.0001091860467551128 0.0002258046416029335 -0.001143273652984146 0.0008512916409894694 0.0009372315031175135 -0.0003459021804493921 0.0008409494047317026 -0.000596856740472762 
-0.0002328443452913863 -0.0005670308532215268 5.426254767371e-05 0.0005183109936520267 -0.0003438345044122813 1.014559330645917e-05 0.0003115237989609902 -0.0002097782246274106 0.0008740885966624214 0.0007203060464222214 
-0.0001520611293470199 1.038731162640337e-05 -0.0008418926209513109 -0.001399783000915633 -0.0005325539292145133 0.0004443454939759235 0.001167133831901051 -0.0002536621790861616 -0.00120366666396183 0.002509124712255369 
-0.0003898242429826541 -0.0001667158624176013 0.001052210096952375 -0.0007837774749908223 -0.0004137857627180968 0.001251042007313811 -0.0001704879082355775 -0.0003163119495698675 0.0005158265110333547 0.002032585051007578 
0.0002538018561636258 -1.534961850258664e-05 -0.000747717324809297 -0.0004368312921447082 -0.0008087684718027655 0.0008061196326206082 0.0009455856910243743 0.002065233424920021 -7.52805539116924e-05 -0.00102661425473994 
-0.0005282878549528885 0.0004762400689224596 -0.0003947145591280796 -0.0007328285811424281 -0.0001534096120719182 -0.000687481706818983 -0.000305288677234079 0.0007358483363803954 -0.001341854606435051 0.0008290398018751599 
-0.001203516082419463 0.0003141852251869722 0.0007215896388456835 0.0006852451649360636 -0.001360057810036713 9.090924388370096e-05 -0.0003694936357944148 0.001012875379387871 -0.001034650244895949 0.001660932082354612 
0.001742156254899167 6.518320949787104e-05 -6.857288344042892e-05 -0.001044750349990324 -0.0005224939996998378 0.0005618306470183257 0.0001972244914779985 0.0004660638294132188 -0.003136586645431056 0.001435242883041617 
-0.0002429312080710217 -0.0005133228181203356 0.0001815962153241891 0.0007527811607844046 -0.0005243839615284475 0.0003050402326328397 0.0003502679625327146 0.0002948586385900337 0.001280870217068131 0.0004062142442818378 
0.0001143898223785967 -0.0004172992515618463 0.0003678746305829972 -8.664097481509258e-05 0.0004012567686066896 -0.0007141115082930352 0.0005696346273837703 -0.0009738698509852675 -0.001192197523351113 -0.0004422858177161194 
-0.0001034521314355942 0.0005147816586249388 0.001886706510808218 -0.003342184249559777 0.0001519893727662827 -0.000324160642989732 -0.0006789483700547178 -0.0001062127792187643 0.0001487498603439778 0.0001703334392643959 
-0.0002639681166680959 -0.0002010232788941732 0.001389574882265673 0.0009074223136870623 -0.0004486111759796877 -0.0006472364744135439 -0.0001503008873398247 -0.0001127911824659768 -0.0002873099448836101 -0.0001863331393799805 
0.001175394470519251 0.000177386028397659 0.001489448066436981 -0.001483121674958221 0.0001010170272177296 -0.0006660140628930079 -0.001693511002360456 0.000448716907678701 -0.001147456214570296 9.042786767576122e-05 
-0.000470590052976051 0.0007137679484145835 -0.0005988487949225234 -0.0002775716913880239 0.0003551828642147508 0.0004977042970583212 0.001128162905030673 -0.0007602368814554436 -0.00116007704878341 0.0003173771414571323 
-0.001341617606423796 -0.0002361240275352298 -0.001221590428449587 0.0007785657766377344 0.0003879176807897913 -0.0005334024394716352 -0.0001404039724719867 -8.341775371341315e-05 0.001200482662372057 -0.0001020508799212028 
-0.0005785574944855633 0.0003710160205343568 -0.002021750468807709 0.000763974109418607 -0.0005550885713298127 0.001266251177188196 0.0009793871314637285 -0.0009504490314797366 -0.0005255310096936184 -0.0008468476479725053 
0.000558542967506689 -0.0006315396865610225 -0.0009525582691820931 0.0003038726068313171 -0.0007973827586851884 -0.001642063739379019 -4.267657248659038e-05 -0.0001719780403648713 -0.0004104422454892172 -0.001130781281929145 
-6.055148522584382e-05 0.001144126030225248 -0.001166085082401964 -0.0007228972355362898 -0.0003214956893405637 0.0006159719014676847 -0.0005305740448463526 3.825971864376286e-05 -0.0002826235696031114 -0.0005804472487863757 
0.00152603152771069 0.0004650467113203885 -0.002454737947165134 -0.0002655784400158879 -0.001741950482856195 0.0003025590980186031 1.336437355005402e-05 -0.0003742865442650402 -0.0005669627610920323 -0.0002060198802624752 
-0.0007462491410970948 0.0001230107032705045 -6.880658973169382e-05 -0.0003174278649811476 0.0004547403932042915 0.0007375084833181078 -0.0005855909248207448 0.00248159967236855 0.001185813408338107 -0.001943534297500093 
0.00147802342100426 0.0008686526087019254 -0.001096993446960143 0.0003131622997704899 0.0009390752539803727 -0.0001623300801770622 -0.001016497872266714 0.0005418415276656989 -0.0004921946819246719 -0.001673862688191937 
0.0008101689116558467 0.0008470236378681194 -0.001359011999653869 -0.001130173993829361 0.0002988670475181205 0.001146277776579082 0.0009946297584521985 0.0007425627989835243 -0.001574528592352855 -0.001047799146879551 
-0.001448564198900775 0.0001972260586472736 -7.154269122111272e-05 0.001156893114063684 -0.0001283158381893395 -0.001472634704702836 -0.0006324302610755052 0.001821741208634265 0.0002786729183355735 -0.0003097476241223235 
