solver_type L2R_L2LOSS_SVC_DUAL
nr_class 5
label 1 2 3 4 5
nr_feature 450
bias 1
w
0.8890643250063357 0.07328279127967477 -0.5333491025641134 -0.4844045546864456 -0.06758343480266227 
1.417434109580177 -0.3143614302786119 -0.4895208035856475 -0.5928442032074931 -0.0859646650397508 
1.116190040922911 -0.1624677460111633 -0.4999984812595484 -0.4672845033181552 -0.01985205199699154 
1.002607694479743 -0.07569165266765469 -0.4769621122417002 -0.4880623685748108 -0.1226177301550023 
0.4352211455633241 0.1029631094825701 -0.3677239646049194 -0.1246667301150723 -0.2628829583774774 
0.8905019346396083 -0.2124249022308854 -0.4974487493475677 -0.3928089389099861 0.05460245482695571 
1.566049818634692 -0.4891996605301871 -0.5669224229611725 -0.6327050456264198 0.0292721826583284 
0.9104821733544025 -0.2984096941153891 -0.4665028232794913 -0.3092937442488161 0.001334503156372574 
1.25313543525354 -0.265857567943836 -0.5252417744856485 -0.5166942581770161 0.008171833559049255 
1.529850912284925 -0.336367001311599 -0.6080148379622616 -0.6510238108764329 -0.05497409130313367 
0.7392065972192799 0.001629318973210424 -0.2841133058676886 -0.4976743291560021 0.06874900812880703 
1.405484483742246 -0.3978305726656962 -0.5933094359969895 -0.5738881974723251 0.1187301419119898 
1.155853964668439 -0.2946449321291309 -0.4351626487410328 -0.6312534892115277 0.1842180152501159 
0.9973880105378333 -0.2904432064379276 -0.4428765367778509 -0.3602083997595152 -0.1424096615923743 
0.8273203470120086 -0.232220309059444 -0.4262472549002278 -0.2634539217875773 -0.008851844264014506 
0.8498447579947886 -0.05857915440662884 -0.4204825414910237 -0.3934671656570356 -0.507030664164372 
1.407263058349899 -0.2115248942244271 -0.6307683008614285 -0.7157054963183772 0.1176071866435737 
0.8262552611575879 -0.1835554043522097 -0.3905737598849262 -0.3576106071664776 0.1157154768597162 
0.04488002995196113 -0.1821669750226773 0.05929205076522076 0.08229947736208582 0.1265837610275619 
1.113373415392837 -0.4018470136255355 -0.3829916276362481 -0.4652064516436485 0.04181785221653198 
0.5225849546504885 0.1658919508456115 -0.3853459526179028 -0.2060149799712123 -0.2744608407801097 
0.465662717694992 -0.009288963620618399 -0.2571083202975906 -0.1119532704715778 -0.2176905129351228 
0.8032693255855921 -0.01256125216335851 -0.4039355938496984 -0.3352440427149853 -0.07376749627521571 
1.040870444891383 -0.4027788043863717 -0.3414880656149433 -0.4521951292840085 0.05724901817449768 
0.9417575286165167 -0.1200830990678239 -0.4626275106185703 -0.3484974631089018 -0.02111959873810523 
1.10056034955659 0.02531138745672067 -0.5481253654265813 -0.5742847038641772 -0.1470310169894624 
1.229943735327026 -0.1554403368749848 -0.5675903672894695 -0.4575493492632313 -0.1182145996365743 
2.272039338627762 -1.085121686362749 -0.3412051975349293 -0.2857611742434088 -0.9710283992572288 
1.77051282698761 -0.693115289623461 -0.005904107853596251 -0.3655545517863156 -0.6601828286003004 
1.871801543590474 -0.7536781999103996 -0.2551333728299401 -0.1544024410450005 -0.7982897307716531 
1.850366234944272 -0.6093907551604341 -0.4993714840861758 -0.3139895643288919 -0.09410857426877325 
2.293081772656719 -1.670558834326417 -0.9642475459685994 -0.7177876121043222 -0.3061381132624873 
2.012896864549165 -0.9332310336951471 0.07019918366017461 0.1409484074077539 -1.152795335800495 
2.967610564706349 -0.5133347209404384 -0.4499289846054632 -0.6735984527350533 -1.233837301565191 
2.056292274366699 -1.285550391231655 -0.7037128144568487 -0.7119689752013731 -0.5759156431301677 
1.876910410189777 -0.6218207528292298 -0.10412862175214 -0.2589882352170692 -0.5616275611170811 
0.9181545406708183 0.1023586146136879 -0.5093789358649607 -0.4609084343931318 -0.02510577258719564 
0.4404237756611711 0.2756237329557526 -0.4862794709857543 -0.09355745864673559 -0.1903604425419331 
0.7645516021701836 0.0308550985709936 -0.4734040180285306 -0.4116362603014558 0.02500433405134694 
0.7536713037077619 0.04858848358768223 -0.7436816909898483 -0.09476360689051878 -0.0448855223894719 
0.8532274338830531 -0.07037748420414076 -0.6199782274880823 -0.2445892543098326 0.03254079315956249 
0.6325929360243355 -0.3129122448487211 -0.5689107213847636 0.06821987098386388 0.144322347295987 
0.7547626534800906 -0.295410955484607 -0.5369934157793386 -0.1178291027361786 0.1514266280274893 
0.398817680280505 0.3488675863727983 -0.3387790820080078 -0.2711092569344808 -0.1376401179758427 
0.2141726908414107 0.2871355828128548 -0.385703655052531 -0.1442904605187336 0.03940450764490069 
0.9961693571142533 0.02635420789479746 -0.3886399352753978 -0.4259196273641907 -0.3693294824024882 
0.8799053124083417 0.1371336642321628 -0.314195375939644 -0.4194600672323354 -0.8611935599903084 
0.43483907626603 0.05085640873250614 -0.1457447993503738 -0.04870935456467732 -0.277071487661555 
0.3563255085191273 -0.1434337305752067 0.2909600710713359 -0.01821032169858797 -0.4885352372362078 
0.8980676263938687 -0.4730160839067826 0.2194392492250498 -0.06675413211788053 -0.7515610305347482 
1.076248303084067 -0.8544162249574699 0.2663563633298661 0.3657109713742483 -0.7991795974406422 
0.5074275977852718 0.2568050263935856 -0.2090546877843042 0.006008373029341896 -0.6588613405548595 
1.551637489245954 -0.2109701374842301 -0.3069733711035212 0.1279222842031753 -0.5266109998237354 
0.4967727447592878 -0.1598165793782631 -0.08055363822399243 -0.004387337529155034 -0.4417042176358976 
0.9996113676929679 -0.04718504705687017 -0.4500655810824844 -0.3166321105792347 -0.3500119031163996 
1.65724634072105 -0.2192412768708168 -0.6177682795092542 -0.74713025203538 -0.04389877390393978 
0.3624822304596531 0.2223909905924002 -0.3603305015487717 -0.1433009982454732 -0.1973069310168017 
1.057127801254516 -0.04862757960825371 -0.5893227587016414 -0.7301078187519596 0.1044742917917504 
1.522768570029634 -0.5309823803361008 -0.6128819726237613 -0.5779334673660197 0.09552611490944579 
0.7710473736637795 -0.20663797264284 -0.3671685763475412 -0.1857407741489617 -0.1493626808696173 
1.037630888142201 -0.2136793682705635 -0.4509310152226454 -0.4368295756706409 0.02492201163484723 
1.107955846320208 -0.1256828032187132 -0.531919442054007 -0.4896950186702744 0.01427528304943465 
0.9160569511518626 -0.1527445722554052 -0.448811494733492 -0.3560403689719597 0.0004614578499667293 
1.768009765748947 -0.6161261297336132 -0.4745043769066891 -0.9693052310039817 0.01702840364263764 
1.835917988097496 -0.730945567094532 -0.5806485348492056 -0.8508070403943708 0.2653712601406615 
1.433424426399523 -0.4418658172594734 -0.6446036671391959 -0.6539514255898784 0.01344445619186519 
1.131325017751673 -0.4916107966709697 -0.2816672681421774 -0.4090980198468959 -0.1661331371975353 
1.5615967899233 -0.4030387382630461 -0.6022404742784399 -0.7297341108444586 0.1014093415069772 
1.868664171640063 -0.9952579480119941 -0.5469129159729376 -0.6872481406856654 0.02702550025412751 
1.568593326228845 -0.8809330096842513 -0.6957074022832401 -0.3507074436870971 0.2582345797461341 
2.303504087045445 -0.847707891381163 -0.8407050369732142 -0.9362516350866201 0.0734345689807184 
3.274071047333607 -1.426446428924214 -1.502961678843246 -0.5628323614990998 -0.06551149074941906 
0.2593630564522883 0.122402683270007 -0.0659181249967922 0.001861871935950467 -0.372131635278724 
0.2547537964823294 0.3491955643510427 -0.25376111691098 -0.008995923183517846 -0.3763199695564594 
0.4996293932092856 -0.008417496897399264 -0.009039757431148362 -0.166412807705788 -0.5189285696933991 
1.463349344525067 -0.05177076981632302 -0.5270336173152791 -0.362117374509608 -0.7131873372072963 
0.9964519511070118 -0.2542042325600514 -0.3330209792797119 -0.3175654017181378 -0.5549394435322641 
0.5818515811569243 -0.1096688766528871 -0.1853663657853761 -0.0348236547325295 -0.47651367605608 
0.6701077981628564 -0.1254899259520502 -0.2796557514665018 -0.2670673024776678 -0.1902943093902182 
0.03362692183647466 -0.06703226267355372 0.02075996045221802 0.06372441315922746 -0.04156755494427302 
0.7308010369118579 -0.3814158311947043 0.02232876433480634 -0.2140658808829687 -0.3705321759729033 
1.645838245982921 -0.707949550484042 -0.7758949438570112 -0.5078484461201189 0.0866034873019262 
1.235821682135827 -0.3931902783510445 -0.1799818388787854 -0.3422859491890206 -0.9552428754343829 
1.629993970097206 -0.4167616129019324 -1.02313920980465 -0.7023424478771353 0.1290969032040749 
0.9467761360808017 -0.0702814882277783 -0.4677798078277531 -0.3897369580530731 -0.7761571531115449 
1.387826434504861 -0.2206646031864264 -0.5881979069960672 -0.3245662951951977 -0.9000323546676624 
0.4941421992066021 -0.4775469884736981 -0.199585910187919 0.2751581684009731 -0.5189326045119929 
2.100435655976026 -0.2634770550870966 -1.861641895907139 -0.7363995950849457 -1.446023455913155 
1.779975709189686 -0.8878654775691157 -0.6558233740380454 -0.444201051725276 -0.4178237334919123 
1.556452077685037 -1.64351850389896 0.34997482571845 -0.1637468597972258 -0.8470597120052595 
-0.2345164362622919 1.303544324500842 -0.4044828858307052 -0.4067998440291953 -0.112256470971384 
-0.3934568853805512 0.7533308333111546 0.1004250965473716 -0.3251889781962533 -0.08204135829784455 
-0.3572504332487218 1.095206776347183 -0.1879619286616977 -0.2890213117434308 -0.1604608580168657 
-0.1678822424927582 0.9428799559382121 -0.1735948104250411 -0.1949225788876008 -0.2927282291093051 
-0.4503683933283217 0.4711010109443057 0.2345722108346184 -0.1309593727040797 -0.1358786865610113 
-0.2807286590670065 0.8614764661690594 -0.1696230114309802 -0.1169628432013212 -0.2611025360843369 
-0.356989699801306 0.9104531399756155 -0.1440938530936074 -0.2418359116026209 -0.05330900016289753 
-0.3566585251443681 0.3631170384661064 -0.1468136807627749 -0.1617439130207555 0.3717694495423519 
-0.5229707242168208 0.7724143139923534 -0.2070235328615947 0.04125650093168627 -0.08108080777794653 
0.007650797318931789 1.136772770788075 -0.3924798433492976 -0.343035372583288 -0.3185608322068527 
-0.2585353824645377 1.091223547012916 -0.2600975270584967 -0.2888642179465173 -0.1634449515996152 
-0.009976965000290086 0.6541402595143976 -0.09520465781203707 -0.02353160281572088 -0.4860663694174282 
-0.1825727224560142 0.9216568931552207 -0.1869322838510198 -0.2736176346031108 -0.1477084160323766 
-0.2274979257931522 1.156421321005644 -0.3048900482444723 -0.3874383427286584 -0.1429975627049933 
-0.1955520362301114 1.057231999396007 -0.2922223803656613 -0.290182661916314 -0.2179804726411717 
-0.1974551821810614 1.025894520677306 -0.2562597560187781 -0.3445698576568104 -0.1619104052995837 
-0.5968280785735951 0.9143691508643151 -0.3380986833533756 -0.06530792208323943 0.1918792271658363 
-0.07851124460470825 1.051962925431982 -0.1742101507471554 -0.2871654834696564 -0.4099202040701582 
-0.02921053286171033 1.011227121726627 -0.2690329212994332 -0.1951630588889339 -0.3959357234276749 
0.07095118290160883 1.039534222749263 -0.4546843638909166 -0.1519737164902864 -0.4276495676972478 
-0.03767565901599183 0.9508657065462511 -0.3934158553963461 -0.1899380153173241 -0.2747775064609818 
-0.2205046762864533 0.7056129271690404 -0.3458799204254163 -0.2490691378160462 0.1375319142800959 
-0.3487585169780782 0.6667994033273683 -0.100506948319866 -0.1554686544747317 -0.04666568982263172 
-0.3124306976432827 0.8494804884427407 -0.1535870642665268 -0.2108481305697224 -0.1397094270409872 
-0.134245476312511 0.547102442263193 -0.2508043424157009 -0.1270562476647235 -0.02847939185608563 
-0.1165452703879169 0.7252675440162438 -0.3915093962065599 -0.2417668240735386 0.0345129466236466 
-0.2727304053809703 0.8325471348036064 -0.2128726870944841 -0.1375120039227944 -0.1837316680074898 
-0.1205054656015219 0.5271981229666393 -0.01931588431049879 -0.06543966754438961 -0.3941586201821067 
-0.1889629774725177 0.7591126172041081 -0.08758679357715711 -0.05886426471923574 -0.4612792165403974 
-0.1741164127045845 0.7126038672104791 -0.06637846283756429 -0.113889326641556 -0.4182216913609786 
-0.07052243529556035 0.6765165642331805 -0.1384696720327894 -0.008644828949283336 -0.5077666564381013 
-0.05649262013561069 0.6245556131250617 -0.07422796308987457 -0.07690830852302274 -0.4575737518016217 
-0.1507281746429113 0.6460791504160063 -0.02237566920119672 -0.06532379518197792 -0.4640272003167822 
-0.1402767365857414 0.7835335547079079 -0.06260616864784442 -0.07542798316485799 -0.5322163247618765 
-0.1957031309463583 0.6753556328362772 -0.03476080133684224 -0.1318687903912478 -0.3922131084960787 
-0.1425309114599161 0.621987844567752 0.04458450939001028 -0.2194309809289018 -0.3765592496229445 
-0.1252673247226722 1.166732689417748 -0.3850062546024745 -0.3860790721857612 -0.211892213916335 
-0.06333623128172113 1.074528416415294 -0.4340162546079176 -0.2275622603658919 -0.2362563361614154 
-0.3901482301722791 1.228278028402104 -0.3330274512013862 -0.3071766072538613 -0.07620684907138588 
-0.06237024599197157 1.020913834911396 -0.4726432738209483 -0.1793195846709502 -0.2444244621187654 
-0.2403034461009981 0.90244567320402 -0.2883391167729112 -0.1295110274660707 -0.2155736301665756 
-0.006611206837528897 1.043838853205175 -0.2270801432664876 -0.2537665050161678 -0.4626671480476893 
-0.1776729850138951 1.266218485616612 -0.4242726533050329 -0.3527241349681237 -0.1897085549117729 
-0.2310205932442122 0.9684367637364064 -0.3898904629552496 -0.2267411777610517 -0.0405133115475125 
-0.1067834480330414 1.07729312823315 -0.388272179001814 -0.2421314991936466 -0.2929477365288515 
-0.4687721785287311 1.177775111278363 -0.2188905065080851 -0.2073071902151832 -0.1490170251056503 
0.02637596120419497 0.2835468858144224 -0.1099666391076531 -0.1404525302064664 -0.05376186164889678 
-0.04593107018309146 0.06559866232649604 -0.2107611163165128 0.01775954544583087 0.1877610965402341 
0.02857946449180597 0.1590060176274813 -0.09293307801916174 -0.08841659912128631 -0.04048445160189993 
-0.01160382986550404 0.2531828988559636 -0.1523054548741568 -0.08066168122509047 0.03957677068716062 
0.07853360047181761 0.1752495956759646 -0.1753912451152408 -0.06786322228697653 -0.02778317691720376 
0.03090431412425045 0.2821651981882192 -0.1438916309763496 -0.09204659467748429 -0.06016906046509666 
-0.04199705237829874 0.174173265638486 -0.02488151609198062 -0.1037303007976013 -0.001306068442752268 
0.1053134238585682 0.2254316754268969 -0.189342477145865 -0.0860600332314303 -0.04293650181055738 
-0.54116703111483 1.571293856016948 -0.2579126040028468 -0.2956716443298176 -0.334556426178669 
-0.5028627236520206 1.866101437545353 -1.099638462318361 -0.31499325631489 0.240165917444223 
-0.4862621611518396 1.465570531469922 -0.478042335899276 -0.5078346377370565 -0.3443162073849133 
-0.5858496198020001 2.191610391208255 -0.8779281891727211 -0.5128173456491062 -0.07520318036718127 
-0.7319088691087947 1.642962179846102 -0.3358052549613189 -0.6026158885551404 0.1252289658287772 
-0.4927073734517338 1.745191349154785 -0.6161560394255241 -0.3482086384859269 -0.2155561749004309 
-0.2897897929706304 1.275823025545272 -0.2816431989286581 -0.5985321683275864 -0.2562893578013521 
-0.3220761390712646 0.8267196559407833 -0.6241533968634507 -0.1529196567288824 0.1504095573636912 
-0.5288764910985696 2.063838152705767 -0.797618376814565 -0.4868975748967504 -0.1873945850225555 
-0.01176919823388152 1.780350094991936 -0.6392990153360739 -0.4813396882290202 -0.4420841359692796 
-0.3916606325972654 1.946034974511905 -0.7386734053916937 -0.7019396356595224 -0.1098505669970964 
-0.3873073788299829 1.736747778472022 -0.6184539982510908 -0.6158657516971001 -0.09381965182460415 
0.04042571150444089 0.6166426090403366 -0.2062110511827712 -0.2038740357593824 -0.2004184572603495 
-0.813191243061286 2.190507179675473 -0.6582569648986122 -0.6894248935046265 0.2722317168109385 
-0.06476894895304243 1.991961184811591 -0.7743315915608442 -0.7439969019221286 -0.2082974263752722 
-0.1121149762495823 2.469975587593877 -0.9224226000327943 -0.8273921908391264 -0.4280921162773704 
-0.4907415990154522 1.98357295709442 -0.6253328316836513 -0.5243278121409098 -0.1605679271950129 
-0.1566010334997424 1.588535153225533 -0.638625236439747 -0.4138480965891851 -0.2880449544298118 
-0.01223399046989489 0.1054525009854859 -0.06522494119499261 -0.06982061082149826 0.06903798543290676 
0.1119209971066765 0.2039493331782962 0.07044959858195984 -0.01188045184018886 -0.3931053104038326 
-0.05043994695986992 0.04002749183592606 -0.01841172523337643 -0.0463238950040446 0.1103275780429835 
0.05700618353984335 0.07948075784481541 -0.05958814230726652 -0.0904949694131893 0.03937453172386279 
-0.003019082514978116 0.1343559129531736 -0.106519798286292 -0.07476856961036125 0.06727643454633446 
-0.03805982548910806 0.2422913207637569 -0.1369877700296518 -0.01385266656319683 0.03517087123236398 
0.01239674683174299 0.1312399885695158 -0.1264611884861172 -0.04588981096399583 0.05836481077211442 
-0.1022389765751588 0.2006299205163528 -0.05759441521304505 -0.1092189759590511 0.1144066134394757 
-0.01858449778860656 0.1254035314177137 -0.1210336590027295 -0.01137291669159914 0.02600314436741759 
-0.1650779338066474 0.9873159637943353 -0.09409019229059762 -0.04313089401235144 -0.6601065383063693 
-0.09381163125106776 0.8261315236116857 -0.07461875978164276 -0.09249723546280789 -0.5655366088350571 
-0.3063208032999484 1.067135008600573 0.1058557849935945 -0.1834061654331258 -0.5622463323030504 
-0.2798057177678819 1.204760419354267 -0.07484675326528525 -0.1577590296993855 -0.5788800050264897 
-0.256434291665472 0.9850312172319996 0.09311224389572671 -0.1009693010629874 -0.5828907322774967 
-0.1383991442386441 0.9331482640988412 -0.1127723445885993 -0.1083226090181823 -0.5679348248353649 
-0.1628636082880041 1.068984757516362 -0.03927181218799817 -0.09706900816593446 -0.6557108674493356 
-0.2799686321961654 1.07888775854231 0.07689384084149666 -0.1349815452218764 -0.6794348055092615 
-0.2767028793512563 1.029668300485802 0.02329005665452624 -0.3290654269414984 -0.3873988097982277 
-0.5287839972223745 0.4944127693965148 0.4714426712315044 -0.3683265776812491 0.04833635999410182 
-0.3725203735381543 0.03222805412827899 0.6676793559065132 -0.1994834227684671 -0.102815992021635 
-0.5533564302882649 -0.2471754228684299 1.41631841190711 -0.2321536479435278 -0.2134550759212546 
-0.2520324056116423 -0.08879507587611589 0.4900580559011182 -0.2891900348263324 0.1869569083341557 
-0.3053873600405418 0.1416633763836479 0.4609160254229536 -0.3627952436077689 0.1226253166641976 
-0.282698333254291 0.1626180525228529 0.4222052613150221 -0.2516922386598175 -0.04016849713074905 
-0.3247485504358242 -0.02640372489973359 0.6895765273117023 -0.1871737795679111 -0.1137037471868814 
-0.265480773981904 -0.1361749248200227 0.6311173468551962 -0.2964267343371288 0.07092771580014413 
-0.2941537307861489 0.1499589919478097 0.4494699711052171 -0.2674684048554892 0.003145324104901762 
-0.4781202195833061 -0.4058225599045218 1.734730831507362 -0.3846333176412353 -0.1106005821543015 
-0.5168203658412169 -0.5436529676309111 1.575958221149099 -0.4881186683833039 0.1942736886562243 
-0.5205297176751579 0.09906532768211106 0.5713436447616881 -0.2622564835701754 0.1705574769612953 
-0.4436746637100902 -0.2887559926276093 1.209961234185736 -0.4741378281494021 0.0174274190934421 
-0.4536504194422898 -0.4749306707386681 1.656695618500341 -0.6240723826315495 -0.1426362043188411 
-0.4286655914790904 0.02381581416628036 0.911167795613501 -0.4311309369349329 0.1392885559458774 
-0.6727965779581506 -0.6950719711972085 2.099143193624366 -0.2489937494711953 -0.05919083994023776 
-0.5968069476988681 -0.820156372911518 2.033178927640579 -0.3663236553636939 0.01398074710429376 
-0.3484170292602299 -0.04216781486642924 0.8492609911047166 -0.4229183579221397 -0.0198771429209544 
-0.1839552916679138 -0.1731000086947718 0.27832548517936 -0.007557134464309133 0.09949354260753655 
-0.3024555958577519 0.1589013394183926 0.1818266617850935 0.01339304840445633 -0.01842389638719776 
-0.3440670697139484 -0.09842098490634114 1.570092083999861 -0.4885305616347531 -0.415020775857291 
-0.3790078981855196 -0.1427031044102935 1.347023849699412 -0.7189122009962566 -0.003460772318149637 
-0.3329500008062392 0.09459371283221212 0.6928436320513524 -0.3912267722572508 -0.03081138582110059 
-0.310183089000756 -0.3823838329698395 0.8134208931107357 -0.2256976582399416 0.1480425738566034 
-0.3736056000574616 -0.3823163600025984 0.7323588281456177 -0.17675673244337 0.1588882169567401 
-0.1325017351067477 0.07303540945278708 0.6415016120768202 -0.4115068623997624 -0.2254036169855702 
-0.1617362983892818 0.1222128882426279 0.3755210988542577 -0.3957323065443258 0.0392067379402208 
-0.3743490266100193 -0.1945813830228005 1.246796149142684 -0.6511607748796108 -0.08336887000512484 
-0.3620839374156319 -0.2495406965954597 1.214404204953957 -0.5688322295829422 0.002624639352323839 
-0.1914084777636003 -0.2983219216177997 1.439104326585069 -0.6485653910658251 -0.09393314132104703 
-0.3603170165251139 -0.2101266345764058 1.167478989582055 -0.528408329193784 -0.1058966916559477 
-0.4089059078158978 -0.2046335800380462 1.272817822913618 -0.6014423324817939 -0.09720647316010879 
-0.3960720765504019 -0.2733022162956557 1.048954876446872 -0.3891461365009776 0.06789863535101688 
-0.4438573578914579 -0.3307000258683954 1.208762043531978 -0.503759729486263 0.1285929285715642 
-0.4386037505310454 -0.4111002151941338 1.476928613947737 -0.6971321711630462 0.06719466999873856 
-0.3343014082579248 -0.1370105350909864 0.9981488082235819 -0.4684579933565556 -0.03134625124364593 
0.05033560622432875 -0.274440512109171 0.461087988251339 -0.3382285981671602 0.05255518069059553 
0.03186382535927431 -0.4413163902058784 0.8270959174289279 -0.4253945506446497 -0.104218300499313 
-0.4622806478139129 -0.4371360817718727 1.411541033464287 -0.5482672273590247 0.3186212663059216 
-0.08723794933211332 -0.2249981259208631 0.6623712853529629 -0.2506173446870996 -0.1346990092834487 
-0.3728968356077362 -0.408667858699951 0.8023790571733944 -0.335508488798884 0.4161690511042834 
-0.5065503454173106 -0.7210489960872237 1.328789066020953 -0.1443007106215204 0.1890453440383104 
0.2288108559983168 -0.6622257942439869 0.3463502269119453 -0.0327639464559592 0.03363270987634292 
-0.1737810458835747 -0.4189276330521174 0.7215826135321181 -0.1815747020355622 0.1580993699795066 
-0.3157441544083411 -0.4650226048163264 1.233391559801825 -0.5043522312190758 0.1399386044911194 
-0.1569689816130975 -0.5720972106034712 1.736697291415077 -0.8384944044742645 -0.1464540830177036 
-0.3383473601982697 -0.5012478663855817 1.527213352943313 -0.5606240591251396 -0.1969173373821635 
-0.2743272792225657 -0.4662908946169927 1.612525179431421 -0.7057370544881028 -0.2226684965367042 
-0.3797661516930458 -0.5258193185333416 1.667641280754253 -0.7115434836708541 -0.1117856342793506 
-0.2925254633751052 -0.4974807058400206 1.616899611892713 -0.6952978981753091 -0.1422716417152818 
-0.400871914748379 -0.6243777898444354 2.408483971405354 -0.7408926284956421 -0.3321412003570524 
-0.4058498580391972 -0.2459837538307782 1.238298319221987 -0.5566362759714441 -0.07836745899812105 
-0.3756382018376458 -0.4821655252255888 1.669808419810153 -0.6831218482860477 -0.1620748591234342 
-0.3483889729893692 -0.5996996293989693 2.031749507343151 -0.9034383497494328 -0.3977605757633008 
-0.2955556241426064 -0.03240577906218679 0.7362430278105773 -0.3647053959844822 0.01584650700524904 
-0.356236930408538 -0.05169710391849206 0.8592511158255812 -0.406413562781587 -0.02939022299505198 
-0.6172732407840699 -0.6515611834148723 1.627990385109129 -0.1857661932948558 -0.1570989764838024 
-0.5078090786654318 -0.1370222631363343 0.7091048373229516 -0.1406766342432598 0.07360089697223304 
-0.3565759974685311 -0.08946954478649893 0.7054222639671643 -0.3191344032320556 0.05531488351978554 
-0.3792922622752841 -0.03220434383929075 0.6826212987617442 -0.191921950705234 -0.08233236311249967 
-0.2184207787306527 -0.2082650184941717 0.5015115872102155 -0.02748823965001744 -0.135734981041976 
-0.3638761047653964 -0.0117872955819819 0.5692684136794633 -0.1636591535272879 -0.02781614435263496 
-0.3206242473590443 0.008725950430052806 0.5772824783289221 -0.3146165569770759 0.1000011837018934 
-0.491693359275645 -0.3978886452903442 1.367633503043106 -0.5980521077126065 0.4321397338259931 
0.1627472093839465 -0.4347023847617766 2.099375126675788 -0.9518575026813493 -0.7461177992309832 
-0.3296246947898084 -0.1481096214710915 0.2222848804261122 0.3354695473802456 -0.1422340393340926 
-0.2026640378240357 -0.02236881122772581 0.4632847394601474 -0.214618758298755 0.03964376412383445 
-0.3815790965028321 -0.2069056955666544 0.6175852292236412 -0.2683666055237919 0.2457107569066782 
-0.3162580892285992 -0.3241854674160198 0.7489187322582913 -0.2411568183409351 0.244510397380489 
-0.347488598082923 -0.6548200986206273 0.9159952467202037 -0.2278499028347443 0.4317213255252306 
-0.1846136180189134 -0.2739433109763113 0.4640806274254594 -0.1397590454720584 -0.04117942284130601 
-1.123368757522241 -0.8453817740556016 2.525296449279629 -0.1942523054762212 0.0811680405413856 
-0.3908455165209375 -0.6569431572327005 1.748788691254748 -0.7924984408617811 -0.09238296000945349 
-0.1500261042092382 -0.4673050734046792 1.708748233176351 -0.8675571777543164 -0.03606462612094799 
0.0241276482130431 -1.160519240043703 2.262522251722721 -0.6450925891300497 -0.8779657618127984 
-0.06014154363917354 -0.7931300690475871 2.541718860397337 -0.2132900113790141 -1.450782115419239 
-0.4495013474804435 -0.9212007276716693 2.180059280371577 -0.3129493198708599 -0.6084376108822853 
-0.416107075449815 -1.086106736903308 1.509507164561096 -0.4586225191244295 -0.3333041144483064 
-0.5719108191549845 -0.7122795869379699 2.486217636014506 0.3025329401955397 -1.274039494271185 
-0.4825286293477809 -0.3805067209205591 2.058340159312158 -0.7140750790593459 -0.2645684881890552 
-0.1796309277793763 -0.6019791515388019 1.92635595782908 -0.7136798311241073 -0.4465699969166557 
-0.4649636291062931 -0.1171030341732122 0.9266392275052351 -0.2888007246087047 -0.08113807282151084 
-0.3886296528239233 -0.07120593743594426 0.8245111891869961 -0.3778752138300475 -0.01024459689012591 
-0.5923440639761177 -0.2229638498133089 1.037760365708797 -0.1199723275560255 -0.06425436146816701 
-0.4106575491051027 -0.313159023155727 1.254228023119593 -0.4447978294351323 -0.1631485454051838 
-0.389835672283333 -0.4448526936159191 1.325767762656218 -0.427687817510011 0.1855271296121637 
-0.526855872188743 -0.1954743834789419 1.080129409478119 -0.2621542415839621 -0.05157981513243516 
-0.4995726283795763 -0.2130282818431797 1.051720607501464 -0.2630622527081359 -0.08907970203410882 
-0.213923026240867 -0.4046768325546775 0.9492922337344313 -0.3159697972557443 -0.1767784023905319 
-0.6304810718943746 -0.7332796849250034 0.9869365616795918 0.1533520945539285 0.4265399359513791 
-0.1972253197269561 0.1201626515174047 -0.3650170039868985 0.3612978159290557 0.09903039864416065 
0.0003051138408094289 0.1474467839182748 -0.5102379393316787 0.6096957108680456 -0.1375607946180764 
-0.3751998413503287 0.2984513888103456 -0.3631311059646972 0.5649091052628666 -0.01619914545835444 
-0.1765310106237477 -0.01823585868509375 -0.2307562259763476 0.3743772777117827 0.1033219426568587 
-0.3482055459326683 -0.1914142486763048 -0.007234389311393858 0.6418624690420652 -0.127153743035704 
-0.340054991767872 0.1694324317771203 -0.08397192142418269 0.3853896930254482 -0.09525626490297588 
-0.4682261139682899 0.2248421381171029 -0.3372773721574685 0.5031629108782879 0.1287135315438213 
-0.3661828611316262 -0.02858636509849285 -0.005711421632069585 0.445101636541753 -0.06126574999423036 
-0.2914348414836351 0.03694176288803196 -0.04709176575168374 0.335208320448506 -0.03680028087447942 
-0.3619580991360022 -0.63209679510988 -0.374307588772127 1.479391919852551 -0.1216735809218376 
-0.4225921342925015 -0.4676853949271266 -0.6306020064718003 1.579047042654929 -0.05561222029232781 
-0.3086129530162711 -0.4696259782863856 -0.3567827431769154 1.121247763372193 -0.07487486258231328 
-0.4995355736676929 -0.4930484528596147 -0.553469746445395 1.760827115868038 -0.05275974838122822 
-0.5163308527457678 -0.2172197619840898 -0.7718284167978466 1.351599930275817 0.3758354012552026 
-0.5948447170088766 -0.3414311732262619 -0.5380513081192965 1.412662165254772 0.3571466600523067 
-0.1876767420393969 0.1217899455522799 -0.2614427618938422 0.3996467983999855 -0.1518691791098463 
-0.322423300541723 0.04426457620210014 -0.3475584205424215 0.6455723461951313 0.01350795853613432 
-0.2206646186095679 -0.3380703778979355 -0.5568788952873073 1.107693955107532 0.03549598387283347 
-0.2379776803692974 0.07362283059957674 -0.2833856396823447 0.4654710976085166 0.05068603762072053 
-0.01526654290355918 0.07709078781867694 -0.4678972704900533 0.3074921101052235 0.02754185401041049 
-0.3400875693292569 0.2078916008677084 -0.297412260581759 0.486451901881792 0.02445222345340119 
-0.2242320947558358 0.3906018501509942 -0.3914726000788437 0.3777140849906083 -0.1547171707536138 
-0.22223122766224 0.08996433451547875 -0.1827305383901541 0.2993045888372208 0.04521557135895912 
-0.2741945033136329 0.2970346637548368 -0.2751067892140465 0.3898456017730482 -0.1605943470870735 
-0.09673016906260981 0.4470043572738929 -0.4656228323161296 0.2908350836482517 -0.1165858655652694 
-0.3258036803192176 0.6364331491876514 -0.7314131369208507 0.7048882762191109 -0.4263971289820182 
-0.4178267338574329 -0.007245443058287069 -0.1734107776894313 0.6594562278282027 -0.04504776823676677 
-0.3456001832801366 -0.1817766023088855 -0.522696809443929 1.138530409347774 -0.03487821044643963 
-0.3590352337436777 -0.0848615350117677 -0.4958667117369829 0.9297577750113479 -0.03360357305787911 
-0.3906261709217503 -0.1502402077869184 -0.5130656568079048 1.137083568595728 -0.06071082662638851 
-0.3479052030038385 -0.1026473324340824 -0.4559006455999526 0.9450082455149466 -0.01691112474708542 
-0.3405393591709631 -0.05641561449936946 -0.4479197878648598 0.9130175523908409 -0.04184998220049403 
-0.3493091220305758 -0.02356581075376231 -0.3850685034374978 0.7804510051485977 -0.02511277649705486 
-0.3332737089388469 -0.2920897376378798 -0.5835534574921455 1.129835145291168 0.2724121358236605 
-0.3511327248680097 -0.09422875242969894 -0.2733527450729099 0.6849164478982229 0.1207564869392876 
-0.3568924639971325 -0.2695106049035128 -0.2469229423530836 0.7127207200051453 0.2848795815797391 
-0.1084898867885245 -0.1713515071024895 -0.502968619465503 0.6296550727473266 0.04452248566255781 
-0.3632732310557601 -0.1575464015113033 -0.21486718236036 0.5199616852790069 0.2803424807120559 
-0.2227305582053594 -0.09402165290308444 -0.4604890705296481 0.8055553468358552 0.0235585187838859 
0.04766205828300049 -0.3577036704894389 -0.5610727271989278 0.8809551021612931 -0.07221631719892778 
-0.001128661043618908 -0.1175974831031544 -0.3985246183632711 0.9571827184710288 -0.5119301878386256 
-0.2698947809797279 0.008176335786059858 -0.3771777632950102 0.6192458758024215 -0.007718843366088068 
-0.1045675437430095 -0.07910143279957307 -0.5557212101502469 0.7417921302372319 -0.07274098453979251 
-0.2101805878892551 0.1527715477442266 -0.479581688984719 0.5266118606114171 -0.01477191080551003 
0.1047656428432569 -0.1160806698063972 -0.4660631089575719 0.4063294986419076 0.04307157656913769 
-0.2084463230619237 -0.5138787869872427 -0.8583535651276333 1.76207932652503 -0.1510547981686629 
-0.3353600650089638 -0.5426574416144754 -0.8189037037258368 1.71798653907944 0.04605631225663243 
-0.4558607163208687 -0.4265161779914902 -0.6279864747064788 1.558009103511432 -0.1030726288528752 
-0.3190377114393062 -0.5205335367945482 -0.7369059230274079 1.70506234997115 -0.192641212532513 
-0.1880361279878879 -0.253500020292094 -0.5439515191675244 1.027190925122905 -0.06557387598641649 
-0.5063042268804255 -0.5487604873014015 -0.7931912607252463 1.968821866853688 0.03951920217050896 
-0.3924298759039404 -0.5205758602863201 -0.7242946092058713 1.675357150476208 0.1319069677141176 
-0.5744896584132015 -0.5254933444709343 -0.6441318186837758 1.698799585753869 0.2275027744884492 
-0.1701912988205423 -0.5599079514684036 -0.5039090619664154 1.576845758846386 -0.2804176137145014 
-0.3186083422911189 0.530253749868981 -0.5749704353084542 0.4534976967565525 -0.191696557209729 
0.3761315974195443 -0.1523714339327046 -0.4820803001477801 0.280854483859608 -0.3659493010186262 
-0.3228105066837876 0.4566908758947263 -0.4220491760355173 0.3909745122470908 -0.07079280549223765 
-0.2743339535283957 -0.07792630415150033 -0.1838320461629545 0.4767453702479156 0.1150476851766247 
-0.1691843112417608 -0.4699609175144607 -0.2284428243800211 0.6193646450693795 0.2455536411214898 
-0.116510128734864 -0.276408234580407 0.08349682171567886 0.317209935831987 -0.07134300990447108 
-0.4989488604194311 -0.1886183962697162 0.007404687025282851 0.485076401929222 0.3117484642749886 
-0.3093949714498668 -0.1986591874562927 -0.04037568119086735 0.5925597248155107 -0.09977943896219675 
-0.3612874077664686 0.0606752918454124 -0.2734138966568452 0.5880841026997399 -0.06870194453139328 
-0.1572423419386623 -0.3208015902122618 -0.5930761090908931 1.027501039538322 0.01809817180577394 
-0.3319399361909907 -0.3909504586702831 -0.6377938000592308 1.218632801513934 0.3407300322427873 
-0.2521959114670424 -0.2798892552957932 -0.7453143355043761 1.253198391088515 0.2657642239285347 
-0.4482650332897576 -0.6330367838811047 -0.1995972543546343 1.018945768157436 0.3532371761756039 
-0.3253711810390084 -0.3227124439502413 -0.3261865836085526 0.7578696953165024 0.3485398442127218 
-0.5871531303721855 -0.2417672642637232 -0.9719018296476556 2.093967999887918 0.01625796802166398 
-0.4190347558787273 -0.2446717616955421 -0.3716499568671713 0.855896185248757 0.1812780589088661 
-0.2497966433507714 -0.2326502688850923 -0.1946295866867105 0.6895815814756944 0.004539783911998157 
-0.2488407728183182 -0.6302276350739541 -0.2574049286257374 0.8851404076251626 0.3811695058898695 
-0.4210004754007836 -1.219414068711281 -0.06772847322828431 2.861637960610307 -0.9796289215921149 
-0.483266888857733 -0.6059543155354422 -0.4555210526482815 2.731453955802884 -0.8021104170219837 
-0.8470887092016398 -1.040602002496274 0.2703016606903419 2.619659929762737 -0.8168868553455427 
-0.08291004007846509 -0.6905139031675055 0.01490476729179342 1.787609493961922 -0.9252832437692227 
-0.3869867199405174 -0.5695854337470985 0.4634387488609597 0.7052012558231735 -0.04009603041991541 
0.02355193142411144 -0.4872436626899527 -0.1874388192357166 1.521812332514435 -0.9264802811576902 
-0.01959518575522877 -0.6117346219046981 -0.07162343374634518 1.685104909653052 -0.8417817767591895 
0.1105828832496355 -0.5809280983909237 0.05164315882372347 1.127423730661186 -0.5894942915348076 
-0.3673600787283234 -0.7762692379560679 -0.7312557317767104 2.187223710806547 -0.1559950556452349 
-0.8550359915987924 -0.5220513238880484 -0.3330329345262428 1.911194118954922 0.1409312512966597 
-0.294939530097017 -0.6486013339485545 -0.261988792212486 1.15353453755919 0.2075131483793888 
-0.4619532910762495 -0.41314683341646 -0.1437907905576336 0.9389431065901107 0.1964475978750048 
-0.4964577046119884 -0.131967753782198 -0.2186195109126669 1.143024675763434 -0.2184678574209305 
-0.5318481566470605 -0.2516161169368769 -0.2358108444448278 0.9983152382920372 0.05106062191993618 
-0.3589188675679921 -0.6071048356158042 -0.3450126571662118 1.15678074788477 0.09014467068672928 
-0.6311184308964951 -0.7541446494760267 -0.1905990886509948 1.389434251529143 0.1317674093536877 
-0.3231320696008069 -0.4527904849159552 -0.4092045800637649 1.536307639325938 -0.176476779917878 
-0.1405210487149063 -0.7436612684109525 -0.08333264656878553 1.100529004808443 -0.01260198445723809 
-0.1969405533697026 -0.6577741511961375 -0.3711178578282684 -0.01658308914056094 1.331796367930851 
-0.5204988634710259 -0.7110731212853532 -0.2595845825826513 -0.1317579147594516 1.829224072405464 
0.1318113161568004 0.0207335220237573 -0.1672154713520999 -0.01900920834438585 0.0385247854044696 
0.0650871661135979 -1.070421883875736 -0.1268077448220736 -0.2628383401800893 1.488976771045534 
-0.6196078555454463 -0.7740931204193301 -0.2833509380666785 -0.1419116972880151 1.533273476138783 
-0.416417078280488 -0.5368899229771861 -0.6531057754612386 -0.5698156156054761 2.219725766656745 
-0.628776225884178 -0.6073793780375306 -0.5084030217562898 -0.3902756281783332 1.50504660529958 
-0.6715200468788128 -0.5133584450140645 -0.4547344078565388 -0.2228803471660432 1.259626333742331 
-0.008173598419046278 -0.3311415898000191 -0.4197926000899292 -0.02078810085309102 0.8802228916163255 
0.2247246614257067 -0.01748526811046197 -0.07311597993389735 -0.06110710881916268 -0.0919517038469717 
-0.2264683136648568 -0.6394292597018068 -0.0108027188620092 -0.1745955733986592 1.313106037329794 
0.05690188112898781 -0.7037796830591593 -0.07164656798399377 -0.1828494663544646 0.9859081308561077 
0.2630804165985355 -0.8645190577531333 -0.1214064800735491 -0.03739230804240398 0.8843956783521052 
0.1387388573797643 -0.2736668742452012 -0.1076417157115996 -0.001959332186791503 0.288617378601242 
-0.141796179333337 -0.7268179566064599 -0.1725748164088017 -0.1302311221541406 1.021803506326987 
-0.1383168934256453 -0.9953915559745489 -0.1952819390151363 -0.4930267050084077 1.9175017696118 
-0.1490948874271859 -0.9992865910904603 -0.02018990168672881 -0.254431918740179 1.44748582894558 
-0.2073876122882163 -0.4801962390163263 -0.2657043605580869 -0.3506037322892101 1.330935231972896 
-0.5758523613867698 -0.5003582389198135 -0.1027180234628272 -0.1878410083141106 1.713404544704451 
-0.479006828043613 -0.5533212950806283 -0.1712576825503639 -0.1298904895303968 1.542045660080646 
-0.5330955855070061 -0.947532803048815 -0.314457108460914 -0.2558635142591087 2.114431440090026 
-0.7961395257909355 -0.6354316867591586 -0.7120581883849407 -0.6097522989230155 3.159865810904405 
-0.5342535381113874 -0.5185784157938931 -0.5971941135305913 -0.6512279828428438 2.653113295672497 
-0.7434108415332659 -0.6193171604456281 -0.4847583649451389 -0.6182371166302746 2.830470344602788 
-0.8860228886777377 -0.8145441448588849 0.1124998840314924 -0.06571502398956276 2.088116714784354 
-0.9554933040671875 -0.6799050006730784 -0.4005096740631441 -0.2027144209378222 2.620935834361468 
-0.0419517083191166 -0.6166456504455876 -0.6682967441300839 -0.4552937650789396 1.915216172641848 
-0.2202086326427939 0.008780145019837338 0.07028439798110253 -0.02958035358490476 0.1211002489141886 
0.04335716445827487 0.04554146885598632 0.0007713433011976873 -0.05761810092138721 -0.04340064028533518 
-0.0845189125419358 0.180359563076397 0.000899673782222034 -0.08940704978406239 -0.07408780009912115 
-0.1626027448784772 0.1281496535799521 0.006243447305377658 -0.1115532513024412 0.07993138429275383 
-0.1683213011634275 0.05629177873048494 0.02112309976918112 -0.05763826143154693 0.1291515532264072 
-0.2014066385620518 0.07922492497699343 0.0396054234846205 -0.1202990229501903 0.07083434757282216 
-0.08881965022490418 -0.007996172756563882 0.04567911049947393 -0.0004606210969767444 0.02486191715680648 
-0.3262399826443922 0.1090443296366094 0.01681398855394948 -0.01214518470352946 0.1988728815541692 
-0.0137410321950512 0.03321754523503136 -0.01098816845222788 -0.1334661057584189 0.102224998563359 
-0.194441598315462 -0.2914320746898477 0.1987311337057878 -0.007350966742806581 0.3693778968603667 
-0.04451488194775668 -0.5420893474810113 -0.162931876132647 -0.0464378083884013 0.8664362112401793 
0.1280529970718139 -0.693596776169355 -0.411564240192578 -0.2582104681285048 1.07530120215336 
-0.1564134329246515 -0.586544990348647 -0.1542899230967518 -0.07684014362783814 1.130142432671218 
-0.4887443734642942 -0.7231979240475244 0.1159597917428944 -0.02198571728689186 1.41297420095402 
-0.4438497309492276 -0.8573487179159652 -0.4049448642013883 -0.4367050700879647 2.466107967781757 
-0.8483676891038943 -0.8168733015005752 -0.2284273395232864 -0.1773541418786388 2.457216300010056 
-0.4583820955445919 -0.9362103372074962 -0.6551753077965022 -0.5571960546722595 2.460946861954756 
-0.6830677758624374 -0.7300581264094932 -0.4843814696299711 -0.3290398768872722 2.027605618439694 
0.04981849012525526 0.05119368858511477 -0.07512228608153332 -0.03162357885431707 0.006503704546715315 
-0.1321516387944189 -0.02202545632236192 0.04228393831582857 -0.002608038988581915 0.137146219911342 
-0.04454350492943442 0.06845499327677337 0.03338554949073547 -0.06354977968148226 0.01021266296372138 
-0.03057837025607192 0.04364323051039043 -0.07355216187898223 -0.03423635495513635 0.08379584669664006 
-0.1093446862499769 -0.008676555014484305 -0.0765859071419151 -0.005578027628294391 0.2485069180603612 
0.01210372758788166 0.03748492998443276 -0.04246732473169158 -0.06345508769059054 0.05700533186271389 
-0.02714827367977317 -0.01468180323213699 -0.01528729061060294 -0.03462857118761968 0.07554487650460878 
-0.134681456907613 -0.001227622548656088 0.08073511898708559 -0.001886426420514861 0.09175150020254866 
-0.02134572663078167 -0.06329407685526982 -0.07497952211088685 0.02935521187509389 0.1484732430027084 
-0.4834874406439673 -0.4320307959754192 -0.09606880183085058 -0.03571941333456329 1.234147353275103 
0.1967521901897702 -0.01546796358699853 -0.2321099436395567 -0.1166823326696564 0.1088306249695272 
-0.1766036844566668 -0.1191328365776557 -0.08803492183206441 -0.0334474331140559 0.3136433527212783 
-0.306110971205799 -0.4575749226552165 0.1793875578841759 0.01300041969171327 0.5950421752141576 
-0.4876797885098526 -0.5384397800976326 -0.3735244966034127 -0.465809877955547 1.858437414066419 
-0.172900052855129 -0.5625203596734564 -0.09723596455223829 -0.0210121914977445 0.876287106640172 
-0.216562779459758 -1.003037299250792 -0.1526196666531301 -0.2000943318886661 1.696586151324004 
-0.005478550167068661 -0.8689915553996138 -0.292032236941341 -0.5835035332410548 1.7824425656693 
-0.08697549103074682 -0.7808042813457061 -0.1803241852710432 -0.3841195684196053 1.694279717333293 
-0.4829445150449349 -0.7255019386500152 -0.02852838860123491 0.1687869344124697 1.1366633599807 
-0.5756556212846659 -0.8644480716413802 -0.01646339122066566 0.001788367306880689 1.730105328985017 
-0.3987008076472701 -0.9529879066057606 0.2575666305565195 -0.179628654871218 1.196683459028971 
-0.3925540071095197 -0.3510043113168423 0.04507813793597128 -0.1647363550416374 0.6771081536190264 
-0.2479502310362587 -0.3193160402603688 -0.2373525852132657 -0.1520787360790664 0.7572276914240247 
-0.1996608537973283 -0.4673179436569429 0.003076883325152632 -0.1165961820396237 0.5433909334783058 
-0.421564513183424 -0.2808081920120289 -0.4005592191655162 0.02357270881706266 0.9024630014089289 
-0.5352467983511048 -0.8336085960967587 0.1040541766744024 0.09009532834195778 1.38882991102297 
-0.1716566868610691 0.1543804289004107 -0.1115397009129769 -0.2211281590202766 0.1672843234195568 
0.07138573571662392 0.1116425175629147 -0.08387044133132504 -0.03483510043667709 -0.07819061611206667 
0.01741568892814055 0.04031964789924058 -0.04130117512072003 -0.02302629937997744 -0.02274325774302965 
0.05211380320527617 0.1745595393141815 -0.1026512901006767 -0.03757317507248771 -0.1149310369781857 
0.1463520323367554 0.2723589818130914 -0.2319121836601637 -0.04017818338963765 -0.1984788151539209 
0.06834164922324319 0.07367638490982374 -0.07564486941455836 -0.001879393992619471 -0.08523289010310874 
0.09749059200948072 0.1556666885220772 -0.07172389040804221 -0.1015157216097943 -0.09917045631533999 
0.09508086015723617 0.1461364647599722 -0.08594304416999078 -0.02636336590424066 -0.1503968800673088 
0.1136762098284447 0.1533551752241603 -0.1423803062675928 -0.05081242826338506 -0.1082649762062118 
0.07989270594636852 0.1116610752323007 -0.1138388555273159 -0.04678931382690938 -0.07919414534546684 
-0.3385076933813772 -0.8841489994822351 -0.2236815004401816 -0.0882534260751366 1.417203272980891 
-0.05443769877509292 -0.2046466174523645 -0.07048916631638764 -0.1403433214753627 0.4226165573927832 
0.1219444803681242 -0.6416088906010077 -0.1439125733247421 0.2248029818755438 0.434119415422327 
-0.1232376034442444 -0.3553506634057605 0.0643362919148909 0.1049141472522973 0.4136070798073794 
0.002482641554427631 -0.4676635266269525 -0.1008421395734321 0.009819579482808628 0.5750115244757761 
-0.0313262803478902 0.02628080801247652 -0.02423002376316159 -0.1689748091724841 0.1934786029471868 
-0.1157720808769788 -0.1548986935809985 -0.01314240615692413 0.08917864265405552 0.314862209344199 
-0.09028403268031503 -0.2028270895449616 0.05016072015594544 0.0441523339437804 0.2945389507052281 
-0.1464947857430273 0.05181709899680416 -0.121487739022035 -0.01554767173914419 0.2371703130858261 
-0.6759724049208589 -0.5140701965631995 -0.7951813096958252 -0.743870009203459 -0.5269461243166531 
