solver_type L2R_L2LOSS_SVC_DUAL
nr_class 4
label 1 2 3 4
nr_feature 909
bias 1
w
0.0002272583654726744 -0.001919060956911255 0.004984362578449284 -0.001977452446537972 
-0.001857476024076103 -0.0005423787485213963 0.001712464632070038 0.002168112492956506 
0.0004171037077691086 0.0003799048092907163 0.0001203261113820424 -9.017079552637347e-05 
-0.002110697743211079 -0.001979909297211667 0.002907880888708053 0.001240537649317377 
-0.0006601442013270567 0.001340704289775788 -0.002142804103358521 0.003165360517635686 
-0.0003329276501969431 0.000317333695569847 0.001726604649678828 -0.0004951122772188774 
0.0001184845699274264 0.001853917029371915 -0.00273084763040163 0.0006359394775842425 
-0.0003099244710731692 0.002860810017904149 -0.002245926946412042 0.001626098523085994 
0.0002536264353100704 0.00169904829184604 -0.00196879161908306 0.0007959636098687054 
0.0003943495300802523 0.0001700660500255628 0.0009225715249515124 0.0002241153054988468 
0.001067998545128013 0.001670437315668804 0.0006779894422908394 -0.002065937849079427 
-0.0007739776279155957 -0.0007089350580016992 -0.0002101584313313278 0.001019493755466579 
-0.001786191328208389 -0.001064497462816432 0.002382436138555696 -0.0009647087323093229 
0.0002427538749234172 -0.001096547205180454 0.001122851907113553 -0.001044509753186458 
-0.0004032212544633821 0.0002568959297179181 -0.00220904563101946 0.001721248348384095 
-0.0003715192192479017 -0.0005970677569846219 0.001166329558656989 -0.001142839876997664 
-0.0009518085545147761 -0.001908066363923987 -0.001437358713056455 0.002624670808801605 
-0.002549888100822459 0.001866148030643196 0.0002250784083704695 -0.0006629953343790615 
-0.002066620562662271 -0.002797983324337088 0.002205654187419402 0.001290998160367941 
-0.002830802496221091 -0.001509226768970537 0.0007935124879997276 0.0004801274570332127 
-0.001064611154596018 0.0009962731396292272 0.0005499675064308479 0.000916049649467897 
-0.001043431285080275 0.0006881578168723816 -0.0007769101249069344 0.002427494727030939 
0.0007407494440682927 -0.0003344364002488717 0.0003888333254599972 -5.129034775393397e-05 
-0.003733737150401688 -8.991021117825264e-06 -0.0008335825402584275 0.002870888538029924 
-0.00176282108832538 -0.0006676686062697503 0.002597532665122046 -0.0008248382443403768 
-0.001868477776788524 -0.0009670674797051275 0.002356262724438559 -5.573302255015826e-05 
-0.002004438426007502 -0.002017677052527003 0.002991919415404995 -0.001406657858695329 
-0.003334950171778159 -0.002557334256055796 -0.002588281348595529 0.002857987798372634 
-0.002926341571684023 -0.0009762610592668421 0.003513901318268372 0.001052467949832806 
-0.0002535645645223451 -0.002307368982307967 0.002811071506063116 0.002309290142362003 
0.0007418288644038757 9.187949795553114e-05 -0.0004196019475995044 -0.0005604267611007804 
-0.0002994939066120242 -0.0003241484409141397 0.001399682344211787 -0.001058478868472202 
0.0006157912878061863 6.00023182204025e-05 0.0005787776998243032 0.0005167504790355346 
-0.0008117319662889132 -0.001117064245871577 0.00141973981915892 -0.0001459447649606891 
-0.0009903017613838916 0.000563654751263373 0.001993333374789644 -0.0005073915887557737 
-0.001613275987748634 0.0005349273784839285 9.273064050347536e-06 -0.001289402798953607 
-0.003280107597379484 0.003346388578862584 0.0005360758133540917 -0.001644183436852229 
-0.002836560063244516 0.0001155280122983973 0.00283029439480275 -0.0003785639571103037 
-0.001926359048490711 0.001234539387502 -0.001991118358789464 0.0006966277865537473 
-0.00314140630752684 -0.0009667746261661891 0.001823245875329102 0.00176921258909957 
-0.003885753216291912 0.0007265567007137233 -0.000507135542247029 0.003742756340761554 
-0.000480497458871716 -0.001025716036770854 0.0007788330163457935 0.002466041423910826 
-0.002306397868947141 0.001309901921934009 -0.002077546493200859 0.003602831878326041 
-0.001250860708212236 -0.001170002221668327 0.0009076405508705014 0.002308731148712226 
0.002492316647537289 0.001179454509107658 -0.0007921888935008006 -0.0007087744015879093 
-8.077301736970478e-06 0.0004198932254070071 -0.001553211879439327 0.0009505857939089971 
-0.004411742531592672 0.001566466777494517 -0.0006571238007009476 0.002405351797675236 
-0.001036024697059008 0.0007690860056275437 0.002425221800031234 0.0004154579682597242 
-0.004837629559153337 -0.002135897976916445 0.002986422283884252 0.0006282789976403237 
-0.005857046102518098 0.0001698878857987039 -3.66860061596276e-05 -0.001622560439003365 
-0.00288728000474779 0.0007890657577790893 -0.00281913967080277 -0.0007076070230153458 
-0.003271358860934355 0.001203660667655734 0.003353798326777758 0.001416395859165199 
-0.003202284924687796 0.0005398863979714902 0.003729636985762831 0.001190891121272481 
-0.0004321486681579771 -0.0003393568051744926 0.0007690451380272435 -0.003151409499899672 
-0.0004184704063743893 -0.00165070951504157 0.003795647298695102 4.410009266008252e-05 
-0.001279993355103674 0.0003277201491698206 0.003019894744617123 -0.000145114361548342 
-0.00137487552108851 -0.001954755315203477 -0.0007901400592147417 -0.0002290761345977597 
8.094204350273975e-05 -0.001042963873105237 -0.002426345967934614 0.00188921402366579 
-0.002828191136433576 -0.000814205183179175 -1.509074440118101e-05 0.001672240869140104 
-0.003337030367506663 0.00127042939992117 0.001488380791322928 -0.002845109664662982 
-0.00285240530653113 0.0005703902978117241 0.00484167732615897 -5.585594875708532e-05 
-0.001139602794394956 -0.000805905414516874 0.004270171356685027 -0.0006806532243794767 
-0.00121598326344379 0.0001989124820035207 0.0008887707544981684 0.0009283081258981103 
-0.002316877574605163 -0.001886688331354243 -0.0002065685956148934 0.005760105687403547 
-0.002110591857897357 -0.0007812650417086555 0.003399959197073283 0.001184947057842009 
5.096949022002405e-05 -0.0002069281641060478 0.003730674373991321 -0.000366212247421452 
-0.001149169283449123 0.0003180810949261421 0.001377729037181191 0.0001950128245126638 
-0.0001503397610674493 -0.001001831543544941 0.001286433520377264 8.241470909604875e-05 
-0.001594615872502943 0.0003479793372575211 0.0005746766275640552 0.004051690079026475 
-0.003210069186956152 0.001843769732800454 -0.0006099755953263032 0.002040721969556417 
-0.002499572117736579 -0.000694734102040217 0.002044463398579662 0.0008797439591667217 
-0.002047093591627372 0.0001562296497387517 0.0004559834017076267 0.001755232234270538 
-0.003843214848153524 -0.002146778797881281 0.004427581513318378 0.0007317428720215665 
-0.001355857293490581 -0.001046974867929516 0.003325429690368866 -0.001320267443779363 
-0.0008037367478293089 -0.001518494320601144 0.004250945582670988 -0.0003017984915327318 
-0.0004120744336253638 -0.000100382121596117 0.002083231661417302 -0.0009912471539625981 
-0.002362304828054153 -0.0004884915296182858 0.003408689617715243 0.0009930464848038789 
-0.001092436999392078 -0.001474284621322694 0.004124201086033381 -9.880371990011539e-05 
0.002092079626445242 -0.000165073063425876 -0.0004541178741360307 0.001785738130017583 
-0.0003557108463026152 -0.0004415253070183776 -7.691204674365239e-05 -0.0001975730244964631 
-0.001329536345230159 -0.0002339693629149152 -0.0003725870199413692 0.001666782193225218 
5.091297405037619e-05 -0.0004682616411508887 -0.0006396169313030695 -0.002209396332028745 
-0.003188350176776491 0.0002323520854972995 -0.0009442908950402601 -0.001645197217224394 
-0.0005187351439286728 0.000948348010425207 0.001969565132857954 0.001250295721777274 
-0.0006002641627440356 -0.002060823657152789 0.00274342094346625 0.001713152382925202 
-7.821022157417723e-05 -0.002080597594796953 0.001459551958001303 0.0008412200375499706 
-0.001739595902722878 -0.000831549457742103 0.001897947074867679 0.001237057015399763 
-0.0004019095637388781 -0.00131420711840115 0.002210079130396656 -0.0002727663851868909 
-0.001440383675125026 -0.0008352220107290156 0.002622734729619238 0.0004014904368662825 
-0.002368270822384913 -0.001197438852512999 0.002629781412284845 0.001441716681682553 
-0.002791862570893877 0.001645958654135699 -0.001741697171867756 0.002250475278321253 
-0.002518332138268734 0.001211892916409786 0.0002533466378231722 0.001057875394575183 
-0.00281917536132213 -0.0005337583948055043 0.002107083407085828 0.001733571063920442 
-0.004394087642516024 0.002100268903282087 -0.0006551152185980758 0.002822438236794572 
-0.005133552728005438 0.001771458186818315 -0.0002251417517523362 0.004540254364437608 
-0.002882343376196586 0.0009331276795219706 0.0007583218165080196 0.001487771953604473 
-0.002284939280130634 0.00148938050364579 0.002423347987764762 0.002455696569899582 
-0.002463128653576268 0.001031554293185004 0.001321126536988693 -0.0006180624043222028 
-0.001500840782420846 -0.000846701748222682 0.002686735529091283 0.0002159315626585891 
-0.001479300165618517 -0.002543272543583275 0.007794661327990515 -0.001473359103721237 
-0.0007959566753312805 -0.000629328825880191 0.001448642221334687 -9.236671286839558e-05 
-0.003929227402619148 -0.0008858679917353108 0.001969373626263491 0.00151219901073263 
-0.002365882356731258 -0.0003159516146671986 0.003086525120798104 -0.0002953436602051736 
-0.003146605391851922 -0.00271892725258829 0.003755862638898579 0.00129787936439965 
-0.003567905126955342 0.0008617512450332728 0.002998286086440486 0.0009429838862632813 
-0.002264275808682875 -0.001847768637278523 -0.002847136816259635 0.004744405975580459 
-0.00257414743314249 -0.001059060231061905 0.0008196852837363223 -0.0007893712494945321 
-0.0004499361199603755 -0.0004848739475822248 -0.001098525603226085 -0.001407780403200493 
0.0008070981991536011 -0.0005478484668723694 -0.0007285900035137041 -0.0003626401012355296 
-0.003959341318081922 -0.0003273360173996142 0.002035796133968953 -0.0001294304196514951 
-0.0002773791408681822 -0.00224955261002758 0.002851945636017135 7.162981207700667e-05 
-0.00360623897375535 -0.0007589476701375902 -0.000394338218303845 0.00200692129690927 
-0.003241941311330141 -0.001188839859645708 0.00349860435599028 0.0002647757229342399 
-0.0004451807382027623 -0.0009898993073041925 0.002798932299052287 -0.0009413698032775367 
-0.002714512719409249 -0.00164276055409904 0.001139860134326735 0.002468457006503649 
-0.004078860577320631 0.0004369189598130567 0.001252471863791388 0.001154745358318113 
-0.001732187781954031 0.002845551589669301 0.001384106785645998 0.001844613694335295 
-0.002807782998947379 -0.001781175980594135 -0.0006071756602684357 0.00343347314133984 
-0.003841954199304384 -0.001529632527715831 0.001143838368549054 0.00280889301051065 
-0.002926731023737158 0.0004529686333067784 0.001764078383669119 0.001455651786683181 
-0.003956904826935363 -0.000174001025796458 -0.0002343488279978567 0.00137836448890213 
-0.004250859944378431 0.001100516865762965 -0.001026767220223003 0.003095617978838605 
-1.189221804738825e-05 -0.00125245762239447 0.0004108974158281149 0.00143174470899597 
-0.0005621972702106481 -0.001592002076320223 2.51914002465958e-05 0.001154343190213602 
-2.878443762550132e-05 -0.0006046633842455249 0.001018702084199105 -0.0009948659811886574 
9.586623308449241e-05 0.0008084681570717806 0.002183726026741444 -0.0002533541677826493 
0.0003117274825889676 -0.001085048855268156 0.001165285698423322 -0.0003699802025741191 
-0.0001529370339441419 -0.002900901404063955 0.000196901501892608 0.001587948699832196 
-0.000278858624391466 -0.0009496875983165831 0.001596315731711701 0.001308350256256172 
-0.002097274128123261 0.002542040538631309 -0.0008442895949168148 0.002178673780768411 
-0.0005612781177169624 -0.0001814622386968249 0.0006526825226080667 -0.0001336620674240842 
-0.002110905845214068 0.001066876994984832 -0.0002934961108293014 -0.001638496965822697 
-0.001452683338205414 -0.0008793463017964998 -0.0002214651381620679 0.001376045285381284 
-0.0003913777002505163 0.000485247334654704 0.001445724812507136 -0.0006028098920479654 
0.000598089813225573 -0.0002191908980595447 0.002013889376498842 0.0006530998370797092 
-0.001771507075059001 -0.002192673178199162 -6.73138823032545e-05 0.003099714587350598 
-0.002544009732916632 -0.0001296972448602428 0.0007949325501507405 -0.001262343828954309 
-0.0006165784745860829 0.0001138621243737656 0.000974650953077836 -0.0003982711308305195 
0.0004390232982366263 -6.410085823270551e-05 -0.001405021576959432 9.09177357598795e-06 
0.000480330156346996 -0.001830154366869355 0.002981304127520418 -0.001184885277561779 
-0.003683032745895905 0.0009392757312047696 -0.0006619982453720523 0.00124789019065344 
-0.001619321549979724 -0.0009709390153925094 0.001534414779674064 0.001190541489163859 
-0.001813530771333603 -0.0004633114468518398 -0.00117521879146335 0.0004942915367826815 
-0.001873416692154443 -1.847605501996813e-06 -0.001012465374607112 -0.0003638229634055992 
-0.001619131702502234 0.0003351771206237072 0.0002018513232510913 -0.0004716155860806377 
-0.001931491488583253 -1.370229681052825e-05 0.001707658854953241 -0.001538803188014678 
-0.000918923429180188 0.0005428181671897576 0.0004136266416087134 0.0001942894370739839 
-0.001835083467203668 0.001046240909168322 0.001141734689315838 0.0001592418744163267 
-0.003737955111603073 0.0001641278787955723 7.155607195032721e-05 -0.0002629013420748384 
-0.002839274237181135 -0.0002127300310103096 0.003036826786261886 0.001132396902695276 
-0.002598207518882634 0.001045008530870326 0.0002406431216961115 0.002102962252362676 
-0.001083538472765625 0.0006972429168965984 0.0003673714213215541 0.001968662431895797 
-0.001380168047094104 -0.0003508275533843936 -0.0007230902265865384 0.0002007160920451822 
-0.0002824632413960332 0.0004438733186189279 0.002139330591084809 -0.001419727729447854 
-0.001354006629680993 -0.0008385963777919963 -0.001502834817595193 0.001102713766430599 
-0.002809531039867866 -0.002120411011741236 0.002374163164374323 0.001193602189067912 
-0.001936915147870201 -0.001006198115800878 0.0003428187095441536 0.001607416593421369 
-0.001368766746206077 0.002927029789402998 -0.001366243241639684 0.001810769915892283 
-0.002376507756782791 0.002080944336070251 -0.001140792135666176 0.00170592351904891 
-0.002016195773704675 -0.002366069427925084 0.002542468772109524 0.0009387780953266267 
-0.001727484321490721 -0.002352977504430776 0.003286036111484474 -0.002031624589628341 
-0.001012199851337115 0.001869347206645021 -0.001275900406698549 -0.0003941869472315776 
0.0005047877749834154 0.0007414845793721091 0.0006677344343390098 -0.00353165168034179 
-0.002011972429463239 0.001856156474071866 -0.002906906836158859 0.0008705768251217623 
-0.002142165694549122 0.001343519976948054 -0.00156610685528458 -0.0001200377616973246 
-0.002030056050661128 0.0005919561978004125 0.001061614360448153 -0.001200100618839599 
-0.001118047828401457 -0.001087964005747083 0.0001674776447134267 -0.0008165078867828267 
-0.002258538732613363 0.00195235130967665 -0.0001207766676104771 0.001956551302730704 
-0.002312468020571121 -0.001417229090539188 -0.0002437411997070197 0.001909875283393902 
-0.001966228683307098 -0.0006318501548557124 0.003659391391355271 -0.001332810533517121 
0.0005484614460576411 -0.0001483348035305736 -0.0006101152094387776 0.00118847620837468 
-0.000503125681067626 0.0009243550808815732 -0.002289185504662165 0.0009264566956764899 
-0.0006107903186499369 -0.0008896661532028511 0.001321051601489933 -0.0009333054263302435 
-0.002794340447118617 0.0007426627510081457 -0.0008198016722355275 0.002253810633589056 
-0.001071516135985259 0.000709510516065873 -0.000268992531626916 0.002158986045496669 
-0.00522549673979257 -0.002990646477481218 0.005529394850184239 0.0006875631011818864 
-0.0002961907448891974 -0.0002907223906203239 -0.001807204339498689 0.0004739804189538064 
0.0005274392452740311 -0.001051843692361826 -0.0004982378616329993 0.0003266331686444828 
-0.0004697634779054001 -0.0007209459793337825 0.00171838192246686 -0.0009214785215994868 
-0.001308392248888991 -0.001337915501404114 -0.002321033748047257 0.0007155978790013697 
0.0009631819470797606 0.0005961822206950984 -0.001397899724412192 0.0004627451383954274 
2.007096769058006e-05 0.0004894987208918603 0.002398176602619719 -0.00102203846677765 
0.0003815864245567214 0.0003233780272256043 -0.001750245744148415 0.001880818855994607 
-0.0006874407956235463 -0.0005387022129794014 -0.00094800883713731 0.003498037476645574 
-0.0007840571657604686 -0.0004106815652309633 -0.0026028322262021 0.002728690821260702 
-0.004236490380602918 -0.0003275729307525441 0.0002671749838610917 0.001020289331781292 
-0.002052062404926522 0.002182008810183268 -0.0003792562049429742 0.002706286697611413 
-0.004991794567221864 0.0008533755082290929 -0.001725946207902093 0.0006533518281425738 
-0.003607164402480247 0.001257838970205645 0.001522027668121631 0.0008709812906701218 
-0.0016429746992995 -0.001757976169481389 0.002098249667644928 -0.002331483476846853 
-0.002752903842908285 0.0006790901631508293 0.0002297601896409318 -0.002439210667007734 
-0.0006951060866492251 0.00173599384370993 0.0001413090965785784 0.0003698339923200129 
-0.00291309241385732 -0.001316521329790191 0.001139680607224369 -0.0003078615948155209 
-0.001818271919268524 0.001719071911053025 -0.0004520164622287205 -0.002021817559675286 
-0.001639944908429872 -0.000991693013253804 0.0005982300848886348 0.00126620049182758 
-0.001515113111948141 -0.0008850019280215954 0.000943739779233853 -0.001413472427523725 
1.347781052926108e-05 -0.0007426268603696889 0.0007882161018730056 0.0005765578657970571 
-0.0007997610777796883 -0.001413697762140255 0.001271029065448421 0.0001830386846751436 
-0.003264798043434496 -0.0007876036136701701 0.001219985761478409 0.002428598637711975 
-0.001161283662533032 -0.0005837761919191876 0.0006877920781553749 -0.0007423669700938462 
-0.0008422570676755187 0.0002949240689002773 -0.001614484529408037 0.002463888076095191 
0.00216937480158324 -0.001146432722912268 0.003936423679531982 -0.002536311001237917 
0.001829594598479741 -0.001669060658960941 -0.002199853544938107 0.001578590669516484 
0.001359948910721174 -0.00228929032323861 -0.001456647287081373 -0.0009558626709035489 
-0.001661069007916301 0.001521877943420019 -0.002941073435291144 0.00235845303853227 
-0.002204007920416865 0.003090493297615936 -0.002145015010055238 0.001666359077888367 
-0.0002530581386315837 0.0007961757145861316 0.0008551147336584464 0.0006645635291526318 
-0.002535756421861076 0.004337729404495368 -0.0024008556033744 0.001692544161669077 
-0.001561777511678318 0.002483440252673512 -0.001241084214708943 0.001267332836133669 
-0.002152713941290526 0.0003595638398625148 0.003510062603920759 -0.0005697913247463924 
0.000122840027435013 0.001529470014475448 0.001834029490610938 0.0004296217417301864 
-0.001588665704104761 -0.0002753324420890087 0.003020553018381326 0.001023056492522163 
-0.002023904711716761 0.001143000218750226 0.0001869985923441769 0.001214529424733165 
-0.003846727833576975 -0.0004221908377706463 0.0008909286854281834 0.001438965567997429 
-0.0002800708746907457 0.001948517803185466 0.001541613949532032 -0.001687902850797067 
0.002223639304513354 0.002024734846555069 -0.001262269388121148 -0.001180343623781152 
0.000211359126215596 0.0001611871911209516 0.000904272080764864 -0.0009922521775692799 
-0.003412899765705145 0.002087206811410348 -0.002042757334680188 0.002459911816209637 
-0.0002846083171876906 5.047319148441347e-05 0.002288242142803236 -0.002747033012121769 
-0.002019591291768927 -0.0002615237151387841 0.0009260847208801021 -0.000286746016929239 
-0.001485453267671493 0.001038765233206926 -0.0002275081376182008 -0.0002768300512119358 
-0.001401611452361589 -0.001931641144798185 0.002006011961489047 0.0002463592695991084 
-0.00166941239669143 0.001370218704201673 -0.0003696655816690961 0.001575775390139122 
-0.002326822119220797 -6.91040872925038e-05 0.002925648942356519 0.00120398800463879 
0.0002540103844392379 -0.002219655732644272 0.002599674328030264 0.0003954571370562449 
-0.002303317888258442 0.001960427887509906 -0.000685538059638483 0.002129607772479936 
-0.004003214253870332 -9.40250162686514e-06 0.002405190553337461 0.002486210891022814 
-0.002860990737039975 0.00296956839678273 -0.001133359736793442 0.00320549507488489 
-0.005447215306313946 0.001154911908248121 0.00217756255958943 0.003363306137514241 
-0.003068709437727146 0.001773794358436835 0.002408349983545355 0.002095602540992935 
-0.0006672615822353304 0.0006636314618624121 0.001647156939599787 -0.000105497727458754 
-0.0005270010647504256 0.0006832810243797806 0.0003110855024403707 0.0003282794817155986 
0.0003283887417823872 0.002150149974984154 -0.00059151975527195 3.815115065619769e-05 
0.0001295401295269578 -0.001822004544944265 0.0003778568893293924 0.002245334236189631 
0.0005846184941446346 0.001127849300095048 -0.001947802477902105 0.00134434293501908 
-0.0009503724118008936 -0.0002197674037899668 0.0008746484523058048 0.001170285208946572 
0.001303417215550937 0.0006668915699626179 -3.340130900503024e-05 0.0007452157602895038 
0.001634903575899749 0.002346029308776332 -0.001516269633606489 6.810733424348709e-05 
0.0002154993311182919 0.000472153438798856 0.0007210902860826802 0.0001883965492366102 
0.0006070531293007906 -0.00222533247840727 0.003989180315674197 0.00165058569190679 
0.001359458579322886 -0.001548860128834083 0.001994303754335088 -0.0007646922867592361 
0.0008241844406273707 -0.003463058083531387 0.002171924895601691 0.002312598158830597 
0.001272853128091725 -0.0004437309045267265 -0.0003390536482055619 0.0001618218264777217 
0.00182539029934601 -0.002308969977619029 0.0008730026773767659 -0.001064953780007549 
0.0005109276885944649 -0.003081999992999232 0.0004675790295028468 0.00212280293938077 
0.0008760099989873444 -0.003401321963626758 0.001768322424314285 0.00200794994553499 
0.0004313222527212619 0.0001833223391854796 -0.0007500071955402865 -0.0005515444840167003 
0.002288807978199651 -0.002374224033219205 0.001506505703972658 0.0004641125311976159 
0.001652726388522927 -0.001126439422230879 0.00125101123111211 0.0003601209373655268 
-0.000261921948451809 -0.001149249814310468 0.002708018539657319 -0.002289723221494667 
-0.001429999285513084 -0.00175221478746462 0.004154870413377832 0.0006414312381529941 
-0.0008487796154957613 -0.0008980020189007908 0.003124260532632621 0.0002558745660384425 
-0.0006671638418810148 -0.001909221578586787 -0.00176668154318096 0.004899674981715731 
-0.0006069696828869538 -0.001942696894374319 0.003136406794288534 0.00294002431335273 
-0.0005224529587020771 -0.00281742778961733 0.001572979853650995 0.0008882503693039656 
9.328798480844427e-05 -0.002498743127078333 0.001308593534970991 0.0003982846226204123 
0.0007948341827902657 -0.001434880494036938 -0.001667359264412816 0.00268063186481647 
0.0006452953610473232 0.0005064014329300085 8.964382479863995e-06 -0.001281089483097114 
0.0006932677343650562 -0.002710221751067543 0.0008126948295632224 0.0001239199761150554 
-0.0002779194613333976 -0.00371385122709422 -0.001419393465748449 0.00262168175949142 
0.0007113849257093882 -0.00303526427450298 -0.002085083737938629 0.000422737759918156 
0.0005250154380554546 -0.001323157461342034 0.001122229343767153 0.0005213966830278721 
0.0003194450282924176 -0.001827339570942082 0.001471829689137252 -0.0006715801396851783 
0.002151360298583834 0.002100751882373493 -0.002313553542299676 -0.0007485830934565002 
0.0006543837253020631 0.001139223795007934 -0.001863179746286114 0.0004944455224935421 
0.0001252860857093023 -0.00290878102329245 0.0007817672918997974 0.001419007157487217 
0.001008551383640917 -0.0003322325347436535 -0.005098141585452294 0.0009192234246017418 
0.001359589366871902 -0.0005388060690913443 -0.0001542313965208441 0.0004354805287273456 
0.0001842603457691457 -0.00237816903275982 0.0009378005257251989 -0.0006656033841213009 
0.001182327286881613 -0.003570136836456005 0.002609140641917009 0.0003464980177849563 
-0.0003024037351265055 -0.00186441014301263 -0.0007859902341150425 0.0005087758771829052 
-0.001440884008223069 -0.002772811141037619 -0.0005433862795477854 0.0002628956579968677 
0.001175959523849751 0.001008081729086631 -0.0004188589808018844 0.0007218289614322046 
-0.0005704021344380512 -0.001382317437972611 0.0009839507181813951 -0.0018617768547851 
-0.0001129999484972339 -0.002228376237803302 0.001724754130942445 0.0006897822271584235 
-0.000887957546759102 4.484499259279741e-06 0.0002451860333797526 0.0005332336818084638 
0.0001468554923190281 -0.003040411254653825 0.003244807116306769 -0.0005935167553145474 
0.0001345315578489963 -0.004007533334836861 0.003018791876537934 -8.936148331816574e-05 
0.0005461479490965984 -0.002220905726248562 -0.0007429728148602579 0.0006865087280765261 
9.186153052839188e-05 -0.002216975461875423 0.001020663959531339 0.001296030900281528 
0.001531775066070551 -0.003076091824631706 0.001344172747015199 0.00230943057364318 
0.000749956428039648 -0.001767097165233964 0.0002507484344235214 0.002664137259775392 
-0.001470459292069209 -0.004682764467750389 0.002819100998880691 0.002145651151219276 
-0.0002728322217888825 -0.0007143942333193804 -0.0005372590350846337 0.003006734141001136 
0.000837488690585729 -0.002426453432679381 0.002440875070081305 0.0009701819978569791 
-0.001072685423938065 -0.003471971743408702 0.003234252005605586 -0.002854174629870455 
-0.003954376943283124 -0.004370162471715845 0.0041412682852653 0.003517208598039835 
-0.001861167872933884 -0.004716261039201261 0.004527437901289157 -0.001106504184506652 
-0.001319627774258994 -0.002732482948988483 0.002197546045700648 0.002945182818913733 
0.00164807973427688 -0.002423875921616531 0.0009791391772128841 0.001063017673799986 
0.002901298707384603 -0.001757795499674409 0.001112531014489808 -0.0003800573069581744 
0.0008729028123691296 -0.003737860878282801 0.001091093664738845 0.003622012101848544 
0.0009435303736332828 0.000682163059957338 0.0003158070307506277 0.00216365470449995 
-0.0008078337809225176 -0.004173390433643328 0.001957542351416174 0.002118530554145445 
-0.001105729343611583 -0.004863009792475002 0.005307002125439765 0.002089927365619088 
-0.0007668714245259839 0.0001844079805801766 0.001630536592096262 -3.240359424114485e-05 
-0.001294964764842565 -0.002681414445268551 0.003236630902544341 0.002494735128837796 
-0.002191359586658204 -0.002460283140598975 0.002435834085788637 0.0007075923242963794 
-0.002603486522299854 -0.001035308342112765 0.002106051855053042 0.001217693625201522 
-0.001147313061668302 -0.001099699039504795 -5.895330078905949e-05 0.001795150932629503 
-0.001340737474871383 -0.001590725572243426 -0.0009216217747453963 0.005070968682885885 
-0.001328971039023388 -0.00310336074460847 0.002146686697260506 -0.000970572546549295 
-0.001873875575843948 -0.0022417536790431 0.001224203194472413 0.004665772959277818 
-0.001133577503117326 -0.0007770046658059017 0.001440671643660353 -0.001233850549626948 
0.0001655728879404639 -0.003032861084209566 0.0005556797862408938 0.002305319101425002 
0.0004064074741680943 -0.001755397199663392 0.00213187553178818 -0.001191348150676894 
-0.0007735754381260924 -0.001077300773451391 -0.002097660357585876 0.002821710974533766 
0.002686669733320599 -0.0009413383270881429 0.0006959604110695286 6.449628066297496e-05 
0.0002716281879766814 9.800337885582076e-05 -0.001028883772466191 0.0003092518511638961 
6.076098565825827e-05 -0.002086345468725899 0.001202112023714707 0.0002434716517195557 
-0.00114899884555736 -0.0009142581276570192 -0.0001302249454556658 -0.001332728825007048 
0.0006152639312178729 -0.001653904499817629 6.505574682665532e-05 0.001725279620448376 
0.0004469467684439816 -0.002910221134124839 0.0006640051146153831 0.001117395993242179 
0.0006402509545817459 -0.002359085907913382 -9.457007568212125e-05 0.0005202195954890118 
-0.0004065579426214326 -0.001267130542545123 0.001397328403043748 -0.0002288533236222365 
0.0007012663985444021 -0.0004929292741586405 -0.001871551519262577 0.00137132493933886 
0.0006530911701168503 -0.001166959790830592 0.001018053102654373 0.0002205282461060675 
-0.0002604333355128973 -9.77066528311554e-07 0.0007924031674300648 0.0008977903358703028 
0.001285875246484965 -0.0002284537386082872 0.00246501762987505 -0.0006376932074798358 
0.0006077244079281227 -0.0008905012424173895 0.001274517002245107 0.0005181956137876738 
-0.0002496547250182112 -0.0005701922725566951 0.00340334762956712 1.30659027084895e-05 
0.0004336321566179748 -0.001106701863534913 -0.001815107780814416 0.003689832410238108 
0.0006206520363203746 -0.003683955674662078 0.002454905245472598 2.901245730688329e-05 
0.0015764113516809 0.001762255346059165 -0.00238752756159891 0.000856604582802452 
0.001214866931658016 -0.001097992500383795 0.0013399463643368 0.0008100752476463754 
-0.0008235553420533102 -0.001250274851828902 0.002535388034901488 0.0009812949533378505 
0.001705835599966386 -0.0008052610462416755 0.002922634418165308 0.0002106881930191139 
0.001052758463715465 -0.0002603517907780563 0.0004238311350201448 0.001163267075605912 
-0.0003070593599609871 -0.001332998649059072 0.001510507587209159 0.001922105109155594 
-0.0008780974982413928 -0.001386333277361488 0.002889752480130112 0.0008691228117844576 
-0.0003444896571774782 0.001190263659038358 0.001954183286012311 5.030147937131854e-05 
-0.0007811971102127137 -0.0003259850822392285 -0.0002409436686839981 0.002586987291883458 
0.0001046565402873709 -0.002158928467137523 0.004087740987694736 0.0007734209213097589 
0.0001242581802135411 -0.000296579471044959 0.001368215145996576 0.001769755074223942 
-0.0007489523002369464 0.000315018234236451 0.001332536955146279 0.00149733189247777 
-0.001118886392698254 -0.0007801608657966416 0.002859894969151471 -0.0002852092807720454 
-0.001300397837251574 -0.002855002686106864 0.001091554106249545 0.001933993681398142 
-0.002066418088964371 -0.001902077496088045 0.002543018048383522 0.001396278811996595 
-0.0005943178023489637 -0.003774461609483157 0.002834687903564264 0.001885394278343768 
-0.000981987575157867 -0.001646611718963075 0.000154735799793195 0.002872540416486101 
0.0002474757736724046 -0.0009895684739277346 -0.0008837792338715187 -0.001014514570029065 
-0.001839937433130079 -0.0009245489589439929 0.005433600346928026 -0.003650395395148461 
0.001130852660737277 -0.001429751334447919 -0.001474919786675749 0.0007884691877627445 
0.0004608748151244771 0.001098470794987968 -0.001229712004434491 0.001552693008130199 
0.001096868340279895 -0.002916907490780771 0.002627299083239696 -0.0006088974893109553 
-0.0008421670975224698 -0.002028298832187656 0.0001954108892965122 0.00201125548524522 
-0.0001600722416332895 -0.003660523351912647 0.00142743818553003 0.003212835837067318 
0.0004893332997839936 -0.004484544365884607 0.002495133590804098 0.0007216822403204588 
-0.0001301797759223339 -0.0029346303416991 0.002870966494316656 -0.0005804722060381188 
-0.0005004462950997451 -0.003625993310637245 -6.847181553123903e-05 0.002689282007650961 
0.002195967148815775 -0.002270208597877183 0.002657967846285433 -0.001600488426421753 
-0.0001023359302600381 -0.003308751962214233 0.004356329782038437 0.001571261971591823 
-0.0006077754589084406 -0.001271111563072416 0.001694225103403388 0.00196201748932166 
0.0005349280613906216 -0.003024017913923639 0.0009326789160555295 -0.002614228992796757 
-0.001093578729865375 -0.003061693756462946 0.001479752833600156 0.001724010854671533 
0.0002221172081827828 -0.001730834499143999 0.001759607450694013 0.0001916059127910548 
-0.0006416565319698586 -0.001034053918306662 -0.003999315978879372 4.974151460148736e-05 
0.000597705799727576 -0.002763717381664831 0.0005164378448647492 0.001306249309996452 
-0.001779637931878509 -0.002066703925862246 0.001855395897911408 0.002705831725957421 
-0.002028656365452411 -0.00218883317793327 0.001053588821616926 0.001553963298916758 
-0.0003520925127520071 -0.001934538191158307 0.0008323659014150241 0.002419042242374991 
-0.0007619651862305029 -0.001242200190249708 0.003900512312911705 0.001052571144306213 
-0.001182701877066586 -0.002299164652078893 0.003995762619509977 -0.0002297782728236697 
0.0008603286304002746 -0.003997029485207863 -0.0004814766067019047 0.001793483693386647 
-0.001743480225466475 0.0008580147107047828 -0.00345441072824877 0.003597780069322015 
-0.0004021432628769847 -0.0003906018819775516 -0.0007593349648746054 0.001084780963219759 
-0.0006566611017776433 -0.003594792193084178 0.002932968641723569 0.003474369813058783 
-4.189262693257545e-05 -0.00129358165714154 -0.0004375773580066973 0.001033735623549161 
-0.002121610306631932 -0.0008849543350058445 -0.0009251952483206815 0.0008084267845364978 
-0.001031435925030185 -0.003201656386330048 0.002261640468141664 0.000790821171259816 
-0.002179790668631494 -0.003287795733774588 8.579307812554664e-06 0.004226428836020219 
0.0008334427744341115 -0.001206148694224394 -0.0003909066723134413 0.0002473118431870063 
-0.0007546387417937878 -0.003427735830262578 0.002585851607261667 0.0009204566661565806 
0.0003499581626111946 -0.002504830907224171 -0.001542232074464759 -0.003098521590889035 
-0.0002192426307876985 -0.001720122179826223 -0.002860918541893804 0.003832088660872484 
-0.0001465783872293761 -0.001666082693094198 -0.001826003078297399 -0.0003069894627410578 
-0.0009027862084956281 -0.005126072697865335 0.001199285742474214 0.002141849691778638 
-0.001644718468792059 -0.001816875387256748 0.002155881863646085 0.001044673193778192 
0.0001548708178617198 -0.001102810875990159 -0.0007814684619860007 0.003346802276152436 
-0.0002273590319701642 -0.001109587347744854 -0.001091631450649722 0.001993985963201624 
0.0005379290942515687 -0.003911650507078986 0.001543047326863007 0.002782188964793705 
-0.0008107001849082627 -0.002974215769416162 0.0004469096154845567 0.001484833758396115 
-0.001065017246956024 -0.004031146123685539 0.001551229458914451 0.001699711602749683 
0.001098910410324722 -0.003778938485549071 0.001233649023583825 0.002940831870600614 
-0.0009740176665042276 -0.001146367046344786 -0.001010625209087462 0.002587597181540144 
0.001270880944278398 -0.0002514300549743248 0.001283432862779333 0.0002459102403832724 
-2.415367530154207e-05 -0.00326984764342101 0.002391392847297011 0.001771442664486901 
0.002797433683207182 -0.00113561127364198 0.001468939173986524 0.0005640677801250143 
0.001080728650529841 -0.001949373834549804 0.002394552166426146 0.001428754096751163 
0.001912773504844374 -0.002557775142824029 0.003225703865793441 -0.0004390780908026792 
0.001048857887345105 -0.005206691514232817 0.00307699667693846 0.00114513534629677 
0.001616508597779011 -0.003883065291256674 0.0002157331251673758 0.003428328297453845 
0.001318464703864156 -0.002020042810763104 -9.446297436123853e-05 0.001848802150868603 
-0.0006761521532054795 -0.004112358479181463 0.001233294880036815 -0.001636510111569691 
0.0007096614450596346 -0.002139133429108592 -0.002927113208802038 0.003081624059024477 
0.0003214356876081351 -0.002352026850583209 -0.001324336134487988 0.002571971227551203 
0.0002186339199042653 0.0006642659691714923 0.002573567158549856 0.0003254699791317674 
0.0001525777339877636 -0.001489177807515459 0.001035583507224561 0.001661445808790944 
8.482800429761173e-05 0.0006287654523963064 -0.0007210627444311625 5.782075929040521e-07 
0.002485849184113766 -0.002594872964901846 0.002433533118599313 0.0009088214258354727 
0.001719970166438501 -0.0008889661551859014 0.003225465511997087 0.0004548294283625859 
0.001790180024761724 0.001305984906519913 -0.0006011902488093505 -0.0009404395340718992 
-0.0001070168097300977 -0.002171474530505458 0.0008966652589215035 -0.0005994599565584104 
0.001014476706148788 0.001334957039523768 0.001316885307700842 0.0006035792895879393 
-0.0002816702338608184 -0.0006702274436957856 0.002450075262867711 0.001712303478158262 
-0.002694740269611557 -0.002692665106346442 0.001753159204151254 0.001449692403939497 
-0.0006711609112176567 -0.004210604483162851 0.0001792675251890934 0.001507786986484437 
-0.001713234526887879 -0.002780627813593711 -0.001550517194583193 0.001840889472648129 
0.0007927340457606368 -0.000517727881534105 -6.142763076194335e-05 -0.00104489235325108 
0.0004347106042770146 -0.003216030760407005 0.004987958920608639 -0.003124954863192102 
0.0003789698954935081 -0.003909227281534696 -0.0009462351870402877 0.002849894238614961 
-0.001616173682285834 -0.003292963574220896 0.00127318153975312 0.003340527504517092 
0.0006942777237555699 -0.004055550642037708 0.002258905529660442 0.002298940130747744 
0.0003656963081918172 -0.003280615800305507 0.00199582021900288 0.0008640552725332906 
0.0002921738540037271 -0.003249112985277086 0.005241611227675295 -0.001168691018985069 
-5.706432971217978e-05 -0.002952089648442502 -0.0009255951025055041 0.003018996822490718 
0.002244852233671703 0.001572339718501158 -0.004360486395456037 0.001568519499895113 
-0.000108672060057212 -0.0002772649101557357 0.001535549127453293 -0.003613915357342903 
-3.929852211370249e-05 -0.00236999741343356 -0.0003444762309855224 0.000183324536718542 
-0.002128912742108728 -0.002303327250900283 -0.0004843492141703596 -0.001159435545124245 
-0.0001192836105831615 -0.001116254650961981 -0.0006296978741233367 0.0004737764779195146 
0.001524358258463086 -0.004057877823453521 0.002939479133712257 0.0001826185718512614 
0.001246495873929401 -0.001818977123334308 -0.0003697895595559882 0.0009814386197671292 
-0.0002965080424934815 -0.002090799708822111 0.003144236876485408 0.00100056757800501 
0.0001633199204685557 -0.001917305920662655 -0.001779969277662946 0.003391364508097174 
-0.00434558045043247 -0.003670666098582867 0.003195518015003051 0.001691983441156907 
-0.003173234740674255 -0.0006789420629626485 0.002014094289650399 -0.001707995217149864 
0.001208468203730449 -0.001728070240779132 -0.0051058849733631 0.0006770147570531338 
0.001425962789257714 -0.003157967059090733 0.0003507593037727787 -0.0002067478328086691 
0.001021813897964753 -0.003267874387590409 0.000161814904393292 -0.001107769155817949 
0.0007391472818313832 -0.002332808444494432 0.0004675649060426191 -0.0001090229105781195 
0.0005481689630004176 -0.001152382514956898 -0.0005514203443811145 0.001005439587469611 
0.0007197804838873002 -0.003375223398385288 0.002755226158865197 -0.000468834710347747 
0.001190910630267896 -0.0008305357228672588 0.00122286050340865 0.001004262420092034 
0.001853283460684525 -0.002922095817431801 0.00454009755376864 -0.0004824976858425541 
0.001718279969168981 -0.003845409119025817 0.003904471810587218 0.001237093463495837 
-0.0004058776337471687 -0.002600044344383851 0.002440598273111839 0.0002563110143917484 
-9.881607521284276e-05 0.0001225363100685028 0.000440108723634837 0.0001012128439786047 
0.001039436819221814 -0.002643964573560679 0.002426671155083131 0.001123773041993838 
-0.0001556238751206835 -0.0003088998348065809 0.001007148669928641 -0.00297866464641138 
0.001295764280947442 -0.004857770415815119 0.003499580030197595 0.001406811861269977 
7.526043750610441e-05 -0.002104465849688083 -0.0005986360555831477 0.002580113497683351 
0.001549192763560697 -0.002746510190688134 0.001988499207107008 0.001626635892985684 
0.001248381599267521 -0.001328896713299803 -0.0006700612915600062 0.001965072553778246 
0.0002432365199014713 -9.869897670542526e-05 0.001348168971934296 9.779434157208163e-06 
0.0001052099223613183 -0.0006782684033877978 0.001383152982814324 0.001453831119798725 
-0.00126640779877217 0.000446138012056587 -0.001447147977363257 0.00164815442244232 
0.0007756552120732545 -0.003314244021728235 0.0003511307326047684 0.002474470357359294 
0.0003379047134297798 -0.003125320422921309 0.002506673269972987 0.001361528319299364 
0.001713090893690993 -0.0009186106005382793 -0.0002885264110482823 0.00208523648440925 
0.000581183464824598 -0.0009433416166778982 3.492937006155828e-05 0.0007826630444919893 
0.001910281416977983 -0.0001672835443488237 -0.0008232619597554394 -0.0006718533471966386 
0.001532642699472176 -0.001255843488161413 0.0004210888018042032 0.0009883263112964366 
0.0005045091037017706 -0.0007773952674695447 0.002298438446617195 0.002556664906143825 
0.002259289532361587 -5.764978525266879e-05 0.0004664388269738716 -0.000153371946255633 
0.000667924979854913 -0.000684572866210076 0.001368704747528244 0.001254668761652358 
0.0001746616090596461 -0.002496700828980404 0.003008150484301079 0.001597730817840609 
0.002361746545159986 -0.0006263089809773164 0.000467607684818801 -0.0003798347690206624 
-0.002371814961452409 -0.0125642977844899 0.01448481577051665 -0.001264877289000608 
0.000975007308817204 0.001382529929272548 -0.001282265938673696 -0.001910162100063975 
-0.002665318011292402 -0.002677137604531997 -0.001132829105768793 -0.0004259463649205915 
0.001529531154746827 0.001041660406771024 -0.002037754316963453 7.558056285770924e-05 
-0.0002575644541778643 -0.0002444486168340454 0.0009510081965198799 -0.001184391787479213 
-0.0005415404890314252 0.002116529481761513 -0.0006498048999619584 0.0002358130128248771 
-0.001043296896031183 -0.0002775704236733763 -5.174326979904233e-05 -0.0003648187142918748 
-0.0005290250505072065 -0.0002723986653676009 -0.002015557258648246 0.0005789347799403123 
-0.000607281613429464 8.247064953626068e-05 -0.006443564166673872 -0.0006803530155648528 
0.001530128551894821 0.002182424249888974 -0.00219858573203044 0.0005170661356841597 
0.0007479612623031416 0.001581061205106963 -0.003974845666246482 -0.000332817686539176 
0.001735691007116221 0.001329018101434744 -0.004538954920611597 0.002820342382675668 
-0.0005364345632126598 0.0001775383848587032 -0.006400944783327108 0.0001315406690047168 
-0.000497598622953109 -0.0003960582465140169 -0.003315792075474601 -0.001249647101433856 
-0.0002055158982553916 0.00148822977693086 -0.005255909386824583 -0.0008700244501203213 
-0.0006827711746605568 -0.0002686722047716513 -0.003840627281751005 -0.001506997375777833 
0.000498128288822566 0.001404770446914668 -0.004565905082927706 -0.0008400305494727214 
0.002808766219734694 0.001160934973667571 -0.001553522734466305 -0.001215647993690364 
0.002069282258035395 0.0019019617276558 -0.0006326197826992015 -0.002213726916461278 
0.001003701200871734 -0.000884824259121461 -0.002871717142711445 0.001853556225959308 
0.001692562852028805 0.0006094416274258962 0.001311744931800333 -0.0007093002780704771 
0.001291607593129295 0.001353366738284542 -0.0007217931966320265 0.0003141649993723325 
-0.0007234724934012469 0.0001495687478750982 -0.0002915227892156563 -0.0001559176725573193 
0.001510199995021365 0.001218536575388194 -0.001992010415590615 -0.0001143900677012157 
0.0008407304617200242 0.0001089037287223668 -0.001795504116989232 -0.0005747850034021109 
-0.001010900822480675 -0.002082136892937219 0.001881383790458763 0.0006264130830447198 
4.330064758597379e-05 -0.0003506942252714341 -0.003202598226035542 0.0019180835085699 
0.0008172345079078013 -0.002034138337155043 0.001971598011805882 -0.0001450691228380485 
-0.0004840838293450116 0.001166177003275516 -0.002575158181369436 -0.001436178250062069 
0.0001599017917161073 -0.0005507439863734346 -0.0009150729480594276 -0.001366436733635348 
-0.0007907453032647125 0.001479543337025745 -0.000406952011723542 -0.0008746690815527243 
0.001522951065454321 0.0002272033005772518 0.000506792739732602 -0.003542507279977032 
0.001324818340217909 0.0009296922342116262 -0.0002350374027342015 -0.0009425976453299141 
-9.472275297028553e-05 0.001917823122143819 -0.003813119515707067 -0.001523624369774504 
0.0004328960590760641 0.003051162170563392 -0.00344170449232443 0.0002497722083777213 
-0.001869958941831002 0.002347264321537754 -0.005378476744035837 0.001102133445649787 
-1.850531611605097e-06 0.0007907046661727721 -0.00330868087586341 0.0005478387969833855 
0.00067125034926505 0.001516740513410677 -0.002545077438245458 6.773311028550379e-05 
-6.3583686958047e-05 -0.0004875772878299789 0.001284892394653842 -0.0007816411846841288 
-1.757053597359159e-05 0.001561090335108238 -0.00517452236732201 0.00190092683203347 
0.001445369085715126 -0.0001419710793184081 0.001435636199727432 -0.002166998609563044 
0.002140422661150561 0.001427125666525953 -0.001557921588565919 -0.001190308232613682 
-0.0003354495197997473 0.0003589573858783501 0.001595172437013619 0.0001003133382779664 
0.0009088973755589479 -1.280249590588883e-06 -0.004081577379466318 -0.0007933215751586885 
-0.0003482166573145141 0.0002889748941050347 -0.00166559847560102 0.0001176705995183223 
0.0005258311523194013 0.003338811931788176 -0.00208518698571874 -0.0001294449303398591 
0.0005308191965113221 -0.0001872892529513353 -0.0007823626702765557 -0.001054318042085812 
-0.0008881056597785616 0.0002576837916411616 -0.000523453121649664 1.58735631319929e-05 
0.001196474943800126 -0.0008244287968277831 -0.002174472280228738 0.001338282765417434 
-0.0003041346927451853 0.001976935633584411 -0.006325268585774555 0.002864369177337582 
0.001808007052399309 0.006608224494400768 -0.008211282505059612 0.001302006015309105 
-0.003456548138788865 -0.0001363984848322405 -0.002052748789225293 0.001792988824106799 
-0.0007468992604851344 -0.0009230474264356926 0.0003734816779744525 -0.0001665599472878169 
0.0007732052943239076 0.0008783396289643807 -0.001740134766452057 0.000341123192442544 
-0.0001764188742429126 0.001234935414599563 -0.002468130992818838 0.0004142176971813869 
-0.0007356820052173427 0.002612316653874039 -0.002670169069666613 -0.0002313631198268096 
-0.0009173563639594356 0.0004649184895823315 -0.004184162477307803 0.0001335641680120263 
-0.002285964129975196 -0.0007031232070850528 0.003299301211758006 0.0004700017626109386 
-0.0002702882864266801 0.002090294695423005 -0.004316411999118307 0.001587184388107302 
-0.0004213888460664195 0.001536588698320678 -0.0009135920986338931 -0.0009426073015501146 
-0.0002754146519531905 0.003498331584136534 -0.002056609047873992 -0.0009384052088729 
-0.0008140653422327227 0.003940036456304428 -0.001695889150923978 -0.0005049337833053975 
-0.0006313359227173505 0.002660824848948038 -0.003993207629008154 0.002123963189845426 
0.0003080022892791484 0.001046804656976747 0.0004503002809204254 -0.001548152239841591 
0.0007953769543734794 -0.002015446530057662 0.003367400909126739 -0.00106226188395235 
-0.002232473276355916 -0.0003372968363414434 -0.001028089341949505 -0.0006574800472700048 
0.00102224363506918 -0.0002835863746577201 -0.002823213907708172 -0.0009379494929319329 
0.001146113900163588 0.003419363784650606 -0.005006698359115883 0.002111515699518189 
0.0008806665837442892 0.001929187640602678 -0.000656287390206985 -0.001759038551973547 
0.0007791240865526398 0.0005029543628573823 -0.002281807929630369 -0.0009445684692276219 
-0.0009295256740961703 0.000866257870572221 -0.0003154219380093069 -0.002664673353719206 
1.211306227881149e-05 0.001020680323068518 0.001989734250850814 -0.001874547874900859 
0.002363444751414838 0.003291534400174981 -0.001911220605108878 -0.0009045517512642749 
0.0006850735392230637 1.181346576507218e-05 -0.00074323099600908 -0.000402394887952791 
0.00149399820956453 -0.0008494376982707576 -0.0003234479497770629 -0.002309334744239013 
-0.0002527071776318727 -0.0008890257328687529 -0.0003834755085871765 0.0005565850528938751 
0.00199056311467719 0.001253357473223024 0.0008406097840772896 -0.0004169635230559786 
0.004028143740897057 0.002581765164463855 -0.001742558165101869 -0.0002236573589510679 
-0.0002951322089545932 -0.002206632751233031 0.0001430625372639267 0.001414141221247449 
0.0007412994461432692 -0.00359324376433564 0.003212670507159451 0.0001718056836675861 
0.002998186071762715 0.001325886717886589 -0.005022295878293674 0.0003547640028938139 
-0.0007725502202898273 -0.001816126132626325 -0.004219475488505906 0.0006343094853372758 
0.0001803520062072844 -0.002986328655699734 0.00284296863579044 0.0002136159352985683 
-0.00097533998632574 -0.0006468542346212307 -0.0006326832465854092 -0.0004789340197492971 
-0.0007165705592943519 -0.0001682539698642204 -0.0005020372982873372 -0.0007355613225510501 
-0.001085436692846285 -0.0007604959149070196 0.0004981545008815155 -0.0006241469608249225 
-0.0001053166643426194 -0.0002925890711392873 -0.00267918912708561 -0.0002407420251522569 
-0.0006428087920027111 0.0002913525196956277 -0.0001228843769440988 -0.0003846922730184402 
-0.001485020160809678 -0.0004485209210057171 2.309452611760383e-05 0.001316298459047587 
0.001382742235109126 0.001119835041526058 -0.002315833583128208 -0.002409345242992458 
-0.00142765164041069 -0.0001435111182894718 0.0006456966837920675 -0.0003279372838125357 
0.0004653874226554673 0.0004501443405537158 -0.002588669812587173 -0.0006489833865418036 
1.546262968990083e-05 -0.002217893527891533 0.006452933571038549 -0.00100125216092057 
0.0001910384801599804 -0.002471504643494386 0.003814898218635922 -0.0005833196437194454 
0.001095910806608659 0.001438905979651138 -0.003102423341820947 0.0007447966212678633 
0.0009001764529362618 0.003255137606497333 -0.002065511416663317 -0.0005246836706206367 
0.001447280737263395 0.003120116468792844 -0.001758565544109907 0.0002274221685743209 
0.000796512529929955 0.0006753764067917812 -0.002448942494777749 -0.002045502820168158 
0.001885542820296711 -0.001758333301118402 0.00127071275050889 -0.0003802835077095043 
-0.001137039887794991 -0.0009840375948651681 0.0002559246925574359 -0.0002712190367698914 
0.001063186738316128 0.001565947646940215 -0.0001635801352118863 -0.0008025021600295096 
0.0004861987899685005 -0.001752161093423581 0.004566329162217534 -0.001861873599582314 
0.000502649838141626 0.001676535676719167 -0.003313295272048898 0.0003771619954913326 
-0.001224117233796881 -0.0004182517407394522 -0.000364189255229997 -0.000720091546541031 
-0.0001664761296209903 0.001245291232642839 -0.003313799433710148 -0.0004277870196987416 
0.001636664089855874 0.001340346510214124 -0.01271676809510038 0.01237556768778815 
-0.0007825471134627023 0.003153042635493924 -9.902065765207039e-06 -0.001180683682318844 
0.002198803613532473 0.001083950776044948 -0.002371359569766741 0.0008390187527158001 
0.000484565550736863 0.003183395762846565 -0.001256996387690125 -0.002017158796783962 
0.002173653660574987 0.001227813399923761 -0.001679103863440948 -0.000306989466522417 
0.0002523335739005542 0.004043326423981778 -0.00183955330659568 -0.0003090242580695526 
5.320158724295092e-05 -0.000832401608950789 -0.0003201320207213384 -0.0002748749242359445 
0.0004426982056176592 0.0001893724766044374 -0.0003047366438536868 -0.0005945459847807371 
-0.0004305187241002528 0.001072663969518349 8.250032732298992e-05 -0.0006513197948238027 
0.0002612668199352018 -0.0003680594593657617 0.002009215755466889 -0.0004879079052816854 
0.001638450973692394 7.103616943503249e-06 -0.001872180642262763 4.863822920971401e-05 
0.0002076150681745577 0.001201162399026588 0.0002086378168996204 0.0007855539379461848 
0.001409045623192056 -3.023560150141953e-05 -0.004541568223409753 0.003883738424867121 
0.001421262632204492 0.002401028509623593 -0.001009394726129757 -0.0009293894311234101 
0.00022082023620439 0.002324275284231475 -0.002296236173980505 0.0002668860955357582 
-0.001650738015039403 0.0008284142683766716 3.170736175366878e-05 -0.001101631257085208 
-0.001219329046263042 0.001329545778612785 -0.002908255576849185 0.0003754516426756781 
-0.0004813162869769194 -0.0009143634958099447 0.001222495386216742 -0.002525277110882177 
0.0006013368252471125 0.00165262954458605 -0.0003708595766668457 -0.0003807840463274957 
-0.001065789131028073 -0.001208051764088957 0.001575017297415091 -0.001194344383013927 
-0.001114850531085864 0.004716727323475185 -0.001623596966327779 -0.0007514874063352227 
0.0007418601132822167 0.001088767326475224 -0.002410713900049671 0.0007683826220190183 
0.003798566949912704 0.0002537541433197534 -0.002033630615393479 -0.002635289283487357 
0.0005266373113950821 0.002557862811289566 -0.003277909730130779 -0.0002453312307893363 
-0.0003030547446713096 0.0003631867807766037 -0.0002942149934886096 -0.001213876572506993 
0.00372702145171006 0.001626502269636995 0.0004844338027990183 -0.002471215279328993 
-0.0005006792272333638 -0.0001677623039832701 -0.0009195412281424937 0.00152068782338658 
0.002383873597171432 -0.002214587662021935 -0.001178045814833424 0.0009293653219096112 
-0.0005171294117846369 -0.002012639048287075 0.001844304534507187 0.0002636439390234042 
0.002034480603815587 0.002793384169890751 -0.001227726935585859 -9.674429333515744e-05 
-0.001030446121500963 0.003473405441790812 -0.002313101126554575 0.001036113516309529 
0.001861887089637396 0.0006977479008373789 -0.003084574772157022 0.001066963875205567 
0.002427487525640622 0.001577153755422118 0.001481200979589757 0.0005935758879100961 
-0.0001597386268573246 -0.001956848510692426 0.0005276300286528593 -0.0004063994838647001 
0.001499214443560977 0.002610965220533797 -0.008271814240665525 0.002693075363938871 
0.0003853440611323932 0.00247293429338077 -0.005068853728051325 -0.0004934982522255877 
0.001127961356771851 0.004531887874655206 -0.004793925467581055 0.001465653008895523 
-7.808090478497086e-05 0.0004964147775367555 -0.002553533491507507 0.0004761247169579569 
0.0006182290846449639 0.0007627004852470846 -0.002282819649158375 -0.00051548254983291 
0.0009989863900656199 -0.0006136078260633977 -0.001548186483699693 0.0009917115669835412 
0.0008808592865279751 0.0015886720287447 -0.0006565208336130352 -0.001511874651035073 
0.001013950173225605 0.001050629609210049 -0.004213286205779677 0.00155660773922415 
0.0007380654677549293 -0.0006199534957029258 -0.0006050102407744209 -0.000545117785695123 
0.00140641136530061 -0.0006173977575733893 0.0004407657921824431 -1.0289300261924e-06 
0.0007515164582324282 0.002102133974484202 -0.001095280397511572 -0.0008754475783999366 
-0.0001004437966615336 0.004376432773702593 -0.003485681578150025 2.050997035863069e-05 
-0.002255781272536357 -0.0005071792648934833 -0.00347031281297991 -0.0003665845852934173 
0.0004003996264230177 0.0004444381174425163 -0.003515808879451216 0.0003200703398160063 
-7.217810736088703e-05 -0.002873829283401543 -0.00231173346644943 0.001946484959257526 
0.001209244446706567 0.0008203461164085048 -0.001372920947949164 -0.0006093647084691937 
-0.0002628469956631975 0.0005044739622839048 0.0008630424466364005 -0.0008816444037222426 
0.001012362701703747 -0.00217856195621708 -0.00144889996011537 -0.001836610668271469 
0.000199485931656807 0.00355184245905558 -0.005107439925949453 0.001384158984905266 
0.00067658852081608 0.0006062417317153128 -0.003817619268403934 0.0008389102774874396 
-4.818215607899526e-05 0.0001708964998524334 -0.004001097897728194 0.001402939118479475 
0.0004059513669599051 0.003167663597766768 -0.002159824437912315 0.0001751137891233226 
0.0004592117689477661 0.002062700340952746 -0.004263240073025155 -0.0003550287528972408 
-0.001527731199631382 -0.001006718295187505 -0.001348717273381037 -0.0004336561093859814 
0.0007472657170830851 0.003279025623467645 -0.003636661331896058 0.0001552664974620568 
0.0005006222883990406 0.002172608220113846 -0.002716589281921478 -8.00467424654122e-05 
-0.001033150207546577 0.0009954407300063358 -0.004088553705239669 0.0004414726605846562 
9.727709618261246e-05 0.003973780969970551 -0.004262044763843794 0.0005507386150111604 
0.0015292405376703 0.004085617159507656 -0.002294248765689851 -0.0007155990912837085 
-0.0001103566581349058 0.001644048801076182 -0.002138498681407403 0.0003569383178447434 
0.001606829588095831 0.002305266458481745 -0.003978761880893351 -1.893416766278398e-06 
0.0008020054753605198 0.001425907758735687 -0.0006863474482622521 -0.00024085726818767 
0.001625447702876667 0.003268354601907644 -0.003790951257666665 -0.0002420209760967967 
0.0002696145487372988 0.001539688218258224 -0.001463458040262865 4.539481064626033e-05 
0.001111064627749385 0.0001974999322173204 0.00172173689342473 -0.002789716644882655 
0.0001959079002158076 -0.0009145388559456105 0.001504693021225421 -9.039367637629991e-05 
-0.001813276040919959 -0.002062378441181149 -0.001675213532678424 0.000725073312809097 
0.001660477895358924 0.0005897504690026951 -0.0007282494155627715 0.0009326581444583982 
0.001259415251955244 -0.001746740604952671 0.0004738140674943701 -0.000416454100844783 
-0.0002998048504106128 0.0003645255180561254 -0.003993747584549055 -0.000341319659719657 
-0.0009421321451983142 -0.0009646542159086053 0.002006895657142006 -8.790718498138421e-05 
-4.252290356243151e-07 0.0009314536422785072 0.001341627276621282 -0.001296246482416547 
0.0009646560948140348 -0.0009050814278761531 5.987019891005211e-05 0.0009558588107976264 
0.003323765314173939 0.001044702762704765 -0.004226951459770996 0.001124923255809487 
-0.00317865323678564 0.001558702713557 -0.004143249340445902 -0.000737923057770008 
0.0005722803873135494 0.002662880325891002 -0.003456210926723144 0.001383389731248995 
0.001454625680608536 0.0002167602431453906 5.556140501251709e-05 -0.0009738083823478297 
0.0008781312811623446 0.001613888374037722 -0.0005906847595275726 0.0005903946710925491 
0.0007318034320381226 0.0003617593131935467 0.0002931016268142778 -0.001098059487194636 
0.0004126897979798906 -0.001762463915827879 -0.001938438107123778 0.002146348247996719 
0.001139228564129826 0.001186413893459051 -0.00288078121720252 -0.0007250130615701634 
0.0001744062657388154 -0.001745013858980082 -0.0004086486468483456 0.0007011198115586102 
0.0008567797183873158 0.0007875069937499641 -0.001040179904651813 -0.001231981005298184 
-0.0003852077719668902 -0.000713053838649434 -0.003056407700178895 0.002302475309216226 
0.001102316106052623 -8.48937219371491e-05 -0.0009116920286559374 -0.0001679353439313518 
0.001385932036678967 0.001730657101075473 -0.001455837433462275 -0.001271679056049152 
0.0008402018562739492 0.002267916486056534 0.001147146958741058 -0.003530933499226274 
0.001655877717951477 0.0005684813225245443 -0.00244463295392175 0.0002845596892616264 
0.0008366725144698783 4.024988783990924e-05 -0.002874801369982705 0.0007001857918148333 
0.0009626050511864284 -0.0008615579705654399 -0.002016798939406708 0.002253154239409149 
0.0004884459209171899 0.003009220068465418 -0.002727060047057557 -0.001174385527766841 
0.0003700554090024655 -0.0002630708118470226 -0.008498728170155397 0.007531064216780152 
0.0009677936551307523 -0.000685186920770238 -0.002205913418978377 0.002257463323029858 
0.001673442525502625 0.001579819409091305 -0.00463026887535628 0.001859876764687516 
0.0007640041800130847 0.001352451390065328 -0.001012291509260883 -0.0008737977160386811 
0.001518925813425098 0.003094512340623454 -0.002485234726537558 -0.0008331507967099724 
0.0001128774051449384 -0.0008747975123306801 -0.002514018739534239 -0.0001016297456691064 
-0.0002098475790457387 0.0005285823478720389 -0.002767534600871778 0.0007382305401960018 
0.001242738460559075 0.001581531008305779 0.001309252157577741 -0.001560848350969162 
-0.000505606428361889 -0.0006890974504641044 -0.00280826563701176 0.0001645659667996884 
0.002993068355768681 0.003406070061784558 -0.001339584312032109 -0.00362810062891243 
0.001160037388640775 0.002776790380164611 -0.002165614205335625 -0.0006559787161615873 
-0.001530804019520892 0.0006644645528740696 -0.001140004729074675 0.0008477028035077449 
-0.001376004962312783 0.0009605939635885201 -0.003843384866100816 0.00149508071525723 
0.00225695091440322 0.0002597589735493661 -0.00056923040422535 -0.002711479636880651 
-0.0002915576454991511 0.002040171370945325 -0.0009074461224827602 -0.0004344677656476438 
-0.00124891591481643 0.002700034214674454 -0.005068701693104539 -0.0007566315670377038 
7.050881361165295e-05 0.003128146377464607 -0.003451117437738991 0.0006340663486781285 
0.00225695091440322 0.0002597589735493661 -0.00056923040422535 -0.002711479636880651 
-0.0002166482949529132 0.001415670064721522 -0.002391858400885914 -0.001198909845716538 
0.0009269905523913026 0.0003425300453898445 -0.001685789043962318 -0.0002982333166094008 
-0.0003756004079111174 0.0007333124221142561 -0.006623237353526539 0.005527669485284384 
0.00158950872861529 0.001148956033049701 0.0003162480009707373 -0.0003221559607013574 
0.0007810726795864426 0.003133148075785448 0.0004377140506635861 -0.0005520726254831745 
0.001011163519821399 0.004585792638213535 -0.002318234425368869 -0.004943852458287996 
0.0006640966701256846 0.0008410228116520468 0.002433874070744705 -0.002971824643372384 
-0.00122819082049005 0.001616641904226262 -4.837858863504283e-05 -0.003187898533448627 
0.001669691917894745 0.00278982747465443 0.001569716086119917 -0.002755409735775954 
-5.142168334570417e-05 0.001194036740429232 -0.001492268249060661 -0.003649849018128399 
0.0001873270557258573 0.001058820007500267 -0.001369237004311184 -0.003219403247988474 
-0.001554180718188592 6.194661162289443e-05 0.0006807268172533252 -0.002366241089093784 
-0.0005298561117680568 0.0001110327410966994 0.003553887658039565 -0.004629944151964231 
0.0006626014353244063 -0.0001598139848575495 0.001141902591860893 -0.004082553637855622 
0.0006954625242908945 -0.0004158495360192246 0.006202046088488801 -0.003995322341720813 
-0.001917276236439909 0.0007115982891528026 -0.002240747186537155 -0.002254571050114958 
-0.001824217167431101 4.968783961234123e-05 -0.003578693095957052 -0.003093218608429002 
-0.002093323999475455 0.0006988529339988769 -0.001981816546681641 -0.005696733301783618 
0.001474419985326373 0.002291446474949832 0.002367706277910024 -0.004618633178441731 
-0.0003918402088568255 0.001885689063078294 0.005884910396517987 -0.005451923672454393 
0.001335504303739092 0.001793760225536169 0.0006763266062698168 -0.001605282112441933 
0.001334083571092961 0.00231907309021139 -0.001763128456807967 0.001335216284890599 
0.001209598024878971 0.004785311371003329 -0.001923751900417535 -0.0033757866426135 
0.001270491562508245 0.001771104973363795 0.0006719361687625221 -0.002566831614625468 
0.001539845436682146 0.001158456483205259 -0.0005040935935561302 -0.002093166015003159 
0.002924555172395799 0.001880797427062668 -0.002131214711779624 -0.002338724545617066 
0.0007611972872357859 0.002087326451894181 0.001237997282730222 -0.005853968358202669 
0.00152633758136545 0.000775377292775703 -0.0002943695847967246 0.0002866579190268841 
0.0001020329577787225 0.0001339141589983681 0.002862972058338873 -0.003101016472659082 
0.001546578272454175 -7.445936491165355e-05 0.003563482599446786 -0.002455918459734708 
0.003809547927513544 0.000164266066668521 0.001561887722472406 -0.001051326251508009 
0.0006425941220302401 0.002813490740702273 0.001730692071897041 -0.001087944677810989 
0.002152082677552544 0.001567455317975436 0.0003672539650725832 -0.001836715423575698 
0.003243787564595003 0.001606799726335295 0.00072577258289958 0.001320755670624707 
0.0007771737468531541 0.002956862946834573 0.001650230736689452 -0.00519882222626013 
0.0002630750452563066 0.002687904529376999 -0.002081777180597887 -0.0005077566316729795 
0.001343869924143438 0.003436771661012802 0.0006385779222170992 -0.001718626392018257 
8.144313090910087e-05 0.001497692961520585 -0.00156459178492239 0.002542666852875926 
-0.0002087109532467156 2.645825795253882e-05 0.0001600463880592724 0.0004693770751585493 
0.001249867846074614 0.002580013720479302 0.001125081255587005 -0.000847768751082153 
0.001381276995862552 0.003735350520124042 0.0002890465347402874 -0.003046839872084795 
0.00131994442902787 0.0015069194449857 0.00145614167619889 -0.004768460117268508 
0.0007135531893840042 -0.0009662084626389592 0.00744720867015088 -0.001701574018666103 
0.002303544079459303 0.002313204900781995 0.0009791043968695884 0.0002396879367048041 
0.001096682673771815 0.00195135150234256 -0.002049547369353504 0.002057016157407799 
0.002209042129960117 0.002550010559023726 -0.000515453072191511 -0.0003084055482285496 
0.0003451482338530713 0.002436072477194504 -0.001637211940294853 0.0004530209946054234 
0.0008174696487260056 0.00208419749996477 -0.005105390625800925 -0.0003652372048909539 
0.0009307979713262032 0.003567560450491615 -0.001666536830113593 -0.003495141340364325 
0.002288314879406182 0.001773576665578247 -0.00206278968465619 -0.0002252869640544822 
0.002094355000142433 0.0003992345605610558 -0.001261674754993246 -0.000374090606439781 
-0.0003136177865576844 -0.001039197981133554 0.002178026563649931 -0.002235688718432492 
0.001331669459634669 0.001161177519250758 -0.001324658341760237 -0.001066569403695035 
0.0003652067181981233 0.001198671652249537 0.001009092225188513 -0.003953539012427097 
0.001455218108147105 -0.0001381044973607883 0.002227160623870225 -0.003184012532362957 
0.000862118859843291 0.001536058220366807 -0.001706758482594263 -0.0007731952096014642 
0.002917019763127813 0.002386580012788179 -0.001766405396901489 -0.003094440479855513 
0.004259840484731446 0.001555070502661887 -0.001188472053955542 -0.002539986618032774 
0.001735320537245207 -0.0007367900278878606 0.003890978280789766 -0.005796573646762527 
0.0003647338544109455 -0.002234889466534022 0.003016619712772099 -0.003537907863208586 
0.0002256875889643883 0.001503110708394949 -0.002197150532446387 -0.0004314967801435748 
-0.0002502957248708066 0.002378086401004896 -0.003307206504192084 -0.003605370776671665 
-0.00130526958334559 -0.0002933978955813463 0.00284655571858861 -0.004186499415213995 
0.001985522984807946 0.002625720377833642 -0.0004987792658895293 -0.005521714798472534 
0.0002037205164509317 0.0006990715537000881 0.003495351720561428 -0.005646523195234295 
0.0002231997168047739 -0.001597732413842283 -0.0002904129665236211 -0.003310029732760853 
0.001235892577118073 0.001951349100233776 -3.537363868646893e-05 -0.004676146347990384 
0.003099831413903076 -0.0006241395328221309 0.001390291953219275 -0.003467464605805932 
-0.0008776883416685714 0.0004421253699375173 -9.039994718685747e-05 -0.002014647490863599 
0.004223202940688732 0.001543079956694946 -0.002135068795981453 -0.002902012684995187 
0.001884470486712605 0.0008025140719351979 0.0001689205126015638 -0.001620169683785781 
-0.0005043368555300047 0.003008226402625151 -0.003412219649562617 -0.001199313532018707 
0.001749986644898119 -0.000755821250283294 0.005165041843270773 -0.003733539100147688 
0.0009035348526801655 0.001305171173439205 0.0009353135125174678 -0.004577440340133933 
0.002023728830124199 -0.0008560488183959645 0.005257027150897724 -0.006076309048264891 
-0.002030455215742773 0.002572345232284357 -0.002585325328988353 -0.00136653021426395 
0.0004194075293506957 -0.00106743793539315 -0.002764766651336497 0.0001548707389033635 
0.0001242043242349525 0.00140952598959516 -0.003187021272315323 0.0008286159506490563 
0.001120041588782014 -0.002978219307382243 0.0002483083131856792 -0.0006131930391138641 
0.001091690396721705 0.003024379418799713 -0.004158169946387272 -0.0009315366741288997 
0.001134751501734707 0.0021221341837505 -0.001270659747227106 0.0003484929016059705 
-0.001942868416556967 0.0005314917401252828 -0.003099047413259731 0.002816548714919243 
-0.001348879724288663 -0.0003296175637158456 -0.001769780327428352 0.0002710064024700576 
0.00250914032395036 0.0021856010280211 -0.001470465008247997 -0.0007203204375648456 
-0.0004792155941159782 0.0008248649187291244 -0.002992053022020721 -0.0001032396450179338 
0.001030807618027774 0.0009730579881554234 0.001366875377446508 -0.002501359967923748 
0.002836411633487037 0.003196020582871002 0.001199447863867877 -0.005005698010351346 
0.002109302639798993 0.001652768873740032 0.0004067930752512818 -0.00227838417307731 
0.001552656896915622 0.003724256069729005 -0.0005393283138202325 -0.002786940330916855 
0.0009281102787151133 0.001576589223383444 -0.001396606203355415 -0.00112861806024207 
0.0004475025489472951 0.001273669585667232 0.001399245848201184 -0.004511082616237737 
0.001561818399563204 0.003091256050977111 -0.001965801584659001 -0.005687301513704408 
0.000893284185904894 0.002441870948084525 -0.0003157281433608015 -0.0009258176755666595 
0.0008551239308255288 0.003127735284939164 5.273379513635994e-05 -0.004994728877133181 
0.002667845207894507 0.0008719410365862468 -0.001100821872046481 -0.001825864736772686 
0.001342756405869131 -0.0009030512527638389 0.001711183293240508 0.0001030280963321461 
0.002196193965785543 -0.001110073727354541 -0.002364551743787987 -0.0007441121535922281 
0.0008854013911564496 -7.106642988508605e-05 0.002300291997143213 -0.004027608317423943 
0.0008137948758420331 0.006014705569865591 -0.0008289542070587594 -0.003624958721482845 
0.001341709506434106 0.003790122906473339 -0.001021280332031282 -0.007063517667851915 
0.001277242894249217 0.001733521071350652 0.0005325159396413662 -0.003861778231746887 
0.0001899579172234125 0.003964280785482804 -0.002114940441129308 -0.001911792943361674 
-0.0004625081684653147 -0.001144021458559241 0.001574385978506931 -0.003441698058656849 
0.002271215373883573 0.0006876861414591439 -0.0006226106354106566 -0.0007621194494987407 
0.002043822051629995 0.001324449710299973 0.0004639845731313966 -0.001499269102683768 
0.001793607982562288 -0.000238256427547215 -0.001506882716553976 6.799009241074852e-05 
0.00161441866191661 0.001337490045782963 -0.001250871579452994 -0.00241246150142971 
0.0003944696677805788 0.0004993367066700718 0.002969062974630489 -0.002648305408721686 
-6.766780797068546e-05 0.001577200472722828 -0.003308091944524777 -0.0005053463536766371 
0.000407366247865428 0.001803433948771802 0.0008598114250259899 -0.005340598168791978 
-0.0005680676953770183 0.0003935858951993567 6.266184781884661e-05 0.0008508632342226391 
0.0002371682425998091 0.001187631768120901 0.002447468268341853 -0.002838031712530934 
0.001763034468715394 0.003214487475123438 -0.004394214118137327 0.006223546085183357 
0.0002058633555144969 0.0008130527850016976 -0.003430649663302367 0.0001727714017504615 
0.001851740057209772 0.0001561666729363241 -0.002823023268572317 0.0003108079417388346 
0.002624597561116345 0.001524816547356089 -0.00129821720878232 0.004653363270760602 
0.002660857268031735 -0.0002011382958452841 -0.003241561364642074 -0.001723447740296937 
0.002106960723355355 -0.0009515948769593091 0.002295646986782605 -0.001513498034632162 
0.001500913874440704 0.003951834976926661 -0.001415295479775212 -0.001723062702174952 
0.001840614790107546 0.0009108924673974005 -0.0008251782730892518 0.0005365325884803046 
0.001090769199499217 0.0003841443263074215 -0.001386745250745764 0.001087265730312103 
0.00292868951214054 0.001516562325887302 -0.0003456898397550094 -0.001292248299051456 
0.001351133451321128 -0.002797283274353131 0.001201545830149011 0.0009204260751814035 
0.002224638905082679 0.003612761032454124 -0.0007484790625985535 0.0002753456426193336 
0.001383804458873723 0.0001323368075494653 0.001590989240073677 -0.001695331901287242 
0.00107532045491937 -0.0002804834795582661 -0.000750291491314473 -0.000920827959437155 
0.002491166691497276 0.001613779804934019 -0.0002556224405449084 0.000285704312771358 
0.002413087099678806 0.0003870541454120425 -0.0006657605356050317 -4.354420697245129e-05 
0.0005775520156826708 0.0003258918745861734 -0.002645006619910976 -0.003173960292310696 
-0.0009339175088771987 0.002540102036459544 -0.002966884393791985 -0.00248809318525328 
0.003136697316559941 0.001872054392800057 -0.003212312009700043 -0.001668544582095009 
0.001905946110756074 -0.0001930856729114134 -0.001189728205988941 -0.001621159577763691 
0.000110690585054322 0.0002573440111086237 -0.0005538650188020239 -0.0007678881397526864 
0.0004163063556709941 -0.001610661575331135 -0.002012088484758782 0.0004891407823842984 
3.762599049462032e-05 -0.001411164654213733 0.003135784607741193 -0.003622554712995204 
-0.0001788162936190308 0.001305276814168968 -0.002802007091704415 0.001831320703865323 
0.001303129757151913 0.001881463288150353 -0.000588675349576173 -0.002505044624944712 
0.0001105567983464408 0.001393174221755711 -0.0002596975698042576 -0.00242959496591817 
0.00280642205297743 -0.002169110193497388 -0.001104837882430676 -0.002255085366783219 
0.0005849215772799998 -0.001593590288363512 0.001124652985587333 -0.0003530025511592918 
-0.0002665019712868703 0.001042121026501876 0.0003055044032506821 -0.003713332774506365 
0.002365866795161341 9.701021505518565e-05 -0.001116842100550144 -0.002008048072880573 
-0.000137580313365154 0.0003021345365760874 -0.007389230069257425 -0.0001682100212313082 
-0.0003776320526769986 0.0005889879934891732 -0.001874251672278555 0.001164161451461245 
0.001390696103017789 0.003130463061099156 -0.007916393316184607 -0.001573793572074725 
-0.000757440717551476 0.0002020724733637007 0.0001797549133276337 7.262147830515663e-05 
0.001289848590318311 0.0002922895770488834 -0.002741694217549085 -0.003189936791934137 
0.001195382277113024 0.0001253915273503115 -0.0002321886923283841 -0.004630272014888611 
0.001720885821519748 0.0008064522412864317 -0.002669906069988973 -0.001973235816197322 
-0.001290469642144254 0.002009148316417121 -0.001821487040681033 -0.003130754325441935 
0.001921316838366713 0.00108983051672396 -0.00243454756437834 -0.002974636136611768 
0.001716608111518383 0.002101012089448663 -0.002059805733162281 -0.00246917165099286 
0.0004648625248797503 0.0005442465963684386 0.001480519960847087 -0.0009393106450508331 
0.0009304644828397287 0.002011659056308476 -0.002475522608577137 0.001033502524390194 
-0.0004285745938327253 0.0005383811922234155 -0.001269081630568892 0.001498019594947731 
0.001580649553654063 0.0002599493221693537 -0.0006268313629948006 -0.002356488947546074 
0.0006680188667475741 -0.0001140975117496561 0.001411645587379608 -0.00218663904418789 
0.001118359537145351 -0.001094566829447851 0.002729792615583539 -0.001492152925973405 
0.0008982623057005737 0.0008994719346898356 0.001889852155389854 -0.0007288709214587969 
0.000351888040669421 -0.00097896289588312 0.0003139771954330952 -0.0002937982079894888 
0.00255850502145437 -0.0002395406778705439 0.001634861638070784 -0.002323781625330221 
0.001363657896118747 0.0009138223962384752 6.262387331823294e-06 -0.002953521369078947 
-0.0003851421891661657 0.0002861405622150421 -0.001445548201174223 -0.0007114789343354216 
0.0006762510527089523 -0.0001548262006341593 -0.0006212597999607416 -0.0009611512202470321 
0.001267238731852411 -0.001953274904389659 0.0008842343964045848 -0.00595932743633576 
0.0008199379311943011 0.001862724196760846 -0.0006287558906444827 -0.001985178321162463 
0.0007526228764238533 -0.002003558755097105 0.001867631716975682 -0.002518417552733272 
-0.0007580221203387525 0.0004456154545952006 0.003764880578982435 -0.002958865875768896 
0.000683028073803617 0.0002679166023271396 0.0003129728820709732 -0.0008080263837075798 
-0.0007882419231503241 0.0005005587409374708 0.001656875997429159 -0.002425057633232743 
0.001791235499079611 0.0004414775588469427 -0.001439483701501898 0.002046299238675893 
0.002178192025582251 0.001855137579595331 0.001213943131866864 -0.001294478305136633 
0.003427910379086962 -0.0003558216407045328 0.001561032505083232 0.0003643857306971518 
0.0008020945812169646 -0.0005283677179677873 0.0003214349859426616 0.002022632851518439 
0.001937161224560043 0.001372932670764165 -0.00115881258962963 -0.000844061691790721 
0.002339607362736268 0.001975540908700878 0.00143659199995569 -0.003149269277249029 
0.0009495348006802833 0.0005031377919574918 0.001408417462184333 -0.001342774791576892 
0.0006163380333289371 0.001319818266848942 -0.001297029442319011 -0.0003874858898550539 
0.001370721730826023 0.0009400482790677113 0.0004716355674754962 -0.003537676472063522 
-0.0001050841004090113 0.002130425715713401 -0.003602646470534471 -0.003458166162843069 
0.001644560669794101 -0.0002205471075924574 -0.001809342339260091 0.0001141886697739443 
0.003653217397044653 0.001773262617307689 -0.005263922259046741 -0.00181628251306824 
0.001853922323944802 0.0008022109893260695 -0.003119331400661763 -0.0010508568413264 
0.0006783842454592345 0.001755398275486008 0.003463992322569595 -0.005309534182984564 
0.002841880809096005 -0.001114707681291187 -0.00273074858127336 -0.0002289368587075222 
0.0001454614966261042 3.421640284851257e-05 -0.002400324133703289 -0.0003337160028717065 
-0.0008619950741716285 0.00115972590182758 0.001195766601121999 -0.001006218900275028 
0.0002265171713735615 0.001152047586451835 -0.001624026255719488 -0.001437523055747102 
0.002927799002792407 -5.631596509481216e-05 0.00230490043600048 -0.001845312471020346 
0.0004221744141760677 -0.002239843225414729 -0.00248896444540351 -0.002080403923155176 
0.001120046648020933 0.001161973588201825 -0.0007448487596628546 -0.003161974970529695 
0.001603263947126742 0.0004246655835310016 -0.001991738874923657 -0.0001120898739565235 
0.001958173993119052 0.001794276576657808 -0.001971594265068031 -0.002566399837979392 
0.001602177147595246 0.001104559607856903 0.0007581736186422797 -0.003193556003023666 
0.002674853599493303 9.803152226170994e-05 -0.001578998419121462 0.0006121032727627252 
0.0008561258094304885 0.0003639594116268373 -0.002399369716769023 -0.001118360658123119 
0.001604355469537297 -0.0005527490495729078 -0.002118875479307475 -0.00127057228764324 
-0.001302662146842999 0.001491277621405157 0.004125227919982075 -0.005363440991871156 
0.00187098558817238 0.0007819188962633401 0.005263061344116316 -0.002141835049606048 
0.0004191250748594611 -0.00119546525989779 0.003839180659963348 -0.002439543364858079 
0.0009221822569193685 0.0001726995547873864 -0.001027121794634436 0.001940856740008307 
-0.0009931929435760881 0.0006710614129668549 0.0007481482445502989 -6.230215691291055e-05 
0.0006872703335353526 0.0002566486622387036 -0.001983222811329294 0.001591532581037132 
0.0003154631482076569 -0.000784431647673833 0.0007514069074602201 0.001326843105878953 
-0.0001739954348277552 0.001186288719381326 -0.001010654429201529 -0.0001892775801249132 
-0.0009638961272824644 0.0002512636386063347 0.003500857359378599 -0.005287754828028873 
0.00306623038742642 -0.001586377040839192 0.002860490699119271 -0.00149936268920402 
0.001989506824468139 0.003068913822524195 -0.003418849940079857 0.001124957360868299 
0.0009695912371324232 0.002425378123868223 -0.0003272298132237277 -0.002712496789756329 
0.001712501732021573 0.002046185790686876 -0.002663131519321079 -0.0004870023534135281 
0.0008944133914489523 0.0009890209550462942 -0.002036250633733363 0.0001904021486657699 
-4.791353719758326e-05 0.002213411370919871 0.003250461018592432 -0.00343032759321262 
-0.0003354726330843201 -6.948720769279885e-05 0.005089166811380178 -0.006198559199328896 
3.680875060288062e-05 0.000626837833059108 0.000395697503787697 0.0006815105662003761 
-0.001629721438653662 0.000791371569080269 0.002341781261756609 -0.003737537978693216 
-0.003334660123644447 0.000634343041549022 0.002156617890686914 -0.003157748074328459 
0.0003009707795494715 0.002080045034539117 -0.005672713798065805 0.001771989048654799 
-0.0003965862472789383 0.002128455673156633 -0.0006649253480457765 2.637885876644445e-05 
0.001981265171854719 0.001228956502945521 -0.000590539844746622 -0.002038948941493425 
0.0004351227530548706 0.0007578761152163275 0.0002134076915086344 -0.003101046310463408 
0.001168120371595735 0.0002626683763074357 0.0008821556800927181 0.000297150796844564 
0.0007797522244827092 -0.0004234673695555244 0.0008739232999851317 -0.001647854887646175 
0.0008207916147995555 0.001095377431503462 -0.0004526382881079628 -0.0007782976320097194 
0.002099049203276985 -1.091721418092642e-05 0.001356229625320766 -0.00125210543055945 
0.0002601822735532215 0.0001014214704651844 0.0005422743073122281 -0.003024925398067815 
0.003943708226912611 0.004386234527516056 -7.18184088487577e-05 -0.00150532165872784 
0.003231750974289194 0.003238100996931964 -0.002818807927389537 0.00193042732812974 
0.001511523041962119 0.004667310140473845 -0.00025174725924031 -0.0009120636282971575 
0.003171425406957138 0.002785620277730032 -0.0005154581800757818 -0.002843325861410242 
0.0003480026478473507 -0.00325417131829838 0.004230706308334902 -0.001569589119529191 
0.001560903089617039 0.0003099463964400935 -0.0001831124040568376 -0.004226649040203896 
0.001192383013410962 0.00346082152785907 -0.004058329631582007 -0.001309841250915567 
0.001735051378015582 0.00347284951132111 -0.001744057473954817 0.001360844564668696 
-4.722158785252246e-06 5.023403835854062e-06 -1.171185207170581e-05 9.772951703661124e-06 
