solver_type L2R_L2LOSS_SVC_DUAL
nr_class 5
label 1 2 3 4 5
nr_feature 225
bias 1
w
0.04043223775905466 -0.06722276114938568 0.04662021074553632 0.09169366770824267 -0.06166525675496391 
0.05357464717186552 -0.06663898781439453 0.04392219014834119 0.08486973357990486 -0.05881853972689954 
0.05055771198668349 -0.05666243307816773 0.04585513839781847 0.07980043472620935 -0.06123456239672707 
0.05476218541040487 -0.06447349788571402 0.04671157118927299 0.08185975442930792 -0.0609545577419028 
0.06159233541743968 -0.0637898226419444 0.04098408854767482 0.0774503174430987 -0.05802049099308353 
0.1100138178412326 -0.05435895705632589 0.04758382664936578 0.0558278185768163 -0.07675204023177347 
0.1151508383136154 -0.05827027958277014 0.04603530180461284 0.05632157302759981 -0.07383150562568386 
0.07553377020249026 -0.05222427240864227 0.04667563224523023 0.05601498023432883 -0.06595263126406213 
0.09375073775350898 -0.04544865866087221 0.0461755127740346 0.05268041371424375 -0.07808962507947061 
-0.03716068283592226 -0.04506690002251437 0.08992983556700972 0.07071593672686559 -0.03217448454128811 
-0.03956673784470499 -0.01525886875358977 0.05729741004228732 0.0644211279119882 -0.03814002999281431 
-0.07927421714815142 0.01050914676796437 0.05987269490257871 0.06257805268507817 -0.02889674744108441 
-0.03801999304053536 -0.05584394480639852 0.07722954628237434 0.01562161276932851 -0.03936863570428404 
-0.03185109527894246 -0.005866566914792764 0.06937109765058877 0.06879436519448529 -0.07343668401181126 
-0.04801207625866998 -0.04418579029476131 0.09454611260324486 0.075284987482116 -0.0411442431182153 
-0.07041746932817315 -0.02863895360636303 0.09192960405164256 0.0832197279577231 -0.04564460539757107 
-0.05769221005905535 0.001780682852747856 0.04571265542510292 0.02655219839768754 -0.0466457218558346 
-0.03601966223226032 -0.05711637005758467 0.1001207757649434 0.05649104990834851 -0.003137187511771279 
-0.08757045761838 0.08476702809799168 0.05937904619912953 -0.01093422434943133 -0.06261372949807124 
-0.03916388358773188 -0.005871397935497768 0.06437878342808817 0.0559890193140604 -0.05654575305237434 
-0.09281708609722464 0.09688490752445067 0.02187880158710433 0.007761675450300904 -0.02484121739983346 
0.03628134378706414 -0.04126419896948878 0.07963707834688935 0.02323273941912877 -0.03408755129868144 
-0.0482097176926626 0.100342874914725 0.02018739954824905 0.0305892769276848 -0.05814388263017081 
-0.0577135885760631 0.01207946194233506 0.09570280834836101 -0.008526527353787968 -0.01648412674176392 
-0.07919124531898743 -0.04972031998119146 0.1172354321160241 0.07594148254283725 -0.04935762123857474 
-0.04557218666541024 -0.009076286846684498 0.06260732642817572 0.07638032774930888 -0.06944214472135794 
0.06815881453938001 -0.01136080491046666 0.06135564263980818 0.02348209210774926 -0.07315805739747866 
0.9980054736639528 -0.6199766458459713 -0.6544008306615309 -0.1645499920729734 -0.008521739611283734 
5.602599258133823 -0.3358058942854537 -0.7251925617641427 -2.985454976727605 -0.2793211114085268 
-0.09461779907041651 -0.05342206579302218 0.1128926263128651 0.04428997054339741 0.01944196924456078 
-0.03094725254953834 -0.08117587045819867 0.07402679772769939 0.131870609117573 -0.01077809414547039 
1.083870578103514 -0.7321344796480481 -0.5810972763931339 -0.1163823025963739 0.0003635732290921913 
1.05658269872231 -0.6904960213682103 -0.6513451529424633 -0.1340869944965096 -0.02282705635843308 
1.05658269872231 -0.6904960213682103 -0.6513451529424633 -0.1340869944965096 -0.02282705635843308 
1.05658269872231 -0.6904960213682103 -0.6513451529424633 -0.1340869944965096 -0.02282705635843308 
1.17028771780329 -0.7380708508927987 -0.6917278894071829 -0.1897352225473608 -0.04564851855277006 
0.08874866854789813 -0.02184908387691812 0.04919004180562579 0.01751111301200216 -0.06128965762031208 
-0.07375054535899894 0.1871200140507168 -0.04544260689755124 -0.03166452326390412 -0.06317968676774138 
-0.07505967464724413 0.05390623144227775 -0.01767343303054918 -0.03613662777465464 0.09027996418844798 
-0.08249386270846917 -0.01283062539456646 0.0831384832461648 0.1125143037004572 -0.06492946124458455 
-0.06793370797714882 0.03792924698138701 0.0581378730457814 -0.013635164237533 -0.007282435171970645 
1.590138171374384 0.08174188171180041 -1.394357789054551 -0.02984298452324601 -0.317673952132485 
1.518900159818955 0.09116968121854213 -1.207250015953656 -0.05683812607372082 -0.2349679028850481 
0.9945544986469277 -0.4193049499387455 -0.2893097400364053 -0.2911065366376907 0.4223750347504663 
0.05252487496557092 -0.02787876778461649 0.05522229085888461 0.04697517626147933 -0.05958067486103312 
-0.1198805203647378 0.2273847238495377 -0.02887863348305724 -0.0511712838909331 -0.04871141862450607 
-0.1389546845846374 0.2309708789427418 -0.04292342021402236 -0.04670786700586555 -0.04071714072639758 
-0.1592668450779922 0.2112748200128428 -0.01691749865232377 -0.002130601587831744 -0.0458335202679056 
-0.1530277668664353 0.1891444138886045 -0.008489119600104277 0.00676091221190957 -0.0513395440468007 
-0.1662307843638061 0.2088811597300136 -0.01244688066539247 0.006518135245186766 -0.0468571052676978 
-0.1683144933642338 0.2308229190889093 -0.03021634773490531 -0.07003189916615477 -0.05193358615289721 
-0.01853634735526751 0.2046649446538738 -0.04394788518304927 -0.08295478805722949 -0.00199811457700705 
-0.1293992965742629 0.139494471125823 0.001921725165597579 0.004053606042939682 -0.05661186953251002 
-0.2315732239092574 0.3026878707892312 -0.04625167680270852 -0.03609133992015567 -0.0496238576198663 
-0.3190075700181619 0.5165389839767678 -0.1313689658350823 -0.1142871782052791 -0.1175119674882339 
-0.185903733762121 0.3127293983477984 -0.07151955717196351 -0.06697032920535151 -0.03819690116015573 
-0.3047496344557042 0.3754096874409133 -0.1284539257397859 -0.2040287257033616 0.05129384158476595 
-0.1549338121946467 0.1267408799264189 -0.0256091864218375 0.02180725573090444 0.05446325766906612 
-0.001638989452377781 0.2991583144088604 -0.0410120601537146 -0.08017006382743003 -0.09853572336087893 
-0.09414202134968153 0.170218780448502 -0.07118263977643546 0.01318747447734798 0.0004788058081110354 
-0.2351922108434295 0.6436823237575109 -0.1524417082006917 -0.2596089491104817 -0.08230418168276796 
-0.2233852895248908 0.3574757544733323 -0.1623265633959921 -0.1098596008144643 -0.005436080125511699 
-0.3334189024379483 0.7922204013775263 -0.3645900711047868 -0.3466226021249754 0.08942869905932425 
-0.2134201673424873 0.7161472420412366 -0.2960962741053027 -0.2047521596549272 -0.004522283396378963 
-0.1460332508738801 0.2078848164951103 -0.07345618568793874 -0.04665621223542261 -0.01487490366686578 
-0.1998861785660087 0.2115439958376424 -0.06335001155182282 -0.03341775618218545 0.01986838445735469 
-0.1229587840043797 0.1524845930795992 -0.06181811920648315 -0.007506770280030307 -0.01067795712608744 
-0.2233849879714938 0.4897310439438278 -0.04552496265423726 -0.1532469659419629 -0.1860122249480602 
-0.09802283031991339 0.04120227739889978 0.03553934367518741 0.06769093402200502 0.0007793559179834177 
-0.05788169104469453 0.06891108429725712 0.02289939449146338 0.01258333268794466 -0.0128615478671173 
-0.1117208344825791 0.1206993661661702 -0.06914540677868809 -0.08968174030239751 0.1477722839122872 
-0.1117208344825791 0.1206993661661702 -0.06914540677868809 -0.08968174030239751 0.1477722839122872 
-0.1279968002371912 0.6239525218531252 -0.2597251238616055 -0.07032086467369447 -0.1305040164764371 
0.1366298838601339 2.402166008478509 -1.104429296787474 -1.773982026130657 -0.6935468079535269 
-0.1117208344825791 0.1206993661661702 -0.06914540677868809 -0.08968174030239751 0.1477722839122872 
-0.1034680182253513 0.119578830845795 -0.06721126486105086 -0.08485426020588559 0.1371736500268296 
-0.4579776758188035 4.104007838445035 -1.097690879156843 -0.6670046235589376 -0.5423875461430776 
0.7439324690788086 2.250238574652765 -0.9354118465798352 -1.016838609899379 -1.204480287988291 
-0.1109989314737151 1.818747153278556 -1.547637857721259 -1.455014746358945 -0.3602719094228224 
0.05357464717186552 -0.06663898781439453 0.04392219014834119 0.08486973357990486 -0.05881853972689954 
-0.1389444512569563 0.3897192816621685 -0.1085630082062681 -0.1457949149790388 0.1315616378338961 
-0.09168245922038193 1.879420552079397 -1.582460702986067 -1.486002038256421 -0.3396678228149222 
-0.1275430639993385 0.1487595750386056 0.02256239838149882 0.03120418300501861 -0.05669600115688486 
0.009794466710954602 0.1215157389830877 -0.04778328919048809 -0.01939585829751407 0.008082046209729774 
-0.01796254858900511 1.420096744672923 -1.142632146618723 -1.344846218043377 -0.2995744055938563 
0.1151508383136154 -0.05827027958277014 0.04603530180461284 0.05632157302759981 -0.07383150562568386 
-0.1184011374005259 0.4009246650612664 -0.09853257173887114 0.01974024487159903 -0.0889221237877111 
-0.009882766796165066 1.368891430287006 -1.113034792787706 -1.301613810125309 -0.4268964401058361 
0.02856430389525091 0.1270229989753178 -0.05605101454776269 -0.03754125957210006 0.006937533503623509 
-0.2010703741706344 0.3007992891109418 -0.1488845175257546 -0.08935624834794506 -0.0005261483943826337 
-0.07919124531898743 -0.04972031998119146 0.1172354321160241 0.07594148254283725 -0.04935762123857474 
-0.06777369076318901 -0.04579110871857021 0.1120152544419698 0.06591839420487916 -0.06539913518295622 
-0.07243635358193241 0.03398670396121502 0.08952370634656574 0.02129281622850028 -0.07139683131093152 
-0.1054563998495097 -0.04241821154485185 0.1259321278671362 0.05005741704431883 -0.06367602587112567 
-0.08602570762276973 -0.0104187207328535 0.1435081576667593 -0.0005987737384514271 -0.05280259410303426 
-0.07940116919506242 -0.01920269103847368 0.1407852322448033 0.000722588721138377 -0.04920320869501299 
-0.07940116919506242 -0.01920269103847368 0.1407852322448033 0.000722588721138377 -0.04920320869501299 
-0.07610701886296721 -0.01738038826892798 0.1380673090637166 -0.01175220271180709 -0.03114445625836646 
-0.06824672767027271 -0.0262363541133906 0.1282852113261613 -0.001486529533014335 -0.03393245564698162 
-0.06227548089849902 -0.02004509360965031 0.1505828511356131 0.006462975437401691 -0.04303881091345734 
-0.04618214983766931 0.02245535907394795 0.08854418734251727 0.02493382068001362 -0.0587045113518376 
-0.01108040005507127 -0.03353469114558613 0.0794573882913768 0.07377860153503676 -0.07181554181796693 
-0.04973125597314161 0.02458058256891251 0.06164415608488513 0.05340105500002993 -0.03640873970897735 
-0.01108040005507127 -0.03353469114558613 0.0794573882913768 0.07377860153503676 -0.07181554181796693 
-0.01108040005507127 -0.03353469114558613 0.0794573882913768 0.07377860153503676 -0.07181554181796693 
-0.01108040005507127 -0.03353469114558613 0.0794573882913768 0.07377860153503676 -0.07181554181796693 
-0.05177234174452066 0.01379852084158406 0.07452444088642748 0.03666327196849051 -0.06838133128671493 
-0.01108040005507127 -0.03353469114558613 0.0794573882913768 0.07377860153503676 -0.07181554181796693 
-0.03963476923957194 -0.03035230662985117 0.09284488378434221 0.04476226995359349 -0.03702670686949962 
0.03628134378706414 -0.04126419896948878 0.07963707834688935 0.02323273941912877 -0.03408755129868144 
-0.08071132965185195 -0.02012331395654127 0.1313981607170144 -0.006897376610889943 0.001312753733331009 
-0.06398888657043363 -0.0299989942856301 0.1136939785919657 0.04328896196189975 -0.03173130043158465 
0.02026317179415622 -0.07454487001205974 0.0802513630871614 0.06862865760426136 -0.04383627435858578 
-0.06618509447152243 -0.03114714386180969 0.1153322867784602 0.04106297794060399 -0.02411535206926607 
-0.04421981900520675 -0.03978591020166102 0.1087089210075441 0.04641992391661497 -0.03380362820778139 
-0.06672154378758119 -0.02203712493062384 0.1037238104811238 0.07400826149265609 -0.06026376463062111 
0.04889025785936876 -0.06574535954986867 0.04708324483536239 0.08634806991996771 -0.06087167625652013 
-0.02329775949376523 -0.01888389542873751 0.07134149758086024 0.0397736830102384 -0.02440802656603835 
0.02128262216044993 -0.04537095229501754 0.05344785534296413 0.08085040429657628 -0.06675695169631514 
-0.04520542985644028 -0.009831889122417694 0.06516801261447792 0.07526498441843493 -0.06859313662294785 
-0.07145171076473031 0.01837243962735282 0.04989586560184937 0.0414838110607718 -0.05095244598264842 
-0.04487111379377573 -0.007764883164361488 0.06294803645685833 0.07477735116757207 -0.06896208442952508 
-0.04574930479682297 -0.009066331692838433 0.06250296906796406 0.07650403903855187 -0.06950182136618661 
0.009617425076901038 -0.03457573453213637 0.09531506102710215 0.07214181374397431 -0.08905868461734442 
-0.02583091488887852 0.003136841268463008 0.06361086543881275 0.04657100601020814 -0.05554015222118506 
-0.336746391588957 -0.07877425996534586 2.190794146293856 -0.9542619334031327 0.8966046036245678 
0.6098477349136989 -0.06290924078961395 -0.2418503647075116 -0.1415474679937149 -0.01575124995353809 
0.165850768234842 -0.3259844119324765 0.1981289708728151 0.2178293197343651 0.04551784849880505 
0.1098221033636761 0.2746403006431873 0.1804938136808925 -0.1646858543678053 0.09357400688979733 
-0.07938220885905839 -0.1724945515980094 0.0881081141764878 0.06836446644995672 0.08488286548167559 
-0.6395617058657472 0.2818085818120321 1.678789671931835 -0.449869642828073 0.6425995582171778 
-0.4830672774033148 -0.6631400120074659 -0.06386719054237562 0.7579872465638308 -0.7576976610353223 
-0.1551928572876616 0.0460725367931067 0.09801579052674897 -0.03087011215055158 -0.01590049082926943 
-0.07368055171109698 0.008094900518478979 0.06485366166953023 -0.04818444888971003 -0.01583721730962133 
-0.1306282707561507 0.1228435253038775 0.03156753742962617 -0.04895872230102515 -0.007887492663251065 
-0.08249386270846917 -0.01283062539456646 0.0831384832461648 0.1125143037004572 -0.06492946124458455 
-0.06210058255437916 -0.03425594699343859 0.1315108801919986 0.08907337158354239 -0.04525396562091719 
0.0119685823634895 0.02350986907707005 0.04614361463098766 0.0422672765604947 -0.05675575045147028 
0.049251813464545 -0.03175111256374651 0.06609260538643713 0.06700593195542297 -0.05787491736912036 
0.04299946876081088 -0.03604425029995625 0.07143326917437112 0.08086802168023191 -0.06629794211995765 
0.04044111483567925 -0.03911407811533982 0.05737260266208252 0.09161320724556291 -0.05405975035044417 
0.004011666879342306 0.007528206010484138 0.06705764212402068 0.04147012492988199 -0.0586763036949928 
0.01167954900079617 -0.02486084036369083 0.09059333857767761 0.08263251045269263 -0.0954475192454496 
-0.01679682101005009 -0.04957976113630724 0.07939576438162509 0.1142340120843721 -0.07201170527799433 
-0.03557704996923123 -0.07232935812821767 0.005836981669152307 0.1472886733692813 -0.01027819918699883 
-0.03748299657698537 -0.07271859781730516 0.007759636191687635 0.1501407740941818 -0.01305599746072526 
-0.03748299657698537 -0.07271859781730516 0.007759636191687635 0.1501407740941818 -0.01305599746072526 
-0.03748299657698537 -0.07271859781730516 0.007759636191687635 0.1501407740941818 -0.01305599746072526 
-0.03748299657698537 -0.07271859781730516 0.007759636191687635 0.1501407740941818 -0.01305599746072526 
-0.03748299657698537 -0.07271859781730516 0.007759636191687635 0.1501407740941818 -0.01305599746072526 
-0.03748299657698537 -0.07271859781730516 0.007759636191687635 0.1501407740941818 -0.01305599746072526 
-0.03748299657698537 -0.07271859781730516 0.007759636191687635 0.1501407740941818 -0.01305599746072526 
-0.03758314207612607 -0.06969676227458893 0.01016945686894788 0.1457068846326942 -0.01504439261117429 
-0.9242711987067049 -0.4874781153414036 -0.4650476389202157 1.078616707597469 -0.1594438784938139 
-0.4315476166342537 -0.3781679982929138 -0.4237682279372806 0.8204063107634008 -0.4324657657040784 
-0.9606356919278932 -0.5058704620562234 -0.4751810831131362 1.146939775014361 -0.2398383073600434 
-0.9606356919278932 -0.5058704620562234 -0.4751810831131362 1.146939775014361 -0.2398383073600434 
-0.9606356919278932 -0.5058704620562234 -0.4751810831131362 1.146939775014361 -0.2398383073600434 
0.06909735742312698 -0.0927506523594321 0.06940689607286747 0.09693154262715076 -0.03541560279459 
-0.9606356919278932 -0.5058704620562234 -0.4751810831131362 1.146939775014361 -0.2398383073600434 
-0.9606356919278932 -0.5058704620562234 -0.4751810831131362 1.146939775014361 -0.2398383073600434 
-0.05055818030700525 -0.00949977393003131 0.07074487426607182 0.08981587704857462 -0.0617580874617673 
-0.06586636613988658 -0.03372880930710129 0.1148504553641838 0.04382448799959169 -0.02689462575089753 
0.07240779011443692 -0.02976608872464264 0.06997609877897383 0.03037821113634754 -0.02033980484087243 
-0.05380683976868986 -0.003650792339966309 0.06061991710949498 0.0596614111952177 -0.03807206793673385 
0.05055771198668349 -0.05666243307816773 0.04585513839781847 0.07980043472620935 -0.06123456239672707 
0.1151508383136154 -0.05827027958277014 0.04603530180461284 0.05632157302759981 -0.07383150562568386 
0.1100138178412326 -0.05435895705632589 0.04758382664936578 0.0558278185768163 -0.07675204023177347 
0.1100138178412326 -0.05435895705632589 0.04758382664936578 0.0558278185768163 -0.07675204023177347 
0.1151508383136154 -0.05827027958277014 0.04603530180461284 0.05632157302759981 -0.07383150562568386 
0.1151508383136154 -0.05827027958277014 0.04603530180461284 0.05632157302759981 -0.07383150562568386 
-0.05828246612037286 0.06751114042618106 0.009722417164855749 0.05963580256055316 -0.08136955009976553 
-0.08539252740834825 0.03292977681614079 0.03835316543377294 0.04858422827529359 -0.04877627290376597 
-0.002998242433931958 0.005482746030061341 -0.04357237866639852 0.1428280413745445 -0.02901328326282812 
-0.002998242433931958 0.005482746030061341 -0.04357237866639852 0.1428280413745445 -0.02901328326282812 
-0.002998242433931958 0.005482746030061341 -0.04357237866639852 0.1428280413745445 -0.02901328326282812 
-0.002998242433931958 0.005482746030061341 -0.04357237866639852 0.1428280413745445 -0.02901328326282812 
-0.002998242433931958 0.005482746030061341 -0.04357237866639852 0.1428280413745445 -0.02901328326282812 
-0.07575603729162381 0.001032342148643484 0.07851579325578799 0.06844867730337319 -0.03515761657054959 
-0.07575603729162381 0.001032342148643484 0.07851579325578799 0.06844867730337319 -0.03515761657054959 
-0.1160192683601919 0.1233081392640901 -0.06694983656185609 -0.08794565960683426 0.1444955091208859 
-0.1160192683601919 0.1233081392640901 -0.06694983656185609 -0.08794565960683426 0.1444955091208859 
-0.1117208344825791 0.1206993661661702 -0.06914540677868809 -0.08968174030239751 0.1477722839122872 
-0.1057409821622327 0.1194957626496751 -0.06295369294271703 -0.08221950791160836 0.1319246699844632 
-0.1075886610246288 0.1299246654862296 -0.070838758604035 -0.1002020290554144 0.1539594352051583 
-0.09724595807700308 0.1051072970566528 -0.06771434281918021 -0.08570822591036514 0.1441337421501598 
-0.1048492995320602 0.1124959715623137 -0.06319498036308016 -0.07552227792560272 0.1271774559864351 
-0.09724595807700308 0.1051072970566528 -0.06771434281918021 -0.08570822591036514 0.1441337421501598 
-0.1166502668541734 0.1099856878659778 -0.0626641000734974 -0.07774136439258507 0.1290606649167482 
-0.006504179809609019 0.01096481096381524 0.0115307173983443 -0.03730841982059659 0.1120232814976585 
0.002730415407455585 -0.004049659759399107 0.01174820728826568 -0.03566827312621038 0.1122949856619703 
-0.006504179809609019 0.01096481096381524 0.0115307173983443 -0.03730841982059659 0.1120232814976585 
-0.006504179809609019 0.01096481096381524 0.0115307173983443 -0.03730841982059659 0.1120232814976585 
-0.04461184312394614 0.02180784227277867 -0.01736974735800871 0.07265880101458769 0.07659006171830661 
-0.006504179809609019 0.01096481096381524 0.0115307173983443 -0.03730841982059659 0.1120232814976585 
-0.4795928878461052 -0.8841691839547561 -0.5396591575073669 0.2604736667572848 2.080446854617332 
0.1068791124645021 -0.104770294937439 0.04731526242866107 0.05164678045872275 -0.01009953229466396 
0.009591936778516023 -0.005946853676791514 0.01135797231472359 -0.03075285763438982 0.09143239929786359 
-0.1519892453326172 -0.04067797036236601 -0.08078760569516673 -0.07186107228239279 0.2719238878706408 
-0.1696926295004868 0.1436088344549644 -0.02082381004753636 -0.07052796043443929 0.03272062524082766 
-1.52482958022742 0.3322739772428523 -1.149498257948848 -1.58051482469248 0.8178156364655331 
0.0634481537322077 -0.1728622133903818 -0.0318778099050656 -0.03709538703732643 0.2261645499241698 
0.06667007032183743 -0.1675305158599035 -0.03287685646950893 -0.03349414365102279 0.2176481655095099 
-1.50726405813097 0.211073832875795 -1.184637883088955 -1.593441665631251 0.8998196717407364 
-1.413509414007583 0.1608199256478657 -1.025374926902114 -1.492088291823296 0.7873302716737551 
-0.08797563235866979 0.05141570693882536 0.05003231903440702 0.04388994512535532 -0.03840884236181497 
-0.0410970950347162 0.1520684161399814 -0.03456193839155364 -0.02986783204362121 -0.0436708976473952 
-0.1669030462309201 0.1904135363133499 -0.01672707270940288 -0.07648373903950706 0.02292061949634475 
-0.1174131184764736 0.1576139240915047 -0.007197076068734026 0.04072575400775195 -0.0100265348173177 
-0.06516823986681727 -0.07998661827965867 -0.04660502283033081 -0.1109725950052607 0.3470023784955295 
-0.04409487734769756 0.09183402326211364 0.0003902069807739355 0.01288256071061385 -0.01193170744713632 
-0.1283537382453653 -0.07289350590723744 -0.01296109902439713 -0.02023715018124267 0.2788713934935061 
0.03353858254035043 -0.1612227839350507 0.003512637141450214 0.03363418800400435 0.1829244140908926 
-0.04064871597852865 -0.004469026161979623 0.06128278829746796 0.07359005100362596 -0.06861597910614446 
-0.1414575228689917 0.04186965962972125 0.01924990562411844 0.02447390382402733 0.02345986630055127 
0.1959259069282247 -0.1342610912301846 0.005136011377939568 -0.05635169050705557 0.1167463735478809 
-0.04895849834486092 0.11117883720489 -0.00851255823896018 -0.02005652073375207 -0.03536983259151016 
-0.06752596608461195 0.04366001310028755 0.01864231118148032 -0.002837357093927115 0.006524552802367871 
-0.1740463353074259 -0.6885871883984214 -0.7046970191295142 0.001315471742562671 1.93985854785727 
-0.09032866684721592 -0.07531124894301765 -0.03412006280681282 -0.08073806914953341 0.3366979277043644 
-1.690599494102342 -0.002735626529453128 -1.162851919480871 -1.35932915072037 1.245444224724528 
0.3140816576965724 -0.0786298501054697 0.0163656433974319 -0.09549293721548902 0.09212974043731384 
0.04896390176462244 -0.008741940982627512 0.05675397568425427 -0.07182458048253877 0.01394943064418894 
-0.09133384174245604 0.06013446203470995 0.02966046792172062 0.007650696326762186 -0.02638589830349826 
-0.09032866684721592 -0.07531124894301765 -0.03412006280681282 -0.08073806914953341 0.3366979277043644 
-1.006830007825997 -3.339095467055333 1.602030381839526 -4.157870694403707 -0.9270766393377592 
