solver_type L2R_L2LOSS_SVC_DUAL
nr_class 5
label 1 2 3 4 5
nr_feature 450
bias 1
w
0.4863503045551179 -0.656303097194647 1.040157283777115 -1.179326289040014 0.05813111786227492 
0.3234096363970372 -0.1092305478355203 -0.0455020582543717 -0.1121163840687157 -0.04403223911033069 
0.4239108438321635 -0.2944692050902138 0.01990610138439654 -0.08420041368994273 0.003218768879306699 
0.3599984554726977 -0.5193675497102617 -0.6630340219852939 0.06802705684449574 -0.08573755707085652 
0.3108306178244302 -0.3903473365398791 0.09956098298277308 0.0895476707932997 -0.08776007961704066 
0.2847741640838572 -0.2736868401561499 -0.3325192786915719 0.3225768499908928 -0.003015454328440109 
0.2214785771698683 -0.3348813553994975 -0.07782697229380919 0.7063117743420195 -0.08831044136633066 
0.09779720412841776 -0.0359632576639501 0.304589899799536 -0.5727469683054907 -0.07596212573294078 
0.2236520847359398 -0.2474777667427601 -0.04866696181256305 0.1288009968863162 -0.02586133257668954 
0.01320073040365478 -0.08858901681845205 -0.8707630442550397 1.145281034814887 -0.09696253165977842 
0.3025263682128324 0.04351551220438511 0.2286162025591113 -1.186747386768795 -0.3502330572403571 
0.1681918387009433 -0.2194369643616672 -0.05136416632418114 0.2301817414816742 -0.1294633493070461 
0.1577794431464774 -0.02808039651975745 -0.2945791694498703 -0.824894421440916 -0.1401893452813767 
0.09112603460830873 0.2751498645731203 -0.3117867548065127 -0.445894449144317 -0.1887246500726734 
0.1165107033807748 0.134187731659922 -0.09326962713483396 -0.5395356317798081 -0.121808818410338 
0.1769976792653204 -0.5402382567979003 -0.3763043276658193 1.101506025977053 -0.1968646456089012 
0.0978756311425361 0.04222267764240921 -0.4107804017889621 -0.6958503724296435 -0.141557300341362 
0.1191861964383847 0.2336551240136686 -0.6839974844511704 -0.0541010901870573 -0.2198436624811037 
0.3331375453162395 -0.8736147893155622 1.904709476958494 -1.329618183887779 0.06826387440207349 
0.2846780107432419 -0.2044401584665455 -0.8020025000747065 -0.1813608127066106 -0.0388363495420995 
0.310160005365078 -0.2707632901520363 0.09004332014439573 -0.5313825777858955 0.07336965172137683 
0.2411248963847171 -0.3717295858785909 0.6333194302418529 -1.023013505452791 0.1373587148124858 
0.2467915495475637 -0.1195412534094687 -0.3864704152131047 -0.2933832249814581 -0.03283171788819626 
0.2502191916417463 -0.1781280936410167 -0.9055587586240934 0.1426712093784867 -0.02819657240861326 
0.2749718083398087 -0.1920404804689852 -0.4095889717532637 0.1995835528679316 -0.1033230645014649 
0.3890221085505908 -0.4363264447890657 -0.1501213460474417 -0.2463630225643249 -0.03010530328093821 
0.2869021458482287 -0.3261498234243385 -0.7015166554521771 0.3200990765567799 -0.05781614240228085 
0.5987158421516993 0.1416728548611103 -0.3829481596165207 0.6722006771562917 -0.3217080659987496 
0.1802377263410326 -0.4549051354570883 0.04176153350744679 -0.0140647297698602 0.248514699670024 
0.06621621812137811 0.1183919007505465 0.5702513521879912 0.4116863208814818 -0.1183898336597397 
0.6117996741496021 -0.02874173585659394 -0.875542049251672 0.447598124027577 0.04556453824099557 
0.3865172157645705 0.1573149695796029 0.2365724832909527 0.5712922772069529 -0.2306481258839793 
0.4246325468526287 -0.2698284421036105 -0.1751295985752914 0.06181126975881501 -0.01945192150995347 
0.3911935735575059 -0.0573939007628136 0.008180517801385241 -0.4479412171861578 -0.1112016165260878 
0.5134753391855685 0.2641088830557818 0.6305588457089584 0.320555101899539 -0.4346611438356328 
0.5305545598091562 -0.2850326463142874 -0.5261631137758395 0.3397929401118547 -0.1780197265183032 
1.018426804235067 -0.2376592828764519 -0.8201357547708263 0.6744620887160261 -0.06226367050253757 
0.5178899941588834 -0.8045175201798254 -0.2672795055233626 0.06641569629656827 0.07801848198094807 
0.9455890806949139 -0.4295667414454605 -0.1754913427508174 -0.1151180462085252 0.09261641759385537 
0.7116801731613301 -0.1155185370984147 -0.4085901866359974 -0.2779269724890267 0.06074161870966854 
0.9546281516951817 -0.3475092159586692 -1.085950356726162 0.7848401102516163 -0.1117396626812078 
0.896984813790114 -0.05203947243540877 -1.130157632144973 0.5565798540340817 -0.1209075476854298 
1.308236866144628 -0.4279619852803511 0.5841922051068147 0.2513597936848571 0.05931818500503343 
0.531384869653505 -0.4582480928216683 -0.06487131828002744 -1.175550169187616 0.064160693947791 
0.6535649642816953 0.03250010575055566 -0.1717721002382266 -1.509637418821158 -0.1294858175418424 
0.4792209119539247 -0.710556697560274 -0.5581434753905287 -0.1415563302552458 0.05584697886388821 
0.575722899094821 -0.2391807006630451 0.3589194898601668 -0.5333957198614055 -0.5349443049116145 
0.5587193178918026 -0.3717579590013609 -1.494134032139726 0.1609381446317908 0.04219751981629168 
0.3637916437260139 -0.3772451174633638 1.331345148177573 -2.497632469123262 0.307372248054139 
0.07055489864433583 -0.3497949850259231 1.451755995563684 -0.7659146464883809 0.02119145831106001 
0.8934763732006983 0.2166163877003666 0.6400346511889849 -1.232036666119854 -0.05564856209809597 
0.6680229043600726 0.1458142734771916 0.007919510616680692 -1.294171455152936 -0.5601103541999356 
-0.05337398505200553 0.02535559913571478 2.238470839507497 -3.129822942695611 -0.1684177311579818 
0.4055309461786462 0.08765677241342439 -1.053835635912733 0.2343089267593121 -0.3300757754494833 
0.2268930591710797 -0.2540157628255565 -0.1544174723162549 0.3088938041327915 -0.08631512324484628 
0.6236156531466605 -0.329108300878325 0.2081198394033973 0.7462000241822718 0.2293645815190628 
0.1515070991172734 -0.3061738786782977 -0.1009067070159894 0.3169943480174326 -0.1562891084703333 
0.156636976991557 0.1898933100322412 -1.361996848900542 0.7449024042125577 -0.250949442624674 
0.2872831585242819 -0.4142728009120548 -0.5822170736026431 0.3132527899418494 -0.1477888649380082 
0.178883203038649 -0.1069570405649743 -0.05662613961027282 -0.2142770567873597 -0.1710932621176651 
0.1994162088578041 -0.1656105174028164 -0.4551636914857764 0.5212817336095283 -0.09535250487416534 
0.2857163894515041 -0.4614361555635156 -0.5130165742222285 0.4126451511277622 -0.1404687324242533 
0.3456127431059585 -0.166753847279056 0.1238540963250851 -0.4888288175504981 -0.1654552352547125 
0.2797508755048315 0.3701809150732492 -0.4791664117595091 -0.7876279287508032 -0.215778229962706 
0.268167240677877 0.1493287220317412 0.1288229888146847 -1.024131134580884 -0.2660806463619897 
0.2540611483292698 0.1869317237363819 -0.1556028365560854 -0.6384080561123625 -0.1967943063880563 
0.3361599039219391 -0.03532518024392257 0.1308668330377018 -0.4363120404775334 -0.1619263652425153 
0.1628704832980824 -0.101022934213222 -0.2757376152138908 0.4830922277656865 -0.1155267553316715 
0.3959524857443358 0.01242080235112703 -0.6739510464359433 0.2579962556373872 -0.14559697098591 
0.4135598885812982 -0.5007577975941184 0.3090827439349571 -0.3336182098399973 -0.03635655560930739 
0.4140228311053645 -0.1809442049957378 0.06404094404653334 -0.1628326870442884 -0.1246853056536973 
0.3741574438157381 -0.2080735715937232 -0.3301051367574217 0.2049030959033313 -0.02576530467847098 
0.8237114469783928 -0.7106116559670402 -0.4100635191627057 0.1906448266916262 0.1552540640496894 
0.4432741369459706 -0.3047428841729143 0.6432479623897868 -0.3650878651033394 -0.230899285807937 
0.2307106073988893 -0.1926794871786566 0.006624414322255376 0.1969854093333149 -0.1703190561891147 
0.1861566155598987 -0.4623221876677392 1.010789429465658 -1.423830675232783 0.1700265015291256 
0.2626965515761128 -0.1176469269755267 -1.106544665701121 1.145364589166812 -0.1220717810227233 
0.04143630723376963 0.1121296198749478 -0.4917463902455558 0.6188217021257476 -0.5232882620773961 
0.1389030416082929 -0.2658109178053279 -0.17970688089715 1.464684371161412 -0.1231836767215412 
0.2984775224282165 -0.47653056873802 0.4488117078062122 -0.04451933138140095 0.01870597897777676 
0.355670917727698 -0.5870480297616795 0.2606579672941365 0.2681336302166706 -0.01274132501785832 
0.3953193930787915 -0.5287182737410751 0.002241193909313976 -0.8006082159970451 -0.1945372454669931 
0.4963412396820707 -0.08836816900690712 -0.4304624136371062 1.0172903197223 -0.2927977402588713 
0.4890776686137491 -0.2322528494934471 -0.01107823745514685 -1.33893381098538 -0.1163283316444805 
0.2606813714702982 -0.3599120807190496 -0.1884608016973474 0.09159915941606288 -0.2023358594245492 
0.6300228974602617 -0.320548601357163 0.3260117023697265 -0.811515912430566 -0.1296659272796059 
0.5742234739457643 -0.2806776105076805 -0.03744124868160695 -0.6566895278338445 -0.1398162882809161 
0.4062390439588159 -0.2305850163692567 0.4276052732860354 0.5443250537067612 0.004478451329197613 
0.4101075080082118 -0.252490591852992 -0.6345814298121711 0.9104826901217218 -0.04501640250310495 
0.6162580851361102 -0.6556353788034782 -0.2538124173173976 1.160523227400735 -0.0728108676292087 
0.0910366525192321 -0.003116424249385275 -1.298557188500952 0.8414475689457854 0.431013231047284 
0.009748605727484183 0.04359834231167702 0.04095193244148172 -0.6551071051220168 0.5468203637543385 
0.1196922874850515 0.005175835723774838 0.384757391567687 -0.1596708816159891 0.009334270895644384 
-0.2648842475217021 0.3375741092601893 -0.6268867329096686 -0.4559323843102687 0.450248860070619 
-0.2483554017932685 0.2964636028072586 -0.3856461189231092 0.6003104496603573 -0.2424087700478701 
0.145667626940767 0.1379720585422456 -0.8182220004315415 -0.952847036813422 0.03536046835149945 
-0.3696898425888824 0.1550426411482458 -0.8160775004627931 -0.04742460894320734 0.2200429277953199 
-0.3027588947532291 0.6600417439034317 0.000314825868273129 -0.5038425246263808 -0.08930436387680259 
0.07712607356467099 0.4232970665855953 -1.790980590933219 0.6285939116068699 -0.01094249978700148 
-0.09078315253655263 -0.1981347513550142 -0.6174080495646669 -0.977859660526581 0.22178820464305 
-0.3937931959673956 0.2424676479395799 1.360100426080134 -0.8037658523937016 0.3634653420873645 
-0.08802159393670074 1.491592526159035 -0.8466886812404556 0.8490123961323699 -0.4536285490285676 
-0.172523329469418 0.08229863018767004 0.2470294459748616 -1.015818797253719 -0.3288114084810885 
0.01155877573617081 -0.05923242259766703 -0.065892652657108 0.9122056289430659 -0.09112564813524741 
-0.3533894487061281 0.6958720454757524 -0.0461144447777173 -0.8809194635722234 0.3012929260772809 
-0.3151328992901879 0.4031589119666407 0.8017055898842786 -0.2551842087324903 0.5762065882041877 
-0.2352281162727143 0.6420048855236195 -1.391547833239207 1.297128630029241 -0.1632109999519011 
0.1823886289802516 0.02362863362317268 -2.775745667159381 1.028523924018027 0.09238085151468116 
-0.08088647175766966 0.795618815953173 -0.5153843415277403 0.8697407991937368 0.09216569686563758 
-0.05722138154146042 0.1550302500373125 -0.4826472581511411 1.051541822999083 0.2926662136261948 
0.09693332611796791 0.6438842002152587 0.2047136043793241 -0.7479565594230076 -0.3430500638861935 
-0.1010633087999105 0.2461298947896137 1.49294639000346 -1.108261744260872 0.2319689087321114 
-0.08870522862119912 0.3763050048015918 1.405057968508956 -0.9837938539505658 0.1515349475787973 
-0.1110531569153727 0.6571283391074109 0.409687589324884 -0.4310155334299868 0.00798262734638271 
-0.2433550181333279 0.8993372989039443 0.5439601529782647 -1.025536362517614 -0.01524978873806866 
-0.03106681159585833 0.5269692798273103 0.497492580576999 -1.222565989832147 0.1136300328965094 
-0.08412675964193181 0.5887547447438398 0.1395265565574189 0.1223952939714606 0.07755681371951491 
0.05876670927279592 1.615089130185387 2.150248233964361 -1.733009834657437 -1.907110855972624 
0.01312232825060819 0.689820233372381 0.176769614641128 -0.3458803398177953 -0.3224858168418319 
0.1279192099306032 0.9315768351022494 -0.6995448194698112 0.1141578289070559 -0.6523021283128299 
0.2155204241320718 0.9693213389416907 -0.2088207832014203 -0.775515153859806 -0.7003106247884617 
0.04481714262288425 0.6540931206659284 -0.1739822864686451 -0.8986180656126573 0.1463100723278503 
-0.02552145797076954 0.4246313331318016 -1.868439741182472 0.6103587294220468 0.142161088711976 
-0.0618513389377599 0.8303509051773769 -1.394197730908532 0.6579205799469262 -0.1887204745860631 
0.2861293446893071 0.8731445475643181 1.406474683462547 -1.525159402880868 -0.7702036296731267 
0.1665837048199008 0.9670284594921847 -1.00021081638463 0.6876825436016288 -0.1072970567645366 
-0.2109528624409036 0.7053673216488823 0.140885143617176 -0.7065929408118042 -0.08748830732332304 
-0.2595247381925418 0.4427486906866029 0.3282092996769131 0.2012728816162153 -0.02894799670686722 
-0.5115471565948836 1.162172943464786 -0.0698310530155636 0.2566143629726209 -0.1882965384377401 
-0.3845874822847264 0.9632619101290758 1.317512152466478 -0.8236952693471018 -0.227821203132242 
-0.1321408414647967 0.5603514382821233 0.5866856997227073 -0.1307903355486662 -0.105781074944815 
-0.3268406605471844 0.6468149661487008 -0.1915800840264405 -0.2623499452233313 -0.06247110092016386 
-0.4380234962190009 0.6076795256824952 0.2812512820049212 -1.340034699110077 0.1279872650618382 
-0.1765414650290394 0.7456046313335327 -0.4678857884336905 -0.1257007511148426 -0.1430204591475253 
-0.2795744090900059 0.775060578217255 0.9395103860210543 0.08317054924995512 -0.1832483363101762 
0.03607068907413239 0.6077229659988326 -0.6754712614898515 -0.6582793645922033 0.08729763786687617 
-0.2669792459865257 1.135864178292098 -0.5213578779800171 -0.300645767792821 -0.3864673959753723 
-0.1660333666328638 0.7844323234309614 -0.3247320649914793 -0.4735988569225774 -0.389579654489502 
0.1538550717242135 0.3718563245204388 -0.245067878328135 -0.279583728419649 0.1302643801612318 
-0.003709947271083595 1.428219443236313 -0.1463418735258321 -0.8978534690635916 0.03654611572759846 
-0.2790332463034959 0.6604650558316002 0.4509027124822599 0.00150286289653076 -0.2389851814405749 
0.05187726345687536 0.4070185871886342 -0.1965499549122107 -0.2742537353281431 -0.1481534053399146 
-0.07620303992371462 0.2570032893984596 1.393550246251672 -0.338763075528223 -0.01769536399716179 
-0.2055628307060462 0.273840007621471 -0.08384042813283592 0.1121966299799186 -0.3342617157149841 
-0.2852146331802835 0.5211820559132833 0.4112819228049792 -0.1607578260328503 0.1725265837387705 
-0.4085308265776552 0.7372772509335203 -0.06839974249810842 -0.5448958177329448 0.2933180504790183 
-0.4302825203421006 1.832611127695659 -1.074244497925488 2.769540131782671 0.1922020417345894 
-0.3982785350183547 0.5064682437895588 0.3845284091681971 -0.2075691008227657 0.407344510317309 
-0.2935876248675758 0.678670928174697 0.2828854057760229 -0.6732810834206011 0.1333829548047519 
-0.5368804365972665 0.857190327856827 -0.1634874652970497 0.0006341569404672241 -0.0865905135887252 
-0.3409600580017891 0.5403550643084641 0.7747257940326078 -0.2404042655353024 -0.1148917744945451 
-0.6621547973683285 1.283753723297018 -0.6971719035359573 -0.4944138693403746 0.1290455394204325 
-0.5837011436238574 1.262237865722692 -0.4064205763285963 -0.05822019147718308 0.1011096160907885 
-0.4396618356368681 0.8894215435557996 0.9405206729698778 -0.3809387230369644 -0.3242993062638241 
-0.6418195814865983 1.575127121631916 -1.14246076838623 1.397811288519362 -0.197951566504284 
-0.3106911981108375 1.195602388951129 -0.8850611075973276 -1.2076757978128 -0.110641733253183 
-0.06575828936832882 0.04296786037553325 1.007156423356847 -0.1365754849494103 -0.05396255869740064 
-0.03517329540965523 1.222622263655924 0.3569933640869886 -1.40754559161258 -0.05462308487702342 
-0.3562370686858939 0.6469607092455999 -0.662546434106828 -0.4650820762614168 -0.351205207746191 
-0.5854170481929329 1.261363286789104 0.3126766758866797 -0.7651775252100508 -0.2023843219935605 
-0.1753189613954702 0.5054217800565244 -0.3523979902022693 -0.03957589595587753 -0.448966940745834 
-0.2229625516920602 0.2793486844008353 -0.4371643514520237 -0.2552069188550782 -0.005255683028323715 
0.02931984387298446 1.326924182180761 -0.4124910671911728 0.1142618397616026 -0.892241490950391 
0.1171543308719893 0.4851323563329057 -1.341997249354583 0.6597832729167112 -0.1650831179525463 
-0.1461396106370775 1.524951865698459 0.4919056195188593 -0.5571190676529348 -1.07397955748959 
-0.152056798006419 0.9043129072143978 0.09907172024405236 -1.088786324598962 -0.732155005233329 
-0.1909214546138195 1.578050220154547 -0.2241970369533789 0.6071786005574711 -0.568653308116936 
-0.08995348706225896 0.8422913262337323 -0.5879557079777691 -0.3347010334605496 -0.2585751954610495 
-0.1333141609449716 0.8951323104153073 -0.3155767384233704 -0.0962117880539667 -0.59634463225308 
-0.1877719165564401 1.183687879610708 0.4548902011374346 -0.97589683767715 -0.4804065988817698 
0.08430721999211545 0.7091789820605175 -0.554519732050182 -1.22471109155706 -0.6019661469004478 
0.2059335302077148 0.6031592734331517 0.1300720391878913 -0.4340919929767356 -0.3507570676252516 
-0.06950493725613346 0.9148297766162161 0.8895572303843499 0.1297090654652552 -0.264405912739521 
0.1878810076481723 0.5203257041094955 -1.794519183834471 0.3532777177866496 -0.2116927140836622 
0.210353720592706 0.01172151122054169 -0.763978195283784 -1.036468831012636 -0.55020440154565 
-0.2927338513843525 0.9043570595011793 0.4007035477876013 -0.4385802244257007 -0.5297634248713629 
-0.02290126562178343 0.5096872378436966 0.151287806323234 -1.609401291225411 -0.29550297023934 
-0.1602559926263063 -0.1644073293759217 -1.91528596476752 2.309226283098 0.1541836047184751 
-0.1131044701689251 -0.3785922304306413 1.293346200309675 -2.585284610496562 0.1277584565540308 
0.06890582758300574 -0.2623538782486005 0.6496795014121035 -0.8044023097828545 -0.2222540362749519 
-0.08408820212075778 -0.1558688219030842 2.280388378605408 -0.5762538314777537 -0.1873965957559256 
-0.3093369383662735 0.2086444073298723 2.366303582817029 -0.7711470318391039 -0.3248011492235469 
-0.6051534552476386 0.1245297600003985 1.030485913606452 0.1457007451020377 -0.4610304090712838 
-0.2000031150350641 0.1253630985146833 0.951981796968376 -1.273136794743787 -0.3549197077223011 
-0.373833156385155 -0.9223947019151085 2.255077259294759 -2.155333592592246 -0.04228896812503677 
-0.4018308023807922 0.01960102159627535 3.722383980661841 -2.209900685430549 -0.2036788220190796 
-0.1536444138533 -0.3677696574011642 1.829083053777255 -1.166042583613599 -0.144197941344269 
-0.550630164131192 0.0929616473972736 1.227668834241796 -2.622620778282786 -0.4675673711433497 
-0.5251439851493841 -0.09023376440946813 1.483437944485329 -2.34443844660129 -0.2483685231421773 
0.08918118382549024 0.1803653054345163 0.8683005607234666 -1.760784477632816 -0.4822331140480873 
-0.08331784425987145 -0.3335509232380499 0.7977674905308029 1.884882720713962 0.3148839043589974 
0.1440434659231453 -0.3747174696251054 1.61652364874519 -0.5620306522934799 -0.049371669100362 
-0.2558609041651804 0.3051158635005992 0.6898321409104893 -0.007118802923308695 -0.6309845330360899 
-0.1187549832933153 -0.4528494164192783 0.9457332721362058 1.381108371770552 -0.2189064908531042 
-0.4999769354435666 -0.260179795360306 1.06893600802247 -1.2527455921635 -0.2961220259867799 
-0.07441330459396521 0.6061933767704527 0.8083485856164848 -1.739838769176161 -0.6543362783230078 
-0.02629976671165895 -0.09579785091725937 2.276352525162955 0.104952656123052 -0.03879234706784679 
-0.3696993221492207 0.1619921414006952 0.02387305845671652 -0.7299032748917247 -0.4039233185862883 
-0.3578870597409568 0.008240804263434841 1.872137925267358 -2.236728601344745 0.1427150190271844 
-0.166973784650435 -0.6765425062550098 2.039306915530146 -1.993986185783804 0.165219210547957 
-0.1948808453510744 0.5949564542993511 1.146007698008762 -1.496920272255077 -0.5489504418060625 
0.1342121174500373 -0.4812588378358035 1.943773876186881 -1.171551404652218 0.03450854504916032 
-0.3245957111727574 -0.3928642820734357 1.607017746110874 -2.715723359745809 -0.6810673306086772 
-0.2547100692686091 -0.3536788220118051 1.458922948388205 -0.3073059424654441 0.2638421331044475 
-0.1725614627107862 0.6237048227744548 1.932049760748687 -0.4722584087154846 -0.07356656660353655 
0.2759378512915785 0.02741725824329636 2.655716116585717 0.5388372915442442 -0.3422386350443742 
0.297152339136149 -0.5971677714740383 3.429104858228713 -1.843786595221914 0.2971580162265405 
0.03778753859952391 -0.04864429065663322 1.363575118649114 -1.139293428157012 -0.6445251069714034 
0.2370306141083069 -0.357175476788758 2.096496982379728 -1.902986257220526 -0.07274747983746628 
0.05003038377414371 0.1405860873386483 1.385184179498349 -0.2790046807193824 -0.4851265157087987 
0.01798321524094459 -0.1601365250191399 1.797738493913277 -1.341195392613492 -0.2118394983608838 
0.1345835054504982 -0.1213773456639671 1.156156588824216 -0.6298430135982049 -0.2051857574963627 
0.2938802894990022 -0.6065509412430439 0.8652422796533668 -1.455721352591682 -0.2400304833467457 
0.109515207550192 0.01033218006689201 1.264863853761314 -0.5723524198248148 -0.7406657412284799 
0.03733034573674466 0.08022453714747317 1.328960766860929 -0.1048032254916299 -0.3680477866987016 
-0.1252531591593833 -0.1020890235426352 1.371861417330907 -1.130042543616928 0.1210734243363377 
-0.06261403998565886 -0.4693044548159843 3.557997887657528 -1.388335916079492 -0.065967557851073 
-0.6613147493918659 -0.4477346813891091 1.672165415075912 -1.631688637305912 0.01684614677168913 
-0.181247388824427 -0.03050418661938894 0.4437204983072682 -0.3199645607230289 -0.01816073540642919 
0.00613924587725817 -0.1501173245377114 2.583157441973126 -0.2760788307847215 -0.1653344467813287 
-0.09041548185958349 -0.2270893651711706 1.499372606902904 -0.7505869281966315 0.1383337993822359 
-0.5038019433716855 0.2382979432477673 2.063472002826773 -0.8319990197154747 0.3566162544420636 
-0.2486941358623904 -0.7240423747464991 3.043548630036077 -3.106566567817998 -0.1710276751704602 
-0.07864013091127449 -0.2585432899333589 1.142761858934557 -0.468445781200114 0.5883199569790175 
0.1036324343130156 0.1728909685678514 1.734102266642762 -1.697743201143955 -0.57816817810281 
0.2702179230838395 -0.1585889581778731 2.666249968614049 -2.864688736110004 -0.3725740058283856 
-0.1053576131420291 -0.02464504683898646 1.80027830940244 -1.606462783995094 -0.6586990997999471 
0.005025411962406612 -0.07824849455637657 1.949055559796728 -2.187546488928752 -0.2874476389086386 
-0.004069698206336723 0.01390447428694216 0.8819175974434568 -0.8093494027037087 -0.3780301018515442 
0.07426137841527522 -0.06250343534992114 1.914254650240247 -1.053450340939086 -0.2715807426242871 
0.3233830110759076 -0.1859057491968442 2.71718221060711 -1.226452518975167 -0.3712656010122908 
-0.09117054121527306 0.05395693612151781 2.218044379269755 -0.5036056527091187 -0.497978367916492 
0.1381952908697902 -0.3472328298099437 1.557459814034294 -2.837424930630694 -0.09905463003421676 
0.2055862954589636 -0.2177611963446366 1.519145430867906 0.1188524970546683 -0.3491285165274364 
0.05558315005156764 -0.4023557399565502 -0.8670341168898307 -1.320477978703222 0.01947343153444485 
-0.1562346546519752 -0.003315273276572678 2.612306710247546 -2.765765523208661 -0.1745130661553218 
0.3340938742047433 -0.3261202097831432 2.325037991282949 -2.516641786649925 0.1669604023576162 
-0.5885646959582931 0.3482653745727195 0.8824316695814262 -1.19592626397175 -0.2597824865826527 
-0.1608845204964993 0.3311033936373372 1.0658111345189 -1.755466434252196 -0.7612486554250366 
-0.3427651390885041 -0.5249812623321228 0.8844956266261461 -1.958216256801216 0.2136507689563836 
-0.2113172555924973 -0.5281982581953801 1.871927273734651 -2.804211532360585 0.3050891215055206 
-0.2685505871122836 0.3438202540784279 0.3600121209841025 -0.3184238466609263 -0.3892260485203379 
-0.6229524430292538 0.15771733351559 2.415614870781401 -2.334555434739577 0.6464258066060299 
0.2276182381434124 -0.6221670897714139 1.419340885414915 -2.636981186009918 -0.1599909127827254 
0.2747452546098464 -0.2751281901878851 1.219019424281639 0.1415076637116396 -0.7106782294278022 
-0.08081133837109056 -0.5061171570544941 1.799243220600977 -2.281395201357935 0.01489550141029637 
-0.2296777790829899 -0.7324285146478614 1.279145188166578 -0.7777838490580085 0.3592198095764252 
-0.08416658918267149 0.2144150306265998 3.026847509273331 -2.22661314294649 -0.4312667255667192 
-0.1665595472043138 -0.4080199572393208 1.459331231451333 -1.059056945573196 -0.01864111425320198 
0.3214193284814322 -0.3787504935351166 1.367467506431569 -0.3607218743231268 0.02449132964441317 
-0.009065114198217782 -0.8672909262311342 1.013148473215531 -1.748041087918854 0.4731886413595129 
-0.1426276930481677 0.2073640787071071 1.33709276427028 -0.1832228675845309 -0.3948475612668619 
0.2364867752921195 0.1288660001036205 3.069845655693419 -1.919135354113128 -0.4273747535669136 
-0.02158486888152551 -0.1746227642553233 1.625424908358767 -2.760965975067228 -0.4334621489638554 
-0.08680535269771157 -0.09620113133330974 1.974767250730251 -2.615512035364605 -0.1996491501851025 
-0.05555390604791637 -0.05896669637854536 3.650081802122936 -2.135611524026268 0.2124033904014815 
0.2449565026326355 -0.3898840640490162 1.178022309504659 -1.513226314039695 0.1135492449065405 
0.1241863375687247 -0.4721827874245781 1.382050085368488 -0.2878003574135918 0.2017712567103284 
0.2120804412343991 -0.2534995403508368 2.079544625885453 -0.8556677211524912 -0.03626216217164299 
0.1058735811707425 -0.3783961610696447 2.407319338662459 -1.286707993636355 -0.05221390083971466 
0.04693348875360985 -0.1226491384776843 1.690768960737278 -0.699695836490003 -0.4054476428011201 
-0.03985395467204736 -0.02742239759544038 1.75056037511367 -1.205547629576581 -0.1015001935788436 
0.09524973221423219 -0.4651113172778035 -0.1462462170006174 -0.3331780922039028 -0.08188241234086299 
0.07305760559418673 -0.3659471650244735 -0.6100909687399154 -0.1608377705595237 -0.2230173857222168 
0.3175221560583431 -0.1376492576260483 2.140497676808979 -0.03519536079930587 0.03470143794879835 
0.3498720857770832 -0.4230472130821926 0.1375399811108887 0.5400324105849154 -0.1794425434892671 
0.185267047735423 -0.3939555001139448 0.6358190251352703 -0.392583590697738 0.1313382716593416 
0.03432376128423634 -0.1324564790259241 1.62277402607533 -1.072506871568029 0.07881174969957619 
0.1591078069319853 0.4295696399001007 1.453774928101735 -0.5667671405944255 -0.2710510333047362 
0.2205497676520042 -0.05792978579251058 4.984237890586376 -2.802378457046978 -0.2629340110482426 
-0.8293645808218136 -0.7384707710797267 0.4904392975329129 2.933582934489873 0.2107004151671072 
-0.4721236231886063 -1.043950278105666 -1.245008798313364 2.398941559308063 -0.02174532390476481 
-0.1949285029244316 -0.0830780605395767 -0.4653908277813015 1.661783853257973 -0.05427106377476996 
-0.1232119291967232 -0.3014874575959219 -2.152608368888496 2.799830932644515 -0.1997714207869951 
0.04754624731243343 -0.1528036560784292 -1.656378060879977 1.599814514392805 -0.2245143980373444 
-0.6945104598338877 -0.3394195713213966 -0.3595946448600736 2.148171867329238 0.2022797578599697 
-0.404501469785373 -0.08639215711447251 -1.252089474725207 2.712825944598251 -0.1671459110579732 
-0.2901478480361412 -0.1016216076804987 -3.869495738082601 4.195199421355315 -0.3174883997310242 
-0.6196020904936428 -0.07152590202004167 -0.09985281058077028 0.2939972693558637 -0.09119645990992373 
0.05280652539603874 -0.5383910810801337 -0.9413784636268958 2.523330654201366 0.2080142781327377 
-0.1273757722418732 0.271880798995781 -2.083491816125865 2.11429533001919 -0.2390079875285481 
-0.2354003961352264 0.07059798987297609 -3.904198258547201 3.413838547784039 -0.1339790292364338 
0.04040967015954711 -0.2318002874137442 -2.472185748993784 2.930329575613986 -0.4786485919567192 
-0.09463349077268592 0.2047671888870675 -1.694592890867357 1.052521079595683 -0.3843823545753884 
-0.05412211814178415 -0.1285714909573324 -1.321615084494082 0.8607456348770454 0.4832077158708882 
-0.4281495485659737 0.06486760851570582 -1.437007364910491 1.309873027075239 -0.3552835090966 
-0.3079210382436064 -0.586483824241914 -3.156339619754613 1.568718626683631 0.4260031021443967 
0.1403989454052091 -0.5286705468348536 0.03725907487366681 -0.637830932657845 0.01325922726466393 
-0.4045551329132946 -0.2434441454548611 -3.460931228902392 2.318906508594481 0.1898171944356712 
-0.3418026273417741 -0.07719139713564584 -1.138853055516338 1.121466308128174 -0.05437218497732654 
-0.2058425652051183 -0.05848768674450398 -1.060702810191895 1.095384664044341 -0.3431935540390085 
-0.2961962796518599 0.09369848249345369 -0.5024181127257578 1.31403309765432 -0.2339350272794649 
-0.4917014814699293 0.3758616518667355 -1.728331511199682 3.05095167844602 0.001193203075032652 
0.548893138841785 -0.1337424924686657 -0.007018519369327238 0.1970886013745467 -0.08116781068543723 
0.1734961241395409 -0.1140047062635821 0.5329720490514179 0.9833820701271512 0.1414919099978666 
0.06047092355491461 -0.1947789402209683 0.2304489694281945 1.387068738467224 0.15679860789939 
0.3420983567693317 -0.1318459620033833 -0.916988893071744 1.178793866949888 0.08652227340210007 
0.1926732478500672 -0.4895743206779957 -1.766114223093198 0.06356703606669831 0.2334627575093247 
0.255007045783843 -0.5580198877401242 -0.3228920122721963 0.5887761458207275 -0.05507333492541212 
0.286641907973326 -0.2974026137881525 -0.7694325086228601 0.6992596976776788 -0.3937530161296729 
-0.02439843675336679 -0.1510668306041306 -2.061726055676927 1.653864370498245 0.1664382879651488 
0.01132018286702457 -0.2800990685784829 -1.048940319785182 2.552750986813445 -0.02153561985488376 
-0.1763635245878557 0.1133088526170459 -0.508131496900728 1.17824041485993 0.09024848498228608 
-0.02623453798898657 0.1296023137420903 -1.153137813101337 0.9364187645814764 0.04400109620164778 
-0.08229936795212339 -0.7677082650916114 -1.266998870995363 0.2220320671825037 -0.1011923864798527 
-0.2751899793104853 -0.1790932948830578 -1.477363500932896 2.685345392580813 -0.03532584954374678 
-0.4396877928488137 -0.1112080463935865 -0.3801127818050183 0.7975408212695505 0.1719270650481962 
-0.5110637800002242 0.1232385262979453 -1.270005855669323 2.775343945700785 0.4197519055486736 
-0.2106976795791659 -0.2302283151969297 -0.7866304855703808 1.153896779980028 -0.3199489062104142 
-0.9760742846821633 -0.2488450653949695 -0.224934765912511 3.172552604106249 -0.305606291348657 
-0.4311739805563473 -0.868487708495815 0.3902205338159492 0.8467787111565082 -0.2003106064297245 
-0.09268020143059115 -0.128921660961333 -1.959138585267906 2.445595353867376 0.4978751361283652 
-0.5072591489721811 -0.2331613466357936 -1.573890484202515 2.60895590167841 -0.008239112182896476 
-0.1736897830974369 -0.9708092820874978 -2.26161388066543 2.42361097402933 0.508708833655122 
-0.3688036191834705 -0.8274974127807653 0.9705911651280791 -1.280783767914033 -0.1085652409634127 
-0.03003751071921108 0.145804775362062 -1.998574126177339 2.122375340143687 -0.3772145062516757 
-0.02393444985275403 -0.2747280546048257 -1.611269613723829 2.442274629665552 -0.2839796796112066 
0.04336378074884945 -0.04851214979031321 -2.864344390964118 2.578691705356153 -0.5046702580991412 
-0.04470809428029571 0.06911996036675695 -2.167437537713078 1.30123649633047 -0.5777782711005874 
0.008605507868463045 -0.09509777241776905 -2.827622887698674 1.555072450421841 -0.4667203902298435 
0.1647209588956593 0.1777382717918277 -2.590074636411302 2.677190707758899 -0.06792512836521032 
0.1969606332167792 -0.4098168717113652 -2.200224216655018 2.552721151570056 -0.04657008584090204 
-0.006300752275380113 -0.1974547527586651 -1.4805217330598 2.273599420244249 0.6387833946843513 
0.1466100984570576 -0.5642641158815095 -0.5204110436895729 2.295965442838678 -0.1417408198342871 
-0.2745605406119285 0.2750870732597872 -1.22577818998688 0.8974683737902746 -0.09745434460608751 
-0.5282830905219378 -0.01599398945630571 -1.126352227594986 1.624550080678933 0.2265029803269917 
-0.04655279015994745 -0.1351876279267746 -0.72141428347332 1.230307438770706 -0.1039643719680606 
-0.4263336802447046 0.2184641815710666 0.1436231437643861 0.4657494304685705 0.20914794386369 
-0.03474061927907656 -0.1050543134587886 -0.1573138629903061 1.606575332240586 -0.02484296273069734 
-0.5588766059315904 -0.058676086002963 0.2529779587802595 1.174853409077191 0.1366752154050636 
0.05229872354027849 -0.7501360107852817 0.5074939633314617 2.715973624928563 0.1004777081040867 
0.0558012628416859 -0.3041465140065794 -2.424561779259242 2.777302443834123 -0.2119798064902191 
0.1892381367699212 -0.771696477207672 -0.6099438085707968 0.9016121962035663 0.4464176517540485 
0.4692635841347362 -0.5918954410280574 -2.282393284090548 1.034162434806528 -0.2237355707592812 
0.4542051244799567 -0.9353627016048943 -1.628472190888783 2.776468503315678 0.0473027152897503 
-0.438032072023754 -0.5107461468172809 1.695325048695599 -0.2940414445411066 -0.4370334682727035 
-0.3860710526187138 0.3812599753345063 -0.02836281619497982 1.113033857292395 0.08268613840433003 
-0.201640899363503 -0.1474099673547394 0.4353836852838222 0.728857874719483 0.001059729241165675 
-0.2642821430357712 -0.01191398965289002 -1.788153659232741 1.969073439365566 0.150651950459792 
-0.03461929918141005 -0.4360864053890658 -1.071412416880212 -0.27639754059661 -0.1638941213896958 
0.1886508943380502 -0.4665348659598875 -1.269825142682567 1.740723511453429 -0.2385552374098527 
-0.4630022012231618 -0.2080335723370733 -2.56592584575803 2.69504293141863 0.2062414301926229 
-0.04853637149499123 -0.02607374900078032 -1.599626311948697 2.885101065838041 -0.8841029300682768 
-0.09921367841738443 -0.00768187881207773 -1.103510912548221 1.698414726288864 -0.2506631628247525 
0.1346799952072882 -0.2645325015185181 -1.799040330583071 2.054101988448549 0.01770499912185241 
-0.3525725025967901 -0.1774100590800402 -0.03571818760189261 1.918973092854411 -0.1791955579694408 
0.2700697018762765 -0.06540653439359689 -1.179068877033779 1.810788535134912 -0.4604500143808891 
-0.0540616923687625 -0.1049858280994442 0.05681303049145526 1.507263406651558 -0.05454733202768774 
-0.04962609737053707 -0.2202906114740955 -1.613252004748238 3.95573061664634 -0.1745908758221288 
0.1228854094679534 0.01371850927432092 -1.203781179474647 3.22124585440929 -0.240822322281591 
-0.0151221216759345 -0.4754646528999632 -2.726729777969843 2.924954594001045 -0.5209866017347121 
-0.1120132487021106 -0.4970805359313067 1.599070127493543 0.953928319073825 0.09374738423392412 
0.1923196166072794 0.01547261968750292 1.490376025460984 0.1746913606078666 -0.2096543469255094 
0.04207418829643525 -0.3052398826388428 -0.4071091379206647 0.7019304871781439 0.5298278920242584 
-0.1803857920487204 -0.1708505959104456 -1.546461937491764 0.8906262922821544 -0.1379102607487483 
-0.1594354299458463 0.2169705145197197 -1.839452780527734 1.470749100682699 -0.3037125392608108 
0.4847438176695337 -0.3731921762684753 -1.244447472907536 3.169162303841787 -0.3405832103574862 
0.2455729903204892 -0.4269002476187726 -2.009640093541588 1.442865894507054 -0.6604434229697681 
-0.1957498224004602 0.2867643138200679 -2.085673440160161 1.555372102394334 0.005569708179733006 
0.3123035632979655 -0.2069479566329857 -1.720836904358361 3.429405347561963 -0.3789088103054585 
-0.02483914509660699 -0.8648424403207627 -0.6145217746633554 0.6053449888550853 0.323341730236295 
-0.2610085337893616 -0.05538793284815947 -0.4433133448786969 -0.01235231285770876 -0.03410378724597457 
-0.1687988761580014 0.1805675511960844 0.1241441814887113 -1.051894743983666 0.08937385919706861 
-0.1601056523154388 -1.007765191327898 1.511405194144258 -1.258946868913346 0.7247091562138093 
-0.1096761926442069 0.3375519951540861 1.348637075565456 -1.565653768384538 0.2630144418304953 
-0.1124689012086615 0.04850301146587994 0.03307408011900503 0.04291691495908444 0.8540153562355416 
-0.2417160886296741 0.2653886868315671 1.169427076092778 -1.050832177128008 0.3319742464546979 
-0.3065452319146418 0.04675366920811471 1.132721744246288 -2.088772912683226 0.7318138702008039 
-0.3717489272839162 -0.04572116970646258 -0.1567467493678152 -0.7880002282188209 0.469397327136242 
0.08003525674021134 0.05544512963783773 1.00522145714223 -0.6442375178391971 0.3485851542245686 
0.1894037293491362 -0.105920886712064 -0.5017408449953203 1.319031854409302 0.6492091812496502 
-0.172506583116244 0.07079066091472616 -0.04964411624535192 -0.6933052537345664 0.4181857585942874 
-0.3342179226947596 -0.0363166784807675 0.3204434624626251 -0.48438358094245 0.5895435464026004 
-0.1002250596312919 0.03331070840478838 -1.351131223031064 0.709384943181241 0.0356543756802731 
-0.1741504565521022 -0.02004233844692321 -0.9447288754556362 -0.1104180639562068 0.1718965396158059 
-0.1154446339505874 0.2149082525946004 -1.493983784468075 -0.0242096233065663 0.4141236090035477 
0.1606429747798649 0.1449136960090393 -0.360745895142167 -1.290980179010384 -0.05789191627580521 
0.07002740557971021 -0.2174011236338802 -2.313122546367976 1.171624309581737 0.339420323373388 
-0.2334320473330496 -0.08317084134315193 -1.454884977124839 2.594955012999819 0.4924106538158627 
-0.3298377792436052 0.4696156117028734 -1.845384675500233 0.1083273288954118 0.508372475610454 
-0.1401431815883967 0.3547114553437478 -0.8784938658495063 0.6220272446461155 0.4205177397478005 
-0.2653527822600564 0.7035675078030164 -1.823417383598988 -0.513646443934889 1.143920421242359 
0.1936430499261625 0.0008838635396113319 -0.8971043719443073 -0.2256905224455104 0.9682903587669681 
0.2940608652749476 -0.1939751641676175 0.006725498009249998 -2.115237739585124 0.899285667539401 
-0.2143950696718862 -0.02905178916928303 -1.974528309510747 -0.9960212748497848 0.9678489100109943 
-0.100351479592221 -0.09914417463610757 -0.7546434795424219 1.021791075805763 0.6840327960196639 
0.0721918073137016 -0.29326646223347 0.7638627595437375 -2.165872067669689 1.435891601131039 
-0.3527287010864425 -0.4489019718768443 -0.8306234828886923 0.7750792470250607 0.8291705191008725 
-0.1214605479229912 -0.3119980031812694 -0.6188724688322877 0.410421425930132 0.2324612283731814 
-0.1702456436375249 -0.4916544405345649 -0.6162291906429239 0.1904776122512725 0.3882139290973742 
-0.05040609433705869 -0.2727582200798571 -0.4098364235777054 -1.666592853811877 0.6401402664321344 
-0.1709140212379803 -0.3931605888038474 -0.5159978637694396 -0.4634797935463118 0.6316901076056755 
-0.1138421329030573 -0.5061254839890087 -0.6952634309794929 -0.6619872007931196 0.4667297755694186 
-0.114121919755656 -0.2567943168317049 -1.309188095644457 0.4626063336299048 0.4418048548080445 
-0.1549763842035708 -0.1115663732904277 0.5891963840424753 -0.6080024539832064 0.4014267201868399 
-0.2529001210480385 -0.2862752276477537 -0.6842254618000025 1.363791599967769 0.3076890003052113 
0.1441081949947716 -0.05830615868785289 -1.028942839359214 0.6031787859203912 0.4562780154009191 
0.180246240642994 0.09936012415761394 -0.7802762306853716 -0.04294967052700131 0.4070940283591088 
-0.2733026700408405 0.02151482500667929 0.5387044978320408 -1.718444436776477 0.6183541980377882 
0.1088612418583611 -0.6569364688697569 -0.287686742699129 -0.5536059886186353 0.9557790586797013 
0.2956625806920705 -0.2519385892379148 -0.8179623378638828 -0.4052280990116018 0.3081736995431333 
-0.01898870222759309 -0.3743291233116285 0.1166715877103292 0.0654412805334316 1.197083145627856 
0.05526076930997446 -0.1709426785116155 -0.5027952782865769 -0.8234404798795131 0.5077416151246233 
0.1931327073848693 0.357911577787189 -0.444037804975976 1.705389082250218 0.7223892359314988 
0.4895738274273482 -0.4604002917119756 0.04119298317093165 -1.038567772263333 0.7204771407987246 
0.02689430420853932 0.1112641959758747 0.2130633385133897 -0.4792448056542022 0.3441406525889233 
-0.01375252091820543 -0.01590520851655804 0.4439400166507316 -0.5382403100590067 0.2971436602682632 
-0.04983341054053973 0.1331968594690666 -0.4641167214459886 -0.1430909237566999 0.359445816434532 
0.0260380697784878 0.14720890931398 0.1923420549270417 0.3377466612466807 0.3572651651127729 
0.0122930297033074 0.1308119353696036 -0.3342133884913432 0.07212963564247861 0.8487810584638389 
0.03684746010730963 0.1178952368904126 0.4711633118810514 -0.0152499065732348 0.334452985713504 
-0.1356075528123313 0.005498416274317198 -0.09204661292397555 0.8032012790822558 0.728734641913379 
-0.1206441837411034 -0.07169470711798047 0.09289956131050792 0.5573017794544464 0.3268214076743788 
-0.05270493512848809 0.1311488161253805 -0.2868450054689449 -0.2428980245851523 1.089121516538357 
-0.2023498376386633 0.01723905959880295 0.2584218861622303 -0.3253690201143791 0.2779687414411485 
-0.2079778771699405 -0.2369425038181889 -0.2110271294030603 -0.1821244145233305 0.7622704586377901 
-0.2152340459224364 -0.1150144106152245 -0.7116465328413558 1.191838842292512 -0.09263507806153731 
-0.1160017299556215 0.2077810221672899 -0.1749021444777267 -0.8651780366893143 0.3658559513454601 
-0.234654282513051 -0.2083158312221927 0.3987087133378155 0.1749037688816283 0.705392101240769 
-0.2235677948078571 0.06055833495640861 0.333159117036592 -0.6988646405277643 0.1388743791183629 
-0.4661733741059824 -0.09138773001218939 0.9635453742626622 -1.228224805521954 0.1996363937063214 
-0.1290338032164161 -0.3184784402065388 -0.4192443824430004 0.5361133202624405 0.4094656070669579 
-0.3254854764784314 -0.271127705549978 -0.2854185615246355 -1.117148498082512 0.4642903885579647 
-0.2753637357100113 0.5467421142410379 0.3397678351123056 -1.101734247142903 0.03967972382658699 
-0.5329344406767473 -0.1942661421857082 0.110296725290897 1.914156964292908 1.143506874220711 
0.1296977758723741 -0.07371073125516045 0.8206744563200943 -0.3843661199312554 0.1834933843855184 
0.06543249044554827 0.2220638668741331 -1.001500894529814 0.9003766714606568 0.08234737644842495 
-0.13714689512259 -0.420575584849159 0.7980215620454759 -1.397546825240504 0.9031376723968024 
-0.1650106922306872 0.1092665747418132 -0.890199597002884 0.3662939168122733 0.3973659006692015 
-0.1467256470150146 0.05615083723933051 -0.05530406992941775 -0.3515093515578865 0.2178256126535828 
-0.3532794953284091 0.1317318677652702 -0.8586232755381281 0.8605341695781603 0.2312569638922924 
-0.0340472326406526 0.06001020540478507 -0.5868626275526663 -0.2477806633599288 0.3750874628535396 
0.02192890371092683 -0.03044765311843621 -0.1315775339729472 -0.4220778229170317 0.3402591144552994 
-0.09249408706144972 -0.1401200384223926 -0.5160989327518272 -0.8006439068377256 0.5520335734548819 
0.0049242932071732 -0.01883147631414554 0.4658540786920471 -0.1852448095699029 0.26152671303146 
-0.0003105088031064306 -0.3381975392115275 -0.4253486040672798 0.0766534273997285 0.4915216016261674 
0.168622613281675 -0.5275999608808397 -0.6024796217466488 -0.7202888631774172 0.7057240807441839 
0.03398593353832837 -0.4239209400534527 -0.4178171639442906 -0.7038418058212291 0.6208740872818264 
-0.1965729799737061 -0.04264210825155381 -0.4441009323974532 0.6471758382782457 0.5302900677474429 
0.06760582965868121 -0.5911308979113028 -0.9338227399202879 1.114521735963679 0.663639676832231 
-0.1101660834373484 -0.01686006906254752 0.9022967085596375 -1.309538900983868 0.5503076256406887 
-0.1925058504565371 0.2862018058880805 -0.0778587225634701 -0.06754496800545412 0.1620336045048755 
-0.2553799546091548 0.07194737756878582 -0.7132526292915438 0.8047566557800394 0.04179026608919631 
-0.09890998718016625 0.05928757683475717 -1.819410947352502 0.7194563456161311 0.1513146112878208 
-0.0689142769626442 0.237331077094165 -0.06170542306970426 0.1530340062570398 0.05821044154603579 
-0.2665340334710271 -0.07749350614255415 -1.170259921060253 1.806068085129917 -0.01514057959136948 
-0.2384112618966889 -0.223172666175297 0.1343626723766972 -0.9310513009592503 -0.06042521847181507 
-0.06430644058543679 -0.2869451933942844 -0.9028720707427544 0.1674345094079863 0.2223363306238199 
-0.2029745292053358 -0.2573573596753911 0.3586084796085641 -1.887365054316581 0.3672401663437768 
-0.2442443012432501 0.1063345204244284 0.4291333396337627 -1.02813061434493 0.0007592242153093206 
-2.007104573339411 -1.480488396306971 -1.661320155058996 -1.094930569081311 -1.568028387614384 
