svm_type c_svc
kernel_type rbf
gamma 0.00374532
nr_class 2
total_sv 108
rho 0.278572
label 1 2
nr_sv 53 55
SV
10 1:0.40657 2:0.40657 3:1 4:0.40657 5:0.40657 6:0.40657 7:0.511565 8:0.40657 9:0.511565 10:0.40657 11:0.40657 12:0.40657 13:0.40657 14:0.40657 15:0.579099 16:0.40657 17:0.40657 18:0.429536 19:0.424394 20:0.411106 21:0.40657 22:0.40657 23:0.434418 24:0.40657 25:0.40657 26:0.504113 27:0.40657 28:0.439668 29:0.40657 30:0.40657 31:0.42804 32:0.44594 33:0.436164 34:0.40657 35:0.40657 36:0.486405 37:0.596426 38:0.40657 39:0.40657 40:0.40657 41:0.482347 42:0.40657 43:0.40657 44:0.40657 45:0.487116 46:0.40657 47:0.40657 48:0.40657 49:0.418196 50:0.40657 51:0.474906 52:0.491078 53:0.417478 54:0.413547 55:0.40657 56:0.435803 57:0.418005 58:0.40657 59:0.40657 60:0.40657 61:0.40657 62:0.40657 63:0.461376 64:0.40657 65:0.40657 66:0.52862 67:0.40657 68:0.475248 69:0.40657 70:0.40657 71:0.413659 72:0.485226 73:0.40657 74:0.423701 75:0.40657 76:0.40657 77:0.40657 78:0.40657 79:0.40657 80:0.446749 81:0.413047 82:0.48147 83:0.40657 84:0.40657 85:0.414358 86:0.40657 87:0.466034 88:0.417478 89:0.415974 90:0.40657 91:0.40657 92:0.40657 93:0.42721 94:0.40657 95:0.40657 96:0.4286 97:0.425685 98:0.40657 99:0.40657 100:0.40657 101:0.40657 102:0.40657 103:0.40657 104:0.459942 105:0.445513 106:0.422219 107:0.40657 108:0.40657 109:0.414986 110:0.453483 111:0.40657 112:0.445513 113:0.40657 114:0.520211 115:0.430611 116:0.40657 117:0.40657 118:0.46328 119:0.40657 120:0.410683 121:0.40657 122:0.462352 123:0.40657 124:0.40657 125:0.40657 126:0.40657 127:0.40657 128:0.40657 129:0.414657 130:0.416089 131:0.40657 132:0.40657 133:0.40657 134:0.44594 135:0.46016 136:0.40657 137:0.40657 138:0.40657 139:0.436672 140:0.40657 141:0.40657 142:0.40657 143:0.40657 144:0.40657 145:0.411348 146:0.423701 147:0.40657 148:0.446007 149:0.426518 150:0.40657 151:0.40657 152:0.40657 153:0.40657 154:0.40657 155:0.40657 156:0.40657 157:0.40657 158:0.40657 159:0.40657 160:0.40657 161:0.40657 162:0.40657 163:0.40657 164:0.40657 165:0.40657 166:0.40657 167:0.40657 168:0.40657 169:0.40657 170:0.40657 171:0.40657 172:0.431077 173:0.449467 174:0.40657 175:0.426518 176:0.488594 177:0.452744 178:0.40657 179:0.415648 180:0.40657 181:0.40657 182:0.40657 183:0.40657 184:0.40657 185:0.413188 186:0.40657 187:0.40657 188:0.44923 189:0.40657 190:0.40657 191:0.416589 192:0.43884 193:0.40657 194:0.40657 195:0.40657 196:0.40657 197:0.442046 198:0.40657 199:0.40657 200:0.40657 201:0.40657 202:0.40657 203:0.40657 204:0.40657 205:0.40657 206:0.40657 207:0.40657 208:0.40657 209:0.40657 210:0.411146 211:0.420712 212:0.417478 213:0.40657 214:0.40657 215:0.40657 216:0.40657 217:0.40657 218:0.40657 219:0.40657 220:0.40657 221:0.40657 222:0.40657 223:0.40657 224:0.40657 225:0.40657 226:0.40657 227:0.40657 228:0.40657 229:0.40657 230:0.40657 231:0.40657 232:0.40657 233:0.40657 234:0.40657 235:0.413002 236:0.40657 237:0.40657 238:0.415073 239:0.444213 240:0.40657 241:0.40657 242:0.40657 243:0.439668 244:0.40657 245:0.47712 246:0.425635 247:0.40657 248:0.40657 249:0.538573 250:0.413002 251:0.40657 252:0.486346 253:0.413957 254:0.40657 255:0.422672 256:0.424293 257:0.40657 258:0.40657 259:0.40657 260:0.419291 261:0.40657 262:0.40657 263:0.40657 264:0.40657 265:0.40657 266:0.40657 267:0.433828 
10 1:0.566366 2:0.533596 3:0.40657 4:0.577534 5:0.577534 6:1 7:0.526837 8:0.550982 9:0.526837 10:0.49693 11:0.503881 12:0.526837 13:0.526837 14:0.459424 15:0.460229 16:0.55452 17:0.577534 18:0.466564 19:0.428016 20:0.44041 21:0.503881 22:0.577534 23:0.481547 24:0.641414 25:0.550982 26:0.467938 27:0.533596 28:0.465767 29:0.464239 30:0.515814 31:0.467937 32:0.479033 33:0.44381 34:0.577534 35:0.475814 36:0.494085 37:0.40657 38:0.486752 39:0.577534 40:0.533596 41:0.453279 42:0.520971 43:0.577534 44:0.577534 45:0.473472 46:0.500023 47:0.540333 48:0.577534 49:0.547001 50:0.40657 51:0.560152 52:0.500023 53:0.466829 54:0.46161 55:0.533596 56:0.485939 57:0.505839 58:0.455132 59:0.532592 60:0.577534 61:0.44386 62:0.48265 63:0.4571 64:0.49693 65:0.479033 66:0.512336 67:0.44381 68:0.47121 69:0.505839 70:0.526837 71:0.462628 72:0.58973 73:0.577534 74:0.573267 75:0.457895 76:0.51123 77:0.44381 78:0.510058 79:0.49693 80:0.522832 81:0.4571 82:0.452698 83:0.449539 84:0.533596 85:0.426433 86:0.48457 87:0.40657 88:0.420863 89:0.431128 90:0.40657 91:0.40657 92:0.479861 93:0.432318 94:0.420863 95:0.424384 96:0.40657 97:0.40657 98:0.40657 99:0.40657 100:0.40657 101:0.432568 102:0.40657 103:0.454069 104:0.492381 105:0.431128 106:0.450881 107:0.426639 108:0.41226 109:0.439495 110:0.436716 111:0.40657 112:0.443958 113:0.447698 114:0.459788 115:0.437042 116:0.40657 117:0.40657 118:0.40657 119:0.40657 120:0.416453 121:0.40657 122:0.40657 123:0.428153 124:0.40657 125:0.40657 126:0.40657 127:0.40657 128:0.463246 129:0.4168 130:0.418835 131:0.40657 132:0.505839 133:0.40657 134:0.40657 135:0.40657 136:0.40657 137:0.40657 138:0.452403 139:0.4648 140:0.40657 141:0.40657 142:0.40657 143:0.431095 144:0.428874 145:0.413319 146:0.40657 147:0.40657 148:0.444486 149:0.40657 150:0.40657 151:0.40657 152:0.415827 153:0.453279 154:0.40657 155:0.448078 156:0.40657 157:0.418508 158:0.40657 159:0.40657 160:0.40657 161:0.433781 162:0.438668 163:0.40657 164:0.40657 165:0.40657 166:0.40657 167:0.40657 168:0.427489 169:0.40657 170:0.40657 171:0.40657 172:0.40657 173:0.40657 174:0.421373 175:0.40657 176:0.40657 177:0.470582 178:0.40657 179:0.40657 180:0.40657 181:0.43677 182:0.432568 183:0.40657 184:0.40657 185:0.449292 186:0.40657 187:0.40657 188:0.419041 189:0.426542 190:0.411065 191:0.40657 192:0.430173 193:0.428153 194:0.40657 195:0.421113 196:0.40657 197:0.428747 198:0.40657 199:0.40657 200:0.40657 201:0.40657 202:0.40657 203:0.40657 204:0.40657 205:0.40657 206:0.451778 207:0.40657 208:0.40657 209:0.40657 210:0.42331 211:0.425778 212:0.40657 213:0.40657 214:0.421646 215:0.452403 216:0.40657 217:0.40657 218:0.415496 219:0.418706 220:0.423893 221:0.40657 222:0.40657 223:0.40657 224:0.40657 225:0.40657 226:0.40657 227:0.40657 228:0.40657 229:0.40657 230:0.40657 231:0.40657 232:0.423587 233:0.526567 234:0.40657 235:0.414524 236:0.40657 237:0.433781 238:0.40657 239:0.434448 240:0.40657 241:0.40657 242:0.447698 243:0.40657 244:0.40657 245:0.40657 246:0.40657 247:0.40657 248:0.40657 249:0.431824 250:0.414524 251:0.441558 252:0.421302 253:0.444884 254:0.459788 255:0.452403 256:0.431494 257:0.40657 258:0.430532 259:0.40657 260:0.40657 261:0.40657 262:0.40657 263:0.40657 264:0.40657 265:0.40657 266:0.40657 267:0.40657 
10 1:0.590687 2:0.554286 3:0.40657 4:0.610232 5:0.610232 6:0.49693 7:0.54585 8:0.685958 9:0.54585 10:1 11:0.47607 12:0.54585 13:0.54585 14:0.49704 15:0.40657 16:0.576078 17:0.610232 18:0.449117 19:0.429505 20:0.442828 21:0.47607 22:0.610232 23:0.459911 24:0.576204 25:0.685958 26:0.474716 27:0.554286 28:0.508868 29:0.4694 30:0.532201 31:0.449564 32:0.487753 33:0.447051 34:0.610232 35:0.483951 36:0.505725 37:0.40657 38:0.549382 39:0.610232 40:0.554286 41:0.457792 42:0.53857 43:0.610232 44:0.610232 45:0.479892 46:0.5129 47:0.502565 48:0.610232 49:0.51989 50:0.40657 51:0.517005 52:0.5129 53:0.473424 54:0.466432 55:0.554286 56:0.463083 57:0.517464 58:0.489152 59:0.49693 60:0.610232 61:0.450013 62:0.492042 63:0.442322 64:0.509156 65:0.487753 66:0.482205 67:0.46878 68:0.452459 69:0.477491 70:0.54585 71:0.46758 72:0.53857 73:0.610232 74:0.526567 75:0.463083 76:0.526567 77:0.46878 78:0.480552 79:0.509156 80:0.537652 81:0.461361 82:0.457128 83:0.453531 84:0.554286 85:0.40657 86:0.498098 87:0.40657 88:0.422341 89:0.40657 90:0.40657 91:0.40657 92:0.432685 93:0.415664 94:0.455744 95:0.426434 96:0.40657 97:0.40657 98:0.40657 99:0.40657 100:0.40657 101:0.436176 102:0.40657 103:0.40657 104:0.467741 105:0.40657 106:0.40657 107:0.40657 108:0.40657 109:0.44256 110:0.40657 111:0.40657 112:0.419827 113:0.569074 114:0.466051 115:0.40657 116:0.40657 117:0.40657 118:0.40657 119:0.40657 120:0.40657 121:0.40657 122:0.40657 123:0.483959 124:0.40657 125:0.40657 126:0.40657 127:0.40657 128:0.474411 129:0.417708 130:0.420016 131:0.47109 132:0.477491 133:0.40657 134:0.40657 135:0.40657 136:0.40657 137:0.5129 138:0.40657 139:0.447849 140:0.40657 141:0.40657 142:0.40657 143:0.4331 144:0.431743 145:0.407972 146:0.40657 147:0.40657 148:0.420016 149:0.40657 150:0.40657 151:0.40657 152:0.416614 153:0.485774 154:0.40657 155:0.421303 156:0.40657 157:0.419644 158:0.40657 159:0.40657 160:0.40657 161:0.437643 162:0.443604 163:0.40657 164:0.40657 165:0.40657 166:0.40657 167:0.434731 168:0.481307 169:0.40657 170:0.40657 171:0.40657 172:0.40657 173:0.40657 174:0.422931 175:0.40657 176:0.40657 177:0.40657 178:0.40657 179:0.40657 180:0.40657 181:0.519846 182:0.502013 183:0.40657 184:0.40657 185:0.433764 186:0.40657 187:0.40657 188:0.40657 189:0.413605 190:0.421093 191:0.40657 192:0.414899 193:0.430883 194:0.40657 195:0.422629 196:0.40657 197:0.40657 198:0.40657 199:0.40657 200:0.40657 201:0.40657 202:0.40657 203:0.40657 204:0.40657 205:0.40657 206:0.40657 207:0.40657 208:0.442015 209:0.40657 210:0.424485 211:0.428071 212:0.40657 213:0.40657 214:0.423246 215:0.40657 216:0.40657 217:0.40657 218:0.436285 219:0.40657 220:0.412663 221:0.40657 222:0.40657 223:0.40657 224:0.40657 225:0.40657 226:0.40657 227:0.40657 228:0.40657 229:0.40657 230:0.40657 231:0.40657 232:0.466051 233:0.40657 234:0.40657 235:0.415159 236:0.40657 237:0.437643 238:0.40657 239:0.416425 240:0.40657 241:0.40657 242:0.569074 243:0.40657 244:0.40657 245:0.40657 246:0.40657 247:0.40657 248:0.40657 249:0.40657 250:0.415159 251:0.418968 252:0.422289 253:0.40657 254:0.425502 255:0.40657 256:0.497554 257:0.40657 258:0.433725 259:0.40657 260:0.40657 261:0.40657 262:0.438152 263:0.40657 264:0.40657 265:0.40657 266:0.40657 267:0.40657 
10 1:0.52631 2:0.500185 3:0.40657 4:0.527551 5:0.527551 6:0.503881 7:0.495842 8:0.51118 9:0.495842 10:0.47607 11:1 12:0.495842 13:0.495842 14:0.497125 15:0.40657 16:0.518556 17:0.527551 18:0.493046 19:0.425164 20:0.4358 21:0.456635 22:0.527551 23:0.513524 24:0.573183 25:0.51118 26:0.455798 27:0.500185 28:0.454224 29:0.45466 30:0.488666 31:0.429042 32:0.463711 33:0.437757 34:0.527551 35:0.461436 36:0.474136 37:0.40657 38:0.469098 39:0.527551 40:0.615355 41:0.44499 42:0.492038 43:0.527551 44:0.527551 45:0.442532 46:0.478162 47:0.509112 48:0.527551 49:0.486779 50:0.40657 51:0.480435 52:0.478162 53:0.454995 54:0.452632 55:0.500185 56:0.448441 57:0.485324 58:0.446381 59:0.581375 60:0.527551 61:0.433928 62:0.466246 63:0.434466 64:0.47607 65:0.463711 66:0.521318 67:0.437757 68:0.441439 69:0.546131 70:0.495842 71:0.437231 72:0.492038 73:0.527551 74:0.485646 75:0.448441 76:0.485646 77:0.437757 78:0.488304 79:0.47607 80:0.464943 81:0.449124 82:0.486083 83:0.442159 84:0.500185 85:0.40657 86:0.463126 87:0.40657 88:0.41817 89:0.426735 90:0.40657 91:0.40657 92:0.462582 93:0.413681 94:0.41817 95:0.420732 96:0.40657 97:0.40657 98:0.40657 99:0.40657 100:0.40657 101:0.426433 102:0.40657 103:0.443102 104:0.528148 105:0.40657 106:0.40657 107:0.40657 108:0.40657 109:0.415459 110:0.40657 111:0.40657 112:0.416531 113:0.436413 114:0.420158 115:0.40657 116:0.40657 117:0.40657 118:0.40657 119:0.40657 120:0.40657 121:0.40657 122:0.40657 123:0.423394 124:0.40657 125:0.40657 126:0.40657 127:0.40657 128:0.44628 129:0.415103 130:0.416656 131:0.40657 132:0.457509 133:0.40657 134:0.40657 135:0.40657 136:0.40657 137:0.40657 138:0.40657 139:0.438306 140:0.40657 141:0.40657 142:0.40657 143:0.413371 144:0.423897 145:0.410247 146:0.40657 147:0.40657 148:0.416656 149:0.40657 150:0.40657 151:0.40657 152:0.414348 153:0.44499 154:0.40657 155:0.440249 156:0.40657 157:0.416409 158:0.40657 159:0.40657 160:0.40657 161:0.427255 162:0.430521 163:0.40657 164:0.40657 165:0.40657 166:0.40657 167:0.40657 168:0.422931 169:0.40657 170:0.40657 171:0.40657 172:0.40657 173:0.40657 174:0.418546 175:0.40657 176:0.40657 177:0.40657 178:0.40657 179:0.40657 180:0.40657 181:0.429261 182:0.426433 183:0.40657 184:0.40657 185:0.427786 186:0.40657 187:0.40657 188:0.40657 189:0.423687 190:0.410506 191:0.40657 192:0.413136 193:0.423394 194:0.40657 195:0.418354 196:0.40657 197:0.40657 198:0.40657 199:0.40657 200:0.40657 201:0.40657 202:0.40657 203:0.40657 204:0.40657 205:0.40657 206:0.40657 207:0.40657 208:0.40657 209:0.40657 210:0.411344 211:0.421725 212:0.40657 213:0.40657 214:0.418746 215:0.40657 216:0.40657 217:0.40657 218:0.414089 219:0.40657 220:0.421538 221:0.40657 222:0.40657 223:0.40657 224:0.40657 225:0.40657 226:0.40657 227:0.40657 228:0.40657 229:0.40657 230:0.40657 231:0.40657 232:0.420158 233:0.440915 234:0.40657 235:0.413323 236:0.40657 237:0.427255 238:0.40657 239:0.414216 240:0.40657 241:0.40657 242:0.436413 243:0.40657 244:0.40657 245:0.40657 246:0.40657 247:0.40657 248:0.40657 249:0.40657 250:0.413323 251:0.435387 252:0.410804 253:0.40657 254:0.448713 255:0.40657 256:0.425701 257:0.40657 258:0.425041 259:0.40657 260:0.40657 261:0.40657 262:0.40657 263:0.40657 264:0.40657 265:0.40657 266:0.40657 267:0.40657 
10 1:0.505512 2:0.483189 3:0.40657 4:0.503454 5:0.503454 6:0.459424 7:0.479924 8:0.540223 9:0.479924 10:0.49704 11:0.497125 12:0.479924 13:0.479924 14:1 15:0.40657 16:0.499632 17:0.503454 18:0.466122 19:0.423406 20:0.432971 21:0.449573 22:0.503454 23:0.478954 24:0.491391 25:0.540223 26:0.448903 27:0.483189 28:0.469706 29:0.44898 30:0.474494 31:0.437227 32:0.455193 33:0.434146 34:0.503454 35:0.453395 36:0.463345 37:0.40657 38:0.488374 39:0.503454 40:0.483189 41:0.44014 42:0.477052 43:0.503454 44:0.503454 45:0.454795 46:0.466457 47:0.46195 48:0.503454 49:0.475005 50:0.40657 51:0.468206 52:0.466457 53:0.448259 54:0.447288 55:0.483189 56:0.442962 57:0.473854 58:0.459731 59:0.519148 60:0.503454 61:0.428885 62:0.514111 63:0.431379 64:0.464843 65:0.455193 66:0.503752 67:0.448628 68:0.437212 69:0.498671 70:0.479924 71:0.447945 72:0.477052 73:0.503454 74:0.472195 75:0.442962 76:0.472195 77:0.448628 78:0.451763 79:0.464843 80:0.483186 81:0.444346 82:0.475704 83:0.437807 84:0.483189 85:0.40657 86:0.452426 87:0.40657 88:0.416614 89:0.40657 90:0.40657 91:0.40657 92:0.4216 93:0.412898 94:0.437452 95:0.418673 96:0.40657 97:0.40657 98:0.40657 99:0.40657 100:0.40657 101:0.423148 102:0.40657 103:0.40657 104:0.487898 105:0.40657 106:0.40657 107:0.40657 108:0.40657 109:0.430478 110:0.40657 111:0.40657 112:0.415274 113:0.48356 114:0.442518 115:0.40657 116:0.40657 117:0.40657 118:0.40657 119:0.40657 120:0.40657 121:0.40657 122:0.40657 123:0.450705 124:0.40657 125:0.40657 126:0.40657 127:0.40657 128:0.43816 129:0.414092 130:0.415377 131:0.441727 132:0.450272 133:0.40657 134:0.40657 135:0.40657 136:0.40657 137:0.40657 138:0.40657 139:0.434605 140:0.40657 141:0.40657 142:0.40657 143:0.425038 144:0.421173 145:0.407716 146:0.472195 147:0.40657 148:0.415377 149:0.40657 150:0.40657 151:0.40657 152:0.41346 153:0.457951 154:0.40657 155:0.416068 156:0.40657 157:0.415174 158:0.40657 159:0.40657 160:0.40657 161:0.423784 162:0.426293 163:0.40657 164:0.40657 165:0.40657 166:0.40657 167:0.424817 168:0.449535 169:0.40657 170:0.40657 171:0.40657 172:0.40657 173:0.40657 174:0.416919 175:0.40657 176:0.40657 177:0.40657 178:0.40657 179:0.40657 180:0.40657 181:0.465481 182:0.458361 183:0.40657 184:0.40657 185:0.425434 186:0.40657 187:0.40657 188:0.40657 189:0.411631 190:0.417433 191:0.40657 192:0.412435 193:0.420779 194:0.40657 195:0.416763 196:0.40657 197:0.40657 198:0.40657 199:0.40657 200:0.40657 201:0.40657 202:0.40657 203:0.40657 204:0.40657 205:0.40657 206:0.40657 207:0.40657 208:0.428571 209:0.40657 210:0.419676 211:0.419462 212:0.40657 213:0.40657 214:0.417081 215:0.40657 216:0.40657 217:0.40657 218:0.426917 219:0.40657 220:0.411027 221:0.40657 222:0.40657 223:0.40657 224:0.40657 225:0.40657 226:0.40657 227:0.40657 228:0.40657 229:0.40657 230:0.40657 231:0.40657 232:0.442518 233:0.40657 234:0.40657 235:0.412594 236:0.40657 237:0.423784 238:0.40657 239:0.413349 240:0.40657 241:0.40657 242:0.48356 243:0.40657 244:0.40657 245:0.40657 246:0.40657 247:0.40657 248:0.40657 249:0.40657 250:0.412594 251:0.414801 252:0.418233 253:0.40657 254:0.418216 255:0.40657 256:0.456517 257:0.40657 258:0.422067 259:0.40657 260:0.40657 261:0.40657 262:0.426611 263:0.40657 264:0.40657 265:0.40657 266:0.40657 267:0.40657 
10 1:0.40657 2:0.40657 3:0.579099 4:0.40657 5:0.40657 6:0.460229 7:0.653149 8:0.40657 9:0.653149 10:0.40657 11:0.40657 12:0.40657 13:0.40657 14:0.40657 15:1 16:0.40657 17:0.40657 18:0.443671 19:0.40657 20:0.40657 21:0.447267 22:0.40657 23:0.453706 24:0.40657 25:0.40657 26:0.591055 27:0.40657 28:0.465375 29:0.40657 30:0.40657 31:0.40657 32:0.480537 33:0.40657 34:0.40657 35:0.40657 36:0.57111 37:0.907349 38:0.40657 39:0.40657 40:0.40657 41:0.53838 42:0.40657 43:0.40657 44:0.40657 45:0.562951 46:0.40657 47:0.40657 48:0.40657 49:0.40657 50:0.40657 51:0.472924 52:0.585146 53:0.40657 54:0.40657 55:0.40657 56:0.456695 57:0.40657 58:0.40657 59:0.40657 60:0.40657 61:0.40657 62:0.40657 63:0.49427 64:0.40657 65:0.40657 66:0.61589 67:0.40657 68:0.556651 69:0.40657 70:0.40657 71:0.40657 72:0.486752 73:0.40657 74:0.40657 75:0.40657 76:0.40657 77:0.40657 78:0.40657 79:0.40657 80:0.482591 81:0.40657 82:0.53641 83:0.40657 84:0.40657 85:0.40657 86:0.40657 87:0.516078 88:0.40657 89:0.40657 90:0.40657 91:0.40657 92:0.40657 93:0.462325 94:0.40657 95:0.40657 96:0.40657 97:0.40657 98:0.40657 99:0.40657 100:0.40657 101:0.40657 102:0.40657 103:0.40657 104:0.50149 105:0.455907 106:0.40657 107:0.43233 108:0.40657 109:0.40657 110:0.469119 111:0.40657 112:0.455907 113:0.40657 114:0.709754 115:0.445815 116:0.40657 117:0.40657 118:0.485087 119:0.40657 120:0.40657 121:0.40657 122:0.40657 123:0.40657 124:0.40657 125:0.40657 126:0.40657 127:0.40657 128:0.40657 129:0.40657 130:0.40657 131:0.40657 132:0.448141 133:0.40657 134:0.480537 135:0.519973 136:0.40657 137:0.40657 138:0.40657 139:0.442507 140:0.40657 141:0.40657 142:0.40657 143:0.40657 144:0.40657 145:0.40657 146:0.40657 147:0.40657 148:0.456695 149:0.40657 150:0.40657 151:0.40657 152:0.40657 153:0.40657 154:0.40657 155:0.40657 156:0.40657 157:0.40657 158:0.40657 159:0.40657 160:0.40657 161:0.40657 162:0.40657 163:0.40657 164:0.40657 165:0.40657 166:0.40657 167:0.40657 168:0.40657 169:0.40657 170:0.40657 171:0.40657 172:0.446755 173:0.40657 174:0.40657 175:0.40657 176:0.40657 177:0.498524 178:0.40657 179:0.40657 180:0.40657 181:0.40657 182:0.40657 183:0.40657 184:0.40657 185:0.40657 186:0.40657 187:0.40657 188:0.421906 189:0.40657 190:0.40657 191:0.40657 192:0.457147 193:0.40657 194:0.40657 195:0.40657 196:0.40657 197:0.40657 198:0.40657 199:0.40657 200:0.40657 201:0.40657 202:0.40657 203:0.40657 204:0.40657 205:0.40657 206:0.40657 207:0.40657 208:0.40657 209:0.40657 210:0.40657 211:0.40657 212:0.40657 213:0.40657 214:0.40657 215:0.472924 216:0.40657 217:0.40657 218:0.40657 219:0.421465 220:0.40657 221:0.40657 222:0.40657 223:0.40657 224:0.40657 225:0.40657 226:0.40657 227:0.40657 228:0.40657 229:0.40657 230:0.40657 231:0.40657 232:0.40657 233:0.40657 234:0.40657 235:0.40657 236:0.40657 237:0.40657 238:0.40657 239:0.40657 240:0.40657 241:0.40657 242:0.40657 243:0.40657 244:0.40657 245:0.40657 246:0.436202 247:0.40657 248:0.40657 249:0.602598 250:0.40657 251:0.40657 252:0.469116 253:0.430433 254:0.40657 255:0.472924 256:0.40657 257:0.40657 258:0.40657 259:0.40657 260:0.40657 261:0.40657 262:0.40657 263:0.40657 264:0.40657 265:0.40657 266:0.40657 267:0.40657 
10 1:0.680464 2:0.560783 3:0.40657 4:0.620778 5:0.620778 6:0.55452 7:0.551794 8:0.700309 9:0.551794 10:0.576078 11:0.518556 12:0.693838 13:0.551794 14:0.499632 15:0.40657 16:1 17:0.620778 18:0.473649 19:0.448346 20:0.476893 21:0.478162 22:0.620778 23:0.491418 24:0.700309 25:0.700309 26:0.476748 27:0.560783 28:0.511977 29:0.494566 30:0.537286 31:0.450457 32:0.490388 33:0.448007 34:0.620778 35:0.486404 36:0.509281 37:0.40657 38:0.68198 39:0.620778 40:0.560783 41:0.45913 42:0.54405 43:0.620778 44:0.620778 45:0.481797 46:0.516851 47:0.564412 48:0.620778 49:0.569542 50:0.40657 51:0.521189 52:0.516851 53:0.475399 54:0.490273 55:0.77349 56:0.464627 57:0.667564 58:0.491418 59:0.55452 60:0.620778 61:0.451945 62:0.494888 63:0.443124 64:0.5129 65:0.490388 66:0.484577 67:0.470283 68:0.453602 69:0.520971 70:0.551794 71:0.515938 72:0.54405 73:0.620778 74:0.53131 75:0.464627 76:0.53131 77:0.470283 78:0.526194 79:0.5129 80:0.542163 81:0.482966 82:0.458442 83:0.454712 84:0.560783 85:0.40657 86:0.620778 87:0.40657 88:0.422781 89:0.434224 90:0.40657 91:0.40657 92:0.493187 93:0.415865 94:0.45717 95:0.427049 96:0.40657 97:0.40657 98:0.40657 99:0.40657 100:0.544471 101:0.437281 102:0.40657 103:0.462437 104:0.504487 105:0.40657 106:0.516851 107:0.40657 108:0.415753 109:0.443467 110:0.40657 111:0.40657 112:0.420169 113:0.577534 114:0.467938 115:0.40657 116:0.40657 117:0.40657 118:0.40657 119:0.40657 120:0.40657 121:0.40657 122:0.40657 123:0.618783 124:0.40657 125:0.40657 126:0.40657 127:0.40657 128:0.478021 129:0.417976 130:0.420366 131:0.473648 132:0.565857 133:0.40657 134:0.40657 135:0.40657 136:0.40657 137:0.40657 138:0.40657 139:0.448832 140:0.40657 141:0.40657 142:0.40657 143:0.462616 144:0.432614 145:0.410843 146:0.40657 147:0.40657 148:0.420366 149:0.40657 150:0.40657 151:0.40657 152:0.449258 153:0.487906 154:0.40657 155:0.453676 156:0.40657 157:0.41998 158:0.40657 159:0.40657 160:0.40657 161:0.438829 162:0.445137 163:0.40657 164:0.40657 165:0.461351 166:0.40657 167:0.435485 168:0.483959 169:0.40657 170:0.40657 171:0.40657 172:0.40657 173:0.40657 174:0.423394 175:0.40657 176:0.40657 177:0.40657 178:0.40657 179:0.40657 180:0.40657 181:0.524793 182:0.505839 183:0.40657 184:0.40657 185:0.453957 186:0.40657 187:0.460229 188:0.40657 189:0.451574 190:0.421352 191:0.40657 192:0.441682 193:0.431711 194:0.40657 195:0.423081 196:0.40657 197:0.444398 198:0.40657 199:0.40657 200:0.40657 201:0.40657 202:0.40657 203:0.40657 204:0.40657 205:0.40657 206:0.40657 207:0.40657 208:0.44307 209:0.40657 210:0.443907 211:0.428762 212:0.40657 213:0.40657 214:0.423722 215:0.40657 216:0.40657 217:0.40657 218:0.469656 219:0.426633 220:0.425485 221:0.40657 222:0.40657 223:0.40657 224:0.40657 225:0.40657 226:0.40657 227:0.40657 228:0.40657 229:0.40657 230:0.40657 231:0.40657 232:0.467938 233:0.458406 234:0.40657 235:0.415345 236:0.40657 237:0.438829 238:0.40657 239:0.41665 240:0.40657 241:0.40657 242:0.577534 243:0.40657 244:0.40657 245:0.40657 246:0.40657 247:0.474817 248:0.40657 249:0.40657 250:0.415345 251:0.445902 252:0.422577 253:0.40657 254:0.467938 255:0.40657 256:0.501115 257:0.40657 258:0.434699 259:0.40657 260:0.40657 261:0.40657 262:0.574525 263:0.40657 264:0.40657 265:0.40657 266:0.40657 267:0.40657 
10 1:0.477292 2:0.460551 3:0.429536 4:0.472753 5:0.472753 6:0.466564 7:0.458548 8:0.465535 9:0.458548 10:0.449117 11:0.493046 12:0.458548 13:0.458548 14:0.466122 15:0.443671 16:0.473649 17:0.472753 18:1 19:0.420554 20:0.428403 21:0.439173 22:0.472753 23:0.560534 24:0.49815 25:0.465535 26:0.4645 27:0.460551 28:0.46293 29:0.440181 30:0.455188 31:0.4231 32:0.472244 33:0.428517 34:0.472753 35:0.441708 36:0.448161 37:0.446419 38:0.445641 39:0.472753 40:0.460551 41:0.453483 42:0.456775 43:0.472753 44:0.472753 45:0.450892 46:0.450142 47:0.469121 48:0.472753 49:0.457927 50:0.40657 51:0.451248 52:0.450142 53:0.438293 54:0.438973 55:0.460551 56:0.457064 57:0.45717 58:0.433539 59:0.511401 60:0.472753 61:0.422192 62:0.444193 63:0.442115 64:0.449117 65:0.44289 66:0.55221 67:0.428517 68:0.476417 69:0.494355 70:0.458548 71:0.4282 72:0.456775 73:0.472753 74:0.453754 75:0.434698 76:0.453754 77:0.428517 78:0.458716 79:0.449117 80:0.473429 81:0.436853 82:0.512649 83:0.431117 84:0.460551 85:0.40657 86:0.438414 87:0.40657 88:0.430138 89:0.420253 90:0.40657 91:0.40657 92:0.440514 93:0.427315 94:0.414279 95:0.415666 96:0.40657 97:0.40657 98:0.472753 99:0.40657 100:0.40657 101:0.418578 102:0.40657 103:0.428895 104:0.485161 105:0.427266 106:0.40657 107:0.40657 108:0.40657 109:0.412732 110:0.430785 111:0.40657 112:0.434396 113:0.423358 114:0.44289 115:0.424237 116:0.40657 117:0.40657 118:0.42033 119:0.40657 120:0.40657 121:0.40657 122:0.40657 123:0.41705 124:0.40657 125:0.40657 126:0.40657 127:0.40657 128:0.427895 129:0.412521 130:0.413426 131:0.40657 132:0.439639 133:0.40657 134:0.433516 135:0.441468 136:0.40657 137:0.40657 138:0.40657 139:0.446349 140:0.40657 141:0.40657 142:0.40657 143:0.411467 144:0.417306 145:0.409635 146:0.40657 147:0.40657 148:0.434698 149:0.40657 150:0.40657 151:0.40657 152:0.412068 153:0.432749 154:0.40657 155:0.428974 156:0.40657 157:0.413285 158:0.40657 159:0.40657 160:0.40657 161:0.418984 162:0.420571 163:0.40657 164:0.40657 165:0.40657 166:0.40657 167:0.40657 168:0.416813 169:0.40657 170:0.40657 171:0.40657 172:0.424534 173:0.40657 174:0.414486 175:0.40657 176:0.40657 177:0.437381 178:0.40657 179:0.40657 180:0.40657 181:0.419963 182:0.418578 183:0.40657 184:0.40657 185:0.421728 186:0.40657 187:0.40657 188:0.40657 189:0.419149 190:0.409589 191:0.40657 192:0.41132 193:0.41705 194:0.40657 195:0.414381 196:0.40657 197:0.40657 198:0.40657 199:0.40657 200:0.40657 201:0.40657 202:0.40657 203:0.40657 204:0.40657 205:0.40657 206:0.40657 207:0.40657 208:0.40657 209:0.40657 210:0.410158 211:0.416188 212:0.40657 213:0.40657 214:0.414596 215:0.40657 216:0.40657 217:0.40657 218:0.41191 219:0.40657 220:0.417747 221:0.431777 222:0.40657 223:0.40657 224:0.40657 225:0.40657 226:0.40657 227:0.40657 228:0.40657 229:0.40657 230:0.40657 231:0.40657 232:0.41536 233:0.427802 234:0.40657 235:0.411437 236:0.40657 237:0.418984 238:0.40657 239:0.411988 240:0.40657 241:0.40657 242:0.423358 243:0.40657 244:0.40657 245:0.40657 246:0.430882 247:0.40657 248:0.40657 249:0.427718 250:0.411437 251:0.426239 252:0.419619 253:0.40657 254:0.433516 255:0.40657 256:0.418214 257:0.40657 258:0.417885 259:0.40657 260:0.40657 261:0.40657 262:0.40657 263:0.40657 264:0.40657 265:0.40657 266:0.40657 267:0.40657 
10 1:0.43091 2:0.434254 3:0.424394 4:0.439141 5:0.439141 6:0.428016 7:0.433436 8:0.436269 9:0.433436 10:0.429505 11:0.425164 12:0.454745 13:0.433436 14:0.423406 15:0.40657 16:0.448346 17:0.439141 18:0.420554 19:1 20:0.513662 21:0.439665 22:0.439141 23:0.422568 24:0.436269 25:0.436269 26:0.434467 27:0.434254 28:0.443382 29:0.441549 30:0.432052 31:0.431197 32:0.442661 33:0.483024 34:0.439141 35:0.426296 36:0.429099 37:0.40657 38:0.428016 39:0.439141 40:0.434254 41:0.422194 42:0.446401 43:0.439141 44:0.439141 45:0.433085 46:0.43599 47:0.440238 48:0.439141 49:0.430484 50:0.40657 51:0.455642 52:0.42994 53:0.438946 54:0.437001 55:0.434254 56:0.423112 57:0.425373 58:0.460905 59:0.433552 60:0.439141 61:0.414479 62:0.427387 63:0.466205 64:0.429505 65:0.426817 66:0.426051 67:0.420135 68:0.436373 69:0.425373 70:0.440426 71:0.43736 72:0.460527 73:0.439141 74:0.464718 75:0.423112 76:0.431456 77:0.420135 78:0.435779 79:0.429505 80:0.427095 81:0.428797 82:0.422075 83:0.421411 84:0.448796 85:0.40657 86:0.40657 87:0.420437 88:0.420142 89:0.40657 90:0.40657 91:0.40657 92:0.412523 93:0.409772 94:0.424766 95:0.411677 96:0.428646 97:0.40657 98:0.40657 99:0.40657 100:0.429594 101:0.419435 102:0.428646 103:0.412523 104:0.423878 105:0.40657 106:0.40657 107:0.410133 108:0.416915 109:0.437461 110:0.40657 111:0.40657 112:0.41881 113:0.414964 114:0.426817 115:0.417354 116:0.40657 117:0.40657 118:0.40657 119:0.40657 120:0.420022 121:0.40657 122:0.433598 123:0.41229 124:0.40657 125:0.40657 126:0.423069 127:0.412402 128:0.41683 129:0.410205 130:0.418915 131:0.419788 132:0.455222 133:0.40657 134:0.40657 135:0.40657 136:0.40657 137:0.40657 138:0.436582 139:0.420298 140:0.40657 141:0.40657 142:0.419788 143:0.422325 144:0.412402 145:0.412143 146:0.40657 147:0.420635 148:0.418915 149:0.40657 150:0.40657 151:0.40657 152:0.420382 153:0.422194 154:0.40657 155:0.424045 156:0.411641 157:0.410576 158:0.40657 159:0.40657 160:0.417321 161:0.413126 162:0.413799 163:0.40657 164:0.40657 165:0.420754 166:0.40657 167:0.423406 168:0.429505 169:0.40657 170:0.40657 171:0.410999 172:0.40657 173:0.417155 174:0.420437 175:0.40657 176:0.433436 177:0.40657 178:0.40657 179:0.418511 180:0.40657 181:0.413542 182:0.412952 183:0.40657 184:0.40657 185:0.425851 186:0.40657 187:0.420592 188:0.422447 189:0.446175 190:0.412823 191:0.40657 192:0.425071 193:0.41229 194:0.40657 195:0.415664 196:0.40657 197:0.442015 198:0.40657 199:0.40657 200:0.40657 201:0.40657 202:0.40657 203:0.40657 204:0.40657 205:0.40657 206:0.411092 207:0.40657 208:0.416082 209:0.40657 210:0.42118 211:0.422803 212:0.40657 213:0.40657 214:0.425373 215:0.40657 216:0.40657 217:0.40657 218:0.502633 219:0.427472 220:0.409027 221:0.40657 222:0.40657 223:0.40657 224:0.40657 225:0.40657 226:0.415134 227:0.40657 228:0.40657 229:0.40657 230:0.410181 231:0.40657 232:0.41154 233:0.40657 234:0.40657 235:0.428681 236:0.411997 237:0.413126 238:0.421844 239:0.430751 240:0.40657 241:0.40657 242:0.414964 243:0.40657 244:0.40657 245:0.418563 246:0.412646 247:0.422551 248:0.411751 249:0.445083 250:0.415903 251:0.414368 252:0.438363 253:0.40657 254:0.421662 255:0.40657 256:0.412796 257:0.40657 258:0.412653 259:0.40657 260:0.40657 261:0.40657 262:0.429202 263:0.40657 264:0.40657 265:0.40657 266:0.410752 267:0.40657 
10 1:0.458757 2:0.435401 3:0.411106 4:0.440558 5:0.440558 6:0.44041 7:0.434538 8:0.453877 9:0.434538 10:0.442828 11:0.4358 12:0.45677 13:0.434538 14:0.432971 15:0.40657 16:0.476893 17:0.440558 18:0.428403 19:0.513662 20:1 21:0.42583 22:0.440558 23:0.462817 24:0.453877 25:0.453877 26:0.471802 27:0.435401 28:0.454796 29:0.446458 30:0.461317 31:0.426141 32:0.427567 33:0.450001 34:0.440558 35:0.427019 36:0.429968 37:0.40657 38:0.44041 39:0.440558 40:0.435401 41:0.422714 42:0.462791 43:0.440558 44:0.440558 45:0.433964 46:0.430854 47:0.460147 48:0.440558 49:0.452263 50:0.40657 51:0.431345 52:0.430854 53:0.445128 54:0.448959 55:0.435401 56:0.423677 57:0.451718 58:0.449182 59:0.44041 60:0.440558 61:0.414813 62:0.428166 63:0.483003 64:0.430396 65:0.427567 66:0.431965 67:0.427735 68:0.429447 69:0.436138 70:0.434538 71:0.51811 72:0.43377 73:0.440558 74:0.474394 75:0.423677 76:0.452937 77:0.427735 78:0.436853 79:0.442828 80:0.456046 81:0.436256 82:0.422589 83:0.421895 84:0.450574 85:0.410222 86:0.440558 87:0.40657 88:0.430258 89:0.419224 90:0.40657 91:0.40657 92:0.425405 93:0.409869 94:0.435159 95:0.411865 96:0.414097 97:0.413388 98:0.40657 99:0.40657 100:0.430572 101:0.413206 102:0.40657 103:0.419032 104:0.443181 105:0.410745 106:0.412509 107:0.40657 108:0.411066 109:0.451104 110:0.411301 111:0.40657 112:0.4596 113:0.433401 114:0.422218 115:0.40657 116:0.40657 117:0.40657 118:0.409569 119:0.40657 120:0.41572 121:0.40657 122:0.425022 123:0.42465 124:0.40657 125:0.40657 126:0.40657 127:0.40657 128:0.417291 129:0.414109 130:0.415035 131:0.420321 132:0.446464 133:0.42465 134:0.40657 135:0.40657 136:0.40657 137:0.40657 138:0.425013 139:0.439128 140:0.40657 141:0.40657 142:0.40657 143:0.506237 144:0.412627 145:0.412237 146:0.412891 147:0.40657 148:0.423677 149:0.413593 150:0.40657 151:0.40657 152:0.420818 153:0.452525 154:0.40657 155:0.42006 156:0.40657 157:0.41071 158:0.40657 159:0.40657 160:0.40657 161:0.413388 162:0.414097 163:0.40657 164:0.40657 165:0.421263 166:0.40657 167:0.415186 168:0.424312 169:0.40657 170:0.40657 171:0.430007 172:0.414057 173:0.40657 174:0.411301 175:0.435401 176:0.40657 177:0.40657 178:0.40657 179:0.423107 180:0.40657 181:0.428732 182:0.426804 183:0.40657 184:0.40657 185:0.436741 186:0.40657 187:0.431064 188:0.409246 189:0.46604 190:0.412979 191:0.410934 192:0.419179 193:0.412509 194:0.40657 195:0.425618 196:0.40657 197:0.438987 198:0.40657 199:0.40657 200:0.40657 201:0.40657 202:0.40657 203:0.40657 204:0.40657 205:0.40657 206:0.420774 207:0.40657 208:0.416423 209:0.40657 210:0.424129 211:0.417725 212:0.411201 213:0.40657 214:0.411355 215:0.40657 216:0.40657 217:0.40657 218:0.603625 219:0.414498 220:0.414187 221:0.40657 222:0.40657 223:0.40657 224:0.430572 225:0.40657 226:0.40657 227:0.40657 228:0.40657 229:0.40657 230:0.40657 231:0.429565 232:0.422218 233:0.418536 234:0.40657 235:0.412954 236:0.40657 237:0.413388 238:0.410458 239:0.424239 240:0.40657 241:0.40657 242:0.433401 243:0.40657 244:0.40657 245:0.412754 246:0.40657 247:0.434581 248:0.40657 249:0.428257 250:0.426025 251:0.418714 252:0.424909 253:0.410086 254:0.422218 255:0.412627 256:0.433079 257:0.40657 258:0.412891 259:0.40657 260:0.41172 261:0.40657 262:0.430007 263:0.40657 264:0.40657 265:0.40657 266:0.40657 267:0.415324 
10 1:0.482918 2:0.500185 3:0.40657 4:0.527551 5:0.527551 6:0.503881 7:0.495842 8:0.51118 9:0.495842 10:0.47607 11:0.456635 12:0.495842 13:0.495842 14:0.449573 15:0.447267 16:0.478162 17:0.527551 18:0.439173 19:0.439665 20:0.42583 21:1 22:0.527551 23:0.446381 24:0.51118 25:0.51118 26:0.455798 27:0.500185 28:0.454224 29:0.438029 30:0.488666 31:0.446708 32:0.511777 33:0.462709 34:0.527551 35:0.461436 36:0.474136 37:0.40657 38:0.469098 39:0.527551 40:0.500185 41:0.487041 42:0.492038 43:0.527551 44:0.527551 45:0.461689 46:0.478162 47:0.472339 48:0.527551 49:0.458423 50:0.40657 51:0.522257 52:0.478162 53:0.495062 54:0.436725 55:0.500185 56:0.448441 57:0.457509 58:0.478777 59:0.469098 60:0.527551 61:0.433928 62:0.553307 63:0.464277 64:0.47607 65:0.463711 66:0.460383 67:0.437757 68:0.531223 69:0.457509 70:0.495842 71:0.437231 72:0.541291 73:0.527551 74:0.485646 75:0.448441 76:0.485646 77:0.437757 78:0.45938 79:0.47607 80:0.549832 81:0.434466 82:0.444552 83:0.442159 84:0.500185 85:0.40657 86:0.40657 87:0.443568 88:0.41817 89:0.40657 90:0.500185 91:0.40657 92:0.424443 93:0.42828 94:0.41817 95:0.420732 96:0.482741 97:0.40657 98:0.40657 99:0.40657 100:0.40657 101:0.426433 102:0.482741 103:0.40657 104:0.451423 105:0.40657 106:0.40657 107:0.423317 108:0.437978 109:0.415459 110:0.40657 111:0.40657 112:0.416531 113:0.436413 114:0.495226 115:0.431947 116:0.40657 117:0.40657 118:0.432059 119:0.40657 120:0.40657 121:0.40657 122:0.40657 123:0.423394 124:0.40657 125:0.40657 126:0.548748 127:0.40657 128:0.44628 129:0.451068 130:0.416656 131:0.40657 132:0.485324 133:0.40657 134:0.40657 135:0.40657 136:0.40657 137:0.40657 138:0.40657 139:0.438306 140:0.40657 141:0.40657 142:0.40657 143:0.413371 144:0.423897 145:0.407792 146:0.40657 147:0.40657 148:0.416656 149:0.40657 150:0.40657 151:0.51118 152:0.414348 153:0.44499 154:0.446872 155:0.4175 156:0.40657 157:0.416409 158:0.40657 159:0.40657 160:0.40657 161:0.427255 162:0.430521 163:0.40657 164:0.40657 165:0.40657 166:0.40657 167:0.40657 168:0.47607 169:0.40657 170:0.40657 171:0.40657 172:0.40657 173:0.40657 174:0.418546 175:0.40657 176:0.40657 177:0.40657 178:0.40657 179:0.40657 180:0.40657 181:0.429261 182:0.426433 183:0.40657 184:0.40657 185:0.413522 186:0.454995 187:0.40657 188:0.417306 189:0.412197 190:0.410506 191:0.40657 192:0.413136 193:0.423394 194:0.40657 195:0.418354 196:0.453483 197:0.40657 198:0.40657 199:0.40657 200:0.40657 201:0.40657 202:0.40657 203:0.40657 204:0.40657 205:0.40657 206:0.40657 207:0.40657 208:0.40657 209:0.40657 210:0.411344 211:0.421725 212:0.40657 213:0.40657 214:0.457509 215:0.441962 216:0.40657 217:0.40657 218:0.414089 219:0.455825 220:0.411499 221:0.40657 222:0.40657 223:0.40657 224:0.40657 225:0.40657 226:0.40657 227:0.40657 228:0.40657 229:0.40657 230:0.40657 231:0.40657 232:0.420158 233:0.40657 234:0.40657 235:0.434262 236:0.40657 237:0.427255 238:0.40657 239:0.414216 240:0.40657 241:0.527551 242:0.436413 243:0.40657 244:0.40657 245:0.40657 246:0.40657 247:0.40657 248:0.40657 249:0.427257 250:0.413323 251:0.415957 252:0.432649 253:0.422276 254:0.420158 255:0.441962 256:0.425701 257:0.40657 258:0.425041 259:0.40657 260:0.40657 261:0.40657 262:0.40657 263:0.40657 264:0.40657 265:0.40657 266:0.40657 267:0.40657 
10 1:0.496548 2:0.475943 3:0.434418 4:0.493453 5:0.493453 6:0.481547 7:0.473105 8:0.483052 9:0.473105 10:0.459911 11:0.513524 12:0.473105 13:0.473105 14:0.478954 15:0.453706 16:0.491418 17:0.493453 18:0.560534 19:0.422568 20:0.462817 21:0.446381 22:0.493453 23:1 24:0.52653 25:0.483052 26:0.615287 27:0.475943 28:0.475537 29:0.446339 30:0.468371 31:0.425678 32:0.488209 33:0.432461 34:0.493453 35:0.449787 36:0.458593 37:0.457562 38:0.455132 39:0.493453 40:0.475943 41:0.489494 42:0.470603 43:0.493453 44:0.493453 45:0.459596 46:0.461331 47:0.52987 48:0.493453 49:0.469729 50:0.40657 51:0.462866 52:0.461331 53:0.476574 54:0.444798 55:0.475943 56:0.467703 57:0.468706 58:0.473877 59:0.539065 60:0.493453 61:0.426739 62:0.453155 63:0.448328 64:0.459911 65:0.488209 66:0.534327 67:0.432461 68:0.458083 69:0.51532 70:0.473105 71:0.48057 72:0.470603 73:0.493453 74:0.466361 75:0.440451 76:0.516907 77:0.432461 78:0.470798 79:0.459911 80:0.590168 81:0.442109 82:0.525851 83:0.435792 84:0.475943 85:0.40657 86:0.44791 87:0.40657 88:0.445206 89:0.422981 90:0.40657 91:0.40657 92:0.496548 93:0.430938 94:0.415902 95:0.453155 96:0.40657 97:0.40657 98:0.493453 99:0.40657 100:0.40657 101:0.421711 102:0.40657 103:0.434587 104:0.502797 105:0.431434 106:0.40657 107:0.40657 108:0.40657 109:0.41389 110:0.478777 111:0.40657 112:0.440055 113:0.428378 114:0.451385 115:0.427516 116:0.40657 117:0.40657 118:0.42258 119:0.40657 120:0.40657 121:0.40657 122:0.40657 123:0.419618 124:0.40657 125:0.434809 126:0.40657 127:0.40657 128:0.434804 129:0.413621 130:0.414787 131:0.40657 132:0.447004 133:0.446985 134:0.439738 135:0.450635 136:0.40657 137:0.40657 138:0.40657 139:0.514346 140:0.40657 141:0.40657 142:0.40657 143:0.480756 144:0.419967 145:0.409909 146:0.40657 147:0.40657 148:0.440451 149:0.40657 150:0.40657 151:0.40657 152:0.413045 153:0.462981 154:0.40657 155:0.462589 156:0.40657 157:0.414604 158:0.40657 159:0.40657 160:0.40657 161:0.473105 162:0.424473 163:0.40657 164:0.40657 165:0.40657 166:0.40657 167:0.40657 168:0.419295 169:0.40657 170:0.40657 171:0.40657 172:0.458083 173:0.40657 174:0.416177 175:0.40657 176:0.40657 177:0.444994 178:0.40657 179:0.40657 180:0.40657 181:0.423627 182:0.421711 183:0.40657 184:0.40657 185:0.42433 186:0.40657 187:0.40657 188:0.40657 189:0.45712 190:0.409992 191:0.442163 192:0.412104 193:0.419618 194:0.40657 195:0.416037 196:0.444118 197:0.40657 198:0.40657 199:0.40657 200:0.40657 201:0.443261 202:0.40657 203:0.40657 204:0.40657 205:0.40657 206:0.40657 207:0.40657 208:0.40657 209:0.40657 210:0.410677 211:0.469543 212:0.40657 213:0.40657 214:0.447004 215:0.40657 216:0.40657 217:0.40657 218:0.412845 219:0.40657 220:0.4194 221:0.473105 222:0.40657 223:0.40657 224:0.465996 225:0.40657 226:0.40657 227:0.40657 228:0.40657 229:0.40657 230:0.40657 231:0.40657 232:0.417338 233:0.433086 234:0.40657 235:0.41225 236:0.40657 237:0.42227 238:0.40657 239:0.412943 240:0.40657 241:0.40657 242:0.428378 243:0.40657 244:0.40657 245:0.40657 246:0.44693 247:0.455132 248:0.40657 249:0.432025 250:0.41225 251:0.430098 252:0.42144 253:0.40657 254:0.475612 255:0.40657 256:0.42121 257:0.40657 258:0.420757 259:0.40657 260:0.40657 261:0.40657 262:0.40657 263:0.40657 264:0.40657 265:0.40657 266:0.40657 267:0.40657 
10 1:0.481365 2:0.498098 3:0.504113 4:0.524544 5:0.524544 6:0.467938 7:0.629877 8:0.508734 9:0.629877 10:0.474716 11:0.455798 12:0.493893 13:0.493893 14:0.448903 15:0.591055 16:0.476748 17:0.524544 18:0.4645 19:0.434467 20:0.471802 21:0.455798 22:0.524544 23:0.615287 24:0.508734 25:0.508734 26:1 27:0.498098 28:0.492115 29:0.453997 30:0.486941 31:0.440334 32:0.509816 33:0.453583 34:0.524544 35:0.460478 36:0.571059 37:0.610232 38:0.467938 39:0.524544 40:0.498098 41:0.531024 42:0.538275 43:0.524544 44:0.524544 45:0.544746 46:0.476748 47:0.566325 48:0.524544 49:0.457542 50:0.40657 51:0.478955 52:0.581744 53:0.493545 54:0.452009 55:0.498098 56:0.481437 57:0.45665 58:0.511803 59:0.467938 60:0.524544 61:0.433308 62:0.465163 63:0.528427 64:0.474716 65:0.462694 66:0.586746 67:0.437337 68:0.540143 69:0.45665 70:0.493893 71:0.513372 72:0.490209 73:0.524544 74:0.484012 75:0.447796 76:0.551628 77:0.437337 78:0.486861 79:0.512961 80:0.645102 81:0.448569 82:0.52949 83:0.44165 84:0.610232 85:0.40657 86:0.40657 87:0.469009 88:0.480064 89:0.40657 90:0.40657 91:0.40657 92:0.424101 93:0.435389 94:0.417987 95:0.420487 96:0.40657 97:0.40657 98:0.40657 99:0.40657 100:0.40657 101:0.426036 102:0.40657 103:0.40657 104:0.539797 105:0.436727 106:0.40657 107:0.40657 108:0.40657 109:0.415334 110:0.496592 111:0.40657 112:0.492042 113:0.435716 114:0.543867 115:0.431594 116:0.40657 117:0.40657 118:0.458476 119:0.40657 120:0.415092 121:0.40657 122:0.429026 123:0.423081 124:0.40657 125:0.40657 126:0.40657 127:0.40657 128:0.445265 129:0.414986 130:0.437113 131:0.448109 132:0.483959 133:0.458143 134:0.447976 135:0.463368 136:0.40657 137:0.40657 138:0.441281 139:0.536959 140:0.40657 141:0.40657 142:0.40657 143:0.511392 144:0.42357 145:0.410221 146:0.40657 147:0.452209 148:0.493203 149:0.40657 150:0.40657 151:0.40657 152:0.414245 153:0.464648 154:0.40657 155:0.439717 156:0.416762 157:0.416264 158:0.40657 159:0.40657 160:0.436885 161:0.426835 162:0.430005 163:0.40657 164:0.40657 165:0.40657 166:0.40657 167:0.40657 168:0.422629 169:0.40657 170:0.40657 171:0.429368 172:0.449984 173:0.436176 174:0.442958 175:0.40657 176:0.40657 177:0.45532 178:0.40657 179:0.40657 180:0.40657 181:0.428783 182:0.426036 183:0.40657 184:0.40657 185:0.427513 186:0.40657 187:0.430883 188:0.417183 189:0.465744 190:0.418373 191:0.450087 192:0.447067 193:0.423081 194:0.40657 195:0.418167 196:0.40657 197:0.42467 198:0.40657 199:0.40657 200:0.40657 201:0.40657 202:0.40657 203:0.40657 204:0.40657 205:0.40657 206:0.40657 207:0.40657 208:0.431743 209:0.40657 210:0.420901 211:0.522937 212:0.40657 213:0.40657 214:0.41855 215:0.40657 216:0.40657 217:0.40657 218:0.429241 219:0.40657 220:0.411445 221:0.493893 222:0.40657 223:0.40657 224:0.485959 225:0.40657 226:0.428071 227:0.40657 228:0.40657 229:0.40657 230:0.40657 231:0.40657 232:0.419928 233:0.40657 234:0.40657 235:0.413238 236:0.40657 237:0.426835 238:0.424476 239:0.429629 240:0.40657 241:0.40657 242:0.435716 243:0.40657 244:0.40657 245:0.442389 246:0.454198 247:0.436176 248:0.40657 249:0.494403 250:0.426905 251:0.415822 252:0.455118 253:0.40657 254:0.447976 255:0.40657 256:0.425324 257:0.40657 258:0.424683 259:0.40657 260:0.40657 261:0.40657 262:0.429368 263:0.40657 264:0.40657 265:0.40657 266:0.40657 267:0.40657 
10 1:0.519058 2:0.494229 3:0.439668 4:0.519005 5:0.519005 6:0.465767 7:0.490276 8:0.5615 9:0.490276 10:0.508868 11:0.454224 12:0.490276 13:0.490276 14:0.469706 15:0.465375 16:0.511977 17:0.519005 18:0.46293 19:0.443382 20:0.454796 21:0.454224 22:0.519005 23:0.475537 24:0.50421 25:0.5615 26:0.492115 27:0.494229 28:1 29:0.477762 30:0.48373 31:0.439563 32:0.506147 33:0.436541 34:0.519005 35:0.458681 36:0.470409 37:0.470685 38:0.498524 39:0.519005 40:0.494229 41:0.473099 42:0.486809 43:0.519005 44:0.519005 45:0.488265 46:0.47411 47:0.468755 48:0.519005 49:0.482744 50:0.417813 51:0.476195 52:0.47411 53:0.452698 54:0.450831 55:0.494229 56:0.479153 57:0.481396 58:0.46501 59:0.465767 60:0.519005 61:0.43216 62:0.478464 63:0.454731 64:0.472188 65:0.460789 66:0.500234 67:0.452346 68:0.466886 69:0.455037 70:0.490276 71:0.451573 72:0.486809 73:0.519005 74:0.480969 75:0.446581 76:0.480969 77:0.452346 78:0.456774 79:0.472188 80:0.541845 81:0.447517 82:0.503677 83:0.440688 84:0.494229 85:0.40657 86:0.45936 87:0.40657 88:0.417641 89:0.456539 90:0.40657 91:0.40657 92:0.423463 93:0.434664 94:0.440697 95:0.420028 96:0.40657 97:0.40657 98:0.40657 99:0.40657 100:0.40657 101:0.425296 102:0.40657 103:0.40657 104:0.449368 105:0.435853 106:0.40657 107:0.40657 108:0.40657 109:0.460495 110:0.441811 111:0.40657 112:0.446076 113:0.495994 114:0.490552 115:0.430927 116:0.40657 117:0.40657 118:0.424866 119:0.40657 120:0.40657 121:0.461929 122:0.40657 123:0.45624 124:0.40657 125:0.40657 126:0.40657 127:0.40657 128:0.443395 129:0.414763 130:0.416223 131:0.446465 132:0.509281 133:0.40657 134:0.446591 135:0.461181 136:0.40657 137:0.40657 138:0.40657 139:0.461417 140:0.40657 141:0.40657 142:0.40657 143:0.426552 144:0.422958 145:0.407767 146:0.40657 147:0.40657 148:0.446581 149:0.40657 150:0.40657 151:0.40657 152:0.41405 153:0.462966 154:0.40657 155:0.417014 156:0.40657 157:0.415991 158:0.40657 159:0.490276 160:0.40657 161:0.426051 162:0.429046 163:0.40657 164:0.40657 165:0.40657 166:0.40657 167:0.426611 168:0.454852 169:0.40657 170:0.40657 171:0.40657 172:0.431402 173:0.40657 174:0.417993 175:0.40657 176:0.40657 177:0.453566 178:0.40657 179:0.40657 180:0.40657 181:0.47395 182:0.465375 183:0.40657 184:0.40657 185:0.448448 186:0.40657 187:0.40657 188:0.40657 189:0.464345 190:0.430042 191:0.40657 192:0.412901 193:0.422494 194:0.40657 195:0.417813 196:0.40657 197:0.442537 198:0.40657 199:0.441242 200:0.40657 201:0.40657 202:0.40657 203:0.40657 204:0.40657 205:0.40657 206:0.40657 207:0.40657 208:0.430941 209:0.40657 210:0.435111 211:0.420949 212:0.40657 213:0.40657 214:0.41818 215:0.40657 216:0.40657 217:0.40657 218:0.428662 219:0.40657 220:0.411342 221:0.40657 222:0.40657 223:0.40657 224:0.40657 225:0.40657 226:0.40657 227:0.40657 228:0.40657 229:0.40657 230:0.40657 231:0.40657 232:0.446591 233:0.40657 234:0.40657 235:0.413078 236:0.40657 237:0.426051 238:0.40657 239:0.413925 240:0.40657 241:0.40657 242:0.495994 243:0.40657 244:0.40657 245:0.40657 246:0.425861 247:0.40657 248:0.40657 249:0.436605 250:0.413078 251:0.415567 252:0.449557 253:0.40657 254:0.419495 255:0.40657 256:0.463165 257:0.40657 258:0.424014 259:0.40657 260:0.40657 261:0.40657 262:0.428674 263:0.40657 264:0.40657 265:0.40657 266:0.40657 267:0.40657 
10 1:0.499377 2:0.458227 3:0.40657 4:0.469691 5:0.469691 6:0.464239 7:0.456341 8:0.493948 9:0.456341 10:0.4694 11:0.45466 12:0.456341 13:0.456341 14:0.44898 15:0.40657 16:0.494566 17:0.469691 18:0.440181 19:0.441549 20:0.446458 21:0.438029 22:0.469691 23:0.446339 24:0.493948 25:0.493948 26:0.453997 27:0.458227 28:0.477762 29:1 30:0.453176 31:0.45681 32:0.46016 33:0.456072 34:0.469691 35:0.440434 36:0.446543 37:0.40657 38:0.530088 39:0.469691 40:0.458227 41:0.431914 42:0.480816 43:0.469691 44:0.469691 45:0.462558 46:0.459532 47:0.488594 48:0.469691 49:0.483031 50:0.40657 51:0.449459 52:0.519394 53:0.470123 54:0.477798 55:0.458227 56:0.433772 57:0.472876 58:0.460442 59:0.474616 60:0.469691 61:0.421507 62:0.442788 63:0.451487 64:0.447446 65:0.441554 66:0.466701 67:0.438935 68:0.43601 69:0.455349 70:0.469708 71:0.522975 72:0.454671 73:0.469691 74:0.451823 75:0.433772 76:0.451823 77:0.438935 78:0.474906 79:0.447446 80:0.4611 81:0.462124 82:0.486634 83:0.430357 84:0.486467 85:0.417822 86:0.469691 87:0.40657 88:0.429327 89:0.419812 90:0.40657 91:0.420242 92:0.439157 93:0.411516 94:0.470123 95:0.415337 96:0.40657 97:0.40657 98:0.40657 99:0.40657 100:0.435242 101:0.454671 102:0.40657 103:0.439157 104:0.482372 105:0.440487 106:0.40657 107:0.412202 108:0.426774 109:0.463595 110:0.40657 111:0.40657 112:0.426593 113:0.4566 114:0.432535 115:0.40657 116:0.40657 117:0.40657 118:0.433784 119:0.40657 120:0.426036 121:0.40657 122:0.421228 123:0.437566 124:0.40657 125:0.40657 126:0.40657 127:0.416892 128:0.426878 129:0.412342 130:0.426806 131:0.456341 132:0.455349 133:0.40657 134:0.40657 135:0.40657 136:0.40657 137:0.40657 138:0.46087 139:0.428185 140:0.40657 141:0.40657 142:0.40657 143:0.425953 144:0.416892 145:0.422928 146:0.40657 147:0.432643 148:0.426806 149:0.40657 150:0.40657 151:0.433828 152:0.411908 153:0.445173 154:0.40657 155:0.451024 156:0.414053 157:0.413071 158:0.40657 159:0.40657 160:0.425306 161:0.418479 162:0.419978 163:0.40657 164:0.40657 165:0.40657 166:0.40657 167:0.420242 168:0.480778 169:0.40657 170:0.40657 171:0.413925 172:0.40657 173:0.424949 174:0.429943 175:0.40657 176:0.40657 177:0.40657 178:0.40657 179:0.419416 180:0.40657 181:0.4463 182:0.494446 183:0.40657 184:0.40657 185:0.718501 186:0.421603 187:0.40657 188:0.438481 189:0.547098 190:0.449888 191:0.40657 192:0.440034 193:0.41665 194:0.40657 195:0.421801 196:0.421228 197:0.431442 198:0.40657 199:0.421801 200:0.40657 201:0.40657 202:0.40657 203:0.40657 204:0.40657 205:0.40657 206:0.414115 207:0.40657 208:0.439411 209:0.40657 210:0.458429 211:0.476013 212:0.40657 213:0.40657 214:0.414321 215:0.40657 216:0.40657 217:0.40657 218:0.461519 219:0.429741 220:0.41747 221:0.40657 222:0.40657 223:0.40657 224:0.40657 225:0.40657 226:0.420712 227:0.40657 228:0.40657 229:0.40657 230:0.412294 231:0.40657 232:0.432535 233:0.42698 234:0.40657 235:0.416089 236:0.416017 237:0.418479 238:0.418711 239:0.422558 240:0.431328 241:0.40657 242:0.4566 243:0.40657 244:0.435242 245:0.428014 246:0.425367 247:0.424949 248:0.415493 249:0.40657 250:0.420933 251:0.432159 252:0.42256 253:0.417316 254:0.450761 255:0.40657 256:0.441046 257:0.40657 258:0.417439 259:0.40657 260:0.40657 261:0.40657 262:0.436797 263:0.40657 264:0.40657 265:0.40657 266:0.413424 267:0.40657 
10 1:0.452457 2:0.441072 3:0.42804 4:0.447636 5:0.447636 6:0.467937 7:0.439978 8:0.46363 9:0.439978 10:0.449564 11:0.429042 12:0.439978 13:0.439978 14:0.437227 15:0.40657 16:0.450457 17:0.447636 18:0.4231 19:0.431197 20:0.426141 21:0.446708 22:0.447636 23:0.425678 24:0.443771 25:0.46363 26:0.440334 27:0.441072 28:0.439563 29:0.45681 30:0.438132 31:1 32:0.522054 33:0.443453 34:0.447636 35:0.430521 36:0.434211 37:0.40657 38:0.446515 39:0.447636 40:0.441072 41:0.425196 42:0.456182 43:0.447636 44:0.447636 45:0.447618 46:0.435326 47:0.447946 48:0.447636 49:0.486298 50:0.40657 51:0.435944 52:0.435326 53:0.476053 54:0.459507 55:0.441072 56:0.49179 57:0.447206 58:0.461304 59:0.432782 60:0.447636 61:0.416469 62:0.431954 63:0.448351 64:0.43475 65:0.431205 66:0.436321 67:0.430801 68:0.43744 69:0.429315 70:0.439978 71:0.44298 72:0.439006 73:0.447636 74:0.445388 75:0.426379 76:0.437339 77:0.430801 78:0.442054 79:0.43475 80:0.444641 81:0.456397 82:0.425043 83:0.424193 84:0.459406 85:0.42792 86:0.426609 87:0.42331 88:0.428524 89:0.41139 90:0.40657 91:0.40657 92:0.413881 93:0.410326 94:0.422927 95:0.412772 96:0.443771 97:0.414676 98:0.40657 99:0.40657 100:0.40657 101:0.414447 102:0.434163 103:0.40657 104:0.427371 105:0.41139 106:0.413575 107:0.40657 108:0.418157 109:0.448276 110:0.412075 111:0.40657 112:0.452069 113:0.439029 114:0.470984 115:0.450714 116:0.40657 117:0.40657 118:0.409965 119:0.40657 120:0.414209 121:0.40657 122:0.444884 123:0.427951 124:0.40657 125:0.40657 126:0.426757 127:0.40657 128:0.419602 129:0.415224 130:0.426379 131:0.439978 132:0.441161 133:0.40657 134:0.40657 135:0.40657 136:0.40657 137:0.40657 138:0.421001 139:0.448302 140:0.40657 141:0.40657 142:0.40657 143:0.417562 144:0.413722 145:0.412659 146:0.414053 147:0.424068 148:0.452504 149:0.414934 150:0.40657 151:0.40657 152:0.410588 153:0.434827 154:0.40657 155:0.422233 156:0.421365 157:0.411347 158:0.40657 159:0.40657 160:0.419689 161:0.414676 162:0.415567 163:0.40657 164:0.40657 165:0.40657 166:0.40657 167:0.416542 168:0.514043 169:0.40657 170:0.40657 171:0.40657 172:0.40657 173:0.439595 174:0.42331 175:0.414934 176:0.40657 177:0.40657 178:0.40657 179:0.411265 180:0.40657 181:0.433098 182:0.430662 183:0.40657 184:0.40657 185:0.445043 186:0.40657 187:0.40657 188:0.49987 189:0.416062 190:0.425867 191:0.411622 192:0.410106 193:0.413575 194:0.40657 195:0.412012 196:0.40657 197:0.523863 198:0.40657 199:0.40657 200:0.40657 201:0.454368 202:0.40657 203:0.40657 204:0.40657 205:0.40657 206:0.423115 207:0.40657 208:0.448262 209:0.40657 210:0.435021 211:0.433231 212:0.41195 213:0.40657 214:0.429315 215:0.40657 216:0.40657 217:0.40657 218:0.426537 219:0.449895 220:0.4094 221:0.40657 222:0.40657 223:0.40657 224:0.40657 225:0.40657 226:0.438167 227:0.40657 228:0.40657 229:0.40657 230:0.40657 231:0.40657 232:0.424909 233:0.40657 234:0.40657 235:0.456112 236:0.40657 237:0.414676 238:0.420128 239:0.498524 240:0.40657 241:0.40657 242:0.439029 243:0.422745 244:0.40657 245:0.452457 246:0.40657 247:0.40657 248:0.40657 249:0.40657 250:0.421211 251:0.411186 252:0.437697 253:0.410588 254:0.424909 255:0.413722 256:0.438132 257:0.40657 258:0.414053 259:0.40657 260:0.412593 261:0.40657 262:0.428278 263:0.40657 264:0.40657 265:0.40657 266:0.40657 267:0.417113 
10 1:0.496409 2:0.518603 3:0.44594 4:0.554676 5:0.554676 6:0.479033 7:0.512975 8:0.532977 9:0.512975 10:0.487753 11:0.463711 12:0.512975 13:0.512975 14:0.455193 15:0.480537 16:0.490388 17:0.554676 18:0.472244 19:0.442661 20:0.427567 21:0.511777 22:0.554676 23:0.488209 24:0.532977 25:0.532977 26:0.509816 27:0.518603 28:0.506147 29:0.46016 30:0.503742 31:0.522054 32:1 33:0.48876 34:0.554676 35:0.469571 36:0.485323 37:0.487989 38:0.519973 39:0.554676 40:0.518603 41:0.485089 42:0.508071 43:0.554676 44:0.554676 45:0.479622 46:0.490388 47:0.483074 48:0.554676 49:0.465887 50:0.40657 51:0.49326 52:0.53857 53:0.507941 54:0.440038 55:0.518603 56:0.565504 57:0.464774 58:0.488209 59:0.479033 60:0.554676 61:0.439401 62:0.475497 63:0.525187 64:0.487753 65:0.472367 66:0.520637 67:0.441238 68:0.511123 69:0.464774 70:0.512975 71:0.440626 72:0.508071 73:0.554676 74:0.499882 75:0.453839 76:0.499882 77:0.441238 78:0.467054 79:0.487753 80:0.531591 81:0.437422 82:0.484111 83:0.446391 84:0.518603 85:0.425041 86:0.40657 87:0.448713 88:0.419707 89:0.42925 90:0.40657 91:0.430195 92:0.427377 93:0.438931 94:0.419707 95:0.422803 96:0.498098 97:0.40657 98:0.40657 99:0.40657 100:0.469656 101:0.480537 102:0.498098 103:0.40657 104:0.457412 105:0.491641 106:0.446516 107:0.40657 108:0.414746 109:0.469872 110:0.448713 111:0.40657 112:0.548023 113:0.442606 114:0.528612 115:0.465149 116:0.40657 117:0.40657 118:0.441969 119:0.40657 120:0.41592 121:0.40657 122:0.40657 123:0.426075 124:0.40657 125:0.40657 126:0.462694 127:0.40657 128:0.45547 129:0.416079 130:0.417904 131:0.456684 132:0.464774 133:0.40657 134:0.454981 135:0.474716 136:0.40657 137:0.40657 138:0.447822 139:0.521957 140:0.40657 141:0.40657 142:0.40657 143:0.414072 144:0.426698 145:0.410456 146:0.40657 147:0.40657 148:0.520728 149:0.40657 150:0.40657 151:0.465502 152:0.4152 153:0.449734 154:0.40657 155:0.418906 156:0.40657 157:0.417612 158:0.40657 159:0.40657 160:0.40657 161:0.430899 162:0.435039 163:0.40657 164:0.40657 165:0.40657 166:0.40657 167:0.40657 168:0.487753 169:0.40657 170:0.40657 171:0.40657 172:0.435464 173:0.40657 174:0.420158 175:0.40657 176:0.40657 177:0.464309 178:0.40657 179:0.428392 180:0.40657 181:0.433436 182:0.429865 183:0.40657 184:0.40657 185:0.430036 186:0.433269 187:0.40657 188:0.41831 189:0.438329 190:0.419487 191:0.40657 192:0.428657 193:0.426075 194:0.40657 195:0.419928 196:0.43241 197:0.427121 198:0.40657 199:0.433725 200:0.40657 201:0.40657 202:0.40657 203:0.40657 204:0.40657 205:0.40657 206:0.40657 207:0.40657 208:0.40657 209:0.40657 210:0.422364 211:0.424017 212:0.40657 213:0.40657 214:0.464774 215:0.40657 216:0.40657 217:0.40657 218:0.4149 219:0.435757 220:0.411943 221:0.40657 222:0.40657 223:0.40657 224:0.40657 225:0.40657 226:0.40657 227:0.40657 228:0.40657 229:0.40657 230:0.40657 231:0.40657 232:0.422106 233:0.446516 234:0.40657 235:0.437186 236:0.40657 237:0.430899 238:0.426888 239:0.415047 240:0.40657 241:0.40657 242:0.442606 243:0.40657 244:0.469656 245:0.40657 246:0.428657 247:0.441317 248:0.440475 249:0.442015 250:0.414017 251:0.438922 252:0.439835 253:0.424014 254:0.422106 255:0.40657 256:0.428947 257:0.40657 258:0.428123 259:0.40657 260:0.40657 261:0.40657 262:0.40657 263:0.40657 264:0.40657 265:0.40657 266:0.40657 267:0.40657 
10 1:0.450153 2:0.45768 3:0.436164 4:0.468974 5:0.468974 6:0.44381 7:0.455822 8:0.462298 9:0.455822 10:0.447051 11:0.437757 12:0.455822 13:0.455822 14:0.434146 15:0.40657 16:0.448007 17:0.468974 18:0.428517 19:0.483024 20:0.450001 21:0.462709 22:0.468974 23:0.432461 24:0.462298 25:0.462298 26:0.453583 27:0.45768 28:0.436541 29:0.456072 30:0.452702 31:0.443453 32:0.48876 33:1 34:0.468974 35:0.440133 36:0.446161 37:0.40657 38:0.44381 39:0.468974 40:0.45768 41:0.431716 42:0.48003 43:0.468974 44:0.468974 45:0.442804 46:0.448007 47:0.466071 48:0.468974 49:0.438649 50:0.40657 51:0.49594 52:0.448007 53:0.461182 54:0.454291 55:0.45768 56:0.433552 57:0.438194 58:0.467156 59:0.44381 60:0.468974 61:0.421346 62:0.442456 63:0.461723 64:0.447051 65:0.441238 66:0.439617 67:0.427716 68:0.448052 69:0.438194 70:0.455822 71:0.454984 72:0.507356 73:0.468974 74:0.51437 75:0.433552 76:0.451368 77:0.427716 78:0.492904 79:0.447051 80:0.441832 81:0.435782 82:0.43148 83:0.430176 84:0.485597 85:0.40657 86:0.40657 87:0.429743 88:0.429135 89:0.419707 90:0.40657 91:0.40657 92:0.417053 93:0.431731 94:0.413956 95:0.415259 96:0.447688 97:0.40657 98:0.40657 99:0.40657 100:0.40657 101:0.417982 102:0.447688 103:0.40657 104:0.435107 105:0.419707 106:0.426786 107:0.40657 108:0.4125 109:0.430805 110:0.40657 111:0.40657 112:0.440212 113:0.422429 114:0.441238 115:0.423575 116:0.40657 117:0.40657 118:0.40657 119:0.40657 120:0.429236 121:0.40657 122:0.45176 123:0.416555 124:0.40657 125:0.40657 126:0.487781 127:0.40657 128:0.42664 129:0.412299 130:0.426643 131:0.455822 132:0.454918 133:0.40657 134:0.40657 135:0.40657 136:0.40657 137:0.40657 138:0.483774 139:0.428027 140:0.40657 141:0.40657 142:0.40657 143:0.411299 144:0.416794 145:0.414638 146:0.40657 147:0.432371 148:0.426643 149:0.40657 150:0.40657 151:0.40657 152:0.41187 153:0.431716 154:0.40657 155:0.428041 156:0.414007 157:0.41302 158:0.40657 159:0.40657 160:0.425134 161:0.41836 162:0.419838 163:0.40657 164:0.40657 165:0.40657 166:0.40657 167:0.40657 168:0.447051 169:0.40657 170:0.40657 171:0.40657 172:0.40657 173:0.424782 174:0.429743 175:0.40657 176:0.455822 177:0.40657 178:0.40657 179:0.40657 180:0.40657 181:0.419272 182:0.417982 183:0.40657 184:0.40657 185:0.43635 186:0.40657 187:0.40657 188:0.430125 189:0.480545 190:0.415437 191:0.40657 192:0.411159 193:0.416555 194:0.40657 195:0.414052 196:0.428569 197:0.418728 198:0.40657 199:0.40657 200:0.40657 201:0.40657 202:0.40657 203:0.40657 204:0.40657 205:0.40657 206:0.40657 207:0.40657 208:0.422533 209:0.40657 210:0.417101 211:0.434732 212:0.40657 213:0.40657 214:0.438194 215:0.40657 216:0.40657 217:0.40657 218:0.422216 219:0.417924 220:0.410149 221:0.40657 222:0.40657 223:0.40657 224:0.40657 225:0.40657 226:0.420596 227:0.40657 228:0.40657 229:0.40657 230:0.40657 231:0.40657 232:0.414973 233:0.426786 234:0.40657 235:0.425699 236:0.40657 237:0.41836 238:0.431024 239:0.444575 240:0.40657 241:0.40657 242:0.422429 243:0.40657 244:0.40657 245:0.427806 246:0.40657 247:0.40657 248:0.424449 249:0.470527 250:0.420834 251:0.425466 252:0.438988 253:0.40657 254:0.432303 255:0.40657 256:0.417642 257:0.40657 258:0.417334 259:0.40657 260:0.40657 261:0.40657 262:0.421289 263:0.40657 264:0.40657 265:0.40657 266:0.40657 267:0.40657 
10 1:0.492 2:0.512526 3:0.40657 4:0.54561 5:0.54561 6:0.475814 7:0.507335 8:0.525746 9:0.507335 10:0.483951 11:0.461436 12:0.507335 13:0.507335 14:0.453395 15:0.40657 16:0.486404 17:0.54561 18:0.441708 19:0.426296 20:0.427019 21:0.461436 22:0.54561 23:0.449787 24:0.525746 25:0.525746 26:0.460478 27:0.512526 28:0.458681 29:0.440434 30:0.498799 31:0.430521 32:0.469571 33:0.440133 34:0.54561 35:1 36:0.481687 37:0.40657 38:0.475814 39:0.54561 40:0.512526 41:0.494138 42:0.502804 43:0.54561 44:0.54561 45:0.445461 46:0.486404 47:0.479588 48:0.54561 49:0.463485 50:0.40657 51:0.489075 52:0.486404 53:0.459561 54:0.438987 55:0.512526 56:0.452113 57:0.462437 58:0.449787 59:0.475814 60:0.54561 61:0.437594 62:0.472504 63:0.436485 64:0.483951 65:0.469571 66:0.465735 67:0.440133 68:0.444238 69:0.462437 70:0.633075 71:0.439548 72:0.502804 73:0.54561 74:0.495222 75:0.452113 76:0.495222 77:0.440133 78:0.464583 79:0.483951 80:0.470995 81:0.436485 82:0.447728 83:0.445043 84:0.512526 85:0.40657 86:0.40657 87:0.40657 88:0.419215 89:0.40657 90:0.40657 91:0.40657 92:0.426425 93:0.414192 94:0.419215 95:0.422136 96:0.40657 97:0.40657 98:0.40657 99:0.40657 100:0.40657 101:0.428747 102:0.40657 103:0.40657 104:0.455493 105:0.40657 106:0.40657 107:0.40657 108:0.40657 109:0.416165 110:0.40657 111:0.40657 112:0.417365 113:0.440555 114:0.42148 115:0.40657 116:0.40657 117:0.40657 118:0.40657 119:0.40657 120:0.40657 121:0.40657 122:0.40657 123:0.425207 124:0.40657 125:0.40657 126:0.40657 127:0.40657 128:0.452394 129:0.415769 130:0.417506 131:0.40657 132:0.462437 133:0.40657 134:0.40657 135:0.40657 136:0.40657 137:0.40657 138:0.40657 139:0.440743 140:0.40657 141:0.40657 142:0.40657 143:0.413851 144:0.42579 145:0.407839 146:0.40657 147:0.40657 148:0.417506 149:0.40657 150:0.40657 151:0.40657 152:0.41493 153:0.44822 154:0.40657 155:0.418457 156:0.40657 157:0.417229 158:0.40657 159:0.40657 160:0.40657 161:0.42971 162:0.433556 163:0.40657 164:0.40657 165:0.40657 166:0.40657 167:0.40657 168:0.42467 169:0.40657 170:0.40657 171:0.40657 172:0.40657 173:0.40657 174:0.419642 175:0.40657 176:0.40657 177:0.40657 178:0.40657 179:0.40657 180:0.40657 181:0.432069 182:0.428747 183:0.40657 184:0.40657 185:0.414017 186:0.40657 187:0.40657 188:0.40657 189:0.412563 190:0.410729 191:0.40657 192:0.413592 193:0.425207 194:0.40657 195:0.419424 196:0.40657 197:0.40657 198:0.40657 199:0.40657 200:0.40657 201:0.40657 202:0.40657 203:0.40657 204:0.40657 205:0.40657 206:0.40657 207:0.40657 208:0.40657 209:0.40657 210:0.411634 211:0.423278 212:0.40657 213:0.40657 214:0.41987 215:0.40657 216:0.40657 217:0.40657 218:0.414643 219:0.40657 220:0.411803 221:0.40657 222:0.40657 223:0.40657 224:0.40657 225:0.40657 226:0.40657 227:0.40657 228:0.40657 229:0.40657 230:0.40657 231:0.40657 232:0.42148 233:0.40657 234:0.40657 235:0.413797 236:0.40657 237:0.42971 238:0.40657 239:0.414784 240:0.40657 241:0.40657 242:0.440555 243:0.40657 244:0.40657 245:0.40657 246:0.40657 247:0.40657 248:0.40657 249:0.40657 250:0.413797 251:0.416722 252:0.41105 253:0.40657 254:0.42148 255:0.40657 256:0.427891 257:0.40657 258:0.427121 259:0.40657 260:0.40657 261:0.40657 262:0.40657 263:0.40657 264:0.40657 265:0.40657 266:0.40657 267:0.40657 
10 1:0.517472 2:0.548397 3:0.486405 4:0.600789 5:0.600789 6:0.494085 7:0.771408 8:0.568982 9:0.771408 10:0.505725 11:0.474136 12:0.540452 13:0.540452 14:0.463345 15:0.57111 16:0.509281 17:0.600789 18:0.448161 19:0.429099 20:0.429968 21:0.474136 22:0.600789 23:0.458593 24:0.568982 25:0.568982 26:0.571059 27:0.548397 28:0.470409 29:0.446543 30:0.527568 31:0.434211 32:0.485323 33:0.446161 34:0.600789 35:0.481687 36:1 37:0.590997 38:0.494085 39:0.600789 40:0.548397 41:0.610047 42:0.533584 43:0.600789 44:0.600789 45:0.518489 46:0.509281 47:0.499454 48:0.600789 49:0.476928 50:0.40657 51:0.513178 52:0.674895 53:0.471596 54:0.444713 55:0.548397 56:0.507804 57:0.475498 58:0.458593 59:0.494085 60:0.600789 61:0.448262 62:0.489422 63:0.489598 64:0.505725 65:0.485323 66:0.590753 67:0.446161 68:0.514442 69:0.475498 70:0.540452 71:0.445422 72:0.533584 73:0.600789 74:0.522238 75:0.46165 76:0.522238 77:0.446161 78:0.478432 79:0.505725 80:0.487309 81:0.441574 82:0.607057 83:0.452432 84:0.548397 85:0.40657 86:0.40657 87:0.492714 88:0.421933 89:0.40657 90:0.40657 91:0.40657 92:0.583799 93:0.415476 94:0.421933 95:0.425865 96:0.40657 97:0.40657 98:0.40657 99:0.40657 100:0.40657 101:0.435163 102:0.40657 103:0.40657 104:0.553007 105:0.40657 106:0.40657 107:0.40657 108:0.40657 109:0.417963 110:0.40657 111:0.40657 112:0.419508 113:0.452765 114:0.530248 115:0.40657 116:0.40657 117:0.40657 118:0.446581 119:0.40657 120:0.40657 121:0.40657 122:0.40657 123:0.430121 124:0.40657 125:0.487877 126:0.40657 127:0.40657 128:0.471182 129:0.417459 130:0.419691 131:0.40657 132:0.475498 133:0.40657 134:0.40657 135:0.40657 136:0.40657 137:0.40657 138:0.40657 139:0.446934 140:0.40657 141:0.40657 142:0.40657 143:0.415052 144:0.430941 145:0.407955 146:0.40657 147:0.40657 148:0.419691 149:0.40657 150:0.40657 151:0.40657 152:0.416398 153:0.456548 154:0.40657 155:0.420933 156:0.40657 157:0.419331 158:0.40657 159:0.40657 160:0.40657 161:0.436556 162:0.442207 163:0.40657 164:0.40657 165:0.40657 166:0.40657 167:0.40657 168:0.429368 169:0.40657 170:0.40657 171:0.40657 172:0.40657 173:0.40657 174:0.4225 175:0.40657 176:0.40657 177:0.40657 178:0.40657 179:0.40657 180:0.40657 181:0.440007 182:0.435163 183:0.40657 184:0.40657 185:0.415258 186:0.40657 187:0.40657 188:0.40657 189:0.413472 190:0.411275 191:0.40657 192:0.458069 193:0.430121 194:0.40657 195:0.42221 196:0.40657 197:0.40657 198:0.40657 199:0.40657 200:0.40657 201:0.40657 202:0.40657 203:0.40657 204:0.40657 205:0.40657 206:0.40657 207:0.40657 208:0.40657 209:0.40657 210:0.412352 211:0.427433 212:0.40657 213:0.40657 214:0.578317 215:0.40657 216:0.40657 217:0.40657 218:0.416038 219:0.425879 220:0.412554 221:0.40657 222:0.40657 223:0.40657 224:0.40657 225:0.40657 226:0.40657 227:0.40657 228:0.40657 229:0.40657 230:0.40657 231:0.40657 232:0.424971 233:0.40657 234:0.40657 235:0.414985 236:0.40657 237:0.436556 238:0.40657 239:0.416214 240:0.40657 241:0.40657 242:0.452765 243:0.40657 244:0.40657 245:0.40657 246:0.40657 247:0.40657 248:0.40657 249:0.477623 250:0.414985 251:0.418678 252:0.438057 253:0.40657 254:0.530248 255:0.40657 256:0.433931 257:0.40657 258:0.432831 259:0.40657 260:0.40657 261:0.40657 262:0.40657 263:0.40657 264:0.40657 265:0.40657 266:0.40657 267:0.40657 
10 1:0.40657 2:0.40657 3:0.596426 4:0.40657 5:0.40657 6:0.40657 7:0.690681 8:0.40657 9:0.690681 10:0.40657 11:0.40657 12:0.40657 13:0.40657 14:0.40657 15:0.907349 16:0.40657 17:0.40657 18:0.446419 19:0.40657 20:0.40657 21:0.40657 22:0.40657 23:0.457562 24:0.40657 25:0.40657 26:0.610232 27:0.40657 28:0.470685 29:0.40657 30:0.40657 31:0.40657 32:0.487989 33:0.40657 34:0.40657 35:0.40657 36:0.590997 37:1 38:0.40657 39:0.40657 40:0.40657 41:0.549982 42:0.40657 43:0.40657 44:0.40657 45:0.537701 46:0.40657 47:0.40657 48:0.40657 49:0.40657 50:0.40657 51:0.40657 52:0.607729 53:0.40657 54:0.40657 55:0.40657 56:0.460907 57:0.40657 58:0.40657 59:0.40657 60:0.40657 61:0.40657 62:0.40657 63:0.500719 64:0.40657 65:0.40657 66:0.639149 67:0.40657 68:0.532397 69:0.40657 70:0.40657 71:0.40657 72:0.40657 73:0.40657 74:0.40657 75:0.40657 76:0.40657 77:0.40657 78:0.40657 79:0.40657 80:0.490354 81:0.40657 82:0.547758 83:0.40657 84:0.40657 85:0.40657 86:0.40657 87:0.52678 88:0.40657 89:0.40657 90:0.40657 91:0.40657 92:0.40657 93:0.441454 94:0.40657 95:0.40657 96:0.40657 97:0.40657 98:0.40657 99:0.40657 100:0.40657 101:0.40657 102:0.40657 103:0.40657 104:0.510147 105:0.460025 106:0.40657 107:0.40657 108:0.40657 109:0.40657 110:0.474932 111:0.40657 112:0.460025 113:0.40657 114:0.661508 115:0.448789 116:0.40657 117:0.40657 118:0.490607 119:0.40657 120:0.40657 121:0.40657 122:0.40657 123:0.40657 124:0.40657 125:0.40657 126:0.40657 127:0.40657 128:0.40657 129:0.40657 130:0.40657 131:0.40657 132:0.40657 133:0.40657 134:0.487989 135:0.534235 136:0.40657 137:0.40657 138:0.40657 139:0.445135 140:0.40657 141:0.40657 142:0.40657 143:0.40657 144:0.40657 145:0.40657 146:0.40657 147:0.40657 148:0.460907 149:0.40657 150:0.40657 151:0.40657 152:0.40657 153:0.40657 154:0.40657 155:0.40657 156:0.40657 157:0.40657 158:0.40657 159:0.40657 160:0.40657 161:0.40657 162:0.40657 163:0.40657 164:0.40657 165:0.40657 166:0.40657 167:0.40657 168:0.40657 169:0.40657 170:0.40657 171:0.40657 172:0.449829 173:0.40657 174:0.40657 175:0.40657 176:0.40657 177:0.508868 178:0.40657 179:0.40657 180:0.40657 181:0.40657 182:0.40657 183:0.40657 184:0.40657 185:0.40657 186:0.40657 187:0.40657 188:0.40657 189:0.40657 190:0.40657 191:0.40657 192:0.460667 193:0.40657 194:0.40657 195:0.40657 196:0.40657 197:0.40657 198:0.40657 199:0.40657 200:0.40657 201:0.40657 202:0.40657 203:0.40657 204:0.40657 205:0.40657 206:0.40657 207:0.40657 208:0.40657 209:0.40657 210:0.40657 211:0.40657 212:0.40657 213:0.40657 214:0.40657 215:0.40657 216:0.40657 217:0.40657 218:0.40657 219:0.40657 220:0.40657 221:0.40657 222:0.40657 223:0.40657 224:0.40657 225:0.40657 226:0.40657 227:0.40657 228:0.40657 229:0.40657 230:0.40657 231:0.40657 232:0.40657 233:0.40657 234:0.40657 235:0.40657 236:0.40657 237:0.40657 238:0.40657 239:0.40657 240:0.40657 241:0.40657 242:0.40657 243:0.40657 244:0.40657 245:0.40657 246:0.438214 247:0.40657 248:0.40657 249:0.5711 250:0.40657 251:0.40657 252:0.458802 253:0.40657 254:0.40657 255:0.40657 256:0.40657 257:0.40657 258:0.40657 259:0.40657 260:0.40657 261:0.40657 262:0.40657 263:0.40657 264:0.40657 265:0.40657 266:0.40657 267:0.40657 
10 1:0.566366 2:0.533596 3:0.40657 4:0.577534 5:0.577534 6:0.486752 7:0.526837 8:0.641414 9:0.526837 10:0.549382 11:0.469098 12:0.526837 13:0.526837 14:0.488374 15:0.40657 16:0.68198 17:0.577534 18:0.445641 19:0.428016 20:0.44041 21:0.469098 22:0.577534 23:0.455132 24:0.550982 25:0.641414 26:0.467938 27:0.533596 28:0.498524 29:0.530088 30:0.515814 31:0.446515 32:0.519973 33:0.44381 34:0.577534 35:0.475814 36:0.494085 37:0.40657 38:1 39:0.577534 40:0.533596 41:0.453279 42:0.520971 43:0.577534 44:0.577534 45:0.473472 46:0.500023 47:0.491457 48:0.577534 49:0.507896 50:0.40657 51:0.503403 52:0.68198 53:0.466829 54:0.502384 55:0.700309 56:0.457895 57:0.676887 58:0.481547 59:0.486752 60:0.577534 61:0.44386 62:0.48265 63:0.439595 64:0.49693 65:0.479033 66:0.474331 67:0.46369 68:0.448595 69:0.470313 70:0.526837 71:0.598997 72:0.520971 73:0.577534 74:0.51123 75:0.457895 76:0.51123 77:0.46369 78:0.472924 79:0.49693 80:0.522832 81:0.4571 82:0.452698 83:0.449539 84:0.533596 85:0.426433 86:0.48457 87:0.40657 88:0.420863 89:0.40657 90:0.40657 91:0.432189 92:0.429664 93:0.414978 94:0.450975 95:0.424384 96:0.40657 97:0.40657 98:0.40657 99:0.40657 100:0.478277 101:0.489659 102:0.40657 103:0.40657 104:0.461933 105:0.431128 106:0.500023 107:0.40657 108:0.418029 109:0.439495 110:0.40657 111:0.40657 112:0.418669 113:0.542857 114:0.459788 115:0.40657 116:0.40657 117:0.40657 118:0.452359 119:0.40657 120:0.40657 121:0.40657 122:0.40657 123:0.583957 124:0.40657 125:0.40657 126:0.40657 127:0.40657 128:0.463246 129:0.4168 130:0.418835 131:0.462813 132:0.54405 133:0.40657 134:0.40657 135:0.40657 136:0.40657 137:0.40657 138:0.40657 139:0.444518 140:0.40657 141:0.40657 142:0.40657 143:0.431095 144:0.428874 145:0.407911 146:0.40657 147:0.40657 148:0.418835 149:0.40657 150:0.40657 151:0.4733 152:0.415827 153:0.47861 154:0.40657 155:0.41996 156:0.40657 157:0.418508 158:0.40657 159:0.40657 160:0.40657 161:0.433781 162:0.438668 163:0.40657 164:0.40657 165:0.40657 166:0.40657 167:0.432189 168:0.472612 169:0.40657 170:0.40657 171:0.40657 172:0.40657 173:0.40657 174:0.421373 175:0.40657 176:0.40657 177:0.40657 178:0.40657 179:0.430166 180:0.40657 181:0.504069 182:0.627441 183:0.40657 184:0.40657 185:0.486681 186:0.435659 187:0.40657 188:0.419041 189:0.426542 190:0.448863 191:0.40657 192:0.46379 193:0.428153 194:0.40657 195:0.421113 196:0.434687 197:0.428747 198:0.40657 199:0.436176 200:0.40657 201:0.40657 202:0.40657 203:0.40657 204:0.40657 205:0.40657 206:0.40657 207:0.40657 208:0.438494 209:0.40657 210:0.458888 211:0.512124 212:0.40657 213:0.40657 214:0.421646 215:0.40657 216:0.40657 217:0.40657 218:0.43394 219:0.418706 220:0.412264 221:0.40657 222:0.40657 223:0.40657 224:0.40657 225:0.40657 226:0.40657 227:0.40657 228:0.40657 229:0.40657 230:0.40657 231:0.40657 232:0.459788 233:0.40657 234:0.40657 235:0.414524 236:0.40657 237:0.433781 238:0.40657 239:0.415658 240:0.40657 241:0.40657 242:0.542857 243:0.40657 244:0.478277 245:0.40657 246:0.40657 247:0.444858 248:0.40657 249:0.40657 250:0.414524 251:0.417913 252:0.421302 253:0.425296 254:0.423587 255:0.40657 256:0.486019 257:0.40657 258:0.430532 259:0.40657 260:0.40657 261:0.40657 262:0.498524 263:0.40657 264:0.40657 265:0.40657 266:0.40657 267:0.40657 
10 1:0.462149 2:0.47287 3:0.482347 4:0.489261 5:0.489261 6:0.453279 7:0.563935 8:0.479532 9:0.563935 10:0.457792 11:0.44499 12:0.470206 13:0.470206 14:0.44014 15:0.53838 16:0.45913 17:0.489261 18:0.453483 19:0.422194 20:0.422714 21:0.487041 22:0.489261 23:0.489494 24:0.479532 25:0.479532 26:0.531024 27:0.47287 28:0.473099 29:0.431914 30:0.465758 31:0.425196 32:0.485089 33:0.431716 34:0.489261 35:0.494138 36:0.610047 37:0.549982 38:0.453279 39:0.489261 40:0.47287 41:1 42:0.467856 43:0.489261 44:0.489261 45:0.498554 46:0.45913 47:0.455387 48:0.489261 49:0.446199 50:0.40657 51:0.460577 52:0.534487 53:0.463791 54:0.430959 55:0.47287 56:0.465659 57:0.445582 58:0.437905 59:0.453279 60:0.489261 61:0.42583 62:0.45141 63:0.478603 64:0.530987 65:0.485089 66:0.542195 67:0.431716 68:0.529789 69:0.445582 70:0.543802 71:0.43133 72:0.467856 73:0.489261 74:0.463867 75:0.43935 76:0.463867 77:0.431716 78:0.446843 79:0.457792 80:0.48663 81:0.459479 82:0.693966 83:0.434904 84:0.47287 85:0.40657 86:0.40657 87:0.455149 88:0.415591 89:0.40657 90:0.40657 91:0.40657 92:0.578316 93:0.442611 94:0.415591 95:0.45141 96:0.40657 97:0.40657 98:0.40657 99:0.40657 100:0.40657 101:0.421094 102:0.40657 103:0.40657 104:0.489219 105:0.430638 106:0.432051 107:0.40657 108:0.415448 109:0.413671 110:0.435057 111:0.40657 112:0.456131 113:0.427371 114:0.51019 115:0.426895 116:0.40657 117:0.427239 118:0.472603 119:0.423857 120:0.40657 121:0.40657 122:0.40657 123:0.419117 124:0.40657 125:0.483453 126:0.40657 127:0.40657 128:0.433401 129:0.413413 130:0.414528 131:0.40657 132:0.445582 133:0.40657 134:0.438531 135:0.448827 136:0.40657 137:0.40657 138:0.40657 139:0.452325 140:0.40657 141:0.40657 142:0.40657 143:0.412134 144:0.419447 145:0.407663 146:0.40657 147:0.40657 148:0.456719 149:0.40657 150:0.40657 151:0.479532 152:0.412861 153:0.504595 154:0.438251 155:0.460667 156:0.40657 157:0.414353 158:0.40657 159:0.40657 160:0.40657 161:0.470206 162:0.423697 163:0.40657 164:0.40657 165:0.40657 166:0.40657 167:0.40657 168:0.444411 169:0.40657 170:0.40657 171:0.40657 172:0.427259 173:0.40657 174:0.415852 175:0.40657 176:0.40657 177:0.443505 178:0.40657 179:0.40657 180:0.40657 181:0.422901 182:0.421094 183:0.40657 184:0.40657 185:0.412247 186:0.443874 187:0.40657 188:0.40657 189:0.411242 190:0.409918 191:0.40657 192:0.439984 193:0.419117 194:0.40657 195:0.415719 196:0.44284 197:0.40657 198:0.40657 199:0.40657 200:0.40657 201:0.441866 202:0.40657 203:0.40657 204:0.40657 205:0.40657 206:0.40657 207:0.40657 208:0.40657 209:0.40657 210:0.41058 211:0.41801 212:0.40657 213:0.40657 214:0.499653 215:0.40657 216:0.40657 217:0.40657 218:0.412669 219:0.471759 220:0.410702 221:0.40657 222:0.40657 223:0.40657 224:0.443535 225:0.40657 226:0.40657 227:0.40657 228:0.40657 229:0.40657 230:0.40657 231:0.40657 232:0.416956 233:0.40657 234:0.40657 235:0.412097 236:0.40657 237:0.421622 238:0.421035 239:0.412763 240:0.40657 241:0.40657 242:0.427371 243:0.40657 244:0.40657 245:0.40657 246:0.422947 247:0.40657 248:0.40657 249:0.475615 250:0.412097 251:0.41403 252:0.439999 253:0.40657 254:0.53659 255:0.40657 256:0.420621 257:0.40657 258:0.420194 259:0.40657 260:0.40657 261:0.40657 262:0.40657 263:0.40657 264:0.40657 265:0.40657 266:0.40657 267:0.40657 
10 1:0.486098 2:0.467561 3:0.487116 4:0.482087 5:0.482087 6:0.473472 7:0.550487 8:0.510954 9:0.550487 10:0.479892 11:0.442532 12:0.465189 13:0.465189 14:0.454795 15:0.562951 16:0.481797 17:0.482087 18:0.450892 19:0.433085 20:0.433964 21:0.461689 22:0.482087 23:0.459596 24:0.473478 25:0.510954 26:0.544746 27:0.467561 28:0.488265 29:0.462558 30:0.461222 31:0.447618 32:0.479622 33:0.442804 34:0.482087 35:0.445461 36:0.518489 37:0.537701 38:0.473472 39:0.482087 40:0.467561 41:0.498554 42:0.494238 43:0.482087 44:0.482087 45:1 46:0.468356 47:0.47647 48:0.482087 49:0.484067 50:0.40657 51:0.483858 52:0.52448 53:0.450715 54:0.460426 55:0.467561 56:0.462037 57:0.472579 58:0.467715 59:0.461602 60:0.482087 61:0.424261 62:0.448344 63:0.487182 64:0.454088 65:0.44683 66:0.544573 67:0.442804 68:0.514185 69:0.44307 70:0.481119 71:0.461255 72:0.494238 73:0.482087 74:0.473818 75:0.437394 76:0.459532 77:0.442804 78:0.464323 79:0.454088 80:0.504676 81:0.462644 82:0.497576 83:0.433319 84:0.501406 85:0.412824 86:0.442721 87:0.452009 88:0.441518 89:0.413984 90:0.40657 91:0.40657 92:0.418858 93:0.440722 94:0.432509 95:0.416633 96:0.422353 97:0.420493 98:0.40657 99:0.40657 100:0.40657 101:0.433912 102:0.40657 103:0.418858 104:0.483908 105:0.43705 106:0.418238 107:0.425784 108:0.408695 109:0.434074 110:0.442532 111:0.40657 112:0.4614 113:0.466491 114:0.552599 115:0.425784 116:0.40657 117:0.40657 118:0.452699 119:0.40657 120:0.42064 121:0.40657 122:0.431818 123:0.442588 124:0.40657 125:0.40657 126:0.40657 127:0.418535 128:0.431004 129:0.419615 130:0.437394 131:0.465189 132:0.482846 133:0.40657 134:0.436406 135:0.445677 136:0.40657 137:0.40657 138:0.430853 139:0.45637 140:0.40657 141:0.40657 142:0.40657 143:0.428134 144:0.418535 145:0.411913 146:0.419209 147:0.437269 148:0.462037 149:0.421028 150:0.40657 151:0.40657 152:0.41253 153:0.450219 154:0.40657 155:0.439702 156:0.414792 157:0.413905 158:0.40657 159:0.40657 160:0.428185 161:0.420493 162:0.422353 163:0.40657 164:0.40657 165:0.40657 166:0.40657 167:0.422048 168:0.441712 169:0.40657 170:0.40657 171:0.414926 172:0.42612 173:0.427748 174:0.433254 175:0.421028 176:0.40657 177:0.440896 178:0.40657 179:0.413753 180:0.40657 181:0.453477 182:0.448266 183:0.40657 184:0.40657 185:0.440014 186:0.40657 187:0.40657 188:0.428237 189:0.42469 190:0.422887 191:0.414418 192:0.43829 193:0.418238 194:0.40657 195:0.423922 196:0.40657 197:0.427423 198:0.40657 199:0.40657 200:0.40657 201:0.40657 202:0.40657 203:0.40657 204:0.40657 205:0.40657 206:0.415155 207:0.40657 208:0.444213 209:0.40657 210:0.430136 211:0.450949 212:0.415039 213:0.40657 214:0.415403 215:0.430853 216:0.40657 217:0.40657 218:0.43632 219:0.414905 220:0.41052 221:0.40657 222:0.40657 223:0.40657 224:0.40657 225:0.40657 226:0.422611 227:0.40657 228:0.40657 229:0.40657 230:0.412985 231:0.40657 232:0.436406 233:0.40657 234:0.40657 235:0.422534 236:0.417463 237:0.420493 238:0.427223 239:0.430564 240:0.40657 241:0.40657 242:0.466491 243:0.40657 244:0.40657 245:0.444559 246:0.422132 247:0.40657 248:0.416824 249:0.48906 250:0.427993 251:0.420769 252:0.465174 253:0.424715 254:0.436406 255:0.443534 256:0.461222 257:0.40657 258:0.419209 259:0.40657 260:0.416281 261:0.40657 262:0.44104 263:0.40657 264:0.40657 265:0.40657 266:0.414326 267:0.425636 
10 1:0.525981 2:0.560783 3:0.40657 4:0.620778 5:0.620778 6:0.500023 7:0.551794 8:0.584213 9:0.551794 10:0.5129 11:0.478162 12:0.551794 13:0.551794 14:0.466457 15:0.40657 16:0.516851 17:0.620778 18:0.450142 19:0.43599 20:0.430854 21:0.478162 22:0.620778 23:0.461331 24:0.584213 25:0.584213 26:0.476748 27:0.560783 28:0.47411 29:0.459532 30:0.537286 31:0.435326 32:0.490388 33:0.448007 34:0.620778 35:0.486404 36:0.509281 37:0.40657 38:0.500023 39:0.620778 40:0.560783 41:0.45913 42:0.54405 43:0.620778 44:0.620778 45:0.468356 46:1 47:0.505952 48:0.620778 49:0.501914 50:0.40657 51:0.521189 52:0.516851 53:0.475399 54:0.446464 55:0.560783 56:0.464627 57:0.479646 58:0.461331 59:0.526567 60:0.620778 61:0.451945 62:0.494888 63:0.443124 64:0.5129 65:0.490388 66:0.484577 67:0.448007 68:0.466187 69:0.479646 70:0.595576 71:0.447219 72:0.54405 73:0.620778 74:0.53131 75:0.464627 76:0.53131 77:0.448007 78:0.482846 79:0.5129 80:0.492567 81:0.472681 82:0.458442 83:0.454712 84:0.560783 85:0.40657 86:0.40657 87:0.40657 88:0.422781 89:0.40657 90:0.40657 91:0.435485 92:0.433604 93:0.415865 94:0.422781 95:0.427049 96:0.40657 97:0.40657 98:0.40657 99:0.40657 100:0.40657 101:0.470313 102:0.40657 103:0.433604 104:0.469474 105:0.40657 106:0.40657 107:0.417607 108:0.409608 109:0.418514 110:0.40657 111:0.40657 112:0.420169 113:0.457035 114:0.426075 115:0.40657 116:0.40657 117:0.445582 118:0.40657 119:0.40657 120:0.411903 121:0.40657 122:0.40657 123:0.431711 124:0.40657 125:0.40657 126:0.40657 127:0.432614 128:0.478021 129:0.417976 130:0.420366 131:0.40657 132:0.479646 133:0.40657 134:0.40657 135:0.40657 136:0.40657 137:0.40657 138:0.40657 139:0.448832 140:0.40657 141:0.40657 142:0.40657 143:0.424454 144:0.432614 145:0.412277 146:0.40657 147:0.40657 148:0.420366 149:0.40657 150:0.40657 151:0.40657 152:0.416846 153:0.45913 154:0.40657 155:0.437397 156:0.40657 157:0.41998 158:0.40657 159:0.40657 160:0.40657 161:0.51123 162:0.445137 163:0.40657 164:0.40657 165:0.40657 166:0.40657 167:0.40657 168:0.430883 169:0.40657 170:0.40657 171:0.422494 172:0.40657 173:0.40657 174:0.423394 175:0.40657 176:0.40657 177:0.40657 178:0.40657 179:0.40657 180:0.40657 181:0.442676 182:0.437281 183:0.40657 184:0.40657 185:0.415634 186:0.40657 187:0.40657 188:0.40657 189:0.421049 190:0.411439 191:0.40657 192:0.415077 193:0.431711 194:0.40657 195:0.440263 196:0.40657 197:0.40657 198:0.40657 199:0.40657 200:0.40657 201:0.40657 202:0.40657 203:0.40657 204:0.40657 205:0.40657 206:0.423081 207:0.40657 208:0.40657 209:0.40657 210:0.412567 211:0.428762 212:0.40657 213:0.40657 214:0.460229 215:0.40657 216:0.40657 217:0.40657 218:0.416462 219:0.40657 220:0.412779 221:0.40657 222:0.40657 223:0.40657 224:0.40657 225:0.40657 226:0.40657 227:0.40657 228:0.446516 229:0.40657 230:0.41785 231:0.40657 232:0.426075 233:0.40657 234:0.40657 235:0.42431 236:0.429416 237:0.438829 238:0.40657 239:0.41665 240:0.40657 241:0.40657 242:0.457035 243:0.40657 244:0.40657 245:0.40657 246:0.40657 247:0.40657 248:0.427583 249:0.40657 250:0.415345 251:0.432385 252:0.411837 253:0.40657 254:0.426075 255:0.40657 256:0.435916 257:0.40657 258:0.434699 259:0.446516 260:0.40657 261:0.40657 262:0.40657 263:0.40657 264:0.40657 265:0.40657 266:0.420997 267:0.40657 
10 1:0.577499 2:0.54303 3:0.40657 4:0.592278 5:0.592278 6:0.540333 7:0.535523 8:0.56243 9:0.535523 10:0.502565 11:0.509112 12:0.535523 13:0.535523 14:0.46195 15:0.40657 16:0.564412 17:0.592278 18:0.469121 19:0.440238 20:0.460147 21:0.472339 22:0.592278 23:0.52987 24:0.661508 25:0.56243 26:0.566325 27:0.54303 28:0.468755 29:0.488594 30:0.523324 31:0.447946 32:0.483074 33:0.466071 34:0.592278 35:0.479588 36:0.499454 37:0.40657 38:0.491457 39:0.592278 40:0.54303 41:0.455387 42:0.603457 43:0.592278 44:0.592278 45:0.47647 46:0.505952 47:1 48:0.592278 49:0.513456 50:0.40657 51:0.50966 52:0.505952 53:0.523785 54:0.484708 55:0.54303 56:0.460315 57:0.51123 58:0.485092 59:0.540333 60:0.592278 61:0.446666 62:0.486998 63:0.459096 64:0.502565 65:0.483074 66:0.477985 67:0.445328 68:0.450403 69:0.51123 70:0.535523 71:0.497205 72:0.529025 73:0.592278 74:0.518268 75:0.460315 76:0.621755 77:0.445328 78:0.558378 79:0.502565 80:0.553553 81:0.478072 82:0.454768 83:0.451405 84:0.627579 85:0.40657 86:0.490716 87:0.40657 88:0.505168 89:0.432244 90:0.40657 91:0.40657 92:0.484555 93:0.4153 94:0.421553 95:0.425337 96:0.40657 97:0.40657 98:0.40657 99:0.40657 100:0.40657 101:0.43423 102:0.40657 103:0.457025 104:0.496713 105:0.40657 106:0.40657 107:0.40657 108:0.40657 109:0.417714 110:0.40657 111:0.40657 112:0.445683 113:0.450924 114:0.424478 115:0.40657 116:0.40657 117:0.40657 118:0.40657 119:0.40657 120:0.416764 121:0.40657 122:0.436047 123:0.429416 124:0.40657 125:0.40657 126:0.40657 127:0.40657 128:0.468274 129:0.417225 130:0.446247 131:0.466613 132:0.51123 133:0.479033 134:0.40657 135:0.40657 136:0.40657 137:0.40657 138:0.455206 139:0.446078 140:0.40657 141:0.40657 142:0.40657 143:0.440874 144:0.430201 145:0.413465 146:0.40657 147:0.473672 148:0.446247 149:0.40657 150:0.40657 151:0.40657 152:0.416196 153:0.455387 154:0.40657 155:0.481659 156:0.418918 157:0.419039 158:0.40657 159:0.40657 160:0.448125 161:0.435558 162:0.440929 163:0.40657 164:0.40657 165:0.40657 166:0.40657 167:0.40657 168:0.428696 169:0.40657 170:0.40657 171:0.40657 172:0.40657 173:0.447003 174:0.454961 175:0.40657 176:0.40657 177:0.40657 178:0.40657 179:0.40657 180:0.40657 181:0.43884 182:0.43423 183:0.40657 184:0.40657 185:0.450981 186:0.40657 187:0.40657 188:0.419468 189:0.464071 190:0.420623 191:0.40657 192:0.414576 193:0.429416 194:0.40657 195:0.42182 196:0.40657 197:0.42971 198:0.40657 199:0.40657 200:0.40657 201:0.40657 202:0.40657 203:0.40657 204:0.40657 205:0.40657 206:0.40657 207:0.40657 208:0.440132 209:0.40657 210:0.423863 211:0.470469 212:0.40657 213:0.40657 214:0.422392 215:0.40657 216:0.40657 217:0.40657 218:0.435039 219:0.40657 220:0.424473 221:0.40657 222:0.40657 223:0.40657 224:0.527611 225:0.40657 226:0.434636 227:0.40657 228:0.40657 229:0.40657 230:0.40657 231:0.40657 232:0.424478 233:0.453547 234:0.40657 235:0.414822 236:0.40657 237:0.435558 238:0.429433 239:0.435577 240:0.40657 241:0.40657 242:0.450924 243:0.40657 244:0.40657 245:0.457025 246:0.40657 247:0.40657 248:0.40657 249:0.40657 250:0.431834 251:0.443124 252:0.421767 253:0.40657 254:0.504352 255:0.40657 256:0.433056 257:0.40657 258:0.432006 259:0.40657 260:0.40657 261:0.40657 262:0.436556 263:0.40657 264:0.40657 265:0.40657 266:0.40657 267:0.40657 
10 1:0.581582 2:0.504705 3:0.418196 4:0.534111 5:0.534111 6:0.547001 7:0.500058 8:0.582149 9:0.500058 10:0.51989 11:0.486779 12:0.500058 13:0.500058 14:0.475005 15:0.40657 16:0.569542 17:0.534111 18:0.457927 19:0.430484 20:0.452263 21:0.458423 22:0.534111 23:0.469729 24:0.582149 25:0.582149 26:0.457542 27:0.504705 28:0.482744 29:0.483031 30:0.568453 31:0.486298 32:0.465887 33:0.438649 34:0.534111 35:0.463485 36:0.476928 37:0.40657 38:0.507896 39:0.534111 40:0.504705 41:0.446199 42:0.495993 43:0.534111 44:0.534111 45:0.484067 46:0.501914 47:0.513456 48:0.534111 49:1 50:0.40657 51:0.483622 52:0.481205 53:0.470166 54:0.479677 55:0.504705 56:0.47313 57:0.535046 58:0.469729 59:0.527086 60:0.534111 61:0.43527 62:0.468568 63:0.450301 64:0.478982 65:0.465887 66:0.509197 67:0.482331 68:0.451953 69:0.488247 70:0.526613 71:0.480976 72:0.495993 73:0.534111 74:0.561961 75:0.449813 76:0.489172 77:0.482331 78:0.491393 79:0.478982 80:0.536847 81:0.482039 82:0.445741 83:0.472896 84:0.504705 85:0.432443 86:0.534111 87:0.40657 88:0.430905 89:0.438176 90:0.40657 91:0.40657 92:0.464984 93:0.413874 94:0.443613 95:0.421254 96:0.431636 97:0.42816 98:0.40657 99:0.40657 100:0.40657 101:0.449061 102:0.40657 103:0.464984 104:0.478075 105:0.438176 106:0.461351 107:0.415098 108:0.414345 109:0.464679 110:0.44487 111:0.40657 112:0.449248 113:0.50808 114:0.450292 115:0.40657 116:0.40657 117:0.40657 118:0.412956 119:0.40657 120:0.424368 121:0.40657 122:0.418196 123:0.461351 124:0.40657 125:0.40657 126:0.40657 127:0.424598 128:0.448499 129:0.424327 130:0.427645 131:0.526613 132:0.459344 133:0.40657 134:0.40657 135:0.40657 136:0.40657 137:0.40657 138:0.443426 139:0.465418 140:0.40657 141:0.40657 142:0.40657 143:0.450301 144:0.424598 145:0.419143 146:0.425811 147:0.40657 148:0.449813 149:0.429152 150:0.40657 151:0.40657 152:0.414567 153:0.467439 154:0.40657 155:0.492479 156:0.422502 157:0.416716 158:0.40657 159:0.40657 160:0.40657 161:0.42816 162:0.431636 163:0.40657 164:0.40657 165:0.40657 166:0.40657 167:0.428209 168:0.459752 169:0.40657 170:0.40657 171:0.418375 172:0.40657 173:0.454417 174:0.418955 175:0.429152 176:0.40657 177:0.40657 178:0.40657 179:0.416473 180:0.40657 181:0.481978 182:0.471944 183:0.40657 184:0.40657 185:0.467314 186:0.40657 187:0.40657 188:0.412031 189:0.448686 190:0.431298 191:0.417543 192:0.427121 193:0.424066 194:0.40657 195:0.431303 196:0.40657 197:0.435281 198:0.40657 199:0.40657 200:0.40657 201:0.40657 202:0.40657 203:0.434353 204:0.40657 205:0.40657 206:0.457542 207:0.40657 208:0.476117 209:0.40657 210:0.436766 211:0.438643 212:0.41856 213:0.40657 214:0.419166 215:0.40657 216:0.40657 217:0.40657 218:0.430196 219:0.40657 220:0.42189 221:0.40657 222:0.40657 223:0.40657 224:0.40657 225:0.40657 226:0.40657 227:0.40657 228:0.40657 229:0.40657 230:0.415266 231:0.40657 232:0.450292 233:0.501914 234:0.40657 235:0.427721 236:0.422697 237:0.42816 238:0.415822 239:0.464883 240:0.40657 241:0.40657 242:0.50808 243:0.40657 244:0.40657 245:0.425177 246:0.40657 247:0.40657 248:0.421583 249:0.40657 250:0.442429 251:0.47932 252:0.437847 253:0.431037 254:0.450292 255:0.424598 256:0.492393 257:0.40657 258:0.425811 259:0.40657 260:0.42065 261:0.40657 262:0.430522 263:0.40657 264:0.40657 265:0.40657 266:0.417394 267:0.437926 
10 1:0.40657 2:0.40657 3:0.40657 4:0.40657 5:0.40657 6:0.40657 7:0.40657 8:0.40657 9:0.40657 10:0.40657 11:0.40657 12:0.40657 13:0.40657 14:0.40657 15:0.40657 16:0.40657 17:0.40657 18:0.40657 19:0.40657 20:0.40657 21:0.40657 22:0.40657 23:0.40657 24:0.40657 25:0.40657 26:0.40657 27:0.40657 28:0.417813 29:0.40657 30:0.40657 31:0.40657 32:0.40657 33:0.40657 34:0.40657 35:0.40657 36:0.40657 37:0.40657 38:0.40657 39:0.40657 40:0.40657 41:0.40657 42:0.40657 43:0.40657 44:0.40657 45:0.40657 46:0.40657 47:0.40657 48:0.40657 49:0.40657 50:1 51:0.40657 52:0.40657 53:0.40657 54:0.40657 55:0.40657 56:0.40657 57:0.40657 58:0.40657 59:0.40657 60:0.40657 61:0.40657 62:0.420487 63:0.40657 64:0.40657 65:0.40657 66:0.40657 67:0.40657 68:0.40657 69:0.40657 70:0.40657 71:0.40657 72:0.40657 73:0.40657 74:0.40657 75:0.40657 76:0.40657 77:0.40657 78:0.40657 79:0.40657 80:0.40657 81:0.40657 82:0.40657 83:0.40657 84:0.40657 85:0.40657 86:0.40657 87:0.40657 88:0.40657 89:0.40657 90:0.40657 91:0.40657 92:0.40657 93:0.40657 94:0.40657 95:0.40657 96:0.40657 97:0.40657 98:0.40657 99:0.40657 100:0.40657 101:0.40657 102:0.40657 103:0.40657 104:0.40657 105:0.40657 106:0.40657 107:0.40657 108:0.40657 109:0.40657 110:0.40657 111:0.40657 112:0.40657 113:0.40657 114:0.40657 115:0.40657 116:0.40657 117:0.40657 118:0.40657 119:0.40657 120:0.40657 121:0.40657 122:0.40657 123:0.40657 124:0.40657 125:0.40657 126:0.40657 127:0.40657 128:0.40657 129:0.40657 130:0.40657 131:0.40657 132:0.40657 133:0.40657 134:0.40657 135:0.40657 136:0.40657 137:0.40657 138:0.40657 139:0.40657 140:0.40657 141:0.40657 142:0.40657 143:0.40657 144:0.40657 145:0.40657 146:0.40657 147:0.40657 148:0.40657 149:0.40657 150:0.40657 151:0.40657 152:0.40657 153:0.40657 154:0.40657 155:0.40657 156:0.40657 157:0.40657 158:0.40657 159:0.40657 160:0.40657 161:0.40657 162:0.40657 163:0.40657 164:0.40657 165:0.40657 166:0.40657 167:0.40657 168:0.40657 169:0.40657 170:0.40657 171:0.40657 172:0.40657 173:0.40657 174:0.40657 175:0.40657 176:0.40657 177:0.40657 178:0.40657 179:0.40657 180:0.40657 181:0.40657 182:0.40657 183:0.40657 184:0.40657 185:0.40657 186:0.40657 187:0.40657 188:0.40657 189:0.40657 190:0.40657 191:0.40657 192:0.40657 193:0.40657 194:0.40657 195:0.40657 196:0.40657 197:0.40657 198:0.40657 199:0.40657 200:0.40657 201:0.40657 202:0.40657 203:0.40657 204:0.40657 205:0.40657 206:0.40657 207:0.40657 208:0.40657 209:0.40657 210:0.40657 211:0.40657 212:0.40657 213:0.40657 214:0.40657 215:0.40657 216:0.40657 217:0.40657 218:0.40657 219:0.40657 220:0.40657 221:0.40657 222:0.40657 223:0.40657 224:0.40657 225:0.40657 226:0.40657 227:0.40657 228:0.40657 229:0.40657 230:0.40657 231:0.40657 232:0.40657 233:0.40657 234:0.40657 235:0.40657 236:0.40657 237:0.40657 238:0.40657 239:0.40657 240:0.40657 241:0.40657 242:0.40657 243:0.40657 244:0.40657 245:0.40657 246:0.40657 247:0.40657 248:0.40657 249:0.40657 250:0.40657 251:0.40657 252:0.40657 253:0.40657 254:0.40657 255:0.40657 256:0.40657 257:0.40657 258:0.40657 259:0.40657 260:0.40657 261:0.40657 262:0.40657 263:0.40657 264:0.40657 265:0.40657 266:0.40657 267:0.40657 
10 1:0.530874 2:0.567996 3:0.474906 4:0.63264 5:0.63264 6:0.560152 7:0.558378 8:0.593152 9:0.558378 10:0.517005 11:0.480435 12:0.558378 13:0.558378 14:0.468206 15:0.472924 16:0.521189 17:0.63264 18:0.451248 19:0.455642 20:0.431345 21:0.522257 22:0.63264 23:0.462866 24:0.593152 25:0.593152 26:0.478955 27:0.567996 28:0.476195 29:0.449459 30:0.542897 31:0.435944 32:0.49326 33:0.49594 34:0.63264 35:0.489075 36:0.513178 37:0.40657 38:0.503403 39:0.63264 40:0.567996 41:0.460577 42:0.550108 43:0.63264 44:0.63264 45:0.483858 46:0.521189 47:0.50966 48:0.63264 49:0.483622 50:0.40657 51:1 52:0.521189 53:0.477544 54:0.44744 55:0.567996 56:0.466298 57:0.481989 58:0.462866 59:0.503403 60:0.63264 61:0.454088 62:0.497994 63:0.443988 64:0.517005 65:0.49326 66:0.487157 67:0.449037 68:0.538187 69:0.481989 70:0.558378 71:0.448221 72:0.8658 73:0.63264 74:0.536538 75:0.466298 76:0.536538 77:0.449037 78:0.485343 79:0.517005 80:0.495551 81:0.443988 82:0.459861 83:0.455987 84:0.567996 85:0.40657 86:0.40657 87:0.40657 88:0.423257 89:0.40657 90:0.40657 91:0.40657 92:0.434609 93:0.435779 94:0.423257 95:0.427718 96:0.40657 97:0.40657 98:0.40657 99:0.40657 100:0.40657 101:0.438494 102:0.40657 103:0.40657 104:0.471353 105:0.40657 106:0.40657 107:0.479346 108:0.40657 109:0.418822 110:0.40657 111:0.40657 112:0.420539 113:0.459532 114:0.469992 115:0.40657 116:0.40657 117:0.40657 118:0.40657 119:0.40657 120:0.40657 121:0.40657 122:0.474906 123:0.432614 124:0.40657 125:0.40657 126:0.40657 127:0.40657 128:0.482087 129:0.418264 130:0.420743 131:0.40657 132:0.524793 133:0.40657 134:0.40657 135:0.40657 136:0.40657 137:0.40657 138:0.40657 139:0.449891 140:0.40657 141:0.40657 142:0.40657 143:0.415618 144:0.433565 145:0.408008 146:0.40657 147:0.40657 148:0.420743 149:0.40657 150:0.40657 151:0.40657 152:0.417095 153:0.460577 154:0.40657 155:0.422133 156:0.40657 157:0.420342 158:0.40657 159:0.40657 160:0.40657 161:0.440132 162:0.44683 163:0.40657 164:0.40657 165:0.40657 166:0.40657 167:0.40657 168:0.431743 169:0.40657 170:0.40657 171:0.40657 172:0.40657 173:0.40657 174:0.423897 175:0.40657 176:0.558378 177:0.40657 178:0.40657 179:0.40657 180:0.40657 181:0.444213 182:0.438494 183:0.40657 184:0.40657 185:0.415843 186:0.40657 187:0.481989 188:0.449809 189:0.413898 190:0.411529 191:0.40657 192:0.415268 193:0.432614 194:0.40657 195:0.42357 196:0.40657 197:0.40657 198:0.40657 199:0.40657 200:0.40657 201:0.40657 202:0.40657 203:0.40657 204:0.40657 205:0.40657 206:0.40657 207:0.40657 208:0.40657 209:0.40657 210:0.412686 211:0.429514 212:0.40657 213:0.40657 214:0.424239 215:0.462352 216:0.40657 217:0.40657 218:0.416699 219:0.420112 220:0.412904 221:0.40657 222:0.40657 223:0.40657 224:0.40657 225:0.40657 226:0.40657 227:0.40657 228:0.40657 229:0.40657 230:0.40657 231:0.40657 232:0.426698 233:0.40657 234:0.40657 235:0.415545 236:0.40657 237:0.440132 238:0.40657 239:0.46087 240:0.40657 241:0.40657 242:0.459532 243:0.40657 244:0.40657 245:0.40657 246:0.40657 247:0.40657 248:0.40657 249:0.500882 250:0.415545 251:0.419615 252:0.445662 253:0.427892 254:0.426698 255:0.462352 256:0.43705 257:0.40657 258:0.435764 259:0.40657 260:0.40657 261:0.40657 262:0.40657 263:0.40657 264:0.40657 265:0.40657 266:0.40657 267:0.40657 
10 1:0.479884 2:0.496116 3:0.417478 4:0.5217 5:0.5217 6:0.466829 7:0.492041 8:0.506414 9:0.492041 10:0.473424 11:0.454995 12:0.492041 13:0.492041 14:0.448259 15:0.40657 16:0.475399 17:0.5217 18:0.438293 19:0.438946 20:0.445128 21:0.495062 22:0.5217 23:0.476574 24:0.506414 25:0.506414 26:0.493545 27:0.496116 28:0.452698 29:0.470123 30:0.485297 31:0.476053 32:0.507941 33:0.461182 34:0.5217 35:0.459561 36:0.471596 37:0.40657 38:0.466829 39:0.5217 40:0.496116 41:0.463791 42:0.488468 43:0.5217 44:0.5217 45:0.450715 46:0.475399 47:0.523785 48:0.5217 49:0.470166 50:0.40657 51:0.477544 52:0.475399 53:1 54:0.443607 55:0.496116 56:0.447177 57:0.469047 58:0.476574 59:0.466829 60:0.5217 61:0.432719 62:0.464127 63:0.433762 64:0.473424 65:0.461721 66:0.472565 67:0.436932 68:0.467737 69:0.455827 70:0.492041 71:0.468474 72:0.488468 73:0.5217 74:0.503543 75:0.447177 76:0.548526 77:0.436932 78:0.457607 79:0.473424 80:0.510194 81:0.462774 82:0.443455 83:0.44116 84:0.496116 85:0.414562 86:0.40657 87:0.442373 88:0.465969 89:0.416242 90:0.40657 91:0.40657 92:0.460401 93:0.427726 94:0.417811 95:0.420253 96:0.506414 97:0.426434 98:0.40657 99:0.40657 100:0.40657 101:0.425657 102:0.479361 103:0.40657 104:0.450026 105:0.416242 106:0.45717 107:0.40657 108:0.414073 109:0.424041 110:0.41817 111:0.40657 112:0.446661 113:0.435054 114:0.461721 115:0.431255 116:0.40657 117:0.432749 118:0.412649 119:0.428046 120:0.410766 121:0.40657 122:0.417478 123:0.422781 124:0.40657 125:0.40657 126:0.453195 127:0.40657 128:0.444305 129:0.423344 130:0.42639 131:0.40657 132:0.455827 133:0.45717 134:0.40657 135:0.40657 136:0.40657 137:0.40657 138:0.40657 139:0.445542 140:0.40657 141:0.40657 142:0.40657 143:0.433762 144:0.423257 145:0.408984 146:0.424341 147:0.40657 148:0.447177 149:0.427314 150:0.40657 151:0.40657 152:0.414146 153:0.443874 154:0.40657 155:0.439206 156:0.40657 157:0.416125 158:0.40657 159:0.40657 160:0.40657 161:0.426434 162:0.429514 163:0.40657 164:0.40657 165:0.40657 166:0.40657 167:0.40657 168:0.594871 169:0.40657 170:0.40657 171:0.40657 172:0.40657 173:0.40657 174:0.41817 175:0.427314 176:0.40657 177:0.40657 178:0.40657 179:0.415902 180:0.40657 181:0.428327 182:0.425657 183:0.40657 184:0.40657 185:0.420242 186:0.40657 187:0.40657 188:0.411784 189:0.429017 190:0.410428 191:0.416882 192:0.412977 193:0.422781 194:0.40657 195:0.417987 196:0.40657 197:0.415397 198:0.40657 199:0.40657 200:0.40657 201:0.40657 202:0.40657 203:0.40657 204:0.40657 205:0.40657 206:0.40657 207:0.40657 208:0.40657 209:0.40657 210:0.415967 211:0.43635 212:0.417811 213:0.40657 214:0.455827 215:0.40657 216:0.40657 217:0.40657 218:0.413896 219:0.44352 220:0.411392 221:0.40657 222:0.40657 223:0.40657 224:0.543943 225:0.40657 226:0.40657 227:0.40657 228:0.40657 229:0.40657 230:0.40657 231:0.40657 232:0.419707 233:0.40657 234:0.40657 235:0.44059 236:0.40657 237:0.426434 238:0.43334 239:0.421603 240:0.40657 241:0.40657 242:0.435054 243:0.40657 244:0.40657 245:0.423775 246:0.40657 247:0.40657 248:0.40657 249:0.40657 250:0.419851 251:0.415692 252:0.427738 253:0.414146 254:0.447269 255:0.423257 256:0.444193 257:0.40657 258:0.424341 259:0.40657 260:0.419707 261:0.40657 262:0.40657 263:0.40657 264:0.40657 265:0.40657 266:0.40657 267:0.435054 
10 1:0.494748 2:0.455619 3:0.413547 4:0.466277 5:0.466277 6:0.46161 7:0.453862 8:0.489261 9:0.453862 10:0.466432 11:0.452632 12:0.453862 13:0.453862 14:0.447288 15:0.40657 16:0.490273 17:0.466277 18:0.438973 19:0.437001 20:0.448959 21:0.436725 22:0.466277 23:0.444798 24:0.489261 25:0.489261 26:0.452009 27:0.455619 28:0.450831 29:0.477798 30:0.45091 31:0.459507 32:0.440038 33:0.454291 34:0.466277 35:0.438987 36:0.444713 37:0.40657 38:0.502384 39:0.466277 40:0.455619 41:0.430959 42:0.477068 43:0.466277 44:0.466277 45:0.460426 46:0.446464 47:0.484708 48:0.466277 49:0.479677 50:0.40657 51:0.44744 52:0.446464 53:0.443607 54:1 55:0.455619 56:0.432714 57:0.514599 58:0.458323 59:0.46161 60:0.466277 61:0.420738 62:0.441196 63:0.449941 64:0.445558 65:0.440038 66:0.446861 67:0.437792 68:0.429105 69:0.453279 70:0.453862 71:0.544388 72:0.452305 73:0.466277 74:0.461113 75:0.432714 76:0.449648 77:0.437792 78:0.471915 79:0.445558 80:0.458673 81:0.46019 82:0.430733 83:0.429485 84:0.482319 85:0.440005 86:0.466277 87:0.40657 88:0.435939 89:0.425824 90:0.40657 91:0.40657 92:0.437626 93:0.411351 94:0.428403 95:0.414963 96:0.419311 97:0.417909 98:0.40657 99:0.40657 100:0.40657 101:0.417551 102:0.40657 103:0.427019 104:0.448709 105:0.412889 106:0.416196 107:0.40657 108:0.40657 109:0.448614 110:0.413908 111:0.40657 112:0.432443 113:0.453877 114:0.431421 115:0.423088 116:0.40657 117:0.40657 118:0.410843 119:0.40657 120:0.425486 121:0.40657 122:0.427864 123:0.436138 124:0.40657 125:0.40657 126:0.40657 127:0.40657 128:0.425746 129:0.417777 130:0.432714 131:0.453862 132:0.453279 133:0.40657 134:0.40657 135:0.40657 136:0.40657 137:0.40657 138:0.458284 139:0.432804 140:0.40657 141:0.40657 142:0.40657 143:0.420541 144:0.416423 145:0.418552 146:0.416936 147:0.431345 148:0.432714 149:0.418313 150:0.40657 151:0.40657 152:0.411723 153:0.443697 154:0.425439 155:0.441807 156:0.41383 157:0.412826 158:0.40657 159:0.40657 160:0.424481 161:0.417909 162:0.419311 163:0.40657 164:0.40657 165:0.40657 166:0.40657 167:0.419713 168:0.435474 169:0.40657 170:0.40657 171:0.40657 172:0.40657 173:0.451945 174:0.428983 175:0.418313 176:0.40657 177:0.40657 178:0.40657 179:0.431671 180:0.40657 181:0.444294 182:0.44041 183:0.40657 184:0.40657 185:0.46125 186:0.40657 187:0.40657 188:0.445582 189:0.439003 190:0.430118 191:0.413232 192:0.41104 193:0.416196 194:0.40657 195:0.413813 196:0.40657 197:0.44939 198:0.40657 199:0.40657 200:0.40657 201:0.40657 202:0.40657 203:0.40657 204:0.40657 205:0.40657 206:0.428688 207:0.40657 208:0.438026 209:0.40657 210:0.427403 211:0.443181 212:0.413721 213:0.40657 214:0.414006 215:0.40657 216:0.40657 217:0.40657 218:0.432243 219:0.40657 220:0.417149 221:0.40657 222:0.40657 223:0.40657 224:0.40657 225:0.40657 226:0.420157 227:0.40657 228:0.40657 229:0.40657 230:0.40657 231:0.40657 232:0.431421 233:0.42605 234:0.40657 235:0.415775 236:0.40657 237:0.417909 238:0.424239 239:0.443492 240:0.40657 241:0.40657 242:0.453877 243:0.40657 244:0.40657 245:0.437626 246:0.40657 247:0.40657 248:0.40657 249:0.40657 250:0.439711 251:0.424899 252:0.425292 253:0.411723 254:0.448827 255:0.416423 256:0.45091 257:0.40657 258:0.416936 259:0.40657 260:0.41469 261:0.40657 262:0.435566 263:0.40657 264:0.40657 265:0.40657 266:0.40657 267:0.421764 
