solver_type L2R_L2LOSS_SVC_DUAL
nr_class 4
label 1 2 3 4
nr_feature 909
bias 1
w
-0.0005009839626629318 -0.00180156855267599 -0.004252056656012833 0.006296431869228588 
0.005578039477072182 -0.001282172118418599 8.99325057645682e-05 0.0002503914811478708 
0.00150718164295493 -0.002614432680858245 0.006899123546915896 -0.001129500895295937 
0.004916894666881376 0.00340347043876222 4.405863484878973e-06 -0.007531242848082964 
-0.001363570888658996 0.001277145173980156 0.001668079967111435 0.001699949908402061 
-0.0002923465912043754 -0.00470487382815802 -0.001582716579971949 0.003201956263933469 
-0.00788456787237574 0.002235296563310615 0.005814063086910278 0.002529061404728632 
0.0003946107889172799 0.001151459000944904 0.005454851956837329 -0.0004024194712579191 
-2.172960651211024e-05 0.003846379810161724 0.00267059300291179 -0.003128755795743204 
-0.002112941335111804 0.001822549383277317 -0.003550088034309974 0.00413527738543802 
-0.003020129435850067 0.005194740464589516 -0.002390570917741013 0.007126183430276204 
-0.001060097822389285 0.00337861034479244 0.003311675445326766 -0.003312545828656252 
0.0004947103108556548 0.003456152809783517 -0.009122138165190053 0.006348771348280821 
-0.0006829019731903685 -7.735484483854474e-05 -6.419254002752617e-05 0.003845696837468291 
0.001470372843932621 -0.0008633350260483082 0.01033496030005347 -0.01160321736841606 
0.0006093909750027353 0.001790626556078209 -0.0007708058081357616 0.001447005885423926 
-0.001723602286484871 -0.000413419823263541 0.002406552511561125 -0.00785745353131845 
0.002590378787592068 0.005360747636376123 -0.004746403707713446 0.00152900016300488 
-0.003621197046618333 0.003715429581405394 -0.004347087857301403 -0.004337484593410297 
-0.001589703798043564 -0.001453966562185136 0.00654241848875532 -0.001512720041303189 
0.006176060991764175 0.002407800231957563 -0.003231052851638062 0.001437006580177997 
0.001660558888179789 -0.004917199219937515 -0.0005412225083365046 -0.005051852722062517 
0.004060568555310839 0.001447492321724293 -0.00416666930244439 0.0059455576162134 
0.004803363899093611 -0.005134024399098019 0.003851199534775158 -0.005281571460720101 
0.001357793713601892 -0.001253312044456031 -0.001104904269903209 0.0006538030639554562 
-0.001105492672137086 -0.006285146725738297 0.01005064853038862 -0.004467859689597768 
0.003959623968746395 0.000891029340672611 -0.002702544939283986 0.004789126873460999 
0.0005934727799040868 -0.0006730033126516061 0.001339725243789179 -0.007776641180694455 
0.005483735952942131 0.002901676073546579 -0.01231066228547048 0.0001406806118330264 
-8.938072755113815e-05 -0.005756733500466819 -0.003788047680769026 0.0003853592883165323 
-0.005705178004950329 -0.005694608700655066 0.004320436477367353 -0.007543714036670738 
-0.006328418130157594 -0.003411360705137046 0.002803300869736164 0.0092160942791416 
-0.003262445429366463 -0.006915867057467507 0.0001398440412043393 0.004134247995799879 
0.0008690127467378198 0.002698912632422056 -0.007932785185339141 0.005729366880421118 
-0.0003576883022562202 -0.003320652903581629 -0.00117874074514911 0.004223975527280021 
0.0002655676977872745 -0.01044442075861888 0.002189656370157773 -0.0001174679253089144 
0.0002659540382384587 -0.0003930408018547433 0.002870426450334631 0.006636512110435237 
-0.001190002729761317 -0.003949406611331406 -0.002468557312971344 3.850572283290165e-05 
-0.000188695656157111 -0.0005366414325588831 -0.004923219218199612 0.002765397804546566 
0.001291306935657321 0.0006637899884780473 -0.004179861894325546 0.0006441807456317282 
0.006340011893418084 0.00169848431355295 -0.003586375629641293 -0.0005311032158488946 
0.005561830026813523 0.001379146476502875 -0.0005953247748990882 -0.00317482767811235 
-0.0007138450327519551 0.00337451262018378 0.004136113386522647 0.002390811033505719 
-0.0001236720967561057 0.004435035624696985 0.002051136402687872 -0.007360677738576613 
-0.001719851554773382 0.0007816524861179075 -0.002943100778406353 0.007050584757514447 
0.002922944290511664 0.003622512382678061 -0.002602164197868407 0.002954816517759824 
0.005466125336126066 -0.0034323685044938 0.004612463748623404 -0.004727297919284346 
-0.0001198796284696082 -0.007140098688567189 -0.0005471695235861755 0.003822717625403004 
0.004663954383332163 0.002181071779697536 -0.003517148713422008 0.001681056911506652 
0.006358218968864908 0.0008535854794455932 -0.007709118794868362 0.002726200788743167 
0.002055401622427178 0.003736761227279071 -0.003512889795118243 0.001959120761868403 
0.004181125726254908 -0.001653657862459839 -0.01061309901262838 0.002891332787288364 
0.006098676415273497 0.001675766934685898 -0.01779062107690593 0.002349465407711397 
-0.0002152208100667696 -0.0003822878156606589 -0.01191785712096988 -0.004040805433445379 
-0.002267215478567564 0.005391729955226299 -0.003597960080909236 -0.003976932513520717 
0.0009834214027078828 0.0005241693357812514 0.004076040439193632 -0.004138049712831392 
-0.003636719041154374 -0.0005782035965372542 0.01313315346069705 -0.01498275849245865 
-0.002459344911259864 -0.0007615751250314331 0.007914082956323837 -0.003521092435038052 
0.003690578799916344 0.004796459484656838 -0.002026617071884751 -0.003791814897413389 
0.00580862931996954 -0.005123459406894315 -0.00329615415998146 0.003259046842316352 
0.002298894383347972 0.005925058496807146 -0.002853166437785235 -0.005385682298511681 
0.002630432293645338 -6.873527433920081e-05 -0.003209458977090252 -0.006084570386970739 
0.001587436633877038 0.003382326649985391 -0.005817889589453882 -0.004744354998447588 
0.002604102538549659 0.002661750887752387 -0.003563133933759719 -0.005897620571240005 
0.002636684619727904 -0.001598098450623077 -0.001267571882648514 -0.007576256368569565 
-0.003795358172284036 0.002245562604468091 -0.00169305538819799 -0.006132696418681322 
0.0003794666463314216 -0.002076497801836019 0.003227802535281058 -0.003442961184566968 
0.0009723385942565657 -0.00126460925244662 0.006837191267716372 -0.004314897644657216 
0.0006403418276723042 -0.004405221363987945 0.01019904926236455 -0.002516819142963871 
0.003817424799359421 0.005420013386953857 -0.004450896898153226 -0.002525314521121508 
0.003000766024788652 0.002026304537538868 -0.0002953810392474849 0.002456111437945593 
0.003119145888653455 0.0004492900578508455 -0.003645586893744034 0.007041635290358139 
0.007184773906158657 0.01217926871065888 -0.01157067284375462 0.002179886478166466 
0.004033942726147348 0.00397151444102061 -0.0004486107952284487 -0.001359643915061928 
0.003690939479250106 0.004829926846781053 -0.006936165369488064 0.0011564252765175 
0.0004977957323657359 0.004458645732094478 -0.005468841488571155 0.003854828739981129 
0.004829676138364317 0.00322554518310493 -0.00873232793150853 0.002248750471790308 
0.00434320434869538 0.003889787463553416 -0.008178510534528529 0.001018448072374936 
-0.003400919686522885 0.003339634172843895 0.003753822299663362 -0.001806549709774446 
-0.001373979718569394 -0.004356058845884658 0.006547912964696584 -0.0009678360898500576 
0.004437479445575563 -0.001246646020433924 -0.0005014257621311168 0.00204563758600845 
0.002599971864452304 -0.0001212486550069156 0.003401783263548988 -0.0007391894644261902 
0.002363056407999864 0.002930771025145021 -0.005722650853556351 0.001207652577304212 
-0.0003434716870800204 -0.000406472802472976 0.005895548058189545 -0.003074384882797909 
0.002033091412778373 0.001185058390397871 2.914951149200451e-05 -0.004568270200675934 
0.006731697235654294 0.006355232492013084 -0.006004066169447935 0.001190226372709947 
0.001050456966222505 0.004040247467615102 0.0009266206080485112 -0.004280507676970099 
1.164837042761392e-05 5.898647391658483e-05 0.0003030285159017384 -0.002730588571226164 
0.001161314542298793 0.0009579470257303377 0.0005738145299401604 -0.002498487214876909 
0.001629395109858643 -0.006020767546368303 0.01636800135226518 -0.010103033455816 
0.002101608737116006 0.0002879308356037896 0.005620070920583881 -0.006030286661605461 
0.008210094924791453 0.006483828839266867 -0.0007684958465456506 -0.006212571246748747 
0.00246442333535609 0.005741307182700786 0.006411822867585047 -0.01186281348042229 
0.003014087957019371 0.001973115076148732 -0.0004822515364684887 -0.009570194225064265 
0.006308070803615832 -0.001979297213758605 0.00083981090536582 -0.01067522546155568 
0.004917526512646994 -0.0009156615455305447 0.003995482058803757 -0.007332072570263204 
0.004520748325447794 -1.589638405364678e-05 -0.007436797297657043 0.001398342039071789 
0.001710478970720195 -0.0008013326766200522 0.005014905365623087 0.0008554305240917011 
0.004637186049016662 0.001662493808385645 -0.002671157269609041 -0.002509226311814443 
0.0015548751040554 0.002917954152376395 0.0007764521172522566 -0.001680887918843021 
-0.0001479775008126665 0.001794858689353623 0.001958050592480081 0.002813941934103 
0.008903890056041074 0.007822134537695587 -0.01234946776413398 0.003241093513688959 
0.00270648415124752 0.004707281699485439 -0.002356500013156213 -0.001275122402557966 
0.001247046695454423 0.004751734658982307 -0.003263314976813589 0.004644249929257777 
0.004094889800569919 -0.005064416424683028 0.001524345817050426 -0.00119184535669523 
0.002702511732887577 -0.003646416757622684 0.00620526442435798 -0.005304011240010744 
0.001914807862365754 -0.0008662246853005882 -0.005612964604820702 -0.000839158940592689 
0.003836072148614665 -0.003695939500666884 0.002911419259804573 -0.004167097344714855 
0.003831189781045081 0.0006702002833724209 -0.0008136821563887259 -0.001165294484875678 
0.004359087434081906 0.004792397111501479 0.001963855268796307 -0.01104201485710995 
-0.001843456521950504 0.001844285169024615 0.00284166968275858 -0.001141005153237885 
0.000776392189896065 -0.002746331848818309 0.002683209596222966 -0.004841180680467172 
0.002910950176681421 0.004391082811320272 -0.002304525320139655 -0.006951703728389613 
-0.00356625064619698 0.0002302471166836916 -0.005140403818831561 0.0004036045952608234 
-0.001640037763775176 0.0005245805678222094 -0.0003384029753117949 -0.00320691892652875 
0.004403465490080245 -0.002469573321573171 5.653528588298356e-05 -0.001069833730467506 
-0.002194629642777485 -0.003233200847701595 -0.001792375527700388 0.003815787422512993 
2.017531860005614e-05 -0.005264815950216262 -0.00354383566010079 0.003748016380168127 
0.005158843343214598 0.001502481855715145 -0.003738911631503911 -0.007444814073206955 
0.001073571960879435 -9.231544152013604e-05 -0.006045343829270597 0.0005749229942660718 
0.001540760620868367 -0.0002750321808001908 -0.001465732387252267 -0.0004452927051453974 
0.005839299905738305 0.007160956673540431 -0.004152803544099709 -0.002410230595502215 
0.0009808533419267569 -0.001214319988168894 -0.006171604753479843 0.003516245816048738 
-0.003056999789026721 0.003686898701096786 -0.001162209551015152 0.00238991133639771 
-0.001384451652199219 0.004583647502624001 4.392740983998831e-05 -6.45906936747332e-05 
0.000188578501781904 -0.00155276711605453 -0.00322126597452851 0.003378382755175285 
0.0006369490318682559 -0.006046407851517809 0.006056408962146395 0.001185226531614493 
-0.004381768641275284 0.002947565304043522 -0.002505638245205291 0.002566769292336204 
0.004673761594467256 0.004786990962341475 -0.01271610148575196 0.001474027433336172 
-0.0006992437697629724 -0.00959702379054346 0.01034200285974358 -0.002902370117661833 
0.0001721643940704608 0.003379147481721806 -0.003131500355530345 -0.001409396482907491 
0.001834638469248367 -0.003196125990224135 0.007906447074437249 0.001245093846033973 
0.001564651119068362 0.00194246590617161 -0.001952930237864232 -0.0005555354104452686 
0.0009396809339955528 -0.002562345373827085 -0.0067656125927819 0.007788248935607954 
-0.0038869830333515 0.004114087115877809 -0.004041460604232877 0.0002713540515745496 
-0.001354869885939186 0.003786364617200119 -0.0005282211426297713 0.0009409298724542567 
0.002273425571728721 0.009222810002826261 -0.005732297995409217 -0.002296266316703098 
0.002958118816478972 0.007802975169585365 -0.004789910512933652 -0.003778343902554791 
-0.0002307356009264315 0.0009564244343315318 -0.002119667856804248 0.005620055364216573 
-0.002588226737014713 -0.001774162097921147 0.003825363331244515 -0.008544015272719682 
0.00657148578516281 -0.003721900197705832 0.002330851566109719 -0.001761643492175053 
0.002573884384634957 0.003283344343508134 -0.005194082193518678 -0.006746294003159323 
0.002209786586467757 0.00371191396704804 -0.003821607965389856 -0.01121200324186926 
0.001351978594002701 0.0005987862660242709 0.0018821167594609 -0.006252821533915607 
-0.001776669587456383 -0.01317416588573959 0.003110520842649304 0.009128216396451385 
0.003884260862358915 -0.001147103864663969 -0.005060958010321993 -0.003835990967410057 
-0.001277669061013059 -0.0001080709169237495 -0.004900727343168293 -0.003164466791991232 
-0.001713533238727005 6.350044508420797e-05 0.007582603881826952 -0.001704521809083536 
0.004790435734069323 0.007257574313403979 -0.002388835900667857 -0.003246250967905246 
0.004276011652641849 0.001648559703793458 -0.002421394566117726 -0.0006651663025900335 
0.000516255399121496 -0.007458513399460021 0.006288110060801548 -0.007943133254093768 
0.003118757966005463 0.003587507619248264 0.003680298532322059 -0.005112658863665322 
0.0006092307965124348 0.004773883746930201 -0.0004832045272891517 -0.0001001573483005892 
-0.0003487058639269589 0.003420975849322606 0.001560749856139493 -0.003920294528846981 
0.001214569289481923 0.002638671271157224 0.007020334954114919 -0.001191725061734419 
0.002516588803164252 0.001988625184711664 -0.004680177072400727 0.003503604038688355 
0.007208403706450533 -0.003037557410101196 0.005498686059782987 -0.007015520093283236 
-0.001277542778315474 0.0001330736361989968 0.001883581747362514 0.005595049071609935 
0.006885332845841283 -0.002818459480841918 0.0007925232011658538 -0.004687341560016132 
-0.00386950718531835 0.004182153301054374 -0.00309681506505587 -0.001195538156170833 
-3.58228589017235e-05 0.002304596572084418 -0.008826676750259964 0.001884582152100936 
0.005893845585583371 0.001760989960714374 -0.01213264529599067 0.003637118665524867 
-0.002217065231048856 -0.002280380250029635 -0.0009269704616895618 0.001538316706976978 
0.004099588053931322 0.003337642178758921 -0.006953959777214271 0.003148882279549413 
0.004651070053581785 -0.001696662361588111 0.009194998622946298 0.001461710367608917 
0.001802256617213804 0.00294757013741458 -0.005651711679706897 -0.0005736205287275475 
-0.0002543795396076765 -5.525126833993591e-05 -0.002021210928793038 -0.002443851242259197 
0.003759711381745005 -0.003035249754635296 -0.00231039061156951 -0.001290117930299879 
-0.001936487211770203 -0.003790530761673214 -0.005494689800449637 0.007663667612717071 
-0.0008483543680142229 0.001209292352976808 -0.003107783953258782 0.0007140121825489317 
7.75872424316544e-05 -0.008571230586756814 0.009926312585636447 0.004577902838508106 
0.004671369153712039 0.001007957431058387 -0.002476310067095268 0.001752535903627002 
0.001063105527339922 -0.004211713459306398 0.006800895467602259 -0.00376021977208559 
0.003210824174270165 0.006749808524865127 -0.002936809271069625 -0.001820312965442939 
0.0004965946997005167 -0.01066944490730948 0.007235761910947336 0.001143649690996283 
0.005014145002080838 0.001100470721384388 -0.006929652846078044 -0.007479985320414604 
0.002715543117846785 0.005552280900187419 -0.001976418793011791 0.002211427626344871 
-0.0006957344511743257 0.008751126371144795 -0.005811884661179715 0.003587126304929833 
6.173935756022654e-05 0.005125317512819409 -0.004255450539302783 0.005107053292330898 
0.0002096992623298332 -0.001541692435548894 0.006531724044113647 -0.0008954995926660494 
-0.007981312922565513 -0.003113014111896832 0.003466196065812121 0.003699027194941174 
0.00196425962697075 0.0009165055547357406 -0.001361046372218261 0.004689739398709073 
7.940394272730477e-05 -0.002870956425268193 -0.00770012802274187 -0.003814273035075397 
7.658694061526375e-05 -0.008967358255824183 0.008765129243596161 -0.0003758060768073873 
-0.002930630480127356 0.003692352949788891 -0.001420022609511653 -0.0002542757118904511 
0.006941473193420322 0.003023123503781947 -0.01143442140983014 -0.00476464528570458 
0.004047967088423409 -0.00684018138955248 -0.003825056057617523 0.005944791944421321 
0.009283598530487092 0.0001107885940735562 -0.007700496599451982 -0.004640463788429453 
0.007590845530152318 0.006242789492277065 -0.01584626915718386 -0.002521546992888428 
-0.00275665143230898 -0.002711883851825921 -0.0193254271673131 0.00284651638149366 
0.0008302737134020691 -0.01110105473717278 0.007094295335458765 -0.001954926263141869 
-0.003832580546790123 -0.009601371851630819 0.008772697731695712 -0.002067165375009245 
0.008891127189328657 -0.0007362069305219313 0.005678786339928403 -0.0007552271320368581 
-0.0004280555790454557 -0.009453411591096172 0.01109317305259139 0.002597444079476979 
0.006872332602059191 -0.003550139859617204 0.005809181649739391 -0.006935333093666551 
0.005905013456513949 0.006754667618953101 -0.004624749206140628 -0.001120264114670503 
-0.0009164118532990201 0.003466688964005891 -0.001926705167874322 -0.001376705743369928 
0.0009427734411558441 0.004364549970436836 -0.003782124555399189 0.0002366793700914447 
0.0002230324946706581 0.0002702792626627704 0.0002386354333163369 -0.0005880080238766097 
0.0003927070313256015 -0.003484382415882213 0.002449659923783471 -0.007526645389320685 
-0.004769761863924211 -0.001149729167239541 0.006238628693981089 -0.00753267598643218 
-0.005756269633901825 -0.004981835917980439 0.002456361896174807 -0.001604089222348468 
-0.001221101732740524 0.002223712965942086 -0.001724333610748518 -0.0007331825247509406 
-0.00570299334882324 -0.001170374869044582 -0.0005569906239952315 -0.006399314963930915 
0.006462428044696789 0.0007938557382643671 0.002394636141564371 -0.002287885239539006 
0.005921117912333777 -0.004377406911792859 -0.007216465208541016 0.007455191133031619 
-0.0005136921791797208 0.001233352775102779 0.001046485514772588 -0.005683835376356465 
0.002594365989805196 -0.006030793987690021 0.01058542926894193 -0.006088597350081382 
0.001161336587270772 -0.002302603252842138 0.009994148382625457 -0.00742070619533316 
-0.002279524560965205 -0.004783819375665331 0.005188919324473133 -0.001364240984747499 
-0.0002701587975461449 -0.0005366353306881182 0.001863138637161793 -0.000639805243691472 
0.0007543962536103738 0.002668069703155395 -0.00576876227583312 0.004300971814275838 
0.002907989844719234 -0.001882103036763306 0.004519659452038623 -0.006597312015434406 
0.004704899854236184 0.004829884341251182 0.001404772529885154 -0.001926973069292125 
0.003754469110449771 0.003608705954039335 -0.002080653891885987 0.0002575963078609552 
0.001155359384548481 -0.001115574193519272 0.0002975988885565484 0.003315231633217259 
0.0003174890181644344 0.003847486376394785 -0.001602432370229898 5.033945703541971e-05 
0.006261263857242849 -0.009046247413990238 0.009792364611450379 -0.005576329239146467 
0.003695428024038926 0.00669193885814021 -0.004014281632050064 0.002854045441656189 
0.006203714581409597 0.00233301106510457 -0.007700853856315659 0.002736398341973856 
0.00361435749450371 0.004652174308097563 -0.007129327660620592 0.0026205420760312 
0.005016876479279148 0.004478244133532584 -0.004739610510650628 0.002633320875050374 
0.001926487726419773 -0.01076510554159699 0.01339596174628168 -0.007406956324080386 
0.005557030255200483 -0.01215232647351604 0.004534042505372583 0.006409078286011176 
-0.002031826301308656 0.002231640000021214 -0.0002897758489941043 0.005619138460099712 
0.003794552239572781 -0.01004012419160059 0.005801726824892191 0.0006872164038112897 
0.005316405325641162 0.004809405129516371 -0.01068477642348547 0.001754867245832851 
0.002879771918241202 0.0006938732474153895 -0.001357899383401949 -0.004972753316782689 
0.00741006725639103 -0.001912108486511977 -0.005680880882010013 -0.005362862696902315 
0.004875818137003549 -0.0108033650767698 0.007031662120401214 0.004348388950738976 
0.0006293993156447646 -0.00280768565590757 0.006509084091570843 0.004498096846669747 
0.003327053930040192 -0.0009326157187691935 0.001037605412462561 -0.005341304133023932 
0.004247185796992143 -0.002556440161390281 0.00678811638758379 -0.003478563877510017 
0.001333845673895121 0.01053651159194875 -0.01400191377095501 0.002875401942886371 
-0.003541425222868052 -0.00139169483771994 0.008237640442792271 -8.484190550871915e-05 
-0.0007074658661858265 -0.00173186899578475 0.003652288447910959 -0.001934101165969312 
0.001638995043009335 -0.00256039829400306 -0.0001244102978573364 -0.0009057636886513287 
0.002212318827126541 -0.004185589520144322 0.00305367074639216 -0.002247654976513092 
0.0003840801411977723 -0.004233750270166977 0.007734082637406692 -0.0001718423732359445 
0.001011751397777928 0.003498129573797233 -0.01090277171081811 0.001482772445257533 
-0.004017537847640454 0.002485960449244804 -0.007876005123584629 0.006707814776220873 
0.001167526324259304 -0.00114007463413379 -0.005970938219955852 0.00385929390298303 
-0.0005059022244791082 0.0007683659417611459 0.0005048767476473253 -0.000982743920032132 
-0.002021898774989132 0.004598907013352894 -0.001854978367223825 0.0009478681545869656 
9.752275516047185e-05 0.008192915945097788 -0.005721547393081578 -0.001129637011902204 
0.0002558040467992981 0.007420844486625023 -0.009108424346525102 0.000127912274943504 
4.953244122330081e-05 -0.0001701657627811643 0.002942830080543502 -0.003412211487647169 
-0.003700314192351534 0.001552039635446081 -0.003226138680755942 0.002249381036880786 
-0.001894712659638636 0.003731565983719447 0.0006210071116639267 0.003560460668837314 
0.002350545044289321 0.006690696570391931 -6.538974258230945e-05 0.003271155030846185 
0.001296797255590337 0.0003103920814642279 0.0008089846480735087 -0.001284318756380658 
0.00401167882448264 -0.0008580542151093943 -0.003093347138026479 0.00111337189305216 
0.001049722870442097 0.002275505126251562 0.000340660057761171 -0.004897825552129175 
-0.0003394131409821872 0.001693430139439402 -0.001570369875298589 0.002046809393549653 
-0.0001757636143167824 -0.0008482610042145226 -0.0004028260712328351 0.005651872950512354 
-0.002511356246927079 0.002993762926574896 0.008917420019351372 -0.002784036677742755 
0.003531398876367625 0.002937228288470924 -0.0003682081069863591 -0.007077155325542385 
-0.001792506589903084 0.004913201469973135 0.0130959909825828 -0.01014597250294925 
-0.001805692056613446 0.005278500525019318 0.001884770123704601 -0.001946369472024959 
-0.0001734468147524671 0.0004708423088359619 0.004549820146168218 0.001601006561164256 
0.004014329971711191 0.001337570376394709 0.005141834977488188 -0.002586170526632943 
-0.005332027056036003 0.004958004997108569 -0.00339353679689609 0.004481186195520871 
0.0007943985403565994 0.002225525575994177 -0.006291118456424981 -0.00127034837417637 
-0.004759485501028187 -0.003171304226630135 -0.00140362430092899 0.002923139756390932 
-0.00150803507578822 -0.001573077816481853 0.008303033746730857 -0.004104859830999996 
0.001212692773721532 -0.0005555197923495387 -0.005447979201275615 0.003947231830271947 
-0.003933825103161219 -0.004090867481926611 -0.003076751034742135 0.002468634294352004 
-0.003334774464471368 0.001872419154836158 0.0004123414429324182 0.001037659258423328 
-0.00221839040276284 -0.00110919648851098 0.00336997640371469 -0.005729076663298334 
0.004496424588923408 0.001397062651126611 -0.003960781786133937 0.003636628457524314 
0.0001161844065818764 -0.004442564319816079 0.002176222998365501 0.008128391286935543 
0.001727522689616026 0.003451240954042447 -0.001929070043680894 -0.0001484714984584491 
-0.004670241346121967 -0.00422461365276151 0.002261130132078486 0.003981096748917543 
-0.002078982656122286 0.0007220615860485213 0.002714806969910939 0.003821288697037453 
-0.001295646472309983 -0.001159312731211478 -0.006064741048002287 0.00246827305374898 
0.0008400593587058121 0.002008589069475611 0.007564136339202856 -0.001539029174412623 
0.0008327349667827445 0.004060268559422818 -0.003550071244442368 0.00198064171277931 
-0.003255149902745369 -0.001447143557834445 0.001979257392197335 0.004216997446820806 
-0.0003551051815749961 -0.004924013255894429 -0.0003804925907142622 0.004049963411432134 
0.0003855795364600781 -0.006634502981823697 0.003144475329781904 0.005506093734544429 
-0.001752615118062509 -0.003385832509203011 -0.002234637462452926 0.005589393376694567 
-0.002760777798784011 0.001495579680072693 0.00018009843730346 -0.005004245106254209 
-0.001889713870113027 0.01741561545588877 -0.0149569482088849 -0.001786953270880267 
-0.005388297420146663 0.005691504485938608 -0.005627240559447667 -0.005474023825654994 
-0.002571352432016279 -0.003448548862098495 0.007701894523978813 -0.01402306396054411 
-0.00197342226901246 0.006939344047258494 -0.01465949245085213 0.004549900194592048 
-0.0003927894029211631 0.01470460010244935 -0.009488804022501502 -0.008661179166952616 
-0.007182131940396305 0.002676538038728946 0.0005673500286634702 -0.002194756779381898 
-9.864623606686167e-05 0.003320399955506295 -0.006190728134192851 -0.00255783400352467 
-0.005708032160635318 0.0001828687525575796 -0.00030486824936069 -0.001128372631188873 
-0.002649188305180763 0.009578883781676697 -0.01077134036750991 0.006594172337326511 
-0.00323618526829856 0.0139555682394851 -0.0152551716431171 0.001328838475989404 
-0.001115333918650556 -0.0001743854935684293 0.00185512029484555 -0.003353490164967731 
0.005679611664379214 0.008799763278426145 -0.006100509903979937 -0.007427643424722395 
-0.00139356135091324 0.00625920735926421 -0.003007514103471312 -0.003142312211259457 
-0.001125890042601634 -0.0042966799425287 0.008175326427594004 -0.003563921801300228 
-0.001790433125636249 0.007731723061989746 -0.00776310766412578 0.002077725077965303 
0.002565452366397672 -0.0003657015570987731 -0.008351178742395488 0.001790389453905165 
0.003124790040063876 0.0001389883507953585 -0.002291970589464628 -0.004366591843708399 
-0.0007074819451592266 0.002910943412844314 0.00149470583698798 -0.001616517098712063 
0.002181219333779297 0.007269993127371246 -0.005083755756820129 -0.002942873452564802 
0.00302085709699765 0.009947511275383857 -0.001542565833779741 -0.003917003270769377 
0.002112785731111133 0.01267539079587707 -0.007315707468435687 -0.007057721836471454 
0.005563561986953537 -0.001487002601751348 0.001483371783648938 0.003613051694371267 
-0.0004400343993545167 -0.002904111079361645 0.0007469014654459734 0.004832562979640541 
-0.0006275112525552589 0.01438826878288776 -0.01308348212871985 0.0003110113792144522 
0.005247121179390646 0.006208231803547931 -0.000278853240199788 -0.004951013020196497 
-0.001903647604100256 0.003248637152794637 -0.002424504121679944 0.002753092057216315 
0.0005765180931444796 0.004964169806122965 -0.005896713910266257 0.001576375933898752 
-0.0001011218101218166 0.005789521260389043 -0.01036670133650651 0.002175934884085824 
0.0006658896944403423 0.0007879950343037204 -0.005704527623264202 0.00206168498896324 
-0.004633883408107088 -0.004045799428987909 0.01129003968744229 -0.003222687177790716 
-0.003399703949297219 0.01079355852320668 -0.01027070720802516 -0.001116788199724235 
0.0007482770916760046 0.005624940066569101 -0.006930946032354045 -0.0004667268348802154 
0.0006373852075230334 -0.001157202413070273 -0.0004307214856275443 -0.005807476427439691 
-0.004812359975622863 -0.002734358906716246 0.009289362173218539 -0.0004230370021343084 
-0.001487831843246734 0.009236751882854985 -0.008026522219985078 -0.003814508392462841 
0.0008334351838458348 0.001694081034850993 0.0003574011882736792 -0.0003625446405911427 
-0.0007081969575297033 0.003527482211364617 0.00302983655497178 -0.002740426499880943 
0.001003395825245192 0.01145797886957632 0.00135034062738828 -0.003822765890849495 
-0.0008282066352307683 0.003128839377124628 0.00759173925304021 -0.003029862642287199 
0.002445309251347221 4.116454299262687e-05 -0.005024851598040946 0.002873324002056399 
-0.00220383424477157 0.00970015953112926 0.00273335469237353 -0.005395192436587227 
0.003136924134536445 0.004611972698048802 -0.004134830431280298 -0.003375351751111745 
-0.0009405183321851525 -0.002745808995164565 0.01150664346025793 2.200141986176069e-05 
0.004646004061561863 0.003604641312899809 -0.001508796150727242 -0.001465979234515192 
-0.004628636109124081 -0.001334219218138377 -0.00350353499390227 0.0007331855398741684 
-0.004189739735443533 -0.0009343419466064107 0.003104341661307649 -0.002559769176923952 
-0.00436239805289029 -0.0002976200862831497 0.004136275911463999 -0.00179021893200269 
0.0009656623622866401 0.008767035330140302 -0.007819067350232235 -0.00109447961576867 
0.001280041209613339 -0.003600752296423451 0.005379320614801546 -0.00109447961576867 
-0.000800624647019489 -3.359953591151821e-05 0.009942260936419697 -0.002833122195474309 
-0.00366472923745576 0.005428801304973557 -0.002569410914478812 -0.003228017986349982 
0.001979537435382761 0.01455585772118109 -0.01038772256414396 -0.001234228249819709 
-0.002272101181521857 0.008171722419551979 -0.001482318281825258 0.002273803974437508 
0.001278367855277792 -0.00162956923952407 -0.0004370917102081405 -0.004916285839062453 
-0.0004812845376111896 0.002673758619629066 -0.0051977395074155 -0.0001207015897129915 
-0.0009627273971985538 0.0009554937062499462 -0.002119975068984173 0.0005802302867372868 
0.0006325839537858663 -2.223080537163872e-05 0.004463082920853905 0.001563336915766011 
-0.002797879968299612 0.01063164323272112 -0.006284620055670251 -0.005496914359904131 
-0.003290766247496805 -0.0008922817868056282 -0.002719385378952005 -0.003351819541196911 
0.002370098830778022 -0.004468951754583204 -0.005848613714180499 0.007783919471141011 
-0.0005808484898801801 -0.002279815151171447 -0.002048312294101954 -0.000406403668088598 
-0.002276345148802086 -0.007710398542793307 0.006035482503961679 0.0004730575777786445 
-0.00268206772891657 -1.118533275927312e-05 0.006547757994384624 0.001896575939201207 
0.001256275970333457 0.0005736670295044661 0.002415215647546782 -0.002491035537070959 
-0.003406304435220119 0.0006311141403672398 0.000804662361310542 0.001548756808447456 
-0.0007974080238178028 0.002507559422881164 -0.003502160503326167 0.00234797311745363 
-0.002104812610460562 0.006185169705849515 0.003379747856197265 -0.002929734062071984 
-0.002435844912151492 0.0001436652355554267 0.00660093680177854 -0.006367046216887821 
-0.003786886252139869 0.007193934141066999 -0.003189557901809103 0.00390147688121823 
-0.002084306067325132 0.006837310276794976 -0.001332255730162011 -0.002496986313700364 
-0.001879577468380918 0.0005147952362586511 0.008553602906692399 -0.008146307215500196 
-0.001667994868346111 -0.005728158127739685 0.001854917249094359 0.008251645788969336 
0.0003661183464342633 -0.0005373631051877716 -0.0002336992139740614 0.004176553302280884 
-0.0002239984177815793 -0.004272384264206265 0.009798040209996054 -0.005723016179204658 
0.003227589223677624 -0.003705964523444137 -0.006158695926515542 0.004928107078216079 
0.002814575760921075 -0.00677005379233061 0.005362647995183025 0.001627023919656027 
0.001659370524746801 -0.005587369824884073 0.01027697764635864 -0.0003174674497483104 
0.002601060591423116 -0.004384346356849223 -0.006673197201829156 8.006013658636511e-06 
-0.00147817796751138 0.00134676237572651 -0.001175879275321921 -0.005589540766084477 
0.001340834522466372 0.001141828788418052 -0.00622505936306457 0.002029372951037784 
0.0027614362853271 0.004780036842540714 -0.003651950045423485 -0.007361250224389188 
0.003411068066936323 0.009755443543763656 -0.01328913904226156 -0.005675718784268723 
-0.0002423073215451923 -0.006977409747369396 0.01426059731520614 -0.006466112917812056 
0.005155348306633296 0.001799973470643137 0.00332957096313872 -0.006573340465507995 
0.004839934846839763 -4.436394026072602e-05 -0.001256143260251301 -0.005571622038561063 
-0.001629290007239105 0.008914250882202846 -0.01017000534082203 -0.001738154982794927 
0.001955960023531175 0.006248073021455974 -0.007577245136510103 -0.007007351430494692 
0.004468844423223438 0.01036610108646818 -0.01607404038862902 -0.0009940016399594214 
0.001115915087767987 0.008134777456855919 -0.007447309688153446 -0.004617075538384541 
-0.003641451436731306 0.000940947320047876 -0.002402450771683151 -0.004338296235368446 
-0.001134209789677611 0.004262599000272878 -0.01178581622260339 -0.004119942023704785 
-0.00389555228622455 -0.0004081673466951485 -0.0003137944288167524 0.008291228057162965 
-0.0004422690112964521 -0.00472713995415905 0.00403360451628025 -0.01074354198789268 
-0.002719688122005828 -0.001366990814964858 0.007354810751850081 -0.002543242995720745 
0.000279123104300913 0.006470724629695168 0.0003692448797002592 -0.004969353802772195 
-0.0005616708514824432 -0.002116513415965501 0.0007583615496941426 0.0001108028420823135 
0.0002549485587969653 0.008633627936637345 -0.002163196056862891 -0.004675023975730636 
-0.0003606995641588452 0.005389925471598843 -0.0007461790662317581 0.0004876650966090882 
0.003182477653641358 0.00309588259370056 -0.0004053689915973097 -0.003883817031848614 
0.004417091642778095 -0.004134267166359961 0.009961270291087888 -0.002664421093480336 
0.00486237205243497 0.002038811354162446 0.0003205978322775053 0.0008861655883771173 
0.004490814555178667 0.005086656550665437 -0.008690770032091904 -0.00169372294520956 
-0.0006065748605620375 0.0004828206176732603 0.008450567257778593 -0.004178506732977864 
-0.001273602133327618 -0.001438393260728845 0.004048905047850845 -0.0008669870006169916 
0.001266758245127101 0.006388014590198171 -0.009909451272225023 0.004817217432838907 
-0.00167786962035269 0.001080576094188492 -0.002101949021042149 0.001400279707303474 
0.0004295826880306361 0.004495411474348446 -0.00122962997015986 -9.461682483690865e-07 
-0.003294385639770213 0.00801134995343504 -0.005436067899249213 0.005274178385279649 
0.0024551722319419 0.002786752362421814 -0.006037976717990267 -0.0001861681518589457 
0.004102112038990723 0.01075541470912294 -0.00752301901551571 -0.003573327139065061 
0.0005377911207208125 -0.000640958722230903 -0.009565825046330804 0.004226227551989472 
0.004766064576573878 0.009979618864325732 -0.00900491954747662 -0.002221262233167425 
0.003888138592248599 0.002339998386294965 0.001890344378920868 -0.003762602562385643 
0.005217241631313097 -0.0003158665021276463 0.002523058026932904 -0.005169091598948825 
-5.564452465206835e-06 -0.005011444566410037 0.007905548694163515 -0.003456147505100946 
0.0009439504507555106 -0.003796761415792929 0.00303863019313481 0.001663743069167596 
0.002796567006626531 -0.001324092352262664 0.005780689502488495 -0.0003265994423282117 
-0.0006302443301643895 0.003622309241161034 -0.0007757744852347814 -0.005363601665390717 
-0.001279771586168038 0.001712490522163466 -0.0006283065730976373 -0.004806872323530362 
0.001166825127075437 -0.002683121323850616 0.003423477758233727 -0.001282536570872697 
0.0002013574767178545 0.0007311741248787851 -0.006269788901045503 -0.0007377917158248626 
-0.004211683023199052 -0.000874604202608584 -0.004126087430745678 -0.0003196330738503152 
-0.0008561429266596855 0.003150658182505825 0.002726764174943175 -0.006738196020968627 
0.002391702809626265 0.008682283388877238 -0.01525472710070912 -0.001309119262678192 
-0.00114724242937843 0.001065138222748931 0.0007118013552409922 -0.0008153369758813173 
0.001370096580366397 0.008320307324355725 -0.01225032658950616 -0.001869436357793501 
-0.004633235346033221 -0.003182315130395047 0.008810485901867421 -0.003017231350515587 
-0.002373669494138424 0.002121897797905744 0.002907417744431075 0.005095724510525809 
0.001537611263586202 0.00421835235066766 -0.004863452226894808 0.001952722612340867 
0.00585372904390808 0.008007949973915227 -0.002031846862710034 -0.00361070434844225 
0.001723448291532014 0.002478742445197939 0.002489171317839862 -0.00251238372561495 
0.00139445460973557 0.0021760475489805 -0.005071564132005969 -0.001875404226840571 
-0.002888037256114993 0.0002587990537571404 0.01135546483778829 -0.006188698390794763 
0.006602806497406886 0.002393307387135732 0.002519733473706035 -0.003987096304673038 
0.003331378111123417 -0.001738419647767528 0.001946240329412788 -0.003560246228139788 
-0.004203520572661566 -0.00548811590295462 0.008247013593777327 -0.00152681952215033 
-0.001079753051083655 0.005169251830634296 -0.006870566015460614 0.007106622375198702 
-0.003976999050197009 0.01586014124061529 -0.005092719161753817 0.003008478020683507 
-0.003160635023666578 -0.0002000323457650812 0.008771381390830429 -0.00225764355320596 
-0.003287194050028591 0.004331667756857368 -0.004400175172516194 0.003906140370699748 
-0.00228454959171107 0.001620905344150061 -0.001797912289908722 0.003606883187531258 
-0.004630661325746727 0.0003623959709626725 -8.711243412492054e-05 0.001652740929138829 
-0.001090546239572683 0.004887714530200296 0.003653274615325069 -0.002047901923033945 
0.001517170224404985 -0.004117182862042301 0.00181698564525354 -0.00885702319192031 
0.00603121504078722 -0.004524951959123028 -0.007790328629821211 0.00217020642838209 
0.002734256082583877 0.006055196171441575 -0.003856675091954702 0.001000186765733834 
0.0006401966354832965 -0.0003525180626179548 -0.004987546058370607 -0.001780197593898531 
0.003507303647257502 0.00213649729795221 0.003503990672861291 -0.009720460286958816 
-0.001030365756802057 0.001538906067014813 0.002378071088862863 -0.004511033514882732 
0.0004196262073886672 -0.001239383270930177 0.002449887650651386 -0.0007143022353115669 
-0.0004914460828608778 0.009350314071915332 0.007672739998441638 -0.006832452592368772 
-0.0007180684876408312 -0.003714697727836192 -0.0003678258035390886 0.00381338402429125 
-0.004451271430419829 0.003680050736909795 -0.0004643459791026633 0.003491524589946962 
-0.000847938755009938 0.002160586617573458 -0.003475052656521029 -0.001146117430778403 
0.003200908492250592 0.001987085035242758 0.0006452789376707271 0.0005753590627956268 
0.002549342780296671 0.004595102428904941 0.003826559587269888 0.001512429127882491 
0.003778093361823058 0.002095820155640026 -0.007443227470653193 0.001515898866892586 
-0.001703153242636013 0.002575036523180177 0.005845255451544894 0.0007349569173103706 
-0.001023138681826427 0.00207992871560426 -0.00332550511346837 0.00274999409441798 
0.0006891170128804125 -0.005840500414979331 -0.00333337948158425 0.007912595334993664 
0.003647378861091234 -0.002592422802722965 0.002000816201647178 -0.001898780442377997 
0.002150799902283474 -0.001437039132217714 0.003820371718518054 0.001971922602869615 
0.000450247938333119 0.004067608059572466 0.004989067501065597 -0.001119054705106373 
-0.002056874740243707 0.001231270452139123 0.005659323824629585 -0.004206753668525747 
0.001964818711237698 -0.0007849402057700238 0.004984331771017899 -0.003797503220170397 
0.004763837121656944 0.001316281696721135 0.006825880980356636 -0.007222698566480271 
-0.0005162834406448786 -0.0002556646309760877 -0.004984865434954975 0.002744845754614574 
-0.000870900483663371 0.006526502642502536 -0.00181026386000124 0.0005200845008449295 
-0.003671941560085804 0.006288418575403503 -0.004197591638228922 8.097500693578345e-05 
0.001020488406046117 -7.62692215600623e-06 -0.009896280609332789 0.000747950130503105 
-0.002563563441494471 -0.0006493896174027065 0.003358169407069196 -0.0005723813986367725 
0.0006299421510120993 -0.0008064169001458568 -0.004025794664992643 0.0003767855433381021 
-0.0007532072284144167 0.001165811822824347 -0.008212425973768051 0.004282086582142157 
-0.000957655389416162 0.001788791639357607 -0.004742067853243315 -0.00135598462178391 
-0.004763017275311333 0.004678806987722366 -0.006272340768788397 0.003413801524356017 
0.001890973552022782 0.0007590724437309865 -0.003894933907075704 0.002457210687294473 
-0.001471226627480312 0.02650570063145127 -0.02564759070871728 -0.007871646022747038 
-0.002224811917467914 0.003247122018367576 -0.001472810809247688 0.001237192322862707 
-0.005374271913118953 0.001979747449708035 0.009008984559184755 -0.00387567875955094 
-0.003859884654986703 -0.000202170744188236 -0.005066679071774919 0.003728925220059029 
-0.00356127357410301 -0.003897888285729408 0.004965102206628145 0.003513506852308356 
0.001325989582806469 -0.00248476509403423 -0.0010596127046897 0.00132322879322725 
0.001453644711320507 0.004519019497359569 -0.004794155312803548 -0.00165919837087151 
0.003169514973499711 -0.01352221141369276 0.01806111915139233 -0.004460979242849228 
0.001489719601434293 -0.005424489500339803 0.01097218177178383 -0.001281758879131673 
0.001618087819575447 -0.00416249026326855 0.003793617241127111 -0.002032440583076812 
0.0004524020155642426 -0.009162090828011437 0.01468529941263829 -0.00159119188674079 
-0.003508642780060081 -0.009019045169309703 0.006418006376172848 -0.0007166865419723709 
0.0006220047254691907 -0.003844207163121223 0.01097687026522646 -0.002077938745228707 
0.001676118609586877 -0.008900476849305894 0.009623780356666237 0.0005061507787905465 
0.0009917645526147953 -0.001104615569409505 0.009039837970466067 -0.002870640931565564 
0.002031621746107722 -0.008765797346609427 0.01013834967742356 0.0006241955604642153 
-0.0005063333583867619 0.001641423247126216 0.0149166777666157 -0.002340255022841544 
-0.001031197379393283 0.001125268659550096 0.004685460031891863 -0.001238078023470638 
8.3156133823333e-05 -0.005156072561299274 -0.001852258749876473 0.003059876457356094 
0.0003527134626832887 0.002285131628496844 -0.0004049237512791104 0.0009965699867747406 
-0.00670645990330502 -0.004944023978249485 0.003795910625623278 0.002177324366472294 
-0.00578878362552267 -0.0003664524280848134 0.006022388820060521 0.000998988850297497 
0.003927271631442474 -0.001984776601009353 0.004796165559352607 -0.006034637016003043 
-0.0003637192046041859 -0.01097890835031066 0.01456607414303069 -0.005543805253898791 
-0.0001269280508658811 0.004455776439214269 0.0003945631974071232 0.0030089506757217 
-0.0009332351188064804 0.01246086247380799 -0.01164101807961909 -0.0001715837797733721 
-0.000187990151040889 0.005549363172445481 -0.01046511604992412 -0.000210783796616229 
-0.001283181771298739 0.009846135474481117 -0.01224460974842929 -0.002779534992810031 
0.006346478178866067 0.002410251296260634 0.002139615568575677 -0.001985006667531102 
0.001992729888089472 0.007710621644045105 0.002477463545062479 -0.00479258998600081 
-0.002009864953067025 -0.001049108191267474 0.01291186934798577 -0.004865243643402033 
-0.0004906099285914242 0.002518088134503405 -0.0005948933523792659 0.0002840352791621476 
0.0001390104767329072 0.0003240765745345023 0.009754899627415662 -0.003899054398908121 
0.003520559361938473 0.005064148655381771 0.001784705829342376 -0.00359488587061747 
0.001522290939701148 -0.008613439763833421 0.01840418917991284 -0.003088018489083779 
0.005383756969636629 -0.004542276835492592 0.01743930231750579 -0.004036517176480483 
-0.002754745250885769 0.0002675937298931024 0.01388153196718537 -0.008405898927138153 
-0.0006416006928834331 -0.002906421533177695 0.004665336476114243 -0.001720282364256765 
-0.004472877102083457 0.0003550378910666255 -0.01197418401060348 0.0006502387242390405 
-0.001895860309585677 -0.001743995316482291 0.007934300762140018 0.0009675371117252366 
0.0003294798379050435 -0.002755318772451706 0.004876507024055774 -0.003157773983408124 
-0.0001674421457319499 -0.002767776084354434 0.0003070944457902844 0.0006033602983379563 
-0.0004252654607579202 -0.0008983199190290468 -0.007960330178123785 -0.0006496868270173087 
0.0005760302969075762 0.005330186647615222 -0.0108366403739157 -0.0004401028716137576 
0.001326813845022157 -0.004989130903767856 0.002840722175386601 -0.0006028386903394023 
-0.0006166358356454902 -0.002746341818479897 0.0005683038633648511 -0.001787990453270537 
0.004243643949415382 0.003253744138563263 -0.0008044967162083268 0.0005066311687996328 
0.00314915615533064 0.001721912497657141 -0.01060887713325056 0.0007457173613101994 
-0.0002278715420370562 -0.005362459971365369 0.005783316959598109 -0.0004887803706202441 
-0.007296774473022307 -0.00878637823719915 0.01924805544763305 0.002970115609279676 
-0.004363379085501573 -0.01451805968495154 0.005586973396422786 0.003778646282781272 
0.002302184316209616 4.996076916516156e-06 0.003919450182145437 -0.004960713408819635 
-0.006629038603073805 -0.0040468302521019 -0.0005239608527614824 0.001753245128945184 
-0.003905968394163943 -0.01243291234609373 0.008963178955839753 -0.006816798583958598 
-4.761085071497097e-05 -0.002647742280379256 -0.0005261347327358954 0.006577626246100805 
-0.003585194065101313 -0.002102863955894938 -0.001147804839138474 -0.0007278873575626454 
0.002304574423761128 -0.002733829059061231 0.01718640492670848 -0.004728821202739673 
0.004238548529348646 -0.005905732732980798 0.001808416778130899 -0.002782656095612828 
-0.002954852173747404 -0.006842312052843825 0.008877298140881857 0.001278925154260735 
-0.0001407257237144378 -0.006023186207958726 -0.009516808051266585 0.01059124474311746 
-0.001374944238058663 -0.008392047071932744 -0.006499176061152948 0.007038950839461711 
0.0003476275865436496 -0.006421586354803655 -0.005079180595862104 0.00504034701765893 
-0.002126756682581272 -0.008133892087929532 0.0001390331155180052 0.004871265027538851 
-0.002968627168172457 -0.002830163874771229 -0.001558921817415513 0.001178491616525273 
2.360339125721963e-05 0.003639053091940982 -0.008613780846366581 0.004283142872841442 
-0.002103961631189363 0.001467412041592304 -0.003219277059328769 0.006263842879378863 
-0.001576886185027405 -0.00268511737486522 0.0004262625918971927 0.002961556276236466 
-0.0002889913756440539 -0.001875252045311798 -0.001821964335604553 0.001297057787861307 
0.0004202560018297936 0.002851856777984413 -0.001666443967344718 0.0005429850835137962 
0.0007731418981040615 -0.004117439034262853 0.002629818088803254 0.001773666765046946 
0.003907421400887708 0.002434991026214405 -0.007310890960326479 0.002130959023766917 
0.006170779593974267 0.003062144576515889 -0.005862803085114614 0.002534551607466422 
0.0003182839124221166 -0.006625821038014636 0.007435765685004055 0.0003160857762264536 
0.001879206281536785 -0.006802255717763661 0.002926293547722902 0.003270657692753118 
0.004095173375992659 -0.001846360786026137 0.005525530589396943 -0.001392128107756038 
-0.002337478069222761 0.00519742534556405 -0.01481364985953415 0.0003837102977437701 
-0.003288054178439365 0.001629261426678555 -0.01429033903796333 0.0005508668724737547 
-0.00622011490934831 -0.005298446385970148 0.0008911687100966199 -0.003726344621298864 
-0.005177811259894317 -0.001783691135555223 0.006343825307129367 -0.006047973096599457 
-0.001222470361578108 0.006084623898621184 -0.002580906215069667 -0.006444307836038067 
-0.004341768978495255 0.003157220968935476 -0.002431023148398425 -0.001908802093126346 
-0.002642740681011973 0.008336868000126176 0.01245300741645887 -0.01575214327093988 
-0.005730318909928603 0.01004394118496074 -0.01335922126688724 0.001571465488704811 
-0.004656417915629411 -0.003022660735181685 0.003366718159823582 0.001686478390629245 
0.002511507996984473 -0.006474198209824786 0.00972007445017393 0.002882578028047695 
0.006902705154662848 0.005042110831927183 0.00231747708266206 0.003821398260342988 
0.002198593668317241 0.002039562850732022 0.003310894149075831 0.001542974500048812 
-0.0001365768507224813 -0.006509776956556005 0.009005909197267063 6.468597088348784e-05 
0.004301495114225842 0.005646019984951194 -0.00127685247816168 -0.005041705815928469 
-0.00268110742229019 -0.01521145465919048 0.008964893571912927 0.005574184185466834 
0.00124932398240263 0.006429407831471431 -0.008347565606429266 0.001205474410822969 
-0.0022540405261187 0.001689823174137603 0.005819295128436893 0.005979475424025781 
-0.001659098012448102 0.001334789353771379 -0.009034586508075607 0.002387806849949717 
0.002048896580684863 0.003367179053395664 -0.009972849888650661 0.001611618267543082 
-0.000995660353928479 -0.001399465585769396 -0.0003781518874379927 0.003107776286307283 
-0.0008301084255646924 -0.006249000500969585 0.004173813137451177 0.0006496570698141592 
-0.002286759117478554 -0.00331377621598795 0.008735229190192127 -0.0009214588884064114 
-0.003431163561576921 0.0008383044243018375 -0.001639924722557985 0.003254879138391517 
0.0008485328981371404 0.001536579019803245 -0.009499800546021384 -0.001832718805493186 
0.001288077896047208 0.001120009076753864 0.003562277269936644 0.001829124630686125 
0.0007385386922256988 -0.001070614945875279 0.003022508316294033 -0.003187716265519885 
-0.003575280729836991 -0.003822180714626166 -0.01119406513301266 0.002357194476780273 
-0.002543716496032839 0.0005603738806350734 -0.007332240109395813 0.003601091263320975 
-0.001077885730900264 0.006957806385152374 -0.009412009705294289 0.003751350775953251 
-0.003008372984144329 -0.003478366252719514 0.008056137867803506 0.0003958607565467549 
0.001427631636220726 -9.711449265832844e-05 0.03087481738454722 -0.02526108460258926 
0.001728522000595006 -0.0008366351804199151 0.00623231204699172 -0.001139231103182979 
-0.002380538365413873 -0.001687021488269163 0.003273258993109975 -0.005333774470561803 
-0.0006525658438844158 -0.005509254174659363 0.00833493204304968 0.002573835566124263 
-0.0003022263057813162 0.002563041257754651 -0.01249546932094908 0.001618558788736115 
-0.0006338247198350736 -0.006536525658508571 0.008126280027908939 -0.000830058550205908 
-0.0007034450074141253 5.283009578053757e-05 -0.001332821689294442 -0.003235412729314684 
0.001275386498890517 0.003940012580984047 -0.006890949107172115 -0.002031932850260309 
-0.002448832447038698 0.005870259529224747 0.0009735655198572105 -0.005967484962983679 
-7.92285325739834e-05 0.001301235306163321 -0.009719105185462885 -0.0003646216231546089 
0.004307025124083868 0.00396526661761989 0.001035187378819539 -0.005427542950133027 
-0.0003706574156069362 -0.009472215039298522 -0.001074828792881182 -0.001793962233190308 
0.001642246192680011 -0.0006103374216525782 0.00227393407856592 -0.009032919509386313 
-0.00108627965828114 0.00323804102058815 -0.00881485758689559 0.0008812099463947135 
-0.0007335143688325071 -0.0097544105523881 0.001051126740295845 0.0005047154670934545 
0.001330770788831558 -0.02030970705076394 0.01325569681932368 0.00424720766440078 
0.0009827666204362175 -0.001135051887369845 0.001510190442267922 0.003448708325170781 
-0.0007790615007235215 0.00556170742322045 0.002294857297058818 -0.003255402042117398 
-0.001516834836936018 -0.007670144510769647 -0.001867046185541285 0.003353399475577965 
0.005297437279777774 -0.002365202029988512 -0.0008023127076044011 0.008179188128898823 
-0.001698401136128528 -0.008570156478075533 -0.0002488756267194799 0.001029673089588497 
0.003645884267431838 0.003856798535647014 -0.00638692733098653 -0.002561586040445956 
0.0002001302706017645 -0.001215703044501895 0.001315480634021214 -0.002778602803881027 
-0.002153745815082532 -0.0009347727326887382 0.0007564907319955954 0.003255973502895837 
0.002032806963854954 -0.001491641813242924 0.001789862352647741 0.001041128449462888 
-0.001232626640328174 -0.001079430187552383 0.0003508512621182724 0.0005155701838645978 
-8.753217956997143e-05 -0.00507436733608625 0.01503502054120411 -0.005016265315023024 
-0.003682958810996569 -0.001916823752971122 0.002000888720021815 -0.002689012979722043 
-0.00389556639455853 -0.001834182967219783 -0.006696454720724678 -0.002563442410828494 
-0.001002937181821572 -0.007369999044176226 0.003019930255595448 0.00255486952269844 
0.001989358559951065 -0.001027336826060199 -0.003429685759035267 0.0004294492046612121 
0.006885656101044578 0.000482567587871712 0.008574106885177941 -0.004407258265237088 
-0.0008066423534037467 -0.013102231793844 0.004652621209555535 -0.003684780399804631 
-0.000721692378986085 0.007788169060372218 -0.00589499037984129 0.002339777948794833 
-0.004036791869893448 0.002266602638910683 0.008901038313291747 -0.009478422276268579 
0.004386580687756825 -0.004238023590215079 0.005525288898168968 -0.006905046507345572 
0.003683178688373171 -0.01232040433358185 0.007634674535097284 0.00150605963828099 
-9.06594812032896e-05 -0.005984277735841311 -0.001136753095520576 0.003384149862735274 
0.004372027704400821 -0.001008289354674726 -0.0009771874002664524 0.0004384387983403607 
0.003631187265442588 -0.004381997730813184 0.006221811748020796 0.0004895959409481462 
-0.000350878403194536 0.0001666050018332386 0.001601507974086894 0.001865329234042575 
-0.0004221964576713478 -0.0004337820604541792 0.005301724145710026 -0.002279392736754112 
-0.001604423575175771 -0.003229582767599332 0.005002047944863002 -0.002230567994783386 
0.00311962617985834 -0.004111247866225037 -0.004597998573742891 -0.002521726974366117 
-0.006333834290923311 0.000503040168012706 0.009759175196728228 0.000570067682268029 
0.0006652457980246117 -0.01395278167715825 0.01729256543854159 -0.003176461255431185 
0.0005815062561836102 -0.003151893190279279 0.009546244594870129 -0.002553250572957194 
0.002761588117938656 -0.002379440843597231 0.008768725991482467 -0.0002266790053412518 
0.005817394824416038 -0.006641655471878029 0.001843104496417696 -0.003359349261814897 
-0.006121205436937845 0.006037567001987893 -0.01112718886565676 0.006667080650974587 
0.005461771947691527 0.002415752947224268 -0.005827012377084505 -0.001553679448220548 
-0.004902061714964062 -0.002952360251440634 0.009826778502189461 0.006138790385144571 
-0.00535711529213782 -0.009498502763911405 0.01060264561374107 0.002157438269255819 
-0.001552578152131124 -0.002785079518886186 0.0136196030685963 -0.001949031245828635 
-8.020557629446283e-06 0.009041592613290616 -0.007439309857539158 -0.002417869355918704 
-0.002189451871936664 0.00385248371567962 -0.005052451711498134 0.001178520537355267 
-0.003575666424922995 -0.001730396641502114 0.01096836333026532 -0.003135795854965355 
0.006802954606925098 0.008532953148064855 -0.008811351762083388 -0.002276104077551622 
-0.0001249499363459987 -0.00287710504723348 0.0001218120648255429 -0.0003421073369606472 
0.003398047246305031 0.001478426183137929 -0.01042689950973948 0.003046248220090644 
0.001654630409521526 -0.00189013413914419 0.01077404776807693 0.001063978644028129 
-0.0006736094483056935 -0.00460956910105784 0.004920925867258951 0.0002080035000398053 
0.000384529351522933 -0.004684295038967399 -0.0006286138230835204 0.000119400259876564 
-0.0006518967254083466 0.00223695559727336 -0.01157191908558161 0.0015206751836531 
0.0004011189342402772 -0.001357568803999742 -0.002260676205015655 0.0003423418939149219 
-0.0001489945137695012 0.0004200587490400463 -0.005718349521180974 0.001888298119669361 
0.00443411711296206 -0.002895982511927222 -0.001530146568201013 -0.001453845060328294 
-0.001358426199287172 -0.000701715482483732 -0.0002995470300949062 -0.0003844218293748526 
-0.0006255747810034651 -0.002670943798175234 -0.009613484054500094 -0.0007722984789536174 
0.001139642879046384 0.01227753464140834 -0.01173723898440344 0.0007984645656180465 
-0.001805933067603559 0.005302584676639124 -0.0001198603676865271 0.00343142947840239 
-0.0007138022529717164 7.418196615467825e-05 0.003168787573332294 -0.003594231403275648 
-0.002290208164196406 0.001553984183808643 -0.01537178531207283 0.005954525188018533 
-0.001896267712446645 0.005845591277094735 0.0006978956126289736 -0.004143507000650328 
-0.000932589033560886 -0.007016251030272364 -0.001603976023489952 0.0005629474316217249 
0.002604294110328087 -0.0008509956054752706 0.003730347671580148 0.0005446562201255357 
-0.002272297579398596 -0.005096185174586463 0.0005778464882758545 -0.0008256902342132873 
-0.002724579538378518 -0.00659881823341762 0.01206070613522605 -0.007102308264664218 
-0.00126509050165434 -0.001099663603937026 0.008226835692064382 -0.001200958064282563 
-0.001878608478771983 -0.01432799686077671 0.01524685415021246 -0.001900407436845253 
3.635532409148144e-05 0.0003993362602538181 0.007927759776381894 -0.003626851656961918 
-0.002918220865731612 -0.007025228701913714 0.005356806725659736 0.001742791656669711 
-0.003723551606993703 -0.003786211505669011 0.002069522223815008 0.004867549893001743 
0.006005119689745338 0.003911947497867702 0.00294368587737281 -0.00236659000094615 
-0.001015938777858867 0.003719079518069748 -0.006839547887127715 0.001265890202817764 
0.002245669924179336 -0.003086326464673584 0.006110076576820495 -0.0008645105044982736 
-0.002793158672272064 -0.006871020330737301 0.008805845120409217 -0.001971221009673909 
0.002547625145361073 -0.0006038081207012073 -0.006049684425888499 0.0007605449404278293 
0.00107723533036167 0.004850179884453473 -0.003607172465126926 0.001920249963599493 
-0.0001759525918818456 -0.0004898513561384745 0.001508102419939463 0.0005214325666987906 
0.007624761275107654 0.001522324347445383 0.002972949522343992 0.000723872951246117 
0.00389754380007834 -0.002386895420831391 0.0126005919583343 -0.001991815802454328 
0.005617011030261581 0.005425245725492797 0.005828826403878186 -0.00026229361427482 
0.000424804615971449 -0.002991557181984005 0.005398546968394681 -0.004230032962365834 
0.005302780981048794 -0.002958375490506899 0.008336612962716924 0.00170564655496022 
-0.0006040813500615099 -0.000114754666874721 0.02937491556888306 -0.02734621893465561 
-0.0001277171254164107 -0.0007162771626358207 0.006271551378575144 -0.002043423494813265 
-0.0007612774735054992 -0.005052047475822294 0.01119305287787486 -0.002645769974417123 
0.0002870393470297948 -0.001078850474828118 0.005886922818123287 -0.002888987514694028 
-0.00324063844260323 -0.007607656373828851 -0.001258647711562768 0.005256585269279936 
-0.001707788632852511 0.003359216727894929 0.002852534889743075 0.002237832763747609 
-0.001128295552076217 0.0007717138630778521 0.007351671249258753 -0.003441268084354745 
-1.130848708738215e-05 -0.01227856294676403 0.009505468252386871 0.0004240865244539263 
0.00405823245300402 -0.007949256318757585 0.01347717353681545 -0.001868455657338932 
-0.001472387121259426 -0.003374593227956075 0.01082754412069997 0.004392240176633805 
-0.001595921233814343 3.138082200552662e-05 0.003169575321077416 -0.002391929563640734 
-0.001108639916485353 -0.00504479013966073 0.009103185950238443 -0.0007918340722139857 
-0.004453973720010129 0.005498832514266405 -0.003078170773034942 0.001728897239019314 
-0.00129170023828365 0.006191837667158664 -0.004891693545521691 -0.001538462298396897 
-0.003618432949142656 -0.001684393407563252 0.00311951897329084 0.002541811447740144 
0.0001552491458282953 6.069400903136585e-05 0.02044268038428594 -0.001725952978285254 
-0.0001977419695473671 -0.003183176745144622 0.007342557219808028 -0.003679173988372298 
-0.00129170023828365 0.006191837667158664 -0.004891693545521691 -0.001538462298396897 
-0.0008813762334426871 -0.00328066794193687 0.01240564713154148 0.001890279715627939 
-0.002598743447207463 -0.003466449925578295 0.01062707330349869 0.0002922142873203325 
-0.0009384996753567014 0.00375648511337523 0.01536211190534358 -0.006086182110449902 
-0.0001292472412858705 0.002445499661463441 -0.004345347653277712 0.002127218748573253 
-8.565576973282528e-05 -0.003305065427561214 -0.008572048246556739 0.003746965223874678 
-0.00739005056179907 0.001147650619026504 -0.008264890141056141 0.01072647120108491 
-0.001814971833250757 -0.008518850943855625 -0.003575764914765056 0.00507673774090223 
-0.00285617651366438 0.009426874905171653 -0.01621624447581024 0.01292265705950596 
-0.002094131099327437 0.004572939229694106 -0.008876914699208351 0.002613344573941818 
-0.00275797122151567 -0.006644498921512969 -0.01213690100779471 0.003244382407918858 
0.001529409857876612 0.001646906632376363 -0.0009666563624503066 0.0005990496202744185 
-0.001135937199241387 0.003062592396832465 0.0003284525881527734 0.007834336933666777 
-0.001604144798324443 0.0007764823879330545 0.007145967881418058 0.002415441213689054 
0.003244768238457412 0.004982459526016577 0.0038436568082355 0.0009335862815122403 
-0.001210275645393821 0.003703002263150664 -0.001033750201410821 -0.0002560156250385492 
0.001495970270520205 0.001288749844265721 -0.002564160410990075 0.004331617808354267 
0.002320225430031426 0.003496728416087879 0.009966929879696164 -0.0008858956400111418 
0.003980179918028982 0.001048152563562536 0.0004543187194656742 0.008794853673076215 
-0.0008519005440465813 -0.0001622236974908152 -0.01000838002311655 0.01472001860623399 
0.0003420715155718878 -0.003883376339079678 -0.00779396130114577 0.01432375869840391 
-0.0008643389175734597 -0.01089835509271604 0.01089359193991055 0.001291735425489723 
-0.006453183800794144 -0.005313830222885576 0.001645202973819909 0.0009239987420421458 
-0.003397341455797461 -0.008606813739516462 0.003956615337750873 0.007160786954312779 
-0.002663711434354892 -0.002817121213857452 0.002586618680557355 0.003713302738970592 
-0.002965383777221766 0.0001815693223564249 0.0004044521299005308 0.004423626318740795 
-0.002691495037674025 0.001229186215645795 -0.003451735497039516 0.004597548870907885 
-0.003130770353382403 0.0008656725295987149 0.0008617595678279607 0.01034311310174765 
-0.001583622296542399 -0.00720740638175504 0.006543436088435874 -0.008850700733281366 
0.00175878669060447 -0.004877367128636987 -0.00670360365389151 0.003285435663577609 
-0.002830855795131545 -0.001954482109732252 -0.01529226064218129 0.001553794706327893 
-0.005061014063800869 -3.499235594107614e-05 -0.009829020680092589 0.0005798050017144368 
-0.001164594070205485 -0.0007708647979651268 -0.01562166417643574 0.00343374072315305 
0.002737830144467829 -0.009984586309202074 0.0003930484801130903 0.00214568740727525 
-0.001986247381641912 0.002327789557761672 0.002100821420112652 -0.00372286363554963 
-0.001617139651644264 -0.004283549134096798 0.001505925141318391 0.01268536022883126 
0.0002164434274853225 -0.006407090184568398 0.003873662400249098 0.01063894040405283 
-0.001018405267630124 -0.01631778102425152 0.007589925073180404 0.001132193171103574 
-9.611266212521359e-05 -0.01242851765164992 0.01116644208973488 0.002442199445150665 
0.00369268481124114 -0.006743192684274343 0.02014573375546563 -0.005697213720889171 
-0.0004991186397466431 -0.007546398576355826 0.003819399188180574 0.00811320082524326 
-0.002090967491649364 -0.008191392757509309 -0.001367986501870332 0.01129540795768314 
-0.005498847101417778 0.001929762261700589 -0.007486467779905481 0.01441819004813146 
-0.002405356448034021 -0.004636513308074996 -0.003994320452768002 0.003994362415013699 
-0.00377307270079736 -0.005157381272760162 -0.004382466007841043 0.004909119792140986 
-0.005825671890869705 -0.009613134281901674 0.01280242642793365 -0.003007397704279867 
-0.001634779862097693 -0.001842365933817596 -0.009331240858373164 0.00260746459255724 
-0.0001464322013717258 -0.007906985521448437 0.000540737178588877 0.0002379017898350796 
0.001107847104430492 -0.0003058567824361374 -0.003031597319588073 -0.0003363705091421856 
-0.0004495777101666499 -0.002180214822505105 -0.007583386050571981 0.006692680695195761 
-0.002314029657501193 0.0005693235276242942 -0.001150425916714016 -0.002691090688773604 
-0.003887603333073428 -0.001996211692798189 0.01539445518026256 3.612774723649597e-05 
0.0006728476020747452 -0.004547652235198953 0.007785764835056484 -0.003995585467966948 
0.0004157812496178921 0.003122846499067937 0.005143575301998963 -0.004047740073953578 
0.003490027444289873 0.002148374650368686 -0.00867582599111379 0.0005677712783999544 
-0.0005699662531514905 0.001989673113428152 -0.001541913970441597 -0.0004242017270087035 
0.0005644317467038488 0.001789788126317693 0.007299654305051717 -0.00179438971719765 
0.001320843716591287 0.003060307360323959 -0.001068327838592748 3.731627939904374e-05 
-0.009976478571414168 -0.002347486762231091 0.004497854242088674 0.01079214784144447 
-0.001919242074689672 0.000557085485157657 -0.006647924691973128 0.007518441512143721 
0.0009047120522099883 0.005668770238693489 -0.008952487944446575 0.01051704606418447 
-0.001162476635491031 -0.005380139611586518 -0.01713689958079318 0.01374967002476416 
-0.003501617068399394 -0.004682831021940949 -0.02826141729149921 0.01024973521626691 
-0.0006334547287995072 -0.01221190223526303 0.0004375849458745869 0.006034930348913085 
-0.00708148317798343 0.0006043163380116516 -0.007496875748572541 0.007774255626177335 
0.005046252311027137 0.004392571732731549 -0.01752995256310567 0.003738267707373266 
-0.004397224041149564 -0.005120150175880064 -0.01350895141572508 0.008849043875533152 
-0.003764568781818715 -0.005702272512979628 -0.002189351887509988 0.009412522982311716 
-0.00297525520917812 -0.0105989572368687 0.005012978269021971 -0.001780078578498792 
0.001571439333177936 0.004956540608538972 -0.01387531905565862 -0.006897815182648381 
-0.006836684640015065 -0.01042060044374305 0.005853427291080214 -0.002331327014982881 
-0.003288316725128631 0.001607205359076495 -0.002838577081158756 -0.004670921092864322 
-0.0003948766182800597 -0.001864301688936616 -0.0003855596518333461 -0.007058218041364429 
-0.00264598825254791 -0.0003338289812778462 -0.01785980880736908 0.004716056482314033 
3.074386410154521e-05 5.940963474673769e-05 -0.005120286398658668 -0.0004324354457531715 
-0.002325529094966775 -0.004900507794578321 -0.01364359354386698 0.008993744762484261 
0.00236787728484438 0.0003866086158661811 -0.005044513311116921 -0.009361047825858212 
-0.002217224550320644 -0.001927410584925936 -0.00171049516263145 -0.004414070515902316 
-0.002001930726812236 0.001326218224945446 0.009712176652564825 0.0001722389707916965 
-0.003895988179762206 -0.0006778627671401208 0.00537242372297289 0.006059366672697115 
0.00100722788896919 0.00130977636123075 -4.19711341850078e-05 -0.0005411796752663836 
-0.006459123544618542 -0.00610944429233923 0.006795032106899121 0.00392405712578721 
0.006567407921506103 0.002541272841425175 0.001230117666938625 -0.006529839344022394 
0.00679860718249294 -0.003152612892830425 -0.002756097954259218 0.0006581769165351364 
-0.002361196471448478 -0.00396943320110547 0.01149950589807263 0.005029632873898477 
-0.0006266583228410109 0.001804592914196589 -0.002688388266039672 0.009344643226519598 
-0.006016723242454296 -0.002516586822916275 -0.003920533839467427 0.004676114061363645 
-0.007221804699503618 -0.005854293765851056 0.003983888661138268 0.00445913542934293 
-0.005811445455551801 -0.009791054501508479 0.008201359233583312 0.007103513643646484 
-0.003201904640302967 -0.005298164119416035 0.0001883286236658874 -0.004810235753904947 
-0.002360904553300791 -0.002019109822264708 -0.006728069002993425 0.004732367308796301 
-0.002195055341660444 0.003462404102359302 -0.001404542501879954 0.00341527714002607 
-0.003446388207116404 0.0031310676804702 -0.004927224238756614 0.005057313967112819 
-0.002376727308836748 -0.0002085890592055031 -0.03799709494832611 0.006127421277662002 
0.000165637844620284 -0.005108506644479897 -0.008581291688249695 0.008952685095815245 
0.0001166254139714785 -0.009811796412873521 0.01133530926852379 0.003588430218679871 
-0.00457813561537897 -0.006937239594280194 0.0112271516334215 -0.006365128653518879 
-0.003646452906924715 0.002271320002133865 0.005621256963559512 -0.002589661537520581 
0.001671168621928737 -0.005928301174082872 -0.002626895821265203 0.0006219007783951315 
-0.0007724026731971043 -0.004422369827096666 -0.003880533146723298 0.001019511740735079 
0.002219210020229278 3.072642647450112e-05 -0.01119614317183704 0.005918122538369119 
-0.00171638858179381 -0.002425850925520378 -0.003041641309494582 0.00910462256296107 
-0.0002114951578936703 -0.002335547326852476 -0.003331847172727302 0.002322083923179202 
0.0006520545590904718 -0.005754050697640048 -0.005998790490548336 0.005226135438383117 
-0.004792923040940716 -0.007837229265449689 0.004969806474730477 0.002953917424209837 
-2.65719408681466e-05 0.001060929580519062 -0.0006246350831147819 0.004001624393715963 
-0.002210646620135726 0.0005245835876104629 0.009496477205190862 -0.007369751795397102 
-0.0009642797584818369 0.002207197860548981 -0.002472372590493861 0.0007782782232526926 
0.0004996458621001386 0.003561528511080712 -0.003565067388118129 0.005126567077194276 
-0.001069223864855805 -0.003813612330647762 0.01002041681727624 -0.005100489185760775 
0.0004650130397404245 -0.003251514179408663 -0.0005992723748307861 0.001888306968437611 
-0.002351908697075939 -0.01440283226826798 0.01415484217753868 0.002033262557970119 
-0.0002644687372726115 -0.003874201316259472 -0.006805165945379291 0.004692697193547524 
-0.001268821863693168 -0.003206179540739955 0.004668058808284705 -0.007913124196071819 
-0.0001721034503086125 -0.004012937879342279 0.01590216778545925 -0.01162814683991185 
-0.002493709475666332 -0.006084260737996033 0.01740124656107883 -0.009448574095246586 
-0.0009727523665574963 -0.003479242925342926 0.02027981344198925 -0.009882950822743139 
-0.002777833402917111 0.003946342126401435 -0.00384178174865719 0.002182555199418198 
0.003317482094446285 0.006005235712306246 -0.002174532431214549 8.929243799181279e-05 
-0.001714836708125086 -0.006908170880683244 -0.001243496257373215 0.0008379243725088927 
-0.001215582584498266 -0.001675213578244722 -0.006322524444978776 0.001261572450961151 
0.0005040453226985175 0.005322747577320205 -0.001440544174204091 -0.003568361838151062 
-0.002993121965613698 -0.003522350108613013 0.005491188051875743 0.005351779769441101 
0.001729998268931935 0.007872686151268271 -0.01154229849766974 0.005507598735141247 
-0.002821546886385963 -0.01094265846672904 0.007732427894225982 -0.005750303116376334 
0.001435340425644796 -9.169107008594524e-05 -0.003703823701383153 0.003275454341091132 
0.0007071888875420466 0.002660882973622992 -0.009502843212566895 0.005699365102527517 
-0.005765474667717894 -0.001827230810498413 0.0001567397225194537 0.004269352052608703 
-0.005453170330283649 0.005946388501798384 0.005530715739810028 -0.002760968523381312 
-0.001030183344891462 0.00282698772153981 0.008638717567771556 0.002422424978790806 
0.001262280000721494 0.0004196200690846281 0.005539111523742241 0.0001195381625626159 
-0.002484029995163217 -0.0019991325128719 -0.0009746863055834135 0.005480300257032481 
0.003123489720686595 0.007287658621938069 0.001000480683758464 -0.004338745508351392 
-0.0008183628904634028 -0.0003199441199120861 -0.0004803080406030288 0.002932780719551135 
0.004365673026729639 0.002955604318414354 0.01243021992662074 -0.007877318565045255 
0.004298498581082483 -0.003592370578531434 -0.003526217500630092 0.004830406034478145 
0.002152955245094074 0.002035756391669574 0.006540973108984349 0.006771140132102883 
0.0006672622145008236 0.005165658761399747 0.005456838769037756 0.008793851982529443 
-0.003458854993469778 -0.00150224188750196 0.001459251936569754 0.003271464153805059 
-0.008740217497206937 0.005914648839982919 0.002283394204377323 0.004171264029014467 
-0.002241389412973334 -0.007027612843335426 0.01129783190487085 -0.00265692439622764 
-0.0007167424477504705 0.00455477200897437 -0.01098374825192662 0.00670440970323148 
-0.0002602622377855682 -0.0006014322771992692 0.01487780753873492 -0.006421547541254642 
-0.003154978574225599 -0.004096340251337725 0.0064342749946592 0.008487781411494654 
0.002509311000525438 0.002006619289461725 0.004146385745940031 0.00268523136388714 
-0.008035828529543026 -0.01083559993017567 0.01497069503666661 0.003766121132012622 
-0.0007758568029481352 0.003168107636164075 -0.01200269436197152 0.002317279085148633 
-0.002228065255403899 -0.004123703182769476 0.006385249366704563 -0.003524493432495276 
-0.0003965591653117426 0.002721686497654736 0.001942471721173356 0.001407079427291368 
-0.001713432937898748 -0.003321319925503927 -0.002627644532370542 0.0007645092345955992 
0.001969967342663882 0.001152002438110214 0.001120329231438718 -0.00415378614497479 
-0.002877100888779961 -0.003628910265764047 0.001693086401397414 -0.002186131041246315 
-0.004246355800818162 -0.0168164924019679 0.009396501092096849 0.004721371511976127 
0.0005398009667283044 0.007419008506273468 -0.01668681816236977 0.002693786636682876 
-0.002262480881263624 -0.005923807485705342 0.007009446016376581 -0.0003713500647933337 
0.0006458301548569131 -0.003257442493204484 -0.00415777093002074 0.006549198477019384 
-0.001110333161814999 -0.006700283680202 0.01008899073102016 0.005481043998098348 
0.0009640521056800567 0.002518859985551344 -0.008620921493372517 0.007125125555144945 
-0.001037319187330842 0.002463815905105072 -0.003852390138787342 0.00389118465012373 
-0.0002970122185343624 0.002532965634816163 -0.007258020512619584 0.002008402380652508 
0.0001009800449511731 0.004525435326277591 0.0001842003699526587 -0.004292481996061593 
-0.0001598329420191013 0.00219846793048207 0.008400541210459564 0.002831551057591883 
-0.0007177164580088152 0.001773820844868172 0.01009819777238167 0.002011011473839051 
0.0002074200079500946 0.009997448801921676 -0.007450944342297084 0.002570097140227673 
0.004893353305353218 0.00396235033068489 0.001331934133119184 -0.004097044192011305 
-0.005154669758099275 -0.001066887788142719 0.007868040553463091 0.007180962702580118 
-0.001093938585657875 -0.0004415802428998842 0.003322574274848516 0.003108528328201752 
-0.0008867670201111921 0.001216812611921842 0.001258781958270632 0.004461491798906936 
0.004570092229870757 -0.0004368307075507417 -0.005450987185347679 0.001639672550388285 
-0.001890084442936415 0.002214175265560479 -0.001123426481412639 0.004803676719416923 
-0.001959045284154101 0.001788097729235513 -0.001191548888311753 0.001074359083642726 
-0.003827592779264507 -0.007388304593861342 0.01663056040619457 -0.01287667064541227 
-0.004649903106493111 -0.005835649310234127 -0.002837643372002053 -0.000234309430349794 
-0.003568248208786691 0.004626695669243753 -0.0006619459852176302 -0.006561658977749645 
0.006452833619541683 0.004152437323408809 -0.008749326580768215 -0.002418034740828526 
0.0002229973405372164 -0.005915459144909414 -0.001949113817176427 0.0004187518006198589 
-0.003320443115995628 -0.0008012954123134106 -0.01045985330669768 0.002717435881165269 
-0.001261984752234237 -0.004781372151910685 0.001856368406560165 -0.01279635870168076 
-0.001777668577134285 -0.002926479835809299 -0.002752381380500984 0.002868189886552369 
-0.0001371101534525875 0.001572881070366124 -0.01323846245810146 0.01326407129421434 
0.002687474326336157 0.002466549989091569 -0.009923622388308691 -0.0006722673896579379 
0.002548494014864174 0.0002240985563436982 0.002714474963973044 -0.007647983902745468 
-0.006651382604353715 -0.004754601177912585 0.007890899364504387 0.006242486754816275 
-0.0005984421708906319 0.005654846140997748 -0.00555956738125082 0.004048986522742755 
0.001459776194582383 0.003551671075628688 0.0002295652231126012 0.007240325561872444 
-0.001969094023078988 -0.000563812289049204 0.001398590489301438 -0.005924081267751321 
0.001281451946499983 0.001614537306156887 -0.001762806042559318 0.004279286181383833 
0.0009245438005807009 0.001889166256788828 0.008592080534318864 -0.00537785002521699 
-0.0004805366044946153 -0.001049198216808798 -0.005179316717462668 0.001606336792718576 
-0.006125714952728191 -0.01003696926248783 0.0006407426336172427 0.002653302224863857 
-0.006405285844403863 0.01051301589281673 0.002080663389394654 0.002404578969167464 
0.001635065694172453 -0.007354773649867008 -0.001162575124851194 -0.004215510902936742 
0.00349439550851467 0.005691511019193757 -0.003594747570827152 -0.0006551555101680274 
0.0003578612338147979 0.0003501550509992444 -0.007881449228948161 0.006804445196487848 
-0.006327096594552533 0.001058662735339709 -0.001493360501351554 0.005751529960654325 
-0.00890965488389066 -0.0020755763931084 0.007678508054463588 0.0005358849834285015 
-0.004316827618644944 0.005025861514567628 -0.003385762428714018 0.006577470074278455 
-0.001149036597505017 -0.0005708611579131216 0.003763855069010836 0.001531333294948466 
-0.006226761897033409 0.005425941020710003 -0.0111459562784152 0.001275399310643275 
-0.008050666306263322 0.003569261847486711 -0.008301747027825391 0.002873594623059778 
-0.004054681619027071 0.003016277187133786 -0.001214390890687822 0.01074757584786617 
-0.003528056075825063 -0.006933310813229482 0.0007013253263105811 0.00821765970969696 
-0.00240411273886385 -0.01164629564433076 0.01586588487394221 0.007233952130611484 
-0.0009002844391387947 0.005159725912576366 -0.003307426165397533 -0.0004474101979965079 
-0.001928971143745565 0.005845308984646193 0.003906772995312471 -0.0005955520675612078 
0.003217473238502868 0.004221532687739293 -0.003546793229476156 -0.003780078158501213 
0.001461949462428217 -0.009748063793232247 0.003247374360340621 -0.00911702411605406 
-0.01185419273908532 -0.008032601796874258 0.00303014515650086 0.009438676985683851 
-0.00217951320034031 -6.759477280782531e-06 0.00226047880219486 -0.003491910205497551 
-0.001892641889900929 0.001276562110150721 0.005536952204807544 0.002659904274183781 
-0.0005468507660395594 0.001615216516344969 -0.001908768965952039 -0.002012744846840058 
0.0005691723107298951 0.003244661259350278 0.002778536515873114 -0.005190105457295081 
0.001137631886155134 -0.004778299444464357 -0.002700911354793867 0.002491056210801 
0.004913248358673089 5.828235205883191e-05 0.001142260930378717 0.005992719473780305 
-0.003219177328444515 -0.00554108633694585 0.01126617152325756 0.002486496407670578 
0.001908070694465104 -0.00103187526521277 -0.003461744127908012 0.001936987091946473 
0.00474592638771807 -0.0004477325242586191 -0.007430266557721729 0.00720745202894527 
-0.0007517385051821519 -0.002270373414981686 0.01706351645482154 0.002630106304936995 
0.001674832890499912 -0.007215829043926727 0.008939619254537283 -0.009312274912076611 
-0.0003627015694885737 -0.0003356302716540525 -0.0003219848254732876 0.002911099776714081 
0.001090489479569775 0.005340951510877859 0.004123228839747468 0.007816273957229523 
-0.002628676811239495 0.003036177858505962 0.0003106784097974986 -0.002933815935926074 
0.0009700692572896166 0.005568045368011955 -0.00470749026232284 0.00357259969619085 
-0.003455878267569065 -0.002449287102758969 0.004871274805067476 0.006326872969113714 
0.001166892634701684 0.005995699639927153 -0.001713535092444075 -0.001752284267797765 
0.001464543306933334 0.005825833407096107 -0.004209394417355707 0.009624503288862314 
-0.009221580952423602 -0.001445198284248231 -0.00348198340453104 0.004356280438248194 
-0.005404348318093153 0.0003976772135167339 -0.005291657569272086 -0.002657747944501258 
-0.006782665177957453 -0.005954705476626672 -0.002321324863408485 -0.0004055655163231966 
-0.006203599500589445 -0.008039569108537646 -0.001614250472541427 0.01022728339480085 
-0.001816838126178386 -0.008060670077942556 0.0122254771831108 0.0002444235468558408 
-0.003339133579907351 -0.0009135156408909697 -0.0002277069906623054 0.006626871618452722 
-0.003270778059811515 -0.001316224579756718 -0.000125921283049614 -0.00143972284531546 
-0.004312476480349393 0.004641102054250515 -0.00288823371947621 2.906531561289704e-05 
-0.0006329699343851274 -0.0003006524573966503 -0.001378146640795697 -0.001328138516069149 
