svm_type c_svc
kernel_type rbf
gamma 0.00374532
nr_class 2
total_sv 199
rho 1.00523
label 1 2
nr_sv 84 115
SV
0.1 1:1 2:0.209318 3:0.24434 4:0.0346194 5:-0.286386 6:-0.192041 7:-0.222608 8:-0.240485 9:0.372578 10:-0.32864 11:0.359213 12:-0.297011 13:-0.264669 14:-0.29127 15:-0.219392 16:-0.149898 17:-0.108812 18:-0.262932 19:-0.169905 20:-0.333441 21:-0.263927 22:-0.0696955 23:-0.167254 24:0.219614 25:0.487841 26:-0.177625 27:-0.100332 28:-0.0855054 29:0.418129 30:-0.247912 31:-0.164861 32:-0.180512 33:0.0359089 34:0.339209 35:0.313733 36:-0.0177896 37:0.418201 38:-0.0336201 39:-0.269254 40:0.153591 41:0.0814046 42:-0.0673462 43:-0.130801 44:0.388846 45:-0.168971 46:-0.219503 47:0.0418898 48:-0.184692 49:0.119165 50:0.440205 51:-0.0145963 52:0.0322185 53:0.278754 54:0.493595 55:-0.0608928 56:0.283838 57:-0.286968 58:-0.239858 59:-0.179092 60:0.132688 61:-0.00322051 62:0.379238 63:0.249541 64:0.31956 65:-0.0707612 66:0.164027 67:0.421488 68:0.330647 69:-0.146754 70:-0.309162 71:-0.178295 72:0.280665 73:-0.318707 74:-0.121966 75:-0.279001 76:-0.245265 77:0.135308 78:0.0134655 79:-0.14519 80:-0.0531363 81:0.314982 82:-0.0574237 83:-0.0925399 84:0.254686 85:-0.0855054 86:0.102583 87:0.404427 88:0.400462 89:0.109873 90:-0.318707 91:0.435703 92:0.418614 93:0.309834 94:0.0739867 95:-0.0717651 96:0.481979 97:-0.264669 98:-0.303788 99:0.0298346 100:0.439687 101:0.423696 102:0.46828 103:0.0169384 104:0.478308 105:0.382207 106:0.171517 107:0.433363 108:-0.119264 109:-0.231765 110:0.37228 111:0.505436 112:0.304512 113:-0.0143979 114:-0.0926753 115:0.143527 116:-0.100621 117:-0.29127 118:-0.116166 119:0.313149 120:-0.0358979 121:-0.058917 122:-0.33292 123:0.0216382 124:-0.221411 125:-0.0271374 126:-0.135246 127:-0.0339326 128:-0.277038 129:-0.13133 130:0.101774 131:0.19891 132:-0.147088 133:-0.1583 134:0.436177 135:-0.222352 136:-0.301005 137:-0.209846 138:0.456472 139:-0.00773762 140:-0.244278 141:0.247465 142:0.431191 143:0.09267 144:0.27951 145:-0.208194 146:-0.232382 147:0.0506791 148:-0.210216 149:-0.110297 150:0.414806 151:0.105916 152:-0.0101877 153:-0.13384 154:-0.100703 155:0.333041 156:0.33109 157:-0.0529254 158:-0.158509 159:-0.20869 160:0.116742 161:0.215181 162:-0.29708 163:0.0361283 164:-0.153001 165:0.0580079 166:0.406171 167:0.433915 168:-0.227804 169:-0.24532 170:0.0913344 171:0.170833 172:0.0690632 173:0.0309536 174:0.367449 175:0.131252 176:0.408033 177:-0.293436 178:0.361901 179:-0.138973 180:0.275611 181:0.00113112 182:0.439687 183:0.38456 184:-0.206334 185:-0.221175 186:-0.146864 187:0.380234 188:0.423089 189:0.225245 190:-0.177475 191:0.41708 192:-0.212791 193:-0.160929 194:-0.250226 195:0.0627177 196:0.0627714 197:0.395006 198:0.496962 199:-0.0979828 200:0.184651 201:0.0422894 202:-0.0115297 203:0.391088 204:0.12595 205:0.457839 206:-0.317875 207:0.0699004 208:0.00622631 209:0.384322 210:0.48862 211:0.28923 212:0.134646 213:-0.172283 214:0.083526 215:-0.181838 216:0.291401 217:-0.25025 218:-0.124125 219:-0.0561475 220:0.111812 221:0.0521315 222:0.00979161 223:0.0582071 224:-0.0628779 225:-0.104867 226:-0.247119 227:0.266537 228:0.360682 229:-0.152568 230:0.446915 231:0.0158381 232:-0.118378 233:-0.19208 234:-0.0784037 235:0.435355 236:0.430069 237:0.092063 238:0.0320305 239:0.328616 240:-0.0232902 241:0.36871 242:0.447871 243:-0.0431747 244:0.400488 245:-0.164012 246:-0.111572 247:-0.0672349 248:-0.07332 249:-0.215078 250:0.421099 251:-0.104557 252:-0.187168 253:-0.108321 254:0.137078 255:-0.241094 256:0.206596 257:0.00727531 258:-0.151049 259:-0.148821 260:0.421461 261:-0.0955672 262:0.437017 263:0.376664 264:0.450441 265:-0.0278173 266:-0.0716564 267:-0.122553 
0.1 1:0.209318 2:1 3:0.688682 4:0.18551 5:0.028642 6:-0.0177087 7:-0.14712 8:-0.102799 9:0.420369 10:-0.0117992 11:0.298499 12:0.0339819 13:-0.139054 14:-0.0877864 15:0.0200367 16:-0.231891 17:-0.172796 18:-0.0875728 19:-0.118206 20:-0.186002 21:-0.133698 22:-0.00233944 23:-0.232011 24:0.102936 25:0.147619 26:-0.042739 27:0.120533 28:0.23964 29:0.116967 30:-0.192915 31:0.144109 32:-0.252343 33:0.273666 34:0.0675511 35:0.312227 36:0.161178 37:0.0985786 38:0.17596 39:-0.217385 40:0.222714 41:-0.0608931 42:0.125352 43:-0.213062 44:0.172591 45:-0.154358 46:-0.173876 47:0.247632 48:-0.198733 49:-0.081115 50:0.195178 51:0.105359 52:0.0980669 53:0.0926637 54:0.140253 55:0.059548 56:0.28215 57:-0.248161 58:-0.119094 59:-0.0618432 60:0.11839 61:-0.106936 62:0.146368 63:0.172263 64:0.158854 65:0.0917865 66:0.0125757 67:0.122267 68:0.639968 69:-0.137052 70:-0.116119 71:-0.190066 72:0.224714 73:0.0628978 74:-0.158003 75:-0.189433 76:-0.165525 77:0.0706214 78:0.129303 79:-0.181733 80:-0.102322 81:0.152588 82:0.121219 83:-0.109662 84:0.12619 85:0.23964 86:0.0640906 87:0.45555 88:0.666571 89:0.253074 90:0.0628978 91:0.536507 92:0.149851 93:0.688636 94:0.324934 95:0.310036 96:0.321005 97:-0.139054 98:-0.134399 99:-0.0370644 100:0.383771 101:0.222642 102:0.295291 103:0.410308 104:0.198351 105:0.345547 106:0.600168 107:0.244738 108:-0.138787 109:-0.0912285 110:0.102664 111:0.14204 112:0.128126 113:-0.084356 114:-0.154491 115:0.331497 116:-0.197826 117:-0.0877864 118:-0.119891 119:0.268404 120:-0.106391 121:0.0765974 122:-0.163873 123:0.133259 124:-0.0971467 125:0.0166154 126:-0.171052 127:-0.164678 128:-0.190461 129:-0.0231308 130:0.065601 131:0.152432 132:-0.0743641 133:-0.141375 134:0.197076 135:-0.141405 136:-0.162753 137:-0.255271 138:0.192029 139:0.102165 140:-0.186858 141:0.56074 142:0.119335 143:0.174374 144:0.0789252 145:-0.184786 146:-0.292281 147:0.274584 148:0.017061 149:-0.158594 150:0.172013 151:0.528796 152:-0.0020078 153:0.293259 154:-0.0494299 155:0.134245 156:0.108338 157:-0.0954793 158:-0.240088 159:-0.349263 160:0.0436063 161:0.483092 162:-0.194528 163:0.104021 164:0.143647 165:0.018484 166:0.267227 167:0.229827 168:-0.167877 169:-0.197066 170:0.110612 171:0.240529 172:0.18224 173:-0.0847943 174:0.194675 175:0.117624 176:0.149921 177:-0.186641 178:0.178133 179:-0.115453 180:0.128742 181:0.248672 182:0.383771 183:0.17264 184:-0.21102 185:-0.24932 186:-0.206856 187:0.153733 188:0.0880354 189:0.0952429 190:-0.212248 191:0.163792 192:-0.10854 193:-0.217264 194:0.0930878 195:0.471145 196:-0.0233986 197:0.257291 198:0.195041 199:-0.161514 200:0.0429939 201:-0.0258546 202:-0.00440798 203:0.139476 204:0.250665 205:0.126027 206:-0.110081 207:-0.0516941 208:0.0370521 209:0.301918 210:0.297402 211:0.146412 212:0.0525171 213:-0.121322 214:0.0828347 215:0.243259 216:0.465032 217:-0.240664 218:-0.242536 219:-0.0387564 220:0.206255 221:0.0847948 222:-0.114342 223:0.0140072 224:0.309883 225:-0.107536 226:-0.23569 227:0.506095 228:0.0339394 229:-0.147214 230:0.146672 231:-0.163548 232:-0.018808 233:-0.292249 234:0.106638 235:0.11759 236:0.219635 237:0.253768 238:-0.0583739 239:0.0658102 240:0.0155624 241:0.129434 242:0.220804 243:-0.0232513 244:0.104826 245:-0.315125 246:-0.182296 247:-0.129848 248:-0.147982 249:-0.147516 250:0.297687 251:-0.185086 252:-0.245371 253:-0.210179 254:0.107895 255:-0.118182 256:0.162619 257:-0.0630549 258:-0.242536 259:-0.205845 260:0.22091 261:-0.183626 262:0.170632 263:0.154125 264:0.202559 265:-0.0984144 266:0.0856751 267:-0.242788 
0.1 1:0.24434 2:0.688682 3:1 4:0.259068 5:-0.0020645 6:0.0439476 7:-0.205743 8:0.00787907 9:0.419935 10:0.0924788 11:0.226538 12:0.16727 13:-0.0845147 14:-0.0778439 15:0.0234774 16:-0.262016 17:-0.225406 18:-0.0248964 19:-0.136689 20:-0.261774 21:-0.0701511 22:-0.05126 23:-0.304921 24:0.0916144 25:0.118073 26:-0.0249897 27:0.0217995 28:0.2329 29:0.125547 30:-0.183849 31:0.277754 32:-0.314207 33:0.247028 34:0.115248 35:0.217493 36:0.132055 37:0.125665 38:0.229907 39:-0.273734 40:0.327055 41:-0.189701 42:0.253498 43:-0.274659 44:0.205275 45:-0.172139 46:-0.187808 47:0.282277 48:-0.223893 49:-0.139201 50:0.228294 51:0.19159 52:0.0494631 53:0.0579948 54:0.128719 55:0.187816 56:0.277754 57:-0.295408 58:-0.122175 59:-0.0472081 60:0.0699737 61:-0.225099 62:0.11735 63:0.163986 64:0.127361 65:0.224638 66:-0.0758137 67:0.131068 68:0.899391 69:-0.140284 70:-0.179041 71:-0.27061 72:0.257535 73:0.0522357 74:-0.278698 75:-0.11429 76:-0.183537 77:-0.0316603 78:0.247759 79:-0.233432 80:-0.0671279 81:0.163098 82:0.292444 83:-0.144676 84:0.059617 85:0.2329 86:0.0907241 87:0.480074 88:0.725712 89:0.331992 90:0.0522357 91:0.613183 92:0.18107 93:0.899585 94:0.542678 95:0.503509 96:0.36228 97:-0.0845147 98:-0.067517 99:-0.0683237 100:0.451015 101:0.302597 102:0.312296 103:0.565315 104:0.23153 105:0.320535 106:0.87725 107:0.301366 108:-0.158237 109:0.0051175 110:0.131471 111:0.152041 112:0.116881 113:-0.117183 114:-0.23718 115:0.371436 116:-0.35288 117:-0.0778439 118:-0.319335 119:0.329421 120:-0.139534 121:0.16226 122:-0.128027 123:0.163651 124:-0.14265 125:-0.0960393 126:-0.238321 127:-0.263256 128:-0.19627 129:-0.00131162 130:0.0333313 131:0.103565 132:-0.025056 133:-0.15901 134:0.290714 135:-0.202672 136:-0.115786 137:-0.316437 138:0.226779 139:0.194575 140:-0.159174 141:0.68669 142:0.146946 143:0.207638 144:0.0445963 145:-0.203961 146:-0.391583 147:0.159877 148:0.146078 149:-0.240982 150:0.142377 151:0.803104 152:-0.0571216 153:0.467433 154:-0.085114 155:0.143603 156:0.0955351 157:-0.159319 158:-0.286233 159:-0.406631 160:0.0293161 161:0.631808 162:-0.153231 163:0.112003 164:0.342938 165:-0.0151602 166:0.261014 167:0.288848 168:-0.188385 169:-0.214273 170:0.141053 171:0.188717 172:0.234363 173:-0.135359 174:0.206992 175:0.126078 176:0.180219 177:-0.222327 178:0.209491 179:-0.133551 180:0.137815 181:0.466152 182:0.451015 183:0.183717 184:-0.20762 185:-0.297277 186:-0.254466 187:0.182926 188:0.133694 189:0.145549 190:-0.243633 191:0.194401 192:-0.138608 193:-0.224936 194:0.0831144 195:0.712652 196:-0.161638 197:0.294281 198:0.20762 199:-0.278326 200:-0.0498873 201:-0.0744266 202:-0.106579 203:0.185641 204:0.372374 205:0.155355 206:-0.00634311 207:-0.229786 208:0.105775 209:0.296563 210:0.336236 211:0.118555 212:-0.0144304 213:-0.155655 214:-0.0761424 215:0.387115 216:0.629774 217:-0.292102 218:-0.290288 219:-0.166116 220:0.121878 221:0.0726629 222:-0.151298 223:-0.0442341 224:0.520182 225:-0.190957 226:-0.287285 227:0.626728 228:0.0799033 229:-0.179931 230:0.177348 231:-0.203776 232:-0.0344704 233:-0.348625 234:0.11473 235:0.126195 236:0.275386 237:0.24754 238:-0.0579341 239:0.0920852 240:0.0192321 241:0.202895 242:0.25728 243:0.0293932 244:0.15064 245:-0.326952 246:-0.215775 247:-0.149479 248:-0.198824 249:-0.165962 250:0.315 251:-0.239416 252:-0.289847 253:-0.217423 254:0.0267742 255:-0.106358 256:0.115676 257:-0.128935 258:-0.294215 259:-0.2411 260:0.274771 261:-0.234049 262:0.249013 263:0.164264 264:0.236333 265:-0.131581 266:0.133456 267:-0.356447 
0.1 1:0.0346194 2:0.18551 3:0.259068 4:1 5:0.0378423 6:0.0330231 7:-0.149003 8:0.108609 9:0.0911141 10:0.0445596 11:-0.00153761 12:0.208639 13:-0.0715841 14:0.0211754 15:-0.00787674 16:-0.128417 17:0.0721009 18:-0.0402301 19:-0.141254 20:-0.228696 21:0.0325928 22:0.0111376 23:-0.139148 24:0.0238856 25:-0.0207 26:0.0311621 27:-0.00034189 28:0.0654017 29:-0.0593963 30:-0.128869 31:0.206574 32:-0.180996 33:0.1807 34:0.00609455 35:-0.103115 36:0.055337 37:-0.0592833 38:0.149399 39:-0.234099 40:-0.0329795 41:0.0224418 42:0.106154 43:-0.157858 44:-0.0103586 45:-0.0469361 46:-0.0218334 47:0.0956881 48:-0.170642 49:0.0871953 50:-0.0384141 51:0.153076 52:0.0521464 53:-0.0959548 54:-0.0752847 55:0.233177 56:0.0208787 57:-0.119014 58:0.177014 59:0.0313676 60:0.0535424 61:-0.0653011 62:-0.035347 63:0.0512818 64:0.0135742 65:0.128625 66:-0.00540153 67:-0.0541106 68:0.216664 69:-0.146046 70:-0.174398 71:-0.133051 72:0.000541592 73:0.0795914 74:0.0546249 75:-0.0290801 76:-0.131963 77:0.163178 78:0.0915793 79:-0.0681516 80:-0.0736524 81:0.0771162 82:0.152452 83:-0.0138958 84:-0.00130127 85:0.0654017 86:0.053687 87:0.194367 88:0.180985 89:0.16306 90:0.0795914 91:0.199949 92:0.041472 93:0.238406 94:0.240579 95:0.174122 96:0.160782 97:-0.0715841 98:-0.00736959 99:0.073465 100:0.119648 101:0.0447526 102:0.0371769 103:0.313695 104:-0.00108412 105:0.00393222 106:0.29072 107:0.00169184 108:-0.106649 109:-0.0523783 110:0.00211919 111:-0.0521625 112:-0.00925792 113:0.0310106 114:0.0211127 115:0.212466 116:-0.0889124 117:0.0211754 118:-0.00948762 119:-0.0486053 120:0.00975624 121:0.0321335 122:-0.107606 123:0.129928 124:-0.131693 125:-0.0666197 126:-0.0325322 127:-0.0906022 128:-0.150953 129:-0.0369087 130:0.0550381 131:0.000222902 132:0.0577422 133:-0.0659294 134:0.200828 135:-0.0983721 136:-0.118768 137:-0.20225 138:0.0169742 139:0.0517431 140:0.0722585 141:0.161951 142:-0.00782499 143:0.0591117 144:-0.0185192 145:-0.180499 146:-0.205743 147:-0.105515 148:0.0721667 149:-0.0217037 150:-0.0548663 151:0.289786 152:0.0449776 153:0.360098 154:0.00162626 155:-0.0289251 156:0.0215653 157:-0.0189021 158:-0.124264 159:-0.0318683 160:0.0361883 161:0.190769 162:-0.0591684 163:-0.0224157 164:0.2251 165:0.107446 166:0.0292846 167:-0.0433764 168:-0.157467 169:-0.194126 170:0.00439662 171:0.222758 172:0.0553841 173:0.0348355 174:0.0802787 175:0.160043 176:-0.0375608 177:-0.197371 178:-0.0282966 179:0.0025525 180:-0.0163064 181:0.17471 182:0.119648 183:-0.0275511 184:-0.181282 185:0.0734635 186:-0.0890261 187:-0.0253151 188:-0.0515982 189:0.167108 190:-0.0157897 191:-0.0235007 192:-0.116308 193:-0.107703 194:0.0927005 195:0.323193 196:-0.0210492 197:0.00559262 198:-0.0891627 199:-0.0471664 200:-0.0447861 201:0.0730516 202:-0.0191265 203:-0.0171317 204:-0.0316198 205:-0.0421971 206:0.0786829 207:0.0719347 208:0.0824483 209:0.0513293 210:0.0573624 211:0.0316503 212:0.014237 213:0.0635723 214:0.00944166 215:0.312868 216:0.167563 217:-0.242182 218:-0.133603 219:-0.00781394 220:0.000648901 221:0.0556952 222:0.086565 223:0.0960649 224:0.176319 225:0.0137026 226:-0.0355629 227:0.162673 228:0.0613871 229:0.130657 230:-0.0608663 231:-0.0820793 232:-0.0318092 233:-0.0748927 234:0.0587172 235:-0.0587751 236:0.0309996 237:0.146261 238:0.0944515 239:0.07148 240:0.0264494 241:0.127035 242:0.0205819 243:0.0761714 244:-0.0509115 245:-0.0177113 246:-0.0661287 247:0.0928382 248:-0.0507479 249:0.00166459 250:0.00890462 251:-0.066042 252:-0.142861 253:-0.10789 254:0.0183875 255:-0.102019 256:0.0438051 257:0.0260377 258:-0.147118 259:-0.143195 260:0.0221802 261:-0.0725045 262:-0.00135217 263:-0.0224161 264:-0.000344587 265:0.0179427 266:0.121879 267:-0.0730683 
0.1 1:-0.286386 2:0.028642 3:-0.0020645 4:0.0378423 5:1 6:0.104139 7:0.20759 8:0.263777 9:-0.177944 10:0.609687 11:-0.0124465 12:0.36059 13:0.269181 14:0.169006 15:0.160813 16:-0.039451 17:0.0645111 18:0.163553 19:0.116114 20:0.373015 21:0.139978 22:0.0610527 23:-0.0336419 24:-0.163884 25:-0.275915 26:0.181938 27:0.0406319 28:0.280918 29:-0.329876 30:0.114684 31:0.179912 32:-0.0555755 33:-0.0498597 34:-0.220168 35:-0.0518962 36:0.0371672 37:-0.343234 38:0.0574424 39:0.152651 40:0.0394823 41:-0.0287526 42:0.149658 43:-0.0531317 44:-0.286494 45:0.0358164 46:0.112023 47:-0.0825757 48:0.05484 49:-0.109959 50:-0.303909 51:-0.0429359 52:-0.0564792 53:-0.181174 54:-0.330168 55:0.0464107 56:-0.19369 57:0.257466 58:0.116641 59:0.174634 60:-0.0831696 61:-0.0638768 62:-0.257055 63:-0.195267 64:-0.205304 65:0.0554323 66:-0.180846 67:-0.324065 68:-0.0386323 69:0.115147 70:0.327699 71:0.0443145 72:-0.225655 73:0.343637 74:0.119411 75:0.156473 76:0.139931 77:-0.185611 78:0.097451 79:0.0202117 80:-0.00797884 81:-0.211935 82:0.147928 83:-0.00856952 84:-0.247424 85:0.280918 86:-0.0492227 87:-0.11092 88:-0.0496989 89:-0.0500726 90:0.343637 91:-0.112104 92:-0.208278 93:-0.0371965 94:-0.00709257 95:0.229173 96:-0.22628 97:0.269181 98:0.215509 99:-0.126238 100:-0.198735 101:-0.203636 102:-0.252911 103:0.0861923 104:-0.300126 105:-0.177774 106:0.0293796 107:-0.258179 108:0.0460719 109:0.265035 110:-0.210058 111:-0.319262 112:-0.218585 113:-0.103433 114:0.0101332 115:-0.142959 116:0.0430735 117:0.169006 118:0.0180559 119:-0.131244 120:-0.0535707 121:0.0724824 122:0.205492 123:0.0130552 124:0.15461 125:-0.0528551 126:0.0731089 127:-0.0194618 128:0.395363 129:0.0812194 130:-0.137441 131:-0.147035 132:0.0524339 133:0.0512385 134:-0.236054 135:0.199287 136:0.218959 137:-0.0193096 138:-0.229886 139:0.092248 140:0.0558269 141:-0.00898742 142:-0.294173 143:0.0546102 144:-0.156159 145:0.114916 146:-0.0654472 147:0.203315 148:0.189668 149:0.038978 150:-0.28495 151:0.0625693 152:0.0557055 153:0.185707 154:0.15824 155:-0.277253 156:-0.245305 157:-0.0455618 158:-0.00733595 159:-0.0705518 160:-0.184328 161:0.0302118 162:0.303187 163:-0.122614 164:0.195764 165:-0.0626537 166:-0.154762 167:-0.298311 168:0.284515 169:0.11867 170:0.0535123 171:0.00871544 172:-0.089935 173:-0.151588 174:-0.217519 175:-0.194427 176:-0.308429 177:0.210114 178:-0.298139 179:0.168521 180:-0.236922 181:0.12179 182:-0.198735 183:-0.235322 184:0.0162684 185:0.119515 186:0.021431 187:-0.296301 188:-0.334695 189:-0.0752325 190:0.0640026 191:-0.306656 192:0.153705 193:0.0199622 194:0.308806 195:0.112307 196:-0.038893 197:-0.202862 198:-0.3194 199:-0.0033993 200:-0.157495 201:-0.133279 202:-0.0372226 203:-0.27999 204:-0.141836 205:-0.341754 206:0.344711 207:-0.0225401 208:0.118589 209:-0.0951152 210:-0.234986 211:-0.232041 212:-0.19895 213:0.0903089 214:-0.155399 215:0.225512 216:-0.0965969 217:0.237707 218:-0.0111178 219:0.0636746 220:-0.103812 221:-0.00249092 222:-0.105019 223:-0.0883335 224:0.109523 225:0.0602989 226:0.121322 227:-0.069668 228:-0.186237 229:0.054262 230:-0.291408 231:-0.0914024 232:-0.0360178 233:-0.0536289 234:0.0270043 235:-0.329193 236:-0.293585 237:-0.0939032 238:-0.0646617 239:-0.309816 240:0.0259265 241:-0.14048 242:-0.294109 243:0.0327788 244:-0.316747 245:-0.049848 246:0.0526412 247:0.0706928 248:0.014403 249:0.0640338 250:-0.244119 251:0.0945688 252:-0.0284676 253:-0.000834435 254:-0.154668 255:0.180947 256:-0.172942 257:-0.100938 258:-0.0413552 259:0.0216693 260:-0.259294 261:-0.00674515 262:-0.261049 263:-0.289345 264:-0.319194 265:-0.0803464 266:0.0795354 267:0.00376195 
0.1 1:-0.192041 2:-0.0177087 3:0.0439476 4:0.0330231 5:0.104139 6:1 7:0.105011 8:0.139809 9:-0.109709 10:0.177621 11:-0.196097 12:0.210344 13:0.146474 14:0.413239 15:0.120398 16:0.0695642 17:0.0462167 18:0.120901 19:0.109302 20:0.111205 21:0.0931863 22:0.0939445 23:0.0479515 24:-0.128037 25:-0.211703 26:0.146117 27:-0.0286189 28:0.064465 29:-0.235345 30:0.134617 31:0.11765 32:-0.00586932 33:-0.0419503 34:-0.199872 35:-0.191411 36:0.0442862 37:-0.223715 38:-0.0260497 39:0.0445117 40:-0.113846 41:-0.123098 42:-0.00159616 43:0.00935266 44:-0.155497 45:0.0858011 46:0.0695295 47:-0.034051 48:0.0524819 49:-0.116374 50:-0.209647 51:0.0105116 52:-0.0476929 53:-0.230253 54:-0.255956 55:-0.00819551 56:-0.177254 57:0.113957 58:0.139322 59:0.176383 60:-0.115832 61:-0.0045799 62:-0.195967 63:-0.154823 64:-0.200083 65:-0.0514285 66:-0.110101 67:-0.21912 68:-0.00222525 69:0.0990115 70:0.154832 71:0.104618 72:-0.122936 73:0.216658 74:-0.00650039 75:0.0437731 76:0.0743115 77:-0.0502319 78:-0.0588403 79:0.100431 80:-0.0389984 81:-0.167865 82:0.042468 83:0.00302155 84:-0.188464 85:0.064465 86:-0.029353 87:-0.108225 88:-0.0416953 89:-0.0802347 90:0.216658 91:-0.0806423 92:-0.214813 93:0.0139129 94:-0.0581871 95:0.0787547 96:-0.151751 97:0.146474 98:0.123993 99:-0.0688014 100:-0.128003 101:-0.186577 102:-0.176566 103:0.0348262 104:-0.206578 105:-0.204184 106:0.0405814 107:-0.157443 108:0.0494393 109:0.120419 110:-0.215895 111:-0.259774 112:-0.186257 113:-0.021606 114:0.046603 115:0.0314499 116:-0.00213218 117:0.413239 118:0.0159691 119:-0.178727 120:-0.0267969 121:-0.0314027 122:0.103075 123:-0.0502595 124:0.124004 125:-0.102592 126:0.0630196 127:0.00252477 128:0.111225 129:-0.022937 130:-0.116909 131:-0.148595 132:0.0354764 133:0.133751 134:-0.152723 135:0.102424 136:0.179901 137:0.00838333 138:-0.209159 139:-0.0334145 140:0.102349 141:0.0363114 142:-0.205659 143:-0.146727 144:-0.182294 145:0.130062 146:0.0822791 147:-0.176401 148:0.10945 149:0.0710262 150:-0.218635 151:0.0249184 152:-0.0445709 153:0.0792007 154:-0.0169662 155:-0.201836 156:-0.221807 157:-0.0199025 158:0.106029 159:0.0504587 160:-0.0633485 161:-0.0466098 162:0.0808996 163:0.0219822 164:0.0928533 165:-0.0192249 166:-0.157863 167:-0.1474 168:0.0661722 169:0.0475641 170:-0.109067 171:-0.0974567 172:-0.0641899 173:-0.0699266 174:-0.11095 175:-0.0337251 176:-0.227128 177:0.162334 178:-0.0997845 179:0.107382 180:-0.179163 181:0.0109711 182:-0.128003 183:-0.212137 184:0.046994 185:0.0948657 186:0.0591796 187:-0.196057 188:-0.21689 189:-0.126836 190:0.0979159 191:-0.214262 192:0.0989959 193:0.0605785 194:0.193257 195:0.0538291 196:-0.022242 197:-0.198663 198:-0.245914 199:0.064598 200:-0.169181 201:-0.0634361 202:-0.0521359 203:-0.12928 204:-0.0696563 205:-0.243421 206:0.195865 207:-0.0933597 208:-0.137433 209:-0.175926 210:-0.161342 211:-0.141656 212:-0.0507736 213:0.181422 214:-0.121302 215:0.103627 216:-0.0540499 217:0.0666005 218:0.0919976 219:0.0453972 220:-0.0997139 221:-0.0474373 222:0.0249809 223:-0.112112 224:0.119884 225:0.00354521 226:0.0785279 227:-0.100808 228:-0.207399 229:0.15762 230:-0.224016 231:-0.0239247 232:0.0872187 233:0.0488697 234:0.000815569 235:-0.223263 236:-0.136975 237:-0.0542321 238:-0.0123726 239:-0.193108 240:0.115288 241:-0.195749 242:-0.196708 243:-0.0218869 244:-0.213821 245:0.0698252 246:0.086737 247:0.0311514 248:0.0407861 249:0.106346 250:-0.166929 251:0.0425674 252:0.1172 253:0.105634 254:-0.131688 255:0.111643 256:-0.14727 257:-0.0464912 258:0.0539636 259:-0.00151891 260:-0.196949 261:0.0658841 262:-0.222513 263:-0.168732 264:-0.109026 265:-0.0306757 266:0.00835708 267:0.0844843 
0.1 1:-0.222608 2:-0.14712 3:-0.205743 4:-0.149003 5:0.20759 6:0.105011 7:1 8:0.152412 9:-0.239407 10:0.197376 11:-0.203103 12:0.0808283 13:0.234332 14:0.188803 15:0.108728 16:0.121156 17:-0.00162255 18:0.144404 19:0.262429 20:0.183602 21:0.218384 22:0.000476482 23:0.122479 24:-0.200459 25:-0.268033 26:0.122916 27:-0.0654107 28:0.0920139 29:-0.308695 30:0.146181 31:0.0167392 32:0.238521 33:-0.165773 34:-0.249114 35:-0.186905 36:-0.003672 37:-0.298125 38:-0.0359856 39:0.343151 40:-0.128772 41:-0.172509 42:0.0299975 43:0.0948525 44:-0.222686 45:0.212317 46:0.219262 47:-0.14043 48:0.220542 49:-0.0543117 50:-0.236203 51:-0.128752 52:-0.094809 53:-0.175417 54:-0.2566 55:-0.140481 56:-0.262192 57:0.262009 58:0.125977 59:0.175642 60:-0.136806 61:0.0760894 62:-0.263063 63:-0.256542 64:-0.125317 65:-0.036243 66:-0.100713 67:-0.314356 68:-0.220951 69:0.116721 70:0.164474 71:0.168101 72:-0.259449 73:0.134321 74:-0.0245915 75:0.266606 76:0.212388 77:-0.163915 78:0.0282528 79:0.107249 80:0.11261 81:-0.279949 82:-0.0391484 83:-0.0692436 84:-0.202542 85:0.0920139 86:-0.00552071 87:-0.24043 88:-0.254913 89:-0.108308 90:0.134321 91:-0.284001 92:-0.263777 93:-0.233057 94:-0.113695 95:-0.060248 96:-0.300073 97:0.234332 98:0.205755 99:-0.168344 100:-0.279261 101:-0.253899 102:-0.302861 103:-0.0651367 104:-0.311765 105:-0.282318 106:-0.177199 107:-0.291725 108:0.156703 109:0.187988 110:-0.219221 111:-0.282335 112:-0.192183 113:-0.149319 114:0.0841695 115:-0.238592 116:0.194659 117:0.188803 118:-0.0216984 119:-0.212023 120:-0.109005 121:-0.0186356 122:0.166781 123:-0.00136811 124:0.112011 125:0.0746497 126:0.0228732 127:0.0355546 128:0.229389 129:-0.000496216 130:-0.169524 131:-0.189055 132:0.00458675 133:0.0322475 134:-0.304564 135:0.286665 136:0.219173 137:0.274844 138:-0.263243 139:0.0827943 140:0.160198 141:-0.203455 142:-0.280023 143:-0.122351 144:-0.0878205 145:0.288466 146:0.127926 147:-0.0430211 148:0.127709 149:-0.00367691 150:-0.31001 151:-0.151771 152:0.032503 153:-0.0505517 154:0.0730919 155:-0.236451 156:-0.144482 157:-0.0945232 158:0.0957714 159:0.293126 160:-0.153968 161:-0.149709 162:0.202821 163:-0.147509 164:-0.0189966 165:-0.069282 166:-0.251401 167:-0.292581 168:0.288654 169:0.212423 170:-0.0646028 171:-0.0294406 172:-0.102917 173:-0.144747 174:-0.225411 175:-0.201086 176:-0.315917 177:0.195348 178:-0.285676 179:0.172934 180:-0.225612 181:-0.0762052 182:-0.279261 183:-0.266672 184:0.190817 185:0.120821 186:0.192643 187:-0.292064 188:-0.291279 189:-0.127494 190:0.185582 191:-0.270557 192:0.253571 193:0.152403 194:0.128505 195:-0.134221 196:0.00756929 197:-0.193013 198:-0.212155 199:0.00587371 200:-0.048066 201:-0.167223 202:-0.0859433 203:-0.297186 204:-0.156621 205:-0.276516 206:0.201851 207:-0.0661214 208:-0.0226194 209:-0.210121 210:-0.288665 211:-0.231374 212:-0.193892 213:0.0271538 214:-0.120864 215:-0.0234008 216:-0.239347 217:0.355625 218:0.139492 219:0.0405749 220:-0.206842 221:-0.0542738 222:-0.100592 223:0.0777348 224:-0.0543246 225:-0.032698 226:0.175325 227:-0.206858 228:-0.255609 229:0.188961 230:-0.215364 231:-0.0321919 232:-0.0766345 233:0.264249 234:-3.20323e-05 235:-0.297672 236:-0.331155 237:-0.176855 238:-0.0792424 239:-0.208461 240:0.0199417 241:-0.282531 242:-0.253159 243:-0.0572107 244:-0.297389 245:0.200902 246:-0.0117478 247:0.00955234 248:-0.0143811 249:0.0650377 250:-0.251978 251:0.179013 252:0.150803 253:0.116018 254:-0.226347 255:0.124517 256:-0.176039 257:-0.105313 258:0.129368 259:0.145575 260:-0.32206 261:0.123846 262:-0.227084 263:-0.27552 264:-0.293682 265:-0.113667 266:-0.00417775 267:0.157607 
0.1 1:-0.240485 2:-0.102799 3:0.00787907 4:0.108609 5:0.263777 6:0.139809 7:0.152412 8:1 9:-0.214054 10:0.272899 11:-0.174118 12:0.361831 13:0.229201 14:0.174984 15:0.143979 16:0.0301639 17:0.0654214 18:0.161311 19:0.163823 20:0.195938 21:0.248392 22:0.0185668 23:0.0430193 24:-0.192337 25:-0.296372 26:0.141383 27:-0.0472825 28:0.117332 29:-0.307792 30:0.140251 31:0.305206 32:-0.00878008 33:-0.0238596 34:-0.20735 35:-0.211993 36:0.105574 37:-0.307678 38:0.00670071 39:0.137764 40:-0.0997556 41:-0.149297 42:0.132456 43:0.0127484 44:-0.227566 45:0.113597 46:0.148455 47:-0.119441 48:0.0765901 49:-0.130475 50:-0.284309 51:0.0432412 52:-0.0925853 53:-0.226131 54:-0.336199 55:0.102672 56:-0.209438 57:0.233237 58:0.213151 59:0.175669 60:-0.129821 61:-0.041561 62:-0.303296 63:-0.221329 64:-0.220908 65:0.0991003 66:-0.241505 67:-0.314757 68:-0.0578992 69:0.0689713 70:0.219907 71:0.069251 72:-0.249363 73:0.301055 74:0.0522036 75:0.200518 76:0.166248 77:-0.140231 78:0.125874 79:0.083732 80:-0.0236532 81:-0.118249 82:0.143749 83:-0.0225468 84:-0.183613 85:0.117332 86:-0.0762478 87:-0.153361 88:-0.131752 89:-0.0376894 90:0.301055 91:-0.155554 92:-0.223278 93:-0.0404597 94:0.101411 95:0.204945 96:-0.242917 97:0.229201 98:0.227912 99:-0.151106 100:-0.232532 101:-0.220793 102:-0.279618 103:0.0594266 104:-0.307344 105:-0.282395 106:0.0365579 107:-0.269286 108:0.0280693 109:0.218466 110:-0.198087 111:-0.338938 112:-0.245335 113:-0.129504 114:0.00536736 115:-0.0681849 116:0.0247955 117:0.174984 118:-0.00855234 119:-0.227254 120:-0.0829138 121:0.0363751 122:0.159131 123:0.0467734 124:0.110378 125:-0.0160369 126:0.0632315 127:-0.0418423 128:0.196304 129:0.0197464 130:-0.0323438 131:-0.190439 132:0.0439873 133:0.0873173 134:-0.169816 135:0.188602 136:0.181155 137:0.0456312 138:-0.230987 139:0.146837 140:0.223172 141:-0.0607293 142:-0.299234 143:-0.0247875 144:-0.161878 145:0.119076 146:0.0429071 147:-0.0700294 148:0.249856 149:0.0518528 150:-0.306078 151:0.08283 152:-0.0160369 153:0.222419 154:0.128996 155:-0.271867 156:-0.203296 157:-0.0756401 158:0.0542145 159:0.10689 160:-0.12392 161:-0.0256098 162:0.244707 163:-0.117431 164:0.201432 165:-0.0260328 166:-0.203982 167:-0.250859 168:0.146907 169:0.0870271 170:-0.0259053 171:-0.0542683 172:-0.0876687 173:-0.143361 174:-0.178347 175:-0.124139 176:-0.314044 177:0.179636 178:-0.291561 179:0.170833 180:-0.259138 181:0.135011 182:-0.232532 183:-0.27048 184:0.0684218 185:0.189771 186:0.0770446 187:-0.301239 188:-0.299888 189:-0.0744078 190:0.155362 191:-0.273889 192:0.164182 193:0.0770505 194:0.257403 195:0.112493 196:-0.0962371 197:-0.247349 198:-0.313124 199:0.00312783 200:-0.187296 201:-0.158818 202:-0.105812 203:-0.297035 204:-0.149291 205:-0.305983 206:0.303057 207:-0.0939146 208:0.062985 209:-0.166203 210:-0.263033 211:-0.241946 212:-0.210439 213:0.119459 214:-0.206351 215:0.243074 216:-0.109488 217:0.150259 218:0.0449711 219:0.0030586 220:-0.187149 221:-0.0687735 222:0.0330062 223:-0.0730126 224:0.108918 225:0.0512891 226:0.129315 227:-0.175087 228:-0.149961 229:0.146892 230:-0.299097 231:-0.123029 232:-0.00317291 233:0.0709699 234:0.0445693 235:-0.307162 236:-0.274915 237:-0.037061 238:-0.0297276 239:-0.187582 240:0.0415708 241:-0.14802 242:-0.290297 243:-0.0283382 244:-0.319874 245:0.122712 246:0.0271378 247:0.103459 248:-0.000707267 249:0.14673 250:-0.244657 251:0.0723376 252:0.0466848 253:0.0610599 254:-0.226331 255:0.162505 256:-0.225055 257:-0.107379 258:0.0276052 259:0.00948731 260:-0.295026 261:0.0378316 262:-0.245329 263:-0.282394 264:-0.257957 265:-0.0878082 266:-0.00975485 267:0.105709 
0.1 1:0.372578 2:0.420369 3:0.419935 4:0.0911141 5:-0.177944 6:-0.109709 7:-0.239407 8:-0.214054 9:1 10:-0.24258 11:0.40037 12:-0.217084 13:-0.240323 14:-0.213376 15:-0.153947 16:-0.201542 17:-0.147879 18:-0.221846 19:-0.227931 20:-0.318726 21:-0.283114 22:-0.012779 23:-0.19672 24:0.123945 25:0.38853 26:-0.176341 27:-0.0764773 28:-0.0158425 29:0.389055 30:-0.168336 31:-0.0449284 32:-0.226001 33:0.0944097 34:0.320397 35:0.372972 36:0.0334596 37:0.389137 38:0.0594076 39:-0.315444 40:0.244373 41:-0.0188834 42:-0.0379262 43:-0.168933 44:0.450929 45:-0.194325 46:-0.235165 47:0.134868 48:-0.231288 49:-0.0189052 50:0.408351 51:0.072211 52:0.0489399 53:0.215107 54:0.443049 55:-0.0112956 56:0.337819 57:-0.31977 58:-0.233338 59:-0.179403 60:0.103325 61:-0.0984619 62:0.365271 63:0.227244 64:0.278678 65:-0.020478 66:0.0694415 67:0.375031 68:0.488939 69:-0.111861 70:-0.28991 71:-0.180494 72:0.314358 73:-0.236365 74:-0.132555 75:-0.288415 76:-0.275323 77:0.0575199 78:0.0313066 79:-0.171434 80:-0.0934367 81:0.332653 82:0.0110813 83:-0.08586 84:0.146029 85:-0.0158425 86:0.143974 87:0.647844 88:0.562211 89:0.252412 90:-0.236365 91:0.640861 92:0.404396 93:0.489796 94:0.137271 95:0.042613 96:0.574338 97:-0.240323 98:-0.2688 99:-0.0157467 100:0.615077 101:0.407483 102:0.577023 103:0.117501 104:0.487651 105:0.424786 106:0.316221 107:0.4394 108:-0.129573 109:-0.18912 110:0.33632 111:0.477083 112:0.359737 113:-0.0620196 114:-0.115755 115:0.249111 116:-0.171301 117:-0.213376 118:-0.156814 119:0.414262 120:-0.0838635 121:-0.0291818 122:-0.21791 123:0.0199357 124:-0.224762 125:-0.0499394 126:-0.175475 127:-0.154803 128:-0.238769 129:-0.034316 130:0.0519347 131:0.135936 132:-0.0206158 133:-0.183516 134:0.386517 135:-0.225922 136:-0.202104 137:-0.26356 138:0.441954 139:-0.0114208 140:-0.230498 141:0.462156 142:0.368743 143:0.156011 144:0.140958 145:-0.272827 146:-0.259667 147:0.111489 148:-0.1438 149:-0.148918 150:0.401253 151:0.246501 152:-0.0499394 153:-0.0209856 154:-0.161154 155:0.334219 156:0.290354 157:-0.102129 158:-0.217371 159:-0.284867 160:0.0850612 161:0.362616 162:-0.27403 163:0.124975 164:-0.0296151 165:0.0414929 166:0.470628 167:0.480119 168:-0.259823 169:-0.253713 170:0.0739284 171:0.219945 172:0.18333 173:-0.000202991 174:0.35005 175:0.102925 176:0.413371 177:-0.21798 178:0.36437 179:-0.150533 180:0.290994 181:0.144063 182:0.615077 183:0.389178 184:-0.252245 185:-0.237791 186:-0.208995 187:0.384904 188:0.341238 189:0.276343 190:-0.224367 191:0.368017 192:-0.164945 193:-0.195794 194:-0.174116 195:0.174827 196:-0.000820063 197:0.397754 198:0.464644 199:-0.16651 200:0.102729 201:-0.0197244 202:-0.0311809 203:0.36305 204:0.269929 205:0.391356 206:-0.270857 207:-0.0610539 208:-0.0161789 209:0.406351 210:0.49753 211:0.200596 212:0.0735763 213:-0.1714 214:0.0178163 215:-0.0771056 216:0.393801 217:-0.322393 218:-0.206976 219:-0.0771907 220:0.0982877 221:0.0348038 222:-0.0730451 223:0.0395927 224:0.049051 225:-0.0840275 226:-0.245202 227:0.433256 228:0.3245 229:-0.16483 230:0.339811 231:-0.102816 232:-0.0457785 233:-0.259001 234:-0.0864907 235:0.353613 236:0.41614 237:0.0949589 238:-0.00149919 239:0.218054 240:-0.0274311 241:0.350317 242:0.495188 243:-0.0328662 244:0.371446 245:-0.226749 246:-0.159622 247:-0.105183 248:-0.124088 249:-0.191669 250:0.509535 251:-0.174407 252:-0.234332 253:-0.188122 254:0.0773299 255:-0.218565 256:0.235213 257:-0.0712188 258:-0.231958 259:-0.172334 260:0.483925 261:-0.15957 262:0.317673 263:0.346683 264:0.418447 265:-0.0612508 266:0.0144754 267:-0.202838 
0.1 1:-0.32864 2:-0.0117992 3:0.0924788 4:0.0445596 5:0.609687 6:0.177621 7:0.197376 8:0.272899 9:-0.24258 10:1 11:-0.260021 12:0.555675 13:0.361013 14:0.25659 15:0.261432 16:-0.0195538 17:-0.00648674 18:0.264986 19:0.215672 20:0.433332 21:0.254432 22:0.0541372 23:-0.0415276 24:-0.255864 25:-0.380602 26:0.2056 27:-0.0383886 28:0.223396 29:-0.364952 30:0.157932 31:0.377552 32:-0.0447361 33:-0.0546465 34:-0.330928 35:-0.178894 36:0.0705618 37:-0.364827 38:0.121184 39:0.210537 40:-0.01426 41:-0.170751 42:0.273621 43:-0.0641024 44:-0.327377 45:0.0841166 46:0.171635 47:-0.00453831 48:0.0385548 49:-0.203532 50:-0.329063 51:-0.0077647 52:-0.111041 53:-0.253877 54:-0.414067 55:0.107854 56:-0.207913 57:0.211442 58:0.135933 59:0.124845 60:-0.150556 61:-0.0556293 62:-0.373653 63:-0.273624 64:-0.291167 65:0.174615 66:-0.255662 67:-0.359104 68:0.0231727 69:0.106713 70:0.405256 71:0.0393459 72:-0.25087 73:0.416728 74:-0.0128885 75:0.187803 76:0.157932 77:-0.283327 78:0.16179 79:0.046321 80:-0.0379206 81:-0.197481 82:0.247316 83:-0.0354456 84:-0.296658 85:0.223396 86:0.0148261 87:-0.194785 88:-0.0893061 89:-0.0260378 90:0.416728 91:-0.148657 92:-0.30716 93:0.024447 94:0.121452 95:0.364488 96:-0.226272 97:0.361013 98:0.412388 99:-0.149147 100:-0.230741 101:-0.278654 102:-0.296023 103:0.181894 104:-0.32528 105:-0.298967 106:0.154345 107:-0.285086 108:0.115637 109:0.318364 110:-0.293659 111:-0.387157 112:-0.343109 113:-0.126525 114:-0.0160285 115:-0.0726627 116:-0.0527164 117:0.25659 118:-0.0428221 119:-0.16447 120:-0.0775467 121:0.0645045 122:0.269032 123:0.105145 124:0.116166 125:-0.162326 126:0.0136675 127:-0.0658371 128:0.432594 129:0.00708937 130:-0.16508 131:-0.215084 132:0.0796539 133:0.0918326 134:-0.276235 135:0.159975 136:0.393368 137:-0.0287347 138:-0.335157 139:0.140246 140:0.166184 141:-0.0321838 142:-0.342348 143:0.00253396 144:-0.339827 145:0.152085 146:-0.0890834 147:0.102331 148:0.2876 149:-0.00897702 150:-0.365412 151:0.236754 152:0.00880975 153:0.386164 154:0.0985595 155:-0.340141 156:-0.403074 157:-0.0908911 158:0.0145838 159:-0.101133 160:-0.250999 161:0.0885329 162:0.355477 163:-0.150654 164:0.311724 165:-0.130143 166:-0.275643 167:-0.32634 168:0.207749 169:0.160001 170:-0.0133079 171:-0.0430064 172:-0.0521516 173:-0.174305 174:-0.343727 175:-0.144156 176:-0.33234 177:0.320737 178:-0.322068 179:0.211672 180:-0.300197 181:0.172387 182:-0.230741 183:-0.286297 184:0.0496743 185:0.0681213 186:0.0259637 187:-0.31878 188:-0.356326 189:-0.165246 190:0.0909311 191:-0.330183 192:0.163698 193:0.0402706 194:0.375489 195:0.248148 196:-0.0903244 197:-0.276618 198:-0.361491 199:-0.0731661 200:-0.251578 201:-0.168266 202:-0.0886194 203:-0.301891 204:-0.187235 205:-0.364813 206:0.606709 207:-0.220737 208:0.0516051 209:-0.253492 210:-0.278502 211:-0.294368 212:-0.259583 213:0.0722549 214:-0.280868 215:0.401844 216:-0.0532716 217:0.274977 218:0.0118336 219:0.0570389 220:-0.211393 221:-0.04717 222:-0.142353 223:-0.176337 224:0.259275 225:0.00964039 226:0.0637834 227:-0.0745046 228:-0.283582 229:0.0870882 230:-0.358277 231:-0.154845 232:-0.0159955 233:-0.0553577 234:0.0594974 235:-0.364264 236:-0.305329 237:-0.0829726 238:0.00410182 239:-0.387171 240:0.0784031 241:-0.214706 242:-0.353329 243:0.0382582 244:-0.338462 245:0.0112264 246:0.0376207 247:0.018529 248:0.00936356 249:0.125574 250:-0.259127 251:0.042896 252:-0.00708489 253:0.0469553 254:-0.251661 255:0.181112 256:-0.212355 257:-0.136207 258:-0.0288399 259:0.00522139 260:-0.284879 261:0.0193355 262:-0.320147 263:-0.324176 264:-0.330103 265:-0.103866 266:0.00277768 267:-0.0109707 
0.1 1:0.359213 2:0.298499 3:0.226538 4:-0.00153761 5:-0.0124465 6:-0.196097 7:-0.203103 8:-0.174118 9:0.40037 10:-0.260021 11:1 12:-0.335854 13:-0.291004 14:-0.244658 15:-0.210884 16:-0.220152 17:-0.0548463 18:-0.268338 19:-0.18768 20:-0.166586 21:-0.329422 22:-0.0713447 23:-0.170727 24:0.189486 25:0.462112 26:-0.15161 27:0.0561616 28:-0.0687528 29:0.391825 30:-0.266514 31:-0.296601 32:-0.245883 33:0.13089 34:0.491806 35:0.579805 36:-0.053787 37:0.374727 38:-0.0911118 39:-0.25762 40:0.317035 41:0.197588 42:-0.210071 43:-0.167381 44:0.358481 45:-0.242452 46:-0.197669 47:0.0602593 48:-0.180614 49:0.104147 50:0.356371 51:-0.067246 52:0.0492329 53:0.265123 54:0.388312 55:-0.116647 56:0.362414 57:-0.168078 58:-0.209839 59:-0.182887 60:0.236333 61:-0.151046 62:0.369213 63:0.254229 64:0.306844 65:-0.0910154 66:0.0688027 67:0.395414 68:0.292172 69:-0.240174 70:-0.181602 71:-0.149101 72:0.33767 73:-0.281888 74:0.0379596 75:-0.27438 76:-0.216262 77:0.250266 78:-0.044644 79:-0.189361 80:-0.119556 81:0.188689 82:-0.167011 83:-0.153145 84:0.242717 85:-0.0687528 86:-0.09373 87:0.538511 88:0.408076 89:0.0549803 90:-0.281888 91:0.422516 92:0.482341 93:0.293334 94:-0.00358417 95:-0.0344851 96:0.328327 97:-0.291004 98:-0.328063 99:0.0158002 100:0.468571 101:0.4906 102:0.380449 103:0.0169441 104:0.432339 105:0.665217 106:0.130873 107:0.441692 108:-0.178654 109:-0.308917 110:0.471099 111:0.440365 112:0.43796 113:-0.0290405 114:-0.20629 115:0.0890809 116:-0.058742 117:-0.244658 118:0.0707719 119:0.579441 120:-0.0368469 121:0.0096468 122:-0.230882 123:-0.089252 124:-0.135556 125:0.00660485 126:-0.0413524 127:-0.104353 128:-0.155775 129:-0.0649533 130:0.0863985 131:0.220085 132:-0.268219 133:-0.210145 134:0.426516 135:-0.150516 136:-0.330316 137:-0.250781 138:0.445437 139:-0.139117 140:-0.32003 141:0.294962 142:0.42264 143:0.229155 144:0.432041 145:-0.270961 146:-0.237183 147:0.361207 148:-0.262337 149:-0.0296188 150:0.495402 151:0.0638883 152:0.0411804 153:-0.176737 154:-0.00538108 155:0.322198 156:0.356334 157:-0.0403914 158:-0.184086 159:-0.251729 160:0.171092 161:0.131819 162:-0.186013 163:0.053654 164:-0.156368 165:0.0756391 166:0.45302 167:0.402392 168:-0.149016 169:-0.21445 170:0.170064 171:0.173908 172:0.052164 173:-0.0421341 174:0.448347 175:0.0189309 176:0.451597 177:-0.246409 178:0.36882 179:-0.252905 180:0.263823 181:0.040785 182:0.468571 183:0.409115 184:-0.181359 185:-0.179571 186:-0.234293 187:0.421325 188:0.380066 189:0.172941 190:-0.276838 191:0.372217 192:-0.217242 193:-0.217852 194:-0.255474 195:0.0209185 196:-0.0763761 197:0.441127 198:0.407848 199:-0.100178 200:0.135696 201:0.0279851 202:0.0967975 203:0.382292 204:0.241985 205:0.394902 206:-0.37829 207:0.166366 208:0.250186 209:0.777116 210:0.459404 211:0.211046 212:0.153145 213:-0.0917005 214:0.166784 215:-0.224059 216:0.296864 217:-0.22992 218:-0.196301 219:-0.0147352 220:0.217136 221:0.069988 222:-0.0521544 223:0.0220634 224:-0.102499 225:0.0663616 226:-0.166519 227:0.292353 228:0.53115 229:-0.27006 230:0.364221 231:-0.0640524 232:-0.105102 233:-0.24629 234:-0.148474 235:0.392247 236:0.400788 237:0.1503 238:-0.141099 239:0.264173 240:-0.0699792 241:0.432586 242:0.396056 243:-0.0593255 244:0.391378 245:-0.310529 246:-0.126304 247:0.00526056 248:-0.0750171 249:-0.194193 250:0.32714 251:-0.0924266 252:-0.191079 253:-0.234677 254:0.187003 255:-0.168246 256:0.176347 257:-0.0220956 258:-0.192098 259:-0.170009 260:0.375642 261:-0.269996 262:0.366171 263:0.367277 264:0.328154 265:-0.0286082 266:0.0883339 267:-0.151967 
0.1 1:-0.297011 2:0.0339819 3:0.16727 4:0.208639 5:0.36059 6:0.210344 7:0.0808283 8:0.361831 9:-0.217084 10:0.555675 11:-0.335854 12:1 13:0.29304 14:0.231316 15:0.225177 16:-0.0554402 17:0.0238531 18:0.323488 19:0.147777 20:0.230219 21:0.37967 22:0.0795316 23:-0.107516 24:-0.225248 25:-0.358782 26:0.205972 27:0.00632281 28:0.360162 29:-0.343069 30:0.156029 31:0.659717 32:-0.0442187 33:0.0290681 34:-0.37822 35:-0.26512 36:0.173288 37:-0.342939 38:0.172366 39:0.0911476 40:-0.0872808 41:-0.283958 42:0.407308 43:-0.104728 44:-0.297221 45:0.0685315 46:0.118784 47:0.0488507 48:-0.0190515 49:-0.225012 50:-0.300371 51:0.144 52:-0.0699389 53:-0.342173 54:-0.390308 55:0.335012 56:-0.169764 57:0.0105818 58:0.182234 59:0.120492 60:-0.195448 61:-0.0521799 62:-0.352121 63:-0.244251 64:-0.33576 65:0.260038 66:-0.227261 67:-0.336985 68:0.09243 69:0.111226 70:0.202935 71:-0.0419218 72:-0.219475 73:0.673353 74:-0.0668145 75:0.217346 76:0.0553453 77:-0.258078 78:0.217429 79:0.0237266 80:0.00801993 81:-0.187837 82:0.351597 83:0.102155 84:-0.284232 85:0.360162 86:0.0703131 87:-0.181957 88:-0.0298397 89:0.0288646 90:0.673353 91:-0.0959835 92:-0.337539 93:0.0936772 94:0.190718 95:0.404939 96:-0.18342 97:0.29304 98:0.436188 99:-0.117999 100:-0.18797 101:-0.274701 102:-0.261887 103:0.25606 104:-0.296462 105:-0.264092 106:0.232844 107:-0.252164 108:0.0743482 109:0.37611 110:-0.368199 111:-0.362475 112:-0.376342 113:-0.0943359 114:-0.00977492 115:0.119493 116:-0.0854103 117:0.231316 118:-0.098465 119:-0.26608 120:-0.0650534 121:0.136989 122:0.227865 123:0.169527 124:0.0900971 125:-0.123512 126:0.0108986 127:-0.0407788 128:0.18499 129:0.0456136 130:-0.0847015 131:-0.208784 132:0.179207 133:0.0959476 134:-0.244436 135:0.0854768 136:0.308096 137:-0.101495 138:-0.335544 139:0.208105 140:0.226889 141:0.0121911 142:-0.319549 143:-0.0820994 144:-0.357672 145:0.0938819 146:-0.147485 147:-0.118088 148:0.450662 149:-0.0250185 150:-0.355572 151:0.322116 152:-0.00957104 153:0.625803 154:0.0618532 155:-0.330336 156:-0.410181 157:-0.0566688 158:-0.0514383 159:-0.159978 160:-0.218994 161:0.161561 162:0.223637 163:-0.111468 164:0.470507 165:-0.0902917 166:-0.303714 167:-0.293024 168:0.0946303 169:0.037437 170:-0.131178 171:-0.019649 172:-0.00224672 173:-0.144299 174:-0.316208 175:-0.106589 176:-0.320434 177:0.28859 178:-0.295073 179:0.145149 180:-0.273549 181:0.230282 182:-0.18797 183:-0.300427 184:-0.01327 185:0.00382923 186:-0.0149793 187:-0.293962 188:-0.334096 189:-0.184074 190:0.0778818 191:-0.304093 192:0.0727537 193:-0.0123641 194:0.589669 195:0.332814 196:-0.0379602 197:-0.241148 198:-0.347865 199:-0.0479307 200:-0.262716 201:-0.137148 202:-0.0874412 203:-0.277422 204:-0.14538 205:-0.340614 206:0.719166 207:-0.243285 208:-0.0732299 209:-0.296674 210:-0.243083 211:-0.268039 212:-0.232359 213:0.0626567 214:-0.254519 215:0.697381 216:0.00478921 217:0.0940397 218:-0.0477155 219:0.0342105 220:-0.17677 221:-0.0276573 222:-0.0946367 223:-0.150266 224:0.38487 225:-0.0174679 226:-0.0670159 227:-0.017754 228:-0.401765 229:0.0592828 230:-0.332583 231:-0.14568 232:0.0306389 233:-0.0213506 234:0.256285 235:-0.342354 236:-0.273758 237:-0.0327791 238:0.0519821 239:-0.365608 240:0.0805181 241:-0.331277 242:-0.321575 243:0.0619398 244:-0.315505 245:0.0480775 246:0.016981 247:-0.00853328 248:0.00622657 249:0.111374 250:-0.218852 251:-0.0172227 252:-0.0625983 253:0.00119507 254:-0.224591 255:0.149526 256:-0.178382 257:-0.103252 258:-0.0806711 259:-0.0905789 260:-0.254035 261:0.0717891 262:-0.302985 263:-0.300632 264:-0.300751 265:-0.0702471 266:-0.00204617 267:-0.0707113 
0.1 1:-0.264669 2:-0.139054 3:-0.0845147 4:-0.0715841 5:0.269181 6:0.146474 7:0.234332 8:0.229201 9:-0.240323 10:0.361013 11:-0.291004 12:0.29304 13:1 14:0.334793 15:0.19032 16:0.195405 17:-0.0537916 18:0.32666 19:0.174309 20:0.289163 21:0.352055 22:-0.0242714 23:0.18709 24:-0.236919 25:-0.334154 26:0.0901399 27:-0.107203 28:0.0394448 29:-0.321696 30:0.14016 31:0.15865 32:0.206006 33:-0.133898 34:-0.312167 35:-0.246532 36:-0.00367819 37:-0.321603 38:-0.0614246 39:0.413929 40:-0.122495 41:-0.175553 42:0.0254335 43:0.171022 44:-0.242872 45:0.164816 46:0.328101 47:-0.150119 48:0.248706 49:-0.128576 50:-0.282571 51:-0.130104 52:-0.152651 53:-0.241712 54:-0.333314 55:-0.0171834 56:-0.275445 57:0.321873 58:0.194658 59:0.123673 60:-0.216613 61:-0.0745535 62:-0.291743 63:-0.258509 64:-0.237489 65:-0.00257017 66:-0.156554 67:-0.335343 68:-0.121016 69:0.0608617 70:0.402998 71:0.145028 72:-0.279296 73:0.245381 74:-0.0917915 75:0.344866 76:0.231206 77:-0.269249 78:-0.0169115 79:0.05629 80:0.011155 81:-0.212713 82:0.0131259 83:-0.0679931 84:-0.246276 85:0.0394448 86:-0.0811895 87:-0.241772 88:-0.197679 89:-0.124095 90:0.245381 91:-0.234823 92:-0.355759 93:-0.119867 94:-0.0366418 95:0.01936 96:-0.260023 97:1 98:0.534586 99:-0.191447 100:-0.285158 101:-0.31301 102:-0.303233 103:-0.0257943 104:-0.328252 105:-0.306922 106:-0.0617237 107:-0.311785 108:0.0677692 109:0.261161 110:-0.315703 111:-0.353089 112:-0.291637 113:-0.174138 114:-0.0231296 115:-0.136757 116:-0.00266913 117:0.334793 118:-0.103673 119:-0.23666 120:-0.138239 121:-0.0904223 122:0.264984 123:-0.0699572 124:0.0964762 125:-0.12726 126:-0.0462193 127:-0.0722155 128:0.249991 129:-0.0465633 130:-0.192158 131:-0.228517 132:0.0190844 133:0.0339232 134:-0.301899 135:0.227335 136:0.353585 137:0.232549 138:-0.311659 139:-0.0274975 140:0.303232 141:-0.13128 142:-0.322581 143:-0.126654 144:-0.241362 145:0.212135 146:0.172184 147:-0.119386 148:0.118336 149:-0.06197 150:-0.32596 151:-0.0165165 152:-0.0543803 153:0.113379 154:0.0284422 155:-0.268357 156:-0.285316 157:-0.140393 158:0.0473484 159:0.222561 160:-0.225513 161:-0.107062 162:0.388359 163:-0.128023 164:0.0617886 165:-0.139853 166:-0.300286 167:-0.30602 168:0.1611 169:0.296957 170:-0.147979 171:-0.150395 172:-0.146321 173:-0.164276 174:-0.312214 175:-0.208853 176:-0.33013 177:0.259467 178:-0.303488 179:0.163737 180:-0.267208 181:-0.0243321 182:-0.285158 183:-0.285355 184:0.252062 185:0.134572 186:0.15987 187:-0.315325 188:-0.315249 189:-0.209976 190:0.277752 191:-0.299451 192:0.218888 193:0.18224 194:0.222723 195:-0.0379204 196:-0.108772 197:-0.299534 198:-0.298408 199:-0.0328914 200:-0.235134 201:-0.192104 202:-0.140285 203:-0.309017 204:-0.195946 205:-0.315223 206:0.408234 207:-0.183222 208:-0.138854 209:-0.29985 210:-0.29085 211:-0.253432 212:-0.252863 213:-0.00652279 214:-0.199877 215:0.150644 216:-0.163877 217:0.334024 218:0.0714399 219:-0.0404577 220:-0.233807 221:-0.110511 222:-0.144477 223:-0.118506 224:0.0226593 225:-0.0820356 226:0.246643 227:-0.190432 228:-0.317295 229:0.136259 230:-0.29257 231:-0.0956861 232:-0.0834747 233:0.212309 234:-0.0184878 235:-0.330229 236:-0.316526 237:-0.153448 238:-0.110521 239:-0.301821 240:-0.0154911 241:-0.334675 242:-0.293731 243:-0.0815856 244:-0.328483 245:0.148234 246:-0.049392 247:-0.0312041 248:-0.0640572 249:0.0692494 250:-0.272199 251:0.0553003 252:0.0968386 253:0.12969 254:-0.246167 255:0.127806 256:-0.242489 257:-0.153165 258:0.19142 259:0.179792 260:-0.297908 261:0.0298737 262:-0.29084 263:-0.308753 264:-0.313601 265:-0.157591 266:-0.0893459 267:0.0301879 
0.1 1:-0.29127 2:-0.0877864 3:-0.0778439 4:0.0211754 5:0.169006 6:0.413239 7:0.188803 8:0.174984 9:-0.213376 10:0.25659 11:-0.244658 12:0.231316 13:0.334793 14:1 15:0.196086 16:0.210235 17:0.0701634 18:0.286501 19:0.0751238 20:0.262515 21:0.299577 22:0.0131544 23:0.182561 24:-0.224038 25:-0.284272 26:0.127385 27:-0.0859546 28:0.035942 29:-0.318531 30:0.11712 31:0.117276 32:0.140564 33:-0.0985819 34:-0.260069 35:-0.241857 36:-0.0260571 37:-0.309317 38:-0.0857175 39:0.246899 40:-0.138178 41:-0.145383 42:-0.0247693 43:0.120625 44:-0.238535 45:0.138971 46:0.224454 47:-0.126476 48:0.173548 49:-0.1512 50:-0.298289 51:-0.0424648 52:-0.130671 53:-0.31755 54:-0.360077 55:-0.0497794 56:-0.22295 57:0.261799 58:0.21857 59:0.178 60:-0.185845 61:-0.0859503 62:-0.288307 63:-0.236611 64:-0.263058 65:-0.0457044 66:-0.221924 67:-0.314152 68:-0.114611 69:0.0502946 70:0.14731 71:0.184727 72:-0.239183 73:0.159791 74:0.053651 75:0.196872 76:0.176379 77:-0.0355565 78:-0.0415148 79:0.0902741 80:-0.0957413 81:-0.208146 82:0.0287141 83:-0.079249 84:-0.278277 85:0.035942 86:-0.142829 87:-0.203164 88:-0.168397 89:-0.0987417 90:0.159791 91:-0.195292 92:-0.283398 93:-0.113466 94:-0.0304631 95:0.0466489 96:-0.233709 97:0.334793 98:0.354622 99:-0.157638 100:-0.237176 101:-0.277769 102:-0.278635 103:0.00134345 104:-0.295424 105:-0.292358 106:-0.0434241 107:-0.258485 108:0.00512002 109:0.18347 110:-0.243936 111:-0.339727 112:-0.239462 113:-0.140858 114:-0.0261336 115:-0.0407883 116:-0.0603558 117:1 118:0.0319062 119:-0.263812 120:-0.112807 121:-0.0667749 122:0.174629 123:-0.0840703 124:0.060275 125:-0.177644 126:0.00203697 127:-0.0903531 128:0.189094 129:-0.0228378 130:-0.188016 131:-0.233822 132:0.0632166 133:0.0510359 134:-0.240765 135:0.192652 136:0.292598 137:0.154753 138:-0.297036 139:-0.00170808 140:0.287424 141:-0.0682605 142:-0.283698 143:-0.152012 144:-0.2274 145:0.149358 146:0.181914 147:-0.144796 148:0.116025 149:-0.0137648 150:-0.312864 151:0.00216284 152:-0.058303 153:0.120799 154:-0.052382 155:-0.273906 156:-0.281286 157:-0.114913 158:0.0749671 159:0.258285 160:-0.0918793 161:-0.112309 162:0.281714 163:-0.0417025 164:0.0188018 165:-0.0998332 166:-0.25468 167:-0.248942 168:0.100347 169:0.206834 170:-0.163284 171:-0.11376 172:-0.151089 173:-0.160716 174:-0.200663 175:-0.0833064 176:-0.298347 177:0.188273 178:-0.187171 179:0.125371 180:-0.272708 181:-0.0179584 182:-0.237176 183:-0.263671 184:0.189884 185:0.255958 186:0.0883172 187:-0.285286 188:-0.303014 189:-0.185415 190:0.272091 191:-0.295966 192:0.146543 193:0.1701 194:0.164901 195:0.0141331 196:-0.096228 197:-0.275026 198:-0.336148 199:-0.0208934 200:-0.221949 201:-0.172871 202:-0.0949855 203:-0.236699 204:-0.140847 205:-0.30223 206:0.265676 207:-0.0865987 208:-0.133756 209:-0.241629 210:-0.25597 211:-0.249887 212:-0.104317 213:0.0875198 214:-0.196038 215:0.158084 216:-0.158338 217:0.137373 218:0.0634896 219:-0.0285171 220:-0.211648 221:-0.105745 222:0.0155717 223:-0.14281 224:0.03918 225:-0.0164744 226:0.282 227:-0.173978 228:-0.188299 229:0.181914 230:-0.317914 231:-0.184557 232:0.0393513 233:0.158583 234:0.00508155 235:-0.318016 236:-0.243024 237:-0.118302 238:-0.0559387 239:-0.251411 240:0.00569221 241:-0.210295 242:-0.310763 243:-0.0533243 244:-0.289776 245:0.146957 246:-0.0196119 247:0.0206299 248:-0.0452415 249:0.13462 250:-0.278428 251:-0.0316728 252:0.151288 253:0.140375 254:-0.234466 255:0.098589 256:-0.22971 257:-0.126225 258:0.206057 259:0.135055 260:-0.265664 261:-0.0148108 262:-0.307609 263:-0.28802 264:-0.200594 265:-0.117109 266:0.0112855 267:0.0419107 
0.1 1:-0.219392 2:0.0200367 3:0.0234774 4:-0.00787674 5:0.160813 6:0.120398 7:0.108728 8:0.143979 9:-0.153947 10:0.261432 11:-0.210884 12:0.225177 13:0.19032 14:0.196086 15:1 16:0.0853978 17:0.0609825 18:0.250154 19:0.123214 20:0.246313 21:0.228622 22:0.0180672 23:0.0615443 24:-0.164043 25:-0.259173 26:0.160327 27:-0.0318243 28:0.0468325 29:-0.269948 30:0.120725 31:0.160216 32:0.109694 33:-0.0831986 34:-0.225315 35:-0.246159 36:-0.0305265 37:-0.269844 38:0.0946289 39:0.109984 40:-0.156651 41:-0.125058 42:0.0877383 43:0.0659064 44:-0.232578 45:0.128155 46:0.093145 47:0.00956993 48:0.102157 49:-0.163857 50:-0.259674 51:0.0638084 52:-0.127916 53:-0.181286 54:-0.24396 55:0.0595574 56:-0.203085 57:0.124735 58:0.157802 59:0.109727 60:-0.162674 61:0.0116405 62:-0.162748 63:-0.190598 64:-0.226308 65:0.0554132 66:-0.0797528 67:-0.276398 68:0.00749576 69:0.0444051 70:0.158401 71:0.100602 72:-0.216287 73:0.210227 74:0.0586779 75:0.212127 76:0.138295 77:-0.0957092 78:0.0912105 79:0.0596574 80:-0.00985172 81:-0.157246 82:0.0735139 83:0.0867356 84:-0.17847 85:0.0468325 86:-0.044944 87:-0.153262 88:-0.0461429 89:-0.00828472 90:0.210227 91:-0.127078 92:-0.2405 93:-0.00612655 94:0.107403 95:0.0860798 96:-0.181144 97:0.19032 98:0.185863 99:-0.128189 100:-0.198489 101:-0.214272 102:-0.191242 103:0.0688613 104:-0.256474 105:-0.231778 106:0.0494674 107:-0.221174 108:0.0642673 109:0.191893 110:-0.216955 111:-0.272661 112:-0.272189 113:-0.108562 114:0.0796419 115:-0.0487336 116:-0.0249192 117:0.196086 118:0.0124152 119:-0.23371 120:-0.0569208 121:-0.0233574 122:0.15485 123:-0.0170323 124:0.076506 125:-0.10505 126:-0.00509806 127:-0.0282703 128:0.097063 129:-0.0838505 130:-0.0738278 131:-0.173594 132:0.0901229 133:0.161128 134:-0.226299 135:0.114904 136:0.1976 137:0.0788022 138:-0.249957 139:0.0494063 140:0.145343 141:-0.0400949 142:-0.26232 143:-0.136246 144:-0.208211 145:0.117789 146:0.111216 147:-0.216697 148:0.198831 149:0.0210234 150:-0.243637 151:0.063003 152:-0.0249945 153:0.113092 154:0.0010939 155:-0.22559 156:-0.273093 157:-0.0501995 158:0.116667 159:0.0539255 160:-0.135625 161:-0.0364748 162:0.154816 163:-0.106621 164:0.0872529 165:-0.000595927 166:-0.198811 167:-0.22888 168:0.10811 169:0.110165 170:-0.137438 171:-0.139568 172:0.0158701 173:-0.11114 174:-0.260181 175:-0.0261354 176:-0.275186 177:0.113048 178:-0.207808 179:0.130186 180:-0.202938 181:-0.020184 182:-0.198489 183:-0.235708 184:0.102151 185:0.144358 186:0.103377 187:-0.264139 188:-0.274065 189:-0.141748 190:0.164379 191:-0.261829 192:0.110978 193:0.121007 194:0.197048 195:0.104667 196:0.0363334 197:-0.238458 198:-0.259916 199:0.0698455 200:-0.182255 201:-0.125041 202:-0.044642 203:-0.195916 204:-0.173389 205:-0.279599 206:0.270114 207:-0.127168 208:-0.102455 209:-0.245114 210:-0.214532 211:-0.209843 212:-0.117554 213:0.11057 214:-0.101617 215:0.135742 216:-0.0579894 217:0.13875 218:0.103354 219:0.0414907 220:-0.147795 221:-0.0845989 222:-0.00960856 223:-0.175887 224:0.0886462 225:0.0958794 226:0.12561 227:-0.0903101 228:-0.256639 229:0.0852742 230:-0.273259 231:-0.122409 232:-0.0334118 233:0.0857316 234:0.042045 235:-0.269377 236:-0.21378 237:-0.107787 238:-0.00535506 239:-0.206038 240:-0.00136672 241:-0.209773 242:-0.238416 243:-0.0150514 244:-0.259054 245:0.113413 246:0.0338648 247:-0.00208337 248:-0.0180922 249:0.185895 250:-0.142172 251:0.0195231 252:0.106152 253:0.146282 254:-0.15432 255:0.0898978 256:-0.137752 257:-0.097561 258:0.0698172 259:0.0410716 260:-0.21009 261:0.105749 262:-0.223812 263:-0.247045 264:-0.260226 265:-0.0888905 266:-0.102845 267:0.0802146 
0.1 1:-0.149898 2:-0.231891 3:-0.262016 4:-0.128417 5:-0.039451 6:0.0695642 7:0.121156 8:0.0301639 9:-0.201542 10:-0.0195538 11:-0.220152 12:-0.0554402 13:0.195405 14:0.210235 15:0.0853978 16:1 17:0.0386379 18:0.197469 19:0.036217 20:0.120873 21:0.211421 22:-0.0155423 23:0.214718 24:-0.0775572 25:-0.14597 26:-0.0116442 27:-0.0837737 28:-0.155391 29:-0.138231 30:0.0501239 31:-0.112006 32:0.185092 33:-0.187857 34:-0.163699 35:-0.236938 36:-0.123871 37:-0.138161 38:-0.13014 39:0.1515 40:-0.230017 41:-0.058728 42:-0.0798239 43:0.192778 44:-0.168973 45:0.190292 46:0.103555 47:-0.12137 48:0.15161 49:-0.0857072 50:-0.188819 51:-0.103436 52:-0.116729 53:-0.149722 54:-0.168026 55:-0.051566 56:-0.165152 57:0.152312 58:0.155644 59:0.0555192 60:-0.109797 61:0.0379573 62:-0.143103 63:-0.105119 64:-0.173479 65:-0.0838716 66:-0.0731859 67:-0.0687758 68:-0.263486 69:-0.00299727 70:0.0324099 71:0.196432 72:-0.0404215 73:0.0215799 74:0.00804907 75:0.200903 76:0.211798 77:-0.0923688 78:-0.147466 79:0.084183 80:-0.0692075 81:-0.0773043 82:-0.0672297 83:0.0360141 84:-0.105188 85:-0.155391 86:-0.066633 87:-0.222932 88:-0.257533 89:-0.151404 90:0.0215799 91:-0.237391 92:-0.156823 93:-0.262133 94:-0.177342 95:-0.171994 96:-0.160826 97:0.195405 98:0.184565 99:-0.0093579 100:-0.203344 101:-0.193466 102:-0.110594 103:-0.176772 104:-0.141966 105:-0.215987 106:-0.24793 107:-0.178712 108:0.047866 109:0.0363022 110:-0.166454 111:-0.143986 112:-0.162682 113:0.140033 114:0.0725879 115:-0.17237 116:0.0111367 117:0.210235 118:-0.0111976 119:-0.247266 120:0.0259258 121:-0.109217 122:0.125703 123:-0.118767 124:0.0942716 125:-0.142712 126:0.0238797 127:0.114696 128:0.0103846 129:-0.127337 130:-0.102659 131:-0.117445 132:0.024007 133:0.124453 134:-0.129484 135:0.0848161 136:0.167597 137:0.208702 138:-0.200797 139:-0.143712 140:0.224225 141:-0.235724 142:-0.12556 143:-0.201111 144:-0.186809 145:0.137741 146:0.257072 147:-0.222921 148:-0.0380952 149:0.00951249 150:-0.159535 151:-0.249106 152:-0.100887 153:-0.186298 154:-0.0375731 155:-0.114041 156:-0.207778 157:0.0243161 158:0.247335 159:0.236715 160:-0.148775 161:-0.247092 162:0.227275 163:-0.134851 164:-0.124853 165:-0.104831 166:-0.191506 167:-0.195123 168:0.00578508 169:0.181044 170:-0.183445 171:-0.177035 172:-0.109059 173:-0.0164248 174:-0.189189 175:-0.0894596 176:-0.165626 177:0.0449473 178:-0.159496 179:0.0558064 180:-0.0980581 181:-0.168273 182:-0.203344 183:-0.0716447 184:0.216864 185:0.167778 186:0.140439 187:-0.118599 188:0.0151718 189:-0.12987 190:0.22886 191:-0.156326 192:0.111548 193:0.203129 194:-0.00928348 195:-0.231996 196:-0.0252221 197:-0.182582 198:-0.20802 199:0.0105594 200:-0.0900405 201:0.0031434 202:-0.0693231 203:-0.102825 204:-0.208303 205:-0.151336 206:0.0941654 207:-0.0843653 208:-0.155591 209:-0.227142 210:-0.165096 211:-0.0876981 212:-0.0772271 213:0.0273651 214:-0.105027 215:-0.158808 216:-0.211514 217:0.0837236 218:0.233244 219:0.0588057 220:0.00132633 221:-0.102229 222:-0.0210633 223:-0.16333 224:-0.15492 225:-0.00597982 226:0.207626 227:-0.216138 228:-0.160232 229:0.0999903 230:-0.181096 231:-0.0421525 232:-0.0542618 233:0.21394 234:-0.100251 235:-0.0963118 236:-0.164314 237:-0.178327 238:0.0123012 239:-0.141082 240:-0.0149006 241:-0.15229 242:-0.202398 243:-0.0173751 244:-0.107108 245:0.15289 246:0.0909728 247:-0.014967 248:0.0077661 249:0.106025 250:-0.181735 251:0.00815746 252:0.20039 253:0.184045 254:-0.0813006 255:0.148184 256:-0.0997262 257:-0.0138253 258:0.308221 259:0.138525 260:-0.0830026 261:0.0781505 262:-0.181674 263:-0.0188529 264:-0.134894 265:0.0778384 266:-0.161086 267:0.0659511 
0.1 1:-0.108812 2:-0.172796 3:-0.225406 4:0.0721009 5:0.0645111 6:0.0462167 7:-0.00162255 8:0.0654214 9:-0.147879 10:-0.00648674 11:-0.0548463 12:0.0238531 13:-0.0537916 14:0.0701634 15:0.0609825 16:0.0386379 17:1 18:-0.0297211 19:-0.0567088 20:0.116575 21:-0.044698 22:0.0434254 23:0.0268377 24:-0.0644335 25:-0.0760966 26:0.0366841 27:-0.0319717 28:-0.0938989 29:-0.141223 30:0.0170778 31:-0.0204542 32:0.0423154 33:-0.00604273 34:-0.0187867 35:-0.147985 36:0.057681 37:-0.153345 38:0.0374386 39:-0.106214 40:-0.122733 41:0.171277 42:0.0215773 43:0.0140294 44:-0.126415 45:0.0731509 46:-0.0253045 47:-0.139434 48:-0.0182157 49:0.154794 50:-0.224097 51:0.0216932 52:-0.0404202 53:-0.00430512 54:-0.191574 55:0.0794703 56:-0.137659 57:0.0469586 58:0.129852 59:0.0729365 60:-0.0284361 61:0.182513 62:-0.0741193 63:-0.0191965 64:-0.0937973 65:0.0753991 66:-0.0601516 67:-0.136698 68:-0.259022 69:0.0391853 70:-0.0183476 71:0.0550698 72:-0.15659 73:0.0530852 74:0.233456 75:0.00109781 76:-0.00324719 77:0.0594641 78:-0.105657 79:0.0758265 80:-0.00828699 81:0.0351957 82:0.043146 83:0.168191 84:-0.0464162 85:-0.0938989 86:0.0310734 87:-0.206776 88:-0.235609 89:-0.0735293 90:0.0530852 91:-0.256047 92:-0.110729 93:-0.241418 94:-0.119699 95:-0.0990806 96:-0.0470319 97:-0.0537916 98:-0.0558479 99:0.0177058 100:-0.254213 101:-0.130067 102:-0.106457 103:-0.0910072 104:-0.168479 105:-0.232444 106:-0.176844 107:-0.0492615 108:0.0408334 109:0.146698 110:-0.0219475 111:-0.144153 112:-0.0435714 113:0.035899 114:0.166964 115:-0.0632266 116:0.142739 117:0.0701634 118:0.150228 119:-0.17724 120:0.0584659 121:-0.0600019 122:-0.0383197 123:0.0106312 124:0.0473201 125:-0.110516 126:0.124401 127:0.0704667 128:0.0461359 129:-0.11236 130:-0.0526115 131:-0.10949 132:0.099006 133:0.0628957 134:0.0289482 135:0.0890969 136:-0.0571543 137:0.00793939 138:-0.0828207 139:-0.143778 140:0.100242 141:-0.20802 142:-0.111715 143:-0.0614859 144:-0.0641466 145:-0.0794611 146:0.15578 147:-0.0511917 148:0.0239428 149:0.13297 150:-0.117339 151:-0.193821 152:-0.0367254 153:-0.102577 154:0.084492 155:-0.0688904 156:-0.0616938 157:0.0758158 158:0.0795987 159:0.024937 160:-0.0565346 161:-0.25346 162:0.0770606 163:-0.136554 164:0.030037 165:0.0494194 166:-0.0164311 167:-0.115762 168:0.108325 169:-0.0463274 170:-0.0214352 171:-0.0493486 172:-0.0443153 173:0.039337 174:-0.0932167 175:0.0441349 176:-0.179023 177:-0.0559939 178:-0.17057 179:0.151829 180:-0.0586204 181:-0.0330883 182:-0.254213 183:-0.0799895 184:-0.0205755 185:0.313029 186:0.0357749 187:-0.137413 188:-0.146682 189:-0.0292252 190:0.148035 191:-0.17874 192:0.0513712 193:0.0630961 194:-0.00204093 195:-0.157741 196:0.0523567 197:-0.21254 198:-0.234581 199:0.107558 200:-0.0693955 201:-0.0157851 202:0.0316114 203:-0.0922571 204:-0.22426 205:-0.170493 206:0.00508234 207:0.114189 208:0.0928969 209:-0.101951 210:-0.200476 211:-0.00900528 212:-0.0325868 213:0.150864 214:0.00952658 215:-0.0827303 216:-0.221481 217:-0.0397381 218:0.00565414 219:0.0973538 220:-0.10746 221:-0.0398741 222:0.189956 223:-0.0680979 224:-0.118499 225:0.105157 226:0.231253 227:-0.21283 228:0.0498455 229:0.0302943 230:-0.187344 231:0.143591 232:-0.0223595 233:0.107904 234:-0.0372959 235:-0.140691 236:-0.160463 237:-0.0325304 238:0.17601 239:-0.0681751 240:0.0443025 241:0.262339 242:-0.181908 243:0.00733881 244:-0.108738 245:0.106691 246:0.125651 247:0.147435 248:0.110948 249:0.0843024 250:-0.13548 251:0.0950555 252:0.0857228 253:0.0867288 254:-0.0286632 255:0.0246461 256:-0.0487341 257:0.0220909 258:0.022532 259:0.0665042 260:-0.0955079 261:0.143885 262:-0.167418 263:-0.109603 264:0.0156058 265:0.0455826 266:-0.0696992 267:0.154746 
0.1 1:-0.262932 2:-0.0875728 3:-0.0248964 4:-0.0402301 5:0.163553 6:0.120901 7:0.144404 8:0.161311 9:-0.221846 10:0.264986 11:-0.268338 12:0.323488 13:0.32666 14:0.286501 15:0.250154 16:0.197469 17:-0.0297211 18:1 19:0.138749 20:0.198805 21:0.308213 22:-0.0231416 23:0.305166 24:-0.21024 25:-0.30784 26:0.0747367 27:-0.0839646 28:0.0624372 29:-0.296377 30:0.0889711 31:0.206686 32:0.233496 33:-0.0965508 34:-0.278846 35:-0.237193 36:-0.0300159 37:-0.28798 38:0.0154602 39:0.304953 40:-0.123329 41:-0.209761 42:0.0821155 43:0.212383 44:-0.26982 45:0.150708 46:0.24043 47:-0.04391 48:0.216492 49:-0.201808 50:-0.278386 51:-0.0364575 52:-0.13305 53:-0.268686 54:-0.316414 55:0.0532024 56:-0.200815 57:0.207104 58:0.178111 59:0.0489893 60:-0.183522 61:-0.0621461 62:-0.268877 63:-0.213409 64:-0.273645 65:0.0683455 66:-0.208052 67:-0.292358 68:-0.0691187 69:-0.00316971 70:0.155424 71:0.148511 72:-0.224086 73:0.23154 74:-0.0636555 75:0.245931 76:0.173202 77:-0.232593 78:0.0208506 79:0.03107 80:-0.0772754 81:-0.19639 82:0.0459389 83:-0.02078 84:-0.243321 85:0.0624372 86:-0.0494203 87:-0.202812 88:-0.139881 89:-0.0875415 90:0.23154 91:-0.175195 92:-0.264852 93:-0.0681451 94:0.0128716 95:0.120605 96:-0.200498 97:0.32666 98:0.46857 99:0.0740198 100:-0.223402 101:-0.250606 102:-0.242051 103:0.0418228 104:-0.26685 105:-0.263888 106:0.0161123 107:-0.242186 108:0.0477088 109:0.197051 110:-0.282063 111:-0.29813 112:-0.27766 113:-0.133375 114:0.031957 115:-0.0714881 116:-0.0815803 117:0.286501 118:-0.10307 119:-0.228137 120:-0.0943486 121:-0.0162276 122:0.213397 123:-0.0205053 124:0.0565995 125:-0.159657 126:-0.0298259 127:-0.0939999 128:0.126337 129:-0.0772538 130:-0.135999 131:-0.202356 132:0.0737843 133:0.106731 134:-0.217082 135:0.1402 136:0.284919 137:0.230756 138:-0.277722 139:0.0189588 140:0.29257 141:-0.100979 142:-0.280848 143:-0.108051 144:-0.28503 145:0.143276 146:0.181247 147:-0.166939 148:0.169291 149:-0.0576787 150:-0.291561 151:0.068343 152:-0.0927297 153:0.238137 154:-0.0220188 155:-0.27236 156:-0.327293 157:-0.0494226 158:0.0643763 159:0.171061 160:-0.216503 161:-0.0256117 162:0.242643 163:-0.151605 164:0.164175 165:-0.113143 166:-0.239026 167:-0.262854 168:0.0460668 169:0.25917 170:-0.146311 171:-0.148724 172:-0.0831835 173:-0.151676 174:-0.287742 175:-0.160999 176:-0.278227 177:0.141169 178:-0.271117 179:0.122753 180:-0.238103 181:0.00555713 182:-0.223402 183:-0.246382 184:0.306439 185:0.139711 186:0.0878681 187:-0.265982 188:-0.282195 189:-0.175652 190:0.213336 191:-0.275974 192:0.141057 193:0.177123 194:0.188989 195:0.0776122 196:-0.0781484 197:-0.248146 198:-0.284685 199:-0.0792917 200:-0.225344 201:-0.162825 202:-0.129692 203:-0.253092 204:-0.190179 205:-0.290475 206:0.361115 207:-0.207589 208:-0.11038 209:-0.247034 210:-0.249472 211:-0.241761 212:-0.225321 213:0.0136162 214:-0.22408 215:0.266917 216:-0.101535 217:0.12684 218:0.0649613 219:-0.00344777 220:-0.198992 221:-0.102436 222:-0.0961057 223:-0.208314 224:0.102602 225:-0.0621408 226:0.235184 227:-0.125585 228:-0.292391 229:0.0691444 230:-0.2962 231:-0.142916 232:-0.0621469 233:0.189551 234:0.0315931 235:-0.295905 236:-0.255383 237:-0.123668 238:-0.0489409 239:-0.303812 240:-0.00766292 241:-0.244212 242:-0.280604 243:-0.0321013 244:-0.270043 245:0.112391 246:-0.0222358 247:-0.0725021 248:-0.0125536 249:0.130465 250:-0.221482 251:-0.0199985 252:0.108699 253:0.129382 254:-0.219286 255:0.0726794 256:-0.182398 257:-0.141469 258:0.193589 259:0.167695 260:-0.231086 261:0.0331109 262:-0.268187 263:-0.268375 264:-0.261869 265:-0.118445 266:-0.117831 267:0.0140371 
0.1 1:-0.169905 2:-0.118206 3:-0.136689 4:-0.141254 5:0.116114 6:0.109302 7:0.262429 8:0.163823 9:-0.227931 10:0.215672 11:-0.18768 12:0.147777 13:0.174309 14:0.0751238 15:0.123214 16:0.036217 17:-0.0567088 18:0.138749 19:1 20:0.166856 21:0.224082 22:0.0723388 23:0.0537982 24:-0.154784 25:-0.256857 26:0.203123 27:-0.00233297 28:0.142048 29:-0.293546 30:0.157401 31:0.0529985 32:0.161458 33:-0.0516559 34:-0.323772 35:-0.225354 36:0.0910248 37:-0.293434 38:-0.0212604 39:0.264601 40:-0.114231 41:-0.16048 42:0.130275 43:0.0316103 44:-0.212934 45:0.170156 46:0.184306 47:-0.119266 48:0.148749 49:-0.0568644 50:-0.203522 51:-0.0572303 52:-0.0688158 53:-0.184577 54:-0.238413 55:-0.0541627 56:-0.26073 57:0.17373 58:0.060571 59:0.163896 60:-0.177714 61:0.0633828 62:-0.251957 63:-0.195625 64:-0.152801 65:0.0574905 66:-0.0764521 67:-0.300499 68:-0.154285 69:0.131963 70:0.274522 71:0.0836972 72:-0.23563 73:0.20444 74:-0.0440752 75:0.190686 76:0.172196 77:-0.174205 78:0.0960285 79:0.160376 80:0.103515 81:-0.239566 82:0.0256131 83:-0.0126657 84:-0.122916 85:0.142048 86:0.0392265 87:-0.258318 88:-0.179151 89:-0.0113165 90:0.20444 91:-0.23205 92:-0.314957 93:-0.168672 94:0.0151007 95:0.0207719 96:-0.270801 97:0.174309 98:0.167248 99:-0.140177 100:-0.246043 101:-0.219759 102:-0.264188 103:-0.0544961 104:-0.292294 105:-0.16828 106:-0.105357 107:-0.267747 108:0.280425 109:0.143382 110:-0.301973 111:-0.243227 112:-0.178873 113:-0.118956 114:0.0742641 115:-0.136376 116:0.160349 117:0.0751238 118:-0.0300641 119:-0.283393 120:-0.0927139 121:0.210141 122:0.131077 123:0.0189287 124:0.15481 125:0.14368 126:0.0125165 127:0.0372294 128:0.143317 129:0.0928587 130:-0.118508 131:-0.152085 132:0.0638479 133:0.103164 134:-0.298114 135:0.186154 136:0.228351 137:0.149243 138:-0.258154 139:0.117756 140:0.126768 141:-0.168577 142:-0.297318 143:0.0570287 144:-0.0561735 145:0.242479 146:0.0699261 147:-0.0565709 148:0.246665 149:-0.00871903 150:-0.2912 151:-0.0753901 152:0.106645 153:0.0198763 154:0.0572224 155:-0.245667 156:-0.161776 157:-0.0559212 158:0.0531153 159:0.112284 160:-0.111229 161:-0.0421097 162:0.150564 163:-0.105029 164:0.038487 165:-0.0266776 166:-0.244959 167:-0.263785 168:0.164679 169:0.169081 170:-0.109414 171:0.00138026 172:-0.126302 173:-0.121812 174:-0.217219 175:-0.158933 176:-0.312042 177:0.243605 178:-0.251827 179:0.118986 180:-0.1605 181:0.0185174 182:-0.246043 183:-0.281114 184:0.150824 185:0.00588309 186:0.153075 187:-0.28724 188:-0.285795 189:-0.128482 190:0.130572 191:-0.247075 192:0.0920179 193:0.0986943 194:0.167414 195:-0.042117 196:0.00390991 197:-0.0394928 198:-0.184374 199:0.0125223 200:-0.0494118 201:-0.136842 202:-0.0168356 203:-0.2718 204:-0.121798 205:-0.265625 206:0.241818 207:-0.0144484 208:-0.032482 209:-0.180206 210:-0.247792 211:-0.192763 212:-0.12891 213:0.0473973 214:-0.111744 215:0.0348109 216:-0.168711 217:0.330528 218:0.101838 219:0.0633603 220:-0.137089 221:-0.0446054 222:-0.155922 223:0.0455619 224:-0.0153696 225:-0.0222587 226:0.086802 227:-0.11499 228:-0.383136 229:0.135774 230:-0.166863 231:-0.0428076 232:0.0187287 233:0.170159 234:0.0797808 235:-0.292929 236:-0.273328 237:-0.0782187 238:0.00350405 239:-0.224622 240:0.0184849 241:-0.36411 242:-0.187987 243:-0.0181332 244:-0.317761 245:0.171999 246:0.0350121 247:-0.0358502 248:0.00847923 249:0.0540262 250:-0.199733 251:0.122521 252:0.0381795 253:0.067938 254:-0.168563 255:0.132484 256:-0.114326 257:-0.0862463 258:0.033605 259:0.0565137 260:-0.306043 261:0.0557012 262:-0.116779 263:-0.268755 264:-0.296604 265:-0.0777451 266:-0.0234484 267:0.0753603 
0.1 1:-0.333441 2:-0.186002 3:-0.261774 4:-0.228696 5:0.373015 6:0.111205 7:0.183602 8:0.195938 9:-0.318726 10:0.433332 11:-0.166586 12:0.230219 13:0.289163 14:0.262515 15:0.246313 16:0.120873 17:0.116575 18:0.198805 19:0.166856 20:1 21:0.183009 22:0.00428668 23:0.0871275 24:-0.148181 25:-0.304122 26:0.158008 27:0.105756 28:0.0521666 29:-0.291455 30:0.212428 31:0.0217337 32:0.0443313 33:-0.0353409 34:-0.228592 35:-0.0617766 36:-0.0658094 37:-0.302111 38:-0.0912996 39:0.290308 40:0.0110564 41:0.0528362 42:-0.0200355 43:0.0821858 44:-0.295189 45:0.126192 46:0.15688 47:-0.195748 48:0.14452 49:-0.105149 50:-0.272846 51:-0.182363 52:-0.0724454 53:-0.0337417 54:-0.282922 55:-0.105918 56:-0.276371 57:0.385759 58:0.117732 59:0.142443 60:-0.136407 61:0.01717 62:-0.287717 63:-0.216335 64:-0.241713 65:0.0021599 66:-0.253238 67:-0.286686 68:-0.277509 69:0.142509 70:0.415641 71:0.154836 72:-0.208386 73:0.214137 74:0.0709759 75:0.237603 76:0.242419 77:-0.234946 78:0.00958471 79:0.0193406 80:0.0484112 81:-0.283007 82:-0.00190345 83:-0.0675356 84:-0.0779746 85:0.0521666 86:-0.13654 87:-0.307818 88:-0.298101 89:-0.106616 90:0.214137 91:-0.340423 92:-0.289724 93:-0.289851 94:-0.173591 95:-0.0081748 96:-0.3671 97:0.289163 98:0.230647 99:-0.124381 100:-0.33317 101:-0.317428 102:-0.330698 103:-0.062069 104:-0.315825 105:-0.260574 106:-0.231422 107:-0.295165 108:0.057874 109:0.196762 110:-0.266687 111:-0.332377 112:-0.261525 113:-0.105741 114:-0.0410313 115:-0.240482 116:0.0470387 117:0.262515 118:0.081741 119:-0.137653 120:-0.0567803 121:-0.0586807 122:0.227426 123:-0.101118 124:0.207369 125:0.0701646 126:0.0529202 127:0.00515036 128:0.398343 129:0.0363268 130:-0.169971 131:-0.102249 132:0.0453009 133:0.043731 134:-0.353745 135:0.257821 136:0.314944 137:0.152913 138:-0.278018 139:-0.0274196 140:0.110185 141:-0.24409 142:-0.283585 143:-0.0364279 144:-0.247105 145:0.211519 146:0.121629 147:0.203164 148:0.155071 149:0.0343548 150:-0.257219 151:-0.177962 152:-0.016458 153:-0.00953424 154:0.079139 155:-0.271038 156:-0.274406 157:-0.00713432 158:0.149895 159:0.0429665 160:-0.208517 161:-0.244115 162:0.364512 163:-0.12594 164:0.0202004 165:-0.130021 166:-0.277986 167:-0.283257 168:0.369867 169:0.231762 170:0.059327 171:-0.210178 172:-0.135082 173:-0.126706 174:-0.28491 175:-0.253885 176:-0.275471 177:0.312129 178:-0.267004 179:0.241937 180:-0.227638 181:-0.123431 182:-0.33317 183:-0.237518 184:0.222936 185:0.2645 186:0.140608 187:-0.264204 188:-0.295105 189:-0.208897 190:0.193341 191:-0.273669 192:0.232924 193:0.139147 194:0.164355 195:-0.119277 196:-0.0761382 197:-0.326432 198:-0.287307 199:0.0184949 200:-0.165282 201:-0.130837 202:-0.0455228 203:-0.250244 204:-0.144368 205:-0.324665 206:0.303508 207:-0.073967 208:0.0519836 209:-0.223612 210:-0.352357 211:-0.233624 212:-0.215417 213:0.0841528 214:-0.12015 215:0.0406149 216:-0.266776 217:0.320629 218:0.131704 219:0.116666 220:-0.0140339 221:-0.0193974 222:-0.138299 223:-0.158816 224:-0.0987744 225:-0.00284357 226:0.254087 227:-0.285772 228:-0.235405 229:0.109876 230:-0.296852 231:0.0109296 232:-0.0349657 233:0.185985 234:-0.038538 235:-0.290895 236:-0.323902 237:-0.0586448 238:-0.14668 239:-0.320548 240:-0.0236967 241:-0.202578 242:-0.318228 243:-0.0079828 244:-0.269852 245:0.0824818 246:0.0294863 247:-0.00507646 248:0.0147543 249:0.0938311 250:-0.292226 251:0.0879118 252:0.137816 253:0.100832 254:-0.0998809 255:0.196206 256:-0.272745 257:-0.122932 258:0.111564 259:0.16244 260:-0.292736 261:0.0475379 262:-0.30289 263:-0.258199 264:-0.320601 265:-0.0870875 266:-0.0110992 267:0.123396 
0.1 1:-0.263927 2:-0.133698 3:-0.0701511 4:0.0325928 5:0.139978 6:0.0931863 7:0.218384 8:0.248392 9:-0.283114 10:0.254432 11:-0.329422 12:0.37967 13:0.352055 14:0.299577 15:0.228622 16:0.211421 17:-0.044698 18:0.308213 19:0.224082 20:0.183009 21:1 22:-0.0467836 23:0.224456 24:-0.227464 25:-0.285173 26:0.0861772 27:-0.119108 28:0.0564753 29:-0.308755 30:0.066304 31:0.225808 32:0.286944 33:-0.119154 34:-0.318096 35:-0.307512 36:-0.0127579 37:-0.308665 38:-0.0116358 39:0.379423 40:-0.199008 41:-0.234925 42:0.0953733 43:0.170713 44:-0.290505 45:0.187276 46:0.307841 47:-0.1082 48:0.262278 49:-0.149509 50:-0.299245 51:-0.0461249 52:-0.15507 53:-0.317917 54:-0.329596 55:0.0197531 56:-0.245927 57:0.296971 58:0.21003 59:0.11836 60:-0.242108 61:0.0027973 62:-0.306256 63:-0.248168 64:-0.218554 65:0.0721212 66:-0.183478 67:-0.321839 68:-0.116419 69:-0.00269345 70:0.162833 71:0.122232 72:-0.241978 73:0.242352 74:-0.0733288 75:0.461379 76:0.255947 77:-0.120358 78:0.0616734 79:0.0468278 80:-0.0224681 81:-0.223378 82:0.076025 83:-0.0654456 84:-0.261845 85:0.0564753 86:-0.00537595 87:-0.264112 88:-0.17873 89:-0.109752 90:0.242352 91:-0.22553 92:-0.313301 93:-0.115316 94:-0.025527 95:0.097138 96:-0.239384 97:0.352055 98:0.498749 99:-0.183816 100:-0.273776 101:-0.290567 102:-0.300875 103:0.0146701 104:-0.315062 105:-0.304583 106:-0.0264391 107:-0.299277 108:0.0862532 109:0.228256 110:-0.275227 111:-0.348336 112:-0.316817 113:-0.167215 114:0.0268943 115:-0.10266 116:0.004623 117:0.299577 118:-0.0996564 119:-0.318351 120:-0.146723 121:-0.0604608 122:0.192746 123:-0.0113039 124:0.0465635 125:-0.12232 126:-0.0305756 127:-0.0203116 128:0.0968331 129:-0.0887066 130:-0.167247 131:-0.245945 132:0.055296 133:0.0874407 134:-0.253294 135:0.179117 136:0.245417 137:0.269052 138:-0.299176 139:0.0111123 140:0.351833 141:-0.158778 142:-0.301076 143:-0.180225 144:-0.213144 145:0.232725 146:0.155048 147:-0.232224 148:0.169387 149:-0.0526578 150:-0.340384 151:0.0280227 152:-0.0611735 153:0.22931 154:0.0105548 155:-0.292365 156:-0.206842 157:-0.134853 158:0.0395952 159:0.350166 160:-0.181287 161:-0.0589261 162:0.329142 163:-0.192145 164:0.143872 165:-0.117451 166:-0.308011 167:-0.313902 168:0.0416331 169:0.26644 170:-0.210515 171:-0.134605 172:-0.140608 173:-0.172615 174:-0.28102 175:-0.17571 176:-0.32588 177:0.127819 178:-0.300253 179:0.121733 180:-0.282272 181:-0.0135745 182:-0.273776 183:-0.317298 184:0.241526 185:0.187213 186:0.153088 187:-0.294104 188:-0.302571 189:-0.182633 190:0.255405 191:-0.296339 192:0.0920838 193:0.17456 194:0.251672 195:0.0495568 196:-0.104563 197:-0.297284 198:-0.316389 199:-0.0605964 200:-0.225759 201:-0.184455 202:-0.166199 203:-0.271841 204:-0.236144 205:-0.311627 206:0.432022 207:-0.0876376 208:-0.133462 209:-0.28786 210:-0.288976 211:-0.243291 212:-0.258991 213:0.0218881 214:-0.20848 215:0.260145 216:-0.157489 217:0.242643 218:0.0800098 219:-0.0462409 220:-0.224482 221:-0.132186 222:-0.130981 223:-0.0298343 224:0.0502381 225:-0.100832 226:0.241144 227:-0.161881 228:-0.304552 229:0.181745 230:-0.290072 231:-0.108179 232:-0.104423 233:0.304881 234:0.0164514 235:-0.308262 236:-0.303824 237:-0.147458 238:-0.0743642 239:-0.209328 240:-0.038341 241:-0.32123 242:-0.251467 243:-0.055694 244:-0.315257 245:0.196141 246:-0.04757 247:-0.0451472 248:-0.0756933 249:0.0918417 250:-0.281967 251:0.0162448 252:0.0926752 253:0.0899856 254:-0.252297 255:0.115769 256:-0.232804 257:-0.154508 258:0.192952 259:0.181447 260:-0.295041 261:0.055206 262:-0.29923 263:-0.279539 264:-0.319925 265:-0.130162 266:-0.122295 267:0.0557443 
0.1 1:-0.0696955 2:-0.00233944 3:-0.05126 4:0.0111376 5:0.0610527 6:0.0939445 7:0.000476482 8:0.0185668 9:-0.012779 10:0.0541372 11:-0.0713447 12:0.0795316 13:-0.0242714 14:0.0131544 15:0.0180672 16:-0.0155423 17:0.0434254 18:-0.0231416 19:0.0723388 20:0.00428668 21:-0.0467836 22:1 23:-0.0070599 24:-0.0404502 25:-0.0931582 26:0.0888444 27:0.0419009 28:0.046655 29:-0.137198 30:0.0626682 31:0.0520001 32:-0.0539256 33:-0.0177081 34:-0.101905 35:-0.0798656 36:0.107096 37:-0.150391 38:-0.0286651 39:-0.0808029 40:-0.052067 41:0.0116315 42:0.0404092 43:-0.00968577 44:0.0268964 45:0.0366655 46:-0.0314102 47:0.00345598 48:-0.0366951 49:0.0127104 50:-0.0975272 51:0.0402662 52:0.0880293 53:-0.0450136 54:-0.130862 55:-0.0081284 56:-0.0472038 57:-0.0521954 58:0.00799724 59:0.0716085 60:-0.0408793 61:0.0300581 62:-0.131013 63:-0.0310008 64:-0.127656 65:0.0424583 66:-0.0370737 67:-0.132351 68:-0.0528302 69:0.0920096 70:0.0447424 71:0.0364699 72:-0.0337991 73:0.0716625 74:0.0851393 75:-0.00490233 76:0.00737249 77:-0.0318668 78:0.00845631 79:0.0850586 80:0.0317937 81:-0.104461 82:0.0363475 83:0.0838284 84:-0.0344191 85:0.046655 86:0.0789758 87:-0.0906677 88:-0.0121634 89:0.0553322 90:0.0716625 91:-0.0414658 92:-0.0883112 93:-0.0513853 94:0.0257387 95:0.0318119 96:-0.0474005 97:-0.0242714 98:-0.0521072 99:0.0108023 100:-0.0827766 101:-0.0317185 102:-0.06727 103:0.0263851 104:-0.108707 105:-0.0968326 106:-0.00233781 107:-0.064595 108:0.0250969 109:0.0168295 110:-0.134069 111:-0.138916 112:-0.0157868 113:0.0526174 114:0.0547705 115:-0.00645439 116:0.0213966 117:0.0131544 118:0.154907 119:-0.127137 120:0.0661861 121:0.114166 122:0.0167414 123:0.0722987 124:0.0338808 125:-0.0233723 126:0.0415711 127:0.0469796 128:0.0200479 129:0.0552766 130:-0.0010705 131:-0.0481527 132:0.0762387 133:0.042546 134:-0.0769716 135:0.000636414 136:0.047303 137:-0.0675699 138:-0.0864516 139:0.0496992 140:-0.00633832 141:-0.0562398 142:-0.1315 143:-0.0334789 144:-0.0806403 145:-0.0119451 146:0.095613 147:-0.0521131 148:0.164294 149:0.0614847 150:-0.110266 151:-0.0374301 152:0.0301626 153:0.031043 154:0.00681129 155:-0.0984019 156:-0.166364 157:0.0850732 158:0.0198555 159:-0.0684692 160:0.0227177 161:-0.0352659 162:-0.0296127 163:0.0398385 164:0.0650779 165:0.0439193 166:0.000873219 167:-0.0760119 168:0.0234263 169:-0.0417974 170:-0.0197412 171:-0.0348234 172:0.0385977 173:0.0227892 174:-0.0837138 175:0.0003465 176:-0.122357 177:0.0854209 178:-0.0178269 179:0.0175192 180:-0.0474774 181:0.0295884 182:-0.0827766 183:-0.0971551 184:-0.0507784 185:0.0118774 186:0.0131996 187:-0.12024 188:-0.143253 189:0.0299911 190:-0.017925 191:-0.109357 192:0.0486966 193:-0.0122346 194:0.0711486 195:-0.0189761 196:0.0839774 197:-0.0336366 198:-0.114087 199:0.0203624 200:-0.0317569 201:0.0201849 202:0.0372878 203:-0.122639 204:0.0532517 205:-0.140537 206:0.00803065 207:0.0657089 208:0.0173439 209:-0.0757679 210:-0.0799784 211:-0.0585127 212:0.00488398 213:0.0689417 214:0.064112 215:0.0468488 216:-0.0447892 217:-0.0408737 218:-0.00066389 219:0.0754788 220:-0.0337056 221:-0.0137309 222:-0.00598467 223:-0.027715 224:0.0660269 225:0.027543 226:0.00281609 227:-0.0501688 228:-0.139375 229:0.0648039 230:-0.115667 231:-0.00166888 232:0.187955 233:-0.00509282 234:0.0153929 235:-0.136629 236:-0.11301 237:-0.0611641 238:0.0845726 239:-0.111959 240:0.145952 241:-0.0923659 242:-0.10069 243:0.034059 244:-0.141245 245:0.00757875 246:0.0723756 247:0.0255423 248:0.0695604 249:0.0547873 250:-0.0646707 251:0.038959 252:0.103381 253:0.0615662 254:-0.0282551 255:0.0292313 256:-0.0366774 257:0.0607467 258:-0.0177055 259:-0.0527373 260:-0.0866834 261:0.0359154 262:-0.117178 263:-0.103322 264:-0.0954088 265:0.0522004 266:0.0944223 267:0.0156014 
0.1 1:-0.167254 2:-0.232011 3:-0.304921 4:-0.139148 5:-0.0336419 6:0.0479515 7:0.122479 8:0.0430193 9:-0.19672 10:-0.0415276 11:-0.170727 12:-0.107516 13:0.18709 14:0.182561 15:0.0615443 16:0.214718 17:0.0268377 18:0.305166 19:0.0537982 20:0.0871275 21:0.224456 22:-0.0070599 23:1 24:-0.10813 25:-0.109598 26:0.0144298 27:-0.0842827 28:-0.155161 29:-0.110412 30:0.064428 31:-0.14783 32:0.277136 33:-0.128522 34:-0.116585 35:-0.184806 36:-0.0545045 37:-0.110353 38:-0.149275 39:0.293876 40:-0.187117 41:-0.0567401 42:-0.118593 43:0.299677 44:-0.143563 45:0.123044 46:0.209348 47:-0.147095 48:0.274392 49:-0.0799244 50:-0.145238 51:-0.102194 52:-0.0992154 53:-0.142725 54:-0.166326 55:-0.125581 56:-0.177888 57:0.15238 58:0.117548 59:0.0577875 60:-0.0794775 61:-0.0103498 62:-0.100296 63:-0.0823187 64:-0.131971 65:-0.117 66:-0.068991 67:-0.121701 68:-0.306345 69:0.015812 70:0.0163496 71:0.157513 72:-0.140595 73:-0.023443 74:0.00666466 75:0.200099 76:0.14691 77:-0.0653437 78:-0.149152 79:0.0712673 80:-0.0655742 81:-0.104573 82:-0.101627 83:-0.0116428 84:-0.0756599 85:-0.155161 86:-0.115859 87:-0.223949 88:-0.291489 89:-0.175263 90:-0.023443 91:-0.281122 92:-0.133252 93:-0.305035 94:-0.166828 95:-0.178186 96:-0.211908 97:0.18709 98:0.252876 99:0.06277 100:-0.248329 101:-0.180438 102:-0.197404 103:-0.174402 104:-0.173518 105:-0.215796 106:-0.291299 107:-0.174814 108:0.0346248 109:0.000964145 110:-0.118833 111:-0.153083 112:-0.123243 113:-0.0204378 114:0.0442584 115:-0.193233 116:0.0274023 117:0.182561 118:0.00230641 119:-0.193553 120:0.00485932 121:-0.0928516 122:0.0916105 123:-0.12375 124:0.042688 125:-0.0502984 126:0.031462 127:0.017257 128:0.0202413 129:-0.0726683 130:-0.0732306 131:-0.121387 132:0.0141512 133:0.0755947 134:-0.132288 135:0.087514 136:0.146802 137:0.267091 138:-0.170572 139:-0.14516 140:0.206702 141:-0.244273 142:-0.0997858 143:-0.107515 144:-0.105792 145:0.116727 146:0.24208 147:-0.165488 148:-0.0194524 149:0.0420348 150:-0.143002 151:-0.292436 152:-0.0857821 153:-0.231961 154:-0.0654466 155:-0.0898817 156:-0.129786 157:0.0715465 158:0.132152 159:0.244419 160:-0.0763005 161:-0.263617 162:0.170834 163:-0.079509 164:-0.129134 165:-0.0684855 166:-0.154666 167:-0.19847 168:0.021906 169:0.275124 170:-0.155845 171:-0.174635 172:-0.129613 173:-0.0261593 174:-0.153127 175:-0.0424562 176:-0.148045 177:0.0761342 178:-0.113702 179:0.0414992 180:-0.111291 181:-0.159388 182:-0.248329 183:-0.103274 184:0.287957 185:0.137469 186:0.133842 187:-0.121612 188:-0.106359 189:-0.141301 190:0.18968 191:-0.13282 192:0.0944991 193:0.189792 194:-0.0329837 195:-0.267155 196:-0.0343544 197:-0.155112 198:-0.176699 199:0.0205052 200:-0.0837445 201:-0.0403034 202:-0.0526032 203:-0.100816 204:-0.130197 205:-0.135954 206:0.0244772 207:-0.0260897 208:-0.132209 209:-0.192927 210:-0.18786 211:-0.0883258 212:-0.078903 213:0.0230602 214:-0.0623988 215:-0.197783 216:-0.247685 217:0.0761294 218:0.112154 219:0.020467 220:-0.133459 221:-0.100963 222:0.00101025 223:-0.115993 224:-0.194114 225:0.0185162 226:0.254209 227:-0.252076 228:-0.106294 229:0.0898994 230:-0.138849 231:-0.0556273 232:-0.0200936 233:0.226735 234:-0.0922415 235:-0.117136 236:-0.170431 237:-0.135977 238:-0.035063 239:-0.0908649 240:-0.0316805 241:-0.137187 242:-0.188465 243:0.00360926 244:-0.104859 245:0.144257 246:0.0618974 247:0.00538575 248:0.0520421 249:0.121076 250:-0.213035 251:0.00676019 252:0.161257 253:0.146759 254:-0.0821371 255:0.0456506 256:-0.112777 257:-0.017899 258:0.230287 259:0.236449 260:-0.159159 261:0.0443913 262:-0.17061 263:-0.104874 264:-0.145368 265:-0.00296376 266:-0.0852261 267:0.0612925 
0.1 1:0.219614 2:0.102936 3:0.0916144 4:0.0238856 5:-0.163884 6:-0.128037 7:-0.200459 8:-0.192337 9:0.123945 10:-0.255864 11:0.189486 12:-0.225248 13:-0.236919 14:-0.224038 15:-0.164043 16:-0.0775572 17:-0.0644335 18:-0.21024 19:-0.154784 20:-0.148181 21:-0.227464 22:-0.0404502 23:-0.10813 24:1 25:0.225973 26:-0.136114 27:0.097838 28:-0.0658975 29:0.213757 30:-0.165244 31:-0.151846 32:-0.188415 33:0.139151 34:0.181756 35:0.199988 36:-0.00680172 37:0.199003 38:-0.0364295 39:-0.15882 40:0.128026 41:0.150782 42:-0.0809353 43:-0.0708858 44:0.188775 45:-0.163122 46:-0.161635 47:0.0920608 48:-0.117814 49:0.0987811 50:0.205709 51:0.0408185 52:0.166181 53:0.238721 54:0.246097 55:-0.0133404 56:0.180164 57:-0.168698 58:-0.165127 59:-0.128346 60:0.212828 61:0.0427859 62:0.193353 63:0.243276 64:0.177421 65:-0.00502329 66:0.124427 67:0.202677 68:0.0901792 69:-0.0957469 70:-0.0920786 71:-0.113619 72:0.25588 73:-0.173478 74:-0.0617176 75:-0.240566 76:-0.12203 77:0.168909 78:0.00486047 79:-0.109213 80:0.00351736 81:0.172719 82:-0.057104 83:-0.0489084 84:0.261722 85:-0.0658975 86:0.0216486 87:0.112158 88:0.134268 89:0.0735973 90:-0.173478 91:0.115885 92:0.169644 93:0.0914998 94:0.0240628 95:-0.0534199 96:0.188547 97:-0.236919 98:-0.247467 99:0.120475 100:0.1502 101:0.230752 102:0.171298 103:0.0417688 104:0.176309 105:0.176473 106:0.105443 107:0.197627 108:-0.134707 109:-0.221873 110:0.131219 111:0.179928 112:0.182872 113:0.0797469 114:-0.0866798 115:0.135963 116:-0.0431351 117:-0.224038 118:0.056061 119:0.112913 120:0.0586671 121:-0.0279906 122:-0.234948 123:0.0443246 124:-0.0210811 125:0.119147 126:0.0669993 127:0.0731366 128:-0.188195 129:0.0126904 130:0.127807 131:0.244463 132:-0.109434 133:-0.101955 134:0.15937 135:-0.167448 136:-0.239389 137:-0.0854431 138:0.240983 139:-0.0297335 140:-0.245006 141:0.0990082 142:0.198922 143:0.12461 144:0.175961 145:-0.14726 146:-0.106859 147:0.204884 148:-0.218364 149:-0.0184266 150:0.233373 151:0.0664798 152:-0.000298217 153:-0.0734365 154:-0.0243453 155:0.198039 156:0.153794 157:0.0677622 158:-0.0476647 159:-0.170615 160:0.141709 161:0.106269 162:-0.228747 163:0.0994554 164:-0.109269 165:0.102925 166:0.198849 167:0.237382 168:-0.121505 169:-0.157311 170:0.156848 171:0.109391 172:0.0698563 173:0.110769 174:0.125572 175:0.152132 176:0.214116 177:-0.183024 178:0.220623 179:-0.175336 180:0.192588 181:0.0110256 182:0.1502 183:0.18421 184:-0.101063 185:-0.169076 186:-0.123326 187:0.255865 188:0.219196 189:0.142824 190:-0.196891 191:0.269672 192:-0.170718 193:-0.136386 194:-0.134093 195:0.0475242 196:0.103451 197:0.14112 198:0.19196 199:0.00703362 200:0.141274 201:0.121918 202:0.105054 203:0.197635 204:0.153242 205:0.210866 206:-0.250001 207:0.138165 208:0.0311302 209:0.173506 210:0.173161 211:0.205365 212:0.210034 213:-0.0962012 214:0.180781 215:-0.117521 216:0.141882 217:-0.147865 218:-0.0334924 219:0.043892 220:0.196429 221:0.0988261 222:0.056471 223:0.0445815 224:-0.0294121 225:-0.0226585 226:-0.138898 227:0.137199 228:0.122773 229:-0.128024 230:0.245138 231:0.0633971 232:0.0136018 233:-0.155488 234:-0.0457759 235:0.229017 236:0.258567 237:0.172228 238:-0.0319807 239:0.176222 240:0.0136391 241:0.170662 242:0.17855 243:-0.00451479 244:0.186965 245:-0.138493 246:-0.0177591 247:-0.0133985 248:-0.0216344 249:-0.161159 250:0.169726 251:-0.0723564 252:-0.0687823 253:-0.0994964 254:0.224325 255:-0.104974 256:0.190538 257:0.127504 258:-0.0301678 259:-0.112416 260:0.162948 261:-0.0546386 262:0.189621 263:0.239658 264:0.212286 265:0.103211 266:0.0234931 267:-0.066597 
0.1 1:0.487841 2:0.147619 3:0.118073 4:-0.0207 5:-0.275915 6:-0.211703 7:-0.268033 8:-0.296372 9:0.38853 10:-0.380602 11:0.462112 12:-0.358782 13:-0.334154 14:-0.284272 15:-0.259173 16:-0.14597 17:-0.0760966 18:-0.30784 19:-0.256857 20:-0.304122 21:-0.285173 22:-0.0931582 23:-0.109598 24:0.225973 25:1 26:-0.20323 27:-0.0514984 28:-0.130872 29:0.58869 30:-0.226895 31:-0.298839 32:-0.185337 33:0.0121988 34:0.465755 35:0.386813 36:-0.0978027 37:0.588734 38:-0.100791 39:-0.268139 40:0.170947 41:0.143428 42:-0.205092 43:-0.119654 44:0.331678 45:-0.227497 46:-0.223268 47:0.0187736 48:-0.182657 49:0.119864 50:0.395022 51:-0.00103609 52:0.0556248 53:0.19856 54:0.545106 55:-0.154738 56:0.286006 57:-0.271928 58:-0.239984 59:-0.199686 60:0.161908 61:-0.110385 62:0.524261 63:0.26842 64:0.302422 65:-0.16616 66:0.189009 67:0.605916 68:0.195975 69:-0.202366 70:-0.246666 71:-0.134196 72:0.296721 73:-0.329703 74:-0.0213142 75:-0.309632 76:-0.274531 77:0.262151 78:-0.128789 79:-0.133963 80:-0.137761 81:0.264828 82:-0.199278 83:-0.0605187 84:0.272051 85:-0.130872 86:-0.102236 87:0.474303 88:0.299377 89:0.0287668 90:-0.329703 91:0.447658 92:0.523727 93:0.197131 94:-0.0589351 95:-0.155205 96:0.360187 97:-0.334154 98:-0.324744 99:0.100934 100:0.503122 101:0.466814 102:0.523399 103:-0.075567 104:0.560154 105:0.534549 106:0.0348536 107:0.504766 108:-0.186163 109:-0.392089 110:0.480049 111:0.60345 112:0.434114 113:0.0595124 114:-0.0988493 115:0.0420929 116:-0.106868 117:-0.284272 118:0.00856984 119:0.493028 120:0.0383713 121:-0.0721217 122:-0.292856 123:-0.164465 124:-0.17987 125:-0.0584612 126:-0.0758884 127:-0.0579727 128:-0.253386 129:-0.0452305 130:0.0889397 131:0.192323 132:-0.227467 133:-0.124025 134:0.519641 135:-0.271511 136:-0.32588 137:-0.232239 138:0.514956 139:-0.159849 140:-0.330559 141:0.220004 142:0.596716 143:0.114517 144:0.33126 145:-0.263198 146:-0.177435 147:0.0938298 148:-0.306019 149:-0.0286525 150:0.565451 151:-0.0247314 152:-0.0431191 153:-0.231056 154:-0.180797 155:0.389821 156:0.397118 157:0.0353968 158:-0.10609 159:-0.164929 160:0.195284 161:0.0745233 162:-0.299243 163:0.059864 164:-0.224845 165:0.00477729 166:0.450713 167:0.477451 168:-0.233508 169:-0.271529 170:0.0448118 171:0.0986064 172:0.0272712 173:0.0904764 174:0.476688 175:0.144832 176:0.556247 177:-0.232727 178:0.418574 179:-0.288337 180:0.291566 181:-0.0381614 182:0.503122 183:0.451583 184:-0.223193 185:-0.243355 186:-0.177921 187:0.490975 188:0.54631 189:0.116844 190:-0.285221 191:0.421176 192:-0.260105 193:-0.17616 194:-0.337146 195:-0.0608537 196:-0.0428045 197:0.439525 198:0.498709 199:-0.0407311 200:0.194862 201:0.101608 202:0.110839 203:0.437868 204:0.160992 205:0.570303 206:-0.385802 207:0.144926 208:0.0188119 209:0.452127 210:0.558694 211:0.303239 212:0.233088 213:-0.146091 214:0.174276 215:-0.270038 216:0.204778 217:-0.285546 218:-0.145346 219:-0.0787785 220:0.128587 221:0.0743682 222:0.033445 223:0.0164193 224:-0.161741 225:-0.00775843 226:-0.267698 227:0.292895 228:0.548914 229:-0.23057 230:0.433543 231:-0.0453876 232:-0.110107 233:-0.229198 234:-0.180084 235:0.604166 236:0.56903 237:0.0462596 238:-0.0159324 239:0.388276 240:-0.119111 241:0.41429 242:0.544606 243:-0.0952485 244:0.568277 245:-0.235302 246:-0.0377908 247:-0.076762 248:-0.0566228 249:-0.16324 250:0.341154 251:-0.174327 252:-0.115381 253:-0.130156 254:0.205369 255:-0.197603 256:0.244326 257:0.0688017 258:-0.121676 259:-0.162626 260:0.457902 261:-0.171301 262:0.427042 263:0.441097 264:0.454048 265:0.0590424 266:-0.00441297 267:-0.160883 
0.1 1:-0.177625 2:-0.042739 3:-0.0249897 4:0.0311621 5:0.181938 6:0.146117 7:0.122916 8:0.141383 9:-0.176341 10:0.2056 11:-0.15161 12:0.205972 13:0.0901399 14:0.127385 15:0.160327 16:-0.0116442 17:0.0366841 18:0.0747367 19:0.203123 20:0.158008 21:0.0861772 22:0.0888444 23:0.0144298 24:-0.136114 25:-0.20323 26:1 27:0.0106162 28:0.0803663 29:-0.243435 30:0.186997 31:0.0984573 32:-0.0322333 33:0.103474 34:-0.202384 35:-0.160724 36:0.190226 37:-0.230402 38:-0.0068892 39:0.0729483 40:-0.0433477 41:-0.106198 42:0.0456345 43:-0.012063 44:-0.151897 45:0.0749029 46:0.105529 47:-0.0304587 48:0.0622345 49:-0.0844331 50:-0.185334 51:0.00622356 52:0.00385547 53:-0.164723 54:-0.249823 55:-0.00137443 56:-0.163216 57:0.132628 58:0.0734234 59:0.13391 60:-0.0844335 61:-0.0209553 62:-0.160116 63:-0.114404 64:-0.145527 65:0.0200673 66:-0.0916984 67:-0.25107 68:-0.060087 69:0.128788 70:0.179326 71:0.0476635 72:-0.182203 73:0.161977 74:0.0213445 75:0.0847175 76:0.0711029 77:-0.109827 78:0.0588758 79:0.128769 80:0.0734942 81:-0.179983 82:0.0418272 83:-0.056324 84:-0.115694 85:0.0803663 86:-0.0251198 87:-0.159738 88:-0.103832 89:0.0178946 90:0.161977 91:-0.16202 92:-0.21878 93:-0.0586659 94:0.061725 95:0.0673323 96:-0.161286 97:0.0901399 98:0.102108 99:-0.0925448 100:-0.21159 101:-0.0532354 102:-0.233246 103:0.0623217 104:-0.237429 105:-0.220344 106:0.0220506 107:-0.168399 108:0.0295116 109:0.0868322 110:-0.178861 111:-0.254925 112:-0.173434 113:-0.0712204 114:0.0582575 115:-0.0565817 116:0.0482387 117:0.127385 118:0.0899982 119:-0.161529 120:-0.0240761 121:0.0645756 122:0.0752469 123:0.0212595 124:0.115396 125:-0.0034674 126:0.0245779 127:0.0192954 128:0.151999 129:0.0990661 130:-0.136516 131:-0.119483 132:0.101594 133:0.0366018 134:-0.190542 135:0.139489 136:0.189243 137:-0.00041651 138:-0.136468 139:0.0409774 140:0.0734819 141:-0.0630542 142:-0.235908 143:0.01794 144:-0.11327 145:0.0980854 146:0.0817278 147:-0.0436541 148:0.213202 149:0.06475 150:-0.250866 151:0.0373854 152:0.0745701 153:0.0973878 154:0.0614456 155:-0.192918 156:-0.183357 157:-0.026734 158:0.0233067 159:0.00976796 160:-0.0897068 161:-0.0428126 162:0.135346 163:-0.0194169 164:0.140249 165:0.0109072 166:-0.00679913 167:-0.201563 168:0.0906638 169:0.0639452 170:-0.0412687 171:-0.0267422 172:-0.0236137 173:-0.0830802 174:-0.185854 175:-0.0676928 176:-0.246852 177:0.227636 178:-0.184123 179:0.14721 180:-0.180676 181:0.0209316 182:-0.21159 183:-0.230347 184:0.0495489 185:0.0939361 186:0.0896529 187:-0.237867 188:-0.22289 189:-0.134025 190:0.0983478 191:-0.192746 192:0.079389 193:0.0805787 194:0.15461 195:0.02138 196:0.0755142 197:-0.156301 198:-0.163146 199:0.0249336 200:-0.129576 201:-0.098285 202:-0.0400224 203:-0.236082 204:-0.0270501 205:-0.197589 206:0.174708 207:-0.0140916 208:-0.0187558 209:-0.142626 210:-0.245157 211:-0.16413 212:-0.158875 213:0.114325 214:-0.0426534 215:0.124415 216:-0.113954 217:0.128196 218:0.055827 219:0.0463161 220:-0.104316 221:-0.0329084 222:-0.0351485 223:-0.0480885 224:0.0710304 225:-0.000658491 226:0.0491513 227:-0.135353 228:-0.224604 229:0.0866557 230:-0.188241 231:-0.0680188 232:0.0687298 233:0.089332 234:0.0596068 235:-0.242821 236:-0.230147 237:0.0469533 238:-0.0189188 239:-0.195505 240:0.0320928 241:-0.182704 242:-0.226923 243:0.0272131 244:-0.23239 245:0.146189 246:0.0840256 247:0.0190221 248:0.0308182 249:0.0960272 250:-0.224331 251:0.0865965 252:0.10426 253:0.0214922 254:-0.152664 255:0.101446 256:-0.183341 257:-0.023765 258:-0.00666456 259:0.000906956 260:-0.267069 261:0.00977211 262:-0.181232 263:-0.219449 264:-0.184489 265:-0.0283432 266:0.0441689 267:0.0300478 
0.1 1:-0.100332 2:0.120533 3:0.0217995 4:-0.00034189 5:0.0406319 6:-0.0286189 7:-0.0654107 8:-0.0472825 9:-0.0764773 10:-0.0383886 11:0.0561616 12:0.00632281 13:-0.107203 14:-0.0859546 15:-0.0318243 16:-0.0837737 17:-0.0319717 18:-0.0839646 19:-0.00233297 20:0.105756 21:-0.119108 22:0.0419009 23:-0.0842827 24:0.097838 25:-0.0514984 26:0.0106162 27:1 28:0.0962798 29:-0.0155284 30:0.013093 31:0.0272629 32:-0.165797 33:0.28773 34:-0.0587995 35:0.160917 36:0.0568915 37:-0.0567255 38:-0.0117235 39:0.00698984 40:0.0940471 41:0.0934083 42:0.002105 43:-0.0524105 44:-0.0450262 45:-0.109687 46:-0.0420639 47:0.0920382 48:-0.0304601 49:-0.0253758 50:0.0054022 51:0.0164965 52:0.187066 53:0.0923871 54:-0.0405573 55:-0.0201606 56:-0.00207721 57:-0.00684735 58:-0.0834474 59:-0.0613306 60:0.0684655 61:-0.0257559 62:-0.0220999 63:0.0118186 64:-0.054074 65:0.0467597 66:0.0034608 67:-0.0385058 68:0.0203334 69:0.0372606 70:0.166428 71:0.0130215 72:0.0642944 73:0.0763754 74:-0.0280918 75:-0.136349 76:0.000248795 77:0.00809912 78:0.0892224 79:-0.0524087 80:0.087536 81:-0.120409 82:-0.00297219 83:-0.0282337 84:0.101274 85:0.0962798 86:-0.0165206 87:-0.0231462 88:0.0262771 89:0.0601455 90:0.0763754 91:-0.0224201 92:-0.073724 93:0.0216824 94:0.0296267 95:0.0828199 96:-0.160221 97:-0.107203 98:-0.110471 99:0.117124 100:-0.0333962 101:-0.0612679 102:-0.113263 103:0.0933193 104:-0.0655023 105:0.0447929 106:0.018401 107:-0.0191517 108:-0.0742345 109:-0.0846575 110:-0.0919065 111:-0.140961 112:-0.0720462 113:0.135798 114:-0.108776 115:0.0570905 116:-0.0227788 117:-0.0859546 118:0.0807891 119:0.0640471 120:0.114807 121:0.0787396 122:-0.0777879 123:0.00351073 124:0.119908 125:0.227801 126:0.111638 127:0.0953008 128:0.000270841 129:0.101491 130:0.0426381 131:0.12112 132:-0.0724446 133:-0.0415415 134:-0.105879 135:-0.0280561 136:-0.0696713 137:-0.0245684 138:-0.038871 139:0.0842549 140:-0.150739 141:0.0482324 142:-0.0389476 143:0.060973 144:-0.00692311 145:-0.0105935 146:-0.0720078 147:0.305927 148:-0.00575964 149:0.0657456 150:0.00501845 151:0.0347268 152:0.08926 153:0.0990923 154:0.0355902 155:-0.0579114 156:-0.0173967 157:0.123392 158:-0.0311995 159:-0.115944 160:0.05411 161:-0.0157097 162:-0.0717203 163:0.126022 164:0.0103209 165:0.0480034 166:-0.0587647 167:-0.0277707 168:0.093331 169:-0.0634907 170:0.121754 171:0.0299858 172:0.0714859 173:0.0964579 174:-0.00984677 175:-0.0102848 176:-0.0237418 177:0.0159618 178:-0.00157787 179:-0.0686567 180:0.00791958 181:0.017643 182:-0.0333962 183:-0.0291497 184:-0.0120103 185:-0.134084 186:-0.0713651 187:-0.013582 188:-0.0500115 189:-0.0264489 190:-0.110623 191:0.0166126 192:-0.0360765 193:-0.0796812 194:0.0516089 195:0.0691199 196:0.0768113 197:-0.0473489 198:-0.0360136 199:0.0689397 200:0.0536657 201:0.106715 202:0.115703 203:-0.00675693 204:0.103615 205:-0.0708659 206:-0.0975262 207:0.095895 208:0.0810038 209:0.0221953 210:-0.064379 211:-0.00439062 212:0.0203852 213:0.0509866 214:0.121334 215:0.0820658 216:0.0397571 217:-0.00967647 218:-0.0174976 219:0.0688673 220:0.285316 221:0.152878 222:0.0457399 223:0.0185825 224:0.0559869 225:0.0654767 226:-0.0719413 227:0.0347801 228:-0.112387 229:-0.0632266 230:-0.0291634 231:0.0903796 232:0.145986 233:-0.0681271 234:0.100523 235:-0.0425238 236:-0.084051 237:0.227428 238:-0.0491046 239:-0.0707215 240:0.0551747 241:-0.153474 242:-0.0689023 243:0.0857328 244:-0.0358665 245:-0.162297 246:0.0373612 247:0.0286865 248:0.0629814 249:-0.124484 250:-0.0474997 251:-0.0270102 252:-0.0346431 253:-0.0791069 254:0.137954 255:0.0738322 256:-0.0490392 257:0.112011 258:0.0817564 259:-0.0343169 260:-0.0870047 261:-0.0776469 262:-0.0706734 263:-0.0112003 264:-0.140902 265:0.123353 266:0.129266 267:-0.0782675 
