solver_type L2R_L2LOSS_SVC_DUAL
nr_class 4
label 1 2 3 4
nr_feature 909
bias 1
w
1.444952817509455e-13 -6.976883529388626e-14 4.148250809497651e-13 -1.242153656486659e-12 
-8.293409933163848e-14 -4.666115164277794e-13 -6.193887896125664e-12 7.761904314437465e-12 
-2.952635771675567e-13 -6.928040415789322e-13 -3.720281110479822e-12 6.10906328956495e-12 
5.084179296915718e-14 -9.673867956310678e-14 3.265444335672614e-13 -1.494664055619115e-12 
9.144423335123759e-14 -7.955221856415817e-15 -1.035076680931079e-13 -1.286765212034063e-13 
1.034542021531385e-13 -2.121246630235745e-14 -3.215320993768114e-13 1.531500764165503e-13 
2.679537585297881e-14 -1.496889157152463e-14 1.86913093532291e-13 -5.53059998359182e-13 
6.659355751338124e-14 -1.226141549913387e-14 -1.701601938680798e-13 -1.559831091081542e-13 
3.064522561281763e-14 -2.811388832375168e-15 -3.401989172806409e-14 -7.027514212240324e-14 
4.650074801854828e-14 -2.365269447001121e-14 -1.283432221880112e-14 2.468758025776851e-14 
-2.641083434610631e-14 -2.102477797650395e-14 -4.537261944359457e-14 -3.597702966829982e-15 
2.760531324433822e-14 -5.349655983605565e-15 -9.535196739460785e-15 -3.897397715498073e-14 
2.35739797999362e-14 -2.262312709304871e-15 -3.432182044789017e-14 -1.848919883540532e-15 
2.303282548072743e-14 -2.617181523305152e-15 -2.8634996234469e-14 -1.866640736920549e-14 
2.272442791530392e-14 -5.213775389814259e-15 -4.848212588721504e-15 -5.282928029121141e-14 
2.991319310871725e-14 -2.332747180742279e-15 -3.469987790932951e-14 -3.939915312689996e-14 
1.605313094981956e-14 -5.738353895293507e-15 3.673353304617866e-14 -9.56676187896255e-14 
5.667752783397859e-14 -5.662138844929009e-15 -9.971252132288061e-14 -9.411543135013685e-14 
6.607375280547708e-14 -1.346233584921327e-14 1.121672778120505e-13 -4.200272369123283e-13 
3.782192786956491e-14 -1.00284268070993e-14 -2.902895504760621e-14 -1.264516410943705e-13 
3.851011835256925e-14 -8.26139035196617e-14 -2.671551704885154e-13 3.986116833751613e-13 
8.608493147892658e-13 -3.963483051020868e-13 -1.743064072308344e-12 -2.423004426280165e-13 
6.351754753565128e-14 -1.180617566402632e-14 1.528105861607034e-13 -2.288550430914485e-13 
-2.316318198199484e-14 -1.263771779119346e-13 5.816348366476036e-14 -4.202520454955949e-14 
1.940633679906488e-14 -3.177958372192747e-15 -1.718266339685636e-14 -1.799432313527345e-13 
-1.976733796473869e-15 -1.819450665118898e-14 1.89081392792745e-15 -1.112753396852187e-14 
8.041374105688522e-15 -1.786104987107037e-15 9.560228262654218e-15 -3.794845774521888e-14 
1.273699407090931e-12 -4.678017475832495e-13 -2.131641529451596e-12 -1.122155557567152e-12 
6.190856922820765e-12 -2.918812138390542e-12 -9.319260980962243e-12 -3.117486458008408e-12 
2.823566656397746e-12 -2.13858942778601e-12 -4.225903643219551e-12 -2.471846850160136e-12 
5.323343421470998e-13 -2.913727057518637e-13 -1.409895141565596e-12 -2.799109751408496e-12 
1.771116120657461e-14 -1.768197954686122e-14 -9.088497877023209e-14 -2.490627395020516e-13 
3.697487475209224e-13 -1.078522261379378e-13 -1.161309084272573e-12 2.719331154324328e-13 
1.896324437940956e-13 -1.94506848609859e-14 -2.827097840740656e-13 -8.582788717188032e-15 
2.2529789713609e-13 -8.520633560071246e-14 -9.936878081265005e-13 2.667496391006761e-13 
7.131338718481955e-13 -2.100471760201964e-13 -1.589710453940321e-12 -3.133838521863607e-13 
7.031431818036026e-15 -1.01230341003685e-14 -9.638478413496846e-14 4.119630215671129e-14 
1.175311398114103e-13 -8.742863717493248e-14 -4.947492206800364e-13 -7.616132306424519e-14 
1.513380014520692e-13 -4.411607570945931e-14 -3.677465597456932e-13 -1.203434995273038e-14 
2.200223973725214e-13 -6.64810701318483e-14 -7.959423413166533e-13 3.875989405998591e-13 
1.552844593459417e-11 -2.814806695377583e-12 -9.870553496055139e-12 -6.478877237080555e-12 
6.92509265188557e-12 -1.350432024404163e-12 -1.094873866149011e-11 -1.548008739491117e-12 
4.862073627514041e-12 -7.878735851759937e-13 -3.744768498638993e-12 -5.745804528679819e-12 
1.827826897782407e-14 -4.650158946535352e-15 -2.64738826795312e-14 -8.206946587135063e-14 
-3.202401689013582e-16 -2.190689753275394e-14 1.009123731880544e-15 3.429568938379503e-14 
-4.873357934062456e-15 -5.101968684424735e-15 4.479036800986173e-15 8.52587491819248e-15 
2.122403464603236e-15 -6.496687878326841e-16 -4.844748931259587e-15 -1.98607579880117e-14 
1.086330543868037e-13 -2.011918790648521e-14 -1.43581555884771e-13 -1.83757345236181e-14 
6.174017804282106e-15 -1.113259666394868e-15 -8.500781280261875e-15 -1.136183681104232e-15 
2.908010219882748e-15 -4.219981513443552e-16 -7.59535352828113e-16 -9.530100392815123e-16 
-3.214540249707568e-15 -2.15491382557211e-15 2.091507306827143e-15 9.629312356953416e-15 
3.806845151829365e-15 -1.625058151446159e-15 -7.029781134348287e-15 -2.873807723216164e-15 
1.220137588380744e-12 -5.165322907827163e-13 -4.617109876457902e-12 5.719671016839005e-13 
-4.844091029197763e-13 -5.443008773110227e-13 -2.533744845242725e-12 1.387089871202786e-12 
6.733484162708815e-13 -8.6898546212879e-14 -1.494232541030902e-13 -3.627472257091449e-12 
2.776985849379829e-13 2.883721439667076e-14 -2.272662457865349e-12 -3.179990343750775e-12 
2.69620019576065e-13 -4.351568439148372e-14 -4.017511511668894e-13 -9.333527500146524e-13 
1.454058910374734e-13 -3.298768288703611e-13 5.525815658198293e-12 -9.816815003280341e-12 
1.770145595310039e-12 -3.461000875820459e-13 -7.47771177114272e-13 -9.149646004015037e-13 
1.693307883622625e-13 -1.3741632839299e-13 -3.074275970207302e-12 -4.921024197754431e-14 
9.347677595691248e-13 -1.503267166669454e-13 -2.687165335370541e-12 5.902155618111723e-13 
1.319811853476568e-13 -1.62137181623985e-13 -8.546654740188979e-13 3.089978479542468e-14 
7.765787211419163e-13 -3.199416929265587e-13 -4.289297131316103e-12 -1.913712157318991e-12 
8.20656823198409e-12 -1.060213290954608e-12 -3.817815926066937e-12 -3.893370972412328e-12 
1.319638531111281e-12 -2.157253393746696e-13 -2.060097969135013e-12 -2.249100117793488e-12 
1.395807221621804e-12 -4.474538390508019e-13 -4.561908247496631e-12 -2.255150990043498e-12 
5.794872234774542e-13 -4.448422436133755e-13 5.803096898225362e-13 -2.828587651068999e-12 
-2.2899737916235e-14 -2.115365351070198e-13 1.250781633362797e-12 -3.37418421289895e-12 
4.007878528364995e-12 -2.435945501087219e-12 -5.791162479507501e-12 -2.711966395776803e-12 
2.966785498262089e-14 -1.437585388292427e-14 -1.433611557878831e-13 -5.226832872508748e-14 
7.753406051771849e-14 -1.707653262219498e-14 -2.76446902194385e-13 -1.032496256702356e-13 
6.933085620295733e-13 -1.471997935395387e-13 -1.185145370961816e-12 -1.192000459945487e-13 
3.867098329469577e-14 -8.509204791044252e-15 -6.896592479555025e-14 -6.154586885049648e-14 
2.189359209875336e-14 -3.643553452774506e-15 -2.5140013190686e-14 -7.418578500109246e-15 
3.754262591034145e-14 -4.13480652371953e-15 -5.629072443830226e-14 -7.103468550007111e-15 
2.058835477329073e-14 -1.866666837914887e-15 -3.035586859584514e-14 -3.848522545477184e-15 
5.712751619578754e-14 -1.475579512950966e-14 -8.866659151148202e-14 -1.685612707729883e-14 
4.438384082959526e-14 -6.431637463668404e-15 -6.738020639571402e-14 -9.221943206653748e-15 
9.390070750316685e-14 -3.026602249261635e-13 6.694279049713691e-12 -9.667749799316853e-12 
-8.724350250241065e-14 -5.132584009988829e-13 -2.781255821500361e-12 1.883604420039099e-12 
1.202275543595083e-12 -4.272325649030854e-13 -6.594936723886285e-13 1.421257226482154e-14 
-1.101375329003953e-12 -1.089332845773546e-12 2.641251576727037e-12 -1.185259626291515e-11 
-1.105594139678911e-12 2.186560336143142e-12 -1.309447803369303e-11 -9.723514831340398e-12 
3.753641927707767e-12 -6.464961761548305e-13 -2.515674045140893e-12 -9.716680966927409e-12 
2.086533553807989e-12 -5.276796438029221e-13 3.608849009423393e-12 -1.287529394613917e-11 
1.003423025019731e-13 -1.127823415516787e-13 6.067373256084467e-13 -1.406165379047764e-12 
6.95985678887245e-13 -2.927850655487084e-13 4.966144382564497e-12 -1.045451136154221e-11 
4.96798734972438e-14 -1.907968590780532e-14 -2.706291871173631e-13 -2.432590328993811e-13 
9.674922261800526e-14 -2.607688182649023e-14 -2.440038653824135e-13 -3.639151735097026e-13 
6.641559257962958e-13 -2.816380599685875e-13 -1.416711068055277e-12 -2.35548748341166e-12 
1.395658204949746e-13 -1.056137597607092e-14 -1.241244843958294e-13 -2.051603505686416e-13 
8.641650924080027e-15 -5.506939393415092e-15 6.126071907722458e-14 -3.744677245817888e-13 
1.40241021919006e-13 -1.458539475408216e-14 1.29506035076661e-13 -9.870376562028542e-13 
9.838509991893828e-14 -3.626614897445489e-14 -1.904481459579365e-13 -2.738919849916726e-14 
2.434384187044572e-14 -1.240042195350343e-14 -1.019609785961384e-13 -9.28302455093282e-14 
2.297568607921259e-14 -1.787765890149255e-15 7.781019461349993e-14 -3.18703205267333e-13 
4.879701818382727e-12 -3.147794637400767e-12 -6.527507054640277e-12 -2.399142956831313e-12 
1.17093288192208e-12 -2.6463737511356e-13 -3.727207045906917e-12 -1.190860143392288e-12 
4.657782919152309e-13 -1.286171028566988e-13 -5.697438593660059e-13 -8.016667299331484e-13 
1.240461810989247e-12 -2.097197253717332e-13 -2.473049836336005e-12 -6.680772236864042e-13 
8.074841103703694e-13 -1.452091489732401e-13 -1.27819462763009e-12 -9.944433897882523e-13 
1.457593329433473e-13 -5.451486157567006e-14 -5.038300260169343e-13 -9.669992487679414e-14 
2.805858939448442e-13 -9.964454224261673e-14 -4.66450385600595e-13 -9.463998803969476e-13 
1.966182127093629e-14 -5.902608722827234e-15 -3.514161795331993e-14 -1.21798527360051e-13 
1.758621199171821e-13 -3.952567171899328e-13 -6.813510075591563e-13 -4.569037371212814e-13 
8.400730465114325e-12 -1.335388297052673e-12 -3.086207291413568e-12 -7.654992323230833e-12 
-7.739379617883668e-13 -2.641975146294853e-12 -1.730286306161006e-11 8.841985230199819e-12 
-4.227943427776373e-12 -3.162943394732332e-12 1.298567200479796e-11 1.958473485474205e-12 
-2.710801541231146e-13 -2.193245640884218e-13 6.964256219201553e-14 6.411160050534049e-13 
3.299809292930275e-13 -1.215058446411731e-13 -2.033696854850629e-12 -4.054570760677753e-13 
3.695629981214539e-13 -1.204833882575335e-13 -2.504493833590014e-12 -1.497527149771911e-12 
7.056586232075123e-14 -9.840598234043336e-14 -1.835727396779786e-13 -1.391724911086573e-13 
1.208656676607037e-13 -3.710821077399058e-14 -6.768988178165836e-13 -2.933135461346574e-13 
8.11121447807533e-13 -1.25752276883561e-13 -1.447409480106782e-12 -2.555946559735933e-13 
3.920000160956288e-13 -7.372042365988268e-14 -5.325825230964485e-14 -1.846210546546038e-12 
6.057117222835353e-13 -9.56023764782864e-14 -4.050348727803348e-13 -6.709791134104119e-13 
5.863712694140572e-13 -3.721541723782157e-13 -8.071818999225331e-13 -4.056812521949391e-13 
1.87238925977592e-13 -6.264887419231074e-14 -2.255318856714823e-13 -2.359401108989078e-13 
1.040382962046235e-13 -2.163395120122764e-14 -1.3093306805813e-13 -1.614036558204709e-13 
3.042621234659306e-13 -1.738861909951125e-13 -5.239071235283164e-13 -2.338321210633395e-13 
2.324166186699463e-13 -2.029504493663984e-13 -5.728755611074217e-13 -3.741630327127049e-13 
1.80944729397053e-13 -2.983904417034904e-14 -1.461395960938771e-13 -1.230723088813814e-13 
3.578190658057455e-13 -9.90493498574797e-14 1.674406685109428e-13 -2.288586486626955e-12 
1.150090852244695e-13 -2.958835140916291e-14 -6.325460186767664e-14 -3.784258422933614e-13 
3.572246133466654e-14 -2.476383226152028e-15 -4.847056414329869e-14 -3.912755274587233e-14 
2.741862147352962e-13 -1.235602892605638e-14 2.006896900353993e-13 -1.876688028391605e-12 
-1.111197650165617e-14 -4.849588646064722e-14 3.727504324897959e-13 -1.70533678780304e-12 
2.114810426191501e-14 -1.334451216742109e-14 3.82739641050846e-15 -9.424058865694543e-14 
-2.636426167522166e-14 -9.237985619961488e-14 -1.232218118493977e-12 1.153695994264158e-12 
4.452772381493746e-14 -9.351321747038105e-15 -4.403370261827381e-14 -1.398876762135155e-13 
3.859373744156794e-14 -4.478879562791963e-15 -8.164259364646269e-14 -4.128589018513413e-14 
7.945657819059738e-13 -5.946291422332491e-13 -2.034281622742829e-12 -9.458706401058827e-13 
7.004793633263152e-12 -1.665270163272875e-12 -9.985075523590205e-12 -1.746241773825882e-12 
1.649043004630929e-12 -6.711220937077823e-13 -3.504732251745349e-12 -1.325642045912221e-12 
6.124956122457428e-13 -9.84016685277301e-14 -8.46432157616063e-13 -9.610147125194651e-13 
2.375543020655968e-13 -4.710537500462694e-14 -2.17980287811402e-13 -4.225840766290502e-13 
-6.566132283204017e-13 -2.141942283550284e-12 -1.28274501811653e-11 8.379719899666404e-13 
2.504729192244263e-13 -1.565510857294068e-13 -4.794882038717485e-13 -4.551786310925232e-13 
3.722793398839774e-14 -1.96422229111274e-14 -8.3584845522384e-14 -4.631075989388144e-13 
1.320830132738685e-12 -1.673378286997773e-13 -2.058767746370402e-12 -1.063894235293307e-12 
6.470343859099451e-12 -3.287389205401946e-12 -1.622420816745932e-11 1.821132917632581e-12 
4.428219614144953e-12 -1.078128091750371e-12 1.567290090111386e-11 -2.467440046837015e-11 
-5.399087766782045e-14 -1.557824347916011e-12 1.026258016721008e-11 -8.397016697126886e-13 
2.063937795349741e-12 -2.0138242285397e-12 2.75506950971227e-11 -2.033724056466003e-11 
2.013652102105511e-13 -1.262737755572725e-13 -4.571992662804618e-13 -2.543166328726583e-13 
1.56443120934689e-12 -2.660030794817206e-13 -4.578136883943611e-13 -3.711746498130428e-12 
1.948388951767479e-12 -3.597150798433281e-13 -4.289120228273852e-12 -3.795718454784654e-12 
1.92120567882126e-12 -3.860132412270812e-13 -1.158788212937566e-12 -2.146979076069884e-12 
3.812938383276219e-13 -9.104715736377205e-14 -4.750319184494705e-13 -9.266786220586417e-13 
3.985937053995634e-14 -1.325782286672323e-14 -1.471664636478274e-13 -4.719917145139133e-14 
1.49721787532879e-14 -7.766815497982678e-15 -3.190268799249411e-14 -1.503029501359576e-14 
9.010734853249868e-15 -1.854218557331793e-15 -1.2338405293007e-14 -3.114086459187658e-14 
4.148336720659595e-15 -3.113352056261243e-15 -1.749051397560482e-14 -8.258811896485272e-14 
1.07503803726187e-14 -2.633677334945882e-15 -3.16259021205111e-14 -1.511822149644816e-14 
4.867894895302188e-15 -2.966981635126427e-15 4.433135214230262e-15 -7.041871678056365e-14 
8.806872028360842e-15 -2.351465472317613e-15 -1.298360886634135e-14 -2.793513448578218e-15 
-4.363369026861562e-14 -8.846809072248633e-14 -1.5093649643408e-13 -1.805867928193609e-12 
4.27947879070086e-14 -1.066502268427488e-14 -1.336257062077561e-13 8.977746544263766e-14 
7.276719174120723e-15 -3.229744125957586e-15 5.236709234858898e-14 -1.37776115658763e-13 
6.098492024743455e-13 -1.180585963539329e-13 -9.165705784291519e-13 -1.909069609445292e-13 
5.227971548429129e-15 -6.52169542851582e-16 -4.191337204076861e-15 -7.186929804495576e-15 
2.837944524077249e-14 -7.72982363611967e-15 -2.833966184337664e-14 -5.4229716686759e-15 
3.252073351120178e-14 -1.277113742129873e-14 -3.851298855800254e-14 -2.621670660724571e-14 
1.713989626038311e-15 -5.646791759570355e-15 1.142248081081282e-14 -1.561310127673487e-13 
-1.9246187832081e-15 -2.623192218094863e-15 -2.474622519407115e-14 -2.858522770672405e-14 
1.392401890435412e-12 -1.836353927305678e-13 -5.960800982477869e-13 -4.55635661483859e-12 
2.571536135279357e-12 -1.65089529260262e-12 -6.482245122789943e-12 -2.134457063993545e-12 
3.146352729981776e-12 -6.594683531218796e-13 -5.368466045191499e-12 -8.003279731538807e-13 
5.438139420708447e-13 -2.04137336231101e-13 -8.464589655569866e-13 -8.039326091410283e-13 
1.598860646257016e-12 -8.998468054987352e-13 -3.5859839556558e-12 1.391754125302076e-12 
3.77684623850381e-14 -3.420165576549654e-14 -2.051226949290459e-13 2.709483541394391e-13 
4.919293447910528e-14 -1.228925886754656e-13 -4.442675990940843e-13 2.402638523668055e-13 
-1.534215813179991e-13 -2.611590933664692e-13 4.838622795169008e-13 -6.667781805691569e-12 
7.663146937386562e-14 -1.559066147357584e-14 -1.773470424093646e-13 -6.819909852781016e-14 
3.289776847307989e-13 -1.415390274681278e-13 -4.718401273758613e-13 -9.618720850370859e-14 
9.799811357460325e-14 -2.388083461101452e-14 -8.416225985789524e-14 -1.508143379021441e-13 
-6.634248907887984e-14 -1.965499574887107e-13 -2.63526962590233e-13 -8.833223500357064e-13 
-1.885040893443401e-13 -2.14908658734641e-13 -2.407493685950564e-13 -3.699365652447784e-13 
2.462827562047796e-13 -2.727251908553599e-14 -3.559926439761756e-13 -2.090172572397866e-14 
5.648716313407886e-12 -1.821093874461874e-12 -9.169092586440911e-12 -2.861079611893572e-12 
4.797480923321228e-13 -1.872193355639791e-13 -2.662359605097136e-12 -1.60239377197068e-12 
8.771048543151038e-13 -4.577682022660725e-13 -3.342455263330677e-12 -1.477869358713359e-13 
2.072509028430993e-13 -2.455067840284102e-13 -2.806622333213181e-12 2.869640004343719e-12 
5.932403680411998e-12 -1.545925227238394e-12 -8.128305466593719e-12 -1.694294279733725e-12 
3.296124366311525e-13 -6.184944456492574e-14 -5.802683837665653e-13 -4.425412737466138e-13 
1.133463968187803e-12 -1.735347874492147e-13 -5.730112263382698e-13 -2.889226201367624e-14 
8.502169485943414e-14 -1.70174595821286e-14 -3.644924250493215e-13 6.188261564303775e-14 
6.317918015776297e-14 -1.346774980082859e-14 -7.348922980719886e-14 -6.189721662723882e-14 
7.049080823555878e-15 -1.169308796304232e-14 -2.274749035152943e-13 1.383417303847438e-13 
1.861671098172664e-13 -3.6511301724504e-14 -6.572648918198254e-13 5.254815387327637e-13 
2.760859933979506e-13 -8.53695991575572e-14 -3.945787248806508e-13 -4.89217312342397e-13 
5.92307741906332e-14 1.722141079480939e-14 -2.341038284280018e-13 -4.58894832400987e-13 
-5.038583406863321e-14 1.572830389437311e-13 -1.180744253944392e-12 -1.147943221037564e-12 
6.854137355472467e-14 -7.870095807652404e-14 -7.378097898294532e-14 -2.495508509729614e-13 
-6.57162190621092e-14 -7.152949305978471e-14 6.568465979918107e-15 -1.477372808143051e-12 
5.279117130822014e-15 -1.170400674928162e-15 -7.077401326770982e-15 -1.475020395708202e-14 
8.073838574392652e-14 -6.442501206844904e-15 -9.150030614886757e-14 -5.285897506278607e-14 
1.159044787500262e-14 -1.097438866175952e-15 -1.279669957562891e-14 -5.182917421158272e-15 
2.463407755664962e-12 -3.855987891239005e-13 -1.890643705394784e-12 -2.111509152224851e-12 
7.432744348736011e-13 -2.397170139162346e-13 -1.517586882946777e-12 -8.655625769849112e-13 
7.660265388725298e-14 8.385770985257725e-15 -8.566819289236515e-15 -1.357828974333418e-12 
5.17167663418337e-13 -6.726120408630808e-14 1.158576525254762e-12 -5.131405605519669e-12 
1.616238050763101e-12 -2.112727105954031e-13 -2.254923649715583e-12 -5.481253441214804e-13 
3.268460217805031e-12 -4.499669669733534e-13 -4.054222267498491e-12 -2.211157580898848e-12 
5.034839264087964e-14 -9.200375500234203e-15 -2.861347033224161e-14 -4.91227892097194e-14 
1.781330815274467e-14 -8.729133374243517e-15 -1.327337991023583e-13 -1.934399382411802e-14 
2.725364373496252e-14 -6.826161654775385e-15 -5.946038453827496e-14 -4.15219817878919e-14 
5.694570408341475e-14 -1.443584180343572e-14 -1.593816441640378e-13 -1.208646234054522e-13 
2.029514462887781e-14 -6.148013376385064e-15 -8.62659857396573e-15 -2.639408803801529e-13 
1.430918999950803e-13 -6.624558954602525e-14 -2.530587395732506e-13 -5.481558880302028e-14 
1.531158110724e-13 -4.662179967800333e-14 -2.96264280605857e-13 -3.431710115047844e-14 
2.027098904266313e-13 -5.035736131245756e-14 -3.660923589529069e-13 -4.243181352068148e-14 
6.728875694582734e-14 -1.995539808312447e-14 -1.55906859333204e-13 -2.133184824836017e-13 
3.802150831555559e-15 -2.816023618839273e-15 -5.33412289954731e-15 -3.182865619930565e-15 
6.378177174229443e-15 -2.1065439450622e-15 -4.317620905453602e-14 -1.039058646437695e-14 
-2.12751273450047e-14 -1.362107267682426e-14 1.957893935436134e-14 9.787605902323847e-14 
9.049660211773433e-14 -5.773756349468359e-15 -1.279484362359773e-13 -3.824895034272202e-14 
3.770142227837117e-15 -1.630262130557178e-15 3.302200892999404e-15 -1.343967980409945e-14 
4.766778359707047e-14 -2.998595091099663e-15 -7.402887401748207e-14 -1.110068727365612e-14 
1.611587916545896e-12 -3.358851779731728e-13 -2.869621876910869e-12 -2.537182305187173e-13 
6.329249272853893e-14 -4.188863679868694e-15 -1.018607442043109e-13 -2.967498513332693e-14 
2.110215903400769e-14 -1.545063270205449e-15 -3.845520606993648e-14 -6.170852005926011e-15 
2.589679403343925e-13 -1.014222903428375e-13 -1.63197866258307e-13 -6.121959595538671e-13 
1.048608506495725e-13 -2.734571538423792e-14 -3.571167780132783e-13 -8.073023194371372e-15 
1.120264322394399e-13 -5.37176443413541e-14 6.408121881405364e-13 -1.776288020433856e-12 
2.18881855206196e-14 -3.562394340158446e-15 -4.700971301960812e-14 -7.556273562916514e-15 
1.91850146308877e-15 -1.910701073461404e-15 -7.411262279276313e-15 -2.848686901671752e-15 
6.322126756505912e-14 -4.272967906241643e-15 -9.524298216219796e-14 -4.608446981873968e-14 
2.043003374787535e-14 -1.359095485479444e-14 -4.745249542081734e-14 -7.316137694244649e-14 
1.380294168550583e-13 -4.500791596993665e-14 -1.776914238348465e-13 -4.510958284782325e-14 
1.7659684543749e-13 -3.044588742851441e-14 -2.29179937057993e-13 -1.814870818814617e-14 
-5.640059254926006e-14 3.977814986962086e-14 -3.525113072822877e-13 -1.271648440399614e-13 
-6.703015763920327e-14 -2.601541314193663e-14 -2.654100053225213e-13 -1.438514594883829e-13 
-2.118367457480389e-14 -1.164295502368717e-14 -1.847750626403883e-13 -3.044512009293639e-14 
-1.020882326668363e-13 -1.51976259262304e-12 1.94527977489694e-12 -1.39264588241065e-13 
-4.991364754887215e-13 1.967233116110614e-12 -3.588916583218632e-12 -6.953681276782147e-13 
-9.310249664068364e-14 2.473531908179703e-13 -1.552872972179872e-12 -2.21981789522186e-13 
-5.602052595379438e-14 1.397427832786368e-13 -4.03500363344207e-13 -1.326800941736225e-13 
-1.615587623247897e-13 -5.647356270212189e-13 2.440729681500675e-13 -3.608895624571843e-13 
-9.484980954681216e-14 4.295184958894519e-13 -5.26463271851421e-13 -2.94712941045403e-13 
-1.818070281227329e-13 -1.542861249974498e-12 1.409300867813961e-12 -2.770242769902643e-13 
-1.990180711548789e-15 1.041995030532343e-13 -1.286689609749611e-13 -6.477897573210827e-15 
-6.086022361379333e-14 4.642090295326411e-13 -6.160245019104048e-13 -8.975231688386699e-14 
-1.736078822275656e-13 6.640533103301213e-13 -8.363488292857814e-13 -6.886658009810371e-15 
-3.952904293716318e-14 2.3773386014194e-13 -3.009862445121205e-13 -5.405018857444973e-14 
-3.042034867656007e-14 1.212017415612501e-13 -2.352090946850706e-13 -4.134392586007494e-14 
-2.238271315056763e-15 -1.41714548124295e-14 -1.908510627653343e-15 4.320142559136195e-14 
-1.81932198065214e-14 -8.772086926931923e-14 1.483768374730905e-13 -5.601557438485242e-14 
-1.568778631649029e-14 5.602024875465174e-14 -7.995845560275418e-14 -1.76931591935856e-14 
-4.75745200293554e-15 3.822032207058491e-14 -3.047857652089713e-14 -4.181386063383156e-16 
-2.326548395357762e-14 5.658352086671394e-14 -3.109786929291652e-13 3.22796357071766e-13 
-1.472484864484002e-13 6.19514712579875e-13 -5.562266959317125e-13 -6.097773830566352e-13 
-1.51925406431888e-14 -3.331887205312008e-15 1.634874144224693e-13 -9.024998834112103e-14 
-7.938701389515547e-14 3.199032972992455e-13 -3.734436086102826e-13 -1.592144030703137e-13 
-2.0232754125432e-14 5.396215100434478e-14 -1.06273141123286e-13 -6.688377838016079e-14 
-1.847472664575498e-14 1.559765302569747e-13 -1.768542401282054e-13 -2.027629531458295e-14 
-4.090243606181009e-14 3.560177239046707e-13 1.006876672375649e-13 -7.31785223016242e-13 
-1.337492280282928e-14 -1.338186483988504e-14 1.027156188075427e-13 -9.220756225600408e-14 
-2.505800791639879e-13 7.417097863837049e-13 -8.122200893960031e-13 -3.634371342278699e-12 
-2.280614020348902e-13 2.15011983769969e-12 -2.855658389726492e-12 -2.212325880675273e-12 
-5.49577382116523e-14 6.213992335004022e-13 -5.001140115198809e-13 -2.377844128498683e-12 
-1.679443448829942e-14 -2.788611050214659e-13 2.046472648690919e-13 7.471948967013533e-14 
-2.704579418825143e-14 2.996537533138684e-15 -9.40355582428683e-14 -4.591913788891497e-13 
-4.155491260196979e-14 -1.548931940272563e-12 1.618891942404138e-12 -4.37999940843469e-13 
-4.894368899020497e-15 3.388096506394856e-14 -7.30709682317374e-14 -1.173093058652563e-13 
-1.507715391909244e-14 2.262706481745556e-13 -3.162336407908006e-13 -1.638304389749582e-13 
-1.524968619238325e-14 2.453644601261701e-13 -4.902855996574801e-13 -5.861039065344451e-13 
-1.835577952632099e-14 -4.512923975123036e-14 -8.127436870214013e-14 -8.371151290565868e-14 
-2.031013088835616e-14 1.222544988043717e-12 -1.39030756569155e-12 -7.737326949466406e-13 
-3.554218385147758e-14 3.99642492545286e-13 -6.424199822382263e-13 -6.890149279506676e-13 
-5.546426293171848e-12 1.931058095643086e-11 -1.982139169228728e-11 -1.142871487615042e-11 
-4.56173870785561e-12 1.698219056764332e-11 -1.708815172211424e-11 -6.369941769064048e-12 
-5.177016980000894e-15 3.207685629697598e-13 -9.233116125104155e-14 -2.013956636845489e-14 
-1.252242536339023e-15 2.193195947982705e-14 -2.826689686091017e-14 -1.261464077983227e-16 
-4.750420552207443e-16 1.528694742585829e-14 -2.496157984138738e-14 -1.080630294345386e-14 
-7.325416245575136e-15 -5.91850230262225e-14 8.411006066072457e-14 -1.744199739882797e-14 
-3.282916067307361e-15 1.659541281885596e-14 -1.960405262030283e-14 -7.130324968521224e-15 
-1.98321135415671e-15 -3.021938403164157e-13 3.800515162255663e-13 -4.61173591631295e-15 
-3.423835357564543e-15 1.091692818241863e-14 -3.591796844855303e-14 -2.60472557489471e-14 
-6.140563518060344e-15 1.083496800998345e-13 2.114884283405201e-13 -3.581405076802647e-13 
-7.886008155171065e-15 1.27920863308987e-14 -7.219176748413483e-14 -6.871492396731908e-14 
-6.536262872848217e-14 1.402871059983495e-12 -4.211977640825331e-12 -2.289356270868106e-13 
-8.433755308001881e-13 6.270359247679995e-12 -8.380611038397422e-12 -1.54434436697159e-12 
-2.549135621810586e-12 2.130387362548559e-11 -2.846978254668821e-11 -3.89777680402788e-12 
-5.067805808108547e-13 -5.565230152437297e-13 7.820808618056537e-14 -3.469164267794721e-13 
-2.599887683047722e-15 4.175709350408885e-13 -1.069680122213702e-12 -1.473477648679366e-12 
-8.93925133159153e-14 2.161374617922383e-12 -2.906313500786732e-12 1.118307677297298e-13 
-2.93051322319147e-13 1.39804842524837e-12 -1.97776810770592e-12 3.068255021384855e-13 
-1.534311521681523e-12 3.65222933115579e-12 -5.434546272008849e-12 -2.74815366641087e-12 
-1.460444365301168e-12 9.766146456730657e-13 -2.415928211083906e-13 -3.807277285361791e-12 
-3.195933509876965e-14 3.98189666722309e-13 -4.852284686174817e-13 -1.289562183988368e-13 
-1.539200306242241e-13 1.167596824516397e-12 -1.259695301284366e-12 -2.677441260310855e-13 
-1.040924089837616e-13 8.184885116163713e-13 -1.126429969849769e-12 -2.196429035003453e-13 
-2.270534235345253e-13 1.376593298676634e-12 -1.915467407005684e-12 -1.701517791124877e-13 
-8.628206320665903e-14 6.573330506990816e-13 -8.539173845994758e-13 -1.629762704688847e-13 
-1.205385173231867e-13 -1.470383415394185e-13 -1.584774375633957e-13 1.242484042033348e-13 
-3.343151248256164e-13 9.33245588067376e-13 -1.2640361725986e-12 -6.921387766046583e-13 
-1.727144487312068e-13 9.142174764754209e-13 -1.290218179887407e-12 -3.137861422247379e-13 
-3.971426303122845e-13 1.615092539429149e-12 -2.471109598368091e-12 -5.843817069251706e-13 
-2.97927962000935e-15 2.373116483307487e-14 -1.188468257358531e-13 3.144486567112672e-14 
-5.6553525201897e-14 7.997569667420169e-14 -3.124670465162528e-14 1.634090552084611e-13 
-9.257934282340173e-15 2.988405978857908e-14 -5.614490043474797e-14 5.417789481374e-14 
-2.817714843273245e-14 1.464499439675052e-13 -1.807124754008282e-13 -2.616401663440785e-14 
-7.756884223517292e-15 -4.837137349988471e-14 -5.084294952279501e-14 2.940461335664709e-15 
-2.573713840846029e-14 1.261664356515045e-13 -3.303636624031872e-13 -9.056483889207609e-14 
-3.958638457946621e-15 7.19678041836343e-14 -6.658419875736287e-14 -7.903965825549082e-15 
-2.017766309733893e-14 -4.43788956531423e-14 1.074358915925435e-13 -2.163772854205881e-13 
-3.314201580688289e-14 1.038328791655171e-13 -1.287111726087597e-13 -6.972370712350001e-14 
-3.468033231768794e-13 -1.807477666721003e-12 -4.826706215809528e-14 -7.667492885372948e-13 
-7.39571507285923e-13 1.388766971466898e-12 -4.166881496558357e-12 -1.544118555068219e-12 
-1.438750894960828e-12 -4.637544756030599e-12 7.356164843659212e-12 -3.406189601515946e-12 
-3.927708230083774e-13 3.960050757745434e-12 -5.958870961887861e-12 -8.290698742977063e-13 
-1.855590187865213e-12 1.802888616384152e-11 -2.409484438002994e-11 -3.382153575592843e-12 
-2.700016084449165e-13 3.147673732627939e-12 -1.30056758382197e-12 -7.177489070942865e-13 
-1.018227064858393e-12 2.916816435976424e-12 -7.284377909781283e-12 -2.299718332535117e-12 
-1.042596378801764e-12 8.822459523287793e-12 -1.144892205255686e-11 -1.495168996984913e-12 
-7.878354934319786e-13 7.768191580826604e-12 -9.888863300184522e-12 -1.851242413415821e-12 
-4.739759613958918e-13 -4.812856918655405e-12 5.689220456862883e-12 -9.703039685002356e-13 
-1.884030350288879e-14 1.799177817777615e-13 -3.049490342757074e-13 -3.871083214817828e-14 
-1.100869376568436e-13 -1.373975185213312e-12 1.724115342895032e-12 -2.544400196276066e-13 
-2.814092211861153e-14 1.719970353561222e-14 -2.660840962982319e-14 -5.388377206564552e-14 
-1.819488757876062e-14 1.614938309817706e-13 -2.435227867223123e-13 -9.636936563278396e-14 
-3.331143883223533e-14 4.218677124032132e-13 -5.483300792758395e-13 -5.468625464700066e-14 
-7.36145150416765e-14 -3.23418066187939e-13 -1.622084538146912e-13 -1.18526274939306e-13 
-2.991662809357929e-15 1.026236724859036e-13 -1.160973419434096e-13 -7.984591379445411e-15 
-6.160373226056158e-14 1.431540634444628e-13 -2.197119445063447e-13 -1.258255406728431e-13 
-2.354043842923436e-13 1.316960775013122e-12 -1.700920947424614e-12 -5.040716768303183e-13 
-1.454437059567507e-13 -1.280838262691667e-13 2.073150500329662e-13 -2.889888738216097e-13 
-7.823312179535106e-14 3.948728550194239e-14 2.238577774583106e-13 -1.734389612942153e-13 
-4.286269734295499e-14 5.587609411736997e-13 -6.130217269039229e-13 -8.794430349380545e-14 
-2.333093050040366e-14 5.873539358744647e-13 -7.997703892809171e-13 -5.625192597262328e-14 
-1.224268461173981e-13 -1.834920693737925e-12 2.229454779651732e-12 -2.908018057615111e-13 
-5.33167784644879e-14 1.938570558763628e-12 -2.298247169106525e-12 -1.255789121175417e-13 
-7.288049666989341e-14 3.540409865977797e-13 -4.72848998829965e-13 -1.410888603323263e-13 
-1.080926351267394e-13 2.738238152911839e-13 -3.924462585973221e-13 -2.178288835066613e-13 
-3.491940836602325e-12 6.843652106106093e-12 -7.792754174888662e-12 -3.347336372427902e-12 
-4.684511864043482e-13 -1.70634450680723e-13 4.291528506755413e-13 -9.903861298676959e-13 
-6.788517852354499e-14 2.262455909579691e-13 -4.63465278313172e-13 1.73197249873458e-14 
-1.287598411265289e-15 1.981224634612375e-13 -2.472921108776622e-13 -4.820858538376986e-14 
-3.402774478135689e-14 1.78323858606676e-12 -2.117239798708595e-12 -1.136063250790918e-13 
-3.60617896854441e-13 3.347864826934603e-12 -5.192223856943885e-12 1.072846446808516e-12 
-2.467900341135589e-13 -6.29964877484683e-13 -4.094604316138783e-13 1.109072847989387e-12 
-8.414459410770722e-14 1.152814644757381e-12 -2.584097027122436e-14 -3.08790326588263e-12 
-8.239287310030308e-14 4.262760246609503e-13 -6.473265670333326e-13 -1.182358691277356e-13 
-3.333687547276726e-14 2.270959444733223e-13 -9.11675697732151e-14 -2.572260038557777e-12 
-3.510126627635776e-14 5.873094262272372e-13 -7.50027763022083e-13 -7.212969766431268e-14 
-1.376752232428593e-14 3.391678843067245e-13 -4.598027222234363e-13 -1.100088008934135e-13 
-1.370797867121263e-13 6.212773354280881e-13 -2.014365602114898e-12 -1.643936701032629e-12 
-1.729179400286504e-14 1.705859391694636e-13 -4.873860888777663e-13 2.813310566479605e-13 
-2.903986776603976e-13 1.394213236698492e-12 -1.131027969036561e-12 -1.027525552894096e-12 
-3.676133125562975e-14 5.270573247322011e-13 -6.429911300790434e-13 -1.219320405896055e-13 
-2.271839545059936e-14 5.375788730404018e-13 -6.335250254857185e-13 -3.444986989007661e-14 
-1.246117282563343e-16 3.090834140356517e-15 -2.548546680528891e-14 1.157234016068921e-14 
-9.63282047610498e-13 -7.430503982392953e-13 3.446236998243263e-13 -9.403467414411269e-13 
-1.512145388997206e-13 -3.43678758520979e-14 -1.44391823975166e-13 -2.019295521269495e-13 
-9.091884184428107e-14 4.169570576984429e-13 -3.079841704816932e-13 -4.894253753699205e-13 
-2.583492766338292e-12 1.093667126776125e-11 -1.097111962147902e-11 -8.353704937267195e-12 
-1.524280267700028e-13 1.561515426935665e-13 -7.588296596474324e-13 3.511539149217322e-13 
-7.174864806372143e-14 1.109133373267026e-13 -1.057298679129602e-13 -1.264978894653351e-13 
-2.245831542354909e-13 -9.260307844173077e-14 -2.429332928658242e-12 5.848939753770588e-14 
-1.260333773623451e-13 6.349606957998901e-13 -8.017965545250657e-13 -2.629400947760391e-13 
-6.723718456266012e-14 2.60376075635946e-13 -4.067732441182425e-13 -8.387018592461139e-15 
-1.958286425855806e-12 1.946493530345892e-12 2.961419682284829e-11 -2.187228740347631e-11 
-1.478627348324513e-12 5.97060583154802e-12 -3.787792970412683e-12 -3.797703266929949e-12 
-1.862517491419348e-12 7.580240441583459e-12 -9.700520774755404e-12 -1.277161129220978e-12 
-1.987268412904496e-12 6.988437725771419e-12 -2.644614048402666e-12 3.958821667732066e-12 
-1.614661646419555e-13 5.766342278567221e-13 -5.458034942742407e-13 5.065871442740759e-13 
-8.145601755360563e-13 -1.455805167829948e-11 1.670702096947855e-11 -1.931987617756609e-12 
-2.055120979663742e-12 9.386924219514358e-12 -1.222930441380736e-11 2.796222368540846e-12 
-2.554687322481112e-13 -7.56144351817517e-13 2.53174462173667e-12 1.383388402339043e-12 
-8.546943514060865e-14 -3.559600634827894e-13 1.137673996564015e-12 -6.123919923477138e-13 
-3.307807532931168e-13 1.572854990572839e-13 -2.023597253608471e-12 2.86927655712913e-13 
-3.906576037499642e-12 4.262066448726533e-12 -2.713857573215438e-11 2.053276609209542e-11 
-2.18362632532415e-12 3.02383564857445e-12 -4.839983517623439e-12 -2.523482530612885e-12 
-8.19892301046561e-12 -8.753046569231183e-12 7.891688347424543e-12 -1.66008451405284e-11 
-5.75058152450524e-13 2.492830167413989e-12 -4.240725314995272e-12 -1.4968188129275e-12 
-2.679936618624532e-13 3.698591611907312e-13 -3.558546023216058e-13 1.362994518448226e-12 
-7.26228871816208e-14 -5.624687168459332e-13 2.569729575021499e-13 4.254048477672104e-13 
-4.447144333824985e-14 1.332376201795503e-13 -2.239927230425078e-13 -9.160229198779125e-14 
-1.988580281690251e-16 1.865971231189844e-14 -2.193215398151617e-14 -7.17681558672582e-16 
-3.205500951327535e-14 1.235091054143664e-13 -1.404380341285267e-13 -4.557774466118074e-14 
-1.145990589505706e-14 6.008319356057292e-14 4.307191728420328e-15 -5.008648989743361e-14 
-8.619127883497131e-15 4.265162412784793e-14 2.712013270962613e-14 -6.192698335507741e-14 
-2.146944087015921e-14 1.07953832460329e-13 -1.005788948845436e-13 -9.228434371857608e-14 
-4.505449941056966e-15 2.009906440102035e-14 -1.862318736438959e-14 -9.687917566657174e-15 
-1.204848302757199e-15 1.960249408870594e-13 -2.292099256664057e-13 -5.072899611930259e-15 
-4.222929632160115e-15 9.92459599092551e-15 -2.47695326377229e-14 -8.980460585778311e-15 
-1.843460426402154e-14 9.589506948757326e-14 -1.615915566437232e-13 -5.08093657274002e-14 
-5.47631053420772e-14 -5.360964198047442e-14 -5.673887729585537e-14 -7.52119333393834e-14 
-8.421573047473057e-15 5.869768375611339e-14 -9.775561256790538e-14 2.3632402131972e-14 
-1.196713564573302e-14 5.516884779139697e-14 -1.038521921749276e-13 -3.537345954985333e-14 
-2.679229775750027e-14 1.016933065553555e-13 -1.79223159858951e-14 -1.56394675149816e-13 
-1.618311919980181e-14 9.154898489114007e-14 -2.070435903299468e-14 -2.182424021390441e-13 
-8.428534604305529e-15 3.169917604071349e-14 -3.302601121186396e-14 -1.447795199756329e-14 
-1.619088387332364e-14 8.275340662323825e-14 1.259549593649872e-13 -2.876380076217323e-13 
-6.460064843999817e-15 3.562362902997333e-14 -3.270967203551365e-14 -3.645771962460839e-14 
-5.761756016307749e-14 -5.002348389830125e-13 3.128041739998118e-13 5.331589316672093e-13 
-2.689913642447358e-13 2.52944382085862e-13 -3.840971533943598e-13 -3.904424658105619e-13 
-7.719946945367604e-14 -9.314346072083017e-13 1.017516774640678e-12 -1.659730750062908e-13 
-1.54308296172188e-13 2.561861425743523e-13 -3.353540213433827e-13 -3.012569817937032e-13 
-5.470733909955049e-13 1.745553390140019e-12 -2.099421647476582e-12 -1.004102866272637e-12 
-9.219416158298267e-14 2.354853066553802e-13 -5.615415953760345e-13 -2.020050626490213e-13 
-2.564992774719165e-13 1.729464749542677e-11 -1.529258691589234e-11 -8.363753061902722e-13 
-1.508024996626304e-13 5.383656245827564e-13 -6.987816009271045e-13 -7.05712324106688e-13 
-1.734860041467748e-13 5.815691279436576e-13 -8.180942685781317e-13 -3.89504233331677e-13 
-2.462105978983222e-12 4.569045357183024e-12 -8.140016195768554e-12 -7.612818741546041e-13 
-3.485381643521445e-12 -6.212793396426761e-12 7.326578130798546e-12 -7.486072896939349e-12 
-7.545964476629656e-12 1.720709496852117e-11 -1.721400367682586e-11 -1.002699240453519e-11 
-3.688390849964561e-13 9.391825235557442e-12 -1.068188917585183e-11 -7.053270587921225e-13 
-4.917872681619571e-14 5.462459097409937e-13 -1.24905980392506e-12 7.376036109731043e-13 
-1.423820851623317e-14 4.53727103594875e-13 -5.4536145253952e-13 -2.699969384319433e-13 
-6.566367479590232e-14 -3.879519153431225e-13 -4.413268281094018e-13 5.098610055719554e-13 
-8.017342770310371e-14 4.686735746744685e-13 -1.520269723757537e-12 -7.415305524704776e-13 
-4.118805251277022e-14 3.415858967798267e-13 -2.815033721345717e-12 -2.21428765694924e-13 
-2.241363138704726e-14 3.843542985413997e-14 -1.054444888751196e-13 6.637487805451644e-14 
-1.125248861788378e-13 7.018705770272324e-13 3.420827792764776e-13 -1.186547634608903e-12 
-2.222761951482553e-13 1.009305777776947e-12 3.851209061401379e-13 -2.534311033253932e-12 
-2.446857793497776e-13 -6.059663278680625e-12 7.512459380327545e-12 2.307994164439249e-13 
-1.973693537182729e-14 -1.158440055375289e-13 -8.541994676806203e-14 2.444061059477503e-13 
-7.999744716711725e-14 -1.428729699278226e-12 2.04043023385159e-12 -2.550536801991859e-13 
-2.016448626555554e-14 1.853645093581673e-12 -1.555553297909996e-12 -6.804720440890528e-14 
-3.259451967854472e-15 2.356318936233305e-13 -8.007768224505656e-14 -1.858654516265614e-14 
-3.894177627474787e-15 4.666450002492568e-13 -3.528015287417286e-13 -1.459364217261299e-14 
-3.648520433892565e-14 -3.312802004646423e-13 3.87529967097965e-13 -7.24077243089982e-14 
-1.174429964798063e-14 8.860403100229605e-14 6.220193646343855e-13 -9.302367054590808e-13 
-7.838459382688575e-14 8.041849120198387e-13 -1.549150586507552e-12 -7.098325206552359e-13 
-2.21357451613017e-13 1.53439494289317e-12 -2.38130442314323e-12 -1.339188040456662e-12 
3.870750443762562e-15 -3.394289449719837e-13 -2.121393239753989e-12 -3.183019284994052e-12 
-2.463650939597228e-13 1.604167198102756e-12 -1.990750481497074e-12 -1.235870551563619e-12 
-4.484221703301347e-13 3.414075027089185e-12 3.994091609383297e-12 -9.61509147336059e-12 
-1.758007607964569e-13 8.224407022607134e-13 -3.963073835210989e-12 5.023848386217953e-13 
-3.545227098092106e-15 2.89672760846038e-14 -7.306324712468051e-14 -4.701818672377749e-14 
-2.102959830035568e-14 1.274124642079085e-13 -1.362795952848109e-13 -3.356816791122166e-14 
-7.955642148001522e-15 3.693185381894643e-14 -6.110163155013121e-14 -2.83736462040751e-14 
-5.2259044561322e-15 1.046565093697766e-14 3.647878357522769e-15 -1.235921628584863e-14 
-2.711012643975634e-14 1.127154279204285e-13 -1.378051992846857e-13 -3.360405009613137e-14 
-1.165994421369303e-15 2.009424499793514e-14 -2.469129101304976e-14 -3.213642814374276e-15 
-1.175539910115641e-14 -8.191963962973103e-14 9.110433254542963e-14 -2.453833666449516e-14 
-4.779002884320065e-14 1.837664608825394e-13 -1.136361646872751e-13 -2.242513376847724e-13 
-5.314739179617149e-15 -1.162692821991559e-13 1.30130974121503e-13 2.873760714234483e-14 
-2.244904398446891e-15 1.507954157966081e-13 -1.635000215860479e-13 -7.073384642164843e-15 
-9.114316036484281e-15 5.189810572375797e-14 -7.213711338620426e-13 7.451803129117807e-14 
-8.874290737282968e-16 1.1591852139848e-14 -1.982419265876758e-14 -3.551010494341246e-14 
-2.064450519570157e-14 3.044595774982274e-15 -3.88931542017691e-14 -4.056639720701243e-14 
-1.225758798154411e-14 -9.874664493725633e-14 1.348510265236989e-13 -2.811571946256846e-14 
-3.262975053801613e-14 3.570850390216429e-13 -4.736147413868315e-13 -5.864307048829858e-14 
-8.436126515778084e-15 -1.302425244518188e-13 1.483409976970921e-13 -2.03018247874561e-14 
-1.497711220032447e-14 9.027879287864404e-14 -5.684457331552565e-14 -3.01234802351119e-14 
-3.145212454837213e-15 7.137243645158362e-14 -8.075884742668135e-14 -8.284270904225543e-15 
-2.275862534860454e-14 1.870466514223303e-13 -2.828382833606121e-13 -7.418862066197559e-14 
-2.666363525077203e-14 -3.220017865752872e-13 3.487098651134435e-13 -5.719992729433134e-14 
-3.869604747698646e-13 1.460964352267211e-12 -1.977423811919985e-12 -1.115102364812862e-12 
-5.578685955958323e-14 2.180959504081575e-13 -3.989949758243593e-13 -1.889554002996802e-13 
-4.998671792604976e-14 2.611625167812386e-13 -3.377314611566621e-13 -1.221935535350483e-13 
-1.70165181379923e-13 6.590580195839223e-13 -8.77352817856857e-13 -3.684992968988062e-13 
-3.196193753892341e-14 3.702585709904872e-13 -5.683285974936235e-13 -8.376886399529842e-14 
-2.631837465769722e-15 1.673036893206914e-14 -7.901269058722437e-15 -8.137056989553916e-14 
-3.636782771949862e-15 5.368747518059594e-14 -9.034949122936792e-14 -2.162634744159921e-14 
-2.130946138252766e-13 3.911415348807351e-12 -5.250935242143444e-12 -1.718197083952904e-13 
-4.48256582035856e-14 -6.171469687029842e-14 8.013875688677439e-14 -3.757687860881396e-14 
-3.598753538199522e-13 -3.006422577549167e-12 3.424043792640956e-12 -2.173818516077511e-13 
-1.880692131328564e-12 -4.185119233509242e-12 5.244568855786333e-12 -1.139473246655521e-12 
-3.324388866204882e-14 1.461711953452458e-13 -1.939863714753703e-13 -3.339508552378786e-14 
-3.88367363226878e-14 -8.581977197933958e-13 8.095480961610233e-13 -6.813192397123545e-14 
-1.309287698130551e-13 -2.902606374982892e-13 3.160668963897518e-13 -5.516452295453982e-14 
-2.18165459337512e-14 -5.96920572050757e-14 6.379196876216564e-14 -6.96313777856402e-15 
-8.683384621341643e-15 -2.634956833797625e-14 3.364219379029137e-14 -5.157976894736343e-15 
-1.085195202376313e-13 -3.150273270223927e-13 3.477991700351111e-13 -3.382753158558267e-14 
-1.635478430314852e-14 -5.269044846529627e-14 7.114439913190853e-14 -1.216463037519338e-14 
-1.349065677204518e-13 -5.659898721366967e-13 5.4634117032506e-13 -5.878599356170235e-14 
-1.641314976975795e-14 -4.515506413675934e-14 5.447586173086859e-14 -7.856643407153797e-15 
-3.541898022501273e-14 -1.011896922025166e-13 1.263216963552718e-13 -1.12752845201107e-14 
-4.791178487077577e-15 -3.921197932486154e-14 4.679765912646057e-14 -4.973285745207959e-15 
-2.598275502864054e-14 -7.778323087644943e-14 9.765590456279319e-14 -8.822786570331783e-15 
-6.660291933758567e-14 -1.200603287467012e-12 1.262457064558581e-12 4.906392251783931e-14 
-8.777617363886112e-14 -5.87166046204665e-14 6.405234262237944e-14 -8.533699488982045e-14 
-1.729748139749505e-13 -6.061970848248115e-13 7.609807596863771e-13 -1.016225108426701e-13 
-3.3618594233789e-14 -5.408580509386341e-15 2.549457139620656e-15 -3.561253713543014e-14 
3.472393404773271e-13 -1.259810476881761e-13 -7.05254031082138e-13 -8.126431859949496e-14 
1.510014776255918e-13 -1.430320783217232e-13 -2.990892476889956e-13 -8.457148876127298e-14 
-7.262704807083112e-14 -1.746030704318978e-13 2.007211603545293e-13 -4.031824835365334e-14 
-3.002221436169527e-13 -5.501163409179759e-13 2.541137628873215e-13 -1.122852397165534e-13 
-2.700293745555543e-15 -2.228676193895117e-13 2.613401805231508e-13 -5.347734829617513e-15 
-4.14311364056138e-12 1.504918585050491e-11 -1.704243780987525e-11 -3.412995922944299e-12 
-1.390832100399427e-11 -2.523987899351763e-11 3.180129961356004e-11 -1.2875115057077e-11 
-2.223443601350145e-11 -2.161795018911853e-11 3.229165571841711e-11 -2.039333388004653e-11 
-1.312472347697801e-14 -2.862167953069045e-13 2.884674670981572e-13 -8.161445268485199e-15 
-2.146970461103053e-13 5.542901217746333e-13 -6.981643921796558e-13 -2.283653220860799e-13 
-3.021296335252779e-14 -1.937257948888105e-12 2.140865465468911e-12 -2.882387544438863e-14 
-7.917526889852475e-15 -6.308829995411204e-14 -4.170570753437633e-14 2.417050838215398e-16 
-4.858072071242814e-14 -1.190724431308695e-12 1.430517184064337e-12 -4.694798212713676e-14 
-5.775135707313282e-14 -9.93391577936058e-13 1.10711970246278e-12 -1.584193862753433e-14 
-7.490302856244909e-14 -8.289013417691029e-13 9.625448185350512e-13 -5.395794633659936e-14 
-8.291382077166962e-14 -4.501838973954173e-13 5.137322109205171e-13 -5.129272264878735e-14 
-4.407361264961599e-13 1.617505705983577e-12 -1.914147801144045e-12 -3.710391634764209e-13 
-3.682571622648311e-12 -6.815157159214047e-12 8.773185598392642e-12 -3.563968814628815e-12 
-5.668122303217611e-12 -3.373196666457042e-12 4.928074007226223e-12 -3.13869721140384e-12 
-2.644603527518623e-12 -1.021891965247389e-12 1.430123002505117e-13 -1.969480266975477e-12 
-5.092928403887894e-14 -2.328765578210014e-13 3.423269410101799e-13 -5.51204740702183e-14 
-3.829328722033119e-14 4.508904378450094e-13 -5.438132114752268e-13 -6.487889487301065e-14 
-2.043840558480474e-13 -9.397939341946299e-13 1.25106298297134e-12 -1.392719076912485e-13 
-1.34623730947945e-13 -2.739652934665791e-13 3.42414611154545e-13 -4.62192714899897e-14 
-9.840200680283459e-14 -1.86659107584276e-13 2.081734622765216e-13 -2.555223326958146e-14 
-6.377112049754739e-14 6.099765171628465e-13 -8.709194614725075e-13 -1.165614223663094e-13 
-2.093515026482828e-14 3.545490035878578e-14 -6.89864686320996e-14 -2.57785919630002e-14 
-6.754304569117326e-14 2.662745795485135e-13 -3.778358864483483e-13 -5.781538238075708e-14 
-8.336257174954053e-14 -5.686012639148979e-14 4.562629669273306e-14 -7.089227085382331e-14 
-2.039291540559574e-13 -1.162092475432748e-11 1.484276821847039e-11 -1.626156626945546e-12 
-1.425188062635965e-12 -4.583279714419635e-12 5.466936207316653e-12 -7.958889976686983e-13 
-2.023151778226504e-13 -3.18678786822363e-12 2.826974262119686e-12 -2.229263150393471e-13 
-6.582585741988234e-13 -2.054106222077538e-13 2.138498799272679e-15 -4.024028682995371e-13 
-1.159754569261072e-12 -2.643761112126028e-12 2.944134309762942e-12 -4.046145051999584e-13 
-1.672125398229321e-12 -2.507609012348934e-12 1.483521510686409e-12 -1.472841425425084e-12 
-1.630232918038525e-12 -4.335481233495501e-12 2.708393211572496e-12 -1.997357835694521e-12 
-1.052434424516473e-12 -7.388588990474141e-12 3.465092730349395e-12 -4.049649683289083e-12 
-1.611395977694452e-12 3.378958645520714e-12 -5.181039319373429e-12 -1.808952461520647e-12 
-1.796849133341637e-13 -2.720308208661377e-11 3.020557596092206e-11 4.124338798326551e-13 
-6.662921012905876e-13 2.484814005832707e-12 -3.496629314007282e-12 -1.695853595684989e-13 
-2.751864130258073e-13 5.17173688410067e-13 -2.18874769275152e-12 6.033564478938274e-13 
-7.191254091085642e-13 4.828887088904101e-12 -6.914544281880331e-12 -2.570042988061528e-13 
-5.597710009332485e-13 -2.270486789858857e-12 1.625071628665383e-12 -2.093902070984685e-13 
-9.851221842508455e-13 1.143784140900732e-12 -1.647884934746846e-12 -1.123435945221043e-12 
-9.169905811207605e-13 2.368941287076584e-12 -2.955892505108506e-12 -9.24348475885749e-13 
-1.118463855227142e-12 4.942209523060067e-12 -6.394158319638229e-12 1.0020265966409e-13 
1.050551375199486e-14 -7.423903435022299e-13 1.685791346880605e-13 -1.607989906398728e-13 
-7.297125368496281e-13 -2.003052355666332e-12 2.409904572808704e-12 -2.584697155250334e-13 
-3.306712887139351e-13 -7.614005115513351e-13 8.788662808116364e-13 -1.903773414041531e-13 
-1.269409506300322e-13 -4.75343420869809e-13 4.944779179025342e-13 -7.779563299073999e-14 
-5.159457776632514e-14 1.336792662470613e-13 -2.15451447066684e-13 -6.031566280371297e-14 
-2.329010070058815e-14 4.432698916273493e-13 -5.701686950902303e-13 -4.84199219259145e-14 
-1.338699282710133e-13 -7.071296649636394e-13 8.47930132952599e-13 -9.064477862851771e-14 
-8.083940727203166e-14 -2.893602899990336e-13 2.856282882384223e-13 -3.69673779390218e-14 
-4.395946490277036e-14 -1.777310114297403e-13 1.781373065319464e-13 -3.621797115151208e-14 
-7.505069856887237e-13 -1.19191226037591e-12 1.450591162399303e-12 -5.142304050445e-13 
-4.423166717576906e-12 -1.125551869679322e-11 1.413319159034097e-11 -1.644862063443413e-12 
-1.001219521494197e-11 -3.195478556967832e-11 3.642788146078552e-11 -4.045212910865636e-12 
-1.527446143766651e-11 -3.484564034730055e-11 3.845551598700867e-11 -4.970437941828501e-12 
-7.019702281988465e-12 -1.329144046751954e-11 1.388113208627854e-11 -2.06587786128829e-12 
6.267711829965228e-12 -2.051075993493559e-11 -1.412203856723001e-11 -1.079481230123733e-11 
-1.492653712406787e-12 -1.162725135235557e-11 -1.505509937377823e-12 -6.079233625629161e-12 
-4.69825038086875e-12 -4.470822268921173e-12 6.01394510650504e-12 -2.773858768989411e-12 
7.49259386720531e-15 -1.161541395689872e-13 -3.040000614575165e-14 -5.97519364582857e-14 
-3.012829703754752e-14 -9.113711127015955e-14 4.622474186942126e-14 -9.493710366616426e-14 
-1.300110757873057e-13 1.42944846015403e-14 3.141260353017517e-16 -1.27806368163509e-13 
-6.649152405625749e-14 -3.453444339389093e-14 -5.044431309756023e-14 -1.393145245953366e-13 
-1.185474143260416e-13 -1.868988376552007e-13 3.950731291549321e-13 -2.298624890096478e-13 
-3.655513025112973e-14 4.380427500251062e-13 -4.039102876939868e-13 -2.208166580833909e-13 
-4.650320364514389e-13 -1.266998610403881e-12 1.037908971255475e-12 -2.275926804658092e-13 
-1.108036333400362e-13 4.332599672029184e-13 -3.942574706365016e-13 -1.959427270126233e-13 
-2.542938759136196e-14 3.133489977026408e-13 -4.145735893827698e-13 2.937722565612355e-14 
-5.39107533046129e-12 1.408706367318217e-11 -1.68310472446687e-11 -5.408164222047148e-12 
-2.212999473397837e-13 2.212580820946479e-12 -2.946395709063437e-12 -2.994784490211321e-13 
-3.144088739577689e-12 -6.588244561043447e-12 7.86701785830252e-12 -2.910389859345112e-12 
-1.356393272889415e-12 -2.106940646618313e-12 2.246097968238065e-12 -1.466210427807525e-12 
-1.274062877081471e-12 -5.994690065535732e-12 8.033310848786914e-12 -1.58951707300214e-12 
-3.637254481203277e-15 -1.135198479722726e-11 -2.650664740471697e-13 -5.3574827366154e-12 
-4.736218961871879e-12 -9.475844887477951e-12 8.531398767648622e-12 -3.201540648465397e-12 
-5.065913011176248e-13 -6.057457890270096e-13 3.598972152382423e-13 -6.24943149123036e-13 
-1.174332570380547e-12 -4.739113453632232e-12 3.433261170206776e-12 -2.469330265362217e-12 
-1.374983365017266e-11 -4.750347866144392e-12 7.440751784077848e-12 -9.188323530644456e-12 
-3.689111532849623e-12 -1.27434442705519e-12 3.71907543058425e-12 -8.984472171339117e-12 
-8.56026523146224e-12 2.307793514898729e-11 -2.583992261606245e-11 -6.54047639271065e-12 
-1.897296482816104e-12 1.990281813275499e-12 -5.723593569752161e-12 -7.452406879946308e-14 
-4.102468271358475e-13 -4.419053047931311e-13 1.725681996640831e-11 -2.099146563493284e-11 
-2.38487758126782e-13 -1.536767356493609e-12 1.765690798167477e-12 -1.834284825256524e-13 
-1.347765330299531e-12 -2.339549430166425e-12 2.979460430482119e-12 -1.238091273282616e-12 
-1.737200730906479e-13 -1.34051303957362e-12 1.172237855039004e-12 -8.82162689236692e-15 
-3.213115849496246e-12 -6.398793140809851e-12 7.997422980174421e-12 -1.983504466040417e-12 
-2.817341868077073e-13 -6.475836027402638e-12 8.139989239389259e-12 -5.671318631989393e-13 
-1.443574617792946e-11 -1.493743376456358e-11 1.949738233752379e-11 -9.605914755534246e-12 
-2.321726686950288e-13 -3.83623364899664e-13 5.119125525302088e-13 -1.465518653892107e-13 
-5.027361301447724e-13 -4.144305558747223e-12 4.528585204125022e-12 -3.292961101705149e-13 
-1.56711133541817e-13 -1.475864352532749e-12 1.974669838899465e-12 -1.048929834315353e-13 
-3.283631986034102e-13 4.753832649660059e-13 -8.347081458097414e-13 -3.489751863142384e-13 
-1.20533110577664e-11 -2.445606843902718e-11 2.68607667510116e-11 -4.634720222121144e-12 
-6.379113496721762e-13 -8.732428581700078e-13 6.834689651764143e-13 -5.416261810687582e-13 
-1.556841373708654e-12 -4.866181524355371e-12 6.162930018788682e-12 -1.017449481734419e-12 
-2.059602108883542e-13 -6.60963880543141e-13 6.296741823546722e-13 -2.027722180746806e-13 
-2.305157203029852e-13 -8.092341550331709e-13 9.941474948527745e-13 -1.128271748887905e-13 
-8.638121643233223e-14 -3.505194954998534e-12 3.83219694329864e-12 -1.284713457371676e-13 
-3.834534553157546e-14 -3.529415297998075e-12 3.860035760284582e-12 -1.507284540906554e-14 
-6.548324344034828e-13 -1.931882585034466e-12 2.306165193643011e-12 -2.209319781429123e-13 
-9.550905011087589e-14 -2.949390962370623e-12 -1.657679372380987e-12 -2.347742720475865e-12 
-1.690154323177532e-12 -5.137599594629099e-12 6.562591266525757e-12 -1.12405054015502e-12 
-2.313748352655175e-12 -4.554702597304574e-12 3.220553228860226e-12 -1.921002925226548e-12 
-6.898804017795284e-13 -1.044429730304718e-12 1.276125651010635e-12 -2.928661973101398e-13 
4.085548158430713e-12 -7.510316110147382e-12 -6.254597786230491e-12 -4.045715268726157e-12 
-2.512445050238671e-13 -2.200703211915537e-13 1.246380010282158e-13 -1.846154298136253e-13 
-2.362565004016062e-12 -5.72163205762084e-12 6.36145834149263e-12 -1.118692855666748e-12 
-6.357655406684387e-12 -1.243585841302619e-11 1.123728549958731e-11 -3.103231096918425e-12 
-1.190811004758046e-11 -2.494422016326116e-11 2.71296786347343e-11 -5.303163853233993e-12 
-8.889940561956648e-13 3.988500997099921e-12 -5.192454594466677e-12 1.051623175572354e-13 
-1.366990844579993e-13 4.13301909494552e-13 -1.124597044569079e-12 -4.070086291160348e-14 
-4.018483583624067e-14 8.743864857597956e-13 -1.342859988857309e-12 1.730626057472562e-13 
-7.61132898371787e-13 -8.022085656707609e-13 -4.700621251882944e-13 -6.608954400884364e-13 
-4.113184461503031e-12 -2.143538943331281e-11 2.643369985100268e-11 -1.755511342197583e-12 
-1.638109547034329e-11 -3.089521691103884e-13 5.910506244324107e-12 -1.487024950496637e-11 
-3.904169516287211e-13 -2.501310698350094e-11 2.925582046594944e-11 -7.078329156707951e-13 
-1.360285059399182e-13 -7.423539834175039e-13 7.864787576798119e-13 -8.940125862666475e-14 
-2.638513506095054e-13 -8.499663131234181e-13 9.774189202560888e-13 -1.309278378895076e-13 
-3.122662405744287e-13 -9.373577301085405e-13 1.069543870628785e-12 -1.172802047026907e-13 
-1.174528906262337e-14 -7.866348709507148e-14 5.412692756266841e-14 -3.908876173863501e-14 
-3.704626120337527e-14 -1.114069645184654e-13 1.29570606431955e-13 -1.78762158983424e-14 
-8.677883743191105e-14 -1.763667111289276e-13 1.999958667929528e-13 -8.209657283554035e-14 
-3.382009787966862e-14 -5.559898223684488e-14 5.942388059244366e-14 -2.235107578953059e-14 
-8.247870097537757e-14 -2.021497241260764e-13 2.713170946672337e-14 -7.226469973698456e-14 
-3.366509515195685e-13 -1.065650834622645e-12 1.339765080916821e-12 -1.239187654680757e-13 
-1.761868671920662e-14 -3.944279063866473e-12 4.631241333845331e-12 -4.575049981071544e-14 
-5.731067747658668e-14 -1.896496707550737e-13 1.234831287477651e-13 -1.167470948109904e-13 
-1.659258235725305e-14 -2.763479413269598e-14 3.181404693039307e-14 -3.674298288346603e-15 
-3.180538719910617e-14 -4.763098453762255e-14 6.008052037704229e-14 -2.686611976476882e-14 
-1.131619816102938e-14 -5.589196394339753e-14 6.87085749606764e-14 -5.589714674699572e-15 
-1.114912308305515e-14 -1.552818980360202e-12 1.889521028207921e-12 -2.882827151153807e-14 
-4.698489742476257e-14 2.046220212707173e-13 -2.975618304361683e-13 -4.32391094936919e-14 
-2.463199690899577e-16 -1.926248424605343e-13 2.211386266550443e-13 -5.766581050985963e-16 
-5.45506468265334e-14 -1.033472450867662e-12 1.340426481622938e-12 -1.373455477598169e-13 
-4.547187653630171e-12 8.384375740100088e-12 -1.044685565034782e-11 -2.327103527562108e-12 
-3.239926348222827e-12 1.044628253673968e-11 -1.348637707070531e-11 -2.547157843049965e-12 
-1.13841867933939e-11 -2.403847244234492e-11 2.969220092072891e-11 -1.252825750872116e-11 
-3.570527084266077e-12 7.528857920661133e-13 -9.372302106603184e-13 -3.096178662463002e-12 
-1.362879204665952e-12 -1.45037667988336e-12 1.809880213585385e-12 -8.338045164846644e-13 
-9.746337247604169e-13 1.87911815801632e-13 1.064284959994751e-13 -8.284581139739019e-13 
-1.168079436397251e-11 -2.124038428444094e-11 1.80668708292392e-11 -1.45500121168796e-11 
-2.220084823586058e-12 -2.366035039530847e-12 6.918351585987472e-13 -3.435346958077114e-12 
-2.273981088077249e-13 7.23694795820744e-12 -8.362553175373692e-12 -5.710093414533973e-13 
-1.570489961152144e-12 3.567968831249854e-12 -4.061346577707206e-12 -1.557320669073504e-12 
-5.810032507820549e-13 8.454051632569668e-13 -1.034098360640484e-12 -5.001498218427998e-13 
-5.367904671368582e-13 -1.60343154152797e-12 1.978409450889915e-12 -2.945621998308446e-13 
-6.300558691146055e-13 4.068000827076693e-13 -1.31326856525366e-12 -6.55723869786829e-13 
-6.807587594161438e-13 1.869864660399278e-12 -3.334715372584213e-12 -7.818066629388002e-13 
-8.055747383010585e-14 -1.393469576626115e-12 1.427535014337638e-12 -1.465564300896565e-13 
-1.113118463877403e-12 -4.482008376177536e-12 5.706871491472895e-12 -6.036413836766914e-13 
-2.727541739050448e-12 -1.150735757201028e-13 7.957286863551728e-13 -2.39012835567472e-12 
-9.792203996570765e-13 5.865124935674015e-12 -6.8866339822401e-12 -7.512063428674963e-13 
-4.208989208047271e-13 -3.173113703140825e-12 3.966792454140905e-12 -4.349098675602967e-13 
-1.635529587054899e-12 -3.619529621294251e-12 4.358882636765601e-12 -5.849210547757861e-13 
-3.670133475545903e-15 -1.362554890578925e-12 1.563774889080026e-12 -2.590319308082119e-14 
-1.383572184695193e-12 -7.725177785261033e-12 9.346323853954815e-12 -7.916946385360786e-13 
-1.043405669993703e-13 -1.227169305554348e-13 9.687811635762283e-14 -7.749078168720102e-14 
-1.434488134531392e-12 -4.224694868503526e-12 5.365994378616049e-12 -4.987294593152427e-13 
2.808950737172129e-13 -3.563072782567256e-13 -4.112456870078611e-13 -1.926367359965722e-13 
-2.311695868951078e-15 -1.927604871746309e-15 3.131497582227315e-15 -2.242827344475403e-15 
-6.938335815281936e-15 -2.549054803931825e-14 3.803272216425763e-14 -1.723865390398193e-14 
-8.578189765721468e-14 -3.54137743461894e-13 6.77785092407798e-14 -1.167987167027143e-13 
1.328545187336245e-13 -5.763556517246874e-14 -2.638315401738003e-13 -3.713117854364745e-14 
9.68030449454367e-15 -1.013933050567537e-13 -3.943521489145954e-15 -4.920011305691853e-14 
-8.954959183565766e-15 7.029957467916033e-15 -1.702127434652134e-14 -9.792014953897382e-15 
-7.22965776779075e-14 -2.475627898000329e-13 2.837453681333961e-13 -3.588520235249521e-14 
-2.832078641888405e-15 -2.888103120538194e-14 4.820030732148693e-15 -8.129534722391447e-15 
-4.401583268167847e-14 -1.739493547381814e-13 -2.004659446411452e-15 -7.163705103776636e-14 
-7.40958956296011e-14 -1.298783005728241e-13 1.519316806914173e-13 -2.344614770381634e-14 
-1.710866655428402e-14 -9.705277404956526e-16 1.527408637843135e-14 -2.249446580116607e-14 
-1.271203927422654e-13 -5.237088209437708e-13 6.029629269702522e-13 -1.008753985020145e-13 
-1.864266509270024e-14 7.916189098403423e-14 -1.101949253455707e-13 -2.380146319952421e-14 
-2.40154415897813e-14 -2.199996959196352e-14 3.014017652728868e-14 -2.370825175093167e-14 
-1.205382206795159e-14 -6.437839964073597e-14 8.306566685214e-14 -8.484619208806031e-15 
-4.024353000486374e-14 2.205895279201277e-13 -3.394435822598064e-13 -5.612210026775037e-14 
-8.045791405667846e-15 -1.694463058626638e-13 1.89491559481219e-13 -9.128826036808847e-15 
-1.080794502480744e-14 -7.15156993566371e-15 5.739295455263357e-13 -6.598714133187148e-13 
-3.593247502317227e-14 1.341347647738275e-13 -1.796441289460011e-13 -4.534626497015539e-14 
-3.381996388316307e-15 -7.503789241379566e-14 6.889796429711638e-14 -7.693136121562994e-15 
-5.222292822463375e-15 -6.69826490106867e-14 8.410914169181201e-14 -5.328501682653619e-15 
-5.092768170811798e-15 -3.925814305766047e-13 4.822346520362745e-13 -1.247712284933264e-14 
-1.286072246839853e-15 -2.403700030697756e-14 2.326910432110843e-14 -2.231114520315644e-15 
-5.004338354019645e-15 1.181131382343042e-13 -1.376384526953561e-13 -1.104888638616287e-14 
-1.140764555807358e-14 -2.474749942503793e-14 3.51332718097102e-14 -2.734717547471541e-14 
-2.939160363817139e-14 -7.558056856319545e-14 8.948362559306151e-14 -8.885442219092448e-15 
-1.972449316987118e-14 -3.327130263999091e-12 4.111730779556646e-12 -4.251659141187087e-14 
-4.710192827276511e-15 -5.966964288220997e-14 6.914625157837354e-14 -9.328554661934692e-15 
-1.053599425086737e-13 5.073110999777024e-14 -1.256656657015592e-13 -5.306133010363371e-15 
-3.727083254386923e-13 4.859054362234081e-13 -6.031092796090182e-13 -2.537101113549682e-13 
-6.269285321667719e-15 -2.574459430931157e-13 2.928681244111552e-13 -9.468646565467611e-15 
-3.301712283772995e-13 1.518020468160576e-12 -1.718736685193867e-12 -2.566051071034082e-13 
-1.952679369922261e-13 4.132429596388823e-13 -5.107387191155402e-13 -1.492810722085048e-13 
-8.892945342446145e-13 -9.954799276606324e-13 1.430505169320672e-12 -7.160110489085961e-13 
-6.269285321667719e-15 -2.574459430931157e-13 2.928681244111552e-13 -9.468646565467611e-15 
-8.516365634784987e-14 8.691126586438075e-14 -5.227424899621467e-14 -6.155730407609029e-14 
-3.950735245260835e-14 -3.264596894362747e-13 3.135899406258297e-13 -2.328474918722812e-14 
-3.843352412879681e-14 -2.322762506911627e-13 6.254816345808237e-12 -7.115994022694646e-12 
-6.09611499041874e-12 -3.191300453536636e-12 -3.587393772432843e-11 4.263129055111214e-11 
-4.352509811618542e-12 -1.345794489448924e-12 1.019778901851233e-11 1.234933405279081e-11 
-1.095944767415759e-13 -1.298414608087986e-13 -7.700926254893814e-13 4.85209275209292e-13 
-3.876103640936243e-13 -2.91021578210929e-13 1.860257279676078e-12 -2.696123593965831e-12 
-6.5541225227643e-13 -5.447194486071924e-13 -4.888977364799427e-12 5.151826122168004e-12 
-2.194589495556234e-13 -3.718496976055171e-13 -5.455777401368831e-12 4.958933102305941e-12 
-6.125579015719437e-15 1.655278763208708e-15 7.936647532228857e-14 -2.148802468273373e-14 
-4.068834706900736e-15 -2.320246958524128e-15 1.117887501468347e-13 -1.180761177127181e-13 
-4.792318567593609e-15 -5.259569450485365e-15 -3.648715836260964e-14 6.198617802421433e-14 
-9.570704292500762e-15 -1.074045280850959e-14 -1.261359554541888e-13 1.821080328173781e-13 
-3.590012474137842e-14 -2.413035544279023e-14 -1.375711875952671e-13 1.241514846105847e-13 
-6.112312501528781e-15 -7.453666539385731e-15 -2.696355335130672e-14 -1.411381011945811e-14 
-1.851636087803967e-14 -1.483723866741663e-14 -2.17735327884802e-13 2.590025141192863e-13 
-8.404906289745936e-15 -5.790885441885198e-15 -4.583790663010743e-14 5.245429551416393e-14 
-3.049626019319259e-15 -1.667252597243469e-15 4.672031458885989e-15 -1.478155273133082e-17 
-3.303434495849269e-14 -6.370767168350537e-14 -7.190080458783594e-13 6.29479733692898e-13 
-8.200731372105058e-15 -1.278724379092304e-14 -4.038872201028345e-13 4.017185311057094e-13 
-9.416307764895361e-15 -1.359695722317095e-14 -1.329692982941458e-13 1.300203492070718e-13 
-6.150106420214533e-14 -8.71922912695563e-14 3.483442764709791e-13 -2.614112595459129e-13 
-8.633340616225438e-14 -1.153369054992044e-13 -2.179902164065866e-13 3.042887938454645e-13 
-1.292751149064153e-14 -5.14925160044385e-15 2.910279851491827e-13 -2.997553139048384e-13 
-6.785815912768721e-15 -4.278976494652567e-15 1.818381341447928e-13 -1.625533647096994e-13 
-2.421448987540902e-14 -2.040853752119294e-14 3.99000363203323e-13 -4.367360465584383e-13 
-1.128469815396241e-14 -4.258861644889083e-15 -4.308153040582549e-14 1.00015845074068e-13 
-8.945680684115504e-13 -1.305563191890563e-12 -1.617776845936657e-11 1.636398085538068e-11 
-1.898760868255187e-12 -1.801525477587171e-12 -1.081122871608309e-11 9.471724067228943e-12 
-2.467867607888436e-12 -1.826909829171291e-12 -1.686994461113535e-11 1.598785041979402e-11 
-2.873708752421135e-12 -1.755431550760711e-12 1.221554431747298e-12 -6.871293441743389e-12 
-6.470456502087055e-12 -8.442984909555527e-12 -1.776104079297717e-11 2.291115763866842e-11 
-3.362025529962128e-12 -2.706384036041291e-12 -1.232035122543696e-11 1.146000860183579e-11 
-1.976334289898984e-12 -1.527042585549821e-12 -2.273939028601181e-11 2.533516769816123e-11 
-8.033638655156439e-15 -4.95931526457543e-14 -2.586638209738576e-12 2.627943558112497e-12 
-4.56940927657439e-14 -1.777031115861469e-13 -6.089931222167588e-13 8.76770755571489e-13 
-1.581062776603281e-14 -1.309893651896164e-13 -2.322987627515585e-12 2.319681353097582e-12 
-1.742975300684602e-14 -9.357130764883424e-14 2.411233462722378e-13 3.930200577687042e-14 
-5.145150118974383e-14 -1.687785292026373e-13 -4.74500772159628e-13 3.841567751819786e-13 
-4.229551916681857e-14 -1.589363870290612e-13 2.832524583411759e-13 -3.540781133670651e-13 
-2.209431724571332e-14 -8.258806493752706e-14 -2.52580556902516e-12 2.459447201596476e-12 
-8.397074486887613e-15 -7.311329612967452e-14 -1.071977165224923e-12 7.734508103165196e-13 
-5.662409206643024e-15 -8.548773515651777e-15 -1.078293638358088e-12 1.268682939438709e-12 
-6.279562445295189e-12 -4.079852599687076e-12 -9.244258244414015e-12 1.52490527134378e-11 
-1.110098078143156e-12 -7.889102038610495e-13 -8.735346966435282e-12 1.100046832520257e-11 
-1.515481122809962e-12 -9.742327962737795e-13 6.594137209201188e-12 -5.573851282621797e-12 
-1.283096174282256e-12 -6.677976543978019e-13 -5.112990423940983e-13 2.278313701499357e-12 
-4.579925846773583e-12 -2.142477744687688e-12 3.200670090268993e-12 -2.638518609613566e-12 
-3.950577692727336e-12 -2.926406810590828e-12 -6.513864556514209e-12 1.047748772169481e-11 
-1.673597966011643e-14 -1.976417789989248e-14 2.666721920340699e-14 -2.20392343991883e-13 
-4.035811903641157e-14 -2.009831413489662e-14 5.535970453411161e-13 -1.9695898469298e-13 
-6.909444044854615e-14 -6.559037187585505e-14 -7.357295363064377e-13 8.690831902372119e-13 
-5.641590116413304e-14 -3.593297305422333e-14 3.143559956606817e-13 -3.943277515249726e-13 
-1.124595779346293e-13 -1.297003345133998e-13 -1.131931055683827e-12 1.295811363967583e-12 
-2.152940607118781e-15 -1.154432794546237e-15 -6.605662431496124e-14 3.095953570161995e-14 
-1.505651194620294e-13 -1.166294175609579e-13 -1.16662114482273e-12 1.31400755779518e-12 
-5.082965702848667e-14 -2.906834738630663e-14 6.703503325171964e-13 -7.221680200023717e-13 
-7.7271846999073e-14 -3.302686098065569e-14 -2.737780783031064e-14 2.874951210697212e-13 
-4.886541114677978e-12 -3.920754847245921e-12 -5.6068683787184e-11 6.335291186838983e-11 
-1.470877731348417e-12 -9.586949268304962e-13 -8.160536236476861e-12 7.13000480536802e-12 
-9.009513244398514e-13 -2.236311194552192e-12 -2.204424886370952e-12 1.245669058901135e-12 
-3.057350882157255e-13 -1.899922928581574e-12 -1.010804498297713e-12 1.268480822437503e-12 
-1.101436204012251e-12 1.06782083047575e-12 -9.03425275821053e-12 1.188238802565106e-11 
-1.379596822424785e-13 -1.791743584129671e-13 -6.054521552699382e-12 9.124326296880144e-12 
-4.652217427516967e-13 5.236732165544416e-13 -6.390368675885656e-12 5.971923584915127e-12 
-1.177311701249816e-13 -1.715302261251558e-12 -6.728313658391012e-13 2.191152553405244e-12 
-1.834707102071752e-12 -4.383438917995391e-12 -1.597997525548882e-12 -2.487000078147888e-12 
-2.461416311911724e-14 -1.503326356194943e-13 -4.121124112073506e-12 4.359097906339437e-12 
-8.411957594324333e-13 -9.250959646411682e-13 -7.046642962207055e-12 6.077182118041757e-12 
-2.041200322943154e-12 -1.61845086201239e-12 -1.928940478021074e-12 1.598808668059458e-12 
-3.759314652299167e-13 -5.08122309042667e-13 6.376136077883857e-12 -4.423345593126423e-12 
-1.131083083019212e-12 -2.476880748953921e-12 -7.125753149500508e-12 1.302162634669564e-11 
-1.459011899563592e-12 -1.135953784778879e-12 1.531469276717402e-12 -2.964908139629211e-12 
-2.617126681958984e-12 -2.780228136036511e-12 -1.775752725034787e-11 2.339338030938536e-11 
-2.227725804666115e-12 -1.917647834433981e-12 -8.519691237572727e-12 9.204621438806337e-12 
-2.028514851566017e-12 -3.306952842387371e-12 -1.501911834615571e-11 1.965199470272651e-11 
-5.841025871264419e-13 -1.173759887244288e-12 2.173631811779283e-12 3.339455546843409e-13 
-1.116726860489429e-13 -9.661138297157604e-14 8.082803608281861e-13 -5.87105451964986e-13 
-3.927719033891339e-14 -3.612709014325625e-14 1.101281420674177e-12 -1.403168453766988e-12 
-2.468149561749687e-14 -2.288835429661595e-14 -6.384059247838526e-13 -1.67206994558368e-14 
-2.321098598981453e-13 -8.403810078008626e-14 -1.707336837194607e-13 5.59433667378146e-13 
-5.197808537643813e-14 -2.299243488114678e-13 4.608742509054154e-13 2.314146367929552e-13 
-4.196552904781758e-14 -6.277507278814987e-14 -1.611696036238569e-13 8.270006379637651e-14 
-4.455649215567069e-14 -3.047444583066953e-14 -1.622858214611518e-13 2.470198138162102e-13 
-3.419441259468571e-14 -3.026843808494486e-14 -5.701324709820916e-13 5.804496504486858e-13 
-3.943354633662302e-13 -1.515129755135643e-12 -5.952909267988035e-12 1.17106531136959e-11 
-2.450872069555807e-13 -4.153677306758192e-13 6.214328840902608e-12 -4.059458989689011e-12 
-4.890169008543866e-13 -3.992228418656564e-14 2.748552225314937e-12 -2.487193982721997e-12 
-4.204988883846567e-13 -1.941705185569345e-12 -2.5200799584294e-11 2.441870066604978e-11 
-2.963368287627617e-13 6.561409614802126e-13 2.236973794328774e-12 -2.132796104075981e-12 
-3.005830778139677e-12 3.669841425522282e-12 3.575896261864714e-11 -2.015107636265867e-11 
-1.164370720937604e-12 -2.938079555740772e-12 6.348221217963528e-12 4.427076191319786e-12 
-5.926611582150539e-13 -5.007277292814752e-12 -1.55738790035991e-12 -6.162164580071144e-12 
-6.909450071197646e-12 -7.3966485568344e-12 -9.091232015009349e-12 5.4821602857102e-12 
-3.379457647539531e-13 2.454984376478211e-13 -4.314539213014838e-12 6.862253760804301e-12 
-1.243050875504264e-13 -2.202654817781574e-13 2.800569848241085e-12 -2.739512219879464e-12 
-3.287569775251965e-14 -1.746120317173703e-13 3.881454617215699e-13 -2.54708987566279e-13 
-2.885918044273793e-13 -3.082534148156372e-13 -2.100364774004084e-12 2.466562692678735e-12 
-1.59034911487564e-13 -3.563218910398728e-13 -4.537661412933367e-12 5.277989285367157e-12 
-2.494032008692406e-13 -2.677638692865285e-13 -3.376848427221349e-12 3.795127293789735e-12 
-2.392381202793032e-14 -1.324276198731476e-13 -1.649178104277246e-12 1.65919159989436e-12 
-6.024605457446965e-14 -1.122580214565543e-13 -9.529165859141027e-13 1.148540809016345e-12 
-1.12742012797858e-13 -7.419663900263687e-13 -6.425031460421434e-14 8.566404492585397e-13 
-1.61457419946908e-13 -5.099510030959989e-13 -1.166423527538153e-12 1.464618352769361e-12 
-4.80103725572883e-14 -8.756494015804389e-14 -1.055986238311406e-12 3.882262576713178e-13 
-6.234397389818228e-14 -1.701058289613707e-13 -4.306891763985957e-12 2.815901802728273e-12 
-3.142869381785185e-13 -6.042970219623834e-13 -1.528309898907234e-11 1.126274454931365e-11 
-3.503675677962287e-13 -5.446786452055015e-13 -3.156627320000654e-12 2.553235605809247e-12 
-1.206692661517139e-13 -2.550498817152878e-13 -8.877053809195663e-12 7.017165375593575e-12 
-1.635349478050871e-13 -2.095098939436832e-13 -4.299547928411426e-12 3.917253940509147e-12 
-1.60188902223414e-13 -2.840181430713527e-14 -2.317023603927256e-13 -4.354815580440199e-13 
-1.642646230728571e-12 -3.564778946115706e-12 -7.420206689340905e-12 2.029539943422813e-12 
-7.391976450380849e-12 -4.534607744967941e-12 -2.152409310974878e-11 2.811687881073614e-11 
-4.021684906272952e-12 -3.346643096405094e-12 3.747060249040295e-11 -4.218979507707372e-11 
-1.177450639581631e-12 -1.363961378181813e-12 2.226745638445483e-11 -2.555016156210036e-11 
-5.604288530580774e-12 -4.718521804154199e-12 4.931288694306824e-11 -6.103772576604146e-11 
-2.881366666192407e-12 -2.0680689848425e-12 8.54852511726053e-13 1.196264161690579e-12 
-5.209815411004111e-12 -2.867859005097619e-12 4.295615336350018e-12 -6.741299462344108e-12 
-3.616961336624465e-12 -3.431028560768108e-12 7.091778714483222e-12 -8.090645801900866e-14 
-1.643439257076551e-14 -9.125369672787951e-15 4.835867859119149e-13 -8.140213258929111e-13 
-3.079699888733512e-14 -6.464788108716631e-14 -1.379386980325064e-12 1.632911618051403e-13 
-1.991293099092404e-14 -1.887074065875945e-14 1.393611009014472e-13 -2.151195154338916e-13 
-1.117152372850789e-14 1.811207294351375e-15 -4.560465276121308e-13 -4.335646275785151e-13 
-9.508140735106357e-15 -1.159553643171951e-14 -1.021728333034068e-11 1.139478062917571e-11 
-1.655538283138537e-13 -1.509660737009258e-13 -3.10126886730521e-12 2.262891698291494e-13 
-4.945718569134946e-14 -5.716246294007376e-14 -1.214062004763762e-12 -5.095642408871754e-13 
-1.304002791037384e-14 -4.99540205808507e-14 -5.306251055821229e-12 5.175543795231643e-12 
-2.323818433302379e-14 -4.195171617864357e-14 -1.455710953987303e-11 1.526857962027318e-11 
-4.878147803983709e-13 -4.360130393241477e-13 5.74641927718044e-12 -9.834344750143607e-12 
-5.828320171803231e-13 -6.539161307698403e-13 1.422125723991634e-12 -1.413251950375122e-12 
-1.401553118239165e-13 -2.480244271037893e-14 5.657040192596087e-12 -7.937165640357477e-12 
-6.587726798771641e-13 -4.38295397731496e-13 1.218267372194814e-11 -1.400607611466403e-11 
-1.011770156607651e-13 6.858727256207054e-14 1.610457325762052e-12 -1.865339599476589e-12 
-7.628061678560057e-14 -1.693251101343494e-13 -1.019520061720351e-12 8.758382500528729e-13 
-1.351728930088404e-13 -2.759737913231573e-13 -3.561425460657233e-12 3.873592062460223e-12 
-1.124988020475657e-13 -1.540713560448941e-13 -4.407404501608455e-13 6.819794522697964e-13 
-7.442148892404691e-14 -1.212114537971057e-13 -1.255349329039451e-12 1.463334245638206e-12 
-1.89157491210148e-12 -9.496973283453951e-14 -9.523898026561158e-12 1.313845317958722e-11 
-1.811447787601559e-12 -1.066151570948514e-12 8.161749697530261e-12 -1.717183765801263e-12 
-1.756320434499028e-12 -1.405617451049311e-12 -1.398642866357655e-11 1.565082245339639e-11 
-2.658225951409871e-12 1.252113788383777e-14 -6.368244792814775e-12 1.284493175644648e-11 
-1.975794482235645e-13 -3.222186261008243e-13 5.216713039694769e-13 -1.483113274862782e-12 
1.534375767310278e-13 -2.779724488792028e-14 -1.662999524920974e-12 1.540931293320704e-12 
-4.90715546987609e-13 -2.174530336238023e-13 3.260661739641687e-12 -2.832335876313135e-13 
-3.963412298685848e-13 -3.890533850678427e-13 -1.490650508104432e-12 1.214672596439645e-12 
-3.063220647147325e-13 1.052005496911695e-13 -1.728023900234765e-12 2.412859400630243e-12 
-4.634788077821729e-13 -5.600123326766931e-13 9.657180742273401e-12 -9.351063405799981e-12 
-9.888012583824544e-12 -6.549107823040958e-12 1.078312604526814e-11 -3.867781600108013e-12 
-1.808242760734464e-13 -3.184161498750829e-13 -4.519156926644344e-13 -1.500638022533655e-12 
-4.290242666501136e-13 -3.798778910947448e-13 1.426256190149864e-12 -1.727002314578048e-12 
-1.92301081090417e-13 -2.122511724302616e-13 2.991788195588908e-13 -1.166006270927761e-12 
-6.798873833378007e-12 -4.045468489050232e-12 2.574854025397058e-11 -2.024805088170185e-11 
-7.365484868417914e-14 -1.728753059611794e-13 -2.417364989134573e-12 1.448329742179288e-12 
-1.302760594938362e-14 -7.991795579192993e-14 -1.618383946210773e-12 1.772864604035017e-12 
-1.066015563704466e-14 -1.453981904892713e-14 -1.291613622002276e-12 8.755422047857575e-13 
-5.267027467801485e-15 -2.992609482549505e-14 -9.593255163307459e-13 6.77644603008518e-13 
-1.454856536559678e-14 -1.883423826010804e-14 -2.2035818331497e-12 1.649591892750651e-12 
-1.100126005515936e-14 -6.776398308755256e-15 -3.653519525169023e-13 2.015272640764518e-13 
-1.382482594561565e-14 -2.247593244636862e-14 -8.260715820873603e-13 3.640917457033553e-13 
-7.968285422708375e-15 -2.407374971874106e-14 -2.028518529771524e-12 1.879131847120001e-12 
-9.182734236471895e-15 -1.038129591220367e-14 -2.738247692807018e-14 -4.340350939375656e-14 
-7.419566450128405e-14 -5.581181426008759e-14 5.001169365586021e-14 -7.22001323681765e-14 
-1.669233543943258e-13 -1.589307038173685e-13 7.358019436773238e-13 -2.661520410880827e-13 
-5.71261844992038e-14 -3.96057324181853e-14 4.621207669840134e-13 -5.157797577414864e-13 
-5.940860509054908e-14 -2.515035359080546e-14 1.858324009915874e-12 -2.228263375883334e-12 
-2.059607214209986e-14 -1.32866104371694e-14 1.578181104232797e-13 -2.555044682147284e-13 
-4.45471291764931e-14 -2.576391029310907e-14 1.064492910225524e-13 -1.693222606658477e-13 
-1.866189762098476e-14 -1.795545453560773e-14 -2.097435193666038e-13 1.909576092690245e-13 
-1.080277927439458e-14 -2.262745935324316e-14 -4.145057792929141e-13 3.618785173523282e-13 
-3.604169756839103e-15 9.502326429280723e-15 2.837274259684834e-14 -8.509732280323154e-14 
-1.545792537164308e-12 -2.439328959074495e-12 -1.08348530975877e-12 6.167251887232024e-12 
-1.295783905322019e-12 -3.001703542164303e-12 -1.358992504881872e-11 -2.832166664314336e-13 
-2.665303614575834e-13 -4.657464911870652e-13 -1.425888875424355e-11 1.193115517353745e-11 
-9.837861531229891e-14 -2.759683792263944e-13 -3.092714139924869e-12 1.203553921594927e-12 
-5.263171741678815e-13 -1.183815631489847e-12 -1.074225870080777e-11 6.149816606299233e-12 
-1.391356814775677e-12 -3.124046714922314e-12 -1.465545181271509e-11 6.734906484672391e-12 
-1.06252380383651e-13 -4.269545200437264e-13 -7.260466915039017e-12 1.216112335994808e-11 
-2.241046714848856e-13 -6.656656999705073e-13 -4.94761851628406e-12 2.291167750260516e-12 
-7.090928387934966e-13 -1.171935448604203e-12 7.131322309925387e-13 -5.854046765841834e-13 
-1.364112790300926e-11 -1.858819608610129e-11 -1.581490135653078e-12 -2.751733464085632e-12 
-2.191134569125188e-12 -2.234816850092344e-12 -1.792999244159164e-11 1.912558733699232e-11 
-4.03174487819041e-13 -2.252367262896395e-13 -8.017433477455516e-13 5.975988327095845e-13 
-2.857331281472936e-13 -1.948753069888695e-13 -3.032517121153557e-12 3.333693373365443e-12 
-3.92108621853861e-13 -2.573030718387129e-13 -3.880896544718074e-12 4.272476703989886e-12 
-1.860446526212428e-12 -1.319276461743812e-12 -9.57758227308219e-12 8.214020616476852e-12 
-1.914851249260869e-13 -2.535667474031396e-13 -9.89952278380863e-12 6.900297457908886e-12 
-1.950305338405058e-13 -1.657571125341524e-13 2.219748416288713e-12 -1.744058206686514e-12 
-1.971561183200692e-13 -1.249502069238982e-13 2.549503682087651e-12 -2.977143031341169e-12 
-1.031575847424269e-12 -7.134993274663917e-13 6.929885220214302e-12 -9.947845214897657e-12 
-4.617618426099897e-13 -3.332588051879838e-13 4.397352121092499e-12 -3.069424926282228e-12 
-4.496890799142591e-12 -3.526625943170882e-12 -3.377126129462486e-11 3.695135863128326e-11 
-3.342092094404636e-13 -2.539451486071702e-13 -8.961665146407574e-13 3.005802669877199e-13 
-1.111809794816108e-12 -1.004346593225873e-12 -4.389875840138052e-12 4.376517594010208e-12 
-3.674300056471684e-13 -1.108672361018808e-13 -1.940380557844582e-12 8.039422120258532e-13 
-5.386887272219208e-13 -4.141666420209116e-13 2.559840998921435e-13 -2.45436326623612e-12 
-2.026769680970538e-13 -8.56355972512114e-14 5.41965417366961e-12 -2.195032963390938e-12 
-5.559048149343856e-13 -6.056380838605791e-13 -3.232804518178479e-12 1.565038034219899e-12 
-1.717203022939739e-13 1.257136252185181e-13 -9.628706752200418e-12 1.264944448897872e-11 
-2.511452686078648e-14 -4.049700076161895e-14 7.091616644488459e-12 -1.041835643836881e-11 
-4.297021068328314e-15 -7.370261697067001e-14 -1.183697228367696e-12 1.290096886729664e-12 
-3.075632646486294e-14 -2.669034516271558e-14 -9.174118280081272e-13 3.837285590442433e-13 
-5.64664927283123e-14 -1.035872972772129e-13 4.094210126268209e-12 -4.682677647530555e-12 
-3.726148757758964e-14 8.906175721621184e-14 1.41896395744654e-13 -4.533002458446903e-13 
-1.677929314873437e-14 -8.988582567079621e-16 1.304838022765197e-12 -2.027865267766623e-12 
-4.99589282536909e-14 -2.833380990748982e-14 4.52375865856192e-13 -6.825591404054598e-13 
-6.434393952684642e-13 -7.541533289458422e-13 -1.030812171012169e-11 1.165067142873952e-11 
-3.198029142607633e-13 -1.792692315201972e-13 1.43851760098188e-12 -1.709581219120708e-12 
-6.327090386605936e-14 -5.086324813487113e-14 -3.866889566333002e-13 3.08911192857777e-13 
-5.80004583178538e-14 -4.170883578102898e-14 -3.493473837473352e-13 4.333892095569146e-13 
-5.873536583729563e-14 -3.524605398624548e-14 4.934031484036167e-13 -7.010946455033051e-13 
-6.915956442416591e-15 -3.765030260763119e-15 2.62645066561248e-13 -3.975954279102598e-13 
-5.415235131559858e-16 -8.581246424946759e-16 -2.991969388314775e-13 3.004870499946312e-13 
-9.302537753232602e-15 -6.978571648817803e-15 -2.184646374268482e-13 2.151645555788228e-13 
-3.669793467587985e-15 -2.967270235517376e-14 2.079384173687584e-13 -2.398869365121661e-13 
-4.31649964601138e-15 -9.02525266998285e-15 -2.246993433644952e-13 2.218853467508545e-13 
-1.43976168802454e-14 -2.019925020259714e-13 1.01073565727277e-13 3.043005645154202e-13 
-3.807540936686343e-14 -5.004281535667527e-14 -4.270690268989914e-13 1.446016424254053e-12 
-2.216801223906987e-14 -1.50223002562976e-14 -8.977506644077952e-14 -7.172492576167524e-14 
-9.433673125640802e-15 -9.49020255886039e-15 2.572206103166008e-13 -2.96701048054669e-13 
-6.289160793162834e-15 -6.525872933012305e-15 -2.393479806970586e-13 1.768391528855792e-13 
-2.320873450635453e-14 -1.271669920072108e-14 -1.45243975343073e-13 2.333563236870415e-13 
-3.409021740696378e-15 3.04543815919843e-15 -4.265919900964324e-13 3.136895949313605e-13 
-1.854545147984614e-14 -8.184715457028595e-14 -3.509532488521685e-13 5.439255263313041e-13 
-1.26815216032262e-14 -8.0317144165178e-15 5.483759676301379e-13 -6.386759979345397e-13 
-6.968859013730778e-15 -5.332169648482636e-15 -1.552022785301932e-13 1.402973676030744e-13 
-6.638759141198415e-13 -1.442224073955629e-12 -1.001434782167541e-11 1.38245740382333e-11 
-9.79194680904974e-15 -1.801521660767588e-13 9.069672103501445e-13 1.238457966631587e-12 
-3.115780445989156e-13 -2.790736369422889e-12 -5.588832874565045e-12 1.149401052418829e-11 
-4.948587497323168e-13 -4.276873971592997e-13 -2.987222519838362e-12 3.883077060863749e-12 
-2.587991413366105e-13 -2.15722176434866e-13 3.013811344801601e-12 -1.92389640631447e-12 
-1.414702176409511e-13 -2.323608455590604e-13 4.905764807091116e-12 -7.068072410521914e-12 
-2.247392599662818e-13 -1.593428530210581e-13 -1.095711964834199e-12 1.124375505557247e-12 
-1.676370655665468e-14 -1.550187492697236e-14 -3.995857691660363e-13 3.261782058245369e-13 
-3.313006932161209e-21 -1.15154423599991e-20 7.167519146842e-21 3.759410708049573e-21 
