solver_type L2R_L2LOSS_SVC_DUAL
nr_class 5
label 1 2 3 4 5
nr_feature 450
bias 1
w
0.2314891183903741 -0.01113909807537814 -0.06827880592309267 -0.2486994328191155 -0.1163415572542867 
0.2537459841680034 0.05261491978810997 -0.1637077276914544 -0.07927963253458283 -0.1388908363075751 
0.2283802816005464 0.124497945269048 -0.321939649407594 -0.1182467901706711 -0.08524142421775176 
0.1518294888500777 0.006144937987048891 0.02908292940363153 -0.09672220640344066 -0.146160749749437 
0.2320064771334301 0.02540993587841104 -0.2619615631763439 -0.04062569538804926 -0.05049802176688355 
0.2464201272430063 -0.03772086566964037 -0.1925491951816001 -0.06297132475093642 0.00531795886760786 
0.1460028878856428 -0.09700521589696229 -0.2032049895814509 0.04998334337781829 0.1140499546068747 
0.2483649017628495 -0.05692791873515907 -0.0836772471408002 -0.005981407788696755 -0.03049987058665074 
0.3859873048327803 -0.02789762948048366 -0.2696176563025653 -0.2049829599311574 0.02405039445858888 
0.2157130646833237 -0.006886183291790153 0.07844857110623386 -0.4955691806883286 0.003558938899328262 
0.2782439278355608 0.03119034149700408 -0.05446831980682419 -0.2887903788739072 0.1086376965418497 
0.2711803980661491 0.02239299594612619 -0.1347451136540532 -0.2482211462200869 0.1113866545256302 
0.1218076321779628 0.0688626220369742 0.1005267924584759 -0.2975685099488911 0.08958041578466715 
0.1034872982873078 0.01981159225787113 0.07942065239414492 -0.1489613981509517 0.1189055453264518 
0.2768848903371922 0.04662234117965458 -0.1096453137531907 -0.2652375672851626 0.1407699913405032 
0.1976659565851884 -0.1912862111057292 -0.08206065032244038 -0.06240621233593999 0.1079436681119966 
0.0173937301450181 0.07430453106561924 0.2960436737950461 -0.3973374002482518 0.05221006463863777 
0.1208156204353099 0.1140321698976757 0.006942295883295943 -0.1329720215047377 0.1043753927739093 
0.003122164480102151 0.09518305263649045 0.1649369374804758 -0.1136054539823615 -0.1228436771696285 
0.07590543449630605 0.0368130475505568 0.1445818955334587 0.03957426470312343 -0.1013258199578115 
0.1108879356307124 0.03812180440841542 0.01827795475949173 0.07682568127066736 -0.2500681824560309 
0.1805498451398309 0.03132998490802586 -0.06233328314526743 -0.03271530752031467 -0.2899930130914793 
0.1359132685801453 0.1344656388288016 -0.1073596400816383 -0.002275787154594222 -0.1957909473254933 
0.1435705468395762 -0.02337856128597174 0.1141639737574274 -0.08079024384609131 -0.0539531312144661 
0.2674217545978131 0.07584229607424359 -0.1873114824646328 -0.05680094544446911 -0.1365540336415801 
0.1821693294539631 -0.03268439924094482 0.142564127404283 -0.1143530968658422 -0.1907567849033093 
0.1943641938212553 0.04266865053673558 -0.06506160995628185 -0.06196990716495743 -0.138424167501585 
0.5574845504775892 -0.1358931728482786 -0.0889707325611013 -0.1631033639152226 -0.2106418071677899 
0.3475560204101849 -0.4055500290137793 -0.1153118453500788 0.1692869326522179 -0.05687556921417793 
0.2557622830464337 0.06128260591839523 0.1603868049894288 -0.1495804712040456 -0.4082715608122068 
-0.00654213114528686 -0.1035862256255005 0.2840442647214124 -0.1271879451518423 -0.1991529927164958 
0.2834281149585697 -0.1910262944473394 -0.05562164169958125 0.1246235106184922 -0.2131977683096403 
0.5525657317025754 -0.0895856825583079 -0.1201743998095159 0.04725726174228484 -0.4286178626346985 
0.5624753794976114 -0.1431800943936498 -0.03303422055382065 -0.09636001182266578 -0.3433773560069061 
0.4449847685267195 0.05717344966001021 -0.1435241307358369 -0.2015594099283642 -0.1753832268177233 
0.2606381663613028 -0.158445850112503 -0.02948748660202313 -0.03306690252867723 -0.204614779832949 
0.340539997439079 -0.01189787956805071 -0.05311707097094661 -0.1619117704046074 -0.0102063796576631 
0.4581289784354393 0.08539250620374723 -0.368955820885258 -0.09939295141161393 0.0401785590184451 
0.2808630741950935 0.06474982004974782 -0.2382233670589032 -0.04728229116719117 -0.01767803703641701 
0.3570705495820297 0.1409492039073145 -0.2474391208041301 -0.1103782530047649 0.0006661482567930228 
0.3082775315319562 0.1461635062837321 -0.2807757845854355 0.2177371409761701 -0.2300540241844008 
0.3200828810308591 0.02312440126720409 -0.2221894596395013 0.2099772772981441 -0.1501635761421713 
0.4259276352586725 0.1296641892935606 -0.07271221706420278 -0.1257537900341087 -0.05420310747431613 
0.3622062572424492 0.1128488049849407 0.02388706813282898 -0.2148476555786848 0.001648535075079854 
0.2766114343802922 0.2924967028171385 0.07402186472091937 -0.4104062937839614 -0.007145315182001718 
0.2756423314626147 -0.0729592331320864 0.1167161848218156 -0.1315849109176655 -0.2232086386595409 
0.185737047174335 0.005248571554700781 -0.2662084922704839 0.3598312635584703 -0.2185073757870478 
0.4776541254075841 -0.1288502135777728 -0.06791855761277285 -0.1966020309591746 -0.2489361335939059 
0.2473382979304575 -0.09239717911532117 0.1541961659430124 -0.111141326854221 -0.2842087520779107 
0.102275279043964 -0.09158173326775379 0.3025604405927836 -0.1800255356958663 -0.07338721522012355 
0.4881883889249571 -0.120725151531681 -0.06293632114344032 -0.4093849625235444 -0.06499921525368429 
0.4948115844796695 0.07082968417730298 -0.1705997011674076 -0.4162272575037559 -0.3382522464499787 
0.09533659377532096 0.06656995156986628 0.2366821730510707 -0.1084151413761715 0.01098800065382304 
0.3925807605378587 -0.2368053890963778 0.03236277005898365 -0.180161375874288 -0.2189943334837058 
-0.01828809196092632 0.08235736522218166 -0.09288790569258219 0.1699402632745378 -0.05296620613325777 
0.1403187759974134 -0.02123142721769829 -0.07283881682655194 -0.1539688730087068 0.149787621606195 
-0.3148062061995044 0.2582826516169837 0.1989399753929478 0.1895072797348597 -0.258043472319337 
-0.4238644504079643 0.149911459653442 0.02296607963260187 0.6659635800522098 -0.1513292173451612 
-0.2597805121306825 0.1504148323782941 -0.0148353064640353 0.347297402290695 -0.1484687269998317 
-0.08527100635213006 0.05094108583182302 0.0488290823313078 0.17970065013442 -0.02163018309883569 
-0.1068183765709402 0.1418875101143446 -0.06139137060434274 0.3291645425769052 -0.1679295332700358 
0.02060944921026712 0.0943173423180466 -0.1531092235555311 0.1733250619996074 -0.09675618643109044 
0.1177057980188638 0.02830797838951116 -0.3559939103103438 0.1904637501229196 -0.02917987217872572 
0.3170593740700163 -0.1668699770317713 -0.04504899376707958 -0.2774916621722658 -0.1039327643346261 
0.2658648846540284 0.002963528627417907 -0.1252793668866538 -0.2941850172787758 0.01079389416331606 
0.1176766506986747 -0.1588769347170643 -0.07357468856499717 0.006732326914105845 0.03789577101029687 
0.1915906510173501 -0.09481738653873409 -0.1804360880522989 0.003662993802418163 0.08858724318537084 
0.2644574849241015 -0.1259347592723684 -0.03438636743543035 -0.2066243891889619 0.001555121155678706 
0.1911807771265489 -0.1658479108297232 -0.1631056117719138 0.01300827046794788 -0.1078629012922039 
0.1105714167601462 0.1065725001430976 -0.1942607533383193 0.2603485755542517 -0.1991865627600989 
0.2778501698558941 -0.273109670295634 0.0948268933106932 -0.1870550381334054 -0.1372253665225049 
0.1403444147485277 -0.1001467923881059 0.1499496808703751 -0.1662788630425004 -0.09463290136129664 
0.3087767999894205 -0.1614415804143695 -0.01036248635042827 -0.1978916664676696 -0.2473994424189891 
0.3106804037106175 -0.2078733309208549 0.08170098889293032 -0.005662614676418609 -0.3220180782116279 
0.3293251353896374 -0.294796946143406 -0.01437536920620484 0.09221889977048497 -0.2218845596901706 
0.2091047686067096 0.09206015685164119 0.0006605057965535728 -0.2338588806976162 -0.1981128456792758 
0.1694749496290464 -0.03360136291870601 -0.05824800708906045 0.3431393825081914 -0.2238962407708237 
0.2536586309121243 -0.237422266243768 0.1512268263360358 0.1885739118475271 -0.2608241807703326 
0.1572741985296796 -0.03215821345507176 -0.1877723818682972 0.02984147838966006 -0.07993814276074769 
0.3046439202480943 -0.21330483111257 0.01963879624896005 0.02401466729035719 -0.3047797687913 
0.2218572666499008 -0.001862796867041234 0.00597742812484049 0.1587153637181022 -0.2289581143236893 
0.2032775253944151 -0.06684498596215571 -0.1139742087649481 -0.2765104626368438 0.01769905811241574 
0.1537472475747653 -0.00842474064686727 0.009294247359435164 0.08782423836037144 -0.1378543486162113 
0.08970104001342505 -0.02467820858975378 -0.073535854436706 -0.02262537780658515 -0.01876269675973793 
0.135061096361997 0.1152731272320038 -0.1105065365272727 -0.2292983097214472 0.03437769546913984 
0.09998834444472079 -0.01782947337751239 -0.08956981073022902 0.0468836957207493 -0.0368914593139658 
0.01877515035042527 -0.1126751343991851 -0.05469510286225611 0.4241738804831829 -0.09962572376816785 
0.1882558246993899 0.05829710543538585 0.1430180506031278 -0.1822701373219125 -0.112758634505136 
0.1270876979734008 0.05100567255711358 0.1486440061121962 -0.1782474677271228 -0.07406409088535695 
0.09605550987358956 -0.06427807127930817 0.1855122217431414 0.2884573833898765 -0.09112818455063179 
0.1127978070564484 0.3032831871944084 -0.2284808814253945 -0.1477473625526353 -0.149944325502722 
-0.03982474813134825 0.3896202133009021 0.1952996436130149 -0.2280636255035714 -0.5164834877010753 
0.06834910249329741 -0.09868765253047644 0.009134055742581654 -0.1770219321435162 0.07691008869151451 
0.2571415027147452 -0.06437311232132339 -0.1653572536505212 0.168783097814547 -0.2059048900251076 
-0.115060931748398 0.2785997059696704 -0.231417693837952 -0.0475143738154187 0.1226086323186402 
0.03029842629527819 0.160463161099381 -0.005005923051405603 -0.068635956797719 -0.04793260938503136 
-0.08558402755674369 0.3285560007627531 -0.03784554870274658 -0.02701520333243219 -0.187287790380635 
0.0424461171431695 0.5423246292099477 -0.4438967725943799 -0.06710540665670855 0.002731428583158949 
0.09539448992362454 -0.03938588029523873 -0.03553986975602883 0.1481841856730785 -0.05788031601718058 
0.0965768452659763 0.2757665406964747 -0.06105070446451377 -0.1912319384301427 -0.2031311676097173 
0.08858527253696005 -0.1238652989947073 -0.09897935753976722 0.09198339327257575 0.1653848157891079 
-0.006243035770239025 -0.1582020321910545 -0.0238756144504644 -0.05423467509170524 0.140379581113408 
0.3105785531953557 -0.1091582448468669 -0.5105754661942488 0.06466120717305109 0.257921035212763 
-0.3223591977224079 0.3018597663950334 0.1200996608711854 0.04719427989758968 -0.2207322105155203 
0.08243896379388552 -0.07465198641058543 0.09023075214116633 -0.1896201017224517 -0.0199950599197118 
0.1469694643189511 -0.02522621081715708 -0.04945405549535135 0.01182872087975282 0.0269158619816843 
-0.3944903299087617 0.472439983466893 0.01309598365429835 -0.04649665998772523 -0.1448568062446823 
-0.01745986173939892 -0.02555447549057025 -0.07672266899448697 0.232351224067935 0.1073907548760229 
-0.1857554643658987 0.1942906113226399 0.3142725076549494 -0.2965484091346474 -0.04966765809823562 
0.07822830411179073 -0.03718217535758272 0.1117444214770963 -0.2098541289795063 0.04074346886520613 
0.05173215606544974 -0.06333516343375027 -0.03536426774541775 -0.2270891588464123 0.1710635827987562 
0.07208406407936865 -0.04327202309398306 0.07904771046483085 -0.1602184288466934 0.08462082912001898 
-0.01025886909671159 0.03207148765969219 0.07710245678563622 0.003970384241336757 0.1453905745621376 
0.05832890867051196 0.03067703041166299 0.03177809335892363 -0.1026768585336488 0.05545386232143727 
0.1553817339816367 -0.04972669169937695 -0.02544303656643079 -0.19545871489382 0.06773318053628699 
0.06240030616763853 -0.08584877737630235 0.148808421135695 -0.1578703325096126 0.06002192696400418 
0.02939791931596307 -0.09733674434409373 0.1056902082991578 -0.05189425088148715 0.07226099221007939 
-0.01632334243025572 -0.04193918203685085 -0.1181517338544891 0.1508336907621134 0.1260849807379739 
-0.03187934512316936 -0.06469920427520681 0.2416324790231875 0.08933382803036088 0.05445404537169562 
-0.06939793632991983 -0.09243634517947548 0.2408329778527421 0.1656937901894524 0.04961611350134684 
-0.02255443573816857 0.09141700311897898 -0.08862240899076883 0.02218459545852298 0.0332045427573305 
-0.0323329861568124 -0.03593981852753211 0.05321710182391445 0.2412617805196035 -0.007231424383226547 
-0.1788014927330036 0.3411719335811442 0.2155015448470861 0.05048558767547266 -0.3899070041832605 
-0.0376194213842789 -0.02131661759239084 0.2159275457527431 0.0269445601444984 -0.02803795612099038 
-0.001701242421244069 0.02371162436655963 0.002575286622192089 -0.1240756157990081 0.1730407787706743 
-0.03872257989287414 0.01218723536906284 0.09056604719082371 0.1521641899076359 0.03619058170591043 
0.03203235667171436 -0.2042856096975624 0.1061462094550437 0.07389240449375074 0.04857626584872584 
0.214902501379821 -0.2202296275217653 -0.08054785282039312 -0.3792824290942569 0.3618154303482127 
0.06012225435147099 -0.2106331107356651 -0.01974471383164429 0.1593655944937202 0.06685500418824268 
0.04527113581554422 -0.1032126657083379 -0.1312341104337988 0.2383248522652513 -0.03086676643381078 
0.0217780290638072 -0.3503231953424493 0.06302295191673811 0.3273177312820144 0.1107725788352227 
-0.01855631508958894 -0.02035961959407817 0.2687958261670773 -0.2441199540535317 0.04258926798759182 
0.0584587144901375 -0.2787236856845908 0.1512328038160662 -0.2261598007319129 0.2636409580210053 
0.001436792054789605 -0.3013373458591156 -0.01525541499924111 0.2339341561685936 0.1101659368201456 
0.2444108806565384 -0.3077814092744506 -0.03242395661543435 -0.2218011604801441 0.1864234928330018 
-0.02165883474297782 -0.07777766920383061 -0.1038168734963619 -0.1753182972164942 0.3848474604921592 
0.1424400187512212 -0.1682621732161761 -0.141239171564991 0.2126744500331937 0.0688417602485614 
0.04022419192789699 -0.2986956019439073 -0.06438940382071132 0.2628912258337141 0.3224094739668686 
-0.06003397907547307 0.6581400537291647 -0.07860154442053563 0.03429047671393681 -0.5284080483529433 
0.07225270651195093 0.1841068997045189 -0.445609885306179 0.2618032116696816 -0.1198677997495837 
0.06170629199849333 -0.08309540099120888 0.01926550961347796 0.004508148500626694 0.2430138407780281 
-0.03978596319056634 -0.07065400663476758 -0.1675954161899369 0.3797084763155014 0.1070339558876912 
-0.1490283654218324 0.4852441739520272 0.1451511349320963 -0.08452082709132931 -0.1355496914411968 
0.07781001871714965 -0.1728308768681419 -0.1413450264070087 0.2605294065203333 0.1310825665607919 
-0.09034731282328654 0.145497460832116 -0.08394733281750033 0.1054563241766469 -0.1260479097407318 
-0.06540236268886625 -0.02387331966746338 -0.05827277603454323 0.01379355560222867 0.2011343174489533 
-0.1542077700252649 0.4695917427379553 -0.3531361009874473 -0.03896004892916687 -0.03483367998838562 
-0.2418815096789418 0.198268899822662 -0.2635800337321189 0.4510228466126057 -0.1186167076136829 
-0.3503117491497622 0.7661278692142308 0.1226533683094938 -0.1168016095385479 -0.4009060143609306 
0.2167264137962094 0.06065141432060129 -0.07009302173379572 -0.3459216646569421 0.01297002403333201 
-0.2187637938381313 0.003105897877557112 0.06190738574260475 0.2023302459092091 0.1311744453476412 
-0.0712349250229744 0.2616797037323642 0.06473303541276761 -0.2587662143470674 0.1126429920137598 
0.07651027635232485 0.1156363324292195 -0.09855479451829914 -0.1527055439966458 0.1429486668104585 
0.1537374247809371 -0.005262382628112814 -0.003290328388857992 0.03536104674957 -0.09609905423863352 
0.1655555854656277 0.3978679833628516 -0.2199752374598924 -0.1687443898457291 -0.009957335859419467 
0.1125273976816543 0.06443287828414021 0.2120113152840535 -0.5229632431337775 0.2779913464893208 
0.2098103027900196 -0.0193803188097093 0.1944094417133148 -0.3371890421225853 -0.0502743248385557 
-0.446264059316912 0.5348813067377064 0.1019354215961571 0.009410878909331413 -0.2606000563162831 
-0.0523965996836679 -0.04452574657128162 -0.09217465836396779 0.2636248940825291 0.1120194096263843 
0.1598264866692234 0.122581651907984 -0.1413013404547996 0.1646986944785947 -0.107466802827555 
0.007043986022231943 -0.2364141746244594 0.01786213936828747 0.04169984738391901 0.19926888299572 
0.1562575055075196 -0.1133460972580958 -0.04094487712439215 -0.08278551637816865 0.05327979405260102 
0.1167921079199924 -0.1507318481789918 0.02310944485102972 -0.1262896197753311 0.2476982353251352 
-0.2810917877910308 0.7893672376737362 -0.05045350463452299 0.1801178125958101 -0.5054176231425128 
0.09472588486062454 0.06379266289031452 -0.06565805906076322 -0.2645462434671862 0.2018951612301414 
0.2348373566358821 -0.08859881441511237 -0.08553710879755266 -0.1967222176527429 0.1655869527318701 
0.04249322539277543 0.2572057250617323 -0.122156341616451 -0.005962632984598678 -0.02319223101140368 
0.06507249928152042 -0.2435956355826375 0.09719177170735234 0.1146912850870931 0.2360875290578907 
-0.1144015374117213 0.7546381824808869 -0.2164297670059437 0.1410515349631594 -0.4235278053945334 
0.07436456409413336 0.1549524741642736 0.08516935305649183 0.1619199410924516 -0.1001420316170476 
-0.03859731914930918 0.661994676518356 -0.1002115211053771 0.06354558774474434 -0.3693418046004405 
0.01004978262758062 -0.1518441471612587 0.2894432553149208 -0.3420927652826162 -0.03228252245241103 
-0.04662148511037759 -0.1415374191288197 0.2120220127455912 -0.1416961079250253 0.07145315375953022 
0.05398672015066242 -0.1652889454814071 -0.008105130732569139 0.08267506736788112 -0.0696050598061926 
-0.09195811347648999 0.08009237363047708 0.1952583755086776 -0.2644704456752665 -0.1678868290633559 
-0.1314246101456182 0.07011737629368971 0.2910480788973095 -0.1745190464007688 -0.1979285534186611 
-0.1565177854426238 0.1468311968077051 0.2173956575081572 -0.2225492357663793 -0.1945902311047131 
-0.1064559763111557 -0.0541772864867943 0.1131129897630595 -0.02096339231724442 -0.02892801287762536 
-0.08490783333586403 0.170731775259171 0.2633682534949476 -0.3791402362377694 -0.08555380751854504 
-0.1786727629066607 0.2694548332797163 -0.0465322435318074 0.2461272776268297 -0.2900752134171877 
-0.2068336841608591 0.08135353107555506 0.3344344563844913 -0.4080028420534659 -0.1186099738446513 
0.1255410966055198 -0.07686965816528864 0.1825109832068923 -0.4277844529631521 -0.01487214487356598 
-0.1896727705718973 0.06096121610470134 0.5316950910292961 -0.1301451928749816 -0.3207449231607908 
0.04824190201532316 -0.1444812959964666 0.6110599383821915 -0.5337696468967214 0.2453899314533319 
-0.125452698392509 0.1747135359840457 0.1705526515347388 0.04413335005114087 -0.1013912667611716 
0.02568268100141371 0.007943783934121833 0.1226908354411708 -0.1865573548246866 0.0002305583256861931 
-0.04012415657925243 0.2184204987802717 0.1779060546819657 -0.1714000187727981 0.03656604194176441 
-0.1865983201176196 0.1934697592214857 0.2377076921757806 -0.03605299858171358 0.06898420524306609 
-0.1019811930896925 0.05487029342579121 0.4953371272782006 -0.1871824982906594 -0.1778510728965846 
-0.1183563531433533 -0.0003731462167928308 0.1441136879963735 -0.4382659493983396 -0.041923056299722 
-0.2174061690348808 -0.03522619279632132 0.1847283380942635 -0.08211594572299333 -0.08503610792745765 
0.02195129647065052 -0.02563070148390283 0.2900188879460217 -0.07361019357369811 0.03079218823752307 
-0.2754541194425162 0.02302871593123084 0.3450998437661679 -0.3375103600746155 -0.166990154543919 
-0.0121141270623519 0.3597528445568182 0.3930633201470083 -0.2325545746685414 -0.4202067300030324 
0.2435267691804676 -0.4616115489603276 0.4302144416997384 -0.2904871003560879 0.2174612080225803 
0.01225334073427861 0.2735460226262358 -0.01409821557058253 -0.3442234532457965 -0.3830453982558429 
-0.1574401694162603 0.2761922415904411 0.3941808501583391 -0.4849096685772046 -0.3012872994851128 
-0.225867243307411 0.03019565258362705 0.5567319857025325 -0.5728010609729817 -0.08974052129892304 
-0.1671487453478005 0.009758095059406804 0.2118197719889739 -0.1308419564968001 -0.0432153224436257 
-0.002904042846384423 -0.06952620157423703 0.1808895249253089 -0.2048565073238367 0.1711203971656489 
0.0301846576964133 -0.4241668470536737 0.3510596365186072 0.07997077556640514 0.09721139072253376 
-0.2278142766711887 0.5738997109912849 0.3655730586198894 -0.5678949297518454 -0.3697398372973165 
-0.03251356333196845 -0.04448472526878448 0.2095863374828649 0.05225130422256993 -0.09762116674796056 
-0.1096612203734593 -0.1196311653071091 0.2801873213163159 -0.04364158396473314 -0.02269719971893225 
-0.2752694156844955 0.3878357064287885 0.4620395223526369 -0.2302698834106564 -0.2620201342368114 
0.1356809867447091 -0.3516350565151942 0.3013295081152436 -0.1666353023978415 0.1747058532287429 
0.1308631640119813 -0.3682050112823388 0.2947600818727777 -0.07590641424192103 0.306472160152841 
0.0955204819683256 -0.09888635069706722 0.5143438292430146 -0.573422308454657 -0.02981310579751677 
0.1005486802251557 -0.16714831155567 0.3682680038629204 -0.1843743470597095 -0.05123534845497375 
0.1860951505795254 -0.3237613597943344 -0.2109417537429704 -0.473379794010761 0.2674875354059935 
-0.1332257011581422 -0.3348489456312684 0.3208382272165243 0.01697736404016068 0.09757481851494616 
-0.02270581090930921 -0.1115530985849248 0.4755821462345211 -0.3840858134148257 -0.1699845050527992 
-0.2351335403577734 -0.09987561760151629 0.2596536182271568 -0.01965279089545648 0.07695668956624534 
-0.02019290788471483 -0.0629150723038997 0.3345719915901535 -0.4271849037982655 0.0001913471963858926 
0.1486342511772528 -0.03672593322284371 -0.06001615278868486 -0.5151242589178801 -0.05947756543262683 
-0.004037652312276926 -0.1264360953023821 0.2261813696061279 -0.3752877077222209 -0.008553671204014787 
0.06974094436254763 -0.0919805233019093 0.7646985355548622 -0.6373820509459166 -0.06059058186042771 
-0.04104580367450783 -0.09164507672096429 -0.1549642965974815 0.2839011519921267 -0.05815239049576838 
0.04206586347936977 -0.2829021156072091 0.390000393547232 -0.6003853675719973 0.03542846669388051 
0.05665347378110733 0.1253797702699765 0.1942675367437411 -0.2898145840739467 -0.2338362782079677 
0.07031201467662844 -0.07232996532389453 0.4015436289108603 -0.5669834555102933 0.07451841795278417 
-0.2196547603927913 -0.0003944729938395974 0.6517363234781178 -0.6035969755226542 0.08116051755001302 
-0.5511470662734728 -0.2737388471703187 0.4133936913911701 0.8193308034697506 0.01952000814620605 
-0.05732581129971386 -0.01057634256930817 0.2254864977356402 -0.09904969594087562 -0.1094898704381957 
0.07618395790477001 -0.08753980973998118 0.5289863976902686 -0.2201158777596796 -0.08773985860215987 
0.05814139536924925 -0.02124897557726572 0.2067344593510157 -0.2903527421602563 -0.2082484728736652 
-0.1907815270186398 -0.05489580237771837 0.2266758789013722 -0.2323538131175312 -0.1116283088944407 
0.09043289153056179 -0.06999029116547879 0.08829075623176993 -0.05780909277307759 -0.135630177162443 
0.02695130225282066 -0.109997525840967 0.5943151340600983 -0.2358509409232943 0.06528378863078932 
-0.006338869992502382 -0.09348222752391015 0.4962115879559591 -0.3480572525962497 -0.1621818078060586 
-0.04738150897320884 -0.2690970496207389 0.7367244035224124 -0.1639810419096949 -0.1752692476462986 
0.1358569344445947 0.01714534680207464 0.5487939383825774 -0.6339917301051839 -0.1170552712850934 
-0.03632593875597146 -0.1516249220615013 0.7196339678963435 -0.4995573042183929 -0.08780072957802514 
-0.003797654907206792 -0.04549828986061588 0.6974426694521981 -0.5268365508812038 -0.1796483164077397 
-0.009868457199656075 0.0231547968899826 0.122561635997061 -0.2017781246707086 -0.1526517749818947 
-0.01337858871170061 -0.1119812476365958 0.5447583317952672 -0.1985523782972356 -0.2244203935039779 
0.0861331026544503 -0.3521306039031548 -0.2160517342263285 -0.04679891197632152 0.5273051957908687 
0.05915167502743448 -0.1007849426638798 0.1301877237087379 -0.342568511284446 0.33399361861267 
-0.09236025556097725 -0.07186148761945629 0.7394665820434555 -0.3679906060910603 -0.1748651799385436 
-0.229728479615666 -0.02883317292613549 0.2108540985508619 -0.3258188780542808 0.1195007741426939 
0.05367676118517885 -0.1730888472114958 0.04680471440163929 0.1059687601295881 0.1411218277155684 
-0.1189971637396079 -0.1353711307411416 0.1907619623256564 0.1377588848619422 -0.01550363777991795 
0.1879497093902807 -0.4973645782184765 0.3148292382947973 -0.5205185624163787 0.4539637440612113 
0.06361512560820697 -0.384199757709164 0.4647489666336619 -0.1446026963185119 0.1617821583247432 
0.2428842318561749 0.1628137624435694 -0.01718993643253374 -0.1383026130014629 -0.02293284461231363 
-0.3997407288371351 0.2440796075089675 0.4309909095620371 0.06854886742185959 -0.2148388307406074 
-0.1393761377850065 0.04428243494383336 0.5346119624590385 -0.08681433248364386 -0.1080061079870108 
-0.3909225267574606 0.4342219928469118 0.4732039059527569 -0.2223385904655033 -0.2044045578037518 
-0.2311512248481384 -0.1647930346131558 0.418649036134826 0.02421721214128784 0.0476887937272823 
-0.2875281730515021 0.03387560305097317 0.508272826697274 -0.2162715730871174 0.02057476616255738 
-0.1984394558776683 0.2312787843889416 0.4201457130105525 -0.4362085853420776 -0.006404210982282149 
-0.2598533044190411 0.1262522523418701 0.004335245637943322 0.06491045187606986 -0.1294125925639909 
-0.04852310929786241 -0.2115080140251663 0.8440065792156878 -0.09366716092332866 -0.1478319057045267 
-0.03377168753578832 -0.1324763084891268 0.09769590238402626 -0.0663348557399705 -0.1858010707928762 
0.02554713586908381 0.5379349141287963 0.6915531235891957 -0.509898003884136 -0.4827659410140963 
-0.2274994513797691 0.4796309916147061 0.7197650722757206 -0.1801682490159244 -0.6285014849677381 
-0.055936576480911 -0.2371963357715357 0.5526644347879379 -0.04366912309600515 0.1073941255524182 
-0.1256571792822455 0.04835969153831445 0.417684067293894 -0.3080046287691466 -0.2216197661827199 
-0.3731792599817748 0.3950087960678932 0.5164631017342274 -0.005526938327658287 -0.838777051753007 
0.1080250647493108 0.2710458486887592 0.189360935180748 -0.7545345200553177 -0.002999272612868259 
0.1420170331763523 -0.2041494991736067 0.2914718945394474 -0.3912110772497271 -0.1435445520314894 
0.1227860904395177 -0.1712382356985477 0.3077966016663924 -0.2758845820770108 0.1037620840039688 
-0.1994610426605621 0.2151381828833236 0.5804224949591934 -0.5258240237974052 -0.1544067427068127 
0.02874783165232652 -0.2434300569444908 0.008057559678826967 -0.1222780743709495 0.1887689211848497 
-0.01660994333911678 -0.1880895482806459 0.3556612809952062 -0.1106838255619913 -0.08403393328957634 
-0.08164071226045132 -0.5085069294678559 0.4323502560041271 -0.1410189168263397 0.1865680357638447 
-0.1146839148645331 -0.05453698256982463 0.1870054013335738 -0.06962008928004022 -0.1213599551964473 
-0.1338857733426067 -0.1173430314997316 0.2494051431547467 0.1865141067544494 -0.1245119106999249 
-0.06269372924939701 0.2366619528923267 0.3637903272323124 -0.1946571782201233 -0.1332651141389525 
-0.1270488587441188 -0.06378489249413478 0.3570755342546263 -0.041435445191983 -0.04459233972771178 
0.0002141027557428128 0.4133639585536724 -0.02846621289586264 -0.2462760858589173 -0.1199490459665619 
-0.03464332231420297 0.2849038137871001 -0.395730986043052 -0.4582476817550578 0.4332745776535876 
-0.05492174016604891 -0.2184765747035779 0.1265850969044106 0.3591066466379264 0.04563035514053083 
0.01033756309099024 0.08590497144327927 -0.1796816313478858 0.1065154797335599 0.1475160709749625 
-0.189759297303203 0.008012167736960812 -0.1506958816503028 0.3758075102302004 0.1203315813950484 
-0.07094024441220417 0.1711713267814616 -0.0427261351883477 0.02045760941562799 0.1024344580508472 
-0.03164185356211544 0.2428114262105159 -0.1437519523047606 -0.01894145554334467 0.22005287793397 
0.1307712952780613 -0.09470049273258302 -0.3081717726124168 0.2688987938186144 0.07665599442508209 
-0.1875202515748695 0.1084531580262971 0.01916127216502344 0.1258696676735573 -0.1729682905024294 
-0.1518235980975735 0.09370637351327919 -0.06938189042423501 0.3929518503527112 -0.2338515341084535 
0.02039041330880625 -0.0464605498696536 -0.7966185999245686 0.5551767421837754 -0.1605207596590068 
-0.209589024742374 0.01764653817705722 -0.221907899140343 0.6227896795500445 -0.3413525682443052 
-0.1114300597437395 0.03462597273851673 -0.5393120236524814 0.5408865373393217 -0.175729102629699 
0.02498361516335114 -0.3969288456943851 -0.1092081889476722 0.5764615384142632 0.06934580877897699 
-0.1400431868717678 0.1594890236198331 -0.4258185894715125 0.3322087693104715 0.03702150250656078 
-0.1148676633906816 -0.1072732211407162 -0.2089104291942646 0.4240344021404826 -0.180683664755587 
-0.1286638100948483 -0.114352762117907 -0.007145601653135031 0.01343852146691123 0.06095683383492947 
0.04447942543455644 -0.1128971333533963 -0.3913703236698716 0.4630234663739823 -0.03813024013114062 
0.04493376667798116 -0.0422927751229244 0.03395205978051471 0.03861781920052307 -0.1058037481955097 
-0.05460077551364466 -0.07962087171084775 -0.2900410638475462 0.3774535248738691 -0.1038979630524825 
-0.1620831314569765 -0.06881914809843581 -0.3122464364206736 0.2002394066182402 0.2334853349705444 
-0.00913292439512289 -0.002541496925162838 -0.2918689235022264 0.1687706244505785 -0.02446430910632921 
0.09243995433417154 -0.3752554750052662 0.2800303835715642 0.1197289327295662 0.004435030599746072 
-0.03659371051977345 -0.2313124785206245 -0.1951227533381821 0.4560051038831295 0.06626302365010332 
0.0931654661299952 0.004962958072749566 -0.2232515922655699 -0.04531161098248785 -0.05204136947816976 
0.3049473677744279 -0.500755604086324 -0.1781576799291815 0.2682300244341486 0.28405895233437 
-0.1331614453526869 -0.09893182772358025 -0.1502635836392867 0.3350672922772946 0.06151266642198368 
-0.1277434094249228 -0.2482289947563573 -0.3003036727752508 0.6362557184305159 -0.07403847308650095 
0.05902137605647664 -0.3285506504970008 -0.522628220104188 0.4820201524548547 0.08033893464461211 
-0.0762108932327423 -0.2879493737136277 -0.179973627067667 0.3828824159521046 0.004150474066710041 
-0.1938896611002737 -0.3058299057643826 -0.1410734284444137 0.6952823792283986 -0.003802526857711402 
-0.05661623830540428 -0.1347115048696307 -0.3238242096269046 0.2050886800016846 -0.02275553847387286 
-0.1098139499333135 -0.2849400616430686 -0.1197224343215162 0.5429578668821673 0.2135036568042774 
-0.04145278298871453 -0.1631166740297285 -0.595780356291203 0.2140518404231213 0.2486260147010598 
-0.1000660230474656 0.02789244693964476 -0.5692705219701836 0.5882886964317083 0.03363161075623539 
-0.06574672945467445 -0.4052591492379797 -0.04192378943130956 0.211956099260322 0.1994273292184535 
-0.1728379079898064 0.2910094052912626 -0.161815997888119 0.1201771056791016 -0.1220652139145625 
-0.2776320544902422 0.04743468642430251 -0.09225109793133708 0.2588750715667967 -0.0296791249773556 
-0.07172583143344531 -0.3306803204215841 -0.1672012508993721 0.467055636631115 0.1864364531022354 
-0.1164788112450779 -0.0925917178281795 -0.07338938984846748 0.1924175138091227 0.2320116963132749 
0.005677131449811221 -0.173158077673901 0.01548699983968104 0.1470837731004118 0.1510580029778541 
-0.01259145998532401 -0.08636435815887286 -0.1949793073544931 0.4189312826379281 0.03046465368582586 
-0.1014369417772109 0.3860077012759734 -0.5383130839753288 0.3670824171757034 -0.1399986691696352 
-0.2686878554670822 0.2538309908244039 0.09988932408130327 -0.02389452654952838 -0.1544236046187143 
-0.07589604855423397 -0.1550792529587752 -0.3522735478130122 0.373455697144474 0.09714017094227168 
-0.06593231065095971 -0.1442284699783567 -0.3880355056655602 0.449219415452663 0.01376226524309944 
0.07450145294277379 -0.06511084791401973 -0.6617286509062473 0.284113480126058 0.1439418616252736 
-0.2742769615153888 -0.05298156016809933 -0.2495886275738968 0.3273377202888615 -0.1540114556091454 
0.06081788235598837 -0.1023056567374892 -0.03715037828400661 0.2199046840930279 -0.1480977921605367 
0.07431172102866587 -0.03328404475301534 -0.3190917735952606 0.2103854344208219 -0.1133829965301301 
-0.1922519444356798 0.04040898755267693 -0.5084460331137139 0.5886984794922631 -0.2257393669648294 
-0.4015548456844241 -0.1389203300724789 -0.2999368238800116 0.4834405468477396 0.1448287226624034 
-0.08210241852071185 0.1809145560589119 -0.5158117769604357 0.4614125921357881 -0.1305067218677333 
0.4155852353973428 -0.3409877444798726 -0.9358013221521113 0.5097832675642441 0.3198852507373343 
0.122531023219467 -0.03258642705581151 -0.1994008923340939 -0.4646716241471862 0.1843858019494249 
-0.1131242226367042 0.2459536563956281 -0.5081628133990679 0.186266004357327 -0.1207703920056987 
0.02905291760622224 -0.01817245719951635 -0.2171689404863892 0.1624012589316215 -0.03595915377496949 
-0.1516377700728657 -0.2568093522404607 -0.1769406193291168 0.1114236894553668 0.2982983564522826 
-0.3244073142410853 0.2133853477062904 -0.1911587496189845 0.4013634369512871 -0.1036892891386078 
-0.05621976816851276 0.109895707247474 0.09017237419745078 -0.05640917450825911 -0.2096691379254337 
-0.4670801292189328 0.1983272333994058 0.08863029183261652 0.1376501939144139 0.231664912508982 
0.1556664225731846 -0.3582151415828865 -0.3312719428784106 0.05697448915544341 0.5353800729968605 
0.08661940314309502 -0.0001885928000942888 -0.2961360784562311 -0.2447987412361668 0.2292732127861133 
0.1141970906217105 -0.3356660205898333 0.06629004880227708 0.04050633749893048 0.007370807255092949 
0.01337914067919928 -0.1555862329086082 -0.08476741603232141 0.330387763881666 -0.1749142091718503 
-0.3218252596765213 0.1815929718882416 0.04125273121561047 0.5576269400566408 -0.1941075967217596 
-0.2602710859181019 -0.09244784962728551 -0.200221851070628 0.3226194171261665 0.02338892716072487 
-0.06309522993707824 -0.1239582738320853 -0.4276043999388212 0.4213424560222592 0.2225632445378054 
-0.1608600630268176 -0.06097443055578755 -0.06690709033783628 0.5213572936400351 0.1262853565065963 
-0.1052386352560302 0.1933734138556438 -0.3242784470504989 -0.0919464912332438 0.0539177435021837 
-0.1365436796869756 0.2526885393294578 -0.1686478768175244 -0.06614731295319672 -0.1224728680017615 
-0.4300466242503051 0.1901280538265769 -0.04890406903461417 0.5228925707651944 -0.0575658105073061 
0.01863109311813703 0.2363506116753779 0.007123547899727556 0.5077638562536573 -0.5899580195373247 
-0.1016460269510611 -0.1301736942393913 -0.4379945674466135 0.9495005772298709 0.02979752284125179 
-0.18743765259865 0.05499485963450011 -0.2430212281468154 0.6305127363206818 -0.1567910174740847 
0.02545533199500664 0.08531191719536467 -0.08857351263551809 0.3131254692797849 -0.2948429019226723 
0.07411125616768313 0.02862230568658118 0.04463983969113099 0.3522979584782528 -0.2899073155747587 
-0.2521353991366596 0.4924338402434489 -0.2388315403922266 0.2435536076832453 -0.3467222468630805 
0.1955794211000089 -0.6270318700665203 0.06270145924897831 0.629377850781604 0.04650876389139235 
-0.1105497016287474 0.6948794249413331 0.0292542555625607 0.02468728458340108 -0.6100378200306654 
0.1564808159669871 -0.2214080742957474 -0.2152995049166497 -0.1731983702282614 0.3655014701523159 
-0.1933378873234647 0.3930200870077692 -0.6449522571827117 0.3823900669408171 -0.1745250256464067 
0.1179872456853798 -0.2168762561282636 -0.2227862076085985 0.02145532843529747 0.06351922879135462 
-0.1463092481239668 0.176118675145216 -0.1534187626679192 0.1187309946149474 -0.1024926541456903 
-0.3967574748617707 -0.003295664703464656 -0.248282845511676 0.5304952329821221 -0.02338644951646118 
-0.1088039804812484 0.1388249259434136 -0.302683188461012 0.1082797779329818 -0.03647259407367709 
0.007901117648474809 0.2421346092485698 -0.161739468938931 0.1314092930027363 -0.1248175684094436 
-0.2395582818596327 -0.05604658675766543 0.02294308458275212 0.4647435775100162 0.02820844979211168 
-0.2450475102946547 -0.005450388978880003 -0.1575482125349498 0.8342793640858702 -0.2106978603482688 
0.0773510157048674 -0.02321854883284999 -0.2911312841760798 0.3286724002594483 0.0252375681575611 
-0.01710359979928774 -0.1546980156426314 -0.6456632425301021 0.06646597773629502 0.6175630585960556 
-0.2878567042907497 0.2763205746388044 -0.6999029561991067 0.2400009676934674 0.0710799668276198 
-0.07933038281567067 0.3184354798433295 -0.07950875094773868 -0.1689094058738483 0.1120694165278173 
-0.08858852208957144 0.1263797665363334 0.4177525724826758 -0.05111012545495362 -0.1184313107821344 
-0.3740870355155508 -0.106877238842716 0.07995028565147476 0.1249265309911875 0.3209087361441846 
-0.1714740910927509 0.05563685566675942 -0.2202202432510122 0.1367636795389309 0.1623079208181368 
-0.3272432754992947 0.1550256068986439 -0.01074167311605286 0.01757445527809023 0.05765942888111297 
-0.2667510634480008 0.09834301846367424 -0.01276264310465097 -0.02690349579292482 0.1964093810247154 
-0.3599413615938744 0.1650999562989207 -0.1273862496234236 -0.03720303036127767 0.3617029005031645 
0.04228213377037918 0.1215637418223643 -0.1069252922553931 -0.1785827964576847 -0.01697661197923117 
0.1808339791324764 -0.1371820618353387 0.03150618674836853 -0.1845465808957907 0.204111747392873 
-0.08446978136545379 0.0997165553939809 -0.1301159399782723 -0.1855084098925506 0.1964392829880817 
0.005754230144216802 -0.1257349808362658 -0.1851639582297847 -0.1424025171424444 0.2279040905248183 
0.02532348514766481 0.1758582397042343 -0.396254155845061 0.1520276395500035 -0.09137582473642818 
-0.0852914366392399 0.01123066658191489 -0.1540049169190033 -0.02651358997583136 0.02006613919523734 
-0.2346965339495034 0.2591034240155978 -0.06079514609226224 -0.3053232163985005 0.05216083203156816 
-0.2071235886717157 0.09295893257081247 -0.3197900552232099 0.03086498498389264 0.2700301254966927 
-0.2555334145868181 0.05618179241585369 -0.3208505328022357 0.0850762964419879 0.2234084250691464 
-0.1844826286242773 -0.03455776779231761 0.2057743583341834 -0.1779220515641827 0.336339144213475 
-0.1134269678582181 -0.2186940051834667 0.1470331905415293 -0.163763678388421 0.5194638417814118 
-0.08149730677153126 -0.2089297257696795 -0.1039011675723833 -0.3627115570699633 0.6140351861703499 
-0.1323735104859875 -0.2890952744975319 -0.03259390035115221 0.03582771551630248 0.4935021518260045 
-0.2213715653471034 -0.1423824696468706 -0.431290559387172 0.1942521178134615 0.6174882854382052 
-0.1735947170617928 0.08308038448733138 -0.06338537815979546 -0.03159787009352608 0.4183979843898571 
-0.1096358144990485 -0.1811544715800943 0.1311590867279768 -0.1413800308091971 0.1778900085971863 
-0.06420611611703493 0.0575378824600676 -0.2413585358700153 -0.4016987322063333 0.4431051467004052 
-0.1858777475920688 0.05646755414302194 -0.2505656833426949 0.05189048740043319 0.5467394708011466 
-0.02609050412641136 0.01141374698835055 -0.03068909453205789 0.08090637004667185 -0.05732098215017755 
0.0179551838298613 -0.02417754035994287 -0.02298669720552559 0.01457438038366108 0.08688840119421136 
0.01210209494499018 -0.03021677486439133 -0.06482336534747657 0.0642589541079253 0.09386380072161513 
-0.05184494718884244 -0.04578286003374638 0.01442350031395299 0.04923519411744116 0.09575665651741795 
0.02014435275954569 -0.2312976781599453 0.3564476928341226 -0.1573444850739483 0.1461931931638657 
-0.061406975663023 -0.01056331352766016 -0.02507276636754258 -0.06053931071175592 0.08349307391865547 
0.03119861817989892 -0.08475212616431019 0.0185292580272983 -0.08305561170253621 0.1844944968166617 
0.02861146685167371 0.06326359447479644 -0.08471358397014826 -0.1724579499296061 0.2118886694368738 
0.06785348180547278 -0.1430981379963145 0.0381669067115112 -0.04907622744040416 0.1790000206011786 
0.03254717071227693 0.1236044993318049 0.04320593405065536 -0.009032272318821463 -0.1440451208558744 
0.1404706215874903 -0.2914247807374313 0.06352266325109882 -0.06810162008178715 0.29236021326033 
0.1048268120933675 -0.2642248283607576 0.02759011585835136 0.2007475405434036 0.3437193472561571 
-0.03916704642079555 0.1244729773874422 -0.3217436012763107 0.0983584878057841 0.1456398110448923 
-0.0914419498250949 -0.08359060453792856 -0.2222910982515195 0.05339724314514534 0.2988493243685769 
0.1410656486744874 -0.2247876275157229 -0.2973747299371816 0.4321683425657714 0.4620031191358175 
0.1284118720985332 0.1666407849793998 -0.2029222086016087 -0.3751116171568461 0.3528373039841183 
0.03161167381089297 -0.06642669257579882 -0.02411429399774215 -0.03140481303493489 0.3672002283567368 
0.1275779203496376 -0.006340848311084249 -0.2594576944044816 0.02129937035120302 0.3463270770750627 
-0.02495280896535311 0.1159252729641437 -0.05225891879420633 0.08074837473979865 -0.06895111303022952 
0.01058680622451921 -0.1182012805806355 -0.01520130824772044 -0.03773561603123013 0.1296260987144197 
0.009265622456533564 -0.07109791366410186 -0.01995953071052527 -0.07004217941274768 0.1170867725359062 
-0.01840322977014183 0.06750521042048391 0.07880126132202292 0.0005108443174427022 -0.01989195397490492 
-0.1186961820636988 0.09801801566816433 0.2250494854429713 0.04566086131143245 -0.1270396756942514 
-0.01130494202068425 -0.02244821465831046 0.02876791119580129 -0.159337644695533 0.1303694328227102 
-0.05009241952119905 -0.1742994495742479 0.1903350481093366 -0.1346109688957287 0.1599184458258762 
-0.009032457391339281 0.06941883603856058 -0.04372967717152713 0.03595851121920569 -0.1295977088850093 
-0.06033176923850569 -0.04475702013224375 -0.0495633356729874 -0.1580441891880131 0.2246499406421214 
-0.05296135997749641 -0.05897093404586446 -0.3270672012730294 0.06266866780304026 0.2628273030791467 
-0.03409982193738695 0.1239579472693515 -0.2854359090050663 0.01586097255042116 -0.004305261700485577 
-0.2711356062199238 0.05538292026814535 0.0650688283247807 0.07294666407797668 0.03471195112849115 
-0.01606408648282265 -0.2032856468507957 0.2703130658947718 0.01679052694541788 0.05707318581144284 
-0.3173843982273123 0.1626842727904649 -0.5217068848422426 0.3685052783130446 0.4073306287853972 
-0.144086262146583 -0.2083424290673385 0.009011568426098125 0.07404104492122056 0.1567341108335746 
-0.2051614645482342 0.05865455765754946 -0.2167097510361331 -0.0239833703410685 0.1998906051150438 
-0.004518363047056903 0.2673707075456108 -0.1049001923578105 -0.2667344144142981 -0.02304921978620772 
0.1147133133628538 0.1763124005039113 -0.3465146445270775 -0.3144379368222554 0.2467705551338552 
-0.2051633263462041 0.008672802972301585 0.3072013959924657 0.087033188404784 0.01900387894328403 
-0.3263955925264889 0.177961592385545 0.280595405947361 0.02849651512496438 0.10800429206113 
-0.1534753940123413 0.03409055571934436 0.1160817583789106 -0.1253229119892097 0.3126413368577909 
-0.0515822744785262 0.2060277780284621 -0.2217837584058003 -0.001731580260951633 0.1116793282046387 
-0.2108971720950914 0.04186344180271607 0.04834876732633382 0.07035203182137503 0.09596425063725518 
-0.1324212255396364 0.2289361270533828 -0.3361641113723833 -0.1320418008600367 0.172720571732378 
-0.09138951128867612 0.2159043910381373 -0.00228474001708105 -0.2658396811793688 0.09150172937246916 
-0.3448321698170337 0.0438254227390564 0.1068948550797673 0.392268797587541 0.09199798404191357 
0.0440181999226418 0.1627352369017781 -0.001468300508758636 -0.2205683129357902 0.1029825042007873 
0.04180182891384966 0.09501115650594269 -0.02522377715517745 -0.1552850406494561 0.1578116231867262 
0.09523574841215736 -0.1233248356458158 -0.1332706250854454 -0.00951295594565822 0.2065340412341671 
0.02799095905924882 0.05340856939173753 -0.102107694940861 -0.1151050769570747 0.1636576995346366 
-0.1637961130352868 0.1605000951006249 0.1448150447562855 -0.05246532260508415 0.02969338548260313 
0.04404779587984409 -0.08778514141155543 -0.1239399115160308 -0.07795262634290707 0.2366437105276855 
-0.04625731784606742 0.00960306600272233 -0.1502108578572894 0.04798146995881587 0.161753172716114 
-0.05697177877331153 0.04368161307498189 -0.164899686483128 -0.001516222786271526 0.1326990340034665 
-0.07459604689276995 0.1122728829280356 -0.01627032138720177 0.05565155244585408 0.1045647081051453 
-0.05125006555748159 -0.0799425178921197 0.07779863154549115 -0.06172310440207802 0.1864209058271228 
-0.1626165689896586 -0.02257698631150436 0.2822737391252389 -0.01195164267530388 -0.1099311848429577 
-0.2496051859026804 0.2933403393520992 0.1082182729306282 0.1192940129638525 -0.4325208160169258 
-0.2880985532390329 0.06515611406668687 0.0250343857778585 0.1929793437305982 -0.1503632341026439 
-0.2315386011962491 0.07164938407694606 -0.211583748091777 0.2197077267737265 0.09446172968087847 
-0.159821262585652 -0.02287771327561715 0.03872222087368477 -0.05422441010523701 0.08974466221602934 
-0.2124126094218509 -0.05428541909967712 -0.03431891592971874 0.09027169215340579 0.1191194423973097 
-0.1764357335362709 -0.1463882533177099 -0.01811962986879549 -0.02795890512599795 0.210216833774323 
-0.07664251070969169 -0.2323828004924763 0.1927089599012912 -0.1812172252987201 0.2828243817522443 
-0.09195344793904897 -0.00965375989997597 -0.03365392850637868 -0.1215247526370108 -0.03722299397284548 
-1.239824002775471 -1.018545102842346 -0.8516955681544471 -0.732978955698312 -0.6816699703763385 
