solver_type L2R_L2LOSS_SVC_DUAL
nr_class 4
label 1 2 3 4
nr_feature 909
bias 1
w
0.002287175391087653 0.0001279598094521102 -0.006962546668955552 0.003443001943442625 
0.004268259907169735 -0.002908929602986884 0.00109896995123189 -0.001340348341638903 
-0.001957920683300495 0.004280530798764432 0.002698608862170757 -0.003549760428285196 
0.005200606464682831 -0.002131592065919141 0.01506556429746352 -0.01594414889754648 
0.0005543088539612512 0.0001792809708651143 0.00756027612140488 -0.005564542381164449 
-0.002694164087423234 -0.006075520230268397 -0.005389290000397944 -0.001327260593270958 
-0.004307583269251907 0.0004053135793732528 0.007941574352968939 0.002875890701878959 
0.0006105759871765089 -0.004630169966170331 0.005968990419575388 -0.006937341703450748 
-0.001398670326615045 0.001008153588223343 0.003020065792813303 -0.004026754374652534 
-0.002097885399527268 0.0004956212080718936 0.002875016393999077 -0.002701880296770063 
-0.001050066443666399 0.003644456965380491 0.0001901392713194222 0.002782920697572485 
-0.001953638399626686 -0.005297848857782047 0.002829961342882593 -0.004617576869016819 
0.001532029693301139 0.003994740868214187 -0.002143118922309391 3.496016260594765e-05 
-0.000372279464688994 0.0005379665714651269 0.004397928060932576 0.006150686784951379 
0.001412586763605543 -0.01034855557284802 0.00960747171118259 -0.007203964049050761 
0.002690753022096242 0.004549314428522961 0.00242722676023933 -0.0038424413578744 
-0.001179162097363093 -0.001117991740839204 0.005991319033476257 -0.005191590927879677 
0.00605028360795605 0.006217711638127107 -0.005273444177028041 -0.00234426084918238 
-0.000684455283821992 0.003816516351290467 0.001244035776333164 -0.006128625689020565 
-0.001127297852614646 0.007178039406864741 -0.0006715127125081645 -0.0003341002377991053 
0.002741596854396696 0.0008969027552756634 9.379252645874407e-05 0.0002702808998976469 
0.0007195992785779279 0.001220344839887837 -0.005142524260456105 -0.008789364731796622 
0.00120913305284415 -0.002172751367913316 0.002024817297329876 -0.006052086651942939 
0.004384459075999863 -0.002062206647899175 -0.006117991865137758 -0.005883355559905993 
0.002138244090026982 0.006894330182366025 -0.007067070251536681 7.949515046469001e-05 
0.002371555005475165 0.003454220063336199 -0.005237648600200422 0.001825003395521685 
0.005326397261781603 0.004922924027351886 -0.008054620445437472 0.00410116172436578 
0.0008446147558019455 -0.01001081089254322 0.01094618469659363 -0.01428583166686844 
0.005249687327418586 0.0006756294807956644 -0.005511637569841684 -0.007601040440506224 
0.00277639081087436 0.003799455349261465 -0.01742609351030199 -0.001432676809724071 
0.001828018317256692 -0.02689153170446357 0.009126729816493651 -0.0004885358255909807 
-0.001881508283581667 -0.002952260789727736 0.00437723612944438 0.01062215037989652 
-0.002791928568214174 -0.005761853559283883 -0.00294161613683984 0.005828232898745322 
0.000543725004091403 -0.008870482181078183 -0.001126603623013471 0.006417582924290557 
0.002546915893566291 -0.005286856672458286 -0.01542950474392195 0.012749555395304 
0.002508416015573835 -0.01446304864685506 0.0008614846925573486 0.01019853820625712 
0.004007534561896986 -0.001274955207840498 0.003451367749605764 0.007522708940095173 
0.002369787315327965 -0.01512461133140091 -0.001258295794453137 -0.000735669091589421 
0.005611245103118837 0.009229908556999076 -0.01194035298012111 -0.003406549959988692 
0.002460242523588702 -0.000688913525609661 -0.01588194431634573 0.001051948039725269 
0.007344409729925094 -0.000719816123133354 -5.49683314792875e-06 -0.001299317039327708 
0.004539644045633726 0.0005822123413588455 -0.002865350018306137 -0.009940303886772757 
0.005791042848114208 0.0008893157368259594 -0.00149113541568137 -0.0005204561567210522 
0.003155417835027925 0.005103810205933804 0.00111922395662039 -0.009201366992934175 
-0.003194040049282605 0.002444750590991921 0.004160672866323463 0.002531169667589305 
0.000978526096006804 -3.566369487846795e-05 0.006094229356469265 -0.0008904647063546982 
0.009004196781412333 0.00149277325027348 0.001497974123321513 -0.00341770983653449 
-0.002184176365994497 -0.01280088376073728 0.007817797872012934 -0.003173444325670128 
0.002839665574111389 0.004194196365380527 -0.006718629018375388 0.001212718128844813 
0.005384701676947022 -2.785011610987959e-05 -0.004656275218638463 0.002086683912733121 
0.0003703719348400797 -0.00029684283606741 0.006707509591758508 -0.002846205385268551 
0.003967230007220617 -0.0001214792408398007 -0.007218790573774098 -0.004043462756058634 
0.007224870126052309 0.005485548969389862 -0.01133188033963872 0.005584328046406285 
0.005108980796547682 0.006731081242702556 -0.006698297003302147 0.000764768900032237 
0.002130779852058584 0.004844010436239069 -0.003460718993431788 -0.004485521349494197 
0.00137860758650336 -0.004291766781513832 -0.001831878820396926 0.004627984126026035 
0.0001597865929134661 0.0009864736861122049 0.009305379873983395 -0.006422430068737287 
0.001035709861609873 0.008092734562121917 0.009803400907397189 -0.00477968439054074 
0.004424834407691017 0.007979488056654506 -0.01182180700888684 -0.00282823289501842 
0.005751785063074001 -0.0150003122696748 0.003179695640492273 -0.008093326577260303 
0.002123272943096258 0.007282780008359274 -0.01485232290013826 0.005520703628479016 
0.001592635014218896 -0.002689104883196576 -0.008205320074556472 0.005388682982180514 
0.002297885121388739 0.010857647233124 -0.01048262439750582 1.388634652473038e-05 
0.002464931148338609 0.002554458962765007 -0.005634158382232081 -0.001618927852119531 
0.003181757785742369 0.0006007389531119606 -0.006371932181835452 -0.004151219083270081 
0.002613687359748161 0.003068859811794748 -0.01236280469367355 -0.0009475763638465041 
0.002459037985856542 -0.01128612531446391 0.009557929135721068 -0.004999772887140827 
-1.209877975956021e-05 -0.001246966940245507 -0.00344974087076301 0.002317539932011583 
0.002318868024789035 -0.000489322382554038 -0.002324319531850982 -0.0001467924680193228 
0.004976665269827571 -0.0001311540516600042 0.002063673938338183 -0.004463874817055449 
0.003313095828671858 0.007024234165697424 -0.0019136543946599 -0.002837412429146951 
0.005795428133530859 0.002465211647685403 -0.008543612439419949 0.007618214615556446 
0.007155068068535133 0.008658199391420028 -0.01315255861518834 -0.001777609621730315 
6.499636848805559e-05 -0.01190790508085587 -0.0006091100704413074 0.01041485772817867 
0.003714527951749977 0.009158806131288963 -0.007437684471752978 -0.004433249502430961 
0.000779486601563631 -0.01127845746789025 0.004260914735539435 -0.003490323553475591 
0.002702136654780834 0.006969956573153821 -0.007958499123948481 -0.004994736010043457 
0.002815780480007909 0.009333575079791096 -0.007660521561811821 -0.004261940469936278 
-0.00480403005716459 -0.006991410355980645 0.004524335447624217 -0.0005351041263912262 
0.001266005020553212 0.006087060154701794 -0.002000266930093916 -0.002002426307702957 
0.002593221435663278 -2.927690984022576e-05 0.007294065128519096 -0.002737782450347516 
-0.003665863193355929 8.074742743871382e-05 0.01054713524562596 0.001906159099391277 
0.005547275546833728 0.0005325437662265858 -0.001960359810631169 0.002689053843545135 
-0.003264976367144649 -0.003520517056956769 -0.001912841278597092 0.003523022294148165 
-0.00418379140733747 0.002569909985431514 -0.004485706685327555 0.0015407853357824 
0.0004584122365582807 0.009712799272844548 -0.00321277111177773 -0.002934968325343297 
-0.001460474749645984 0.002093158271368467 -0.008150898333572448 0.001793328443883642 
0.00110885319419784 0.01144959915367018 -0.01134968960432824 0.004957934402654506 
0.002227096687684169 -0.006520453211338073 -0.005899653437924 -0.001083766818753716 
0.004256281560963339 0.0001081785898616096 0.003317173915382214 -0.01109838847345322 
0.001638619452804017 0.005123670370772169 -0.001366089771723981 -0.003720447959501956 
0.008081685391041546 0.002752139177589477 -0.0005805910924692905 -0.004046755230209152 
0.007340199852371751 -0.0023652847659501 0.005988465679893026 -0.007253081524088917 
0.004579496107348449 -0.002529190975457565 -0.003067817034094117 -0.006087214940738528 
0.008368882233385286 -0.01251210222370809 0.007943841969032254 -0.0176609753678729 
0.006825049490511477 -0.008326780469650505 0.01023457814615866 -0.0007917466110357406 
0.003419579571748709 -0.003441878412552026 -0.01385924653683991 0.002253479100248864 
0.002907148430852901 8.049143125308912e-06 0.003279642625218486 -0.0008254094347505463 
0.002657297689364809 0.008503705086579058 -0.009537222275845249 0.0008497119154821089 
0.005385156069804056 -9.403647787014617e-05 -0.004687121625363461 0.003053225412238532 
0.0001468322572237495 -0.0004366902334093423 0.002362826366164394 -0.003122661125468394 
0.006105386258840145 0.003644373155157262 -0.009341250404208613 -0.005030838774782251 
0.002420020256838096 0.006792957359504566 -0.006339004180727217 -0.00185131086799832 
0.003654527667674296 0.01108937462388049 -0.01138726786685543 0.0007503126172844354 
0.004641329320461078 -0.00163799218531635 -0.004853653885686908 -0.004278524885174943 
0.002486403895461734 0.005021587569757784 -0.009158715776394948 0.0006421929762860563 
0.004947647377721137 0.00643519749403628 -0.005078557841456421 0.001251956867002029 
-0.0004669107467655624 0.004486958122330575 -0.0008446068010737564 -0.0006665371011803809 
-0.001711679430199529 0.004633174045883082 5.232505287008056e-06 -0.005230893184399902 
0.006479107522905367 0.004381398878229542 -0.00898154212020724 -0.001924129253061092 
0.002045600356749323 0.008866933387299082 -0.0079519938731116 -0.003052408140480809 
0.002226624800293355 0.005830935840831607 -0.006583469888201335 -0.007509051642826822 
0.004869301349209202 0.01027627971529503 -0.01595540089354807 -0.004326940694542548 
0.0009475880667670357 0.004488479568450891 -0.003695951003674809 -0.00854609258144863 
0.003009196342559325 0.00699470845688255 -0.002541455870508062 -0.01502848338062222 
0.007170493133078398 0.000695783671239798 -0.003131267097598742 -0.01371583210758247 
-0.0006172736658909096 -0.02031739048418727 0.008189198182846072 -0.0009772397861969484 
0.0001571688445916877 0.004455411232183747 -0.004470116003018916 -0.004246776931306 
0.001751119684396652 -0.00694113731463984 -0.0005605801229223329 -0.007588239734144886 
0.0005388899439494493 -0.01229218307207727 0.0104092974083729 -0.00738577071928651 
0.001964310551787697 -0.006214382324336257 -0.0009832062522626423 -0.007730705589582662 
0.00376667853019939 -0.008772009072989483 0.004564709427516927 -0.007258326013536749 
0.00399508206770712 -0.009898433206313038 -0.01667626598386731 -0.005782897133533475 
0.0004220409719522497 0.00694021121898073 -0.009911269059472037 0.001058016154786316 
0.001801911880632101 0.006521400825020624 0.0003455883774277519 0.0001607435322179112 
0.001818138353546296 -0.008794300002535317 -0.001116840096194089 0.003238211109004029 
-0.004377250441514847 -0.007888016347075056 0.0009448501145497452 0.01288273534922809 
-0.002686911071992001 0.01051064008207931 -0.008942910915832722 0.002470667115617374 
0.002751599802715823 -0.007608139431950444 -0.00333325640200095 0.005325260372003915 
0.002038536436005135 -0.01807364830128797 0.006410133367182531 -0.005448425398482927 
0.002242139388815151 0.006898773780680262 -0.001718803624602523 -0.001340300729719868 
0.003941766309392384 0.002017106317303312 -0.004270089185045026 0.0004209736447327487 
0.0050945979623653 0.003792683191812513 -0.001624539928126532 -0.001044863799998609 
0.004741833838868333 0.004801950713439623 -0.01286384332120578 -0.001059847328153122 
-0.004012040013345508 0.005588649612095521 0.0009012396030671264 -0.004920348492719095 
0.002983076047251029 0.008408553787918297 -0.008426976276179015 -0.005427604377637306 
0.004679821443603743 0.001072041456031393 -0.001673526065273817 0.001141339219523623 
0.001643079306335686 -0.0002947788525407044 0.0001299305232416386 0.002275224161550179 
-0.0009065250638084425 0.004772040828186873 -0.007409321948105702 0.01226514341674778 
0.004041754946996246 0.006628974816370909 -0.003968499160358752 -0.008025836898044331 
0.00283647937319055 -0.001358747781641068 0.002790449845440076 0.001141174756077742 
0.003273704159057373 -0.00143395275677761 -6.666041347450003e-05 -0.01176617810292507 
0.001444331598785473 -0.003959690804367235 0.01656463630053046 -0.01674659464388537 
0.001699305391365318 -0.005726131057917591 0.01078054771336232 -0.0105716053683658 
0.0006404896632957462 -0.003243413862740633 0.001803053849480706 0.002731852177889848 
0.001736126174534301 0.004625186402484429 -0.001461054693827765 -0.002078838112442468 
0.004680355656047195 0.01073178030753328 -0.01435743071740716 0.002504989729840942 
0.006990956565643902 -0.0001766265346017326 0.003047901455638871 -0.005181411035394707 
0.005050620301617575 0.006307206157509191 -0.00507214131849227 -0.0003491312988145214 
0.006256425747797841 0.005835705085613082 -0.01380040017040052 -0.002740641200792088 
0.001669484418692372 -0.00520774663036668 0.001623492086899016 -0.004652936706893885 
0.004041598310384281 -0.001074719606784296 0.0007011908269449033 -0.007184097604758327 
0.0008641418076334221 0.005585193218854367 0.002715407047101921 -0.003419904029484341 
0.002253203828203668 -0.0009478538540621515 0.001519012612068113 -0.003358297462943953 
0.001169878710278459 0.004110428449066457 0.002029381222433961 -0.0004074444529864914 
0.002072522053969313 0.009417078683470229 -0.01625328142754872 0.001958123681778481 
0.00280668184899338 -0.0003980755926907275 0.006951523835335473 -0.01310951089584233 
0.00136209958271442 0.002382242372183527 -0.003412820220357728 0.003630345056613086 
0.004998668841998065 0.004482111534350832 -0.007269642684573124 -0.001415933966166732 
-0.002118648553008572 0.004393962701578057 -0.01736115649587231 0.005881819857914128 
-0.0003035424308710619 0.008154543040683486 -0.009330943222966643 0.003138737286978661 
0.004504779500844677 0.001389564274053317 -0.007419567974421806 0.00152961014116017 
-0.001779020294590475 0.004547653909300049 -0.007076438583466489 0.008105430197640345 
0.008977826879779577 0.006662929322348286 0.0004612934736395985 -0.007116030423314198 
0.008516680286813027 0.00249301258485286 0.005280684014705471 -0.006564812756270407 
0.003425926254712678 0.003793656664683738 -0.007303221598110486 0.004871096222019616 
0.001626607200734231 5.125639686778132e-06 -0.005985475764521849 -0.0006177501326159068 
0.00271232419636414 -0.01759713201719057 0.009258059848135212 -0.001887866443792496 
0.002673245891752583 0.005820910702656868 -0.01059927614336681 -0.0002685056931937663 
0.001067208233170136 0.004826162419693929 -0.006453792126191702 -0.0003010965797548416 
-0.004192033442866616 -0.008545785467251507 0.01472664838673176 -0.003306383953249001 
0.0009240256439065626 0.001245506635561721 0.007102175200010653 -0.001453409977665791 
0.00129984016376624 -0.0004076222529644453 0.01069361496974957 -0.01141512942025102 
-0.000702270093970248 0.003970007068455012 -0.00469850186485408 0.001162708080070762 
0.003447564392073064 -0.002241859245061474 -0.01182447208714721 0.003868298308873272 
0.006269242868216936 0.007116539341764607 -0.01268418596494546 -0.005658600853663058 
-0.000845835310251818 0.005833786547613892 0.005928980800205095 -0.003258437780180903 
-0.004217668547212576 0.006153795731142342 -0.0008073243073073694 -0.002259877114224666 
0.003478578641744392 0.005093148015918669 -0.004132582547176123 -0.0007559610527297121 
-0.0005547149876590429 -0.00328333348314463 0.002146101438907126 0.004246379026149667 
-0.004575917933027887 -0.0129257233656275 0.01404797575741293 0.0003288018846125693 
0.0005598406421460902 -0.00135771854192444 0.0005532268184130815 0.0008979491247315348 
-0.002639561044608612 -0.009694060105767892 0.002022563178610558 0.000748887104091489 
0.0002668608827267585 -0.01194167355936898 0.007887522424944109 -0.006486503240523523 
8.362083977150199e-05 -0.000258994709253548 -0.007662867519845814 0.003323528422149427 
0.008391228208976935 -0.002131518316303723 0.003130340639556426 -0.004507514866434205 
0.003075496075495697 -0.01120473478233027 0.004985661130844633 -0.004718934451906034 
0.008419147220934712 0.003974968127492603 -0.00140447858161118 -0.004695093389073616 
0.007895117238078947 -0.008677314368076545 -0.008550231829155566 0.003073652810151188 
0.008290234903224464 -0.004044946793637059 0.009065385729856209 -0.009009560281727974 
0.003217951687191526 -0.01585158557849013 -0.004868302717132622 0.0007564125538016168 
-0.000568528262407979 -0.006622166412181723 0.008040860658026996 -0.006260032902724763 
0.007314467827546234 0.003707414858097726 -0.001979038617044975 0.006570263951704625 
0.002167776807292987 -0.008910262079904981 -0.004905375584237492 0.0003513614260737629 
0.001679357032572267 -0.0007371514911242896 0.007862518808007526 -0.009886802237097149 
0.001831114266515852 -0.002885253579846985 -0.004004120778733506 0.003297648376654477 
-0.001324030384503444 -0.005777128965969925 0.0003692813356982278 -0.0004843256903898525 
-0.0002952025029955521 -0.001465930715744593 0.001124897614379114 -0.005585707384041723 
-7.953161613881539e-05 -0.003132319087834757 -0.01000363581134689 0.0006758600822222295 
0.00259735630564515 -0.005568708476087134 0.00421183801135552 -0.01252626257618011 
-0.0001623104369015508 0.007184053941862098 -0.007463581060864945 0.005356060065426737 
0.0004779737907978499 -0.003025259652356984 -0.002977657734560973 -0.0009002185843864055 
0.001509148354634987 -0.007880032982365883 0.001988970642697209 -0.007144391937741359 
5.87483832509513e-05 0.004893662483454402 -0.005775893318492323 -0.007837225805614129 
0.002195576391938265 -0.01434419730279005 0.003800143305695328 -0.007485712371866705 
0.005196555775381397 -0.008732660467582925 0.0002495101823582713 0.003490793356392859 
0.001388762585634279 0.002459238771804343 0.004884197337847482 -0.009816825678973516 
0.003488320552280282 -0.003649056871125789 0.00243709377899674 -0.003351949781033489 
0.00308362514135635 0.006416036033960557 -0.002597056822242635 -0.005223804097266036 
0.0007312709412620517 0.001540139446685106 -0.009021128850611253 -9.125269049339843e-05 
-0.0008603968546601411 0.0002024719647867598 -0.001277849873170662 -0.009198289595352219 
-0.001348179520226144 0.003883118777440058 -0.009059345069327989 -0.008599211394489555 
0.003358617912770116 -0.0003084981276526779 -0.002509397495538856 -0.002843229109415934 
0.003111149532070607 -0.001528636556968361 -0.002727420696290676 -0.003794782558845028 
0.003216473244120122 -0.003199273183545238 0.004040791749773613 -0.003909927946391267 
-0.002712396652552665 -0.004110726272408442 0.006867538790720097 -7.632464790510402e-05 
0.001376360148346628 0.0004434567258760906 0.004728319920953064 -0.003194409054094672 
0.004424969597930668 -0.007247876231904487 0.01673803533892279 -0.007394031814199752 
0.004210535688885605 0.004436614810023241 -0.002802352364717355 0.0008419335911349334 
0.003106425172130213 0.004091817434280508 -0.01070000237999919 0.001895694470753711 
0.004473736224120369 0.003183131156148491 -0.00162643860894235 -0.003767224288027836 
0.003512384683444997 0.004048963936716582 0.0007405811657080337 -0.0005152372474364422 
0.003900115598185345 -0.008112574187267001 0.009841405468610429 -0.002752235736961518 
0.004449566960255654 -0.009854597104136524 0.004091658734376028 -0.005428088237719921 
-0.0004576458259420439 0.006757551686316779 -0.00450985477122124 0.0003684081456673926 
0.001980618370671604 -0.02001103396033673 0.01109916024475944 0.0007958961143515783 
0.007163327388692124 0.005556522328842266 -0.004725882099701837 -0.004142925547550808 
0.005870642136046209 -0.002632474388527576 0.007127018615059721 -0.006327885934135242 
0.008293395909636072 -0.005300076582115158 0.01499779310056331 -0.02220003556465546 
0.003221274564601809 -0.009958643666674573 0.003886163116455117 -0.007098429590870817 
0.002502892879582897 -0.005733976226286228 0.004786547252636325 0.005693771383620609 
-0.003904598308625553 -0.003503663182355909 -0.002328093832902064 0.007181120035087273 
-0.001017691314116354 -0.0002750931419700236 -0.002865799244106017 0.001038750971861914 
-0.0008672768172697293 0.01590149665486096 -0.01868922661417519 0.005826521266338727 
0.001616323438593309 0.001750947078029175 0.001938871090214538 -0.005159089556271738 
0.001048605370521116 0.004036274093902297 0.0003110859709198157 -0.002434111568361937 
-0.003334251434559889 -0.001976380347269619 0.008566828656004015 0.001310767060334329 
-0.001698460859278881 -0.005644122243668468 0.009783019540226385 -0.006605215373153707 
-0.0009543909558758922 -0.005475819032594879 0.006083203538370833 0.002290363397881638 
-0.006604489276041468 0.005377621819824328 -0.007458561215745229 0.002728083987949081 
-0.001787285807546641 0.00302543784708067 0.003610893459010178 -0.001739590427480267 
0.0001409387358282267 0.004609888296862217 -0.005441750257068835 0.002810081344840036 
0.0002737302223147537 0.0002059168677235952 -0.004979600671957299 -0.003546605574075724 
0.0005536595881877359 -0.00692286380788465 -0.002985454484165965 0.0001926806700884196 
0.001035060652381273 0.0007715661449032097 -0.004406969705658187 -0.0004917750698807402 
-0.001356741415395918 0.007774371235578328 -0.003103928851839724 0.001467154397285015 
-0.0004134691347033255 -8.511442190231151e-05 -0.003658320706339726 0.001526744033898082 
-0.001846210684915838 0.0004570115456454576 -0.001657323816872282 -0.005415323477275306 
-0.003208973080698713 0.004766335050435831 -0.008794287156642371 -0.0001018266388660867 
0.004659309602171585 -0.003207285113200801 -0.003879073558745825 -0.001368376494139462 
0.00398881395128976 -0.003094557187871814 -0.004686634564907921 -0.0001671564577042942 
-0.00135264496030006 -0.0004929196430141903 0.003094377213442688 0.003304973886124454 
0.0006292724539283214 0.002314750370184656 0.01344416258648694 -0.01625084845017351 
-0.001546811891095921 0.001265036608027082 -0.001762663200093567 0.000424556355845566 
-0.001441428886283342 0.01171013375721116 -0.01041236467771265 0.0007434482704855741 
0.0003001281721467098 -0.0002931490228795351 0.003570014962073959 -0.003091523434552585 
-0.003103020476091086 0.01096739892783785 0.007104281274121768 -0.00608455659112701 
-0.003652791219708628 -0.005636948890847028 0.01400134813429495 0.002260836048669277 
-0.004526416759434417 0.002939743124366131 0.01011121045594123 -0.001975871581706163 
-0.004259546464364219 0.001790529165465175 0.008212833096351946 -0.002435174301966793 
-0.002424775709703599 0.01362395475541838 -0.0003161651256062032 -0.008874442220453587 
-0.003330225729255734 0.005321755035043991 0.002142284421603363 0.0003587898697042753 
-0.001703604319479817 0.002928008667570132 -0.01463149696329385 0.001190344730147013 
-0.003361866999540003 -0.001933436932112032 0.003193710737227096 0.001231472500248922 
-0.0006284941382328824 0.005816370556981995 -0.0009835625829609613 8.382158908948826e-05 
-0.0004874219089737552 0.002319724953953175 -0.009491769658087821 0.006573839330193145 
-0.004774199467044094 -0.001926957551263693 0.009175516225742792 0.001434037597975957 
-0.001519381235542045 0.002695268704608903 0.004889968477129063 0.000829976212860431 
-0.00296496292528218 -0.002992029362959045 0.01117939258153108 0.001525169767167079 
0.0001687206882404778 0.006851203375702728 -0.002985395063072643 -0.006732375953339215 
0.004341141117742123 0.004469189575331383 0.004277884050666858 -0.003892107673020017 
0.004431642268607832 0.001206783782290756 -2.316604565268826e-05 -0.005093546126904071 
-0.0006122887246194056 -0.005290963139994471 -0.001822647483779223 0.002216070112865585 
0.003359902965982485 -0.00169970151005104 -0.002776845362806285 0.005708643538303495 
-0.001167928217305772 -0.003242433194346262 0.001440008171579589 0.001958497747913475 
0.004660025388185735 0.00142230415587683 -0.0008055018644111582 -0.0006387471798480594 
-6.577406546193142e-05 0.002924521707728422 -0.0009868460507355202 -0.001243938478130778 
0.003190045109224744 0.0007882853206211627 -0.008478942453897225 -0.005256106206980499 
-0.002869415926377952 0.0004850094884460055 -0.001406239706756869 -0.002307193985554339 
-0.002411200620129343 0.003893099025852829 0.002199545713181481 0.0007781802166553191 
-0.001129368454198803 0.0009439825193333996 -0.004761384148221572 -0.002975662683339574 
-0.003886893859121678 0.003197967538236271 -0.007995402213437804 0.007497397152113151 
0.000725170347885332 0.008954514866666624 -0.01653100552910009 -0.002123603515792291 
-0.003376733861265312 0.002659241221060336 -0.00975876888609529 0.001768881614632122 
-0.005450597439091662 -0.005012177968822602 9.670682107118022e-05 -0.005060699244665916 
0.002853227174156491 0.01873811102698679 -0.02080991263710103 0.004333883488345251 
0.0006491013222698671 0.01408034916430135 -0.02757664711532556 0.001260422624077712 
-0.0002018621240346863 0.005560792549864173 -0.0131989399797043 -0.001129053633522312 
0.0001549098983723769 0.006248614910318332 -0.005895494576166468 -0.01365740787406676 
-0.007111214642930661 0.001614637103291321 0.002514696682038755 0.001664059916756997 
-0.008774508197697845 0.004524747063159176 -0.004242522158318014 0.002089531656894341 
-0.003980424514935648 0.007513617757673225 -0.002328720082175872 -0.00852196820301486 
-0.004043802927120853 -0.00222098371608021 0.006426922368253742 -0.004457929151878365 
-0.000256503172130967 0.006911297015969341 0.003847535699160698 -0.006277201380498808 
0.007498942711503098 0.003444566762939577 -0.009123828498239587 -0.005289916832136147 
0.0007811182104826407 -0.006044700552702779 -0.005423844605555909 0.006283592380875156 
-0.001358743257106439 0.0007351535203498863 -0.0002681224384466426 0.005417240534741346 
0.007787564160945355 -0.004217939835168876 -0.009334635932080055 -0.003708735646463058 
-0.001228310760216954 0.003048880190722221 0.001712315560808323 -0.002112331381039187 
0.001228538240013917 0.001765364756000303 -0.00399857435842028 0.00104157766086546 
0.00189969838690311 0.006104704292970359 0.006823268299380903 -0.01164063426475698 
0.004739521731440448 0.01371000917021782 -0.01808090610483151 0.005510436615252935 
0.003512314888911391 0.01590785001838542 -0.0133677179045007 -0.01496029432478535 
0.003856034336414949 -0.0006237351278566777 -0.0009296330186197612 0.0008090570841736675 
-0.001104991792022748 0.002018506165677444 0.004038041785280555 -0.006414921490829987 
0.00275533416572623 0.01131495637755874 -0.01172483012085446 -0.005004401191186789 
0.004231149336686906 0.007582381728705652 0.007262573106597326 -0.01349956611499592 
-0.002127594555104971 0.002796309424211867 0.002511114676364029 0.0001631725865101259 
0.001501062685716604 0.001329572550157131 0.0003043761628775819 -0.005901732377650991 
0.002067611845368116 0.002176597507615697 -0.002994125929396764 -0.003940563684051553 
0.0008736105022015325 0.004728587174386041 0.006301786942689471 -0.002834679985923223 
-0.0005538986273881497 0.0004494876178309107 0.001057185719177217 -0.006774394929753905 
0.001078423224330324 0.01247329381229601 -0.00925607780673081 -0.009750840418219333 
-0.001635255641833776 0.005229036902959735 0.003852857284802935 0.001574182489377922 
0.0021907866096171 -0.002348050299188502 0.0006756494160138408 -0.006632546770364863 
-0.0009071647143683297 0.004281491608216886 -0.0001347870228109281 -0.009630606730477449 
0.001889636939429005 0.006183464953530141 -0.01162627103624206 -0.00439780151914113 
0.002969899857289593 -0.003847305571584841 0.004512435484383705 -0.004762461718967095 
-0.004218490530986081 0.003458500717983475 0.0007836491343733671 0.004538267316710005 
0.002725148142916057 0.007562644325939396 -0.01007393245772794 -0.005780865261794495 
0.004132640172873913 0.001273909807363245 0.001442408532612504 -0.002993817751001137 
-0.0009159033556422184 0.006676490846749258 0.004483626617720855 -0.00502005816509836 
0.001855642927028543 0.007783529924029193 -0.01024670864390757 -0.002812470837867295 
-0.002104188755187238 0.001602905073080905 0.010060954014445 -0.006975016412425489 
-0.0005062479360765344 -0.0004991354043864757 -0.001011643056687954 0.006468364977607114 
-0.0006654612730320354 -0.0001199802860486025 -0.003393357159090436 0.006195295263062034 
-0.004813851592135235 0.002777036962005113 -0.005564413622606868 -0.001336752296952042 
-0.0007628436234136329 0.002403454794390664 -0.008724857390195899 -0.008175597502885898 
0.002583137969414877 0.0002544404226200757 -0.0001600347849211043 -0.006669767667044627 
0.005239249852521559 0.01635200564640133 -0.01311483852837173 -0.006545492938230734 
0.002141616042262966 0.004264362996359026 -0.005883979560704812 -0.002303119507208474 
0.002189998399667374 -0.001564698690211174 0.006740577423574297 -0.01186674228323325 
-0.0009784752297810372 0.005721983018752426 -0.009412607867215202 -0.008622245466180985 
0.00280888356495012 0.01135909770908006 -0.006088263036605012 -0.008667807596925719 
0.00185912001176925 0.003348712871162111 0.006959581463842723 -0.008708990740099079 
0.00322707892292753 0.00335020088136341 -0.005101381244165563 0.003968010266679517 
0.005413656173259727 -0.004084691349766024 0.002305819275856457 -0.003830508097094832 
0.003279636114347876 0.001075676769015869 -0.01084837227745471 -0.0009479837636221998 
-0.001518632169530035 0.005172363264524308 -0.008214369455111635 0.002747957479495464 
-0.00220462473806066 -0.003519024797364937 0.002356189788148173 -0.001120523725663099 
-0.001325988864608385 0.0007236099187304338 -0.0170678942052121 0.002815285103384254 
0.008929062388268601 -0.007212215424774414 -0.002002949568380677 0.003578790654876646 
-0.001226996435084345 0.002425380936821465 0.008177139632834373 -0.005621576722047592 
-0.005964536003759822 -0.005483831372803148 -0.003587582048962265 0.00829723511420101 
-0.002344875891179235 -0.0002924463454389758 0.003032196893838406 0.0001357184435414674 
-0.003020688992579092 0.002330370025265447 -0.002779202786168652 0.005372377479128125 
-0.003412595359024407 -0.002123867839459025 0.001015341393146188 -0.0019980899249856 
0.001196413389286283 0.00673601950918808 0.00118114683315714 -0.004158611849474125 
0.001146232634341126 0.01128738032932953 -0.01550402476824669 0.0007325364398346104 
-0.004269715682778721 0.008857173306967963 -0.002320765151361646 -0.01006003957851968 
-0.004353985210693322 0.009836000858238483 -0.009211979691400925 0.004915452299676812 
-0.0003176336805687725 0.003230364169989444 -0.009259405498907481 -0.005732582481116221 
-0.001770287653432725 0.004218814208279736 0.006357583080969495 -0.003781336241403888 
0.005393527248924813 -0.001224481939181622 0.0043633584690702 -6.340765482463408e-05 
0.004181556735249089 -0.002395366435169085 0.006776343247360999 -0.003034219736687446 
0.0001365602327855926 0.003117588524424247 -0.005593658032241753 0.008339509289945349 
-0.002141374415748938 -0.001069616229070668 -0.0008218007382347871 0.01128087914095905 
0.002381860644360052 -0.008573600312777591 0.01614298925101747 -0.007614022423700357 
0.002403825797181638 0.001060742270761163 0.005260762106010819 -0.0107656720987225 
0.0010369065641314 0.003457918966279249 0.001113022599770543 -0.001078064482420651 
0.001364474007036465 -0.0001397314239578211 -0.00839256153789854 0.002707160323313589 
0.000622858684689786 0.007445739561195065 -0.02367737945051188 0.0006822946422502962 
0.002640449218745736 0.004998685385274158 -0.004839926238956691 -0.00787126495859909 
5.060564054779449e-05 0.0008452432819510635 -0.008294030428550123 0.002326155760259649 
0.002596029759213087 -0.009491521451637929 0.004807693424692554 -0.006337096915375633 
0.002783916226638889 -0.004761206577688508 0.01926031006782751 -0.008090049455786069 
0.0006817022182153689 0.00213711737628064 -0.0112665959990595 -0.001185627616474276 
0.003094326691030037 0.00575695446243835 -0.005809484250179855 -0.007599194450804674 
0.005501311925853604 -0.004372984511138339 -0.005211592544263058 -0.002053827732955486 
0.004200389683225797 0.01791087455633799 -0.01618568381562002 -0.00437859592622845 
0.003976345570267385 0.02061541596495348 -0.01637296096465067 -0.01188103761305381 
-0.002628838226834184 -0.0007248355941523493 0.01076387434881329 -0.001775506973419978 
-0.005000526835822072 0.01048119784201111 -0.01487889931895944 -0.002228364690293911 
-0.0009831470107454475 -0.002917166839297294 0.005544640994405913 0.005976822788089491 
-0.005985971204951872 -0.006281169588110341 0.01112962311090942 0.003545520770008621 
0.0004329361925242646 -0.002489882914332759 0.007779488257458505 -0.004065147474767184 
0.005098630477319507 0.01314995567747385 -0.00302008610882066 -0.007263614061620302 
0.004840760469241516 0.001246728793478992 -0.01020622380229693 -0.007746249418938776 
-0.001833067067044668 0.001857349325076973 0.004213666083826333 -0.008351306601581244 
0.0009146807954801536 0.003618627651078814 0.0009856564052100694 0.0004909818298385137 
-0.0002169465237218296 0.005124889467571134 -0.01453945312084713 0.005718252891981687 
-0.0005734768438989022 0.004596309025598678 0.002899491018413952 0.007045273465424539 
1.770440248873072e-05 0.01172588106419573 -0.01145870209339039 0.0118124374811986 
-0.002639230764361258 0.01132431683324004 -0.01182598369763752 -0.003265694159271741 
0.001331709644324053 -0.0001962294489930955 0.0001590873347030537 -0.007941028179191833 
-0.0002407764337875468 -0.002369819739321653 0.002442654161859523 -0.001816738225056826 
-0.0003189390242030072 0.01043444775506466 -0.008335044621344476 -0.001973484715107972 
-0.002145157459290003 0.003739992927600001 -0.002426188201173251 -0.0003712786249366443 
-0.002240681567142602 0.005483865680816329 -0.00569055800507463 0.001235772739110043 
0.001375963106988251 0.01180574282257455 -0.01021692739096945 -0.006082314936683973 
-0.0008667961815028563 0.00879478973747116 -0.008429362437841866 -0.002967450673737524 
-0.002463390219327934 0.009263208916527037 -0.00664361209881768 -0.002762696972212967 
-0.004233768669184882 0.003300309322639825 -0.003477171517420089 -0.004117917476872865 
0.0008596013757885483 0.006616123209015476 -0.006345955598084881 0.0009929175986711349 
-0.002934027779402162 0.005593575993758359 0.005528450905362455 -0.006919023585163983 
-0.001031205175878952 0.002688310094124159 0.006352573865452276 -0.007970443510918997 
-0.001587366220981345 -0.008392426330480721 -0.005599913387629218 0.003990871261670463 
0.003216888734408278 0.005643259406217321 -0.002335745877549345 -0.01026808430186148 
0.004384579942096492 -0.001429448800224872 0.004217229660239118 -0.005622042792094302 
-0.001523131222764922 0.01040914316975099 -0.006832219781534367 0.001567346557807542 
-0.004308303465315804 0.01350479269853843 -0.0204599193837724 0.003917064906742494 
-0.00400997616100882 -0.002791277370443749 0.006665266637637667 -0.0001118440281326126 
-0.001702093149318164 -0.005424498032424976 0.008165014533846042 0.006007504572635048 
-0.001902960825147088 -0.0009031146565917743 -0.007555726386699823 -0.00709229236001398 
-0.0004606643249488161 0.003778342366470649 3.891027093407276e-05 -0.0008617069146541304 
0.001718622379492125 0.006793820302665799 -0.0007282811473635169 -0.009342411213613481 
0.001614989460255289 0.001729692318910614 0.01331461899003475 -0.005234665029679501 
0.003169482467194163 0.01413048579785646 -0.0003202059943696442 -0.009179490466117565 
0.0003177412722473746 -0.0004441950497653037 -0.0008203143245186444 0.003858371470856593 
0.002191833266384161 0.008702120590896718 -0.01555426425277702 0.004467532900092496 
-0.002656585836389461 -0.0006802521339783133 0.006987975299586205 0.0003298978504353019 
0.004993319198753304 0.01863082500146152 -0.006489299821507475 -0.008082320407671845 
-0.0005019398427425055 0.002569543574162551 0.006061117113376332 0.001461530705248845 
-0.0004614765719642509 0.007183410124981012 -0.006527057630306858 -0.008792839174176396 
0.002058545597379793 0.002753992701789111 -0.01101630958505742 0.005205218757333941 
-0.001247364576572189 0.003911624914436866 -0.004455166138708854 0.007371253811707346 
-0.006170177647070071 0.009470241988981137 0.004213560724722137 -0.006500608526544031 
-0.001236733316204976 -0.006225871106181727 0.001724131304714805 0.009153341621445453 
0.0002895837370523152 0.005330100383391267 -0.01408524822124429 0.006657731064211319 
0.001790126509028898 0.003946384700617772 -0.007347313976531131 0.007167188011013391 
-6.599032383339213e-05 -0.002675469035125742 -0.0003880503576350331 0.008860416993794452 
-0.0006898523582748744 0.00697286125058933 -0.009599537103378195 0.009220877434451069 
-0.0008857449179110762 0.003787583292077219 -0.008141262339501224 0.008344247431311184 
0.0005339109806853531 0.008888847815080833 -0.01717433375034718 0.003078757687347318 
-0.003828729258433838 0.004026916009669508 -0.001617114794669954 -0.004953986410200003 
0.00177867419306645 0.008877295669906048 -0.003277787082287779 -0.006517673988033026 
0.004458167181982887 -0.004167021513536691 0.001632710513652826 -0.00660748441060796 
0.003323583310549236 0.007678321150196459 -0.009459211990998742 -0.007093532886222166 
-0.002287787744191676 0.0001464799554729105 0.004701991915864003 -0.0009158180734036012 
-0.001837565199728619 0.004938507738557873 0.009784956941122623 -0.005146716239599004 
-0.001208679620234275 0.006445377961356588 0.003986375380056447 -0.00291589609389039 
0.001521635399834778 -0.004330032004810249 0.005679704042467491 0.002270857346888235 
0.00236548032800823 0.004487704754061375 -0.0005504308060194506 -0.002923829578915871 
-0.00366368571748634 -0.005521257410652201 0.004012511041778476 0.004818308535362023 
-0.001856321830153903 0.004393813652489263 -0.01751832812830965 0.001824457526294689 
-0.001688409901229884 0.01306350155600376 -0.02168614810394182 0.003002086986919868 
0.003348817014061352 0.001975274683517276 1.708204448880506e-05 -0.0005881560934742074 
0.00399818015790102 0.004483139674200782 -0.008242771166768187 -0.002755784413706788 
-0.0002222149059070969 0.005419605008502595 -0.007315002101738997 0.001508004138739286 
0.003299153904956173 -0.001293621126513951 -0.008148201316577874 0.01131063648851598 
-0.0001400250486798919 0.006093737379735888 -0.00858033310478741 -0.0005309144827340107 
-0.001988509948384007 -0.0004613808813226359 0.005327504163593748 -0.0101455679133623 
-0.004084099426435062 -8.155432509170255e-06 0.004450360680770979 -0.0004668097395074098 
0.001754285344598089 -0.003220104026093871 0.004520553492654742 0.001326730886996343 
0.004012390815476836 0.001479267679670579 -0.004320677389208238 -0.006744359649162469 
0.001779873234280052 0.008529762438861846 -0.008486698886477432 -0.008511122287681744 
0.004403291991521827 0.0004031760825718807 -0.001413102332557368 -0.004569998293548345 
-0.001995550648746053 0.002404271928431648 0.006743686203423936 -0.003836501686314469 
9.903725326235523e-05 0.00510316824137747 -0.007426398351307146 0.00384498644328489 
-0.004970342895062887 0.004417848665076916 -0.006816843715123097 0.004174068070906328 
-0.0001376298461989263 -0.0001356557703809632 0.0008010628500913708 -0.004072649935875598 
-0.005100138655939669 -0.0004907580463195737 -0.003361364740117326 0.0007271285160514917 
-0.005076147577599772 -0.005564186560967032 0.00203990152394039 0.003874707785199312 
-0.006569231765203016 -0.0009798411857926878 -0.002649325372319168 -0.0005499185599800624 
-0.004470147604430185 0.004552583162938636 0.003032658825892192 -0.003638452069747011 
-0.00405455739771619 0.003368891357744193 0.0009194901694952753 -0.003008681061332839 
-0.005205396371894219 0.005175590941951047 -0.0003301043264664552 0.0001257473043130971 
-0.0004830184012390628 0.0006654416182074901 0.004985698795221265 -0.001963491025330414 
0.001168028962163652 0.03786210255442154 -0.04053929355510597 0.003399854425145415 
-0.001352470301726401 0.008011874239742226 -0.007999515438306098 0.003749210043266937 
0.00118092356756928 0.003026661417727106 -0.0003050486772167277 -0.0002970014354824648 
-0.002199220849921847 0.00573061773697177 -0.02204929162240885 0.008352653501060615 
-6.449468786326451e-05 -0.002244544646416925 0.0001863713892257842 0.002086663126315389 
0.002186962569907443 0.0003550370124317303 -0.002025025346560278 -0.005100306604481341 
-0.0001307545478862162 0.00146138110092902 0.009826490338571166 -0.003744846087670534 
-0.001260924730231493 -0.005358920825691552 0.005147395202233483 0.001440028330356385 
-0.0005618196787799901 -0.001468749783593847 0.01325761465096512 -0.004243499869037434 
3.759907167286257e-05 -0.001288227604030476 -0.005637404181961398 -0.001400342140871622 
-0.002740262377004105 -0.005855584440464927 0.004191769619675358 -0.003566002371949064 
-0.001602729724329891 -0.001918886533331861 -0.008250599276947785 -0.002778688841261075 
0.0005282346025145914 0.001931726699282622 0.01464505579570694 -0.01110808488680251 
0.0009619605126371149 -0.001144900099837038 0.003693511058785635 -4.996763893370119e-05 
0.0006079064780211323 -0.001755898940286774 0.0139301051427756 -0.005838881954139858 
0.001020644583230474 -0.0004640383189810249 0.005621140592005219 -0.00156447115260201 
-0.003175501844801558 0.002087768908239954 0.0005456939985358713 0.0007602947675102951 
-0.00217551583074446 -0.003354025393040443 0.01012382619432203 -0.007632049492981532 
-0.004504647938077364 -0.006085233917864669 0.01046332020835917 0.0007466457503770794 
-0.001209505979142366 -0.000157170097070234 0.00142075135965194 -0.001189867346519361 
-0.004643512398969902 0.002561297402959855 1.838311514919675e-05 -0.005467293968605989 
-0.00339611633497321 -0.009966982978253023 0.00909751365100884 -0.0008771089745767608 
5.428515753813443e-05 0.0112057466636388 -0.0009352277317562764 -0.006877477995379994 
-0.002730141760885613 -0.0004077833757565666 0.006410233497688653 -0.003332418921952773 
5.814764281959956e-05 0.001847814678946472 0.001181436359196292 0.00161096276902297 
0.0005355705846832478 0.01031334151464872 -0.0125026652062909 0.003338821145135835 
-0.002818863534632924 0.002064802376355277 -0.003631468765516191 0.002199078474842378 
-0.00172865668406511 0.008534806751503697 -0.004950775981173482 -0.004150231249568463 
0.002710546071374992 0.006293896568846612 -2.59124453901203e-05 -0.01100543842960035 
-0.0002078906783681788 0.007678230897849467 -0.00980616280505223 0.003441761392105124 
-0.0004737085245568329 -0.005159261322570253 0.00996524615574847 -0.004667616343224083 
-0.00108081810157969 -0.003654258530122947 0.005194065874995319 0.001591459513285214 
-0.001283801658091534 0.005391516314053834 -0.009765611606150956 -0.006934728031872294 
-0.0007818720958026045 -0.004805569793049927 0.005526371427500469 0.0002915475548567248 
0.002420444425761905 -0.01001475715554043 0.01047387367117451 -0.01004277883396546 
0.006163924986125573 -0.01262144390680368 0.01528787757693808 -0.009576871933871431 
-0.0004353025641409649 -0.01009783080710741 0.02255893938478831 -0.006639061302397721 
-0.002288838523620933 -0.002927381074185013 0.005321603646697521 -0.002789265192060086 
0.002163057059974462 0.004631223808872032 -0.007809338457423314 0.001974606465776341 
-0.003951454349685214 0.002668724924233781 -0.006598706540917163 0.0003987193017660047 
-0.002781006641284489 0.002106076856460873 -0.003633240599530584 6.240937061075479e-05 
-0.001168621937729855 -0.009726201928850445 0.01024207649859184 0.002774706041086794 
-0.001414356160451908 -0.007506001762479094 -0.00947534834831738 0.005695796957020311 
0.004393396480982185 0.00206607444907946 0.01149561448138147 -0.006795164681189974 
0.001041352137393404 0.001869911218680402 0.003020452662634362 0.0001732566948781407 
-0.001614009410645014 -0.01048950243582789 0.01219344728421969 -0.005430439959525818 
0.00141082709772392 0.0002085891144514715 0.003912496447571068 -0.003911732721448514 
-0.0001790140900110949 -0.001716802255911491 0.007534934486219175 -0.005243821888504595 
-0.00111427925246874 -0.006078653039925811 0.008617529842055173 0.0003039571907088964 
-0.005700182936208685 -0.01094881696409793 0.0149766717961849 0.003740519178267567 
0.0009083509592525156 -0.008882255694745021 0.0008185877304044849 -0.00480267066820159 
0.001974908264608163 -0.002185887004765102 -0.005832746639841297 0.001473130840818548 
-0.004245085961632347 -0.007499660448904807 0.00480699164920776 0.01145140617372413 
-0.0007606560030772149 -0.002251587849306709 0.0187332235123962 -0.01267050961602476 
0.001822654830590809 -0.0028664745535959 0.01510934654547933 -0.0003487091736214764 
-0.003674137756683285 -0.0002881575040924332 -0.001441517746151049 -0.006281825838671501 
0.00086336088358618 -0.002906467965533544 0.01150766608762195 0.004177126111868434 
0.004445625835624601 -0.001418218506990795 0.000107101245819817 0.0002373760357763819 
-0.002009533971950618 -0.002611514885756848 0.01218666743877542 -0.005667111449620792 
-0.002419563778951014 -0.006311638953175598 0.002266580832501703 0.01488671767004988 
-0.003509247098433573 -0.008806952621373735 -0.002999833919795197 0.0090757885129238 
-0.003316648745612838 -0.01015879451879289 0.003669778164752757 0.005504725108745431 
-0.004259410615485032 0.0003710707879805542 0.001874902678380982 -0.0008924579725437184 
-0.003201082131408878 -0.005725727275698054 0.01411081512318229 0.004455005613652773 
-0.0009242875513472491 0.001512521180565627 -0.00108964904099422 -0.0004969345687649984 
-0.001318568148891822 -0.002003280317568904 -0.004838046023647831 0.01180487304863344 
-0.001210878515922433 0.0009128007982112204 0.007496502540280305 0.001597884439838693 
-0.003218936935926715 0.003380393062879955 0.003450157915669455 -0.01084232997578219 
-0.0006276530350770329 0.008795257407649599 -0.006875709476615167 0.004362720300810307 
-0.004797152998494431 0.0003535595520024121 0.007260177022758502 0.002974504826166897 
-0.001886191717915075 0.003234441313135335 -0.009854072335134788 0.002529680811120161 
-0.0002625715000313503 -0.0002003355057353293 -0.007001501948581703 0.000501015926712533 
-0.001937674935715159 -0.003305240302872521 0.003333372600985789 -0.006524592386561692 
-0.001106162120957113 0.003192350943849747 0.01245191230933598 -0.01029080788722606 
-0.005204988707476836 0.006438617041586285 -0.002527410530130795 0.002598730504458733 
0.001103174647145003 -0.001664954664926314 0.01046802099678265 -0.004602195353788525 
-0.0006007110608052952 0.002650485536197204 -0.008707968025752862 -0.006633662862949758 
-0.004399581890512415 -0.01059571107533302 0.00410517141871564 -0.00732144464920244 
-0.002700779022473739 0.0008597141720771884 -0.008074711380636888 0.002754516954314508 
0.0004741199984902156 0.005373041171815625 -0.01883277230916386 0.000691604543712468 
-0.003317860881803117 -0.004208033710394175 0.008402852464830473 -0.0003573084515493772 
-0.004150186347319595 0.009623722319064028 0.01341583999360025 -0.0111299465755782 
-0.001050161298859319 0.008136627451927511 0.01207483283061302 -0.004807646532237573 
-0.001247357689298333 0.004826421546334583 0.003917043911963059 -0.001108682856911255 
-0.001921217493716776 -0.006571152785606052 0.02014437899078991 0.002969523554288841 
0.0007043499857347874 -0.0007153561973754391 0.005028236313779286 0.007486342214484316 
-0.000324227738633552 0.0009456063251702872 0.01160571892200816 0.001099225903091688 
0.0008685051054949635 -0.008849933673422201 0.01542580521633607 0.002381568766191356 
0.00338564857511113 -0.0009352495534550513 -0.004003350148763161 0.001893497817561566 
-0.005980054261777471 -0.01127855369914561 0.02585650337215521 0.001192881980644617 
0.003489330897400773 0.001197096879802193 -0.01059739014485441 0.00609341811780617 
-0.001597331024289469 -0.007203774529715164 0.01234564932714823 0.001880864742940038 
-0.001931437981932815 0.004992118091695978 -0.0200532276054775 0.000298144001985377 
-0.0003249347589434829 0.00557532135296936 -0.01017377073531094 -0.002446084080188657 
-0.00348314323238977 -0.0009891058402242659 0.002021678385659943 0.001969998456401193 
-0.00571836439580419 -0.005301738179065877 0.005996575491257986 0.00376888201802612 
-0.004946557179309283 -0.002064040319397102 0.005727277851452344 0.00026401467498658 
-0.003013027823916396 0.003610199305472012 -0.001944011074030904 0.001281793805911167 
-0.003262014107458977 0.0001248544074285337 0.002194125005743096 0.0002038953933246782 
0.00105355549757997 -0.001525048287195895 0.001428238310222963 0.0008154703101331855 
-0.003633482951005765 -0.01194634285425831 0.005090121547929665 0.006326510963891992 
-0.001082474736180532 0.0004390620808435891 -0.01430528931405113 0.005450932032907889 
-0.0007683907379823545 0.0009062675588094897 -0.01014782748885025 0.0006975397635704086 
-0.001783298832373239 0.002458012082866017 -0.003584812503127932 0.001156628192504425 
-0.0006937202829101757 -5.085850910430427e-05 0.006303475590390514 -0.002597574223660766 
-0.008073621210890357 -0.01159365898102167 0.03219737855551286 -0.05081805034832525 
0.0001775777656435056 -0.002113022582456069 -0.008397291316440576 0.004447756306411986 
-0.003182852719960728 0.004237783388256666 -0.00402117975561382 -0.005528657977853218 
-0.002115024877262176 -0.009509506022583544 0.002674313106384604 0.002817246150954928 
0.0002291291776677229 0.00423739219916062 -0.009453708056787316 -0.0001240410960790186 
-0.00299447491069415 -0.009973533264035016 0.0006176900665778239 0.007423536648265751 
-0.00122554769725984 0.01193510174407816 -0.01160002824940374 0.003264018625892021 
-0.0001181450149651259 0.0004123921565226954 -0.007757643331275137 0.003533283444179913 
-0.0009764906010540491 0.003837611043868177 -0.002651088673974163 -0.003909901048374809 
-0.002100260709775921 0.01076185875259561 -0.01861727354996377 0.001524655062186742 
0.004125208432841507 0.0006818457458032468 -0.007279297316855325 -0.005834747571219105 
-0.001897793654570002 -0.01261312274831598 0.01697267722317697 8.670387539845706e-05 
0.0002669742171453976 0.004623229774440744 -0.007116162455968545 -0.005748007113794587 
-0.004211970830519435 -8.026717257843507e-05 -0.001871483036588017 0.004753546573089176 
-0.003963257642352776 -0.003286984195612453 0.005442629211163136 -0.001773597602735987 
0.002578610526310042 -0.0123064573909524 0.00158524230062553 0.003788330725233888 
-0.0005661201985031027 -0.006164935217684715 0.001876171378790066 0.009288474418921501 
-0.0001228514417209957 0.006437229187210743 0.002926375594111664 0.01032409517260114 
-0.001444697531847545 -0.003968599236791198 -0.008380907544003672 0.002896434276673914 
-0.0003449001606584093 -0.004676978362725234 0.00327376006552205 0.008204389091937976 
-0.004175683362136212 -0.006767959689917349 0.006126582108430635 -0.001865162455916539 
0.001203524341161449 0.003669609547941903 -0.002050320930235914 -0.004183813695785983 
-0.008757985725092499 0.005189902439054344 0.005743332907817889 0.00261987805068909 
0.0007325564838607282 -0.003513052376888781 0.008820038502669495 0.001406786232245062 
-0.001262741469092552 -0.001679324915827213 -0.001067936061463666 0.002842700926901297 
-0.00405769108588367 0.004289141003645777 -0.005677337005595882 0.0006318990331033882 
-0.002135612363387486 -0.01874048846107718 0.01102787690083584 0.0159635811885676 
-0.002660885694956955 0.005060725836168896 0.004621425435336981 -0.01044408828838474 
-0.0007323800740478963 0.006560745830115506 0.003543514404152352 -0.001747557955543607 
-0.002642928190492223 -4.353144950282668e-05 -0.01345067553946849 0.002879262819194421 
-0.0004764466931733073 -0.003639362097048824 0.00487428059384458 -0.0003775741627248239 
0.0005837698843677996 -0.01472465196228643 0.007570480448820157 -0.005589943685983051 
-0.005787327554233584 -0.001195728235528997 0.004990291459093104 -0.01002610755393132 
0.0002969543295091255 -0.001031844532347808 0.005591030914897899 -0.003395431255591852 
-0.005258332485551879 -0.01159609497754207 0.03366548817308717 -0.01238924198488585 
0.002138898594558255 -0.006215049965082428 0.004644746595020331 0.00239473938657711 
-0.002305192037370931 -0.007642615528467756 0.01373306917942076 -0.007922366323672608 
-0.001698724837356299 0.001552665459302837 0.003154974568216952 -0.002370697940642358 
-0.0006053360641397436 -0.0109902915107316 0.01661845289019392 -0.002693568029193337 
-0.004213246843700911 -0.003883474948675797 0.01220154379929778 -0.00315492898433181 
-0.0007619608481821985 -0.002528518436028968 -0.002976739327055043 0.00761950497925139 
-0.001125364868000545 -0.001924609484322137 0.009155193449051172 -0.006515419294877138 
-0.00205107129500786 0.003470347151558429 -0.001056630162607766 -0.001560911360268769 
-0.002461532971512003 0.004020298872455591 -0.004800046401317894 -0.004609865228366486 
-0.001081451846447782 -0.01450169995340738 0.009934444078006708 0.002895996178495156 
0.001629881694267611 -0.02110999979761133 0.01522629745387978 -0.0007469794943826266 
0.0007530339072711285 -0.0003329489207801921 0.009012742207226816 -0.003878167774912299 
0.0004780406067002184 0.001515898417421366 0.00167754712384975 -0.001880788785725706 
0.002440534937800183 0.001010795058865737 -0.002648497060204616 0.0009255484943739185 
-0.0003813457169539575 -0.001002126110569219 0.01184645424223725 -0.0005847858368057033 
0.001615279711358531 -0.001411858281140154 0.003061571003665984 -0.003354371997699021 
-0.0002036660034431544 0.007655589000526319 0.004083148176452558 0.008600613663960125 
7.472706787820446e-05 -0.008852530353155703 0.008815651172424631 -0.009479106205715272 
-0.003891871748806852 -0.002903807989739552 0.004694023401550773 -0.003950035686001423 
-0.001174737748002113 0.006336780996436571 0.0002515050016147819 0.002071097489108756 
-0.002691372889791252 0.001799897866120286 -0.01042480028830138 0.005692489959216543 
-0.002669087120652019 -0.007425853113304529 0.01507186701464048 0.007656264663227154 
0.0006075105782754551 0.006390430638478948 -0.005426047747290307 -0.002157434723644977 
9.095746199146198e-05 -0.01732843709925824 0.00612602086494631 -0.002862618269077073 
0.001277636516454258 -0.003824401047363988 -0.01150323059061807 -0.001417725563387373 
-0.003807611314278115 -0.003269542353188257 0.01373932447387705 -0.001762088935210877 
-0.001510540362487328 -0.01173998850839306 0.01581059710533535 0.003394869163238553 
-0.00210762843655702 -0.002250656259275494 0.007622951576228597 -0.0004384833026401343 
0.001151309807615014 -0.002483428700032058 0.003856663000968748 -0.002111043916372207 
-0.006588085425867976 -0.002962786540862309 0.01159112475418351 -0.005672294716436301 
0.001070257367013036 -0.008317479978814478 0.008141367771548646 -0.002777001386161068 
-0.004120513902191513 -0.006898490478288608 0.01119818262271721 -0.004999712768078333 
-0.001630833894970973 -0.001315370427082206 0.008085184152153478 -0.003483439882075575 
-0.003549663353126511 0.001016902378599408 0.004965802799483092 0.005788922166374531 
-0.0002483103864707956 0.007523851052217876 -0.004418983036300976 -0.008137359243168329 
0.002686646123490094 0.002054882577507421 0.001035993994732292 0.001116282529490202 
-0.001925574047249551 -0.001119785489568353 0.01126227508615575 -0.0112129610139315 
-0.0003702533951819157 0.002922298786836566 -0.005392683326288513 0.001981503362223392 
-0.0003179950997527722 -0.002244053533228498 0.02531343002438022 -0.00431597071185622 
0.002595636066202476 -0.0160532824057735 0.003999414056502463 -8.332663565269177e-06 
-0.00443542147115339 -0.001000581008063549 0.008802621154182049 0.002360711008777663 
-0.002773188971600307 0.008298919667275582 -0.01340680808137694 -0.0005672315187855757 
-0.004576523976590001 0.002581230748044742 -0.00528378514357829 -0.006237364982597704 
-0.0002904385079925675 -0.01155593135431319 0.01566844481186208 0.000327048528636475 
0.003099201932302294 -0.0193545823046273 0.01161599198346449 -0.005936606656328064 
-0.0006498730593582463 -0.00168032188728621 0.006120895208099604 -0.001809722003928169 
-0.003219040806745689 -0.004076891433009692 0.002901055087143636 -0.004425253704140074 
-0.003721976299684013 0.0004397218031509863 -7.836100562066142e-05 0.0020847100555999 
-0.003531119166301929 0.002828482166379883 0.005050429525880632 -0.005109065192620268 
0.001318503395067884 0.001966670520339818 0.005420098327933378 -0.00212592880277403 
-0.003340823512715253 0.002506914696521649 0.01390038032384487 -0.01078626199111298 
-0.0005306184779837281 0.004617112109248348 -0.003336046569661673 0.002284793000496538 
0.001454117758664486 -0.003387222570882814 0.009985737628115892 -0.004430237740591438 
0.0001676343177506751 0.002666971712688695 -0.001605278427644641 -0.00354524148648827 
-9.507089514494209e-05 -0.00443951030874766 0.007191983882699971 -0.00332358956532461 
-0.0001715205534728029 -0.002104080673824924 0.003286369558203219 0.004883104526128621 
-0.004731908138013546 -0.0007100791528449273 0.005613949579411198 -0.0001646681276563001 
-0.003801185525696136 7.381264034947027e-05 0.009138594179177104 -0.00744965484126372 
-0.001161287616234926 -0.005007020741425893 0.005384661257544276 -0.003706307712776391 
-0.001176874878942887 -0.006967567278818844 0.005916210424840906 -0.002365619172714919 
-0.001807324617974972 -0.005602347693089386 0.04500811933520142 -0.035212036055289 
-0.001973687260899762 -0.004304161223171928 0.009147516657083118 -0.001982003192382937 
-0.002551208255253267 -0.005010107723576086 0.01167067020455739 -0.002841999424477079 
0.001244319936929447 -0.0008000338834114927 -0.007973080220620262 0.002508023925884549 
0.001000072403442214 -0.007506763617748257 0.003272709495598525 -0.004310464801245565 
-0.002558440943058696 -0.00173965806554594 0.005521478419118896 0.0003957550587445597 
-0.000304841114898265 -0.001060026362042832 0.00641555966943777 -0.0005230244841987754 
0.002690019844519053 -0.009844989036276055 0.001401131543121635 0.001081205408691905 
7.224715243123316e-05 -0.00238263895641503 0.00798177375848398 -0.00267581721212446 
0.002009618429335299 -0.003557078519375729 0.01648186989421067 -0.004065394136583417 
0.0004075175794207539 -0.003571390597504872 0.003461355082981682 0.0004095836503802925 
0.003398631305572831 -0.004890010692959755 0.001862103540497183 -0.0005154677870057494 
-0.003682181835479947 0.009890725536110151 0.007414904714026662 -0.001192324051950601 
0.001928570984691614 0.004418721245015535 -0.006121600791352638 0.0008436380050421435 
-0.003049379369267155 -0.007137038308614737 0.001352606515853968 0.001745328644732726 
-0.003487113819374134 -0.002985100491797367 0.01109216083479102 0.007059603897254259 
-0.006778176381724396 -0.008163216586342451 0.01334418548609576 -0.0004181175130563531 
0.001928570984691614 0.004418721245015535 -0.006121600791352638 0.0008436380050421435 
-4.809180620114666e-05 -0.003602133983096452 0.004512420593706791 0.003534258992471246 
-0.002088589996522477 -0.002405469337456367 0.01053876458857007 -0.001123977178502833 
-0.001639093077924436 0.001425950710707615 0.02215045707390744 -0.01728876081792385 
-0.003635850544872143 0.00129166175323028 0.01566686801409014 -0.005581886631920082 
0.001136809175063029 -0.002740999193446869 0.001993739126898354 0.004517018934226195 
-0.003625792018840201 -0.008625306756066643 0.009939952306190443 0.004881821973602501 
-0.003907106668526221 -0.007960159889717048 -0.008450953204707241 0.009651357807659983 
-0.003321866336148984 0.0007255224095842754 -0.004193115905666573 0.01134021233133378 
-0.003905073538897605 -0.002751292287440562 -0.001053907092729072 0.00431275516681321 
0.004739882941269203 -0.009076476203517257 -0.01338105885495338 0.002707499356898355 
-0.001054353724624273 -0.004771682594262245 0.003602998320054554 0.0001289231122345905 
0.001259182134256674 0.0009585161398510205 -0.005001109371402125 0.002352298806262764 
-0.0002022534127906245 0.007464025000055891 -0.002767267454860306 0.003034002386782824 
0.001594148184136579 0.0005045747177728157 0.004050187228610052 0.001113476070097256 
-0.003963990237143833 -0.003755385454788334 -0.003732543384697787 0.007431829131855026 
0.001105338777564538 -0.002267501070016809 0.008277541514332735 -0.0002741804512842554 
0.001714884971283931 -0.002666976254193586 0.0166544306384491 -0.003328586714470564 
0.001660794689082278 0.003712770159039782 -0.004226800633006468 0.009650733181735739 
-0.003707538763035396 -0.005930043308690376 -0.007945146438848721 0.01688639378934987 
-0.0006425007722522137 -0.005453893551106596 -0.005227563695926164 0.01723768371597183 
0.0007250736886712869 -0.003020322944315666 -0.01090173619325251 0.003499531701166411 
-0.007806644722658821 0.001568955788482605 -0.004154835574172152 -0.0009925849883922306 
-0.004009808568837778 -0.007437944499120488 -0.004335905569404285 0.009407624040683482 
-0.003197326179976474 -0.000982266925960634 0.001454860247275517 0.005126049167910501 
-0.001272444785257617 0.01417274385883823 0.000920724518451306 0.004957955849994003 
-0.001755145567730629 0.01180487203064514 0.004173312281923728 -0.0003783552139963831 
-0.001101869531630817 0.003977052218518269 -0.007929179960422642 0.01112576616817601 
-0.003882796151642629 -0.009175916128470641 0.001966564698310347 -0.006832590854787045 
-0.0007926376457218432 -0.003039509986957654 -0.001293141542515627 -0.002462417655004284 
-0.00230296568948072 -0.005661438001610123 0.002195302770168862 -0.008279822810131381 
-0.004442552702512933 -0.001957350486587744 -0.00293496783884535 -0.004887723007581196 
-0.002237015280699359 -0.0008832432975197092 -0.002721340722718814 0.005135939582783395 
-0.003691139892406931 -0.004122017609517995 0.005263270779673274 -0.002305877690422144 
-0.00509177092756955 0.002570549741284941 -0.001025582553925796 -0.007843215014293806 
0.002364493711945568 0.0001399841106042417 -0.003266046978439676 0.01690921961611894 
0.001116189122463702 -0.006863285953310165 -0.001708955326182059 0.002875900488318441 
-0.001310049878387257 -0.01109488611659496 -0.01162637701886695 -0.002043566371354724 
-0.0003647352402682078 -0.008203416345035741 0.006270128378802968 -0.003345554076740222 
0.003184899287594827 -0.006131864732554337 0.0165882986137158 -0.001762837051765765 
-0.002426264106239827 -0.00308623079345919 -0.007403774630884563 0.006507895207393527 
-0.002204748222869836 -0.004593196288026511 -0.008742640577098821 0.00218503825082874 
0.0001751649735553501 -0.002707336727491314 -0.002337949860080723 0.01209185190059178 
-0.0009085058123951416 0.004018070687663434 -0.02013158746789694 0.007888102471328406 
-0.00444506123988627 -0.0009703009011032735 -0.01682597220893126 0.009481987636240264 
-0.004078246763630776 -0.006723982878326503 0.01847417337030619 -0.0209595470972577 
-0.007368213994838546 -0.00642581720361863 -0.001359733663390498 -0.001636149317070917 
-0.004743544804764978 -0.005452314020993465 -0.000788156097294337 0.001277936501988755 
-0.005375468144932945 -0.006665884665827257 0.0200188049473263 -0.003339801304241392 
-0.002145220312405246 -0.002606874063877733 -0.002558683707250866 0.006122840023323356 
-0.004052144287996564 -0.006838521816768983 -0.00061917476919406 0.0008335684801618238 
-0.005711288816410072 -0.001035769979622405 0.009030233511181545 -0.0008707499123838149 
0.001540638814670298 5.902313809743297e-05 -0.0005979884070803663 -0.003748089480544326 
-0.001223026106779891 -0.004547186572740113 0.003599945062200799 -0.003264901822824986 
0.0011568880294943 0.000251050428328297 -0.006037047211282486 0.00280052726993719 
-0.002082522957063022 -0.003707229371255996 0.007911230634322426 0.00457283897882061 
-0.001930543346126313 0.00533332974416514 0.007276626611987899 0.0003525101084721246 
-0.001560380592512105 0.005240683470037343 0.004197775871180438 -0.0006916871038530056 
-0.01334363480241076 -0.003324867020177701 0.009875402096523165 0.01003234540445879 
0.0002489215271474884 -0.00886593965330216 0.00902681291941613 0.003525840328294656 
0.002215164951884791 0.01013505979072451 -0.01502017618761632 0.00566153738989007 
0.001656014439254736 0.002239190150308345 -0.00556984423795623 0.01099655947168372 
0.001863917185907669 -0.005294033033187601 -0.003901408190121259 0.01518612309431076 
0.002501692625284684 -0.004972807257913453 0.001133947426152884 0.00447425136443338 
-0.003520373051940449 -0.01181066194958545 0.01119877704713148 0.01127070139122738 
0.0004879011784997052 -0.009382743934214054 0.004364621312691525 0.005619010639599372 
0.001355622004269348 -0.0005268819632010443 -0.01374550084332075 0.02928637250948534 
-0.002126679027346601 0.01079287887894854 -0.01183122872072513 0.009197545530276784 
-0.005572850932013385 -0.006717526725432471 -0.0008924207635017143 -0.005961953427643252 
-0.001166074640951737 0.001168754151701047 -0.0009647132830434672 -0.008114097073707893 
-0.008341979951510451 -0.009924841264532637 0.001296303476487809 0.00788326025424793 
-0.002285985002354979 -0.005430994999252356 0.006746496084060652 -0.008916452459285894 
-0.005435089124823328 -0.007847091964751887 0.006171455035612081 -0.0002394835078196912 
-0.004017785894309114 0.001889163465687679 -0.01607694650495288 0.009072504823840427 
-0.002066516044553036 -0.00907561291664302 -0.006006288018917419 0.007539521351568249 
-0.003095061104616732 -0.006166340264168768 -0.02175551627776752 0.0135417311468323 
-0.001036861511715943 -0.00174847144001417 0.01053450687253518 -0.001814729010842327 
-0.0009132481584957453 0.01070004721246194 0.008406996211339149 0.002183270750927378 
-0.004402838913212523 -0.006112023458083418 0.005913976878128111 0.0005555919946674793 
-0.001141549569471531 0.009395282902904891 -0.003727845337011827 -0.003768989502743671 
-0.002408294269529798 -0.004705743700197314 0.009008858161249706 0.00763298177474105 
-0.005960066347729761 -0.001269600880065849 0.002253917877322126 -0.002045917324118086 
0.004474028993541599 0.006237367028882425 -0.006852443778504033 -0.002081369062383894 
0.008063719571882491 0.0008641153666789959 0.003537974118918407 0.001538979212644912 
-0.004093842182716765 -0.003716690763691181 0.006336153753927916 0.003035127260483223 
0.0002868003779675455 0.00199675023770465 0.002956376292372078 0.00235489021087452 
-0.0007315437138531837 -0.0004925153814790778 -0.005672022342971891 0.0007209330737178428 
-0.005410826300418612 -0.01733315826155007 0.002409382700828865 0.007742314863747829 
-0.008582311758959229 -0.009089151106311996 0.005244257117030841 0.007373725635431187 
-0.002731684373530701 -0.01249335441927949 -0.0008367787887217052 0.007485505678178172 
-0.001604994639120758 0.001451907192608747 -0.004397340569198496 0.001799795082097278 
0.00061295499241282 0.005193737264397447 -0.004463006544173339 0.004282542267568992 
-0.003175867285510873 -0.009525429289348035 -0.006810814189811799 0.01003867966247761 
0.0003317352970594747 -0.0004500197552792504 -0.03124846404973183 0.004500989310030639 
-0.00256024839282854 -0.004108044095184316 0.003603034488999523 0.01458254771945736 
-0.0006671691319508938 -0.005565911151639125 0.00618670731115925 -0.002041323111028318 
-0.003937887102038396 -0.002254698983886993 -0.006070316538036091 -0.004605937739503553 
-0.0002409123406640456 0.001735359814325374 0.02309344294799957 -0.01052258360401637 
-0.001649435452775344 -0.005438930771256936 0.001972158619797779 0.00886530827097678 
-0.0008255822038245511 -0.01419836490036663 -0.00528152349310886 0.001993950785425096 
0.0007256657020278289 -0.01004772321732035 -0.004154020039533188 0.00931464887587437 
-0.001814294557271556 -0.004179074994277069 0.004714050198951712 0.006628681276433908 
-0.00111340888949221 -0.01021651192551213 0.001464886440360796 0.004249455338534902 
0.001786179326616633 0.004351718245736593 -0.004112720060492809 0.00807064792892926 
-0.003075182894222462 -0.003230097325817729 -0.002286117860357526 -0.001516456545505417 
-0.004147269841443512 -0.003103045613602141 -0.007665751012017476 0.01601276852696043 
-0.002297370949754753 -0.006938226703915925 0.02441889266913829 -0.007742008326437764 
-0.003987445556936139 -0.006972757299611007 -0.000915357060783803 0.004464866994833295 
-0.0008454642905244607 0.002228832481275631 0.004354401817896703 -0.003152723389189903 
-0.002091357050374683 -0.007774713140721271 0.006668890275208049 -0.005376386519865516 
-0.002186747237253238 -0.003638050063974324 0.008109568535611724 -0.005128521528902906 
-0.004227427767476143 -0.003869265477502212 -0.00377644541006068 -0.0008084611692161993 
-0.0004109724228218222 -0.002695768897169332 0.002771443277701089 0.003706274507488871 
-0.006310045052222608 -0.009350673535063195 0.006952400875728167 -0.007350008529717145 
-2.83109685522802e-05 -0.0002218613258820671 -0.01491939707500954 0.005000860154554775 
-0.005769889885523591 -0.01081360404057123 0.01982848698112446 -0.01503194544167531 
-0.005903155158986839 0.006939805317387577 -0.008503962171798943 -0.008460900113142829 
-0.002075576806556835 -0.000127565205527583 -0.004693217721635942 0.01486848835592433 
-0.001841291513330476 0.0131072963807799 -0.02303379600664519 0.006200009280003203 
-0.003883846147723669 -0.002186625016314188 -0.002356027530149832 0.002983961676696306 
-0.004458922457162344 -0.005296657288458889 -0.01127378352342479 0.01157394667331685 
-0.002638796500188843 0.005712530535837843 0.01218263448596636 -0.004479305533896272 
-0.006150331592615668 -0.004809026535984937 0.003724771122102683 0.004918236930621558 
-0.001764555553064681 -0.0004700010482236502 -0.014065340690735 0.006259621173429944 
-0.002186724446735162 -0.02383569373867821 0.008700787322705102 -0.005248084325439377 
-0.0005391674474177797 0.002526042569056161 -0.00314906366158434 -0.004727031122123008 
-0.0009904249758521501 0.0004430744485937182 0.005768139722394204 0.004635690642779937 
-0.004768116954134827 -0.01172251225857336 -0.005222258133506693 0.000780943267077272 
-0.004256207419584017 0.01080766776473138 -0.003989246085637719 0.001843774287317009 
-0.001768779175011162 -0.004023448949736513 0.002003660310468701 -0.001784855114499389 
0.001422201661983418 -0.005273822648457424 0.001059756807259927 0.009831854666245528 
-0.003347883109206944 -0.014070072747352 0.01416807813107642 -0.0001011107115770642 
-0.0009694382639226319 0.003497606228353663 0.0008492311201279785 0.005006045616703701 
-0.001609151278574167 -0.001501801868454896 -0.001656485116193489 0.008553151332558927 
0.002864099430602632 0.008108856787166099 0.003129014298212175 0.00160556387282627 
0.007115218720450268 -0.00618063744112096 0.001419311704166607 -0.003496758000405336 
0.001875883700641684 -0.000676994783668467 -0.002888358601595729 0.002293858357550216 
-0.0007315908082962528 -0.00100978145681817 0.0187904985628973 0.004256072850273641 
-0.001569151481799985 -0.001247832823310191 0.00206830319102975 0.001565765054818866 
-0.004034523094585 0.01612259257400483 -0.009457459343780276 0.01048487290668532 
-0.002165659694826919 0.002930195715381777 0.009775310615279028 -0.009163475117117969 
-0.001087001007147237 0.004890192010454403 -0.007539737793498005 0.007127276330861942 
-0.0001708954501184565 -0.004272041788390829 0.002396580841775469 -0.002146230873747993 
-0.0005158341768463519 0.005138368463703392 0.00482038391040949 -0.007815164110238084 
-0.002933098828797313 0.005340970637288229 -0.005526796307520136 0.003561623614106752 
-0.006447642286523379 -0.003593942033409958 0.004186291338538553 0.008188966620717407 
0.0006736459268879982 0.00252028899143755 -0.004824943458324059 -0.002399783826093508 
-0.002259901188727974 -0.00176363083220118 0.007723491085663481 -0.004481570339510318 
-0.003319828685945113 -0.001524259542150055 0.00158784357059721 0.01269409864894912 
-0.002820789347674128 -0.0001850656681138597 0.001195068122605599 -0.00278459986300314 
-0.001888425597636385 -0.001767445768188745 0.001550018745753604 0.001099738386850849 
-0.002769975460008946 -0.003260423833060525 0.001378563419709772 -0.0008304546805951668 
-0.005435046076582176 -0.004099597420607296 0.01426856991383537 -0.008403900721827541 
-0.0008896978087912551 0.002682771606697219 -0.002656246817553477 -0.008878644605544887 
-0.001792253660759116 -0.01462789310216557 0.01470669659559893 0.003192637809500442 
-0.001736631900779194 -0.001746636373941529 -0.00928025882773257 0.006104638384041837 
-0.000741769181837115 -0.003603982608712223 0.005526684694792083 0.009782478491150482 
-0.0004253792400436583 0.0006005122809366001 -0.006346778271448742 0.004851654600480692 
-0.002476992352637256 -0.001766367646414413 0.004112749171009772 0.002469188688127185 
-0.004004045847902363 -0.00279733295820744 -0.012164253659534 -0.001964444566585145 
0.003182241354369598 -0.0002164953993391468 0.007596465876710941 -0.01414383062993163 
-0.001773484598795281 0.001871260373952258 0.01180144988573388 -0.003540507685749199 
-0.004245631830550165 -0.006876125737406033 0.0009645857564009335 0.006209325204086922 
-0.002529829039052617 0.001359784948947372 0.002484312225105263 0.003333918842464939 
0.0001596994034916558 0.0005824454283774445 0.003364778787396206 -0.00296434912042625 
-0.003905311949909458 0.008499001853902661 -0.01308204870348773 0.02693494437832582 
-0.001793189671514949 -0.002823299759007788 0.008694108021109547 0.006630277703429025 
-0.001530498611917322 -0.006683818189366396 -0.007068626792234996 -0.001351834374388972 
-0.00088128901000146 -0.004022362949619356 -0.003452145557439202 0.006263018762109611 
-0.0006311236765956224 -0.002268730817681278 0.0001685437527730799 -0.004672470779958245 
-0.002337451407416848 0.0003425879152507225 -0.0009991562452995823 -0.001738206785015129 
-0.003791695524952689 -0.007939700434053122 -0.004231685124239101 -0.005488117249515063 
-0.006821499677021853 -0.004835479719050395 -0.005514102311980975 0.0002430300559126852 
-0.006311963526672522 -0.004582185572335 -0.004716606500556335 -0.001853021065107072 
-0.0001863325006330504 0.001539058549212589 -0.008189972018274545 0.001004535923183583 
-0.002826111931410545 -0.0026721241836748 -0.003802678217111329 -0.0008202794160384349 
-0.007219458541107733 -0.002622913787676604 -0.01131775008844079 0.01255078320492548 
-0.003981338551968109 -0.00236675854254429 -0.006420135611550924 -0.005168805607186244 
-0.00327707270880022 -0.001873619412880838 0.0001312865066944225 0.003092975134216522 
-0.0008705924750858385 -0.001779013885610517 -0.002581789308047149 0.0104958228937158 
-0.001997982587110906 -0.0009389530732775341 0.004561803876037073 0.001581666078293935 
-0.00584543159000931 0.002310974920428201 0.005567023341680479 0.001401923159429193 
-0.009070247167434877 -0.004081645721655851 0.004133765818823373 0.009303531346614149 
-0.001714711378668852 0.003772537528267112 0.007489546029008776 -0.00102272269804693 
-0.00187570145224841 -0.000978616451305395 -0.003084406285983866 0.01282741341508593 
-0.006085870978817129 -0.004003024812513119 0.003694164775101007 -0.00137320040302332 
-0.001189933813192485 -0.004051918708081102 0.004288672890850546 0.00929339884120596 
0.001267961424009959 -0.00480850917571815 0.0003850648764588213 0.005876759647547492 
-0.005081193385916554 -0.003405029094621489 -0.003189976289108947 0.005981466647937356 
-0.003626661179885491 -0.004001813656422112 -0.009711880393429845 0.0005664247893016948 
-0.002516632435252276 -0.002519947077083868 0.006807001773998919 0.006976996093861369 
-0.0008398100865955349 -0.006221673636815685 -0.0004685043408736234 0.00643778250646117 
-0.002398786220553341 0.002042831416221134 -0.003875973006587641 -0.000530440020306899 
-0.00482165220206458 -0.001901795491268109 -0.002691295636234901 0.005599921915877383 
-0.0004388773759459092 0.003854681333018873 -0.006633050579568584 0.006500503253846931 
-0.006106591786041345 0.0001809679547326086 0.009736214009977236 -0.002585483861280736 
-0.003217866136903505 -5.87100629543965e-05 -0.005578883260164598 0.006793576032023206 
-0.0015734252095153 0.004853780336898012 -0.01203869319774169 0.005778062432243257 
0.001552305324098491 0.003262592759185751 -0.002526683343229297 0.01282777631709724 
-0.002972552049718779 -0.01086722075900253 -0.009423600979244337 0.002573357761599062 
-0.00104128565512988 -0.007469942926765841 -0.009438897841055931 0.01016267302421133 
-0.002649478231412569 -0.005083911105262976 -0.01012481409646124 0.01060557764529831 
0.0009374290986509205 0.002643935181227643 -0.00446204946111177 0.003443152814293227 
2.265907813381788e-05 0.0004846923077269827 -0.0007627818208173383 -0.006465463307666156 
-0.001881878089673376 0.001207168060233485 -0.005052265407751826 -0.002175069792330652 
-0.001012004119900519 -0.004114360910289147 -0.008298550213846158 0.004029505989911059 
0.003383150834310754 0.004798810755288487 -0.009773799137453706 -0.00313855832014202 
-0.006141457807257423 0.001615934823357779 0.0008568373782492126 0.01599123428680143 
-0.003266951113355301 -0.002307399316976008 0.008011404492283825 -0.008040089811922887 
-0.002377677736330466 -0.002951695662039564 0.007961391141839221 0.00135629253193107 
-0.003065458422266197 -0.0058715690591646 -0.004912173693072747 0.005539695675734385 
-0.0006662226871646299 0.01057287616094251 0.002059021107862945 -0.00215911285477977 
-0.000519952383924033 -0.001812142345485789 -0.002670363064610889 0.008642881687891627 
0.002461316237683614 0.001243613504030414 7.226219876222396e-05 0.0006993093980722612 
-0.002640716172682487 -0.001994395375286631 0.001101048613284743 0.0009583799599912236 
0.002694536676857957 0.0007880609416842755 0.0001062057535013559 0.004879503147132595 
0.005613049845973892 0.007827123943430893 -0.01522040698658803 0.006150706000183938 
0.0002902583192203102 0.01132529992491774 0.003131158803356518 -0.003286339642562331 
0.004479604135486709 -0.008717906600256869 0.01224021236291092 -0.01438355150962779 
0.0007856891865177829 0.01931880971238526 -0.0175557030088534 0.008105001952251851 
0.002239447579178165 0.004199561414440626 0.004460405284360426 0.008727950400298449 
-0.001865537730353332 0.0002747274849878156 0.001761045344961969 -0.0003425478790637576 
0.001722532345356429 -0.001053127942685912 0.0022723902581798 -0.0003062575121272274 
-0.0017426726844418 -0.002461592022722758 0.004557804404626886 -0.001234180063466601 
-0.0007106398963712974 -0.003117813204396823 0.0009330470238722749 0.001488890405322115 
0.002115019052940512 0.005009920772767104 0.004847057293219004 0.008013160276999278 
-0.006198858350398697 -0.00532260511754926 -0.02124139194319511 0.0126754638175531 
-0.005605216704955747 0.0003530045491368513 -0.000697109673402694 -8.218770781639093e-05 
-0.006252628498435034 -0.01706998835225526 -0.008306209585989124 0.008821970467693832 
-0.004075780872166574 -0.004048965068738909 0.002368090928964183 0.005201480772835521 
-0.0003134686671092993 0.001434898216721665 -0.0004153928370582557 0.008623890644212335 
-0.002926186483587224 -0.01129190859179141 0.03275527913748678 -0.002240452647832658 
-0.005241015165103299 -0.001318536393637339 0.00524650383670366 -0.000740093650497544 
-0.005403600803418194 -0.01008179522955101 0.001140146645233439 0.0001210470630716261 
-0.0003378128603986865 -0.0004867085298526403 -0.001977360145778821 -0.002586233498530798 
