solver_type L2R_L2LOSS_SVC_DUAL
nr_class 5
label 1 2 3 4 5
nr_feature 225
bias 1
w
0.5020220790397431 0.07205069854226712 -0.02273563508628606 -0.3031480101266463 -0.2414962549318957 
0.3579407520123953 0.2590239559948914 0.002977079742400095 -0.4552139692388628 -0.168521504804972 
0.09790672677344851 -0.1406516626276979 -0.2344830202065849 0.4468792123017684 -0.1792231440553469 
0.6113389559765122 -0.01043851642059492 -0.001742528230345311 -0.4557986743875461 -0.1634275198482985 
0.4073740363083216 0.1245135878335041 0.05946562570966298 -0.4221126210223834 -0.1501777777448746 
-0.4764632757227067 0.008449174000929885 -0.2598666177865964 0.6757131034293659 -0.2041700814050494 
-0.6921126399808539 0.1615004976162404 -0.2255884871808334 0.6227413081590956 -0.2033064485240257 
1.609299232124249 -0.138720367830039 -0.4540396843064836 -0.6710323096698549 -0.1287063164049191 
1.535214440454026 0.06576069078218923 -0.5492537524301108 -0.645621891947574 -0.2445954548675694 
1.122639448035957 -0.05032980081156564 -0.9344191031645747 0.1131483429033885 0.09693267332730193 
0.9727357828555699 -0.2939299771790982 -0.686184973965442 -0.1073568177856965 0.04878992595580391 
1.641982843567993 -0.049057561351204 -1.471081425834992 0.1319979480026801 -0.06536029860380453 
1.656944086425102 -0.01715991345259208 -1.145329676739533 -0.1822993295596319 -0.06533742304386667 
1.252331475752746 -0.4484081617947453 -0.9247387506599166 -0.2217298575571152 0.1917925125984461 
1.147080728671388 0.05580883949097835 -0.955912698682318 0.09834994185058554 0.0616610513052954 
1.327069880694774 -0.009574234695753098 -1.189181548631599 0.02739370265060164 0.09677841626175374 
1.684795161242908 0.08741409428620664 -1.59629700116629 0.210867856364073 -0.2320276919568761 
1.103765944927234 -0.1104804510444555 -0.6902793277394841 -0.2875618622085682 0.2445156702419174 
1.335182642134816 -0.2532152561297309 -0.7941247645165928 -0.006676511358215598 0.05045089591383205 
1.103451619070454 -0.4650423859027467 -0.8440916189552982 -0.0479163182669287 0.08947810147566715 
1.344483260455882 -0.09087840816107096 -0.4631063368007563 -0.07676235910947153 -0.01554482412185943 
0.03791946467166873 -0.07130850030646174 0.2959556130687878 -0.1686041000942659 0.04291624701789541 
1.131412911018677 0.006214836206430811 -0.42956324013433 0.05945955798785522 -0.2109849762000809 
1.081863247872967 -0.04235134747606236 -0.8244055915411584 -0.005630478363595879 -0.05831813034894655 
0.4528869487772935 -0.2258088557049577 -0.6240424132296584 -0.129863761928232 -0.03123928451565526 
2.107587008213324 -0.3021434136807772 -1.274504486474596 -0.2390805064317132 -0.08139410832758097 
1.526233809665256 0.04667793664450878 -0.4898810726920499 -0.5141995676505422 -0.05538042731492405 
0.436546520840698 -0.153490452142652 -0.2386769982853658 0.002952077145128879 -0.1016505922357528 
2.747375361527642 -0.2036147786047315 -0.2147106839824907 -1.866077559995323 -0.06050523369022833 
1.72467851966594 -0.0665540245098732 -0.01131197791741187 -0.4886095687745081 -0.3409716324016698 
1.816385865245844 -0.1829696748954008 -0.2835097821011188 -0.1618399467900275 -0.1989483869556986 
0.3345509870041618 -0.1168472032315683 -0.1319091458655993 -0.05103773870507001 -0.1340990935153975 
0.4177527044778906 -0.1468379311092113 -0.2544877988905451 0.01704662938794407 -0.1009682250064671 
0.4177527044778906 -0.1468379311092113 -0.2544877988905451 0.01704662938794407 -0.1009682250064671 
0.4177527044778906 -0.1468379311092113 -0.2544877988905451 0.01704662938794407 -0.1009682250064671 
0.4562620031703971 -0.1711066836677164 -0.2698959451001259 -0.01918765608964545 -0.06064915753705215 
1.096790524686686 -0.2354874324864014 0.01013892514015495 -0.2729249101142512 -0.299779616842974 
1.308108544694379 -0.5050108196767125 -0.03598455486460881 -0.2198669013198622 -0.3989165444362774 
1.438595813282531 -0.06478906969603952 -0.6700718934626186 -0.05267846573317821 -0.31113524278659 
0.5445694922602953 -0.06978789686475727 -0.06430927198264934 -0.1367647270545306 -0.122043914772557 
1.716744679509182 -0.01582873371755876 -0.7534864072552176 -0.04812798833703937 -0.3602493925313809 
0.988023036122086 -0.156530157867068 -0.3192923634191661 0.02767298635509914 -0.1005177038630917 
1.050485981716997 -0.1990310000946745 -0.3312731701252141 -0.05294288087163176 -0.09869927857623445 
1.782491061625903 -0.6128989434373536 -0.2109475245636228 -0.3060013601564378 -0.5389841737693325 
1.400761713470879 -0.1520319985955318 -0.2675102410098871 -0.4728980475019615 0.1749030066465976 
0.4016446538044162 0.1642292424516172 -0.6399029917090794 -0.0522735323547532 0.0454844767418568 
0.3249408650987247 0.4254748906290106 -0.6390675565128713 -0.2112574400453605 0.007245834733198232 
-0.4395067927521643 0.4377786398441391 0.134280960181057 -0.18935674536523 -0.11452553132152 
-0.2282788728049556 0.4139679273982554 -0.05437925414524044 -0.1998974301974591 -0.1212684278571454 
-0.2459712859612348 0.431270950665498 -0.02156831178384559 -0.2393380998612649 -0.1260082406070871 
0.02729353672655071 0.4215453470022507 -0.04668691679861701 -0.3341492551717433 -0.1686571900265825 
-0.0770453556462871 0.3069587496034425 -0.3473071237308661 0.05408216072376897 -0.1337644037501817 
0.03123068726042126 0.4944899504385527 -0.6120532444844969 0.0514155109265312 -0.2592198434793283 
-0.03985964997393728 0.3603173594435767 -0.3547260177791967 -0.01552579148166176 -0.3144002656100341 
-0.4814070370530621 0.4278264239512658 0.1309654696628118 -0.3522261058486567 -0.1680614838957361 
-0.01836207646885505 0.2484657144253382 0.05471200258251483 -0.01175847007846821 -0.4366459468706284 
-0.2752553585441917 0.328712493465621 0.1577051819179438 -0.1642184678322154 -0.2467694472093704 
0.1922148676233975 0.6357987997849548 -0.4036716225796689 -0.02338892171317223 -0.1303506863329945 
-0.1466489874609066 0.5928351619069442 -0.1129015497790346 -0.2411161040915124 -0.054863944323561 
-0.4985729037297505 0.3548779341666554 0.02253603878997365 0.06846316159647262 -0.1001641544755743 
-0.3441548746842513 0.3680248799387188 0.2250512165481329 0.05651876165770091 -0.421778128406588 
-0.05593789448669407 0.4074175498010157 -0.1419546971771224 -0.2264201538148936 -0.09172509335209814 
-0.4214119562594594 0.3175747830233325 0.09576092481156245 -0.1241802503149164 -0.2488864513007105 
-0.567015997651126 0.1068782062990851 0.2137088990946803 0.05388152545568911 -0.09755651596935606 
-0.4070803550624852 0.7556050337137322 0.1057668078785362 -0.05575654850207584 -0.6246312283366668 
-0.5253755618939605 0.4435120383933892 -0.1453177180732604 0.08161406398718402 -0.2209227714826438 
-0.2069356925974654 0.4192530748045347 0.2778473962404571 -0.1706459445563072 -0.3240209419673416 
-0.52960971006018 0.4799652394179941 -0.1487759384823489 0.04163985329013967 -0.5079673157690847 
-0.3982356655788754 1.418804648542554 0.04903581718473249 -0.1009664249041059 -0.4117646272641736 
-0.05626371860677681 1.528919476450086 0.1942367248877194 -0.4023070724291621 -0.9221998683353152 
-0.03338708929705814 0.4886615511563033 -0.1370769813058125 -0.02088134768689482 -0.4544954649806687 
-0.03338708929705814 0.4886615511563033 -0.1370769813058125 -0.02088134768689482 -0.4544954649806687 
-0.1636079204014754 0.808686464318654 0.01290498842269499 0.06688843227538456 -0.1807399303377725 
-0.1539386718433632 1.149140737074072 -0.3946369241247412 -0.2467368319156804 -0.3222726514190427 
-0.03338708929705814 0.4886615511563033 -0.1370769813058125 -0.02088134768689482 -0.4544954649806687 
-0.0203299070808872 -0.004895135639519581 -0.1221330381581193 0.02163969808622001 -0.02225660787662858 
-0.378272604563864 1.153003639936853 -0.3509750154642701 -0.07839177217459956 -0.3198540416081011 
-0.03465144670172077 0.7101019666510943 -0.4139931904410737 -0.2590051865934371 -0.1567338389076952 
-0.1761284495803121 0.5704769911608929 -0.02621964272489691 -0.2063933947686634 -0.2538336217995518 
0.3579407520123953 0.2590239559948914 0.002977079742400095 -0.4552139692388628 -0.168521504804972 
0.1271938045644114 0.9780985693188378 0.03581633369582344 -0.1932470322419697 -0.2898310346114466 
-0.3050125761304944 0.5409912583811295 0.02241919491808844 -0.1240694547909426 -0.259636170800176 
-0.2332335476984974 1.216694322598068 -0.2349051672915832 -0.1574794045366009 -0.4054870918431097 
-0.1142722397494249 0.877853482293233 -0.2277475295221974 -0.1545393414284289 -0.684059082172272 
-0.06562933635729967 0.3196519175800561 -0.1548466165736546 -0.1408557550669406 -0.08787255948614496 
-0.6921126399808539 0.1615004976162404 -0.2255884871808334 0.6227413081590956 -0.2033064485240257 
-0.341370865249003 1.155323676142665 -0.3921788559735557 -0.1228737126880242 -0.2374133395855868 
-0.006511123586913477 0.3325943193792411 -0.1656639265731238 -0.1899054166507865 -0.09872326469065243 
-0.1259740565251206 0.8884997750588943 -0.2304617321151926 -0.1732086687100596 -0.7058996955085308 
-0.3304195771478738 1.260995711335052 -0.2671915164731012 -0.2789676826726156 -0.5693079040462851 
0.4528869487772935 -0.2258088557049577 -0.6240424132296584 -0.129863761928232 -0.03123928451565526 
-0.8310537696981757 -0.5353783803125032 0.9004730232938447 0.4314937566750336 -0.01189921689890883 
-0.6094292026755689 -0.5273477458428382 0.3768291458506842 -0.1918147928564108 0.2338981946360118 
-0.9006885309993536 0.02936372635015445 0.5976296193439888 0.1291966114526473 -0.5153574099191858 
-0.3654725202643838 -0.2060778268001558 0.4343983343695175 -0.2150159154168381 -0.2401084201482078 
-0.1628334271377495 -0.2396690787900436 0.2247942350939689 -0.1476052968430114 -0.1830036421463243 
-0.1628334271377495 -0.2396690787900436 0.2247942350939689 -0.1476052968430114 -0.1830036421463243 
-0.1670185331980719 -0.2310760249799997 0.2665297211620142 -0.1113938743605431 -0.2330079208043535 
-0.1860019828592732 -0.2645093988235275 0.2164700003108651 -0.07497686300586344 -0.2293723546097035 
-0.5234054835782046 -0.03551569857965781 1.19285869771188 -0.5168837075487281 -0.1282111177592867 
-1.275341467062285 -0.1120028602754639 1.275676010764657 0.02760278197014935 0.01368379495392026 
-0.4386905711385077 -0.07609690027089369 0.3719114347657058 -0.5167349170415885 -0.1306531008663701 
-0.8640840162797832 0.2151597623385558 1.475460275377306 -0.0719440300993078 -0.2209284874446674 
-0.4386905711385077 -0.07609690027089369 0.3719114347657058 -0.5167349170415885 -0.1306531008663701 
-0.4386905711385077 -0.07609690027089369 0.3719114347657058 -0.5167349170415885 -0.1306531008663701 
-0.4386905711385077 -0.07609690027089369 0.3719114347657058 -0.5167349170415885 -0.1306531008663701 
-0.9545373516962553 -0.05993223165574637 0.8894444425952555 0.3351471629637841 -0.1479928567832817 
-0.4386905711385077 -0.07609690027089369 0.3719114347657058 -0.5167349170415885 -0.1306531008663701 
-0.04271565846261941 -0.007204937065723917 0.2759310013356397 -0.2172188340977696 0.0354828931247012 
0.03791946467166873 -0.07130850030646174 0.2959556130687878 -0.1686041000942659 0.04291624701789541 
-0.4692716746242496 0.05937355235291735 1.027089560396103 -0.2721430839303927 -0.2311848868619912 
-0.3218277972346861 -0.05714040999352769 -0.0153407535143844 0.3643286353341737 0.131477928284569 
-0.4283104221809895 -0.3135411645259786 0.8485134387317383 -0.06160423814926787 0.1218575258447375 
-0.2708936134659388 -0.08937258273173852 -0.03589481982013666 0.3446728439448185 0.1838230154762563 
-0.3180257925607756 -0.09662199988519822 0.537264748615812 -0.1831598620790393 -0.1032832351456831 
-1.743004513339279 0.1611120809175998 1.842344063892174 -0.1007933409376235 0.06285942847770708 
0.3488293844779926 0.0368768663086872 0.08704569348827955 -0.2849806476982362 -0.1889364055816421 
-1.07766800230481 -0.09708495550986898 1.418955848573638 -0.3649577672124031 0.04315312872346632 
-1.222822133017354 -0.104110032192735 1.982712824017502 -0.5394002754211032 0.0599273550881992 
-1.010195487357243 -0.02580281136532286 1.332406897287762 -0.4135779192996913 -0.06906017675792132 
-0.7723768176528796 0.2120730796563219 1.222540236416082 0.139325121471328 -0.300842928603 
-1.067131718191726 -0.1088675575997168 1.349701263417537 -0.1768776547485472 -0.007056931156562379 
-0.9887472919520724 -0.293488395803478 1.564594140116892 -0.2374873675895263 -0.4552043926118824 
-0.5967968199270222 -0.3156975926449244 0.8788892752476019 0.01032025629323226 0.1992716399666305 
-0.4866249711147689 -0.02081373564854472 1.126256582658376 -0.4786432816108301 -0.03306877574772658 
-0.2423038258140511 -0.4476938989740831 1.647427804965873 -0.3450037354478799 -0.3318502481795847 
-0.2163886788566334 -0.3111892939099714 1.018859305466199 -0.2394060674997434 -0.3069126067050194 
-0.2729437483653842 -0.1962563327161205 0.7929283864043283 -0.03164302223857506 -0.2024903682077884 
-0.0184523648403576 -0.2292206007461289 0.7557012841449297 -0.09730916358553339 -0.2102324646025234 
-0.7221195014059612 -0.1758191450610655 1.78690277213556 -0.2364994718029676 -0.2976934298288182 
-0.4947792416734892 -0.5452228167211595 1.858923918986024 0.05016627391639377 -0.5289429911966755 
-0.3083914192986306 -0.3828331818834236 1.36448274351934 -0.06462467000215942 -0.2776120650667363 
-0.2230478273853479 -0.1211225495715593 1.639926001997757 -0.1969046291254607 -0.4504961713817663 
-0.5089878482043368 0.0538406381800374 1.563033962940061 -0.0577000280506841 -0.3466340983216046 
-0.7375119031709613 -0.304788697120944 1.756019249942385 -0.1531708470173981 -0.04497671327225056 
0.5445694922602953 -0.06978789686475727 -0.06430927198264934 -0.1367647270545306 -0.122043914772557 
-0.096389830493504 -0.1352257987999866 0.01947052760217701 0.7818624155340003 -0.1617532945341744 
-0.1589698752654558 -0.0800397388911024 -0.2311316950313785 0.5598362329490862 -0.1705500529451909 
-0.1931115810291923 0.08024130930683102 -0.2228785680202588 0.1299904879375005 -0.4161351236558603 
-0.2879861299091885 -0.07875116523098899 -0.1977547031382471 0.3293802202757148 -0.214917457163625 
-0.2348430717088398 -0.06546994385074444 -0.3799492372925727 0.2519842343620549 -0.04791257099342508 
-0.2472269843521731 -0.1619491467682124 -0.1648999871924226 0.762060236374729 0.0001886275977214563 
-0.3679506601668531 -0.1137860532051928 0.1148209191124297 0.768983261219146 0.02155305480172344 
-0.3697525697705174 0.08071677939406394 0.05265562049099728 0.6736012430712771 -0.4687336684292818 
-0.07817328214360329 -0.05058931938823519 -0.1472184895902532 0.2904135682581936 -0.04045522052648547 
-0.02628923484448012 -0.05983095541731114 -0.189323487497465 0.3053724373741404 -0.06549184045293287 
-0.02628923484448012 -0.05983095541731114 -0.189323487497465 0.3053724373741404 -0.06549184045293287 
-0.02628923484448012 -0.05983095541731114 -0.189323487497465 0.3053724373741404 -0.06549184045293287 
-0.02628923484448012 -0.05983095541731114 -0.189323487497465 0.3053724373741404 -0.06549184045293287 
-0.02628923484448012 -0.05983095541731114 -0.189323487497465 0.3053724373741404 -0.06549184045293287 
-0.02628923484448012 -0.05983095541731114 -0.189323487497465 0.3053724373741404 -0.06549184045293287 
-0.02628923484448012 -0.05983095541731114 -0.189323487497465 0.3053724373741404 -0.06549184045293287 
-0.04600097174259058 -0.07272161570780612 -0.1201364430653433 0.2055179145092502 -0.0236075720755016 
-0.4051163479947339 -0.1492488565079042 -0.02037758548616706 0.6061671371010199 -0.1014729468326517 
0.05427596889991322 -0.1305245337725924 -0.2002934921821496 0.5121717641117369 -0.1864800935929119 
-0.4237739897181489 -0.1671117212531302 -0.01173391897474119 0.6136720304672043 -0.07343875693845037 
-0.4237739897181489 -0.1671117212531302 -0.01173391897474119 0.6136720304672043 -0.07343875693845037 
-0.4237739897181489 -0.1671117212531302 -0.01173391897474119 0.6136720304672043 -0.07343875693845037 
-0.3245463312695915 -0.123925585155582 -0.1840954344028234 1.4200738893418 -0.3487996767070792 
-0.4237739897181489 -0.1671117212531302 -0.01173391897474119 0.6136720304672043 -0.07343875693845037 
-0.4237739897181489 -0.1671117212531302 -0.01173391897474119 0.6136720304672043 -0.07343875693845037 
-0.5907578816623537 -0.2131280084461826 -0.08978566293850013 1.388256145970744 -0.1981707763903733 
-0.292236917382743 -0.05823024172737184 -0.06882662501422102 0.4169535797625418 0.102720509386653 
-0.5103054252142791 -0.494861358717508 -0.1851877712800974 1.750229304459531 -0.2387774227162031 
-0.1324855792768138 -0.457755690675022 -0.02665666073517571 1.305895389993649 -0.4292484921602627 
0.09790672677344851 -0.1406516626276979 -0.2344830202065849 0.4468792123017684 -0.1792231440553469 
-0.6921126399808539 0.1615004976162404 -0.2255884871808334 0.6227413081590956 -0.2033064485240257 
-0.4764632757227067 0.008449174000929885 -0.2598666177865964 0.6757131034293659 -0.2041700814050494 
-0.4764632757227067 0.008449174000929885 -0.2598666177865964 0.6757131034293659 -0.2041700814050494 
-0.6921126399808539 0.1615004976162404 -0.2255884871808334 0.6227413081590956 -0.2033064485240257 
-0.6921126399808539 0.1615004976162404 -0.2255884871808334 0.6227413081590956 -0.2033064485240257 
-0.2365375834015716 -0.2209882937259296 -0.02519958658840789 0.7336003891480404 -0.5332427270397265 
-0.3335948044457531 -0.2185951217257524 0.05975506141990078 1.72215241173335 -0.7128167365026254 
-0.2798399356050061 -0.04796395002810842 -0.01594000962203727 0.3090644702934737 -0.2270947320898098 
-0.2798399356050061 -0.04796395002810842 -0.01594000962203727 0.3090644702934737 -0.2270947320898098 
-0.2798399356050061 -0.04796395002810842 -0.01594000962203727 0.3090644702934737 -0.2270947320898098 
-0.2798399356050061 -0.04796395002810842 -0.01594000962203727 0.3090644702934737 -0.2270947320898098 
-0.2798399356050061 -0.04796395002810842 -0.01594000962203727 0.3090644702934737 -0.2270947320898098 
-0.1974733558671205 -0.01649423916879401 -0.3956141597968648 0.773211017517728 -0.06880790460647446 
-0.1974733558671205 -0.01649423916879401 -0.3956141597968648 0.773211017517728 -0.06880790460647446 
-0.03244088363251629 -0.04885314882794144 -0.1108802065625968 -0.01422113158428879 0.04910694140923157 
-0.03244088363251629 -0.04885314882794144 -0.1108802065625968 -0.01422113158428879 0.04910694140923157 
-0.03338708929705814 0.4886615511563033 -0.1370769813058125 -0.02088134768689482 -0.4544954649806687 
-0.006878157865546517 -0.01685900265666265 -0.1678853872311538 0.05609209195340498 -0.00954875781808026 
-0.08049586124002614 -0.1951392647594004 -0.09413165213533785 0.005702240392052487 0.2116874244132569 
-0.1092090036389929 -0.3449949170887069 -0.06647209156164353 -0.1323751714685376 0.4783434909549095 
0.08426170786446389 -0.2098403925322413 -0.1726202208080306 0.01769550884750995 0.1438425587594975 
-0.1092090036389929 -0.3449949170887069 -0.06647209156164353 -0.1323751714685376 0.4783434909549095 
0.1035354420577878 -0.3357332108345707 -0.1393196954516329 -0.08948960335073232 0.321842555578074 
-0.06097427470571793 -0.006824002938752632 -0.1548166366983225 -0.05945117614146579 0.2019788193752096 
0.01787575191072435 -0.2542935142335902 -0.1689802914838031 0.03336088346574692 0.3192555589721986 
-0.06097427470571793 -0.006824002938752632 -0.1548166366983225 -0.05945117614146579 0.2019788193752096 
-0.06097427470571793 -0.006824002938752632 -0.1548166366983225 -0.05945117614146579 0.2019788193752096 
-0.2755487229101737 -0.4921361130221716 -0.8441813472842643 -0.007976919547350761 0.8984113350412797 
-0.06097427470571793 -0.006824002938752632 -0.1548166366983225 -0.05945117614146579 0.2019788193752096 
-0.2904362942814191 -0.4212814346075998 -0.1706586702266779 -0.005934708647041586 1.395950290938091 
-0.1798479381718666 -0.6702756534828963 -0.2398090948724712 -0.07784364806538903 1.022340073641079 
-0.0377490296139578 -0.004878002275283856 -0.1591800804598149 -0.1472161250998068 0.2564514156410478 
-0.5163108667696099 -0.3371792744620869 0.5586717792226386 -0.1039105570638901 0.2431195341595091 
-0.2080966184395355 -0.7355981745112066 -0.03071833686820014 0.06052628376871763 1.675566968266715 
-0.06984994425971493 -0.1941074012012421 -0.2769390483455537 -0.3473203012132647 0.5632600719511026 
0.1045313758334909 -0.1901587367524194 -0.2830580208381099 -0.06158534679405661 0.3873874587802916 
0.08091257519584144 -0.2057985740441836 -0.2786624899406449 -0.03869867007865371 0.3788176288582964 
-0.1239433132806486 -0.1688213742710176 -0.2764179707545148 -0.3004066040363649 0.5261970538630734 
-0.04771497267312877 -0.2125314882565841 -0.3190516884440591 -0.2879568636206538 0.531999319370389 
-0.11712289993687 -0.3811279324244864 -0.4295683737643586 -0.4784950428704899 1.764227100529128 
-0.3106828300574945 -0.4329136487293886 -0.1280406151227584 0.1183353194700347 1.346747660818111 
-0.3853832546209304 -0.4995001835672508 -0.5578659679356326 -0.1438689008207479 0.6470901342164739 
-0.6679293775942874 -0.4123357112738725 -0.09092274121390911 0.07464390408823676 1.197210424276333 
0.1918815718645312 0.1567427182680351 -0.1749010046205232 -0.2373608208101395 0.04054515898762308 
-0.1361980028010956 -0.199990796601697 0.1464244244430201 -0.5913747219548073 1.400796865213884 
-0.1183503291943685 -0.1803658372634109 -0.04809603796261014 -0.1927410194703864 0.4162660845108984 
-0.1288185781035771 0.1901835429587088 -0.2489318807535814 -0.05179694147665575 0.001486193626197949 
-0.4511714224108304 -0.2920975354892705 -0.5453087529590018 -0.418786900166057 1.473013651644751 
-0.2182969681382195 -0.2929456836245646 -0.001831469840177198 -0.1066881188510013 1.369196772966197 
-0.1755077559485367 -0.1723279029174913 0.1269698116148429 -0.3470895105847237 1.048773564070935 
-0.5097182451703237 -0.2220393744248831 0.1139114654881144 0.04399784024059311 0.8367902043244053 
-0.1766040670334817 -0.08997762190359483 -0.4495474256932561 -0.06446031056572174 1.159299798802192 
-0.2765087737679511 -0.6437588835973973 -0.0794458479247986 -0.09815262000166998 1.034769924885892 
-0.4004248521208954 -0.1470825118533506 -0.1753573098959233 0.2106342560682472 0.2964672696231133 
-0.2786782445926685 -0.5352844787448426 -0.4939048723543875 -0.1915136026227564 1.216366235158128 
-0.1916509115572549 -0.3990479419123505 -0.1225162789861575 -0.1891717764259903 1.012214826911239 
-0.1834409809781742 -0.6712517856580218 -0.09365416730931771 0.04097915886461572 1.319442941657361 
-0.2095477338233296 -0.2232674910286985 0.04057774447287332 -0.3753563666769003 1.575435743454574 
-0.4004248521208954 -0.1470825118533506 -0.1753573098959233 0.2106342560682472 0.2964672696231133 
-0.7074444689712788 -0.8092621405576186 -0.9921270586041615 -0.9555656593418126 -1.044521673859925 
