solver_type L2R_L2LOSS_SVC_DUAL
nr_class 4
label 1 2 3 4
nr_feature 909
bias 1
w
0.000526853120754849 -0.0004809570958745572 0.000546181212236251 -0.001430332173545845 
-0.0001327011131522708 -0.0001345156232742978 -0.0009535863150586587 0.00113336873357019 
0.0001777600281052411 0.0002463750655866634 -0.001238558058008467 0.001189035289899184 
0.000285660804311831 0.0008665318082674084 -0.0001106024851566493 -0.0009397301231865746 
0.000733592804972026 -0.0001480164634769696 -0.0006542564400651066 0.0002534333112071178 
0.0008126679974053613 8.883292550609736e-05 -0.002138634662625052 0.0006177501282288018 
0.0003915171705871426 0.000540193833109939 -9.20407879839488e-05 0.0002359639785476375 
0.001046967962110555 0.0005496608158808558 -0.0003525145339840003 -0.0002635229401761363 
0.001173857588749973 0.0004496822618422955 -0.0001727939777633009 -0.0005372058595625018 
0.0004835216099602774 -4.658752298874153e-05 0.0003342447159688378 -0.0009718015866259483 
0.0005281033793740093 0.0003017778013366526 -0.0002881933134663118 -2.562906230689538e-05 
0.0006002490585367216 0.0002329493926146476 -0.0005354576035406959 2.284276445535474e-05 
0.0009076414672340716 0.0004588450862702413 -0.0005335387212944145 -0.0001529338430243304 
0.0004959562331266888 0.0006723948460039007 -0.0002242442351643776 2.441394788531953e-05 
0.001369185130377217 0.0001012193398584108 0.0003752803473592529 -0.001350537629389676 
0.0007686897703322439 0.00054393601331277 -0.0003545264116742954 -8.262764384022722e-05 
0.0009010636502812029 0.0001463003368940971 -0.0001212367874728215 -0.0008167777838473458 
0.0009325628195307885 0.0002907400145346272 -0.0006733048511471766 -0.0002379206335195403 
0.001713386342506672 0.0002339546674551342 -0.0005981085898006852 -0.001447408649860688 
-5.773976287497043e-05 -6.762956406878165e-05 1.46946523551735e-05 -0.0002746249490471607 
0.0003721498752075522 -0.0003287423276200623 -0.0003793291891743213 -0.0004133556004585739 
0.0009946660609410874 0.0008188757880204381 -0.001837692314498021 0.001552954468768829 
0.0003920317907986505 -0.0004997386096653895 0.001346562779799404 -0.001698131542187111 
0.0009589355111338108 -0.001274751576361661 0.0001601829887576524 -0.001141692848071419 
0.0007561561933759881 0.0001632236429904016 -0.0001513048211273039 -0.0004502501500979771 
0.0006322524950439872 -0.001049205559486863 0.0001350244102936031 -0.0013578685398367 
0.001348532222769058 -0.0002181623827370523 -0.0006651333951760019 -0.001049754309891348 
0.001165192796638874 -0.001143897394966493 -0.0007287205644430254 -0.0008930070446310494 
0.001933526555728961 -0.001633665323324421 -0.002405962155951703 0.0001617499929184721 
0.0007161134887976429 -0.0004909999630364032 -0.001986811929428144 0.0003163283480073101 
0.0009353504783001644 -0.0003087714837243372 0.0001234343145409129 -0.00169510643715608 
0.0009628453064788474 0.0003925412475140545 -0.0007397523426924456 -0.0002491608257232883 
0.001254657408357917 -0.0008722285807105515 -0.001151739314675494 -0.001054481635045328 
0.0008355364457007643 0.0003144018996310981 -0.00211284100280557 0.001504707166858291 
0.001521942986995541 -0.0006734543901838441 0.0003618176175819566 -0.002758262033275513 
0.002770507635355907 -0.0001374317331952977 -0.001091654052559648 -0.00268095564773066 
0.0007669993210281541 1.708863823045113e-05 -0.001351414608612488 0.000106175123012773 
0.0008930939300423977 -0.0003177182301260334 -0.0004141491239541221 -0.001764998107164498 
0.001867610805156214 -0.0004273297938938715 -0.001287196288197655 -0.000339210660929855 
0.0004420590342809752 -0.0004166621733525732 -0.000264883894677477 -0.0005810280964461473 
0.0006072030879378124 -0.001398838453286965 -4.379470300727542e-05 -0.001464668239397909 
0.001305831075225346 0.0002994981910648367 -0.002287488733696908 0.001138674636501576 
0.001660258706853418 -0.001174828982807326 -0.001075381649871779 -0.0009424280462669408 
0.0007365768879592455 -0.0001770273335097655 0.0003773322224041087 -0.000920675296081978 
0.0001073450235547752 0.0001985004615641895 -0.0001143236342865162 -7.563717656323392e-05 
0.0001995030100534351 0.0003799212671718097 0.0001502177759626739 -0.0005693626833623541 
0.0006446915280173298 -7.135093457516373e-05 0.0003462825077826656 -0.001037561816680342 
0.0009086239230598291 -0.0004159242469107449 -0.001127565334703788 7.275672256450365e-05 
0.001395299514062983 -0.0002530698433174752 -0.0007522896412466691 -0.0005701347479253285 
0.00038740546711305 -0.0008460085888198271 -6.829579138899105e-05 -0.0009591848236288935 
0.0002970757176618609 0.0002496930707520375 0.0006639131938242906 -0.0008290614158744284 
-0.000246716231860235 -0.0003810520367261122 2.175447558285194e-05 0.0001488360906286938 
0.0002932865738917065 -0.000924760589301254 -0.0009879910935127717 -0.0002870325936093936 
0.0001524156198366998 -0.0007104878848945982 0.001326198397987616 -0.002033467525769404 
0.0001798069343331004 -0.0003266804027891824 -0.0002124602206855979 -0.0002442745179043804 
0.0003058303780764479 -0.0001371176769107418 -0.0001371896684137073 -0.0006146580114007441 
0.0006633621976983748 -0.0003742941474831678 -0.0004802509033146951 -0.001606134832411887 
0.0005538137391183732 -2.076700428051827e-06 -0.0005734277951372341 0.0001554909062012066 
0.0004924045770273914 -0.0007552605317732469 -0.0004105428312460505 -0.0001532815575906919 
-0.0006087844528947713 -0.001578580115343851 0.0004200364379787686 -0.0001495105790789987 
0.0007581453843329357 -0.0001735049713622947 -0.0003194501752036803 -0.0005781576529716968 
0.000389843753061697 6.069912975996497e-06 0.0006282737849296766 -0.000854401190443885 
0.0004648111304130913 -0.00078930551963232 -0.0003700109072135526 -0.000710512090219524 
0.0004074434302773467 -0.0004264676821742933 2.567752136875973e-05 -0.0009423917708577072 
-0.0001640038035061021 -0.0005788596998572847 -0.0003018029761671484 -0.0001829542888861482 
0.00113380063302543 -0.001717646528094891 -0.00124943756899255 -0.001470551377184667 
0.0003762670984344987 -0.0001388922983258975 -0.0004075583020656329 -0.0005516555478941776 
0.0006517856463465421 0.0006266964924588351 -0.0001683722466949655 -0.0007434341946994184 
0.001599588078802007 -0.002176194789769546 -0.002735031643853039 0.0002151774250504764 
0.0009556336412415385 -0.0006067379884543072 -0.0005941843446216935 -0.001029886875987313 
0.0007010137898354241 -0.0003593205928015777 -0.0009740133662817534 -0.0001582822574412264 
0.0009032636677914316 0.0007570999688355917 -0.001949888772242023 0.00120031632015887 
0.0007810331414266917 -0.0003739310704887705 -0.0003601797887423337 -0.0007420128915124527 
0.001146123968680611 -0.0005092876615587941 0.0004121463737996114 -0.001700688499487762 
0.001465234186922315 3.572826095370334e-06 -0.0006878902927560425 -0.000877577275824496 
0.00134429202171692 2.339698420640627e-05 5.310054983341576e-05 -0.001199615980320758 
0.0009061249327258458 -0.000423438292046506 -0.002014080709641011 0.0004478911828149362 
0.001411113161266292 -4.281928070781359e-05 -0.0006476303045483959 -0.0008442487754247598 
0.0006400074678867513 0.0005119783713518833 0.0002551301754892552 -0.0004408809663441036 
-8.961356930674631e-05 0.0008125948754425833 -0.0001307037281472052 0.0004434323702358835 
0.0003451831443772815 -0.0002768137301659148 -0.0003241001969596588 -0.0004048366005622788 
0.0002784110446230926 0.001180038678787173 -0.0003144605642186592 0.0001013149247849871 
-0.0003421151912608862 0.001976159167181363 -0.0004879580622732075 0.001275218886787395 
0.0008463341759961778 0.0007258065713334019 -4.136081738598927e-05 -0.000460402108870525 
0.001234018437959342 -0.0007328606561897796 0.001265179276429075 -0.00306039936133066 
0.0006026215820164183 -0.0002950366705374691 -0.0009875353294408029 -0.000139312109844088 
0.0005843613544821414 -0.00060739819370421 -0.0004978567131614222 -0.0007401554812105586 
0.0004622391961851983 -0.0003110177336143826 -0.0007770450706796042 -0.000244095343507096 
0.0006413609447843773 -0.0005194918418868412 2.418442848055847e-05 -0.001009246930465558 
0.000800915393557722 -0.0005751914839525371 -0.001721420749572101 -0.0004038297758835269 
0.0007233831285609304 0.0004484430469464308 -0.001190721144044018 0.000476967985010993 
0.0003105137171882383 -5.879328953541377e-05 -0.0006704180669395542 -0.0007376073317787766 
0.001156493893360147 0.0001999302462858563 -0.000595490242813761 -0.0006455411030119151 
0.0009201394098681582 -9.532215221636387e-06 -0.0009111463929516784 -0.0003386256204176857 
0.0002372454112380117 -0.001393056841064706 -0.0009746112096143667 -0.0005619372328559685 
0.0005973357127235175 0.0001471746651924888 0.0003811859846131713 -0.001945167566406741 
0.001671862946776735 -0.002747872056910153 -0.002298502115956273 -0.0003441065833253112 
0.001202033490123125 -0.001974997252395398 -0.0009537724960373406 -0.001588967268261834 
0.001029611955233063 -0.0005145427635582459 0.0001146911648563359 -0.001476989776647014 
0.001350315233597155 -0.0001840683206826596 -0.001811494438374268 0.0002798823361681429 
0.00101163860291019 -0.0008673982374237177 -0.0002616864175513562 -0.001550523356151494 
0.0001359972264563831 -0.0009425196923060362 -0.0003656909224295219 -0.0002497162620241577 
0.001357097148687214 -0.0002820166211668549 -0.0004193615060756545 -0.001127395934205101 
0.0004272656025653436 -9.356559375786676e-06 -0.0002630859777012097 -0.0001566047103459723 
9.84798159616676e-06 -0.0004305113405855397 -0.001021472117042821 -1.8805809721573e-05 
0.0005940317131235168 -0.0007340937358563873 -0.000466261230743749 -0.0004557551068451487 
-0.0003906865343506672 0.001714161872596486 -0.0003453021836017231 0.001487318036058584 
-0.0003797839986206207 0.0009584069305320358 -0.0002291218867053498 0.001093982857715975 
6.588584845886494e-05 0.0006329353367175582 0.0004536706909374126 -0.0002789987609038973 
-0.0001429117858477235 -0.001655226894898851 0.0006629785595582642 -0.0007278843596942657 
-0.0002364636614809843 -0.0004742634301667385 -0.0002886153607370167 0.0001121826149043676 
0.0003284719363912946 -0.0009018808664066626 -0.0004007926464751179 -0.0008977817318029016 
0.0004406347418401834 -0.0005382656547484145 -0.0002876910279614411 -0.0007172561546045623 
0.0002363469616835386 -0.0007985039632376023 0.0002190820473157882 -0.000584620612085133 
0.0002265786757963494 -0.0007458656575722409 -0.0004367487901043442 -0.0008735288992422538 
8.291401179825196e-05 -0.001177311255726671 0.0006401979909740447 -0.001104241036604759 
0.0001227815042812064 -0.000791057882017512 -0.0008248428433578185 0.0006413195500540661 
0.000717110265330286 -0.001235945870240686 -0.00107877703801038 0.0001280075659923395 
0.000465942651971634 -0.001008973080320616 -0.0007546766047930547 -0.0006683503120904233 
0.0006793812560453459 -0.0009734451093820381 -0.0008286948242754621 -1.750899651055219e-05 
-0.0002590438524393899 -0.001207290251781873 -0.0004805792769057165 -3.77479511697451e-05 
0.000462969257552367 -0.001484943995794272 -0.000834084217482497 -0.0008114157625705918 
0.001380968241344645 0.000239999596285103 -0.001777570831115528 0.0007748927019002593 
0.001901791192893766 2.729255251016135e-05 -0.0003423187066976097 -0.0009839653842813878 
0.0008244245727361889 0.0002299149200498114 -0.0009801589014628723 4.357109468514681e-05 
0.0007775309260301037 0.0008546906657856919 0.0002829380170832778 -0.001616230661183489 
0.0007312417555506745 0.0006629990602661382 0.0002167217585531271 -0.0007562728330479295 
0.000937435313355939 0.0001863664396959647 -0.0006299591068232819 -0.000681294340346261 
0.0007839607852952693 0.0001010237787474773 -0.000424211904928072 -0.0005885140265569574 
0.001111584489884089 0.0002872561666309878 -0.0005286630004698569 -0.0004462533601441432 
0.001541750676141008 0.0001540819415657753 -0.001094220714479296 -0.0003596441849428874 
0.001394047768861607 -0.0009516478659444541 -0.001010393005999849 -0.000688893706531787 
0.0009655776195841219 0.0005216396028184577 -0.00176827076650263 0.001255962458542423 
0.002736912473227741 -0.0003687809186775849 -0.001704660499910068 -0.001423294708380397 
0.002379470435388513 -0.0003483656960644004 -0.0008009272262306259 -0.001919901458184492 
0.001977448958799209 -0.0001339052573572803 -0.001528126862930142 -0.0002458006033622242 
-0.0001882371029862513 0.001539110090499863 -0.0003679001935281415 0.001343768702178812 
0.0003472991934643797 0.0003082516814243623 0.000570572514957692 -0.0005334994381870567 
0.0008643531733230242 0.0004703718061287909 -0.0002086437607812813 -0.0005028413289989015 
0.001260686042075144 0.000928862807225271 -0.0006628652390327791 0.0002428468167855545 
0.0003565977054989051 0.0002255055746492832 -0.0002372031432678316 -0.0002012164209147526 
0.0005131792344098513 -0.0007921480300028963 -0.0001654589754746972 -0.001798842279297344 
0.0004796291463447032 0.0004608719620328877 -0.0001416992764273063 -0.0005014515891932664 
0.0008375158457174089 0.0001861545422544865 0.0003013887456070018 -0.001047875813548303 
0.001428397591815044 -0.0006371400078633003 0.001150910375881562 -0.00342333947848016 
3.375139807911322e-05 -0.0001132596461550312 -0.0001419397278319905 -9.139609904448829e-05 
1.98174546557996e-05 -0.001369447834730844 0.0007533307998333918 -0.001029927116526195 
0.001030955701040073 -0.0001102557236502468 -1.546808530322328e-05 -0.0009995138709649621 
0.0003249412579814512 -0.0002397711849517994 -0.0006367078322445689 -9.748564400406769e-05 
0.0005636741032365093 -0.0001806508295717848 0.0007275490676875951 -0.001149839243958118 
0.0006976589039208366 -0.0005373447731173219 -4.409612917057598e-05 -0.001589302975327493 
0.0007238607194669406 -0.0005130619634750398 -0.0005493619178050666 -0.0004420420839419322 
0.0003869241039441689 0.0004846004411197146 -0.001138798392438257 0.0008821366136710884 
0.001244847105290075 -0.0004750747793697679 -0.0005026365350725404 -0.0004756445482653648 
0.0006856654847815989 8.607665942065627e-06 -0.0005349590071468279 -0.0001633486582114789 
0.0006705353120485257 3.080153576315515e-06 -0.0007317010527273213 0.0001757826547074257 
-0.0002276592809470569 0.000950991948245559 -8.801420469002871e-05 0.0006764964739848431 
0.0009562985770287269 0.0007551554247805478 0.000142431948053692 -0.000871774896736388 
0.000697799620494344 0.0001177484983493226 0.0004740069968069768 -0.001526930701238063 
0.003008136301705185 3.858785446444584e-05 -0.001332719536948415 -0.001541949119075856 
0.001399154691442209 0.0002153866089685724 -0.0001967604379230251 -0.0006766080737217116 
0.001152883323689273 0.0003141825583807889 2.251897441470061e-05 -0.001271244127111995 
0.0008769537804481744 9.449836373442684e-05 -0.0009035500106595397 -7.630197022004608e-05 
0.0008590525349541812 0.0005230363766594812 -0.0001817068065753895 -0.0009313371715392522 
0.0002520463852952989 -0.0004563327062826929 0.0005799349036081788 -0.001089917985157816 
0.001462722096356594 1.212750231412463e-05 -0.001218284299014541 -0.001905969096558682 
0.00110659210588865 -0.0008584654356612266 -0.001472797861712617 0.0002575794016497705 
0.0004224185735174683 -0.0003443257709763178 0.0002611110932261768 -0.001231625064017427 
0.001104937017323761 -0.000429096955808781 -0.001053249732198209 -0.0009761918416988652 
-2.753886602689471e-05 0.0001878886012574646 -0.0005165134689146552 0.0001968784840225827 
0.0005382795211903462 -0.0001225917868441992 0.0005112828940083074 -0.001355059129280845 
5.883056518818602e-05 0.0005528538523726465 0.000261272535981051 9.252433386779486e-05 
2.415826079079213e-05 0.001033660762656849 0.0002959113648468905 0.000191260782628768 
0.0006712669507271749 -0.0008397983107344421 -0.001086994896865216 -0.0008728244499495726 
0.00111010628047449 0.0004355340464132027 -0.001176220614669625 -0.0006321669135133575 
0.0004344465210023643 -0.0009991142536459445 0.0001002168069174939 -0.001384569709098393 
0.0002946155945831905 0.000755235495810442 -0.0004644555471663173 0.000325284398420322 
0.0007193492311245305 0.0009178544456510097 -3.275693551119253e-06 -0.0003347190069577692 
0.0009610658163457473 0.0009662954852640289 -0.0008523619545379681 0.0003873353322589198 
0.002453635760751503 0.000370510179842594 -0.003083294442688762 0.000578969997010457 
0.0004843523194504871 -0.0009030902791518299 0.0002461076620165224 -0.0006130907042365236 
-2.911705561531989e-05 -5.010482970620789e-05 -0.0004428196508034781 0.0001767939211574021 
0.0009175237421144236 -0.0003603808970867473 -0.0006682396077093751 -0.001156844921310555 
0.0008100771369157063 -0.0004528313074915179 -0.001994428707368429 0.00123783805328569 
0.001132480651106075 -4.65297527270576e-05 -0.0006807388225445742 -0.0003605320675737162 
0.002559545400826883 0.0009853321583555145 -0.001512422581123963 -0.0002289777653372567 
0.0008484403290963739 -0.0004486222675912163 -0.001132970430803225 -0.0003999870629161258 
0.0007967126657529526 -0.0005279557564394207 -0.001225430395428884 -0.0002610198143880479 
0.0005355988437237575 -0.0006883320080810622 0.0002044789238053214 -0.00147960976498404 
0.0004625468391653658 0.0004942687681245311 -5.150169871321436e-05 -0.00135155083031097 
0.001065534894129059 -9.047371187051463e-05 7.948152949566263e-05 -0.001522570860869907 
-1.083383690323739e-05 -0.0003364694642673382 0.0004662887496214451 -0.000261537373305917 
-0.0002608929281574051 -0.001254943611344991 0.001437121250834168 -0.0004839335485805746 
0.0005464622274540344 -0.0005198069968622949 0.0003895133506043676 0.0001043985516575003 
-0.0003901059011968024 0.0008012536970584365 0.0004007257895316741 0.0005234142765657065 
0.0009723050218718861 9.848514418569138e-05 1.924401468173672e-05 -0.001110081466313648 
0.000967940697119382 0.0005190257241312503 -0.0004497331734208079 -0.0002048053793736956 
0.0008662989636350557 -0.0001047037972882967 -0.000815024669485528 -0.0003173011838899452 
0.00125769129197669 -0.001040950762457588 -0.0001988581440957159 -0.002248554754353978 
0.0004507075300504279 -0.0004570425523135647 -0.0009123077252068437 0.0006621728060462723 
0.0004510713165382551 -1.302022112642712e-05 -0.0009735489267663523 -0.0003154825936589965 
0.0009102072752526665 0.0002746021251809395 -0.0007989281708664894 -0.0006151151606643981 
0.0007001785301279273 0.0001636373055912128 -0.001448169592736186 0.0006714800653089488 
0.0005479862510396015 0.0001938672690612106 -0.001848016452492935 0.0004204391347858944 
0.001424648361545209 -0.000207540180065574 -1.621689851070938e-05 -0.001337839343243719 
0.0007849940340968256 -0.0003377961878140481 0.0001615363890950302 -0.001017694661566713 
0.001238226248692425 -0.0006041783337234089 -0.0006908271959191672 -0.00074980773859485 
0.00127586711316582 -0.0002888682636782505 -0.0008178775875808346 -0.0005111688004355549 
0.0009324909657735256 0.0001311469562066607 5.972995796368692e-05 -0.0007470039398537257 
0.0002080060667319745 0.0004069056908351427 -0.0004113836560891223 0.0007481644424662328 
0.0009702791474059778 -1.793712200314317e-05 -0.001283183907817917 0.0008251868874523595 
0.001016544168831971 0.0007032204228372191 -0.002272430452034009 0.0014717636455761 
0.0008795931395124019 0.0004417625814520632 -0.0004499248015621427 -0.0002288438495317734 
0.0002805810369721422 -0.001049557454780866 -0.0005505381239930447 -0.0005083717634287166 
0.0006740522784363721 -0.000303658516162211 0.0001087567428126483 -0.001293726254247482 
9.374276099393486e-05 0.0002924467466614923 0.0007352397746634747 -0.0005457805444368559 
0.001192481061829095 0.0003376906371271492 -0.0004637294235641035 -0.0003371978273240907 
0.0006903309126108135 -0.001048773169159342 -9.445695063659825e-05 -0.001371288692440424 
0.0006617158384489457 0.000570704822255114 -0.0005491440630438466 -0.0001485222269067156 
0.0009293471985349478 0.001361421545971692 -0.001393677046204548 0.0008306584659330296 
0.001113825212772036 0.0002983298301113531 -0.0004825799536022949 -0.0004643158363857925 
0.001069965802170987 0.0001952952282519498 -0.00029431386374813 -0.0007092978440430674 
0.0002928100242707769 -0.0005613391990619898 -0.0003241770006602163 -0.000660751048989266 
0.0002819301372460424 -0.001147575996779167 2.123486070375058e-05 -0.00116349686639597 
0.0006490023609179017 -0.0004949026370806935 1.502454590901158e-05 -0.0008249529827540488 
0.001421311181367764 -0.0005899995833142366 -0.0002847285746039982 -0.001525144941450332 
-0.0001022219715508868 -0.0001935227561606205 0.0005080865391670249 -0.0002223359122758567 
0.0007938355133525415 0.0003603404960194423 -7.844328226566472e-05 -0.0009016110420908453 
0.0002119738627205973 -0.0004919372018908774 -0.0007077897270966841 -0.0009377509204786804 
0.0008550563312274641 -0.0001341888474196507 -0.001389479770909475 0.0003431864621164235 
0.001322324629582471 0.0004767940592253078 -0.0004490466677261898 -0.0008340961862054033 
6.101013712795052e-05 0.0008794285203595437 -0.001265908563548065 -0.0003859776475471938 
-5.604506890374427e-05 0.000788890609252526 -0.0006540930355259969 -0.0001988099873296237 
-0.0001332223423906113 0.0005231918839260462 -0.0005220515163471843 -0.0003319388101950844 
-0.0001442832831143089 0.001134934822414855 -0.001138786796536886 5.004765678319244e-05 
0.0003769451654699121 0.0007665102242304543 -0.0016464335984489 0.0004065910277114074 
5.043356442546451e-05 0.0004727034035165691 -0.0008074504742307445 0.0007187218711102883 
1.030414433535058e-05 0.0008824023859505885 -0.000722493200475695 -0.0003320053285748305 
9.214245953556677e-05 0.0004428853042350678 -0.0008197480639040616 0.0006676680269064482 
-2.11265483572812e-05 0.001139352852945804 -0.0004487646424559665 -0.00181501196176213 
0.0002717558225499808 0.0005719678292730938 -0.0007150203519458763 -0.000113364047985822 
2.663955916058889e-05 0.0001797116022940602 -0.0004314596694206586 0.000176434560993268 
-0.0001391168773155141 -0.0008861386708921233 0.0008676344294145781 0.0002984656124471136 
-0.0001361835438509289 0.0006827974119753664 -7.406836442761688e-05 -0.001214526018533986 
-0.0001430695914051149 -0.0009099581645451303 0.0008907886488263776 0.000372262416151986 
0.0004224656327960254 0.0001526985251864383 -0.0009900566520221899 0.0006559090814959982 
0.0001902135666375323 0.0008610766118963934 -0.0003807776641579953 -0.0001747072413999583 
-0.0001699265930018824 0.0008088925690354668 -0.0003712187161741486 0.0001021461437015298 
-0.0004385007074191499 0.0005801482995306142 -0.0001086450489081476 -0.0003865630860654444 
-0.0001943765355247627 0.00118209280019894 -0.0007438620271886864 -0.0007828399395076208 
-0.0007519647065058501 0.001091759917136078 -0.0008505291522983374 -0.0004435847901928168 
0.0002753787010925216 0.001568581084809578 -0.0001037499729681254 -0.001795158125450629 
0.0005379871561326248 0.0001991936350563118 0.0003455552525874215 5.451153324169895e-05 
-0.0002015480703170343 0.001593963744682419 -0.0005227615473478753 -0.001638649695492461 
-0.0001661433897128596 0.001579566371055007 -0.000398170393127957 -0.001824437764502222 
-1.259326709728412e-05 0.000812207589018406 -0.0001875313013748333 -0.001390541908054655 
0.0002404160367401293 0.0003837986464532075 0.0001816686724550792 -0.0008839373170639888 
-0.000365397728907467 0.0003456772028437495 -0.0002649429943146777 -0.001076441456590024 
-0.001256700914081324 0.001361513328918703 7.544234363466651e-05 -0.00129315731133987 
-0.0008705678749764656 0.001187055805615839 -0.0002522811196226115 -0.0004284754909523642 
-0.0004757529868073516 0.0006794261555976891 0.0002563081297049012 -0.000748668131957309 
0.0002101030609616698 0.0009396815685506956 -0.0002462961526749942 -0.0006022536778559057 
-0.0001283241039763859 0.001093836050302489 -0.0006897931752807152 -0.001110851439857879 
3.866154297387911e-05 0.0008453637386370532 -0.0005230033090431164 -8.008073719766204e-05 
-0.0002970697611149783 0.0005057709368306894 -0.0002111783837356926 -0.0004356620309800664 
0.0002872612566752336 0.001662925147508718 -0.0008349188471835812 -0.001759796029121336 
-0.0003685961075592034 0.0008349229432577298 -0.000236622784398792 -0.0005720339013467204 
0.0001301167203388701 0.001748630889607776 -0.0005688270072161035 -0.0009487383331972688 
-8.692731631918695e-05 0.001779633513463199 -0.0009283066051621371 -0.001072161366112722 
-0.000311358194155466 0.001792424159330409 -0.0004202302667786722 -0.001324963074860954 
-0.0003541647022861604 0.003442493822373677 -0.002079805860300582 -0.001788444009765816 
0.0001070568013168478 0.002238846170930139 -0.0004143700473913407 -0.00206897476545889 
-0.0001884756763896325 0.0002146159782370054 2.985780049231624e-05 0.0002369614178108516 
-0.0004951057427425547 0.001605473038959236 -0.001081363729744274 -0.001044105739461803 
-0.0002279791664979479 0.0004165803526510405 6.616640920164755e-05 -0.0003422692225062972 
6.446078284905204e-05 0.0007432010060897848 -0.0007637350288171981 -6.661014429964149e-06 
-0.0001425968309599357 0.000935047495985257 -0.00070501228759487 -0.0004827262723676719 
-2.065087869209475e-05 0.0009102437373258428 -0.0008262701503390129 -0.000130829680496368 
-3.40146712519171e-05 0.001227835858023949 -0.0003505112714034303 -0.001090529111147358 
0.0001100728302642164 0.000568331710966809 6.123287019956971e-05 -0.0004029385278946308 
-1.65058600709748e-05 0.0007404105323857865 -0.0002737857983211992 -0.0008523887636621361 
0.0004899141432368994 0.0008489048248313342 -0.0009111698330848678 -0.001293598439521438 
0.0004455973237691227 0.0003767507979121981 -0.0002053640752871021 -0.0005899644287515182 
0.0004523503235740954 -0.0005924914364732789 0.0004352948155718177 0.0005229490579741211 
0.0005694356793379236 0.001226993861467523 -0.001763450138221773 -0.001271463057536633 
0.0004415630594835236 0.0003859572720687943 -0.0006871170530844796 -0.002298462776686745 
-0.0001511333765537356 0.001297942622293401 -0.001929181157868311 -0.0007913576045354281 
-0.0003966640711433352 0.000140677341541954 0.0009226686417821965 -0.000345926493176859 
-0.0001084091161421973 0.001470620648913794 -0.0009340114197999497 -0.00100607869802363 
-4.367550471829138e-05 0.001382012218349542 -0.0002839845671820527 -0.001364915065988603 
-0.0004218597371398734 0.0009007925249119447 -0.0006484499379949063 -0.0003464882841832614 
-0.0006098535518293909 0.001225668001701104 -0.0008956662651051408 -0.00109790063433337 
-0.0001741171679758383 0.001382061216331564 -0.001143616228527642 1.736449615881695e-05 
7.972881820906886e-06 0.001317264927509742 -0.0003232173860016781 -0.002003766732739127 
-0.0004515097012092307 0.002139816355528122 -0.001626400639383225 -0.001256100275914666 
0.0001184663120029225 0.000190479606334427 -0.001366801006658019 0.0009863001914825922 
-0.0003419646117799722 0.001571105724115149 -0.00120224527556989 -0.0005505230613724358 
-0.0004277574698332031 0.002397710528029424 -0.001978556737206301 -0.001311563320545114 
-6.030066849369408e-06 0.000773588917663447 -0.0005604709756072152 -2.362264160439617e-05 
-0.0006636832261607238 0.0004533849731555676 -0.0001826400690849939 -0.0004326207907078005 
0.0001206106868821179 0.0002526659909056078 0.000299857634771186 -0.0002923760363277901 
0.0001823522097757536 0.0009845425428104922 -0.0002998569595610908 -0.0006145063934468398 
-0.0003874755403303602 0.002403351963326146 -0.001481774462761597 -0.001419146935537581 
0.0002918080417023 0.0009847624248719637 -0.0003565081832759878 -0.0008303091754377684 
-0.0009319488924997237 0.001582525798648837 -0.0007011593896252349 -0.001491405770587479 
-5.779453702301475e-05 0.001685072958416158 -0.001073826702178389 -0.0006827180639257923 
0.0005295230744445906 0.0004282374345258847 7.337327583156759e-05 -0.0005233617406218107 
0.0001347276031407367 0.0009786824692408632 -0.0005806582962321626 -0.0007510540922553808 
0.0002072808849947455 -0.0001474528686786019 -0.0005044112611912108 0.001226794478529068 
0.0002425241222851376 -0.0001932020681613613 -0.0005840344266871606 0.001386677356341315 
0.0001822758104833428 -0.000148766632443422 0.0001100725277411653 -0.0006987665015438994 
5.743634673250849e-05 0.0003309195571062233 -0.000428049916043653 0.0003344771454417244 
-0.0001583626470817045 0.0004176301803765486 -7.694813607521335e-05 0.0004043910085100979 
0.0002675039881172892 0.0001863559722216384 -0.0009467098130297558 0.00109333238313014 
8.736745046349815e-05 -0.001397932967769012 0.0007272650572863375 0.001619401109152156 
-0.0005500953211237577 5.659431975557793e-05 0.0003994979304425236 0.0005999808891650024 
0.0003109328956884595 -0.0007712875981740684 0.0001047283188213545 0.001423868281226811 
0.0001303655886411532 0.0003563225773692593 -0.0009118350010572639 0.0005417660979324658 
-7.296740248259842e-05 0.0005659575240450545 -0.0006225035313088393 0.0002236874912074522 
0.0002277293038512795 0.0003009426352438399 -0.0008409433940814288 0.0006079349969972933 
0.0001234242674071457 0.000607354668938809 -0.000736066933641488 0.0003753404161905959 
-0.000204759340851395 0.001187691631901056 -0.0009270701236263904 -0.001048635827427376 
4.155362398851571e-05 0.001266654815803968 -0.001177368488002545 -0.000126388511763067 
0.0001338442131464066 0.0004578144887325558 -0.0007657098812813505 0.0001195633385933587 
-0.0001292544382685736 0.001476123243760288 -0.001026551745174833 -0.0003888923506513074 
0.0003346383297355391 0.001173375205338806 -0.0015187839755949 -0.0008249702667587486 
-0.0002161726577018619 0.001484120192439651 -0.001129154489617389 -0.0006517401439576333 
7.000675377533737e-05 0.001035861931725203 -0.001338113575587234 0.0009646049624626843 
7.48733895590574e-05 0.001477314936258117 -0.001138585160089596 -0.000290352897949795 
-1.217084446472738e-05 0.001324379610504497 -0.00104605175499581 0.0004203312901026213 
-0.0001138201016116979 0.0005671644048111057 -0.0006457590272062535 0.0005142308588004671 
0.0001573821098221889 0.001231458412134454 -0.001305409355964653 0.0001489468298753913 
-0.00019168067967737 0.0008503760058243124 -0.0006319898933337866 -7.830797322118945e-05 
-0.0001743400593229263 0.001059409764227778 -0.0008305751649194121 -0.000568778090907348 
3.097590830819041e-05 0.0007699315656588259 -0.0008433815257098087 -0.000106031591952007 
-0.0001407126825434371 0.001351144557676877 0.0005664443655828838 -0.001681887383806941 
-0.0004326294466905503 0.001033520740685128 -0.0005811422729000809 -0.0008730006192502496 
-0.0004557989704687785 0.001143487310632231 -0.0006674461471300129 -0.001014569543483875 
-0.0005518059669715274 0.0007234621281468879 -0.0003144878815491792 -4.690850485685399e-05 
-0.0004029391963169279 0.0004172970581877884 -0.0001733227960734609 0.0003522305793968921 
-0.0006130279167063302 0.000828031489169772 -0.0008073256197651482 -8.808802155052696e-05 
0.0001019657277848233 0.0005035886885853443 -0.001206276065252403 0.0007766001824286992 
-0.001311784799153492 0.0003637740183851186 0.0005954769374041848 -0.001944736327390797 
-8.869546311441303e-05 0.001343432333944843 -0.001297387657769468 -5.796027597353297e-05 
-0.001263845850033566 0.0006633322126437126 -0.0002012399776371178 -0.001484603796132957 
-0.0005221501604620356 0.0008101637538274903 -0.0006299886818401814 1.544761986987992e-05 
-0.0004878518553121213 0.0004152992137594642 -0.000177969962392102 0.0003988640814978933 
-0.0007202247805813667 0.0007893135194021354 0.0002656062502791887 -0.0007671410387558526 
-0.0001686229698440356 0.0005885774561733976 1.902766090148075e-05 -0.0002966437186572784 
-0.0007907746624380498 0.001152115954342448 -0.0003195744508011497 -0.001312557359169625 
-0.0003394130596775638 0.0008436486068506711 -0.0005287682873530664 -4.209269730857044e-05 
-0.0003613063289205366 0.0002142406656500752 -0.000135566250229267 0.000193682250946903 
-0.0004176300484541443 0.0002271733703665056 -3.544857905106269e-05 0.0001403161234063778 
3.762703109975495e-05 0.003735463953402293 -0.001647956878599627 -0.002403366628036488 
3.490007377931638e-07 0.003100518463901743 -0.002058569608409831 -0.001477277299035374 
0.0001983643472385796 0.001532254726969699 -0.001182969031482158 -0.0008125618656837932 
0.000690983348136109 0.001115918105284153 8.42433108528154e-06 -0.0009198524635310177 
0.0001434935958290533 0.00242833670442992 -0.001536729088928107 -0.001054623336478995 
-0.000532643683544664 0.002092698353556993 -0.001586543194870336 -0.0007563683695638766 
0.0003661045231025162 0.000144960147826242 0.0003525054348902211 -0.000233601154038103 
-0.0001544246503549094 0.001036664983197173 -0.0004996975908576893 -0.0007991938653364438 
-0.000371313803919646 0.0007536629156835978 -0.0001970159723054173 -0.0007776119135411467 
0.0008205022305314549 -0.0002105033155153395 0.001563272822512888 0.0002581928752285986 
4.097144686968017e-05 0.001495490266210146 -0.0001178135128077308 -0.001388552941275491 
-0.0003114058072901459 0.001870265719185942 -0.0006734894578929157 -0.001174235690298698 
0.001014291521043422 0.0003668958025221175 0.0002717279358707669 0.000790986413085103 
8.723249368624955e-05 0.0002848261918603286 0.0003914911775315488 -0.0002646062615416321 
0.0003207187234570341 -0.0002805262779598816 -0.0005909489193872097 0.00175929932209486 
0.0006440324361706043 0.001138469743590774 -0.0003982289707577919 -0.0001134275635119014 
0.0003289225620692318 0.001100049690231533 0.0001947672328588305 -0.001114965730048356 
-0.0003425968517580467 0.00167392632588282 -4.004091369004554e-05 -0.001776320522892119 
0.000386239677425234 0.0004470282548505273 0.0001331474365845274 0.0001778396342026703 
0.0005439454296874407 0.001602532926246159 -0.0001462979923211577 -0.0004240497616284615 
-9.563190733237498e-05 0.002177381638486192 -0.001678411816760594 -0.0005586467396748614 
0.0003348396683631062 0.0005352540584790112 -0.00146042092805513 0.00120374956170787 
-0.0001037880029761495 0.001424320829059664 0.0002524826257440609 -0.002394291386415907 
0.0003832889849075046 0.001243918690639704 1.403912969583727e-06 -0.001012322690293173 
-5.718408386493204e-05 0.001750194918534508 -0.00266347808643533 -0.0004960704588141109 
2.604461554608187e-06 0.001363050757506627 -0.0006882276803069261 -0.00100125534333035 
-0.0001308941662863176 0.001096796690083353 -0.0008003164939311989 -0.0003494989383128528 
0.000256942040579157 0.001384596795521963 -0.0006711568473253824 -0.0003186738863421742 
0.000202672829130882 0.0006251405988138623 7.613426210244802e-05 -0.0006073875403347042 
9.306332694803391e-05 0.0007007355320405582 3.130022227397155e-05 -0.0006905885458394595 
0.0001653634626879436 0.001346419327810923 -0.0006457990686419043 -0.0009620087460321449 
0.0001748749378423761 0.0005857216049894596 -0.0006039277884707979 -0.0002216696089409282 
9.497524408593702e-06 0.00023461709526723 -0.0003816225151728162 0.0002523933510643363 
0.0002514386098860576 0.001334857588108164 -0.0006969066758972718 -0.001144514999345522 
9.094114117900895e-05 0.0007414545779173388 -0.0008601439939433175 -0.0002136018076296301 
0.0002007590308844776 0.0004143837151139849 -0.000866533367213986 0.00016471691428126 
-3.515892017336055e-05 0.0009462588148631258 -0.0005611195191729592 -0.000568823071285496 
0.000302326281202847 0.001071998167784648 -0.0004804102293653445 -0.001149944001640042 
0.0003935984785585419 0.002607607864450475 -0.00146268612224958 -0.0004283654013545129 
0.0002733173956728221 0.001000716889719003 -0.0007217775807336842 -0.0008954543810215896 
2.719454699102304e-05 0.002579105353531787 -0.001558074058582186 -0.0009499297901907153 
0.0002422677907259125 0.001252411629096097 -0.000385004153193383 -0.001026059602614894 
0.000113643871515429 0.003312670367502663 -0.001957328204460995 -0.0001703627764670595 
0.0002557771900522344 -0.0001167822984192847 0.0003469472133915294 0.0004276087335400268 
-2.763061985226683e-06 0.0008532213827242347 -0.0008287033436575518 0.0001590508893850411 
0.0001508612248983771 0.0003462535639860369 -0.0006461688953770722 0.0006895146784066663 
0.0002633003448269717 0.0009524470478120878 -0.000527863270832923 -0.0006631026552055212 
4.458278566769602e-05 0.0008884015037785323 -0.0005191070892157059 -0.000152511279088301 
-0.0001023917974580605 0.0006208038172969853 -0.0006915115913652601 9.132270297467185e-05 
0.0004283129396928688 9.238953875347702e-05 -0.001066631371684105 0.0005101679714657205 
-0.0001794372182857678 0.0009609552699067078 -0.0001229150273361156 -0.001238542969625984 
-0.0005565720191589822 0.001293778174644329 -0.0009696146970734867 -0.0005353101601154292 
-0.0001319712044562176 0.0004710591664221601 0.0008718307855463803 -0.0006196012256487393 
7.839113202298745e-05 0.002099337308430742 -0.001792030900603675 -9.306272060548296e-05 
0.0005527731319559784 0.0005759838416275005 0.001140307048878984 -0.001389631839413366 
-0.0005599967219304023 0.002038903095703923 -0.001138366953205372 -0.001012353942759219 
-0.0006082250673570496 0.0005720099267017574 -8.457616368779482e-05 -0.0009457004209492729 
-0.0007769436888446932 0.0004206514410850985 -0.0001269553924067711 0.0004801264905022219 
0.0001528314265817368 0.001232749808319076 -0.0003424887809852649 -0.0006590827015544869 
-0.0003974294472540806 0.000521062660690196 0.0004128485024982924 -0.0004900788026397245 
-0.0006098571416871129 0.0004353112380107639 0.0001940341915564376 -0.002008297757680334 
0.0002088486434667102 0.002214699880651619 -0.001202236177746115 -0.001394923889388612 
0.0001454938288634248 0.001154046401062933 -0.000642776695544827 -0.000631226549996682 
0.0004445709882014324 0.001359024914834386 -0.001082098388239257 -0.001156747994221969 
-0.0006001949548718688 0.00135178924198485 0.0002239311419929597 -0.00155242776613311 
0.0006677661992345442 0.001038525296551116 5.109565658377226e-05 -0.001860503513802943 
-0.0002269798360935919 0.002037694188109632 0.001327112916130442 -0.003526644938880496 
4.280634962897045e-05 0.0002344271012729338 -0.0003597973825118285 0.0001930748617806261 
-0.0001415049643243068 0.0002724642576726793 6.069535770977897e-05 0.0002659591552508013 
8.786853441456824e-05 -0.0001182094220459967 -0.0001769329029915181 0.0006223930324601327 
-0.0003043663960486401 0.0001039288407848372 0.001079211640333933 -0.001754284850683322 
0.0003922542466504317 7.847452977761523e-05 -7.623750192668622e-05 -4.892050167551547e-05 
-8.859149814037931e-05 0.00130054245266204 -0.0008137751456531346 -0.001150870550764502 
0.0001285768399761251 0.0007165458674024955 -0.0003633002323482484 -0.001829545224781803 
0.0007017795946216448 0.0005779103809976846 -0.0003173996598671261 -0.0002537990324503493 
-0.001016916713609384 0.0007568600932060117 -0.0006629713072739251 -0.0009284837625422879 
-0.0003203350895518814 0.001054229223606408 -4.808041081241376e-05 -0.00180774108750492 
-0.000394631592007395 0.0005867490808378847 0.0001295080558086612 -0.0007056771946316486 
1.961601560631539e-05 0.001098507090364286 -0.0003532773802696125 -0.001209844820499843 
-0.0004360594800941213 0.0008903772412022083 0.0001400113261820254 -0.001008621432028567 
-0.000338007190929176 0.001087647732483994 -0.0006599345431582312 -0.0007756101269949735 
-0.0002293561526823227 0.0007072012767263527 -0.0007010154319199194 5.403993946909365e-05 
-0.0001435007251922285 0.0002926283405886862 8.371243507434919e-05 -0.0007436836103553696 
-0.000253030535596731 0.001031816099434195 -0.0006794895140551063 -0.000720289925205417 
-5.589754015283874e-05 0.001012387898249815 -0.0009372696338596581 -0.000139398606217366 
0.000334125690648737 0.001263469603946799 -0.0005117825086344998 -0.001120137206220909 
5.910834794138315e-05 0.001176496336279435 -0.0006376974360818416 -0.0007241488741693326 
2.049434788315936e-05 0.0006478660690697111 -0.0007676037844023174 -9.10037833651881e-05 
0.000185979860164491 0.0006778151593142302 0.0001305631219065068 -0.0005645820392686373 
4.199275066394971e-05 0.0009703867107481715 -0.0003171653424396029 -0.0009293967831591485 
-0.0001658140313412085 0.001271204977884708 -0.0007708843466881946 -0.001071425281636903 
0.000113164867872025 0.000997918666262106 -0.0009917643696933853 0.0002014506916252531 
9.580183002299886e-05 0.0005638933763687279 -0.0007388901506394494 0.0003545860212478693 
0.0001112620160851776 -0.0002230078096203614 -0.0001524930223786293 0.0007114826262095535 
-0.0003661446840092986 0.001004208186505932 -0.0004390117259602073 -0.00105678267200806 
6.550420465498186e-05 0.0001336823238819631 -0.0004161338579890025 0.0004308523147995169 
-0.0002846559195846159 0.0009327700035656089 -0.0007108663925521503 -0.0003194518809582598 
-7.564221757516037e-05 0.0007405008109664953 -0.0006690834544630649 1.431513189217798e-05 
-0.0003072303953965479 0.001131183990897716 0.0002221829328904257 -0.002477994623498807 
-0.0005102029876673296 0.0008883551822942677 -0.0008648380992256295 -0.0003639042508477903 
-0.0004958981446195541 0.0009608236372121172 -0.0008259575928993676 -0.0006543062706753012 
-0.0001257116482341665 0.0008130992386401869 -0.000382025838813677 -0.0003788658218402018 
-0.0002221838270122057 0.0008519583750608288 -0.0006045570515070974 -0.000161085762092751 
-0.0006151849125435473 0.0003759174014591269 -0.0001885361874968 0.0001991880020419161 
-3.287986813192836e-05 0.001656760068328218 -0.0009652929418801095 -0.001054544410652764 
-0.0005514679091910559 0.001899727071913481 -0.00158388840074484 -0.001791626491743284 
-0.0001773971692702454 -8.706689573743351e-06 0.000233609675429953 -0.0001209282078850117 
-0.000556518419098307 -0.001400602779219667 0.002376147026858719 -0.0003250743243417774 
-0.001491507317336861 -0.002282361825926012 0.003378053954405316 -0.002371484937752485 
-0.0002886740402337266 -0.0009253612836592034 0.001232052092617802 -0.0005045757220999147 
0.0003301790891187654 -0.001331131797450329 0.0007333150222713605 0.0002466225352369061 
-0.0004746703073819223 -0.001631795213831063 0.001327744037758836 -0.0004396166151188956 
1.70884725785608e-05 0.0004015364663988868 0.00111406782071395 -0.000188774615383828 
-0.0002348949598114317 -0.0009504806997453755 0.00113567822120272 2.561428976305082e-05 
0.0004015512523138986 0.0003343486571785054 0.0002411539912400906 0.0005922729806367918 
-0.0003529376814416233 -0.001773102481234469 0.001298647641223139 -0.0006234196256487016 
-0.0003689811434652469 -0.0009891859972223159 0.001823519012905019 -3.529847412336529e-05 
-0.0004964065313648329 -0.0009497413450165124 0.001543933446097921 0.0001045489101040612 
-0.0002115141411166299 -0.0007112069849353459 0.0009976791525867651 0.0002093629746477342 
-0.000430133937138359 -0.001457979544002417 0.002479762909474734 -0.001198788077525917 
-0.0002178795525542044 -0.0007556440907258262 0.001027587586538264 0.0001616748664611951 
-0.0003984994064564529 -0.0008541267398216468 0.0009047069373013464 -0.001216552496345958 
-0.0005648001765253796 -0.001138251080231878 0.00105564929326534 -0.0003556429742387863 
-0.0001178761190901012 -0.0004866577298265317 0.0002952498734962846 0.0002333478112960053 
-0.0001305763662514783 -0.0006995580978097217 0.0007696207751955123 0.0001369510053647692 
0.000161418255716991 0.001181545857926348 -0.0006240360880917316 0.001289221023357163 
-0.0002912851156183817 0.001051564246058223 -0.0002805806710850057 0.0007463454710498719 
-0.0007672825471193329 -0.001092686681544791 0.001154374330527152 -0.0007915091092028091 
-0.0003097492184049492 -0.0002072777033494541 0.0009783421621082109 0.0005706529447860668 
4.100339828136949e-06 -0.001039154339821484 0.0008074474470698893 -0.0004847035820411181 
-0.0004512980212029329 -0.0002517730826730042 0.001250797258679605 -0.0002014620118816006 
-0.001071777965568862 0.001813765162286275 -0.0003480198167009004 6.951837198664965e-05 
-0.001515465067587296 0.0001734974588789736 -0.0002196061905327445 -0.00044403917694847 
0.0004358920147397693 -0.0005990416303978821 -0.001018239817968647 -7.180535136243967e-05 
-0.0001415256723164819 -0.0002802044368431765 0.0006408699418719224 9.105860160193086e-05 
-0.0002469074990064727 -0.0001646827529720568 0.0003373593034278123 -0.001048998652839574 
-4.296810155322472e-05 0.0003190023555281136 0.0005862237097976465 -0.001075067138540172 
8.200633125008189e-05 0.0001603977101521294 0.0001591456172612922 9.36362038333439e-05 
-0.0003570178214465548 -0.001379355997582387 0.0005474902278159291 -3.079098043504384e-05 
-0.0009097136933547016 -0.0007214604984570759 0.001534329629135134 -0.001906387907740808 
8.98415504250276e-05 -0.001202672335851218 0.0006768404956933086 0.0003156130296550035 
-0.00075448443330644 -0.0007981420731358293 8.57541377446189e-05 -0.0006692339400405643 
-0.001005208770662664 -0.00241837588550123 0.002832975147230621 -0.001884829614066223 
-0.001784834466213898 -0.002983603317247508 0.003469218342698693 -0.002340683992281479 
0.001150394798267346 -8.961654792476482e-05 -0.00137263127099741 0.002714952371243638 
-0.0002238182495887611 -0.0004604302006427729 3.951381758476463e-05 0.0002946216451732784 
8.55570633696539e-06 -0.001321914075853154 0.00159293490960643 -0.0001320222297196132 
0.0002186362453872861 -0.0006609786663766339 0.001068158104989523 0.0004158524887162012 
-0.0007213681490273813 -0.001614109404142733 0.002853830446541778 -0.0008026412969200782 
-0.001050094035248494 -0.001024466051398809 0.002032551596263489 -0.00133929602975084 
0.0002093784231843381 -0.001014452874700412 -0.0002344824916217571 0.001077119370331352 
-0.000635531344424907 -0.0007681086258502979 0.001883438755756998 -0.0005442516923599645 
-0.0004363965846080241 -0.001306990647932891 0.001390951037077816 -7.279455328021454e-05 
-0.0001814251324361565 -0.001000426249688846 0.001041267894210455 0.0003743215111996986 
-0.001244597813333382 -0.0008897171759456449 0.0007834250777807801 0.001356608673270541 
-0.0008184244736515705 -0.0006630798690657524 -0.001097112911778637 0.002484003423876433 
-8.914056043772958e-05 -0.001764143715122606 0.002118984199563427 -0.001582402802706632 
-0.0003042397531786874 -0.001447026266457178 0.001246240451686414 0.0002570952797383847 
-0.0008807825722485457 -0.001491999729306556 0.001045349685259939 0.0005316104378939832 
-0.0004280529824542655 -0.0002796365538305214 0.00167272787163806 -0.0003528107021040696 
-0.0003439691035616112 -0.002220205295138494 0.001014328173071451 0.0002081625453545817 
-0.0004193077105822829 0.0006431486343836586 -0.0005812937846126336 0.0007476831534420639 
-0.0005420143914612476 -0.001945149448939121 0.002378871795338754 -0.003368124802227816 
2.019248758190103e-05 -0.0002458988508331024 0.001970128792865147 -0.002213192047763193 
-0.0008342117177724669 -0.00174524641532659 0.0002986612584524758 0.0008245056868477212 
-2.341848288633026e-05 -0.0002184534108271925 0.003202365117596069 -0.00133888424882114 
-0.0006070411235367956 -0.001965711184306323 0.0009888049130410907 0.00041721398472006 
-0.0001009196667942225 -0.0003173128004984645 0.0004983548365870645 -0.0002440191501056426 
-0.0008830671721013424 -0.0001794101987560998 0.001204459196177749 -0.0005231781978551789 
-0.0002411748723168342 -0.000732060147887149 0.0001354403017372068 0.0005491737600229943 
-0.000555739441921379 0.0002245684628179488 -0.0007729091567402499 0.001188530601194318 
9.020394357086934e-05 -0.0001213509108488291 0.0006506496240631264 -8.216177256549598e-06 
-0.00013886895816162 -0.0005982109246316057 0.0010492587978466 0.000171350016584664 
-0.000745551905238456 -0.001522189852350159 0.002184912654717982 -0.0005866059081686472 
3.22727142892339e-05 -0.0002397556155981552 0.0008303934033813812 -0.0003399484965723252 
0.0002843460982361098 -0.0008680525686435745 0.001165854352377248 -0.001093918344126835 
3.171539477910401e-05 -0.000533864110587839 -0.0001276913430993868 0.0008764262918245856 
-0.000260793282201451 -0.0004408317897187006 0.0007522759732265058 -0.0002752315244978708 
-0.0001068437501993935 -0.0006558698966240167 0.0009111599530020752 -0.0004079574039389435 
-0.0002385244832057323 -0.0002334564171665835 0.0009194343165238181 -0.0005468127199953966 
-0.001300501891201959 -0.001761916434217538 0.002016154066792579 -0.002538857931013726 
-0.001693643088768445 -0.003214710490443471 0.002624579138469438 -0.001581715556236676 
0.0003980483329852106 -6.78389033009848e-05 0.000698388696004266 0.001084935565810273 
-0.0007720814070644042 0.0001395227917297182 0.0008348463918670134 0.001707584582092172 
-0.0005268752664411384 -0.0002895596284554208 -0.000134307100775873 0.00120982801656314 
-0.001112803410900642 0.0009899272779579197 -0.0001723515145322571 0.0003377160355597665 
-0.0006901843689056315 0.001333311078306459 -0.001903872679363722 0.001555714210263437 
-0.001556523727227716 -2.419392403396554e-05 0.0005127826891287163 -0.002404532255752418 
-0.001075595025097584 5.720071361262055e-05 0.0009673296111563074 -0.0005114453196250855 
-0.001021398422271629 -0.0004929860116468568 0.001320244132422191 -0.001538154885301448 
-0.0008306926497849537 -0.0009594198732418312 0.001112244559296524 -0.0009892730775085338 
-0.0009295882759989331 0.0002854115942974966 0.0009028411858064061 -0.001209176743773846 
-0.0008149583863181935 -0.001010945517902513 0.001958116923667277 -0.000653895129896195 
-8.257454540806582e-05 -0.0006037289805360821 0.00110350490601067 -0.0001802869647643238 
4.72223210802745e-05 -0.0009222007748072525 0.001993340970018526 -0.001560599754478791 
-0.0004891035105840351 -0.00113166887046466 0.0008253145524624909 -0.0003818664554566474 
-0.0006169015076720182 -0.0005285068725070631 -0.0003261828603646771 -0.001601384392479884 
-0.001191903202297182 -0.001046171042641941 0.001745127090302141 -0.001278757273946886 
-0.001356199817295966 -0.001604842926649942 0.001678706847442645 -0.001755207593843311 
-0.001367295841690308 0.0003462564893581259 0.0006594100532349639 -0.001222909980055634 
-0.0006773386548852422 -0.0004513268943757776 0.0006873937016582701 -0.000200614400767282 
0.000558259086812241 0.0008946863035517428 -0.0007693842726994702 0.002175843723517808 
-0.001027000132947426 -0.0001994094820289735 -0.0002963201801133129 0.0003161681460000775 
-0.0007688732793550444 0.0003310079445008102 -0.001444783938934193 0.001117285982499839 
-0.0003608903025131707 0.000702314410663137 0.0009293211179047297 7.774531260293313e-05 
-0.001006352165672451 0.0002048361667006407 0.0001436129675284327 -8.308073305910341e-05 
-0.0008249157088264026 -0.001494626167747162 -0.001674736785987718 0.0006215427020731307 
0.0007330167611001573 -0.0006405886957045696 -0.0003119501940098108 0.002662128606309939 
-0.0005491200023442681 0.0004806908033811074 0.0003886118078271744 -0.001194341763751145 
0.0005228789858003356 0.0008927613116499588 0.001878458941650288 -0.0004182415491492342 
-0.0009270386269171259 -0.00155776407615944 0.009777796723847603 -0.01001857958144919 
-0.0005685907685454966 -0.001783374502932115 0.0004654141851515001 -7.782582392604964e-05 
-0.001327153898633149 -0.001432996987205845 -0.0007735639111969846 -0.0002424548212013983 
-0.0002086371687281635 0.000491315405029563 0.000403879354036819 -0.0005365343780616341 
-0.001614486531500734 -0.001017302293042103 0.001587270104981762 -0.001883479912853029 
0.0003875083411164051 -0.001141262927767546 0.0004035147417422407 0.001292477211866292 
-0.000489123809468881 0.001509568174396404 -0.003143381297434131 0.0004540046507036898 
-0.0007882833497280811 -0.001899148864338747 0.001527336489206124 -0.0006316222381754623 
-0.0001447890239225116 -0.0001105662341015246 0.0003542864901398176 -0.0006219563028382108 
-0.0001288573669122512 0.0001613762550972229 -0.0007557048202877344 0.001121251825709329 
-0.000328634097212107 -0.001110074363719323 0.001650411413506223 -0.0008819482750111017 
-0.001216426775436946 -0.0006258283328572471 0.00169053802391041 0.0002400272696496308 
-0.0003817726536990564 -0.002490373810409013 0.002502135726948683 -0.001695878572368164 
-0.0007266952360434685 -0.003012296947791329 0.00117199546948982 -0.0008652076503882448 
-0.0005373777989993407 -0.0007600928104933197 0.001757000071336678 -0.001047979766443135 
0.0001993401760868267 -0.00151498583830584 0.001936041081966399 -0.001802361552495555 
-0.0004905094065170579 -0.002348832556196562 0.0003943862975063737 0.0007340043713841215 
4.694545933003047e-05 -0.0005706453802176496 -0.0005412123641628193 0.001186825931571352 
-0.000761364223100634 -0.001188883098542325 0.001832145379074342 -0.0007443581678069297 
0.0001007367769894446 0.001146015368163294 -0.0005501535802542337 0.0001953376036340239 
-0.0007014294846712101 -0.0005369177555843938 -0.0003035790112609116 -0.0009848802897493335 
-0.001981655738069175 7.664319407439339e-05 0.0007010301642218297 -0.001257115688250244 
9.964268348704945e-05 0.001989782072598032 -4.624117563284737e-05 0.001417774143501321 
-0.0003309389945631356 0.0003267376802135691 0.0002068599933850058 6.087180892603239e-05 
-0.0008009893349216468 -0.0007111903355808722 0.002180898452976899 -0.0008405357669893291 
-0.0003289682990653647 -0.0004800529352852728 -0.0002173722131588833 0.00123318545049809 
-0.0006635109074336706 -0.0002450256614099679 0.002298078137719455 -0.001143845898285299 
-4.321030404875278e-05 0.001599125125925123 -0.001385927549724833 0.001422654777903144 
-0.001014942789430721 -0.001756352552992954 0.0008558874147996837 -8.34614230660044e-05 
0.0001730112341118217 -0.0004493669439526729 -0.0007940216557206839 0.0007174000764293257 
2.574143360656539e-05 -5.986388628740883e-05 0.0006341639255061971 -0.00119483786622104 
-0.0006289273448784178 -0.0006090364274364318 3.967363376932841e-05 -0.001904549688629681 
-0.000441661580957044 -0.00154992710144152 -0.002722921066112862 0.003245885770994989 
-0.001562530440942031 -0.0001738830696143068 0.0008029601551685915 -0.001981087581998726 
-0.0003026722642094517 -0.002218888604783905 -0.0001652901198371403 0.001715604409670254 
0.0002914241237274983 -0.0006817226606595961 -6.670133554434393e-05 0.0002100275577099119 
-5.530120975563279e-05 -0.0009239304271507131 0.001559413202107845 -0.001259188491569516 
0.0002247594193915923 -0.0006237614429535183 0.0006624231803051114 -0.0004792142038105859 
-0.000998028483149294 -0.0005864850316764651 0.002037647778447303 -0.001483741034506894 
-0.0003803149607823016 -0.0008595906258139704 0.001325977318765119 9.27472968421007e-05 
-0.0005346447402972884 -0.0001423937816190631 0.0002376718343462687 -0.0003433548095807308 
-0.0001704760490493925 0.0003293963005298504 -5.624024400644503e-05 0.0005394258041740014 
-0.0009278236763830093 -0.0002070634039763447 0.001513194065867627 -7.57302837009654e-05 
-0.0004125514930529043 -0.0003958663046541578 0.0009989464402382711 0.0001286488688343374 
5.321154900445727e-05 -0.0006509181843221265 9.450507095172182e-05 0.001077594959343861 
-8.060227152820039e-05 -0.001011064806341403 0.0002384421848938994 0.0006042756443977397 
-0.0004944450253975974 -0.0006675799228819126 0.001435261516548339 0.0001514759031036145 
-0.0001518529478087402 -0.0007752578324422197 0.0008600967298296089 0.0002782696537284844 
-0.0005923280482666712 -0.002385663618625359 0.002336521764460719 -0.00101227206759104 
-0.0006458045324769238 -0.0006771372770573648 0.0006044417148084903 0.0003685764186724388 
-0.000633418396318364 -0.001210270995216953 0.002081271494353173 -0.0008710261679984533 
-0.000338212335762642 -0.001741410991724337 0.001539579191394001 -0.0009590391296395616 
-0.0002628716804959312 -0.0002204725280541293 0.001789947423568495 -0.002035733367251531 
-0.001142896833277376 0.0008134454290019991 -0.001164958453833064 -0.001085647813882233 
-0.0001365733829162608 0.0007545180294762963 -0.001017562121401435 0.0006866563060203001 
0.0004326432240665951 0.003639454127025501 -0.0002761963554899153 0.001337965769807349 
-0.0002649739936524456 0.001562281507229493 -0.0008820759930808865 0.00124360971110126 
-0.0006410301981867952 0.0005147512986159241 -0.001942526367997881 0.0001436736973841708 
-0.0007760037515656894 -1.779980149768929e-05 0.0008789072243323015 -0.001424460424667952 
-0.002153912302769579 -0.0006324831381694265 0.002922524940964719 -0.002295003941565964 
-0.0008238684248365117 0.0002654329003942996 5.754077951220051e-05 0.0002726815742800537 
0.0002357777095747894 -0.001198448977675547 2.741927518474747e-05 0.001348476581183181 
-0.0006077669475475447 -0.0007551457283520317 0.0006763468282063261 0.000825782640993171 
-0.0009686487221230677 -0.002107722024617407 0.003402599368205499 -0.001957288740846844 
-0.0003138746029725394 -0.0006315200057520846 0.0006492066305741693 -3.378475933711601e-06 
-0.000424015652811506 -0.0001039740045523637 0.0009173543379010753 0.001030594595504496 
3.015622938854406e-05 -0.0007943645815699479 0.0005772808003085057 0.0002678019256852104 
0.0002044072398082472 -0.000675037060176485 0.0003424600760344168 0.0001097300355199369 
-5.985849216897571e-05 -0.0006333100928368576 0.0001174877227857901 0.0009177118896426778 
-0.002081150554351674 -0.002372195408098941 0.002394849838327394 -0.003047712063498713 
-0.0005119584583417757 -0.001988827440561081 0.002687870955201138 -0.001676555709237515 
0.0001122961599661216 -0.002636328510815484 0.001606561701369765 0.001226781702067172 
-0.000534646406125669 0.0002477549938561518 0.001569627640749748 -0.0005135622815413955 
-0.0005457171356345862 8.316489603475816e-05 0.003726784636018097 -0.002702034295463497 
-0.000299095215006302 -0.00177219612828899 0.0008611713225181705 0.0002944868411426405 
-0.0005348759558911717 -0.0004680575374644862 0.001428284002165524 1.899166598038846e-05 
-0.0003138690555629653 -0.0001992670275852361 1.791815746423267e-05 0.0006333137851772807 
-0.0009272062247012004 0.0001511398580614323 -0.000415100185969872 2.626824875064748e-05 
-0.00124463466156462 -0.0002778691880907744 0.001192908851185247 -0.002675997928099988 
5.835607756047082e-05 -0.0007324477467439678 0.0004100732653638036 0.0006381213167650647 
-0.0007122195726832984 -0.0001097467657330969 0.001646040985431612 -0.001053873166239594 
3.465961086629038e-05 0.001011730233787514 -0.0006072699777536043 0.0009566873012412328 
-0.00137779301992857 -0.001025064791685473 0.002251953757779669 -0.001535193383773073 
-0.0001202950561192956 -0.0008687536729671657 0.0009852661574084817 -4.457622129859382e-05 
-0.0003553072971151738 -0.001746800216568246 0.001967954590762525 -0.0001417041790461979 
-0.0004070273481824382 -0.0005503252555212111 0.001559513512637046 -0.0006006427309668926 
-0.0007189977709327843 0.0001590601174301402 0.001130872983816394 -0.0004023746737411714 
-0.0006697061874198526 -0.00102444518780424 0.001969132094647246 -0.0003161790267506468 
6.095277795247268e-05 -0.001280562490242312 0.0002695633268897154 0.0007412355993597403 
-0.0005262543224688098 -0.001159012938435558 0.001490049293851392 -6.041759271965876e-05 
-8.404264757866514e-05 -0.0007504916332886381 0.0001625357193750666 -0.0001676705552150155 
-0.0002746665745534552 -0.001072131847078357 0.0009945555547893606 -0.0005710182624869266 
-0.0008893392735939384 -0.0004106865248929972 0.001278423705625179 -0.002179770498608485 
-3.06492562243373e-05 -0.001195110658560134 0.0007650328871979113 0.0005009271517585599 
-0.0002036349338288903 -0.00107271237056432 5.652759683153857e-05 0.0001815155093172154 
-0.0009453107118684623 -0.0006074966946950421 0.006608193901443351 -0.007881522724974889 
-0.0003067682575734056 -0.001611051198763311 0.001875790262743324 -0.000155376680008056 
2.009052192538935e-05 -0.0003905586353111198 5.945167281192888e-05 1.112189629312222e-05 
-0.0001581140157226692 -0.0009851725708795026 0.0006976031613034109 6.663637276629937e-06 
0.0001188446055207154 -0.0007386275288422521 0.0001904176781661515 0.0004288929436891294 
-7.782960072367591e-05 -0.001004486039761672 0.001148424342412919 -0.001024352314377235 
0.0001094303246078123 -0.0006570003257945775 5.841879750845884e-05 0.0006773148042496019 
3.295217996587941e-05 -0.0006844110147421955 0.0003596360581624171 0.0002557088715649938 
-0.00019046626051816 -0.0005761599009130022 0.0009088778456113861 8.436720158908992e-05 
7.277390336170792e-05 -8.587377694619505e-05 0.0007806353165764901 -0.0004198624834177296 
4.354771928282337e-05 -0.001010211197554926 0.0003747409661750277 4.416225651501794e-05 
-0.0006419905878320989 -0.001408580863678559 0.00199007099879832 -0.00149150425656452 
-0.001207448909549701 0.0003990854892696768 -0.000642371752547502 -0.0009611141056860037 
0.0002863992265634863 -0.001030627043256743 0.000486338530445498 0.0002028703651298314 
-0.0004203108698023217 -0.0004380978438638177 -8.812652973029976e-05 0.0006945864497249108 
-0.0003823917083264213 -0.001002982122165751 -0.0006909015239976154 0.0009125799855168077 
-0.001284769773969094 -0.001157146681727562 -0.001022975814059351 -0.0004049616990688382 
0.0002863992265634863 -0.001030627043256743 0.000486338530445498 0.0002028703651298314 
-0.0004330343173774678 -0.000385580341309904 0.001012710313183924 -0.001140524322049163 
-0.000628563611770866 -0.000726049966882771 0.001310607715677103 -0.001911275195078671 
7.541789453507298e-05 -0.0002731198692248099 0.0005229834029286527 0.0004780013938142654 
-0.001243172944668271 -0.0001398173158921714 0.001646136856618128 -0.0002880033211897593 
-0.0005720828519454937 -0.001635301403306169 -0.0002863412376969047 0.0007155693316370625 
-0.001382798174291581 -0.0004653209208064983 -0.0004143805877971546 -0.0002225257426044787 
-0.0008940252503264869 -0.0005914617954049866 -0.0002696100927180103 0.001171615271828459 
-0.0004928274461151762 -0.0005406684705980575 -0.001365555046866861 0.002742191368943253 
4.268888360041864e-05 -0.0001010187685548725 -0.003380978552558736 0.003143595659682246 
-0.001033649404283478 -0.0006950045072095546 -0.001321988799236637 0.002848454595261279 
-0.001202950696893438 -0.0006416225691404146 -0.0005583782351778899 0.001996660404871056 
0.0002405706257215319 -0.0002339823654538248 0.001568006911579915 -0.001510813791343987 
-0.0006312047305715814 -0.0005165108344246522 0.001458348361010588 -0.0007375174620634171 
-0.00102787032503985 -0.0005460035819612464 0.0005486900034803183 1.893341863852797e-05 
-0.0001451623204834215 -0.0002382978719584709 -0.0002632849104727911 -0.001263797158225884 
-0.0006973456724116672 -0.0002045912814553334 0.001231530547519607 -0.0004733589362681664 
-0.00119768315696426 -0.0002370629835462792 0.001113333110932872 -0.0005042758313991339 
-0.001021639052893646 -0.0001780358157297842 -0.0005332795441453744 0.001651879099099683 
-0.0004647688091186708 -0.0008844804889131926 -0.0009567004706222636 0.001236069378353174 
-0.0005599939390677996 -0.0007314565620581912 -0.001812776410854801 0.0006703799253424957 
-0.0004752898224044487 0.0003114067449647699 0.0001198180115848241 -0.0001363773582273938 
-0.0009920109025312886 -0.0003150836649741621 0.0003793369534054436 0.000622927987734006 
-0.0006958337563258564 -0.000400941156196079 0.001335129479555994 0.0005013984116821987 
-0.0005151624603059321 -0.0003239894318530331 -0.0003344327100113331 0.0008256824534889695 
-0.0005118077830859444 -0.0004045334696144389 0.002268929125341484 -0.001023033636575039 
-0.0005975777168258739 -0.000101028146985686 0.0009904584828995795 -0.0001872142568147448 
-0.0007539581717588474 9.811505023457525e-05 0.0003698397533191269 0.001024196313057592 
0.0001049616087449962 -0.0003139932555929131 -0.001175893848631644 -0.0003310905049924538 
-0.001319264559371428 -0.0006465790001028541 -0.002099673737883068 0.001804069852933862 
-0.001564492103807502 -0.0005946463024455188 0.0002842574154756887 6.673090767136303e-06 
-0.001356308359126735 -0.0005766722402441342 -0.004659490836799117 0.005304005097804186 
-0.001537191916594141 -0.0001179465069815558 0.004143989228671661 -0.001831170270012019 
-0.001835976480931026 -0.0005997312917747712 -0.002604004080083507 0.00440136054658801 
-0.0006845077201508468 0.0004529716454386862 -0.002979892873912277 0.002740223206230751 
0.0003630715840570196 -1.143165996819927e-05 0.0001427984783727665 -0.0004390137841567877 
-0.0002330765830217223 -0.0002805191508676033 -0.001928041388527691 0.002661616957656726 
-0.0004125399759511742 -0.0006432390651286716 -0.001776933376005126 0.0003203577354083156 
0.000269770328163383 -0.0001004715525919047 -0.001021337246803025 0.001264051012052517 
-0.0001050066308796093 -0.0001135404130417258 -0.0007048059354415713 -0.0001718634462751583 
-0.0005007482642851647 -0.0002584927821401451 -0.000331033651294697 -0.0002851091476500956 
-0.0005021500555606607 -6.968634572992999e-05 -0.002235473714861287 0.001769020271161899 
-0.0001850222210991546 -0.0004531425412633664 -0.0007404072585635573 0.001019399174094668 
-0.0004609807632861473 -0.0001079426421101902 -0.001686863126347179 0.001975990964081241 
-0.001635275566437954 -0.0005044664215239022 0.002437241846211937 0.0002815303963112563 
-0.00121586891299664 -0.0005989205673262317 -0.004519975645187867 0.004330744696611558 
-0.001011733844516658 0.0002975496710383694 0.001368013465161947 8.450060760221021e-05 
-0.00180523553802147 -0.0001704912942124756 0.002815805692177193 -0.0001598686369102768 
-0.001724124625792009 -0.0002378145715793901 0.0008820860526769779 0.002195776213043591 
-0.001988620973622686 -0.0003995037097271272 0.002948290461845732 0.0004137610207582501 
-0.0009936940871709302 -0.001311090766262548 -0.0007896508167092507 -0.002169269827938021 
-0.0005973051079283065 1.636607015666339e-05 0.003132819395201638 -0.002699542015282644 
-0.001202232122320287 -0.0006284211827563066 -0.001785456469769591 0.001679292468610055 
-0.000853552887495623 -0.0005238136993856795 -0.001104836701432069 0.0002595163720795085 
-0.0004616731190515433 -0.0003276981515602269 0.0003815465604152269 0.0001889861623174239 
-0.0003309597965702232 -6.133797513604575e-05 0.0005151577589855924 0.00078930530453214 
-0.0006945388397044134 -0.0003188865531347239 -0.000283406453070983 0.001688884270700362 
-0.0008246607983975596 -3.630564278628252e-05 0.0001948896629589969 0.0005620187513315913 
-9.674748363397224e-05 0.0004973971973912166 0.00146980606169384 -0.0009060548493271922 
-0.001485115391321112 -0.0007416916020218527 -0.002106780691325074 0.002701647653142226 
-0.0003775893852282602 0.001025287945323416 -0.001677814185737862 0.001187962825661603 
-0.002493258230873673 -0.001933388328113019 0.004461998383222853 0.0002219697421618653 
-0.001582189955797592 -0.001184569781261977 0.0008962412635339826 0.002072230909013053 
-0.0001419635769468381 -0.001178636097954919 -0.0005310011481819396 0.003091047362914964 
-0.001208064027072323 -0.00135771328801594 0.001204017248975603 0.0004857574439781856 
-0.0006720181307284898 -0.0002361964740281696 0.0004144402923079366 0.0004985211835874143 
-0.001081433737929903 -0.001099226009562471 -0.002285964106947737 0.003412333133990602 
-0.0003079053279091952 2.37451852018198e-05 -0.0001085181315006295 0.0005927436783148397 
-0.0002929791418857106 -0.0006039673548270373 -0.000778730022923088 -0.0009475346854371593 
-7.656622523057894e-05 -1.67548843412214e-05 -0.004584283989461151 0.003569282143168305 
-0.0007632917571149312 -0.0007915841892072622 -0.002609501068793939 0.002075920891885292 
-0.0006850102794172125 -0.001181393685345948 -0.001051202401601864 -0.00157434417662938 
-0.0009529404737293577 0.0003469871501433553 -0.001463020177786786 0.001203803917623082 
-0.001041548413280247 2.619092925674065e-05 0.00431599860222384 -0.004144305429417784 
-0.0004461625813849226 -0.0002068884085006526 0.0002011635904998036 -0.0003309243840386238 
-0.0007499875128022357 1.109753790258156e-05 0.00180020063321834 0.0007579757675009852 
-0.0004805415666290962 -0.0003694554533853463 -0.003654988754371935 0.002836632302286029 
-0.001344778995879412 -0.001759699388363062 0.003758275963856297 -0.0007754515881922426 
-0.0008127667716492135 -0.001031317355152863 -0.001009266695882948 0.002327388506682638 
-0.0009569127126832067 -0.000617249184912824 -0.0001361994528547471 0.001376528238761021 
-0.000827017508172929 -0.0009721862814349802 -0.0006083036085340115 0.0004864883590751946 
-0.0004389546034923036 0.0005940282235004197 1.954325820218148e-05 0.0006118880120301507 
-0.0005156909026208604 -0.0007066383843458933 -0.001750843925160282 0.002349938708248418 
-0.001232953266331745 -0.0004104275539951842 -0.0001850367050295671 0.00124729875443371 
-0.0008503091995600217 -0.0004520043258201831 0.003526205341960611 -0.00202138245157414 
-0.001357003376936002 -0.0004426440966312687 0.002004044240017067 -9.515437188240445e-05 
0.0007262891773637113 -0.000103294144925725 0.002434171805251089 -0.001700903523778193 
0.000120210105405929 -0.0006468404254966773 -0.001760293695108714 0.001234614982440698 
0.0003941549199790796 -0.0005799819102742998 0.0003536703903863826 0.000495161998415693 
4.788700404344061e-05 -0.0004699722173986604 -0.002878545840004433 0.0003590918670599387 
0.0009632154918470884 -0.0002417846091916613 0.001981955815975696 -0.0009190916036655531 
0.0008945411050272729 0.0003469440287876388 0.0007579750696283123 0.0006623682600310891 
0.0001579780319634796 -0.0003675397495429041 -0.001946802956746262 0.002717084361894313 
-0.0009113141573150002 9.209493262305908e-05 -0.001440291176426467 0.002849196621926274 
-0.002481376525010185 -0.001049093907154686 -2.874789663127239e-05 0.003754817306793562 
-0.0003604178775152334 -0.0006707611070940593 0.0003112714712955001 -0.001287130828295592 
-0.0002208525112595788 -0.0005867618668385378 0.001318300521043878 -0.001748718141752547 
-0.0006958734752445657 -0.0003011541633310908 -0.001814252064009733 0.002068391969863341 
-0.001323325644824508 -0.001529221543301389 0.001524161373449075 -0.0007813831680620083 
-0.0004527477710877381 -0.0007104926157096245 -0.00475210797500266 0.002478052255115912 
-0.0005639374131333767 -0.001121112439892805 -0.001073684803998064 0.002879347454748117 
-3.389287171141656e-05 -0.0004504677047245282 -9.61939689819256e-05 -8.19957609270161e-05 
-0.0005566812767894131 -0.0007835251330637564 -0.001871421795973304 0.0008251466887706071 
-0.001260067900796808 -0.001149382006856957 -0.0009179064622649589 0.002866989586056462 
6.573622016830848e-05 -0.0002619058563843509 -0.0001705392142001117 -0.0008931985659243647 
-5.187125457415549e-05 7.272893406590672e-05 -0.001433992401845877 0.0009892766902490234 
0.0002391439464687885 -0.0004571387886318282 -0.0002894041879174298 0.0007677417247818728 
-0.0001218714650445597 0.0003216230777353218 -0.001449813291786299 -0.0004651629031991348 
-0.0004394485067180746 -0.0001236208841775731 -0.002944263681517644 0.001673120343204675 
0.0001206654820708693 -0.0002182615811466313 0.001317975439246114 -0.0005037910316416192 
-0.0005551903260316456 -0.0004619046767262596 0.0006334033824655633 -0.000742667294538714 
0.0004174519310490152 -0.0006344764032638807 0.0002811420157809096 0.0001701953366833867 
0.0002722532626341465 0.0001329187468249951 -0.0002842312996983899 0.0006439199793755036 
-0.001140067107865213 8.760932663555672e-05 0.001873069439223337 -0.00169038681626273 
-0.0004544590901815779 -0.0006179621739837149 -0.002908239184528542 0.004141028876738777 
-0.0007013545806411023 -0.0009212062147961319 0.002414544422071016 -0.0008119213122614572 
-0.0009459301698252122 0.0002864664533837038 -0.001590694829773757 0.0001555244406223169 
-7.89378208196999e-05 4.643723423308559e-05 0.001537054776402778 -0.000195124500771647 
-0.0007861963611230027 0.0002428907020977332 -0.003530835324594928 0.003233910752019438 
-0.001618923518329506 -3.748170158793477e-05 0.003571304507290846 -0.001293818768055611 
-0.0005450729053122153 -0.0003834194828460004 -0.0004950213807051103 0.002176169078360751 
-0.0002748038667101393 -2.629328454588272e-05 -1.38133353548968e-05 -0.001288025229990361 
-0.0004691846653940655 -4.545956049511659e-05 -0.001214998904364555 0.001377319191221978 
-0.0004156839965350068 -0.0005849723297897982 -0.0004831587895896079 -0.0005248638834974691 
-0.0002767670419763231 8.070895843175016e-05 -0.001595141104819304 0.0002387326080311087 
-0.0007727808284715157 -0.0008742146443784903 -0.0001501366357979248 -0.0005870494395385631 
-0.0005001059753079453 -0.000410320679971474 0.001123677598790105 -0.0003875369011589989 
-0.0007050484030873659 -0.0003265716410405903 -0.001032909070566294 7.263607397169749e-05 
-0.0008498145437269049 -0.0005876697606447374 -0.00322185965480588 0.001730607874897545 
-0.0009381720253364988 -0.0009937459570076316 0.0008791615629812717 0.001011858414984789 
-0.0002764484812841025 -0.0008622522843825632 0.0006127957858433073 -7.93622767185276e-05 
0.0001541695121624138 -0.0002247000024441462 -0.0009612858388739523 0.0001867848613872113 
-0.001408548958883819 -0.001677889164917716 -0.0008746984967211921 0.002856290425177334 
0.0003340818935754113 -0.0003203997250070625 -0.0009054110602930793 0.00142704255513084 
-0.0005468896798377362 -0.001109121690587476 -0.002793021691393226 0.003203469899409045 
-0.000351613000366176 -0.0008623604567944049 -0.000367897528908689 0.0004423690363399382 
-0.000268231315463821 -0.0005907388490062403 -0.001093056503222864 0.001005176178225468 
-0.000398014884378429 -0.001037771899727618 -0.000793681994057101 0.0009189945598456706 
0.001233781615999953 -0.0003878602623994592 0.0003935037072678816 0.00181792066003356 
-0.0008251416428864042 0.0003876553638095983 -0.001331231971952228 0.00128595014812207 
-0.0007046576799615485 0.0002919193224877754 -0.001501052617997411 0.001743169594350105 
0.0008918115641310271 0.0001642830275508199 -3.712569940244187e-06 0.001217147078121997 
0.000252034474372634 -0.0001620399360255928 0.001977357792870069 -0.001895927733911172 
-0.0006746119366398242 -0.0004478937801933584 -0.0002985836607912222 0.001431309706653034 
-0.0008183836009442159 0.0002121756153703711 0.00199715043853336 -0.0008378180793624134 
-0.0008287587400653693 -0.0004764036022850562 0.001670067885141281 9.069041729001285e-05 
0.0007123665550555385 -0.0003039693683030094 0.001105194493977054 -0.0002375917259143937 
-0.0001975407527093097 -0.001195620481244739 0.001557843058738285 -0.0006256813548598615 
-0.0008076887582471639 0.0002459553796185271 0.0003032453780463137 0.001262215853281374 
-0.001086392152846363 -0.001129048245296931 0.001374144501456628 -0.001947602807031102 
-0.0008073288760103026 -0.001356170810823593 0.0007953788341057913 0.0003926348877496317 
-0.0007354907112688468 -0.0004546847683056293 0.0004008974395123928 -0.002065144392951865 
-0.001493380323592651 -2.396813515924822e-05 -0.0002974970389214979 0.001827174504182623 
-0.0009934371246989161 -0.0009633521745525232 -0.001393112700303082 -0.0002440218216516887 
-0.000701638330413425 -0.0003444674024399971 0.002708688346020445 -0.003497420215088118 
-0.0003962408457848544 -0.0004274177389146726 0.001127039475468888 -0.001747895839578866 
-0.0005497902446149738 -0.0008292420409489109 -0.0005144863859582949 0.0004149333795438449 
-0.0003109381568866565 -0.0006712462881534083 0.001509806922758963 -0.0006310725482138884 
-0.0002653235032037843 -0.0005933453847184222 -0.00049746841410888 0.0004643538967906434 
-0.0001252144118786127 -0.0002958478061047194 -0.002118958335588863 0.001953645635301124 
9.181522034582796e-05 5.067326828044169e-05 0.001346945531461597 -0.0003283405853320611 
-0.0003745957494760725 -0.0003405024133066142 -0.003114334934518734 0.001901213766454664 
-0.000890552226437987 -0.0003127468165248021 -0.00174336247363553 0.002007723321286856 
-0.0006229359007592801 -0.0003852087099731035 0.001552639031832173 -0.000428117402437079 
-0.001154308715799696 -0.0005454944649334921 0.003838650138943377 -0.003675337372826403 
-0.001084589238324687 -0.001650045577855286 -0.001440889851450952 0.002038163361392837 
-0.001026671596531006 -0.0005268858162365713 -0.002976355302314832 0.004571811549006391 
-0.0006915322205244731 -0.0009396679402229199 0.0001266775369107399 0.000474472726175999 
-0.0002786176296074334 -0.00108063947582477 0.0004340998640124536 -0.0001777230242063182 
0.0003108025087885591 -0.0004252844323416195 0.001706353134068104 -0.001100673954368873 
0.000148031490854854 -0.0004439543445397935 0.001397366188770926 -0.001701929405784612 
-0.0004454499765214943 -0.0006975791197597822 0.003877249170751579 -0.005549943413485029 
-0.0006425233432845615 -0.0003016673806335861 -0.0006242879032691669 -5.851728962690294e-05 
-0.0009961036232529524 -0.0002901843469524794 -0.000144125867973861 -0.0005036846266606906 
-0.0001825926685799459 -0.0005950852695632438 0.004017219935614004 -0.004500838190005673 
-0.0007451559202647613 -0.0004428873573078066 0.0008774036600087459 0.0002718636772821666 
-0.0003114530436254415 -0.0002645372202460088 -0.004358073971982944 0.003208821438895647 
-0.0003704562970191508 0.0002677334722063572 -0.001342864333590539 0.0005592144403943479 
-2.133503908942447e-05 -0.0002756434431919991 -0.001027912952431086 0.001709994539102107 
0.00061157638816196 -0.0003377118412370082 -0.0001408417525535994 0.0002889194574434276 
0.000172631166803473 -0.001126398026974308 0.001058438448929553 -0.0005705591292000629 
-0.0006094837745354437 -4.706698000381158e-05 0.003207078563260826 -0.0008184725134663428 
-0.0008054571568087772 -0.0006886752856292329 -0.0003148004313083864 0.000531401383879767 
-0.0006074485181953665 0.000202431121191874 -0.001357037749577963 0.00226636853926902 
-0.0005756489306254827 -0.0003364222919875629 -0.001552816949452136 0.003614206462795722 
-0.001701633650227222 -0.001408476900057226 -0.003026836755615876 0.002831910664294685 
3.072973065174803e-05 -0.0009245001715471888 -0.0003364344943338886 0.001878707611555523 
2.141089477169315e-06 -0.0005655968587304192 0.0008340330725982858 -0.001049687243475527 
-0.0009461813202688909 -0.0005053407642301808 -0.0003894444128254207 0.0003894736802646919 
-0.0008991415060853505 -5.606350916999806e-05 -0.001090940370083885 0.001444942665452358 
-0.001169331825573372 -0.0008208293724813829 -0.0007708428578839579 0.001381163036678048 
-0.0001970986259102185 -0.000786807290948657 -0.0008327429352645818 0.001984742796001404 
-0.000211585424760834 0.000150126010274361 0.002373598653681596 -0.001779203109786803 
-0.001553686754093762 -2.030351391581719e-05 -0.000121366572023972 0.0006594088566957107 
-0.0008799392435779577 0.0006091988727650608 4.285713347758027e-05 0.0009335196181066515 
-0.0008280331106875969 0.0003323490588677211 -0.001748881535870099 0.002262367016361925 
0.0001372670351905186 -0.0006045539036691967 0.0007158520940140912 -0.0003200175957930358 
-0.0002411839159793014 -0.0007621557116083023 0.001515440194419518 -0.000124122206594026 
-0.001153995743433433 -0.0008849767508912151 -0.001611800917115189 0.0001752290388001362 
-0.0004930348272740813 -0.001937837881178729 0.001981467401588913 -0.0001424714527432223 
-0.0005308196393032441 -0.001438432870236513 0.0005199711529011927 -0.000541628554902539 
-0.0001168307836670697 -0.001078488886267997 0.001178035994669159 -0.0007495068981338668 
0.000171917182727276 -0.0007860919845738043 -0.000735296360950554 0.002664558323145027 
0.0005723194370772583 -0.0004202613389133829 0.001119056514090063 -0.0008430176396028507 
0.0004211595878624425 -0.000283554898893236 -0.0004315949553790777 0.0008768835001835573 
-0.0006116125718982758 -0.001128828213363039 -0.0003552944849363534 0.001386688383037805 
-0.00094935235468212 -0.0008036064127927618 0.001588527453929226 -0.0003793392739176094 
-0.0006984519284957283 -0.0002017890347671974 -0.001841661372690173 0.001831143366119502 
-0.0008525853778945642 -0.000389708936004706 -0.002414948562813258 0.00249751860318298 
-0.0007249524157954576 -0.0005296597096649986 0.0002483192684548388 0.0007661558336075182 
-0.0007798629438762613 -0.001026158847535151 -0.0004468360777839092 0.0003417448972946299 
-0.0003303848019630886 -5.218479857190834e-05 0.000246296750494884 0.0007867510079471477 
-0.0004729410168113014 -0.0004272134615394302 -0.001498940639571803 0.0004801122346820178 
-0.001051214652187098 -0.0005519696692414035 -0.0008707588771708605 0.001579929926677814 
-0.0004586742645030844 -0.0003398036397059095 -0.001724282248806301 0.000868056588695756 
-0.0003504447767201026 -0.0004379394918675655 -0.001336063782181498 0.002392448440132866 
-6.752717197241852e-05 0.0001668974761113325 -0.001612015810407405 0.001817562138158733 
-0.0004772320937181016 -0.0007698107589883326 9.735893911762325e-05 0.0004301442077171674 
-0.0008033135824260895 -6.694448920540239e-05 0.001495167417257784 -0.0002938984514145778 
-0.000540229509940271 -0.0003373642345595593 -0.0001128267314360563 0.0008153158891355153 
-0.0006621829585712769 -0.0003606623162420732 -0.001203463573374497 0.00202647783951126 
0.000129395111764726 -0.0004825269845462563 0.001217543494171161 -0.002691549861743978 
0.0001697465655412058 -0.0003629495338700668 0.00135907502827735 -0.0007957805238184255 
-8.090539752876057e-05 6.413872816636309e-05 -6.651868649553696e-05 -0.000413350400191035 
-0.0004097830193749708 -0.0002148774744981656 0.001932090589851488 -0.001095439372644802 
-0.0007253912574473774 -0.0003424687757728068 -0.0006595802838197664 0.001800180762529664 
-0.001201787046147921 0.0001776671016413478 0.0005833743496088319 0.0003816772706815656 
-0.0003597835549804036 -0.0003084060896129672 -0.0003007598579855945 -0.001064173795530625 
-0.0007472413560061013 0.0001710470636073276 0.001952809906772879 -0.0003661958437899858 
-0.0008300977289547929 2.044451993760266e-05 0.001493195226415001 -0.0003343045224461814 
-0.001170167423623191 -0.0003918306686648854 -0.00131252717368639 0.001343934262874369 
-0.0009116291767361756 -0.0008877466818226388 0.002299873444833079 -0.001340838239887387 
-0.0007707573493069473 -0.0002856504665209698 0.0001761442228893017 0.001062915027855025 
-0.0006840008774594834 -0.000905883701247466 0.0005777998772197423 -0.001209061249224242 
-0.0002300896125231888 -0.0001534827975725764 -0.0001581835144886371 -0.0003283572778412692 
