svm_type c_svc
kernel_type rbf
gamma 0.00374532
nr_class 2
total_sv 123
rho 0.300051
label 1 2
nr_sv 52 71
SV
10 1:0 2:0 3:1 4:0 5:0 6:0 7:0.155279 8:0 9:0.155279 10:0 11:0 12:0 13:0 14:0 15:0.219355 16:0 17:0 18:0.0220588 19:0.0198758 20:0.00128866 21:0 22:0 23:0.028754 24:0 25:0 26:0.144681 27:0 28:0.0338346 29:0 30:0 31:0.015625 32:0.0394737 33:0.0373832 34:0 35:0 36:0.128205 37:0.225166 38:0 39:0 40:0 41:0.102719 42:0 43:0 44:0 45:0.101744 46:0 47:0 48:0 49:0.00425532 50:0 51:0.0883978 52:0.138122 53:0.00377358 54:0.00225734 55:0 56:0.0299003 57:0.00384615 58:0 59:0 60:0 61:0 62:0 63:0.0729614 64:0 65:0 66:0.169082 67:0 68:0.1 69:0 70:0 71:0.0022779 72:0.0969697 73:0 74:0.00526316 75:0 76:0 77:0 78:0 79:0 80:0.0410959 81:0.00215983 82:0.10119 83:0 84:0 85:0.00277778 86:0 87:0.0929368 88:0.00377358 89:0.00304878 90:0 91:0 92:0 93:0.0191083 94:0 95:0 96:0.00609756 97:0.00578035 98:0 99:0 100:0 101:0 102:0 103:0 104:0.0905797 105:0.0319489 106:0.00512821 107:0 108:0 109:0.0027933 110:0.0381679 111:0 112:0.0338983 113:0 114:0.169154 115:0.0243902 116:0 117:0 118:0.0678295 119:0 120:0.00111857 121:0 122:0.0641509 123:0 124:0 125:0 126:0 127:0 128:0 129:0.00260417 130:0.003367 131:0 132:0 133:0 134:0.0371901 135:0.046875 136:0 137:0 138:0 139:0.022831 140:0 141:0 142:0 143:0 144:0 145:0.00221435 146:0.00520833 147:0 148:0.0331126 149:0.00595238 150:0 151:0 152:0 153:0 154:0 155:0 156:0 157:0 158:0 159:0 160:0 161:0 162:0 163:0 164:0 165:0 166:0 167:0 168:0 169:0 170:0 171:0 172:0.0230179 173:0.0432692 174:0 175:0.00568182 176:0.0909091 177:0.0439024 178:0 179:0.0030581 180:0 181:0 182:0 183:0 184:0 185:0.00218341 186:0 187:0 188:0.0396341 189:0 190:0 191:0.00330033 192:0.0484496 193:0 194:0 195:0 196:0 197:0.0298507 198:0 199:0 200:0 201:0 202:0 203:0 204:0 205:0 206:0 207:0 208:0 209:0 210:0.00130208 211:0.00469484 212:0.00363636 213:0 214:0 215:0 216:0 217:0 218:0 219:0 220:0 221:0 222:0 223:0 224:0 225:0 226:0 227:0 228:0 229:0 230:0 231:0 232:0 233:0 234:0 235:0.002 236:0 237:0 238:0.002849 239:0.0406699 240:0 241:0 242:0 243:0.0310345 244:0 245:0.0555556 246:0.0174419 247:0 248:0 249:0.18315 250:0.00203252 251:0 252:0.0926829 253:0.00229358 254:0 255:0.00531915 256:0.00552486 257:0 258:0 259:0 260:0.00406504 261:0 262:0 263:0 264:0 265:0 266:0 267:0.00645161 
10 1:0.157303 2:0.147059 3:0 4:0.166667 5:0.166667 6:1 7:0.117647 8:0.15625 9:0.117647 10:0.102041 11:0.0838323 12:0.136986 13:0.117647 14:0.0456621 15:0.0425532 16:0.157303 17:0.166667 18:0.0448718 19:0.0138889 20:0.0208333 21:0.0838323 22:0.166667 23:0.0645161 24:0.233333 25:0.15625 26:0.0595238 27:0.131579 28:0.0574713 29:0.044586 30:0.117647 31:0.0667939 32:0.0735294 33:0.0291545 34:0.166667 35:0.0684932 36:0.0840336 37:0 38:0.0862069 39:0.166667 40:0.131579 41:0.0378788 42:0.125 43:0.166667 44:0.166667 45:0.0510949 46:0.10101 47:0.142857 48:0.166667 49:0.141732 50:0 51:0.152174 52:0.0952381 53:0.0606061 54:0.0412979 55:0.131579 56:0.0682927 57:0.0897436 58:0.0414938 59:0.118644 60:0.166667 61:0.0144928 62:0.0833333 63:0.035443 64:0.0909091 65:0.0793651 66:0.10219 67:0.0293255 68:0.0520446 69:0.0886076 70:0.12987 71:0.041791 72:0.184211 73:0.166667 74:0.162791 75:0.0465116 76:0.106383 77:0.0293255 78:0.0933333 79:0.0943396 80:0.113821 81:0.0389972 82:0.0371747 83:0.0334448 84:0.147059 85:0.0150376 86:0.0625 87:0 88:0.00574713 89:0.017094 90:0 91:0 92:0.0510204 93:0.0130208 94:0.00505051 95:0.00662252 96:0 97:0 98:0 99:0 100:0 101:0.0120482 102:0 103:0.0412371 104:0.0714286 105:0.0175439 106:0.039604 107:0.0127796 108:0.00241255 109:0.0190114 110:0.0225989 111:0 112:0.0239234 113:0.015625 114:0.0359712 115:0.0323741 116:0 117:0 118:0 119:0 120:0.005 121:0 122:0 123:0.00892857 124:0 125:0 126:0 127:0 128:0.0166667 129:0.00341297 130:0.00485437 131:0 132:0.0864198 133:0 134:0 135:0 136:0 137:0 138:0.0392157 139:0.0408163 140:0 141:0 142:0 143:0.0122549 144:0.00869565 145:0.00203344 146:0 147:0 148:0.0231481 149:0 150:0 151:0 152:0.00298507 153:0.0393701 154:0 155:0.0257732 156:0 157:0.00406504 158:0 159:0 160:0 161:0.0121951 162:0.0117647 163:0 164:0 165:0 166:0 167:0 168:0.00917431 169:0 170:0 171:0 172:0 173:0 174:0.00543478 175:0 176:0 177:0.0789474 178:0 179:0 180:0 181:0.0125 182:0.011236 183:0 184:0 185:0.0250696 186:0 187:0 188:0.00681431 189:0.00965251 190:0.00116279 191:0 192:0.011236 193:0.00877193 194:0 195:0.00564972 196:0 197:0.016 198:0 199:0 200:0 201:0 202:0 203:0 204:0 205:0 206:0.0538922 207:0 208:0 209:0 210:0.00742942 211:0.00819672 212:0 213:0 214:0.00578035 215:0.037037 216:0 217:0 218:0.00280112 219:0.00684932 220:0.00757576 221:0 222:0 223:0 224:0 225:0 226:0 227:0 228:0 229:0 230:0 231:0 232:0.00636943 233:0.132653 234:0 235:0.00244499 236:0 237:0.0108696 238:0 239:0.0147493 240:0 241:0 242:0.015625 243:0 244:0 245:0 246:0 247:0 248:0 249:0.0175439 250:0.00249377 251:0.0208333 252:0.00625 253:0.0236686 254:0.034965 255:0.0425532 256:0.0111111 257:0 258:0.00990099 259:0 260:0 261:0 262:0 263:0 264:0 265:0 266:0 267:0 
10 1:0.181818 2:0.178571 3:0 4:0.208333 5:0.208333 6:0.102041 7:0.136986 8:0.291667 9:0.136986 10:1 11:0.0628931 12:0.163934 13:0.136986 14:0.0689655 15:0 16:0.181818 17:0.208333 18:0.0328947 19:0.0141243 20:0.0212121 21:0.0628931 22:0.208333 23:0.0478469 24:0.192308 25:0.291667 26:0.0641026 27:0.15625 28:0.0886076 29:0.0463576 30:0.136986 31:0.0262664 32:0.0806452 33:0.0302115 34:0.208333 35:0.0746269 36:0.0934579 37:0 38:0.14 39:0.208333 40:0.15625 41:0.0396825 42:0.147059 43:0.208333 44:0.208333 45:0.0534351 46:0.114943 47:0.111111 48:0.208333 49:0.117647 50:0 51:0.119048 52:0.107527 53:0.0653595 54:0.0428135 55:0.15625 56:0.0507614 57:0.0972222 58:0.0622222 59:0.0909091 60:0.208333 61:0.0175439 62:0.0925926 63:0.0258398 64:0.102041 65:0.0877193 66:0.0775194 67:0.0430769 68:0.0383142 69:0.0666667 70:0.153846 71:0.0433437 72:0.147059 73:0.208333 74:0.128205 75:0.0492611 76:0.121951 77:0.0430769 78:0.0704225 79:0.106383 80:0.126126 81:0.0403458 82:0.0389105 83:0.0348432 84:0.178571 85:0 86:0.0769231 87:0 88:0.00617284 89:0 90:0 91:0 92:0.0111111 93:0.00265957 94:0.0274725 95:0.00719424 96:0 97:0 98:0 99:0 100:0 101:0.0140845 102:0 103:0 104:0.0531915 105:0 106:0 107:0 108:0 109:0.0199203 110:0 111:0 112:0.00497512 113:0.104167 114:0.0393701 115:0 116:0 117:0 118:0 119:0 120:0 121:0 122:0 123:0.0520833 124:0 125:0 126:0 127:0 128:0.0208333 129:0.00355872 130:0.00515464 131:0.0615385 132:0.0649351 133:0 134:0 135:0 136:0 137:0.172043 138:0 139:0.0298507 140:0 141:0 142:0 143:0.0126263 144:0.00970874 145:0.000226142 146:0 147:0 148:0.00480769 149:0 150:0 151:0 152:0.00309598 153:0.0588235 154:0 155:0.00537634 156:0 157:0.0042735 158:0 159:0 160:0 161:0.0142857 162:0.0136986 163:0 164:0 165:0 166:0 167:0.0180995 168:0.0537634 169:0 170:0 171:0 172:0 173:0 174:0.00581395 175:0 176:0 177:0 178:0 179:0 180:0 181:0.078125 182:0.0684932 183:0 184:0 185:0.014245 186:0 187:0 188:0 189:0.00196078 190:0.00592417 191:0 192:0.00228833 193:0.00980392 194:0 195:0.00606061 196:0 197:0 198:0 199:0 200:0 201:0 202:0 203:0 204:0 205:0 206:0 207:0 208:0.0285714 209:0 210:0.0075643 211:0.00909091 212:0 213:0 214:0.00621118 215:0 216:0 217:0 218:0.0146628 219:0 220:0.00153374 221:0 222:0 223:0 224:0 225:0 226:0 227:0 228:0 229:0 230:0 231:0 232:0.035461 233:0 234:0 235:0.00251889 236:0 237:0.0125 238:0 239:0.00302115 240:0 241:0 242:0.104167 243:0 244:0 245:0 246:0 247:0 248:0 249:0 250:0.00257069 251:0.00431034 252:0.00634518 253:0 254:0.00740741 255:0 256:0.0675676 257:0 258:0.011236 259:0 260:0 261:0 262:0.0232558 263:0 264:0 265:0 266:0 267:0 
10 1:0.0933333 2:0.0775194 3:0 4:0.0826446 5:0.0826446 6:0.0838323 7:0.0684932 8:0.08 9:0.0684932 10:0.0628931 11:1 12:0.0746269 13:0.0684932 14:0.0984848 15:0 16:0.0933333 17:0.0826446 18:0.0840336 19:0.0128041 20:0.0190996 21:0.0431034 22:0.0826446 23:0.114504 24:0.115702 25:0.08 26:0.0436681 27:0.0729927 28:0.0425532 29:0.0373333 30:0.0684932 31:0.0163934 32:0.0507614 33:0.0247525 34:0.0826446 35:0.0483092 36:0.0555556 37:0 38:0.0564972 39:0.0826446 40:0.214876 41:0.0307692 42:0.070922 43:0.0826446 44:0.0826446 45:0.0294985 46:0.0625 47:0.0880503 48:0.0826446 49:0.0729167 50:0 51:0.0636943 52:0.060241 53:0.0442478 54:0.035 55:0.0729927 56:0.037037 57:0.0645161 58:0.0331126 59:0.184049 60:0.0826446 61:0.00769231 62:0.0552486 63:0.0217391 64:0.0584795 65:0.0534759 66:0.139785 67:0.0248756 68:0.0299401 69:0.147783 70:0.0724638 71:0.025 72:0.070922 73:0.0826446 74:0.0662252 75:0.0362319 76:0.0645161 77:0.0248756 78:0.0663507 79:0.0598802 80:0.0531915 81:0.0333333 82:0.0828025 83:0.0277778 84:0.0775194 85:0 86:0.032 87:0 88:0.00425532 89:0.0135593 90:0 91:0 92:0.0314465 93:0.00222717 94:0.003861 95:0.00471698 96:0 97:0 98:0 99:0 100:0 101:0.00694444 102:0 103:0.0253165 104:0.124481 105:0 106:0 107:0 108:0 109:0.00304878 110:0 111:0 112:0.00364964 113:0.008 114:0.00490196 115:0 116:0 117:0 118:0 119:0 120:0 121:0 122:0 123:0.00578035 124:0 125:0 126:0 127:0 128:0.00826446 129:0.00282486 130:0.00374532 131:0 132:0.0440529 133:0 134:0 135:0 136:0 137:0 138:0 139:0.0245098 140:0 141:0 142:0 143:0.00211416 144:0.00568182 145:0.00111334 146:0 147:0 148:0.00355872 149:0 150:0 151:0 152:0.00252525 153:0.031746 154:0 155:0.0196078 156:0 157:0.00325733 158:0 159:0 160:0 161:0.00699301 162:0.00684932 163:0 164:0 165:0 166:0 167:0 168:0.00588235 169:0 170:0 171:0 172:0 173:0 174:0.00408163 175:0 176:0 177:0 178:0 179:0 180:0 181:0.0070922 182:0.00666667 183:0 184:0 185:0.0117925 186:0 187:0 188:0 189:0.00863558 190:0.00108578 191:0 192:0.00196078 193:0.00571429 194:0 195:0.00420168 196:0 197:0 198:0 199:0 200:0 201:0 202:0 203:0 204:0 205:0 206:0 207:0 208:0 209:0 210:0.00135501 211:0.00546448 212:0 213:0 214:0.0042735 215:0 216:0 217:0 218:0.00239234 219:0 220:0.00693481 221:0 222:0 223:0 224:0 225:0 226:0 227:0 228:0 229:0 230:0 231:0 232:0.00458716 233:0.0238095 234:0 235:0.00212766 236:0 237:0.00653595 238:0 239:0.00247525 240:0 241:0 242:0.008 243:0 244:0 245:0 246:0 247:0 248:0 249:0 250:0.0021645 251:0.0166113 252:0.00115607 253:0 254:0.0245098 255:0 256:0.00662252 257:0 258:0.00617284 259:0 260:0 261:0 262:0 263:0 264:0 265:0 266:0 267:0 
10 1:0.0707071 2:0.0564972 3:0 4:0.0591716 5:0.0591716 6:0.0456621 7:0.0515464 8:0.0828402 9:0.0515464 10:0.0689655 11:0.0984848 12:0.0549451 13:0.0515464 14:1 15:0 16:0.0707071 17:0.0591716 18:0.0635697 19:0.0120627 20:0.0179257 21:0.0357143 22:0.0591716 23:0.0828025 24:0.0578035 25:0.0828402 26:0.0361011 27:0.0540541 28:0.0501792 29:0.0330969 30:0.0515464 31:0.0214067 32:0.0408163 33:0.0221239 34:0.0591716 35:0.0392157 36:0.0438596 37:0 38:0.0633484 39:0.0591716 40:0.0540541 41:0.0268097 42:0.0529101 43:0.0591716 44:0.0591716 45:0.0365535 46:0.0480769 47:0.0473934 48:0.0591716 49:0.0583333 50:0 51:0.0487805 52:0.046729 53:0.0364963 54:0.03125 55:0.0540541 56:0.0314465 57:0.0528302 58:0.0404624 59:0.12093 60:0.0591716 61:0.00561798 62:0.122066 63:0.019685 64:0.0456621 65:0.0425532 66:0.111111 67:0.0313901 68:0.026178 69:0.101961 70:0.0537634 71:0.0315315 72:0.0529101 73:0.0591716 74:0.0502513 75:0.0308642 76:0.0492611 77:0.0313901 78:0.0380228 79:0.0465116 80:0.0603448 81:0.0299145 82:0.0718232 83:0.0245098 84:0.0564972 85:0 86:0.0231214 87:0 88:0.00353357 89:0 90:0 91:0 92:0.00473934 93:0.00201207 94:0.0165016 95:0.00384615 96:0 97:0 98:0 99:0 100:0 101:0.00520833 102:0 103:0 104:0.0887372 105:0 106:0 107:0 108:0 109:0.0134409 110:0 111:0 112:0.00310559 113:0.0295858 114:0.0201613 115:0 116:0 117:0 118:0 119:0 120:0 121:0 122:0 123:0.0230415 124:0 125:0 126:0 127:0 128:0.00591716 129:0.00248756 130:0.0031746 131:0.0215054 132:0.0363636 133:0 134:0 135:0 136:0 137:0 138:0 139:0.0219298 140:0 141:0 142:0 143:0.00967118 144:0.00446429 145:0.000220119 146:0.0820513 147:0 148:0.00303951 149:0 150:0 151:0 152:0.00225225 153:0.0389972 154:0 155:0.00325733 156:0 157:0.0028169 158:0 159:0 160:0 161:0.0052356 162:0.00515464 163:0 164:0 165:0 166:0 167:0.0116959 168:0.0233645 169:0 170:0 171:0 172:0 173:0 174:0.00341297 175:0 176:0 177:0 178:0 179:0 180:0 181:0.027027 182:0.0257732 183:0 184:0 185:0.0105932 186:0 187:0 188:0 189:0.00158479 190:0.00518135 191:0 192:0.00179211 193:0.0044843 194:0 195:0.0034965 196:0 197:0 198:0 199:0 200:0 201:0 202:0 203:0 204:0 205:0 206:0 207:0 208:0.0153257 209:0 210:0.00639386 211:0.004329 212:0 213:0 214:0.0035461 215:0 216:0 217:0 218:0.0108225 219:0 220:0.00129366 221:0 222:0 223:0 224:0 225:0 226:0 227:0 228:0 229:0 230:0 231:0 232:0.019084 233:0 234:0 235:0.0019305 236:0 237:0.00497512 238:0 239:0.00221239 240:0 241:0 242:0.0295858 243:0 244:0 245:0 246:0 247:0 248:0 249:0 250:0.00196078 251:0.00283286 252:0.00550055 253:0 254:0.00390625 255:0 256:0.025641 257:0 258:0.0047619 259:0 260:0 261:0 262:0.0136519 263:0 264:0 265:0 266:0 267:0 
10 1:0 2:0 3:0.219355 4:0 5:0 6:0.0425532 7:0.520833 8:0 9:0.520833 10:0 11:0 12:0 13:0 14:0 15:1 16:0 17:0 18:0.0305085 19:0 20:0 21:0.0258065 22:0 23:0.045 24:0 25:0 26:0.278689 27:0 28:0.0588235 29:0 30:0 31:0 32:0.0782609 33:0 34:0 35:0 36:0.304878 37:0.894737 38:0 39:0 40:0 41:0.155963 42:0 43:0 44:0 45:0.166667 46:0 47:0 48:0 49:0 50:0 51:0.05 52:0.367647 53:0 54:0 55:0 56:0.0478723 57:0 58:0 59:0 60:0 61:0 62:0 63:0.0963173 64:0 65:0 66:0.357895 67:0 68:0.170404 69:0 70:0 71:0 72:0.0625 73:0 74:0 75:0 76:0 77:0 78:0 79:0 80:0.0849057 81:0 82:0.152466 83:0 84:0 85:0 86:0 87:0.160256 88:0 89:0 90:0 91:0 92:0 93:0.0367232 94:0 95:0 96:0 97:0 98:0 99:0 100:0 101:0 102:0 103:0 104:0.153374 105:0.0447761 106:0 107:0.0137457 108:0 109:0 110:0.06 111:0 112:0.0491803 113:0 114:0.452381 115:0.0351562 116:0 117:0 118:0.0841584 119:0 120:0 121:0 122:0 123:0 124:0 125:0 126:0 127:0 128:0 129:0 130:0 131:0 132:0.0266667 133:0 134:0.0697674 135:0.113924 136:0 137:0 138:0 139:0.0276074 140:0 141:0 142:0 143:0 144:0 145:0 146:0 147:0 148:0.0473684 149:0 150:0 151:0 152:0 153:0 154:0 155:0 156:0 157:0 158:0 159:0 160:0 161:0 162:0 163:0 164:0 165:0 166:0 167:0 168:0 169:0 170:0 171:0 172:0.0323741 173:0 174:0 175:0 176:0 177:0.0978261 178:0 179:0 180:0 181:0 182:0 183:0 184:0 185:0 186:0 187:0 188:0.00707965 189:0 190:0 191:0 192:0.0620347 193:0 194:0 195:0 196:0 197:0 198:0 199:0 200:0 201:0 202:0 203:0 204:0 205:0 206:0 207:0 208:0 209:0 210:0 211:0 212:0 213:0 214:0 215:0.0465116 216:0 217:0 218:0 219:0.00711744 220:0 221:0 222:0 223:0 224:0 225:0 226:0 227:0 228:0 229:0 230:0 231:0 232:0 233:0 234:0 235:0 236:0 237:0 238:0 239:0 240:0 241:0 242:0 243:0 244:0 245:0 246:0.0223325 247:0 248:0 249:0.22093 250:0 251:0 252:0.0510067 253:0.0125 254:0 255:0.0555556 256:0 257:0 258:0 259:0 260:0 261:0 262:0 263:0 264:0 265:0 266:0 267:0 
10 1:0.0474576 2:0.0364963 3:0.0220588 4:0.037594 5:0.037594 6:0.0448718 7:0.0343643 8:0.037037 9:0.0343643 10:0.0328947 11:0.0840336 12:0.0358423 13:0.0343643 14:0.0635697 15:0.0305085 16:0.0474576 17:0.037594 18:1 19:0.0107991 20:0.0159453 21:0.0265252 22:0.037594 23:0.171582 24:0.0526316 25:0.037037 26:0.0520548 27:0.035461 28:0.0512129 29:0.0269231 30:0.0343643 31:0.013245 32:0.0570571 33:0.0182149 34:0.037594 35:0.0284091 36:0.0307692 37:0.0309278 38:0.0310559 39:0.037594 40:0.035461 41:0.0412148 42:0.034965 43:0.037594 44:0.037594 45:0.04 46:0.0327869 47:0.0460526 48:0.037594 49:0.041543 50:0 51:0.0331126 52:0.0321543 53:0.0269542 54:0.0256881 55:0.035461 56:0.046798 57:0.038674 58:0.0223714 59:0.0974026 60:0.037594 61:0.00363636 62:0.0306748 63:0.0318792 64:0.0316456 65:0.0301205 66:0.166667 67:0.0182815 68:0.0770925 69:0.0862069 70:0.0353357 71:0.0183486 72:0.034965 73:0.037594 74:0.0337838 75:0.023753 76:0.0333333 77:0.0182815 78:0.0393258 79:0.0320513 80:0.058642 81:0.0247788 82:0.117512 83:0.019802 84:0.0364963 85:0 86:0.0148148 87:0 88:0.0132979 89:0.00909091 90:0 91:0 92:0.0164474 93:0.017094 94:0.00247525 95:0.00280112 96:0 97:0 98:0.0601504 99:0 100:0 101:0.00346021 102:0 103:0.0132013 104:0.0777202 105:0.020979 106:0 107:0 108:0 109:0.00211416 110:0.0238095 111:0 112:0.0243902 113:0.0037037 114:0.0294118 115:0.018595 116:0 117:0 118:0.0136986 119:0 120:0 121:0 122:0 123:0.00314465 124:0 125:0 126:0 127:0 128:0.0037594 129:0.00200401 130:0.00242718 131:0 132:0.0268817 133:0 134:0.0252101 135:0.029316 136:0 137:0 138:0 139:0.0349265 140:0 141:0 142:0 143:0.00161812 144:0.00311526 145:0.00107852 146:0 147:0 148:0.0239808 149:0 150:0 151:0 152:0.00184843 153:0.0217391 154:0 155:0.0125 156:0 157:0.00221239 158:0 159:0 160:0 161:0.00347222 162:0.00343643 163:0 164:0 165:0 166:0 167:0 168:0.0031746 169:0 170:0 171:0 172:0.0177866 173:0 174:0.0025641 175:0 176:0 177:0.028125 178:0 179:0 180:0 181:0.0034965 182:0.00338983 183:0 184:0 185:0.00878735 186:0 187:0 188:0 189:0.00690608 190:0.000938086 191:0 192:0.00152672 193:0.003125 194:0 195:0.00261097 196:0 197:0 198:0 199:0 200:0 201:0 202:0 203:0 204:0 205:0 206:0 207:0 208:0 209:0 210:0.0011325 211:0.00304878 212:0 213:0 214:0.00263852 215:0 216:0 217:0 218:0.0017762 219:0 220:0.00577367 221:0.0137457 222:0 223:0 224:0 225:0 226:0 227:0 228:0 229:0 230:0 231:0 232:0.00275482 233:0.0127796 234:0 235:0.00162602 236:0 237:0.0033557 238:0 239:0.00182149 240:0 241:0 242:0.0037037 243:0 244:0 245:0 246:0.0207337 247:0 248:0 249:0.020979 250:0.00164745 251:0.0112108 252:0.00999001 253:0 254:0.0143266 255:0 256:0.00337838 257:0 258:0.00325733 259:0 260:0 261:0 262:0 263:0 264:0 265:0 266:0 267:0 
10 1:0.0142248 2:0.0147493 3:0.0198758 4:0.0149254 5:0.0149254 6:0.0138889 7:0.0143885 8:0.0148368 9:0.0143885 10:0.0141243 11:0.0128041 12:0.0281899 13:0.0143885 14:0.0120627 15:0 16:0.0273775 17:0.0149254 18:0.0107991 19:1 20:0.140845 21:0.0246114 22:0.0149254 23:0.0120337 24:0.0148368 25:0.0148368 26:0.0180879 27:0.0145773 28:0.0338542 29:0.0262582 30:0.0143885 31:0.0200698 32:0.0257802 33:0.0820225 34:0.0149254 35:0.0132275 36:0.0137174 37:0 38:0.0137741 39:0.0149254 40:0.0145773 41:0.0114416 42:0.0204082 43:0.0149254 44:0.0149254 45:0.0169875 46:0.0155367 47:0.019774 48:0.0149254 49:0.0147849 50:0 51:0.0376812 52:0.013986 53:0.0248042 54:0.0244681 55:0.0145773 56:0.01221 57:0.012987 58:0.0474453 59:0.0150479 60:0.0149254 61:0.00147275 62:0.0136986 63:0.0670157 64:0.0138889 65:0.013587 66:0.0133156 67:0.0105152 68:0.0229095 69:0.0129534 70:0.016035 71:0.0245727 72:0.0385757 73:0.0149254 74:0.0518519 75:0.0121212 76:0.0142045 77:0.0105152 78:0.0184211 79:0.0139665 80:0.0135685 81:0.0154959 82:0.0113766 83:0.0110011 84:0.0207715 85:0 86:0 87:0.011194 88:0.00641026 89:0 90:0 91:0 92:0.00140449 93:0.001002 94:0.0125156 95:0.00131406 96:0.0133333 97:0 98:0 99:0 100:0.0133531 101:0.00289017 102:0.0132548 103:0.00140845 104:0.0123457 105:0 106:0 107:0.00107991 108:0.0084332 109:0.0305164 110:0 111:0 112:0.00610501 113:0.00148368 114:0.0134409 115:0.0101351 116:0 117:0 118:0 119:0 120:0.01 121:0 122:0.0256082 123:0.00138504 124:0 125:0 126:0.0120805 127:0.00137552 128:0.00149254 129:0.00110742 130:0.00615764 131:0.00582242 132:0.0396825 133:0 134:0 135:0 136:0 137:0 138:0.0184922 139:0.0104493 140:0 141:0 142:0.00573888 143:0.0108696 144:0.00137931 145:0.00298211 146:0 147:0.0057554 148:0.00605327 149:0 150:0 151:0 152:0.0106838 153:0.0115741 154:0 155:0.00747198 156:0.00330306 157:0.00116822 158:0 159:0 160:0.00536913 161:0.00144509 162:0.00143885 163:0 164:0 165:0.0115681 166:0 167:0.0192539 168:0.0140845 169:0 170:0 171:0.00127065 172:0 173:0.00546448 174:0.00632911 175:0 176:0.0230216 177:0 178:0 179:0.0107399 180:0 181:0.00144928 182:0.00143062 183:0 184:0 185:0.0145228 186:0 187:0.0115237 188:0.0169348 189:0.0365965 190:0.00341064 191:0 192:0.0133843 193:0.00138122 194:0 195:0.00254453 196:0 197:0.0347305 198:0 199:0 200:0 201:0 202:0 203:0 204:0 205:0 206:0.00127389 207:0 208:0.00524934 209:0 210:0.010989 211:0.00686813 212:0 213:0 214:0.0129199 215:0 216:0 217:0 218:0.110092 219:0.0187075 220:0.000784929 221:0 222:0 223:0 224:0 225:0 226:0.00488998 227:0 228:0 229:0 230:0.00113895 231:0 232:0.00130378 233:0 234:0 235:0.0149254 236:0.00136426 237:0.0014245 238:0.00926999 239:0.022508 240:0 241:0 242:0.00148368 243:0 244:0 245:0.00567376 246:0.00384615 247:0.0122449 248:0.00135501 249:0.051186 250:0.00496524 251:0.00234467 252:0.0336012 253:0 254:0.00664011 255:0 256:0.00142857 257:0 258:0.00140647 259:0 260:0 261:0 262:0.0165605 263:0 264:0 265:0 266:0.0011976 267:0 
10 1:0.0276498 2:0.0157729 3:0.00128866 4:0.0159744 5:0.0159744 6:0.0208333 7:0.015361 8:0.0223642 9:0.015361 10:0.0212121 11:0.0190996 12:0.0301587 13:0.015361 14:0.0179257 15:0 16:0.0420561 17:0.0159744 18:0.0159453 19:0.140845 20:1 21:0.0135685 22:0.0159744 23:0.0514512 24:0.0223642 25:0.0223642 26:0.0553191 27:0.0155763 28:0.0416667 29:0.0311419 30:0.0409449 31:0.0135135 32:0.014245 33:0.0502857 34:0.0159744 35:0.0140449 36:0.0145985 37:0 38:0.020649 39:0.0159744 40:0.0155763 41:0.0120482 42:0.0412698 43:0.0159744 44:0.0159744 45:0.0178784 46:0.0150376 47:0.0351145 48:0.0159744 49:0.0274566 50:0 51:0.0151057 52:0.0149031 53:0.0277393 54:0.0314254 55:0.0155763 56:0.0129032 57:0.0264993 58:0.0381194 59:0.0204678 60:0.0159744 61:0.0015748 62:0.0145773 63:0.0893855 64:0.0147929 65:0.0144509 66:0.0155807 67:0.0155039 68:0.0167665 69:0.019337 70:0.0155521 71:0.121324 72:0.0154799 73:0.0159744 74:0.0571429 75:0.0128041 76:0.0291859 77:0.0155039 78:0.0195531 79:0.0209581 80:0.0338235 81:0.0206522 82:0.011976 83:0.0115607 84:0.0222222 85:0.0011976 86:0.0127796 87:0 88:0.0150685 89:0.00625782 90:0 91:0 92:0.00753012 93:0.00104822 94:0.0186418 95:0.0013947 96:0.00156495 97:0.00154321 98:0 99:0 100:0.0142857 101:0.00154083 102:0 103:0.00603318 104:0.0237467 105:0.00125471 106:0.00149254 107:0 108:0.00405588 109:0.0386052 110:0.00134048 111:0 112:0.0512129 113:0.00798722 114:0.0070922 115:0 116:0 117:0 118:0.00097561 119:0 120:0.00735294 121:0 122:0.0133869 123:0.0074184 124:0 125:0 126:0 127:0 128:0.00159744 129:0.002331 130:0.00259403 131:0.00622084 132:0.0363128 133:0.0135952 134:0 135:0 136:0 137:0 138:0.0135747 139:0.0301339 140:0 141:0 142:0 143:0.113766 144:0.00146843 145:0.00300842 146:0.00149925 147:0 148:0.00768246 149:0.00155521 150:0 151:0 152:0.0112108 153:0.0336239 154:0 155:0.00657895 156:0 157:0.00123153 158:0 159:0 160:0 161:0.00154321 162:0.0015361 163:0 164:0 165:0.0122616 166:0 167:0.00500626 168:0.00745156 169:0 170:0 171:0.0177839 172:0.00459242 173:0 174:0.00133333 175:0.0155763 176:0 177:0 178:0 179:0.0126103 180:0 181:0.00778816 182:0.00768049 183:0 184:0 185:0.020765 186:0 187:0.0177353 188:0.000865052 189:0.062439 190:0.00351617 191:0.00128535 192:0.00994036 193:0.00147059 194:0 195:0.013624 196:0 197:0.0327456 198:0 199:0 200:0 201:0 202:0 203:0 204:0 205:0 206:0.0122783 207:0 208:0.00557103 209:0 210:0.012205 211:0.00291121 212:0.00133333 213:0 214:0.00135318 215:0 216:0 217:0 218:0.253731 219:0.00786026 220:0.0040783 221:0 222:0 223:0 224:0.0142857 225:0 226:0 227:0 228:0 229:0 230:0 231:0.0231214 232:0.0069541 233:0.00594354 234:0 235:0.00205339 236:0 237:0.00151976 238:0.00121065 239:0.0122358 240:0 241:0 242:0.00798722 243:0 244:0 245:0.00150602 246:0 247:0.0189229 248:0 249:0.0323415 250:0.0189474 251:0.00620347 252:0.0163084 253:0.00109769 254:0.00705219 255:0.0015083 256:0.00921659 257:0 258:0.00149925 259:0 260:0.00138696 261:0 262:0.0175439 263:0 264:0 265:0 266:0 267:0.0015873 
10 1:0.0649351 2:0.0775194 3:0 4:0.0826446 5:0.0826446 6:0.0838323 7:0.0684932 8:0.08 9:0.0684932 10:0.0628931 11:0.0431034 12:0.0746269 13:0.0684932 14:0.0357143 15:0.0258065 16:0.0649351 17:0.0826446 18:0.0265252 19:0.0246114 20:0.0135685 21:1 22:0.0826446 23:0.035461 24:0.08 25:0.08 26:0.0436681 27:0.0729927 28:0.0425532 29:0.0263852 30:0.0684932 31:0.031614 32:0.101064 33:0.0481013 34:0.0826446 35:0.0483092 36:0.0555556 37:0 38:0.0564972 39:0.0826446 40:0.0729927 41:0.0841424 42:0.070922 43:0.0826446 44:0.0826446 45:0.041791 46:0.0625 47:0.0613497 48:0.0826446 49:0.0510204 50:0 51:0.0915033 52:0.060241 53:0.0875576 54:0.0247525 55:0.0729927 56:0.037037 57:0.0452489 58:0.0648464 59:0.0546448 60:0.0826446 61:0.00769231 62:0.224359 63:0.0585586 64:0.0584795 65:0.0534759 66:0.0495049 67:0.0248756 68:0.127869 69:0.044843 70:0.0724638 71:0.025 72:0.10219 73:0.0826446 74:0.0662252 75:0.0362319 76:0.0645161 77:0.0248756 78:0.0465116 79:0.0598802 80:0.214724 81:0.0235849 82:0.030303 83:0.0277778 84:0.0775194 85:0 86:0 87:0.0352941 88:0.00425532 89:0 90:0.116788 91:0 92:0.00613497 93:0.011236 94:0.003861 95:0.00471698 96:0.0714286 97:0 98:0 99:0 100:0 101:0.00694444 102:0.0692308 103:0 104:0.0383142 105:0 106:0 107:0.0106952 108:0.0298864 109:0.00304878 110:0 111:0 112:0.00364964 113:0.008 114:0.0732984 115:0.0265487 116:0 117:0 118:0.0316832 119:0 120:0 121:0 122:0 123:0.00578035 124:0 125:0 126:0.19883 127:0 128:0.00826446 129:0.0502959 130:0.00374532 131:0 132:0.0627803 133:0 134:0 135:0 136:0 137:0 138:0 139:0.0245098 140:0 141:0 142:0 143:0.00211416 144:0.00568182 145:0.000222469 146:0 147:0 148:0.00355872 149:0 150:0 151:0.128 152:0.00252525 153:0.031746 154:0.052459 155:0.003861 156:0 157:0.00325733 158:0 159:0 160:0 161:0.00699301 162:0.00684932 163:0 164:0 165:0 166:0 167:0 168:0.0621118 169:0 170:0 171:0 172:0 173:0 174:0.00408163 175:0 176:0 177:0 178:0 179:0 180:0 181:0.0070922 182:0.00666667 183:0 184:0 185:0.00233645 186:0.0677966 187:0 188:0.00617284 189:0.00171527 190:0.00108578 191:0 192:0.00196078 193:0.00571429 194:0 195:0.00420168 196:0.0645161 197:0 198:0 199:0 200:0 201:0 202:0 203:0 204:0 205:0 206:0 207:0 208:0 209:0 210:0.00135501 211:0.00546448 212:0 213:0 214:0.0444444 215:0.0236686 216:0 217:0 218:0.00239234 219:0.0467742 220:0.00137931 221:0 222:0 223:0 224:0 225:0 226:0 227:0 228:0 229:0 230:0 231:0 232:0.00458716 233:0 234:0 235:0.021692 236:0 237:0.00653595 238:0 239:0.00247525 240:0 241:0.132231 242:0.008 243:0 244:0 245:0 246:0 247:0 248:0 249:0.0138408 250:0.0021645 251:0.00327869 252:0.0164319 253:0.00992556 254:0.00480769 255:0.0258065 256:0.00662252 257:0 258:0.00617284 259:0 260:0 261:0 262:0 263:0 264:0 265:0 266:0 267:0 
10 1:0.07 2:0.0558659 3:0.028754 4:0.0584795 5:0.0584795 6:0.0645161 7:0.0510204 8:0.0571429 9:0.0510204 10:0.0478469 11:0.114504 12:0.0543478 13:0.0510204 14:0.0828025 15:0.045 16:0.07 17:0.0584795 18:0.171582 19:0.0120337 20:0.0514512 21:0.035461 22:0.0584795 23:1 24:0.0818713 25:0.0571429 26:0.262009 27:0.0534759 28:0.0688406 29:0.0329412 30:0.0510204 31:0.0151515 32:0.0798319 33:0.0220264 34:0.0584795 35:0.0389105 36:0.0434783 37:0.0459184 38:0.0440529 39:0.0584795 40:0.0534759 41:0.0784314 42:0.052356 43:0.0584795 44:0.0584795 45:0.05 46:0.047619 47:0.115 48:0.0584795 49:0.0578512 50:0 51:0.0483092 52:0.0462963 53:0.071161 54:0.0311111 55:0.0534759 56:0.0610932 57:0.0524345 58:0.077381 59:0.140845 60:0.0584795 61:0.00555556 62:0.04329 63:0.0379242 64:0.0452489 65:0.0833333 66:0.154185 67:0.0221239 68:0.0506667 69:0.118577 70:0.0531915 71:0.0823529 72:0.052356 73:0.0584795 74:0.0497512 75:0.0306748 76:0.0969388 77:0.0221239 78:0.0536398 79:0.0460829 80:0.215686 81:0.0297872 82:0.127168 83:0.0243902 84:0.0558659 85:0 86:0.0228571 87:0 88:0.0362319 89:0.0115942 90:0 91:0 92:0.07 93:0.0204082 94:0.00323625 95:0.0395257 96:0 97:0 98:0.0935673 99:0 100:0 101:0.00515464 102:0 103:0.0192308 104:0.103093 105:0.0269461 106:0 107:0 108:0 109:0.0026455 110:0.093633 111:0 112:0.031746 113:0.00571429 114:0.0408163 115:0.0231362 116:0 117:0 118:0.0160142 119:0 120:0 121:0 122:0 123:0.0044843 124:0 125:0.0298013 126:0 127:0 128:0.00584795 129:0.00247525 130:0.00315457 131:0 132:0.0361011 133:0.0434783 134:0.0343511 135:0.0424528 136:0 137:0 138:0 139:0.122302 140:0 141:0 142:0 143:0.0871369 144:0.00442478 145:0.00110108 146:0 147:0 148:0.0310559 149:0 150:0 151:0 152:0.00224215 153:0.0533708 154:0 155:0.0472973 156:0 157:0.00280112 158:0 159:0 160:0 161:0.0543478 162:0.00510204 163:0 164:0 165:0 166:0 167:0 168:0.00454545 169:0 170:0 171:0 172:0.0632911 173:0 174:0.00338983 175:0 176:0 177:0.04 178:0 179:0 180:0 181:0.0052356 182:0.005 183:0 184:0 185:0.0105485 186:0 187:0 188:0 189:0.0496689 190:0.00102987 191:0.0519481 192:0.00178571 193:0.00444444 194:0 195:0.00347222 196:0.0536913 197:0 198:0 199:0 200:0 201:0.0379747 202:0 203:0 204:0 205:0 206:0 207:0 208:0 209:0 210:0.00126904 211:0.078341 212:0 213:0 214:0.0363636 215:0 216:0 217:0 218:0.00213675 219:0 220:0.00648508 221:0.0869565 222:0 223:0 224:0.0514286 225:0 226:0 227:0 228:0 229:0 230:0 231:0 232:0.00373134 233:0.0183486 234:0 235:0.00192308 236:0 237:0.00492611 238:0 239:0.00220264 240:0 241:0 242:0.00571429 243:0 244:0 245:0 246:0.0480769 247:0.069869 248:0 249:0.0269461 250:0.00195312 251:0.014245 252:0.0110375 253:0 254:0.0571429 255:0 256:0.00497512 257:0 258:0.00471698 259:0 260:0 261:0 262:0 263:0 264:0 265:0 266:0 267:0 
10 1:0.0662252 2:0.0793651 3:0.144681 4:0.0847458 5:0.0847458 6:0.0595238 7:0.29661 8:0.0819672 9:0.29661 10:0.0641026 11:0.0436681 12:0.0763359 13:0.0699301 14:0.0361011 15:0.278689 16:0.0662252 17:0.0847458 18:0.0520548 19:0.0180879 20:0.0553191 21:0.0436681 22:0.0847458 23:0.262009 24:0.0819672 25:0.0819672 26:1 27:0.0746269 28:0.0852018 29:0.0376344 30:0.0699301 31:0.0232172 32:0.102703 33:0.0352645 34:0.0847458 35:0.0490196 36:0.230263 37:0.288136 38:0.0574713 39:0.0847458 40:0.0746269 41:0.152778 42:0.104478 43:0.0847458 44:0.0847458 45:0.161074 46:0.0636943 47:0.156463 48:0.0847458 49:0.0518135 50:0 51:0.0649351 52:0.253623 53:0.088785 54:0.0352645 55:0.0746269 56:0.0736434 57:0.0458716 58:0.107527 59:0.0555556 60:0.0847458 61:0.00787402 62:0.0561798 63:0.125301 64:0.0595238 65:0.0543478 66:0.266667 67:0.0250627 68:0.163823 69:0.0454545 70:0.0740741 71:0.105978 72:0.0724638 73:0.0847458 74:0.0675676 75:0.03663 76:0.132867 77:0.0250627 78:0.0673077 79:0.0875 80:0.291391 81:0.0335731 82:0.150171 83:0.0280112 84:0.152542 85:0 86:0 87:0.105932 88:0.0639269 89:0 90:0 91:0 92:0.00625 93:0.0228833 94:0.00390625 95:0.00478469 96:0 97:0 98:0 99:0 100:0 101:0.0070922 102:0 103:0 104:0.170306 105:0.0320285 106:0 107:0 108:0 109:0.00307692 110:0.116822 111:0 112:0.0708661 113:0.00819672 114:0.209581 115:0.0267857 116:0 117:0 118:0.0702479 119:0 120:0.004662 121:0 122:0.0163265 123:0.00588235 124:0 125:0 126:0 127:0 128:0.00847458 129:0.002849 130:0.0192308 131:0.0296296 132:0.0636364 133:0.0584416 134:0.0430622 135:0.0566038 136:0 137:0 138:0.025 139:0.14011 140:0 141:0 142:0 143:0.108235 144:0.00578035 145:0.00111408 146:0 147:0.027972 148:0.0689655 149:0 150:0 151:0 152:0.00254453 153:0.0454545 154:0 155:0.0198413 156:0.0060698 157:0.00328947 158:0 159:0 160:0.0207254 161:0.00714286 162:0.00699301 163:0 164:0 165:0 166:0 167:0 168:0.00598802 169:0 170:0 171:0.0172414 172:0.0367232 173:0.0222222 174:0.0210084 175:0 176:0 177:0.0523256 178:0 179:0 180:0 181:0.00724638 182:0.00680272 183:0 184:0 185:0.0118765 186:0 187:0.017094 188:0.00620155 189:0.0544465 190:0.00547046 191:0.0627451 192:0.0539419 193:0.00581395 194:0 195:0.00425532 196:0 197:0.012987 198:0 199:0 200:0 201:0 202:0 203:0 204:0 205:0 206:0 207:0 208:0.0190476 209:0 210:0.00683995 211:0.13125 212:0 213:0 214:0.004329 215:0 216:0 217:0 218:0.0121654 219:0 220:0.00138504 221:0.122137 222:0 223:0 224:0.0737705 225:0 226:0.0150376 227:0 228:0 229:0 230:0 231:0 232:0.00465116 233:0 234:0 235:0.00214133 236:0 237:0.00666667 238:0.0126984 239:0.0125945 240:0 241:0 242:0.00819672 243:0 244:0 245:0.0261438 246:0.0535332 247:0.0212766 248:0 249:0.132812 250:0.010989 251:0.00331126 252:0.0473301 253:0 254:0.0248756 255:0 256:0.00675676 257:0 258:0.00628931 259:0 260:0 261:0 262:0.0165289 263:0 264:0 265:0 266:0 267:0 
10 1:0.0915033 2:0.0757576 3:0.0338346 4:0.0806452 5:0.0806452 6:0.0574713 7:0.0671141 8:0.112903 9:0.0671141 10:0.0886076 11:0.0425532 12:0.0729927 13:0.0671141 14:0.0501792 15:0.0588235 16:0.0915033 17:0.0806452 18:0.0512129 19:0.0338542 20:0.0416667 21:0.0425532 22:0.0806452 23:0.0688406 24:0.078125 25:0.112903 26:0.0852018 27:0.0714286 28:1 29:0.0623306 30:0.0671141 31:0.0229885 32:0.0994764 33:0.02457 34:0.0806452 35:0.047619 36:0.0546448 37:0.0604027 38:0.0795455 39:0.0806452 40:0.0714286 41:0.0595611 42:0.0694444 43:0.0806452 44:0.0806452 45:0.0699088 46:0.0613497 47:0.060241 48:0.0806452 49:0.0717949 50:0.00460829 51:0.0625 52:0.0591716 53:0.0436681 54:0.0347395 55:0.0714286 56:0.0719697 57:0.0636364 58:0.0465116 59:0.0537634 60:0.0806452 61:0.0075188 62:0.0601093 63:0.0418502 64:0.0574713 65:0.0526316 66:0.0969388 67:0.0349127 68:0.0579268 69:0.0442478 70:0.070922 71:0.0350877 72:0.0694444 73:0.0806452 74:0.0649351 75:0.0358423 76:0.0632911 77:0.0349127 78:0.0458716 79:0.0588235 80:0.129213 81:0.0330969 82:0.0888889 83:0.0275482 84:0.0757576 85:0 86:0.03125 87:0 88:0.00420168 89:0.0902527 90:0 91:0 92:0.0060241 93:0.0225734 94:0.0193798 95:0.00465116 96:0 97:0 98:0 99:0 100:0 101:0.00680272 102:0 103:0 104:0.0378788 105:0.0313589 106:0 107:0 108:0 109:0.0440252 110:0.0381356 111:0 112:0.0373134 113:0.0403226 114:0.0721649 115:0.0263158 116:0 117:0 118:0.0174757 119:0 120:0 121:0.079602 122:0 123:0.0290698 124:0 125:0 126:0 127:0 128:0.00806452 129:0.00280112 130:0.0037037 131:0.0283688 132:0.121495 133:0 134:0.0418605 135:0.0545455 136:0 137:0 138:0 139:0.0472637 140:0 141:0 142:0 143:0.0105932 144:0.00558659 145:0.000222321 146:0 147:0 148:0.0363636 149:0 150:0 151:0 152:0.00250627 153:0.044586 154:0 155:0.00381679 156:0 157:0.00322581 158:0 159:0.107383 160:0 161:0.00684932 162:0.00671141 163:0 164:0 165:0 166:0 167:0.013468 168:0.0295858 169:0 170:0 171:0 172:0.0247253 173:0 174:0.00403226 175:0 176:0 177:0.0505618 178:0 179:0 180:0 181:0.0357143 182:0.033557 183:0 184:0 185:0.0334928 186:0 187:0 188:0 189:0.0770642 190:0.0153677 191:0 192:0.00194932 193:0.00561798 194:0 195:0.00414938 196:0 197:0.0529801 198:0 199:0.038961 200:0 201:0 202:0 203:0 204:0 205:0 206:0 207:0 208:0.0185185 209:0 210:0.0192308 211:0.00537634 212:0 213:0 214:0.00421941 215:0 216:0 217:0 218:0.0119904 219:0 220:0.00137363 221:0 222:0 223:0 224:0 225:0 226:0 227:0 228:0 229:0 230:0 231:0 232:0.0230415 233:0 234:0 235:0.00211416 236:0 237:0.00641026 238:0 239:0.002457 240:0 241:0 242:0.0403226 243:0 244:0 245:0 246:0.0184049 247:0 248:0 249:0.0313589 250:0.00215054 251:0.00324675 252:0.0357569 253:0 254:0.00473934 255:0 256:0.0333333 257:0 258:0.00606061 259:0 260:0 261:0 262:0.016129 263:0 264:0 265:0 266:0 267:0 
10 1:0.0614334 2:0.0362319 3:0 4:0.0373134 5:0.0373134 6:0.044586 7:0.0341297 8:0.0522388 9:0.0341297 10:0.0463576 11:0.0373333 12:0.0355872 13:0.0341297 14:0.0330969 15:0 16:0.0614334 17:0.0373134 18:0.0269231 19:0.0262582 20:0.0311419 21:0.0263852 22:0.0373134 23:0.0329412 24:0.0522388 25:0.0522388 26:0.0376344 27:0.0352113 28:0.0623306 29:1 30:0.0341297 31:0.0463847 32:0.0411765 33:0.0427509 34:0.0373134 35:0.0282486 36:0.030581 37:0 38:0.113333 39:0.0373134 40:0.0352113 41:0.0211864 42:0.0492958 43:0.0373134 44:0.0373134 45:0.0398323 46:0.0359477 47:0.0596026 48:0.0373134 49:0.0568862 50:0 51:0.0328947 52:0.102389 53:0.0728291 54:0.0584906 55:0.0352113 56:0.0239808 57:0.05 58:0.0408163 59:0.0461538 60:0.0373134 61:0.00361011 62:0.0304878 63:0.0387205 64:0.0314465 65:0.0299401 66:0.0558824 67:0.0256881 68:0.0229167 69:0.0382514 70:0.0387324 71:0.139059 72:0.0347222 73:0.0373134 74:0.033557 75:0.0236407 76:0.0331126 77:0.0256881 78:0.0508475 79:0.0318471 80:0.0422961 81:0.0412186 82:0.0993228 83:0.0197239 84:0.0514706 85:0.00843882 86:0.0298507 87:0 88:0.0132275 89:0.00904977 90:0 91:0.00923788 92:0.0163399 93:0.00167785 94:0.0795756 95:0.00278552 96:0 97:0 98:0 99:0 100:0.0144404 101:0.020979 102:0 103:0.0164474 104:0.0773196 105:0.030445 106:0 107:0.0019084 108:0.0229759 109:0.0507726 110:0 111:0 112:0.0119904 113:0.0186567 114:0.0144092 115:0 116:0 117:0 118:0.0308642 119:0 120:0.0140281 121:0 122:0.0101266 123:0.0158228 124:0 125:0 126:0 127:0.00307692 128:0.00373134 129:0.00199601 130:0.0121951 131:0.0284698 132:0.0378378 133:0 134:0 135:0 136:0 137:0 138:0.0431894 139:0.018018 140:0 141:0 142:0 143:0.0097561 144:0.00309598 145:0.0095673 146:0 147:0.0136519 148:0.0117925 149:0 150:0 151:0.0140845 152:0.00184162 153:0.0305677 154:0 155:0.0251889 156:0.00494438 157:0.00220264 158:0 159:0 160:0.0116618 161:0.00344828 162:0.00341297 163:0 164:0 165:0 166:0 167:0.00907029 168:0.0707071 169:0 170:0 171:0.0025974 172:0 173:0.0121212 174:0.0128866 175:0 176:0 177:0 178:0 179:0.00907029 180:0 181:0.0176056 182:0.0758123 183:0 184:0 185:0.44 186:0.0101266 187:0 188:0.0309677 189:0.154818 190:0.0368574 191:0 192:0.032967 193:0.00310559 194:0 195:0.00520833 196:0.00982801 197:0.0176211 198:0 199:0.0105263 200:0 201:0 202:0 203:0 204:0 205:0 206:0.00261097 207:0 208:0.0224719 209:0 210:0.0448113 211:0.0677419 212:0 213:0 214:0.00262467 215:0 216:0 217:0 218:0.0639098 219:0.0257732 220:0.00576037 221:0 222:0 223:0 224:0 225:0 226:0.00961538 227:0 228:0 229:0 230:0.00210084 231:0 232:0.0138504 233:0.0126984 234:0 235:0.00324675 236:0.00302115 237:0.00333333 238:0.00860215 239:0.00914077 240:0.0234375 241:0 242:0.0186567 243:0 244:0.0144404 245:0.0132013 246:0.0255591 247:0.0118343 248:0.00297619 249:0 250:0.00826446 251:0.0134228 252:0.00896414 253:0.00727273 254:0.0259366 255:0 256:0.0170068 257:0 258:0.00323625 259:0 260:0 261:0 262:0.0206186 263:0 264:0 265:0 266:0.00230947 267:0 
10 1:0.0265152 2:0.0197239 3:0.015625 4:0.0200401 5:0.0200401 6:0.0667939 7:0.019084 8:0.0280561 9:0.019084 10:0.0262664 11:0.0163934 12:0.0195312 13:0.019084 14:0.0214067 15:0 16:0.0265152 17:0.0200401 18:0.013245 19:0.0200698 20:0.0135135 21:0.031614 22:0.0200401 23:0.0151515 24:0.0198807 25:0.0280561 26:0.0232172 27:0.0194175 28:0.0229885 29:0.0463847 30:0.019084 31:1 32:0.133721 33:0.029909 34:0.0200401 35:0.017094 36:0.0179211 37:0 38:0.0254083 39:0.0200401 40:0.0194175 41:0.0142248 42:0.0271845 43:0.0200401 44:0.0200401 45:0.0268362 46:0.0185874 47:0.0260708 48:0.0200401 49:0.0598911 50:0 51:0.0186916 52:0.0183824 53:0.0622837 54:0.0462351 55:0.0194175 56:0.100334 57:0.0252525 58:0.040724 59:0.0178253 60:0.0200401 61:0.0019685 62:0.0178891 63:0.0482077 64:0.0182149 65:0.0176991 66:0.0189983 67:0.0180412 68:0.027027 69:0.0166389 70:0.0193798 71:0.0247074 72:0.0192678 73:0.0200401 74:0.0208333 75:0.0152905 76:0.0187617 77:0.0180412 78:0.0237691 79:0.0183486 80:0.024911 81:0.045045 82:0.0141243 83:0.0135501 84:0.027833 85:0.0245665 86:0.00795229 87:0.014218 88:0.00986842 89:0.00147929 90:0 91:0 92:0.00184843 93:0.00120919 94:0.00789889 95:0.00169492 96:0.0198807 97:0.00191939 98:0 99:0 100:0 101:0.00191571 102:0.0177165 103:0 104:0.0156495 105:0.00149254 106:0.00184162 107:0 108:0.0120424 109:0.045858 110:0.00161551 111:0 112:0.0498392 113:0.01002 114:0.0542495 115:0.0491329 116:0 117:0 118:0.00111359 119:0 120:0.00403877 121:0 122:0.0344828 123:0.00914077 124:0 125:0 126:0.0156794 127:0 128:0.00200401 129:0.00273598 130:0.009375 131:0.015625 132:0.0232945 133:0 134:0 135:0 136:0 137:0 138:0.00739372 139:0.0473684 140:0 141:0 142:0 143:0.00590319 144:0.00180505 145:0.00308705 146:0.00185185 147:0.00763359 148:0.0492846 149:0.00193798 150:0 151:0 152:0.00129199 153:0.0203193 154:0 155:0.00789889 156:0.0126091 157:0.00145985 158:0 159:0 160:0.00696864 161:0.00191939 162:0.0019084 163:0 164:0 165:0 166:0 167:0.00595238 168:0.0914513 169:0 170:0 171:0 172:0 173:0.0235507 174:0.00807754 175:0.0019084 176:0 177:0 178:0 179:0.00148148 180:0 181:0.00970874 182:0.00954198 183:0 184:0 185:0.0332907 186:0 187:0 188:0.122004 189:0.00522466 190:0.0140406 191:0.0015361 192:0.00112613 193:0.00180832 194:0 195:0.00162338 196:0 197:0.143564 198:0 199:0 200:0 201:0.0455373 202:0 203:0 204:0 205:0 206:0.0148515 207:0 208:0.0294118 209:0 210:0.0238313 211:0.0107914 212:0.00160514 213:0 214:0.0165837 215:0 216:0 217:0 218:0.0114213 219:0.0511771 220:0.000906618 221:0 222:0 223:0 224:0 225:0 226:0.0316957 227:0 228:0 229:0 230:0 231:0 232:0.00844595 233:0 234:0 235:0.0559701 236:0 237:0.00188324 238:0.00719424 239:0.115385 240:0 241:0 242:0.01002 243:0.0141066 244:0 245:0.0267176 246:0 247:0 248:0 249:0 250:0.00718563 251:0.00146413 252:0.0230263 253:0.00127551 254:0.00859107 255:0.00186567 256:0.0114504 257:0 258:0.00185185 259:0 260:0.0016835 261:0 262:0.0129241 263:0 264:0 265:0 266:0 267:0.00198807 
10 1:0.0840336 2:0.106383 3:0.0394737 4:0.116279 5:0.116279 6:0.0735294 7:0.0900901 8:0.111111 9:0.0900901 10:0.0806452 11:0.0507614 12:0.10101 13:0.0900901 14:0.0408163 15:0.0782609 16:0.0840336 17:0.116279 18:0.0570571 19:0.0257802 20:0.014245 21:0.101064 22:0.116279 23:0.0798319 24:0.111111 25:0.111111 26:0.102703 27:0.0980392 28:0.0994764 29:0.0411765 30:0.0900901 31:0.133721 32:1 33:0.0646067 34:0.116279 35:0.0581395 36:0.0689655 37:0.0810811 38:0.101449 39:0.116279 40:0.0980392 41:0.0676157 42:0.0943396 43:0.116279 44:0.116279 45:0.0644068 46:0.08 47:0.078125 48:0.116279 49:0.0621118 50:0 51:0.0819672 52:0.110236 53:0.104396 54:0.0271003 55:0.0980392 56:0.218905 57:0.0537634 58:0.0736434 59:0.0675676 60:0.116279 61:0.0105263 62:0.0684932 63:0.124031 64:0.0735294 65:0.0657895 66:0.120253 67:0.027248 68:0.0996441 69:0.0531915 70:0.0970874 71:0.0273973 72:0.0943396 73:0.116279 74:0.0862069 75:0.0414938 76:0.0833333 77:0.027248 78:0.0555556 79:0.0757576 80:0.131944 81:0.0257069 82:0.0664336 83:0.0307692 84:0.106383 85:0.0136986 86:0 87:0.0409091 88:0.005 89:0.0153846 90:0 91:0.0159363 92:0.0078125 93:0.0246914 94:0.00446429 95:0.00564972 96:0.0989011 97:0 98:0 99:0 100:0.0421053 101:0.047619 102:0.0947368 103:0 104:0.0442478 105:0.0705394 106:0.0314961 107:0 108:0.00536033 109:0.0970149 110:0.0454545 111:0 112:0.19403 113:0.0111111 114:0.125828 115:0.0610169 116:0 117:0 118:0.0274841 119:0 120:0.00484261 121:0 122:0 123:0.00724638 124:0 125:0 126:0.0559006 127:0 128:0.0116279 129:0.0031348 130:0.00431034 131:0.038835 132:0.0520833 133:0 134:0.0508475 135:0.0708661 136:0 137:0 138:0.03125 139:0.129794 140:0 141:0 142:0 143:0.00228311 144:0.0070922 145:0.00112208 146:0 147:0 148:0.165094 149:0 150:0 151:0.0392157 152:0.00277008 153:0.0357143 154:0 155:0.00446429 156:0 157:0.00367647 158:0 159:0 160:0 161:0.00925926 162:0.00900901 163:0 164:0 165:0 166:0 167:0 168:0.0793651 169:0 170:0 171:0 172:0.0276074 173:0 174:0.0047619 175:0 176:0 177:0.0642857 178:0 179:0.015444 180:0 181:0.00943396 182:0.00869565 183:0 184:0 185:0.0128535 186:0.0187793 187:0 188:0.00652529 189:0.0166667 190:0.00566893 191:0 192:0.0106157 193:0.00714286 194:0 195:0.00492611 196:0.0177778 197:0.0144928 198:0 199:0.020202 200:0 201:0 202:0 203:0 204:0 205:0 206:0 207:0 208:0 209:0 210:0.00715308 211:0.00675676 212:0 213:0 214:0.0526316 215:0 216:0 217:0 218:0.00261097 219:0.0216306 220:0.00144928 221:0 222:0 223:0 224:0 225:0 226:0 227:0 228:0 229:0 230:0 231:0 232:0.00546448 233:0.0300752 234:0 235:0.0234742 236:0 237:0.00847458 238:0.0141343 239:0.00271003 240:0 241:0 242:0.0111111 243:0 244:0.0421053 245:0 246:0.0199557 247:0.025641 248:0.0264901 249:0.0361446 250:0.00234192 251:0.018797 252:0.023399 253:0.0108696 254:0.00578035 255:0 256:0.00862069 257:0 258:0.00787402 259:0 260:0 261:0 262:0 263:0 264:0 265:0 266:0 267:0 
10 1:0.0306748 2:0.0332226 3:0.0373832 4:0.0341297 5:0.0341297 6:0.0291545 7:0.0314465 8:0.03367 9:0.0314465 10:0.0302115 11:0.0247525 12:0.0326797 13:0.0314465 14:0.0221239 15:0 16:0.0306748 17:0.0341297 18:0.0182149 19:0.0820225 20:0.0502857 21:0.0481013 22:0.0341297 23:0.0220264 24:0.03367 25:0.03367 26:0.0352645 27:0.0323625 28:0.02457 29:0.0427509 30:0.0314465 31:0.029909 32:0.0646067 33:1 34:0.0341297 35:0.0263852 36:0.0284091 37:0 38:0.0286533 39:0.0341297 40:0.0323625 41:0.0201207 42:0.0453074 43:0.0341297 44:0.0341297 45:0.0276134 46:0.0301205 47:0.0422961 48:0.0341297 49:0.0271739 50:0 51:0.0830671 52:0.0295858 53:0.0488432 54:0.0408526 55:0.0323625 56:0.0226244 57:0.0254453 58:0.0498915 59:0.028169 60:0.0341297 61:0.00331126 62:0.0283286 63:0.0439024 64:0.0291545 65:0.0278552 66:0.026738 67:0.0174216 68:0.0382294 69:0.0253165 70:0.0322581 71:0.0411449 72:0.0875421 73:0.0341297 74:0.11745 75:0.0223214 76:0.030581 77:0.0174216 78:0.0817439 79:0.0294985 80:0.0277778 81:0.0236486 82:0.0199203 83:0.018797 84:0.047138 85:0 86:0 87:0.0210773 88:0.0124069 89:0.00856531 90:0 91:0 92:0.00298507 93:0.0280992 94:0.00232019 95:0.00260417 96:0.0302013 97:0 98:0 99:0 100:0 101:0.00316456 102:0.0298013 103:0 104:0.0230947 105:0.00867679 106:0.011976 107:0 108:0.004772 109:0.0203666 110:0 111:0 112:0.0205479 113:0.003367 114:0.027248 115:0.0176125 116:0 117:0 118:0 119:0 120:0.0166667 121:0 122:0.0495049 123:0.00289855 124:0 125:0 126:0.0991254 127:0 128:0.00341297 129:0.00190114 130:0.0114943 131:0.0261438 132:0.035443 133:0 134:0 135:0 136:0 137:0 138:0.052795 139:0.0172414 140:0 141:0 142:0 143:0.00155039 144:0.00287356 145:0.00387097 146:0 147:0.0125786 148:0.0111359 149:0 150:0 151:0 152:0.00176056 153:0.0205339 154:0 155:0.0117096 156:0.00479616 157:0.00208768 158:0 159:0 160:0.0108696 161:0.0031746 162:0.00314465 163:0 164:0 165:0 166:0 167:0 168:0.03003 169:0 170:0 171:0 172:0 173:0.0112676 174:0.0121065 175:0 176:0.0503145 177:0 178:0 179:0 180:0 181:0.00319489 182:0.00310559 183:0 184:0 185:0.0238501 186:0 187:0 188:0.0248756 189:0.0846485 190:0.00459137 191:0 192:0.00146628 193:0.00288184 194:0 195:0.00243902 196:0.0210773 197:0.00828157 198:0 199:0 200:0 201:0 202:0 203:0 204:0 205:0 206:0 207:0 208:0.0103896 209:0 210:0.00551876 211:0.014245 212:0 213:0 214:0.0251889 215:0 216:0 217:0 218:0.00853242 219:0.0110837 220:0.00111483 221:0 222:0 223:0 224:0 225:0 226:0.00907029 227:0 228:0 229:0 230:0 231:0 232:0.0025641 233:0.0117647 234:0 235:0.0157978 236:0 237:0.00307692 238:0.0164609 239:0.0377698 240:0 241:0 242:0.003367 243:0 244:0 245:0.0121951 246:0 247:0 248:0.0111732 249:0.0966981 250:0.00793651 251:0.0105708 252:0.0297619 253:0 254:0.0132979 255:0 256:0.00309598 257:0 258:0.00299401 259:0 260:0 261:0 262:0.00959233 263:0 264:0 265:0 266:0 267:0 
10 1:0.0775194 2:0.0961538 3:0 4:0.104167 5:0.104167 6:0.0684932 7:0.0826446 8:0.1 9:0.0826446 10:0.0746269 11:0.0483092 12:0.0917431 13:0.0826446 14:0.0392157 15:0 16:0.0775194 17:0.104167 18:0.0284091 19:0.0132275 20:0.0140449 21:0.0483092 22:0.104167 23:0.0389105 24:0.1 25:0.1 26:0.0490196 27:0.0892857 28:0.047619 29:0.0282486 30:0.0826446 31:0.017094 32:0.0581395 33:0.0263852 34:0.104167 35:1 36:0.0645161 37:0 38:0.0657895 39:0.104167 40:0.0892857 41:0.0915493 42:0.0862069 43:0.104167 44:0.104167 45:0.0318471 46:0.0740741 47:0.0724638 48:0.104167 49:0.0584795 50:0 51:0.0757576 52:0.070922 53:0.0497512 54:0.0263852 55:0.0892857 56:0.0408163 57:0.0510204 58:0.0361011 59:0.0632911 60:0.104167 61:0.00952381 62:0.0641026 63:0.0229885 64:0.0684932 65:0.0617284 66:0.0564972 67:0.0265252 68:0.0323625 69:0.0505051 70:0.268041 71:0.0266667 72:0.0862069 73:0.104167 74:0.0793651 75:0.0398406 76:0.0769231 77:0.0265252 78:0.0526316 79:0.0704225 80:0.0613497 81:0.0250627 82:0.0327869 83:0.0298507 84:0.0961538 85:0 86:0 87:0 88:0.0047619 89:0 90:0 91:0 92:0.00724638 93:0.00235849 94:0.0042735 95:0.00534759 96:0 97:0 98:0 99:0 100:0 101:0.00840336 102:0 103:0 104:0.0423729 105:0 106:0 107:0 108:0 109:0.00330033 110:0 111:0 112:0.00401606 113:0.01 114:0.00558659 115:0 116:0 117:0 118:0 119:0 120:0 121:0 122:0 123:0.00675676 124:0 125:0 126:0 127:0 128:0.0104167 129:0.00303951 130:0.00413223 131:0 132:0.0495049 133:0 134:0 135:0 136:0 137:0 138:0 139:0.0261097 140:0 141:0 142:0 143:0.00223214 144:0.00662252 145:0.000223714 146:0 147:0 148:0.00390625 149:0 150:0 151:0 152:0.00269542 153:0.0344828 154:0 155:0.0042735 156:0 157:0.0035461 158:0 159:0 160:0 161:0.00847458 162:0.00826446 163:0 164:0 165:0 166:0 167:0 168:0.00689655 169:0 170:0 171:0 172:0 173:0 174:0.00454545 175:0 176:0 177:0 178:0 179:0 180:0 181:0.00862069 182:0.008 183:0 184:0 185:0.00248139 186:0 187:0 188:0 189:0.00179211 190:0.00111607 191:0 192:0.00206186 193:0.00666667 194:0 195:0.00469484 196:0 197:0 198:0 199:0 200:0 201:0 202:0 203:0 204:0 205:0 206:0 207:0 208:0 209:0 210:0.00140252 211:0.00632911 212:0 213:0 214:0.00478469 215:0 216:0 217:0 218:0.00254453 219:0 220:0.00142857 221:0 222:0 223:0 224:0 225:0 226:0 227:0 228:0 229:0 230:0 231:0 232:0.00518135 233:0 234:0 235:0.00224719 236:0 237:0.0078125 238:0 239:0.00263852 240:0 241:0 242:0.01 243:0 244:0 245:0 246:0 247:0 248:0 249:0 250:0.00228833 251:0.00357143 252:0.00119048 253:0 254:0.00546448 255:0 256:0.00793651 257:0 258:0.00729927 259:0 260:0 261:0 262:0 263:0 264:0 265:0 266:0 267:0 
5.356923210577142 1:0.0980392 2:0.12987 3:0.128205 4:0.144928 5:0.144928 6:0.0840336 7:0.507246 8:0.136986 9:0.507246 10:0.0934579 11:0.0555556 12:0.121951 13:0.106383 14:0.0438596 15:0.304878 16:0.0980392 17:0.144928 18:0.0307692 19:0.0137174 20:0.0145985 21:0.0555556 22:0.144928 23:0.0434783 24:0.136986 25:0.136986 26:0.230263 27:0.117647 28:0.0546448 29:0.030581 30:0.106383 31:0.0179211 32:0.0689655 33:0.0284091 34:0.144928 35:0.0645161 36:1 37:0.320513 38:0.08 39:0.144928 40:0.117647 41:0.269058 42:0.11236 43:0.144928 44:0.144928 45:0.133588 46:0.0925926 47:0.0900901 48:0.144928 49:0.0694444 50:0 51:0.0952381 52:0.393258 53:0.0574713 54:0.0284091 55:0.117647 56:0.0909091 57:0.0591716 58:0.04 59:0.0763359 60:0.144928 61:0.0128205 62:0.0775194 63:0.0913838 64:0.0840336 65:0.0740741 66:0.28 67:0.0285714 68:0.136187 69:0.0584795 70:0.116279 71:0.0287356 72:0.11236 73:0.144928 74:0.10101 75:0.0446429 76:0.0970874 77:0.0285714 78:0.0613497 79:0.0869565 80:0.0735294 81:0.0268817 82:0.263158 83:0.0324675 84:0.12987 85:0 86:0 87:0.13369 88:0.00546448 89:0 90:0 91:0 92:0.302326 93:0.00251889 94:0.00483092 95:0.00625 96:0 97:0 98:0 99:0 100:0 101:0.0108696 102:0 103:0 104:0.190217 105:0 106:0 107:0 108:0 109:0.00362319 110:0 111:0 112:0.0045045 113:0.0136986 114:0.204724 115:0 116:0 117:0 118:0.0563063 119:0 120:0 121:0 122:0 123:0.00826446 124:0 125:0.13587 126:0 127:0 128:0.0144928 129:0.00331126 130:0.00465116 131:0 132:0.0571429 133:0 134:0 135:0 136:0 137:0 138:0 139:0.0280899 140:0 141:0 142:0 143:0.0023753 144:0.00806452 145:0.000225073 146:0 147:0 148:0.00436681 149:0 150:0 151:0 152:0.00290698 153:0.0380228 154:0 155:0.00483092 156:0 157:0.00392157 158:0 159:0 160:0 161:0.010989 162:0.0106383 163:0 164:0 165:0 166:0 167:0 168:0.00847458 169:0 170:0 171:0 172:0 173:0 174:0.00518135 175:0 176:0 177:0 178:0 179:0 180:0 181:0.011236 182:0.0102041 183:0 184:0 185:0.00265957 186:0 187:0 188:0 189:0.00188324 190:0.00115075 191:0 192:0.0600462 193:0.00813008 194:0 195:0.00537634 196:0 197:0 198:0 199:0 200:0 201:0 202:0 203:0 204:0 205:0 206:0 207:0 208:0 209:0 210:0.00145773 211:0.00763359 212:0 213:0 214:0.236486 215:0 216:0 217:0 218:0.00273224 219:0.0153061 220:0.00148588 221:0 222:0 223:0 224:0 225:0 226:0 227:0 228:0 229:0 230:0 231:0 232:0.0060241 233:0 234:0 235:0.00239234 236:0 237:0.00990099 238:0 239:0.00284091 240:0 241:0 242:0.0136986 243:0 244:0 245:0 246:0 247:0 248:0 249:0.115741 250:0.00243902 251:0.00395257 252:0.0329949 253:0 254:0.198473 255:0 256:0.010101 257:0 258:0.00909091 259:0 260:0 261:0 262:0 263:0 264:0 265:0 266:0 267:0 
10 1:0 2:0 3:0.225166 4:0 5:0 6:0 7:0.568182 8:0 9:0.568182 10:0 11:0 12:0 13:0 14:0 15:0.894737 16:0 17:0 18:0.0309278 19:0 20:0 21:0 22:0 23:0.0459184 24:0 25:0 26:0.288136 27:0 28:0.0604027 29:0 30:0 31:0 32:0.0810811 33:0 34:0 35:0 36:0.320513 37:1 38:0 39:0 40:0 41:0.158879 42:0 43:0 44:0 45:0.149123 46:0 47:0 48:0 49:0 50:0 51:0 52:0.390625 53:0 54:0 55:0 56:0.048913 57:0 58:0 59:0 60:0 61:0 62:0 63:0.0974212 64:0 65:0 66:0.373626 67:0 68:0.152466 69:0 70:0 71:0 72:0 73:0 74:0 75:0 76:0 77:0 78:0 79:0 80:0.0882353 81:0 82:0.155251 83:0 84:0 85:0 86:0 87:0.164474 88:0 89:0 90:0 91:0 92:0 93:0.0254237 94:0 95:0 96:0 97:0 98:0 99:0 100:0 101:0 102:0 103:0 104:0.157233 105:0.0456853 106:0 107:0 108:0 109:0 110:0.0616438 111:0 112:0.0502793 113:0 114:0.404762 115:0.0357143 116:0 117:0 118:0.085 119:0 120:0 121:0 122:0 123:0 124:0 125:0 126:0 127:0 128:0 129:0 130:0 131:0 132:0 133:0 134:0.072 135:0.12 136:0 137:0 138:0 139:0.0279503 140:0 141:0 142:0 143:0 144:0 145:0 146:0 147:0 148:0.0483871 149:0 150:0 151:0 152:0 153:0 154:0 155:0 156:0 157:0 158:0 159:0 160:0 161:0 162:0 163:0 164:0 165:0 166:0 167:0 168:0 169:0 170:0 171:0 172:0.0328467 173:0 174:0 175:0 176:0 177:0.102273 178:0 179:0 180:0 181:0 182:0 183:0 184:0 185:0 186:0 187:0 188:0 189:0 190:0 191:0 192:0.0626566 193:0 194:0 195:0 196:0 197:0 198:0 199:0 200:0 201:0 202:0 203:0 204:0 205:0 206:0 207:0 208:0 209:0 210:0 211:0 212:0 213:0 214:0 215:0 216:0 217:0 218:0 219:0 220:0 221:0 222:0 223:0 224:0 225:0 226:0 227:0 228:0 229:0 230:0 231:0 232:0 233:0 234:0 235:0 236:0 237:0 238:0 239:0 240:0 241:0 242:0 243:0 244:0 245:0 246:0.0225564 247:0 248:0 249:0.197674 250:0 251:0 252:0.0456376 253:0 254:0 255:0 256:0 257:0 258:0 259:0 260:0 261:0 262:0 263:0 264:0 265:0 266:0 267:0 
10 1:0.147368 2:0.135135 3:0 4:0.151515 5:0.151515 6:0.0862069 7:0.10989 8:0.212121 9:0.10989 10:0.14 11:0.0564972 12:0.126582 13:0.10989 14:0.0633484 15:0 16:0.379747 17:0.151515 18:0.0310559 19:0.0137741 20:0.020649 21:0.0564972 22:0.151515 23:0.0440529 24:0.142857 25:0.212121 26:0.0574713 27:0.121951 28:0.0795455 29:0.113333 30:0.10989 31:0.0254083 32:0.101449 33:0.0286533 34:0.151515 35:0.0657895 36:0.08 37:0 38:1 39:0.151515 40:0.121951 41:0.037037 42:0.116279 43:0.151515 44:0.151515 45:0.05 46:0.0952381 47:0.0925926 48:0.151515 49:0.10219 50:0 51:0.0980392 52:0.32967 53:0.0584795 54:0.0911854 55:0.393939 56:0.0465116 57:0.353846 58:0.0576132 59:0.078125 60:0.151515 61:0.0133333 62:0.0793651 63:0.0246914 64:0.0862069 65:0.0757576 66:0.0680272 67:0.0408163 68:0.0358423 69:0.0595238 70:0.120482 71:0.211604 72:0.116279 73:0.151515 74:0.104167 75:0.0452489 76:0.1 77:0.0408163 78:0.0625 79:0.0892857 80:0.108527 81:0.0383562 82:0.0363636 83:0.0327869 84:0.135135 85:0.0147059 86:0.0571429 87:0 88:0.00555556 89:0 90:0 91:0.017316 92:0.00925926 93:0.00253807 94:0.025 95:0.00636943 96:0 97:0 98:0 99:0 100:0.0533333 101:0.0588235 102:0 103:0 104:0.0485437 105:0.017094 106:0.168421 107:0 108:0.00968523 109:0.0185874 110:0 111:0 112:0.00456621 113:0.0757576 114:0.0344828 115:0 116:0 117:0 118:0.044843 119:0 120:0 121:0 122:0 123:0.214286 124:0 125:0 126:0 127:0 128:0.0151515 129:0.00334448 130:0.00471698 131:0.0481928 132:0.166667 133:0 134:0 135:0 136:0 137:0 138:0 139:0.0283286 140:0 141:0 142:0 143:0.0120773 144:0.00826446 145:0.000225225 146:0 147:0 148:0.00442478 149:0 150:0 151:0.0487805 152:0.00293255 153:0.0546875 154:0 155:0.00490196 156:0 157:0.00396825 158:0 159:0 160:0 161:0.0113636 162:0.010989 163:0 164:0 165:0 166:0 167:0.0167364 168:0.045045 169:0 170:0 171:0 172:0 173:0 174:0.00526316 175:0 176:0 177:0 178:0 179:0.0167364 180:0 181:0.0609756 182:0.28 183:0 184:0 185:0.0716332 186:0.0207254 187:0 188:0.00674536 189:0.00954198 190:0.0296912 191:0 192:0.0482759 193:0.00833333 194:0 195:0.00546448 196:0.0195122 197:0.015625 198:0 199:0.0224719 200:0 201:0 202:0 203:0 204:0 205:0 206:0 207:0 208:0.0253165 209:0 210:0.0379363 211:0.151786 212:0 213:0 214:0.00558659 215:0 216:0 217:0 218:0.0139276 219:0.00677966 220:0.00149254 221:0 222:0 223:0 224:0 225:0 226:0 227:0 228:0 229:0 230:0 231:0 232:0.0314465 233:0 234:0 235:0.00240964 236:0 237:0.0102041 238:0 239:0.00286533 240:0 241:0 242:0.0757576 243:0 244:0.0533333 245:0 246:0 247:0.0294118 248:0 249:0 250:0.002457 251:0.004 252:0.00620347 253:0.0114943 254:0.00653595 255:0 256:0.0543478 257:0 258:0.00934579 259:0 260:0 261:0 262:0.114943 263:0 264:0 265:0 266:0 267:0 
10 1:0.0404858 2:0.045045 3:0.102719 4:0.046729 5:0.046729 6:0.0378788 7:0.163551 8:0.0458716 9:0.163551 10:0.0396825 11:0.0307692 12:0.0440529 13:0.041841 14:0.0268097 15:0.155963 16:0.0404858 17:0.046729 18:0.0412148 19:0.0114416 20:0.0120482 21:0.0841424 22:0.046729 23:0.0784314 24:0.0458716 25:0.0458716 26:0.152778 27:0.0434783 28:0.0595611 29:0.0211864 30:0.041841 31:0.0142248 32:0.0676157 33:0.0201207 34:0.046729 35:0.0915493 36:0.269058 37:0.158879 38:0.037037 39:0.046729 40:0.0434783 41:1 42:0.042735 43:0.046729 44:0.046729 45:0.110553 46:0.0395257 47:0.0390625 48:0.046729 49:0.0346021 50:0 51:0.04 52:0.149573 53:0.0444444 54:0.0201207 55:0.0434783 56:0.0536723 57:0.0318471 58:0.0253165 59:0.0362319 60:0.046729 61:0.0044843 62:0.0364963 63:0.0847784 64:0.146444 65:0.0701107 66:0.168582 67:0.020202 68:0.159151 69:0.0316456 70:0.12093 71:0.020284 72:0.042735 73:0.046729 74:0.0409836 75:0.0271003 76:0.0403226 77:0.020202 78:0.0324675 79:0.0384615 80:0.0698529 81:0.0711382 82:0.419672 83:0.0220751 84:0.045045 85:0 86:0 87:0.0753012 88:0.00304878 89:0 90:0 91:0 92:0.178899 93:0.026465 94:0.00284091 95:0.0337838 96:0 97:0 98:0 99:0 100:0 101:0.00421941 102:0 103:0 104:0.106383 105:0.0238727 106:0.0156863 107:0 108:0.00888889 109:0.0023753 110:0.0276074 111:0 112:0.039548 113:0.00458716 114:0.13308 115:0.0208333 116:0 117:0.0135593 118:0.0886525 119:0.0107817 120:0 121:0 122:0 123:0.0037594 124:0 125:0.10625 126:0 127:0 128:0.0046729 129:0.00223714 130:0.00277778 131:0 132:0.03125 133:0 134:0.0295082 135:0.0352941 136:0 137:0 138:0 139:0.0386179 140:0 141:0 142:0 143:0.00176678 144:0.00371747 145:0.00021796 146:0 147:0 148:0.0387812 149:0 150:0 151:0.0733945 152:0.00204499 153:0.117647 154:0.040201 155:0.0412979 156:0 157:0.0025 158:0 159:0 160:0 161:0.0440529 162:0.0041841 163:0 164:0 165:0 166:0 167:0 168:0.019305 169:0 170:0 171:0 172:0.0198238 173:0 174:0.00295858 175:0 176:0 177:0.0335821 178:0 179:0 180:0 181:0.0042735 182:0.00411523 183:0 184:0 185:0.00191939 186:0.0486322 187:0 188:0 189:0.00147929 190:0.000986193 191:0 192:0.0449827 193:0.00373134 194:0 195:0.00302115 196:0.0469208 197:0 198:0 199:0 200:0 201:0.0321429 202:0 203:0 204:0 205:0 206:0 207:0 208:0 209:0 210:0.00120337 211:0.00362319 212:0 213:0 214:0.119454 215:0 216:0 217:0 218:0.00195695 219:0.0976331 220:0.00122249 221:0 222:0 223:0 224:0.0179372 225:0 226:0 227:0 228:0 229:0 230:0 231:0 232:0.00321543 233:0 234:0 235:0.0017762 236:0 237:0.00406504 238:0.00973236 239:0.00201207 240:0 241:0 242:0.00458716 243:0 244:0 245:0 246:0.015544 247:0 248:0 249:0.0965909 250:0.0018018 251:0.00251256 252:0.0378788 253:0 254:0.148289 255:0 256:0.00409836 257:0 258:0.00392157 259:0 260:0 261:0 262:0 263:0 264:0 265:0 266:0 267:0 
10 1:0.0544747 2:0.0423729 3:0.101744 4:0.0438596 5:0.0438596 6:0.0510949 7:0.153509 8:0.0614035 9:0.153509 10:0.0534351 11:0.0294985 12:0.0414938 13:0.0395257 14:0.0365535 15:0.166667 16:0.0544747 17:0.0438596 18:0.04 19:0.0169875 20:0.0178784 21:0.041791 22:0.0438596 23:0.05 24:0.0431034 25:0.0614035 26:0.161074 27:0.0409836 28:0.0699088 29:0.0398323 30:0.0395257 31:0.0268362 32:0.0644068 33:0.0276134 34:0.0438596 35:0.0318471 36:0.133588 37:0.149123 38:0.05 39:0.0438596 40:0.0409836 41:0.110553 42:0.057377 43:0.0438596 44:0.0438596 45:1 46:0.0413534 47:0.0526316 48:0.0438596 49:0.0538721 50:0 51:0.0538462 52:0.141129 53:0.0331325 54:0.0378486 55:0.0409836 56:0.0516304 57:0.0464396 58:0.0448878 59:0.0380623 60:0.0438596 61:0.00421941 62:0.0347222 63:0.0907372 64:0.0359712 65:0.0340136 66:0.164234 67:0.0277228 68:0.121891 69:0.030303 70:0.045082 71:0.0381526 72:0.057377 73:0.0438596 74:0.0428016 75:0.0261097 76:0.0381679 77:0.0277228 78:0.0440252 79:0.0364963 80:0.0815603 81:0.0383877 82:0.109181 83:0.0214133 84:0.0603448 85:0.00228833 86:0.0172414 87:0.0722543 88:0.0178042 89:0.00246914 90:0 91:0 92:0.0037037 93:0.0257827 94:0.0138122 95:0.0031348 96:0.00414938 97:0.004 98:0 99:0 100:0 101:0.008 102:0 103:0.00373134 104:0.102041 105:0.025641 106:0.00367647 107:0.0104167 108:0.000546747 109:0.0139535 110:0.0294985 111:0 112:0.0408719 113:0.0219298 114:0.159851 115:0.0201794 116:0 117:0 118:0.0590219 119:0 120:0.00621118 121:0 122:0.0141243 123:0.0181159 124:0 125:0 126:0 127:0.00350877 128:0.00438596 129:0.00434783 130:0.0162602 131:0.033195 132:0.0552147 133:0 134:0.0282132 135:0.0334572 136:0 137:0 138:0.0148148 139:0.039604 140:0 141:0 142:0 143:0.0104348 144:0.00353357 145:0.00152306 146:0.00371747 147:0.0158103 148:0.040107 149:0.00408163 150:0 151:0 152:0.00198807 153:0.0334928 154:0 155:0.0166205 156:0.00520156 157:0.00241546 158:0 159:0 160:0.0132013 161:0.004 162:0.00395257 163:0 164:0 165:0 166:0 167:0.00997506 168:0.018315 169:0 170:0 171:0.00289855 172:0.0192308 173:0.0137931 174:0.0143678 175:0.00395257 176:0 177:0.0319149 178:0 179:0.00247525 180:0 181:0.0204918 182:0.0197628 183:0 184:0 185:0.0190114 186:0 187:0 188:0.012 189:0.00875912 190:0.00882353 191:0.00263158 192:0.0439189 193:0.0035461 194:0 195:0.00581395 196:0 197:0.0119904 198:0 199:0 200:0 201:0 202:0 203:0 204:0 205:0 206:0.00291545 207:0 208:0.0253165 209:0 210:0.0119617 211:0.0210526 212:0.00284091 213:0 214:0.00293255 215:0.0144928 216:0 217:0 218:0.0174081 219:0.00531915 220:0.00120192 221:0 222:0 223:0 224:0 225:0 226:0.0106383 227:0 228:0 229:0 230:0.00229358 231:0 232:0.0155763 233:0 234:0 235:0.00521739 236:0.00343643 237:0.00384615 238:0.0117925 239:0.0118577 240:0 241:0 242:0.0219298 243:0 244:0 245:0.019084 246:0.0151771 247:0 248:0.00337838 249:0.104972 250:0.0106383 251:0.00486618 252:0.0518919 253:0.00982318 254:0.0160772 255:0.0191571 256:0.0237154 257:0 258:0.00371747 259:0 260:0.00309598 261:0 262:0.0229885 263:0 264:0 265:0 266:0.00254453 267:0.00431034 
10 1:0.121951 2:0.175439 3:0 4:0.204082 5:0.204082 6:0.10101 7:0.135135 8:0.188679 9:0.135135 10:0.114943 11:0.0625 12:0.16129 13:0.135135 14:0.0480769 15:0 16:0.121951 17:0.204082 18:0.0327869 19:0.0155367 20:0.0150376 21:0.0625 22:0.204082 23:0.047619 24:0.188679 25:0.188679 26:0.0636943 27:0.153846 28:0.0613497 29:0.0359477 30:0.135135 31:0.0185874 32:0.08 33:0.0301205 34:0.204082 35:0.0740741 36:0.0925926 37:0 38:0.0952381 39:0.204082 40:0.153846 41:0.0395257 42:0.144928 43:0.204082 44:0.204082 45:0.0413534 46:1 47:0.10989 48:0.204082 49:0.0894309 50:0 51:0.117647 52:0.106383 53:0.0649351 54:0.0301205 55:0.153846 56:0.0505051 57:0.0671141 58:0.0434783 59:0.1 60:0.204082 61:0.0172414 62:0.0917431 63:0.0257732 64:0.10101 65:0.0869565 66:0.0769231 67:0.030303 68:0.0421456 69:0.0662252 70:0.169231 71:0.0304878 72:0.144928 73:0.204082 74:0.126582 75:0.0490196 76:0.120482 77:0.030303 78:0.0699301 79:0.105263 80:0.0862069 81:0.0432277 82:0.0387597 83:0.0347222 84:0.175439 85:0 86:0 87:0 88:0.00613497 89:0 90:0 91:0.0186916 92:0.010989 93:0.00265252 94:0.00534759 95:0.00714286 96:0 97:0 98:0 99:0 100:0 101:0.028169 102:0 103:0.011236 104:0.0529101 105:0 106:0 107:0.00327869 108:0.000606061 109:0.00390625 110:0 111:0 112:0.0049505 113:0.0188679 114:0.00757576 115:0 116:0 117:0.0307692 118:0 119:0 120:0.00126263 121:0 122:0 123:0.00990099 124:0 125:0 126:0 127:0.00943396 128:0.0204082 129:0.0035461 130:0.00512821 131:0 132:0.0645161 133:0 134:0 135:0 136:0 137:0 138:0 139:0.0297619 140:0 141:0 142:0 143:0.005 144:0.00961538 145:0.00135808 146:0 147:0 148:0.00478469 149:0 150:0 151:0 152:0.00308642 153:0.0411523 154:0 155:0.0107527 156:0 157:0.00425532 158:0 159:0 160:0 161:0.0746269 162:0.0135135 163:0 164:0 165:0 166:0 167:0 168:0.0102041 169:0 170:0 171:0.0060241 172:0 173:0 174:0.00578035 175:0 176:0 177:0 178:0 179:0 180:0 181:0.0144928 182:0.0128205 183:0 184:0 185:0.00280899 186:0 187:0 188:0 189:0.00392157 190:0.00117786 191:0 192:0.00228311 193:0.00970874 194:0 195:0.0121212 196:0 197:0 198:0 199:0 200:0 201:0 202:0 203:0 204:0 205:0 206:0.00609756 207:0 208:0 209:0 210:0.0015015 211:0.00900901 212:0 213:0 214:0.0316456 215:0 216:0 217:0 218:0.00289017 219:0 220:0.00153139 221:0 222:0 223:0 224:0 225:0 226:0 227:0 228:0.0296296 229:0 230:0.00389105 231:0 232:0.00684932 233:0 234:0 235:0.00503778 236:0.00892857 237:0.0123457 238:0 239:0.00301205 240:0 241:0 242:0.0188679 243:0 244:0 245:0 246:0 247:0 248:0.00854701 249:0 250:0.0025641 251:0.00862069 252:0.00126103 253:0 254:0.00735294 255:0 256:0.0126582 257:0 258:0.0111111 259:0.036036 260:0 261:0 262:0 263:0 264:0 265:0 266:0.0046729 267:0 
10 1:0.17284 2:0.166667 3:0 4:0.192308 5:0.192308 6:0.142857 7:0.12987 8:0.178571 9:0.12987 10:0.111111 11:0.0880503 12:0.153846 13:0.12987 14:0.0473934 15:0 16:0.17284 17:0.192308 18:0.0460526 19:0.019774 20:0.0351145 21:0.0613497 22:0.192308 23:0.115 24:0.269231 25:0.178571 26:0.156463 27:0.147059 28:0.060241 29:0.0596026 30:0.12987 31:0.0260708 32:0.078125 33:0.0422961 34:0.192308 35:0.0724638 36:0.0900901 37:0 38:0.0925926 39:0.192308 40:0.147059 41:0.0390625 42:0.205882 43:0.192308 44:0.192308 45:0.0526316 46:0.10989 47:1 48:0.192308 49:0.113821 50:0 51:0.113636 52:0.103093 53:0.128378 54:0.0550459 55:0.147059 56:0.0497512 57:0.0945946 58:0.0611354 59:0.127273 60:0.192308 61:0.0163934 62:0.0892857 63:0.0361757 64:0.0980392 65:0.0847458 66:0.075188 67:0.03003 68:0.0377358 69:0.0933333 70:0.144928 71:0.072327 72:0.138889 73:0.192308 74:0.121951 75:0.0483092 76:0.246753 77:0.03003 78:0.130435 79:0.102041 80:0.172727 81:0.0518732 82:0.0383142 83:0.0343643 84:0.25 85:0 86:0.0714286 87:0 88:0.0915033 89:0.0176991 90:0 91:0 92:0.0555556 93:0.00263158 94:0.00526316 95:0.00699301 96:0 97:0 98:0 99:0 100:0 101:0.0133333 102:0 103:0.0449438 104:0.0744681 105:0 106:0 107:0 108:0 109:0.003861 110:0 111:0 112:0.0248756 113:0.0178571 114:0.00740741 115:0 116:0 117:0 118:0 119:0 120:0.00505051 121:0 122:0.0223464 123:0.00961538 124:0 125:0 126:0 127:0 128:0.0192308 129:0.00350877 130:0.0257732 131:0.057971 132:0.0909091 133:0.102273 134:0 135:0 136:0 137:0 138:0.0425532 139:0.0294985 140:0 141:0 142:0 143:0.0253165 144:0.00934579 145:0.00203712 146:0 147:0.0519481 148:0.0240385 149:0 150:0 151:0 152:0.0030581 153:0.0406504 154:0 155:0.0494505 156:0.00674536 157:0.00420168 158:0 159:0 160:0.0314961 161:0.0135135 162:0.012987 163:0 164:0 165:0 166:0 167:0 168:0.00990099 169:0 170:0 171:0 172:0 173:0.0350877 174:0.0290698 175:0 176:0 177:0 178:0 179:0 180:0 181:0.0138889 182:0.0123457 183:0 184:0 185:0.025641 186:0 187:0 188:0.00690846 189:0.0362173 190:0.00589623 191:0 192:0.00226757 193:0.00943396 194:0 195:0.00591716 196:0 197:0.0165289 198:0 199:0 200:0 201:0 202:0 203:0 204:0 205:0 206:0 207:0 208:0.0277778 209:0 210:0.0075188 211:0.0454545 212:0 213:0 214:0.00606061 215:0 216:0 217:0 218:0.0144928 219:0 220:0.00766871 221:0 222:0 223:0 224:0.160714 225:0 226:0.02 227:0 228:0 229:0 230:0 231:0 232:0.00671141 233:0.040404 234:0 235:0.00249377 236:0 237:0.0119048 238:0.0160643 239:0.0151057 240:0 241:0 242:0.0178571 243:0 244:0 245:0.045977 246:0 247:0 248:0 249:0 250:0.0128535 251:0.0215517 252:0.00631313 253:0 254:0.0687023 255:0 256:0.0121951 257:0 258:0.0107527 259:0 260:0 261:0 262:0.0227273 263:0 264:0 265:0 266:0 267:0 
10 1:0.163636 2:0.107527 3:0.00425532 4:0.117647 5:0.117647 6:0.141732 7:0.0909091 8:0.164706 9:0.0909091 10:0.117647 11:0.0729167 12:0.102041 13:0.0909091 14:0.0583333 15:0 16:0.163636 17:0.117647 18:0.041543 19:0.0147849 20:0.0274566 21:0.0510204 22:0.117647 23:0.0578512 24:0.164706 25:0.164706 26:0.0518135 27:0.0990099 28:0.0717949 29:0.0568862 30:0.188119 31:0.0598911 32:0.0621118 33:0.0271739 34:0.117647 35:0.0584795 36:0.0694444 37:0 38:0.10219 39:0.117647 40:0.0990099 41:0.0346021 42:0.0952381 43:0.117647 44:0.117647 45:0.0538721 46:0.0894309 47:0.113821 48:0.117647 49:1 50:0 51:0.0826446 52:0.0769231 53:0.0582011 54:0.0529248 55:0.0990099 56:0.0608696 57:0.107955 58:0.0534351 59:0.105634 60:0.117647 61:0.0106383 62:0.0689655 63:0.0333333 64:0.0740741 65:0.0662252 66:0.0931677 67:0.0651558 68:0.037037 69:0.0765027 70:0.108911 71:0.0535211 72:0.0952381 73:0.117647 74:0.136364 75:0.0416667 76:0.0840336 77:0.0651558 78:0.08 79:0.0763359 80:0.125 81:0.0529101 82:0.0340136 83:0.0603175 84:0.107527 85:0.0172414 86:0.0941176 87:0 88:0.010101 89:0.0193798 90:0 91:0 92:0.0406504 93:0.00242131 94:0.022831 95:0.00568182 96:0.0102041 97:0.00934579 98:0 99:0 100:0 101:0.0186916 102:0 103:0.0413223 104:0.0633484 105:0.0198413 106:0.04 107:0.00293255 108:0.00297265 109:0.0353357 110:0.0248756 111:0 112:0.0257511 113:0.0588235 114:0.0304878 115:0 116:0 117:0 118:0.00206612 119:0 120:0.0072904 121:0 122:0.00465116 123:0.037594 124:0 125:0 126:0 127:0.00704225 128:0.0117647 129:0.00630915 130:0.00869565 131:0.139785 132:0.052356 133:0 134:0 135:0 136:0 137:0 138:0.0314961 139:0.0408719 140:0 141:0 142:0 143:0.0233645 144:0.00714286 145:0.0045045 146:0.00793651 147:0 148:0.025 149:0.00980392 150:0 151:0 152:0.00277778 153:0.0509091 154:0 155:0.0717703 156:0.0144928 157:0.00369004 158:0 159:0 160:0 161:0.00934579 162:0.00909091 163:0 164:0 165:0 166:0 167:0.0155039 168:0.0384615 169:0 170:0 171:0.0049505 172:0 173:0.0633803 174:0.00478469 175:0.00909091 176:0 177:0 178:0 179:0.00383142 180:0 181:0.0495049 182:0.0454545 183:0 184:0 185:0.0369393 186:0 187:0 188:0.00162602 189:0.0281426 190:0.016055 191:0.00421941 192:0.0106383 193:0.00719424 194:0 195:0.00995025 196:0 197:0.0182482 198:0 199:0 200:0 201:0 202:0 203:0.0295082 204:0 205:0 206:0.052356 207:0 208:0.077381 209:0 210:0.01443 211:0.0136986 212:0.00478469 213:0 214:0.00505051 215:0 216:0 217:0 218:0.0132275 219:0 220:0.00729927 221:0 222:0 223:0 224:0 225:0 226:0 227:0 228:0 229:0 230:0.00341297 231:0 232:0.0280899 233:0.105691 234:0 235:0.00694444 236:0.00675676 237:0.00854701 238:0.00350877 239:0.0423729 240:0 241:0 242:0.0588235 243:0 244:0 245:0.00813008 246:0 247:0 248:0.00653595 249:0 250:0.0264423 251:0.0588235 252:0.0184049 253:0.0136612 254:0.0297619 255:0.00819672 256:0.0545455 257:0 258:0.00793651 259:0 260:0.00555556 261:0 262:0.0191388 263:0 264:0 265:0 266:0.004 267:0.011236 
10 1:0 2:0 3:0 4:0 5:0 6:0 7:0 8:0 9:0 10:0 11:0 12:0 13:0 14:0 15:0 16:0 17:0 18:0 19:0 20:0 21:0 22:0 23:0 24:0 25:0 26:0 27:0 28:0.00460829 29:0 30:0 31:0 32:0 33:0 34:0 35:0 36:0 37:0 38:0 39:0 40:0 41:0 42:0 43:0 44:0 45:0 46:0 47:0 48:0 49:0 50:1 51:0 52:0 53:0 54:0 55:0 56:0 57:0 58:0 59:0 60:0 61:0 62:0.00613497 63:0 64:0 65:0 66:0 67:0 68:0 69:0 70:0 71:0 72:0 73:0 74:0 75:0 76:0 77:0 78:0 79:0 80:0 81:0 82:0 83:0 84:0 85:0 86:0 87:0 88:0 89:0 90:0 91:0 92:0 93:0 94:0 95:0 96:0 97:0 98:0 99:0 100:0 101:0 102:0 103:0 104:0 105:0 106:0 107:0 108:0 109:0 110:0 111:0 112:0 113:0 114:0 115:0 116:0 117:0 118:0 119:0 120:0 121:0 122:0 123:0 124:0 125:0 126:0 127:0 128:0 129:0 130:0 131:0 132:0 133:0 134:0 135:0 136:0 137:0 138:0 139:0 140:0 141:0 142:0 143:0 144:0 145:0 146:0 147:0 148:0 149:0 150:0 151:0 152:0 153:0 154:0 155:0 156:0 157:0 158:0 159:0 160:0 161:0 162:0 163:0 164:0 165:0 166:0 167:0 168:0 169:0 170:0 171:0 172:0 173:0 174:0 175:0 176:0 177:0 178:0 179:0 180:0 181:0 182:0 183:0 184:0 185:0 186:0 187:0 188:0 189:0 190:0 191:0 192:0 193:0 194:0 195:0 196:0 197:0 198:0 199:0 200:0 201:0 202:0 203:0 204:0 205:0 206:0 207:0 208:0 209:0 210:0 211:0 212:0 213:0 214:0 215:0 216:0 217:0 218:0 219:0 220:0 221:0 222:0 223:0 224:0 225:0 226:0 227:0 228:0 229:0 230:0 231:0 232:0 233:0 234:0 235:0 236:0 237:0 238:0 239:0 240:0 241:0 242:0 243:0 244:0 245:0 246:0 247:0 248:0 249:0 250:0 251:0 252:0 253:0 254:0 255:0 256:0 257:0 258:0 259:0 260:0 261:0 262:0 263:0 264:0 265:0 266:0 267:0 
3.276852081704458 1:0.126582 2:0.185185 3:0.0883978 4:0.217391 5:0.217391 6:0.152174 7:0.140845 8:0.2 9:0.140845 10:0.119048 11:0.0636943 12:0.169492 13:0.140845 14:0.0487805 15:0.05 16:0.126582 17:0.217391 18:0.0331126 19:0.0376812 20:0.0151057 21:0.0915033 22:0.217391 23:0.0483092 24:0.2 25:0.2 26:0.0649351 27:0.16129 28:0.0625 29:0.0328947 30:0.140845 31:0.0186916 32:0.0819672 33:0.0830671 34:0.217391 35:0.0757576 36:0.0952381 37:0 38:0.0980392 39:0.217391 40:0.16129 41:0.04 42:0.151515 43:0.217391 44:0.217391 45:0.0538462 46:0.117647 47:0.113636 48:0.217391 49:0.0826446 50:0 51:1 52:0.10989 53:0.0662252 54:0.0303951 55:0.16129 56:0.0512821 57:0.0684932 58:0.0440529 59:0.0925926 60:0.217391 61:0.0181818 62:0.0943396 63:0.025974 64:0.104167 65:0.0892857 66:0.0787402 67:0.030581 68:0.125523 69:0.0675676 70:0.15873 71:0.0307692 72:0.652174 73:0.217391 74:0.131579 75:0.0497512 76:0.125 77:0.030581 78:0.0714286 79:0.108696 80:0.0884956 81:0.0286533 82:0.0392157 83:0.0350877 84:0.185185 85:0 86:0 87:0 88:0.00625 89:0 90:0 91:0 92:0.0113636 93:0.0135135 94:0.00543478 95:0.00729927 96:0 97:0 98:0 99:0 100:0 101:0.0144928 102:0 103:0 104:0.0537634 105:0 106:0 107:0.0706714 108:0 109:0.00395257 110:0 111:0 112:0.00502513 113:0.02 114:0.04 115:0 116:0 117:0 118:0 119:0 120:0 121:0 122:0.0993789 123:0.0102041 124:0 125:0 126:0 127:0 128:0.0217391 129:0.00358423 130:0.00520833 131:0 132:0.0945946 133:0 134:0 135:0 136:0 137:0 138:0 139:0.03003 140:0 141:0 142:0 143:0.00251256 144:0.00990099 145:0.000226244 146:0 147:0 148:0.00485437 149:0 150:0 151:0 152:0.00311526 153:0.0416667 154:0 155:0.00543478 156:0 157:0.00431034 158:0 159:0 160:0 161:0.0147059 162:0.0140845 163:0 164:0 165:0 166:0 167:0 168:0.0105263 169:0 170:0 171:0 172:0 173:0 174:0.00588235 175:0 176:0.225352 177:0 178:0 179:0 180:0 181:0.0151515 182:0.0133333 183:0 184:0 185:0.00283286 186:0 187:0.106667 188:0.0359066 189:0.0019685 190:0.00118203 191:0 192:0.00229885 193:0.01 194:0 195:0.00613497 196:0 197:0 198:0 199:0 200:0 201:0 202:0 203:0 204:0 205:0 206:0 207:0 208:0 209:0 210:0.0015083 211:0.00925926 212:0 213:0 214:0.00628931 215:0.0425532 216:0 217:0 218:0.00291545 219:0.00701754 220:0.00153846 221:0 222:0 223:0 224:0 225:0 226:0 227:0 228:0 229:0 230:0 231:0 232:0.00699301 233:0 234:0 235:0.00253165 236:0 237:0.0128205 238:0 239:0.0543131 240:0 241:0 242:0.02 243:0 244:0 245:0 246:0 247:0 248:0 249:0.10101 250:0.00258398 251:0.00434783 252:0.0272727 253:0.0121951 254:0.0075188 255:0.05 256:0.0131579 257:0 258:0.0114943 259:0 260:0 261:0 262:0 263:0 264:0 265:0 266:0 267:0 
10 1:0.0675676 2:0.0813008 3:0.00377358 4:0.0869565 5:0.0869565 6:0.0606061 7:0.0714286 8:0.0840336 9:0.0714286 10:0.0653595 11:0.0442478 12:0.078125 13:0.0714286 14:0.0364963 15:0 16:0.0675676 17:0.0869565 18:0.0269542 19:0.0248042 20:0.0277393 21:0.0875576 22:0.0869565 23:0.071161 24:0.0840336 25:0.0840336 26:0.088785 27:0.0763359 28:0.0436681 29:0.0728291 30:0.0714286 31:0.0622837 32:0.104396 33:0.0488432 34:0.0869565 35:0.0497512 36:0.0574713 37:0 38:0.0584795 39:0.0869565 40:0.0763359 41:0.0444444 42:0.0740741 43:0.0869565 44:0.0869565 45:0.0331325 46:0.0649351 47:0.128378 48:0.0869565 49:0.0582011 50:0 51:0.0662252 52:0.0625 53:1 54:0.0277078 55:0.0763359 56:0.0378788 57:0.0514019 58:0.0662021 59:0.0564972 60:0.0869565 61:0.00806452 62:0.0571429 63:0.0220264 64:0.0606061 65:0.0552486 66:0.0564103 67:0.0252525 68:0.0595611 69:0.0460829 70:0.0757576 71:0.0520833 72:0.0740741 73:0.0869565 74:0.0763889 75:0.037037 76:0.135714 77:0.0252525 78:0.0478469 79:0.0621118 80:0.109827 81:0.0490196 82:0.0308642 83:0.0282486 84:0.0813008 85:0.00308642 86:0 87:0.0361446 88:0.0502283 89:0.00342466 90:0 91:0 92:0.0326797 93:0.0113895 94:0.00395257 95:0.00485437 96:0.0840336 97:0.00729927 98:0 99:0 100:0 101:0.00724638 102:0.0725806 103:0 104:0.0392157 105:0.0034965 106:0.0322581 107:0 108:0.00526932 109:0.00623053 110:0.00425532 111:0 112:0.0228137 113:0.00840336 114:0.0529101 115:0.027027 116:0 117:0.0204082 118:0.00194553 119:0.0147059 120:0.0011655 121:0 122:0.00408163 123:0.00598802 124:0 125:0 126:0.0473684 127:0 128:0.00869565 129:0.00576369 130:0.00769231 131:0 132:0.0452489 133:0.0596026 134:0 135:0 136:0 137:0 138:0 139:0.0274314 140:0 141:0 142:0 143:0.0218341 144:0.00588235 145:0.000445633 146:0.00641026 147:0 148:0.0222222 149:0.00757576 150:0 151:0 152:0.0025641 153:0.0323625 154:0 155:0.0200803 156:0 157:0.00332226 158:0 159:0 160:0 161:0.00729927 162:0.00714286 163:0 164:0 165:0 166:0 167:0 168:0.222222 169:0 170:0 171:0 172:0 173:0 174:0.0041841 175:0.00714286 176:0 177:0 178:0 179:0.00343643 180:0 181:0.00740741 182:0.00694444 183:0 184:0 185:0.00475059 186:0 187:0 188:0.00155039 189:0.0176056 190:0.0010929 191:0.00374532 192:0.00198413 193:0.00591716 194:0 195:0.00431034 196:0 197:0.00324675 198:0 199:0 200:0 201:0 202:0 203:0 204:0 205:0 206:0 207:0 208:0 209:0 210:0.00273598 211:0.0113636 212:0.0041841 213:0 214:0.0456621 215:0 216:0 217:0 218:0.00242718 219:0.0404531 220:0.00139082 221:0 222:0 223:0 224:0.113043 225:0 226:0 227:0 228:0 229:0 230:0 231:0 232:0.00471698 233:0 234:0 235:0.0242291 236:0 237:0.00680272 238:0.0160772 239:0.00503778 240:0 241:0 242:0.00840336 243:0 244:0 245:0.00653595 246:0 247:0 248:0 249:0 250:0.0043956 251:0.00334448 252:0.0129564 253:0.0025 254:0.0252525 255:0.00657895 256:0.0138889 257:0 258:0.00641026 259:0 260:0.0047619 261:0 262:0 263:0 264:0 265:0 266:0 267:0.00840336 
10 1:0.0566038 2:0.0332226 3:0.00225734 4:0.0341297 5:0.0341297 6:0.0412979 7:0.0314465 8:0.0477816 9:0.0314465 10:0.0428135 11:0.035 12:0.0326797 13:0.0314465 14:0.03125 15:0 16:0.0566038 17:0.0341297 18:0.0256881 19:0.0244681 20:0.0314254 21:0.0247525 22:0.0341297 23:0.0311111 24:0.0477816 25:0.0477816 26:0.0352645 27:0.0323625 28:0.0347395 29:0.0584906 30:0.0314465 31:0.0462351 32:0.0271003 33:0.0408526 34:0.0341297 35:0.0263852 36:0.0284091 37:0 38:0.0911854 39:0.0341297 40:0.0323625 41:0.0201207 42:0.0453074 43:0.0341297 44:0.0341297 45:0.0378486 46:0.0301205 47:0.0550459 48:0.0341297 49:0.0529248 50:0 51:0.0303951 52:0.0295858 53:0.0277078 54:1 55:0.0323625 56:0.0226244 57:0.0951087 58:0.0386266 59:0.039886 60:0.0341297 61:0.00331126 62:0.0283286 63:0.0371567 64:0.0291545 65:0.0278552 66:0.0294906 67:0.0245614 68:0.0197628 69:0.0358056 70:0.0322581 71:0.154762 72:0.0319489 73:0.0341297 74:0.0341615 75:0.0223214 76:0.030581 77:0.0245614 78:0.0474934 79:0.0294985 80:0.0393258 81:0.0394511 82:0.0199203 83:0.018797 84:0.047138 85:0.0286299 86:0.0273038 87:0 88:0.0149254 89:0.0107296 90:0 91:0 92:0.0151057 93:0.00161031 94:0.0117096 95:0.00260417 96:0.00326797 97:0.0031746 98:0 99:0 100:0 101:0.00316456 102:0 103:0.0121212 104:0.032634 105:0.00215517 106:0.00296736 107:0 108:0 109:0.0308642 110:0.00242131 111:0 112:0.0136054 113:0.0170648 114:0.0134409 115:0.0176125 116:0 117:0 118:0.00144509 119:0 120:0.0136852 121:0 122:0.0119332 123:0.0146628 124:0 125:0 126:0 127:0 128:0.00341297 129:0.00380952 130:0.0138249 131:0.0261438 132:0.035443 133:0 134:0 135:0 136:0 137:0 138:0.0398773 139:0.0189983 140:0 141:0 142:0 143:0.00780031 144:0.00287356 145:0.00603448 146:0.00299401 147:0.0125786 148:0.0133929 149:0.00322581 150:0 151:0 152:0.00176056 153:0.0289855 154:0.018595 155:0.0212766 156:0.00479616 157:0.00208768 158:0 159:0 160:0.0108696 161:0.0031746 162:0.00314465 163:0 164:0 165:0 166:0 167:0.00858369 168:0.0147929 169:0 170:0 171:0 172:0 173:0.0375723 174:0.0121065 175:0.00314465 176:0 177:0 178:0 179:0.0217391 180:0 181:0.0161812 182:0.0157233 183:0 184:0 185:0.0397924 186:0 187:0 188:0.0377834 189:0.0243902 190:0.0167286 191:0.00224719 192:0.00146628 193:0.00288184 194:0 195:0.00243902 196:0 197:0.0450644 198:0 199:0 200:0 201:0 202:0 203:0 204:0 205:0 206:0.0225 207:0 208:0.0209974 209:0 210:0.0110988 211:0.0171429 212:0.00239808 213:0 214:0.00246305 215:0 216:0 217:0 218:0.0154639 219:0 220:0.0055991 221:0 222:0 223:0 224:0 225:0 226:0.00907029 227:0 228:0 229:0 230:0 231:0 232:0.0129534 233:0.0117647 234:0 235:0.00312012 236:0 237:0.00307692 238:0.0102249 239:0.0266904 240:0 241:0 242:0.0170648 243:0 244:0 245:0.0152905 246:0 247:0 248:0 249:0 250:0.0241935 251:0.0105708 252:0.00972763 253:0.0017301 254:0.0241935 255:0.0030303 256:0.0188679 257:0 258:0.00299401 259:0 260:0.00257732 261:0 262:0.0193705 263:0 264:0 265:0 266:0 267:0.003367 
10 1:0.0520833 2:0.0598802 3:0.0299003 4:0.0628931 5:0.0628931 6:0.0682927 7:0.0543478 8:0.0613497 9:0.0543478 10:0.0507614 11:0.037037 12:0.0581395 13:0.0543478 14:0.0314465 15:0.0478723 16:0.0520833 17:0.0628931 18:0.046798 19:0.01221 20:0.0129032 21:0.037037 22:0.0628931 23:0.0610932 24:0.0613497 25:0.0613497 26:0.0736434 27:0.0571429 28:0.0719697 29:0.0239808 30:0.0543478 31:0.100334 32:0.218905 33:0.0226244 34:0.0628931 35:0.0408163 36:0.0909091 37:0.048913 38:0.0465116 39:0.0628931 40:0.0571429 41:0.0536723 42:0.0558659 43:0.0628931 44:0.0628931 45:0.0516304 46:0.0505051 47:0.0497512 48:0.0628931 49:0.0608696 50:0 51:0.0512821 52:0.0490196 53:0.0378788 54:0.0226244 55:0.0571429 56:1 57:0.03861 58:0.0294118 59:0.0452489 60:0.0628931 61:0.00595238 62:0.0456621 63:0.104348 64:0.0478469 65:0.0444444 66:0.101322 67:0.0227273 68:0.0523416 69:0.0383142 70:0.0568182 71:0.0322581 72:0.0558659 73:0.0628931 74:0.0756757 75:0.0318471 76:0.0518135 77:0.0227273 78:0.0395257 79:0.0487805 80:0.107981 81:0.021645 82:0.0529248 83:0.0251256 84:0.0598802 85:0.0221607 86:0 87:0 88:0.003663 89:0 90:0 91:0 92:0.00497512 93:0.0562771 94:0.003367 95:0.004 96:0 97:0 98:0 99:0 100:0 101:0.00549451 102:0 103:0 104:0.0334448 105:0.0408805 106:0.02 107:0 108:0.00227661 109:0.0890208 110:0.0486891 111:0 112:0.142336 113:0.00613497 114:0.0429185 115:0.048913 116:0 117:0 118:0.0163636 119:0 120:0.00444939 121:0 122:0 123:0.00473934 124:0 125:0 126:0 127:0 128:0.00628931 129:0.00255102 130:0.00327869 131:0 132:0.0377358 133:0 134:0.036 135:0.045 136:0 137:0 138:0.0199005 139:0.117647 140:0 141:0 142:0 143:0.00986193 144:0.0046729 145:0.001104 146:0 147:0 148:0.13879 149:0 150:0 151:0 152:0.00230415 153:0.0283286 154:0 155:0.003367 156:0 157:0.00289855 158:0 159:0 160:0 161:0.00552486 162:0.00543478 163:0 164:0 165:0 166:0 167:0 168:0.00480769 169:0 170:0 171:0 172:0.0225564 173:0 174:0.00353357 175:0 176:0 177:0.0422535 178:0 179:0 180:0 181:0.00558659 182:0.00531915 183:0 184:0 185:0.0108225 186:0 187:0 188:0 189:0.00161031 190:0.00104275 191:0 192:0.00919118 193:0.00469484 194:0 195:0.00362319 196:0 197:0.0114613 198:0 199:0 200:0 201:0.119617 202:0 203:0 204:0 205:0 206:0.0338346 207:0 208:0 209:0 210:0.00647668 211:0.00452489 212:0 213:0 214:0.105263 215:0 216:0 217:0 218:0.00219298 219:0.0520674 220:0.00131062 221:0 222:0 223:0 224:0 225:0 226:0 227:0 228:0 229:0 230:0 231:0 232:0.00390625 233:0 234:0 235:0.0200401 236:0 237:0.0052356 238:0 239:0.0114155 240:0 241:0 242:0.00613497 243:0 244:0 245:0 246:0.0171756 247:0 248:0 249:0.0279503 250:0.002 251:0.00291545 252:0.0214689 253:0.00907029 254:0.00406504 255:0 256:0.00529101 257:0 258:0.005 259:0 260:0 261:0 262:0 263:0 264:0 265:0 266:0 267:0 
10 1:0.390909 2:0.0847458 3:0.00384615 4:0.0909091 5:0.0909091 6:0.0897436 7:0.0740741 8:0.127273 9:0.0740741 10:0.0972222 11:0.0645161 12:0.0813008 13:0.0740741 14:0.0528302 15:0 16:0.285714 17:0.0909091 18:0.038674 19:0.012987 20:0.0264993 21:0.0452489 22:0.0909091 23:0.0524345 24:0.127273 25:0.127273 26:0.0458716 27:0.0793651 28:0.0636364 29:0.05 30:0.0740741 31:0.0252525 32:0.0537634 33:0.0254453 34:0.0909091 35:0.0510204 36:0.0591716 37:0 38:0.353846 39:0.0909091 40:0.0793651 41:0.0318471 42:0.0769231 43:0.0909091 44:0.0909091 45:0.0464396 46:0.0671141 47:0.0945946 48:0.0909091 49:0.107955 50:0 51:0.0684932 52:0.0645161 53:0.0514019 54:0.0951087 55:0.236364 56:0.03861 57:1 58:0.0487805 59:0.0833333 60:0.0909091 61:0.00840336 62:0.0588235 63:0.0222717 64:0.0625 65:0.0568182 66:0.0578947 67:0.0361757 68:0.0309598 69:0.0673077 70:0.0787402 71:0.133523 72:0.0769231 73:0.0909091 74:0.0791367 75:0.0377358 76:0.0694444 77:0.0361757 78:0.07 79:0.0641026 80:0.0809249 81:0.0470297 82:0.031348 83:0.0286533 84:0.0847458 85:0.0031348 86:0.0727273 87:0 88:0.00896861 89:0.0176678 90:0 91:0 92:0.0337838 93:0.00228311 94:0.0204918 95:0.00497512 96:0.00813008 97:0.00757576 98:0 99:0 100:0 101:0.0075188 102:0 103:0.0272109 104:0.0569106 105:0.00355872 106:0.123188 107:0 108:0 109:0.0192308 110:0.00434783 111:0 112:0.00763359 113:0.0454545 114:0.026455 115:0 116:0 117:0 118:0.00196464 119:0 120:0.00117233 121:0 122:0.00416667 123:0.147887 124:0 125:0 126:0 127:0 128:0.00909091 129:0.00584795 130:0.00784314 131:0.0314961 132:0.13 133:0 134:0 135:0 136:0 137:0 138:0 139:0.0277778 140:0 141:0 142:0 143:0.010917 144:0.00606061 145:0.00133958 146:0.00662252 147:0 148:0.00743494 149:0.00787402 150:0 151:0 152:0.0025974 153:0.0466667 154:0 155:0.0204918 156:0 157:0.00337838 158:0 159:0 160:0 161:0.00757576 162:0.00740741 163:0 164:0 165:0 166:0.0703125 167:0.0141343 168:0.0322581 169:0 170:0 171:0 172:0 173:0 174:0.0042735 175:0.00740741 176:0 177:0 178:0 179:0.0034965 180:0 181:0.0396825 182:0.037037 183:0 184:0 185:0.0245098 186:0 187:0 188:0.0015625 189:0.00880282 190:0.00551876 191:0.00381679 192:0.00200401 193:0.00609756 194:0 195:0.00440529 196:0 197:0.00330033 198:0 199:0 200:0 201:0 202:0 203:0 204:0 205:0 206:0 207:0 208:0.019802 209:0 210:0.00831025 211:0.0116959 212:0.0042735 213:0 214:0.0044843 215:0 216:0 217:0 218:0.0124069 219:0 220:0.00704225 221:0 222:0 223:0 224:0 225:0 226:0 227:0 228:0 229:0 230:0 231:0 232:0.0246305 233:0.0254777 234:0 235:0.00436681 236:0 237:0.00704225 238:0.00322581 239:0.00510204 240:0 241:0 242:0.0454545 243:0 244:0 245:0.00675676 246:0 247:0 248:0 249:0 250:0.00444444 251:0.0172414 252:0.00706714 253:0.00253165 254:0.0259067 255:0.00680272 256:0.0444444 257:0 258:0.00662252 259:0 260:0.00487805 261:0 262:0.0917431 263:0 264:0 265:0 266:0 267:0.00877193 
10 1:0.0636364 2:0.0502513 3:0 4:0.052356 5:0.052356 6:0.0414938 7:0.0462963 8:0.0732984 9:0.0462963 10:0.0622222 11:0.0331126 12:0.0490196 13:0.0462963 14:0.0404624 15:0 16:0.0636364 17:0.052356 18:0.0223714 19:0.0474453 20:0.0381194 21:0.0648464 22:0.052356 23:0.077381 24:0.0512821 25:0.0732984 26:0.107527 27:0.0483092 28:0.0465116 29:0.0408163 30:0.0462963 31:0.040724 32:0.0736434 33:0.0498915 34:0.052356 35:0.0361011 36:0.04 37:0 38:0.0576132 39:0.052356 40:0.0483092 41:0.0253165 42:0.0676328 43:0.052356 44:0.052356 45:0.0448878 46:0.0434783 47:0.0611354 48:0.052356 49:0.0534351 50:0 51:0.0440529 52:0.0423729 53:0.0662021 54:0.0386266 55:0.0483092 56:0.0294118 57:0.0487805 58:1 59:0.0395257 60:0.052356 61:0.005 62:0.0398406 63:0.0588235 64:0.0414938 65:0.0389105 66:0.0367647 67:0.0299145 68:0.0481013 69:0.0341297 70:0.0480769 71:0.0762332 72:0.0473934 73:0.052356 74:0.0452489 75:0.0289017 76:0.0444444 77:0.0299145 78:0.0498221 79:0.0421941 80:0.0551181 81:0.037037 82:0.025 83:0.0232558 84:0.0717949 85:0 86:0.0205128 87:0.0276923 88:0.0166113 89:0 90:0 91:0 92:0.00429185 93:0.00192678 94:0.0153846 95:0.0035461 96:0.0459184 97:0 98:0 99:0 100:0 101:0.0046729 102:0.045 103:0 104:0.0302115 105:0 106:0 107:0 108:0.00504484 109:0.0126904 110:0 111:0 112:0.0147059 113:0.026178 114:0.0536398 115:0.0220049 116:0 117:0 118:0 119:0 120:0.00429646 121:0 122:0.0125786 123:0.0209205 124:0 125:0 126:0.0338346 127:0 128:0.0052356 129:0.00235849 130:0.015015 131:0.0392157 132:0.0477816 133:0 134:0 135:0 136:0 137:0 138:0.0171674 139:0.0562771 140:0 141:0 142:0 143:0.040153 144:0.00406504 145:0.00109625 146:0 147:0.0185185 148:0.0144092 149:0 150:0 151:0 152:0.00214592 153:0.0367454 154:0 155:0.0153846 156:0.00546448 157:0.00265252 158:0 159:0 160:0.0150376 161:0.00469484 162:0.00462963 163:0 164:0 165:0 166:0 167:0.010989 168:0.061674 169:0 170:0 171:0 172:0 173:0.0158103 174:0.0160772 175:0 176:0 177:0 178:0 179:0 180:0 181:0.0241546 182:0.0231481 183:0 184:0 185:0.0183673 186:0 187:0 188:0.00557103 189:0.0331754 190:0.00915565 191:0 192:0.00172414 193:0.00408163 194:0 195:0.00324675 196:0 197:0.0104987 198:0 199:0 200:0 201:0 202:0 203:0 204:0 205:0 206:0 207:0 208:0.0286738 209:0 210:0.01125 211:0.0200803 212:0 213:0 214:0.0338983 215:0 216:0 217:0 218:0.01875 219:0.0126761 220:0.00125786 221:0 222:0 223:0 224:0 225:0 226:0.0117994 227:0 228:0 229:0 230:0 231:0 232:0.0176056 233:0 234:0 235:0.0188324 236:0 237:0.0044843 238:0.0103093 239:0.0106383 240:0 241:0 242:0.026178 243:0 244:0 245:0.0176991 246:0 247:0 248:0 249:0 250:0.0094697 251:0.00266667 252:0.0196078 253:0 254:0.0182482 255:0 256:0.0230415 257:0 258:0.00431034 259:0 260:0 261:0 262:0.0257235 263:0 264:0 265:0 266:0 267:0 
10 1:0.138614 2:0.125 3:0 4:0.138889 5:0.138889 6:0.118644 7:0.103093 8:0.131579 9:0.103093 10:0.0909091 11:0.184049 12:0.117647 13:0.103093 14:0.12093 15:0 16:0.138614 17:0.138889 18:0.0974026 19:0.0150479 20:0.0204678 21:0.0546448 22:0.138889 23:0.140845 24:0.194444 25:0.131579 26:0.0555556 27:0.113636 28:0.0537634 29:0.0461538 30:0.103093 31:0.0178253 32:0.0675676 33:0.028169 34:0.138889 35:0.0632911 36:0.0763359 37:0 38:0.078125 39:0.138889 40:0.113636 41:0.0362319 42:0.108696 43:0.138889 44:0.138889 45:0.0380623 46:0.1 47:0.127273 48:0.138889 49:0.105634 50:0 51:0.0925926 52:0.0854701 53:0.0564972 54:0.039886 55:0.113636 56:0.0452489 57:0.0833333 58:0.0395257 59:1 60:0.138889 61:0.0123457 62:0.0757576 63:0.0243309 64:0.0819672 65:0.0724638 66:0.189781 67:0.0283286 68:0.138996 69:0.194805 70:0.125 71:0.02849 72:0.108696 73:0.138889 74:0.0980392 75:0.0440529 76:0.0943396 77:0.0283286 78:0.0864198 79:0.0847458 80:0.0719424 81:0.0405405 82:0.0981132 83:0.0321543 84:0.125 85:0 86:0.0526316 87:0 88:0.00537634 89:0.0162602 90:0 91:0 92:0.0454545 93:0.0025 94:0.0047619 95:0.00613497 96:0 97:0 98:0 99:0 100:0 101:0.0212766 102:0 103:0.0462963 104:0.15625 105:0 106:0 107:0.00304878 108:0.000597729 109:0.00358423 110:0 111:0 112:0.00444444 113:0.0131579 114:0.00645161 115:0 116:0 117:0 118:0 119:0 120:0.00122699 121:0 122:0 123:0.00806452 124:0 125:0 126:0 127:0.00775194 128:0.0138889 129:0.00327869 130:0.00458716 131:0 132:0.0561798 133:0 134:0 135:0 136:0 137:0 138:0 139:0.0278552 140:0 141:0 142:0 143:0.00472813 144:0.00787402 145:0.00135105 146:0 147:0 148:0.00431034 149:0 150:0 151:0 152:0.00288184 153:0.037594 154:0 155:0.0292683 156:0 157:0.00387597 158:0 159:0 160:0 161:0.0106383 162:0.0103093 163:0 164:0 165:0 166:0 167:0 168:0.00826446 169:0 170:0 171:0.00529101 172:0 173:0 174:0.00510204 175:0 176:0 177:0 178:0 179:0 180:0 181:0.0108696 182:0.00990099 183:0 184:0 185:0.0133333 186:0 187:0 188:0 189:0.0113422 190:0.00114679 191:0 192:0.0021692 193:0.00793651 194:0 195:0.0106383 196:0 197:0 198:0 199:0 200:0 201:0 202:0 203:0 204:0 205:0 206:0.00534759 207:0 208:0 209:0 210:0.00145138 211:0.00746269 212:0 213:0 214:0.00540541 215:0 216:0 217:0 218:0.00271003 219:0 220:0.00744048 221:0 222:0 223:0 224:0 225:0 226:0 227:0 228:0 229:0 230:0.00357143 231:0 232:0.00591716 233:0.0336134 234:0 235:0.0047619 236:0.00740741 237:0.00961538 238:0 239:0.0028169 240:0 241:0 242:0.0131579 243:0 244:0 245:0 246:0 247:0 248:0.00714286 249:0 250:0.00242131 251:0.0239044 252:0.00122549 253:0 254:0.0322581 255:0 256:0.00980392 257:0 258:0.00884956 259:0 260:0 261:0 262:0 263:0 264:0 265:0 266:0.00421941 267:0 
10 1:0.0192308 2:0.037037 3:0 4:0.0526316 5:0.0526316 6:0.0144928 7:0.0227273 8:0.0434783 9:0.0227273 10:0.0175439 11:0.00769231 12:0.03125 13:0.0227273 14:0.00561798 15:0 16:0.0192308 17:0.0526316 18:0.00363636 19:0.00147275 20:0.0015748 21:0.00769231 22:0.0526316 23:0.00555556 24:0.0434783 25:0.0434783 26:0.00787402 27:0.0285714 28:0.0075188 29:0.00361011 30:0.0227273 31:0.0019685 32:0.0105263 33:0.00331126 34:0.0526316 35:0.00952381 36:0.0128205 37:0 38:0.0133333 39:0.0526316 40:0.0285714 41:0.0044843 42:0.025641 43:0.0526316 44:0.0526316 45:0.00421941 46:0.0172414 47:0.0163934 48:0.0526316 49:0.0106383 50:0 51:0.0181818 52:0.015625 53:0.00806452 54:0.00331126 55:0.0285714 56:0.00595238 57:0.00840336 58:0.005 59:0.0123457 60:0.0526316 61:1 62:0.0126582 63:0.0027933 64:0.0144928 65:0.0117647 66:0.01 67:0.00333333 68:0.00431034 69:0.00826446 70:0.0277778 71:0.0033557 72:0.025641 73:0.0526316 74:0.0204082 75:0.00574713 76:0.0188679 77:0.00333333 78:0.00884956 79:0.0153846 80:0.0116279 81:0.00310559 82:0.00438596 83:0.00387597 84:0.037037 85:0 86:0 87:0 88:0.00806452 89:0 90:0 91:0 92:0.0192308 93:0.00295858 94:0.00675676 95:0.00990099 96:0 97:0 98:0 99:0 100:0 101:0.030303 102:0 103:0 104:0.00628931 105:0 106:0 107:0 108:0 109:0.00460829 110:0 111:0 112:0.00613497 113:0.0714286 114:0.0107527 115:0 116:0 117:0 118:0 119:0 120:0 121:0 122:0 123:0.016129 124:0 125:0 126:0 127:0 128:0.1 129:0.00411523 130:0.00641026 131:0 132:0.008 133:0 134:0 135:0 136:0 137:0 138:0 139:0.00326797 140:0 141:0 142:0 143:0.00276243 144:0.0153846 145:0.000228102 146:0 147:0 148:0.00588235 149:0 150:0 151:0 152:0.00350877 153:0.00469484 154:0 155:0.00675676 156:0 157:0.00510204 158:0 159:0 160:0 161:0.03125 162:0.0285714 163:0 164:0 165:0 166:0 167:0 168:0.0169492 169:0 170:0 171:0 172:0 173:0 174:0.00746269 175:0 176:0 177:0 178:0 179:0 180:0 181:0.0333333 182:0.025641 183:0 184:0 185:0.00315457 186:0 187:0 188:0 189:0.00211864 190:0.00123457 191:0 192:0.00250627 193:0.015625 194:0 195:0.00787402 196:0 197:0 198:0 199:0 200:0 201:0 202:0 203:0 204:0 205:0 206:0 207:0 208:0 209:0 210:0.0015949 211:0.0138889 212:0 213:0 214:0.00813008 215:0 216:0 217:0 218:0.00325733 219:0 220:0.00162866 221:0 222:0 223:0 224:0 225:0 226:0 227:0 228:0 229:0 230:0 231:0 232:0.00934579 233:0 234:0 235:0.00278552 236:0 237:0.0238095 238:0 239:0.00341297 240:0 241:0 242:0.0714286 243:0 244:0 245:0 246:0 247:0 248:0 249:0 250:0.002849 251:0.00515464 252:0.00132626 253:0 254:0.0103093 255:0 256:0.025 257:0 258:0.0196078 259:0 260:0 261:0 262:0 263:0 264:0 265:0 266:0 267:0 
10 1:0.0970874 2:0.128205 3:0 4:0.142857 5:0.142857 6:0.0833333 7:0.105263 8:0.135135 9:0.105263 10:0.0925926 11:0.0552486 12:0.120482 13:0.105263 14:0.122066 15:0 16:0.0970874 17:0.142857 18:0.0306748 19:0.0136986 20:0.0145773 21:0.224359 22:0.142857 23:0.04329 24:0.135135 25:0.135135 26:0.0561798 27:0.116279 28:0.0601093 29:0.0304878 30:0.105263 31:0.0178891 32:0.0684932 33:0.0283286 34:0.142857 35:0.0641026 36:0.0775194 37:0 38:0.0793651 39:0.142857 40:0.116279 41:0.0364963 42:0.111111 43:0.142857 44:0.142857 45:0.0347222 46:0.0917431 47:0.0892857 48:0.142857 49:0.0689655 50:0.00613497 51:0.0943396 52:0.0869565 53:0.0571429 54:0.0283286 55:0.116279 56:0.0456621 57:0.0588235 58:0.0398406 59:0.0757576 60:0.142857 61:0.0126582 62:1 63:0.0244499 64:0.0833333 65:0.0735294 66:0.0662252 67:0.02849 68:0.0353357 69:0.0581395 70:0.114943 71:0.0286533 72:0.111111 73:0.142857 74:0.1 75:0.0444444 76:0.0961538 77:0.02849 78:0.0609756 79:0.0862069 80:0.3125 81:0.0268097 82:0.0358423 83:0.0323625 84:0.128205 85:0 86:0 87:0 88:0.00543478 89:0 90:0 91:0 92:0.00892857 93:0.00251256 94:0.00480769 95:0.00621118 96:0 97:0 98:0 99:0 100:0 101:0.0107527 102:0 103:0 104:0.047619 105:0 106:0 107:0 108:0 109:0.00361011 110:0 111:0 112:0.0044843 113:0.0135135 114:0.00653595 115:0 116:0 117:0 118:0 119:0 120:0 121:0 122:0 123:0.00819672 124:0 125:0 126:0 127:0 128:0.0142857 129:0.00330033 130:0.00462963 131:0 132:0.0568182 133:0 134:0 135:0 136:0 137:0 138:0 139:0.0280112 140:0 141:0 142:0 143:0.00236967 144:0.008 145:0.000225022 146:0.166667 147:0 148:0.00434783 149:0 150:0 151:0 152:0.00289855 153:0.0378788 154:0 155:0.00480769 156:0 157:0.00390625 158:0 159:0 160:0 161:0.0108696 162:0.0105263 163:0 164:0 165:0 166:0 167:0 168:0.00840336 169:0 170:0 171:0 172:0 173:0 174:0.00515464 175:0 176:0 177:0 178:0 179:0 180:0 181:0.0111111 182:0.010101 183:0 184:0 185:0.00265252 186:0 187:0 188:0 189:0.0018797 190:0.00114943 191:0 192:0.00217865 193:0.00806452 194:0 195:0.00534759 196:0 197:0 198:0 199:0 200:0 201:0 202:0 203:0 204:0 205:0 206:0 207:0 208:0 209:0 210:0.0014556 211:0.00757576 212:0 213:0 214:0.00546448 215:0 216:0.0035461 217:0 218:0.0027248 219:0 220:0.00148368 221:0 222:0 223:0 224:0 225:0 226:0 227:0 228:0 229:0 230:0 231:0 232:0.00598802 233:0 234:0 235:0.00238663 236:0 237:0.00980392 238:0 239:0.00283286 240:0 241:0 242:0.0135135 243:0 244:0 245:0 246:0 247:0 248:0 249:0 250:0.00243309 251:0.00393701 252:0.0012285 253:0 254:0.00636943 255:0 256:0.01 257:0 258:0.00900901 259:0 260:0 261:0 262:0 263:0 264:0 265:0 266:0 267:0 
10 1:0.026178 2:0.0280112 3:0.0729614 4:0.0286533 5:0.0286533 6:0.035443 7:0.100287 8:0.0283286 9:0.100287 10:0.0258398 11:0.0217391 12:0.0276243 13:0.026738 14:0.019685 15:0.0963173 16:0.026178 17:0.0286533 18:0.0318792 19:0.0670157 20:0.0893855 21:0.0585586 22:0.0286533 23:0.0379242 24:0.0283286 25:0.0283286 26:0.125301 27:0.0273973 28:0.0418502 29:0.0387205 30:0.026738 31:0.0482077 32:0.124031 33:0.0439024 34:0.0286533 35:0.0229885 36:0.0913838 37:0.0974212 38:0.0246914 39:0.0286533 40:0.0273973 41:0.0847784 42:0.0383562 43:0.0286533 44:0.0286533 45:0.0907372 46:0.0257732 47:0.0361757 48:0.0286533 49:0.0333333 50:0 51:0.025974 52:0.0948509 53:0.0220264 54:0.0371567 55:0.0273973 56:0.104348 57:0.0222717 58:0.0588235 59:0.0243309 60:0.0286533 61:0.0027933 62:0.0244499 63:1 64:0.0250627 65:0.0240964 66:0.122449 67:0.015873 68:0.0916031 69:0.0221729 70:0.0273224 71:0.119298 72:0.0271003 73:0.0286533 74:0.0373333 75:0.0198413 76:0.0261097 77:0.015873 78:0.0318907 79:0.0358056 80:0.057072 81:0.0216049 82:0.0839695 83:0.0170068 84:0.0515759 85:0.0238095 86:0 87:0.0535332 88:0.0108932 89:0.00764818 90:0.0438356 91:0 92:0.00255754 93:0.0149701 94:0.00205339 95:0.00227273 96:0 97:0 98:0 99:0 100:0 101:0.00268817 102:0 103:0 104:0.123874 105:0.0337302 106:0.0207254 107:0 108:0.00205444 109:0.0752896 110:0.0284464 111:0 112:0.197619 113:0.00283286 114:0.0879397 115:0.015873 116:0 117:0 118:0.0475524 119:0 120:0.0195896 121:0 122:0.0278373 123:0.00249377 124:0 125:0 126:0 127:0 128:0.00286533 129:0.0300353 130:0.0101833 131:0.0220994 132:0.0310421 133:0 134:0.0204545 135:0.0230769 136:0 137:0 138:0.0561497 139:0.0802676 140:0 141:0 142:0 143:0.0620272 144:0.00247525 145:0.00467886 146:0 147:0.0106952 148:0.101512 149:0 150:0 151:0 152:0.00160256 153:0.025974 154:0 155:0.010352 156:0.014756 157:0.0190114 158:0 159:0 160:0.00943396 161:0.00269542 162:0.0026738 163:0 164:0 165:0 166:0 167:0 168:0.00251256 169:0 170:0 171:0.00863931 172:0.0509666 173:0.00973236 174:0.010661 175:0 176:0 177:0.0223325 178:0 179:0 180:0 181:0.00271003 182:0.0026455 183:0 184:0 185:0.028169 186:0 187:0.00860215 188:0.00456621 189:0.02267 190:0.00436681 191:0 192:0.0423131 193:0.00248139 194:0 195:0.00214592 196:0 197:0.0149533 198:0 199:0 200:0 201:0 202:0 203:0 204:0 205:0 206:0 207:0 208:0.00907029 209:0 210:0.00939457 211:0.012285 212:0 213:0 214:0.0021645 215:0 216:0 217:0 218:0.00778816 219:0 220:0.00104932 221:0 222:0 223:0 224:0 225:0 226:0.00804829 227:0 228:0 229:0 230:0 231:0.0385542 232:0.00224215 233:0.010101 234:0 235:0.00143266 236:0 237:0.00262467 238:0.0147601 239:0.0144231 240:0 241:0.0458453 242:0.00283286 243:0 244:0 245:0.0104167 246:0.012605 247:0.00954654 248:0.00966184 249:0.0698152 250:0.0313433 251:0.0094518 252:0.0369668 253:0.00633914 254:0.0115741 255:0 256:0.00263852 257:0 258:0.0025641 259:0 260:0 261:0 262:0.00845666 263:0 264:0 265:0 266:0 267:0 
