svm_type c_svc
kernel_type rbf
gamma 0.00374532
nr_class 2
total_sv 262
rho 0.357537
label 1 2
nr_sv 86 176
SV
1.357499748929998 1:35 2:75 3:27 4:22 5:32 6:29 7:30 8:38 9:32 10:26 11:8 12:26 13:32 14:31 15:30 16:30 17:32 18:40 19:39 20:32 21:26 22:24 23:20 24:16 25:31 26:29 27:9 28:27 29:14 30:32 31:39 32:33 33:11 34:31 35:36 36:32 37:61 38:33 39:48 40:38 41:31 42:31 43:43 44:25 45:41 46:41 47:35 48:34 49:17 50:27 51:38 52:33 53:25 54:45 55:41 56:42 57:32 58:32 59:45 60:33 61:32 62:39 63:24 64:28 65:23 66:39 67:36 68:20 69:40 70:16 71:40 72:33 73:38 74:25 75:24 76:17 77:40 78:16 79:32 80:26 81:32 82:27 83:30 84:23 85:33 86:38 87:54 88:45 89:33 90:36 91:42 92:15 93:29 94:14 95:45 96:7 97:27 98:17 99:10 100:13 101:23 102:32 103:38 104:13 105:10 106:16 107:31 108:35 109:32 110:25 111:7 112:29 113:27 114:58 115:20 116:28 117:23 118:18 119:28 120:40 121:9 122:39 123:31 124:48 125:18 126:19 127:49 128:2 129:14 130:23 131:19 132:37 133:19 134:9 135:13 136:15 137:18 138:8 139:35 140:32 141:14 142:29 143:17 144:10 145:16 146:19 147:26 148:21 149:19 150:41 151:15 152:38 153:13 154:24 155:62 156:28 157:17 158:23 159:23 160:60 161:38 162:28 163:42 164:26 165:24 166:9 167:24 168:13 169:9 170:16 171:6 172:34 173:28 174:18 175:38 176:27 177:17 178:36 179:33 180:40 181:27 182:29 183:46 184:16 185:27 186:29 187:38 188:21 189:34 190:23 191:21 192:31 193:32 194:19 195:20 196:19 197:21 198:11 199:49 200:8 201:9 202:14 203:47 204:16 205:21 206:21 207:6 208:13 209:16 210:37 211:40 212:18 213:37 214:22 215:17 216:17 217:10 218:36 219:12 220:2 221:40 222:19 223:31 224:31 225:17 226:36 227:27 228:13 229:15 230:13 231:21 232:37 233:33 234:14 235:29 236:19 237:17 238:43 239:7 240:48 241:17 242:44 243:33 244:20 245:32 246:35 247:3 248:30 249:3 250:28 251:23 252:21 253:30 254:41 255:44 256:33 257:18 258:26 259:39 260:42 261:20 262:20 263:25 264:13 265:29 266:23 267:37 
1.357308757262749 1:18 2:27 3:39 4:13 5:16 6:14 7:18 8:17 9:13 10:13 11:7 12:16 13:13 14:16 15:17 16:16 17:15 18:26 19:25 20:13 21:10 22:8 23:12 24:13 25:21 26:18 27:9 28:18 29:13 30:13 31:25 32:15 33:10 34:16 35:20 36:13 37:25 38:14 39:22 40:24 41:16 42:22 43:24 44:15 45:24 46:22 47:18 48:18 49:14 50:14 51:20 52:21 53:13 54:26 55:22 56:22 57:13 58:13 59:25 60:16 61:20 62:20 63:14 64:13 65:15 66:27 67:19 68:12 69:19 70:12 71:19 72:14 73:18 74:15 75:18 76:14 77:21 78:12 79:13 80:13 81:13 82:16 83:13 84:14 85:19 86:17 87:25 88:23 89:16 90:21 91:22 92:11 93:15 94:9 95:28 96:8 97:15 98:14 99:9 100:12 101:8 102:13 103:21 104:12 105:4 106:12 107:18 108:19 109:16 110:20 111:13 112:14 113:23 114:28 115:14 116:9 117:18 118:12 119:17 120:14 121:8 122:29 123:24 124:20 125:15 126:13 127:24 128:8 129:11 130:11 131:19 132:22 133:6 134:11 135:6 136:8 137:13 138:6 139:25 140:14 141:9 142:19 143:13 144:4 145:15 146:13 147:17 148:16 149:14 150:18 151:13 152:20 153:8 154:22 155:30 156:16 157:16 158:14 159:14 160:36 161:19 162:21 163:31 164:15 165:20 166:8 167:16 168:7 169:8 170:11 171:5 172:24 173:15 174:11 175:18 176:18 177:14 178:25 179:19 180:25 181:22 182:22 183:32 184:7 185:16 186:19 187:25 188:17 189:25 190:15 191:16 192:18 193:22 194:19 195:14 196:15 197:16 198:5 199:24 200:12 201:9 202:16 203:25 204:10 205:16 206:16 207:7 208:9 209:10 210:19 211:25 212:17 213:26 214:11 215:10 216:15 217:11 218:21 219:11 220:5 221:28 222:18 223:18 224:16 225:9 226:20 227:23 228:12 229:12 230:5 231:12 232:23 233:21 234:5 235:17 236:21 237:13 238:20 239:5 240:25 241:11 242:18 243:23 244:11 245:20 246:23 247:1 248:19 249:9 250:22 251:14 252:18 253:21 254:23 255:21 256:17 257:11 258:14 259:24 260:24 261:16 262:13 263:13 264:10 265:15 266:16 267:22 
1.357568775557105 1:26 2:22 3:13 4:32 5:28 6:25 7:25 8:27 9:25 10:25 11:8 12:27 13:25 14:25 15:30 16:27 17:28 18:27 19:29 20:25 21:15 22:13 23:23 24:15 25:30 26:24 27:8 28:15 29:17 30:25 31:29 32:27 33:9 34:28 35:28 36:25 37:27 38:26 39:27 40:24 41:28 42:27 43:26 44:23 45:25 46:30 47:26 48:25 49:14 50:25 51:25 52:25 53:28 54:25 55:25 56:26 57:25 58:25 59:26 60:26 61:29 62:29 63:17 64:20 65:23 66:23 67:28 68:23 69:24 70:11 71:27 72:26 73:26 74:28 75:18 76:16 77:25 78:16 79:25 80:26 81:26 82:27 83:25 84:14 85:25 86:27 87:26 88:28 89:29 90:25 91:27 92:15 93:18 94:14 95:23 96:7 97:10 98:7 99:7 100:17 101:16 102:25 103:14 104:10 105:15 106:13 107:20 108:13 109:21 110:11 111:3 112:14 113:17 114:20 115:18 116:14 117:14 118:13 119:16 120:12 121:2 122:27 123:18 124:17 125:13 126:15 127:12 128:5 129:18 130:20 131:9 132:15 133:2 134:8 135:16 136:18 137:17 138:6 139:18 140:14 141:16 142:19 143:6 144:15 145:6 146:9 147:18 148:21 149:3 150:16 151:10 152:10 153:13 154:16 155:24 156:9 157:16 158:15 159:16 160:30 161:20 162:25 163:22 164:10 165:10 166:12 167:11 168:6 169:6 170:15 171:6 172:20 173:14 174:20 175:16 176:11 177:7 178:19 179:16 180:14 181:17 182:15 183:25 184:14 185:13 186:25 187:21 188:19 189:13 190:13 191:9 192:26 193:22 194:11 195:14 196:16 197:10 198:14 199:15 200:2 201:5 202:6 203:16 204:12 205:12 206:5 207:3 208:5 209:15 210:16 211:27 212:5 213:19 214:20 215:16 216:10 217:15 218:22 219:6 220:5 221:24 222:6 223:16 224:8 225:16 226:24 227:8 228:6 229:12 230:14 231:20 232:16 233:22 234:14 235:20 236:9 237:10 238:25 239:4 240:12 241:12 242:16 243:23 244:17 245:18 246:18 247:1 248:6 249:3 250:11 251:13 252:9 253:18 254:7 255:16 256:14 257:10 258:17 259:13 260:20 261:14 262:7 263:10 264:17 265:10 266:6 267:13 
1.357495273049859 1:40 2:32 3:16 4:28 5:51 6:37 7:34 8:46 9:38 10:31 11:8 12:30 13:38 14:38 15:41 16:38 17:39 18:37 19:42 20:38 21:22 22:19 23:23 24:16 25:37 26:26 27:9 28:17 29:19 30:38 31:42 32:42 33:10 34:40 35:44 36:38 37:39 38:39 39:40 40:35 41:40 42:37 43:39 44:33 45:35 46:42 47:40 48:30 49:18 50:33 51:39 52:32 53:34 54:35 55:40 56:35 57:38 58:38 59:41 60:38 61:39 62:39 63:23 64:24 65:28 66:32 67:37 68:23 69:32 70:14 71:46 72:38 73:39 74:33 75:24 76:21 77:36 78:17 79:39 80:32 81:38 82:33 83:38 84:15 85:33 86:46 87:38 88:42 89:41 90:36 91:39 92:20 93:25 94:15 95:29 96:5 97:14 98:8 99:8 100:22 101:26 102:34 103:16 104:15 105:17 106:15 107:27 108:20 109:33 110:15 111:7 112:21 113:21 114:28 115:24 116:23 117:18 118:19 119:22 120:20 121:3 122:37 123:17 124:26 125:16 126:21 127:16 128:5 129:23 130:28 131:11 132:18 133:6 134:8 135:20 136:25 137:19 138:9 139:22 140:26 141:20 142:27 143:11 144:20 145:11 146:10 147:22 148:27 149:2 150:26 151:12 152:13 153:17 154:18 155:36 156:13 157:17 158:16 159:24 160:42 161:31 162:29 163:33 164:14 165:10 166:11 167:11 168:11 169:8 170:24 171:7 172:25 173:22 174:23 175:26 176:14 177:10 178:30 179:19 180:23 181:20 182:23 183:33 184:17 185:18 186:31 187:29 188:25 189:20 190:16 191:13 192:33 193:32 194:11 195:20 196:20 197:12 198:19 199:21 200:6 201:6 202:11 203:24 204:15 205:13 206:10 207:6 208:11 209:24 210:25 211:35 212:7 213:26 214:28 215:24 216:12 217:13 218:27 219:9 220:2 221:29 222:8 223:23 224:11 225:21 226:37 227:10 228:8 229:13 230:25 231:26 232:22 233:27 234:22 235:25 236:14 237:10 238:34 239:5 240:15 241:15 242:23 243:24 244:21 245:24 246:22 247:6 248:10 249:4 250:15 251:20 252:14 253:22 254:13 255:27 256:20 257:14 258:19 259:21 260:26 261:16 262:11 263:10 264:22 265:16 266:12 267:16 
1.319835433214346 1:36 2:29 3:14 4:25 5:37 6:38 7:34 8:38 9:36 10:31 11:8 12:28 13:36 14:36 15:36 16:34 17:36 18:30 19:36 20:36 21:19 22:18 23:23 24:15 25:35 26:22 27:8 28:16 29:14 30:36 31:36 32:36 33:9 34:35 35:38 36:36 37:36 38:37 39:36 40:30 41:35 42:32 43:37 44:29 45:33 46:36 47:36 48:30 49:17 50:32 51:36 52:30 53:33 54:32 55:36 56:33 57:36 58:36 59:36 60:36 61:35 62:36 63:22 64:23 65:26 66:28 67:36 68:23 69:32 70:13 71:38 72:37 73:36 74:30 75:22 76:17 77:34 78:16 79:36 80:32 81:36 82:31 83:36 84:15 85:32 86:38 87:36 88:38 89:36 90:35 91:36 92:18 93:21 94:14 95:26 96:4 97:11 98:6 99:3 100:18 101:20 102:32 103:11 104:5 105:17 106:10 107:27 108:11 109:29 110:13 111:3 112:18 113:19 114:25 115:20 116:19 117:15 118:14 119:19 120:18 121:2 122:30 123:12 124:22 125:14 126:19 127:9 128:0 129:21 130:27 131:7 132:13 133:2 134:4 135:18 136:20 137:17 138:6 139:21 140:20 141:18 142:21 143:2 144:18 145:4 146:6 147:21 148:21 149:0 150:20 151:10 152:9 153:16 154:16 155:30 156:8 157:15 158:15 159:20 160:36 161:26 162:26 163:26 164:10 165:8 166:8 167:9 168:9 169:7 170:20 171:6 172:22 173:20 174:19 175:20 176:10 177:8 178:23 179:16 180:18 181:18 182:18 183:29 184:17 185:16 186:27 187:25 188:20 189:16 190:14 191:8 192:30 193:28 194:9 195:18 196:17 197:12 198:18 199:18 200:2 201:5 202:2 203:19 204:13 205:10 206:6 207:3 208:4 209:19 210:20 211:30 212:4 213:18 214:23 215:19 216:9 217:9 218:23 219:7 220:1 221:27 222:6 223:19 224:9 225:20 226:33 227:7 228:4 229:12 230:20 231:25 232:18 233:21 234:20 235:25 236:9 237:9 238:32 239:3 240:14 241:9 242:19 243:22 244:18 245:22 246:18 247:2 248:9 249:0 250:13 251:18 252:11 253:19 254:6 255:20 256:18 257:12 258:17 259:17 260:24 261:15 262:10 263:9 264:19 265:12 266:8 267:12 
1.357193642394222 1:35 2:30 3:18 4:25 5:34 6:34 7:63 8:45 9:33 10:30 11:9 12:28 13:33 14:34 15:34 16:33 17:33 18:34 19:39 20:33 21:19 22:18 23:23 24:19 25:35 26:27 27:9 28:19 29:15 30:33 31:39 32:34 33:11 34:36 35:35 36:33 37:36 38:33 39:37 40:34 41:36 42:31 43:36 44:29 45:35 46:37 47:35 48:37 49:18 50:35 51:37 52:31 53:31 54:34 55:38 56:33 57:33 58:33 59:36 60:34 61:33 62:37 63:23 64:22 65:26 66:32 67:35 68:23 69:35 70:17 71:42 72:35 73:37 74:29 75:24 76:19 77:36 78:18 79:33 80:32 81:33 82:31 83:33 84:16 85:32 86:45 87:37 88:42 89:37 90:35 91:38 92:18 93:26 94:16 95:30 96:6 97:16 98:8 99:9 100:20 101:30 102:31 103:16 104:15 105:16 106:11 107:28 108:15 109:37 110:21 111:8 112:21 113:27 114:30 115:22 116:24 117:19 118:19 119:24 120:19 121:5 122:32 123:18 124:33 125:15 126:23 127:13 128:2 129:22 130:29 131:12 132:16 133:14 134:7 135:18 136:30 137:19 138:8 139:26 140:31 141:19 142:25 143:17 144:16 145:19 146:9 147:31 148:22 149:4 150:31 151:15 152:13 153:21 154:19 155:34 156:25 157:16 158:17 159:24 160:44 161:37 162:26 163:39 164:19 165:12 166:9 167:12 168:11 169:8 170:24 171:9 172:29 173:22 174:18 175:30 176:16 177:10 178:31 179:18 180:25 181:23 182:27 183:32 184:16 185:18 186:28 187:32 188:26 189:18 190:17 191:18 192:37 193:28 194:14 195:27 196:24 197:14 198:20 199:22 200:6 201:7 202:16 203:24 204:15 205:15 206:16 207:7 208:13 209:17 210:24 211:31 212:9 213:32 214:25 215:25 216:10 217:11 218:32 219:8 220:2 221:32 222:15 223:23 224:18 225:23 226:34 227:13 228:6 229:16 230:29 231:28 232:22 233:30 234:22 235:27 236:17 237:11 238:33 239:6 240:22 241:10 242:21 243:23 244:19 245:22 246:21 247:14 248:15 249:2 250:20 251:28 252:16 253:23 254:27 255:42 256:22 257:13 258:18 259:25 260:26 261:16 262:12 263:13 264:22 265:15 266:19 267:18 
1.04206627364936 1:39 2:32 3:13 4:25 5:38 6:36 7:33 8:47 9:47 10:31 11:7 12:31 13:43 14:43 15:39 16:39 17:47 18:35 19:46 20:47 21:23 22:23 23:23 24:15 25:43 26:22 27:8 28:15 29:12 30:47 31:46 32:46 33:9 34:42 35:43 36:47 37:46 38:47 39:47 40:33 41:42 42:36 43:47 44:34 45:35 46:47 47:39 48:32 49:18 50:37 51:47 52:35 53:37 54:39 55:47 56:36 57:47 58:47 59:46 60:41 61:42 62:47 63:23 64:25 65:29 66:32 67:43 68:23 69:36 70:11 71:47 72:47 73:47 74:35 75:25 76:16 77:40 78:16 79:47 80:34 81:47 82:34 83:43 84:14 85:34 86:47 87:46 88:45 89:47 90:38 91:45 92:16 93:27 94:14 95:29 96:4 97:12 98:6 99:3 100:23 101:23 102:38 103:9 104:3 105:17 106:8 107:26 108:13 109:32 110:11 111:1 112:16 113:17 114:28 115:25 116:19 117:18 118:15 119:17 120:24 121:1 122:33 123:12 124:23 125:12 126:24 127:12 128:0 129:25 130:27 131:5 132:16 133:0 134:3 135:17 136:23 137:17 138:4 139:21 140:23 141:23 142:26 143:0 144:23 145:2 146:4 147:21 148:26 149:0 150:23 151:10 152:12 153:16 154:16 155:34 156:6 157:13 158:15 159:23 160:42 161:29 162:28 163:30 164:8 165:8 166:8 167:9 168:12 169:5 170:24 171:6 172:23 173:23 174:19 175:23 176:8 177:6 178:26 179:18 180:20 181:18 182:19 183:33 184:17 185:15 186:31 187:26 188:23 189:14 190:14 191:6 192:36 193:35 194:7 195:16 196:16 197:12 198:21 199:16 200:0 201:5 202:0 203:24 204:12 205:8 206:4 207:2 208:2 209:23 210:23 211:35 212:4 213:16 214:24 215:22 216:9 217:9 218:25 219:6 220:1 221:29 222:6 223:24 224:8 225:21 226:38 227:7 228:3 229:12 230:23 231:25 232:23 233:20 234:20 235:26 236:7 237:9 238:37 239:1 240:17 241:10 242:23 243:25 244:21 245:21 246:18 247:0 248:12 249:0 250:16 251:16 252:11 253:20 254:4 255:23 256:21 257:10 258:18 259:18 260:29 261:14 262:10 263:9 264:24 265:15 266:6 267:11 
1.356168789475702 1:31 2:26 3:13 4:25 5:31 6:31 7:30 8:31 9:31 10:31 11:7 12:27 13:31 14:31 15:31 16:28 17:31 18:27 19:31 20:31 21:15 22:15 23:23 24:15 25:31 26:22 27:8 28:15 29:12 30:31 31:31 32:31 33:9 34:30 35:31 36:31 37:31 38:31 39:31 40:25 41:30 42:28 43:31 44:26 45:29 46:31 47:31 48:28 49:16 50:29 51:31 52:27 53:30 54:27 55:31 56:30 57:31 58:31 59:31 60:31 61:30 62:31 63:18 64:21 65:25 66:26 67:31 68:23 69:28 70:11 71:31 72:31 73:31 74:27 75:20 76:16 77:31 78:16 79:31 80:30 81:31 82:29 83:31 84:14 85:29 86:31 87:31 88:31 89:31 90:29 91:31 92:15 93:19 94:14 95:24 96:4 97:8 98:6 99:3 100:15 101:15 102:30 103:9 104:3 105:15 106:8 107:23 108:9 109:23 110:11 111:1 112:15 113:16 114:22 115:17 116:15 117:14 118:11 119:16 120:16 121:1 122:25 123:12 124:17 125:12 126:16 127:8 128:0 129:18 130:23 131:5 132:12 133:0 134:3 135:15 136:15 137:15 138:4 139:20 140:15 141:15 142:18 143:0 144:15 145:2 146:4 147:18 148:18 149:0 150:15 151:10 152:8 153:15 154:16 155:26 156:6 157:13 158:15 159:15 160:30 161:21 162:24 163:22 164:8 165:8 166:8 167:9 168:8 169:5 170:16 171:6 172:19 173:15 174:17 175:15 176:8 177:6 178:18 179:14 180:16 181:18 182:15 183:25 184:16 185:15 186:24 187:21 188:15 189:14 190:14 191:6 192:26 193:23 194:7 195:15 196:15 197:11 198:15 199:16 200:0 201:5 202:0 203:16 204:12 205:8 206:4 207:2 208:2 209:15 210:15 211:26 212:4 213:16 214:20 215:15 216:8 217:9 218:20 219:6 220:1 221:25 222:6 223:16 224:8 225:18 226:28 227:7 228:3 229:12 230:15 231:21 232:16 233:18 234:15 235:24 236:7 237:8 238:29 239:1 240:13 241:8 242:15 243:20 244:16 245:20 246:17 247:0 248:8 249:0 250:12 251:15 252:10 253:18 254:4 255:15 256:15 257:10 258:16 259:14 260:21 261:14 262:9 263:9 264:16 265:11 266:6 267:11 
1.357120990305233 1:8 2:8 3:7 4:8 5:8 6:8 7:9 8:9 9:7 10:7 11:18 12:12 13:7 14:8 15:16 16:9 17:11 18:16 19:8 20:7 21:4 22:3 23:7 24:11 25:17 26:7 27:9 28:7 29:10 30:7 31:8 32:9 33:7 34:11 35:13 36:7 37:11 38:8 39:11 40:9 41:11 42:16 43:11 44:11 45:14 46:14 47:8 48:7 49:11 50:7 51:7 52:9 53:7 54:11 55:14 56:9 57:7 58:7 59:8 60:9 61:16 62:12 63:12 64:8 65:10 66:13 67:11 68:7 69:13 70:7 71:9 72:8 73:10 74:13 75:14 76:12 77:11 78:8 79:7 80:8 81:10 82:8 83:7 84:7 85:11 86:9 87:16 88:17 89:11 90:12 91:9 92:6 93:9 94:6 95:9 96:12 97:9 98:2 99:7 100:7 101:8 102:7 103:12 104:11 105:7 106:13 107:12 108:9 109:7 110:6 111:3 112:7 113:13 114:12 115:11 116:4 117:8 118:9 119:5 120:4 121:3 122:15 123:12 124:10 125:7 126:6 127:8 128:5 129:8 130:6 131:9 132:12 133:3 134:10 135:8 136:13 137:10 138:5 139:11 140:4 141:9 142:13 143:8 144:7 145:4 146:7 147:14 148:15 149:5 150:7 151:7 152:8 153:3 154:8 155:11 156:9 157:9 158:5 159:9 160:16 161:12 162:11 163:11 164:8 165:8 166:6 167:7 168:2 169:3 170:6 171:3 172:13 173:5 174:8 175:9 176:8 177:6 178:9 179:15 180:7 181:15 182:10 183:14 184:7 185:4 186:13 187:11 188:13 189:10 190:4 191:6 192:15 193:8 194:10 195:4 196:8 197:11 198:4 199:8 200:2 201:4 202:7 203:8 204:8 205:10 206:5 207:3 208:3 209:8 210:8 211:15 212:2 213:10 214:6 215:7 216:9 217:11 218:15 219:5 220:10 221:10 222:7 223:5 224:5 225:5 226:10 227:5 228:5 229:7 230:4 231:6 232:9 233:10 234:4 235:12 236:8 237:9 238:8 239:4 240:7 241:11 242:8 243:13 244:13 245:10 246:14 247:1 248:2 249:3 250:7 251:4 252:5 253:10 254:8 255:9 256:4 257:6 258:8 259:9 260:10 261:6 262:3 263:4 264:10 265:6 266:5 267:13 
1.35752199261314 1:27 2:26 3:16 4:27 5:30 6:28 7:28 8:41 9:31 10:27 11:12 12:68 13:30 14:32 15:33 16:35 17:33 18:30 19:38 20:43 21:12 22:11 23:21 24:17 25:45 26:23 27:11 28:16 29:15 30:43 31:38 32:35 33:9 34:42 35:32 36:32 37:34 38:38 39:38 40:24 41:42 42:33 43:61 44:23 45:32 46:41 47:27 48:29 49:28 50:25 51:39 52:27 53:29 54:58 55:36 56:28 57:32 58:36 59:33 60:31 61:43 62:37 63:17 64:20 65:32 66:33 67:32 68:21 69:37 70:13 71:39 72:33 73:44 74:26 75:25 76:17 77:32 78:16 79:37 80:26 81:32 82:27 83:29 84:15 85:27 86:41 87:43 88:36 89:42 90:27 91:34 92:13 93:20 94:14 95:25 96:10 97:26 98:7 99:9 100:26 101:12 102:29 103:16 104:14 105:12 106:24 107:24 108:18 109:19 110:12 111:5 112:14 113:21 114:26 115:18 116:11 117:22 118:15 119:13 120:32 121:2 122:31 123:24 124:15 125:14 126:17 127:14 128:6 129:17 130:22 131:11 132:18 133:3 134:11 135:13 136:21 137:15 138:5 139:21 140:12 141:14 142:21 143:6 144:12 145:6 146:15 147:20 148:34 149:24 150:13 151:17 152:17 153:11 154:19 155:34 156:14 157:16 158:15 159:13 160:57 161:20 162:32 163:25 164:8 165:18 166:15 167:10 168:13 169:6 170:14 171:6 172:26 173:12 174:19 175:13 176:9 177:8 178:18 179:40 180:23 181:24 182:23 183:41 184:16 185:12 186:25 187:22 188:29 189:13 190:13 191:12 192:54 193:34 194:16 195:12 196:13 197:17 198:11 199:15 200:3 201:6 202:15 203:24 204:13 205:12 206:7 207:4 208:4 209:12 210:13 211:32 212:4 213:17 214:18 215:14 216:21 217:14 218:41 219:6 220:13 221:46 222:10 223:14 224:9 225:14 226:29 227:8 228:6 229:13 230:11 231:20 232:25 233:19 234:12 235:22 236:15 237:18 238:38 239:2 240:31 241:22 242:13 243:28 244:24 245:18 246:23 247:0 248:16 249:18 250:15 251:12 252:11 253:24 254:9 255:13 256:12 257:11 258:19 259:18 260:38 261:15 262:11 263:10 264:22 265:14 266:8 267:19 
0.764558699677145 1:37 2:32 3:13 4:25 5:38 6:36 7:33 8:43 9:43 10:31 11:7 12:30 13:43 14:42 15:37 16:37 17:43 18:33 19:43 20:43 21:21 22:21 23:23 24:15 25:40 26:22 27:8 28:15 29:12 30:43 31:43 32:43 33:9 34:39 35:41 36:43 37:43 38:43 39:43 40:31 41:39 42:34 43:43 44:32 45:34 46:43 47:37 48:32 49:18 50:35 51:43 52:33 53:36 54:36 55:43 56:35 57:43 58:43 59:43 60:40 61:39 62:43 63:23 64:24 65:28 66:31 67:41 68:23 69:34 70:11 71:43 72:43 73:43 74:33 75:25 76:16 77:38 78:16 79:43 80:33 81:43 82:33 83:41 84:14 85:33 86:43 87:43 88:43 89:43 90:36 91:43 92:16 93:25 94:14 95:28 96:4 97:11 98:6 99:3 100:21 101:21 102:36 103:9 104:3 105:17 106:8 107:26 108:12 109:30 110:11 111:1 112:16 113:17 114:27 115:23 116:19 117:17 118:14 119:17 120:22 121:1 122:31 123:12 124:22 125:12 126:22 127:11 128:0 129:24 130:26 131:5 132:15 133:0 134:3 135:17 136:21 137:17 138:4 139:21 140:21 141:21 142:24 143:0 144:21 145:2 146:4 147:21 148:24 149:0 150:21 151:10 152:11 153:16 154:16 155:32 156:6 157:13 158:15 159:21 160:39 161:27 162:27 163:28 164:8 165:8 166:8 167:9 168:11 169:5 170:22 171:6 172:22 173:21 174:19 175:21 176:8 177:6 178:24 179:17 180:19 181:18 182:18 183:31 184:17 185:15 186:30 187:25 188:21 189:14 190:14 191:6 192:34 193:32 194:7 195:16 196:16 197:12 198:21 199:16 200:0 201:5 202:0 203:22 204:12 205:8 206:4 207:2 208:2 209:21 210:21 211:33 212:4 213:16 214:23 215:21 216:9 217:9 218:24 219:6 220:1 221:28 222:6 223:22 224:8 225:21 226:36 227:7 228:3 229:12 230:21 231:24 232:22 233:20 234:20 235:26 236:7 237:9 238:35 239:1 240:16 241:10 242:21 243:24 244:20 245:21 246:18 247:0 248:11 249:0 250:15 251:16 252:11 253:20 254:4 255:21 256:21 257:10 258:18 259:17 260:27 261:14 262:10 263:9 264:22 265:14 266:6 267:11 
1.356459721460646 1:37 2:31 3:16 4:25 5:38 6:36 7:34 8:44 9:43 10:31 11:8 12:32 13:42 14:63 15:37 16:37 17:43 18:35 19:46 20:44 21:22 22:22 23:23 24:17 25:44 26:22 27:8 28:16 29:12 30:44 31:46 32:42 33:9 34:40 35:46 36:43 37:43 38:44 39:47 40:38 41:40 42:35 43:47 44:38 45:37 46:47 47:37 48:35 49:19 50:41 51:45 52:37 53:36 54:40 55:51 56:37 57:44 58:44 59:43 60:40 61:42 62:45 63:24 64:26 65:30 66:37 67:41 68:23 69:36 70:13 71:47 72:44 73:45 74:35 75:25 76:16 77:40 78:17 79:44 80:33 81:43 82:34 83:42 84:14 85:35 86:44 87:46 88:44 89:45 90:39 91:43 92:16 93:30 94:15 95:34 96:5 97:13 98:6 99:7 100:23 101:22 102:35 103:12 104:4 105:17 106:9 107:28 108:18 109:32 110:16 111:5 112:20 113:24 114:28 115:26 116:19 117:20 118:17 119:18 120:22 121:2 122:34 123:16 124:24 125:12 126:28 127:13 128:1 129:26 130:28 131:8 132:16 133:10 134:4 135:17 136:23 137:17 138:5 139:22 140:23 141:22 142:27 143:5 144:22 145:5 146:6 147:22 148:26 149:8 150:23 151:13 152:16 153:18 154:21 155:34 156:13 157:13 158:15 159:23 160:47 161:30 162:27 163:34 164:10 165:10 166:9 167:9 168:15 169:6 170:29 171:9 172:25 173:22 174:19 175:23 176:9 177:7 178:29 179:19 180:28 181:20 182:21 183:36 184:18 185:16 186:31 187:28 188:25 189:17 190:15 191:12 192:36 193:33 194:11 195:16 196:20 197:12 198:22 199:17 200:6 201:7 202:2 203:27 204:15 205:10 206:8 207:4 208:8 209:22 210:25 211:36 212:9 213:23 214:22 215:22 216:11 217:16 218:26 219:6 220:2 221:28 222:14 223:28 224:9 225:23 226:38 227:12 228:4 229:13 230:22 231:26 232:25 233:21 234:22 235:26 236:12 237:9 238:36 239:3 240:23 241:11 242:23 243:25 244:25 245:22 246:21 247:0 248:17 249:0 250:19 251:17 252:14 253:26 254:11 255:25 256:22 257:12 258:19 259:19 260:28 261:18 262:10 263:13 264:25 265:16 266:9 267:14 
1.357204709628453 1:55 2:30 3:17 4:30 5:41 6:36 7:34 8:62 9:39 10:31 11:16 12:33 13:37 14:37 15:100 16:53 17:51 18:57 19:69 20:63 21:37 22:31 23:23 24:20 25:59 26:25 27:10 28:17 29:33 30:61 31:69 32:43 33:9 34:60 35:48 36:40 37:57 38:54 39:78 40:49 41:60 42:54 43:59 44:41 45:39 46:70 47:55 48:30 49:19 50:55 51:49 52:42 53:38 54:51 55:51 56:39 57:43 58:51 59:46 60:40 61:84 62:49 63:39 64:24 65:29 66:44 67:45 68:23 69:35 70:14 71:59 72:44 73:63 74:55 75:42 76:30 77:39 78:17 79:53 80:32 81:42 82:33 83:37 84:16 85:38 86:62 87:60 88:73 89:66 90:46 91:41 92:22 93:38 94:14 95:33 96:15 97:29 98:9 99:17 100:35 101:63 102:30 103:29 104:25 105:26 106:35 107:35 108:26 109:43 110:18 111:8 112:23 113:31 114:33 115:62 116:25 117:18 118:18 119:27 120:16 121:3 122:55 123:33 124:34 125:20 126:36 127:18 128:12 129:37 130:30 131:19 132:28 133:7 134:17 135:31 136:48 137:30 138:9 139:28 140:53 141:37 142:36 143:23 144:66 145:11 146:15 147:29 148:62 149:7 150:41 151:15 152:18 153:16 154:21 155:36 156:16 157:23 158:15 159:50 160:71 161:52 162:37 163:45 164:18 165:21 166:19 167:20 168:8 169:8 170:49 171:6 172:36 173:28 174:27 175:55 176:22 177:10 178:43 179:40 180:25 181:28 182:29 183:44 184:17 185:17 186:42 187:33 188:63 189:22 190:16 191:17 192:53 193:39 194:21 195:22 196:31 197:19 198:22 199:23 200:7 201:5 202:20 203:21 204:18 205:19 206:12 207:8 208:12 209:41 210:56 211:51 212:8 213:30 214:31 215:29 216:16 217:24 218:50 219:10 220:17 221:34 222:13 223:32 224:14 225:21 226:39 227:12 228:10 229:12 230:53 231:28 232:21 233:40 234:27 235:30 236:19 237:22 238:35 239:6 240:17 241:34 242:45 243:44 244:28 245:22 246:35 247:6 248:8 249:11 250:16 251:22 252:15 253:28 254:18 255:53 256:25 257:15 258:19 259:23 260:27 261:18 262:9 263:10 264:37 265:18 266:13 267:25 
1.357193527288348 1:45 2:30 3:16 4:27 5:38 6:34 7:33 8:54 9:39 10:28 11:9 12:35 13:37 14:37 15:53 16:111 17:45 18:46 19:60 20:52 21:34 22:31 23:22 24:15 25:53 26:25 27:9 28:16 29:20 30:52 31:60 32:41 33:9 34:90 35:45 36:40 37:53 38:52 39:61 40:42 41:90 42:47 43:58 44:32 45:33 46:55 47:45 48:31 49:18 50:49 51:50 52:40 53:38 54:56 55:47 56:31 57:43 58:51 59:42 60:37 61:63 62:46 63:27 64:24 65:32 66:39 67:42 68:22 69:35 70:15 71:55 72:44 73:52 74:44 75:29 76:21 77:37 78:16 79:52 80:31 81:45 82:31 83:37 84:16 85:33 86:54 87:45 88:51 89:54 90:40 91:42 92:15 93:35 94:16 95:25 96:14 97:23 98:6 99:15 100:40 101:44 102:38 103:19 104:18 105:21 106:25 107:32 108:23 109:33 110:22 111:11 112:20 113:29 114:26 115:46 116:30 117:27 118:14 119:24 120:23 121:3 122:45 123:28 124:31 125:17 126:38 127:12 128:7 129:31 130:31 131:18 132:17 133:16 134:12 135:24 136:34 137:26 138:9 139:25 140:36 141:32 142:36 143:17 144:42 145:7 146:13 147:23 148:44 149:9 150:43 151:23 152:12 153:26 154:23 155:35 156:19 157:19 158:22 159:36 160:65 161:38 162:33 163:41 164:17 165:21 166:17 167:19 168:21 169:9 170:40 171:15 172:29 173:32 174:19 175:39 176:17 177:9 178:37 179:35 180:30 181:23 182:25 183:46 184:13 185:18 186:37 187:30 188:48 189:19 190:15 191:21 192:48 193:45 194:17 195:19 196:30 197:16 198:25 199:22 200:7 201:5 202:13 203:21 204:19 205:19 206:10 207:14 208:9 209:34 210:38 211:40 212:8 213:23 214:21 215:32 216:26 217:23 218:44 219:8 220:11 221:40 222:14 223:35 224:19 225:31 226:38 227:10 228:7 229:16 230:35 231:29 232:24 233:32 234:27 235:31 236:19 237:14 238:33 239:7 240:29 241:20 242:38 243:37 244:23 245:20 246:24 247:10 248:15 249:16 250:19 251:19 252:12 253:33 254:20 255:54 256:23 257:11 258:17 259:16 260:29 261:15 262:19 263:18 264:36 265:12 266:8 267:25 
1.357348700273846 1:46 2:32 3:15 4:28 5:39 6:36 7:33 8:59 9:47 10:31 11:11 12:33 13:43 14:43 15:51 16:45 17:70 18:43 19:50 20:57 21:31 22:31 23:23 24:17 25:54 26:23 27:9 28:16 29:17 30:57 31:50 32:48 33:9 34:50 35:46 36:49 37:53 38:58 39:60 40:41 41:50 42:45 43:57 44:36 45:37 46:60 47:46 48:32 49:18 50:45 51:56 52:39 53:38 54:49 55:51 56:38 57:50 58:57 59:49 60:44 61:55 62:53 63:27 64:27 65:30 66:35 67:46 68:23 69:37 70:11 71:58 72:52 73:58 74:45 75:28 76:20 77:44 78:16 79:57 80:34 81:49 82:35 83:43 84:15 85:37 86:59 87:53 88:54 89:58 90:43 91:50 92:17 93:34 94:17 95:31 96:8 97:18 98:7 99:8 100:27 101:35 102:39 103:15 104:10 105:20 106:13 107:30 108:18 109:34 110:12 111:4 112:17 113:20 114:30 115:37 116:21 117:20 118:17 119:19 120:26 121:3 122:43 123:19 124:28 125:14 126:32 127:17 128:5 129:29 130:28 131:9 132:19 133:1 134:8 135:21 136:28 137:21 138:7 139:25 140:32 141:30 142:29 143:6 144:34 145:6 146:7 147:22 148:36 149:2 150:34 151:12 152:15 153:16 154:17 155:38 156:8 157:18 158:15 159:34 160:55 161:38 162:32 163:38 164:12 165:12 166:10 167:12 168:13 169:6 170:34 171:8 172:28 173:25 174:21 175:35 176:12 177:7 178:33 179:25 180:23 181:22 182:24 183:40 184:17 185:15 186:36 187:29 188:36 189:16 190:15 191:9 192:45 193:39 194:13 195:17 196:20 197:15 198:22 199:18 200:4 201:6 202:6 203:26 204:15 205:13 206:6 207:3 208:5 209:34 210:35 211:43 212:7 213:23 214:25 215:23 216:13 217:16 218:33 219:7 220:5 221:32 222:8 223:30 224:10 225:21 226:40 227:9 228:7 229:12 230:32 231:26 232:24 233:26 234:21 235:29 236:12 237:13 238:38 239:4 240:20 241:14 242:30 243:29 244:24 245:22 246:23 247:4 248:14 249:3 250:20 251:17 252:12 253:24 254:8 255:33 256:22 257:11 258:20 259:21 260:32 261:15 262:10 263:12 264:29 265:18 266:8 267:17 
1.357215137380258 1:50 2:40 3:26 4:27 5:37 6:30 7:34 8:47 9:35 10:27 11:16 12:30 13:33 14:35 15:57 16:46 17:43 18:135 19:56 20:46 21:36 22:31 23:21 24:22 25:51 26:26 27:11 28:19 29:27 30:46 31:56 32:41 33:10 34:51 35:42 36:36 37:55 38:44 39:61 40:62 41:51 42:57 43:56 44:41 45:43 46:56 47:50 48:31 49:22 50:46 51:45 52:50 53:34 54:71 55:49 56:42 57:39 58:43 59:48 60:38 61:56 62:44 63:37 64:28 65:27 66:50 67:41 68:21 69:31 70:23 71:50 72:38 73:48 74:44 75:40 76:29 77:41 78:17 79:44 80:27 81:39 82:31 83:34 84:22 85:37 86:47 87:63 88:59 89:49 90:45 91:40 92:18 93:44 94:15 95:48 96:20 97:28 98:14 99:21 100:35 101:46 102:26 103:53 104:24 105:25 106:30 107:33 108:36 109:44 110:27 111:12 112:43 113:33 114:42 115:52 116:23 117:30 118:19 119:39 120:12 121:9 122:63 123:52 124:62 125:23 126:41 127:54 128:15 129:34 130:30 131:33 132:35 133:13 134:18 135:28 136:40 137:32 138:11 139:39 140:75 141:34 142:43 143:18 144:42 145:18 146:29 147:33 148:56 149:47 150:69 151:24 152:35 153:21 154:30 155:55 156:42 157:22 158:20 159:56 160:87 161:61 162:43 163:70 164:29 165:32 166:21 167:25 168:13 169:10 170:44 171:11 172:45 173:35 174:21 175:64 176:26 177:18 178:51 179:32 180:47 181:32 182:30 183:54 184:14 185:36 186:47 187:45 188:56 189:35 190:30 191:24 192:44 193:49 194:38 195:32 196:34 197:17 198:26 199:43 200:12 201:12 202:31 203:31 204:19 205:32 206:22 207:14 208:20 209:46 210:68 211:58 212:23 213:46 214:25 215:34 216:22 217:26 218:46 219:12 220:16 221:45 222:27 223:43 224:26 225:27 226:42 227:55 228:14 229:13 230:38 231:29 232:26 233:43 234:26 235:35 236:28 237:18 238:32 239:7 240:47 241:27 242:53 243:52 244:25 245:24 246:54 247:8 248:28 249:16 250:27 251:34 252:27 253:41 254:43 255:68 256:46 257:12 258:18 259:43 260:34 261:23 262:15 263:27 264:41 265:20 266:25 267:42 
1.357611749178469 1:53 2:32 3:13 4:25 5:38 6:36 7:33 8:84 9:47 10:31 11:7 12:43 13:43 14:44 15:63 16:52 17:57 18:46 19:106 20:195 21:34 22:31 23:23 24:15 25:60 26:22 27:8 28:15 29:12 30:95 31:106 32:49 33:9 34:65 35:48 36:50 37:60 38:76 39:109 40:50 41:65 42:54 43:105 44:39 45:40 46:95 47:53 48:32 49:18 50:73 51:73 52:43 53:37 54:72 55:60 56:41 57:55 58:71 59:61 60:46 61:104 62:60 63:23 64:27 65:35 66:39 67:47 68:23 69:50 70:11 71:77 72:55 73:112 74:45 75:25 76:16 77:46 78:16 79:75 80:35 81:55 82:37 83:43 84:14 85:41 86:84 87:64 88:73 89:102 90:46 91:53 92:16 93:51 94:14 95:36 96:4 97:15 98:6 99:3 100:25 101:50 102:44 103:9 104:3 105:17 106:8 107:26 108:17 109:42 110:11 111:1 112:16 113:17 114:33 115:52 116:19 117:20 118:18 119:17 120:71 121:1 122:48 123:12 124:24 125:12 126:34 127:49 128:0 129:26 130:32 131:5 132:16 133:0 134:3 135:17 136:23 137:17 138:4 139:21 140:81 141:28 142:28 143:0 144:57 145:2 146:4 147:21 148:33 149:0 150:34 151:10 152:12 153:16 154:16 155:45 156:6 157:13 158:15 159:31 160:111 161:42 162:32 163:39 164:8 165:8 166:8 167:9 168:13 169:5 170:51 171:6 172:33 173:25 174:19 175:38 176:8 177:6 178:29 179:27 180:24 181:18 182:20 183:51 184:17 185:15 186:31 187:26 188:43 189:14 190:14 191:6 192:55 193:40 194:7 195:16 196:16 197:12 198:21 199:16 200:0 201:5 202:0 203:42 204:12 205:8 206:4 207:2 208:2 209:31 210:47 211:46 212:4 213:16 214:25 215:22 216:9 217:9 218:30 219:6 220:1 221:39 222:6 223:30 224:8 225:21 226:50 227:7 228:3 229:12 230:72 231:28 232:25 233:20 234:20 235:26 236:7 237:9 238:54 239:1 240:34 241:10 242:27 243:26 244:34 245:21 246:18 247:0 248:15 249:0 250:16 251:16 252:11 253:20 254:4 255:30 256:21 257:10 258:18 259:26 260:46 261:14 262:10 263:9 264:27 265:24 266:6 267:11 
1.357598464853567 1:35 2:26 3:10 4:15 5:22 6:19 7:19 8:37 9:23 10:15 11:4 12:12 13:21 14:22 15:37 16:34 17:31 18:36 19:44 20:34 21:72 22:59 23:12 24:8 25:34 26:15 27:3 28:12 29:13 30:34 31:44 32:28 33:6 34:35 35:32 36:24 37:44 38:34 39:47 40:36 41:35 42:37 43:34 44:25 45:27 46:39 47:35 48:26 49:5 50:36 51:35 52:32 53:21 54:36 55:34 56:28 57:28 58:34 59:33 60:23 61:39 62:33 63:29 64:20 65:12 66:29 67:28 68:12 69:23 70:12 71:38 72:27 73:36 74:33 75:24 76:15 77:28 78:6 79:34 80:18 81:26 82:17 83:22 84:12 85:27 86:37 87:39 88:40 89:36 90:30 91:31 92:10 93:35 94:9 95:29 96:5 97:17 98:6 99:7 100:27 101:40 102:14 103:22 104:9 105:18 106:11 107:25 108:19 109:28 110:11 111:4 112:20 113:15 114:27 115:39 116:36 117:8 118:8 119:19 120:15 121:5 122:44 123:27 124:33 125:10 126:42 127:19 128:1 129:23 130:18 131:8 132:21 133:18 134:7 135:20 136:26 137:23 138:7 139:22 140:38 141:31 142:30 143:13 144:35 145:7 146:8 147:23 148:35 149:2 150:56 151:12 152:16 153:16 154:16 155:28 156:10 157:11 158:18 159:34 160:48 161:39 162:18 163:40 164:22 165:14 166:8 167:21 168:0 169:7 170:37 171:7 172:26 173:37 174:12 175:44 176:25 177:10 178:36 179:29 180:22 181:17 182:12 183:31 184:8 185:19 186:37 187:31 188:38 189:13 190:16 191:16 192:31 193:26 194:14 195:18 196:18 197:9 198:23 199:24 200:3 201:3 202:6 203:20 204:11 205:11 206:6 207:3 208:12 209:31 210:39 211:33 212:4 213:21 214:14 215:26 216:5 217:8 218:32 219:6 220:2 221:23 222:9 223:36 224:26 225:21 226:21 227:7 228:8 229:6 230:52 231:18 232:15 233:27 234:22 235:21 236:9 237:11 238:25 239:4 240:22 241:8 242:42 243:28 244:1 245:14 246:22 247:2 248:15 249:0 250:16 251:19 252:7 253:19 254:22 255:50 256:35 257:9 258:10 259:14 260:25 261:12 262:9 263:20 264:26 265:14 266:13 267:22 
1.357606679597428 1:31 2:24 3:8 4:13 5:19 6:18 7:18 8:32 9:23 10:15 11:3 12:11 13:21 14:22 15:31 16:31 17:31 18:31 19:41 20:31 21:59 22:63 23:12 24:8 25:31 26:15 27:3 28:11 29:10 30:31 31:41 32:26 33:5 34:31 35:27 36:24 37:41 38:31 39:42 40:31 41:31 42:31 43:31 44:24 45:25 46:36 47:31 48:25 49:5 50:33 51:34 52:31 53:21 54:31 55:33 56:27 57:28 58:31 59:32 60:23 61:32 62:32 63:28 64:19 65:12 66:27 67:27 68:12 69:23 70:8 71:33 72:27 73:33 74:31 75:24 76:13 77:28 78:6 79:31 80:17 81:26 82:16 83:22 84:11 85:26 86:32 87:35 88:34 89:31 90:30 91:31 92:8 93:31 94:8 95:28 96:2 97:16 98:5 99:6 100:25 101:34 102:14 103:20 104:4 105:17 106:7 107:23 108:16 109:26 110:8 111:0 112:16 113:13 114:24 115:33 116:35 117:6 118:4 119:17 120:16 121:3 122:37 123:26 124:30 125:8 126:40 127:16 128:0 129:22 130:16 131:5 132:20 133:16 134:6 135:18 136:23 137:21 138:4 139:21 140:31 141:31 142:28 143:10 144:31 145:2 146:4 147:22 148:32 149:0 150:52 151:10 152:16 153:16 154:16 155:24 156:6 157:7 158:18 159:31 160:44 161:34 162:17 163:35 164:21 165:11 166:8 167:20 168:0 169:5 170:33 171:7 172:22 173:36 174:11 175:39 176:25 177:7 178:32 179:27 180:18 181:15 182:9 183:28 184:8 185:17 186:33 187:29 188:32 189:10 190:15 191:12 192:28 193:24 194:10 195:16 196:16 197:9 198:23 199:19 200:0 201:3 202:0 203:16 204:10 205:8 206:3 207:1 208:10 209:31 210:33 211:29 212:1 213:16 214:12 215:23 216:4 217:7 218:27 219:4 220:1 221:21 222:7 223:34 224:23 225:21 226:20 227:5 228:5 229:6 230:47 231:16 232:14 233:22 234:20 235:20 236:6 237:10 238:24 239:2 240:21 241:7 242:41 243:26 244:0 245:12 246:20 247:0 248:15 249:0 250:16 251:16 252:7 253:17 254:18 255:46 256:33 257:7 258:9 259:12 260:22 261:10 262:9 263:20 264:26 265:14 266:10 267:20 
1.357551512436574 1:17 2:16 3:13 4:15 5:16 6:15 7:19 8:16 9:15 10:15 11:11 12:17 13:15 14:17 15:20 16:15 17:17 18:22 19:17 20:15 21:8 22:8 23:15 24:32 25:21 26:14 27:10 28:12 29:13 30:15 31:17 32:17 33:8 34:18 35:19 36:17 37:19 38:15 39:19 40:20 41:18 42:20 43:18 44:17 45:20 46:20 47:17 48:18 49:15 50:16 51:17 52:17 53:15 54:19 55:19 56:18 57:15 58:15 59:17 60:17 61:20 62:20 63:16 64:12 65:17 66:21 67:19 68:15 69:18 70:12 71:18 72:15 73:18 74:19 75:18 76:15 77:20 78:11 79:15 80:16 81:15 82:15 83:15 84:12 85:19 86:16 87:19 88:20 89:17 90:18 91:18 92:11 93:13 94:14 95:19 96:8 97:12 98:5 99:8 100:12 101:10 102:15 103:15 104:16 105:10 106:12 107:22 108:9 109:13 110:14 111:3 112:12 113:16 114:19 115:14 116:8 117:15 118:8 119:11 120:7 121:4 122:22 123:17 124:12 125:16 126:14 127:9 128:6 129:15 130:15 131:12 132:13 133:6 134:8 135:10 136:12 137:13 138:6 139:22 140:10 141:12 142:13 143:7 144:10 145:6 146:8 147:17 148:17 149:5 150:12 151:12 152:9 153:10 154:18 155:19 156:12 157:19 158:13 159:12 160:24 161:14 162:18 163:21 164:11 165:11 166:9 167:12 168:7 169:7 170:13 171:11 172:20 173:17 174:11 175:12 176:12 177:7 178:16 179:15 180:14 181:17 182:13 183:20 184:14 185:10 186:18 187:19 188:14 189:11 190:12 191:7 192:17 193:18 194:12 195:10 196:15 197:11 198:10 199:14 200:3 201:8 202:13 203:11 204:14 205:12 206:9 207:2 208:10 209:14 210:13 211:19 212:4 213:16 214:11 215:12 216:10 217:13 218:20 219:5 220:5 221:18 222:11 223:13 224:10 225:13 226:17 227:10 228:5 229:11 230:10 231:16 232:12 233:19 234:10 235:18 236:15 237:9 238:17 239:4 240:16 241:7 242:12 243:18 244:12 245:13 246:19 247:8 248:9 249:4 250:11 251:10 252:9 253:18 254:11 255:14 256:10 257:6 258:9 259:10 260:17 261:11 262:9 263:10 264:15 265:8 266:8 267:14 
1.35751705807317 1:46 2:31 3:21 4:30 5:37 6:35 7:35 8:61 9:43 10:31 11:17 12:45 13:40 14:44 15:59 16:53 17:54 18:51 19:63 20:60 21:34 22:31 23:23 24:21 25:111 26:25 27:11 28:20 29:26 30:60 31:63 32:44 33:10 34:58 35:46 36:45 37:56 38:58 39:65 40:50 41:58 42:60 43:68 44:38 45:42 46:67 47:46 48:35 49:28 50:50 51:58 52:50 53:37 54:64 55:57 56:40 57:47 58:55 59:49 60:42 61:68 62:55 63:34 64:26 65:35 66:46 67:49 68:23 69:43 70:18 71:61 72:49 73:62 74:48 75:41 76:28 77:46 78:17 79:57 80:32 81:48 82:31 83:39 84:18 85:38 86:61 87:64 88:63 89:62 90:48 91:50 92:17 93:38 94:15 95:34 96:19 97:32 98:10 99:14 100:36 101:47 102:37 103:29 104:26 105:22 106:33 107:34 108:34 109:38 110:22 111:8 112:29 113:36 114:38 115:53 116:22 117:27 118:27 119:23 120:26 121:9 122:55 123:35 124:37 125:21 126:37 127:19 128:10 129:35 130:35 131:22 132:26 133:18 134:19 135:24 136:41 137:26 138:10 139:32 140:45 141:33 142:38 143:16 144:42 145:14 146:20 147:39 148:50 149:25 150:43 151:21 152:23 153:19 154:27 155:42 156:30 157:23 158:21 159:43 160:74 161:47 162:35 163:49 164:24 165:22 166:21 167:20 168:16 169:10 170:42 171:9 172:43 173:28 174:23 175:48 176:20 177:11 178:41 179:43 180:32 181:33 182:28 183:53 184:20 185:19 186:46 187:34 188:61 189:18 190:19 191:21 192:62 193:46 194:27 195:23 196:26 197:23 198:24 199:25 200:7 201:10 202:21 203:32 204:19 205:20 206:15 207:10 208:12 209:38 210:47 211:53 212:6 213:27 214:22 215:30 216:32 217:25 218:49 219:9 220:22 221:45 222:16 223:33 224:17 225:24 226:43 227:12 228:12 229:14 230:40 231:34 232:29 233:35 234:24 235:32 236:20 237:24 238:41 239:6 240:34 241:26 242:38 243:46 244:38 245:25 246:32 247:7 248:23 249:12 250:21 251:24 252:14 253:35 254:19 255:45 256:26 257:13 258:26 259:27 260:40 261:21 262:16 263:17 264:35 265:23 266:19 267:35 
1.357879687792919 1:24 2:29 3:18 4:24 5:26 6:22 7:27 8:25 9:22 10:22 11:7 12:23 13:22 14:22 15:25 16:25 17:23 18:26 19:28 20:22 21:15 22:15 23:20 24:14 25:25 26:38 27:8 28:20 29:14 30:22 31:28 32:23 33:11 34:26 35:27 36:22 37:30 38:22 39:30 40:26 41:26 42:22 43:23 44:20 45:26 46:29 47:24 48:28 49:13 50:26 51:28 52:24 53:24 54:24 55:28 56:26 57:22 58:22 59:28 60:24 61:25 62:27 63:17 64:21 65:21 66:27 67:28 68:20 69:24 70:14 71:28 72:22 73:25 74:24 75:18 76:15 77:25 78:15 79:22 80:22 81:22 82:22 83:22 84:16 85:25 86:25 87:27 88:26 89:24 90:24 91:28 92:14 93:22 94:14 95:27 96:6 97:13 98:11 99:9 100:15 101:14 102:22 103:18 104:10 105:11 106:12 107:25 108:18 109:18 110:13 111:6 112:15 113:18 114:25 115:18 116:14 117:17 118:11 119:16 120:16 121:6 122:28 123:21 124:19 125:14 126:23 127:17 128:4 129:17 130:18 131:9 132:18 133:7 134:9 135:13 136:14 137:20 138:6 139:23 140:13 141:13 142:19 143:7 144:11 145:9 146:8 147:20 148:18 149:6 150:20 151:15 152:16 153:14 154:18 155:29 156:11 157:17 158:17 159:14 160:35 161:20 162:25 163:25 164:13 165:12 166:10 167:16 168:8 169:7 170:20 171:9 172:21 173:17 174:18 175:18 176:16 177:11 178:22 179:19 180:23 181:22 182:16 183:28 184:14 185:15 186:26 187:24 188:16 189:19 190:15 191:11 192:23 193:22 194:15 195:13 196:14 197:13 198:16 199:21 200:5 201:6 202:8 203:21 204:13 205:12 206:10 207:7 208:7 209:12 210:16 211:26 212:10 213:20 214:19 215:16 216:9 217:13 218:24 219:11 220:3 221:28 222:10 223:22 224:13 225:17 226:22 227:11 228:9 229:12 230:11 231:18 232:21 233:22 234:15 235:19 236:12 237:12 238:25 239:3 240:20 241:12 242:18 243:22 244:15 245:24 246:19 247:0 248:15 249:2 250:16 251:13 252:16 253:21 254:13 255:21 256:18 257:14 258:19 259:20 260:22 261:13 262:12 263:17 264:17 265:15 266:11 267:17 
1.184259481726058 1:9 2:9 3:9 4:8 5:9 6:8 7:9 8:8 9:8 10:8 11:9 12:11 13:8 14:8 15:10 16:9 17:9 18:11 19:9 20:8 21:3 22:3 23:8 24:10 25:11 26:8 27:11 28:8 29:7 30:8 31:9 32:9 33:7 34:10 35:10 36:8 37:9 38:8 39:9 40:10 41:10 42:11 43:11 44:8 45:11 46:10 47:9 48:9 49:11 50:8 51:9 52:9 53:8 54:11 55:10 56:9 57:8 58:8 59:9 60:9 61:10 62:10 63:7 64:7 65:10 66:9 67:11 68:8 69:11 70:7 71:9 72:8 73:9 74:8 75:10 76:8 77:9 78:8 79:8 80:8 81:8 82:8 83:8 84:9 85:8 86:8 87:11 88:10 89:9 90:9 91:9 92:5 93:7 94:7 95:9 96:5 97:5 98:3 99:5 100:6 101:3 102:8 103:7 104:4 105:3 106:7 107:11 108:4 109:6 110:7 111:2 112:4 113:8 114:11 115:6 116:3 117:9 118:6 119:4 120:5 121:2 122:11 123:7 124:6 125:9 126:7 127:5 128:2 129:6 130:6 131:6 132:7 133:0 134:5 135:3 136:6 137:6 138:4 139:10 140:4 141:5 142:9 143:3 144:3 145:3 146:4 147:8 148:9 149:3 150:4 151:6 152:5 153:3 154:9 155:11 156:7 157:9 158:7 159:4 160:11 161:6 162:11 163:9 164:4 165:8 166:5 167:4 168:3 169:4 170:5 171:3 172:11 173:4 174:5 175:4 176:4 177:5 178:7 179:10 180:6 181:10 182:7 183:10 184:5 185:4 186:9 187:7 188:6 189:8 190:5 191:4 192:10 193:9 194:6 195:4 196:4 197:7 198:3 199:8 200:2 201:5 202:3 203:6 204:7 205:7 206:5 207:2 208:3 209:4 210:4 211:11 212:2 213:9 214:5 215:5 216:5 217:5 218:8 219:4 220:3 221:11 222:6 223:5 224:4 225:6 226:9 227:6 228:3 229:8 230:3 231:6 232:8 233:7 234:3 235:10 236:7 237:5 238:9 239:2 240:9 241:4 242:4 243:9 244:6 245:9 246:9 247:0 248:4 249:2 250:8 251:4 252:5 253:8 254:6 255:4 256:4 257:5 258:6 259:6 260:11 261:7 262:5 263:3 264:6 265:6 266:5 267:9 
1.357991016121819 1:18 2:27 3:18 4:15 5:17 6:16 7:19 8:18 9:15 10:15 11:7 12:16 13:15 14:16 15:17 16:16 17:16 18:19 19:18 20:15 21:12 22:11 23:13 24:12 25:20 26:20 27:8 28:29 29:7 30:15 31:18 32:17 33:10 34:16 35:23 36:15 37:27 38:16 39:26 40:18 41:16 42:18 43:18 44:13 45:27 46:25 47:18 48:20 49:12 50:16 51:23 52:20 53:15 54:17 55:21 56:22 57:15 58:15 59:23 60:18 61:20 62:21 63:17 64:17 65:14 66:24 67:20 68:13 69:22 70:11 71:20 72:16 73:22 74:16 75:14 76:9 77:22 78:12 79:15 80:16 81:15 82:15 83:15 84:13 85:20 86:18 87:24 88:23 89:16 90:21 91:23 92:10 93:20 94:9 95:26 96:6 97:15 98:13 99:7 100:6 101:11 102:15 103:16 104:9 105:4 106:10 107:19 108:16 109:12 110:14 111:4 112:8 113:18 114:28 115:12 116:12 117:12 118:12 119:9 120:20 121:6 122:22 123:17 124:20 125:12 126:12 127:19 128:2 129:7 130:10 131:8 132:21 133:9 134:8 135:6 136:7 137:12 138:6 139:21 140:9 141:7 142:12 143:10 144:4 145:8 146:8 147:20 148:13 149:4 150:17 151:7 152:19 153:3 154:14 155:27 156:11 157:14 158:15 159:9 160:28 161:19 162:17 163:18 164:12 165:13 166:3 167:16 168:6 169:6 170:9 171:3 172:21 173:14 174:10 175:17 176:16 177:12 178:20 179:20 180:17 181:23 182:17 183:28 184:9 185:10 186:19 187:20 188:11 189:22 190:10 191:12 192:19 193:14 194:11 195:8 196:9 197:18 198:4 199:26 200:4 201:6 202:6 203:25 204:12 205:11 206:10 207:5 208:6 209:6 210:13 211:22 212:6 213:23 214:10 215:8 216:11 217:5 218:20 219:9 220:3 221:23 222:8 223:17 224:15 225:9 226:18 227:9 228:10 229:12 230:4 231:12 232:23 233:20 234:4 235:18 236:13 237:15 238:26 239:4 240:21 241:12 242:17 243:19 244:13 245:21 246:19 247:1 248:18 249:0 250:19 251:8 252:15 253:16 254:17 255:17 256:14 257:16 258:21 259:23 260:25 261:13 262:15 263:12 264:5 265:18 266:12 267:18 
1.35606097794181 1:20 2:14 3:13 4:17 5:19 6:14 7:15 8:19 9:12 10:12 11:10 12:15 13:12 14:12 15:33 16:20 17:17 18:27 19:20 20:12 21:13 22:10 23:12 24:13 25:26 26:14 27:7 28:7 29:37 30:12 31:20 32:17 33:6 34:21 35:20 36:12 37:19 38:13 39:19 40:23 41:21 42:27 43:15 44:21 45:19 46:21 47:20 48:12 49:9 50:12 51:12 52:13 53:16 54:19 55:18 56:15 57:12 58:12 59:15 60:12 61:28 62:17 63:19 64:15 65:12 66:19 67:19 68:12 69:16 70:10 71:20 72:13 73:14 74:22 75:29 76:29 77:19 78:9 79:12 80:13 81:12 82:15 83:12 84:11 85:20 86:19 87:25 88:27 89:16 90:19 91:18 92:21 93:14 94:9 95:20 96:13 97:17 98:7 99:15 100:19 101:23 102:12 103:25 104:23 105:17 106:24 107:22 108:15 109:23 110:15 111:9 112:16 113:20 114:24 115:21 116:16 117:12 118:13 119:20 120:2 121:3 122:30 123:26 124:19 125:14 126:11 127:11 128:12 129:19 130:17 131:20 132:20 133:6 134:15 135:22 136:25 137:21 138:9 139:20 140:16 141:18 142:22 143:20 144:17 145:10 146:13 147:20 148:30 149:6 150:18 151:13 152:13 153:10 154:16 155:20 156:14 157:16 158:11 159:22 160:31 161:24 162:21 163:25 164:15 165:15 166:17 167:15 168:1 169:8 170:15 171:6 172:24 173:13 174:18 175:21 176:21 177:9 178:22 179:20 180:14 181:17 182:18 183:21 184:9 185:12 186:19 187:20 188:26 189:15 190:11 191:14 192:26 193:19 194:18 195:16 196:23 197:12 198:11 199:13 200:7 201:4 202:21 203:10 204:13 205:14 206:9 207:7 208:11 209:17 210:21 211:29 212:6 213:22 214:23 215:14 216:10 217:21 218:28 219:8 220:13 221:16 222:12 223:12 224:11 225:11 226:16 227:12 228:9 229:6 230:16 231:17 232:11 233:25 234:15 235:16 236:18 237:14 238:17 239:6 240:10 241:20 242:19 243:24 244:13 245:13 246:22 247:6 248:1 249:12 250:9 251:15 252:8 253:16 254:17 255:23 256:12 257:7 258:7 259:11 260:16 261:13 262:2 263:9 264:22 265:9 266:10 267:18 
1.357841498040746 1:53 2:32 3:13 4:25 5:38 6:36 7:33 8:84 9:47 10:31 11:7 12:43 13:43 14:44 15:61 16:52 17:57 18:46 19:70 20:95 21:34 22:31 23:23 24:15 25:60 26:22 27:8 28:15 29:12 30:95 31:70 32:49 33:9 34:65 35:48 36:50 37:60 38:76 39:82 40:50 41:65 42:54 43:85 44:39 45:40 46:85 47:53 48:32 49:18 50:61 51:73 52:43 53:37 54:62 55:60 56:41 57:55 58:71 59:61 60:46 61:70 62:60 63:23 64:27 65:35 66:39 67:47 68:23 69:50 70:11 71:77 72:55 73:95 74:45 75:25 76:16 77:46 78:16 79:75 80:35 81:55 82:37 83:43 84:14 85:41 86:84 87:64 88:69 89:94 90:46 91:53 92:16 93:43 94:14 95:36 96:4 97:15 98:6 99:3 100:25 101:47 102:44 103:9 104:3 105:17 106:8 107:26 108:17 109:42 110:11 111:1 112:16 113:17 114:33 115:49 116:19 117:20 118:18 119:17 120:48 121:1 122:48 123:12 124:24 125:12 126:34 127:24 128:0 129:26 130:32 131:5 132:16 133:0 134:3 135:17 136:23 137:17 138:4 139:21 140:47 141:28 142:28 143:0 144:47 145:2 146:4 147:21 148:33 149:0 150:34 151:10 152:12 153:16 154:16 155:45 156:6 157:13 158:15 159:31 160:72 161:42 162:32 163:39 164:8 165:8 166:8 167:9 168:13 169:5 170:48 171:6 172:33 173:25 174:19 175:38 176:8 177:6 178:29 179:27 180:24 181:18 182:20 183:46 184:17 185:15 186:31 187:26 188:43 189:14 190:14 191:6 192:55 193:40 194:7 195:16 196:16 197:12 198:21 199:16 200:0 201:5 202:0 203:38 204:12 205:8 206:4 207:2 208:2 209:31 210:47 211:46 212:4 213:16 214:25 215:22 216:9 217:9 218:30 219:6 220:1 221:39 222:6 223:30 224:8 225:21 226:50 227:7 228:3 229:12 230:47 231:28 232:25 233:20 234:20 235:26 236:7 237:9 238:54 239:1 240:29 241:10 242:27 243:26 244:33 245:21 246:18 247:0 248:15 249:0 250:16 251:16 252:11 253:20 254:4 255:30 256:21 257:10 258:18 259:26 260:46 261:14 262:10 263:9 264:27 265:24 266:6 267:11 
1.357072435634632 1:50 2:39 3:25 4:29 5:42 6:36 7:39 8:66 9:46 10:31 11:8 12:38 13:43 14:46 15:69 16:60 17:50 18:56 19:164 20:106 21:44 22:41 23:23 24:17 25:63 26:28 27:9 28:18 29:20 30:70 31:164 32:49 33:10 34:61 35:48 36:47 37:67 38:62 39:96 40:55 41:61 42:56 43:78 44:38 45:41 46:74 47:50 48:38 49:21 50:69 51:61 52:47 53:40 54:63 55:54 56:41 57:51 58:59 59:51 60:44 61:94 62:52 63:34 64:27 65:31 66:53 67:49 68:23 69:42 70:20 71:63 72:50 73:78 74:49 75:33 76:21 77:45 78:18 79:61 80:35 81:49 82:38 83:43 84:21 85:39 86:66 87:62 88:71 89:80 90:49 91:48 92:18 93:39 94:14 95:40 96:11 97:19 98:9 99:13 100:31 101:63 102:40 103:30 104:15 105:26 106:22 107:32 108:36 109:44 110:26 111:10 112:30 113:34 114:40 115:62 116:23 117:33 118:18 119:32 120:30 121:8 122:57 123:28 124:44 125:18 126:42 127:29 128:5 129:35 130:34 131:21 132:25 133:8 134:11 135:26 136:40 137:27 138:9 139:29 140:90 141:37 142:38 143:20 144:66 145:16 146:17 147:28 148:47 149:16 150:63 151:17 152:22 153:26 154:24 155:50 156:25 157:18 158:19 159:46 160:104 161:57 162:38 163:57 164:22 165:30 166:12 167:22 168:13 169:9 170:58 171:10 172:38 173:33 174:24 175:59 176:21 177:14 178:56 179:34 180:41 181:24 182:32 183:58 184:18 185:28 186:47 187:39 188:59 189:29 190:23 191:26 192:56 193:43 194:19 195:26 196:31 197:13 198:27 199:29 200:10 201:10 202:15 203:34 204:17 205:23 206:18 207:6 208:16 209:38 210:66 211:53 212:20 213:40 214:26 215:31 216:16 217:15 218:46 219:9 220:10 221:44 222:21 223:39 224:23 225:25 226:44 227:33 228:10 229:13 230:80 231:31 232:27 233:34 234:25 235:33 236:20 237:12 238:45 239:5 240:40 241:20 242:43 243:41 244:27 245:24 246:41 247:4 248:23 249:3 250:27 251:27 252:27 253:34 254:32 255:58 256:40 257:11 258:25 259:31 260:41 261:20 262:13 263:20 264:33 265:19 266:21 267:32 
1.357190326821587 1:41 2:33 3:15 4:27 5:42 6:36 7:34 8:55 9:46 10:31 11:9 12:35 13:43 14:42 15:43 16:41 17:48 18:41 19:49 20:49 21:28 22:26 23:23 24:17 25:44 26:23 27:9 28:17 29:17 30:49 31:49 32:66 33:9 34:45 35:46 36:48 37:49 38:50 39:52 40:37 41:45 42:39 43:50 44:35 45:40 46:53 47:41 48:34 49:19 50:38 51:49 52:37 53:38 54:44 55:48 56:37 57:49 58:49 59:47 60:41 61:47 62:50 63:25 64:26 65:28 66:35 67:44 68:23 69:37 70:13 71:54 72:49 73:52 74:35 75:28 76:18 77:43 78:17 79:49 80:35 81:48 82:34 83:42 84:14 85:36 86:55 87:49 88:51 89:50 90:41 91:47 92:17 93:30 94:15 95:31 96:5 97:17 98:8 99:7 100:25 101:32 102:39 103:17 104:14 105:18 106:15 107:28 108:20 109:33 110:15 111:6 112:20 113:21 114:33 115:28 116:24 117:20 118:19 119:19 120:26 121:4 122:41 123:16 124:29 125:14 126:27 127:16 128:3 129:26 130:29 131:8 132:19 133:8 134:8 135:18 136:28 137:19 138:8 139:25 140:31 141:26 142:29 143:10 144:25 145:10 146:9 147:24 148:31 149:4 150:32 151:11 152:14 153:16 154:19 155:37 156:13 157:17 158:17 159:27 160:48 161:35 162:32 163:37 164:14 165:9 166:10 167:12 168:13 169:7 170:28 171:7 172:26 173:25 174:21 175:32 176:14 177:11 178:30 179:25 180:21 181:20 182:22 183:38 184:18 185:17 186:37 187:30 188:32 189:18 190:15 191:14 192:41 193:40 194:11 195:19 196:18 197:14 198:21 199:22 200:4 201:6 202:11 203:30 204:14 205:11 206:9 207:5 208:11 209:28 210:32 211:37 212:4 213:20 214:25 215:26 216:12 217:12 218:29 219:7 220:4 221:33 222:8 223:26 224:12 225:21 226:40 227:8 228:7 229:14 230:31 231:27 232:24 233:27 234:21 235:29 236:11 237:12 238:39 239:5 240:21 241:12 242:27 243:27 244:24 245:21 246:21 247:7 248:15 249:2 250:17 251:18 252:12 253:22 254:13 255:33 256:22 257:11 258:20 259:22 260:32 261:16 262:11 263:9 264:27 265:17 266:13 267:15 
1.185694931369294 1:10 2:11 3:10 4:9 5:10 6:9 7:11 8:10 9:9 10:9 11:7 12:9 13:9 14:9 15:9 16:9 17:9 18:10 19:10 20:9 21:6 22:5 23:9 24:8 25:10 26:11 27:7 28:10 29:6 30:9 31:10 32:9 33:11 34:9 35:11 36:9 37:11 38:9 39:11 40:10 41:9 42:9 43:10 44:10 45:11 46:11 47:10 48:11 49:9 50:9 51:11 52:10 53:9 54:10 55:11 56:11 57:9 58:9 59:11 60:10 61:10 62:11 63:8 64:10 65:9 66:11 67:11 68:9 69:11 70:8 71:11 72:9 73:11 74:10 75:9 76:8 77:11 78:9 79:9 80:9 81:9 82:9 83:9 84:10 85:10 86:10 87:11 88:11 89:9 90:11 91:11 92:6 93:9 94:8 95:11 96:5 97:4 98:4 99:4 100:5 101:5 102:9 103:8 104:5 105:4 106:6 107:10 108:5 109:7 110:8 111:2 112:5 113:11 114:11 115:7 116:5 117:8 118:7 119:6 120:6 121:3 122:11 123:8 124:8 125:8 126:7 127:4 128:1 129:7 130:7 131:5 132:7 133:1 134:4 135:5 136:5 137:6 138:5 139:9 140:5 141:5 142:8 143:1 144:4 145:4 146:5 147:9 148:7 149:1 150:6 151:5 152:4 153:4 154:9 155:11 156:6 157:10 158:9 159:5 160:11 161:8 162:10 163:10 164:6 165:6 166:4 167:6 168:3 169:4 170:7 171:4 172:10 173:6 174:6 175:6 176:6 177:6 178:9 179:10 180:7 181:11 182:8 183:11 184:6 185:6 186:10 187:9 188:6 189:10 190:7 191:6 192:10 193:8 194:6 195:5 196:5 197:6 198:4 199:10 200:1 201:5 202:1 203:7 204:7 205:7 206:5 207:4 208:3 209:5 210:6 211:11 212:3 213:11 214:6 215:6 216:4 217:5 218:9 219:6 220:1 221:11 222:5 223:7 224:6 225:7 226:10 227:7 228:5 229:8 230:4 231:7 232:7 233:10 234:4 235:9 236:5 237:4 238:11 239:2 240:9 241:3 242:6 243:9 244:5 245:11 246:9 247:0 248:5 249:0 250:8 251:5 252:6 253:10 254:6 255:6 256:6 257:6 258:7 259:7 260:10 261:7 262:5 263:6 264:5 265:6 266:7 267:8 
1.357497577074885 1:43 2:36 3:20 4:28 5:44 6:38 7:35 8:53 9:43 10:31 11:13 12:32 13:41 14:46 15:48 16:45 17:46 18:42 19:48 20:48 21:32 22:27 23:23 24:19 25:46 26:27 27:10 28:23 29:20 30:48 31:48 32:46 33:11 34:49 35:120 36:44 37:53 38:48 39:64 40:39 41:49 42:48 43:59 44:34 45:39 46:57 47:43 48:34 49:19 50:44 51:49 52:40 53:37 54:43 55:50 56:45 57:47 58:48 59:49 60:43 61:50 62:51 63:30 64:36 65:38 66:39 67:43 68:23 69:42 70:16 71:52 72:48 73:53 74:45 75:29 76:22 77:45 78:18 79:49 80:34 81:47 82:35 83:42 84:19 85:40 86:53 87:54 88:57 89:51 90:45 91:45 92:18 93:35 94:17 95:36 96:15 97:25 98:11 99:12 100:28 101:38 102:39 103:21 104:23 105:19 106:22 107:32 108:30 109:38 110:19 111:12 112:24 113:36 114:36 115:36 116:26 117:20 118:23 119:23 120:31 121:6 122:46 123:25 124:38 125:17 126:31 127:35 128:9 129:27 130:27 131:16 132:24 133:21 134:14 135:19 136:32 137:26 138:11 139:29 140:33 141:28 142:36 143:18 144:30 145:13 146:12 147:29 148:35 149:9 150:40 151:20 152:27 153:22 154:32 155:47 156:15 157:20 158:20 159:33 160:54 161:40 162:31 163:47 164:19 165:15 166:11 167:18 168:24 169:9 170:31 171:13 172:32 173:27 174:22 175:37 176:19 177:15 178:37 179:40 180:33 181:27 182:38 183:47 184:18 185:20 186:37 187:43 188:37 189:33 190:20 191:26 192:46 193:39 194:17 195:20 196:25 197:19 198:22 199:28 200:17 201:8 202:18 203:43 204:21 205:18 206:15 207:13 208:22 209:29 210:37 211:44 212:20 213:30 214:27 215:27 216:26 217:35 218:38 219:11 220:10 221:38 222:15 223:30 224:16 225:25 226:43 227:17 228:12 229:16 230:31 231:25 232:28 233:36 234:23 235:32 236:21 237:17 238:43 239:12 240:22 241:27 242:34 243:31 244:34 245:29 246:29 247:11 248:15 249:17 250:33 251:20 252:17 253:24 254:22 255:44 256:27 257:21 258:23 259:32 260:33 261:19 262:12 263:17 264:26 265:28 266:18 267:23 
1.134467167440844 1:40 2:32 3:13 4:25 5:38 6:36 7:33 8:50 9:47 10:31 11:7 12:32 13:43 14:43 15:40 16:40 17:49 18:36 19:47 20:50 21:24 22:24 23:23 24:17 25:45 26:22 27:8 28:15 29:12 30:50 31:47 32:48 33:9 34:44 35:44 36:52 37:48 38:50 39:50 40:35 41:44 42:38 43:50 44:34 45:36 46:50 47:40 48:32 49:18 50:38 51:50 52:36 53:37 54:41 55:48 56:36 57:50 58:50 59:48 60:42 61:44 62:50 63:23 64:26 65:30 66:33 67:44 68:23 69:38 70:11 71:50 72:50 73:50 74:36 75:25 76:16 77:42 78:16 79:50 80:34 81:49 82:35 83:43 84:14 85:35 86:50 87:48 88:46 89:50 90:39 91:46 92:16 93:28 94:15 95:30 96:4 97:14 98:6 99:3 100:24 101:24 102:40 103:9 104:5 105:17 106:8 107:28 108:14 109:33 110:13 111:1 112:16 113:17 114:29 115:26 116:19 117:19 118:16 119:17 120:26 121:1 122:35 123:13 124:24 125:12 126:25 127:13 128:0 129:25 130:28 131:5 132:16 133:1 134:3 135:17 136:23 137:17 138:4 139:23 140:24 141:25 142:27 143:0 144:24 145:2 146:4 147:21 148:27 149:0 150:24 151:10 152:12 153:16 154:17 155:36 156:6 157:15 158:15 159:24 160:44 161:30 162:29 163:31 164:8 165:8 166:8 167:9 168:13 169:5 170:25 171:7 172:24 173:25 174:19 175:24 176:8 177:6 178:28 179:19 180:21 181:18 182:20 183:35 184:18 185:15 186:31 187:26 188:24 189:14 190:14 191:6 192:38 193:36 194:7 195:16 196:17 197:12 198:21 199:17 200:0 201:5 202:2 203:26 204:12 205:8 206:5 207:2 208:3 209:25 210:24 211:37 212:4 213:16 214:25 215:22 216:9 217:10 218:26 219:6 220:1 221:30 222:6 223:25 224:8 225:21 226:40 227:7 228:3 229:13 230:24 231:26 232:24 233:21 234:20 235:26 236:7 237:9 238:39 239:1 240:18 241:10 242:24 243:25 244:22 245:21 246:18 247:2 248:13 249:1 250:17 251:16 252:11 253:20 254:5 255:24 256:21 257:11 258:18 259:19 260:31 261:14 262:10 263:9 264:25 265:16 266:6 267:11 
1.357912915889637 1:51 2:61 3:25 4:27 5:39 6:36 7:36 8:62 9:46 10:31 11:11 12:34 13:43 14:43 15:57 16:53 17:53 18:55 19:67 20:60 21:44 22:41 23:23 24:19 25:56 26:30 27:9 28:27 29:19 30:60 31:67 32:49 33:11 34:51 35:53 36:48 37:113 38:60 39:85 40:55 41:51 42:56 43:61 44:39 45:51 46:68 47:51 48:43 49:20 50:47 51:63 52:48 53:38 54:66 55:59 56:54 57:50 58:58 59:61 60:46 61:66 62:55 63:40 64:34 65:29 66:54 67:50 68:23 69:49 70:18 71:64 72:52 73:65 74:52 75:41 76:22 77:48 78:16 79:60 80:35 81:50 82:35 83:42 84:25 85:44 86:62 87:70 88:65 89:62 90:47 91:53 92:16 93:43 94:14 95:49 96:14 97:36 98:16 99:11 100:30 101:51 102:42 103:37 104:17 105:24 106:24 107:34 108:47 109:42 110:24 111:3 112:34 113:31 114:59 115:52 116:37 117:25 118:21 119:30 120:49 121:9 122:66 123:39 124:56 125:19 126:39 127:55 128:3 129:33 130:29 131:20 132:47 133:21 134:12 135:25 136:34 137:32 138:7 139:39 140:50 141:34 142:41 143:27 144:46 145:12 146:21 147:35 148:50 149:18 150:58 151:14 152:41 153:16 154:27 155:64 156:24 157:19 158:25 159:48 160:82 161:57 162:40 163:54 164:32 165:34 166:8 167:39 168:13 169:9 170:38 171:6 172:44 173:39 174:23 175:59 176:36 177:17 178:49 179:49 180:50 181:32 182:27 183:65 184:17 185:32 186:50 187:40 188:49 189:33 190:31 191:18 192:58 193:43 194:23 195:29 196:29 197:23 198:21 199:46 200:4 201:9 202:14 203:52 204:19 205:26 206:17 207:4 208:8 209:36 210:57 211:60 212:16 213:38 214:25 215:28 216:17 217:16 218:57 219:10 220:12 221:44 222:19 223:45 224:34 225:24 226:46 227:25 228:15 229:15 230:32 231:27 232:36 233:42 234:21 235:35 236:17 237:23 238:54 239:3 240:55 241:30 242:65 243:45 244:30 245:31 246:39 247:0 248:32 249:0 250:30 251:32 252:20 253:32 254:41 255:65 256:42 257:16 258:27 259:39 260:50 261:23 262:18 263:29 264:30 265:31 266:25 267:43 
0.9547069869574237 1:53 2:33 3:14 4:26 5:39 6:37 7:33 8:76 9:47 10:31 11:8 12:38 13:43 14:44 15:54 16:52 17:58 18:44 19:62 20:76 21:34 22:31 23:23 24:15 25:58 26:22 27:8 28:16 29:13 30:76 31:62 32:50 33:9 34:60 35:48 36:50 37:60 38:77 39:73 40:46 41:60 42:49 43:75 44:39 45:40 46:72 47:53 48:32 49:18 50:52 51:71 52:43 53:37 54:57 55:59 56:41 57:55 58:71 59:56 60:46 61:62 62:60 63:24 64:28 65:35 66:39 67:47 68:23 69:48 70:12 71:74 72:55 73:76 74:45 75:25 76:17 77:46 78:16 79:74 80:36 81:55 82:37 83:43 84:15 85:41 86:76 87:63 88:61 89:76 90:47 91:54 92:17 93:38 94:14 95:36 96:4 97:15 98:6 99:3 100:25 101:39 102:44 103:10 104:4 105:17 106:9 107:27 108:18 109:41 110:12 111:2 112:17 113:18 114:33 115:40 116:20 117:20 118:19 119:18 120:38 121:2 122:46 123:12 124:25 125:13 126:34 127:19 128:0 129:26 130:33 131:6 132:16 133:1 134:4 135:18 136:24 137:17 138:5 139:21 140:39 141:28 142:29 143:1 144:38 145:3 146:5 147:22 148:33 149:0 150:35 151:10 152:12 153:16 154:16 155:45 156:7 157:14 158:15 159:31 160:63 161:41 162:33 163:40 164:9 165:8 166:8 167:9 168:13 169:6 170:40 171:6 172:31 173:26 174:19 175:38 176:9 177:7 178:30 179:25 180:25 181:18 182:21 183:42 184:17 185:16 186:32 187:27 188:39 189:15 190:14 191:7 192:50 193:40 194:8 195:17 196:17 197:12 198:22 199:17 200:1 201:5 202:1 203:33 204:13 205:9 206:5 207:3 208:3 209:32 210:39 211:44 212:4 213:17 214:26 215:23 216:9 217:9 218:31 219:7 220:1 221:37 222:6 223:31 224:9 225:21 226:49 227:7 228:4 229:12 230:39 231:29 232:25 233:21 234:21 235:26 236:8 237:9 238:51 239:2 240:24 241:10 242:28 243:26 244:28 245:22 246:18 247:1 248:15 249:0 250:16 251:17 252:11 253:20 254:5 255:31 256:22 257:11 258:19 259:25 260:42 261:15 262:10 263:9 264:27 265:22 266:7 267:12 
1.357886905248929 1:57 2:48 3:22 4:27 5:40 6:36 7:37 8:77 9:47 10:31 11:11 12:38 13:43 14:47 15:78 16:61 17:60 18:61 19:96 20:109 21:47 22:42 23:23 24:19 25:65 26:30 27:9 28:26 29:19 30:82 31:96 32:52 33:11 34:71 35:64 36:50 37:85 38:73 39:177 40:57 41:71 42:64 43:79 44:43 45:49 46:89 47:57 48:46 49:21 50:73 51:72 52:51 53:38 54:64 55:70 56:58 57:55 58:71 59:65 60:48 61:108 62:64 63:43 64:35 65:35 66:61 67:52 68:23 69:52 70:19 71:73 72:55 73:94 74:59 75:43 76:23 77:58 78:16 79:74 80:36 81:56 82:37 83:43 84:22 85:47 86:77 87:78 88:85 89:91 90:55 91:58 92:16 93:48 94:16 95:49 96:15 97:35 98:13 99:11 100:31 101:74 102:44 103:33 104:17 105:26 106:33 107:34 108:53 109:48 110:22 111:4 112:28 113:32 114:52 115:72 116:34 117:23 118:24 119:30 120:51 121:9 122:67 123:43 124:52 125:17 126:42 127:47 128:4 129:37 130:32 131:18 132:40 133:20 134:13 135:26 136:43 137:30 138:7 139:33 140:83 141:39 142:43 143:25 144:72 145:13 146:17 147:38 148:54 149:11 150:64 151:16 152:33 153:17 154:27 155:59 156:20 157:20 158:24 159:60 160:100 161:61 162:39 163:59 164:31 165:26 166:8 167:34 168:14 169:10 170:57 171:9 172:48 173:38 174:23 175:71 176:35 177:16 178:49 179:49 180:45 181:31 182:30 183:68 184:19 185:27 186:52 187:45 188:67 189:30 190:26 191:20 192:66 193:43 194:22 195:26 196:31 197:22 198:22 199:39 200:11 201:10 202:17 203:50 204:20 205:26 206:18 207:4 208:13 209:39 210:67 211:61 212:16 213:35 214:26 215:30 216:19 217:21 218:63 219:10 220:12 221:43 222:18 223:47 224:31 225:25 226:52 227:17 228:14 229:15 230:73 231:29 232:36 233:42 234:22 235:39 236:19 237:24 238:59 239:7 240:48 241:34 242:63 243:51 244:38 245:29 246:45 247:3 248:30 249:4 250:29 251:27 252:19 253:33 254:31 255:76 256:39 257:18 258:26 259:39 260:49 261:24 262:18 263:29 264:31 265:30 266:22 267:39 
1.357260390891901 1:51 2:38 3:24 4:24 5:35 6:30 7:34 8:54 9:33 10:25 11:9 12:24 13:31 14:38 15:49 16:42 17:41 18:62 19:55 20:50 21:36 22:31 23:21 24:20 25:50 26:26 27:10 28:18 29:23 30:50 31:55 32:37 33:10 34:46 35:39 36:35 37:55 38:46 39:57 40:111 41:46 42:54 43:58 44:54 45:41 46:53 47:51 48:38 49:17 50:55 51:47 52:51 53:29 54:61 55:52 56:38 57:38 58:45 59:51 60:39 61:52 62:44 63:29 64:24 65:28 66:40 67:39 68:21 69:31 70:20 71:53 72:38 73:52 74:38 75:34 76:26 77:45 78:17 79:46 80:28 81:38 82:32 83:32 84:24 85:33 86:54 87:60 88:60 89:50 90:44 91:42 92:24 93:45 94:14 95:57 96:9 97:13 98:15 99:18 100:29 101:43 102:28 103:45 104:17 105:17 106:21 107:34 108:32 109:53 110:30 111:9 112:45 113:31 114:42 115:41 116:26 117:24 118:21 119:39 120:15 121:7 122:60 123:40 124:50 125:18 126:39 127:48 128:7 129:41 130:33 131:29 132:33 133:19 134:7 135:21 136:32 137:22 138:9 139:34 140:65 141:29 142:44 143:15 144:36 145:18 146:23 147:29 148:43 149:26 150:58 151:20 152:29 153:20 154:26 155:50 156:43 157:18 158:18 159:44 160:79 161:55 162:36 163:61 164:23 165:24 166:17 167:17 168:17 169:10 170:51 171:11 172:41 173:35 174:25 175:53 176:23 177:17 178:44 179:20 180:44 181:26 182:28 183:47 184:16 185:35 186:37 187:47 188:50 189:32 190:28 191:19 192:36 193:42 194:32 195:36 196:33 197:11 198:25 199:39 200:9 201:11 202:27 203:27 204:17 205:25 206:22 207:15 208:20 209:43 210:63 211:53 212:20 213:39 214:37 215:31 216:12 217:15 218:36 219:13 220:2 221:44 222:22 223:41 224:26 225:26 226:44 227:45 228:10 229:13 230:43 231:31 232:30 233:38 234:28 235:30 236:22 237:7 238:33 239:6 240:43 241:16 242:45 243:40 244:23 245:24 246:36 247:7 248:25 249:10 250:20 251:37 252:25 253:40 254:42 255:50 256:42 257:11 258:17 259:37 260:33 261:28 262:11 263:25 264:31 265:22 266:26 267:30 
1.357499789848954 1:51 2:31 3:16 4:28 5:40 6:35 7:36 8:63 9:42 10:30 11:11 12:42 13:39 14:40 15:60 16:90 17:50 18:51 19:61 20:65 21:35 22:31 23:23 24:18 25:58 26:26 27:10 28:16 29:21 30:65 31:61 32:45 33:9 34:158 35:49 36:44 37:51 38:60 39:71 40:46 41:158 42:51 43:68 44:36 45:36 46:62 47:51 48:39 49:20 50:58 51:56 52:44 53:42 54:66 55:53 56:33 57:48 58:58 59:47 60:40 61:73 62:50 63:28 64:24 65:34 66:43 67:44 68:23 69:39 70:13 71:62 72:48 73:66 74:44 75:30 76:23 77:42 78:17 79:61 80:32 81:47 82:33 83:39 84:15 85:37 86:63 87:54 88:59 89:66 90:45 91:46 92:16 93:36 94:16 95:25 96:16 97:29 98:6 99:15 100:44 101:49 102:44 103:20 104:29 105:19 106:37 107:33 108:29 109:34 110:19 111:11 112:17 113:29 114:29 115:49 116:21 117:28 118:16 119:18 120:29 121:3 122:51 123:33 124:29 125:16 126:41 127:16 128:10 129:27 130:34 131:18 132:17 133:10 134:13 135:23 136:31 137:27 138:8 139:24 140:41 141:31 142:36 143:18 144:50 145:6 146:14 147:25 148:52 149:21 150:38 151:27 152:18 153:30 154:23 155:36 156:21 157:20 158:20 159:33 160:72 161:40 162:35 163:44 164:19 165:19 166:19 167:14 168:24 169:7 170:49 171:19 172:29 173:27 174:23 175:41 176:11 177:7 178:32 179:43 180:32 181:26 182:30 183:50 184:16 185:16 186:33 187:32 188:53 189:20 190:14 191:22 192:52 193:47 194:17 195:17 196:27 197:18 198:28 199:22 200:6 201:7 202:22 203:24 204:23 205:14 206:11 207:19 208:12 209:31 210:42 211:41 212:6 213:21 214:22 215:29 216:32 217:30 218:51 219:6 220:19 221:47 222:12 223:38 224:10 225:38 226:44 227:8 228:8 229:16 230:41 231:31 232:29 233:34 234:26 235:29 236:20 237:20 238:38 239:9 240:31 241:31 242:30 243:39 244:32 245:20 246:25 247:24 248:15 249:27 250:20 251:17 252:12 253:34 254:12 255:47 256:22 257:12 258:21 259:17 260:35 261:14 262:20 263:21 264:40 265:15 266:7 267:25 
1.357611749178469 1:48 2:31 3:22 4:27 5:37 6:32 7:31 8:57 9:36 10:28 11:16 12:33 13:34 14:35 15:54 16:47 17:45 18:57 19:56 20:54 21:37 22:31 23:22 24:20 25:60 26:22 27:11 28:18 29:27 30:54 31:56 32:39 33:9 34:51 35:48 36:38 37:56 38:49 39:64 40:54 41:51 42:120 43:59 44:46 45:43 46:65 47:48 48:31 49:22 50:45 51:49 52:52 53:36 54:57 55:50 56:45 57:41 58:48 59:50 60:39 61:60 62:46 63:39 64:26 65:30 66:45 67:40 68:22 69:37 70:20 71:54 72:41 73:57 74:50 75:38 76:27 77:43 78:18 79:49 80:35 81:43 82:32 83:35 84:23 85:41 86:57 87:67 88:62 89:58 90:45 91:42 92:27 93:44 94:15 95:45 96:17 97:24 98:19 99:19 100:34 101:47 102:31 103:33 104:31 105:24 106:42 107:31 108:37 109:51 110:27 111:11 112:34 113:38 114:45 115:54 116:25 117:21 118:34 119:35 120:21 121:8 122:60 123:46 124:44 125:21 126:36 127:45 128:11 129:35 130:25 131:30 132:44 133:20 134:19 135:29 136:44 137:27 138:12 139:30 140:52 141:33 142:41 143:20 144:43 145:16 146:29 147:38 148:55 149:34 150:50 151:21 152:36 153:16 154:28 155:53 156:35 157:22 158:20 159:43 160:79 161:54 162:36 163:51 164:24 165:30 166:28 167:24 168:5 169:11 170:41 171:6 172:52 173:31 174:33 175:51 176:24 177:18 178:41 179:34 180:33 181:34 182:28 183:45 184:20 185:28 186:45 187:41 188:67 189:28 190:27 191:28 192:49 193:40 194:32 195:29 196:33 197:16 198:22 199:29 200:9 201:9 202:29 203:35 204:15 205:27 206:16 207:19 208:17 209:44 210:52 211:62 212:20 213:32 214:38 215:31 216:31 217:25 218:46 219:13 220:23 221:43 222:22 223:37 224:22 225:22 226:46 227:30 228:17 229:15 230:39 231:26 232:32 233:36 234:25 235:29 236:22 237:17 238:38 239:6 240:28 241:33 242:43 243:50 244:37 245:24 246:40 247:4 248:18 249:14 250:24 251:27 252:25 253:38 254:33 255:53 256:33 257:15 258:27 259:36 260:34 261:27 262:13 263:18 264:34 265:31 266:22 267:42 
1.357037443033561 1:53 2:43 3:24 4:26 5:39 6:37 7:36 8:80 9:47 10:31 11:11 12:61 13:43 14:47 15:59 16:58 17:57 18:56 19:78 20:105 21:34 22:31 23:23 24:18 25:68 26:23 27:11 28:18 29:15 30:85 31:78 32:50 33:10 34:68 35:59 36:50 37:61 38:75 39:79 40:58 41:68 42:59 43:172 44:43 45:50 46:78 47:53 48:36 49:30 50:63 51:72 52:47 53:37 54:92 55:63 56:44 57:55 58:71 59:58 60:47 61:75 62:63 63:26 64:28 65:48 66:48 67:49 68:23 69:49 70:15 71:79 72:56 73:91 74:46 75:31 76:21 77:52 78:18 79:74 80:35 81:55 82:37 83:43 84:24 85:43 86:80 87:90 88:78 89:85 90:55 91:55 92:17 93:43 94:16 95:41 96:14 97:28 98:8 99:10 100:31 101:45 102:47 103:33 104:17 105:17 106:27 107:31 108:30 109:43 110:24 111:11 112:26 113:31 114:45 115:47 116:20 117:39 118:21 119:27 120:54 121:7 122:53 123:36 124:42 125:19 126:37 127:43 128:6 129:31 130:35 131:25 132:23 133:5 134:9 135:18 136:32 137:19 138:7 139:32 140:66 141:30 142:39 143:8 144:44 145:11 146:24 147:29 148:38 149:43 150:50 151:31 152:28 153:20 154:26 155:57 156:31 157:18 158:17 159:35 160:118 161:48 162:38 163:54 164:17 165:27 166:14 167:12 168:35 169:8 170:49 171:14 172:37 173:28 174:21 175:46 176:12 177:12 178:38 179:44 180:39 181:27 182:37 183:62 184:17 185:24 186:36 187:37 188:54 189:24 190:20 191:23 192:60 193:44 194:22 195:20 196:26 197:20 198:25 199:35 200:6 201:11 202:23 203:40 204:22 205:24 206:15 207:20 208:14 209:32 210:60 211:52 212:15 213:37 214:27 215:25 216:30 217:16 218:47 219:8 220:10 221:67 222:18 223:35 224:21 225:27 226:51 227:28 228:9 229:16 230:45 231:32 232:28 233:30 234:23 235:32 236:26 237:18 238:52 239:6 240:58 241:29 242:30 243:42 244:36 245:22 246:37 247:1 248:32 249:20 250:29 251:19 252:16 253:40 254:26 255:36 256:33 257:11 258:23 259:31 260:54 261:19 262:20 263:20 264:31 265:28 266:17 267:32 
1.357484691860015 1:40 2:25 3:15 4:23 5:33 6:29 7:29 8:44 9:34 10:26 11:11 12:23 13:32 14:38 15:41 16:32 17:36 18:41 19:38 20:39 21:25 22:24 23:21 24:17 25:38 26:20 27:8 28:13 29:21 30:39 31:38 32:35 33:10 34:36 35:34 36:34 37:39 38:39 39:43 40:54 41:36 42:46 43:43 44:75 45:32 46:45 47:40 48:32 49:11 50:42 51:40 52:36 53:29 54:34 55:46 56:38 57:36 58:39 59:40 60:32 61:39 62:38 63:28 64:22 65:28 66:35 67:36 68:21 69:28 70:15 71:46 72:36 73:41 74:35 75:34 76:23 77:35 78:16 79:39 80:28 81:36 82:31 83:32 84:14 85:34 86:44 87:45 88:44 89:40 90:37 91:37 92:25 93:40 94:13 95:43 96:10 97:13 98:13 99:17 100:27 101:32 102:29 103:26 104:16 105:21 106:15 107:30 108:20 109:47 110:20 111:9 112:23 113:22 114:34 115:34 116:23 117:15 118:22 119:24 120:17 121:3 122:44 123:34 124:29 125:14 126:32 127:31 128:7 129:32 130:28 131:20 132:29 133:14 134:9 135:21 136:30 137:21 138:8 139:25 140:30 141:28 142:30 143:11 144:28 145:11 146:11 147:29 148:43 149:7 150:28 151:18 152:25 153:20 154:18 155:41 156:24 157:14 158:14 159:34 160:48 161:36 162:27 163:39 164:19 165:17 166:19 167:14 168:15 169:8 170:38 171:11 172:36 173:27 174:29 175:33 176:13 177:10 178:30 179:23 180:26 181:20 182:25 183:28 184:18 185:19 186:31 187:33 188:33 189:20 190:18 191:13 192:33 193:30 194:23 195:21 196:28 197:12 198:25 199:19 200:6 201:7 202:17 203:20 204:18 205:17 206:15 207:16 208:13 209:40 210:33 211:41 212:13 213:27 214:38 215:24 216:6 217:19 218:31 219:12 220:6 221:28 222:10 223:31 224:14 225:25 226:35 227:23 228:8 229:11 230:28 231:26 232:28 233:32 234:26 235:24 236:17 237:8 238:30 239:7 240:21 241:19 242:30 243:25 244:26 245:20 246:26 247:4 248:15 249:10 250:17 251:21 252:22 253:35 254:27 255:34 256:24 257:11 258:18 259:25 260:26 261:24 262:8 263:17 264:31 265:24 266:14 267:19 
1.357521347086207 1:37 2:41 3:24 4:25 5:35 6:33 7:35 8:46 9:35 10:29 11:14 12:32 13:34 14:37 15:39 16:33 17:37 18:43 19:41 20:40 21:27 22:25 23:23 24:20 25:42 26:26 27:11 28:27 29:19 30:40 31:41 32:40 33:11 34:36 35:39 36:36 37:51 38:40 39:49 40:41 41:36 42:43 43:50 44:32 45:76 46:49 47:37 48:35 49:24 50:33 51:43 52:36 53:29 54:45 55:41 56:38 57:37 58:40 59:47 60:39 61:40 62:49 63:29 64:27 65:33 66:39 67:39 68:23 69:41 70:20 71:49 72:37 73:46 74:30 75:29 76:21 77:44 78:18 79:40 80:30 81:36 82:30 83:34 84:22 85:37 86:46 87:52 88:52 89:40 90:39 91:44 92:19 93:34 94:14 95:42 96:14 97:27 98:16 99:11 100:19 101:27 102:34 103:28 104:21 105:17 106:24 107:30 108:30 109:34 110:26 111:6 112:33 113:28 114:42 115:29 116:26 117:27 118:22 119:27 120:33 121:9 122:43 123:34 124:40 125:19 126:26 127:33 128:5 129:24 130:31 131:17 132:33 133:22 134:15 135:21 136:27 137:24 138:12 139:33 140:31 141:22 142:29 143:17 144:18 145:15 146:19 147:29 148:29 149:18 150:35 151:16 152:32 153:17 154:24 155:47 156:31 157:20 158:22 159:30 160:63 161:42 162:36 163:40 164:25 165:20 166:11 167:25 168:17 169:9 170:27 171:8 172:38 173:27 174:19 175:34 176:25 177:19 178:35 179:35 180:38 181:32 182:26 183:46 184:20 185:25 186:35 187:39 188:36 189:33 190:23 191:19 192:41 193:36 194:24 195:28 196:21 197:23 198:20 199:38 200:6 201:9 202:17 203:42 204:22 205:23 206:17 207:8 208:14 209:18 210:34 211:45 212:12 213:31 214:23 215:23 216:18 217:17 218:39 219:11 220:10 221:43 222:17 223:31 224:27 225:23 226:43 227:17 228:14 229:15 230:21 231:29 232:35 233:34 234:21 235:32 236:24 237:21 238:45 239:7 240:41 241:20 242:37 243:36 244:30 245:30 246:34 247:5 248:32 249:2 250:25 251:24 252:20 253:32 254:29 255:41 256:28 257:19 258:26 259:40 260:41 261:23 262:21 263:23 264:22 265:25 266:23 267:35 
1.357687898819594 1:55 2:41 3:22 4:30 5:42 6:36 7:37 8:79 9:47 10:31 11:14 12:41 13:43 14:47 15:70 16:55 17:60 18:56 19:74 20:95 21:39 22:36 23:23 24:20 25:67 26:29 27:10 28:25 29:21 30:85 31:74 32:53 33:11 34:62 35:57 36:50 37:68 38:72 39:89 40:53 41:62 42:65 43:78 44:45 45:49 46:143 47:55 48:40 49:23 50:63 51:75 52:53 53:40 54:58 55:67 56:51 57:55 58:68 59:63 60:50 61:83 62:64 63:39 64:33 65:38 66:54 67:50 68:23 69:53 70:18 71:72 72:55 73:90 74:58 75:39 76:25 77:54 78:19 79:71 80:36 81:56 82:38 83:43 84:21 85:50 86:79 87:76 88:79 89:87 90:51 91:59 92:17 93:55 94:14 95:50 96:16 97:27 98:15 99:12 100:31 101:58 102:44 103:26 104:23 105:26 106:33 107:32 108:45 109:44 110:21 111:6 112:29 113:31 114:44 115:60 116:26 117:24 118:33 119:25 120:52 121:9 122:58 123:34 124:42 125:19 126:39 127:45 128:6 129:38 130:32 131:16 132:34 133:21 134:16 135:27 136:42 137:29 138:10 139:34 140:61 141:37 142:39 143:16 144:57 145:18 146:19 147:39 148:51 149:20 150:49 151:16 152:26 153:17 154:24 155:53 156:33 157:20 158:22 159:43 160:85 161:53 162:38 163:51 164:26 165:21 166:16 167:27 168:15 169:9 170:52 171:8 172:46 173:32 174:27 175:53 176:23 177:17 178:48 179:46 180:37 181:35 182:29 183:56 184:26 185:23 186:54 187:43 188:63 189:25 190:22 191:22 192:63 193:44 194:22 195:23 196:28 197:22 198:22 199:32 200:7 201:9 202:16 203:52 204:21 205:21 206:14 207:8 208:14 209:37 210:59 211:63 212:10 213:32 214:26 215:29 216:23 217:22 218:49 219:11 220:19 221:43 222:14 223:38 224:20 225:24 226:57 227:16 228:14 229:16 230:55 231:31 232:36 233:38 234:22 235:34 236:18 237:21 238:55 239:5 240:36 241:33 242:46 243:39 244:48 245:32 246:37 247:7 248:22 249:5 250:27 251:20 252:19 253:36 254:21 255:54 256:29 257:17 258:30 259:42 260:49 261:25 262:15 263:19 264:32 265:37 266:24 267:34 
1.35707243556904 1:76 2:35 3:18 4:26 5:40 6:36 7:35 8:57 9:39 10:31 11:8 12:27 13:37 14:37 15:55 16:45 17:46 18:50 19:50 20:53 21:35 22:31 23:23 24:17 25:46 26:24 27:9 28:18 29:20 30:53 31:50 32:41 33:10 34:51 35:43 36:40 37:51 38:53 39:57 40:51 41:51 42:48 43:53 44:40 45:37 46:55 47:76 48:30 49:17 50:46 51:50 52:49 53:33 54:48 55:50 56:37 57:43 58:51 59:50 60:41 61:51 62:46 63:28 64:26 65:26 66:35 67:42 68:23 69:33 70:18 71:56 72:45 73:54 74:41 75:33 76:23 77:39 78:17 79:52 80:31 81:42 82:35 83:37 84:21 85:36 86:57 87:54 88:54 89:54 90:44 91:45 92:23 93:37 94:14 95:41 96:7 97:16 98:13 99:11 100:26 101:39 102:32 103:25 104:16 105:17 106:17 107:31 108:18 109:50 110:20 111:8 112:26 113:25 114:35 115:44 116:23 117:18 118:20 119:28 120:18 121:7 122:49 123:27 124:34 125:16 126:34 127:24 128:6 129:29 130:28 131:20 132:25 133:4 134:7 135:22 136:29 137:20 138:9 139:28 140:45 141:28 142:34 143:10 144:35 145:11 146:12 147:24 148:41 149:6 150:42 151:16 152:21 153:16 154:20 155:46 156:18 157:15 158:20 159:35 160:57 161:46 162:34 163:45 164:17 165:18 166:21 167:15 168:8 169:10 170:41 171:6 172:32 173:31 174:27 175:39 176:18 177:13 178:36 179:16 180:28 181:22 182:27 183:37 184:17 185:23 186:32 187:32 188:42 189:24 190:20 191:15 192:36 193:37 194:20 195:26 196:29 197:11 198:22 199:26 200:6 201:9 202:14 203:25 204:14 205:16 206:12 207:15 208:14 209:40 210:44 211:45 212:15 213:30 214:32 215:26 216:10 217:12 218:28 219:12 220:1 221:34 222:15 223:35 224:17 225:23 226:44 227:21 228:9 229:13 230:39 231:26 232:29 233:31 234:25 235:28 236:16 237:8 238:35 239:4 240:20 241:13 242:34 243:31 244:18 245:24 246:26 247:4 248:14 249:8 250:20 251:26 252:19 253:31 254:22 255:39 256:27 257:12 258:18 259:25 260:30 261:21 262:15 263:15 264:31 265:22 266:16 267:24 
1.357900196242105 1:30 2:34 3:18 4:25 5:30 6:30 7:37 8:36 9:32 10:28 11:7 12:29 13:32 14:35 15:30 16:31 17:32 18:31 19:38 20:32 21:26 22:25 23:23 24:18 25:35 26:28 27:9 28:20 29:12 30:32 31:38 32:34 33:11 34:39 35:34 36:32 37:43 38:32 39:46 40:38 41:39 42:31 43:36 44:32 45:35 46:40 47:30 48:98 49:18 50:63 51:38 52:31 53:33 54:31 55:45 56:38 57:32 58:32 59:37 60:32 61:34 62:41 63:24 64:25 65:30 66:39 67:38 68:23 69:39 70:14 71:39 72:32 73:36 74:27 75:24 76:15 77:42 78:16 79:32 80:30 81:32 82:30 83:32 84:18 85:37 86:36 87:49 88:38 89:34 90:35 91:44 92:15 93:49 94:15 95:35 96:5 97:21 98:9 99:14 100:27 101:25 102:29 103:28 104:6 105:14 106:11 107:31 108:33 109:23 110:19 111:7 112:21 113:19 114:33 115:21 116:23 117:21 118:15 119:17 120:42 121:5 122:30 123:29 124:37 125:14 126:51 127:35 128:1 129:27 130:25 131:7 132:22 133:43 134:9 135:15 136:16 137:20 138:5 139:24 140:18 141:17 142:24 143:15 144:14 145:7 146:7 147:26 148:22 149:7 150:34 151:21 152:20 153:29 154:19 155:40 156:28 157:14 158:18 159:17 160:60 161:27 162:27 163:34 164:28 165:18 166:8 167:15 168:17 169:7 170:53 171:13 172:26 173:23 174:17 175:34 176:18 177:9 178:27 179:28 180:39 181:27 182:19 183:41 184:15 185:17 186:30 187:33 188:21 189:20 190:17 191:12 192:32 193:27 194:14 195:16 196:16 197:17 198:28 199:29 200:3 201:8 202:4 203:38 204:17 205:10 206:10 207:6 208:7 209:15 210:24 211:30 212:7 213:23 214:19 215:24 216:13 217:12 218:40 219:9 220:2 221:32 222:11 223:52 224:29 225:40 226:30 227:10 228:9 229:15 230:14 231:25 232:27 233:29 234:26 235:24 236:17 237:14 238:43 239:4 240:58 241:13 242:31 243:24 244:27 245:22 246:21 247:0 248:33 249:1 250:19 251:17 252:14 253:35 254:29 255:49 256:25 257:12 258:22 259:26 260:32 261:20 262:17 263:27 264:31 265:24 266:13 267:23 
1.357636778549985 1:17 2:17 3:14 4:14 5:18 6:17 7:18 8:18 9:18 10:16 11:11 12:28 13:18 14:19 15:19 16:18 17:18 18:22 19:21 20:18 21:5 22:5 23:13 24:15 25:28 26:13 27:11 28:12 29:9 30:18 31:21 32:19 33:9 34:20 35:19 36:18 37:20 38:18 39:21 40:17 41:20 42:22 43:30 44:11 45:24 46:23 47:17 48:18 49:31 50:15 51:21 52:17 53:15 54:30 55:22 56:17 57:18 58:18 59:20 60:18 61:26 62:21 63:11 64:10 65:21 66:20 67:20 68:13 69:22 70:11 71:20 72:18 73:20 74:14 75:20 76:12 77:21 78:12 79:18 80:15 81:18 82:17 83:18 84:11 85:18 86:18 87:25 88:22 89:20 90:20 91:19 92:8 93:10 94:9 95:15 96:9 97:19 98:6 99:6 100:14 101:5 102:18 103:14 104:10 105:5 106:13 107:17 108:8 109:11 110:12 111:5 112:9 113:17 114:21 115:11 116:5 117:18 118:9 119:8 120:13 121:4 122:23 123:16 124:11 125:12 126:12 127:9 128:6 129:9 130:15 131:11 132:11 133:1 134:7 135:6 136:13 137:10 138:4 139:17 140:8 141:7 142:12 143:5 144:5 145:5 146:11 147:15 148:20 149:13 150:8 151:11 152:12 153:5 154:17 155:23 156:13 157:12 158:10 159:8 160:31 161:12 162:24 163:19 164:8 165:15 166:8 167:8 168:10 169:6 170:8 171:5 172:18 173:8 174:8 175:8 176:8 177:7 178:12 179:22 180:15 181:19 182:17 183:24 184:9 185:8 186:15 187:15 188:18 189:12 190:9 191:9 192:26 193:24 194:14 195:8 196:8 197:16 198:5 199:13 200:4 201:8 202:12 203:16 204:10 205:11 206:7 207:2 208:5 209:8 210:8 211:21 212:3 213:14 214:8 215:8 216:19 217:9 218:24 219:5 220:11 221:30 222:11 223:10 224:8 225:8 226:20 227:9 228:6 229:11 230:5 231:16 232:17 233:11 234:5 235:16 236:15 237:17 238:19 239:2 240:19 241:12 242:8 243:21 244:15 245:14 246:19 247:0 248:13 249:9 250:10 251:8 252:8 253:16 254:9 255:8 256:8 257:6 258:11 259:13 260:23 261:11 262:11 263:6 264:13 265:8 266:7 267:15 
1.357886712402316 1:46 2:27 3:14 4:25 5:33 6:32 7:35 8:56 9:37 10:29 11:7 12:25 13:35 14:41 15:55 16:49 17:45 18:46 19:69 20:73 21:36 22:33 23:23 24:16 25:50 26:26 27:8 28:16 29:12 30:61 31:69 32:38 33:9 34:58 35:44 36:38 37:47 38:52 39:73 40:55 41:58 42:45 43:63 44:42 45:33 46:63 47:46 48:63 49:15 50:140 51:47 52:42 53:35 54:45 55:55 56:35 57:42 58:50 59:41 60:36 61:70 62:47 63:26 64:29 65:29 66:36 67:43 68:23 69:29 70:14 71:54 72:41 73:70 74:41 75:25 76:16 77:38 78:17 79:52 80:30 81:43 82:30 83:36 84:14 85:38 86:56 87:52 88:60 89:67 90:44 91:46 92:15 93:68 94:17 95:31 96:9 97:14 98:6 99:13 100:40 101:51 102:28 103:18 104:4 105:17 106:10 107:37 108:26 109:34 110:14 111:5 112:23 113:22 114:25 115:53 116:23 117:23 118:12 119:17 120:19 121:2 122:47 123:26 124:31 125:14 126:72 127:13 128:3 129:36 130:35 131:5 132:14 133:33 134:6 135:18 136:24 137:24 138:4 139:23 140:59 141:31 142:34 143:7 144:57 145:5 146:4 147:25 148:34 149:4 150:45 151:26 152:15 153:41 154:19 155:31 156:29 157:13 158:17 159:31 160:82 161:39 162:28 163:43 164:23 165:9 166:8 167:11 168:18 169:5 170:87 171:20 172:21 173:28 174:18 175:42 176:12 177:6 178:30 179:22 180:36 181:24 182:18 183:37 184:15 185:15 186:36 187:36 188:42 189:21 190:14 191:17 192:34 193:36 194:10 195:16 196:16 197:13 198:46 199:20 200:5 201:8 202:5 203:23 204:17 205:11 206:8 207:4 208:12 209:31 210:48 211:34 212:10 213:21 214:22 215:33 216:12 217:21 218:35 219:7 220:1 221:35 222:10 223:63 224:12 225:54 226:34 227:7 228:5 229:12 230:62 231:31 232:20 233:29 234:38 235:30 236:14 237:10 238:28 239:9 240:39 241:10 242:28 243:23 244:27 245:20 246:19 247:5 248:18 249:5 250:19 251:16 252:15 253:39 254:16 255:55 256:28 257:12 258:18 259:17 260:26 261:17 262:11 263:27 264:50 265:15 266:11 267:14 
1.357499786549485 1:50 2:38 3:20 4:25 5:39 6:36 7:37 8:73 9:47 10:31 11:7 12:39 13:43 14:45 15:49 16:50 17:56 18:45 19:61 20:73 21:35 22:34 23:23 24:17 25:58 26:28 27:9 28:23 29:12 30:73 31:61 32:49 33:11 34:56 35:49 36:50 37:63 38:71 39:72 40:47 41:56 42:49 43:72 44:40 45:43 46:75 47:50 48:38 49:21 50:47 51:83 52:47 53:37 54:62 55:60 56:47 57:55 58:68 59:55 60:46 61:60 62:58 63:27 64:30 65:35 66:46 67:49 68:23 69:52 70:16 71:70 72:55 73:76 74:45 75:27 76:18 77:48 78:16 79:70 80:36 81:55 82:37 83:43 84:20 85:44 86:73 87:61 88:60 89:73 90:49 91:54 92:16 93:38 94:14 95:44 96:7 97:18 98:16 99:7 100:28 101:34 102:44 103:19 104:9 105:17 106:12 107:29 108:23 109:40 110:18 111:3 112:21 113:24 114:40 115:39 116:24 117:23 118:21 119:21 120:45 121:8 122:48 123:20 124:34 125:16 126:35 127:30 128:1 129:26 130:32 131:10 132:26 133:5 134:7 135:18 136:24 137:21 138:6 139:28 140:39 141:29 142:31 143:5 144:33 145:8 146:9 147:26 148:34 149:5 150:40 151:13 152:22 153:16 154:22 155:48 156:11 157:16 158:20 159:34 160:67 161:44 162:35 163:45 164:14 165:14 166:8 167:18 168:13 169:8 170:37 171:6 172:35 173:29 174:20 175:40 176:17 177:13 178:36 179:30 180:29 181:26 182:25 183:50 184:17 185:21 186:36 187:30 188:39 189:23 190:20 191:13 192:49 193:42 194:14 195:20 196:18 197:17 198:21 199:24 200:4 201:9 202:5 203:43 204:15 205:13 206:11 207:4 208:6 209:33 210:40 211:48 212:7 213:22 214:25 215:23 216:12 217:9 218:37 219:10 220:2 221:39 222:12 223:34 224:18 225:22 226:49 227:12 228:10 229:15 230:33 231:31 232:31 233:25 234:20 235:28 236:12 237:14 238:55 239:2 240:35 241:13 242:36 243:31 244:29 245:27 246:24 247:0 248:20 249:0 250:22 251:21 252:17 253:24 254:14 255:36 256:27 257:14 258:23 259:31 260:47 261:19 262:15 263:15 264:27 265:26 266:14 267:21 
1.357225705267028 1:49 2:33 3:21 4:25 5:32 6:30 7:31 8:44 9:35 10:27 11:9 12:27 13:33 14:37 15:42 16:40 17:39 18:50 19:47 20:43 21:32 22:31 23:23 24:17 25:50 26:24 27:9 28:20 29:13 30:43 31:47 32:37 33:10 34:44 35:40 36:36 37:48 38:43 39:51 40:51 41:44 42:52 43:47 44:36 45:36 46:53 47:49 48:31 49:17 50:42 51:47 52:74 53:31 54:50 55:51 56:35 57:40 58:43 59:44 60:38 61:46 62:42 63:31 64:21 65:25 66:42 67:38 68:23 69:29 70:19 71:45 72:39 73:46 74:40 75:28 76:20 77:38 78:16 79:43 80:30 81:39 82:28 83:34 84:22 85:35 86:44 87:56 88:48 89:44 90:45 91:38 92:15 93:35 94:14 95:38 96:10 97:10 98:10 99:5 100:27 101:32 102:26 103:23 104:15 105:17 106:21 107:29 108:23 109:40 110:22 111:5 112:32 113:25 114:33 115:45 116:20 117:19 118:22 119:28 120:13 121:7 122:47 123:30 124:37 125:13 126:33 127:24 128:3 129:26 130:23 131:20 132:26 133:9 134:11 135:20 136:29 137:21 138:7 139:29 140:45 141:28 142:37 143:4 144:31 145:10 146:23 147:27 148:35 149:22 150:45 151:15 152:19 153:17 154:22 155:37 156:27 157:14 158:20 159:37 160:60 161:48 162:35 163:47 164:20 165:20 166:21 167:17 168:7 169:8 170:36 171:7 172:34 173:31 174:17 175:42 176:17 177:15 178:36 179:18 180:31 181:26 182:17 183:43 184:20 185:28 186:37 187:36 188:53 189:23 190:26 191:19 192:33 193:35 194:25 195:27 196:22 197:10 198:21 199:27 200:6 201:9 202:12 203:24 204:12 205:20 206:15 207:11 208:8 209:32 210:46 211:50 212:14 213:30 214:19 215:26 216:19 217:14 218:32 219:9 220:8 221:33 222:19 223:34 224:21 225:23 226:48 227:22 228:8 229:15 230:31 231:23 232:28 233:26 234:21 235:29 236:16 237:7 238:30 239:1 240:26 241:14 242:38 243:39 244:20 245:24 246:31 247:0 248:20 249:2 250:18 251:29 252:15 253:34 254:19 255:40 256:33 257:11 258:18 259:29 260:30 261:23 262:13 263:21 264:27 265:18 266:19 267:35 
1.356904011394912 1:33 2:25 3:13 4:28 5:34 6:33 7:31 8:38 9:37 10:30 11:7 12:29 13:36 14:36 15:38 16:38 17:38 18:34 19:40 20:37 21:21 22:21 23:23 24:15 25:37 26:24 27:8 28:15 29:16 30:37 31:40 32:38 33:9 34:42 35:37 36:37 37:38 38:37 39:38 40:29 41:42 42:36 43:37 44:29 45:29 46:40 47:33 48:33 49:15 50:35 51:37 52:31 53:46 54:35 55:37 56:33 57:37 58:37 59:37 60:35 61:38 62:38 63:21 64:22 65:25 66:28 67:36 68:23 69:29 70:11 71:37 72:37 73:38 74:35 75:21 76:16 77:32 78:16 79:37 80:31 81:38 82:31 83:37 84:14 85:34 86:38 87:37 88:38 89:39 90:33 91:37 92:16 93:26 94:14 95:27 96:7 97:11 98:7 99:10 100:28 101:22 102:30 103:12 104:8 105:18 106:13 107:23 108:14 109:28 110:11 111:7 112:16 113:18 114:23 115:25 116:19 117:17 118:15 119:18 120:16 121:2 122:33 123:16 124:22 125:12 126:26 127:11 128:4 129:24 130:23 131:7 132:15 133:4 134:10 135:18 136:24 137:22 138:5 139:19 140:21 141:22 142:24 143:5 144:22 145:4 146:9 147:23 148:27 149:4 150:22 151:14 152:11 153:20 154:17 155:28 156:12 157:14 158:15 159:22 160:39 161:29 162:28 163:28 164:12 165:9 166:12 167:10 168:7 169:6 170:27 171:10 172:23 173:21 174:21 175:22 176:9 177:7 178:24 179:19 180:22 181:18 182:15 183:30 184:18 185:15 186:29 187:23 188:27 189:14 190:15 191:10 192:32 193:30 194:10 195:16 196:17 197:10 198:23 199:16 200:2 201:5 202:4 203:18 204:12 205:10 206:4 207:4 208:4 209:22 210:22 211:36 212:4 213:17 214:21 215:22 216:11 217:13 218:24 219:6 220:5 221:29 222:7 223:25 224:9 225:25 226:34 227:7 228:6 229:12 230:21 231:21 232:18 233:24 234:21 235:23 236:10 237:9 238:29 239:2 240:17 241:14 242:22 243:26 244:19 245:20 246:18 247:0 248:7 249:3 250:14 251:16 252:11 253:25 254:6 255:26 256:21 257:12 258:18 259:15 260:22 261:16 262:8 263:10 264:27 265:13 266:6 267:13 
1.357898562207329 1:48 2:45 3:26 4:25 5:35 6:32 7:34 8:60 9:39 10:27 11:11 12:58 13:36 14:40 15:51 16:56 17:49 18:71 19:63 20:72 21:36 22:31 23:21 24:19 25:64 26:24 27:11 28:17 29:19 30:62 31:63 32:44 33:10 34:66 35:43 36:41 37:66 38:57 39:64 40:61 41:66 42:57 43:92 44:34 45:45 46:58 47:48 48:31 49:30 50:45 51:62 52:50 53:35 54:133 55:55 56:38 57:45 58:55 59:51 60:40 61:64 62:52 63:28 64:20 65:32 66:53 67:46 68:21 69:40 70:19 71:61 72:45 73:65 74:41 75:39 76:24 77:45 78:14 79:56 80:27 81:42 82:32 83:36 84:23 85:33 86:60 87:68 88:56 89:62 90:46 91:45 92:13 93:35 94:14 95:40 96:12 97:27 98:9 99:14 100:47 101:36 102:33 103:42 104:16 105:18 106:32 107:30 108:28 109:40 110:27 111:11 112:41 113:34 114:45 115:43 116:21 117:38 118:13 119:36 120:38 121:7 122:70 123:43 124:51 125:20 126:38 127:35 128:6 129:26 130:33 131:26 132:27 133:4 134:11 135:18 136:33 137:28 138:6 139:37 140:64 141:30 142:44 143:11 144:35 145:14 146:27 147:27 148:58 149:54 150:63 151:22 152:29 153:20 154:32 155:60 156:37 157:21 158:18 159:45 160:103 161:58 162:48 163:69 164:17 165:31 166:14 167:17 168:13 169:9 170:38 171:6 172:40 173:33 174:17 175:49 176:18 177:15 178:49 179:45 180:45 181:28 182:30 183:76 184:12 185:36 186:41 187:42 188:49 189:26 190:28 191:24 192:63 193:60 194:26 195:30 196:26 197:17 198:21 199:39 200:10 201:9 202:24 203:32 204:14 205:27 206:17 207:4 208:11 209:35 210:60 211:62 212:17 213:40 214:17 215:28 216:22 217:16 218:53 219:8 220:10 221:70 222:24 223:38 224:24 225:21 226:45 227:41 228:10 229:13 230:35 231:30 232:25 233:33 234:22 235:33 236:24 237:18 238:42 239:3 240:63 241:19 242:51 243:53 244:18 245:22 246:52 247:1 248:30 249:18 250:20 251:33 252:20 253:34 254:33 255:54 256:42 257:8 258:18 259:30 260:50 261:18 262:13 263:18 264:37 265:8 266:21 267:38 
1.357484691842164 1:50 2:41 3:22 4:25 5:40 6:36 7:38 8:60 9:47 10:31 11:14 12:36 13:43 14:51 15:51 16:47 17:51 18:49 19:54 20:60 21:34 22:33 23:23 24:19 25:57 26:28 27:10 28:21 29:18 30:60 31:54 32:48 33:11 34:53 35:50 36:48 37:59 38:59 39:70 40:52 41:53 42:50 43:63 44:46 45:41 46:67 47:50 48:45 49:22 50:55 51:60 52:51 53:37 54:55 55:98 56:44 57:51 58:58 59:53 60:46 61:60 62:55 63:32 64:28 65:34 66:51 67:48 68:23 69:44 70:16 71:60 72:51 73:63 74:44 75:35 76:24 77:49 78:18 79:59 80:35 81:49 82:34 83:43 84:22 85:41 86:60 87:70 88:63 89:61 90:49 91:50 92:17 93:43 94:14 95:43 96:16 97:20 98:12 99:12 100:28 101:44 102:39 103:27 104:18 105:20 106:20 107:37 108:32 109:41 110:21 111:6 112:32 113:25 114:39 115:47 116:21 117:25 118:25 119:23 120:31 121:8 122:49 123:36 124:36 125:16 126:40 127:28 128:5 129:31 130:34 131:15 132:26 133:16 134:14 135:22 136:31 137:22 138:7 139:29 140:40 141:32 142:39 143:13 144:40 145:11 146:15 147:33 148:45 149:16 150:42 151:17 152:23 153:20 154:22 155:47 156:26 157:17 158:21 159:38 160:71 161:47 162:34 163:47 164:26 165:19 166:14 167:21 168:18 169:8 170:45 171:11 172:35 173:29 174:20 175:47 176:20 177:14 178:35 179:34 180:36 181:31 182:24 183:48 184:19 185:22 186:39 187:38 188:47 189:21 190:21 191:15 192:48 193:40 194:22 195:20 196:23 197:17 198:25 199:29 200:5 201:9 202:10 203:36 204:20 205:17 206:15 207:8 208:8 209:35 210:44 211:49 212:11 213:25 214:27 215:27 216:17 217:17 218:41 219:10 220:12 221:40 222:15 223:40 224:17 225:30 226:49 227:16 228:10 229:15 230:33 231:32 232:32 233:32 234:25 235:32 236:20 237:16 238:43 239:5 240:39 241:21 242:40 243:33 244:36 245:27 246:32 247:0 248:29 249:3 250:22 251:20 252:17 253:37 254:20 255:44 256:28 257:13 258:26 259:31 260:41 261:22 262:20 263:26 264:31 265:25 266:19 267:28 
1.357895530299198 1:37 2:42 3:22 4:26 5:35 6:33 7:33 8:44 9:36 10:30 11:9 12:28 13:35 14:37 15:39 16:31 17:38 18:42 19:41 20:41 21:28 22:27 23:23 24:18 25:40 26:26 27:9 28:22 29:15 30:41 31:41 32:37 33:11 34:33 35:45 36:36 37:54 38:41 39:58 40:38 41:33 42:45 43:44 44:38 45:38 46:51 47:37 48:38 49:17 50:35 51:47 52:35 53:33 54:38 55:44 56:73 57:37 58:41 59:55 60:36 61:40 62:45 63:28 64:32 65:27 66:45 67:39 68:23 69:39 70:16 71:45 72:38 73:49 74:35 75:29 76:19 77:42 78:17 79:41 80:32 81:38 82:31 83:34 84:20 85:44 86:44 87:52 88:48 89:43 90:37 91:48 92:18 93:36 94:14 95:45 96:9 97:25 98:22 99:17 100:21 101:27 102:31 103:29 104:14 105:20 106:14 107:28 108:29 109:38 110:21 111:7 112:22 113:25 114:40 115:31 116:23 117:21 118:20 119:24 120:35 121:9 122:46 123:31 124:40 125:14 126:26 127:45 128:8 129:25 130:24 131:18 132:42 133:12 134:11 135:20 136:22 137:23 138:7 139:29 140:27 141:22 142:30 143:16 144:20 145:13 146:13 147:29 148:33 149:10 150:34 151:13 152:40 153:17 154:21 155:49 156:18 157:17 158:20 159:28 160:54 161:38 162:29 163:37 164:23 165:22 166:15 167:22 168:9 169:9 170:25 171:7 172:46 173:27 174:23 175:36 176:20 177:14 178:33 179:28 180:34 181:26 182:25 183:43 184:17 185:23 186:35 187:34 188:30 189:27 190:24 191:15 192:39 193:30 194:21 195:18 196:23 197:18 198:18 199:34 200:7 201:9 202:19 203:43 204:17 205:17 206:15 207:12 208:10 209:26 210:33 211:45 212:18 213:34 214:28 215:22 216:16 217:14 218:36 219:14 220:5 221:32 222:15 223:30 224:23 225:23 226:38 227:24 228:14 229:15 230:17 231:23 232:36 233:33 234:19 235:29 236:18 237:16 238:43 239:3 240:34 241:20 242:37 243:32 244:26 245:27 246:33 247:0 248:26 249:8 250:25 251:19 252:28 253:32 254:32 255:40 256:28 257:15 258:23 259:33 260:38 261:21 262:16 263:22 264:22 265:37 266:20 267:32 
1.269585460733105 1:43 2:32 3:13 4:25 5:38 6:36 7:33 8:55 9:47 10:31 11:7 12:32 13:43 14:44 15:43 16:43 17:50 18:39 19:51 20:55 21:28 22:28 23:23 24:15 25:47 26:22 27:8 28:15 29:12 30:55 31:51 32:49 33:9 34:48 35:47 36:50 37:50 38:55 39:55 40:38 41:48 42:41 43:55 44:36 45:37 46:55 47:43 48:32 49:18 50:42 51:55 52:40 53:37 54:45 55:51 56:37 57:55 58:55 59:50 60:43 61:48 62:55 63:23 64:26 65:31 66:33 67:46 68:23 69:40 70:11 71:55 72:53 73:55 74:41 75:25 76:16 77:43 78:16 79:55 80:35 81:51 82:37 83:43 84:14 85:37 86:55 87:53 88:51 89:55 90:44 91:47 92:16 93:30 94:14 95:32 96:4 97:13 98:6 99:3 100:25 101:28 102:41 103:9 104:3 105:17 106:8 107:26 108:15 109:35 110:11 111:1 112:16 113:17 114:30 115:30 116:19 117:19 118:17 119:17 120:27 121:1 122:38 123:12 124:24 125:12 126:29 127:14 128:0 129:26 130:29 131:5 132:16 133:0 134:3 135:17 136:23 137:17 138:4 139:21 140:28 141:28 142:28 143:0 144:28 145:2 146:4 147:21 148:31 149:0 150:28 151:10 152:12 153:16 154:16 155:37 156:6 157:13 158:15 159:28 160:48 161:34 162:30 163:33 164:8 165:8 166:8 167:9 168:13 169:5 170:29 171:6 172:26 173:25 174:19 175:28 176:8 177:6 178:29 179:19 180:22 181:18 182:20 183:35 184:17 185:15 186:31 187:26 188:29 189:14 190:14 191:6 192:38 193:37 194:7 195:16 196:16 197:12 198:21 199:16 200:0 201:5 202:0 203:27 204:12 205:8 206:4 207:2 208:2 209:28 210:28 211:38 212:4 213:16 214:25 215:22 216:9 217:9 218:27 219:6 220:1 221:31 222:6 223:29 224:8 225:21 226:43 227:7 228:3 229:12 230:28 231:27 232:24 233:20 234:20 235:26 236:7 237:9 238:40 239:1 240:18 241:10 242:27 243:26 244:23 245:21 246:18 247:0 248:13 249:0 250:16 251:16 252:11 253:20 254:4 255:28 256:21 257:10 258:18 259:20 260:32 261:14 262:10 263:9 264:27 265:17 266:6 267:11 
1.125711035652947 1:51 2:32 3:13 4:25 5:38 6:36 7:33 8:71 9:47 10:31 11:7 12:36 13:43 14:44 15:51 16:51 17:57 18:43 19:59 20:71 21:34 22:31 23:23 24:15 25:55 26:22 27:8 28:15 29:12 30:71 31:59 32:49 33:9 34:58 35:48 36:50 37:58 38:71 39:71 40:45 41:58 42:48 43:71 44:39 45:40 46:68 47:51 48:32 49:18 50:50 51:68 52:43 53:37 54:55 55:58 56:41 57:55 58:71 59:54 60:46 61:59 62:60 63:23 64:27 65:35 66:37 67:47 68:23 69:46 70:11 71:69 72:55 73:71 74:45 75:25 76:16 77:46 78:16 79:71 80:35 81:55 82:37 83:43 84:14 85:41 86:71 87:62 88:59 89:71 90:46 91:53 92:16 93:36 94:14 95:36 96:4 97:15 98:6 99:3 100:25 101:36 102:44 103:9 104:3 105:17 106:8 107:26 108:17 109:39 110:11 111:1 112:16 113:17 114:33 115:38 116:19 117:20 118:18 119:17 120:35 121:1 122:45 123:12 124:24 125:12 126:34 127:18 128:0 129:26 130:32 131:5 132:16 133:0 134:3 135:17 136:23 137:17 138:4 139:21 140:36 141:28 142:28 143:0 144:36 145:2 146:4 147:21 148:33 149:0 150:34 151:10 152:12 153:16 154:16 155:44 156:6 157:13 158:15 159:31 160:60 161:39 162:32 163:38 164:8 165:8 166:8 167:9 168:13 169:5 170:37 171:6 172:30 173:25 174:19 175:36 176:8 177:6 178:29 179:23 180:24 181:18 182:20 183:39 184:17 185:15 186:31 187:26 188:37 189:14 190:14 191:6 192:46 193:40 194:7 195:16 196:16 197:12 198:21 199:16 200:0 201:5 202:0 203:32 204:12 205:8 206:4 207:2 208:2 209:31 210:36 211:42 212:4 213:16 214:25 215:22 216:9 217:9 218:30 219:6 220:1 221:35 222:6 223:30 224:8 225:21 226:48 227:7 228:3 229:12 230:36 231:28 232:25 233:20 234:20 235:26 236:7 237:9 238:48 239:1 240:22 241:10 242:27 243:26 244:27 245:21 246:18 247:0 248:15 249:0 250:16 251:16 252:11 253:20 254:4 255:30 256:21 257:10 258:18 259:24 260:40 261:14 262:10 263:9 264:27 265:21 266:6 267:11 
1.357349353676113 1:50 2:45 3:25 4:26 5:41 6:36 7:36 8:62 9:46 10:31 11:8 12:33 13:43 14:43 15:46 16:42 17:49 18:48 19:51 20:61 21:33 22:32 23:23 24:17 25:49 26:28 27:9 28:23 29:15 30:61 31:51 32:47 33:11 34:47 35:49 36:48 37:61 38:56 39:65 40:51 41:47 42:50 43:58 44:40 45:47 46:63 47:50 48:37 49:20 50:41 51:55 52:44 53:37 54:51 55:53 56:55 57:50 58:54 59:84 60:46 61:47 62:55 63:31 64:30 65:31 66:42 67:47 68:23 69:48 70:17 71:61 72:51 73:64 74:40 75:34 76:21 77:48 78:17 79:55 80:35 81:51 82:36 83:42 84:24 85:49 86:62 87:58 88:55 89:61 90:45 91:53 92:19 93:39 94:14 95:45 96:7 97:22 98:23 99:12 100:26 101:32 102:41 103:27 104:14 105:17 106:17 107:31 108:28 109:45 110:26 111:7 112:25 113:25 114:45 115:37 116:23 117:24 118:22 119:28 120:41 121:8 122:50 123:29 124:39 125:15 126:34 127:44 128:6 129:28 130:29 131:18 132:39 133:8 134:8 135:18 136:25 137:23 138:7 139:33 140:35 141:28 142:35 143:11 144:27 145:13 146:13 147:29 148:37 149:9 150:38 151:15 152:33 153:16 154:23 155:56 156:17 157:16 158:21 159:33 160:62 161:44 162:35 163:43 164:18 165:21 166:15 167:19 168:13 169:8 170:34 171:6 172:46 173:30 174:24 175:38 176:18 177:17 178:34 179:30 180:36 181:26 182:25 183:46 184:18 185:24 186:36 187:35 188:34 189:28 190:25 191:17 192:42 193:40 194:23 195:22 196:25 197:15 198:21 199:31 200:7 201:9 202:15 203:44 204:15 205:18 206:13 207:11 208:9 209:34 210:37 211:49 212:18 213:30 214:30 215:26 216:16 217:13 218:32 219:14 220:3 221:39 222:18 223:32 224:20 225:23 226:47 227:22 228:15 229:15 230:27 231:27 232:37 233:34 234:21 235:33 236:20 237:13 238:54 239:2 240:33 241:17 242:37 243:35 244:29 245:28 246:29 247:0 248:25 249:7 250:26 251:22 252:28 253:32 254:26 255:41 256:30 257:15 258:25 259:36 260:45 261:25 262:16 263:22 264:27 265:34 266:16 267:29 
1.356544863221069 1:41 2:33 3:16 4:26 5:38 6:36 7:34 8:47 9:41 10:31 11:9 12:31 13:40 14:40 15:40 16:37 17:44 18:38 19:44 20:46 21:23 22:23 23:23 24:17 25:42 26:24 27:9 28:18 29:12 30:46 31:44 32:41 33:10 34:40 35:43 36:42 37:46 38:46 39:48 40:39 41:40 42:39 43:47 44:32 45:39 46:50 47:41 48:32 49:18 50:36 51:46 52:38 53:35 54:40 55:46 56:36 57:43 58:46 59:46 60:52 61:40 62:44 63:24 64:26 65:29 66:35 67:44 68:23 69:36 70:15 71:47 72:43 73:47 74:37 75:26 76:17 77:39 78:17 79:46 80:34 81:43 82:32 83:40 84:16 85:38 86:47 87:45 88:45 89:46 90:37 91:44 92:16 93:28 94:14 95:36 96:8 97:10 98:9 99:4 100:24 101:23 102:34 103:13 104:9 105:17 106:14 107:28 108:20 109:34 110:14 111:3 112:22 113:22 114:30 115:30 116:19 117:19 118:19 119:20 120:23 121:4 122:37 123:17 124:28 125:14 126:27 127:18 128:1 129:26 130:26 131:8 132:21 133:3 134:7 135:18 136:24 137:20 138:6 139:23 140:26 141:23 142:29 143:3 144:23 145:6 146:10 147:24 148:28 149:6 150:26 151:13 152:15 153:16 154:19 155:36 156:12 157:15 158:17 159:26 160:46 161:35 162:31 163:32 164:11 165:12 166:10 167:12 168:10 169:8 170:27 171:6 172:29 173:25 174:19 175:26 176:11 177:11 178:28 179:19 180:23 181:23 182:18 183:35 184:20 185:18 186:33 187:26 188:28 189:17 190:17 191:12 192:36 193:35 194:13 195:19 196:19 197:12 198:21 199:19 200:3 201:7 202:3 203:26 204:12 205:13 206:9 207:5 208:5 209:24 210:26 211:40 212:7 213:19 214:22 215:23 216:11 217:12 218:25 219:8 220:4 221:30 222:9 223:27 224:11 225:21 226:40 227:10 228:7 229:13 230:23 231:24 232:24 233:23 234:20 235:26 236:10 237:9 238:37 239:1 240:18 241:13 242:26 243:28 244:24 245:26 246:22 247:0 248:13 249:0 250:18 251:19 252:14 253:22 254:7 255:26 256:24 257:11 258:19 259:25 260:31 261:19 262:12 263:14 264:24 265:19 266:10 267:16 
1.357484738688881 1:51 2:32 3:20 4:29 5:39 6:35 7:33 8:67 9:42 10:30 11:16 12:43 13:39 14:42 15:84 16:63 17:55 18:56 19:94 20:104 21:39 22:32 23:23 24:20 25:68 26:25 27:10 28:20 29:28 30:70 31:94 32:47 33:10 34:73 35:50 36:44 37:66 38:62 39:108 40:52 41:73 42:60 43:75 44:39 45:40 46:83 47:51 48:34 49:26 50:70 51:60 52:46 53:38 54:64 55:60 56:40 57:48 58:59 59:47 60:40 61:155 62:55 63:38 64:26 65:33 66:53 67:48 68:23 69:41 70:13 71:62 72:48 73:80 74:57 75:45 76:29 77:44 78:16 79:61 80:31 81:46 82:34 83:39 84:17 85:39 86:67 87:64 88:87 89:79 90:47 91:48 92:18 93:41 94:14 95:32 96:17 97:36 98:8 99:14 100:36 101:85 102:36 103:26 104:22 105:26 106:36 107:33 108:41 109:35 110:16 111:7 112:20 113:30 114:37 115:75 116:22 117:25 118:18 119:23 120:27 121:6 122:65 123:34 124:33 125:20 126:37 127:17 128:9 129:37 130:34 131:19 132:26 133:6 134:16 135:28 136:49 137:30 138:7 139:30 140:82 141:39 142:39 143:23 144:85 145:8 146:15 147:31 148:71 149:13 150:42 151:18 152:21 153:17 154:26 155:42 156:17 157:24 158:16 159:63 160:103 161:53 162:39 163:48 164:18 165:23 166:15 167:22 168:14 169:8 170:54 171:7 172:42 173:28 174:23 175:68 176:21 177:11 178:42 179:56 180:29 181:30 182:29 183:58 184:16 185:18 186:47 187:33 188:74 189:19 190:18 191:14 192:71 193:48 194:21 195:19 196:29 197:24 198:23 199:24 200:4 201:6 202:18 203:29 204:20 205:19 206:10 207:4 208:7 209:38 210:59 211:53 212:4 213:26 214:22 215:28 216:22 217:23 218:63 219:9 220:20 221:44 222:12 223:34 224:15 225:23 226:40 227:9 228:12 229:13 230:74 231:31 232:25 233:36 234:24 235:31 236:20 237:28 238:40 239:5 240:30 241:38 242:54 243:50 244:34 245:23 246:36 247:2 248:19 249:11 250:19 251:19 252:12 253:31 254:16 255:66 256:26 257:14 258:22 259:20 260:41 261:18 262:11 263:12 264:40 265:16 266:14 267:28 
1.357260362114664 1:46 2:39 3:20 4:29 5:39 6:36 7:37 8:61 9:47 10:31 11:12 12:37 13:43 14:45 15:49 16:46 17:53 18:44 19:52 20:60 21:33 22:32 23:23 24:20 25:55 26:27 27:10 28:21 29:17 30:60 31:52 32:50 33:11 34:50 35:51 36:50 37:55 38:60 39:64 40:44 41:50 42:46 43:63 44:38 45:49 46:64 47:46 48:41 49:21 50:47 51:58 52:42 53:38 54:52 55:55 56:45 57:55 58:60 59:55 60:44 61:55 62:79 63:30 64:30 65:37 66:44 67:49 68:23 69:48 70:14 71:63 72:53 73:66 74:48 75:34 76:21 77:50 78:17 79:60 80:36 81:51 82:37 83:43 84:19 85:43 86:61 87:59 88:60 89:63 90:45 91:54 92:17 93:36 94:15 95:38 96:9 97:24 98:11 99:13 100:29 101:36 102:42 103:21 104:10 105:20 106:14 107:30 108:23 109:38 110:17 111:6 112:22 113:25 114:40 115:38 116:22 117:24 118:19 119:20 120:36 121:6 122:47 123:26 124:33 125:18 126:35 127:24 128:6 129:31 130:34 131:11 132:24 133:10 134:10 135:20 136:28 137:24 138:7 139:28 140:31 141:32 142:33 143:9 144:32 145:9 146:9 147:29 148:37 149:7 150:35 151:14 152:22 153:19 154:22 155:45 156:15 157:19 158:20 159:34 160:65 161:41 162:33 163:39 164:17 165:15 166:11 167:17 168:17 169:8 170:37 171:9 172:35 173:29 174:22 175:38 176:13 177:11 178:34 179:33 180:31 181:26 182:25 183:47 184:17 185:19 186:34 187:35 188:36 189:21 190:19 191:11 192:46 193:40 194:17 195:18 196:20 197:21 198:24 199:25 200:5 201:8 202:8 203:37 204:18 205:16 206:12 207:5 208:8 209:30 210:36 211:46 212:7 213:22 214:27 215:27 216:17 217:17 218:38 219:10 220:7 221:38 222:13 223:34 224:16 225:26 226:45 227:10 228:11 229:15 230:29 231:31 232:31 233:31 234:23 235:32 236:20 237:19 238:47 239:4 240:33 241:16 242:32 243:34 244:30 245:25 246:26 247:0 248:26 249:3 250:23 251:18 252:16 253:29 254:14 255:38 256:26 257:15 258:26 259:28 260:40 261:19 262:19 263:18 264:30 265:23 266:14 267:22 
