solver_type L2R_L2LOSS_SVC_DUAL
nr_class 5
label 1 2 3 4 5
nr_feature 450
bias 1
w
0.4999361201029892 -0.2002838361821826 -0.4403419574831461 -0.1532477832828567 -0.1141188110688725 
0.2897588812530023 0.03920887176283457 0.1368745219988206 0.3613671509806594 -0.04463764982457858 
0.2787163480499527 0.05395348119938669 -0.6693030587822295 0.5672594270522076 -0.1223525030718816 
0.2510734309643836 -0.276215954235984 -0.7796715369426142 0.3942878928096591 -0.1012835781301266 
0.3099529757750709 -0.02964521268565893 -0.6222308743481618 0.2496592420422984 -0.08867845465157544 
0.2613628661556901 -0.05527395688828751 -0.1308395040301029 0.1210780278251347 -0.01642390519548309 
0.168728119982448 -0.2190708023989622 -0.09412174961192757 -0.4699474617424443 -0.06439315126756945 
0.1852996543996793 0.09499083886840486 0.1340420391486137 -0.4636925346584926 -0.1036655126552022 
0.2727592768728804 -0.02835393169578847 0.0121573707423245 0.1879642402978696 -0.0704639828726269 
0.01309811322354091 -0.09300334636128751 -0.7390625902325308 1.028146823095804 0.008158280515908362 
0.5904510903716882 -0.3014799704207767 -0.4938787474589446 -0.07031978678894445 -0.4591917840350305 
0.2199303604405836 -0.1597930935442069 0.4079826665156278 -0.2983033867984041 -0.09931378594655504 
0.236045880272284 -0.1751459983570398 -0.430338937036487 -0.6434366951962038 -0.002707955662057996 
0.1521156956514638 0.2112970770989027 -0.6461977711139417 -0.6818806686915102 -0.07782786453885684 
0.02875182297998669 -0.005423622178707932 -0.2291364681331303 0.1314614605657226 -0.07581637683096265 
-0.009333635774969828 -0.5354192265579478 -0.1835970648992306 0.4016798683475237 0.01996602321004829 
0.0859257532639843 -0.03459167911532624 0.01926928670909003 -0.8803803493090704 -0.03455794732603559 
0.372972630216 -0.1615411638468269 -1.028988659368175 0.3500763431053182 -0.0980010231141832 
0.2087192430522224 -0.671115125924176 0.7142113800160713 -2.027096248889344 -0.07550525372618065 
0.2853596477970954 -0.2639252717655368 -0.3049127210487021 -0.1863337456287449 0.01232423690795659 
0.2479260760265218 0.09915688153360228 -0.03215416003880562 -0.2485849439797718 0.04467508427814836 
0.3690846924580141 -0.03597985175334061 0.5925846003729248 -0.5875683374729977 0.02553630523920919 
0.1336575994063763 -0.03776157273670049 -0.9326467246798552 0.7322853191188639 -0.0761982861400685 
0.2978878107757488 -0.2715887315949488 -0.7922599835285403 -0.08753593405677577 0.1377159477418005 
0.200919651823275 0.05486030879296756 -0.1935094948511569 0.2202426038167631 -0.07842288622697915 
0.2548119104528401 -0.1377859292010448 -0.6564872360576927 0.420344656908087 0.01211419885734019 
0.2766524516199402 -0.1609268439347422 -0.3416960100984169 0.1802040033322707 0.03436884336212124 
0.4665060615432501 0.2896424106364343 -2.263688300810213 2.45728987824152 -0.6368872560573839 
0.5438768323127767 -0.1118968105925722 0.2100925103464973 -1.245334934107138 -0.0331089992676158 
0.2699314751534994 0.01997687260222339 -1.623977351304315 1.318496735779584 0.04772949740400301 
0.3837586133604141 0.4112746822862602 -0.04121407070637072 -0.1446877682968522 -0.2778341514292504 
0.5809013822145241 -0.04998114915819211 -2.000382543985322 0.8328153404443984 -0.02990800555432564 
0.3891522014486291 -0.1882256240321427 -0.6974759287480329 -0.3725647664201379 -0.1378267035509191 
0.4947814773432294 -0.03624833914996481 -0.4818457278068626 -0.607633815700455 -0.4179752691736052 
0.6737437226292501 0.1788214565075529 -1.722903590062399 0.8423173934796198 -0.4769393930528916 
0.4124272654559538 0.1003342486289274 -1.222490100091267 1.551977613909628 -0.2745105903020011 
0.8110126645558625 -0.2350842961629239 0.1108444687178985 0.09064106639785048 -0.05721125549085892 
0.4743665831665778 -0.3628771631837667 0.4348646573171345 -1.450226823718808 -0.03477217451238494 
0.890900887375493 -0.2971983973141178 0.4991249682040588 -0.5146583768490097 0.07842420515668323 
0.5107324274265411 -0.02553641829755297 0.5392398169709197 -0.4039946308884894 -0.02905579098605047 
0.9377000186043828 -0.4205149240845676 -0.01625183557060627 -0.6247144253246978 0.008886100097437654 
0.9557716165938268 -0.294576324229852 -0.6563762165534172 0.4178724234332899 0.01573492347744098 
1.576125971583067 -0.6803826668354332 -0.02436578389235989 1.354715069796834 0.1484027573286981 
0.621652575721663 -0.2341574526030805 0.6755490370877819 -1.877785444873961 -0.07723050833978991 
0.5967147243771638 -0.137050063117637 0.3639571555110741 -0.9047816708050527 -0.1933637310959977 
0.508511481689306 -0.4405978185887629 -0.8017974317607465 -0.6555333917893069 0.1794997324771161 
0.4115183741541231 -0.0747418476877383 0.6175020083975385 -2.568457055129232 -0.2983634845817744 
0.7393922431848525 -0.6189708539400393 -0.6397794272752222 0.01916463482242069 -0.132675325537647 
0.6349641820710762 0.06001762714571859 1.11167076476725 -1.677716651036179 0.09523608620529733 
0.1371427770485925 0.3510355143984074 0.2245791935914419 0.8287696029298016 0.1831952110381947 
1.010782069532141 -0.1501284849079292 0.4752136846616641 -0.8375858213615753 -0.1357683842468247 
0.7185747713321989 -0.634104384676659 0.7485967821032694 -1.053285226581582 -0.4627947441689407 
0.318377420045879 -0.3039915255288674 1.683609051060717 -1.236560900534862 -0.019777158914468 
0.5757329523169964 -0.3494073351198642 -0.04212444274553382 -0.4480292156973492 -0.4641706478646557 
0.2227998551319435 -0.1241529007466692 0.344828576622137 0.2565942822166898 -0.1068913086840759 
0.8934588722486341 -0.4139466706519105 -0.2313644095861429 0.2912458473994399 0.04605471156215708 
0.0250304296308956 0.07900070229094053 -0.5176131349553046 0.08957533362016259 -0.1903902535699328 
0.0146163868162043 0.130422012349319 0.2378320274411135 -1.206253245922126 -0.2971546343752207 
0.1363932256770249 -0.2092372271033795 -0.7673141529670828 0.8670089411555697 -0.2400012790546461 
0.2044059153751081 -0.2064132292508291 0.6785290158847718 -0.6579832886441191 -0.1495888536451127 
0.1476280162274523 -0.06802956578865904 0.2531230508580466 0.1685343379612171 -0.1515870218705733 
0.2484328540269176 -0.2546733576723589 -0.7352889454679155 0.4019467143582636 -0.1531578271743482 
0.2218349345609922 0.1211031072633525 -0.8943619616954704 0.04799927724403753 -0.208884904976052 
0.2743011695723836 0.0660084284766122 -0.2858636687473288 -0.7881688754292183 -0.1310531909190905 
0.4531652899196265 -0.06011891568576208 -0.2353593211838479 -0.4175432084257254 -0.2438459650425658 
0.2044277039506248 0.07547978051001329 0.1843681351958222 -1.34445099968885 -0.1460131364315611 
0.2422346090399277 0.04016370999571341 0.1136010775362289 -0.9406685081864579 -0.2106821683521146 
0.1403480992457277 -0.2336113467802949 0.4755175285955919 -0.4702525249948937 -0.0627174994948473 
0.3122119494204137 -0.1675289877713935 -0.1371136958588778 -0.4922823061110405 -0.138375127814403 
0.1045791341944553 0.04264335132247216 -0.3120966437321444 -0.2468824565188852 -0.297712315482598 
0.3969825932978814 -0.2185448940080482 0.410221477191778 -0.05371936243842415 -0.2438723867198825 
0.1541495985729805 -0.2553091207713699 -0.3282653050780404 0.4196929868041769 -0.04316117874014019 
0.6365647213939235 -0.6767246448896721 -1.20950314639006 0.3599907056294944 -0.3675497490485969 
0.3327422805113976 0.0594404245144922 0.3908141028728777 0.1433773374224393 -0.3211999659900149 
0.1543227448618009 -0.187241300593288 0.8696529383802728 0.09030592648120336 -0.2535554407332617 
0.4575211582703928 -0.3595930291187246 0.05903534377449604 -0.3122879653924503 0.2080251646385803 
0.1389204576831493 -0.3379106967632942 0.6317642842842953 0.1111701639673694 -0.1636017320042008 
0.06620208677795529 0.02938332328280363 -0.5569810526627621 1.553035097687225 -0.4669580549060101 
0.1727769866892083 0.1118606776436751 0.3482311239619239 0.6574386873456073 0.04957628761787156 
0.07699577079510954 -0.1495450787042261 0.3531996341729209 0.7518437594734291 -0.4447435317145464 
0.3255082312287556 -0.482425582065568 -0.2474397064160989 -0.1150186884728431 -0.02849048892076609 
0.09070426440812122 -0.08005739739221304 -0.7679347009258243 -0.4835978226856338 0.005552541681859128 
0.4417371669410425 -0.1628046033622948 0.5191344522342608 1.342420410025969 -0.5102237605250817 
0.2378206054882591 -0.07391780280336557 -0.05181532912574166 -0.2165342963723461 -0.1540532477367666 
0.2307092981396815 -0.6832032853411031 -0.6795974883843483 -0.03219377245703092 -0.02121535297921709 
0.4091443012858667 -0.5026465886152571 -0.5311497366652358 0.9791468604213702 -0.09413447396180687 
0.4553549289304322 -0.3759094356629551 0.9763603686565049 -1.237914039458369 -0.2144373102288774 
0.2663882433200452 -0.2630854760923 0.9296322471706308 -0.1333564720010462 -0.3169360599531743 
0.2533484354044669 -0.3302996762733783 -0.4268231634887958 0.817059105403186 -0.03264765204773909 
0.3618556176445206 -0.2333564909272892 0.5882668748842044 -1.381826317872972 -0.3781872982014968 
0.06359090774363324 0.06113870430314085 -1.091825131634347 0.8114601801594603 0.4941860026803653 
0.0811646184559664 0.2278235996578319 0.336743508405803 -0.7819401603948014 0.5472280149827128 
0.08307881736449969 -0.01883799176947938 0.1310523966666463 0.006999284949876933 0.02350274354752678 
-0.1679633877438071 0.366933863365767 0.2178197630608421 -1.128540585919437 0.5147784909062352 
0.07231698985441271 0.007889944185923016 0.4442344965511321 -0.1237633759937981 -0.1387836338809503 
0.2628404073734135 -0.07187195782103355 -0.8327726837466471 -0.4359701350848818 0.02004176613983859 
0.1334275526083661 0.4275073487344037 0.5683992024914655 -1.88165004194318 0.5026501487954024 
-0.1901975363302707 0.113231054014484 -0.8873140435424612 0.4628227635710098 0.05296171924073553 
0.07165589578140283 0.07468093199240514 -1.698902839495253 1.466840848960503 -0.01515753849988637 
0.1966958657646615 -0.09953849328907592 -0.940448210495753 -0.5399428209008572 -0.1835242749459909 
-0.34021931840155 0.3206658075643944 0.3551294174999671 -0.2228812821684247 0.2318837200218525 
0.1261861900640078 1.010100104407432 -0.2789216334203884 1.716891980729568 -0.5694069002498812 
-0.08146720115965446 0.2459598043303586 -0.3423619112641466 -1.084883362044041 -0.197456887325838 
0.08846873906815372 0.2305758320355141 -0.08160896182166598 0.5553245525538518 -0.0673822916074049 
-0.458105467314576 0.8836918421399472 -0.2958245530301299 -1.236725892620161 0.109769717723745 
-0.06746864705689037 0.7672818721315711 0.8170225509447264 -1.197573630897808 0.2336981712358666 
-0.2138860979861725 0.7163656168607967 -1.273782532631739 0.2411014123725759 -0.1027088946985433 
0.1519525653598732 0.05429904782877049 -3.297546689209635 1.522821707438842 -0.1231354336502286 
-0.09742796671988439 0.5457490061320915 0.1176933222247776 0.5121390535690812 -0.1190484674621864 
-0.1917340830914913 0.1070931826549727 -0.7628840476959109 1.729533341891739 -0.05058273003602983 
0.1163831084596354 0.2789784706612201 0.3465212072760421 -1.604130957494674 -0.2503544923237214 
-0.1350668422917257 0.09357566006559041 0.8576276355756146 -0.5361123335153302 0.02907735528557295 
-0.02621388003531027 0.08963764803069391 0.8017622765646788 -0.9655360038425503 -0.04436117930044949 
-0.3729250612244921 0.3272311173285684 0.04529525980678879 -0.6770710784161339 -0.00886014478793351 
-0.6257267814844212 0.6342410590103723 -0.1011359532904565 -0.534457485518803 0.1273825322991408 
-0.2331114750934618 0.2576737871891289 0.4097014237636153 -1.632846772635348 0.1026488860405032 
-0.1914072479936058 0.216137109103939 0.5955085213530326 -0.9361460696860462 -0.06201795709003485 
-0.0309759735768733 1.154860443758095 1.086501976438333 -0.2763795341999591 -1.123719391813322 
-0.1772285421294613 0.3031598661023028 0.4622267592193791 -0.1172646341611311 -0.2152908526652264 
-0.02060333729850685 0.713886329584576 -0.480239973233024 -0.1960274442335638 -0.6714604432711386 
0.01885009184622353 0.4294568553963778 0.7645445491295689 -1.72309730845153 -0.2719843926703982 
-0.06441521271074591 0.7595356815189667 1.452412054961006 -1.938220271595935 0.04311217253828157 
-0.1695882422003707 0.4252097132750804 -0.4374813736361956 0.1918507148335994 0.1056929491432512 
-0.1464962088881659 0.8359238351755749 -0.2049054489410507 0.1890402184406436 -0.2736596813726918 
0.1791938205549337 0.703814025329257 1.000702858757647 -1.971596141437517 -0.4532258856601211 
0.1644663551540865 0.8340409855193432 -0.458433365795239 -1.838667733949755 -0.2183490798463382 
-0.232078040963581 0.09484712687442268 0.6494489338113262 -1.066099839902725 0.1600263948611995 
-0.2040637611246318 0.1641499661611194 0.100995109415316 0.4062014366399315 0.01916557883247974 
-0.3641952596421691 1.070804435458335 0.6057304573504398 0.1247915248418632 -0.2978216019226248 
-0.3739868263581427 0.7581803695943332 0.2678438330301212 1.053102841368407 -0.3679777900899143 
-0.2729251679378005 0.3057326321109312 0.8033193208795505 0.1971394217180651 0.2576165803539297 
-0.195702796371542 0.57077604935441 0.4840458256867622 0.2305487990055466 0.06640268398603527 
-0.3034325020491946 0.7162814294873963 -1.252038402479334 0.2007768426263262 -0.03071259459028786 
-0.1147997864094022 0.5428934320379544 0.7860205650303216 -0.8467057946300711 0.09196302126369589 
-0.359808979239012 0.4520688641361099 1.238619104157225 -0.2164383709892553 -0.02770750314261093 
0.071321986386226 0.400029047749645 -1.124966427054627 1.864082219192815 0.0986369144781941 
0.03275581953504984 0.5295932636235534 -0.6664668344910499 1.130071982778636 -0.1199193676801123 
-0.1387843888962627 0.5868671701785597 -1.010990118453295 0.5505789466392944 -0.2322747430701167 
0.2796970639268542 0.6065002469659762 -0.05464248362556316 -0.7652400054056813 -0.01480823712114862 
0.001697228151911791 0.9153483721437954 -0.4797191999956557 -0.3341160895139219 0.1032231904038683 
-0.2536207825488843 0.7144919365132011 0.08105110904979039 0.01465322018894403 -0.4165328997098903 
-0.1092743709745381 1.152501196413056 -0.8021320985380059 0.1243095014510441 -0.1177276286397202 
-0.1628488060578307 0.544562801023606 0.5433949386714855 0.1400365758767273 0.06190783737885035 
0.06728899788395651 0.170141363178429 1.01993511795422 -0.9995447221828428 -0.1312179357002271 
0.005367588488798369 0.01549019137633897 -1.179003641059141 0.7461379741466015 0.0827988896311566 
-0.3301128941461613 0.5472320126867678 -1.320299234592044 1.807052208943229 0.163887700737126 
-0.2136069627843588 1.559800735331274 -0.4552130568112286 2.411204695479611 -0.0199665887051455 
-0.1328350987754132 0.2588421718575705 0.5125887954746343 -0.9052218820796299 0.4188343045252 
-0.5228179638163301 0.7870140338506399 0.2897117769456192 -0.4699315569361011 0.2619526634363324 
-0.7730885766112592 0.7363067616734501 0.6632114479916745 -0.8886783277184966 -0.08679971181140907 
-0.5162214691253578 0.3750830061948112 -0.5335310313175849 0.7653663057915056 0.07412890902925422 
-1.0409707884002 1.622504932012949 0.3434921811860405 -1.101901377259123 0.1497595038244247 
-0.5710975125910231 0.8935611013036759 0.2161969664675391 0.3648103302845659 0.1910760602619105 
-0.4072242988637663 0.7349423503868237 0.4694229152812884 -0.8011924187120888 -0.199192434241072 
-0.7206501013981432 1.399301160639442 -1.177664731723268 1.095115638365803 -0.03370930748655048 
-0.3998781749111736 1.022876707194329 -0.2979844710226068 -0.05715552589819071 0.009151696864579012 
-0.08746570437403665 0.2072727776779384 -0.4033943726333726 -0.7750892677497635 -0.1621386941012886 
0.04600177125732426 0.8977956894543543 -0.01441204722265497 -0.502067045993146 0.03603491261025175 
-0.3684081316048719 0.5106510529198593 -1.271302257793286 -0.2167348862040359 -0.0392135432340355 
-0.6001827219714768 1.050001331181647 -0.1421367987207349 -0.6408948606248764 -0.1040419445004115 
0.01287587885462584 0.2914946402516576 0.4982628712510255 -0.9225580392001197 -0.06090458721114105 
-0.2839497765787749 -0.0206322063684612 -0.1833161573440771 -0.001586826723474779 -0.04841990416616818 
-0.01628696998565508 0.7649468091194586 -1.131097498632286 1.263879195039131 -0.4567168818045642 
-0.02347229416265465 1.242714822559472 -0.7696572059416878 0.7948785500299566 -0.1734145924848523 
-0.143317260233337 1.502843086380943 0.5608952739879423 -1.132770366147947 -0.5015884912858822 
-0.2347752150686502 0.6528945964918196 -1.248167196581062 0.3422425588126597 -0.1858146971169758 
-0.1210119755327923 0.9689723239588065 -1.032388192076767 1.137092237390693 -0.8591625573993057 
0.07162654636077885 0.4877723339270535 1.56650324917961 -2.346434385286603 0.01819242860457674 
-0.2352211058889571 0.722308810918055 -0.449397766555051 -0.2924883263390292 -0.6096064836455743 
-0.2140049644846658 0.9475194891125316 0.4504870677635209 0.01252390313488409 -0.1810270702366714 
-0.1735367689549339 1.047230945783566 0.2464546020728019 -1.540997404351186 -0.6832759131443841 
0.2797702365296552 0.5965374854412649 -0.2955520288704583 -0.2029915780974275 -0.5098450023578204 
0.03236693516183062 0.8840825175269872 0.7905854409408536 -0.5445040246384809 -0.4716783961747818 
0.2394389826903174 0.6287160708327855 -0.6591286683734929 -0.1030303904450427 0.1383549540936115 
0.141460214850355 -0.002046493385431827 -0.7366132178506477 -0.8157631340922926 -0.4254844061112382 
-0.1452082647133485 0.6718183614978007 0.453279583405329 -0.2392477881880018 -0.5602199706617214 
-0.1151018784017415 0.4396478938978839 -0.1445876619745064 -0.2651097679677882 -0.3299759761549721 
-0.05273211849961174 -0.3193153157263084 -1.545258421037769 2.161392621790694 0.2685220521668202 
-0.06038200314538189 -0.2599695347831034 0.1996214145722316 -1.619772246054959 0.07745626809622676 
-0.137029653677221 -0.1260184010403602 0.04382435083694046 -0.9716516443502641 0.160933608053502 
-0.1031487017881857 -0.01750787868207866 1.646819605021059 -0.5886166328824244 -0.2075758333092493 
-0.09028477349530382 0.1053367511675801 0.2040553356034724 0.03164610391544632 -0.02528335262780956 
-0.3758611882422616 -0.1154675219283885 1.164526311730257 0.3967076173336623 -0.3796293959464603 
-0.280332308868619 0.03551865791990885 1.341857508518328 -1.24849036937886 -0.3656748668628337 
-0.1574476251639271 -0.6986608020202184 2.888138205111787 -1.537646392842269 -0.3725659919551732 
-0.4114124523952056 -0.01407382434370651 3.411776280887665 -2.625621861270843 -0.5716158956301548 
-0.3271750436051601 0.2276900405623689 0.278090078330769 -0.202184511254241 -0.1975412307739129 
-0.4217286191338288 -0.1168873403623942 1.280895802859927 -1.625786861449846 -0.2775453965200677 
-0.4109816774866248 0.2120017368997038 1.546849070802363 -2.395957016723412 -0.2081667797844755 
-0.01290825022183235 -0.2483190595986697 2.038300934745432 -0.8992858648774716 -0.05277226896499467 
-0.319917530327687 -0.6021698250044293 -0.6225408193598261 1.813266751653262 0.3233293758952985 
0.613049399819955 -0.3286867606267795 1.981413616966983 -0.8147901663515081 -0.4075542090472701 
-0.4044723110833036 0.4841491005903557 1.379073130301769 -1.975550151819565 -0.4414335529531381 
0.08986423937041915 -0.1188114624723711 1.185026354723677 -0.2917171244161609 -0.2162510247400373 
-0.4354731151900473 -0.0400350043569329 1.950909217931648 -1.633572329336744 0.009781184271215739 
-0.3132623584004188 0.1929930741840916 -0.1812144590558434 -0.6731277545852855 -0.1999042162637624 
-0.1574939778348434 -0.06344224305903996 2.43236133617703 -0.2611041380235059 0.3287547724243898 
-0.5648014562468787 0.1340084869826633 -0.3608628118210251 -0.9387674118170307 -0.07603570279465668 
-0.5174751034911683 -0.3018439485887764 0.8548930656245558 -1.701683997653061 0.2596041646977896 
-0.252055811058853 -0.5912046369793035 2.101299928905946 -3.151991387580868 0.1173611420950363 
-0.03710405541669045 0.2463118805273025 1.248951328076955 0.00910600317503402 -0.08997246887553181 
0.1333397966417578 -0.6847290308790938 1.287101510543146 -1.266320959126696 0.03176513594820569 
-0.29997852704718 -0.3786862335416299 2.359356308561099 -2.155892159278033 -0.09452911911386964 
-0.02004797387823404 -0.3254201641445019 -0.3495093842002894 -0.3394354054028277 0.4384044945261876 
-0.2692388541184055 0.4780252212077583 -0.1451751516640097 -1.174082734974117 0.1964501667057266 
0.2710312533038884 -0.05083883387663727 3.148138634455867 -1.692711370770752 0.001572247639018715 
0.3753667333449431 -0.5725054811931575 2.882709940858669 -1.605799302349806 0.2487761040774581 
-0.03630070920897903 -0.3740675370567361 1.726125828649866 -1.189461820325746 -0.4778966705197916 
0.1154267693785302 -0.4500527043456265 1.611586785719588 -1.072749141531875 0.001999225325402345 
-0.009949975024093361 0.3838455224140373 1.909462089376825 -0.8479552221374994 -0.5094037244140358 
-0.007511743071960343 -0.2444034139064594 -0.4001874567918975 -0.9100969587798592 -0.1041008334596041 
0.1133094939794638 0.1640952919685603 1.047621752573597 -0.55082374981018 -0.05721477058428112 
0.2094145111714834 -0.4398805770292717 -0.228560819063011 0.1901747929727602 -0.2470975990124238 
0.08107284359364283 0.467627758549691 1.585145365726097 -1.479209341372214 -0.3331972398238522 
0.004516940592170928 0.3585963515751771 1.350140634745214 0.6347306287509553 -0.3352869036659069 
-6.28983761584719e-05 -0.08932698863660683 0.3284339169019073 -0.4975676377856413 0.1253561819369217 
0.1007185385271862 -0.5215545443119015 2.690520847225162 -1.030436116470863 -0.006445172455557696 
-0.4364975078143185 -0.3586394866896421 1.254358800156399 -1.580840141174786 0.3541235834585088 
-0.1676896324589639 -0.4029333229727372 1.827461375885989 -1.620485183891364 -0.4907195345677154 
0.02067867489293812 -0.01585249722755623 1.276680512276251 -0.2935495361465378 -0.3333551736001916 
0.06504759233834677 -0.190093249179911 2.339982492343465 -1.110355025212031 -0.0003775011100345558 
-0.1027245759298973 0.2495169265797417 2.178314210862054 -0.8605012800250802 0.1238071042629869 
-0.3509715977540906 -0.265785962686567 3.724863243261004 -2.749712300071116 -0.02711981108424574 
0.2299404425926785 -0.4178401356287972 0.03750233065104381 -0.7103999446499808 0.209580306661085 
0.09548953564149212 -0.01673281611427697 1.282872067362814 -0.05235638929903814 -0.4201963001517998 
0.008009525596621816 0.004441357537440967 2.360938632646275 -2.145534819906531 -0.3391612625099307 
-0.2488969208761422 -0.1884574686433745 2.181359743481119 -2.120041192813704 0.02095222294663411 
-0.05041280638452994 -0.1022089751060844 1.181249591894477 -0.6600480163696707 -0.243397645564074 
-0.001133400811117275 -0.0321676803120101 1.995622383043129 -1.48334702335965 -0.02096320713786772 
-0.002577885411560239 0.1110845960497656 1.583939917162951 -0.6784317757974369 -0.2635476916671386 
0.256626015597329 -0.03353588327160312 1.138950296719756 0.1746559318982634 -0.2941569238825243 
-0.4021697742594911 0.5645710483262149 1.131733627794397 -1.302145158351625 -0.5241517150362802 
-0.2043460424904577 0.3080752971371605 1.099034319817466 -1.276043503918893 -0.2914635108756305 
0.1071391863820709 -0.03853522756982872 1.462720745056719 -1.148679435504963 -0.1813174951767194 
0.01081066034444601 -0.163942714395384 -0.07300717726896463 -1.547621592920438 -0.122032721606889 
-0.2979663840352912 0.2169495036713796 2.044337874850201 -0.6738031916129277 -0.278439516402675 
0.06317920462290101 0.03141111269211454 0.2613168397678152 -0.9205933344311137 0.004762252980983981 
-0.4117841266494229 -0.2654297769226633 0.5623078199869881 -0.2419865898059147 -0.02971399149800886 
-0.09186971622034575 0.2349763808629319 1.247805273123922 -1.176327727295589 -0.6395751857370449 
-0.3559942800899144 0.014218559656578 0.9595641406379081 -2.62498678766267 -0.1143785646900524 
-0.3170329010495973 -0.6017251332988103 0.6619004077554669 -1.983950833875137 0.4009596383266134 
-0.1924939962403411 0.005089456870179931 1.628273980347209 -0.6069378095195967 -0.07940913232184406 
-0.5874981715429058 0.1652358921068064 2.798820764131144 -2.729148652267571 0.5106274180351738 
0.4925394004591582 -0.6604749283782974 1.231503157952157 -2.443741668997364 -0.319639316375177 
0.3300501949707637 -0.2929902578457267 2.31414614162202 -0.7298065373949012 -0.5193834970190737 
0.1134925451975174 -0.309188794429374 1.352464719254565 -2.254461845572796 -0.1784516955869646 
-0.2097898693417216 -0.2509571323989608 1.249674800291612 -0.7199310104575638 -0.0389717209543671 
-0.1827966365733757 -0.08735850902856487 2.794571455181451 -2.277281473272956 -0.09537149433198389 
-0.06020251152992372 -0.5138290639554712 -0.5482669901746228 0.2479063596631909 0.2958877406366056 
-0.01708135209958598 -0.09840398632732261 0.7706179838050214 0.0592648771189116 -0.1349692199342225 
-0.1602550275778247 -0.4392325586034788 1.574934210592961 -1.563396976447655 0.4153406187774076 
-0.1551705533034318 0.3990974136712546 0.6338101101238274 0.05726505108958147 -0.6643401630845315 
-0.08050060882042528 -0.05073935742315688 1.787740206409094 -0.566581591175221 -0.1881180865179785 
-0.2067444829752482 -0.07450008275488933 0.886812373358239 -3.189788474064791 -0.2175665648936196 
-0.08065576696561591 -0.02506584337249092 1.875721279208347 -2.463587567056955 -0.3235186207637726 
0.04040895720314516 -0.3353313802282196 3.330796053443239 -1.745819518942008 -0.1198635096458373 
0.1048027149466468 -0.5519671296451248 1.526473133227045 -1.238864970562678 -0.1116208204644291 
0.1722884979402221 -0.3824878316360845 1.679933760064769 -0.4488947215348403 -0.02881077063999616 
-0.1420670358209948 -0.06357512173093895 1.859075636354848 -0.2052984699632264 -0.05293537302781075 
0.02938853837324558 -0.6178569775041173 2.051748230214594 0.5756648358056669 0.1053361050586786 
-0.2607644920625828 -0.09217189352482516 0.9998772080095124 -1.6445058372268 -0.05207385354823085 
-0.1616659306675564 0.1734886140498086 0.6698038089881735 -0.4367487647872348 -0.2214271641860751 
-0.2113776314631961 -0.418224335435808 0.5701360286126659 -1.355093939801003 0.1277816008380199 
0.1974700496825209 -0.5844578082155283 -0.09562396214624275 -0.7863056251873779 0.04670674747696062 
0.3329481570792369 -0.6420115499191436 2.068361598282937 0.1547016180995539 -0.1801050508738321 
0.1881654085676755 -0.8422293976943844 -0.01804662508506822 -0.06011263015194668 -0.03028957066661626 
0.1076597278205342 0.0287951320451986 0.9182954099866093 -0.9884940807910063 -0.06230535997385524 
-0.04874966547087967 -0.3051407705448084 0.6613882713832078 -0.4258698736159577 0.1151360632924926 
0.07390564399619967 0.3369407906408182 1.300462936697733 -0.2788984390707774 -0.1678493624894123 
0.04448565787964658 -0.03943761976953365 2.679695884451506 -1.405473290037714 -0.02208070121861429 
-0.8431109419636952 -0.1826229333637831 -0.6784690994127369 2.1942385123492 0.3040435105107488 
-0.2706595621297753 -0.6681423373395734 -1.739884075645135 2.02446543368975 0.4110935836108227 
-0.06675176777437634 -0.282715509192885 -0.7131749851146615 1.071934280848034 -0.05606360801694352 
-0.04700958064121213 -0.0619978249034764 -0.9352930581214409 1.922160751563549 -0.1890351628070907 
0.1192774762080145 -0.4238052117599171 -1.126658856447179 0.560297254665309 -0.2551411476375186 
-0.9138382746876816 0.01273551159053265 -1.125059805381216 1.909259313542623 0.01871768468884067 
-0.1064235351707853 -0.07172113267199322 -1.147521417676091 2.916666482007567 -0.354336448494097 
-0.2044924550442529 0.2142426077270432 -2.620848719110105 0.9064044804877255 -0.4309383626236438 
-0.4852504020456372 -0.1915323508376683 0.3496877788295398 -0.2766982373307499 -0.1366297770317815 
0.1823097845418446 -0.2261448594681255 -1.92191133386122 2.443909653209261 0.3368163111516674 
0.4124164174374685 -0.05799800570233604 -1.745750202039755 1.395324126509678 -0.1596113253111598 
0.0006272473541979788 0.1122290509475727 -2.84841601832705 1.756294727141913 -0.3204109075652868 
0.4816048218421959 -0.5582234363669772 -2.281206802842625 2.408289694430191 -0.208896437454052 
-0.0752318595241588 0.07907599207962043 -2.005307233926352 1.716981629352677 -0.1234067580942669 
0.223136142095147 0.3892879753269891 -1.15007691542836 1.465728647163456 -0.05693818086987525 
-0.3958528840397051 0.2395963272636326 -0.6721057926716278 -0.08055787918912846 -0.01828265670199706 
-0.1229888025814401 -0.6009212973115174 -2.354717980113236 0.6679852865344085 0.08803407543429259 
-0.2024068034438099 -0.2472536174329416 -0.1932679318580114 0.7228963774070066 0.1182837539179046 
-0.2561782528305186 -0.5834434441575977 -1.633592734006077 0.8219217333725458 0.2218064520562802 
-0.4756400165207461 -0.1951000171355786 -0.2561149945129035 0.6120847511727225 0.2807453806560312 
-0.5680422634678374 0.1618230034581499 -0.7528742586295285 1.378199000640323 -0.4386106379402112 
-0.19363064725104 -0.03512191477896212 -1.360734931678377 2.632378684149196 0.02783231125276096 
-0.6977293995844449 0.1188766380033432 -1.063780375531572 2.475761880795496 0.1920196852695781 
0.2236491250572855 -0.7509590271682379 -0.04559509936662064 -0.1071071932012883 -0.00864699521481422 
0.2518602603871222 -0.031892104646215 -0.005273058459850296 2.564222960658608 0.02641550037547847 
0.04176332948095578 -0.1846345004278276 0.009902328115174277 1.772159956851157 0.1017188681868411 
0.2585873198682831 0.200695969339374 -0.7522961260051249 0.9725493468346678 0.08731123137596708 
0.2051493359330581 -0.6253076522258452 -0.7227499038516773 -0.1362423188457154 0.1973638662285911 
0.2164471515301811 -0.3979693865684262 -1.046100202709763 1.259039238077975 0.0253427596521235 
0.486542958439512 -0.4476000881695057 -0.8381146923563927 0.5074424724057769 -0.2315389948605608 
0.2589339235240083 -0.3347427605031276 -0.1557932168295902 -0.3992281970028543 0.2497767223356979 
-0.1844992497735078 -0.1246422179834069 -1.93485880115825 2.553677935935127 0.06048022121549211 
-0.2544911822212821 0.1221706069506424 -0.658904740937621 0.9665089359857313 0.09909296286487547 
0.2770920150199301 -0.1111858584028392 0.1249112144891565 -0.2727597367722574 -0.2012069549134398 
-0.03005611514227693 -0.03175428292472642 -1.0365426297089 0.4167137781438077 -0.2513652883504029 
-0.2486058512857833 -0.4005016587073891 0.003314951779918119 1.891419853181924 -0.1829237524207001 
-0.2331298806258023 -0.3559268773160656 -0.4245892355406533 1.552892077921041 0.134312670724825 
-0.5421533642597253 -0.04482288725477925 -2.451206014656073 2.322858545854482 0.6783777156916839 
-0.2784827826516268 0.04948358449706675 0.2058246065972978 1.56996571447048 -0.3527285548553111 
-0.9478748366412327 -0.3720023355227828 -0.0678377880928837 3.179089521076399 0.02224964255805156 
-0.437128408277328 -0.4966742591474981 -0.4252752806499591 2.94196562929783 -0.003664479597459391 
-0.3442751579047528 -0.344272929101629 -2.416703146111211 3.331535854650463 0.1337624858976805 
-0.5386607525475062 -0.276070980309503 -0.8052979783588606 1.864388821271547 -0.05764064373614419 
-0.1028016873838509 -0.8537879225545422 -1.281115174776904 2.437752038359605 0.3892274402076337 
-0.7685280217182502 -0.5056873780932917 0.347616905328291 -0.008747817335313142 0.03967060985628205 
-0.1118168058390812 -0.1644252836192309 -1.307799565813438 2.333291841653736 -0.2265988413174917 
-0.02709071306631179 0.0537171396363612 -1.651264246737128 2.463106514179869 -0.1581687699212646 
-0.1289119299107163 0.09693630099238214 -2.833441356270051 1.683495094415004 -0.4227405953638369 
-0.06779016185675192 0.0008165778978488766 -2.667181119409854 0.8542139828956444 -0.7033799068355758 
-0.1178616503557605 0.0121575117152534 -1.604741119600994 1.383916445329235 -0.3718138437340348 
0.1755195238662066 0.2222919718447105 -1.597844903149152 1.885953626545223 -0.1945332422158604 
0.1618852677110344 -0.5054652433586272 -2.179568079637512 1.864447980604219 -0.001124302940066514 
0.2355010433292277 -0.0596071255578124 -1.529990254405512 2.857767676097792 0.08092298579348363 
0.1845363799289717 -0.3933467670665362 -1.372325166122782 1.836341533164681 -0.2341149949856842 
-0.486802324947415 0.3893803857285004 0.7790535449763567 0.4014253302688439 -0.03417691459382291 
-0.5357063129936487 -0.3126876739503792 -1.48202463173256 1.191261604553496 0.1764504455289585 
-0.03098059835626101 0.06886617725969454 -0.4102766446961331 1.073601940228538 -0.1218619894088321 
-0.4573924482511737 0.2809423211195913 0.005428873626178297 0.190781279709646 0.1690606107015341 
0.02131044115618394 -0.1786797956666333 -1.24966866150672 2.229230436434792 -0.08164178117498645 
-0.7800699893065832 0.1631389620290638 0.7705006850581246 1.577779529298636 0.3048358913763434 
-0.1445456787167028 -0.1779381913343282 -0.2068209590022737 2.330875528800595 -0.198998310345926 
0.01175047469818236 -0.04125029885373278 -2.508421233099753 3.230275108076795 -0.5587328360664274 
-0.01962510811555648 -0.448178118021661 -0.06321071794339937 1.839025348511177 0.2762969814183034 
0.005578452514497893 -0.7109477862514202 -0.7742469458879562 1.742319838506017 -0.1394005373595516 
0.4083405417365776 -0.6886502212319764 -0.9358028031224834 2.349057775243801 -0.2263746576736201 
0.008751260746198858 -0.06906100751692902 1.006063678930375 0.8695835064804751 -0.4429013363206825 
-0.1444684070749215 0.2100094085956729 -0.8682658466163907 1.157431687555004 -0.01509656514507458 
-0.06671831587741484 -0.1073981288393831 -0.5221686865708233 0.819581093412163 -0.0001630677240352924 
-0.2269247501034788 0.3917004090186311 -0.8005873562713361 2.035072991013445 0.274743192250879 
-0.2426507501650699 -0.6066023541820613 -2.496430849915678 1.274256689155915 0.1470934303810967 
0.1000351441985634 -0.540636594128853 -0.8861746621333274 1.451724048110034 0.06562774998788279 
-0.04527721476683452 0.02532043128759224 -1.664905557335496 0.8381429826428306 0.06318756547216489 
-0.1723500792471692 -0.01558464269963942 -0.9397373747959955 2.537361573315832 -0.3640528955833968 
-0.1927833936752517 0.04469024658537838 -0.5068610897088518 0.895809341981728 0.01198018547027011 
-0.04627211346025851 -0.03460620964301209 -1.013512723631154 2.219168725050412 -0.1021793568238197 
-0.2786837435752466 -0.1893425752799828 -0.4776948159864636 1.661735589785346 -0.5480340371139144 
-0.04761267886660291 0.1268723081875427 -0.4343679452439383 2.675368920353934 -0.2472753840082586 
-0.02871366474692023 -0.3279359651747425 -0.5048139105483728 2.063028521689347 -0.1891126406324929 
0.07371130341605527 0.1290893624187002 -0.8358652598258728 2.796165203930351 -0.4204442507007757 
-0.04655542837234735 -0.298668097575667 0.04766669787789025 2.857076122311117 -0.1880669081300603 
-0.485817392694686 -0.7281475160487151 -2.424495572382539 2.851422448909601 -0.1070838580885698 
-0.7791782850305262 -0.3245158991457681 1.380737653423665 1.69089889219412 0.0297254708598961 
0.1162900109328381 0.04480833166973491 0.4002254028570292 0.2611276137290399 -0.1526752851630101 
0.2090503861487837 -0.151712244443698 -0.4312585862807487 1.720538701676683 0.1276119361843253 
-0.1048726058908117 -0.09519840067074331 -1.715041058860213 2.466040611253689 -0.1159647666462901 
-0.2355172760072805 0.1286346041818973 -1.815636692614538 1.59625731399039 -0.3162558245402946 
0.3247658491570571 -0.5711709856443221 -0.7311505472375798 1.252130278146017 -0.3043891042149783 
0.375938609961085 -0.6162581702502112 -1.220732959965196 0.8403452981190435 -0.05138198858160842 
-0.2406142154690011 0.2712414187284431 -1.01198257498135 1.565059274104961 0.0419586316418406 
0.2300592815302055 -0.2649092873868073 -1.365357722344243 2.81199017259606 -0.4622272374180093 
0.05862023766032824 -0.934750676492631 0.03974591397340997 0.478691309718316 0.3440220926628618 
-0.07864410100574216 0.4354637242375231 0.0245918319877689 -0.9822021201349034 -0.03904953324743132 
-0.1430710767151014 0.6780903586725968 0.9282438332202607 -1.039231916641744 0.1343604349182913 
-0.04655543133835309 -0.9483258300568116 1.428659362143403 -0.263238628173698 0.9369104470753429 
-0.1896715022786415 -0.2813778522416716 2.048214476970121 -2.007554663426057 0.4514959727729116 
-0.1515950247490004 0.361303734228984 0.3428346899164788 0.2790496909534275 0.7566885398911475 
-0.200913540387618 0.2852523144740887 0.6733136018090308 -0.5875648642921161 0.1874358920327116 
-0.3520720792940406 0.2216621408327455 0.1656894379010888 -1.765668611180229 0.5221764682286185 
-0.5548033613115351 0.336210491616634 0.9160739198541568 -2.943577315711214 0.2755586833877894 
0.0768005672779063 0.5736763007781549 0.02204650562306262 -0.0568961587428617 0.4072831105465912 
0.2837377124609551 0.07383430578058604 1.177823800609902 -1.116279092770305 0.8760611404791641 
-0.01049081975712755 0.1122846743105715 -1.137221933693625 0.5016746232882612 0.2578768680295306 
-0.3616889820457798 -0.4957498624943388 0.01497225189064717 1.004303208002301 0.2781037242836668 
0.1324445726612256 -0.01188950461003655 -0.8013622866579843 0.8240201191160715 0.1979179511115486 
-0.1010255465851501 0.06197303299647815 -1.345948226831931 1.316149405459714 -0.1595562198305712 
0.1315839690534821 -0.2559817440935671 -0.5504180748633218 0.9727224458192159 0.2040826249666839 
0.2221647865434236 0.1473946186669325 -1.248229436023127 -1.207244639395283 -0.08226178846485888 
0.2100632356953464 -0.1427588343879148 -2.407969629540377 -0.3516176276837705 0.2319364037514431 
-0.1243495816877319 0.08837601582458607 -0.5609686212555937 1.099942812773174 0.4428254126306365 
-0.1155805038611891 0.2812781757925811 -0.3469146302694184 -0.6589389756975276 0.4571921620859866 
-0.03203185160036479 0.2398914994360224 1.43115913664023 -1.122723061600561 0.6089917231056535 
-0.09810386361364802 0.63898764194663 -0.4093643723424141 -1.330093886191741 0.8018642066360809 
0.1146537823147118 -0.02275987053691459 0.1352612941768715 0.6342815566541021 0.7983391773086225 
0.4730041905598701 0.001931858372522571 -1.370581722528108 -0.394218078255866 0.4261234586887294 
-0.09711728007276217 -0.1145759558653891 -0.2575565932759228 -1.346764227506939 0.3841195352546935 
-0.0910083917852559 0.4109429762219101 -0.8834958784639398 -0.2431648084226394 0.6627141494666019 
-0.04130054143789009 -0.1095991762080047 -0.3304003170295628 -0.4508589012644754 1.321715969409031 
-0.1073924197344178 -0.1215096988760412 -1.290725281574104 0.2000191343682026 0.7170794399071033 
-0.03553443462034772 -0.03258664895129025 0.5162488967551573 -1.121930459787156 0.2598222236030839 
-0.09821562930775346 -0.4044447237083224 -0.2892235275253 -0.8092405806177099 0.2027400820643679 
-0.04320332525797244 -0.3996739774325675 -2.366515449271155 0.1426239439798309 0.5093595079196479 
-0.201231877295376 -0.3335761403739143 -0.7491189598805946 0.3414301244274759 0.4302079027525506 
-0.1328000660470654 -0.3643310628282268 -0.6512942731225788 0.1635023552951753 0.5885431960487727 
-0.07857367731666288 -0.4098314656609189 0.3623317164903452 0.4565995968411546 0.346445486368771 
-0.1208872576911119 -0.3600522997241875 0.6830699335706989 -1.235696341682349 0.5465286832873973 
-0.09953131780344293 -0.5196996912781855 0.06864405391992168 0.3160938694107704 0.5460983114579234 
-0.06093360692163906 0.05695256304384767 -0.2403531386728558 -0.4994388759373749 0.4232135480662667 
0.2680225971748772 -0.0217511590465084 -1.057729788662846 -0.002785408386646052 0.3428237549571265 
0.0521909723246507 0.1049555706002155 0.2852274196975187 -2.023445033996836 0.8390886121365647 
-0.01037770437024348 -0.5367176754622827 -1.08548742049745 -1.086382797407294 0.9388372961632176 
0.05505831101027694 -0.1412675538532173 0.03807585637470991 0.4110981675043244 0.018039968068451 
-0.06303018851119985 -0.1718075729897996 -0.4117566473710016 -0.5543337352318394 0.6528185787811611 
0.07159003534255316 0.1738223874599537 0.114605277382128 -1.136618858630527 0.4073685707457452 
0.2445937212055549 -0.2103266096925517 0.9012108091430071 0.4442939123488504 1.039253239528766 
0.4678946933771477 -0.3700477445688549 -1.06482184683283 -0.1959551796120002 0.6621704957459925 
0.1068352779525546 -0.007465482067056705 -0.1630872882613849 0.2996780550916869 0.6023841977670145 
-0.07842509388814679 -0.195545438898134 -1.489198367762512 0.5419398319934613 0.1210218951231563 
0.07535860153469429 0.00570242963478739 -1.730242745311949 0.02566915438926652 0.3448602478768021 
0.009543699846105615 -0.1026927099535252 -0.3991889607459382 1.340517852573048 0.1111906833296942 
0.1155914430051685 -0.06864911155220645 -0.2358235492464894 1.369635253313578 0.2535645041909502 
0.1911145680584732 0.1329242290520166 -0.1169515261109692 -0.328050420713498 0.08403537326347085 
-0.04483128440220668 0.287997121940536 -0.8051463936264073 0.6661337733683359 0.1752828658743207 
0.1100529386220116 0.1133119170637085 -1.025717001820859 0.3953497241370232 0.1057409624847481 
0.03326516114275312 0.2205849954153305 -1.246780206354233 -0.359527418990727 0.7031363913152836 
-0.3420022789866699 0.1941904136140098 1.389867599196418 -1.689180373363187 0.348380997255002 
-0.1369406411070634 0.1101937802644172 0.1857143826758432 0.1658059190500797 0.3969645320001126 
-0.2171804013247091 0.2295607196010662 0.2261380418712189 0.3384008847967211 0.03758580463364108 
-0.1325402497630391 -0.05149331369570839 1.055267137843498 -0.8053530852827584 0.3221231189736017 
-0.3662229656531528 -0.2649060110501762 -0.8932406609124105 0.1939172801564472 0.7118047034334913 
-0.2537628879418627 -0.130980252945748 -0.8700716298268774 -0.575800648076446 0.4217050251080158 
-0.3554835714652857 -0.1201761287219384 0.08096977728551924 0.6610321048859874 0.2431505353297272 
-0.07999347270238781 -0.2371181893226526 -0.2379088045109089 0.29339376773669 0.5901480479223546 
-0.2383530273142875 -0.03097394404871491 -1.256661904727058 0.21491484995525 -0.0414618250741438 
-0.05302097305310698 0.4286816414222818 0.1591125250190982 -1.287637897192179 0.2091131532529374 
-0.1983881688282433 0.2264180887527067 -1.347499771445389 1.207124442126328 0.8854693477845325 
0.1533353009437762 -0.5020771423439504 -0.4194919650510048 1.524056446608805 0.4854230193588595 
0.4104540792839976 -0.2247905479845085 0.3700032390184423 0.06818098828093239 0.2122642984969189 
0.01077363227560067 -0.01517478175600094 1.133384783272735 -1.132921941518982 0.4782682159589312 
-0.09833809761853557 0.3547950419496797 0.1424288143383146 -0.9181104330297248 0.09046964789986545 
-0.09683922960532518 0.09697952778591591 -0.4039221369433367 -0.696428453006433 0.6652633173711701 
-0.1515352459894928 0.228754894839641 -1.858494535812575 -0.006750797167724793 0.4137235114099981 
0.3071063678765519 -0.5083347556340622 -0.04776742310864793 -2.099931241889045 0.5108389248629742 
0.1885572762444233 -0.1869478653290949 0.05817967367295018 -0.7017476305847444 0.3631573772397795 
0.08819213627669069 -0.06459117643570812 0.1566689122454614 -0.148857978270021 0.4342401508978563 
0.1596433228612082 -0.3535285247034966 0.03642186577392485 -0.4459912171775993 0.3209714191860381 
0.01932495423561052 -0.2297633721356579 1.338521321984335 -0.1995475088994748 0.0920130759486464 
0.03808235899719872 -0.2212522373882452 0.8621453305684575 -3.654148969780162 0.6954631213866364 
-0.07406403241309395 -0.114899290738211 0.3889191497048441 -1.773534152409357 0.4671832886339863 
-0.1802023385786269 -0.1070678668288931 -0.990258516053358 0.6325066487120979 0.2815655883771572 
-0.04641074669448129 -0.3805260224172555 -0.2476982216626462 0.3185383831748721 0.373350766946126 
0.06533990576430906 -0.2284317855183601 -0.2411628434545834 -1.260513492115669 0.5783530163506867 
-0.1746333177354019 -0.107902106805279 0.05793828191299055 0.2732589363284119 0.1443324363188547 
-0.155710516071568 0.07584309514670801 -1.963450870106805 1.912413597563964 -0.1320479709940078 
-0.1306555638698647 -0.1328908249597291 -2.564618915141847 2.307111776718879 0.1977211921802205 
-0.07102491709313712 -0.2234497534639529 -0.3166252187265213 -0.1297775945012564 0.5090017661687014 
0.02688819263148922 -0.1165430424838168 -0.7784926862366057 0.7626685560090838 -0.1066768898861227 
-0.3118405614049576 -0.2556393233083527 0.2587900520055637 0.3250495048114487 -0.01248990886973156 
-0.3818753321350013 0.1018118438324055 -0.1022957967624054 0.6952065456536229 0.09562508612024004 
-0.2369320277640899 -0.2859087569658629 1.79488615851951 -2.334865100103374 0.0875243494539229 
-0.3112679846727391 -0.2189498647099292 1.221635265912483 -2.282132283747941 0.04197306189011518 
-1.836971671633618 -1.496386115864591 -1.534523120979137 -1.615164520312149 -1.463226425813132 
