solver_type L2R_L2LOSS_SVC_DUAL
nr_class 5
label 1 2 3 4 5
nr_feature 450
bias 1
w
2.595773258646671e-20 -1.837201147763994e-20 -2.948805583417271e-20 -4.543684474825719e-20 -3.044318281281895e-20 
2.255284575175549e-20 -1.552700876551852e-20 -2.877976512374012e-20 -3.990375319702692e-20 -2.394531470833509e-20 
1.432768418188198e-20 -1.012719530627687e-20 -1.724021241989903e-20 -2.53488205004638e-20 -1.569097595668463e-20 
1.535436671436836e-20 -1.016685375192615e-20 -2.042299022918814e-20 -2.77131435609956e-20 -1.500032456189699e-20 
1.042984031497539e-20 -7.215153239813359e-21 -1.379094640591203e-20 -1.791610252407089e-20 -1.032045546646699e-20 
1.606853793372607e-20 -1.141279850432663e-20 -2.218682065834429e-20 -3.017468987864445e-20 -1.493674969773094e-20 
5.125539000419204e-20 -3.666214446276857e-20 -6.893334475874184e-20 -9.47065759835964e-20 -4.8121044215504e-20 
2.020801883938629e-20 -1.35405806436964e-20 -2.547928831098536e-20 -3.361397113988027e-20 -1.947103612539062e-20 
1.767978787658155e-20 -1.242530590685136e-20 -2.19277633212862e-20 -3.105732576313395e-20 -1.835637406775858e-20 
1.71837768369349e-19 -1.162580669252256e-19 -2.309595803629809e-19 -3.066064418751008e-19 -1.826764555617253e-19 
5.240338669488815e-20 -3.679306209566644e-20 -6.314718608336178e-20 -8.174791541288054e-20 -5.635011739016752e-20 
4.320113851778519e-20 -3.021864073616698e-20 -5.424038626058701e-20 -7.124728211992054e-20 -4.61277331904997e-20 
5.256545752341579e-20 -3.683089914418972e-20 -7.246643605916568e-20 -9.473976189860742e-20 -5.291931513402138e-20 
7.721200389902992e-20 -5.456078864436061e-20 -9.976969096996243e-20 -1.305342104559886e-19 -7.683993056365625e-20 
5.249055543490036e-20 -3.689288487855778e-20 -6.630196521859101e-20 -8.72244713816891e-20 -5.317118622920182e-20 
6.263892441363082e-19 -4.377957524298684e-19 -8.104160465105384e-19 -1.194032374735935e-18 -6.876166479086622e-19 
1.054039524810564e-19 -7.495825573601126e-20 -1.513260962741428e-19 -2.014987030426779e-19 -1.035189726877405e-19 
1.333354764310306e-20 -9.348482867992731e-21 -1.742839915223887e-20 -2.249368716831313e-20 -1.323510933712179e-20 
1.714525788741134e-19 -1.091999519114989e-19 -2.1154415028871e-19 -2.792509506779551e-19 -1.639451700940529e-19 
1.438175392614642e-20 -9.763345329812786e-21 -1.98332020228853e-20 -2.6346814901198e-20 -1.428167410255448e-20 
1.689799655701519e-20 -1.094542936708616e-20 -2.060218825053002e-20 -2.822243202657029e-20 -1.818097090090284e-20 
1.942343616289349e-20 -1.357581956538705e-20 -2.190426212903422e-20 -3.345174543887594e-20 -2.131397592448982e-20 
1.309651641254391e-20 -9.259254095822441e-21 -1.535614446107961e-20 -2.285698458665672e-20 -1.480553183676548e-20 
1.820744617554257e-20 -1.205888160498399e-20 -2.465900913862867e-20 -3.266099784274005e-20 -1.943345815993691e-20 
1.899980053777911e-20 -1.278946017598105e-20 -2.34191754871075e-20 -3.234763778832422e-20 -2.074922920828297e-20 
2.641086260896212e-20 -1.772238854365992e-20 -3.18273534175331e-20 -4.400697664774314e-20 -3.054520098163747e-20 
1.790115177291696e-20 -1.223990043071229e-20 -2.255423274023743e-20 -3.132327579147434e-20 -1.895978908071262e-20 
3.659977842619514e-18 -5.622288580257724e-19 -5.023286912840036e-19 -4.817830317704793e-20 -1.468551488592033e-18 
2.417613453846137e-18 -3.198843735775929e-19 -9.939558805261849e-21 3.343947821806109e-20 -1.078411179030183e-18 
3.598151818224011e-18 -4.516986784624788e-19 -9.044515251953251e-19 -2.032771835834681e-20 -1.741884270643168e-18 
2.372146950788342e-18 -3.905193468194922e-19 -2.36907177639316e-19 -1.287354835200934e-19 -7.612910993218096e-19 
2.503118568744128e-18 -3.585443799696832e-19 -4.429612067227477e-19 7.267785625608296e-21 -1.254633486644874e-18 
4.97604529593826e-18 -7.666491654209003e-19 2.258468123499992e-19 -1.780793604318764e-20 -2.632695832114847e-18 
6.44528186475602e-18 -7.887516012785367e-19 -9.337062725727226e-19 -2.692419430115975e-19 -2.238350652556712e-18 
6.578585495553189e-18 -9.925008853205689e-19 -9.260645406945631e-19 -1.288587695120105e-19 -3.144616592702339e-18 
3.113564373119103e-18 -4.725100863119712e-19 -6.18480580770463e-19 -9.669950999930349e-20 -8.91995109607477e-19 
4.246599272357511e-19 -5.224344509783325e-20 -1.415648918892018e-19 -3.201345644279377e-20 -1.218904709633248e-19 
2.430713522383183e-19 -3.956274240360657e-20 -4.699188946816972e-20 -5.976915427411149e-21 -8.011141923020396e-20 
4.315813634665833e-19 -5.263272287848213e-20 -1.217323367211552e-19 -2.64649710131036e-20 -1.443472995990406e-19 
2.630663889649514e-19 -3.426594075968202e-20 -6.727736298140719e-20 -6.395532718231262e-21 -9.341870421818854e-20 
1.799399435535047e-19 -2.061876535881482e-20 -5.793762169078425e-20 -8.072309736722949e-21 -6.235658312165504e-20 
1.840170963738549e-19 -2.220382762891587e-20 -5.291023210046431e-20 -1.452552171361451e-20 -6.622541121084939e-20 
2.178997158909097e-19 -2.750644555930488e-20 -6.284819343970282e-20 -1.087858369321125e-20 -5.786982206198897e-20 
1.945078365880124e-19 -2.505038949039512e-20 -4.715678086277182e-20 -1.732895703764922e-20 -5.37747607475829e-20 
1.336891584593798e-19 -1.733267527408063e-20 -3.482542693526431e-20 -1.274080617812831e-20 -3.126722534840646e-20 
6.23996972550133e-18 -2.171637861456106e-18 -8.670083004754622e-18 -9.61737184906829e-18 -4.581194838895634e-18 
1.541574207787727e-17 -8.916369897169894e-18 -1.291306298423715e-17 -2.053474273585433e-17 -1.496549990509156e-17 
1.392942549166776e-17 1.199587787549379e-18 -7.715121675091976e-18 -6.569825802528468e-19 1.575879320661536e-18 
1.209123286325323e-17 -7.45440301553917e-18 -1.380264018581183e-17 -1.902935758549611e-17 -1.24708460947573e-17 
6.201325672408229e-18 -3.663119824103484e-18 -7.57368794167355e-18 -1.018257681887682e-17 -6.85057761268275e-18 
5.62508756312137e-17 -3.85566407578948e-18 1.249516310073978e-17 4.910061657578925e-18 1.629906473454406e-18 
2.092411816461478e-17 1.382229665982263e-18 4.906048758970158e-18 5.595980344604871e-18 3.716467775900143e-18 
2.672884588284433e-18 -1.57759897832549e-18 -3.475592311918292e-18 -4.42646351637559e-18 -2.503635140276569e-18 
2.064921589064413e-17 -7.901120526083091e-18 -2.091308398681948e-17 -2.499524540715746e-17 -1.521451327544148e-17 
1.499679542846396e-20 -1.102388630836987e-20 -2.165122109015842e-20 -2.917648976437553e-20 -1.372248037599887e-20 
8.108355891327826e-20 -1.146999462206748e-19 -3.8351487857324e-19 -4.07058345092756e-19 1.694882808652981e-20 
3.234862779787564e-20 -2.265484071648085e-20 -5.027216768939023e-20 -6.238056775146233e-20 -2.824153682348366e-20 
5.871173973886139e-20 -5.146439751987605e-20 -1.074408104389512e-19 -1.392028923665823e-19 -4.274272888741996e-20 
2.93665617166933e-20 -2.083302795390955e-20 -4.549620038998926e-20 -5.922702201228622e-20 -2.460401394891714e-20 
2.902416165132511e-20 -2.095506072311475e-20 -4.258734211152133e-20 -5.625098843474111e-20 -2.5749134867617e-20 
1.314425168129361e-20 -9.604190005521014e-21 -2.240226921797055e-20 -2.833002478725088e-20 -1.011188527142881e-20 
1.207156602960839e-20 -8.839931896186775e-21 -2.01112868939932e-20 -2.621968584131301e-20 -1.009564369283399e-20 
8.378881693317468e-21 -5.622397822404874e-21 -1.142596207917579e-20 -1.526691755130375e-20 -7.956547705935471e-21 
3.466856816234509e-19 -2.531579685746055e-19 -4.498105398663303e-19 -6.237624792396934e-19 -3.62382298005e-19 
2.136391667721259e-19 -1.523058691638151e-19 -2.697035533124915e-19 -3.633546324368627e-19 -2.242450780593579e-19 
1.98302841177893e-19 -1.441455952642178e-19 -2.510138210752912e-19 -3.488720386449545e-19 -2.009935018824682e-19 
1.033048172415116e-19 -7.371419221422009e-20 -1.281340602096315e-19 -1.789029423936653e-19 -1.072862779745128e-19 
1.918521901110899e-19 -1.444174882939349e-19 -2.908065814849688e-19 -3.980926577315067e-19 -1.773238201105516e-19 
6.422741509906656e-19 -4.667933164196274e-19 -8.532938198379447e-19 -1.194814986902455e-18 -6.554084959533154e-19 
3.727528010382277e-19 -2.701428237098007e-19 -4.900672780702234e-19 -6.917901328480505e-19 -3.932765154545953e-19 
5.228111713677803e-19 -3.764257455639738e-19 -6.893406789672939e-19 -9.79419609974098e-19 -5.256873640827367e-19 
9.553712471826075e-19 -6.811728540826553e-19 -1.365558545539072e-18 -1.903242554610899e-18 -9.681915087999286e-19 
1.392899143004801e-17 -8.762841517301131e-18 -2.622143655911065e-17 -2.660600667543956e-17 2.992532707358494e-18 
3.176819305968783e-17 -1.923281270304221e-17 -4.145774519602495e-17 -5.653165206582802e-17 -3.190912876553271e-17 
2.767126164388151e-17 -1.866553209430985e-17 -3.726817894933434e-17 -5.266131154606314e-17 -2.636279151110259e-17 
3.279785389979488e-18 -1.958427714205147e-18 -4.896808762171227e-18 -6.355939031198286e-18 -3.453837289520478e-18 
1.023483299960981e-17 -7.229482601804316e-18 -1.481947943376623e-17 -2.055995061221278e-17 -8.958152487393768e-18 
2.327885103544478e-17 -1.560472312113075e-17 -3.950978063326934e-17 -4.894419371933378e-17 -1.975067268824883e-17 
1.602136668895946e-17 -1.007344739270082e-17 -2.239072795945777e-17 -2.987825491271056e-17 -1.753441405398299e-17 
2.578991996201991e-17 -1.623846480463496e-17 -3.53862299500072e-17 -4.511015058981966e-17 -2.461635938401795e-17 
4.471659768873579e-18 -2.540357915773642e-18 -8.007672727517902e-18 -8.792832233812175e-18 -8.571032328537045e-19 
3.451536891883336e-19 -2.247865456860181e-19 -4.496019359333876e-19 -6.122798923896063e-19 -3.679399800502801e-19 
7.095126872361842e-19 -5.37184186659627e-19 -1.149476497319056e-18 -1.484459129583592e-18 -6.136427381608942e-19 
4.055960678414198e-19 -2.962961812011104e-19 -5.93183058899372e-19 -7.987671779903371e-19 -4.000564333497295e-19 
4.437209125043264e-19 -3.098319106565236e-19 -7.550190607209704e-19 -9.199405274391594e-19 -3.70146686620897e-19 
6.489753475488826e-19 -4.743734192981219e-19 -9.665829083644876e-19 -1.298693832389327e-18 -6.325990253684913e-19 
5.409323406174736e-19 -4.099088536238135e-19 -7.932679543700577e-19 -1.072515590903235e-18 -4.915082250179875e-19 
7.65111892139734e-19 -5.776680908132435e-19 -1.352976861469573e-18 -1.683155721456791e-18 -6.43180912374501e-19 
2.558194666520041e-19 -2.016106783868821e-19 -4.537509051987704e-19 -5.846715779612188e-19 -2.010955474095686e-19 
1.463896260781362e-18 -1.053735746063029e-18 -2.022718770102577e-18 -2.806056885942649e-18 -1.389626726821797e-18 
2.388858512945759e-20 5.158726005200553e-20 -3.843489338971084e-20 -1.403119625892199e-20 1.690676259350097e-21 
-4.736988662260374e-20 4.790402402251293e-20 -5.133975781012335e-20 1.461540085235227e-19 3.668459306128654e-23 
-5.080496530514679e-20 8.518007270004956e-20 -5.74523988727067e-20 -6.942399471682707e-20 -1.370693381608237e-19 
-2.868681503090803e-20 5.431564605068946e-20 -5.445598235872938e-20 -2.598983676010176e-21 -1.994469058061595e-20 
-5.322394536770311e-20 6.050286749005141e-20 -3.074686018011655e-19 -9.803298156999814e-20 -1.823293166836606e-19 
-4.23520239258479e-20 1.103790558154255e-19 -2.270057347594681e-19 -1.596079049896352e-19 -2.042463129191859e-19 
-6.449805372301607e-20 5.650152549942505e-20 -6.498930349980538e-20 2.466897095814581e-19 -1.73470257404676e-20 
-5.698604108767748e-20 5.875456416297817e-20 -4.114272744326793e-20 7.984118166574878e-20 -3.616314077127415e-20 
-1.72104579744098e-20 5.56471783691687e-20 -1.499076460628677e-19 -8.716354658541898e-20 -1.224064366575515e-19 
1.41103841635896e-19 9.263499485985961e-20 -1.864621805445462e-19 8.375501556763106e-20 3.248159423128421e-20 
-2.509855412926039e-20 1.523849505709189e-19 -2.196836366151897e-19 -1.919900874069553e-20 -2.078782690530741e-19 
-3.126939126735629e-18 2.74977168276006e-18 3.741747334888286e-18 1.221496433236149e-18 9.320692105148385e-19 
-3.99747505153899e-20 1.092498531996552e-19 -5.182039653166793e-20 8.963142393699796e-20 -9.145817741636797e-20 
-2.053932801683104e-20 1.030569905977529e-19 -1.128700529578552e-19 -2.442122464869335e-20 -1.611992764505406e-19 
8.189000020663572e-21 5.3792248952183e-20 -1.376141337435102e-19 -9.609113721853259e-20 -1.299944336515891e-19 
4.234522584677123e-20 4.994871531106371e-20 -1.927177608558141e-19 -1.117758636899615e-19 -1.424977891197054e-19 
-6.374022865005675e-21 9.497282038743956e-20 -1.79027522258174e-19 -7.945049219036379e-20 -1.785691910183699e-19 
-4.353836347868237e-20 1.917120646854075e-19 -3.173265509537181e-19 -1.849428375212426e-19 -3.723203473390011e-19 
2.777811071158611e-20 5.648750860870416e-20 -1.265060431645242e-19 -7.253933463477831e-20 -1.554436882204141e-19 
3.221177068872643e-20 4.460863036106082e-20 -1.365138069366561e-19 -9.610745938320735e-20 -1.16105459475901e-19 
1.709048457400833e-20 5.243912439679531e-20 -1.009559978600878e-19 -7.971043558698034e-20 -1.00134824138161e-19 
2.088881776254443e-21 5.021536006751403e-21 -1.57242695190929e-20 -1.216138921969062e-21 -9.275649171004827e-21 
-6.038276252759296e-22 3.397527988310763e-21 -1.917248200650179e-20 -1.756539100806083e-21 -9.800117896227942e-21 
5.016118165665598e-21 7.299031334691488e-21 -2.05257416958644e-20 -1.20511176217695e-20 -1.773045055110633e-20 
9.885049986741818e-21 7.429825005237549e-21 -2.349477001581747e-20 -9.342490279765064e-21 -1.698103983359524e-20 
1.071476626735494e-20 6.447148617724957e-21 -2.83350898568655e-20 -1.37669912390682e-20 -2.284713103073767e-20 
2.498125895618754e-20 1.090881822587998e-20 -4.479020737717433e-20 -2.618510756442617e-20 -3.680804781028363e-20 
-1.03832242688931e-17 2.448726357074708e-17 1.581193943315013e-18 -1.287593771982143e-17 5.794917187345014e-18 
-1.448493988549952e-18 4.796737126300349e-18 -4.760976519093155e-19 8.953740697810389e-19 -3.381308994891599e-19 
-1.112846179590595e-18 4.558149993240517e-18 -2.004772460992982e-19 7.09373870655632e-19 4.392569017924013e-19 
-1.618714634790486e-18 7.796203630326864e-18 -2.770001213007138e-19 8.402170758058293e-19 5.999261752434321e-21 
-8.714675384111318e-19 5.463388928009109e-18 -5.133786596677439e-19 2.008302887836044e-18 -4.867947338361041e-19 
-8.711404168926474e-19 4.353825107664307e-18 -3.038044611786046e-19 2.089205544889767e-18 -7.483768494626217e-19 
-1.073448910112178e-18 4.917862461847194e-18 -4.042591757693294e-19 1.512550970713997e-18 -6.013096956072513e-19 
-1.921878459032413e-18 5.106626147130201e-18 -3.133078468748871e-19 -1.866759180676868e-19 1.167194965278569e-18 
-6.743347229725342e-19 3.564004233614149e-18 -2.010281126912476e-19 9.024931922129849e-19 8.690352199109655e-20 
-3.61346140598678e-21 2.840554985673135e-20 -6.937109418263052e-20 -1.999884472760629e-20 1.786822985773855e-20 
-3.016069309343556e-20 4.481096592693296e-20 -8.206476628339607e-20 -3.368874151807323e-20 4.273388056032871e-20 
-1.413447370160295e-20 4.548847914099384e-20 -9.523773080566652e-20 -6.358446184252377e-20 -5.389691765447087e-20 
-4.039731157722187e-21 1.421616297376056e-20 -3.270702163018146e-20 -2.615690363516694e-20 -2.19642599743869e-20 
-9.381498690134723e-21 1.649425123140723e-20 -3.563673543209212e-20 -1.869271215766238e-20 -2.286405248655081e-20 
-2.354978561621377e-20 4.110633030965951e-20 -8.97355942675792e-20 -4.82432623817371e-20 5.193872084379197e-20 
-3.07472329297659e-20 6.764226366786843e-20 -9.160677916826937e-20 -3.390093397793701e-20 -3.239119905590545e-20 
-1.078196290882859e-20 3.390207929519014e-20 -7.017456522403467e-20 -4.426018324394398e-20 -3.844556736013762e-20 
-1.547984594988409e-20 2.596343821886615e-20 -4.22208819946882e-20 -2.09700651241628e-20 -3.925364884213759e-21 
7.655025809996996e-20 1.084822703764366e-19 -2.867640727789915e-19 -2.153685944806114e-19 -3.228636306400263e-19 
-1.566907468344517e-18 2.317152115165754e-18 3.071576184487542e-19 -1.695001313065407e-19 4.526080177364206e-19 
-6.195383191187801e-18 7.388617255855368e-18 4.767105463824412e-19 -1.331507067702561e-18 3.973021828844055e-18 
-1.169611867236382e-17 1.269348524528353e-17 -8.95545788080107e-19 -1.356914339077481e-18 3.840752555975746e-18 
2.276927729168861e-18 7.700089722850757e-19 -8.12543014669385e-20 -2.792850538423705e-18 -5.743464665873966e-18 
-1.139043245279805e-17 1.145233579577069e-17 -7.515074609366482e-18 1.394285964156546e-18 2.106996818740903e-18 
-1.70655280273668e-17 1.428432906474041e-17 -2.944056544954984e-18 -3.645012822130649e-19 3.814534732546833e-18 
-2.619477291164696e-17 4.116356468218702e-17 -6.477730037231821e-18 -4.355671485371129e-18 -1.017897622939933e-17 
-3.299782263577421e-18 3.080331857865142e-18 -2.695526582600304e-18 -3.156903737971719e-19 1.341415914979462e-18 
-7.418817005742145e-20 -5.434587387755273e-20 -6.738136190670099e-19 -6.892918859803077e-19 1.019048584246931e-19 
7.49949308288129e-20 -4.872077950124045e-20 -2.081555371523628e-19 -1.391503606663288e-19 1.540836827942333e-20 
9.200050023429113e-20 -2.669418547675983e-19 -1.14569286167713e-18 -1.178411063204219e-18 3.070437707734303e-19 
-6.480020811708653e-20 -6.585618778641819e-21 -1.502467332600523e-19 -9.33004372105898e-20 5.606510990129654e-20 
8.793251561629685e-21 -5.549112144217123e-20 -1.345568489491278e-19 -1.723749665275525e-19 8.549418786468863e-21 
9.232055879147609e-20 -8.769269812236072e-20 -3.231081802752384e-19 -3.043940842672687e-19 -3.490319099113035e-20 
-3.274983789418358e-20 -1.221800062037179e-20 -5.17848630370746e-20 -5.791081866990948e-20 3.164551387984806e-20 
5.052193133850581e-20 -5.229763954021209e-20 -1.609989264547213e-19 -1.454338596336942e-19 -8.671513021093369e-21 
4.58790187546819e-20 -5.576203827720123e-20 -2.222984253328953e-19 -2.111861726148681e-19 2.5284664991938e-21 
7.312292979246053e-20 -5.640010079192222e-20 -5.264982340568677e-19 -4.73674461000302e-19 -4.450936244261997e-20 
4.036903197479629e-20 -2.484686785196493e-20 -2.056768574944511e-19 -1.185966064222054e-19 2.118424209308373e-20 
1.39179248855958e-20 -2.317732618087342e-20 -1.15474624858358e-19 -6.623060748523164e-20 5.862857522849464e-21 
1.208721701506919e-19 8.365071309091263e-21 -9.32059917871957e-19 -9.006089063078811e-19 -6.378249707273264e-19 
3.49403530736245e-20 -1.209029348531979e-19 -2.075121672115771e-19 -2.615921338715574e-19 -4.196475531683648e-20 
5.663625449481807e-20 -4.762601817100619e-20 -2.904462910828184e-19 -2.516176852905696e-19 -1.345113813638971e-19 
1.768984372102869e-22 -2.732915442179209e-21 -3.231094648127209e-19 -1.914942876817412e-19 5.631749406270468e-20 
3.070309128481962e-19 -2.404099664599917e-19 -6.550374280703303e-19 -6.464144945240209e-19 -2.845176284176343e-19 
-7.60843026271594e-21 -9.088672346791342e-21 -3.286171744403094e-19 -3.033041658598855e-19 -6.963040355750657e-20 
-4.674952688553927e-17 4.177530242516897e-17 1.075122528224204e-17 1.601131201991994e-18 3.104368910458809e-17 
-1.81237203818657e-17 4.960629487047385e-17 -9.482660369088608e-18 -1.275346091588106e-17 -1.125680341105891e-17 
4.193958330390287e-17 -4.993435496125644e-18 -1.438606154961663e-17 -2.442251631954837e-18 -3.068650233425568e-17 
1.269929977933852e-17 -1.200735126929768e-18 -7.709078771191315e-18 -2.178654003382158e-18 -6.938854262316615e-18 
-1.689324488126715e-17 1.669901820019405e-17 1.906505453703827e-18 3.612348273907207e-18 9.273909797804768e-18 
-7.03620933393251e-19 1.289909499334054e-18 1.557935754764297e-18 2.636994120441933e-18 -6.415520880581436e-19 
-1.171770361684244e-17 9.588460264877619e-18 9.302382507347234e-18 2.271223177198725e-18 4.392808185110854e-18 
-1.579201691112594e-18 3.974089279726284e-18 2.679231291133889e-18 5.536900870202143e-18 8.898412625484266e-19 
-1.328469701816567e-17 9.793818913952303e-18 1.04467411794627e-17 9.531151329477356e-18 2.821457388455061e-18 
-1.043888125546928e-18 2.024884852230418e-18 -1.138265969443295e-18 -1.63865291314367e-18 -4.002437905476836e-18 
-5.494433978971323e-19 1.960127615937029e-18 -1.285209540331586e-18 -4.575293256504507e-19 -3.999417807152229e-18 
-3.682843002904188e-19 9.934584662163684e-19 -6.479949474459598e-19 -2.884125232044413e-20 -1.466712265466535e-18 
-2.809918266342957e-19 6.411084077281766e-19 -1.056343186601883e-19 6.240131749164551e-20 -1.018360814885931e-18 
-2.735193806421277e-19 1.156883860241099e-18 -1.025020011129088e-18 -8.106094739457117e-19 -2.346327954050496e-18 
-2.209937903532303e-19 9.203169713869621e-19 -9.983590138786281e-19 -5.547962829086081e-19 -2.168390093387284e-18 
-4.897100781591146e-19 8.030668893937337e-19 -7.354178769187455e-19 -2.709294662139424e-19 -1.147556901934862e-18 
-5.545997578320246e-20 4.084864541196048e-19 -6.392729556144818e-19 -5.383660092613156e-19 -1.029697418921172e-18 
-1.476207583635374e-19 2.462699839789009e-19 -3.043433338106969e-20 1.067335974816264e-19 -3.096059283316982e-19 
-1.808150260283868e-20 -5.313668779415829e-22 1.000563656656192e-19 9.13779421405685e-20 4.528346023722466e-20 
-1.681197536307239e-20 7.536208802848446e-22 6.304428032445329e-20 1.141764395809445e-19 -3.097275221009028e-21 
-6.164762432906608e-20 2.672154688168936e-20 2.619427988050177e-19 3.141269003893291e-19 1.502919429570371e-19 
-2.036544699730206e-20 -4.384498843952976e-20 1.437149304715133e-19 2.002073394982102e-19 -5.665176795594489e-20 
-3.458259222900446e-20 -5.087197161766375e-21 9.413121939767166e-20 2.350216345124694e-19 6.348712205519841e-21 
-8.40133177070397e-21 -2.108336710297165e-21 5.063912182647671e-20 -1.358937067249924e-20 3.082082644040865e-21 
-6.168467510303925e-20 4.12420919095579e-21 -9.276794957436721e-21 1.933080391091851e-19 -1.779151724843152e-20 
-4.795928837820683e-20 3.550969396554865e-21 -9.41757461822202e-20 2.105799763529612e-19 -1.10221440792644e-20 
-3.846871928933031e-20 -1.89271605933478e-21 -1.233662787346608e-19 1.669366454052881e-20 -4.864332314395588e-20 
-3.613337344429831e-19 -1.04854220389225e-18 3.459224315341613e-18 7.773069888083333e-18 -2.262719466567909e-18 
4.95238105254336e-19 -6.682143336745025e-19 4.177437123225631e-19 1.024489918681904e-18 -1.636315352255153e-18 
2.288292711335059e-19 -1.960667986975263e-19 -1.342740372806008e-19 5.657760280828655e-20 -1.987243375826006e-19 
5.933786937872023e-19 -9.251479506108528e-19 2.679030956161507e-19 1.930005140245685e-19 -1.304211078204448e-18 
1.019372315264112e-18 -8.447514080028404e-19 -6.987255021267369e-19 -8.171640275371904e-19 -2.108466351285266e-18 
1.745830024639574e-19 -1.743127691459764e-19 -8.976287202728301e-20 -4.459069074269681e-20 -3.434571250973173e-19 
1.310038288735897e-18 -2.14346213579485e-18 3.916675550748993e-19 8.65059297280062e-19 -2.240407153546103e-18 
3.037059319082996e-19 -1.518115214782055e-18 -4.247972815275114e-19 6.211952603070558e-18 -4.916097004909012e-18 
2.75826644273687e-19 -5.103727959520795e-19 7.847330350594426e-19 2.142334853729431e-19 7.693188218734676e-20 
-1.577168166959648e-20 -3.401902968600985e-21 1.11282488867241e-20 4.858901920757617e-20 3.761860056286076e-21 
4.215154708616048e-22 -3.153500617767425e-21 -6.818545982913367e-21 4.568389407982572e-21 -5.945157668326206e-21 
-1.486417536294579e-19 1.050981269220851e-19 -3.696376411495019e-20 1.637525176797943e-19 1.403215746767664e-19 
-2.978099922662859e-19 4.657620887536568e-19 3.050511857401156e-19 7.810273958963154e-19 2.100222310674886e-19 
7.851444112912499e-20 -8.043594070339043e-20 1.719876766510009e-19 2.564495422921532e-19 7.435837726692534e-20 
1.533514440096493e-19 -1.401369229438824e-19 -1.488453628177788e-19 -2.071036228477873e-19 -9.947598832954445e-20 
3.453327431621544e-19 -2.804776977931003e-19 -3.190042342116112e-19 -2.578222318416045e-19 -2.7572795933759e-19 
1.937937774504933e-20 -1.217217712706894e-20 -1.73268862082203e-20 -1.22145560884064e-20 -2.161268142068856e-20 
3.326295082850633e-20 -2.412789992915856e-20 -3.469507357284254e-20 -4.068240122362572e-20 -3.873794642428375e-20 
-3.065904584134376e-18 -5.105048414058276e-19 6.880314430177951e-20 -9.525071523988945e-18 3.645669969513962e-18 
-2.320107792424718e-18 -9.48158284062694e-19 1.848613729301795e-18 8.419275277944081e-18 1.212589947609571e-18 
-1.956191260082821e-18 -2.887166433732701e-19 7.444066249223992e-19 -1.508441593734991e-17 8.649810115199607e-19 
-1.252572542621929e-18 -2.458846490765044e-19 -7.478394461108085e-19 -1.007676331004254e-18 -1.028312291295029e-18 
-3.267660667208364e-18 -1.440777235773637e-18 4.451661030265994e-18 1.235543651893707e-18 -2.255193114665749e-19 
-6.505031912531754e-19 -8.161014783254395e-19 3.622851763825536e-18 1.780425305294096e-18 2.422894054278754e-18 
-9.585128316697795e-19 -3.405426529422935e-19 9.550622714471811e-19 -6.455954805417213e-18 -1.050349966642493e-18 
-9.784666061373231e-19 -4.406466860904494e-19 2.329865614121662e-18 -1.583683390947812e-18 -1.31037152347724e-18 
-3.489890679576312e-19 -3.126979524491382e-19 1.226917421550206e-18 3.599885888192665e-18 7.028288593558671e-19 
4.318844064715599e-19 -5.570868180909952e-20 2.481707930015763e-19 4.675180207425142e-20 -2.295439195693221e-19 
7.021725522921423e-19 -1.031872429232046e-19 1.113004693535806e-19 5.909327961280946e-20 -5.12300236849174e-19 
1.523308049551992e-18 -4.687577657832996e-19 4.776638090961782e-18 6.874099340371512e-19 -1.039780457173468e-18 
9.846423722398181e-19 -2.276011729844624e-19 8.884529052978575e-19 -4.915607852204373e-19 -1.007973775678944e-18 
8.833177419735764e-19 -2.293028309170144e-19 6.358169009728719e-19 -5.225232414919447e-19 -8.558967122330566e-19 
2.613729841227072e-18 -4.227265660436467e-19 4.061250326107982e-19 -7.942300652224438e-20 -1.065233518707896e-18 
7.403052511957688e-19 -1.411241024750483e-19 1.181665038932005e-19 3.129795767607179e-20 -4.253537879363599e-19 
8.162267617689857e-19 -2.019258574306113e-19 7.830122821934679e-19 -2.170688611682288e-19 -6.547218117496031e-19 
4.090598827342367e-19 -6.125990998149948e-19 4.881275531892318e-18 -2.584233163335978e-17 -2.89449170927347e-18 
-1.112085409891648e-17 4.714070547658066e-18 5.986604576322555e-18 -1.030481365534829e-17 -8.457401507482145e-18 
-7.92531273449949e-18 -2.920915487333377e-18 1.550223700282707e-17 2.776438730898852e-17 2.192347169998781e-18 
-1.336609508622776e-17 -3.759430969994469e-20 8.903699336724638e-18 2.338248911319696e-17 8.570542780810325e-20 
-3.044331946576954e-17 -1.160624865601853e-18 -4.15315991466728e-18 -1.910815000380528e-17 -6.187695452876566e-18 
-1.902258419949588e-17 2.884435707232225e-18 3.019867258636023e-18 -1.220308297687027e-17 -9.59353923411713e-18 
1.886697486359503e-17 -1.860069795631202e-17 -3.780878747037791e-18 1.804693666441057e-18 -1.559661908743822e-17 
2.728335572041654e-18 2.002176946395213e-18 5.738210116577352e-18 -6.270681248817907e-18 -4.521886646459993e-18 
-2.159665803109363e-18 2.82867648842262e-18 3.706650655845989e-18 1.752644161088822e-18 2.531085778023483e-18 
9.881726452990547e-18 -7.744774907778435e-18 2.036981118472651e-18 6.796733446134535e-18 -1.37124333471699e-17 
3.475435407369522e-20 -1.199379611193998e-19 2.299819307898653e-19 1.546758333274055e-19 4.31888517261735e-20 
-1.830017387681943e-19 -9.724784517182801e-20 7.749273200461196e-19 7.897153014325631e-20 3.791176915956495e-19 
-2.532000999386523e-19 -1.526564113785039e-19 -4.137277747189678e-19 9.586211575756869e-19 1.162919629135515e-18 
2.515759109964879e-21 -6.800482608821237e-20 4.386316261550877e-20 3.871620362813991e-20 1.462937888840167e-19 
-2.843229793985765e-19 -7.488578991680073e-20 4.220741389575817e-19 7.517610953101925e-20 7.970422001234548e-19 
-5.671937479326035e-20 5.073634293080965e-21 -4.348598346376375e-20 3.642139166683075e-20 9.172488133916006e-20 
-3.940508237010406e-20 -6.587620535360844e-20 1.09445893041744e-19 4.44191470356247e-23 2.526133511759268e-19 
-1.252501012299876e-19 -2.347417066298255e-20 1.671066919110406e-19 7.055583882071579e-20 3.794884267889433e-19 
-2.762352083220197e-19 7.673967843996843e-20 -4.900490347127725e-20 -8.015397915499479e-19 3.419285041894016e-19 
1.250273303939632e-19 -1.629185636608223e-19 4.468953388328451e-19 9.650968724478732e-19 -5.695716570262085e-20 
-9.044403009934023e-20 1.294322036627668e-20 1.270256395661289e-18 7.379562487265278e-19 5.24276387817684e-20 
1.195319494534789e-19 -2.137844726140218e-19 1.385152954005486e-20 -3.992227082467715e-20 3.693465894215684e-20 
2.617654508069585e-19 -4.260445577717946e-19 -2.331372437322912e-19 -3.286155796029145e-19 -6.076680173588363e-21 
3.649830670356056e-19 -6.105787229529882e-19 -1.721071766641446e-19 -1.412606259873465e-19 1.785022011864768e-19 
8.249088459897891e-19 -9.031650283384083e-19 -2.894414470812134e-19 -8.749643015519661e-19 -5.621614220852394e-19 
4.942231871942096e-20 -6.939548647346458e-19 4.465294435338744e-19 -3.047880854352621e-19 1.005811708943382e-18 
1.755364098252207e-19 -6.254601994083253e-19 2.750286171501354e-19 -7.661780372127288e-19 6.821951688684467e-19 
5.628882365500053e-20 -8.000593757369183e-19 6.30889390664118e-19 3.279340965927255e-20 1.590723051362357e-18 
-9.847126580346884e-18 1.166616106766138e-17 1.90162627318134e-18 5.950740548279058e-18 -9.664132502691844e-18 
-1.107514870156636e-17 5.404800460398986e-18 -7.143771530733816e-18 -1.503213521944084e-17 -1.622189877052926e-17 
6.096264417217534e-18 -5.495617544254994e-18 1.457271052135423e-17 4.845538498432395e-18 -3.746234968896983e-18 
-2.300247014415893e-17 1.332476488228551e-17 -5.359856081693472e-18 -1.600988077825285e-17 1.095030328626596e-17 
-2.301740682129028e-17 -9.265132773192858e-18 3.178272958491799e-17 1.930095415077044e-17 4.209489857204298e-17 
-6.426295088446523e-18 -4.459030283389953e-18 -1.415288006245435e-17 -8.754974680705885e-18 -6.806002048672268e-18 
-2.004480046090822e-18 -2.986814075366759e-18 7.18811033359756e-18 -1.883685763229403e-19 -1.682146454154046e-18 
6.530618252186669e-18 -3.439587551070659e-18 2.03703720693653e-18 4.55990496449625e-19 -1.158033643829256e-17 
-9.96839620754194e-18 9.599912724721438e-18 -5.158087171880329e-18 -5.038452742742533e-19 -7.589424558536222e-18 
-8.610125468643153e-21 5.47852341521371e-21 -8.018636339460278e-20 -4.71960237771317e-20 -6.555075968092194e-20 
-1.136809321498682e-20 1.08558596163063e-19 1.665810441871825e-19 7.185445768904529e-20 -2.42343210262585e-19 
-1.645013373695874e-19 7.763871070175977e-20 -1.279888538029037e-19 2.345538279750368e-19 -1.517161178177486e-19 
-6.501181011409167e-19 5.984788221449058e-19 1.982112788033864e-18 1.07744914849367e-18 -7.224866955795309e-19 
-9.699009859100067e-19 1.785474251451472e-19 1.39766920222237e-18 2.974529491125987e-18 -1.655158139363581e-19 
-2.251203729957652e-19 2.026731803496385e-19 3.767358686324851e-19 5.248989747685781e-20 -5.494705912415998e-19 
-3.283780414316743e-19 1.424036452604427e-19 6.623111119386648e-19 8.810086126295831e-19 -1.641471221479676e-19 
1.321499454239352e-19 3.186808372183516e-19 2.060716065382574e-19 7.719849955753724e-19 -4.851314381667179e-19 
-4.089839674004108e-22 2.483889666562732e-19 7.031548221794919e-19 7.733871357832632e-19 -4.29467865900553e-19 
-2.812871038050191e-20 -1.249843821345414e-20 1.282668636534525e-19 1.104321194742038e-19 1.110961724913855e-19 
-6.042578696632353e-20 4.530073738474911e-20 5.422344417756155e-20 1.32914147223338e-19 -1.705927920466819e-19 
-6.144547596051263e-20 9.208812195503339e-21 1.331602021220834e-19 2.094788681044498e-19 -1.6248347090722e-21 
-2.049291243871084e-20 -9.989331271575931e-21 -9.571761182855572e-20 2.170463913675594e-19 -1.684791533358185e-20 
-2.928111822894492e-20 -4.007057820119022e-21 5.421969322548776e-21 1.164915719036538e-19 -1.261571508550373e-20 
-1.59891249494442e-20 -1.498420988908924e-21 4.230186391260926e-20 7.257814981025782e-20 -6.57870638049189e-21 
-1.927008619662995e-20 -2.094882357104208e-20 -1.208425287930999e-19 4.685214060740814e-19 -3.564828353693912e-20 
-6.330760375945976e-20 -1.899141591646294e-21 -3.366419534686672e-19 3.078175560844851e-19 -8.929133640607707e-20 
-1.447131442855793e-20 -4.437825754998211e-22 3.047959670342932e-20 -2.43010245878666e-20 -1.007069324136636e-20 
-1.754178872713772e-18 1.727776174660042e-19 7.181643790929615e-19 5.100549278702931e-18 -7.93008274911797e-19 
-4.446483585622328e-18 -1.56342609637102e-18 -1.237189436290782e-17 8.237662414812818e-18 -6.066618048135778e-18 
1.94517054481688e-19 -5.926107151882143e-20 2.756139310679973e-20 -2.571639970605182e-19 -5.74795652329917e-19 
-8.414419855700441e-19 1.252054546110626e-19 -3.835842647643696e-18 7.770530330475004e-18 -3.368496841077069e-18 
5.45096727143482e-19 -3.985289596012335e-19 -1.349683427228207e-19 -3.872078533384268e-19 -4.01670696168426e-19 
7.425042615051652e-19 -7.462150615249383e-19 -6.217893393983687e-19 -4.131297030536402e-19 -8.591276283538808e-19 
6.252491803870977e-20 -7.52942284577252e-20 -6.095710256380521e-20 -1.0436663717284e-19 -7.831440029570617e-20 
-1.889502451039235e-19 2.229830706107484e-20 -1.130104118163922e-19 -3.707563224724757e-19 2.527333437660508e-19 
8.503549862990326e-20 -6.053325534343784e-20 8.925480259500663e-20 1.219333001177852e-19 -2.011727585774374e-19 
6.934720901618771e-20 -8.200382878096771e-20 1.404774349774035e-20 -1.747059733134034e-20 -1.7480743037583e-20 
9.342860691430224e-20 -8.709081368292568e-20 -1.480085349692504e-19 -1.514158413990641e-19 -6.874914876444568e-20 
-1.55496987817707e-20 1.138531793425131e-20 7.752363970773714e-21 5.621365029998474e-20 -1.223648115139224e-20 
1.659563599087313e-20 -1.668419286678251e-20 -2.087200742657097e-20 -1.712025346762072e-20 -9.618538414806127e-21 
2.934423432448996e-21 -9.374064623439346e-21 -7.63932079226395e-21 -9.928406786790071e-22 -3.582374686104153e-21 
3.218064580632147e-20 -2.435644411117291e-20 -3.309834785968501e-20 -4.575614080147572e-20 -3.509391899202527e-20 
1.632974249835672e-20 -1.282696986224182e-20 -1.555077547447712e-20 -1.238269543582025e-20 -1.32294584385978e-20 
5.128090765210419e-20 -3.418684081305355e-20 -5.644722264324804e-20 -7.595952038731354e-20 -6.704933501169962e-20 
6.580459334703421e-20 -5.36176072520004e-20 -6.944013025906972e-20 -7.650380514345305e-20 -8.251613670031245e-20 
-1.723931346333412e-18 -1.483411166756156e-19 -3.059736214663876e-18 6.650724899460651e-18 -8.251795244296742e-19 
-9.33032806897615e-19 -8.25705602109703e-20 -1.957134957617085e-18 2.534157224380909e-18 -7.55641862176514e-20 
-1.379155651135518e-18 -4.444073296624191e-19 -1.863622319774219e-18 1.852134577145604e-17 -8.189816395466888e-19 
-7.354976816606651e-19 -2.990305262079283e-20 -1.770098121773545e-18 6.223048921361568e-18 -3.131180076338618e-19 
-5.144642490304499e-19 -7.643865194875692e-20 -6.167160482673828e-19 2.288603306696185e-18 1.057870124332623e-20 
-1.270248961866245e-19 -2.709968705496447e-20 -4.537473832663751e-19 3.276858909356767e-18 -1.259567116616408e-19 
6.323830613351146e-20 -4.673146566739693e-19 -6.897499228812665e-19 3.071192309096263e-18 1.485833020843673e-19 
5.768501888268688e-20 -8.041137709466888e-20 -9.776841065173543e-20 2.325305331969812e-18 -4.931915598952907e-20 
3.884849763538113e-20 -1.196043860971778e-19 -1.36244511954897e-19 1.29903041813052e-18 5.700517272385589e-20 
5.075425346824418e-19 -4.49994942500322e-20 3.578818642781355e-20 -2.062285080980282e-20 -3.937458903280659e-19 
1.935332587937636e-19 -3.518471102139748e-20 1.092998966026074e-20 -1.02179531169142e-20 -2.996805750698836e-19 
3.514814337246847e-19 -3.87509570145265e-20 2.494988554985461e-20 1.678529805242285e-20 -2.280226751303019e-19 
5.097113618472858e-19 -4.858569066892866e-20 -7.86088849681748e-20 4.865106433855575e-20 -4.017137312321137e-19 
6.942734605544238e-19 -1.664786856338751e-20 -1.379614806495832e-19 1.181387676505815e-19 -2.917716413455771e-19 
-8.033168598245243e-20 1.449362386505673e-20 -1.205147292220894e-19 -1.740949311353731e-20 -2.850185394066476e-20 
4.266627966205546e-19 -2.331587159455274e-20 -1.077849048857097e-19 1.904926713222701e-19 -4.784210257777716e-19 
2.021387491153851e-19 -4.262285063933253e-20 8.697485345655746e-20 1.410832943431385e-20 -2.144280515299523e-19 
3.476953196703497e-19 -1.079556998671453e-19 4.87327919423679e-20 1.311398164176463e-19 -2.503817679450986e-19 
-6.191735659244457e-18 3.928563676470707e-19 -5.077333666123556e-17 -1.910760687828262e-18 -1.503718214359564e-17 
-4.571229153326245e-20 4.831989501900163e-19 -3.63403143247198e-19 -2.385145046732684e-19 -1.410365167376022e-18 
8.299674934631829e-18 -1.290290338799628e-17 3.494055355991441e-17 2.51377653383708e-17 1.757674017342843e-18 
7.930218328627808e-18 -1.39791670151244e-17 2.179246714971409e-17 1.510605838815735e-17 -9.473819364170116e-19 
1.541663325187293e-18 -1.000282117622155e-18 -9.437605173299821e-19 4.239587768450404e-19 -1.279125616920986e-18 
2.292176634902486e-18 -2.361221743894515e-18 6.752998047131994e-18 4.045093938730295e-18 8.281603818816328e-19 
-7.144332490658305e-20 -5.294112103537011e-18 -1.286725035374934e-18 1.653851128284071e-17 -5.357928172749785e-18 
1.072401414117024e-17 -8.364024015909964e-18 -3.215406617002283e-18 -2.826718946574286e-18 -2.05403791205356e-18 
1.605670415291871e-18 -1.035359917165828e-18 -1.578028329355297e-18 3.381224521018838e-18 4.784538904342435e-19 
2.6087123388076e-20 -2.001217350950544e-20 -2.32806474999137e-20 7.784018735386277e-21 2.061138563066278e-20 
-1.816381646159976e-19 2.406225707229771e-20 -1.602822163496253e-20 2.350597827894169e-19 4.94824952566142e-19 
1.127066131179107e-19 -7.738734969767964e-20 -1.474720127503313e-19 -1.498269663986993e-19 -1.003802420789907e-19 
-9.4438707653482e-20 3.42338704067183e-21 3.900819739470455e-20 5.330395748045529e-20 1.319244653408416e-19 
-1.100698786086337e-21 -8.542158397348041e-20 -2.839643235421162e-20 7.253097199978616e-22 1.468545846684618e-19 
7.470964158085951e-21 -3.392272426248762e-20 -7.814633484568911e-20 3.853264946470491e-20 1.00779448052163e-19 
-2.447468145283661e-20 3.370846782688206e-21 -8.219039738525841e-21 8.15852549347154e-20 5.908335457073792e-20 
-5.922861067118081e-20 -1.898080452602902e-20 -1.682795025411371e-19 7.52476134236495e-20 1.865644039409662e-19 
-7.238249589110696e-20 1.9442802712492e-20 -1.201072252771312e-20 1.561005836827942e-19 1.679144213916843e-19 
9.64675794810868e-20 -2.095513861196701e-19 1.565709483593109e-19 2.975154641624207e-19 -1.302654367971289e-19 
6.539625073268158e-20 -2.96148556039786e-20 -2.223189052755414e-20 8.323777085809813e-19 1.506651595775665e-19 
1.091337832521686e-18 -1.128472719957396e-18 -1.180233974487533e-18 -8.504855929756669e-19 -1.188537843965509e-18 
6.072262568450163e-20 -2.81199791085681e-19 1.297712127159054e-19 3.103420036975812e-19 2.897943542450769e-19 
-5.537815037836486e-20 -1.605688572713699e-19 8.571668422668924e-20 1.388165906843359e-19 2.236312162954898e-19 
1.267141284899001e-18 -1.146328323635143e-18 -1.914868812877437e-18 -2.699075503254655e-18 -1.342660617579579e-18 
-1.841612084614869e-19 -2.315724238662109e-19 6.103110689477063e-20 -9.190626274703355e-20 3.770797287588457e-19 
-3.21883993343677e-20 -3.516006969306469e-19 8.863702425845631e-20 2.297725775417031e-19 5.620895825501269e-19 
3.213180435940242e-19 -3.891542268006798e-19 -3.646135513689016e-19 -1.546741470869976e-19 -6.693418995179323e-20 
-1.45140474115822e-17 1.132788862012256e-19 1.663040580241843e-17 2.620287524103116e-17 3.30533094521351e-20 
5.410700895656458e-18 -1.659419376313418e-17 1.59948415138583e-17 2.660803075856199e-17 -1.771436515210236e-17 
-3.266912832366184e-17 -1.208726344808188e-17 5.802524470182923e-18 -1.456601490012764e-18 1.019366081932805e-17 
-2.871109866511139e-18 -2.469842332997116e-19 -9.308757867247714e-19 9.909508537014738e-19 -1.408202356233796e-18 
8.618217025477839e-17 -8.019212128337456e-17 -5.223741564775783e-17 -3.510398461463623e-17 -9.67086566334469e-17 
-1.917249003769484e-17 1.491870777073616e-17 5.189032957326036e-19 1.657727758748006e-17 -1.975507352250163e-17 
-9.936270747441887e-18 5.421103139613601e-19 2.22687978503361e-17 2.464206846072628e-17 1.19336716599916e-17 
-3.729426703452339e-18 1.206379697595521e-17 2.274375218052396e-18 2.084358499238399e-17 -9.728105440463984e-18 
-2.970121786958182e-18 -3.474601097415757e-18 -1.950877451249354e-17 -2.655757774268266e-18 -1.222810727151726e-17 
1.24431415052191e-18 -6.157576155297228e-19 -3.8538465101034e-20 3.716813916530827e-18 -1.113432385682894e-18 
9.126032915538121e-19 -4.597813481741137e-19 1.191087608007223e-18 1.591709459924942e-18 -5.558540234551738e-19 
5.190582449380845e-19 -3.20041960797994e-19 1.093402715373444e-18 6.214416004737659e-19 -4.384884509430746e-19 
-3.9935502967148e-19 8.707802110784723e-20 -1.201818292505306e-18 1.170188510471479e-18 -3.054240603032995e-19 
-1.436084142092979e-19 1.500988868509292e-19 6.411465404751022e-20 5.14903128525539e-19 -4.304622762934235e-19 
-2.532694583933077e-19 3.695335414698755e-19 6.736217042577969e-19 1.399478565142209e-18 -3.083457143120268e-19 
-3.342102274194114e-19 4.493556008984242e-19 -2.505035024129671e-19 1.754568143056937e-18 -4.694793812387961e-19 
-2.957657413826081e-19 4.270598675645569e-19 2.704050764978858e-20 1.116630415850537e-18 -3.958333421074755e-19 
-2.135200958177258e-19 3.174839387333796e-19 5.338328244730382e-19 1.233552143832066e-18 -2.43336667278298e-19 
-3.494524007964344e-17 -1.489146123809676e-18 3.106409951392671e-18 4.091950020625518e-18 3.766426483910326e-17 
-1.241189693117587e-18 -2.394750753763802e-19 5.156727619133816e-18 4.445771639461682e-18 2.285347846811653e-18 
-4.190856003433085e-18 -7.301353828525921e-18 -2.582160207186363e-18 -1.0821967737227e-17 2.646865872703267e-17 
9.917943171872613e-19 4.916467706411503e-20 -7.561046944276408e-19 -1.465504450266508e-19 -2.170947337937172e-19 
2.051904220707416e-18 -1.628514275982642e-19 -2.276100157407194e-19 -4.548395756301839e-19 -8.841225205666669e-19 
2.685081832538962e-19 -1.250585026424738e-20 2.071056159411406e-19 3.922067732940484e-20 3.613431986615596e-20 
3.584950031271653e-19 9.29914600911374e-20 -1.695311344302164e-19 -2.228982449306147e-19 -2.703616234271408e-19 
6.705853930761669e-19 1.061394940147084e-19 -6.100575155885531e-19 -4.00341147453952e-19 -5.263667408683052e-19 
7.554616811687953e-19 -1.318473181480624e-19 3.545655192293966e-19 4.46899153127221e-19 -1.96176239588426e-19 
2.46856030087823e-17 1.497831948110148e-18 1.588804366346065e-18 1.390252491609975e-18 -2.351920832881857e-17 
-4.837029643299876e-19 8.691344882970464e-19 1.942790518092297e-18 2.40813222356313e-18 1.862320253349562e-19 
-9.35634728790304e-19 3.477233903811685e-19 -9.720279667281918e-19 -1.876413436089926e-18 4.651086418908275e-19 
-8.55930049854269e-20 4.036898990196657e-19 9.229429609820005e-19 1.080390761405525e-18 8.3717635374732e-19 
-1.103951378909256e-18 -1.150111022186895e-18 8.816930640719e-18 7.341892784866783e-18 4.395827022255316e-18 
3.442027889846641e-18 -5.128130946064196e-19 -1.315577661993282e-18 -2.05217702271283e-18 -5.858989957754005e-18 
-1.557570216365064e-18 4.918719924593032e-19 -3.90939215735546e-18 -3.47940891891608e-18 -1.501513930235256e-18 
1.414447573420706e-18 -2.678000179002606e-19 -9.286964964275208e-19 -2.102808316607089e-18 -3.229591972346358e-18 
-2.380343567945032e-18 1.286535022792571e-19 2.549171138216226e-18 6.210038561444064e-19 1.386452794594535e-18 
3.598265467500309e-19 8.463085070136234e-20 1.349561186802698e-21 3.822180586193394e-19 1.847393991422551e-19 
-2.907394091879537e-19 2.035175282056136e-19 1.693091932105335e-19 6.206947629764453e-19 5.769579750089338e-19 
-3.153963486045268e-19 1.271462095239235e-19 2.483926381923853e-19 6.636216566663033e-19 6.770694536909583e-19 
-2.25322411335711e-19 1.522972555005534e-19 3.057837120684425e-19 4.145185576375148e-19 3.964179982224206e-19 
-2.290568554971611e-19 8.916817597514282e-20 2.636778022985998e-19 2.403294001798534e-19 4.406849105487861e-19 
1.643794805674409e-19 -9.285858308634317e-20 -2.114299922731356e-19 -6.894398359672537e-20 9.457366470228175e-20 
-4.972362414187248e-19 -6.224702934543458e-20 4.465986967510486e-20 3.284950098124519e-19 1.373226480935393e-18 
-1.714709079653662e-19 9.239082511040716e-20 2.841905832301379e-19 4.557240544131263e-19 4.228989712101679e-19 
3.7553962869459e-20 -1.979619992564263e-20 5.181171607747056e-20 4.679147709680454e-20 2.123897386708548e-20 
1.251024940676345e-17 -2.018961971210554e-17 1.593634390730464e-17 1.049061474370732e-17 -2.48562560706856e-17 
8.744376826705509e-18 1.351617032125738e-18 -7.496199403549608e-18 -3.497986388901297e-18 -4.407501517797398e-18 
2.142261282264497e-18 1.576452579118641e-17 -6.926037939851268e-18 5.443857029782488e-18 -1.012251854970301e-17 
-1.34497525709481e-17 -2.513645976843426e-18 -6.589811947389281e-19 9.250843741086137e-18 2.457278078475444e-18 
1.9317651213135e-17 -1.12334584193194e-17 -7.956480127770154e-19 1.53705024762268e-18 -1.286457339674953e-18 
-1.557510534235062e-17 9.849199431902916e-18 -6.979892249679817e-18 -3.207191871797744e-18 -1.196814475257873e-18 
-1.07984346911962e-17 -9.420107165040092e-19 3.23498130314869e-18 -8.255322313929745e-18 1.343263799485146e-17 
-1.132927919668837e-17 -1.466555605565267e-17 8.140267306282687e-18 -4.179226447733407e-18 1.855469465484743e-17 
-2.536036277426427e-18 -1.041504291089295e-17 1.059627791830485e-17 5.516644570462155e-20 8.171911408567911e-18 
2.070608444253146e-18 -3.798848345861032e-18 1.299453931998323e-18 8.390968966233964e-18 3.671597163148452e-17 
1.233129084395963e-18 -1.915119366325623e-18 -8.022169855513217e-20 1.84758400250122e-18 1.649815385727876e-17 
3.524077979534304e-19 -8.153060126057267e-19 4.97564743949287e-19 2.517153073140022e-19 6.46728410425993e-18 
1.494934410592832e-18 -2.256923145955052e-18 2.310213731825496e-18 2.657692988260067e-18 2.151172860660271e-17 
8.325391285527228e-19 -8.183138281263928e-19 -2.820449556963128e-18 1.752664090883295e-18 1.353825385833145e-17 
6.496892689696182e-20 -2.987553565453301e-19 -9.042854913632062e-20 2.137745722625372e-19 3.133976024550742e-18 
1.033697376537902e-19 -2.339259372741237e-19 -1.049220460124632e-18 7.522492724970611e-19 4.989053870012002e-18 
2.044360638480795e-19 -5.571730338449734e-19 -1.746105571764146e-20 4.256627612135756e-19 5.258175631253792e-18 
5.124897943317489e-19 -5.399008849280257e-19 -3.165241241997487e-20 6.777332561637493e-19 5.705348322621867e-18 
8.261793932738337e-19 -1.285815609519158e-17 -3.665408792676254e-18 -6.972753789804987e-18 1.296440890236701e-17 
1.742448204428364e-17 -9.623742017799041e-18 3.652282388831278e-17 1.833234058470376e-17 -1.373307346087978e-17 
-2.381508986069501e-17 -2.927924589490682e-18 1.693567020696276e-18 6.716516717276449e-18 -5.155926425600318e-18 
3.001203829097957e-17 -1.199027799913585e-17 -7.759174950184381e-18 4.730308805573224e-18 -3.429779105507683e-17 
2.194864496902324e-18 -5.749408238089155e-18 -3.491198247871249e-18 4.897017303106667e-18 7.226162537711714e-18 
-1.980739341067998e-17 2.206789459294076e-17 -8.406286204249498e-18 -1.473985727682203e-17 4.440299270749741e-17 
1.212536013669347e-17 -1.933770700769798e-18 -9.456852075644537e-18 2.956443622233778e-18 2.150021221676896e-18 
-2.133910051063076e-18 1.819467734951148e-17 8.140817587576659e-18 -6.930973865448851e-18 -3.922318069078693e-18 
-2.679311821690346e-17 1.742346954891882e-17 4.30699890305335e-18 9.990636973955066e-18 3.021640329911006e-18 
-9.932615620772184e-18 -5.61420579038112e-18 -1.944204355943224e-17 -1.30865287238591e-18 3.853607885041189e-17 
-8.16076163598865e-18 -2.19718357067136e-18 -1.252491557478556e-17 1.089083842549084e-18 2.627581779642012e-17 
-2.053518107851421e-18 -3.750505978280442e-18 -1.09871659529698e-17 -4.190715099615691e-18 1.567607154540292e-17 
-9.361723104368489e-19 -3.627279776050831e-18 -1.125487095589117e-17 -1.045976894640172e-17 8.321390253634122e-18 
-2.787431846281912e-18 -5.882638837897859e-19 -1.67872942642136e-18 -3.717905385577004e-19 7.06763609931047e-18 
-1.869090436576383e-18 -2.57824369382114e-18 -6.692619559512985e-18 -4.041750221721455e-18 9.867836769423232e-18 
-9.153338133421489e-19 -1.05352428517312e-18 -2.762222515817921e-18 -1.989473343386215e-18 4.77886516916323e-18 
-9.175942200799818e-19 -1.156559930657862e-18 -3.499551037882592e-18 -1.992973767072664e-18 4.31449190832433e-18 
-4.501635606816042e-19 -7.349138608570153e-19 -2.183849937222852e-18 -8.217585988277896e-19 3.104048366530275e-18 
2.924092760636945e-18 -6.333338026819571e-18 -1.049566557579998e-17 -1.082088963606171e-17 9.490806077920042e-18 
2.612102303534808e-18 -2.554915381264486e-18 -5.994105500389932e-18 -5.940630580058361e-18 1.549844552396941e-18 
3.2337847704098e-19 -5.36224579970189e-18 -1.04525361510965e-17 -1.378977087026194e-17 1.005065415902704e-17 
1.186292376818658e-18 -4.779145024139197e-18 -1.127162215431665e-17 -1.458956759448596e-17 3.849449479354584e-18 
2.564021724102834e-19 -3.280206507525776e-18 -6.603057181352399e-18 -6.562626691752723e-18 8.318786280040395e-18 
-2.865046314273184e-18 -2.357862776175925e-18 -6.991314845870273e-18 -5.772968467687597e-18 1.36935004079216e-17 
1.414274079583651e-18 -5.533720939577881e-18 -8.605639724724934e-18 -1.163242539216946e-17 1.404224757770478e-17 
-1.373704375391636e-18 -2.787786176561035e-18 -5.894642783697348e-18 -6.065252394696959e-18 9.353956598256422e-18 
1.188552664301912e-18 -6.704437187432012e-18 -1.338635525254482e-17 -1.621294916225423e-17 1.163732886097818e-17 
1.847989551925141e-18 -7.436306406804876e-18 3.310414075472722e-18 1.967168644647355e-18 -2.012725994729904e-18 
-1.643067803304477e-17 1.470844207571592e-17 2.971285181818818e-17 1.17074823832409e-17 3.378637307463298e-17 
-2.475165938224399e-17 2.381077546244876e-17 -8.573469631511544e-18 1.189433341138565e-17 4.969243607887061e-18 
7.625588282064508e-18 1.294662545090741e-18 -1.339117589530588e-17 -1.040429523903301e-18 -1.111257828434599e-17 
5.312676159979753e-17 -2.060956518219741e-17 -5.608338877711236e-17 -5.593303384927526e-17 -2.99176873896394e-17 
1.265217255678063e-17 -2.037427263222008e-19 -1.786649927703346e-17 -2.633316386147041e-17 -1.664830996934194e-17 
-3.441960615299465e-17 1.617383223411973e-17 3.808158309800378e-17 2.372571306905167e-17 3.625088681798142e-17 
2.357251675143747e-18 7.675710722872874e-18 -1.388667045557548e-17 -1.59797999871796e-18 -2.323287420811848e-17 
-3.423883831359515e-17 1.911380550263242e-17 5.231400509707225e-17 2.73482276011303e-17 3.846080181425691e-17 
2.624924871562788e-18 4.031676110684672e-20 2.447452061992841e-19 2.149766686795038e-19 1.443224498883476e-19 
1.919298036396963e-18 2.724307206161204e-19 -3.96863199245668e-18 -4.834033034058279e-19 -3.070831761502207e-18 
4.072928014624237e-18 -3.419160497793327e-19 -1.949933544053901e-18 2.344432664010836e-18 -6.236579594184804e-20 
3.473185411325534e-18 -5.491262063362742e-19 6.003158479383901e-18 9.574524850806701e-18 1.260206381249143e-18 
3.703616123925528e-18 -6.117196148899156e-19 -1.05697756937588e-18 2.003482986588804e-18 1.177726981861744e-18 
7.919278164897805e-18 -1.25419083105688e-18 1.630812461357194e-18 8.387292970409198e-18 5.213296690588146e-19 
5.760498469930918e-18 -3.59758349588248e-19 4.443473963964617e-19 4.447883799712094e-18 -2.388899481042631e-19 
4.40353021346023e-18 -3.179078785624416e-19 2.838241847918011e-19 3.328266232141659e-18 -7.759810371398249e-19 
5.536087663540904e-18 -2.481843288768315e-19 -1.056492767638451e-18 2.51715372680082e-18 -2.779760293425398e-18 
5.00339516954112e-32 -2.392585678246979e-32 -6.025967509236846e-32 -7.937321640332118e-32 -5.745905876316211e-32 
