solver_type L2R_L2LOSS_SVC_DUAL
nr_class 4
label 1 2 3 4
nr_feature 909
bias 1
w
-0.0004330680146334204 1.378391406137262e-05 0.0008792638437687298 0.0001065911308401885 
-6.849659996542359e-05 8.625337041952046e-05 -3.704639222474239e-05 0.0008182105406225976 
0.0005196058241880382 0.0003025537316051688 -0.0002857767007664369 0.0006364097515332533 
-0.0009371096801322787 -0.0005899794867087474 0.0009377697853018474 0.0007062543224479066 
0.0003317413636999104 0.0005875487295274788 -0.000427963532303116 0.000117869853842429 
-0.0001623139009839897 0.0006107208640108088 0.0004642779958170796 -0.0003460741110714545 
0.0007656313480421679 0.0009380761137851611 -0.001096909213202088 0.0006332320096359761 
0.0003801617796186628 0.00131357360050188 -0.001077427956269395 0.0006656951242097462 
7.744451094332844e-05 0.0008565871627378849 -0.001187042792222816 0.0001045759262149443 
-0.0002102921019510741 -3.500085994972312e-06 3.407726222866105e-05 0.0006195909246741344 
0.0004866918229144223 0.0009804441005974661 -0.0007275047147570511 -0.0001487019765506847 
-0.0005759297217940705 5.088709581661277e-05 -0.0004363389613337282 -0.0001301957782200143 
-0.000674580164198403 -0.0005151119432966354 0.0004026578462175936 -0.0007430189659780794 
-0.0002766488536444925 0.0001838365664065421 -0.0006258918157439823 -0.0005548372436590479 
-0.0003006836051195977 -8.775510150830022e-05 -0.000663667056740852 0.0001013516753774426 
-0.0006503882698480627 0.0002796827642753383 -0.0007385666641863325 -2.799655949345229e-05 
-0.0001250775790841883 -0.0006984091927095535 0.000347017160414534 0.0002530141622283235 
-0.001068866142648012 0.0003949884009738426 -0.0001240955202372111 0.0003778560008850174 
-0.0006027656799051822 -9.505330311065283e-05 0.0005238344028235199 0.0004709161285446242 
-0.0007342042179369507 -0.0005510555880108741 -0.000526982977701369 0.0001552177135870798 
-0.0005667661158900502 -7.742152841200567e-05 0.0007060301514501409 0.0005992970644622084 
-7.624562124317597e-06 7.607829734752812e-05 0.0008615588223309288 0.0004193344844372538 
-1.38117634237939e-05 -0.0001287673654404023 0.0008658984910941604 -0.0008025128489487 
-0.001438715744218937 -0.0001984384780145648 0.0004945809608067303 0.0009733049032768245 
-0.0006344322506984667 -0.0006323556108878082 0.0009896646212989564 0.0001345664058268844 
-0.001047513593857893 -0.0002696083467775869 0.0003527000091376817 0.0007939724844124187 
-0.001084769266309163 -0.0007206290930129815 0.0009227835306387781 1.018519159551752e-05 
-0.00180695727324653 -0.0004481769858803474 0.0003811494060611595 0.001076750028128819 
-0.001645229220125903 -8.482060853940432e-05 0.0007235226003734169 0.001031828239376769 
-0.001236835302522847 -0.0007866307762434557 0.00189150098814601 0.0006750415771771048 
-0.001308635459007758 0.0003088172262178032 0.0008584265584996705 -0.0002648612524517219 
-6.708103200658806e-06 0.000879622078637543 7.409277799588935e-05 -9.306257980912341e-05 
0.0001038573068341114 0.0002287262693091119 0.0003184253748561447 0.0004647039737586805 
0.0001878349372946404 -0.0001136021708841154 0.0008835617884165719 -0.0004414210297073052 
-0.0005466844217544722 0.0002654805210431272 0.00138809575302782 5.534590391204157e-05 
-0.001316453581488884 5.546122420531572e-05 0.000956875072138875 -0.0003440844207998352 
-0.001137636554833665 0.00197318855506575 -0.0001645565650796918 -0.0007017523499412287 
-0.001548653803885832 0.0008387993976099209 0.0009124929027819112 6.244028445512915e-05 
-0.001097483486317381 0.001040762398415431 5.99220553688703e-06 0.0002394104524497559 
-0.001400164459738888 0.0008211409394334284 0.001215940225601897 0.0007471968743072043 
-0.001925946363645378 -0.0001770655953055065 -6.359363628509611e-06 0.001033136519805771 
-0.0004019384634600379 -0.000422329714512856 0.0007524935280877348 0.00048184164091496 
-0.001591496956613513 0.0004141989389699797 -0.0005941688090838186 0.0004622864038987921 
-0.0008278391712608568 -0.0001326983933757822 8.941040841356497e-06 0.0005619842898717098 
0.000570856931840367 -2.784505225614828e-05 -0.0007173728919671083 0.0002804933579422394 
-0.0004870503892426837 -0.0003220882084701613 -0.0004775809741171326 -0.0002985360907924741 
-0.002062526233031432 -0.000202220378851145 0.0002502183695323775 0.0007984034992878408 
-0.0006142236057357733 0.0004752936525985271 0.0005211321708214954 0.0002586274780899884 
-0.00164141819647561 -0.001048968081475697 0.001045715023034356 -0.0002550063959543107 
-0.002000529562801457 -0.0006220778990530116 0.000378772265865754 -0.001038344531891186 
-0.000753503671500268 -0.0004015854678588154 -0.0008715452029523828 -0.0008326888320088639 
-0.001698161574397219 -0.0001563890792130951 0.001121717190099883 0.000124752060475635 
-0.001264940874227979 -0.0002145147094457597 0.001496286101379279 -0.0003297568146330023 
-0.0009371694918608605 0.0006876914743234129 0.0002070566149668279 -0.001623396112559363 
-0.001126403519735813 -0.001059475676270063 0.001793934777486671 0.0001515539255594981 
-0.0003150039203056109 -0.0004200809997999313 0.001539139869572365 -0.0004021008949233943 
-0.0005088807735935001 -0.001202086697975916 0.0002839239252337227 0.0001734571341975617 
-0.0003924534456744986 -0.001266818621315879 1.179386847795051e-05 -0.0002961189964825974 
-0.001230367241631494 -0.0002809138614404264 0.0002227743648981351 0.0005252171792415762 
-0.002096458105511206 0.0006606048922505862 0.0005762687308095766 8.464072229865889e-05 
-0.0009855216522767483 0.0001367415486242223 0.002137291320094632 -0.000768440035659465 
-0.0002975077911520994 -0.0005003603875314245 0.002116383261454876 -0.0002481532214892669 
-0.0006512478115262084 -0.0001803119075888236 7.705132741742379e-05 0.0001501047732723263 
-0.001431596161201016 -0.0003361827490947562 0.0004174842915550919 0.001449461920178964 
-0.0007230822762007713 -0.0005595556893559221 0.001400407192218811 0.0007906557711185702 
-0.0003906910469240686 0.0001491947772532816 0.000950657827426268 0.0005669364690168825 
-0.0003146915084620327 -0.0002034551297150806 0.0007929858441427181 0.0001040887720787131 
0.0003831618190963443 -0.0005863247033236866 0.0009920281041427249 0.0004289161268288138 
-0.001397991443864583 0.0002012411792985246 0.000237240110291656 0.001317427474039385 
-0.001523493751635913 0.0006083737590831665 0.0001727321452022063 0.0004781457597318479 
-0.001111186908154527 -0.000535061589347867 0.0009143482023344395 0.0003543625835084665 
-0.0004984704862948989 -0.0002478773669914701 0.001143586359971611 0.0003854409050511008 
-0.001751687379220211 -0.0008121967121772372 0.001661641877865232 0.0004836184461460179 
-0.0009450982676393544 -0.0001033651760838836 0.0007239707057469839 -0.0001812260502083499 
-0.0007173078224721479 -0.0008720542883015367 0.001369090659638058 -0.0003678681684082632 
-0.0006266599096523376 -0.0002077605665988147 0.0006157952536229163 -0.0004717961707744394 
-0.001085369535459471 0.0001610976060957742 0.0007285294893114021 0.0005055457540901161 
-0.0008842050114487815 -0.0008416060861463896 0.001405168862486449 -8.463476846976912e-05 
0.001532774913816521 0.0007737343292017663 -0.0009084395663017183 0.0007018304942097409 
7.528488406581527e-05 -0.0001264470061432212 0.0001506582655466822 0.0007612861597065354 
-0.000181866600731447 0.0001982625855604363 -0.0004501114931159534 0.0008355418948318845 
0.0003234600143560277 -0.0004534346389021458 0.0001967198798799035 -0.0001515355340653192 
-0.0009688089598682029 3.307811485777756e-05 -0.0002510580752874011 6.342355434708594e-05 
-0.0001220480198373938 0.0003124644413510443 0.0005635571527126092 0.0004152757420268838 
-0.0003533959038858754 -0.0005408708671419314 0.0006605590896103648 0.0004465805511331938 
-2.070081287603293e-06 -0.0006789744574863265 0.0005722245764058186 0.0005507578577298209 
-4.210985890666074e-05 -0.0001294353499110636 0.001003002778276142 0.0001720734036756791 
-0.0001235860390056962 -0.0003960945608188823 0.001388401988881965 -0.0001710079498744844 
-0.0004120933859022913 0.000248270811238406 0.0003577832270623815 0.0002275850612590062 
-0.000855687088999752 0.0002564942348238552 0.0009380857365806162 0.0004976316156924264 
-0.0004154292979268407 0.0001902669699416869 0.0004352408635801938 0.0002211565676496745 
-0.001024066759066896 -1.974441640682902e-05 0.0006040381666073888 0.0002999335015844972 
-0.0009869148790411079 0.0005397781119375727 0.0004127771748503637 0.0002179226183227588 
-0.001383172757240643 0.0003566026258350081 0.001196729382895488 0.0006490729316940741 
-0.001855533029056787 0.0004262955435523204 0.001030293566483161 0.001380764126758474 
-0.0007460276242873918 0.0009138140860796811 0.0003271101866424388 0.0001129983443790241 
-0.001171103029562556 -6.151703229860234e-05 0.001244342948581781 0.0005117156252866786 
-0.001584385613131171 -0.000166621283573595 0.001001117495687939 0.0001738975998052253 
-0.0005752253073786918 -0.0002987847638364492 0.0007608831829177093 0.0004199216115544988 
-0.00127237309449909 0.0003632317194602946 0.001557142171441265 -0.0002783559732650207 
-0.0009343938920315461 -0.0003246895393664455 0.0009147730152750382 6.042134544328166e-05 
-0.001734134221398737 -0.0001988946335967738 0.001328321626042708 0.0005645004512838465 
-0.0008555047835248881 -0.000686939020050399 0.001510569116778215 0.0005108930080777354 
-0.001155374979372592 -0.0007236077729995749 0.001431284639886675 2.493513656375118e-05 
-0.002286151845012628 0.0001007189522083922 0.001537887582370205 0.0008801664857199983 
-0.001488344206953221 -0.0005214023958201757 5.705688101827904e-05 0.0007953466552744169 
-0.0007801031500539763 -0.000637300221308676 0.0003158565003493271 0.0001812872019782188 
0.000263047566393578 -0.0006708923764037723 -0.0005363972616032658 0.0001509881779969879 
0.0006263032658640075 -0.0005942817918176438 0.0004564608042185074 0.0006464744366950596 
-0.001402361930405392 1.1669870137384e-05 0.001046130813908701 0.0008753593204306538 
-0.001000969104700175 -0.0004294359813896163 0.001122928644783186 0.0006212079277245499 
-0.001034631930503356 -0.000560390760228477 0.001123255134200401 0.001054077926819681 
-0.001319413329264092 -2.964230109006481e-05 0.0009831694503772022 0.0008998907626689697 
-0.0007224998462765414 -0.0001345811557646038 0.001072310567848331 7.874743219006611e-05 
-0.001236510191346683 -0.0007476721553255033 0.001573567674698169 0.001042261871364029 
-0.001806108776843662 0.0002979770442605987 0.0008516884735409449 0.001046953273121341 
-0.0009595218839013426 0.0004628400808739784 0.001046489484576511 0.0007234788168443719 
-0.00104683905255361 -0.0006965077828613212 0.0006723819507981976 0.001012554941134976 
-0.001462190380984658 -0.0001032079318149368 0.001330325434524526 0.0007151449563131119 
-0.001303685512358331 0.0002367041743385805 0.0005267341261263876 0.0009994048407175452 
-0.001886468416603053 0.0003604886217455913 0.0007112113766178031 0.0009246348045189031 
-0.001802756705720744 0.0007056417805595032 0.0003827270166148769 0.0006352849411409287 
-0.0003438748477052827 -0.0001310331081986957 0.0006437729733075893 0.00073752404728571 
0.0004216309014700206 0.0002629186964300134 0.0005718402719789804 -5.154818380508088e-06 
-0.0005863411580639782 -0.0001099039807973001 -1.529975298973629e-05 -0.0001042388238256094 
-0.000239954890269192 0.001182302547062997 -0.0001585821350986093 0.0006000615065299583 
0.0005501556870660803 0.0003616846056085221 1.351320107020588e-05 0.0007019370883318968 
-3.140340206795503e-06 -0.001044578173094133 0.001220201946794018 -0.0002644578630598405 
-0.0001972415448575077 0.0007814130390855086 -0.0005227973481741844 0.0004518474330359299 
-0.0007075120340297303 0.001066117218413938 -0.001046131066243329 0.000442222496111289 
-0.0005712317319784064 -8.337485826142359e-05 0.0002602510246447046 5.999458382438485e-05 
-0.001376563216233833 0.0002860732714927351 0.0002053388731794179 0.0001778647851452603 
-0.001026062913363428 1.228930855885427e-05 0.001462786380965736 0.0003030369488451979 
-0.001761424323663822 0.0002805323537512545 0.0002258279423982342 0.0001320152077569189 
-0.0002732674874533464 0.0001605486886168549 0.0002641057120448191 0.00084180506830087 
-0.0005764188738367329 -0.0004835631160535283 0.001162183418319101 0.000835303111150324 
-0.0007354535146555679 -0.0002964342161757399 0.0002751096552875987 0.0003223683411880006 
0.0001916307328481159 -0.0001041911201518324 0.0005929909280167791 0.0002183630711256012 
3.163284903272566e-05 0.0004886860438127085 -0.0005315855235253454 0.0007140958461176053 
-0.0005369602420302444 0.0002476838233016071 0.001258614551520503 -0.0002287337387197453 
-0.0004288045590190278 -0.000127996867530034 -0.001002728206224815 3.378419243909499e-05 
-0.0008541667288105237 -0.0001934568335772681 0.0002003235990702971 0.0001666975789618882 
-0.0001087425854398311 -0.0004835755855901717 -0.000360896485281628 0.000119766963837059 
3.518203662449291e-06 -0.0001065149799496385 -0.00110512522692533 -0.0001323619663243419 
-0.001098048337223517 0.0003823719831814313 -0.0001631281200070592 0.0001868023970911162 
-0.0001888457125258991 -0.0003455560563374355 0.0002808008111015414 -0.000222143761119466 
-0.001132107498748403 -0.000325515092757241 0.0004198959098923967 -0.0002388571914212139 
-0.001008113467375554 0.0003122030329950687 -7.167488780779862e-05 0.0005638645932567413 
-0.001824823160616538 -0.000134623639988081 0.0003669293170607979 0.0007170084134469449 
-0.001171141695774863 -0.0002514079773719493 0.001544089063605392 0.0004602229499298534 
-0.001179174578098384 0.0003382178556300929 0.0002431941867327619 0.0006729210515298205 
-0.0009403763824127614 0.0003153205925657225 -0.0002349913691003463 0.0003089326527292634 
-0.0007474399573138105 -0.0007162465086036505 -0.0001790627493451675 -0.0001718533995835058 
-0.0008586632159861161 -0.0005535016544478813 0.0008367677243761751 -0.0002678351857693886 
-0.0007277462018245399 -0.0004521642776902819 -0.0002170288227216112 0.0003269642334111343 
-0.001106819611062855 -0.001290846252575739 0.0005689905544876651 3.656625737925186e-06 
-0.0001999259364637825 -5.714105220033085e-06 -0.0001815820873661347 0.001211747085962866 
-0.0001081351805849643 0.001328754047177065 0.0002104391173082748 -0.0004959013355259273 
-0.001368228437287121 0.0002420795509505548 1.724061722549512e-05 0.0005541755151191707 
-0.001560473812837652 -0.0005973381324953679 0.001564069676717035 0.0007616504936860735 
-0.0006462456555981617 -0.001143011672654306 0.0004818864347890068 -0.001023991407282926 
-0.000821763825490835 0.0001642010842649423 0.0005249107825483902 -0.0002368334312523472 
-0.0001800442576991103 0.0001153421783978321 -0.0005040560483838649 9.957773422876164e-05 
-0.001162181311942837 0.0004130511339100984 -0.0007877644718785852 0.0004296221874842568 
-0.001619690383943348 0.001256331535148383 -0.00109635974253421 8.425334490980315e-05 
-0.00156177847590245 -0.0002667412780344105 -0.0001877804695012625 0.0008287489800985281 
-0.001248248915611286 -0.0003806067007822919 0.0003637038542781749 0.0002666614050875947 
-0.001376900682319013 0.0003442116428690127 0.0004963376350136642 0.0001073994300969126 
-0.001376179184045009 -0.001368721454502144 0.001475112246039404 0.0007483118559195064 
-0.0005381301811894307 -0.0004695728264955761 0.0008308269212593323 0.0004013871343713627 
-1.852440257105241e-05 0.0003119675673639963 -0.0009177051775645468 0.0005793237264529477 
0.0002112101729787722 -0.0001513888387747877 -0.0001700249704226499 0.0005093417981775179 
7.718775909807745e-05 -4.480133800616844e-05 0.0001667687044420686 0.0009387249425340021 
-0.0008423044064613296 -4.313982131115215e-05 0.000616219458704735 0.0004680687601320299 
-0.0009318501935854961 0.0001170689855802527 8.239074552055604e-05 0.00100900246145209 
-0.002035313728373481 -0.0001508321643083546 0.001494406681816482 0.001553230577317497 
0.000125064182381724 -0.0005500806654569881 0.0004360344436102574 0.0006730247078145625 
0.0004630413866646802 -0.0006487645868975219 0.0008748832783533787 0.0004259545764559424 
5.99812622233822e-05 -0.0002301784705424104 0.001096031901680967 -0.0004735182199610749 
-0.0007604120045016417 -0.0008436508015057042 8.167707464188182e-05 2.909104407576231e-05 
-4.263543457652487e-05 0.0009128750957674805 -0.0008903176812708959 0.0006801570649959 
3.678015906792663e-05 6.106430731857569e-05 -9.983719754624514e-05 -7.375453306927076e-05 
-0.0003398293689042123 0.0002909475621278992 -0.0008061156546608916 0.0007215913006490798 
-0.0006475672699994391 -0.0002046303217731049 -0.0003914783388441732 0.001095791577609837 
-0.0002437726217598183 2.771264882627986e-05 -0.0002351784069945787 0.0005192954036873207 
-0.002630967607108198 -0.0005046234592819341 5.886419700842444e-05 0.001472075347672525 
-0.0008020034292816945 0.001591339881875486 -0.0004097298974507546 0.000697733213602135 
-0.00180846183138003 0.0001548505974951024 -0.0003448282680265516 0.0007518367240598121 
-0.001289525496653203 0.0007388814831313276 0.0008585475174662323 9.546629752589575e-05 
-0.00148397137273417 -0.0001262315241086619 7.031448817400722e-05 -0.0004267006933436848 
-0.001577830900211965 0.001418664429904049 -0.0001460504152029944 -0.0003100387934703551 
-0.000480920797597544 0.000418502590901485 4.465454222622777e-06 0.0007949521824383196 
-0.001103094697859473 -2.376372884003872e-05 -9.356660640349403e-05 0.000614662501347031 
-0.001264418715746165 0.001418109252564968 -0.001046758567442951 0.000145122931570254 
-5.903960583714879e-05 0.000177931569067493 -0.0003662240982604564 0.0009975279164103363 
-0.001095068188293351 0.0004279464223481028 -0.0007427038800076056 -0.0003703387593996365 
0.0003147968362603214 6.543964162929168e-05 -0.0002178073688844933 -7.029375604313035e-05 
-0.000370009476268525 -0.0001357694669724812 -9.56655314467238e-05 -0.0005938478483605233 
-0.001231288535015192 -5.1218027235609e-06 0.0008073766393900336 -0.0004461225871914456 
-0.001305766647756301 0.0009345443081623669 0.0005199806412494259 -5.104435999812374e-05 
-0.0006420119154517866 0.0007922535430466992 -0.0002046635740641636 0.0003091414790452295 
0.000366088848266183 0.000241352239014046 0.001012058490178571 -0.0005489394923104873 
6.509434577511513e-05 7.936851515572014e-06 -0.0001369292240322 0.0001456676843979279 
-0.0004334730780075249 -3.659150587214147e-05 0.00011924347962478 -2.518287891224781e-05 
-0.000727762242608353 0.0005883936034462361 -0.0007554517886610702 0.000230390103156573 
-0.000739176598488039 0.001175794124163802 -0.0002941573109417541 0.0001508606950295964 
-5.142288949206657e-05 0.0003426017070972207 -4.615603262939494e-05 8.102643926419408e-05 
-0.0005359816856289533 0.001526256242064005 -0.001138708516678969 0.0004006750449977433 
-2.905247216977181e-05 0.001330708208843578 -0.0008778361478512341 6.732872062178519e-05 
-0.0008969655995959633 0.000271487559889787 0.0009326989862906137 0.0002101914939780237 
0.0001042462316724819 0.0002355114733358563 0.0001809811084379704 0.0003800975944332057 
-0.0002116554182477705 4.258625256880091e-05 0.0009511753796373924 0.0005303562683287596 
-0.0002233611838082123 0.00123288767249994 -0.000268735538516646 2.315876305653781e-05 
-0.001596827856389477 -0.0005819202641290922 0.0004652693659554895 0.0004229798608347432 
-0.0008414877462493353 0.0002840883901780587 0.0003843634683840241 -0.000302177102369031 
0.0005723638816823331 0.0002101679514077754 -0.0008315718548599911 -0.0001118365278168588 
-0.0002152582054972185 0.0003233338627130554 0.0003280007802036096 -0.0002835760431167417 
-0.001319191979162516 0.0001572998521002171 -0.0005450258112167708 0.000217137793846057 
-0.0006864282753359485 0.0003023152256746385 0.0002585238446196149 -0.0004959751832606009 
-0.0004705597316660526 -0.0003874158065167629 0.001396556521946623 2.915118817185642e-05 
-0.001152250744590681 0.0005760683726322403 -7.026372647344955e-05 0.0001729120671773664 
-0.001128398218756473 7.400613092439553e-05 -0.0002909209646550584 -0.0001780483734984193 
-0.001098645830242395 0.0002619524520887755 -0.0001490750027310971 0.00103633651830453 
-0.0009281254187785887 0.0004764545077287126 5.777949347013395e-05 0.0005819280156463961 
0.0002744332006617882 0.0002510598497793162 0.0002012872255860004 0.0003243149740855405 
-0.001188971909923915 0.001183534064154115 -0.0002441009864511566 0.0005045084636571629 
-0.00203323934021296 -0.0007857009818718353 0.001027469140179365 0.0005667356484936283 
-0.0007599003873929457 0.0008542176600717268 0.000232393735692665 0.0002003383259095244 
-0.002194961413100454 0.0001873929563866788 0.0006211201573437093 0.00157427009885198 
-0.001198867804597787 0.0009828042035617027 0.0005266443297245648 0.0009520235898095341 
0.0001835800003704923 0.0006384396794622016 0.0003776931679135024 -0.000126484968780275 
0.0001722789860319449 0.0001996594657910865 0.0002364732118546102 0.0005352413382811167 
0.0002804800061468937 -0.0002566203860792966 0.000677398753490484 0.0007467240992477962 
-0.0001057257236710995 -0.0009982130884157148 0.001084819114891086 0.0007221864935678287 
-9.447621902607872e-05 0.0002054822465890534 -0.0001387287521818576 0.0008261456533334264 
-0.0003135742303538252 -0.0004998583169128274 0.0008725407185911074 0.0002509608095154799 
0.0007544746221288877 -0.0001730782058663407 2.884191537546411e-05 0.0004147158911351449 
0.0008213394044316033 0.0004208867152830645 2.111555855374694e-05 0.0005958140989816947 
0.000607375136021128 0.0004032478723946523 0.0002108555675682862 -0.0002325818407487152 
0.0008470722917055913 -0.0008906890563571448 0.0008566083136517567 0.0008748617243460781 
0.0005540874923429101 -0.0001466780912136274 0.0009063062056289038 -0.0001192883879233506 
-3.673939447834534e-05 -0.0009931422699838038 0.001316035540094721 0.0002166181199588101 
1.509083853482632e-05 5.153012012037377e-05 4.972376463111308e-05 0.0002188021486466467 
0.0004753562216355728 -0.0003581484324169582 0.001187781332053366 -0.0006385885336813274 
-0.000208148353662624 -0.0001685290980972648 0.0002083793920613142 6.490752889782631e-05 
0.0003313661109762985 -0.0008870302852646072 0.0007274098840507816 0.0005522058457321773 
0.0001456764643985123 -0.0005256061968063746 0.0004050901299614476 -0.0003851850863095832 
0.0004584266033131157 -0.0003527607987962352 0.0003840497112722892 0.0006337817938629905 
0.0003993108750629607 -0.001333148329644033 0.001088143578586933 0.0003454692957584536 
-0.0007145725373661154 -0.0006357096835058457 0.0007771995713138312 8.599660922349447e-05 
-6.784107476287115e-05 -0.0004885364212992334 0.001359627831461401 0.000132242190937762 
0.0001051485861075319 -0.0006444593258368026 0.001111401970498571 -0.0002798749698610667 
-0.000210564194156975 -0.001099670756725354 -0.001175893955861298 0.001224298537506265 
0.0002560801655640187 -0.001064495471269398 0.00108221453924156 0.000965142083251011 
9.698352825828277e-05 -0.00166963661473773 0.0009994047218527247 0.0001322920510321331 
9.850347307740918e-05 -0.0008109912558152939 0.001365513457612265 -0.0003859771497374415 
0.0002177509596270059 -0.001212923938222832 -0.0007996356486357025 0.001050625077180855 
0.0007957210280444942 0.0004025899063995138 -0.0003412462229528575 -0.0002649074652916424 
0.0004367352811902993 -0.0011951106556806 -0.0005401319415905109 -9.9406500996407e-06 
7.191466102719667e-05 -0.001609516021752253 -0.0007160897443038375 0.0008269324698115892 
0.0003594875419737092 -0.00236148441165083 9.13867092067789e-05 0.0001761287255884439 
0.0003333199452120523 4.143657579077551e-05 -0.0001523657024711166 -5.473405841175419e-06 
0.0004625172536717654 -0.001482288827120122 0.001139169381542071 5.870379523872183e-05 
0.001174377704819603 0.0007862195878644881 -0.0008452542694513047 0.0002813649598902481 
0.0005327260044330182 -0.0004511178878901633 0.00015383861978048 0.0001686737414402577 
0.0002294871321231167 -0.001318434485431277 0.001149351797800491 0.0003355671274520301 
0.0006399287492512728 -0.0007139752657416053 -0.0006796630079084345 0.0006042259081844496 
0.0004581594139288251 0.0004675757458133494 -0.0006469559936438265 0.0004341645338528692 
7.084149980295954e-05 -0.001152566456476944 0.0002488256138981492 0.0004151126322224688 
0.0006656462228286772 -0.001370446340106597 0.0002449242814258362 -1.515684232105633e-05 
-0.0005080149252085908 -0.001517762471505319 -0.001064610178079798 0.001288779608148653 
-0.0005111558377351458 -0.001909121498035838 -0.0001780195713571903 5.323055107726735e-05 
3.778725379978661e-05 0.0002717939043189641 0.0004186409257954449 7.461055442594612e-05 
-0.0005839405639860496 -0.0007783525558193403 0.0004246898290781787 -0.0004091752945688832 
-3.916018238148134e-05 -0.001486406237058405 0.0007197302288548008 0.0002436790153247017 
-0.0006899102709650404 -0.0004346376721614074 0.000681614758517383 0.0003234863217264852 
-0.0001969359899938314 -0.001510447346648146 0.001865666981004138 -0.0003110535364874924 
-0.0002887222929643375 -0.0007447868994117158 0.001060369249615832 -0.000341757144679809 
0.0001209676270356871 -0.00146254476846477 0.0004666406827884604 0.0003325420727367327 
-7.40265883812632e-05 -0.001254614673673561 -0.0001831287399912595 0.0005744721316960053 
0.0004134041788565078 -0.0009327198209348893 0.0001885716207201337 0.0009249806161951152 
-0.0002675018908023085 -0.000490541413111793 0.0002313157756060471 0.0006977090710865134 
-0.0004684787298357572 -0.0009209033464588601 0.001005096068402391 0.0004350345549258964 
7.468233411082528e-05 -0.0002125422610263972 4.274664225071713e-05 4.893000995224005e-05 
0.0004556085771862802 -0.001146186783750049 0.001074882494131376 0.0002683799001493806 
-0.00093475644336197 -0.001644309517403493 0.0008540033032696646 0.0001982140999496851 
-0.0007347805822357906 -0.001864920099627878 0.002092340207117393 3.315886372911426e-05 
-0.0007363263038753598 -0.002493280066900479 0.001541037895731367 0.0001594986667025101 
-0.0001007586956761938 -0.001504496164931744 0.001078502989384204 0.0004539610620228979 
-1.110216981610253e-06 -0.001247383878997867 0.0004844426965023577 0.0006590087910369962 
0.0009121263541482327 -0.0001125994744998285 -0.0004252779995466749 0.0007273866855693591 
0.0003068150527282091 -0.0009277077091436689 -0.0003502623832893212 0.00149579468849702 
0.0003028001210717401 -0.0004491725973812314 0.0004957527698095452 0.0008941955522595979 
-0.0004808607781714641 -0.001201781035909245 0.0002006926306796982 0.0005499460071676211 
2.928352320786517e-05 -0.001959837428573447 0.001423952496925483 0.0002942783008845008 
-0.00028984263384594 0.0005327031377516473 0.0001502562644155866 0.00043787815560219 
-9.804357249244213e-05 -0.0003062408188302879 -0.0003955885763254736 0.001016750951485061 
-0.001103929450924229 -0.000509186038128716 0.0009344872340767684 0.001031366438004989 
-0.0005163062495507817 -0.0003331922200845303 -0.0007477970753858185 0.001673751822031411 
0.000243163783855433 -0.0008485626617000412 0.0009046166143238573 -4.793495103037649e-05 
-0.0003405887188725709 -0.0009636817094837312 0.0001869607186043731 0.0008935038971076154 
-0.0009667676401505957 -0.00196843265709043 0.001997172702940051 -4.028235902474844e-05 
-0.0005167757132845297 -0.001695782079418574 0.001656259728358657 0.001416923401392832 
-0.000415180945429834 -0.0003829560911531571 0.0007075163755184639 -0.0003272928061214213 
0.0002203724015001813 -0.001589073895013697 0.0003755452243028356 0.0004364830404108899 
-0.0004246517179835116 -0.001901908839391559 0.00180977103216748 0.0001976820205538156 
-0.0007286926752624536 -0.0002551196607883487 -0.001001157239957398 0.001118302476389875 
0.0006315380972323233 -0.0004951697985206121 0.0007978792700605428 0.0002547820566369461 
9.789461702618622e-05 0.0001876823883751006 3.272807095763995e-05 0.0004407248730883167 
-0.000110717015547919 -0.0002964216550043981 0.0006109754761121884 0.000154592043567341 
-0.0005161948728848603 0.0006023755128958053 -0.0008751204877260056 0.0006711683093941014 
8.901836224445693e-06 0.0002699275553618233 0.0001637748783431144 0.0004099553693647226 
-0.0003038481678468155 -0.001096948500427588 0.0006605486133326644 0.0003443810881490729 
0.0001148759015752769 4.838013808513125e-05 -0.0002626241760478482 4.816654682663812e-05 
-0.0004745884833686277 -0.0002865119939186966 0.0008075903573518148 0.0001381943199501856 
0.0002451556794883074 -0.0007068269611997473 0.0002995226765291043 0.0002779522221691325 
-0.0001087088483008665 -0.0004995464752559393 0.001028452326935754 7.114537886398219e-05 
0.0002791894258881043 -0.000165122026950916 0.000379656105515591 -0.0003442020789802055 
0.0007334544638812429 -0.0002453480171307903 0.0004127076772188288 0.0004870093494824319 
-8.398468328939371e-05 -9.072559895772243e-05 0.001000137925493628 0.0002043318904722936 
-0.0004143196385865503 -9.196370214451006e-05 0.001043227406656729 0.0003961097170008482 
0.000459851227553911 -0.0004887636397585787 -0.0002040581350741977 0.0008583484167107215 
0.0004219545211156241 -0.001084857440844817 0.0008441526453288974 0.0003760580678239395 
0.0004782103658430085 0.0003920966023478891 -0.0008375455724708285 0.001535473651696212 
0.0001263378711615135 -0.0008297684310918726 0.000790633333145381 0.0003533204245352541 
-0.0005611730663284606 -0.0009343685366655298 0.001446389590321537 0.0005899712108104222 
0.001061319058426238 -0.0007271156878463628 0.00135770671605038 0.0004316101241155428 
-0.0002021048759589943 -0.0004894919898756369 0.001190460493424325 0.000749388804389377 
-0.0002062624068908857 -0.0003215886566958727 0.0006066532376493729 0.0008282389467803554 
-0.0001578751382994693 -0.0006896622781633966 0.00162489803606851 0.000517179876563891 
0.0001990503103861205 -4.556817122861303e-05 0.000624067133964985 0.0006431805851838912 
-0.0004340549494708542 0.0001718557233055299 -6.114260888033377e-05 0.001176596411352295 
0.000382919196984802 -0.001136026038905134 0.001475507216350979 0.0004953450653351369 
7.939445910331365e-05 -0.0005605195305392036 0.0004848436388464933 0.001167720665005393 
2.227081909371045e-05 0.0003306687786863404 -6.96150474464533e-05 0.001199752674501441 
-0.0006427762336849679 -0.001395793828714995 -0.0005993684366660611 -0.0007065592679258659 
-0.0003143028732610002 -0.001331450875170119 0.0001367367664580455 0.000423584352468368 
-0.0001621330494174254 -0.0006005060493294332 0.001232480255886928 0.0001311279767315475 
0.0001984695672610789 -0.001661880119374518 0.001555506020837099 0.000207735601505445 
0.0002453014336449405 -0.001013527603741243 -2.98485625355973e-05 0.0005283258957960528 
-0.0004592252368226821 -0.0009891004542565245 0.001243127885401897 0.0005831139082516282 
-0.0006232540512325022 -1.152950858166401e-05 0.002067728632961462 -0.001279834907714721 
0.0006240493715281316 -0.00041618806831524 -0.00150169136882701 0.0008489915199545899 
0.0004794202541698009 0.0001402141763317677 0.0001257321331339133 0.0005075247111845608 
0.0003769558607244362 -0.001019651013887049 -0.0005564488075290895 0.0006861534462474233 
0.0001354710254556009 -0.001312055817378233 0.0007454763521488939 0.0006697424494205131 
0.0007555917334540882 -0.001621135060239166 0.001083578734937191 0.0002484499284366379 
-0.0003063081072926001 -0.002020426125855227 0.0008002464553307317 0.0007887246779802867 
-5.644440400317922e-05 -0.001221957436936121 0.001244994017104797 0.0002734574336788476 
0.0004030735146051622 -0.00172674873131406 0.0005561722490438608 0.001116941215348707 
0.0009693584787238865 -0.001079434996267171 0.001114469369755477 -6.97817997202154e-05 
-0.0001179039090120991 -0.001356826985517005 0.001874021217153682 0.0006705229380224647 
0.0002511026489779336 -0.001018472297083004 0.0005064059675563985 0.0003215322665341539 
-0.0002098583745373387 -0.001598620531209705 0.001647008567946861 -0.0008949918968969478 
-0.0001437226182706098 -0.0006164831255730947 0.001158795500236712 -0.0003151737343226725 
-0.0002508293033666872 -0.0008302118321138537 0.0005600784219025222 -0.0002860578101151595 
3.963411170121371e-05 -0.0003269463547659456 -0.0007989793035068541 0.0004500051680906167 
0.0003514518349980725 -0.0004705743499774765 -0.000204863943938377 0.0003780147658723555 
-0.0002264046896517027 -0.0008365890177591273 0.0007044381389144455 0.0008428051907624435 
-0.0005955863391476997 -0.0007090669584911652 -0.0009114139328513675 0.001010566364393267 
0.0003396817490980528 -0.000697982953622455 0.0005702757891244011 0.00015557037960753 
0.0002150656291972955 -0.0007281260992839375 0.00167405283451086 -7.083318028830622e-05 
-0.0006380000598708634 -0.001806060708966989 0.0006586737142372191 -0.0001559112824315772 
0.000132076170426193 -0.001959828581248753 0.000721022968039691 0.0004020984992454122 
-0.0003611706652481317 -0.0003217354348292833 -0.0003492937884452732 0.0005803171859272871 
-0.0004238781478347482 -0.0008053027566967765 -0.0005993354344500911 0.0004791028012805029 
8.824414477735085e-05 -0.001293837698478562 0.00123445192794022 0.0003891178953451164 
-0.0004837056362094697 -0.0004114376988283455 0.0004041369705763647 0.000534435931770011 
-0.0006523766229978633 -0.001133366031405596 -0.0009558348490073496 0.0004865311869704432 
-0.0007177297207675164 -0.001349445821221884 0.0003056070765458354 0.0008068237846941303 
-0.0007841605393439466 -0.001400943983821981 9.568260872216531e-05 0.001316161364224103 
8.081049416199936e-05 -0.0006399137194885239 -0.001048540044727923 0.0004359433705226529 
1.131545872854988e-05 -0.001050212276397723 -0.0001913414360909013 0.0001855374689700433 
-3.92168338013081e-05 -0.00145968525965226 -8.669224638977213e-05 -0.0003983853256592391 
0.0001512188686336055 0.0001021290012200787 -0.002031995601702153 0.00118465258136977 
5.643320646689497e-05 -0.0009278599070194914 5.434845329996962e-06 4.322304820681464e-06 
-0.0008012215688880656 -0.002539050636533638 0.001132710078304738 0.0005545939649080879 
-0.0007062157523971376 -0.0004447481194892131 -3.111827534229285e-05 0.0009294741419362734 
0.0003321801690558766 0.0001049301188009258 -0.0006065648217859836 0.001118505523881274 
-0.0001083265952278169 -0.0007744898585694627 0.0004486920337905643 -0.0002920518608923976 
0.0004649238108188294 -0.001588543259522121 0.0009073684777626987 -0.000136975740211518 
-0.0003521354944190722 -0.001321342669423397 0.0003848329958968715 -0.000118467031832241 
-0.000498874749112971 -0.001549242619461314 0.0009752788559326007 -0.0003319501621699848 
0.0005438134969177643 -0.001709345436462444 0.0007320456276415846 0.0008361780423147187 
-0.0004202622022474349 -0.000160607615198452 -0.0002412743348373316 0.0005305586489124915 
7.402753929226005e-05 -0.0003152539983740864 0.0003201446082205775 0.0001803624110869561 
-1.066367489753682e-05 -0.00138632352152001 0.0007715997770930211 0.0006448071430550046 
0.0008335951520948218 -0.0008995685211956597 0.001128003658530395 0.0004862962200938532 
0.0001659017851186283 -0.000831498408685744 0.001079984415956163 0.0007028445208236815 
0.0001957637763740956 -0.0001971316955074195 8.889968602088023e-05 0.0005721763918334268 
0.0003104183293061285 -0.00209688222029966 0.001266597497891437 0.0002899972988099103 
0.0003297098339505477 -0.001682946961956367 0.0006392272454205166 0.001054002109230459 
0.0001684111342590451 -0.001016192402828308 7.117413210240868e-05 0.001041926065006227 
-3.732540255765813e-05 -0.001664856827112042 0.0008026023110675086 -9.854114487734947e-05 
0.0002600772298749239 -0.001374817874995139 -0.0004139567061563498 0.000821898230693263 
0.0003083307903122333 -0.001537999052751754 -1.195199534522696e-05 0.001029006186912159 
-2.708664326881508e-05 0.0005615539529305107 0.0005188546749580244 -0.0002111420532503866 
-0.0002045469921559591 -0.0009803031134190279 0.001491773387462325 0.0007110412571774275 
-0.0001073318114739198 0.0004159797201376105 0.0004436965767782595 0.0001485266261627776 
0.0007421486752118637 -0.0005990537101343521 0.001371892888543054 0.0002150560078768316 
0.0008631682296594335 -0.0006429502204590853 0.001019802246300388 0.0006434732187058939 
0.001019959837253833 -0.000286016799114158 0.0005504911018786896 0.0006400046577615036 
-0.0002047061588842955 0.0001079790329704986 -0.0004329270424743264 0.0001346246715806675 
0.0008414525269554754 -0.0004618442569067914 0.0007696270893441003 0.0002729599712499494 
0.0002765332615274643 -8.66383933074095e-05 0.0001791745219459323 0.0008885613582945993 
-0.0007524925409258487 -0.0018791501356685 0.0007616049314474106 0.0002879595797972574 
-0.0005068223977795459 -0.0002772865260962133 -0.002219481376467066 0.001100445232434541 
-0.0009094381509722833 -0.00150955540021541 -0.0009846691731928087 0.0005264875381699766 
0.0001626348734373277 -0.001240463410268823 -0.0001211706569511542 -5.476302088235228e-05 
-0.0003496955362096961 -0.001608913121807456 0.001292429997569317 -5.415684061126791e-05 
0.0007280754402754188 -0.001844721736284866 0.0005104245900926425 0.0002512175400757819 
-0.0009335054008605302 -0.001371635924327717 0.0005173696804151141 0.001272090771069182 
-4.630416182150904e-05 -0.001794416910840658 0.0008201985901928699 0.0004706483523561738 
0.000167607445469999 -0.001498123561223808 0.0007292412662376484 0.0004763994444998724 
0.000423676876914412 -0.0006583395202312009 0.001486188325107585 -0.0004343848534331712 
-0.0001186070918580301 -0.001599626526986214 0.0009808556407150822 0.0002541072408816624 
0.0003345840741839849 -0.00065645670416962 -0.0004732345271539349 0.001197204025132298 
-0.0003305241729456911 -2.416725040376417e-05 -0.0001196782679402936 -0.0001987805953957253 
-0.0001745955293782036 -0.0004072041525776272 0.0002486787768782523 0.0004047569587938396 
-0.0008105904673173158 -0.000612785412430751 0.000370286848165911 -0.0002241111698521709 
-0.0001600823326431813 3.812799705293304e-05 -0.0001003435003461515 0.0004348171569141243 
-3.191341331075029e-05 -0.001189823529690374 0.001531409848549195 -3.448184619895627e-05 
-0.000129547154205382 -0.0005149662608498167 0.0008842830436622836 -0.0003081141937414347 
3.414157195723058e-06 0.0001028683086586558 0.0002190413938524907 0.0003930903904149239 
0.0001365391335630805 -0.001469917533039593 0.0004851448531568294 0.0004225042318158762 
-0.001491367699130489 -0.001927520957084281 0.001299388028487584 0.0005610551101706602 
-0.000784015391459681 -0.0006020221602321342 0.0004585993763263161 0.0003645373920712094 
-0.0001117112991442562 -0.0005702082294721715 -0.0006810745191571812 0.0001701959187978596 
0.0001800049708662203 -0.001423361592053239 7.114802700656058e-05 0.0008764478227554439 
7.397819875721152e-05 -0.001502860064174112 -0.000549736206704455 0.0001863265850776862 
-2.909020512083153e-05 -0.001363233588661309 0.0002594687025951868 0.0001838571077283848 
0.0001144953295311603 -0.000990859759669639 0.0006888021320289171 -0.0001871013975327153 
-0.0002812694654469988 -0.001747336392508822 0.001666480731763807 0.000206246628775889 
0.0001597584365621866 -0.001415377634494649 0.001529454499482015 0.0002072100952166695 
0.0003317145150654588 -0.001379152032991234 0.001959339880758229 4.333141820313936e-05 
0.0004054448160418063 -0.001621628155493635 0.00171344151511759 8.873402953725756e-05 
-0.0001662177127408596 -0.001137644511634025 0.0005193407573675162 3.614817055144735e-05 
-0.0003281796291357573 -8.336128314029377e-06 0.0009942509332890404 -0.0002051224282143706 
6.483474680750142e-05 -0.0009046928669440801 0.000721710875480303 0.0001576456266012834 
-0.0003371482853759771 -6.991241322765078e-05 0.0004455658854971678 -0.001074120577856669 
0.0001643515518201198 -0.001539505075903098 0.001583856756964256 0.0003104054720096459 
-0.0001365564846149617 -0.0007125008570949725 -0.0004104561775368055 0.0009449039746610557 
0.0004847212535949483 -0.001595672473906404 0.0007339560655972384 0.0003740447162892216 
3.836520161548514e-05 -0.0005781381175826639 0.0002387419104257111 0.0007987409025320036 
-0.0005327554162453382 -0.0001855281685771341 0.0006005113929251542 0.0004158351318755567 
1.078767912039921e-05 -0.0003511661619125383 0.001273920690679376 0.0005121915113704155 
-0.0007364817079214323 -0.0001141747838378432 0.0005729493832046043 0.0001960491803026047 
6.285286774353466e-05 -0.001367856378408789 -0.0001247547431019449 0.0007489886408239631 
-3.822986520675647e-05 -0.0007383912160257054 0.001324289161753907 -0.0001662574437837809 
0.000721366698105446 -0.0009338342314508851 0.0007352742284643655 0.0007893990888324374 
0.0002681306649619969 -0.0009994914358799469 0.0008355147131208001 0.0006118187045845645 
0.0005768981851359117 -0.0006234241920235748 0.0004502730683141146 0.0003771470065217986 
0.0006356211740815776 -0.001077943587283049 0.0009975466589365884 0.0009302675943133573 
0.0005709593595036791 -0.0008259157745514003 0.0008925950534252811 0.00105294333465303 
0.000907317127761985 -2.173982455044606e-05 -0.0002750540512880216 0.001120517841104528 
0.0005368288258753412 -0.0007206953860513647 0.0008828699002902095 0.0007131293883345727 
0.0003868435169681122 -0.001418723573463071 0.0006944152196383017 0.0008870897264436231 
0.0005492063041768714 -0.001028162919384136 0.0008996393292775634 0.0001760030952294135 
-0.0002562442071292298 -0.005362923968749818 0.005748827470454347 -0.0007067742057611074 
0.0003870151872488486 -5.6743939491419e-05 -0.0007119186543393924 -0.0005326540916388696 
-0.0006870678130909118 -0.0006490407345384377 -0.000680036578702891 -0.0004202680491580621 
0.000598246027355351 0.0009676733366634953 -0.0004740947907352657 -0.000704646117526653 
0.0001906862941934485 0.0005812536167502566 -0.000171122383872344 -0.0005177620199832542 
2.656644186627641e-05 0.00118184406243355 -0.0006558515323825191 0.0001456213632541252 
-0.0001826063814784497 2.860167348679564e-05 -0.001304272357821325 0.0001978077705422673 
-0.0001400266920788818 -0.0004495897953580186 -0.0008601946087714 4.253370455886416e-05 
-0.0002011282560875478 -0.000591974673489474 -0.001725178517368791 -0.0001385851765463619 
0.0004800047962326034 0.0003279474355017655 -0.000507411533556403 -7.95419195769175e-05 
0.0002595414688152316 -0.0002130051418764582 -0.00102841469935468 -1.523488994467516e-05 
0.001032001955925394 0.0006335351770996475 -0.002712480342843783 0.0008748879310561298 
-0.0001033939396914147 -0.0005364366072890113 -0.001810437528101931 0.0001929887578926203 
-7.330856987776863e-05 -0.0007061504184855372 -0.001350632080219816 -0.000140643795958658 
-7.752332177739395e-05 0.0005586668105757572 -0.001422935895575653 -0.0005579432269194826 
-0.0001163295200212491 -0.0006822344103158838 -0.001493077772533872 -0.0001824095997217344 
0.0005494445016136497 0.0004392305449009843 -0.0004470105561746942 -8.768529646448625e-05 
0.0005058230716853491 0.0004029120668163926 -0.0007869978288035954 0.0005644091820263241 
0.0005625967981973068 0.001174459335516161 -0.000897987811157425 -0.0001115774581486237 
5.181024143553673e-05 -0.0001930313744680767 -0.0004462136907397487 0.0002733234515549881 
0.001400048906079891 0.0001317156742990448 -0.0003960522997192336 -7.40414481998149e-05 
0.001310034440863431 0.0006510461710964784 -0.000741758501944144 -0.0002437503880669974 
0.0004544034780055173 -0.0002299145272760078 -0.001033822494236081 -0.0001130057259181911 
0.0008834286388866141 7.49895439522098e-05 -0.001031290582517918 0.0004583392026364194 
0.0001285139054483088 0.0001997881990507736 -0.0004567307349147104 -0.0003720117871029804 
-0.0002656962560295742 -0.001684827668731298 0.0009817039785616447 -0.0003402372953419673 
0.0006345101037748716 -0.0004063661037681071 -0.0001425085577503107 -0.0002848257911248278 
0.0002814303968835517 -0.0005782432993282993 7.554517956062762e-05 -0.000679598890514292 
-4.074233196993273e-05 0.0003823782691547099 -0.000689791263749643 -0.0001522019736299509 
0.0004596477574749469 -0.000288725369148046 -0.0003058518530417142 -0.0003720270604567428 
0.0001342176241593141 0.0004475454150788039 -0.0001270732003759492 7.795394223598035e-06 
0.0005486457382627496 4.735082112847086e-05 6.392044918882953e-06 -0.0004439890527168586 
0.0009296818047589402 0.0005714340919281954 -6.431527071869513e-06 -0.0003039298434828471 
0.0003632436993524323 0.001125597108270265 -0.001505194964578313 -0.0003181720461387818 
0.0008127877969155524 0.001387128902183273 -0.001289452335693438 -0.0001441436723906455 
-0.0001363848222912275 0.001390861241387307 -0.001783514456082491 -9.962432640611597e-05 
0.0001068396228521616 0.0002792634241518849 -0.001056471778044192 -7.040365731796232e-05 
0.0003664741141949929 0.0004587096977163144 -0.001813166368260289 -0.0003926424030689316 
-8.773147633812973e-06 -0.0004822883507604925 -0.0006605644058242713 -0.0002150177078594792 
0.000179512708103925 -0.0005028803989852743 -0.0003155267139274939 -0.0005041172940647287 
7.147938728037382e-05 -8.248869126818477e-05 2.094590307967068e-05 -2.291941362807355e-05 
0.0001707188935086995 0.0009868329638237118 -0.0006296405514165453 -8.493601612447463e-05 
0.0004009271238554702 0.0006945775232971885 0.0004585260887350293 -0.0002917742095383489 
-0.0005265746552172401 -0.000441905382611656 -0.001720852072554416 0.0005235263149139601 
-0.0001903788335133733 -0.000852674020760811 -0.0006100277953070346 -0.0001252987586972739 
0.0002282639262386921 0.001832048515878121 -0.001543503799085808 0.0004106071180007331 
4.041887239339642e-05 -0.0008668689987082794 -0.0002357197285349136 -2.117431244406511e-05 
0.0002786167649022022 0.0001216669465378954 -0.001190053253127253 0.000300629394405686 
9.732775356282164e-05 -0.0002132753914883535 -0.0001833860749988052 0.000224341571067783 
-0.0001849070513860417 0.0003023063266821046 -0.001922697983588009 -0.0001810837990042816 
0.000821464067795831 0.002166149664899277 -0.002771802723224272 0.00050103131231968 
-0.0009695769892652591 0.0003514469936177085 -0.001119687674443995 0.0007130618845591298 
-0.0001134480516169187 -1.074775226289807e-05 -0.001181756564930689 0.0001998337736529301 
0.0007669047179605271 0.0008623365966256416 -0.002327984387095858 0.0003581834878842802 
0.0001002539291593193 2.926958863102413e-05 -0.001311081495775729 0.0001486885800417344 
-0.0001695579478415506 0.0005614063447577929 -0.0006871872585162539 0.0002777408972702457 
-0.0005242119189297354 9.835794725968089e-05 -0.0005723712471558945 -0.0001863210733265961 
-0.001551135567695103 -0.0006416629624361649 0.0007603812198959563 1.350518948618014e-06 
0.0004370827948671002 0.0007184025362044067 -0.001687618733871246 -0.0003473182560834551 
0.0003528802833325872 0.0006629953747902731 -0.0006726195166365053 -0.00107942911254169 
0.0005260309718570965 0.001595091833426558 -0.001658334834289473 -0.0006660443003396516 
0.0003938568590922685 0.001449938143327593 -0.00143499954420304 -0.0007676472186133705 
0.0002754766968206607 0.001304599306673427 -0.001358300873165392 -4.534547449494913e-05 
8.198799393239421e-06 0.0002648244017145591 -0.00136262647083525 -0.0006100650072851522 
0.0003919069197266545 -0.001172522834602459 0.0003528931209005025 -0.0003088194668674552 
-0.000648431441167786 -0.0005892624741727502 -8.356908035611992e-05 -0.0007122002761600616 
0.0002767428654168042 -0.0002116245720242538 -0.0003510515817194024 0.0001722805457024238 
0.001061063633735615 0.0010172748593962 -0.001516774932088896 0.0007766001400813734 
0.0005854757247392132 0.0005336724337011811 -0.0002429296104656658 -0.0002462297217210811 
0.000584001258634903 0.0006753012205502743 -0.001301193973692204 -0.0001822925638695345 
-0.0002781103229222604 0.0004816940953600695 -0.0001820428808452566 -0.0001990355675828595 
0.0004345630735234999 0.001184639805977555 1.834040973922655e-05 -0.0005121927665541105 
0.0007918128907745328 0.001390308081839314 -0.001238309588027228 7.40076984771562e-05 
0.0008127854141791009 0.0005661269987279112 -0.001732919805392488 0.0002874294482525334 
0.0007485151831891346 -0.0002599774068982605 -0.0005829086998867325 -0.0003499649794003348 
0.0005497254519972134 -0.0001507709429050166 -0.001108798615237733 -0.000177533930630692 
0.0004346758960488078 0.0004344239528792445 -0.0002639527452088731 0.000308317375143187 
0.001263683193070265 0.0006179637284666809 -0.0007770223017658876 0.0004075336671082802 
0.000355064395121965 -0.000602258311733462 -0.000406778608238287 0.0004319207848883566 
0.0001869398686093725 -0.0006770571107078902 0.0005328899108277507 -1.892916467301446e-05 
0.001060053571976249 -0.0001590295586894735 -0.0002340382721451442 -0.0004084048308028788 
-0.0001940538076886551 -0.001339947369511036 -0.0007722096940146448 0.0001335605224855822 
-0.0003459916692527105 -0.002316171314753856 0.0006632122899627778 -0.0003151215860735158 
-0.0001029276182481252 -0.0005775531622557355 0.0001567243021968045 -7.294424527156528e-05 
-0.0002135919685672306 -0.0003742044668990548 -0.0004090605842475208 3.207620646647276e-05 
-0.0001628525205673985 -0.0004487518145372798 8.463620499828639e-05 -0.0002121835696815033 
-4.927657910950799e-05 5.401104376955537e-05 -0.001296440743209168 -0.0001114500312147176 
-0.0002976598981682749 0.0003122329003048417 -0.0008918367684750093 0.0002452030417472925 
-5.336615077594978e-05 0.0002190791560625267 -0.001285508945138716 6.343373425520599e-05 
0.0008108519449192986 0.0006585406459925936 -0.0004034405714303156 -0.0003850147935311121 
-0.0003159298137974112 0.0003788773042948912 -0.0006495357704063416 -4.968088964680053e-05 
0.0003714991481827371 0.0004894001002296024 -0.001506136256704227 0.0003183538168154969 
6.035144828364585e-05 -0.001267487491321077 0.001361703657300249 -0.0004886229519024781 
9.057065562635808e-05 -2.017432011140052e-06 0.000876759761563915 -0.0001359051701326294 
0.0005387609985423526 0.0007358268722482369 -0.002095588721642804 -0.0006606989761995514 
0.0004668748879991682 0.001364879082530327 -0.0008585009618171017 -0.000611435235765715 
0.0006667173209474313 0.001265403610183362 -0.000639610531430879 -0.000277825561173176 
0.0008028543016236772 -0.0003188894118648128 3.492083380043216e-05 3.938823128430805e-05 
0.001101692580885596 -0.0007164639398662517 0.0003698103877385548 0.0001058010312534207 
-0.0003109830295011519 -9.327499155199225e-05 -0.0004679343175008271 6.609800242344961e-05 
0.0009071027617527297 9.209215483226951e-05 0.0003868696315611897 -0.0004805432192731794 
0.0001875790470175466 -0.0007926688185190037 -6.358150816622954e-05 -0.0004234284360152065 
0.0001531596726752629 0.0008484754819996527 -0.0007408307735663802 -0.0001896871438452454 
-7.024459120948171e-05 -0.0002688216821947677 -0.0005723983509652927 -0.0001638385490371588 
0.0002661482507519241 -0.0001640636975908402 -0.0009568210481955822 -0.000270302319474724 
0.001285443588244505 0.001010773088240374 -0.005464872453113127 0.005976427686972778 
8.524511540559213e-05 0.001671522509523187 -0.0002858279000193216 -0.0004956666183930265 
0.0006127805239814097 0.0002538854251136763 -0.000368841131951115 3.320029762108981e-05 
0.0005284597024067325 0.001195036562846921 -0.0007022393756937132 -0.0003897295415795089 
0.0007076074660725471 3.508301702895139e-05 8.376194888811987e-05 0.0001256542571187268 
0.0007418728130932892 0.002413372036965831 -0.0007542289235454123 -0.000778156770751592 
0.0001244817613141843 -0.0003231493460410053 -0.0003298199744533302 -0.0006612191497781272 
0.000338578751315076 0.0002552608601545267 -0.0004876458350263295 -0.0003045048862239457 
0.0002512822075637999 6.735014300158602e-05 0.0001413391066895337 -0.0004165416158456514 
0.0001022020167237451 0.000104318722430269 0.001009803149880235 -0.0002496996330043241 
0.0003844090028447164 -7.542054991539834e-05 -0.0003537791829018701 -0.0004397884712340563 
-0.0002719697952288871 0.0001204219081410853 -0.0007880403413498609 0.0001505823700199237 
0.0007117262400518307 4.660131921565725e-05 -0.001321340097720829 0.0003695852972635856 
0.0008946085951987223 0.0006674575102742549 -0.000407281489406589 -0.0003576747040699031 
0.0004566608419431755 0.001478463005536402 -0.001253013412304445 0.000293547109961836 
-0.0006569173538250924 0.0007868116271648524 -0.0008413943948124041 0.0005001065193717171 
-0.0004848051890875656 0.001253886571295601 -0.001579367670891991 0.0005865674723097735 
0.0002674989571014376 8.235527015996435e-05 -0.0006249015368296688 -0.0004026128455020998 
0.0005988014877723337 0.001121513854080967 -0.000165764047673743 0.0002125543342502529 
7.053370435884172e-05 3.742660002793446e-06 -0.0001682603163536502 -1.708943247145727e-07 
-0.000446987137101207 0.001353619249583489 -0.001800827749219286 0.0003854313777284763 
0.0004364028895159566 0.0004185187010406246 -0.001399100367905808 0.0006576821993071455 
0.001240174204324597 0.0002378234370993105 -0.0009084434240565257 5.270520263120456e-05 
0.0001867883577313523 0.0005401749980863217 -0.0003484931753965193 5.405395544643141e-05 
6.079831865745541e-05 -4.448878215969222e-05 -0.0004289051302541953 -0.0001182351573196601 
0.0009622851691496104 0.0004612431197094674 -0.0008491283936073573 0.000178512489568851 
0.000101691571045222 0.0002783607916878805 -0.0008733877575944751 0.0007044772782098444 
0.001409788716822206 -0.0009116590524317508 -0.0007699577139454253 0.0004294896352097496 
0.0002614229713465415 -0.0007116539707618067 -0.0001487185671502524 -8.650105075850729e-05 
0.0006363819662666579 0.001225696601823903 -0.0004663767370294832 1.340807329034478e-05 
0.00021204306790026 0.001370002775444299 -0.00182237200963964 0.0002382861887048463 
0.0004420186354480549 0.0001797193492625307 -0.001197399029154555 -0.0004086767491700241 
0.00176856286692676 -9.900255235969601e-05 -0.0009774515454075404 0.0003713624455846317 
-0.0004001891364582191 6.992038120149746e-05 -0.001031373265990658 0.0001680980341050895 
0.000550321479599522 0.002598930425816152 -0.003265935070720836 0.0003921185933579591 
0.0001405704378910864 0.001661538311987043 -0.001990405301594907 4.93759171005244e-05 
0.0007031887646046394 0.001470421497133069 -0.001590775002469995 0.0005066569320186804 
0.0003506106980202298 0.0005964641056769745 -0.001316873940681593 0.0003365066002349825 
0.0005975536771257808 0.0006022603676822805 -0.001211329515012542 -7.135300233487614e-05 
0.0005949610449697372 -4.359963509497341e-05 -0.0009640199467159544 9.606197890567874e-05 
0.0001615836298296834 0.0005872524271658958 -0.000638249662854911 -0.0002677224941860697 
0.0005200791461822345 -5.112337748074057e-05 -0.001615548523571523 0.0003295531628921977 
0.0004413405308234988 -0.0005155833230339989 -0.0004715500586162466 0.0002715530388316614 
0.0006457669609561655 -0.0001076188378465544 -0.0005475537484531053 0.0007183319418143921 
0.0004451556609720298 0.001419394606727499 -0.0009467662042979851 -0.0006222937952566363 
0.0001852377262533885 0.001887720572718804 -0.001140135581929185 -6.216716658968946e-05 
-0.0006703167477574928 -0.001017033222820252 -0.001480908825515783 0.0001252454850811239 
-4.873244760205874e-05 -0.0003530554838604893 -0.0005693954469101754 -5.972244658814867e-05 
-0.0002133667794686084 8.072906586224963e-05 -0.002108937357161094 0.0007368738512034982 
0.0002198226939858081 0.001041449345909298 -0.001113251817665518 -0.0001038457146099735 
0.0001614212374043189 0.0004835543979671323 -0.0007424966959796144 -4.967168958208973e-05 
0.0002124705780323527 -0.0005454520862130328 -0.001216974792102288 -0.0005340893080565723 
0.0001344656616564681 0.001660514125262334 -0.0013549939967552 0.0006636737055664862 
0.0005029426451333499 0.0002067640051967064 -0.001550135767048481 0.0001881262050517348 
1.25774612114505e-05 0.0004565122863459768 -0.0009534104651339068 -0.0003009744196307068 
0.0007368949292205159 0.0009929447554121713 -0.0001984459314828603 -0.0004597913991767893 
0.0001502625490621075 0.0001867282968640319 -0.001530766356749959 -4.057554864934356e-05 
9.335689759892895e-05 -0.0002441245139964024 -3.480587023941552e-05 -0.0001671988124853673 
0.000568075155363908 0.001383035936097969 -0.001203749343074076 0.0002107949249273328 
0.000167648983568718 0.0005342052127423664 -0.0006672820143161876 6.493339551421191e-05 
0.0002256498288218502 9.346607015797156e-05 -0.001053983026180938 -0.0001695098338133062 
0.0001677382506297212 0.00198530267781392 -0.001606230549685802 2.502151682034609e-05 
0.0003229457470449075 0.001019614298171696 -0.001128263643856466 -0.0001423880918118684 
0.0004689116722511078 0.0008522991250290322 -0.0015387088314807 0.0001323202297806283 
0.001236966964236622 0.001119642165242843 -0.001404299141645881 0.0001286188394832379 
7.011603500102326e-05 0.0003201106509045179 -0.001025198907386514 0.0001604927075958345 
0.0007760251426828516 0.001397333289552709 -0.001809339150935542 8.513161262998473e-05 
0.000334670437167309 0.000879477294993063 -0.0003011379551836438 0.0001871737040340398 
0.0004015049371147713 0.0001500128301377553 0.0001076621132057666 -0.0001944027151861064 
9.327737665997984e-05 -0.0004690458697903327 -0.0003594037557073925 0.0003052419250896066 
-0.0005132993276024594 -0.0008676017277569696 -0.0006236032265424879 0.0002640642613078428 
0.0004749516953233822 0.0001602601086110387 0.0005756325853787086 0.0002165296971714918 
0.0002175722967624379 -0.001089771414974101 0.0007835271762845671 0.0001713500870372796 
0.0001091364230884227 0.0003571573054317095 -0.0009421341768168443 -0.0006716120397035502 
-0.0003539335330805236 -0.0008436299779368964 0.0005747795164523211 0.0001235232459110558 
0.0004805538410879929 0.0003682277601381742 -0.0006371384914475391 4.672208028728235e-05 
0.0008815812173516496 -0.0004318218014539964 0.0004865898636516657 0.0004992275313603474 
0.001376333277396038 0.000645855398172426 -0.0009783955589539534 -0.0003317944858784817 
-0.0008107225312375623 -0.000254269467662667 -0.001608902396319938 -0.0003799639453738575 
-0.0001692608520747118 0.000837491365141431 -0.0004862650536715073 9.22532562362754e-05 
0.0009444309529713671 0.0001745299914021068 0.0002744337179656958 -0.0001369326280790448 
0.0009202702568158013 0.0001373687058865688 -0.0002048387025492444 -8.677967948698614e-05 
0.0006642421063423649 -0.0002272530240192916 -0.0002343643333803968 -0.0003877102555655238 
0.0002299655141830994 -0.000818464128201186 -0.0004248405516508336 0.0003006359921431924 
-8.568396753843298e-05 0.0001216557467977619 -0.001410205390089695 0.0004802223009316253 
0.000238224074087977 -0.0005166836610759112 -0.0005966222593585074 -3.415078716683151e-05 
0.00036139850518275 -0.0001683389884128088 -0.0006773237148517183 -6.634245600511881e-05 
-0.000459687316460446 -0.0002228737955753989 -0.001470918713571116 0.0004936827292635076 
-2.948825128941745e-05 0.0004109285730682989 -0.0009689384672805309 0.0002975803318679024 
0.000441602129862567 0.0005009661947972503 -0.001101104005300812 0.0004897767013435748 
9.718261850644251e-05 0.0007196658225479749 0.0002969366871933093 -0.0004701218054324012 
0.0005162613539805527 2.528393730422122e-05 -0.0005622181168713482 -3.095061943872648e-05 
0.0005949672909942831 -8.310380291111189e-05 -0.00128933853410523 0.0001024171661306267 
0.0003057103010882638 6.934514538180872e-05 -0.000561440490351382 0.0005694702524153838 
0.0003549885188765143 0.001642955298096081 -0.001872019788895264 -0.0001876527730590268 
7.944496281395401e-05 -0.0002428330599982632 -0.003669652789007485 0.002710014032261741 
5.068037642201491e-05 0.0002779838134447615 -0.001023339733100096 0.000642108429457523 
0.0006438866223264901 0.0006293499466098996 -0.001257680433931984 3.577051413785008e-05 
4.759584740266057e-05 0.0003521115966407301 -8.049270226579673e-05 -0.0006829750055514721 
7.818952634928068e-05 0.0009631991314135817 -0.0001043549501707383 -0.0002718678079474836 
-3.413295701725766e-06 -0.0002894232487486371 -0.0004207680248622133 -0.0003428726161013242 
-0.0002693975877663848 -4.158326335646614e-06 -0.0003269421428224039 4.104921520928284e-05 
-0.0001202220441379387 0.000770210156166141 0.0003621465234091873 -0.00029470047585765 
0.0001199943240054212 -0.0005795484169713993 -0.001435726989417673 2.142595454140402e-05 
0.000402409938377796 0.001367284601477275 -0.0004776733016485386 -0.0004486473903532692 
-3.749870445029908e-06 0.001101525797168819 -0.0005780285577078216 -0.000375751917753369 
-0.0002897571807877532 0.0003245750179179722 -0.0004265300257426003 3.620297698618063e-05 
-0.0001533339876322829 0.0003298868455454446 -0.000707272428063915 -0.0003162165669374913 
0.0001218648888577515 -0.0001198246506786525 -0.0004293029394624321 -0.0001433887760799503 
0.0005183879262896545 0.0006275494626900985 -0.0008490253672326265 -0.0004452708040946128 
0.0003618369148924114 0.001672178627679939 -0.002311757024386767 -0.0002572603714296539 
0.0004037699051347112 0.001335085038345182 -0.001482721644714664 -2.263638639239876e-05 
0.0001218648888577515 -0.0001198246506786525 -0.0004293029394624321 -0.0001433887760799503 
2.138077943278322e-05 0.0007701995802020445 -0.001528920097509741 0.0001679484849640415 
0.001203331621319804 0.001078526853096955 -0.001370241047979495 -2.485682973213994e-05 
-0.0003913480853158418 0.0003193374391380213 -0.002981164193058542 0.001775840777101121 
0.0008413618881657447 0.001255399430148538 -0.0009875568210644258 -0.0001362809868216896 
-0.0005784942429510112 -4.420710798611372e-05 -0.001026256828634723 -0.0009764096703178906 
0.000120005070399164 0.001344193082168843 0.0001824595239590329 -0.001162827196188095 
0.0007954495540388522 0.00125606751648575 -6.477513754891027e-05 -0.0006881577299919694 
0.0001354234838513147 0.0003727674120791831 0.00026168857833658 -0.001355396886596567 
0.0008057615741136538 0.001863466640548363 0.0003573349719893239 -0.0002789164883573808 
-0.0006592281099287333 -2.676297603325007e-05 -4.946682475409202e-05 -0.0006925228948440873 
-4.486107280380997e-05 -0.0001883784930556096 -0.0009522604278807035 -0.001215902307588479 
-0.0003835742279632412 -0.0004062149666411517 4.865340023568675e-05 -0.0007037259836345016 
-0.0003256671414557178 -2.099292679153854e-05 0.0007842755324130425 -0.001492664687279075 
7.648426145558117e-05 4.445635197321886e-05 0.0001704198863157591 -0.00195673885138171 
0.0002825136891147564 -2.827010598701405e-05 0.000980703145078288 -0.001033195827237446 
-0.0007037722499086252 -0.0001609844800556286 -0.001032010502080269 -0.0005457716178909143 
-0.0006620023933094044 -0.000400006069437535 -0.0008794118616384695 -0.0008767908327444577 
-0.0006842139829311991 -0.0001463411254805033 -0.0004426998716327602 -0.002467728720971363 
0.0007591661431030987 0.0009083117757766116 0.000932534025148717 -0.002264545547217358 
0.0001362177368372451 0.0007733923649699083 0.0006168698375459388 -0.001872822138731556 
0.0003040811208851525 0.0001983963784855953 0.00044968330944229 -0.001576176458618993 
0.001026276842776297 0.0003015050355458438 -0.0001272938983538367 -6.862745914334223e-05 
0.000897650007577553 0.001686760766693914 -0.0005666531605753563 -0.001118708232901028 
0.0001327599916892337 0.0001333794326255559 -0.0005513659046189919 -0.000783592116212323 
0.0002376546440031195 0.0003668176600341868 -0.001137238635664477 -0.0007580536147364814 
0.0004527867249404824 0.000914151332474065 -0.001741340153816853 -0.000329790581625766 
6.459540474104967e-06 0.0005136741280051572 7.992356638384761e-05 -0.001527461288456376 
0.0003230788054862499 0.000798342573524829 0.0003700035466594919 0.0001222692684894265 
0.0004133634171282784 0.001070148895011636 -0.0001266725372625994 -0.0006606837413705099 
0.001067544381389265 0.0004394355448113716 0.0005986296538075636 -0.000861290583526264 
0.001346904634712685 0.0003463619449125937 0.0005431973600695747 -0.0007289862623210499 
0.0006157815725388949 0.000553426597109018 -2.10198056369555e-05 -0.001083784163934051 
0.001140870156635678 0.001079774681441463 -0.0008624702052133106 -0.0008946877813381821 
0.001386847638313029 0.0004776336892759273 0.0002049552191511632 -0.0002977829134384508 
0.0006624149730872021 0.001464962801264952 0.001873688513022112 -0.00268902005645456 
0.0002293899119064315 0.0009861989988174389 -0.0003827461146873834 -0.000818323327526443 
0.0009649238830426012 0.001156749596799186 0.001436991023236156 -0.001495274709465362 
5.18985614337201e-05 0.0009665753744607443 -0.0004291413310635091 0.0003510973056224622 
0.0006213496086601687 0.0001445609458780721 0.0001859068722278468 -0.0008470720589899415 
0.0004592537226920195 0.001363305068041444 0.0002703348578545917 -0.0004524167190190468 
0.001007443965998533 0.001665088965821312 0.0003269198292093384 -0.001466136974128955 
0.0003490842008262143 0.0009861506906901035 0.0007446928404143058 -0.001613339903996908 
0.0009672234532487724 0.001002307717400544 0.002170273525400073 -0.001750393012013665 
0.0007478978819693831 0.0006083097468632088 0.000203360366800766 -0.0006997309943093812 
0.0004254803823364055 0.0004374448721215159 -0.001006625701632819 0.0009019872696711558 
0.00128522307666218 0.0005885531717888647 -0.0001135334937684019 0.0003508783361714537 
0.0004096631941601699 0.0003062155882446226 0.0006293478830918783 -0.0007927178605422173 
0.0007106184164299642 0.000762837439185938 -0.001321107695952701 -7.921522239230382e-05 
0.0004501579907463222 0.0005991820828075721 -8.501476668674698e-06 -0.0007326567488835159 
0.0007168008607875758 0.0006910987092300813 -0.0006035798907518448 -0.0006713611478961118 
0.0004961503559293331 -0.0002096314221448801 -0.0009550876365546405 -0.0002924323335754337 
-0.0001739191116040465 0.0003938129962785296 0.0003078809764263415 -0.0005907564890176484 
0.0002519499833218782 0.0002642979465878547 -0.0002513670698458553 -0.0006399709249349807 
-0.0001521534939200481 0.000399309315194341 0.0002888186628391709 -0.001411444792995002 
0.0004832031455028826 -0.0006151313124304329 0.0003533208049984057 -0.001393768513811086 
0.0003408706475836531 0.0004892811643727273 -0.001093168857015849 -0.0004715496257910293 
0.0005805874319491773 0.000605196181774202 -0.001330947646175801 -0.00101567721629624 
0.001549626707094018 0.0003252896325258803 -0.0007679862815040089 -0.0005734849815346418 
0.0004125151430112801 0.0006439867758137049 0.0003455766758467564 -0.002304116444858157 
0.0003907571401468514 -0.0003142040939172572 0.0009319329969729099 -0.001795770044718202 
0.0002788116135572061 8.758493158231691e-05 6.289700617553101e-05 -0.001511139383138033 
-0.0005997160004313007 -0.0003643991158057177 -0.0009107911705127403 -0.001672177993817567 
-0.0004173571209728819 0.0006453119761689288 3.207055037067933e-05 -0.001282149900720686 
0.0004813103404601983 0.001065796115129939 -0.0001071979518523052 -0.001739231487678718 
0.0002097137782551472 0.000249431728170213 0.001288288389662268 -0.001821658129432557 
0.0002424255476707828 -0.001372168940651252 0.001605483967571873 -0.002211884770639169 
0.0004619790696302529 -0.0001345553327904096 -0.0005248003688019969 -0.002633052030524653 
0.001021193910301876 0.000455531981073732 0.0006602176408520809 -0.0007788109143424616 
-6.727501921286475e-05 0.0009052132441424096 0.0003170013117365623 -0.0007671821438382123 
0.001350613743096683 0.0009514210357426109 -0.000394869076946949 -0.001170636434577972 
0.0005395415291100276 0.0005962971149687486 0.00090325471299389 -2.161133220780995e-05 
0.0006574433718742371 0.001128892860424278 3.990488080002176e-05 -1.013405972446659e-05 
0.00111978791342134 0.0004745065010437051 0.0008430674848105829 -0.00185899072793686 
0.0004660512733941594 0.0007472187072086891 0.001274371279503598 -0.002826466417628012 
0.0007933509237026574 0.0008017011099286138 0.0008753823836266645 -0.00217103194150857 
-0.0002799975433115158 0.001599822166827753 -0.0004149903452284556 -0.00137404269928923 
-0.0001337136462286283 0.0004454898740829554 -0.00137779278444641 0.0005490278216676845 
0.0005329502715698362 0.001012464740058977 -0.001621520327667742 0.0004349864330298104 
0.0008533909281752414 -0.0006444130357800741 -0.0001006203015546806 -0.0006171008026866747 
0.001089965260688963 0.001270729875833104 -0.0008186913521515312 -0.001542077528612882 
0.0004119501048748257 0.000410363341554122 -0.000304693927474535 0.0004138780613744649 
-0.0004996040405746131 -4.689052085863971e-05 -0.000886115150574847 0.0007816660136413412 
5.072922341338266e-05 -8.584185384769132e-06 0.0001071421558104049 -0.0006981575335779972 
0.0005273600514416393 0.0007234220437005896 -0.000769981962161383 -0.0003772292875185896 
0.0001449160465224805 0.0002321327571747363 -0.0001182767710930062 -0.0008986869444884298 
8.22003644733874e-05 0.0005390945656769459 4.964708267354927e-05 -0.0003883833356850009 
0.0004495261677579543 0.001804763907442454 0.0005997588622813372 -0.0009186803868329332 
0.0007771683521661032 0.001330278345804541 -0.0003575540443008665 -0.0006212182815079164 
0.0003185623803868998 0.001104996801859396 0.0009466126390590536 -0.0005071793814055114 
0.0004636799910404459 0.0005868821143608308 -0.0009741896479900091 -1.174934678423524e-06 
-0.0001381877565117518 -0.0002262768678618311 -0.0002067939280147019 -0.001194840702690594 
0.0005649618647391515 0.0009322493404542868 -0.000729229856054099 -0.00169888710651194 
-7.163132084973153e-05 -0.0008234440855121033 -0.0003181448872567736 0.0005409484118369284 
0.0004671804046766356 0.0009207184147423766 -0.0008129785634043802 -0.002363502462146613 
0.0004191305642877745 0.0007651367222217407 -0.0005694939069184943 -6.902949921053731e-05 
1.04722412907046e-05 0.0003298205440435842 0.001055586038944582 0.0004394115411868863 
0.001076867164705345 0.0003633220032496368 -0.0004938969916310304 -0.0003370735829506865 
0.0007457221430955839 0.001292866285569296 0.0005298782589329994 -0.002108061996030466 
0.0006102352540426833 0.002118997981346657 0.0004368410689261337 -0.001135976573950157 
0.0001603993367544803 0.001651249811485349 0.0006175310384288207 -0.0024592168974089 
0.0005197350985613571 0.001135993863980364 0.0004266672646577534 -0.001806233875753532 
4.459329721160025e-05 0.001749411273078221 -0.0001354473917444934 -0.0004195910669064018 
0.0003769724437964199 0.001025321064570715 -0.0005148549271509951 -0.0008289323252837411 
0.0003238399309701321 0.0005316304714037248 -0.0003919360856543614 0.0004759200994902885 
0.001064435886494801 0.001007525066569671 6.978346967346481e-06 -0.000494862336047355 
0.0005075464632334372 0.0004623534525909276 0.0002485780360297012 -0.000813220249665863 
0.0005947486061285782 0.0007277484865055838 -1.919856630830767e-05 -0.001050436355891324 
0.0007876424843986154 0.0004100335647684747 0.000349180420284567 -0.001073947611139791 
-0.0001409390943538258 0.0007022518158437558 -0.0007796567703224693 -0.0001416206294832264 
0.0003200672129958916 0.001303311740214146 0.0004585291500411134 -0.002164658262152277 
9.559118481337439e-05 0.0007458496200374425 -0.0002833190497124631 -9.746044911415283e-05 
0.0003653161723021005 0.0006221287711425119 0.0002842944518448796 -0.0005049805983966414 
0.0001528027212275141 0.0004878370562320496 -0.001657034546075169 0.002578639527344201 
0.0004096348312047133 6.81224305663452e-05 -0.0007881596347887054 0.0006597902659301045 
0.0003867308593555692 0.00092004012588056 -0.0008030504686416221 0.0008584059229971415 
0.001325455844266341 0.0003563523132048326 -0.001143365384649869 0.001038573164502149 
0.0007665349025599233 -3.307819001108292e-05 -0.001121614077318871 -0.001071424917700609 
0.001076687948611164 0.0001556723301570288 0.0004176849505516742 -0.001095570640656552 
0.0006627327358583343 0.0007939012350417358 -1.687850193354485e-05 -0.0007501457473103881 
0.0007736406851086633 0.0004474266803513924 0.0001163247438536379 -0.001250645439701694 
0.001169387169984184 0.001190859418803051 -0.0009774437289672955 -0.0003790804196185291 
0.0008779195958114206 0.0007400502406143696 -0.0005380158172184524 -0.0003153308252825305 
0.0008652346432870463 -0.0002991605672234417 0.0006251117202496911 -0.0006028958933913507 
0.001223984706154524 0.001574737153656356 0.0006619513038804988 -0.0002168214025401015 
0.0008325297309480624 8.334767823189579e-05 0.0001974634056152082 0.0007946788699582694 
0.001039757093033479 0.0004251277844519134 -0.0006454878200425032 -0.001237051204121747 
0.001255970613752545 0.001204899846445164 0.00067060549557919 -0.0005782821403461883 
0.0009857845554840984 0.001895921851948949 0.000489950557428525 0.0001212713141420921 
2.781025173852464e-05 -0.0001264397291251268 0.000137655725032333 -0.0006113799139649169 
-5.675446825534814e-05 0.001026899246593928 -0.0001256309435727715 -0.001338387185578266 
0.000540805977176045 0.0005655252767955377 -0.000828109841840779 9.825862735807588e-05 
0.001389754345668073 0.0002969815370040355 -0.0007257752288018292 -0.0009574405223847788 
2.104173860752018e-05 0.0001908624992591162 -0.0006291497603085261 1.090157801628664e-05 
0.0008074781001692685 0.0005020210188559521 -0.0009899776742891403 -0.0007652099186213422 
0.0005929593228550326 0.0001357086185276977 0.00153725597588425 -0.001789378634797771 
8.011324620658288e-05 0.0009871962975546448 -0.0008260999087487023 -4.171358075165525e-06 
0.0009314771825092572 0.0005345431683543467 0.000502554574707316 -0.002030045969579107 
-3.666082253484276e-05 0.0002755636591082642 -0.0008991572737087689 -0.0009748879682291096 
0.0003645938341856205 -5.683021789631087e-05 -0.0002741092486560826 -0.0004360495947830941 
0.0005587699322923429 0.0004118399412908762 0.0001638065819316477 -0.0004878202500385405 
-0.0002470353526514023 -0.000312646897414858 0.000246188700215328 -0.001379233493452946 
0.0009594792026178995 0.0007327727732625737 0.0004893304281731338 -0.001175093614320596 
-0.0002559082491113717 -0.0003973867151487516 0.0001198479885875493 -0.0007123300080644247 
0.0004174000078723642 0.0001099602383624082 -0.0008300813333442739 0.0003134639977784532 
0.0004784028352987234 0.0008604910486755893 -0.001337437386772106 -0.0001207532040959987 
-0.0001162847326535483 0.0002841411703394357 -0.0004370281297886262 -0.0001919800809015002 
0.0003311476858135424 0.0005849725925631217 -0.0005353345515518965 -0.0002386626227015053 
0.0001130325660053917 0.0005943348394322161 9.768590848764783e-06 -0.00227706024953132 
0.0007240295401830529 0.0005977210038936418 -0.0007855850338947788 -8.458805794313671e-05 
-2.228676836453295e-05 0.00103527307391495 -0.0004088527916114427 -0.00155418656970281 
0.0005084080553531933 0.0004290811196274674 -0.0003784203404234373 -0.000936677763846472 
0.001228943768508496 0.0002859745716298796 -0.0008160970592420771 -0.001564288817685156 
0.0007961963992374945 0.0001951824195545113 0.0007299099149647405 -0.0002152419788046635 
0.0008605505842337199 0.001177672361301575 -0.0005143098217509754 -0.0007248140636912708 
-0.0001725261339000894 7.726571605723294e-05 0.0001184133731488944 -0.0002303193834748876 
0.000620605121971238 0.0004183409342088338 -0.0005151032813501935 -0.001101688935171446 
0.0003849267795897348 7.306416135909762e-05 -6.721961691242205e-05 -0.001144619840115686 
0.0006759628104156881 -0.0003919307514510977 0.0005988743482944672 -0.0005017420951346933 
0.0002282154005969162 0.0005099008963076986 0.0002279768907980271 -0.0005846274922343984 
9.051636770486261e-05 -0.0007625302124898352 -0.0001947805199245184 -0.0004943726668097197 
0.0009800834425518746 -0.0002083018236155974 0.0005630730274143832 -0.001018632354106402 
0.000756386540964569 0.0001744309538677055 0.0002970010877821526 -0.001448140141451766 
-0.0002504583973350096 -0.0001570182754423622 0.0002293085896464138 -0.0008520589118694754 
-0.0002908167224718499 -9.17808741252499e-05 -0.0005274832418394228 5.256412004560353e-05 
0.0006938245952542678 -0.0003686218573527084 0.001274162934706072 -0.002862575127920967 
0.0007033363455292812 0.0003982411546977389 -2.03409586234097e-05 -0.0008107489041117232 
0.0008377862974740137 0.0002875604400795204 -5.520441903120032e-05 -0.001286595858545474 
-0.0002278006258330935 3.032298758984534e-05 0.0008445550301723081 -0.001144417072779512 
0.0001849119772277492 -5.340875595884651e-06 -0.0006132510908451184 -0.0003878259515963883 
-0.0002327517613888295 -0.0003805166602426684 -0.0002215026573692748 -0.000418261952438981 
0.0004015161902514001 0.000516537511595794 -0.000349997367732141 0.000592479008543586 
0.0004658019036191922 0.0005091244000401156 -0.0004608451345116194 -0.000240985112206771 
0.0011339501290215 0.0007406507376437983 0.0003999939519033283 0.0001706625126403992 
8.359678236103193e-05 0.000661149869050577 5.679145998642313e-06 0.0004647931427983961 
0.000839318357207537 0.0006138215465948275 5.86896003394296e-05 -0.0002985644620758158 
0.0004651841481018007 0.0003653444189946185 -0.0003035222585225146 -0.0003689052411465386 
0.0007451194622811566 0.00070455344127565 0.0006588756279077343 -0.0007999873320413813 
0.0001685728631385123 0.0008572336579912287 -0.0004957734642691843 -4.412437965600404e-05 
0.0001660272409909256 0.000883855471944369 -0.000880608543359689 -0.0003947304013169624 
0.0001431411096141051 -0.0006372579450377799 -1.535880006439567e-05 -0.001962482056312654 
0.000555278897324755 0.001123518723658682 -0.001466789109642735 -0.001505875704711264 
0.001383229606130562 0.0008721047966410733 -0.001063985325689445 -7.520083856958503e-05 
0.001057837755080689 0.0002705835751450034 -0.001064091590212085 -0.0001627358069560087 
0.001074856645629528 0.0003652030934263877 0.001025035560118437 -0.002352343592302703 
0.001310625130768326 0.0007152658612359485 -0.000458527341208721 -0.0007857687151929978 
-0.0002815970986060904 0.0005801165923115438 -0.001460923399703713 0.0006305455878752225 
-6.925494515622246e-05 0.0002141597363039192 -0.0001174660027361681 -0.0004819273676837823 
0.0004454727685895163 0.0003438342073441824 -0.0001292044176144125 -0.0002848185805334215 
0.000881056409426536 0.0007827827243471246 -0.0002376747931875708 -0.0006148725449308887 
0.0002144053163086529 -0.0004415986338779681 -0.0002122079217200629 -0.001037443836580085 
0.0005932050583348223 0.001011901194568194 -0.0003719278131339175 -0.001815835158947316 
0.001113848528145932 -0.000579560847197056 0.0007545901140830343 -0.0005587602656608025 
0.001023518710156832 0.000522285859958585 0.0003952708434352138 -0.002004000990120875 
0.001172142219060948 0.0003893047427762563 0.0003034940229620248 -0.0006257856465574073 
0.0008029540875650989 0.000757421873455247 -0.0003330418394144063 0.0003339250058625262 
6.20657316276827e-05 -0.0001636751773717631 -3.215394933454387e-05 1.623571101940332e-05 
0.0006662523081675702 -0.0003049295006915691 6.681817849150872e-05 -0.001009054917067372 
-6.938690488755215e-05 0.0001341932877023661 0.001533636050349314 -0.001905664354536394 
0.0002984837587846787 0.0006344551769993034 0.0006012559491788229 -0.0003994197215164945 
0.0003197371767695675 0.0007975882437532728 0.0004817532828153654 -0.001165525651915334 
0.0001611637202377823 0.0008378254820554259 0.0001112260134254955 -9.907665660507998e-05 
-0.0006166571116017648 0.0005162077892674149 -5.943369418976003e-05 0.0001764981237027206 
2.802033839788356e-05 0.0001491869836858698 -0.00109231448652832 0.0007271411351041132 
-0.0002144814844798196 0.0001001913803563502 0.0004607514716148661 -5.255752030813107e-05 
0.0001967187926281822 0.0005297036874766442 -0.0002765699286229824 -0.0003112452269628827 
-4.260992348222603e-05 0.0009529753200013094 0.001669490196702016 -0.002480995221169713 
0.0007257896527637672 0.0002280230787385298 0.001354262427821509 -0.001310119068678385 
0.0007421569023266731 0.0007799024442194 -0.0005327421332977341 -3.530927773192404e-05 
0.0001925835303293414 0.0005529930462691335 -0.0006483932900534016 -0.0006928965436816248 
0.0005119878968813464 0.0006396841215500328 -0.0009749471246735783 -0.0001621285245830775 
-4.643534705730331e-05 0.0001269670173085442 -0.001508022248154301 0.0002534922511124017 
5.504744848986663e-05 0.0002381459009219503 0.0001925271725427814 -0.001185170663105671 
-0.00012383830137878 1.490780720867673e-06 0.001352579744337219 -0.002635393929769177 
-6.750769077457827e-05 0.0003195631598856634 -0.0005400535805356034 0.0004062977645826873 
-0.0004238767232882367 -0.0002720050755257658 0.0005904277476759978 -0.001580520997750247 
-0.001355260005712869 4.120579532117506e-05 0.0002946914731061265 -0.0006760249718486431 
9.780186884842696e-06 -6.016143259048415e-05 -0.001495594963759807 0.0004814591018129833 
-0.0001167046101173085 0.000755618966322299 -0.0007501982806044227 0.0001689328345538158 
0.000244079594781743 0.0002411682151454913 -0.0004862276705856294 -0.0009372519159265804 
0.000337620000284704 -0.0003551278116792975 -0.000806148948292024 -0.001326438582506704 
0.000261974785703927 -0.0001002278786948936 -0.0003287949724566769 -5.905425088447671e-05 
0.0003674559656998106 -0.0008727312366804935 -0.0002815600942177123 -0.0007451220772451361 
0.0001345619887023614 0.0005247731320267479 -0.0006077233368198523 -0.0002082023026286726 
0.0005600091199478783 -0.0006759716602997883 0.0003570232270535137 -0.0006612562295419585 
0.0002715942726051777 -0.0003970252815139094 -0.0006614780848149019 -0.001358353131943829 
0.001184960618354591 0.00171057997728173 0.0003298629861688975 -0.0009618792895391391 
0.001408949005499984 0.00122055317892241 0.0001773549378604559 -0.0003235129279265048 
0.0008436534382828976 0.001468109488919206 0.0008329520549588132 -0.0008635981278490192 
0.001200228749135478 0.001856723134626861 -0.0002397479131127169 -0.001557913921794715 
0.0003534147136445179 0.0001634927917720426 0.0005267226640131946 -0.0006074317664792792 
0.0008972790524097614 0.001131028182767594 -0.0009473444875245715 -0.0008128629184184239 
0.001077779653062591 0.001370411985324338 -0.001511605684683627 -0.000558901956643332 
0.0007929205748280729 0.001090426496389345 -8.151091746521035e-05 0.0003167341714527161 
-3.460554152206932e-06 -2.922347596498509e-06 -8.086678779487707e-06 -2.153341544043454e-06 
