solver_type L2R_L2LOSS_SVC_DUAL
nr_class 5
label 1 2 3 4 5
nr_feature 450
bias 1
w
0.2989334923494018 -0.1580170192191308 -0.07073112371312044 -0.2312574252029696 -0.06828390711202022 
0.1533541395111873 -0.06224945179623178 -0.132360801527012 -0.03693528149649114 -0.06520620970622719 
0.1798520315592933 -0.0798265317387484 -0.1488984048542588 -0.01213542657879853 -0.08030620284310659 
0.1578359669942872 -0.1356561990315599 -0.1355083023716311 -0.01097368655052747 -0.01735251281253991 
0.09973687583697367 0.009211436273198415 -0.02862485746091743 -0.0272366103685646 -0.08234860255177584 
0.162202481812016 -0.08973578473480553 -0.07129928920718685 -0.1949251010565385 0.0005964970607381136 
0.2102358831718447 -0.1045473173595092 -0.04692592993299748 -0.07140136659091499 -0.1285508895144231 
0.1204229049112557 -0.01146022442362263 -0.000722473021533054 -0.2366929169211744 -0.0900171280229503 
0.1328039442479564 -0.1230313156498196 0.01890931602810814 -0.1305872065429416 -0.05635491925827752 
0.3204615625613597 -0.1227925687452313 -0.3934360778360745 0.05774701763679879 -0.07280833503218358 
0.2343477740977407 -0.06732964833233204 -0.07925935852070833 -0.2565426883864699 -0.3054531132982465 
0.1292732589630982 -0.1018920296181344 0.1218882824163555 -0.1250397494838395 -0.1049988958798617 
0.1445481054473063 -0.07843152469410383 -0.04522262676464254 -0.1524371355402467 -0.09350321847674498 
0.1501944864050597 0.01815240531016205 -0.1133208922944618 -0.0326206571155738 -0.161678310389375 
0.1207111918118499 -0.09595396716570316 -0.03269877341209433 0.03596055412322612 -0.1495037853422495 
0.3051356992469855 -0.2011250906968413 -0.4551508214401619 -0.1939705518110487 -0.1041947556162638 
0.1704951303873596 0.04385405445939796 0.03170852437356896 -0.1869046645180738 -0.1315938280036689 
0.2890187607688066 -0.1376347204359827 -0.1777285726188719 -0.06203807492313668 -0.1719692452790215 
0.3770259059737884 -0.3083434651350404 0.4922093295768575 -0.493656518891886 -0.1294018590390169 
0.145003223429494 -0.133999411861218 -0.1447122517769825 0.04820013381793091 -0.1088368001675718 
0.1529511783819684 -0.07603408105903689 -0.1559204651801829 -0.03167052950341773 0.07087216227020331 
0.269418795962689 -0.1839881323987702 0.1421405422797225 -0.1423462439687755 -0.01414988074570993 
0.143112513279842 -0.0969657346884121 -0.372604208405148 0.07500504920465195 -0.1272289942124141 
0.1607703544656557 -0.1065832522835974 -0.1693810393588301 -0.04631319729216596 -0.03807300638307293 
0.1239506405080917 -0.06528047536316613 -0.1255886423684012 0.05758142814492268 -0.02929553963315177 
0.195400765944209 -0.1421101676640838 -0.06355292719065003 -0.05022882570215942 0.01778499310611843 
0.128287657613518 -0.189964653644654 -0.05929383333875191 0.08976508557931824 -0.05779682073224029 
0.4560838356043626 0.0707520881152629 -0.1477722495638251 0.01767518350062894 -0.1399760314838208 
0.3316460678167104 -0.2598827375063556 -0.03773011569875197 -0.2607588150239109 0.02071175050658112 
0.3360347472446207 -0.08390183524274648 -0.2338121623128731 0.3762705709090262 0.04217432136577969 
0.3424283642752329 0.1688350400533201 -0.3858983315956884 -0.03975877255380877 0.1264200702407188 
0.4249987507532254 -0.1298947658840127 -0.2363880746625397 0.06815710094725001 0.0675577619112657 
0.4126134228995016 -0.1714380756806659 -0.1688856026983572 0.3531629215171797 -0.2563359750070515 
0.4753100189936239 -0.09360331460526528 0.399655721811456 -0.8354853730152431 -0.2721622776307628 
0.4030238199812798 0.04740320173006229 -0.2411344906944501 0.4418844669838883 -0.3058558962373176 
0.3529949388747474 0.02645696121801414 -0.1601825312998124 -0.1777938640990813 -0.07001550356937385 
0.4359518262174406 -0.03942345729879126 0.07103023305988859 0.05597365581039979 -0.1120583535387077 
0.3744795710566226 -0.3430414260091975 0.05589564731681407 -0.307672319211467 -0.1432150567280355 
0.4715618019819266 -0.1065229629863257 0.2165519261114709 -0.1177807094508047 -0.1262489018525914 
0.422162010264458 -0.09537944570247041 0.1600126150499478 -0.2159868253285299 -0.1244429133274523 
0.5320944850677656 -0.1580844267722119 0.002884803713839997 0.006331656641938078 -0.166392366328761 
0.5238053475708651 -0.1165828477771134 -0.195674235112162 0.02925191813176065 -0.03433555261380357 
0.5356125909413111 -0.2570505979921322 -0.378229545036264 0.4808768570159483 -0.06404927340792133 
0.3724416104381934 -0.2145564600257664 0.2648430986795252 -0.2280327238256781 -0.1912188833143102 
0.386021163756024 -0.1445788002370231 0.04824728410965068 0.01703615551882681 -0.2783488040523249 
0.3805417617821746 -0.145185187282755 0.06692014507237248 -0.5353332724636467 -0.04372856008658246 
0.3037292059051774 -0.0686240532597038 0.2652783268433713 -0.4517642020833601 -0.2036013036776722 
0.4020926674784278 -0.365560372814929 -0.2487680096866794 0.1190891059109485 -0.08462077275525134 
0.3320884576289722 -0.1460206447228153 -0.03122923784824214 -0.09310052228930714 0.01808062990613937 
0.2385070100146479 -0.1150080911677147 -0.06264841537050397 0.1371547510286285 -0.02537251233217131 
0.5925352613233172 -0.07154671190430892 0.09872906146154378 -0.2485719840511277 -0.0657717227836265 
0.4290538550331734 -0.1284831845187991 -0.07795170724676523 -0.398219015551609 -0.3322753865375398 
0.2613764565632798 -0.1009190248175651 0.3129203541206041 -0.09750651769422949 -0.07049065802021526 
0.2683565312120308 -0.1304702194060814 0.1630251144762891 -0.2935386325280143 -0.2405299958195918 
0.08706709776366717 -0.068499142936712 -0.1587027864025778 0.1476659942923898 -0.1124259213005602 
0.2626480496592289 -0.1409571796328627 -0.1939714105272979 -0.02138048602946678 -0.123434429446246 
0.1476697559448665 0.1041398869215972 0.005035763384918372 -0.1722774929668359 -0.05932502720823727 
0.03988597406590431 0.1205086588713195 -0.02049172808127405 -0.1181605465168747 -0.317158071533347 
0.1727036324195452 0.006975784615116342 -0.07917284378156118 0.04535111287867757 -0.1297351552663186 
0.1177767608703198 -0.02450675914023929 0.01184899321960226 -0.04034045720925431 -0.162038920221406 
0.09448710951416714 0.02713371653855324 -0.2806843304522981 0.1548070045118888 -0.1251681515428931 
0.1382611948454503 -0.01721229928562641 -0.2547605930779541 0.07352590635031782 -0.07658175163515052 
0.104211842759284 0.1372360747707764 -0.4307417149193752 0.07676447888415498 -0.08386272656236478 
0.2466899412979637 -0.03394763544549814 -0.1392717209993367 -0.3044554935328483 -0.167283054595168 
0.2900564277420433 0.07234399442972071 -0.2742518790192942 -0.1543670001324712 -0.3123563248261712 
0.1436652999061982 0.003342066179431274 -0.09147324543726124 -0.0451579890299583 -0.206961652312928 
0.2129461322147163 -0.03112635856581768 -0.08704993522412489 -0.03047656167800582 -0.1895046634186866 
0.1468983997951718 -0.1587851278361239 0.2388414886212781 -0.141220803786354 -0.1347844816486347 
0.325410164850756 -0.2022805533489362 -0.08526615341396113 -0.1441869344337472 -0.06875056513075471 
0.1517936346742656 -0.01714202053014351 0.1289889158850028 -0.1336586454413681 -0.27757410385262 
0.2627223874812007 -0.1817858897409448 -0.07813219614824957 0.003945839449493665 -0.2285810681361299 
0.1457644267994516 -0.1041243590871243 -0.2213542278352737 0.06387110854016113 -0.1338214445838763 
0.4290482007345335 -0.4021579582691494 -0.132465156434141 -0.09354635996804675 -0.07748364050209416 
0.3067879633996173 0.05688822329601225 0.03647681053851943 -0.3872892785773622 -0.0596977814776911 
0.3510844002829832 -0.05524127164694235 -0.1711459290033513 -0.1815033407943995 -0.157854998183402 
0.3661664465898039 -0.1972273096416629 0.08605827090883765 -0.4019133357497675 0.06485247209336935 
0.3148066650223246 -0.2706473237197439 -0.1874959135482084 0.2463239529630575 0.07251815489919959 
0.2329111396231514 0.1465427067531801 -0.2654713465401818 0.04528080047280842 -0.1693800029434065 
0.2358197884462785 -0.05140299713608144 0.1432805790596109 -0.3595760031499586 0.01797129426525232 
0.154003414852477 0.0343726618753835 0.2027028441349005 -0.2405229832926997 -0.150817139415282 
0.2741615821769333 -0.2136502361536045 -0.05990829788514851 -0.08165580622733185 0.06004155982267429 
0.1468122025754322 0.01996134781668654 -0.2110983007215372 -0.0480719641885856 -0.1550204495920154 
0.1898741618688558 -0.01493277719155098 0.1031470820419655 0.04417273706542149 -0.5245103929080372 
0.1799845677756977 0.04328006479826552 -0.4708671251438985 0.07279239448289154 -0.2148698006065111 
0.07834553925865437 0.02088322576685021 -0.1452003614036384 0.1062440132083431 -0.01043651984052416 
0.2072554561580836 -0.1132563708527163 -0.2214663942580282 0.008564512590767431 -0.1369557402618836 
0.1949152613815932 -0.1141861316156883 -0.1815405972751943 0.02792925302172606 -0.1868053385048311 
0.1468529686449886 -0.1342134448062494 0.06253993669799245 0.1681546522919043 -0.2516987512275808 
0.05931239975798705 -0.04613291951330381 -0.1410959773020516 0.1802550783579829 -0.126804624836514 
0.2491681813662572 -0.1146447259472261 0.07400337743989183 0.130491673254755 -0.4177419839184469 
0.1142797603831988 -0.003408583575075211 -0.1197266388454327 -0.1839251981684035 0.2271580076715733 
-0.005770661402861857 0.02214486664458776 0.2332064174172661 -0.2333118903129075 0.08476419618993809 
0.0919578027499235 0.1485302489614398 -0.01874229910225779 -0.2624554653636555 0.02335905711773811 
-0.01464459941668035 0.1606186172762139 0.1814821128308028 -0.3976117976700017 0.1093765633822401 
0.01354684281436673 0.09167001576060667 -0.05421211250287272 0.06629664548965192 -0.03787474890696456 
0.1507203141151972 -0.03634613249861096 -0.3283528369681317 -0.087755549749491 0.2638777085723619 
0.107206264284367 0.01834348499649931 0.02985954578037836 -0.4098240062837794 0.1387462110354365 
-0.05108178588731511 0.1734187761435364 -0.1137959245463405 -0.1986537785154902 0.03744689238676193 
-0.02078237429336105 0.1713755997789875 -0.6118429026855998 0.2297806376120034 0.1489964657514967 
0.2146343508268868 0.02223070151636439 -0.2669790881984812 -0.2469659426623419 0.07833565390459908 
0.03218272105670794 0.07118548532047396 -0.4724381989647138 0.06964691013990892 0.1485905630664441 
0.2152049718605634 0.755780151535922 -0.7352324162092749 0.4533910619271304 -0.3529135436027422 
0.04338212944741179 0.1962122121180662 0.04773090626958731 -0.5078840788164389 -0.09794025403732448 
0.08438411965105302 0.2164340365596927 -0.1677915500828715 -0.1371422356273069 0.005215979009001244 
-0.1064675828582692 0.3377570189171161 0.1220893576108702 -0.4676040710952181 0.005736840526948586 
-0.1191640624280534 0.4349788751085361 0.4764325473220321 -0.4416030203362803 0.01388117483501694 
-0.01928165308931579 0.3516555923706022 -0.4115541873235943 -0.01158024738803125 -0.08551532339533439 
0.2446043391151473 -0.1664531763178306 -0.9932573341351857 0.4834447433782362 0.1691620241461691 
-0.08369090871438994 0.3307570542662228 0.2837223916251813 -0.4520904121232754 0.06404384865904178 
-0.2082855036785362 0.2009324534236682 0.2409107867725331 -0.1967522630410227 0.02183673462078851 
0.07789290927186808 0.1332337533682816 0.1760245063500891 -0.5895049241259416 0.01924114664399519 
-0.05456965073115359 0.243257110292827 0.2586901982160877 -0.346802258232756 -0.1102882935917836 
-0.0372390863991084 0.2598466468726261 -0.09470486609280655 -0.05985079925156681 -0.1541634148867629 
-0.09523856570528126 0.255685837333477 0.2693513631015195 -0.4846698133087603 -0.06437797626774015 
-0.029719919213571 0.2386888231872639 -0.1037689740251733 -0.1334344232294708 -0.008255747827454507 
-0.05828487151723733 0.2384029569010007 0.1897554958501599 -0.3768661325480284 -0.03436522733945492 
-0.1604055922509812 0.280547840854363 0.1765782746972702 -0.1686374469567267 -0.08928192134673683 
-0.003574468014148467 0.9876810812548399 0.2604909983045954 0.03162597518691104 -0.8431712503754438 
0.02955357252395816 0.161669478181956 -0.4118349960009383 0.613554233577595 -0.1924062395741611 
0.05983373063038373 0.503946930760931 0.09282248044592226 -0.1673991034242968 -0.5587765932993047 
0.05716981685561351 0.3774438067198329 -0.04918165606900778 -0.07011990007465642 -0.210956732751002 
0.06405751573343753 0.4849702636586434 0.2855916828585424 -0.6344571088592471 -0.02991963668429679 
-0.01857679797877246 0.3314615956694291 -0.2476813290609814 -0.05812511821326748 0.07043160577103846 
0.006103626173643142 0.5440215413535789 -0.2530161230260319 0.02278476787052866 -0.2180340736068109 
0.07418567927904857 0.6265426726484741 -0.01997167043680911 -0.6917276012254111 -0.3278972856388561 
0.1195531040829184 0.3712887467820962 0.08513500249702288 -0.8090837551923459 -0.2047737144523731 
-0.294570698832159 0.265428769647452 0.2766348114076453 -0.2426559636113975 0.1466277366064137 
-0.3379898187650368 0.316014594309689 0.1668603233254787 -0.1134406111058046 0.1742264544853396 
-0.5433626742523067 0.7097191492766951 0.02050986086591183 0.09660880683353265 -0.01182651104864683 
-0.2876592188481197 0.3559711105416967 0.001293922809509676 0.18404755273009 -0.05850559739802993 
-0.3112683584472359 0.3015120698140487 0.1859107183822291 0.19136547723247 -0.02897375003918829 
-0.3127483641245392 0.3446562779366286 0.129473274765003 -0.3520323848604534 0.2095883271596419 
-0.4146349700538047 0.5231547943038523 -0.1150883726350024 0.2488976920005743 0.09575982065985476 
-0.284707585606906 0.4214198240555427 0.02604635694659267 0.05976808735932361 0.03441654049654915 
-0.3108266065972012 0.3061006632382555 0.1482828110780369 -0.007330447098599441 0.02278026211341821 
0.08050679335064062 0.2246679422083652 -0.1503536435404303 0.1467591913390012 0.09383232065503068 
-0.0927160351122828 0.4754627600596923 -0.004186647107133665 -0.1251633077275807 -0.1605731243271461 
-0.09530504182858424 0.4846155793311984 -0.1587323958259768 0.1466239548932982 -0.1848367637296449 
0.00434900749633128 0.4289648566643237 -0.05577929686762914 -0.08486833665463274 7.910169730446725e-05 
0.0732770499848381 0.6170913496375128 -0.3388973477480983 0.2576450588903821 -0.2182369684468237 
-0.1124423014061165 0.5323347592822438 0.1654645485146977 0.1450869684807814 -0.4093093864117132 
-0.03933234847715882 0.5208573315407627 -0.1173240431634015 0.08394679747660717 -0.1806437814047777 
-0.04503557742633207 0.3845018304685845 0.08837756643476084 0.152145868802448 -0.1791221343015629 
-0.08411339630693532 0.4646047920780887 0.349136694732772 -0.3521561695847676 -0.1351871177263218 
0.003061483396415125 0.2989575642896506 -0.5042509681047639 -0.1370513799301991 0.2016538737775159 
-0.1791556939454114 0.3233088366218084 -0.4640332620661697 0.3349051363477279 0.1791687367303041 
-0.1620492163366572 0.4406402865295992 -0.05775112417350696 0.4155391148211778 -0.03948076173213787 
-0.239511144687927 0.2045310995112224 0.02484713896081296 -0.3069542854617272 0.3859757034818593 
-0.3037255811966641 0.4421445183255497 -0.2360060444814818 -0.1454203533630538 0.2807245922554432 
-0.3382272928843837 0.5218971100871383 -0.130438878103944 0.06453152501718795 0.03277539257702517 
-0.4052718766703794 0.3883977417660286 0.04552546210572134 -0.03372867450573234 0.1711091412556429 
-0.4230835741262488 0.6007932431658215 -0.2056638836731535 0.06275435378184757 0.05787350821433909 
-0.3145735151452576 0.5001841912945406 -0.1133771376708508 -0.01151335929183994 0.1800635581799109 
-0.1481210712010728 0.2512485870223122 -0.0009545746954662212 -0.1688036777531422 -0.0593538337886608 
-0.2859008550933181 0.6587050084292424 -0.4602485499108588 0.3536331591479039 0.02931364658460136 
-0.2369104144440851 0.5907338028293673 -0.3238884720453202 -0.01117747524295427 0.142896413280916 
-0.1669393728615376 0.1889498694560315 0.1548687356966509 -0.3481120466006708 0.07871285707668693 
-0.07143272346039373 0.7361805311259367 -0.3722355061363483 -0.3014922501380984 -0.1220325886225783 
-0.0832567194144061 0.2850524583573013 -0.338861706634533 -0.1114246249704171 -0.01856665522269879 
-0.1727875538277069 0.5308619581741656 -0.191702708727481 0.03625443953320131 -0.07538646366252218 
0.0147841095854403 0.2739062701759315 -0.01235534698197169 -0.5851296680862477 0.02125828385512725 
-0.06450388163101038 0.05416519566833521 -0.5091713574878851 0.02044662949601245 0.007636333763599217 
-0.007255819032014621 0.7058488227948541 -0.2655073078420866 0.2084605556416443 -0.548398202372134 
-0.007209551983881141 1.035481522084474 -0.125823258477704 -0.3860418012494783 -0.3273792373295932 
-0.09288851130478065 0.8723171881814995 0.1149094289526482 -0.2882082626191795 -0.4563623208358468 
-0.02146645693337344 0.5746139276769485 -0.3561122474823882 0.3276620097365364 -0.3732181363561902 
-0.1015887605188845 0.6782545737805848 -0.04919470781592759 0.2876555251644289 -0.3375352071067523 
-0.06690811775080527 0.5113412106547314 0.2876497854584288 -0.6628414344308888 -0.126921733512088 
-0.1387823883547145 0.4933529923882011 -0.2500267618111308 0.2532276354221221 -0.4158540000242489 
-0.1275842099936871 0.46054664826685 -0.1673271509961713 0.0993859731960851 -0.2377533358179088 
-0.1225081685465876 0.6378308037255366 -0.3435497412377611 0.2747439272698246 -0.4735736910512507 
0.09752924946363381 0.6388192364856341 -0.1466017526452888 -0.06662837264135532 -0.4993156085683505 
0.06838803022771825 0.5966165962500765 0.1518055148396081 0.2197084542258802 -0.3645180251092008 
0.130234986311537 0.4262288367293958 -0.6422103262331146 0.3617589653691759 -0.2039112857720882 
-0.06518825340260304 0.1920510668297557 0.004589217177060782 -0.1711169611709341 -0.1959175725131712 
-0.08298741301736386 0.516651804654724 0.2208761285161602 -0.1613776584424395 -0.3786744725255625 
-0.07621473539810399 0.2892604483616077 -0.236782896225132 -0.01187028668810176 -0.09871807526685202 
-0.2608343171250743 0.2316881013307159 -0.2589002794856513 0.4889026942754388 0.188241224570336 
-0.1323245178009289 0.02099319877513678 0.4651192053170761 -0.5305366219989376 0.03789055969380251 
-0.1739428372729819 0.1567459971537735 0.374725358202313 -0.1459764863664788 0.04615139482936226 
-0.02164294730467243 -0.1394345030088971 0.3073347670529982 0.3227293740253685 -0.1733444951762817 
-0.1983933719993067 -0.007292641271081758 0.5188610624587048 -0.149117963803093 -0.08621343516250808 
-0.2835610124611193 0.08675752904422959 0.5953527266439111 -0.2363749693185432 -0.2658386317339727 
-0.09211338323393324 -0.1601951456777751 0.5767256047424127 -0.3415007639710205 -0.07783073418360104 
-0.1138636373536865 -0.4036967824950087 0.8723077718447847 -0.4431757067680872 -0.1501232763915552 
-0.2867645588942894 -0.1271955550738796 1.028280148483685 -0.350350267688678 -0.2734352307321401 
-0.05316568545715298 -0.1097512425931499 0.2171813499989388 -0.402510909760358 -0.07700738542762467 
-0.2989186600488387 -0.08895485446364181 0.3493085943325037 -0.1370277050088728 -0.1311843264363856 
-0.1923789099000525 0.001874240838103677 0.3999995393035961 -0.5535070420125113 -0.03360284658523363 
-0.1225274192181516 -0.06846545981153707 0.734078635903776 -0.2754461756515303 -0.1482135358468953 
-0.2658155341941091 -0.2122969939166331 0.4805605572601129 0.2492043878648389 0.1986940376619062 
0.1554019426838221 -0.1243771666559214 0.2034397999226614 -0.4825468905130118 -0.1902282691365507 
-0.1654348685384714 0.3445656235878067 0.4177247113395053 -0.3985751547113178 -0.226558201710614 
0.0853354517656945 -0.1780457045962515 0.4461569270361651 -0.007602983605866968 -0.2601403037864911 
-0.1839132222999841 0.003940121401384545 0.8739771873928079 -0.7268013957690062 0.03457608128575464 
-0.2943291971773949 0.2220377548248064 0.3524263180852616 -0.268631965497769 -0.4269861588497174 
-0.1145231915511897 0.1469998144002499 0.6187766027852333 -0.4488310011291937 0.1304483455276861 
-0.1721427765724921 -0.07878745899762941 -0.001630895352619277 -0.3449228887167834 0.05655480680161989 
-0.3000580397352574 -0.2356351774434691 0.2753544480687141 -0.2530026937705217 0.306980272553957 
0.02056670003842282 -0.4337605424992632 0.6174270306307708 -0.5310444820764714 0.1886302392333191 
-0.05678220194854483 0.1078586221035695 0.39536292535344 -0.05685779737083385 -0.2651266679581691 
0.08910389814745881 -0.3009508193493474 0.5607941420387951 -0.2436942076231828 -0.118076851767997 
-0.02826208179337926 -0.4492028253112124 0.7545107448132704 -0.6159034352654491 -0.1194374614179352 
-0.1271221715333148 0.00905951345367159 0.4590796306696685 -0.3460265621609531 0.1998622513315942 
-0.1226933726074282 0.5034431359749609 0.5323345903660347 -0.4552137160764753 0.1202361709081741 
0.04946669075709156 0.01977648654490969 0.9823989361657831 -0.1561393227775126 0.04622262224873247 
0.04130360259378672 -0.1340079250604744 0.9819989148877595 -0.3761696310141288 0.262124297603933 
-0.1916355716302516 0.04130081853578507 0.7979646962364151 -0.1986851546221581 -0.3443607740280499 
0.06572435055645302 -0.3200066962313213 0.4797678737522048 -0.3895613976154227 -0.03249493698755815 
-0.02067596170258946 -0.08221879764731643 0.6485557792521105 -0.4650185194483991 -0.1122658670481375 
-0.03913948886068135 -0.07314362035729614 0.4911584340074054 -0.5661215870966017 -0.1040346306024055 
0.1224095841061725 -0.05324590655365799 0.4989426378011838 -0.4023902107079017 -0.01534549301770713 
0.03667579627188138 -0.3275227930745307 0.5245416749142997 -0.3126565136461533 -0.1621436444019555 
-0.06214244164958315 0.1481496941195991 0.6847653427199187 -0.3741111497329285 -0.2240013230005102 
-0.003932924379062766 0.04974871559116089 0.7372279800048206 -0.2785187468383532 -0.1897876153320076 
-0.162475249648679 -0.1617425902680015 0.7237580456198686 -0.4661000713268604 0.1235597434837514 
-0.006990118775879639 -0.1591643550494561 0.827366220865509 -0.3811884687171514 -0.07414419594838183 
-0.3189163692186671 -0.1830999697817802 0.4405250830804884 -0.299377232601705 0.2645175192814332 
-0.1400427821568065 -0.03586827905541687 0.376284081967003 -0.4931817339687511 -0.1963138812510744 
-0.08602250796240653 0.08290066621604797 0.787700344272764 -0.1475942639335685 -0.3966068088890835 
-0.03600384799180308 -0.06425264946780405 0.7250525711482491 -0.4402204925201052 0.03789644892973136 
-0.1217605544429177 0.09144948791007546 0.6719345817879758 -0.2736682350850263 0.01272344344565663 
-0.2418681356085241 -0.1434166450178166 0.3296835867621872 -0.1072988301860363 0.09864368033094689 
-0.06893398041301005 -0.05021657615529527 0.4096721490447703 -0.1720170228294781 0.08981375095191052 
-0.01977399559345938 0.2520715757799319 0.9608926687260667 -0.1584923787591021 -0.5109815591840798 
0.1521095856554364 -0.2648464961456852 0.5956408585943742 -0.383935500308331 -0.2329021414797095 
-0.008586517054740518 -0.05323217738501666 0.3984710228272638 -0.2235052374165581 -0.1740464292996068 
-0.07280168654213796 -0.2948506564372098 0.4156812507914274 -0.2626941935862075 -0.04395105039682933 
0.03663500140433124 -0.1166651362295427 0.6166970360919958 -0.5205101331785136 0.007175294282030558 
0.1045985655538692 -0.1694482378598176 0.5233847171009921 -0.4444629600557082 -0.1786228655121027 
0.00885095049227929 0.02490456437700611 1.014112761033592 -0.4540410186832927 -0.3099731479748446 
-0.02183266962485789 0.1915111621424212 0.6135124291356526 -0.4256314804111952 -0.444828798417336 
0.05299890942186271 0.2208544029688379 0.3814251386008735 -0.4866709817437715 -0.3766595218528347 
0.1579407824958363 -0.1461885576550555 0.364982757961511 -0.2058239986211216 -0.1463906543206111 
-0.09995974928778756 0.06867415839986965 0.05503211997997186 -0.600868428941389 -0.02039613232944673 
-0.1160806670577035 0.02580075379790125 0.6505923148800027 -0.8922818937066741 -0.01795967967731621 
-0.002655887941370024 -0.0520473191408195 0.3609632990238325 -0.7224509950988972 -0.001931914197923768 
-0.2646835206246893 -0.3604045190386723 0.5215351656093674 -0.6748318772945158 0.05852449005890147 
-0.07315318636595917 0.09887603195154582 0.5842990352094674 -0.2589821845435323 -0.3441736084754932 
-0.2304569954603407 -0.1343906298402512 0.1529270051990258 -0.1011493451664678 0.1287992616874017 
-0.2418385208872804 -0.2138220140992202 0.7035006290896814 -0.4182116297696474 0.1814527684991492 
-0.3080271380272722 0.1069408405921535 0.457959602110495 -0.5170278729411004 -0.2040938948724687 
-0.2662632218657403 -0.1800912263173196 0.8515288890655283 -0.9241945946440534 0.1652524873886794 
0.09758732262630107 -0.5377603882749215 0.8383820074278528 -0.7565433400740627 -0.2164337978209651 
0.28785062617771 -0.2903351335844139 0.5793904396067346 -0.1802517046445372 -0.255718949744445 
0.06311097481739442 0.02331146070700865 0.6048301118597709 -0.7268062309445562 -0.05525696710726299 
-0.1691983498121405 -0.2800574805085521 0.5616527741564386 -0.1695727824627919 -0.00737353209166945 
0.06937312846420929 -0.09034843317046244 0.4529458932840059 -0.3971356468674868 -0.08572565486244658 
-0.07869310261822848 -0.3543098071906281 0.2941246609836864 -0.08669479302435845 0.1735746188976747 
-0.176707001404441 0.3009062022416124 0.4168130767120531 -0.1053670718580476 -0.1285881045950511 
0.04917467410028829 -0.2221317640411965 0.8442337590669362 -0.2837446500699617 0.1846471661290054 
-0.1553633584647738 0.1887386313175748 0.511948558313275 -0.08786719756469755 -0.3628407440751487 
-0.0604108982771237 0.0731566377990375 0.7021854611354696 -0.193591951931881 -0.2399669824849017 
0.02996148828448903 -0.2001664568685847 0.3357829282834067 -0.4365274097303863 -0.255001685924615 
-0.1254445242353184 0.09772586566773578 0.9348553497716268 -0.6073969018502886 -0.2924514934709224 
0.02456302406330885 -0.3166570770843726 0.2641776444627413 -0.1500127229962555 -0.07361346490253866 
-0.1021581504466382 -0.3707800499951321 0.8209124060971353 -0.5108760295126503 -0.04245590713252164 
0.1404013555638413 -0.4419726475104742 0.6496535404753598 -0.2565735441647978 -0.1513450608925512 
0.03367973356155577 -0.1366682961758237 0.9022848326640056 -0.1993237762860018 -0.285437248824485 
0.1019123708173263 -0.2649535658464718 0.7436838677148413 -0.2770229367343199 -0.04445159195294791 
-0.01119541748160378 -0.1991710061126342 0.5207277367339227 -0.5102073096600708 -0.06672286871439309 
0.01898487644249505 0.07807265322835882 0.444316449248454 -0.3811160794149336 -0.2069866725185271 
-0.1653456370473772 -0.1345136308829084 0.4722997676552693 -0.05567065301896085 -0.05661777622082859 
0.07984864418347348 -0.4972984180653146 0.1886582022261211 -0.3056188943264393 0.05226163794060992 
0.1933928055636071 -0.2684742374443391 0.6813450227065565 -0.3063470231856179 -0.1519980747218007 
0.03507473559391862 -0.5422393164781059 0.3094215723402924 0.03957252577554397 -0.09014960571388651 
-0.09865700261582862 0.1203782480529043 0.4763843998178489 -0.5074233115226985 -0.1515004009622398 
-0.05337668900213074 -0.3517530498993159 0.3027070425546381 -0.1436355073611454 0.100003733808311 
0.1049351107429035 0.06057465055587703 0.4553173867841501 -0.09203890584935713 -0.09314194943776988 
0.1184404497035256 -0.2186700400093485 0.4360810513686987 -0.3048465536179126 -0.05674603049367117 
-0.2896827287032094 -0.04833150703489401 -0.295450333711498 0.9327823581259469 0.1749504374464387 
-0.07491391243954729 -0.2760907783864728 -0.8626184090813083 0.9494198301146484 0.05148013420127921 
-0.05094501293655052 -0.1698631194002461 -0.2129982889392606 0.6073385510998774 -0.0823817640904298 
-0.1105954878284773 -0.1744135809772491 -0.258392232919214 0.6930626710254789 -0.1102615336895964 
-0.02693326594096016 -0.2542531126358887 -0.3939086045162054 0.6624876378854836 -0.1550281950493671 
-0.4258772896385677 -0.04622260901412486 -0.1939139595508147 0.7994143412097251 -0.010962893775792 
-0.186472655211025 0.01086373514689004 -0.06578142217024183 0.5994453608808753 -0.0742672906229985 
-0.1866972940462499 -0.02599197900348409 -0.5442511717552381 0.6137104384978103 -0.1833956489350992 
-0.3058127055901915 -0.1137274336367349 0.08965344836997792 0.2882458462241752 -0.02582991775987667 
0.0009528875756292165 -0.2468889867719481 -0.7941055599141468 0.875207411268493 0.04400528909945595 
-0.01760388562539104 0.07159441843262052 -0.694624638754837 0.307484580665033 -0.05862304265482597 
-0.05087843500102172 0.1916342882389957 -0.8319842855009936 0.5150396782668868 -0.1163142589278723 
0.08616301067595176 -0.08824381113183874 -0.6776551332131046 0.6425111633547802 -0.2655840710789896 
-0.02145319109557843 0.1927140627840316 -0.8272677347922696 0.7905441539570812 -0.02519098959194683 
-0.08694308482493324 0.09009621259250034 -0.6602554595606062 0.4981547616587451 0.03837118380968465 
-0.2688223094674135 -0.006190135192937005 -0.3774526382423551 0.3378891117082374 0.0576108131992853 
-0.1302023681256062 -0.2052196821687642 -0.5744834996316144 0.4210671468388554 0.0412149961602717 
-0.002964180449680315 -0.09275631648111077 -0.5740647351565396 0.5604124188964277 -0.1200947669975656 
-0.1967541130315102 -0.2548081555349176 -0.4118509169358153 0.5847119674991569 0.07590110021830088 
-0.2219591557687172 -0.2405782260254195 -0.2551544579118258 0.6952363729626893 0.2185978338169896 
-0.2970881523630834 0.0009481842137927318 -0.09942626815209951 0.2305196509898636 -0.135430042265766 
-0.1291718163599724 -0.071826951261194 -0.3359495226315917 0.8435304648596642 0.04202951840154671 
-0.1670171771492989 0.00724787631776738 -0.4769466342927108 0.5387565178087741 0.1526391496430746 
0.009932912346328333 -0.1998850024169467 0.05364845356944956 0.5746698009697864 -0.05816707303062508 
0.09870389813325714 -0.04807915466834601 0.08962852897472889 0.3088068562658132 0.1165814034871095 
-0.06408911188462883 -0.06449312247920599 0.2798216317142641 0.239782056600445 0.1816941354341131 
0.08576355974582459 0.01141444661056083 -0.1224055634341018 0.4525071125693417 0.1336496391316893 
0.004147384189913795 -0.2205154622759788 -0.495578818848102 0.3934651531365283 0.009723873969113464 
-0.0557180875319222 -0.3493884458559986 -0.3575834780069724 0.5280373720909729 0.04325674135014178 
0.1418251978949029 -0.3031580186145417 -0.8975362306985957 0.7243115281844104 -0.09536961544163271 
-0.07149084115025761 -0.1959295807798656 -0.5989697315961816 0.4490221210652231 0.09103251248624006 
-0.05209049883351643 -0.4700210822596969 -0.2774734930106554 0.4273857546457725 0.03104947005550281 
-0.1804696159086333 -0.1092155689756089 -0.1818064221635521 0.4978050414106611 0.1243229400594694 
0.1056447441566173 -0.004442897317685803 -0.229642399388516 0.2233609024996834 -0.07908461147818512 
-0.02452272178653584 -0.1657416462624973 -0.1028864396514587 0.1977417694365778 -0.1285819174444576 
-0.1365818913952348 -0.04107660186224567 -0.5026859938471762 0.7644655318584834 -0.1482620596097912 
-0.1622487606574183 -0.1035651126530783 -0.04665830828718291 0.4080671748666954 0.09885193988374098 
-0.1751568612807398 -0.2096009183146346 -0.6065366523821042 0.8071303982596177 0.4289711319641007 
-0.1057773517650686 0.07623528699786492 -0.3322796139683277 0.6543636831054658 -0.01250065038615346 
-0.4453677494608002 -0.05284699323719155 -0.09153193716871305 0.6479764832689812 0.0815670399965686 
-0.158654524590427 -0.4015798826174065 0.2474023878170132 0.5764726538424937 0.02837841432920917 
-0.1309941820810901 -0.2073165809946609 -0.5552581207776544 0.8059366735682829 0.09357484998097483 
-0.1957382103921778 -0.06990531114190052 -0.2572137690646475 0.5051730229959293 0.1035973334142579 
-0.1140346880894509 -0.3375499123150703 -0.1763387743666512 0.2735503239700467 0.2112218093583436 
-0.3551547831580004 -0.5257752732888299 0.2105888608670651 0.212972780561959 0.1029105280502932 
-0.007581687944251563 -0.2197820158765785 -0.6883613767795466 0.9883166046477806 -0.1954989403881818 
0.09515256234230596 -0.163284280864471 -0.7669569290186683 0.7454971096501116 -0.09301030370616387 
0.04163772834647282 0.01506306686245772 -0.6269663731558945 0.6709254407836234 -0.2280313920964243 
-0.001765679013875083 0.00835115372182974 -0.2418508355282352 0.3032801008698394 -0.3086202097172051 
-0.00786310479996854 -0.03269467482218934 -0.6856541661166761 0.5532708927410541 -0.1998023385594269 
0.1274017497098385 0.3326379671105418 -0.6195042257109055 0.6552169308432283 -0.1678829121284353 
-0.007995177373093545 -0.3365743898190938 -0.6802073401550811 0.9150179820330523 0.1450984998488169 
0.0361897939701938 0.099052867248114 -0.09918137180651887 0.4632808255628834 0.08988072516228429 
0.04619992960728338 -0.3398411240221035 -0.3514570505384789 0.6992865845549749 0.02592341382219752 
-0.078437530417563 -0.08861812232272265 0.04444118431032064 0.3835132207918352 -0.02303196081897432 
-0.3916135244385393 -0.1367519581880363 0.06136245253776465 0.7281780877743329 0.05859492830680333 
-0.002841617780665155 -0.1591076079747391 0.1698634807013905 0.3668284551857371 -0.01647071127673844 
-0.3495081473738842 0.001084180126383091 -0.3024772172763212 0.154285789028647 0.2480895376147459 
-0.2182520183596172 -0.04804922369270865 -0.1563846954123768 0.7870123811615856 0.08170190473330692 
-0.2760097139989408 0.04465259140811729 0.4891912467210918 0.09247303792397965 0.007712950518235304 
0.07156582845908858 -0.1469572209828664 -0.1921872607675817 0.5462782139258571 -0.1927747147931523 
-0.01686383127245325 -0.1794936509954136 -0.6425503767901358 0.7138761863639774 -0.1588338177776995 
0.03275674596774538 -0.3649324352769095 0.05696296153604267 -0.07022267335535466 0.1481506834262891 
0.2789124417073042 -0.3426992318187139 -0.3129033538994994 0.3951523014586779 0.1530399899173342 
0.3024716614665062 -0.2236086135670524 -0.6998682629570219 1.007864406499814 -0.01022054187290941 
-0.04778473022698076 -0.08052083639764905 0.3046376723702919 0.3924144794491943 -0.1488754939659987 
-0.08038848601968877 -0.01155374789564926 -0.371466963305882 0.3966584175580226 -0.04597890854946685 
-0.342938895076414 -0.06209745799075 0.0822533942799501 0.2156936839779479 0.06860487060800718 
-0.1169288824952963 0.1050415149199891 -0.1649487090851562 0.5445919341776518 0.08081526909079778 
-0.1777426079062477 -0.3643414530369012 -0.7013151354402657 0.4995335861057835 -0.02330490654207871 
0.0652833594309473 -0.1537817573285702 -0.0003449502165657857 0.1166956962645163 -0.1586318771578339 
-0.2063602512497312 -0.056203974724778 -0.3238364665062301 0.6777582117522933 -0.04823142083081044 
0.007130208901635724 -0.04234681831306122 -0.4887989640689117 1.081027404279503 -0.3813008773023724 
-0.1139274467309512 0.07973856835708325 -0.6668595509636894 1.032604752125335 -0.141450365382169 
0.06694411939952302 -0.1146581778912853 -0.5177829474216197 0.8788351541286831 -0.1001340397396822 
-0.200546472130152 -0.04899591093188426 0.01580919188108272 0.6451209251779667 -0.2469413824674461 
0.01704826485518028 0.09978743013549735 -0.1122781434106951 0.5426337695015281 -0.3934917351504543 
0.03890453045344112 -0.1590164561303291 -0.1461199524263109 0.290842743665705 -0.1737963238939036 
0.03494726403889127 0.01578032449267324 -0.3442106317002174 0.915116735719843 -0.4973167345967481 
0.04031514187762844 0.02468010692387019 -0.03858886364043825 0.5776529103862771 -0.1158986468054174 
-0.1549084036855474 -0.3174501126369497 -0.5043827850477225 0.8974978251560506 -0.2180566573508822 
-0.144158598886759 -0.3359476222122595 0.1884822808726433 0.5355183138314565 0.1324258045425422 
-0.1320165972127547 0.2026588495328426 0.437251718995218 0.09245454076294812 -0.2192340749334341 
-0.07277168568404813 0.05287038082620425 -0.1842352790576207 0.7581652492650475 -0.01486301935888552 
-0.01974687062374016 -0.09584420780642286 -0.6507826043216088 0.6490970337727114 -0.2068215522221024 
-0.2605042015560869 4.888235905279358e-05 -0.6061944815928326 1.094747274489265 -0.2540517641425807 
0.06067541093555148 -0.3665764441357802 -0.4287108521702122 0.8366748122537558 -0.1955022510775871 
0.2562732114582942 -0.5417689335400643 -0.5422390975985359 0.8271003378702876 -0.07969826925601907 
-0.03884021468350642 0.04844177675674081 -0.3995729022576892 0.5709527250606649 0.004094022038281527 
0.2252255068853766 -0.2372519915808336 -0.2202573696055227 0.5086309284947694 -0.1474224229096932 
-0.001821199271880193 -0.66024281785515 0.01709233088899664 -0.03438996345865439 0.4118558670503338 
-0.1959024570631007 0.2362364369621494 0.1839264312786587 -0.1819328892213092 -0.005572829102693713 
0.0170000077705648 0.08410194519504566 0.04277001330092311 -0.1625889383114486 0.2782559048745495 
-0.3605012680193992 -0.3737292247660911 0.231636018513591 -0.2965069162487868 0.70020397461394 
-0.06929934466140075 -0.0389137116074224 0.2533552916067788 -0.5694066411387265 0.2542364703574418 
-0.1618047478143878 -0.006737361417459774 0.03741907064747527 -0.2458966563876591 0.5155146766664858 
-0.1886157742649353 0.1196256512706628 0.2512452040376719 -0.5920918701742621 0.2494537835518801 
-0.1700647043051313 0.07008358213323256 0.2275149741700408 -0.9135464747090117 0.2725948931076674 
-0.1884398352922902 0.08370484519022235 0.2183499644203778 -0.6481703215959045 0.3983318166516681 
0.03664366109317707 0.02803401716059636 0.001664734129338279 0.06116015915911564 0.3287193035272964 
0.1605662122901609 -0.1247526867183191 -0.2963377227874203 0.06861278861147305 0.1994298070057824 
-0.1008686341793275 0.1227553024769278 -0.3914251936117331 -0.1752787616895633 0.2709552360964284 
-0.09005572480240824 -0.153818880028912 -0.121638339532061 -0.1729177927244329 0.3258416997276209 
-0.0785651080461377 -0.02495963052011468 -0.2748732783336916 0.278943241779217 0.1174196813717299 
-0.03959625928610292 -0.01001448651519258 -0.260963516803808 0.1308601715985152 0.08092511806791135 
-0.01365133145870578 -0.09953562479014912 -0.2346368356508144 0.06689276728339205 0.08845542888966051 
0.05722409272563939 0.1365470080434597 -0.3963033231891298 0.1610358109277639 0.01815585000815214 
0.05888393085405146 -0.05731634765507055 -0.5500570518903519 0.2271607805831808 0.11958866066327 
0.03720106003418475 0.03580438799543022 -0.2723076841218033 -0.1046281227115618 0.6481513754922832 
-0.03935850752264642 0.0900199864326445 0.002110445169081294 -0.06149379184510397 0.3288594600067383 
-0.1102594293404101 0.1596534668338769 -0.1999250560688424 0.2090169369470736 0.3544740723217523 
-0.1424021987482242 0.1949091472941708 0.04742065152989414 -0.2911924543665661 0.4895779505893216 
0.04684671837005976 -0.06486445266555413 -0.3047479297606822 -0.1666285170055026 0.7054375063543437 
0.1099782172144764 0.03316519049462371 -0.3369728294616474 -0.07174385673629977 0.4648860424213597 
-0.1608575225562736 0.01351295595584527 -0.3420917309919192 -0.1312695131378936 0.4553229268996943 
-0.1401030628724024 0.2183358535488322 -0.4638166807437457 0.3179200063048394 0.3380555309885762 
-0.1335988710986357 0.04623526537174813 -0.2437615519551692 -0.4497264121780444 0.8749596161080208 
-0.06640177023341104 -0.1620938638238877 -0.216146569631156 0.235594172952378 0.1137202907584483 
-0.02647686389763196 -0.1692564615083479 0.2250537123487758 -0.2497532421139403 0.4419787828450066 
-0.07431358010010891 -0.07584464899429841 0.2596710704591005 -0.2563498815724385 0.2269799068465663 
-0.007467945714747336 -0.1948299062969411 -0.05693069824826407 -0.03403776503636766 0.3380263785468575 
-0.05463752953697387 -0.06612546992603165 -0.1217510770570702 0.3049247547310634 0.2748068146631571 
-0.05532102688514753 -0.09514519612675687 0.007056847285539652 -0.1465473241515965 0.3411769066216477 
-0.05842060177818944 -0.1791004289600147 -0.3552156535160033 0.2679102774766413 0.3858695950271525 
-0.08929509273360135 -0.1542565446352351 0.02028736922926425 0.04590249514758529 0.4509908317947374 
-0.05766351281476301 -0.3894092660379064 -0.220782848028315 0.08361822129584197 0.477230012642927 
-0.01112738356644114 0.03426702250767254 -0.2366775622552875 -0.03169093685606115 0.3852016099445968 
0.07227205433803527 0.04277356804649809 -0.3470683169285288 -0.1355229722699222 0.3451019120412567 
-0.07996462812130685 0.1281557806960864 -0.1824939332094765 -0.4211365266597415 0.4493089754699708 
-0.07579285683217038 -0.1873151036729024 -0.521702646401495 0.04526602117763695 0.6017433462208296 
-0.01648038977438497 -0.1168180045137971 -0.5229167803562038 0.3055277236519449 0.07705780600551496 
-0.2075668448680598 -0.02821956611834319 -0.09406924161023909 -0.1987588467522848 0.6032599653248302 
-0.1050647539108711 -0.01753959726371145 -0.3487354453292237 -0.03416896522530464 0.3784627000591376 
0.07973696956526762 -0.2174366238774903 0.1176302001712578 0.08122884880965223 0.2992922753245212 
0.1133675904529151 -0.1023372249617128 -0.2223880115069494 -0.3041684364630212 0.5101813235470867 
0.02573069216293881 0.06619736680837178 -0.07307324671428207 0.01971241934060277 0.3993724215588067 
-0.04283252484236586 -0.1215067393585205 -0.2719994732665004 -0.03850406706673869 0.1844069746384694 
-0.01508726936748713 0.1919679286773296 -0.4716024794384235 0.2421733851212528 0.2930511166972838 
0.008423102476279896 0.07962586558502097 -0.1997785696254998 0.145794006223925 0.2623100859714633 
-0.02673936421374539 -0.1216179676088987 -0.1252153068640406 0.03159489504530202 0.4742860910907306 
0.02339729199891981 0.03060016170626038 0.01778534479587881 -0.3228894837913605 0.2558815038024363 
0.04233117509841 -0.01456351067467155 -0.2610853037929693 0.01603109692449151 0.4208750691778581 
-0.003202139469447466 0.1583542544034817 -0.3035747242444446 -0.1290114520375537 0.2700465035224595 
-0.04670357109518911 0.01393856744555321 -0.3956292174461042 -0.06958010760811936 0.468755074465998 
-0.08650056751357869 0.190566624820411 0.2059304114986821 -0.2590112586230449 0.02626629852669773 
-0.02710472794880216 0.1017330222241732 -0.1217991506608974 -0.2220731667432345 0.176382911310033 
-0.0717450690814536 0.1183813596471644 -0.2175474430325175 0.3001877844147054 -0.1213609508168802 
-0.02442721961814046 -0.1978664678728271 0.009527052836577026 0.04419468839273968 0.2693724280570958 
-0.1149150492299562 -0.2471611549894773 -0.5265872929895894 0.2276552622354132 0.4400873732463939 
-0.1209591975920306 0.04424375105016969 0.06636835957486815 -0.1953082073334959 0.009304793304654044 
-0.2033634099882173 -0.1851496521390887 0.03148812395039279 0.3153759407354617 0.174110156826237 
-0.01375738241917402 -0.3432605398371494 -0.3454857894694884 0.1756497425222573 0.3265531400369761 
-0.1089190975677202 -0.2128160889356774 -0.1229341620352578 0.007248451713445405 0.2112276883782101 
0.07394842929369926 0.1175597141259236 0.1656024140370486 -0.663886107049165 0.08265159050727895 
-0.2722390051538822 0.2128199124180792 -0.1793282668569378 0.4727100335280853 0.6334085187183947 
0.116499266668813 -0.2097649721463463 0.1205948248982414 -0.1327456250088091 0.1573930533710387 
0.1370746179897026 -0.1084201444973153 -0.1375845521163925 0.2485378710715251 0.2526208231723553 
-0.0830075146713137 -0.06587817888176371 0.3748067351354561 -0.3035623235726789 0.4669645971911432 
-0.05716836778374944 0.1433026318888989 -0.02063835360438684 -0.1136030242519166 0.1608689697106546 
-0.06073944004200889 -0.04481749800195192 0.3246626562136745 -0.4502765730181743 0.3259049257496097 
-0.1450247668064739 0.01208543508542447 -0.1872140580797168 0.3777635849313574 0.2357376536549169 
0.07859614275434899 -0.4366733204315023 0.1052820818345705 -0.469653308280757 0.4358735377659444 
0.07668133602394654 0.006572791961854456 -0.1450695426425464 -0.2763764116536307 0.317217747935072 
0.08219403625501499 -0.1175300415287008 -0.03868888643948051 -0.3507145337102158 0.4104614692545323 
0.02805652263971197 -0.06459761197003537 -0.01353540921334256 -0.2937649672409153 0.2133496983236709 
0.03201213906199128 -0.2608194544242745 0.1668816416574558 -0.2423885025680261 0.229485842727454 
0.0407919875721132 -0.05150982333918395 0.02106727351733031 -0.7068965786696624 0.3703607912301383 
-0.0253228908547081 -0.11583202301838 0.1836265344806108 -0.5726785225732319 0.2493006203556744 
-0.1100867768581465 -0.06583583828345085 -0.04888107623340654 -0.1156667136120585 0.2220496724198303 
0.09398509974347431 -0.4515938657907755 -0.2221969678147985 0.04086452571750766 0.4581218881612615 
0.0003625670403107397 -0.1718386988574365 -0.005635114146455573 -0.3427313392531595 0.3264519351990124 
-0.1880467023576062 -0.1736028713225212 0.01982792619206171 -0.1057519654661797 0.1232473946986416 
-0.213959809113754 -0.03093078313594439 -0.4400685891736826 0.5631760910619948 -0.02504669163675547 
-0.02381777765088158 -0.1590312512181006 -0.6873503320195835 0.5075459263375568 0.1971713980229103 
-0.06823581511776559 -0.1755218222508589 -0.04648660678900118 0.07644458041069856 0.3241909813160485 
-0.06272422771092992 0.0446783013508508 -0.4959615949578813 0.2555492903937532 -0.02803419338759955 
-0.04968118532686461 -0.08339450291028595 -0.09970066628672022 -0.1505227097761171 0.05972705529163591 
-0.1367975806479652 -0.05915670007453838 0.01761518857528368 -0.006447374805595468 0.1126403948472176 
-0.06562983881184807 -0.2402186941829922 -0.0716116076118978 -0.003986056563609898 0.1282691608846223 
-0.1136128123082855 -0.154038764220112 0.2791929148175556 -0.4801785069838782 0.1952165235439675 
-1.445742908201958 -1.168860537274808 -1.009087583027144 -0.8439110205958367 -1.242775193638704 
