svm_type c_svc
kernel_type rbf
gamma 0.00374532
nr_class 2
total_sv 152
rho -1.03365
label 1 2
nr_sv 72 80
SV
10 1:1 2:0.491424 3:0.181538 4:0.440198 5:-0.175783 6:0.666071 7:0.666071 8:0.472799 9:0.302884 10:0.486765 11:-0.408548 12:0.746188 13:-0.267849 14:0.558621 15:-0.388101 16:0.511719 17:0.315118 18:0.391816 19:0.690066 20:0.359699 21:0.666071 22:0.666071 23:0.440068 24:0.340708 25:0.303686 26:0.341974 27:0.395382 28:0.746188 29:0.666071 30:0.357776 31:0.351781 32:0.503623 33:0.381786 34:0.35517 35:0.666071 36:0.341809 37:0.554631 38:0.282486 39:0.538376 40:0.558621 41:0.666071 42:0.371074 43:-0.302542 44:0.469332 45:0.666071 46:-0.278517 47:0.694616 48:0.323754 49:0.271009 50:0.350389 51:0.655722 52:0.38514 53:0.314317 54:-0.275059 55:0.666071 56:0.326366 57:0.262156 58:0.382856 59:0.311664 60:0.398062 61:0.304898 62:0.203089 63:0.447883 64:0.394348 65:0.38514 66:0.441241 67:0.667074 68:-0.192306 69:0.471653 70:0.466328 71:0.666071 72:0.398211 73:0.478124 74:0.203089 75:0.666071 76:0.444204 77:0.486765 78:0.187894 79:0.432393 80:0.187894 81:0.34775 82:0.507686 83:-0.281726 84:0.38586 85:0.347587 86:0.428625 87:-0.232894 88:-0.33506 89:0.328618 90:0.219965 91:-0.308296 92:-0.296411 93:-0.32288 94:-0.297575 95:0.663702 96:0.366707 97:0.273766 98:0.263152 99:-0.286571 100:0.34055 101:-0.404661 102:-0.272583 103:0.134662 104:-0.337612 105:0.411683 106:0.199445 107:0.375174 108:0.372694 109:0.387263 110:-0.280379 111:0.586116 112:-0.321447 113:0.34481 114:-0.259438 115:0.513436 116:-0.266958 117:0.396526 118:0.278049 119:-0.247239 120:-0.403837 121:0.316121 122:0.28729 123:-0.304971 124:0.247625 125:-0.392658 126:0.529276 127:0.658152 128:-0.310317 129:0.212896 130:-0.236934 131:0.207301 132:-0.286489 133:0.183333 134:-0.360043 135:0.197255 136:-0.338882 137:-0.313766 138:0.0890583 139:0.0755817 140:0.240077 141:-0.401728 142:-0.30053 143:0.211567 144:0.470085 145:-0.278312 146:0.160762 147:-0.284072 148:-0.454858 149:0.333922 150:0.284096 151:-0.352442 152:0.190798 153:-0.28814 154:0.249928 155:0.235182 156:-0.258644 157:0.431399 158:0.362819 159:-0.315604 160:0.430596 161:-0.428802 162:0.304089 163:-0.0925614 164:-0.30624 165:-0.257102 166:0.249705 167:0.393255 168:0.399469 169:0.318171 170:0.457906 171:-0.274491 172:-0.331021 173:-0.323887 174:-0.265175 175:-0.263285 176:0.185132 177:0.340708 178:0.39654 179:0.292336 180:0.357416 181:0.28478 182:0.27574 183:0.224219 184:-0.320277 185:0.216939 186:-0.425521 187:0.541974 188:0.272697 189:0.497881 190:0.370514 191:0.28413 192:0.383 193:-0.307375 194:0.226041 195:-0.0652158 196:0.405305 197:-0.258026 198:0.243821 199:-0.0300586 200:0.260579 201:-0.260855 202:-0.315883 203:0.297227 204:-0.425171 205:0.307316 206:0.327315 207:0.1983 208:0.379182 209:0.313635 210:0.29477 211:0.180198 212:-0.337793 213:-0.444847 214:0.466561 215:0.362819 216:-0.335527 217:-0.424076 218:0.298729 219:-0.321775 220:0.327169 221:0.0765488 222:-0.351514 223:-0.418178 224:0.207664 225:-0.293476 226:-0.312902 227:0.0545612 228:0.518011 229:-0.317821 230:-0.323112 231:0.257972 232:0.231828 233:-0.292549 234:-0.296021 235:0.436166 236:0.194092 237:-0.31851 238:0.42937 239:0.200777 240:0.317254 241:-0.3266 242:0.217186 243:0.404435 244:-0.318806 245:0.388625 246:-0.338765 247:-0.338632 248:0.182846 249:0.658152 250:0.31446 251:-0.288095 252:-0.259956 253:0.442072 254:0.360532 255:0.398387 256:-0.269283 257:-0.291426 258:-0.276975 259:0.413148 260:-0.261014 261:-0.278704 262:0.162705 263:0.163003 264:0.32932 265:-0.266248 266:0.694435 267:0.222833 
10 1:0.491424 2:1 3:-0.0169002 4:0.443617 5:-0.270571 6:0.539881 7:0.539881 8:0.464192 9:0.334307 10:0.505393 11:-0.374982 12:0.488287 13:-0.356082 14:0.504742 15:-0.362993 16:0.4266 17:0.375699 18:0.335606 19:0.451307 20:0.423372 21:0.539881 22:0.539881 23:0.373495 24:0.424044 25:0.396313 26:0.411552 27:0.344173 28:0.488287 29:0.539881 30:0.393207 31:0.465652 32:0.423261 33:0.493039 34:0.354787 35:0.539881 36:0.424454 37:0.413599 38:0.380366 39:0.452719 40:0.504742 41:0.539881 42:0.384544 43:-0.325115 44:0.455282 45:0.539881 46:-0.319769 47:0.453587 48:0.281727 49:0.421753 50:0.352619 51:0.427433 52:0.455359 53:0.276721 54:-0.314399 55:0.539881 56:0.394207 57:0.273021 58:0.415763 59:0.362791 60:0.421753 61:0.36704 62:0.344286 63:0.387045 64:0.39383 65:0.455359 66:0.426878 67:0.540044 68:-0.312146 69:0.410427 70:0.353888 71:0.539881 72:0.383673 73:0.458089 74:0.344286 75:0.539881 76:0.47053 77:0.505393 78:0.291418 79:0.325385 80:0.291418 81:0.426673 82:0.467967 83:-0.275964 84:0.432294 85:0.321404 86:0.368164 87:-0.314308 88:-0.382271 89:0.342805 90:0.425856 91:-0.334502 92:-0.299278 93:-0.320911 94:-0.323255 95:0.438464 96:0.400554 97:0.353006 98:0.380596 99:-0.318929 100:0.480936 101:-0.360032 102:-0.330952 103:0.25372 104:-0.293659 105:0.400876 106:0.327492 107:0.412767 108:0.411803 109:0.378882 110:-0.337817 111:0.490644 112:-0.307571 113:0.418446 114:-0.259063 115:0.444199 116:-0.267127 117:0.436026 118:0.360888 119:-0.31268 120:-0.377988 121:0.432294 122:0.324457 123:-0.357647 124:0.264882 125:-0.27859 126:0.496743 127:0.43586 128:-0.315045 129:0.360207 130:-0.343459 131:0.345391 132:-0.282925 133:0.283067 134:-0.350121 135:0.289796 136:-0.382354 137:-0.339584 138:0.0204539 139:-0.122136 140:0.271036 141:-0.340916 142:-0.266196 143:0.197996 144:0.387631 145:-0.283196 146:0.0899442 147:-0.342009 148:-0.413274 149:0.397025 150:0.313341 151:-0.35076 152:0.231236 153:-0.336254 154:0.325829 155:0.380594 156:-0.221745 157:0.409022 158:0.447679 159:-0.345375 160:0.443711 161:-0.398579 162:0.343556 163:-0.197749 164:-0.339301 165:-0.242793 166:0.316721 167:0.434876 168:0.47823 169:0.318541 170:0.391433 171:-0.279987 172:-0.326064 173:-0.344637 174:-0.322816 175:-0.287336 176:0.228303 177:0.348243 178:0.456247 179:0.429228 180:0.326049 181:0.257451 182:0.38543 183:0.325973 184:-0.371708 185:0.409235 186:-0.389186 187:0.453999 188:0.327282 189:0.333505 190:0.33227 191:0.264948 192:0.34725 193:-0.285072 194:0.305934 195:-0.240096 196:0.398271 197:-0.330453 198:0.385882 199:-0.155657 200:0.28126 201:-0.321599 202:-0.337355 203:0.282231 204:-0.388126 205:0.343329 206:0.514023 207:0.303139 208:0.336404 209:0.453076 210:0.266373 211:0.336231 212:-0.337711 213:-0.403205 214:0.362465 215:0.3683 216:-0.332036 217:-0.387431 218:0.312413 219:-0.307868 220:0.457474 221:0.205893 222:-0.327947 223:-0.387117 224:0.347924 225:-0.359267 226:-0.31611 227:-0.0914083 228:0.493974 229:-0.32588 230:-0.34888 231:0.279958 232:0.33433 233:-0.339135 234:-0.316001 235:0.381962 236:0.20943 237:-0.321494 238:0.379039 239:0.336609 240:0.337723 241:-0.293381 242:0.363307 243:0.503521 244:-0.297558 245:0.302376 246:-0.334092 247:-0.330136 248:0.370864 249:0.43586 250:0.375433 251:-0.327536 252:-0.311997 253:0.4916 254:0.380406 255:0.477903 256:-0.294966 257:-0.312298 258:-0.370216 259:0.372133 260:-0.27469 261:-0.313826 262:0.120865 263:0.267543 264:0.370427 265:-0.274267 266:0.361103 267:0.296414 
10 1:0.181538 2:-0.0169002 3:1 4:0.219191 5:-0.117172 6:0.326594 7:0.326594 8:0.190697 9:0.263129 10:0.45115 11:-0.255979 12:0.271248 13:-0.172458 14:0.224802 15:-0.242696 16:0.287559 17:0.170423 18:0.218482 19:0.157621 20:0.238838 21:0.326594 22:0.326594 23:0.24604 24:0.262994 25:0.164539 26:0.152506 27:0.219426 28:0.271248 29:0.326594 30:0.272348 31:0.231239 32:0.238645 33:0.132447 34:0.157853 35:0.326594 36:0.187167 37:0.31239 38:0.154816 39:0.301802 40:0.224802 41:0.326594 42:0.374642 43:-0.174975 44:0.352674 45:0.326594 46:-0.197393 47:0.210177 48:0.148103 49:0.221111 50:0.15467 51:0.159742 52:0.134852 53:0.110191 54:-0.157978 55:0.326594 56:0.217716 57:0.0974215 58:0.211548 59:0.206538 60:0.221111 61:0.135943 62:0.108011 63:0.249099 64:0.175303 65:0.134852 66:0.374236 67:0.226521 68:-0.185081 69:0.399843 70:0.219192 71:0.326594 72:0.182706 73:0.311494 74:0.108011 75:0.326594 76:0.246754 77:0.45115 78:0.128717 79:0.168534 80:0.128717 81:0.266851 82:0.284972 83:-0.197214 84:0.380825 85:0.189333 86:0.158655 87:-0.184695 88:-0.270813 89:0.140151 90:0.113393 91:-0.214852 92:-0.171571 93:-0.216921 94:-0.154122 95:0.222573 96:0.245149 97:0.181599 98:0.216788 99:-0.219268 100:0.184896 101:-0.252811 102:-0.17482 103:0.0959764 104:-0.212376 105:0.187174 106:0.135598 107:0.167206 108:0.125915 109:0.214321 110:-0.161963 111:0.178456 112:-0.202213 113:0.185671 114:-0.132463 115:0.2363 116:-0.167941 117:0.260211 118:0.187998 119:-0.195284 120:-0.267405 121:0.254014 122:0.233875 123:-0.213997 124:0.133888 125:-0.258518 126:0.200549 127:0.267863 128:-0.179505 129:0.180039 130:-0.189334 131:0.182507 132:-0.180788 133:0.155643 134:-0.211238 135:0.103919 136:-0.272302 137:-0.199915 138:0.618317 139:0.64556 140:0.127822 141:-0.250806 142:-0.188445 143:0.114794 144:0.150625 145:-0.176165 146:0.334732 147:-0.182023 148:-0.268382 149:0.263533 150:0.15229 151:-0.191108 152:0.161517 153:-0.184018 154:0.280234 155:0.123915 156:-0.194829 157:0.200623 158:0.158869 159:-0.183156 160:0.284482 161:-0.268006 162:0.2476 163:0.0529092 164:-0.194539 165:-0.148988 166:0.168093 167:0.174553 168:0.261921 169:0.21482 170:0.171212 171:-0.172986 172:-0.2219 173:-0.205984 174:-0.188049 175:-0.169059 176:0.0958773 177:0.33951 178:0.308214 179:0.157444 180:0.155218 181:0.156235 182:0.18539 183:0.195428 184:-0.12577 185:0.148711 186:-0.265591 187:0.257641 188:0.112782 189:0.234558 190:0.164064 191:0.154347 192:0.167507 193:-0.18042 194:0.154093 195:0.0370362 196:0.182811 197:-0.185708 198:0.100507 199:0.501107 200:0.173773 201:-0.167579 202:-0.19911 203:0.198035 204:-0.25077 205:0.135288 206:0.179302 207:0.103391 208:0.248565 209:0.130136 210:0.0970749 211:0.227062 212:-0.212486 213:-0.232692 214:0.212085 215:0.279062 216:-0.210865 217:-0.264664 218:0.197944 219:-0.167517 220:0.216788 221:0.0977141 222:-0.206215 223:-0.261274 224:0.108493 225:-0.169261 226:-0.211072 227:0.642781 228:0.191037 229:-0.200389 230:-0.186774 231:0.172227 232:0.0886883 233:-0.186703 234:-0.200253 235:0.198195 236:0.10469 237:-0.201443 238:0.193438 239:0.163025 240:0.132557 241:-0.191472 242:0.191581 243:0.221341 244:-0.20227 245:0.137349 246:-0.19851 247:-0.198632 248:0.194597 249:0.267863 250:0.248655 251:-0.200431 252:-0.166514 253:0.168455 254:0.195667 255:0.219682 256:-0.170868 257:-0.170173 258:-0.177496 259:0.226919 260:-0.183372 261:-0.142338 262:0.349377 263:0.142466 264:0.253329 265:-0.137732 266:0.209964 267:0.117121 
10 1:0.440198 2:0.443617 3:0.219191 4:1 5:-0.29162 6:0.437243 7:0.437243 8:0.429146 9:0.401817 10:0.415532 11:-0.39883 12:0.434617 13:-0.360564 14:0.46107 15:-0.370812 16:0.471619 17:0.45679 18:0.372418 19:0.450991 20:0.423323 21:0.437243 22:0.437243 23:0.454855 24:0.426404 25:0.436458 26:0.41436 27:0.502705 28:0.434617 29:0.437243 30:0.355561 31:0.470076 32:0.423198 33:0.457491 34:0.471329 35:0.437243 36:0.34773 37:0.45938 38:0.318926 39:0.404148 40:0.46107 41:0.437243 42:0.42761 43:-0.310938 44:0.407755 45:0.437243 46:-0.342362 47:0.405374 48:0.247894 49:0.344178 50:0.391142 51:0.472408 52:0.377889 53:0.341162 54:-0.317575 55:0.437243 56:0.436932 57:0.27466 58:0.417353 59:0.362939 60:0.344178 61:0.303141 62:0.257714 63:0.474248 64:0.436567 65:0.377889 66:0.471882 67:0.437812 68:-0.354828 69:0.456423 70:0.394725 71:0.437243 72:0.344256 73:0.411657 74:0.257714 75:0.437243 76:0.428476 77:0.415532 78:0.387617 79:0.400575 80:0.387617 81:0.468591 82:0.335123 83:-0.331922 84:0.433272 85:0.402453 86:0.325723 87:-0.335997 88:-0.390523 89:0.301188 90:0.388976 91:-0.357588 92:-0.320173 93:-0.298197 94:-0.363979 95:0.435902 96:0.397585 97:0.320479 98:0.340593 99:-0.341178 100:0.484617 101:-0.367629 102:-0.29692 103:0.345553 104:-0.298035 105:0.443396 106:0.3607 107:0.414073 108:0.33099 109:0.378897 110:-0.343002 111:0.438848 112:-0.342155 113:0.417805 114:-0.278064 115:0.4427 116:-0.28427 117:0.394241 118:0.443876 119:-0.353258 120:-0.386118 121:0.477032 122:0.363262 123:-0.401911 124:0.327344 125:-0.33884 126:0.448938 127:0.432774 128:-0.29979 129:0.397078 130:-0.348083 131:0.344101 132:-0.329855 133:0.345061 134:-0.372297 135:0.351628 136:-0.421339 137:-0.343751 138:0.209046 139:0.127009 140:0.303443 141:-0.376814 142:-0.283426 143:0.248832 144:0.427873 145:-0.331735 146:0.178689 147:-0.385071 148:-0.438591 149:0.396791 150:0.271469 151:-0.373215 152:0.324556 153:-0.303642 154:0.324303 155:0.382168 156:-0.225266 157:0.492669 158:0.408838 159:-0.333016 160:0.391079 161:-0.439291 162:0.340279 163:0.0525456 164:-0.36202 165:-0.274884 166:0.351995 167:0.349433 168:0.438571 169:0.408204 170:0.477871 171:-0.298107 172:-0.346841 173:-0.329992 174:-0.326622 175:-0.289446 176:0.224941 177:0.386798 178:0.409101 179:0.471101 180:0.364833 181:0.255366 182:0.4257 183:0.364758 184:-0.376678 185:0.37443 186:-0.413109 187:0.405954 188:0.326947 189:0.3749 190:0.329862 191:0.36794 192:0.388251 193:-0.277718 194:0.378282 195:0.0586768 196:0.355457 197:-0.373654 198:0.389684 199:0.10172 200:0.313794 201:-0.32526 202:-0.343807 203:0.395094 204:-0.411961 205:0.274872 206:0.407993 207:0.302755 208:0.334352 209:0.456263 210:0.297698 211:0.336545 212:-0.374679 213:-0.412432 214:0.454576 215:0.367362 216:-0.338422 217:-0.411233 218:0.274308 219:-0.34917 220:0.420932 221:0.184648 222:-0.319235 223:-0.426493 224:0.349076 225:-0.364613 226:-0.336482 227:0.168889 228:0.444477 229:-0.362342 230:-0.372908 231:0.312476 232:0.299293 233:-0.362233 234:-0.322048 235:0.380167 236:0.23365 237:-0.293228 238:0.422324 239:0.31054 240:0.416961 241:-0.298441 242:0.40394 243:0.506318 244:-0.336354 245:0.419829 246:-0.355391 247:-0.322294 248:0.372768 249:0.432774 250:0.456556 251:-0.332147 252:-0.280438 253:0.414863 254:0.378443 255:0.481222 256:-0.314629 257:-0.318235 258:-0.299861 259:0.415721 260:-0.277176 261:-0.335825 262:0.174623 263:0.327893 264:0.333522 265:-0.293615 266:0.405245 267:0.294776 
10 1:-0.175783 2:-0.270571 3:-0.117172 4:-0.29162 5:1 6:-0.287243 7:-0.287243 8:-0.098961 9:-0.101538 10:-0.267056 11:0.0755414 12:-0.262959 13:0.183864 14:-0.17908 15:0.0676504 16:-0.267894 17:-0.146788 18:-0.167724 19:-0.176159 20:-0.159472 21:-0.287243 22:-0.287243 23:-0.203714 24:-0.180526 25:-0.112401 26:-0.160729 27:-0.161279 28:-0.262959 29:-0.287243 30:-0.218494 31:-0.146948 32:-0.218502 33:-0.198124 34:-0.119222 35:-0.287243 36:-0.15403 37:-0.183699 38:-0.104295 39:-0.234459 40:-0.17908 41:-0.287243 42:-0.237261 43:0.18001 44:-0.225429 45:-0.287243 46:0.171177 47:-0.200038 48:-0.174234 49:-0.159223 50:-0.147934 51:-0.149909 52:-0.116662 53:-0.116222 54:0.166439 55:-0.287243 56:-0.159549 57:-0.145645 58:-0.197264 59:-0.157084 60:-0.0815893 61:-0.165012 62:-0.13836 63:-0.145438 64:-0.104093 65:-0.116662 66:-0.180181 67:-0.217255 68:0.190635 69:-0.253829 70:-0.129674 71:-0.287243 72:-0.210856 73:-0.246512 74:-0.13836 75:-0.287243 76:-0.148624 77:-0.267056 78:-0.0996187 79:-0.133254 80:-0.0996187 81:-0.149806 82:-0.24335 83:0.172058 84:-0.16721 85:-0.171255 86:-0.18684 87:0.201694 88:0.05047 89:-0.111388 90:-0.151355 91:0.190207 92:0.171239 93:0.0797881 94:0.16051 95:-0.223867 96:-0.251509 97:-0.118724 98:-0.164504 99:0.193711 100:-0.231891 101:0.0729305 102:0.154894 103:-0.0953931 104:0.0868259 105:-0.173879 106:-0.0727253 107:-0.12381 108:-0.178848 109:-0.193723 110:0.140063 111:-0.180028 112:0.0638919 113:-0.201396 114:0.160406 115:-0.201168 116:0.0768286 117:-0.186572 118:-0.117949 119:0.160363 120:0.0509116 121:-0.195618 122:-0.139124 123:0.178935 124:-0.0950039 125:0.0353686 126:-0.214141 127:-0.270045 128:0.19554 129:-0.108723 130:0.178438 131:-0.133454 132:0.0810804 133:-0.0756739 134:0.0662535 135:-0.108736 136:0.0565691 137:0.204271 138:-0.00852588 139:-0.0219811 140:-0.116093 141:0.0481987 142:0.0920425 143:-0.110806 144:-0.126629 145:0.0840578 146:-0.0714317 147:0.182082 148:0.0478455 149:-0.181764 150:-0.150469 151:0.0673734 152:-0.118955 153:0.755402 154:-0.157517 155:-0.105537 156:0.0803328 157:-0.184482 158:-0.13274 159:0.153678 160:-0.236139 161:0.0392504 162:-0.205089 163:0.117228 164:0.133779 165:0.132714 166:-0.144367 167:-0.189336 168:-0.239947 169:-0.193325 170:-0.193465 171:0.0967243 172:0.0769134 173:0.173081 174:0.1641 175:0.191705 176:-0.101089 177:-0.154815 178:-0.191223 179:-0.170331 180:-0.109579 181:-0.166029 182:-0.104535 183:-0.218076 184:0.15473 185:-0.140445 186:0.0588767 187:-0.229908 188:-0.107054 189:-0.224699 190:-0.180552 191:-0.100283 192:-0.0840158 193:0.0789531 194:-0.0867445 195:0.144855 196:-0.151474 197:0.186856 198:-0.117955 199:0.0160888 200:-0.104223 201:0.204606 202:0.0732932 203:-0.192192 204:0.0477591 205:-0.176582 206:-0.195456 207:-0.122342 208:-0.226656 209:-0.147821 210:-0.149768 211:-0.186733 212:0.0768271 213:0.0451732 214:-0.197272 215:-0.159666 216:0.0901298 217:0.0579242 218:-0.174015 219:0.778127 220:-0.164504 221:-0.0860659 222:0.0845695 223:0.0358734 224:-0.103165 225:0.167277 226:0.0669417 227:-0.0261806 228:-0.228323 229:0.0852204 230:0.566894 231:-0.105728 232:-0.143748 233:0.140712 234:0.105237 235:-0.2432 236:-0.110768 237:0.156344 238:-0.191083 239:-0.0954205 240:-0.198001 241:0.0828055 242:-0.141245 243:-0.24507 244:0.155152 245:-0.140327 246:0.0793767 247:0.101005 248:-0.116918 249:-0.270045 250:-0.147246 251:0.162491 252:0.153442 253:-0.201965 254:-0.188144 255:-0.185004 256:0.0923627 257:0.0873182 258:0.141155 259:-0.176091 260:0.188733 261:0.75292 262:-0.0812229 263:-0.140706 264:-0.16955 265:0.156153 266:-0.200347 267:-0.149159 
10 1:0.472799 2:0.464192 3:0.190697 4:0.429146 5:-0.098961 6:0.404502 7:0.404502 8:1 9:0.367421 10:0.448949 11:-0.404386 12:0.399411 13:-0.219469 14:0.390596 15:-0.432672 16:0.410655 17:0.407219 18:0.315962 19:0.429823 20:0.459927 21:0.404502 22:0.404502 23:0.404016 24:0.422332 25:0.390023 26:0.368252 27:0.319779 28:0.399411 29:0.404502 30:0.385203 31:0.476511 32:0.514764 33:0.408377 34:0.336094 35:0.404502 36:0.278728 37:0.387292 38:0.348496 39:0.314867 40:0.390596 41:0.404502 42:0.357534 43:-0.155837 44:0.437884 45:0.404502 46:-0.156372 47:0.434474 48:0.182332 49:0.418672 50:0.332771 51:0.35797 52:0.459652 53:0.254747 54:-0.178036 55:0.404502 56:0.426315 57:0.21144 58:0.409052 59:0.394889 60:0.418672 61:0.328384 62:0.20474 63:0.41552 64:0.320501 65:0.459652 66:0.356881 67:0.405592 68:-0.161963 69:0.323534 70:0.32291 71:0.404502 72:0.370323 73:0.500751 74:0.20474 75:0.404502 76:0.521172 77:0.448949 78:0.353879 79:0.253986 80:0.353879 81:0.378729 82:0.353045 83:-0.184831 84:0.367428 85:0.284338 86:0.244959 87:-0.169487 88:-0.436872 89:0.317668 90:0.377322 91:-0.203354 92:-0.175315 93:-0.379858 94:-0.21857 95:0.337738 96:0.362789 97:0.307067 98:0.365491 99:-0.119157 100:0.330839 101:-0.446726 102:-0.176174 103:0.306517 104:-0.34353 105:0.384797 106:0.322117 107:0.55335 108:0.302946 109:0.362795 110:-0.205937 111:0.407566 112:-0.398041 113:0.284004 114:-0.126567 115:0.352931 116:-0.330692 117:0.427069 118:0.385611 119:-0.202724 120:-0.431818 121:0.420617 122:0.340046 123:-0.247644 124:0.359209 125:-0.411741 126:0.426161 127:0.330432 128:-0.16014 129:0.396005 130:-0.217755 131:0.321659 132:-0.3665 133:0.267893 134:-0.433926 135:0.277303 136:-0.474789 137:-0.183753 138:0.184968 139:0.0729627 140:0.199049 141:-0.440329 142:-0.314186 143:0.173473 144:0.376516 145:-0.367177 146:0.137589 147:-0.231438 148:-0.513641 149:0.378433 150:0.18678 151:-0.434318 152:0.199277 153:-0.143776 154:0.254696 155:0.330493 156:-0.273716 157:0.548913 158:0.497278 159:-0.211149 160:0.35168 161:-0.51436 162:0.252154 163:0.0139415 164:-0.397015 165:-0.153135 166:0.295476 167:0.372391 168:0.32428 169:0.322462 170:0.369124 171:-0.346354 172:-0.368788 173:-0.168615 174:-0.14866 175:-0.101182 176:0.155919 177:0.32605 178:0.497648 179:0.383121 180:0.240896 181:0.192605 182:0.373075 183:0.291502 184:-0.210252 185:0.318969 186:-0.483566 187:0.318262 188:0.224245 189:0.289522 190:0.251354 191:0.318691 192:0.31213 193:-0.337458 194:0.324713 195:0.0160806 196:0.380497 197:-0.211925 198:0.39583 199:0.0567611 200:0.29806 201:-0.144915 202:-0.417769 203:0.291633 204:-0.482289 205:0.292283 206:0.312719 207:0.20676 208:0.258269 209:0.406348 210:0.240075 211:0.3667 212:-0.436689 213:-0.482408 214:0.319346 215:0.396451 216:-0.375209 217:-0.481409 218:0.199976 219:-0.166258 220:0.365491 221:0.146388 222:-0.387903 223:-0.49951 224:0.299311 225:-0.215292 226:-0.408871 227:0.1306 228:0.356771 229:-0.421671 230:-0.213488 231:0.212469 232:0.27847 233:-0.237217 234:-0.356928 235:0.298504 236:0.159705 237:-0.174914 238:0.403347 239:0.307244 240:0.309803 241:-0.379773 242:0.338067 243:0.387084 244:-0.169882 245:0.265798 246:-0.413828 247:-0.374137 248:0.283117 249:0.330432 250:0.406832 251:-0.169103 252:-0.190203 253:0.355769 254:0.350504 255:0.480557 256:-0.363921 257:-0.369612 258:-0.179477 259:0.336281 260:-0.108147 261:-0.181403 262:0.175278 263:0.212713 264:0.268341 265:-0.155198 266:0.316932 267:0.229238 
10 1:0.302884 2:0.334307 3:0.263129 4:0.401817 5:-0.101538 6:0.351278 7:0.351278 8:0.367421 9:1 10:0.435584 11:-0.474679 12:0.347112 13:-0.16148 14:0.338507 15:-0.393514 16:0.355114 17:0.351499 18:0.351023 19:0.372057 20:0.39687 21:0.351278 22:0.351278 23:0.306786 24:0.364087 25:0.376276 26:0.394429 27:0.400709 28:0.347112 29:0.351278 30:0.412548 31:0.409814 32:0.350214 33:0.310744 34:0.29107 35:0.351278 36:0.28332 37:0.335774 38:0.23373 39:0.324616 40:0.338507 41:0.351278 42:0.493468 43:-0.128524 44:0.378691 45:0.351278 46:-0.168679 47:0.375883 48:0.193556 49:0.320072 50:0.288295 51:0.310545 52:0.395788 53:0.288942 54:-0.12764 55:0.351278 56:0.45698 57:0.209151 58:0.311356 59:0.301279 60:0.279108 61:0.317639 62:0.209034 63:0.450056 64:0.323136 65:0.395788 66:0.539032 67:0.405855 68:-0.195437 69:0.428859 70:0.280649 71:0.351278 72:0.2792 73:0.431723 74:0.209034 75:0.351278 76:0.357136 77:0.435584 78:0.271782 79:0.300409 80:0.271782 81:0.448387 82:0.306456 83:-0.153089 84:0.453313 85:0.291245 86:0.257093 87:-0.158488 88:-0.478117 89:0.275684 90:0.285499 91:-0.188107 92:-0.145113 93:-0.39268 94:-0.181539 95:0.40342 96:0.366636 97:0.335611 98:0.316128 99:-0.155068 100:0.330972 101:-0.451622 102:-0.126084 103:0.296737 104:-0.382106 105:0.33284 106:0.278004 107:0.348995 108:0.305546 109:0.31388 110:-0.171045 111:0.300406 112:-0.393897 113:0.295677 114:-0.103933 115:0.35971 116:-0.327279 117:0.457467 118:0.376993 119:-0.1681 120:-0.425576 121:0.408343 122:0.337971 123:-0.205872 124:0.375217 125:-0.431612 126:0.369046 127:0.344143 128:-0.132092 129:0.304397 130:-0.200062 131:0.279015 132:-0.379908 133:0.264108 134:-0.426657 135:0.23993 136:-0.493114 137:-0.171729 138:0.132118 139:0.136707 140:0.210433 141:-0.429135 142:-0.327299 143:0.178682 144:0.406423 145:-0.383752 146:0.155913 147:-0.192232 148:-0.496831 149:0.459714 150:0.205333 151:-0.429312 152:0.273345 153:-0.156352 154:0.340332 155:0.323806 156:-0.275406 157:0.343935 158:0.342536 159:-0.175391 160:0.358836 161:-0.497863 162:0.312257 163:0.0154361 164:-0.169434 165:-0.14213 166:0.293651 167:0.277972 168:0.325998 169:0.379219 170:0.319811 171:-0.344241 172:-0.398314 173:-0.15882 174:-0.122402 175:-0.139988 176:0.20392 177:0.486194 178:0.380275 179:0.370956 180:0.253949 181:0.26839 182:0.404005 183:0.339638 184:-0.15324 185:0.276308 186:-0.468515 187:0.327089 188:0.232573 189:0.299807 190:0.262049 191:0.275703 192:0.271676 193:-0.322493 194:0.319269 195:-0.0057985 196:0.285377 197:-0.175652 198:0.27433 199:0.137982 200:0.364165 201:-0.138445 202:-0.412677 203:0.293382 204:-0.467056 205:0.217654 206:0.271081 207:0.283107 208:0.267412 209:0.350773 210:0.208905 211:0.352315 212:-0.429417 213:-0.452743 214:0.32788 215:0.342536 216:-0.390738 217:-0.466295 218:0.250955 219:-0.156982 220:0.316128 221:0.149613 222:-0.386489 223:-0.48304 224:0.259145 225:-0.178708 226:-0.402927 227:0.147556 228:0.310573 229:-0.416792 230:-0.17701 231:0.292035 232:0.277866 233:-0.178215 234:-0.371984 235:0.306547 236:0.192194 237:-0.110875 238:0.34906 239:0.294683 240:0.310832 241:-0.376554 242:0.379658 243:0.383948 244:-0.177179 245:0.23186 246:-0.408213 247:-0.387711 248:0.28156 249:0.344143 250:0.47668 251:-0.175913 252:-0.157681 253:0.349966 254:0.304346 255:0.369661 256:-0.165139 257:-0.367785 258:-0.148379 259:0.340288 260:-0.123552 261:-0.150072 262:0.18509 263:0.279667 264:0.272259 265:-0.145321 266:0.276508 267:0.273006 
10 1:-0.408548 2:-0.374982 3:-0.255979 4:-0.39883 5:0.0755414 6:-0.473782 7:-0.473782 8:-0.404386 9:-0.474679 10:-0.453632 11:1 12:-0.458409 13:0.121225 14:-0.409311 15:0.840873 16:-0.399263 17:-0.37017 18:-0.328837 19:-0.394589 20:-0.431781 21:-0.473782 22:-0.473782 23:-0.374626 24:-0.329346 25:-0.31051 26:-0.340434 27:-0.356786 28:-0.458409 29:-0.473782 30:-0.375739 31:-0.380708 32:-0.385947 33:-0.327149 34:-0.357993 35:-0.473782 36:-0.348672 37:-0.366945 38:-0.285115 39:-0.46317 40:-0.409311 41:-0.473782 42:-0.442994 43:0.120203 44:-0.427924 45:-0.473782 46:0.151535 47:-0.385606 48:-0.308402 49:-0.39515 50:-0.321862 51:-0.374143 52:-0.365645 53:-0.297732 54:0.137754 55:-0.473782 56:-0.374201 57:-0.233827 58:-0.388316 59:-0.324365 60:-0.334149 61:-0.337631 62:-0.295547 63:-0.346229 64:-0.375087 65:-0.365645 66:-0.466781 67:-0.471304 68:0.167452 69:-0.47359 70:-0.35 71:-0.473782 72:-0.334025 73:-0.416868 74:-0.295547 75:-0.473782 76:-0.349926 77:-0.453632 78:-0.280181 79:-0.325524 80:-0.280181 81:-0.40412 82:-0.40411 83:0.132626 84:-0.427831 85:-0.377404 86:-0.385557 87:0.146819 88:0.88339 89:-0.338777 90:-0.325581 91:0.146737 92:0.132037 93:0.244461 94:0.12349 95:-0.506652 96:-0.433019 97:-0.306526 98:-0.401385 99:0.149536 100:-0.405312 101:0.838031 102:0.148042 103:-0.270376 104:0.245593 105:-0.337195 106:-0.273713 107:-0.311765 108:-0.397457 109:-0.404962 110:0.134119 111:-0.440354 112:0.241519 113:-0.376559 114:0.114688 115:-0.450922 116:0.213226 117:-0.373022 118:-0.314528 119:0.151858 120:0.853496 121:-0.427831 122:-0.350371 123:0.137767 124:-0.275318 125:0.772501 126:-0.477287 127:-0.494122 128:0.122428 129:-0.309443 130:0.137526 131:-0.334273 132:0.313731 133:-0.302795 134:0.414241 135:-0.263381 136:0.870069 137:0.167572 138:-0.170875 139:-0.210636 140:-0.2925 141:0.809818 142:0.222699 143:-0.239974 144:-0.366804 145:0.26745 146:-0.228434 147:0.150213 148:0.887118 149:-0.411366 150:-0.344693 151:0.260071 152:-0.278552 153:0.175175 154:-0.363943 155:-0.332485 156:0.19271 157:-0.382893 158:-0.300647 159:0.136269 160:-0.453237 161:0.91879 162:-0.393862 163:-0.0369783 164:0.192555 165:0.117334 166:-0.304231 167:-0.442471 168:-0.414129 169:-0.40228 170:-0.380765 171:0.214122 172:0.242582 173:0.133266 174:0.164164 175:0.157511 176:-0.281731 177:-0.410159 178:-0.424072 179:-0.35849 180:-0.34752 181:-0.333267 182:-0.330693 183:-0.390238 184:0.129053 185:-0.306594 186:0.848815 187:-0.457698 188:-0.307595 189:-0.416064 190:-0.378457 191:-0.264066 192:-0.363534 193:0.216838 194:-0.300747 195:-0.0173772 196:-0.386541 197:0.143975 198:-0.261141 199:-0.160277 200:-0.297413 201:0.148545 202:0.255912 203:-0.354782 204:0.858046 205:-0.35575 206:-0.370757 207:-0.304222 208:-0.39161 209:-0.329812 210:-0.293202 211:-0.330752 212:0.253359 213:0.860422 214:-0.431452 215:-0.364118 216:0.265198 217:0.842741 218:-0.329075 219:0.136197 220:-0.380894 221:-0.202012 222:0.261645 223:0.844789 224:-0.278739 225:0.128759 226:0.243492 227:-0.182223 228:-0.443878 229:0.268003 230:0.151 231:-0.316637 232:-0.333545 233:0.117374 234:0.246695 235:-0.403947 236:-0.234389 237:0.128934 238:-0.388203 239:-0.256522 240:-0.368432 241:0.31478 242:-0.352836 243:-0.439268 244:0.137579 245:-0.342071 246:0.24935 247:0.260798 248:-0.275517 249:-0.494122 250:-0.391472 251:0.134116 252:0.127062 253:-0.393547 254:-0.361773 255:-0.437183 256:0.170696 257:0.245834 258:0.137285 259:-0.405689 260:0.137131 261:0.13241 262:-0.224425 263:-0.286752 264:-0.349983 265:0.120326 266:-0.410585 267:-0.321318 
10 1:0.746188 2:0.488287 3:0.271248 4:0.434617 5:-0.262959 6:0.827835 7:0.827835 8:0.399411 9:0.347112 10:0.627 11:-0.458409 12:1 13:-0.321097 14:0.54817 15:-0.409133 16:0.647902 17:0.367484 18:0.443349 19:0.602146 20:0.418225 21:0.827835 22:0.827835 23:0.496602 24:0.392757 25:0.290065 26:0.330395 27:0.449539 28:1 29:0.827835 30:0.473595 31:0.339347 32:0.641084 33:0.436158 34:0.342925 35:0.827835 36:0.393845 37:0.543849 38:0.271907 39:0.685575 40:0.54817 41:0.827835 42:0.502566 43:-0.35301 44:0.691217 45:0.827835 46:-0.330824 47:0.687492 48:0.421817 49:0.386657 50:0.402328 51:0.503139 52:0.37298 53:0.304427 54:-0.326317 55:0.827835 56:0.381762 57:0.338171 58:0.43721 59:0.361454 60:0.386657 61:0.403704 62:0.289626 63:0.435422 64:0.380767 65:0.37298 66:0.501705 67:0.742561 68:-0.243508 69:0.614514 70:0.455114 71:0.827835 72:0.517836 73:0.619844 74:0.289626 75:0.827835 76:0.504568 77:0.627 78:0.174464 79:0.486036 80:0.174464 81:0.335091 82:0.644502 83:-0.330897 84:0.515592 85:0.402561 86:0.485402 87:-0.309625 88:-0.431306 89:0.248956 90:0.203239 91:-0.391895 92:-0.345164 93:-0.389054 94:-0.317958 95:0.739667 96:0.511868 97:0.261949 98:0.379381 99:-0.368237 100:0.465591 101:-0.475288 102:-0.292527 103:0.120182 104:-0.407706 105:0.468843 106:0.186536 107:0.362428 108:0.427217 109:0.507866 110:-0.299588 111:0.573371 112:-0.340288 113:0.403783 114:-0.306581 115:0.582693 116:-0.322464 117:0.454055 118:0.26141 119:-0.327441 120:-0.451014 121:0.371734 122:0.340047 123:-0.358978 124:0.23619 125:-0.436266 126:0.597399 127:0.823318 128:-0.392586 129:0.256915 130:-0.286454 131:0.255434 132:-0.303952 133:0.221682 134:-0.380465 135:0.184904 136:-0.409036 137:-0.398427 138:0.121642 139:0.168274 140:0.226638 141:-0.446764 142:-0.358279 143:0.245954 144:0.396325 145:-0.295914 146:0.200113 147:-0.304661 148:-0.47868 149:0.389164 150:0.334105 151:-0.372979 152:0.28324 153:-0.369191 154:0.360824 155:0.220474 156:-0.310232 157:0.420148 158:0.349339 159:-0.365195 160:0.581316 161:-0.451872 162:0.432909 163:-0.107827 164:-0.355422 165:-0.298558 166:0.235727 167:0.522129 168:0.527634 169:0.378008 170:0.589526 171:-0.31243 172:-0.373824 173:-0.37694 174:-0.315148 175:-0.313583 176:0.171578 177:0.392757 178:0.458672 179:0.342276 180:0.343613 181:0.327523 182:0.260603 183:0.343443 184:-0.342544 185:0.201309 186:-0.472915 187:0.6884 188:0.259866 189:0.636269 190:0.425075 191:0.271865 192:0.368689 193:-0.345731 194:0.210873 195:-0.118416 196:0.462618 197:-0.310812 198:0.232212 199:-0.00218436 200:0.30468 201:-0.311043 202:-0.359716 203:0.410996 204:-0.447563 205:0.410072 206:0.439035 207:0.184605 208:0.50052 209:0.232079 210:0.33897 211:0.280175 212:-0.357581 213:-0.46808 214:0.531369 215:0.417514 216:-0.379303 217:-0.471199 218:0.40669 219:-0.343453 220:0.379381 221:0.101349 222:-0.395931 223:-0.440568 224:0.193583 225:-0.344727 226:-0.355372 227:0.0884562 228:0.58693 229:-0.336992 230:-0.377486 231:0.245397 232:0.275873 233:-0.312861 234:-0.360326 235:0.57071 236:0.226921 237:-0.392959 238:0.490247 239:0.189701 240:0.369592 241:-0.368489 242:0.267886 243:0.543577 244:-0.368889 245:0.376669 246:-0.358298 247:-0.381547 248:0.225148 249:0.823318 250:0.366834 251:-0.365311 252:-0.307808 253:0.498565 254:0.419034 255:0.385064 256:-0.311667 257:-0.309008 258:-0.32832 259:0.474624 260:-0.335678 261:-0.329287 262:0.250127 263:0.250419 264:0.440908 265:-0.311811 266:0.607939 267:0.266864 
10 1:-0.267849 2:-0.356082 3:-0.172458 4:-0.360564 5:0.183864 6:-0.31079 7:-0.31079 8:-0.219469 9:-0.16148 10:-0.344777 11:0.121225 12:-0.321097 13:1 14:-0.232617 15:0.126672 16:-0.314463 17:-0.193895 18:-0.25609 19:-0.232732 20:-0.267927 21:-0.31079 22:-0.31079 23:-0.248367 24:-0.29795 25:-0.229972 26:-0.271494 27:-0.256138 28:-0.321097 29:-0.31079 30:-0.283792 31:-0.288744 32:-0.268231 33:-0.292772 34:-0.165451 35:-0.31079 36:-0.248162 37:-0.295554 38:-0.242627 39:-0.227819 40:-0.232617 41:-0.31079 42:-0.285182 43:0.575495 44:-0.337315 45:-0.31079 46:0.616663 47:-0.314259 48:-0.209371 49:-0.253875 50:-0.217244 51:-0.229541 52:-0.214876 53:-0.154508 54:0.250354 55:-0.31079 56:-0.262873 57:-0.187769 58:-0.266784 59:-0.224205 60:-0.229255 61:-0.221765 62:-0.189824 63:-0.224664 64:-0.156762 65:-0.214876 66:-0.203376 67:-0.276351 68:0.278867 69:-0.275592 70:-0.180863 71:-0.31079 72:-0.278366 73:-0.326506 74:-0.189824 75:-0.31079 76:-0.310517 77:-0.344777 78:-0.217382 79:-0.22535 80:-0.217382 81:-0.219234 82:-0.291487 83:0.272947 84:-0.352569 85:-0.245268 86:-0.233082 87:0.763687 88:0.123079 89:-0.258545 90:-0.269561 91:0.81332 92:0.389239 93:0.13682 94:0.241838 95:-0.250777 96:-0.36701 97:-0.24244 98:-0.284501 99:0.251741 100:-0.303624 101:0.113939 102:0.251018 103:-0.170888 104:0.156726 105:-0.248088 106:-0.230287 107:-0.24811 108:-0.224843 109:-0.263025 110:0.227975 111:-0.272621 112:0.140417 113:-0.310063 114:0.204585 115:-0.290685 116:0.0943679 117:-0.28841 118:-0.27314 119:0.242819 120:0.122902 121:-0.298514 122:-0.291716 123:0.633096 124:-0.192455 125:0.092557 126:-0.26951 127:-0.328605 128:0.230302 129:-0.239468 130:0.260604 131:-0.278625 132:0.119352 133:-0.210029 134:0.146022 135:-0.182883 136:0.11851 137:0.596585 138:-0.116643 139:-0.0864741 140:-0.200301 141:0.115844 142:0.117056 143:-0.157265 144:-0.197457 145:0.14241 146:-0.152358 147:0.267446 148:0.112718 149:-0.309523 150:-0.244247 151:0.140561 152:-0.21566 153:0.259257 154:-0.248343 155:-0.240539 156:0.0960509 157:-0.281729 158:-0.258443 159:0.242792 160:-0.355782 161:0.114885 162:-0.309108 163:0.0204142 164:0.245364 165:0.207518 166:-0.253276 167:-0.264719 168:-0.312214 169:-0.277078 170:-0.269166 171:0.131099 172:0.134212 173:0.257241 174:0.257492 175:0.226836 176:-0.199074 177:-0.249025 178:-0.333551 179:-0.286449 180:-0.237221 181:-0.181132 182:-0.250386 183:-0.288911 184:0.245797 185:-0.252853 186:0.129479 187:-0.312669 188:-0.215521 189:-0.274676 190:-0.226599 191:-0.186157 192:-0.219867 193:0.129176 194:-0.223764 195:0.0370023 196:-0.253807 197:0.261931 198:-0.214577 199:-0.0726466 200:-0.18753 201:0.227513 202:0.161613 203:-0.25866 204:0.0998163 205:-0.214189 206:-0.259592 207:-0.201723 208:-0.269929 209:-0.270456 210:-0.20779 211:-0.289471 212:0.147217 213:0.0986922 214:-0.251743 215:-0.309677 216:0.139202 217:0.118779 218:-0.237116 219:0.261702 220:-0.23488 221:-0.123737 222:0.161703 223:0.10888 224:-0.207611 225:0.573911 226:0.143142 227:-0.123126 228:-0.31562 229:0.164756 230:0.269544 231:-0.189148 232:-0.227216 233:0.246624 234:0.142437 235:-0.291332 236:-0.155345 237:0.218799 238:-0.242326 239:-0.218924 240:-0.242498 241:0.120942 242:-0.216382 243:-0.324943 244:0.201018 245:-0.212103 246:0.129016 247:0.13912 248:-0.266078 249:-0.328605 250:-0.244655 251:0.553636 252:0.220736 253:-0.246569 254:-0.322994 255:-0.260055 256:0.198476 257:0.133781 258:0.238099 259:-0.258171 260:0.220128 261:0.253853 262:-0.155942 263:-0.212519 264:-0.25807 265:0.290321 266:-0.284796 267:-0.254935 
10 1:0.558621 2:0.504742 3:0.224802 4:0.46107 5:-0.17908 6:0.628716 7:0.628716 8:0.390596 9:0.338507 10:0.597626 11:-0.409311 12:0.54817 13:-0.232617 14:1 15:-0.407865 16:0.420733 17:0.36395 18:0.373164 19:0.578217 20:0.347865 21:0.628716 22:0.628716 23:0.418485 24:0.385037 25:0.349604 26:0.32787 27:0.3199 28:0.54817 29:0.628716 30:0.455276 31:0.394184 32:0.412863 33:0.482698 34:0.396987 35:0.628716 36:0.385946 37:0.525193 38:0.36524 39:0.511195 40:1 41:0.628716 42:0.486482 43:-0.317554 44:0.517365 45:0.628716 46:-0.298574 47:0.443689 48:0.309156 49:0.32244 50:0.33647 51:0.486947 52:0.426875 53:0.34827 54:-0.267035 55:0.628716 56:0.316709 57:0.213335 58:0.366516 59:0.300976 60:0.437448 61:0.292333 62:0.198515 63:0.490998 64:0.503184 65:0.426875 66:0.550185 67:0.629543 68:-0.222246 69:0.587842 70:0.567742 71:0.628716 72:0.380075 73:0.592011 74:0.198515 75:0.628716 76:0.423973 77:0.597626 78:0.185945 79:0.299569 80:0.185945 81:0.504291 82:0.48169 83:-0.22024 84:0.497071 85:0.335406 86:0.408411 87:-0.279307 88:-0.36274 89:0.259345 90:0.332203 91:-0.297138 92:-0.285017 93:-0.347557 94:-0.286852 95:0.550599 96:0.284684 97:0.313673 98:0.315924 99:-0.277167 100:0.45195 101:-0.40195 102:-0.292161 103:0.137251 104:-0.320148 105:0.454625 106:0.242389 107:0.359736 108:0.357548 109:0.428611 110:-0.295304 111:0.556116 112:-0.346902 113:0.401344 114:-0.25136 115:0.41639 116:-0.323118 117:0.442471 118:0.272512 119:-0.295272 120:-0.446704 121:0.370817 122:0.280673 123:-0.323446 124:0.239916 125:-0.388791 126:0.503378 127:0.467105 128:-0.298627 129:0.261901 130:-0.28641 131:0.207272 132:-0.313473 133:0.181318 134:-0.362274 135:0.238385 136:-0.431729 137:-0.302307 138:0.176977 139:0.0364803 140:0.234533 141:-0.419067 142:-0.319706 143:0.204589 144:0.388018 145:-0.308601 146:0.209093 147:-0.30369 148:-0.449789 149:0.385207 150:0.276533 151:-0.334031 152:0.142141 153:-0.305146 154:0.355722 155:0.231017 156:-0.277009 157:0.410852 158:0.408668 159:-0.328005 160:0.34126 161:-0.449559 162:0.233086 163:-0.133098 164:-0.268524 165:-0.225402 166:0.296424 167:0.377312 168:0.56894 169:0.311507 170:0.373038 171:-0.279738 172:-0.355042 173:-0.311345 174:-0.284454 175:-0.256127 176:0.230063 177:0.442172 178:0.451014 179:0.340158 180:0.344071 181:0.413829 182:0.326367 183:0.283718 184:-0.309257 185:0.268774 186:-0.421476 187:0.514289 188:0.264403 189:0.407273 190:0.414937 191:0.274582 192:0.368306 193:-0.327304 194:0.276448 195:-0.113593 196:0.264687 197:-0.281222 198:0.282857 199:-0.0136212 200:0.203177 201:-0.280918 202:-0.3003 203:0.288173 204:-0.464415 205:0.295231 206:0.369307 207:0.243771 208:0.480743 209:0.303955 210:0.235015 211:0.281633 212:-0.364471 213:-0.461903 214:0.445975 215:0.348836 216:-0.360542 217:-0.419927 218:0.288461 219:-0.309606 220:0.431819 221:0.079851 222:-0.353789 223:-0.43773 224:0.204886 225:-0.310486 226:-0.339043 227:0.0645616 228:0.493723 229:-0.346462 230:-0.311212 231:0.399692 232:0.227183 233:-0.3092 234:-0.322233 235:0.416945 236:0.225236 237:-0.327985 238:0.476494 239:0.237814 240:0.365707 241:-0.309035 242:0.277916 243:0.457113 244:-0.331321 245:0.371609 246:-0.384913 247:-0.361714 248:0.283787 249:0.467105 250:0.422133 251:-0.328043 252:-0.252122 253:0.420249 254:0.283402 255:0.568242 256:-0.258124 257:-0.337978 258:-0.323626 259:0.396846 260:-0.277184 261:-0.243102 262:0.118174 263:0.206792 264:0.370981 265:-0.232844 266:0.443435 267:0.270339 
10 1:-0.388101 2:-0.362993 3:-0.242696 4:-0.370812 5:0.0676504 6:-0.470637 7:-0.470637 8:-0.432672 9:-0.393514 10:-0.447289 11:0.840873 12:-0.409133 13:0.126672 14:-0.407865 15:1 16:-0.356358 17:-0.330397 18:-0.310618 19:-0.329888 20:-0.34417 21:-0.470637 22:-0.470637 23:-0.390313 24:-0.348082 25:-0.312307 26:-0.320818 27:-0.336666 28:-0.409133 29:-0.470637 30:-0.388585 31:-0.357667 32:-0.385709 33:-0.365965 34:-0.355093 35:-0.470637 36:-0.311199 37:-0.391754 38:-0.298813 39:-0.435516 40:-0.407865 41:-0.470637 42:-0.395428 43:0.140818 44:-0.38194 45:-0.470637 46:0.14438 47:-0.366119 48:-0.275274 49:-0.370886 50:-0.322988 51:-0.35422 52:-0.344787 53:-0.280756 54:0.14053 55:-0.470637 56:-0.353686 57:-0.197214 58:-0.383567 59:-0.35934 60:-0.370886 61:-0.331644 62:-0.263812 63:-0.329138 64:-0.374231 65:-0.344787 66:-0.396334 67:-0.444468 68:0.122234 69:-0.444451 70:-0.351658 71:-0.470637 72:-0.3526 73:-0.458003 74:-0.263812 75:-0.470637 76:-0.393325 77:-0.447289 78:-0.264754 79:-0.27304 80:-0.264754 81:-0.378657 82:-0.401675 83:0.135008 84:-0.421773 85:-0.336848 86:-0.344137 87:0.131306 88:0.824657 89:-0.320633 90:-0.326488 91:0.131241 92:0.118098 93:0.244789 94:0.110468 95:-0.404113 96:-0.386476 97:-0.304615 98:-0.394901 99:0.13374 100:-0.400555 101:0.775973 102:0.158358 103:-0.255531 104:0.247429 105:-0.320233 106:-0.273427 107:-0.352772 108:-0.354772 109:-0.398257 110:0.12786 111:-0.440357 112:0.242468 113:-0.357079 114:0.0946746 115:-0.379269 116:0.146394 117:-0.372279 118:-0.319232 119:0.135813 120:0.83971 121:-0.381888 122:-0.369972 123:0.141284 124:-0.27492 125:0.747441 126:-0.426029 127:-0.441035 128:0.126526 129:-0.308775 130:0.131558 131:-0.334671 132:0.30613 133:-0.270277 134:0.390978 135:-0.263252 136:0.812323 137:0.158627 138:-0.191448 139:-0.203238 140:-0.276992 141:0.763118 142:0.233039 143:-0.189968 144:-0.327399 145:0.259256 146:-0.278699 147:0.13435 148:0.821665 149:-0.386721 150:-0.343517 151:0.254054 152:-0.248611 153:0.148202 154:-0.359797 155:-0.313547 156:0.197732 157:-0.379447 158:-0.362787 159:0.129939 160:-0.381267 161:0.842861 162:-0.351535 163:-0.0422692 164:0.196275 165:0.0981593 166:-0.2881 167:-0.414727 168:-0.408861 169:-0.337272 170:-0.33984 171:0.221175 172:0.262915 173:0.136629 174:0.146807 175:0.132327 176:-0.280885 177:-0.330032 178:-0.465245 179:-0.319975 180:-0.34819 181:-0.297492 182:-0.3313 183:-0.367339 184:0.115452 185:-0.290677 186:0.793013 187:-0.430479 188:-0.274531 189:-0.392174 190:-0.356534 191:-0.251745 192:-0.344458 193:0.222975 194:-0.285322 195:-0.0153493 196:-0.364469 197:0.137857 198:-0.262335 199:-0.142979 200:-0.249765 201:0.141385 202:0.256304 203:-0.316663 204:0.828516 205:-0.333347 206:-0.348145 207:-0.301813 208:-0.386661 209:-0.331477 210:-0.261689 211:-0.343201 212:0.247394 213:0.804009 214:-0.38509 215:-0.381689 216:0.284306 217:0.787356 218:-0.293713 219:0.121827 220:-0.358288 221:-0.16076 222:0.27455 223:0.78299 224:-0.248761 225:0.132255 226:0.257433 227:-0.190657 228:-0.442139 229:0.260502 230:0.135056 231:-0.29833 232:-0.297718 233:0.105005 234:0.246303 235:-0.381031 236:-0.209206 237:0.115318 238:-0.387847 239:-0.242161 240:-0.347342 241:0.307036 242:-0.334054 243:-0.434959 244:0.123051 245:-0.323655 246:0.263429 247:0.272451 248:-0.309715 249:-0.441035 250:-0.349428 251:0.14393 252:0.121716 253:-0.314081 254:-0.343455 255:-0.409879 256:0.173292 257:0.238951 258:0.122797 259:-0.362085 260:0.122644 261:0.126936 262:-0.214222 263:-0.269903 264:-0.346719 265:0.0925137 266:-0.410446 267:-0.33529 
10 1:0.511719 2:0.4266 3:0.287559 4:0.471619 5:-0.267894 6:0.723204 7:0.723204 8:0.410655 9:0.355114 10:0.615543 11:-0.399263 12:0.647902 13:-0.314463 14:0.420733 15:-0.356358 16:1 17:0.33022 18:0.392327 19:0.599164 20:0.375259 21:0.723204 22:0.723204 23:0.438833 24:0.350889 25:0.317411 26:0.348628 27:0.343578 28:0.647902 29:0.723204 30:0.525929 31:0.305774 32:0.562522 33:0.387878 34:0.254822 35:0.723204 36:0.35178 37:0.416808 38:0.290357 39:0.601601 40:0.420733 41:0.723204 42:0.630521 43:-0.312202 44:0.539948 45:0.723204 46:-0.34818 47:0.669735 48:0.3265 49:0.345899 50:0.358723 51:0.323184 52:0.39057 53:0.227654 54:-0.290403 55:0.723204 56:0.403293 57:0.297438 58:0.500736 59:0.429747 60:0.400952 61:0.310858 62:0.259078 63:0.389176 64:0.282965 65:0.39057 66:0.445087 67:0.579318 68:-0.277399 69:0.541453 70:0.345585 71:0.723204 72:0.566205 73:0.610777 74:0.259078 75:0.723204 76:0.447395 77:0.615543 78:0.252614 79:0.322615 80:0.252614 81:0.356587 82:0.627353 83:-0.318201 84:0.456289 85:0.360496 86:0.372423 87:-0.324732 88:-0.375631 89:0.230328 90:0.245971 91:-0.371783 92:-0.305031 93:-0.339204 94:-0.308289 95:0.503488 96:0.52498 97:0.238045 98:0.339947 99:-0.325367 100:0.354878 101:-0.432653 102:-0.261998 103:0.203599 104:-0.376773 105:0.416275 106:0.217741 107:0.382574 108:0.323941 109:0.392275 110:-0.29049 111:0.437411 112:-0.318512 113:0.490967 114:-0.248435 115:0.446141 116:-0.331522 117:0.463908 118:0.300377 119:-0.316774 120:-0.37085 121:0.335415 122:0.307806 123:-0.345885 124:0.259586 125:-0.378469 126:0.459832 127:0.571621 128:-0.345794 129:0.284112 130:-0.308512 131:0.235644 132:-0.286942 133:0.24584 134:-0.353645 135:0.257085 136:-0.399046 137:-0.351203 138:0.11725 139:0.159107 140:0.208871 141:-0.407683 142:-0.328814 143:0.220669 144:0.299313 145:-0.281662 146:0.185465 147:-0.299463 148:-0.437746 149:0.408797 150:0.301476 151:-0.348674 152:0.343793 153:-0.30044 154:0.323391 155:0.204672 156:-0.285657 157:0.317715 158:0.372676 159:-0.32195 160:0.515354 161:-0.415461 162:0.387141 163:-0.0797348 164:-0.338052 165:-0.263563 166:0.267496 167:0.401691 168:0.406603 169:0.474667 170:0.458092 171:-0.291721 172:-0.306483 173:-0.333038 174:-0.280647 175:-0.279479 176:0.161192 177:0.350889 178:0.410481 179:0.362096 180:0.253081 181:0.247551 182:0.294687 183:0.425871 184:-0.333312 185:0.240559 186:-0.431261 187:0.537305 188:0.286427 189:0.432539 190:0.322054 191:0.29585 192:0.272284 193:-0.301418 194:0.248037 195:-0.0559854 196:0.352242 197:-0.305667 198:0.300781 199:0.0508429 200:0.321658 201:-0.251479 202:-0.356907 203:0.580478 204:-0.409743 205:0.314977 206:0.336664 207:0.218504 208:0.385788 209:0.272753 210:0.348686 211:0.30238 212:-0.334658 213:-0.42781 214:0.471804 215:0.372676 216:-0.310891 217:-0.429594 218:0.361052 219:-0.331706 220:0.284468 221:0.0964677 222:-0.345378 223:-0.404675 224:0.228213 225:-0.357402 226:-0.331114 227:0.13315 228:0.450095 229:-0.317399 230:-0.361235 231:0.224368 232:0.250364 233:-0.304334 234:-0.334385 235:0.503235 236:0.168801 237:-0.321436 238:0.435856 239:0.214699 240:0.388001 241:-0.341129 242:0.305296 243:0.416562 244:-0.325203 245:0.337729 246:-0.334194 247:-0.313002 248:0.256008 249:0.571621 250:0.385911 251:-0.2977 252:-0.273736 253:0.38406 254:0.438328 255:0.286762 256:-0.295672 257:-0.310461 258:-0.31835 259:0.359126 260:-0.296647 261:-0.31835 262:0.184015 263:0.268843 264:0.3383 265:-0.276152 266:0.402915 267:0.24293 
10 1:0.315118 2:0.375699 3:0.170423 4:0.45679 5:-0.146788 6:0.373422 7:0.373422 8:0.407219 9:0.351499 10:0.366023 11:-0.37017 12:0.367484 13:-0.193895 14:0.36395 15:-0.330397 16:0.33022 17:1 18:0.247327 19:0.341248 20:0.436894 21:0.373422 22:0.373422 23:0.33134 24:0.253464 25:0.321732 26:0.34896 27:0.296449 28:0.367484 29:0.373422 30:0.316117 31:0.311598 32:0.322897 33:0.438597 34:0.363204 35:0.373422 36:0.304086 37:0.360238 38:0.210308 39:0.466914 40:0.36395 41:0.373422 42:0.331549 43:-0.199808 44:0.411879 45:0.373422 46:-0.227217 47:0.286659 48:0.201644 49:0.398838 50:0.409139 51:0.33203 52:0.389881 53:0.235218 54:-0.224326 55:0.373422 56:0.403842 57:0.197058 58:0.3883 59:0.279223 60:0.29861 61:0.352906 62:0.223672 63:0.336223 64:0.348783 65:0.389881 66:0.38695 67:0.37469 68:-0.260718 69:0.353656 70:0.296997 71:0.373422 72:0.248624 73:0.358954 74:0.223672 75:0.373422 76:0.333233 77:0.366023 78:0.257327 79:0.181531 80:0.257327 81:0.407421 82:0.270037 83:-0.206594 84:0.342492 85:0.310944 86:0.269929 87:-0.235525 88:-0.348248 89:0.193308 90:0.306918 91:-0.274459 92:-0.196415 93:-0.296525 94:-0.264996 95:0.370407 96:0.332576 97:0.245603 98:0.293067 99:-0.186287 100:0.466147 101:-0.324981 102:-0.198504 103:0.25105 104:-0.291486 105:0.414915 106:0.22536 107:0.331572 108:0.381278 109:0.391351 110:-0.249692 111:0.311682 112:-0.29588 113:0.254184 114:-0.189527 115:0.38536 116:-0.306719 117:0.350399 118:0.309362 119:-0.272523 120:-0.324515 121:0.397506 122:0.263107 123:-0.298029 124:0.223234 125:-0.315142 126:0.460479 127:0.363235 128:-0.181642 129:0.333955 130:-0.264898 131:0.198246 132:-0.2847 133:0.250301 134:-0.328111 135:0.299164 136:-0.388732 137:-0.254957 138:0.130967 139:0.0888825 140:0.131892 141:-0.340661 142:-0.257505 143:0.190035 144:0.305976 145:-0.280992 146:0.072812 147:-0.256069 148:-0.404954 149:0.354639 150:0.159424 151:-0.323827 152:0.218957 153:-0.234462 154:0.278743 155:0.217601 156:-0.194299 157:0.376318 158:0.322327 159:-0.255804 160:0.319952 161:-0.404842 162:0.222733 163:-0.0550756 164:-0.29274 165:-0.171156 166:0.274401 167:0.402477 168:0.406663 169:0.292564 170:0.454044 171:-0.254446 172:-0.284874 173:-0.21483 174:-0.216361 175:-0.191384 176:0.0929618 177:0.303257 178:0.294424 179:0.411854 180:0.213358 181:0.212139 182:0.301951 183:0.265694 184:-0.260522 185:0.297808 186:-0.379681 187:0.348405 188:0.246182 189:0.31769 190:0.276394 191:0.254901 192:0.450801 193:-0.231337 194:0.304 195:-0.0315941 196:0.356914 197:-0.261323 198:0.301081 199:0.0697295 200:0.27877 201:-0.165947 202:-0.293039 203:0.317153 204:-0.379125 205:0.359692 206:0.480866 207:0.185355 208:0.283386 209:0.28289 210:0.261676 211:0.260941 212:-0.310871 213:-0.376307 214:0.349485 215:0.270184 216:-0.270411 217:-0.37825 218:0.17537 219:-0.237036 220:0.495071 221:0.133005 222:-0.245638 223:-0.394063 224:0.280108 225:-0.262309 226:-0.307338 227:0.0698808 228:0.325745 229:-0.314434 230:-0.26251 231:0.146835 232:0.346356 233:-0.284591 234:-0.292362 235:0.326697 236:0.175408 237:-0.215983 238:0.37824 239:0.292922 240:0.336638 241:-0.263092 242:0.366447 243:0.419148 244:-0.235943 245:0.240355 246:-0.310255 247:-0.254607 248:0.306813 249:0.363235 250:0.334688 251:-0.256093 252:-0.234148 253:0.435582 254:0.266943 255:0.351779 256:-0.256297 257:-0.270667 258:-0.225843 259:0.366368 260:-0.191017 261:-0.227066 262:0.116515 263:0.270731 264:0.292587 265:-0.237289 266:0.286389 267:0.162074 
10 1:0.391816 2:0.335606 3:0.218482 4:0.372418 5:-0.167724 6:0.386449 7:0.386449 8:0.315962 9:0.351023 10:0.482897 11:-0.328837 12:0.443349 13:-0.25609 14:0.373164 15:-0.310618 16:0.392327 17:0.247327 18:1 19:0.297188 20:0.334331 21:0.386449 22:0.386449 23:0.243453 24:0.357491 25:0.238097 26:0.222172 27:0.398363 28:0.443349 29:0.386449 30:0.368011 31:0.318844 32:0.281562 33:0.248727 34:0.230479 35:0.386449 36:0.266288 37:0.370007 38:0.295281 39:0.300815 40:0.373164 41:0.386449 42:0.341578 43:-0.212497 44:0.473876 45:0.386449 46:-0.239582 47:0.359051 48:0.174194 49:0.261119 50:0.181322 51:0.29026 52:0.251281 53:0.319904 54:-0.192151 55:0.386449 56:0.306856 57:0.260574 58:0.202457 59:0.154792 60:0.353698 61:0.390833 62:0.160969 63:0.294251 64:0.205646 65:0.251281 66:0.340953 67:0.387491 68:-0.248243 69:0.364419 70:0.308498 71:0.386449 72:0.353795 73:0.423659 74:0.160969 75:0.386449 76:0.343031 77:0.482897 78:0.188373 79:0.376339 80:0.188373 81:0.361826 82:0.337289 83:-0.218326 84:0.401846 85:0.320655 86:0.234026 87:-0.18266 88:-0.309386 89:0.256915 90:0.177439 91:-0.282606 92:-0.228742 93:-0.24573 94:-0.251557 95:0.383977 96:0.288856 97:0.332891 98:0.209239 99:-0.244087 100:0.26667 101:-0.322974 102:-0.234437 103:0.292837 104:-0.274882 105:0.318424 106:0.196371 107:0.291183 108:0.241798 109:0.299751 110:-0.237031 111:0.268738 112:-0.278675 113:0.164227 114:-0.181472 115:0.33718 116:-0.217395 117:0.40801 118:0.221024 119:-0.215316 120:-0.341127 121:0.35103 122:0.373517 123:-0.282585 124:0.380376 125:-0.312419 126:0.292571 127:0.378116 128:-0.26132 129:0.1707 130:-0.273378 131:0.168413 132:-0.23539 133:0.292188 134:-0.291025 135:0.193107 136:-0.329152 137:-0.264942 138:0.110449 139:0.030684 140:0.190165 141:-0.31999 142:-0.228003 143:0.196589 144:0.222251 145:-0.230677 146:0.093293 147:-0.266289 148:-0.342976 149:0.311763 150:0.178444 151:-0.268267 152:0.339788 153:-0.223398 154:0.332373 155:0.187408 156:-0.157624 157:0.332347 158:0.282431 159:-0.222264 160:0.335985 161:-0.361255 162:0.2409 163:-0.010611 164:-0.256421 165:-0.215416 166:0.197792 167:0.204737 168:0.359762 169:0.252628 170:0.20069 171:-0.224669 172:-0.268458 173:-0.27207 174:-0.206693 175:-0.227195 176:0.223963 177:0.357491 178:0.309663 179:0.27535 180:0.230145 181:0.2592 182:0.218198 183:0.181554 184:-0.224507 185:0.174369 186:-0.338682 187:0.304058 188:0.255664 189:0.329636 190:0.240136 191:0.181392 192:0.2472 193:-0.203542 194:0.22399 195:-0.0111141 196:0.214742 197:-0.248723 198:0.228952 199:0.0862827 200:0.284757 201:-0.203659 202:-0.258694 203:0.278618 204:-0.338245 205:0.15856 206:0.211107 207:0.313257 208:0.294022 209:0.198961 210:0.11276 211:0.268834 212:-0.292789 213:-0.335348 214:0.360883 215:0.282431 216:-0.255236 217:-0.319941 218:0.191051 219:-0.248468 220:0.255886 221:0.164766 222:-0.26693 223:-0.351756 224:0.126383 225:-0.205684 226:-0.238558 227:0.0173839 228:0.223721 229:-0.278292 230:-0.249744 231:0.283058 232:0.22515 233:-0.205089 234:-0.258834 235:0.23297 236:0.241788 237:-0.167108 238:0.279916 239:0.192571 240:0.295977 241:-0.248212 242:0.225364 243:0.31518 244:-0.266004 245:0.300716 246:-0.274824 247:-0.257189 248:0.148481 249:0.378116 250:0.294131 251:-0.263378 252:-0.202257 253:0.292496 254:0.229904 255:0.309044 256:-0.224751 257:-0.22255 258:-0.193542 259:0.321273 260:-0.222455 261:-0.194959 262:0.167456 263:0.20322 264:0.256365 265:-0.167527 266:0.358847 267:0.342584 
10 1:0.690066 2:0.451307 3:0.157621 4:0.450991 5:-0.176159 6:0.606906 7:0.606906 8:0.429823 9:0.372057 10:0.439767 11:-0.394589 12:0.602146 13:-0.232732 14:0.578217 15:-0.329888 16:0.599164 17:0.341248 18:0.297188 19:1 20:0.319972 21:0.606906 22:0.606906 23:0.398091 24:0.304568 25:0.386541 26:0.363047 27:0.356188 28:0.602146 29:0.606906 30:0.379799 31:0.315265 32:0.524627 33:0.404313 34:0.318539 35:0.606906 36:0.305632 37:0.503811 38:0.252708 39:0.487745 40:0.578217 41:0.606906 42:0.465671 43:-0.294976 44:0.42264 45:0.606906 46:-0.272748 47:0.708697 48:0.291677 49:0.238425 50:0.373115 51:0.466194 52:0.468385 53:0.332368 54:-0.26928 55:0.606906 56:0.354596 57:0.236761 58:0.405275 59:0.335493 60:0.358782 61:0.273587 62:0.178693 63:0.537519 64:0.353688 65:0.468385 66:0.464886 67:0.607932 68:-0.191409 69:0.424922 70:0.421955 71:0.606906 72:0.419094 73:0.50245 74:0.178693 75:0.606906 76:0.400381 77:0.439767 78:0.211853 79:0.334051 80:0.211853 81:0.370729 82:0.460282 83:-0.247991 84:0.345434 85:0.309893 86:0.386986 87:-0.255774 88:-0.277716 89:0.292885 90:0.249773 91:-0.300773 92:-0.262314 93:-0.334239 94:-0.290337 95:0.60448 96:0.399619 97:0.24371 98:0.230842 99:-0.223603 100:0.303071 101:-0.412663 102:-0.209616 103:0.16034 104:-0.326841 105:0.434495 106:0.222519 107:0.398369 108:0.334222 109:0.34833 110:-0.273562 111:0.531377 112:-0.333211 113:0.444705 114:-0.2275 115:0.46301 116:-0.295052 117:0.420988 118:0.30784 119:-0.24276 120:-0.366395 121:0.279371 122:0.252917 123:-0.297986 124:0.268228 125:-0.378359 126:0.478732 127:0.517618 128:-0.274357 129:0.239245 130:-0.233054 131:0.178074 132:-0.299179 133:0.159339 134:-0.370983 135:0.219347 136:-0.374271 137:-0.277007 138:0.0712672 139:0.0561726 140:0.211365 141:-0.409001 142:-0.309155 143:0.188217 144:0.486762 145:-0.292731 146:0.137205 147:-0.278028 148:-0.46219 149:0.36136 150:0.251055 151:-0.364945 152:0.214534 153:-0.25349 154:0.219155 155:0.205875 156:-0.267023 157:0.389678 158:0.38727 159:-0.307086 160:0.384467 161:-0.43772 162:0.26769 163:-0.0971415 164:-0.271568 165:-0.227916 166:0.274767 167:0.352625 168:0.358665 169:0.495717 170:0.54545 171:-0.285749 172:-0.298395 173:-0.286732 174:-0.231694 175:-0.229723 176:0.160549 177:0.364361 178:0.353794 179:0.317945 180:0.256419 181:0.303783 182:0.302892 183:0.319265 184:-0.312738 185:0.24482 186:-0.432953 187:0.491304 188:0.241947 189:0.381723 190:0.332111 191:0.359606 192:0.342652 193:-0.31636 194:0.253135 195:-0.00340143 196:0.299866 197:-0.253567 198:0.264718 199:0.00052795 200:0.28299 201:-0.199178 202:-0.328991 203:0.381044 204:-0.432432 205:0.275216 206:0.292737 207:0.172599 208:0.340505 209:0.339909 210:0.364926 211:0.207569 212:-0.350118 213:-0.4518 214:0.419915 215:0.324655 216:-0.302274 217:-0.431387 218:0.266147 219:-0.313671 220:0.291485 221:0.0626665 222:-0.317353 223:-0.42652 224:0.232811 225:-0.314892 226:-0.325053 227:0.0840719 228:0.467556 229:-0.331235 230:-0.315128 231:0.280597 232:0.256606 233:-0.285642 234:-0.308276 235:0.460414 236:0.172106 237:-0.284302 238:0.454432 239:0.220642 240:0.343175 241:-0.337142 242:0.249897 243:0.361522 244:-0.283236 245:0.349647 246:-0.350101 247:-0.305665 248:0.210001 249:0.517618 250:0.402109 251:-0.228009 252:-0.254373 253:0.46165 254:0.389008 255:0.422644 256:-0.26203 257:-0.324951 258:-0.271101 259:0.370045 260:-0.229291 261:-0.272571 262:0.0938358 263:0.186581 264:0.29467 265:-0.259825 266:0.489909 267:0.194804 
10 1:0.359699 2:0.423372 3:0.238838 4:0.423323 5:-0.159472 6:0.424688 7:0.424688 8:0.459927 9:0.39687 10:0.545392 11:-0.431781 12:0.418225 13:-0.267927 14:0.347865 15:-0.34417 16:0.375259 17:0.436894 18:0.334331 19:0.319972 20:1 21:0.424688 22:0.424688 23:0.375827 24:0.344361 25:0.310742 26:0.446788 27:0.392756 28:0.418225 29:0.424688 30:0.358537 31:0.463039 32:0.303939 33:0.381534 34:0.410922 35:0.424688 36:0.345275 37:0.343318 38:0.285049 39:0.392403 40:0.347865 41:0.424688 42:0.376718 43:-0.193398 44:0.600361 45:0.424688 46:-0.249202 47:0.327454 48:0.230118 49:0.506434 50:0.297579 51:0.31496 52:0.384301 53:0.2675 54:-0.192943 55:0.424688 56:0.638256 57:0.223675 58:0.382416 59:0.263829 60:0.339239 61:0.305591 62:0.2124 63:0.320013 64:0.456184 65:0.384301 66:0.438339 67:0.426069 68:-0.286332 69:0.401852 70:0.277745 71:0.424688 72:0.283648 73:0.473564 74:0.2124 75:0.424688 76:0.502885 77:0.545392 78:0.291958 79:0.262422 80:0.291958 81:0.405179 82:0.371256 83:-0.251656 84:0.449921 85:0.412379 86:0.307635 87:-0.258722 88:-0.427843 89:0.278254 90:0.2933 91:-0.275227 92:-0.239859 93:-0.327178 94:-0.265668 95:0.421406 96:0.378783 97:0.37443 98:0.389292 99:-0.229951 100:0.407075 101:-0.379569 102:-0.243887 103:0.241176 104:-0.321414 105:0.350561 106:0.256361 107:0.433265 108:0.316695 109:0.442463 110:-0.250318 111:0.355945 112:-0.32643 113:0.22648 114:-0.207653 115:0.437694 116:-0.288081 117:0.397428 118:0.351635 119:-0.273674 120:-0.37963 121:0.572284 122:0.35869 123:-0.300195 124:0.254008 125:-0.406441 126:0.520953 127:0.413603 128:-0.22474 129:0.277814 130:-0.291227 131:0.283366 132:-0.314081 133:0.32761 134:-0.362164 135:0.25178 136:-0.42956 137:-0.226271 138:0.110878 139:0.104878 140:0.201861 141:-0.376255 142:-0.284141 143:0.25326 144:0.292191 145:-0.309839 146:0.13281 147:-0.281283 148:-0.447495 149:0.402088 150:0.184359 151:-0.357294 152:0.204304 153:-0.257421 154:0.316871 155:0.351616 156:-0.260973 157:0.368112 158:0.365904 159:-0.256577 160:0.579087 161:-0.447351 162:0.31771 163:-0.0287388 164:-0.297734 165:-0.229279 166:0.260824 167:0.394762 168:0.399827 169:0.33393 170:0.329812 171:-0.280623 172:-0.334411 173:-0.262205 174:-0.237283 175:-0.235668 176:0.154331 177:0.399736 178:0.4025 179:0.410446 180:0.303112 181:0.241731 182:0.342922 183:0.30297 184:-0.257612 185:0.233271 186:-0.398312 187:0.396102 188:0.280182 189:0.3615 190:0.314757 191:0.240422 192:0.325009 193:-0.272861 194:0.240921 195:-0.0310434 196:0.344881 197:-0.259197 198:0.295685 199:0.0439069 200:0.316195 201:-0.233533 202:-0.323176 203:0.305354 204:-0.397846 205:0.309367 206:0.330472 207:0.212095 208:0.322461 209:0.321915 210:0.203426 211:0.296491 212:-0.364371 213:-0.394128 214:0.397285 215:0.423893 216:-0.318779 217:-0.417946 218:0.252892 219:-0.233166 220:0.445454 221:0.151766 222:-0.332907 223:-0.435467 224:0.221613 225:-0.262155 226:-0.339178 227:0.0832473 228:0.371312 229:-0.346931 230:-0.260837 231:0.217687 232:0.2438 233:-0.28723 234:-0.322596 235:0.308527 236:0.199668 237:-0.260398 238:0.36532 239:0.290442 240:0.324912 241:-0.309767 242:0.41507 243:0.474578 244:-0.234215 245:0.330853 246:-0.342373 247:-0.320799 248:0.249567 249:0.413603 250:0.379513 251:-0.281653 252:-0.232486 253:0.320547 254:0.304979 255:0.398944 256:-0.26117 257:-0.298485 258:-0.274325 259:0.415776 260:-0.185455 261:-0.197035 262:0.177892 263:0.220956 264:0.332148 265:-0.237729 266:0.327158 267:0.236205 
10 1:0.440068 2:0.373495 3:0.24604 4:0.454855 5:-0.203714 6:0.566964 7:0.566964 8:0.404016 9:0.306786 10:0.479138 11:-0.374626 12:0.496602 13:-0.248367 14:0.418485 15:-0.390313 16:0.438833 17:0.33134 18:0.243453 19:0.398091 20:0.375827 21:0.566964 22:0.566964 23:1 24:0.349497 25:0.318139 26:0.345721 27:0.444178 28:0.496602 29:0.566964 30:0.410851 31:0.357378 32:0.375601 33:0.384067 34:0.359793 35:0.566964 36:0.300258 37:0.415137 38:0.288961 39:0.52406 40:0.418485 41:0.566964 42:0.439925 43:-0.272798 44:0.407506 45:0.566964 46:-0.280361 47:0.403528 48:0.280894 49:0.34511 50:0.405965 51:0.383991 52:0.284148 53:0.440241 54:-0.252315 55:0.566964 56:0.34539 57:0.226524 58:0.436086 59:0.420772 60:0.34511 61:0.266299 62:0.258465 63:0.331922 64:0.399429 65:0.284148 66:0.439329 67:0.435534 68:-0.214147 69:0.529694 70:0.347146 71:0.566964 72:0.29483 73:0.41398 74:0.258465 75:0.566964 76:0.497525 77:0.479138 78:0.21351 79:0.274211 80:0.21351 81:0.354507 82:0.663294 83:-0.278495 84:0.393624 85:0.306783 86:0.318094 87:-0.284557 88:-0.372033 89:0.23948 90:0.253301 91:-0.278718 92:-0.266716 93:-0.300262 94:-0.269114 95:0.431854 96:0.327479 97:0.285258 98:0.339881 99:-0.284541 100:0.409038 101:-0.38547 102:-0.250322 103:0.208652 104:-0.314671 105:0.304187 106:0.22215 107:0.327713 108:0.32583 109:0.438929 110:-0.253573 111:0.50319 112:-0.299637 113:0.307455 114:-0.259001 115:0.380402 116:-0.264209 117:0.291734 118:0.305178 119:-0.253155 120:-0.386873 121:0.338293 122:0.364653 123:-0.327575 124:0.260506 125:-0.354175 126:0.456173 127:0.493701 128:-0.279679 129:0.285618 130:-0.24535 131:0.294587 132:-0.306178 133:0.207867 134:-0.33214 135:0.218324 136:-0.373768 137:-0.307802 138:0.127698 139:0.127146 140:0.393094 141:-0.381202 142:-0.276453 143:0.187382 144:0.352065 145:-0.303375 146:0.193235 147:-0.284881 148:-0.409525 149:0.296431 150:0.254318 151:-0.327915 152:0.175012 153:-0.261843 154:0.371897 155:0.260239 156:-0.225269 157:0.372653 158:0.318334 159:-0.304496 160:0.37914 161:-0.409427 162:0.329979 163:-0.00618404 164:-0.319208 165:-0.211866 166:0.408859 167:0.398681 168:0.402938 169:0.287516 170:0.450507 171:-0.274275 172:-0.325078 173:-0.291265 174:-0.267165 175:-0.242501 176:0.170611 177:0.449656 178:0.469915 179:0.30999 180:0.261469 181:0.37254 182:0.298095 183:0.314114 184:-0.290629 185:0.199614 186:-0.403183 187:0.465377 188:0.242569 189:0.428575 190:0.324175 191:0.296057 192:0.33614 193:-0.266825 194:0.206621 195:-0.0638195 196:0.352946 197:-0.290816 198:0.217049 199:-0.00356695 200:0.18852 201:-0.240547 202:-0.315969 203:0.3135 204:-0.402488 205:0.313077 206:0.335144 207:0.265743 208:0.382239 209:0.278774 210:0.300783 211:0.257495 212:-0.334169 213:-0.400175 214:0.405468 215:0.42322 216:-0.330255 217:-0.401602 218:0.26396 219:-0.265517 220:0.390673 221:0.103621 222:-0.343208 223:-0.398505 224:0.190002 225:-0.31384 226:-0.292759 227:0.14389 228:0.511812 229:-0.318402 230:-0.316651 231:0.230007 232:0.254332 233:-0.288843 234:-0.278145 235:0.435941 236:0.172807 237:-0.261488 238:0.374016 239:0.217234 240:0.332853 241:-0.266593 242:0.256341 243:0.474411 244:-0.262402 245:0.388871 246:-0.332879 247:-0.312679 248:0.25936 249:0.493701 250:0.279402 251:-0.304385 252:-0.260357 253:0.277515 254:0.31925 255:0.402196 256:-0.279024 257:-0.291975 258:-0.301928 259:0.361926 260:-0.237766 261:-0.278152 262:0.151592 263:0.19054 264:0.384221 265:-0.220025 266:0.464353 267:0.292563 
10 1:0.340708 2:0.424044 3:0.262994 4:0.426404 5:-0.180526 6:0.398023 7:0.398023 8:0.422332 9:0.364087 10:0.500736 11:-0.329346 12:0.392757 13:-0.29795 14:0.385037 15:-0.348082 16:0.350889 17:0.253464 18:0.357491 19:0.304568 20:0.344361 21:0.398023 22:0.398023 23:0.349497 24:1 25:0.291366 26:0.318668 27:0.363852 28:0.392757 29:0.398023 30:0.380987 31:0.568743 32:0.399532 33:0.354335 34:0.283758 35:0.398023 36:0.225226 37:0.496761 38:0.345175 39:0.308457 40:0.385037 41:0.398023 42:0.406691 43:-0.249583 44:0.490991 45:0.398023 46:-0.208454 47:0.369882 48:0.177796 49:0.414522 50:0.280141 51:0.29803 52:0.307177 53:0.210344 54:-0.229169 55:0.398023 56:0.315755 57:0.20844 58:0.355082 59:0.297047 60:0.316939 61:0.324785 62:0.237379 63:0.356432 64:0.315052 65:0.307177 66:0.351447 67:0.335208 68:-0.240602 69:0.433963 70:0.370286 71:0.398023 72:0.268268 73:0.43818 74:0.237379 75:0.398023 76:0.462506 77:0.500736 78:0.271728 79:0.295917 80:0.271728 81:0.422521 82:0.347526 83:-0.233325 84:0.469351 85:0.227174 86:0.188515 87:-0.239426 88:-0.347839 89:0.312766 90:0.276494 91:-0.277989 92:-0.265754 93:-0.261578 94:-0.268429 95:0.266094 96:0.29563 97:0.261503 98:0.360913 99:-0.260606 100:0.325596 101:-0.343084 102:-0.250486 103:0.264937 104:-0.236265 105:0.276246 106:0.279563 107:0.349713 108:0.297779 109:0.308781 110:-0.25293 111:0.274029 112:-0.278484 113:0.277798 114:-0.236924 115:0.284063 116:-0.246141 117:0.316692 118:0.329013 119:-0.253079 120:-0.362302 121:0.415788 122:0.334984 123:-0.325624 124:0.238405 125:-0.314724 126:0.299616 127:0.323192 128:-0.233092 129:0.348654 130:-0.268534 131:0.365626 132:-0.250626 133:0.264222 134:-0.30946 135:0.235899 136:-0.368407 137:-0.282686 138:0.285962 139:0.108631 140:0.194226 141:-0.339858 142:-0.212113 143:0.137439 144:0.323845 145:-0.245774 146:0.172929 147:-0.284144 148:-0.383812 149:0.268522 150:0.229265 151:-0.285577 152:0.234327 153:-0.261441 154:0.343524 155:0.326262 156:-0.195506 157:0.444187 158:0.341091 159:-0.280722 160:0.345071 161:-0.383631 162:0.30035 163:0.010375 164:-0.295006 165:-0.247921 166:0.202015 167:0.314229 168:0.371561 169:0.257796 170:0.363959 171:-0.255134 172:-0.303221 173:-0.290177 174:-0.221168 175:-0.196947 176:0.151271 177:0.369774 178:0.376187 179:0.283293 180:0.235166 181:0.1882 182:0.320071 183:0.286126 184:-0.240263 185:0.314553 186:-0.378255 187:0.311934 188:0.175809 189:0.283433 190:0.195481 191:0.228159 192:0.252755 193:-0.23248 194:0.274943 195:-0.0436774 196:0.375573 197:-0.290088 198:0.314257 199:0.0184634 200:0.251922 201:-0.217998 202:-0.29387 203:0.23921 204:-0.35921 205:0.245774 206:0.308203 207:0.242965 208:0.302678 209:0.401955 210:0.194841 211:0.405987 212:-0.311338 213:-0.356223 214:0.25424 215:0.341091 216:-0.307938 217:-0.376804 218:0.239751 219:-0.170856 220:0.262577 221:0.143601 222:-0.302217 223:-0.373516 224:0.295303 225:-0.266001 226:-0.30747 227:0.126035 228:0.350307 229:-0.296061 230:-0.290881 231:0.33443 232:0.187957 233:-0.28759 234:-0.275342 235:0.237569 236:0.156272 237:-0.239969 238:0.231411 239:0.268774 240:0.205397 241:-0.281395 242:0.28152 243:0.381436 244:-0.261698 245:0.21119 246:-0.292318 247:-0.273651 248:0.278876 249:0.323192 250:0.302794 251:-0.280735 252:-0.259645 253:0.251094 254:0.289612 255:0.47627 256:-0.258101 257:-0.254283 258:-0.300455 259:0.273516 260:-0.195663 261:-0.231637 262:0.208549 263:0.208761 264:0.263526 265:-0.179532 266:0.310572 267:0.267958 
10 1:0.303686 2:0.396313 3:0.164539 4:0.436458 5:-0.112401 6:0.296567 7:0.296567 8:0.390023 9:0.376276 10:0.351555 11:-0.31051 12:0.290065 13:-0.229972 14:0.349604 15:-0.312307 16:0.317411 17:0.321732 18:0.238097 19:0.386541 20:0.310742 21:0.296567 22:0.296567 23:0.318139 24:0.291366 25:1 26:0.378945 27:0.284938 28:0.290065 29:0.296567 30:0.257076 31:0.392691 32:0.31051 33:0.371476 34:0.255096 35:0.296567 36:0.339359 37:0.402224 38:0.241204 39:0.273951 40:0.349604 41:0.296567 42:0.425078 43:-0.188039 44:0.338129 45:0.296567 46:-0.237124 47:0.333959 48:0.155277 49:0.286978 50:0.251462 51:0.478608 52:0.27714 53:0.186872 54:-0.188577 55:0.296567 56:0.387165 57:0.129097 58:0.275401 59:0.314163 60:0.334547 61:0.179453 62:0.214956 63:0.428633 64:0.283242 65:0.27714 66:0.424529 67:0.297953 68:-0.197644 69:0.396771 70:0.285735 71:0.296567 72:0.287091 73:0.344903 74:0.214956 75:0.296567 76:0.373304 77:0.351555 78:0.285578 79:0.267304 80:0.285578 81:0.296375 82:0.26031 83:-0.151608 84:0.433417 85:0.298893 86:0.210386 87:-0.200667 88:-0.34768 89:0.23491 90:0.294823 91:-0.23614 92:-0.163898 93:-0.297387 94:-0.227942 95:0.293268 96:0.320093 97:0.236147 98:0.233808 99:-0.197475 100:0.293936 101:-0.324933 102:-0.164087 103:0.241065 104:-0.293586 105:0.448157 106:0.254898 107:0.367165 108:0.169774 109:0.23061 110:-0.194072 111:0.362444 112:-0.314361 113:0.355426 114:-0.157617 115:0.309567 116:-0.246667 117:0.33643 118:0.398368 119:-0.23479 120:-0.343365 121:0.328977 122:0.403431 123:-0.257502 124:0.329417 125:-0.297898 126:0.264859 127:0.285397 128:-0.170761 129:0.320163 130:-0.227397 131:0.286865 132:-0.285834 133:0.203102 134:-0.328233 135:0.212906 136:-0.367629 137:-0.194369 138:0.126845 139:0.00714637 140:0.253522 141:-0.356566 142:-0.258154 143:0.182739 144:0.293934 145:-0.283042 146:0.150447 147:-0.241337 148:-0.401953 149:0.340428 150:0.201782 151:-0.324819 152:0.249071 153:-0.11039 154:0.267985 155:0.253776 156:-0.183438 157:0.311527 158:0.359128 159:-0.19903 160:0.308228 161:-0.401965 162:0.321267 163:-0.0258586 164:-0.255261 165:-0.161143 166:0.307106 167:0.178935 168:0.441157 169:0.452863 170:0.330743 171:-0.255957 172:-0.303598 173:-0.202223 174:-0.203725 175:-0.157645 176:0.16818 177:0.433158 178:0.397261 179:0.347808 180:0.355621 181:0.204235 182:0.384831 183:0.2559 184:-0.221192 185:0.330656 186:-0.377152 187:0.277523 188:0.279414 189:0.251103 190:0.216937 191:0.371565 192:0.274571 193:-0.248987 194:0.336159 195:-0.0279671 196:0.240649 197:-0.222516 198:0.326971 199:0.0686359 200:0.267661 201:-0.178196 202:-0.312892 203:0.258121 204:-0.376518 205:0.137805 206:0.234592 207:0.178886 208:0.224016 209:0.320755 210:0.17147 211:0.292676 212:-0.330252 213:-0.374252 214:0.278663 215:0.359128 216:-0.290722 217:-0.3577 218:0.213484 219:-0.223284 220:0.281744 221:0.102552 222:-0.214087 223:-0.391097 224:0.268927 225:-0.224965 226:-0.307799 227:0.0690654 228:0.253489 229:-0.297103 230:-0.223903 231:0.22472 232:0.205819 233:-0.246355 234:-0.276257 235:0.260436 236:0.138211 237:-0.203542 238:0.308882 239:0.24603 240:0.226267 241:-0.265304 242:0.301405 243:0.289752 244:-0.222375 245:0.23172 246:-0.310876 247:-0.257568 248:0.294334 249:0.285397 250:0.467033 251:-0.199675 252:-0.178463 253:0.319667 254:0.311322 255:0.286327 256:-0.223891 257:-0.255672 258:-0.212685 259:0.29644 260:-0.159393 261:-0.191628 262:0.14986 263:0.259696 264:0.236114 265:-0.18419 266:0.276124 267:0.156988 
10 1:0.341974 2:0.411552 3:0.152506 4:0.41436 5:-0.160729 6:0.335912 7:0.335912 8:0.368252 9:0.394429 10:0.383254 11:-0.340434 12:0.330395 13:-0.271494 14:0.32787 15:-0.320818 16:0.348628 17:0.34896 18:0.222172 19:0.363047 20:0.446788 21:0.335912 22:0.335912 23:0.345721 24:0.318668 25:0.378945 26:1 27:0.358813 28:0.330395 29:0.335912 30:0.463966 31:0.325827 32:0.290468 33:0.536889 34:0.238275 35:0.335912 36:0.27388 37:0.378518 38:0.226166 39:0.310362 40:0.32787 41:0.335912 42:0.401017 43:-0.205776 44:0.371591 45:0.335912 46:-0.254636 47:0.478972 48:0.18091 49:0.314683 50:0.370022 51:0.401376 52:0.35227 53:0.249493 54:-0.207285 55:0.335912 56:0.414473 57:0.177529 58:0.350813 59:0.339406 60:0.268838 61:0.204685 62:0.201375 63:0.302772 64:0.314363 65:0.35227 66:0.297788 67:0.27701 68:-0.2407 69:0.318348 70:0.217417 71:0.335912 72:0.268948 73:0.431686 74:0.201375 75:0.335912 76:0.402275 77:0.383254 78:0.26897 79:0.250165 80:0.26897 81:0.32322 82:0.293865 83:-0.211623 84:0.358886 85:0.231329 86:0.290141 87:-0.237944 88:-0.338096 89:0.264737 90:0.321809 91:-0.231279 92:-0.222039 93:-0.289414 94:-0.244425 95:0.272387 96:0.356025 97:0.299279 98:0.263733 99:-0.193953 100:0.372882 101:-0.333193 102:-0.205491 103:0.190393 104:-0.285923 105:0.326236 106:0.239453 107:0.392956 108:0.202826 109:0.307223 110:-0.23031 111:0.279481 112:-0.289034 113:0.333591 114:-0.195265 115:0.288465 116:-0.26797 117:0.365512 118:0.375717 119:-0.208473 120:-0.351596 121:0.308558 122:0.284318 123:-0.297573 124:0.237575 125:-0.289815 126:0.302416 127:0.326445 128:-0.168199 129:0.383874 130:-0.244375 131:0.268727 132:-0.278221 133:0.225584 134:-0.319294 135:0.270317 136:-0.339677 137:-0.235333 138:0.149521 139:0.0390073 140:0.157082 141:-0.329836 142:-0.251217 143:0.140394 144:0.366381 145:-0.275659 146:0.138614 147:-0.258747 148:-0.390481 149:0.36907 150:0.232089 151:-0.316119 152:0.196806 153:-0.216506 154:0.250828 155:0.322162 156:-0.166105 157:0.339764 158:0.385762 159:-0.25628 160:0.404561 161:-0.390514 162:0.24997 163:-0.0289254 164:-0.269723 165:-0.192422 166:0.330756 167:0.263754 168:0.416818 169:0.262449 170:0.410623 171:-0.264253 172:-0.295406 173:-0.220593 174:-0.2213 175:-0.134027 176:0.155813 177:0.273117 178:0.373625 179:0.417426 180:0.23864 181:0.153312 182:0.363182 183:0.430538 184:-0.240546 185:0.311407 186:-0.383881 187:0.313489 188:0.221331 189:0.28566 190:0.20109 191:0.229344 192:0.256092 193:-0.242452 194:0.274066 195:-0.00516045 196:0.27275 197:-0.264136 198:0.34583 199:0.0290393 200:0.251281 201:-0.175377 202:-0.321879 203:0.28591 204:-0.365806 205:0.205763 206:0.305577 207:0.165952 208:0.254817 209:0.348079 210:0.274239 211:0.355974 212:-0.321261 213:-0.363694 214:0.259235 215:0.33806 216:-0.283068 217:-0.382329 218:0.198625 219:-0.218944 220:0.309933 221:0.119342 222:-0.277666 223:-0.379927 224:0.252511 225:-0.263552 226:-0.316209 227:0.13148 228:0.350513 229:-0.306941 230:-0.264967 231:0.170229 232:0.191521 233:-0.262368 234:-0.285273 235:0.293977 236:0.128229 237:-0.199389 238:0.288873 239:0.298149 240:0.303547 241:-0.274648 242:0.282321 243:0.378327 244:-0.176705 245:0.261831 246:-0.302495 247:-0.251033 248:0.357421 249:0.326445 250:0.30175 251:-0.236186 252:-0.236474 253:0.300157 254:0.343239 255:0.317127 256:-0.23611 257:-0.265304 258:-0.252399 259:0.276675 260:-0.156941 261:-0.231197 262:0.173704 263:0.244339 264:0.30689 265:-0.180739 266:0.367786 267:0.266801 
10 1:0.395382 2:0.344173 3:0.219426 4:0.502705 5:-0.161279 6:0.389322 7:0.389322 8:0.319779 9:0.400709 10:0.379532 11:-0.356786 12:0.449539 13:-0.256138 14:0.3199 15:-0.336666 16:0.343578 17:0.296449 18:0.398363 19:0.356188 20:0.392756 21:0.389322 22:0.389322 23:0.444178 24:0.363852 25:0.284938 26:0.358813 27:1 28:0.449539 29:0.389322 30:0.327257 31:0.419676 32:0.336623 33:0.34803 34:0.325371 35:0.389322 36:0.217946 37:0.490276 38:0.260579 39:0.359741 40:0.3199 41:0.389322 42:0.34484 43:-0.211165 44:0.48426 45:0.389322 46:-0.239039 47:0.361903 48:0.212106 49:0.310455 50:0.321912 51:0.400345 52:0.250491 53:0.285922 54:-0.212386 55:0.389322 56:0.361888 57:0.266734 58:0.298697 59:0.290743 60:0.261202 61:0.278939 62:0.195679 63:0.349283 64:0.361228 65:0.250491 66:0.399314 67:0.325952 68:-0.222796 69:0.426736 70:0.310256 71:0.389322 72:0.261325 73:0.314614 74:0.195679 75:0.389322 76:0.401374 77:0.379532 78:0.266632 79:0.289587 80:0.266632 81:0.368585 82:0.284549 83:-0.262019 84:0.409313 85:0.323573 86:0.231694 87:-0.223877 88:-0.35482 89:0.256625 90:0.221044 91:-0.26165 92:-0.25073 93:-0.267484 94:-0.25261 95:0.321289 96:0.286598 97:0.29794 98:0.305139 99:-0.267522 100:0.42369 101:-0.331467 102:-0.210467 103:0.260022 104:-0.279964 105:0.26878 106:0.235102 107:0.292757 108:0.240162 109:0.351958 110:-0.238019 111:0.328447 112:-0.28459 113:0.269455 114:-0.200349 115:0.337528 116:-0.266335 117:0.256067 118:0.322063 119:-0.190833 120:-0.369391 121:0.409313 122:0.431711 123:-0.308949 124:0.272621 125:-0.338246 126:0.351669 127:0.379888 128:-0.239738 129:0.299261 130:-0.229189 131:0.359602 132:-0.273801 133:0.297869 134:-0.316006 135:0.230775 136:-0.356622 137:-0.266163 138:0.140866 139:0.101664 140:0.187742 141:-0.346515 142:-0.247792 143:0.23092 144:0.415032 145:-0.269875 146:0.166749 147:-0.267426 148:-0.39123 149:0.260864 150:0.222072 151:-0.311545 152:0.228892 153:-0.22255 154:0.337654 155:0.320586 156:-0.213834 157:0.33637 158:0.283205 159:-0.243881 160:0.399266 161:-0.391073 162:0.292635 163:0.00556998 164:-0.280204 165:-0.235423 166:0.195271 167:0.306889 168:0.364844 169:0.248876 170:0.410923 171:-0.260659 172:-0.327377 173:-0.273855 174:-0.250615 175:-0.203269 176:0.184922 177:0.314914 178:0.368427 179:0.276686 180:0.227464 181:0.222282 182:0.313661 183:0.278904 184:-0.247382 185:0.216153 186:-0.385446 187:0.362922 188:0.301225 189:0.331681 190:0.238352 191:0.265566 192:0.298963 193:-0.237726 194:0.222836 195:-0.0213435 196:0.316201 197:-0.272965 198:0.269897 199:0.0461778 200:0.246121 201:-0.224516 202:-0.300249 203:0.280241 204:-0.347574 205:0.239858 206:0.302141 207:0.319451 208:0.295856 209:0.345723 210:0.230077 211:0.271402 212:-0.317928 213:-0.344189 214:0.363939 215:0.3857 216:-0.314379 217:-0.383957 218:0.233295 219:-0.22475 220:0.305139 221:0.113349 222:-0.308618 223:-0.380725 224:0.205031 225:-0.272978 226:-0.313843 227:0.119894 228:0.403939 229:-0.30251 230:-0.273967 231:0.201594 232:0.224869 233:-0.248887 234:-0.281317 235:0.284676 236:0.151659 237:-0.18473 238:0.278892 239:0.228614 240:0.297988 241:-0.287415 242:0.274185 243:0.49011 244:-0.224287 245:0.303157 246:-0.298614 247:-0.279666 248:0.273184 249:0.379888 250:0.295975 251:-0.265897 252:-0.222595 253:0.24376 254:0.281602 255:0.364079 256:-0.245457 257:-0.260035 258:-0.237359 259:0.322455 260:-0.201584 261:-0.238267 262:0.203237 263:0.241286 264:0.303603 265:-0.164688 266:0.421325 267:0.262055 
10 1:0.746188 2:0.488287 3:0.271248 4:0.434617 5:-0.262959 6:0.827835 7:0.827835 8:0.399411 9:0.347112 10:0.627 11:-0.458409 12:1 13:-0.321097 14:0.54817 15:-0.409133 16:0.647902 17:0.367484 18:0.443349 19:0.602146 20:0.418225 21:0.827835 22:0.827835 23:0.496602 24:0.392757 25:0.290065 26:0.330395 27:0.449539 28:1 29:0.827835 30:0.473595 31:0.339347 32:0.641084 33:0.436158 34:0.342925 35:0.827835 36:0.393845 37:0.543849 38:0.271907 39:0.685575 40:0.54817 41:0.827835 42:0.502566 43:-0.35301 44:0.691217 45:0.827835 46:-0.330824 47:0.687492 48:0.421817 49:0.386657 50:0.402328 51:0.503139 52:0.37298 53:0.304427 54:-0.326317 55:0.827835 56:0.381762 57:0.338171 58:0.43721 59:0.361454 60:0.386657 61:0.403704 62:0.289626 63:0.435422 64:0.380767 65:0.37298 66:0.501705 67:0.742561 68:-0.243508 69:0.614514 70:0.455114 71:0.827835 72:0.517836 73:0.619844 74:0.289626 75:0.827835 76:0.504568 77:0.627 78:0.174464 79:0.486036 80:0.174464 81:0.335091 82:0.644502 83:-0.330897 84:0.515592 85:0.402561 86:0.485402 87:-0.309625 88:-0.431306 89:0.248956 90:0.203239 91:-0.391895 92:-0.345164 93:-0.389054 94:-0.317958 95:0.739667 96:0.511868 97:0.261949 98:0.379381 99:-0.368237 100:0.465591 101:-0.475288 102:-0.292527 103:0.120182 104:-0.407706 105:0.468843 106:0.186536 107:0.362428 108:0.427217 109:0.507866 110:-0.299588 111:0.573371 112:-0.340288 113:0.403783 114:-0.306581 115:0.582693 116:-0.322464 117:0.454055 118:0.26141 119:-0.327441 120:-0.451014 121:0.371734 122:0.340047 123:-0.358978 124:0.23619 125:-0.436266 126:0.597399 127:0.823318 128:-0.392586 129:0.256915 130:-0.286454 131:0.255434 132:-0.303952 133:0.221682 134:-0.380465 135:0.184904 136:-0.409036 137:-0.398427 138:0.121642 139:0.168274 140:0.226638 141:-0.446764 142:-0.358279 143:0.245954 144:0.396325 145:-0.295914 146:0.200113 147:-0.304661 148:-0.47868 149:0.389164 150:0.334105 151:-0.372979 152:0.28324 153:-0.369191 154:0.360824 155:0.220474 156:-0.310232 157:0.420148 158:0.349339 159:-0.365195 160:0.581316 161:-0.451872 162:0.432909 163:-0.107827 164:-0.355422 165:-0.298558 166:0.235727 167:0.522129 168:0.527634 169:0.378008 170:0.589526 171:-0.31243 172:-0.373824 173:-0.37694 174:-0.315148 175:-0.313583 176:0.171578 177:0.392757 178:0.458672 179:0.342276 180:0.343613 181:0.327523 182:0.260603 183:0.343443 184:-0.342544 185:0.201309 186:-0.472915 187:0.6884 188:0.259866 189:0.636269 190:0.425075 191:0.271865 192:0.368689 193:-0.345731 194:0.210873 195:-0.118416 196:0.462618 197:-0.310812 198:0.232212 199:-0.00218436 200:0.30468 201:-0.311043 202:-0.359716 203:0.410996 204:-0.447563 205:0.410072 206:0.439035 207:0.184605 208:0.50052 209:0.232079 210:0.33897 211:0.280175 212:-0.357581 213:-0.46808 214:0.531369 215:0.417514 216:-0.379303 217:-0.471199 218:0.40669 219:-0.343453 220:0.379381 221:0.101349 222:-0.395931 223:-0.440568 224:0.193583 225:-0.344727 226:-0.355372 227:0.0884562 228:0.58693 229:-0.336992 230:-0.377486 231:0.245397 232:0.275873 233:-0.312861 234:-0.360326 235:0.57071 236:0.226921 237:-0.392959 238:0.490247 239:0.189701 240:0.369592 241:-0.368489 242:0.267886 243:0.543577 244:-0.368889 245:0.376669 246:-0.358298 247:-0.381547 248:0.225148 249:0.823318 250:0.366834 251:-0.365311 252:-0.307808 253:0.498565 254:0.419034 255:0.385064 256:-0.311667 257:-0.309008 258:-0.32832 259:0.474624 260:-0.335678 261:-0.329287 262:0.250127 263:0.250419 264:0.440908 265:-0.311811 266:0.607939 267:0.266864 
10 1:0.357776 2:0.393207 3:0.272348 4:0.355561 5:-0.218494 6:0.603512 7:0.603512 8:0.385203 9:0.412548 10:0.624536 11:-0.375739 12:0.473595 13:-0.283792 14:0.455276 15:-0.388585 16:0.525929 17:0.316117 18:0.368011 19:0.379799 20:0.358537 21:0.603512 22:0.603512 23:0.410851 24:0.380987 25:0.257076 26:0.463966 27:0.327257 28:0.473595 29:0.603512 30:1 31:0.340842 32:0.412749 33:0.415079 34:0.296217 35:0.603512 36:0.286528 37:0.395967 38:0.353613 39:0.499595 40:0.455276 41:0.603512 42:0.633956 43:-0.302921 44:0.503749 45:0.603512 46:-0.312866 47:0.501007 48:0.267945 49:0.377128 50:0.387053 51:0.259137 52:0.368497 53:0.261003 54:-0.262349 55:0.603512 56:0.381544 57:0.24638 58:0.464492 59:0.401114 60:0.425064 61:0.333924 62:0.246543 63:0.316756 64:0.328873 65:0.368497 66:0.418917 67:0.478312 68:-0.275802 69:0.562224 70:0.331208 71:0.603512 72:0.425155 73:0.678322 74:0.246543 75:0.603512 76:0.420797 77:0.624536 78:0.281365 79:0.215579 80:0.281365 81:0.385398 82:0.523769 83:-0.264428 84:0.480673 85:0.242048 86:0.353433 87:-0.29167 88:-0.372086 89:0.228738 90:0.289254 91:-0.310349 92:-0.274378 93:-0.33722 94:-0.277626 95:0.348514 96:0.372461 97:0.313063 98:0.420838 99:-0.27016 100:0.390057 101:-0.419996 102:-0.283261 103:0.199201 104:-0.335706 105:0.341283 106:0.288945 107:0.361856 108:0.310884 109:0.418432 110:-0.282459 111:0.3549 112:-0.302154 113:0.348989 114:-0.245902 115:0.301824 116:-0.265561 117:0.434274 118:0.342147 119:-0.26272 120:-0.386055 121:0.375427 122:0.297452 123:-0.334876 124:0.248538 125:-0.353267 126:0.435051 127:0.406199 128:-0.287973 129:0.315515 130:-0.323106 131:0.281142 132:-0.290849 133:0.235996 134:-0.333791 135:0.24558 136:-0.391924 137:-0.315412 138:0.225075 139:0.121743 140:0.164386 141:-0.362194 142:-0.307457 143:0.146904 144:0.383247 145:-0.288168 146:0.184579 147:-0.293859 148:-0.40822 149:0.386073 150:0.242831 151:-0.311483 152:0.24459 153:-0.315401 154:0.400737 155:0.248401 156:-0.227419 157:0.355424 158:0.403519 159:-0.331701 160:0.36183 161:-0.408254 162:0.261548 163:-0.0797234 164:-0.303157 165:-0.236922 166:0.21473 167:0.432362 168:0.435998 169:0.332024 170:0.429523 171:-0.276249 172:-0.308817 173:-0.29953 174:-0.253638 175:-0.252706 176:0.240719 177:0.333359 178:0.390854 179:0.389669 180:0.24969 181:0.316165 182:0.332188 183:0.450338 184:-0.300389 185:0.190757 186:-0.401323 187:0.443776 188:0.188667 189:0.353793 190:0.309313 191:0.19746 192:0.267947 193:-0.284226 194:0.242063 195:-0.142397 196:0.285359 197:-0.300049 198:0.24584 199:0.0968654 200:0.262878 201:-0.250829 202:-0.318315 203:0.345831 204:-0.418674 205:0.2986 206:0.319663 207:0.253548 208:0.413486 209:0.31512 210:0.246629 211:0.372348 212:-0.335847 213:-0.417356 214:0.329023 215:0.303766 216:-0.331548 217:-0.399701 218:0.296043 219:-0.252053 220:0.324227 221:0.124871 222:-0.34394 223:-0.397187 224:0.18154 225:-0.320555 226:-0.330568 227:0.1376 228:0.427347 229:-0.320874 230:-0.324381 231:0.302511 232:0.327437 233:-0.274255 234:-0.315241 235:0.415702 236:0.164974 237:-0.288161 238:0.411409 239:0.27701 240:0.415172 241:-0.321025 242:0.345908 243:0.45234 244:-0.270603 245:0.273933 246:-0.35189 247:-0.314329 248:0.331747 249:0.406199 250:0.364627 251:-0.331239 252:-0.268458 253:0.264928 254:0.304728 255:0.383563 256:-0.265 257:-0.311146 258:-0.332408 259:0.289479 260:-0.266837 261:-0.264085 262:0.144919 263:0.218783 264:0.321036 265:-0.208853 266:0.326698 267:0.364425 
10 1:0.351781 2:0.465652 3:0.231239 4:0.470076 5:-0.146948 6:0.345273 7:0.345273 8:0.476511 9:0.409814 10:0.452253 11:-0.380708 12:0.339347 13:-0.288744 14:0.394184 15:-0.357667 16:0.305774 17:0.311598 18:0.318844 19:0.315265 20:0.463039 21:0.345273 22:0.345273 23:0.357378 24:0.568743 25:0.392691 26:0.325827 27:0.419676 28:0.339347 29:0.345273 30:0.340842 31:1 32:0.353337 33:0.312946 34:0.339051 35:0.345273 36:0.329874 37:0.447833 38:0.350643 39:0.319002 40:0.394184 41:0.345273 42:0.468936 43:-0.219334 44:0.499259 45:0.345273 46:-0.247425 47:0.321273 48:0.185256 49:0.421354 50:0.288319 51:0.361461 52:0.315405 53:0.257374 54:-0.198049 55:0.345273 56:0.42935 57:0.182861 58:0.362793 59:0.304773 60:0.37312 61:0.250364 62:0.243322 63:0.365196 64:0.376404 65:0.315405 66:0.468426 67:0.346539 68:-0.280728 69:0.500479 70:0.378569 71:0.345273 72:0.228543 73:0.389811 74:0.243322 75:0.345273 76:0.470124 77:0.452253 78:0.316978 79:0.303673 80:0.316978 81:0.429103 82:0.30219 83:-0.24719 84:0.582588 85:0.287892 86:0.248608 87:-0.253115 88:-0.395627 89:0.320832 90:0.332454 91:-0.269293 92:-0.257614 93:-0.289289 94:-0.282288 95:0.342265 96:0.306683 97:0.309584 98:0.368447 99:-0.252202 100:0.334222 101:-0.352867 102:-0.242114 103:0.270963 104:-0.229123 105:0.285385 106:0.324329 107:0.357587 108:0.30628 109:0.316963 110:-0.265993 111:0.348828 112:-0.324004 113:0.288007 114:-0.229171 115:0.357171 116:-0.269146 117:0.325604 118:0.439911 119:-0.267326 120:-0.372303 121:0.529638 122:0.394004 123:-0.316154 124:0.283739 125:-0.357688 126:0.429893 127:0.335102 128:-0.247588 129:0.355048 130:-0.282716 131:0.373019 132:-0.311992 133:0.383587 134:-0.35668 135:0.279597 136:-0.415329 137:-0.27387 138:0.221927 139:0.0764814 140:0.244485 141:-0.349266 142:-0.251198 143:0.20789 144:0.379341 145:-0.310197 146:0.140731 147:-0.298789 148:-0.43254 149:0.329768 150:0.238068 151:-0.335042 152:0.202064 153:-0.253077 154:0.350726 155:0.422376 156:-0.230616 157:0.55118 158:0.349231 159:-0.27238 160:0.41771 161:-0.432721 162:0.309797 163:-0.00869799 164:-0.307855 165:-0.240768 166:0.25429 167:0.323221 168:0.3798 169:0.326478 170:0.372459 171:-0.280051 172:-0.33052 173:-0.281313 174:-0.258176 175:-0.234596 176:0.197992 177:0.472893 178:0.385699 179:0.338628 180:0.295087 181:0.234621 182:0.471963 183:0.29497 184:-0.256241 185:0.3671 186:-0.406239 187:0.322343 188:0.270488 189:0.293449 190:0.254931 191:0.278555 192:0.315755 193:-0.272553 194:0.282577 195:-0.0365605 196:0.383676 197:-0.280992 198:0.319988 199:0.0262642 200:0.300659 201:-0.255374 202:-0.322706 203:0.247754 204:-0.387206 205:0.253019 206:0.315635 207:0.249829 208:0.311036 209:0.409186 210:0.202328 211:0.453995 212:-0.358897 213:-0.385042 214:0.323411 215:0.399418 216:-0.335973 217:-0.40459 218:0.247657 219:-0.233349 220:0.368447 221:0.174144 222:-0.33045 223:-0.420796 224:0.301899 225:-0.257523 226:-0.334945 227:0.096242 228:0.360941 229:-0.343855 230:-0.281834 231:0.298896 232:0.23864 233:-0.301364 234:-0.302335 235:0.247904 236:0.161918 237:-0.252475 238:0.296872 239:0.309181 240:0.263944 241:-0.291148 242:0.341359 243:0.390731 244:-0.253523 245:0.269215 246:-0.338501 247:-0.318579 248:0.328229 249:0.335102 250:0.409664 251:-0.272436 252:-0.251543 253:0.309456 254:0.299419 255:0.587575 256:-0.269061 257:-0.298317 258:-0.291504 259:0.340088 260:-0.167774 261:-0.201016 262:0.177996 263:0.215262 264:0.271447 265:-0.192732 266:0.321034 267:0.232269 
10 1:0.503623 2:0.423261 3:0.238645 4:0.423198 5:-0.218502 6:0.644269 7:0.644269 8:0.514764 9:0.350214 10:0.480161 11:-0.385947 12:0.641084 13:-0.268231 14:0.412863 15:-0.385709 16:0.562522 17:0.322897 18:0.281562 19:0.524627 20:0.303939 21:0.644269 22:0.644269 23:0.375601 24:0.399532 25:0.31051 26:0.290468 27:0.336623 28:0.641084 29:0.644269 30:0.412749 31:0.353337 32:1 33:0.381314 34:0.301582 35:0.644269 36:0.289714 37:0.474562 38:0.2395 39:0.527723 40:0.412863 41:0.644269 42:0.501188 43:-0.295819 44:0.466381 45:0.644269 46:-0.222334 47:0.529612 48:0.321392 49:0.339007 50:0.352179 51:0.376987 52:0.327515 53:0.221215 54:-0.27292 55:0.644269 56:0.335689 57:0.258807 58:0.382197 59:0.424362 60:0.283252 61:0.351845 62:0.295642 63:0.443465 64:0.334855 65:0.327515 66:0.438105 67:0.571894 68:-0.202171 69:0.53485 70:0.398076 71:0.644269 72:0.506378 73:0.605199 74:0.295642 75:0.644269 76:0.37831 77:0.480161 78:0.291779 79:0.315848 80:0.291779 81:0.239997 82:0.496796 83:-0.251934 84:0.4497 85:0.294098 86:0.365408 87:-0.283979 88:-0.406494 89:0.221893 90:0.237934 91:-0.328719 92:-0.26472 93:-0.367779 94:-0.265956 95:0.494938 96:0.448025 97:0.183816 98:0.389079 99:-0.308668 100:0.347341 101:-0.442395 102:-0.217621 103:0.240985 104:-0.364509 105:0.409571 106:0.256169 107:0.433063 108:0.37381 109:0.385837 110:-0.250589 111:0.428261 112:-0.326708 113:0.41965 114:-0.207906 115:0.4374 116:-0.288319 117:0.39719 118:0.292213 119:-0.273967 120:-0.401444 121:0.327285 122:0.299853 123:-0.300511 124:0.253813 125:-0.367747 126:0.451709 127:0.563667 128:-0.303301 129:0.377633 130:-0.239059 131:0.28311 132:-0.294603 133:0.240124 134:-0.362463 135:0.165088 136:-0.429889 137:-0.307302 138:0.150564 139:0.151608 140:0.201617 141:-0.416979 142:-0.319147 143:0.17878 144:0.457515 145:-0.289443 146:0.178514 147:-0.254378 148:-0.447837 149:0.341893 150:0.294162 151:-0.357597 152:0.294067 153:-0.283614 154:0.316644 155:0.248364 156:-0.27683 157:0.425716 158:0.365669 159:-0.306331 160:0.436053 161:-0.425298 162:0.441566 163:-0.05777 164:-0.347362 165:-0.208705 166:0.209702 167:0.455161 168:0.399591 169:0.400402 170:0.451566 171:-0.299145 172:-0.314486 173:-0.262498 174:-0.23756 175:-0.209742 176:0.154091 177:0.344134 178:0.335663 179:0.301036 180:0.244476 181:0.241528 182:0.287195 183:0.361086 184:-0.286388 185:0.285358 186:-0.44106 187:0.530505 188:0.180167 189:0.425105 190:0.314503 191:0.289606 192:0.263304 193:-0.326784 194:0.240673 195:-0.0950554 196:0.404358 197:-0.259496 198:0.295508 199:0.0436648 200:0.364127 201:-0.259993 202:-0.3446 203:0.359467 204:-0.419241 205:0.357624 206:0.383047 207:0.165409 208:0.379163 209:0.321668 210:0.296827 211:0.34537 212:-0.343264 213:-0.437643 214:0.397001 215:0.307656 216:-0.360501 217:-0.439344 218:0.355257 219:-0.260437 220:0.276707 221:0.121622 222:-0.354 223:-0.414211 224:0.269434 225:-0.314858 226:-0.339461 227:0.126108 228:0.441535 229:-0.325791 230:-0.316282 231:0.217454 232:0.292827 233:-0.261582 234:-0.342661 235:0.496904 236:0.163693 237:-0.307045 238:0.492038 239:0.20922 240:0.324668 241:-0.349476 242:0.297272 243:0.408535 244:-0.309431 245:0.274266 246:-0.342659 247:-0.341198 248:0.249343 249:0.563667 250:0.436229 251:-0.25741 252:-0.257497 253:0.434473 254:0.367893 255:0.338456 256:-0.303729 257:-0.318404 258:-0.248033 259:0.350534 260:-0.209612 261:-0.275536 262:0.263352 263:0.263589 264:0.331934 265:-0.237988 266:0.394365 267:0.186354 
10 1:0.381786 2:0.493039 3:0.132447 4:0.457491 5:-0.198124 6:0.506806 7:0.506806 8:0.408377 9:0.310744 10:0.48428 11:-0.327149 12:0.436158 13:-0.292772 14:0.482698 15:-0.365965 16:0.387878 17:0.438597 18:0.248727 19:0.404313 20:0.381534 21:0.506806 22:0.506806 23:0.384067 24:0.354335 25:0.371476 26:0.536889 27:0.34803 28:0.436158 29:0.506806 30:0.415079 31:0.312946 32:0.381314 33:1 34:0.364438 35:0.506806 36:0.30547 37:0.420879 38:0.292901 39:0.407596 40:0.482698 41:0.506806 42:0.38907 43:-0.290105 44:0.41346 45:0.506806 46:-0.274479 47:0.409595 48:0.24392 49:0.400041 50:0.361095 51:0.389503 52:0.492611 53:0.236408 54:-0.294397 55:0.506806 56:0.405207 57:0.229573 58:0.38956 59:0.376738 60:0.350031 61:0.312213 62:0.187309 63:0.39327 64:0.350264 65:0.492611 66:0.38842 67:0.442112 68:-0.233899 69:0.41512 70:0.298576 71:0.506806 72:0.350142 73:0.538042 74:0.187309 75:0.506806 76:0.44636 77:0.48428 78:0.217998 79:0.231253 80:0.217998 81:0.359251 82:0.384609 83:-0.250352 84:0.398911 85:0.259501 86:0.323535 87:-0.278939 88:-0.34674 89:0.194949 90:0.357727 91:-0.272925 92:-0.26129 93:-0.313264 94:-0.286601 95:0.306085 96:0.334418 97:0.289533 98:0.294505 99:-0.255311 100:0.467348 101:-0.360938 102:-0.244756 103:0.173842 104:-0.290105 105:0.416213 106:0.266628 107:0.435592 108:0.279664 109:0.392594 110:-0.291817 111:0.378848 112:-0.294527 113:0.371717 114:-0.231866 115:0.323301 116:-0.275052 117:0.460209 118:0.310875 119:-0.271012 120:-0.380933 121:0.289109 122:0.264694 123:-0.346097 124:0.224401 125:-0.2788 126:0.400146 127:0.365218 128:-0.203725 129:0.335083 130:-0.286928 131:0.249882 132:-0.265683 133:0.212205 134:-0.32666 135:0.300119 136:-0.38715 137:-0.253451 138:0.132147 139:0.00608892 140:0.133398 141:-0.357352 142:-0.271933 143:0.157655 144:0.30735 145:-0.261121 146:0.156778 147:-0.303363 148:-0.403309 149:0.40987 150:0.259847 151:-0.322355 152:0.179786 153:-0.279513 154:0.280116 155:0.265242 156:-0.193329 157:0.377643 158:0.479877 159:-0.320945 160:0.321887 161:-0.403191 162:0.22453 163:-0.105622 164:-0.313363 165:-0.226049 166:0.321329 167:0.349459 168:0.51595 169:0.234488 170:0.400599 171:-0.26965 172:-0.319796 173:-0.285355 174:-0.261548 175:-0.143028 176:0.215961 177:0.254955 178:0.415637 179:0.364008 180:0.21504 181:0.213347 182:0.402905 183:0.424364 184:-0.310026 185:0.299096 186:-0.397156 187:0.410538 188:0.202731 189:0.319356 190:0.277914 191:0.256171 192:0.286805 193:-0.278362 194:0.30526 195:-0.0589746 196:0.251192 197:-0.309744 198:0.342394 199:0.00172574 200:0.193616 201:-0.235107 202:-0.31063 203:0.269725 204:-0.396485 205:0.27379 206:0.387089 207:0.186661 208:0.335952 209:0.335494 210:0.304829 211:0.394265 212:-0.328652 213:-0.394119 214:0.290932 215:0.323771 216:-0.306274 217:-0.395606 218:0.222888 219:-0.259773 220:0.395298 221:0.0799929 222:-0.300371 223:-0.392464 224:0.238177 225:-0.331333 226:-0.324217 227:0.187325 228:0.454181 229:-0.313004 230:-0.31043 231:0.19154 232:0.259071 233:-0.306332 234:-0.308792 235:0.384718 236:0.176348 237:-0.256293 238:0.379767 239:0.293791 240:0.338007 241:-0.279521 242:0.315096 243:0.479696 244:-0.234547 245:0.241908 246:-0.327463 247:-0.235297 248:0.395831 249:0.365218 250:0.336067 251:-0.298674 252:-0.277154 253:0.385552 254:0.325388 255:0.407286 256:-0.273971 257:-0.287025 258:-0.295956 259:0.309688 260:-0.211204 261:-0.272433 262:0.156255 263:0.233314 264:0.388419 265:-0.215152 266:0.348819 267:0.341558 
10 1:0.35517 2:0.354787 3:0.157853 4:0.471329 5:-0.119222 6:0.411948 7:0.411948 8:0.336094 9:0.29107 10:0.342725 11:-0.357993 12:0.342925 13:-0.165451 14:0.396987 15:-0.355093 16:0.254822 17:0.363204 18:0.230479 19:0.318539 20:0.410922 21:0.411948 22:0.411948 23:0.359793 24:0.283758 25:0.255096 26:0.238275 27:0.325371 28:0.342925 29:0.411948 30:0.296217 31:0.339051 32:0.301582 33:0.364438 34:1 35:0.411948 36:0.23686 37:0.33708 38:0.235002 39:0.439133 40:0.396987 41:0.411948 42:0.363763 43:-0.216929 44:0.271135 45:0.411948 46:-0.244818 47:0.26629 48:0.22697 49:0.375386 50:0.338103 51:0.364188 52:0.36669 53:0.299156 54:-0.241466 55:0.411948 56:0.327436 57:0.154072 58:0.414047 59:0.353341 60:0.375386 61:0.332526 62:0.245143 63:0.314548 64:0.535579 65:0.36669 66:0.416956 67:0.412996 68:-0.205119 69:0.445549 70:0.433098 71:0.411948 72:0.231315 73:0.392671 74:0.245143 75:0.411948 76:0.311639 77:0.342725 78:0.241028 79:0.306048 80:0.241028 81:0.431124 82:0.305161 83:-0.179695 84:0.37341 85:0.239779 86:0.301484 87:-0.229096 88:-0.355475 89:0.178215 90:0.239789 91:-0.220788 92:-0.212736 93:-0.269603 94:-0.235269 95:0.345798 96:0.190151 97:0.270505 98:0.370756 99:-0.227102 100:0.336864 101:-0.350296 102:-0.239565 103:0.348041 104:-0.245403 105:0.237096 106:0.287511 107:0.261368 108:0.358337 109:0.416767 110:-0.242592 111:0.414894 112:-0.268812 113:0.291131 114:-0.205852 115:0.299114 116:-0.237883 117:0.276271 118:0.28913 119:-0.219781 120:-0.332542 121:0.37341 122:0.244841 123:-0.265514 124:0.208364 125:-0.321565 126:0.492291 127:0.338746 128:-0.245049 129:0.270771 130:-0.234813 131:0.231067 132:-0.27559 133:0.272114 134:-0.299094 135:0.244101 136:-0.375581 137:-0.224776 138:0.0860946 139:0.119744 140:0.246764 141:-0.329322 142:-0.249204 143:0.14546 144:0.333971 145:-0.272151 146:0.182802 147:-0.22563 148:-0.372071 149:0.280764 150:0.288216 151:-0.29438 152:0.204239 153:-0.25053 154:0.306703 155:0.24652 156:-0.201841 157:0.30366 158:0.301714 159:-0.269841 160:0.23617 161:-0.371853 162:0.205672 163:-0.0565173 164:-0.262667 165:-0.184766 166:0.16892 167:0.430526 168:0.330455 169:0.272044 170:0.375064 171:-0.230627 172:-0.31065 173:-0.255567 174:-0.233225 175:-0.232095 176:0.200192 177:0.283758 178:0.331234 179:0.246789 180:0.247474 181:0.2367 182:0.330336 183:0.297677 184:-0.278064 185:0.188681 186:-0.348585 187:0.383584 188:0.186706 189:0.296514 190:0.3073 191:0.238146 192:0.37154 193:-0.239598 194:0.195376 195:0.0205963 196:0.386159 197:-0.230193 198:0.244279 199:0.0286461 200:0.261205 201:-0.230231 202:-0.26554 203:0.250368 204:-0.384499 205:0.338776 206:0.317912 207:0.33204 208:0.313595 209:0.313148 210:0.244977 211:0.243982 212:-0.282449 213:-0.382309 214:0.326584 215:0.251703 216:-0.315604 217:-0.347315 218:0.250076 219:-0.230802 220:0.370756 221:0.175457 222:-0.310019 223:-0.362106 224:0.221074 225:-0.277534 226:-0.26229 227:0.0986674 228:0.425007 229:-0.285847 230:-0.25531 231:0.342511 232:0.24096 233:-0.231546 234:-0.265881 235:0.30528 236:0.194524 237:-0.210123 238:0.354638 239:0.170917 240:0.315599 241:-0.254862 242:0.39461 243:0.393578 244:-0.27257 245:0.320458 246:-0.318107 247:-0.264125 248:0.245764 249:0.338746 250:0.362792 251:-0.26991 252:-0.185082 253:0.213604 254:0.193437 255:0.381615 256:-0.230293 257:-0.279065 258:-0.265858 259:0.287043 260:-0.206889 261:-0.221124 262:0.106262 263:0.180332 264:0.273872 265:-0.210565 266:0.324236 267:0.277407 
10 1:0.341809 2:0.424454 3:0.187167 4:0.34773 5:-0.15403 6:0.463152 7:0.463152 8:0.278728 9:0.28332 10:0.444669 11:-0.348672 12:0.393845 13:-0.248162 14:0.385946 15:-0.311199 16:0.35178 17:0.304086 18:0.266288 19:0.305632 20:0.345275 21:0.463152 22:0.463152 23:0.300258 24:0.225226 25:0.339359 26:0.27388 27:0.217946 28:0.393845 29:0.463152 30:0.286528 31:0.329874 32:0.289714 33:0.30547 34:0.23686 35:0.463152 36:1 37:0.267591 38:0.306065 39:0.428042 40:0.385946 41:0.463152 42:0.353001 43:-0.248769 44:0.374871 45:0.463152 46:-0.278871 47:0.31186 48:0.258504 49:0.366465 50:0.185076 51:0.353445 52:0.307995 53:0.211056 54:-0.228357 55:0.463152 56:0.316644 57:0.178097 58:0.306275 59:0.250969 60:0.366465 61:0.284783 62:0.274434 63:0.249149 64:0.26301 65:0.307995 66:0.406917 67:0.464072 68:-0.239745 69:0.376595 70:0.212959 71:0.463152 72:0.366568 73:0.381405 74:0.274434 75:0.463152 76:0.300195 77:0.444669 78:0.193537 79:0.249769 80:0.193537 81:0.327033 82:0.458395 83:-0.188588 84:0.416578 85:0.331328 86:0.34168 87:-0.260469 88:-0.365942 89:0.215492 90:0.277316 91:-0.277121 92:-0.200454 93:-0.29611 94:-0.245089 95:0.396421 96:0.357523 97:0.262188 98:0.263437 99:-0.259767 100:0.378468 101:-0.324043 102:-0.24965 103:0.189254 104:-0.272975 105:0.380754 106:0.201996 107:0.250487 108:0.298624 109:0.309595 110:-0.230932 111:0.402233 112:-0.259915 113:0.335195 114:-0.193648 115:0.409657 116:-0.215867 117:0.370366 118:0.226416 119:-0.25225 120:-0.342644 121:0.309575 122:0.233377 123:-0.252041 124:0.199893 125:-0.296916 126:0.481638 127:0.390107 128:-0.255096 129:0.218126 130:-0.267684 131:0.220129 132:-0.232671 133:0.226654 134:-0.290086 135:0.198715 136:-0.330107 137:-0.258278 138:0.112044 139:0.0683939 140:0.195015 141:-0.286047 142:-0.257097 143:0.203028 144:0.179889 145:-0.227 146:0.13351 147:-0.235688 148:-0.363469 149:0.374279 150:0.230141 151:-0.284793 152:0.234989 153:-0.23796 154:0.344239 155:0.191836 156:-0.194959 157:0.242655 158:0.291191 159:-0.236642 160:0.408562 161:-0.343579 162:0.409799 163:-0.0394311 164:-0.251035 165:-0.174438 166:0.2918 167:0.315123 168:0.477568 169:0.258881 170:0.258141 171:-0.22251 172:-0.284795 173:-0.265923 174:-0.265769 175:-0.241989 176:0.152031 177:0.370496 178:0.377133 179:0.379563 180:0.236104 181:0.307668 182:0.272341 183:0.235974 184:-0.264288 185:0.223772 186:-0.340292 187:0.4307 188:0.307488 189:0.284429 190:0.296983 191:0.22892 192:0.253735 193:-0.216202 194:0.230308 195:-0.0987209 196:0.219741 197:-0.21613 198:0.197002 199:0.0529894 200:0.294692 201:-0.240093 202:-0.274615 203:0.24006 204:-0.339936 205:0.246494 206:0.355086 207:0.16242 208:0.303508 209:0.253232 210:0.154664 211:0.277825 212:-0.273115 213:-0.355369 214:0.314076 215:0.291191 216:-0.270929 217:-0.320669 218:0.28538 219:-0.240878 220:0.459885 221:0.0915998 222:-0.265061 223:-0.334902 224:0.211957 225:-0.265155 226:-0.235541 227:0.0137191 228:0.351365 229:-0.257809 230:-0.241774 231:0.208588 232:0.317921 233:-0.241366 234:-0.274618 235:0.348541 236:0.188142 237:-0.259485 238:0.343461 239:0.19844 240:0.25596 241:-0.211711 242:0.282413 243:0.38236 244:-0.282719 245:0.212113 246:-0.273425 247:-0.272922 248:0.236754 249:0.390107 250:0.403165 251:-0.258466 252:-0.193949 253:0.351786 254:0.290588 255:0.318973 256:-0.220389 257:-0.236402 258:-0.276321 259:0.331346 260:-0.236755 261:-0.18524 262:0.134309 263:0.209408 264:0.356424 265:-0.19912 266:0.25259 267:0.181939 
