solver_type L2R_L2LOSS_SVC_DUAL
nr_class 13
label 1 2 3 4 5 6 7 8 9 10 11 12 13
nr_feature 936
bias 1
w
6.7713149801072e-17 -1.344380856388696e-16 -3.527899276398873e-18 8.277620836043716e-17 1.471226721554023e-16 -1.801373510884608e-19 -3.244408088340184e-17 -5.027478737267685e-17 -2.470508647332252e-16 7.162807867868051e-17 -5.641162596261652e-18 -4.610821431926287e-17 2.784516970979848e-17 
3.334072239945149e-16 -7.041777555901657e-17 8.436300258412251e-17 -4.721657241754537e-16 4.875223066175486e-16 3.22700215304529e-17 -9.537501944573563e-16 1.194781517640688e-15 -4.197992826569707e-16 -3.653026407263363e-17 1.198079176126605e-16 1.010520698509637e-16 -3.013532124076699e-17 
-1.311055196174817e-16 -3.337852896953878e-17 1.122011938604964e-16 -2.14856484036297e-16 1.473807478896932e-16 1.432956812851458e-16 -1.697269458484214e-16 -6.224260935263754e-17 4.531931903939709e-16 1.358403457738513e-17 9.126639809372117e-17 1.454135519901032e-16 8.333255770037259e-17 
1.019593729225565e-16 8.496203935173634e-17 6.590711548362646e-17 5.036323043641597e-18 8.933908940626637e-17 7.253413924585223e-17 -2.597322477424488e-17 1.165486606601872e-16 -1.756326673519702e-17 3.264772682217277e-18 9.87469701503784e-17 6.76553677869493e-17 3.184466413288537e-17 
-9.250848632614861e-17 -8.372427689786977e-17 1.358423103936964e-16 -4.268460274512502e-17 1.024077652390205e-16 1.351365177819996e-16 -5.046058297639296e-17 -9.001204814512513e-17 1.962451322187186e-16 2.974007696573909e-17 5.458710334338578e-17 1.183707294756837e-16 7.096254226154439e-17 
-2.923308746376485e-16 -2.953647534131959e-16 2.699225390144958e-16 -1.358670159516517e-16 1.255506266786521e-16 1.572978613320954e-16 -2.759569769891503e-16 -1.231534989375043e-16 5.212530146145742e-16 1.810966686062675e-17 4.112522813480033e-17 1.574523714300524e-16 9.543740427831452e-17 
-1.147533972778739e-16 -4.428874074834875e-17 7.302522320858812e-17 -1.188783607090403e-16 7.680520205225004e-17 8.666467964456675e-17 -6.817347020221781e-17 -8.715986021475464e-17 1.939246328842361e-16 1.9936230393457e-17 3.027888109296427e-17 7.224696296486651e-17 4.91829597528563e-17 
1.09886025286331e-16 6.665716353890772e-17 3.664375451923352e-18 -5.410878786092454e-18 9.624718531004792e-17 1.620923302136602e-17 -8.990877934649033e-18 1.177482655057481e-16 -7.051260080082175e-17 -2.987405381123568e-17 4.167397299161047e-17 2.684229196497728e-17 6.960852255673918e-18 
-1.953704340534969e-18 -2.542186119705426e-17 1.020745748651712e-16 -3.256489640226504e-17 1.99233725892898e-17 2.673819137678435e-17 1.518571912597393e-18 -4.576739769663588e-18 -3.110295602232018e-17 -8.882267295207605e-18 9.495890579945547e-17 4.485844843970064e-17 1.535674853000824e-17 
-2.011682534990116e-17 -4.354577921133072e-18 1.422049805715071e-17 -2.571214275010304e-17 1.406733916119701e-17 1.323311589589441e-17 7.660940076026341e-18 -1.316949588177029e-17 1.694198378708394e-17 2.535154367367049e-18 -8.819999510254776e-19 1.623155740720542e-17 6.241557819069342e-18 
-1.189855898519206e-16 -8.719427361505124e-17 9.837035327522606e-17 -1.319288406318124e-16 1.29139964162844e-17 5.620833742585317e-17 -8.801894167966993e-17 -9.596748519589329e-17 4.754222211946965e-16 4.481246526608741e-18 -7.501606393703007e-17 5.800799639690727e-17 3.238594437537408e-17 
-2.371269919270079e-17 -1.594441479725729e-17 7.764999035574302e-18 -2.842315486609336e-17 1.633219214789248e-17 1.172236521354001e-17 -2.740954591021006e-18 -2.086899225348434e-17 -2.592351817932598e-17 4.022179187408319e-19 -2.210640252215732e-17 1.380546902482902e-17 4.988619648015802e-18 
-1.25476784055696e-17 -1.217348350245927e-17 1.54213509624507e-17 -3.793217605831532e-17 9.217354541023385e-18 1.088299636279134e-17 -1.064797624939033e-17 -1.055120122985059e-17 5.619772801752469e-17 -6.967556770435236e-19 3.310743373947284e-18 1.234991875666281e-17 5.679930131852083e-18 
2.273502572863573e-17 3.806748443111647e-19 1.698962697770123e-16 -8.33034783861682e-17 3.298456320776452e-17 4.395875374277603e-17 -1.145649819647615e-17 -1.506026199464026e-17 6.947951984905447e-17 -9.304163662139181e-18 1.010029890951818e-16 5.340204959290001e-17 2.134096650572937e-17 
-4.226220323089195e-17 -3.366733369408105e-18 1.777194667629374e-17 -8.363522207228059e-17 4.639641823717101e-17 4.14269112704182e-17 1.025640916821332e-17 -4.270511130364809e-17 2.339739146672096e-16 9.473706144644563e-18 -1.677090672782648e-17 3.606876093098741e-17 1.841330246356086e-17 
4.061740861228492e-17 -1.076128069528745e-17 4.315170049633466e-17 4.331477651053968e-17 1.245836734928183e-17 1.082266944743302e-17 -1.494640623637495e-17 1.096309430018184e-17 3.190533168666326e-17 -4.732936852305715e-18 4.847648852909608e-17 1.231123316396844e-17 4.514785014099039e-18 
3.224171496800123e-18 -5.779608594500626e-18 2.458582278391752e-17 5.689463337817576e-18 4.185790234538278e-18 8.707296893245076e-18 -2.576363586494153e-17 -2.749932896350423e-18 3.826708051877667e-17 -2.395481150763964e-18 3.672255534850707e-17 1.110766907365656e-17 4.967777361243523e-18 
2.234469679940017e-16 3.842297932332349e-17 6.041291118064664e-17 1.402548036499813e-16 4.071819154078807e-17 4.236927876431178e-17 5.547181824618112e-17 9.165514141208374e-17 -1.911941476420212e-16 -1.482370694917387e-17 9.254128841418566e-17 2.851140791510403e-17 9.976428670507064e-18 
1.020165378146555e-16 -1.090640476787173e-17 8.163753504845669e-17 8.000308148029732e-17 9.971525553948033e-18 2.33363921236302e-17 -7.913943846129347e-18 2.996459472419146e-17 -5.971359874736752e-17 -8.970964130878352e-18 7.963160690661203e-17 1.909814688178579e-17 7.636992357927328e-18 
5.627245064754651e-18 -2.697578017432137e-18 5.504827566605444e-18 -7.661244884116586e-18 7.638391450315535e-18 3.924190558519046e-18 -7.08564764443066e-18 -5.969910650719689e-19 -1.229106922345333e-18 -6.835220636614797e-19 9.824461505438071e-18 5.959405653246451e-18 2.665992890450936e-18 
5.978053929017553e-17 1.569402049952562e-17 2.720068728585173e-17 3.593888267784133e-17 8.82021194796507e-18 2.155195849225291e-18 2.261723509604407e-18 2.603188534935788e-17 -2.725365264346827e-17 -7.366582551400769e-18 3.633898255630451e-17 4.275234443105137e-18 -9.789669855470903e-19 
3.986577151075335e-17 -1.947203330392341e-18 3.005037323317532e-17 1.200017253973158e-17 1.740671584639697e-17 1.011993580613787e-17 -3.303009791554112e-18 4.102901896901542e-18 -1.437138426185473e-17 -2.203786947251771e-18 3.261437860347642e-17 1.296132859290305e-17 4.110002393969243e-18 
1.689444118368475e-15 6.728461578766594e-16 3.658452386543879e-17 2.338803311514354e-16 -1.167476948755679e-16 -1.524499236729e-16 -1.567738193902492e-16 8.943447234911262e-16 -2.589656926126186e-15 -2.40920755927868e-16 2.505712379039363e-16 -3.527882701859875e-17 -4.505152826671005e-17 
3.560216123863462e-15 1.063804015910254e-15 2.273026188380118e-16 -1.534603336260163e-16 -8.924262742705836e-16 -4.071346842156133e-16 -6.474309694663898e-16 1.512906941871443e-15 -5.559019748649262e-15 -6.362175343804691e-16 -1.112685685489869e-16 -3.3797620185047e-16 -2.054615499403318e-16 
3.224745239738889e-15 2.004113903802085e-15 1.371272566390997e-15 1.78311320995087e-15 -3.277270162540898e-16 5.858640423214052e-16 1.370580529897448e-16 1.925198061164543e-15 -4.402068976999e-15 -6.143255275888448e-17 1.785329502231317e-15 7.814689039173388e-16 2.157047679680406e-16 
1.942092613388999e-15 7.976061138852777e-16 1.022258899355447e-15 1.244586077549731e-15 -1.026055968581581e-16 -2.567707499268117e-16 -8.769954114976232e-16 1.539043961319388e-15 -4.338539023978068e-15 -4.054410320535281e-16 1.212020828700654e-15 1.515096061410503e-16 -9.474723161350966e-17 
6.997762259842929e-16 5.321106078770679e-16 4.756453098135822e-16 3.672526782793484e-16 6.660771053027447e-17 1.109227328940285e-16 9.476892391455687e-17 4.352260090157798e-16 -8.592554693759977e-16 -1.343364407551806e-16 5.460347218537495e-16 1.94739907944069e-16 5.599877450079063e-17 
1.054993615163622e-15 9.167863752366826e-16 6.285251151187057e-16 -1.212068457574941e-16 1.408161022722565e-16 1.151239702879855e-16 -3.79977194994308e-16 5.095161276381933e-16 -1.055060484766865e-15 -2.365184015564185e-16 1.117705717316288e-15 4.101015148504523e-16 8.197605393554758e-17 
8.453888069634464e-17 1.248533363035261e-15 3.905123378267787e-16 -1.292433981502594e-15 4.666688195360887e-16 5.205408874279179e-16 -6.756616305597497e-16 2.669965390608124e-16 2.162180040081569e-15 -1.513663520262837e-16 1.047637856757555e-15 1.175051011066523e-15 3.86413881224637e-16 
6.378253756207147e-17 -6.28368072573702e-17 1.48217601391271e-17 4.607048886765323e-17 4.905491973618624e-18 2.885827360485266e-17 -4.779545718673932e-18 -1.411593765894427e-17 -1.279922557046532e-16 3.426053196026239e-17 2.064650948486336e-17 1.843527163179846e-17 1.547421754913395e-17 
6.515586412728367e-17 4.436276378168389e-17 -1.58500050284383e-18 1.19342130991763e-17 7.312261089759727e-18 2.064898091586841e-17 -1.380413752715559e-17 -1.166764412091882e-18 -7.469946196927344e-17 1.483840960521458e-17 2.992077700592963e-17 1.553970368745298e-17 9.871876485178678e-18 
9.354118954208034e-17 6.017221136777331e-17 2.237293120762836e-17 1.089627618742576e-17 -3.254567314667136e-18 2.493687294160557e-17 -9.185343611432493e-18 1.307417911363901e-17 -1.022968189480282e-17 2.554718293406172e-17 2.056968277847429e-17 -7.709340994297846e-18 1.131048908809201e-17 
7.994299523461643e-17 5.85753364454643e-17 1.877267808756204e-17 1.332057987916918e-17 -4.872662395888447e-18 3.078499442221477e-17 -1.621273728217802e-17 2.40294062843664e-17 3.112898028229453e-17 8.830919054604432e-18 3.66665870009325e-17 2.267238204027512e-17 1.175778763665232e-17 
7.960477152242199e-17 6.348425658943702e-17 1.13357304026546e-17 -5.839992835783295e-19 -1.175072065632423e-17 1.727096849516424e-17 -1.086851376704152e-17 7.45928421689559e-18 2.073666702118279e-17 1.335739556779501e-17 2.935615638606799e-17 5.041267415746851e-18 1.222629584282617e-17 
8.945537745832584e-17 7.627261000959553e-17 1.778937459294412e-17 9.166269813827273e-18 -2.582381405475128e-18 1.556750714937838e-17 -6.070704835473987e-18 1.837017653883218e-17 1.642037939467099e-17 6.070733463120868e-18 2.40389616081794e-17 2.29475821826712e-18 1.125136593628636e-17 
1.025037239909266e-16 9.521243576909896e-17 4.018759845964049e-17 3.599040955184087e-17 -2.486443333282333e-17 3.370196583958291e-17 -7.679509351838014e-18 3.046756237680049e-17 -3.899446609794502e-17 8.191012372963816e-18 2.849927865749657e-17 1.576288148934105e-17 2.077880021011562e-17 
-3.17884793244501e-16 -1.720791727767715e-15 7.357880776338262e-16 -1.259931727506423e-15 7.190370849848668e-16 5.051296707126232e-16 -2.007000912996408e-15 -1.10470561665818e-15 4.229727295552065e-15 6.69986475463462e-16 -2.740465919903832e-17 4.712061404980668e-16 3.256118548769779e-16 
3.104904948585965e-16 1.14926665940222e-16 7.906771269736731e-17 -2.367329315610242e-17 3.865392536852412e-17 7.987510789297533e-17 -8.416097234637816e-17 -1.667637060373796e-17 6.188134363422989e-16 1.208334643533632e-17 5.77579358996447e-17 6.87337552818338e-17 2.609530600930836e-17 
-2.822761642353325e-18 5.300179990795154e-17 3.629130625557561e-16 -4.409472710549567e-16 1.894272488669339e-16 1.728214741955084e-16 1.30134164844477e-16 -1.640505812459346e-16 1.661299698944689e-15 3.770313037218889e-17 -1.026761741603671e-16 1.975591644835671e-16 7.696153237231976e-17 
-6.491524479770406e-16 -1.293860237714837e-16 -1.573856658505577e-16 -1.422689224937797e-15 -3.40704311846879e-17 1.96939218467044e-16 -3.030871111936726e-16 -2.650375740749484e-16 3.221126771017419e-15 2.615923314332663e-16 -1.344284973120318e-16 2.370525437975881e-16 1.137941343301571e-16 
-1.481911969377962e-16 5.120535132425833e-17 7.301712691553768e-17 -4.569898980908591e-16 1.310360843811704e-16 8.105636302569961e-17 7.208137739351144e-17 -1.168165524877048e-16 3.515919301061096e-16 2.350414787772018e-17 4.475999473834231e-17 1.100834696286715e-16 3.350183236368522e-17 
2.407469132454444e-16 -8.280641187872315e-17 1.025606562843063e-16 3.422260688700595e-17 5.706100565325298e-17 7.964140649081687e-17 -1.114247530552192e-16 -5.732037835399496e-17 7.406647513913571e-16 1.149383316282962e-17 2.626060760543793e-17 7.222475353656794e-17 3.585687561545373e-17 
3.451932858274488e-16 -8.769654339637688e-17 -8.534050606955571e-18 -6.323831286237347e-16 2.204104587437358e-16 2.242058505582213e-16 -3.826001653829173e-16 -4.703557859989272e-16 4.764351215296646e-15 -4.140454114092183e-18 -2.303431951882606e-16 2.185854816690172e-16 1.074277505562153e-16 
6.402885111274568e-16 -5.075429403829578e-16 5.862785107255305e-16 -5.770104821308945e-17 9.023186562631396e-17 1.055684477861625e-16 -8.36703966656866e-16 -3.947543283448371e-16 2.108277924504772e-15 3.327253584075232e-17 -4.803993979272512e-18 1.398572587533549e-16 6.294400622456903e-17 
3.233695203702761e-16 -5.434010105017214e-17 -7.164576111218452e-17 -2.226580649618847e-16 -1.283184747431578e-16 -5.948933064191519e-17 -7.807525880857706e-17 3.600860422685825e-17 -3.89032075204495e-16 -4.256774307680287e-17 -4.753684032594891e-17 -6.425242114917724e-17 -2.939410766720372e-17 
1.603999915950077e-16 -1.506669675289572e-16 -2.177447352715409e-16 -4.69110505722933e-16 -3.003236648336169e-16 -1.700194415250255e-16 -3.019302012424848e-16 5.106694386207417e-17 -7.087803808396372e-17 -1.104129414220133e-16 -1.386366198115753e-16 -1.648580547467959e-16 -7.739833128229629e-17 
4.652584048875114e-17 -6.639203683167201e-18 -3.20399030285148e-17 -1.611702999352445e-16 -1.201844074497825e-16 -5.799715577071569e-17 -6.355571065460012e-17 7.101100440933294e-17 -3.679905496531047e-17 -3.421878708966519e-17 7.567081493597481e-17 -5.851113779156007e-17 -2.880672268718523e-17 
1.096380944096175e-16 -2.156329031484246e-17 -5.311521088644655e-17 -1.225932568154132e-16 -1.110817674165431e-16 -4.31430718522009e-17 -6.466838094435272e-17 5.860933931188209e-17 -1.034056370695841e-16 -3.835735192037019e-17 -2.242552580556401e-17 -5.33940375867202e-17 -2.542770226199793e-17 
1.944597884017355e-16 6.61192601638761e-17 2.673035134360036e-16 7.641856119712735e-18 -2.411318356192262e-17 -1.853097940781095e-17 -2.305461153103781e-16 1.316043167057071e-16 -3.82899536241393e-16 -5.057120484397041e-17 2.793010033080043e-16 2.288397747234176e-17 -3.446499049270673e-18 
5.119320941913537e-17 -6.325250613822577e-17 -1.146704907359865e-16 -2.068022847230993e-16 -1.74926681606818e-16 -9.495440064102914e-17 -1.240591329770967e-16 8.232273986864257e-17 -3.794028828141571e-17 -5.930959453015376e-17 3.175454563037679e-17 -8.787799422490945e-17 -4.167201254302733e-17 
8.851391919426771e-17 -4.895589858988468e-18 -1.201329178180341e-18 -1.153648109103842e-16 -7.094951323454601e-17 -2.641765068552131e-17 -1.596445102613064e-17 4.453295601859802e-17 -1.286747587580349e-16 -2.316061702424913e-17 7.650334101044422e-17 -2.443642023081082e-17 -1.635726137883204e-17 
1.870155935894401e-15 3.650899237563288e-16 7.560071079029702e-16 1.530344177271609e-15 4.438039545381085e-16 5.263796581849969e-16 8.561645794819293e-16 4.888258027229595e-16 -6.279506201161494e-16 -9.351278725202985e-17 8.696692163738865e-16 4.182580755568578e-16 1.641722164460294e-16 
2.334955471998995e-15 1.487934757913113e-15 6.48125135645105e-16 1.701736357595362e-15 4.005773265703583e-16 1.138669779014561e-16 7.457836523460057e-16 7.632682544182523e-16 7.086261599461539e-17 -3.645851042778619e-16 9.272991421412456e-16 3.934058979461686e-16 3.288922059682032e-17 
2.318157358304934e-16 3.024316871731344e-16 -1.21466923338298e-16 2.375145738019818e-16 1.678427251229669e-16 1.373612242845278e-16 1.033860235325793e-16 1.202332410997454e-16 6.098815456779499e-16 -2.960033981138128e-17 5.586119409275497e-16 2.119042143177723e-16 8.86722554760762e-17 
4.12249047376016e-15 1.95684232121574e-15 1.73469539093134e-15 3.033899752809425e-15 6.180899472280582e-16 4.899471798806432e-16 1.022798822706609e-15 1.89455436101363e-15 -1.809668430213112e-15 -4.892977411610855e-16 1.579215161234036e-15 5.474091837564218e-16 8.292635913854942e-17 
1.963211930898407e-15 1.978284552972573e-16 7.163768898314172e-16 1.609236239296809e-15 8.057157698181541e-16 3.627680082628169e-16 9.144366485703248e-16 4.026931264503684e-16 -8.16935777703197e-16 -3.677134902969873e-17 7.578712801886481e-16 4.590234367835218e-16 9.025738072437704e-17 
2.053072106068399e-15 5.45914733857083e-16 1.03452439210831e-15 8.126065165605556e-16 1.128646008652079e-15 8.364434703596682e-16 1.721023736262651e-16 3.022976154589441e-16 1.894675377207757e-15 -7.677538930290174e-17 1.074964412177416e-15 9.235041837550422e-16 3.428433629122903e-16 
1.318194832636847e-15 -7.263228231644394e-17 1.412226207411295e-15 5.402308828436654e-16 5.228476207133312e-16 7.143692585303052e-16 -4.102502817611252e-16 -1.992354237497782e-16 3.811511983401249e-15 5.499972348276234e-17 6.956173310653897e-16 6.43756839952644e-16 2.146167096669577e-16 
1.06269043425809e-13 6.793006292064764e-14 5.942832919814496e-14 8.012370561827395e-14 5.703359045290956e-14 4.70553445805778e-14 2.733533071488868e-14 8.675178309625569e-14 -9.043693540403497e-14 -7.925813859210003e-15 7.433200411377068e-14 3.792760326744798e-14 1.683698964879074e-14 
1.625723216348279e-14 1.162541517947238e-14 1.635693084348815e-15 1.74258066624002e-15 6.355318270595321e-15 4.676429724672693e-15 7.764212197171338e-15 9.414616364397844e-15 1.02356651032233e-14 -4.752910647830556e-16 9.791923187690566e-15 3.5844918884738e-15 1.339014164276322e-15 
7.732821339925734e-15 4.037612402602265e-15 2.967472994714476e-15 -6.456853349705017e-16 4.446064244633969e-15 2.491773466094389e-15 -3.531228086200813e-15 6.895293476971539e-15 8.275180366197645e-15 -1.488009065263638e-15 6.988679013825458e-15 2.443951493862425e-15 9.779770575155515e-16 
9.979116344088385e-15 3.920532581033423e-15 5.970772424504887e-15 5.47299720939045e-15 6.417200526254812e-15 4.375224548825707e-15 3.95049493753277e-16 8.052986536411401e-15 -2.848318982447747e-15 -1.611800503346456e-15 9.966664864129742e-15 3.868538845247504e-15 1.72420005982489e-15 
6.804797681717311e-14 -1.464261434947379e-15 3.16516067323075e-14 3.676026474369821e-14 2.406604693954187e-14 4.572312101912918e-15 -2.735105854008324e-16 2.198278288616193e-14 -5.858320957580173e-14 -8.435418405544643e-15 1.725337274836305e-14 7.430520497340077e-15 -5.896107285294165e-16 
1.237925400350599e-14 2.979121197974404e-15 -3.891599603352284e-16 8.275451642561607e-15 3.015365578673664e-15 9.796442568513026e-16 2.13755048106312e-15 6.415140593642472e-15 -1.257119506830199e-14 -1.305125819487368e-15 4.928127564957713e-15 1.411549185459484e-15 2.391716950733984e-16 
1.196086338820563e-14 3.61256742085692e-15 -5.714699634977421e-16 -3.571872440704075e-15 9.595898014932605e-15 -1.670038018694592e-16 -9.0666749633742e-15 5.069880045340559e-15 7.400931443279052e-15 -1.600376702533743e-15 3.572374929618493e-15 2.02021275863371e-15 2.555334446686555e-16 
-5.957880316083232e-16 -6.472081627848953e-16 1.580484420711181e-15 3.385314777776869e-16 3.712330627950188e-16 4.650656525277334e-16 -9.540100663883237e-16 -6.536537351735674e-16 2.586299061194167e-15 -8.242691046251443e-17 1.098184193499468e-15 7.039182127312854e-16 2.74994026214517e-16 
-4.885931013092856e-17 8.760950279750348e-16 -4.27078106329981e-16 2.593059485754218e-16 3.070767455871231e-16 -1.4288662190954e-16 -4.666431128390989e-16 -3.617370732102242e-16 5.265766608353619e-15 -1.611834829157933e-16 1.619253986212562e-15 2.928391936735261e-16 1.101076424348204e-16 
1.356043312711187e-15 -2.745113328739968e-16 -2.495931209092693e-16 5.284412518033987e-16 3.139065967973744e-16 9.804778601760054e-17 -1.903335085147013e-16 1.391848720455441e-16 3.655632178395189e-17 9.655222261693742e-17 1.111678036571287e-15 2.424484939021211e-16 7.034900259814135e-17 
1.70907913173925e-15 9.230254288741775e-16 4.29510791893513e-16 1.142728586734884e-15 1.039450476570898e-16 4.202347341095918e-17 1.920607236133394e-16 6.034109537734513e-16 1.03925616753185e-15 -1.581607000988668e-16 8.89216119819365e-16 1.22528130571622e-16 -6.400902962223801e-17 
1.048306689477483e-15 9.532181258865062e-17 1.029515361518487e-15 6.187310317055584e-16 2.432154238658032e-16 -3.193824213560028e-17 -3.117822683000628e-16 -3.126330053843641e-17 -4.189520466223528e-16 -1.110204947906936e-16 1.112595175228582e-15 1.809693756743542e-16 -1.896767223931302e-18 
1.992413061295302e-15 1.149375112189022e-15 2.553817589518033e-15 2.919227514911223e-15 -5.441329958345899e-16 2.111590856535269e-16 -4.584682983506859e-16 2.144273588207296e-15 -2.125217153199909e-15 -5.32074000538379e-16 3.108234564842532e-15 4.261945526097143e-16 1.120587176648997e-16 
2.021215648555457e-15 -1.587015073630679e-16 2.286533546045351e-15 3.528767083248785e-16 -2.29028494533814e-16 -7.499986599465741e-17 -1.33631386623455e-15 2.544534144535995e-16 -4.297563065516615e-15 -2.070392427142873e-16 1.452420611868146e-15 1.660592844041472e-16 1.524621721924351e-18 
-4.059428726454525e-17 2.77157121431326e-16 -4.050312557239753e-17 -5.167038227111285e-17 -1.587524400796879e-17 -2.364727607108274e-17 -4.454611577368616e-17 1.552951925434928e-17 -1.334971050964907e-16 -1.922609626121783e-17 -2.693766608649592e-17 -8.86672306167134e-18 -1.525002307557912e-17 
-5.075168766172202e-16 -2.806597981169996e-16 2.481227718008448e-17 9.052170053686944e-16 1.307457949135797e-15 -1.42738218278667e-16 -4.05485216654637e-16 2.236665898296835e-16 -1.043167799586392e-14 -8.515594189208068e-16 -9.241131953583461e-16 -1.354149823832136e-16 -6.723470938794719e-16 
-1.078567337565643e-16 2.928088554555931e-16 -5.032864134507265e-17 -9.110687817691198e-17 -4.255125509280453e-17 -5.541761916206207e-17 -2.911238612172636e-16 -3.760635067143386e-17 -2.6392535139321e-16 -6.026451706221302e-18 -4.150470174969671e-17 -1.935055209170781e-17 -1.032039032924121e-17 
-1.58569689678699e-17 8.035121633072739e-17 -1.314042455480422e-17 -1.973378145891049e-17 -1.045355392585781e-17 -1.604060029669178e-17 -2.51719048733215e-17 2.045520080628014e-17 2.319336914752386e-17 -2.145566497560945e-17 1.739765317213337e-17 -1.934035911172336e-19 1.198262741289479e-19 
-9.11330800933343e-17 3.652361266850368e-16 -2.832643112540099e-17 -1.228839172017059e-16 -6.098288703161014e-17 -1.67937339316114e-17 -4.430157087037125e-17 2.181807434122249e-16 2.089131616855078e-16 -1.008921482110973e-16 9.736137391280279e-17 1.438745511415296e-17 9.1372034794816e-18 
-3.664217463366014e-17 1.698158154341669e-16 -9.615532490546374e-17 1.338631759287224e-16 4.933079719495692e-16 5.510353959205374e-17 2.375613045336478e-16 2.601686348843306e-16 -3.870755075463733e-15 -2.033347561802512e-16 -1.881408326547356e-16 1.33882193022601e-16 -1.916736785999762e-16 
-3.248737920592447e-16 3.166193855033906e-16 -4.253585735752753e-17 -3.054024155565477e-16 -9.997456033936724e-17 3.98090452938664e-17 -2.713374771298595e-16 1.069291581376899e-16 1.010580602776324e-15 -4.013498752585187e-17 -1.298171077835306e-17 3.687119574124105e-17 3.369516763235268e-17 
-1.337938383993911e-17 1.338951972656584e-16 -5.93343200601118e-18 -2.837167703888681e-17 -9.947964728303655e-18 -2.864392401093582e-17 -1.617099960457685e-16 2.152089755293612e-17 5.603301787525843e-17 -6.982958797462443e-17 2.301476342483953e-17 8.461156049384613e-18 -5.481928025719993e-18 
-3.316571907052967e-17 7.256722399153799e-17 -5.473859020742214e-17 -4.488809853351454e-17 -3.341943633247356e-17 -8.727547411912791e-17 -1.709154496621961e-16 3.739877317872008e-17 -4.111807525916317e-16 3.895400947931334e-18 -4.373103683876151e-17 -1.93342798229669e-17 -1.701196494691679e-17 
-8.575545592616935e-17 9.904196848385897e-17 -6.601060591739864e-17 -9.030745020698269e-17 -4.885499174107902e-17 -7.379131164627911e-17 -2.38139980075295e-16 3.795184339239963e-17 -3.209338151092562e-16 -6.084350622903341e-17 -3.632154171793183e-17 -2.376192664337464e-17 -1.957281370131094e-17 
-1.001926564405912e-16 2.023286723721372e-18 -5.725959013786877e-17 -8.348770538991447e-17 -4.483535904426172e-17 -6.00202633991504e-17 -2.961740182083091e-16 -5.629770866006732e-18 -4.221223731869824e-16 1.153883367501226e-17 -5.969525062841008e-17 -2.319004827920045e-17 -1.486169876425102e-17 
-5.28929677588288e-16 3.559614096177347e-16 -2.92847132288339e-16 -5.124308722196655e-16 -2.091196604204903e-16 -2.801736141108844e-16 -5.993448879484023e-16 -9.316194992933374e-17 -2.236172948907102e-16 -1.657591201111137e-17 -2.779078313568107e-16 -1.147177515878843e-16 -6.202681886952468e-17 
-2.708781625226123e-18 1.851155338529745e-16 -2.454296715191289e-17 -1.130903149932667e-17 -1.695625666431839e-17 -2.128016919242193e-17 -1.06194347134167e-16 9.229078372035048e-17 -1.608713250853064e-16 -1.011532956416721e-16 -9.43637804611883e-18 -2.583948422757984e-18 -2.415956067328185e-17 
-6.210523630269794e-17 2.244385507449885e-16 -4.822076814379078e-17 -7.896964833698612e-17 -3.470899805992907e-17 -4.486418396057848e-17 -1.286877894336983e-16 1.589124772634214e-17 -1.698713311460671e-16 -5.650958931129791e-17 -4.480240762668582e-17 -1.4497737941938e-17 -1.73316964373464e-17 
-9.841007878334015e-17 2.707491944060965e-16 -9.664812457949672e-17 -1.369243484126793e-16 -6.472396875836884e-17 -8.350582885857823e-17 -2.769340136223204e-16 3.102650021500815e-17 -4.29048929788732e-16 -8.853724022743023e-17 -1.093364091231984e-16 -3.071824381396834e-17 -4.695104501456838e-17 
-5.631028137788814e-17 5.75158558473881e-18 4.365839934412406e-17 -5.161042392948108e-17 2.769870295574985e-17 4.677812071828443e-17 -2.248315530679903e-17 -5.348631841389782e-17 5.352315890257049e-17 2.363964828406071e-17 1.922467104424075e-17 2.823624279037206e-17 1.972108328693068e-17 
1.120604208180023e-17 1.552044945971785e-18 -1.700764793362123e-17 5.999410032842002e-18 1.022101310761888e-17 -1.889746309714162e-18 1.525952307223524e-17 5.280597652056515e-18 -6.763256266430492e-17 -1.813182216731048e-18 1.477887169220549e-17 -1.251581931723186e-17 -8.690721301834651e-18 
-1.551737507634027e-17 -1.383166983269907e-17 4.975113419081303e-18 -9.275879762482424e-18 2.152860441634324e-18 1.536459981713971e-17 1.544100459147606e-17 7.875265035475174e-18 -4.471701864917509e-17 -1.773371384580825e-17 9.402151950248799e-18 -1.002207810068449e-19 -4.666623285792586e-19 
1.192393730415591e-17 -1.41147004404613e-17 7.371351844322211e-19 1.388239568699325e-17 1.901896226477512e-17 2.044430630467764e-17 1.645444640500462e-17 -1.012237394891099e-17 -6.293678391570155e-17 1.88723431546056e-17 1.274105241221089e-17 2.522070767914365e-18 3.189380645717758e-18 
1.397031101536829e-17 4.526118336618913e-17 6.330765158231757e-17 6.848381986903765e-18 1.05370846678533e-17 5.756051923276218e-17 -5.903166824088405e-17 -2.828077083816139e-17 -1.826681475113986e-16 9.643466374948919e-18 -7.224258256531749e-19 4.949770490249835e-17 2.024736218970767e-17 
4.07958106437711e-17 4.210081375208986e-17 -7.720580414557286e-18 1.128993047585617e-17 5.522410524596412e-19 1.497904561717048e-17 -1.507489473839704e-17 6.257795802087173e-18 -1.120869110745306e-16 -7.787807158714694e-19 5.143206984734532e-18 -6.920507169909943e-18 -2.888860223037089e-18 
-1.076838583090058e-17 8.208187055302866e-17 -1.526922808421008e-17 -2.215183495831795e-17 -9.764408226770499e-18 -2.398516409339588e-17 -4.676803816447562e-17 1.554619530474128e-17 1.97430590325686e-17 -2.408163366393631e-17 1.293628270752997e-17 2.099880971668399e-18 1.492957188003953e-18 
3.324329483878324e-16 4.443026492227067e-15 -1.260921637262714e-15 -1.39722122795398e-15 4.047942605657122e-16 -4.941809064259307e-16 -1.163084930219009e-15 -1.989101940096287e-16 9.21569477786986e-16 -4.776920968086702e-16 6.229860455869489e-17 -9.583581454250131e-17 -1.475401679758794e-16 
4.222197907231496e-16 5.657788887200569e-15 -1.034113342536438e-15 -1.544157636111067e-15 3.085071508724732e-16 -4.501974874999035e-16 -1.023656059263037e-15 -3.510230216167058e-16 7.873510469375509e-16 -5.364002026175728e-16 1.109902783741023e-16 -3.50270537445982e-17 -1.558589536623951e-16 
4.653820981558301e-16 1.457428409400561e-15 -1.762695660238971e-16 -2.728430167235872e-16 3.321119644201523e-16 -2.159585012812075e-16 -2.768894939384004e-16 8.761982352804892e-17 -2.450559841085784e-16 -4.099036896575336e-16 2.824058203277168e-16 -7.201527499628991e-17 -4.597156034429769e-17 
6.127275851696012e-16 2.091620593677678e-15 2.26612802679843e-16 -2.858719770650869e-18 1.632027210127535e-16 3.669080392815586e-17 -4.927213165966377e-17 4.912124124674443e-17 -6.718623269101553e-16 -2.091371682389297e-16 3.052892046255528e-16 1.106484560000009e-16 -3.840159838966942e-17 
8.633171314463382e-16 5.206271936517625e-15 -7.823830782494494e-16 -1.219061368253658e-15 4.028124927149422e-16 -7.814074846734637e-16 -1.260170637373827e-15 -6.837449194179731e-16 -2.495714673960805e-16 -4.930015209425834e-16 2.266692697937872e-16 -2.343263978449928e-16 -1.666592817763895e-16 
2.345854560363908e-16 1.73870082402782e-15 -2.447553664600261e-16 -4.721610444207321e-16 2.790963336050367e-16 -1.579737126573888e-16 -2.306892392204026e-16 -2.679366023325653e-17 6.798137184313204e-16 -1.760991342263277e-16 1.619448273171428e-16 -3.465896362339073e-16 -1.150883930532013e-16 
-5.369791196321412e-17 3.453409528779614e-15 -4.859770910260538e-16 -1.009976372278547e-15 -2.490612465273744e-16 -2.843638533769382e-16 -6.249178715835646e-16 -1.958328964385333e-16 1.192565477943584e-15 -2.670079064578099e-16 -5.804053451764828e-17 -2.317454694665438e-16 -2.202266864989164e-16 
-9.529272562377843e-17 1.069155132402298e-16 -1.80795286976217e-17 2.324480040270852e-17 5.820262017803848e-18 -3.533760493370583e-18 -7.332240902302598e-17 2.7221459176766e-18 -3.149547648824591e-16 1.523903629647689e-17 -1.197180273842964e-16 -3.663045512825512e-17 -1.069543891737929e-17 
-1.246214128907013e-16 -4.974769301921882e-17 1.488586664820201e-17 -6.112627404207659e-18 -1.562464079449863e-19 3.171698947404761e-17 -8.738489203986428e-17 -5.748624569692907e-17 -2.029549575644118e-16 2.686640062275696e-17 -3.546691592544615e-17 2.548295347152999e-17 1.762550445776872e-17 
-2.617430035546332e-17 9.52316365431753e-17 -1.192628779223985e-16 7.09462530340075e-17 1.318079110372333e-17 -9.38381853924498e-18 -3.12269450755435e-17 1.957637408405453e-17 -4.474976908866896e-16 2.122081112123591e-17 -1.311585485476206e-16 -8.298088914998594e-17 -3.120936199941932e-17 
-5.331557527437805e-17 5.755029573512285e-17 -2.358619016134021e-17 4.110562441834689e-18 -1.063305159945636e-17 -1.015434569965502e-17 4.682331934861707e-18 2.619659753244356e-17 -5.359388889239873e-17 5.244783768307007e-18 -4.533149351376128e-17 -2.167523759855976e-17 -2.241649458279812e-18 
1.146856751236263e-17 1.298465607061635e-16 -5.516933300207629e-17 5.110848247851091e-17 -8.565342863664047e-18 1.332268755410169e-17 5.941779865880184e-18 4.557860957337293e-17 -1.327024983473115e-16 9.243169720225784e-19 -6.123502441791906e-17 -1.843060003227886e-17 -1.88189697187741e-17 
1.550770321774314e-17 1.284519880184503e-16 -2.755990662775093e-17 3.450962589950257e-17 -1.17500793940311e-17 1.391391362347945e-17 1.99971467883275e-17 3.917025367208092e-17 -7.692599914662512e-17 4.914834452478804e-18 -2.810288899162509e-17 -1.689781508744964e-17 -7.444805002555055e-18 
-5.16920439121213e-17 -4.14977201643201e-17 -1.178382237365806e-17 3.264978124957664e-18 1.758138178350004e-17 6.506338661056856e-18 -9.462633239089518e-18 3.382864291800445e-17 -8.018484385806648e-17 2.569766042987755e-17 -7.599719778544351e-17 -4.550796920287452e-17 -5.59348079613104e-18 
3.311070869054108e-16 -6.615472240779274e-16 -4.203079019926414e-16 4.116207292197862e-17 2.400319915667359e-17 -5.791995117886688e-16 -3.595897241065634e-16 7.595421842066939e-17 -1.925107492954844e-15 -1.514285316601984e-16 1.131974119347798e-16 -5.541433859160643e-16 -1.774724909734863e-16 
8.682469106711027e-17 -2.496054583682833e-15 -7.958316806028417e-16 4.673601937306289e-17 8.429581916951106e-16 -1.246665357115798e-15 -1.392460766461853e-15 -5.346677311666744e-16 -1.018640973299081e-15 2.498943318679448e-17 5.258017662037357e-16 -8.931550254355605e-16 -1.540831085607695e-16 
1.319183727102404e-16 -3.286442544835535e-16 -1.484988361131014e-16 -4.936389560057557e-18 5.682422011483058e-17 -1.156978151621594e-16 -8.455637765527132e-17 9.252287063271341e-18 -2.859699702434188e-16 -1.868873753667285e-18 -5.038761835142273e-17 -9.014522575471937e-17 -3.391351155925494e-17 
1.313030570328412e-16 -3.939848121095616e-16 -1.698577662720371e-16 6.867737209724825e-17 6.026709563998319e-17 -9.807741196664872e-17 -2.861509455271847e-18 1.754347777762402e-17 -7.783922048794912e-16 3.061047874656372e-17 2.262921211428217e-18 -1.071235639270513e-16 -4.96588003769379e-17 
-2.776959272888197e-17 2.976062750718724e-17 -5.965047334303914e-16 -2.85530251378135e-16 -1.518766555162885e-16 -7.731975205353037e-16 -7.014045770782989e-16 -1.581224113528082e-16 -1.03046872435718e-15 -3.155894693851665e-16 1.040425117779272e-16 -4.611378801721235e-16 -1.277327446856641e-16 
2.313139825235914e-18 -2.24036907592757e-17 -1.029867915306932e-16 1.891734271135431e-17 -2.125620174991735e-17 -3.334310835307938e-17 -6.839370047959713e-17 7.67615212012761e-18 -2.410624310439912e-16 1.569638329808469e-17 3.309228472777541e-17 -7.369784606085885e-17 -3.916953079393371e-17 
1.187502241960302e-16 -1.670983331643927e-16 -2.191812720492996e-16 1.149048853964139e-16 2.089415561533394e-16 -7.708852557844158e-17 -9.02725983208105e-18 -3.412874674187484e-17 -1.373982323615921e-15 4.072173193694338e-17 4.779722171983168e-17 -1.716681184737098e-16 -1.007392253179016e-16 
2.595916898768344e-16 -5.640701618408539e-16 -4.914016826751052e-16 5.47512990321439e-16 4.967624280397245e-16 -1.052815995840839e-17 -2.379556975494175e-17 -2.334085257924355e-17 -4.176836365847764e-15 8.488866297543761e-17 -1.316483236267787e-16 -3.367174335331591e-16 -2.316567682979009e-16 
-1.083185177742937e-15 2.398072699925929e-15 -6.50683324906116e-16 -1.023530056679585e-15 -2.869339188789613e-16 -4.277998164422933e-16 -1.241804579198616e-15 -2.139248198717411e-16 4.543567903074139e-16 -2.022521830759936e-16 -4.447496940054702e-16 -2.24758499678383e-16 -1.001836401683644e-16 
-3.419968215108126e-17 1.804699993198353e-16 -2.797636428428976e-17 -4.831474343488649e-17 -1.808016523002996e-17 -5.685844196697223e-17 -1.161233953553879e-16 5.382691993220456e-17 -7.84182423959175e-17 -8.590181389074491e-17 1.652691081721167e-17 2.473052444438752e-19 -1.255807195736928e-17 
-5.794751020998604e-17 1.175094744653468e-16 -3.309480850384614e-17 -5.546614251475169e-17 -1.257916130594306e-17 -7.365393867366148e-17 -1.524784862953994e-16 1.769381249708048e-17 -2.484235123588738e-16 -8.928952230350724e-17 -1.696111999749222e-17 -3.151082617079641e-18 -1.534154742461702e-17 
-1.59687932686225e-16 2.068719277393131e-16 -1.000956373607989e-16 -1.58011591819606e-16 -4.562808151232813e-17 -1.013228258085351e-16 -1.869099294443999e-16 -2.078326004554704e-17 -1.608152578625017e-16 -4.009191796217035e-17 -6.408048758957768e-17 -2.666807900573612e-17 -2.460413821580706e-17 
-1.83497078739097e-17 7.815044701724762e-17 -1.483463978954188e-17 -2.201759804950791e-17 -4.479806106999056e-18 -2.642233452451759e-17 -7.718387693289879e-17 1.982520728098728e-17 -8.365938335893639e-17 -5.494805556898606e-17 -3.973406992015959e-18 -7.032812209334976e-19 -9.946901015687909e-18 
-5.760583067673261e-17 8.338713754481368e-17 -6.065482733526329e-17 -6.241810962083488e-17 -1.455807631118341e-17 -4.946439960832912e-17 -7.024806831207548e-17 -1.979685119179234e-18 3.929635718744437e-17 -2.747729239025043e-17 6.649566068696784e-18 -5.405967997876426e-18 -6.56025957274232e-18 
-2.193543125585693e-17 5.07829625316899e-17 -1.250104139737565e-17 -1.828409327244992e-17 -7.603134096017744e-18 -1.706416446432745e-17 -8.52398446229914e-17 5.129220008471738e-18 -9.985822570900187e-17 -4.015251836751387e-17 -8.926649743169218e-18 -3.476026637132778e-18 -5.458372312646827e-18 
5.167078150112078e-16 9.035702988740955e-16 -6.780127544245573e-16 3.982663611442665e-16 -1.800624390365751e-16 1.826927084957908e-16 -2.648827878854386e-16 -1.234937188012758e-16 -1.741867163361123e-15 9.459745118121233e-17 6.583899039275109e-17 -3.359328860047587e-16 -6.969496723223122e-17 
9.27200459526962e-16 3.054549609342918e-16 -1.187182827636937e-16 6.550357259234293e-16 -9.126411645712593e-17 2.425162197690277e-16 -6.834624634447603e-16 -2.853564886889975e-17 -3.756914729174936e-15 9.996482583289798e-17 2.926069367683187e-16 -1.119721667569796e-16 -3.472074311140564e-17 
4.579374599547281e-16 1.352317215945447e-15 2.688639092798277e-16 -7.019581721317237e-17 -8.776572969788765e-17 1.860276877989393e-16 -3.783284011903552e-16 9.204275674591373e-17 2.645035893933494e-16 -2.382020934450189e-17 2.739721855191206e-16 2.069422451053294e-16 6.869906535351778e-17 
-1.071800167224544e-16 7.337368154107133e-16 6.270019490871054e-16 1.241742879773987e-16 6.974744539925186e-17 7.100565577597696e-16 -1.017127742927981e-16 -2.294913381952185e-16 -1.950813135859703e-17 1.507974882603872e-17 3.439951055793651e-16 4.186555461655947e-16 1.488042878397783e-16 
3.113009655234087e-16 3.590646976652905e-16 2.891541452903198e-17 -1.048156333683172e-16 9.970704227975146e-17 -2.158220607239416e-17 -5.575027415533304e-16 5.052764999307505e-17 -1.963970873085851e-17 -1.586302780704901e-16 3.304301749753542e-17 7.935974856612449e-17 -5.242170772746165e-18 
9.632888012535571e-16 2.916133522200232e-15 7.056947598158187e-16 -2.504729773589236e-16 1.49751367610843e-16 7.005668977174069e-16 -1.034538400775257e-16 4.821555013523406e-16 -7.847671543961917e-16 -6.863406930754595e-19 1.018897727449203e-15 7.342871765952121e-16 2.079918066006157e-16 
5.186427718035436e-16 1.042883317207324e-15 2.152969801925738e-16 1.738226584948551e-16 2.721549992639442e-17 1.316931431754027e-16 -5.470825409072738e-17 1.189583860547284e-16 -1.834707791949891e-16 -1.973428423290883e-16 1.471803691390938e-16 2.439746465722523e-16 3.934832349209909e-17 
6.383506696206997e-15 5.733768967998416e-15 8.946583782753991e-15 -4.116650449856481e-15 7.760732355077193e-15 -7.967013443923469e-15 4.186161963565559e-16 -7.734619211913237e-15 -3.041252412590153e-14 -7.528233450341106e-15 5.782829773432519e-15 5.018237570347266e-16 2.480360563564429e-16 
-6.336886364622917e-16 2.523066059229741e-14 1.59604985617957e-15 -5.867946148889721e-16 -6.163986513698449e-15 6.590946418030764e-15 -1.205348182064744e-14 2.313400250181391e-15 -7.583435713106383e-14 -4.188461380542937e-15 -4.735787981705526e-15 -5.651057063910207e-15 -7.186236874303763e-15 
-2.358575797886633e-14 3.892329158724974e-14 -7.880229656687825e-15 -2.676408827815124e-14 6.471771254633366e-15 3.332046631655588e-15 -9.347521888091465e-15 -3.374704162829809e-16 5.539743449697337e-14 -1.060084544614707e-14 3.947427963841251e-15 5.486895413815778e-15 -2.100357616582258e-15 
-2.501868970560114e-14 2.766495408020211e-14 -2.593770688961746e-15 -1.775568853379918e-14 6.115584598488599e-15 1.434771383009063e-15 -6.565962904627157e-15 -2.249308920171778e-15 4.238367586479062e-14 -1.015327353879958e-14 3.621268158971295e-15 4.613883134185013e-15 -1.181838430482184e-15 
-3.0969453682987e-15 7.639268943657456e-15 8.273593322229052e-15 -9.633504899045455e-16 5.588321620777628e-15 -1.795988324326554e-15 2.628163956842454e-15 1.518058307901359e-15 1.948113848683703e-14 -3.466747248992981e-15 4.034635118047806e-15 8.050479334310273e-15 6.022263081239646e-16 
-2.648312610291925e-14 7.695603171261225e-15 -4.823510372030347e-15 -1.917441743151298e-14 -1.041790726475088e-15 -3.801180632476249e-15 -2.151219548097746e-14 -7.695024688085472e-15 2.872416439884713e-14 -5.401908828273967e-15 -2.458413122662738e-15 5.288655923947225e-16 -2.085184216232842e-15 
-2.682836571616784e-15 4.610316322998138e-15 5.026714205195078e-16 -2.403976636668e-15 1.351737096114227e-15 -1.184429986145288e-15 1.233101482774938e-16 -8.795026246747465e-16 6.717498858534874e-15 -1.36319334809545e-15 -3.638189637283206e-16 8.67095617853857e-16 -1.776530012326031e-16 
-3.022453025038266e-16 4.402415409797461e-16 6.140469028255956e-17 -4.147897357940413e-16 -2.109110278644292e-16 7.845531889545376e-17 -5.655962315918909e-16 -3.715811640171273e-16 6.161832109325699e-16 1.737217238586405e-16 5.969195378787522e-17 1.086680648422355e-16 2.052948382153885e-17 
-7.576798976037249e-17 7.85924544296023e-16 -1.31202175334323e-17 -4.332019458236314e-16 1.324388620801052e-16 2.41164683983577e-17 -2.446491277661546e-16 -2.426563532236333e-16 -3.646201790489404e-16 -1.232902830529384e-16 1.03863516113901e-16 1.419436427100665e-16 -1.54827025584664e-17 
1.521422311671154e-16 -8.961522137623101e-16 1.402623073302767e-16 -1.193294441892504e-16 -4.245786887243403e-16 2.242039909261088e-16 6.310197442890583e-16 -5.951752172861434e-18 -2.264319841419936e-15 -4.754323929069551e-16 3.380657792884695e-16 -5.236153912284857e-17 -5.360665333889611e-17 
1.588635713940021e-16 9.829331068777357e-16 -3.838505825120182e-16 -8.392953773067419e-16 -2.011691277917079e-16 4.179088917441266e-17 -5.579040828970736e-16 -2.452936381585898e-16 -1.79516609191603e-15 -3.002822884596519e-16 3.82901194824027e-16 -1.478589560278439e-16 -9.92434051879586e-17 
5.387750267236494e-17 3.347417666004617e-15 -3.681189060970879e-16 -1.002002132873315e-15 8.335457023633225e-17 1.079857995420342e-16 -1.345939174604924e-15 -7.745419430524868e-16 -5.607735965042979e-15 -5.248556247737524e-16 5.15189597311403e-16 -1.460375526929724e-17 -1.478613659961396e-16 
4.798083164880152e-16 1.118730750795643e-15 -3.843152895629642e-16 -2.490471344457824e-16 -2.649978748351153e-16 -1.474862443270905e-17 9.872821932785494e-17 3.651189858235178e-16 -4.26110913886615e-16 -2.878937824743821e-16 7.542919721837726e-17 -1.981689782100786e-16 -1.429710437001451e-16 
-1.054004169332298e-16 1.694811173603885e-15 -2.230830472424758e-16 -8.362767417565448e-16 5.260048972441583e-18 9.192707084815408e-17 -9.840060725694425e-16 -8.547611487208416e-16 -1.5713536624697e-15 -3.570050283228856e-16 2.557016572424608e-16 7.007919184946218e-17 -2.027105812981592e-17 
-1.138856501062102e-17 -9.699954264294189e-17 -1.664992925206745e-17 3.963183604085071e-17 5.624887606590219e-17 -7.477761865253471e-18 -9.930390218315836e-18 -9.281468514909656e-18 -3.801381704711291e-16 -6.540310662806395e-18 -2.337140928980194e-17 -2.214671858652724e-17 -2.854421547013636e-17 
-2.0066554294388e-17 -4.5468945176528e-17 1.778315922921264e-17 -2.511500620044643e-18 3.46479728835311e-17 2.251358154298344e-19 -1.669902828633718e-17 -1.573254938673965e-17 -1.206814942967232e-16 -1.075496020797019e-18 -1.206597350872939e-17 -5.214731007711354e-18 -4.614495406950934e-18 
-1.769198350083097e-17 -7.454090871816526e-17 -1.641346644651188e-17 1.455194820512124e-17 3.679626016958091e-17 -3.670473914998224e-18 -7.320899596880833e-19 -1.045262268699657e-17 -2.403681561675785e-16 -2.616562499416365e-18 -5.4444751151186e-18 -8.460917771083632e-18 -1.586672127437132e-17 
-2.927879930220891e-17 -5.781546256720279e-17 9.202146858134823e-18 -1.243955627883783e-17 4.173899458116261e-17 -1.183208153093505e-17 -2.022981481967985e-17 -1.702826448532542e-17 -1.129726723927378e-16 -6.141400154658909e-18 -1.586493156269577e-17 -2.702793841199437e-17 -8.074844049359926e-18 
-1.293849275719713e-16 -3.069900692149448e-16 -4.103723634365571e-17 1.112346413074235e-16 1.903465133364027e-16 -2.720915261153799e-17 -1.623906675403815e-16 -8.554277314159385e-17 -1.218924250080752e-15 -8.152925047403802e-17 -1.311363561766188e-16 -8.083461973070467e-17 -9.989068345965335e-17 
-2.465770181189623e-17 -9.655729578855208e-17 -2.437294554790758e-17 6.320880845034781e-17 7.395547606864788e-17 -1.059319954723488e-17 -4.105466091436874e-17 -1.41265945147323e-17 -5.245441647563751e-16 -3.501075048927132e-17 -4.332929764012579e-17 -3.461308380447528e-17 -3.970546798890093e-17 
-1.496892469662439e-17 -7.095289201381848e-17 -1.532810783295226e-17 4.727166224612997e-17 6.295930229685289e-17 -4.636417930045232e-18 -7.077781619856414e-18 4.473721298639755e-18 -3.757504655919439e-16 -7.817806737923212e-18 -2.458783639073618e-17 -3.507469302939965e-17 -2.389030805906628e-17 
8.499061897595907e-19 -1.594347287132219e-16 -1.738264954177621e-17 1.590763739015636e-16 1.431777593207916e-16 -4.579036556830621e-18 -1.588199195284066e-17 5.58102460337443e-19 -1.046152018997087e-15 -2.643989105327314e-17 -6.813744453920288e-17 -5.91249707237707e-17 -4.979299184744331e-17 
-2.349770976359055e-19 -7.239397594231037e-18 2.118564963568952e-17 3.043875648043691e-18 -3.290004896552518e-18 -2.875169315430618e-19 -1.70513571420065e-17 -5.025235366101963e-18 1.200805543453914e-17 -1.569156612179772e-18 -6.791573192180762e-19 4.951373632307725e-19 -4.537068100621203e-20 
-3.8377383745635e-17 -2.263551890795081e-17 1.744216542389053e-17 -1.081745182314618e-18 9.012265541686925e-18 2.128591760258289e-18 -1.476320016835616e-17 -1.183313359854177e-17 -5.047753152742452e-17 3.645827315799136e-18 -2.081130259539404e-18 1.705300003616998e-18 -3.696379639071715e-18 
4.197585237664915e-18 -2.104349554092023e-18 2.154126810863925e-17 3.288974050800454e-18 1.129017434878128e-19 -1.828722225051261e-18 -8.798520062917533e-18 -2.403702123421036e-18 -1.702571892781979e-17 -1.021833880971169e-18 1.303779621277987e-18 1.337170711255039e-19 -4.422025052900421e-19 
-4.775358622046996e-17 -2.409746564412742e-17 8.014113447413304e-18 -8.93540068573848e-18 -1.375636903412113e-17 -7.837114656472996e-18 -4.345902288724046e-17 -1.86899153577638e-17 1.087112892844572e-18 -2.276328365497983e-18 -1.202098684641243e-17 -2.372376609539653e-18 -1.821856628477865e-18 
-1.697963735794776e-17 -1.078117906596306e-17 -3.297390459910353e-18 5.197393851392524e-19 -1.481359477385432e-18 5.588357868731489e-18 -3.50476569168435e-19 -4.397071588313231e-18 -3.97104017308295e-18 5.299290714080672e-18 3.630427515002886e-18 5.620957121632749e-18 -2.003052013594004e-18 
-6.85178420735145e-17 -2.775508310337176e-17 -1.529074258148998e-17 -4.578731747565604e-18 -1.668721825967408e-17 -8.650065402844978e-18 -5.465769196322676e-17 -2.584114001224112e-17 7.605324723389855e-17 -1.276913883304873e-18 5.917878854319219e-18 3.429030009223344e-20 -2.912212632182418e-18 
-2.337913599839343e-18 -5.208524517302666e-18 1.300768006921747e-17 -7.756887987660062e-20 -2.106848441878638e-18 -1.34511626778432e-18 -1.384213204695224e-17 -3.937560232951003e-18 -3.255986570440475e-18 -7.665561096262904e-19 -5.847419244733985e-19 1.210095653627336e-19 -3.527919910402348e-19 
-5.426112353567799e-17 -2.591251829105751e-17 1.159793546791551e-17 -1.485974553093471e-17 -1.372639851468119e-17 -9.138232530331811e-19 -3.16293870395312e-17 -1.944118971539801e-17 3.63744297098716e-17 -2.546176101368748e-19 -1.649797446058684e-17 -8.498383474546048e-19 8.515410166635501e-20 
-1.891340151089003e-17 -8.370595872661236e-18 7.669469549867153e-18 -3.01124851344872e-18 -3.845940200424153e-18 -1.442418616628595e-18 -1.699404243431814e-17 -6.581024996173223e-18 1.454451603209571e-17 -6.714234025212461e-19 -2.192876014657534e-18 8.586491474796435e-19 -4.380934607429699e-19 
-3.409907497118097e-17 -1.691897711124518e-17 1.403842090925725e-17 -8.921087355593463e-18 -6.547324240719169e-18 -2.065440142285308e-18 -2.641958592106969e-17 -1.083426116550061e-17 1.213416867412103e-17 -1.172256930177337e-18 -9.787125103143697e-18 5.152696220310894e-19 -2.544807641932605e-19 
-9.162374878649976e-17 -5.473292493848363e-17 4.695714229871544e-17 -1.905767570196493e-17 -1.931424729265846e-17 -1.431749021637025e-17 -8.584134719069731e-17 -2.936318522171252e-17 -2.510399065070186e-17 -4.073148291848671e-18 -2.792828755493034e-17 -3.573706302243591e-18 -3.095084610033552e-18 
-2.340807074796687e-17 -1.110352576823399e-17 1.589088919183356e-17 -3.440126562371585e-18 -4.846424592591887e-18 -2.157973132094932e-19 -1.794254425886089e-17 -8.482274589776855e-18 2.34544061672429e-17 3.370579571206236e-19 -6.936348625907411e-18 6.614689521596584e-19 9.474368113333028e-22 
-1.898944117047075e-17 -8.932441468316022e-18 1.212133431922832e-17 -3.487313142246462e-18 -4.535785806547135e-18 8.373958433935279e-19 -1.445891412897174e-17 -6.781553129094006e-18 1.557201202721977e-17 -6.507728250906055e-19 -3.106171137335048e-18 1.263911006428186e-18 1.746862617656064e-19 
-2.22599871363192e-17 -1.523683063993101e-17 2.493517494275669e-17 -3.270617974638132e-18 -3.953370051995056e-18 -3.267096083664576e-18 -2.558960268367196e-17 -8.975471884082333e-18 -1.499243371030226e-17 -1.691929425211419e-18 -6.515300178999109e-18 6.103915093748914e-19 -6.834568960915461e-19 
-8.258099066052401e-16 -1.033012907872698e-15 2.687420446400377e-16 -4.503943222568609e-16 5.967598086044904e-16 -1.888902383044975e-16 -3.400273674487357e-16 -4.619905450042707e-16 -2.975229120749683e-15 -7.67894382362473e-17 -5.67589568831056e-16 -3.562902764691057e-16 -1.932674493285667e-16 
-6.871768896193075e-16 -7.933729360122811e-16 9.585793007162995e-16 -5.164604122647452e-16 9.024160273338981e-16 -3.710419529921229e-16 -9.620506873290651e-16 -5.77114997070975e-16 -3.81599270158705e-15 9.893796546349656e-18 -4.794986233370449e-16 -8.989351221542631e-17 -1.670164719881834e-16 
-7.345681597699e-16 -9.063920396150938e-16 3.546574968047489e-16 -3.499916583426527e-16 3.176933086263933e-16 -1.737204981493287e-16 -4.380819444725186e-16 -4.133452700486721e-16 -1.648856485501425e-15 5.745338135313074e-17 -4.425034341537376e-16 -2.864127371075781e-17 -6.992618308631159e-17 
-1.55659584585925e-16 -1.26392269211352e-15 2.566269769520702e-16 -2.561897455343356e-16 6.259341979790755e-16 -1.437202535158116e-16 -2.992110458866358e-16 -4.827780095623743e-16 -2.73334119103172e-15 -6.614434215231053e-18 -4.45388100847757e-16 -1.326385829575715e-16 -1.404722212293608e-16 
-2.817665459341966e-15 -2.104862040540968e-15 1.72291676439036e-15 -1.375509443875772e-15 2.843963138817946e-16 -7.327034340199344e-16 -1.570205097160994e-15 -1.355765708387557e-15 -1.286230839831668e-15 1.464681944712693e-16 -1.4070440190427e-15 -3.138187269102834e-16 -1.266067256653349e-16 
-7.779321716997328e-16 -6.57835278233546e-16 2.485431637405283e-16 -5.346051157675528e-16 5.672652997608771e-17 -1.292653771006237e-16 -3.885607384302267e-16 -5.360140536591666e-16 -1.343690167691037e-15 -3.191489562197658e-17 -4.978174973460308e-16 -1.637518230336037e-17 -1.014720196107501e-16 
-1.436284474721398e-15 -1.15053873234962e-15 7.872064246535588e-16 -9.324067867153138e-16 9.854870764086939e-17 -1.149098507204555e-16 -4.010495323713625e-16 -7.694291588101771e-16 -2.378982276622687e-15 -1.065527215663167e-16 -8.257673119801281e-16 7.327283044503746e-17 -1.688351514548338e-16 
9.830438656659636e-19 -2.395207093018142e-17 -7.353551673819773e-19 1.273974453330106e-17 2.455184710173158e-17 1.034254542043896e-18 6.081123092008639e-19 -4.581167365358117e-18 -1.075309060001533e-16 8.515172892333845e-19 -7.898386710350063e-18 -2.596420270397162e-18 -5.876910842782009e-18 
3.514863110784258e-18 -9.194960435739854e-18 -8.51528902940594e-18 3.143316986179009e-17 2.560160796984696e-17 8.323030117883052e-18 1.071999809885325e-17 2.533483870513777e-18 -2.042056871471908e-16 -9.618977106880466e-19 -6.641949884045763e-18 1.768443603377468e-18 -1.018465303311876e-17 
-7.390391280693292e-18 -1.906427645854592e-17 9.957359160878124e-18 4.826158708798101e-18 3.195536726592217e-17 -1.351239515093029e-18 -1.047424690767125e-17 -8.513162771645542e-18 -8.820432598776892e-17 4.348193271597915e-19 -3.768187626411441e-18 -9.081401005710048e-18 -4.662622070556361e-18 
-1.255386492163692e-17 -2.103364730899784e-17 5.90717468807548e-18 7.250117641631715e-18 1.249876456711815e-17 1.195938311969469e-17 -6.07269430862616e-18 -1.56001832142584e-17 -7.641454747382216e-17 1.049400142993546e-17 -6.538153007280998e-18 7.131189969852751e-18 2.669851443691463e-18 
1.174815173294293e-17 3.878233196486338e-18 -7.825240053319313e-18 6.582299047811169e-18 8.613806771838277e-18 9.935291043968377e-19 5.341702085286103e-18 -1.781139146536063e-20 -3.699401002595849e-17 3.653815642648497e-18 -8.616699667334825e-19 -4.343354026501878e-18 -2.332320696552905e-18 
5.236462578713783e-18 4.334306165301196e-18 3.041872585788506e-18 1.934474172417402e-18 8.655435203763145e-18 3.179714924234256e-19 -1.14829513662305e-18 -6.443598061004332e-19 -2.307705542651283e-17 -1.890775140132644e-18 1.044609680693401e-18 -1.474871439663823e-18 -2.199686386535929e-18 
3.012220403753112e-18 -9.507399561047332e-19 2.88191815797765e-18 1.990371795614188e-18 1.646753099742954e-17 -4.043528677431966e-19 -4.315678769342386e-18 -1.238547808873617e-18 -4.765878380946278e-17 2.386773159206065e-19 -2.519576489701497e-18 -5.319321957544521e-18 -3.310443435998227e-18 
-1.755111594464322e-16 -4.03725557504763e-16 -6.54063401331897e-17 -1.915364166817954e-17 2.287870719730648e-16 -3.964941707036384e-17 -7.554106045839148e-17 -8.560828601162205e-17 -1.026554766330257e-15 -5.333566739335543e-18 -1.329649079262968e-16 -9.854493381958826e-17 -6.284772177612852e-17 
-8.607046922288748e-17 -7.45036264432945e-17 4.288312587702669e-16 2.900313743196319e-17 -2.139131541966726e-17 -3.754165908895703e-17 -2.002494644714597e-16 -6.506119724947828e-17 -2.188645250826493e-16 -3.367035326215081e-17 -2.226191961285206e-17 1.201540847217532e-17 -1.206797456294296e-17 
-3.098131712958822e-16 -4.564707119373467e-16 1.845869757640317e-16 -6.133393694806755e-17 3.032777009332872e-16 5.017498301487629e-17 -1.157309188242113e-16 -1.527838764800909e-16 -1.561065725769732e-15 -1.290557594146159e-17 -2.200571397532514e-16 -1.005198009180922e-17 -5.681492971687606e-17 
-2.280104957060529e-16 -2.854685381961475e-16 6.200497299825858e-17 3.529349545345814e-17 2.404099879501946e-16 -1.422254223216244e-17 -4.100890784227756e-17 -3.782680882756463e-17 -1.195004240371764e-15 3.509109269023954e-17 -1.303454681187216e-16 -1.301441522644266e-16 -6.177245005332223e-17 
-1.382743769668428e-16 -1.524236166666207e-16 7.949466837339806e-17 -1.326546217399906e-17 1.321615415634476e-16 -1.389175293472505e-17 -5.67355753158273e-17 -3.363212554841895e-17 -4.263177544845154e-16 6.105030057466148e-18 -6.356128498901126e-17 -6.904642456057158e-17 -2.307648469524443e-17 
-8.932725495577883e-17 -1.870083523282976e-16 -7.775527893336365e-18 1.22090461732021e-16 2.141043232085459e-16 3.038474611561144e-17 7.215837665369119e-17 2.501146107705581e-17 -1.050568830987756e-15 1.44814325395645e-17 -1.357199372888829e-16 -6.492039938810069e-17 -4.753132973673243e-17 
-9.609330429862478e-17 -1.227896796849907e-16 5.403059275538675e-17 -9.908123744132617e-18 9.277894690492143e-17 -3.430172213495605e-18 -4.383064225063354e-17 -3.194963909423262e-17 -3.148042880591394e-16 2.115071579215542e-18 -5.236461901923377e-17 -3.479542092128683e-17 -1.440991251179269e-17 
-5.039695181630663e-16 -3.983848525333256e-16 4.407030199745859e-16 -1.557938728643118e-16 2.421397301287516e-16 -5.664562904672088e-17 -2.493520700641738e-16 -1.649681517508087e-16 -1.034764270661504e-15 1.799645550395206e-17 -1.57908603720948e-16 -4.261161552613814e-17 -2.894180429742542e-17 
-1.127239222891359e-16 -5.499638395745456e-17 7.197692391914152e-17 -8.948695693570584e-17 -4.430497207920188e-17 -3.160732762474188e-17 -6.334311127659762e-17 -4.365478097975846e-17 -4.515004843909851e-17 -6.864155663761861e-18 -3.157787619899463e-17 -2.274451555227915e-17 -9.900792929259384e-18 
-1.243446925147859e-17 -5.722841674871506e-18 1.232603995354931e-17 -8.65857668723548e-18 -8.313593217544381e-19 -3.115745853112272e-18 -1.122681032839663e-17 -6.392824108023203e-18 -2.936999555141346e-17 -5.762828453589929e-19 -4.567272380371482e-18 7.959447745756181e-19 -1.4089303569428e-18 
-3.3269606168167e-17 -1.675631294981188e-17 6.300920072269352e-17 -3.065231195981515e-17 -1.76173290438357e-17 -1.008475720865237e-17 -2.207049070128784e-17 -2.303140904856383e-17 -5.585067520456889e-17 -3.840164264079548e-18 -1.523451608762869e-17 -9.96038506522274e-18 -4.902446764552891e-18 
-3.364354979916343e-18 -3.566577390859834e-18 3.828783980383745e-17 -2.906294897627851e-18 -2.486911953283843e-18 -3.344745517148294e-18 -7.281778831806038e-18 -5.951773076170411e-18 -3.683728866364933e-17 -1.258787824773937e-18 -3.516559936891744e-18 -1.863607444679828e-18 -1.320376787117495e-18 
-7.015661436828071e-18 -6.974551991376356e-18 3.195185270891869e-17 2.115046973368152e-18 -9.652976017713181e-20 -2.815695881995235e-18 -1.460671990732916e-17 -4.5265718857279e-18 -2.997836704921134e-17 -2.545633828600757e-18 -2.976431916041826e-18 1.367261404473859e-18 -7.723852960527266e-19 
-9.991721847264111e-18 -9.033297819829265e-18 2.489135698146325e-17 -6.046149218760812e-18 -3.162079877644325e-18 -6.449719536973599e-18 -1.836663421258319e-17 -5.200053131999004e-18 -3.56214871143515e-17 -2.225893362807299e-18 -4.469119898813593e-18 -1.766620906530357e-18 -1.568458303741347e-18 
-1.274653491994808e-17 -1.200620460996049e-17 1.523035322955152e-17 -1.174900322858883e-17 -6.263965512752892e-18 -7.214118244388342e-18 -1.730774664279903e-17 -3.172454478983187e-18 -6.486402671699741e-17 -1.386630838171526e-18 -3.979756000880454e-18 -4.025525220204044e-18 -1.733567641195998e-18 
-8.835972522496504e-17 4.370824473847622e-17 1.381569860968934e-16 4.496211143005924e-18 -4.171178809576698e-17 2.63849852635136e-17 -7.156187588280319e-17 6.070683671976025e-17 -3.639552350635056e-17 -1.063558414834904e-17 5.805493266388662e-17 1.763869451010009e-17 3.062900187282911e-18 
-1.219950285800713e-16 -1.445055427425397e-17 2.352033299326881e-17 -2.199446791534927e-17 -2.738464867455811e-17 1.191220962096867e-17 -5.131677710023668e-17 -3.264214247186158e-17 1.44232713456913e-16 -3.374172647742132e-18 3.813911992163572e-17 1.791124386223457e-17 2.707561885979172e-18 
-2.183926550681877e-16 -2.681983432822511e-17 2.507489922300607e-16 -1.341375287064e-17 -6.39332582381119e-17 3.121087797485058e-17 -1.876047550692938e-16 -1.033993902583509e-17 1.172433049988645e-16 -2.36926783086185e-17 6.035417894558459e-17 3.723481211585339e-17 4.664725958303994e-18 
-5.274254029375568e-17 -9.694161198807933e-18 1.244032719827808e-16 -4.640997418777087e-18 -8.11087987228537e-18 6.404013734350293e-18 -6.121854429656886e-17 -4.536858327298214e-18 1.33835907037986e-18 -1.135188113680991e-17 7.401878941696083e-18 1.54302427578042e-17 1.3954541574711e-18 
-5.107808038652789e-17 -5.150339763397033e-17 4.317417475489417e-17 -1.649289263592506e-18 -4.604711799806559e-17 3.391486159795511e-18 -1.123978252738939e-16 3.319577408081384e-17 -2.230437899399158e-16 4.251535232432881e-18 -1.30438271145431e-17 1.216481272859662e-17 -6.592005375773176e-18 
-1.868183850222238e-17 -9.023452388570734e-18 9.916430421794014e-18 -2.557292709454296e-17 -5.733846934302977e-18 -1.004453845733698e-17 -6.223678794325015e-17 1.802389313130923e-17 -5.140961402110705e-17 -4.200526818694796e-18 -1.257155968692989e-17 1.304801338868353e-17 -1.622727590241538e-18 
1.562839614076044e-17 2.058300459406058e-17 4.916855758664372e-17 1.530849696462581e-18 -4.188066712029379e-18 -7.658089899345542e-18 -4.825901240465235e-17 3.397992716449199e-17 -1.135788256265812e-16 7.218574540948815e-18 -1.058568638669247e-17 2.284234839729978e-17 -5.343394339767069e-19 
-2.78967512139719e-14 -1.254050407760987e-14 1.028500675703513e-14 -9.827871468779169e-15 -2.60947849308296e-15 -6.003583969979811e-15 -2.574376739479612e-14 -6.338928294491079e-15 -8.429202265057298e-15 -2.505701076613611e-15 -7.873174197268393e-15 -3.71625003159256e-16 -1.088738425757847e-15 
-4.948587876916248e-14 -4.732303372928827e-15 2.484314999466488e-14 -8.723796754882192e-15 -7.514544899788274e-15 -1.532726425455746e-15 -3.148792752376842e-14 -2.16021291499023e-15 9.477414135618393e-15 -1.443992060846533e-15 -3.968158273229229e-15 2.773569707640024e-15 -8.732277621989809e-16 
-3.177256331702199e-14 -5.844273216967287e-15 1.113062844911094e-14 -1.106624437506761e-14 -3.209321233311004e-15 1.613930403599843e-15 -1.921666653687264e-14 -7.890990228416703e-15 1.673980746330302e-14 -1.263350573548493e-15 -4.047109437125843e-15 3.337568290719941e-15 6.51407222519056e-16 
-6.452700464723511e-15 -9.355855846796525e-16 1.371538359933112e-14 -9.103891537388543e-16 7.082359148995732e-16 -8.226480350612153e-16 -5.157625874268235e-15 -1.71049298797402e-15 -6.93376484415986e-15 -1.544710132146554e-15 -1.91784976220217e-15 1.393808039045586e-15 -2.894273652726739e-16 
-5.089600177607613e-15 -3.999761093547061e-16 7.044563393407689e-15 -1.287849092650293e-16 1.238325805801118e-17 2.553336455325788e-16 -3.296324688663119e-15 -4.547684537948161e-16 -2.398729521021184e-15 -3.105733996757007e-16 -1.196972367096516e-15 1.498117696061842e-15 4.135420093649888e-17 
-3.881309735602612e-15 -4.75687963375043e-16 1.8468457645966e-15 -1.049788591007247e-15 -8.271680894516038e-16 3.747073254493233e-16 -2.732008664124639e-15 -9.936985362091197e-16 2.170049194106557e-15 -2.473347348656708e-16 4.542627291933719e-16 5.557744595060646e-16 7.074610376510293e-17 
-8.409351960951125e-15 -2.012930310417928e-15 4.048304484629059e-15 -2.316018723233817e-15 -2.048825642111005e-17 -9.241667991644263e-16 -4.449562556397331e-15 -1.654733982569031e-15 8.458147879889499e-16 -6.207052021442007e-16 -2.301709737429121e-15 4.862117717009808e-16 -2.67327171560838e-16 
-3.303468721854077e-17 -1.049553687940026e-16 2.178795778431845e-16 7.425520072569544e-17 -8.988701455984679e-18 3.612267298002812e-17 -1.048599406903522e-16 3.575938615801803e-17 7.499193193475933e-17 -1.772263338464399e-17 9.198518454983241e-18 1.446958966809251e-17 1.552501163981751e-18 
-1.029551088230096e-16 -6.56615227104685e-17 1.245050329743504e-16 1.231650487304096e-17 1.29703319897399e-17 3.434403843982726e-17 -4.71148835790192e-17 -1.930713885788044e-17 3.351201488938596e-17 9.880268173387871e-18 9.942950170629274e-19 1.872923763820321e-17 1.965362330019783e-18 
1.285529996877117e-17 -5.955488884784399e-17 1.929494379845562e-16 1.10063132891184e-16 -1.975379376906799e-17 4.71505979152914e-17 -2.446817649966441e-17 2.289041218235304e-17 -9.615736745198895e-17 -2.250359269286145e-17 1.754888301896316e-17 2.230214849767055e-17 -3.793125337032447e-18 
-2.016428613328741e-16 3.437477471057434e-17 5.98161140514922e-17 -8.761078819756096e-17 6.044635656826449e-17 -1.70187612711332e-17 -1.438085776477649e-16 -2.451537781868861e-17 4.482893771881944e-16 -3.382781982920742e-18 -1.205896093717885e-18 1.398522778763726e-17 -8.759095130028646e-18 
-1.945387546813593e-16 9.22690931275544e-17 1.952329234378774e-16 -4.950992283019178e-17 5.23230700839777e-17 -5.138576770336793e-18 -1.632010186023739e-16 3.825453502225139e-17 4.98834619301202e-16 -3.944643547255167e-18 3.284412971133769e-18 8.751357369167988e-17 -1.520007119863073e-18 
-1.70931998960786e-16 -8.782397213463608e-17 2.709076467814227e-16 1.354035836345304e-17 3.785681751449819e-17 6.29797202667975e-18 -1.24275422685218e-16 6.94207209128219e-18 -5.565237735667754e-17 -3.099718207104644e-17 -2.981211954651873e-17 3.774437526078966e-17 6.414378271409053e-19 
-2.730261517392556e-16 -4.512053480143855e-17 4.933624660781537e-16 1.771028989047053e-17 5.16415643642182e-18 5.110494852747862e-17 -2.285457089582771e-16 -5.037174392650255e-18 4.10229452911407e-16 -6.949139908285645e-17 -1.744065659611436e-17 7.107706925368197e-17 7.42282808993043e-18 
-4.534643117624121e-15 -4.125966537017418e-15 1.089188580325579e-15 -1.586786581015736e-15 2.345375589378247e-16 7.277442780920001e-16 -3.309093341509196e-15 -1.732549265874553e-15 2.412967437615173e-15 -5.30942443494015e-17 -6.608287360730024e-16 8.505911291640394e-16 5.919808713673935e-16 
-9.727247359590859e-17 -9.523457348677745e-17 9.308639774797618e-17 -8.922285156433799e-17 8.941255401333865e-17 9.883971711263547e-17 -1.003815468828854e-16 -5.8373220063216e-17 2.331491871951117e-16 -4.641177389973824e-18 4.53562857722073e-17 1.199281014238561e-16 6.906783291767433e-17 
-6.826403075447816e-16 -9.004443999985084e-16 5.930523774521946e-17 -1.838094276934728e-16 1.855606116401917e-16 6.414125478661075e-17 -4.725242103310291e-16 -4.547474810713121e-16 1.694467820109103e-16 2.642442056177899e-17 -1.332655315537837e-16 1.475114190367759e-16 1.180893910046369e-16 
-6.136656652429954e-16 -5.349187595148064e-16 2.19337526497889e-16 -2.751168547484795e-16 2.522781669858651e-16 2.597350621524175e-16 -2.565466097278174e-16 -2.902303709474399e-16 8.515719785208441e-18 -6.095197917230781e-17 -2.970607083366968e-16 2.918139314201341e-16 1.284870653954355e-16 
-5.859522625924049e-16 -5.423116568234636e-16 1.248477195060441e-16 -2.063028279504086e-16 1.246143311993882e-16 1.46881207944175e-16 -3.448633048754838e-16 -2.608513010970256e-16 -1.97369794744924e-16 -4.236870328331301e-17 -2.615076229799227e-16 1.545961328113167e-16 8.461674960984828e-17 
-6.962349875465895e-16 -1.317022024924444e-15 8.824165693141955e-16 -2.89397858735918e-16 3.523613935292767e-16 4.354284546771664e-16 -1.038288983798693e-15 -5.996352102468271e-16 1.732697544426548e-15 1.84352960229967e-17 5.764875868999596e-17 5.833158733963175e-16 3.240847447960016e-16 
-6.489331383877499e-16 -5.015887374643718e-16 2.961176965797166e-16 -2.314625643381923e-16 1.498531824708483e-16 2.304057387105205e-16 -3.349093550726395e-16 -3.575379660051841e-16 6.542987323375156e-16 3.268998967537095e-17 -7.329546412719031e-17 2.437210862894435e-16 1.75635016757116e-16 
-1.34794181586766e-15 -9.309613666031275e-16 4.83931052204765e-16 -7.316936360976583e-16 5.730084015600505e-16 5.71160685578006e-16 -4.599464027190961e-16 -6.562037018268446e-16 1.160104038047894e-15 8.265792616441103e-18 -5.75784791432293e-16 5.198441063330685e-16 3.103409662736743e-16 
-5.800502346759484e-17 -1.120856372337858e-16 2.318240950000754e-16 -5.593741852021735e-17 1.056853210154483e-16 1.519383493585289e-17 -4.021964957321451e-17 -7.007709076150926e-17 -1.556367872607728e-16 -1.300589102115688e-17 8.125305204698288e-17 5.594457357995458e-17 1.653401676041197e-17 
-1.582979742111073e-16 -6.391789749545694e-18 3.366864639008788e-17 -1.685751430516073e-16 -2.164515461783574e-17 1.683304814765337e-17 -6.027830862008682e-18 -2.757122788052589e-17 1.353840865542707e-16 8.409512688178788e-18 1.263287496448843e-17 3.071939034454025e-17 1.269224220526611e-17 
-3.66983159702494e-18 -2.43888440336319e-17 4.927110175297463e-17 -3.178570757398141e-17 -6.036158486575202e-18 1.135595919921002e-17 -6.974683461153228e-17 -2.531484820667196e-17 1.014304987197051e-16 4.53626387061723e-18 3.914888879329904e-17 1.999036888513297e-17 6.756434053077474e-18 
-9.001450586914992e-17 -4.244161890975648e-17 6.960925866432036e-17 -1.337935314911233e-16 -3.595997340200235e-17 -1.729362412845433e-17 -3.106213767392878e-17 -4.374695551027911e-17 -5.77009798205676e-17 -1.578377838506011e-17 3.667220007474829e-17 -6.132818966277765e-18 -6.720843968620906e-18 
-1.139132902250231e-16 -8.388661434142327e-17 5.295861422804887e-17 -2.034333362804894e-16 -3.111509646312218e-17 -2.506648428935784e-17 -5.439896319895286e-17 -5.259722213931042e-17 -5.130293396406311e-17 -2.227702274617737e-17 6.190306902381938e-17 4.19917658603844e-18 -7.078444058712784e-18 
-7.985464484622302e-17 1.529422257266146e-17 4.812889635303145e-17 -1.056886395345214e-16 -5.544934340474555e-18 2.111279954567447e-17 4.667839354110024e-17 -8.87993370428511e-18 -1.145268804433473e-17 -1.350146263937983e-17 -1.698950065520274e-17 2.656741247718976e-17 8.835814328676945e-18 
-8.563115065525311e-17 -1.733050671850019e-17 7.196180018564561e-17 -9.439632435117639e-17 -4.084274950841013e-19 1.455845923054783e-17 1.489653795793231e-17 -2.170402909386154e-17 -2.843769110566715e-17 -2.963891259171809e-18 1.631785604109647e-17 2.244857415844516e-17 9.551176440238507e-18 
-7.117769122463839e-16 -8.669238077648768e-16 3.921488710363991e-16 -3.391483157044083e-16 1.442543352965071e-17 2.197995214944406e-16 -7.732951065694328e-16 -5.242961882947642e-16 9.163875638769361e-16 6.474017351133288e-17 -2.046556441408871e-16 2.137617661232038e-16 1.459274213927837e-16 
-1.184400535016423e-15 -6.303284185012507e-16 4.282652925688432e-16 -6.009370633295158e-16 -5.783947082473578e-17 4.110989274878954e-16 -9.354818936617411e-16 -4.08157906410028e-16 1.08627283509257e-15 -8.6647369549688e-18 -2.759364159097254e-17 3.15048051087167e-16 2.258037503468549e-16 
-3.164137709135335e-16 -3.082809202324707e-17 1.429066140314663e-16 -1.021325636264171e-16 -3.657192733198522e-17 1.420975111466295e-16 -1.794423832152742e-16 -8.6834662854374e-17 6.60611248654794e-16 9.518776898133328e-17 1.711543395906424e-16 9.268205200535421e-17 7.540333845400105e-17 
-3.626486767530386e-16 -5.003182308583714e-16 4.062404588071521e-16 -1.878385973398742e-16 5.294401256418069e-17 1.858029240706621e-16 -6.218855168322011e-16 -2.466705289908197e-16 8.014195416082732e-16 -2.458981464697163e-18 9.034598302322204e-17 2.106398138123835e-16 1.247832999309902e-16 
-2.455932110186293e-16 -1.778509488907814e-16 1.578556795742365e-16 -1.761467606592056e-16 7.943913446201891e-17 1.5491071340911e-16 -1.816682609160344e-16 -1.722344265265432e-16 2.120153081379316e-16 3.199302077983485e-17 1.137086176304191e-17 1.324301065283849e-16 7.832792788894554e-17 
-2.497051213901942e-16 -2.712815554521271e-16 1.357071081103936e-16 -1.167542430947094e-16 4.561498802212009e-17 9.348962040410864e-17 -2.345856866666029e-16 -1.352110203130871e-16 2.267248334675567e-16 2.082710246421986e-17 4.197514565366036e-18 8.377923835486214e-17 6.078171218170999e-17 
-3.515223682821016e-16 -2.648068198622776e-16 1.949905918283552e-16 -1.757041244866827e-16 5.606603631565855e-17 1.831542439117797e-16 -2.135845443618319e-16 -2.165725861588655e-16 4.021516910293339e-16 5.751155514025788e-17 1.346917674113448e-17 1.547639995196815e-16 1.021802393959819e-16 
6.23627002780233e-15 3.760894937454394e-15 -8.390263490645008e-16 7.050987836558008e-15 -1.389732846638834e-15 9.976861302712387e-16 1.540977535387643e-15 3.616912514732594e-15 -1.325033698438275e-14 4.400272647742296e-16 3.844712407989794e-15 1.066536876490435e-15 -4.203323219841603e-17 
2.230897266913584e-14 3.438540124340991e-15 -1.381046452177571e-15 1.130514135444023e-14 -1.771324680643117e-15 2.058983310395595e-15 6.866050385028638e-15 5.358628819840061e-15 -4.346713446303533e-14 5.186703829361675e-16 7.39467771591082e-15 3.512764839325555e-15 8.481381591919408e-17 
4.180544486358134e-15 2.645898366327873e-15 -2.169230250442319e-15 2.111387701254989e-15 -1.145703470102573e-15 5.503086622948705e-16 1.223347309753178e-15 3.467762210066924e-15 -6.90745878763591e-15 3.535311535136689e-16 3.125206636716039e-15 7.825404719019167e-16 5.265306935731979e-17 
2.818436147366139e-15 5.856491270282328e-15 -1.139860254969092e-15 6.820111179424248e-16 -1.069591614796999e-15 7.880092243466863e-16 8.050539916311613e-16 1.26799519064962e-15 1.646699288008177e-16 1.066130559870957e-16 1.694835360509613e-15 8.682003266815896e-16 4.184518348767819e-17 
4.524686457015193e-15 1.993056206112441e-15 -9.897972632826344e-16 3.225516894180695e-15 -1.585710782148297e-15 3.731911142285399e-16 5.611857410610322e-16 2.298124051947295e-15 -6.03087432124532e-15 3.898806218678548e-16 1.782329362742086e-15 2.853587120723089e-16 -1.904207083234678e-16 
1.028862573775919e-15 1.327696610694596e-15 -1.136648849240101e-15 1.290198331936971e-15 -1.732994209572907e-15 1.256175173836403e-15 7.639954000325889e-16 4.137872891340643e-16 -2.17575416229895e-15 4.809858152800236e-16 2.156985340317818e-15 1.454534048534665e-15 1.66021400514415e-16 
2.087675215871967e-15 -3.469413078976473e-15 6.200481580931287e-16 -9.843569507379546e-16 1.768419388118602e-16 1.806257183099715e-15 2.935239930680303e-15 -2.854752547659206e-15 -6.507665548140961e-15 5.017371950818234e-16 1.354724515955977e-15 3.875502688172845e-15 6.205704109051628e-16 
-2.020355072557339e-16 -4.042087933080718e-16 -1.653717496155976e-17 1.134786590968218e-16 9.873919978614116e-17 1.692282438453989e-17 -2.620973863904605e-16 -8.780095027753441e-17 -1.157338556668241e-15 -1.563104053090851e-17 -1.649682538778529e-16 7.231166273049832e-18 -1.72202109480364e-17 
-2.023914436556349e-16 -3.547201201484057e-16 2.963327905511196e-17 7.406780227095484e-17 4.695849286902376e-17 1.696772292398349e-17 -1.980625354445396e-16 -8.52756343344457e-17 -5.342024967017817e-16 -5.630849034650255e-18 -1.02527264156215e-16 4.384449966619668e-18 5.514420633487064e-18 
-2.110886943785325e-16 -2.461565781541481e-16 5.558695449404663e-17 6.578212566109289e-17 3.046504084617702e-17 3.401393696403782e-17 -2.556305419766156e-16 -1.078825687262859e-16 -6.185511273251466e-16 -7.121959103669289e-17 -1.191928845094131e-16 4.072028939987843e-17 2.573037451861301e-18 
-2.517591331440807e-16 -4.216451005189571e-16 5.900602251026966e-17 9.590534141461367e-17 8.247513019720095e-17 1.96875506847522e-17 -2.135996307285809e-16 -1.210392207237004e-16 -6.430317635429977e-16 -2.659805915671081e-17 -1.25910483767526e-16 -4.951487466556801e-18 6.575257637043867e-18 
-4.665021130681868e-17 -2.394131574593418e-16 -2.592152084854857e-17 1.110922412048563e-16 9.4008990870626e-17 -1.944731639771432e-17 -1.249714330659204e-16 -4.499498635105044e-17 -7.853373333299644e-16 -1.179347613545906e-17 -8.477184183736341e-17 -2.76965289937464e-17 -2.199196385007061e-17 
-2.135624798229107e-16 -3.543450626814439e-16 -3.262672018106544e-17 1.445567444912524e-16 8.83164231981598e-17 -3.286490068240174e-17 -2.058392747066999e-16 -7.69064519967798e-17 -1.054931847316822e-15 -8.043298736620992e-17 -1.626679986861501e-16 -2.704687820595258e-17 -3.494193960166883e-17 
-1.229878532780856e-16 -1.444598277143493e-16 3.394251887800236e-17 2.11296436539934e-17 2.987573395475193e-17 1.345465731008227e-17 -1.149479638897503e-16 -6.005036008877486e-17 -3.145741416762473e-16 -4.271038840386502e-17 -7.350975606228053e-17 3.640695997310139e-17 7.052396423218047e-18 
-5.343685454595911e-17 -1.264696221066919e-16 4.610586174236594e-16 -1.5419006134831e-16 1.172330075344709e-16 1.201487987439901e-16 3.000014834753694e-17 -1.24517988815107e-16 5.891458227947977e-16 -2.628823628705417e-17 -1.68907056715649e-16 1.010580909399271e-16 4.35521860367758e-17 
4.118922928190688e-16 -1.004613752588809e-16 8.146559285519781e-16 -9.780504230303763e-16 6.518356020272375e-16 3.779383246826234e-16 3.975089643469487e-16 -5.482008813034028e-16 3.454792808166963e-15 1.648467841907589e-16 -7.377425054239937e-16 3.934510501777299e-16 1.484216721759002e-16 
-3.6683633937625e-16 -1.265853576638252e-15 1.935653816223663e-15 -9.541230990826083e-16 6.490728860140914e-16 8.962054995648017e-16 9.866927293472208e-17 -1.426614622506863e-15 6.477148397202312e-15 3.262444103284954e-16 -2.167896343068186e-15 5.598405886062024e-16 3.167156578881419e-16 
5.348655476988058e-18 2.969843090730983e-16 4.40305514876462e-16 -8.736518266526292e-16 7.643654470905712e-16 3.408350347940641e-16 4.077838252149254e-16 -4.380801301344736e-16 1.856326680425424e-15 1.75383264658827e-16 -2.647244898900765e-16 3.501308271915164e-16 1.315989114778896e-16 
1.587955041146098e-16 -6.020127089697301e-16 5.72549425008817e-17 -2.88375783248963e-16 1.50368457756983e-16 6.780901203819382e-17 -2.287208862773825e-16 -2.51472068885221e-16 1.23508952052938e-15 5.284297953674826e-18 -3.851513397967633e-16 -1.862434014792075e-17 3.207260463647525e-17 
1.729416459244405e-17 -2.297213268002234e-16 8.198521505401086e-16 -2.554329303627955e-16 2.964880940260213e-16 2.655364358832115e-16 1.285476554917346e-16 -3.110146110928891e-16 1.502331345710522e-15 6.533480538535384e-17 -4.499210844462291e-16 2.100924585614959e-16 8.479244750277292e-17 
-2.15061760790718e-16 8.779558244288541e-17 1.513116824564259e-16 -4.380769682902078e-16 2.762161810464277e-16 2.869117960593565e-16 1.33594987435486e-16 -1.898846685420877e-16 1.112333533608486e-15 2.774096837737952e-17 -1.02492471770927e-16 2.526926346320363e-16 1.430959215378233e-16 
3.791858886817369e-16 -5.176114257990729e-16 1.036917401454056e-15 -3.561668708403785e-16 3.965208341117182e-16 3.434545755587676e-16 -2.649005816563335e-16 -4.816453630603704e-16 1.962425440613276e-15 4.135406815793088e-17 -4.927632836706599e-16 3.045674943965124e-16 1.343064994556773e-16 
1.534801582478413e-15 4.984586387466939e-16 8.892763467992838e-17 5.292071442536563e-16 -9.734719427551863e-17 1.774024066373053e-16 8.254413043408316e-17 7.355613446632175e-16 -1.360366982688252e-15 -4.059423850423499e-17 5.445290503682221e-16 6.835348023750823e-17 9.726442753455569e-18 
-5.517732475399991e-17 1.972035366464561e-16 -6.952493656323985e-17 -7.82159499464105e-17 2.462139608434362e-18 2.229169515459235e-17 -4.817777887183511e-17 2.324820489900493e-17 9.963969032019334e-17 -2.203623555855313e-18 -3.894127704671786e-17 5.807610130671052e-18 5.391305864528401e-18 
1.404375900983779e-16 3.142579895750585e-16 6.3819386023922e-17 1.037954977174362e-16 1.305661694551636e-17 7.438874262021656e-17 5.565046338902912e-17 1.398570336136668e-16 -7.020344970160586e-17 -2.154325028032666e-17 3.066598104329263e-17 6.674687139642075e-17 1.825796075587382e-17 
-1.791142697721391e-16 -1.413833576699892e-16 -5.982736510461958e-17 -5.616756283299349e-16 -2.551798769006429e-16 -1.120080549204954e-16 -1.513611078353945e-16 -1.283492093338452e-16 2.657432081737546e-17 -6.847748308697619e-17 -4.979685026543353e-17 -1.29371876957924e-16 -6.912882272850074e-17 
-2.22124097201459e-17 1.355639443129752e-16 -3.772449024892582e-17 -6.799315701373458e-17 -4.329125992771234e-17 4.471109683169089e-17 3.21544983326158e-17 6.453151439080555e-17 -1.229846116055056e-17 6.478131053724622e-18 1.262546508684521e-17 3.505894160022021e-17 5.881212836069494e-18 
-1.005530059947236e-16 -5.392122403719122e-17 -5.467235786963172e-17 -9.810802442084457e-17 -8.433286032993236e-17 2.339305396744452e-17 -8.300357289625584e-17 -1.71858654921232e-17 -1.547522447286216e-16 6.738297330812608e-17 -2.220039214794534e-17 -9.224757673120161e-18 -2.219975837860193e-18 
-5.890376136016559e-17 1.253539064314111e-15 8.861605325150444e-17 4.576412738249002e-19 2.632864672443735e-17 1.76240430516027e-16 -1.593003452375488e-16 5.716624262453961e-16 4.211064622638745e-16 6.800971160248055e-17 1.162204180457573e-16 2.329355017810923e-16 6.566532008437758e-17 
2.000381364210904e-16 -2.243205525025154e-16 -9.528477428213331e-17 -3.696879986355205e-17 2.517694399078517e-17 1.492614613352179e-16 1.959485208728499e-16 -1.797207779556528e-16 6.740579728765751e-16 1.306640857113898e-16 -3.039685186210723e-17 1.523145494051175e-16 5.35092311894324e-17 
5.912063212036115e-16 -2.073814620871122e-16 2.864365435730374e-16 1.606955829100501e-16 7.850571130769214e-17 1.069113763241975e-16 -1.550164514508453e-16 -1.378737401404326e-16 6.649697787817352e-16 3.082106681483541e-17 1.105234228444713e-16 1.113604866005614e-16 3.889818272715239e-17 
3.133639069723127e-16 -6.05303105909101e-17 5.790615567689135e-17 1.84536877727774e-16 1.089413764764885e-16 9.997514822682063e-17 5.008664818321582e-18 -1.180058306959717e-16 9.761698179801507e-16 2.529787664570378e-17 2.126244259239585e-16 1.176252358543176e-16 4.58553714687376e-17 
4.746037524332367e-16 -4.181051419665571e-16 3.657287408715694e-16 5.419510465642092e-16 3.97315989343112e-16 2.397214408690929e-16 3.994771983856318e-17 -3.259244134835587e-16 1.404789822601757e-15 5.213242853258937e-17 4.4555390640258e-16 3.329103632920579e-16 1.287730077291087e-16 
3.713929609706768e-16 -5.95123043055473e-16 8.079731852657272e-16 3.806161746325406e-16 5.829596630668848e-16 4.061448700308722e-16 -2.155503255622237e-16 -2.916991868327811e-16 1.915305679631545e-15 4.018277077236789e-17 2.725382529568602e-16 4.990505581030255e-16 2.412727965551835e-16 
6.849709695307501e-16 -9.979784766541114e-17 4.630961824930648e-16 3.44347423051782e-16 3.325829854398075e-16 1.762742888204259e-16 3.788680913843055e-17 -4.058657768350354e-17 3.503244971271966e-16 -2.816392597816951e-17 1.751218238189146e-16 2.01888941579625e-16 6.343328892524246e-17 
1.244776881262133e-15 5.735932831591168e-17 4.309005382477103e-16 8.105320959349192e-16 5.502210860649217e-16 4.471420299188452e-16 4.808283915645187e-16 4.920815430729809e-17 3.973130332338017e-16 1.306276783238318e-16 6.367980328612999e-16 4.158268778986968e-16 2.01765463186191e-16 
-3.050687777961204e-14 -8.580019272974221e-14 -1.061674580753328e-14 -4.983298146021132e-14 -6.688383394767684e-14 -4.957192648754967e-14 -7.561456713161674e-14 4.533839618368747e-15 2.28589817069823e-14 -4.850445368623158e-14 -3.626654312993684e-15 -3.734540720128261e-14 -1.686542218738391e-14 
4.564399254147219e-14 -2.807416131435768e-14 -4.216211228471186e-15 4.120132023641861e-14 1.088679971194793e-14 -2.073298502828646e-14 -9.532659758842854e-15 3.019399377648648e-14 2.359327829530489e-15 -3.281783938607174e-14 1.610258288712736e-14 -9.249419934561816e-15 -1.120324357105074e-14 
3.579931134296368e-14 1.614350764606987e-15 2.303458547053927e-14 3.792693674525887e-14 1.536819963811573e-14 5.367050355618892e-15 6.992050312510424e-15 8.744486419918545e-15 4.131719843994185e-15 -1.192892536241578e-15 1.037077863481951e-14 8.469334971047417e-15 -1.174297746013124e-15 
3.011206324574556e-14 1.546849304297952e-14 2.819145421279032e-14 4.75185955129008e-14 8.553173341440222e-15 1.455092714912949e-14 6.469447230965178e-14 5.626149004926977e-15 -7.079894186575898e-14 1.069728649434379e-14 -1.079637743216573e-15 1.089617957079742e-14 -6.186636498716241e-15 
-3.691458650289549e-14 -5.96891425782618e-14 4.535672485241069e-14 -2.344082603848429e-14 2.410593678807158e-14 -1.233573826963623e-14 -3.470808234416111e-14 -3.66431090265373e-14 -2.710069403601659e-14 -1.394827232234937e-14 -2.167490945153393e-14 -4.785936172488521e-15 -8.962722752356657e-15 
-3.4808859952963e-14 -8.329939387962162e-15 4.235595294073943e-15 -2.160499362942313e-14 3.521727167831221e-15 -7.859561024885311e-16 -1.936096002441692e-14 9.472188870280687e-16 2.818352861848864e-14 8.282823801811518e-16 -5.295532145482826e-15 5.681116754053197e-15 6.953932436317315e-16 
-1.813118929755599e-14 -1.443207885611925e-14 7.641080644365814e-15 -3.147394967606752e-15 1.225867368244481e-14 -1.930797294332348e-14 -1.223735639178137e-14 -8.994100234363551e-15 5.927359983061945e-14 -1.645726969473966e-14 -1.495639260344393e-14 -3.360256079621291e-15 -8.40928368827605e-15 
1.156521935497492e-15 -2.59861754057528e-16 8.891878054376699e-16 1.18428114775014e-15 3.748418215594449e-16 5.057920575858522e-16 -6.771013336126565e-16 -4.843177446900409e-17 -6.034752970009318e-16 -7.702669846217078e-17 1.668613451191908e-15 5.157111305986543e-16 2.24209439056203e-16 
-1.398820224937266e-15 1.533682687677225e-16 2.029049780592887e-15 1.03957098107845e-15 2.315206567038141e-16 1.062829453147051e-15 -1.095985339829852e-15 3.539025148682861e-16 7.135528575668608e-15 -2.999222961843388e-16 3.240431791422852e-15 1.267795947564273e-15 6.578924767198616e-16 
6.961722393148696e-15 -4.557436626362251e-17 2.278009877808442e-15 4.58450320141809e-15 -1.294698305188755e-15 -5.996814588239861e-16 -5.040201127358158e-16 1.792197869241081e-15 -7.730062752996883e-15 -8.224621744133672e-16 4.398590754480015e-15 -9.882072058863677e-17 -3.872301242200156e-16 
-4.906648065091204e-16 6.28845850186156e-16 1.274953633665632e-16 4.521656478021223e-16 2.25806524409438e-16 6.935547590908621e-17 -2.292989229717984e-15 -9.515473882280903e-16 9.100519718765428e-15 -8.648271640916536e-18 3.129056246734685e-15 1.086551976216731e-15 4.016701517155237e-16 
-3.953183594927457e-16 -6.61868031518617e-16 2.505570544632004e-16 6.336712638343395e-16 9.72033083739349e-16 1.942511233840656e-16 -5.126393277001947e-16 -1.201538967630215e-15 2.14008072720573e-15 -3.103112007901473e-16 3.831806111665907e-15 1.71746893208218e-15 4.688344770353278e-16 
1.818253730480597e-15 3.107125451172705e-16 2.5132043211115e-15 1.972465467355247e-15 1.293489653074145e-16 1.905961936848665e-16 3.557041039388348e-16 4.961801654721396e-16 -4.607190639643064e-15 -1.550762731504625e-16 9.368336133985497e-16 3.213304151085932e-16 4.274144104553049e-17 
6.048351605385015e-16 -2.315476965868904e-16 3.123426716457274e-16 1.478905811206899e-15 7.023420182802934e-16 4.250234021580809e-17 -9.160222453589956e-16 -2.704406948562174e-16 4.983438728865309e-15 -2.374941708364276e-16 3.56969681032892e-15 9.41600591716716e-16 2.507807867506339e-16 
-2.402011135029481e-18 -1.237178712676076e-17 -7.627565161177525e-18 -3.0797017317569e-17 2.51768171820654e-17 2.264122031102344e-18 -2.340032928230344e-17 -5.093146946704951e-18 3.187448897185021e-17 -1.623254037763303e-18 -5.271507281814161e-18 1.765739727674205e-18 1.270511211828206e-18 
1.234858889626144e-18 6.916815749770623e-18 -5.354024028383045e-18 -1.099566719893661e-17 1.162501242928278e-17 -5.625432775202651e-18 -2.287332048120647e-18 -1.63140470140242e-18 -3.211637965794407e-18 -2.855675815104826e-18 5.890644428948156e-18 -2.274522626160986e-18 1.379568760678558e-19 
3.153497636891261e-18 6.588186087340684e-19 -4.622113700588587e-18 -1.016070387541292e-17 1.25034467930115e-17 -1.071705417890218e-18 6.21289871511783e-19 -3.296028128789645e-19 -4.683464924061205e-18 -9.498865068356004e-19 1.968458413607318e-18 1.805635853726586e-18 4.984701627909714e-19 
-3.180169603658204e-17 -1.706671696560423e-17 9.840910942778286e-18 -4.528338493778488e-17 3.580512573162061e-17 9.018121231211497e-18 1.034297948300751e-18 -1.914421640762947e-17 -1.976076670459169e-17 -4.933754198839435e-19 -6.912966831611993e-18 1.137339130502123e-17 5.315773281779071e-18 
-2.346322198279269e-18 -3.156037813687812e-18 2.921621782687473e-18 -1.246095989961028e-17 1.884429917761757e-17 3.817336744026828e-18 3.704963225654287e-18 -3.585422131736876e-18 1.097567745557611e-18 6.858407529129939e-19 4.786381693898625e-19 5.667563401722899e-18 2.238642655354463e-18 
-8.992962690070562e-19 -3.321317143890222e-18 -7.928286467929294e-19 -5.696370668500694e-18 1.162777829340541e-17 -1.350934945327735e-18 -9.820865954218741e-19 2.935355457395223e-19 -4.153956568648992e-18 -7.810847603170317e-19 1.519074261994416e-18 -9.960152171624721e-19 -1.541795224778003e-19 
4.117237941974948e-19 -4.029757235595126e-18 6.301251748240929e-18 -8.167733252344439e-18 1.614831143070492e-17 6.490199670183585e-18 4.078546970423418e-18 -3.668553683762495e-18 1.15823151932051e-17 1.320573552192291e-18 -7.501289060162474e-19 6.794098631124024e-18 2.499397514324124e-18 
-6.327962092542851e-18 -2.053186991098563e-18 8.709677746227849e-18 -1.223713613780477e-17 2.142990204223501e-17 8.334501744132516e-18 2.136063291520361e-18 -4.651978176733385e-18 1.716045680154677e-17 1.65210995030678e-18 -1.109709335624036e-18 1.020727397061989e-17 3.962187289862023e-18 
-6.797356444836954e-18 -3.51130527366479e-18 -6.268204888989639e-18 -9.210913541262887e-18 6.007875811741778e-18 -6.358913958135769e-18 -7.299731896191581e-18 -3.140827641695332e-18 1.028195329189155e-17 -3.143305364914183e-18 1.196690633555209e-18 -6.427686862976857e-18 -3.191534292929514e-19 
-1.063554804009661e-17 -1.348585074402134e-17 -1.00264257492124e-17 -8.1383766099553e-18 2.452182307140966e-18 -5.601033061899041e-18 -1.239380709605802e-18 -1.783001742858654e-18 -2.926319302899901e-17 -3.134681494171777e-18 -7.416011262730083e-18 -1.209121572400463e-17 -2.143531528725743e-18 
-1.036964728797921e-17 -2.201597775103396e-17 -1.207840530597737e-17 -2.909651547489145e-18 9.106394956231412e-18 -7.618532018361443e-18 -7.29913830705947e-18 2.646184781608143e-19 -2.83311735418972e-17 1.365426962278394e-19 -7.453423230050392e-18 -1.843047301723345e-17 -2.412925246845679e-18 
-2.198656318709436e-17 1.814655387056731e-17 -1.133601281869418e-17 -1.661627912940717e-17 -5.468139034357852e-18 -1.031201595770522e-17 -5.763560610700903e-18 -2.540978244195202e-18 -3.622305143863098e-18 -7.594293355466439e-18 -5.986149548286189e-18 -1.228936208870918e-17 -1.357244100912218e-18 
-2.330854920596713e-17 -5.65246844726698e-17 -2.188290512843629e-17 2.457982804855095e-18 5.444172047062219e-18 -1.310953318282086e-17 -2.102039319849617e-17 -4.668341049439978e-18 -1.098647944835158e-16 -2.530731105547898e-18 -1.579107311936814e-17 -1.675879825812296e-17 -7.127859479415196e-18 
-7.87214075852711e-18 -2.22967362967304e-17 -3.689646369411037e-18 -2.707606783634525e-18 1.795098885414061e-17 -4.360186726147393e-18 -7.092234410764993e-18 -4.330526665303197e-18 -4.095573469397235e-17 -3.249506985047867e-18 -8.073998795169812e-18 -1.284288385717182e-17 -3.251417837538283e-18 
-1.794739278483855e-17 -1.73368231917346e-17 -6.992100081509552e-18 -1.258056568286953e-17 5.190887346838977e-18 -5.073361674136472e-18 -7.046995909102804e-18 -4.481671543089797e-18 -5.488260166521802e-17 -3.33151834992296e-18 -1.267502216938335e-17 -1.469011614974923e-17 -3.370324860992993e-18 
-6.261672238716257e-18 -8.220697180382923e-18 -4.840672412179414e-18 -1.871346826250323e-17 2.181381955922997e-17 -7.28874905095381e-18 -1.107959249778266e-17 -7.477118215099645e-18 -2.493826661081934e-17 -3.455856212383197e-18 6.22235613267524e-18 -4.70015991026722e-18 -8.146245697689353e-19 
-2.51288799296233e-17 -1.869741045990421e-17 1.076043814952948e-17 -3.109148163911644e-17 1.543788240808939e-17 1.411647851673806e-17 4.058378926258508e-18 -1.319358211157003e-17 2.456248660658967e-17 2.318783882635703e-18 -1.798734516432939e-17 1.087627294630295e-17 4.596455836006455e-18 
-2.045499015317192e-17 -7.954250793772301e-18 1.783678176716311e-17 -3.826351733098651e-17 4.02206523133721e-17 1.704482071420988e-17 1.025935093214948e-17 -1.609333562716629e-17 4.694696796392659e-17 3.866100798280459e-18 -1.19495757643732e-17 1.741857346093958e-17 5.818936416204631e-18 
-2.480311467765142e-17 -2.874825127689322e-17 1.795811839723125e-17 -1.731667195535613e-17 2.015585650483476e-17 8.712744231656271e-18 -1.555647562539046e-17 -1.696076208488467e-17 4.81206385367349e-17 3.37382441963298e-18 -6.50477487953698e-18 1.185672693235349e-17 4.646364030634889e-18 
-1.015445787915848e-17 -1.523589260942478e-18 1.425699257271725e-17 -3.23231261890511e-17 3.173661412822648e-17 8.391625973094496e-18 9.662235268132234e-18 -1.23240426296559e-17 -7.182356772084736e-18 6.204253751856557e-19 3.932478291473268e-18 1.617844564739112e-17 5.134697937052629e-18 
-1.331143100034701e-17 -1.473835137087462e-17 1.132889271120129e-17 -6.408034044135816e-18 1.504129471295134e-17 5.832706913048114e-18 2.279275473400738e-18 -8.379096270948387e-18 -1.297163182767904e-17 3.794349797238176e-18 -3.836614755289017e-18 6.172583275565836e-18 1.862292499295917e-18 
-2.524749766199178e-17 -2.373242395685815e-17 3.334089508021379e-18 -2.599538422343134e-17 3.673166767160628e-17 -1.112964504537722e-18 -6.370132720254171e-18 -1.212683885056979e-17 -3.807026259551036e-18 -3.069049210096466e-18 -6.216911953307898e-18 -1.133099340954516e-18 8.310461889030801e-19 
-2.092864463389396e-16 -1.111749163865432e-16 -6.59617429242632e-17 -1.5651463985687e-16 7.116651096180941e-17 -4.472821519198204e-17 -1.072009475209862e-16 -1.020362362451988e-16 -4.235163270335115e-16 4.449660901045965e-18 -1.389945986881536e-16 -1.058863056006766e-16 -2.429808770106536e-17 
-1.69364438855695e-16 3.450337966821215e-18 -1.48666942596796e-16 -1.902163044887992e-16 1.220468888312605e-16 -7.405505274131943e-17 -1.359030386297759e-16 -6.4952589203917e-17 -2.161218009925152e-16 8.980020060847482e-19 -1.397355361638566e-16 -1.210221116763196e-16 -2.416958142233893e-17 
-5.25392509566457e-16 -1.267852339228756e-16 -7.506091380822849e-17 -5.201346229852067e-16 -2.685406265284102e-17 -1.122507427730211e-16 -2.711766456372747e-16 -2.46670908858495e-16 -4.443038950924274e-17 -3.504411364315811e-17 -2.508734092678146e-16 -7.989699892428945e-17 -5.346920563330066e-17 
-1.791915956854345e-16 -8.605214363206227e-17 -1.561854724351064e-17 -1.770551575783228e-16 2.080418042413565e-17 -2.516473464131422e-17 -6.301770629769927e-17 -5.482992368928797e-17 -2.288254357794221e-16 -8.264367845071369e-18 -8.215583506880532e-17 -6.420325435667895e-17 -1.231193846230136e-17 
-1.860053850530376e-16 4.312476280050416e-18 -7.099840569824533e-17 -3.197476305694965e-16 1.516404766823395e-16 -7.632818402192898e-17 -1.304460781522639e-16 -5.206990167667284e-17 -1.983882554910733e-16 -2.81887820271547e-17 -6.120365594185267e-17 -5.042226383931758e-17 -1.51836990144279e-17 
-9.459449846863717e-17 -9.493574200529606e-17 -6.257715785582542e-17 -6.312756243983519e-17 6.117260642560138e-17 -4.18458621576964e-17 -4.732847037341388e-17 -4.624795854234082e-17 -2.28820877707259e-16 7.39739886180147e-18 -6.36751438219857e-17 -7.101632738391794e-17 -1.780013154340106e-17 
-8.900402703984696e-17 -3.978261656945211e-17 -1.599501605739874e-16 -9.660976224693161e-17 7.243342046756078e-17 -3.642149154275819e-17 -6.178388323364992e-17 -3.191452099535186e-17 -2.078799444914504e-16 8.69658779986984e-19 -6.864615505654413e-17 -1.241202328969648e-16 -1.664045073498758e-17 
-5.769379729918592e-18 -2.250441000953714e-17 -3.097766824097718e-18 8.418588641686068e-18 1.946869595282752e-17 -2.566180630378515e-18 -2.383647688345338e-18 -5.247017068741641e-20 -1.039999822706362e-16 -3.984557966676231e-19 -1.036573580561326e-17 -1.208602617399596e-17 -6.372977382362597e-18 
-1.135703371230466e-17 -4.2005352218791e-17 -1.783395708320195e-17 1.14855386637614e-17 3.214224914798298e-17 -5.087708761013889e-18 -6.789530265921239e-18 -5.813488062349529e-18 -1.848864965530516e-16 -1.183743118931593e-19 -9.358552519364282e-18 -1.664035364755074e-17 -1.173130676998776e-17 
-3.31728155399785e-18 -2.224841305598265e-17 -1.765056961553702e-20 4.681360728684595e-18 2.120340271579075e-17 2.091668062539647e-18 -3.366840635896273e-18 -6.802795006484322e-18 -8.047046911556264e-17 -1.039682792383738e-19 -1.894502524845663e-18 -1.073511533075944e-18 -4.104114209614479e-18 
7.284803508092362e-19 -6.220784458352586e-18 -4.106855933540737e-18 3.323421628375698e-18 4.461910453699397e-18 -8.835243835752491e-19 -1.904005066420391e-18 4.462405285622692e-19 -4.326774211794871e-17 1.700771790824824e-18 -2.903109275664329e-18 -2.419215650417291e-18 -1.963615658889682e-18 
-1.292243488914708e-18 -8.46205492358117e-18 -9.151844814636106e-18 1.240555259378173e-18 1.273492088317768e-17 -5.214697104086239e-18 -7.23962321009281e-18 -4.244546371420209e-18 -7.323414285326349e-17 -1.271078656846129e-18 -5.42013066919356e-18 -8.065834973496749e-18 -5.744905606800394e-18 
-9.024416578597309e-18 -4.544467464445778e-17 -2.063500336033313e-17 7.147399905442565e-18 1.82930777289162e-17 -1.3528789188506e-17 -8.821643709748499e-18 -2.1719394749238e-18 -1.315937831951305e-16 -1.254189153567667e-18 -1.298776571329483e-17 -2.331014019535769e-17 -9.200698156135437e-18 
-5.900489868032089e-18 -3.105593136513466e-17 -1.486707245285847e-17 -3.128291215003647e-18 4.674467226015091e-18 -1.226472781951573e-17 -1.479027121228299e-17 -4.231388195884468e-18 -7.412214128448393e-17 -3.005444195638141e-18 -3.990996770617452e-18 -1.269627609937672e-17 -5.93767990195372e-18 
3.489895905129858e-18 -1.159606256285387e-16 -1.084188470515779e-16 4.902764102079152e-17 7.614383022023301e-17 -2.15385537367037e-17 -1.366478889370131e-17 2.969638218099324e-17 -6.222845786143166e-16 2.824229683989891e-18 -6.61958542629456e-17 -1.243455683099444e-16 -3.767562322344568e-17 
-7.830186888015805e-17 -4.460995133144969e-16 -1.426764294372415e-16 3.387042419121759e-17 1.959986198441041e-16 -1.309281697665129e-16 -1.924912115627314e-16 -8.810139197411574e-17 -1.02895042425849e-15 1.937922004280547e-17 -1.477293610542693e-16 -1.752891355804537e-16 -6.407793041033883e-17 
-7.322900629090652e-17 -5.077214260154744e-17 -2.081590688731648e-16 -9.516239514929966e-17 1.077354360653179e-16 -1.448082738425746e-16 -1.898580061960493e-16 -1.569735058106316e-16 -4.563429376745119e-16 -1.073443000644544e-17 -9.678115809202578e-17 -2.031199185986559e-16 -5.537649343303587e-17 
-7.622521399984191e-17 -1.871321635339143e-16 1.55919228777764e-17 2.930783642376456e-17 1.576710517752453e-16 9.818699571234794e-18 -2.688371591985379e-17 -2.955876409352116e-17 -6.956415963434029e-16 -9.823706512118572e-19 -6.970470184346338e-17 -2.609335094576096e-17 -3.531613152765878e-17 
-6.682616397382674e-18 -9.992661439227807e-17 -4.646042115479429e-17 5.620012591377661e-17 6.930223477267532e-17 5.689274871284434e-18 1.134785115601623e-17 6.531708073488009e-18 -4.731658629756604e-16 -7.170231535463946e-18 -2.734321770349151e-17 -2.549330259872699e-17 -2.89424504438566e-17 
-4.261341440913206e-17 -1.799615173592149e-16 -7.582898003242724e-17 6.090613153873953e-17 4.161023642381354e-17 -2.303889147993601e-17 -5.62102107885636e-17 -1.314831586116982e-17 -6.139002160744397e-16 1.977319048121487e-17 -4.465828227392451e-17 -5.481332837276306e-17 -2.677199157780832e-17 
-6.870717131043141e-17 -2.370887732108232e-16 -8.473410595559605e-17 7.540724435485868e-17 7.884062245921404e-17 -2.59434861077246e-17 -5.977813345283375e-17 1.117362497751144e-17 -9.93562183008373e-16 -1.01818893121428e-17 -1.005337567232101e-16 -6.86275846340932e-17 -5.242885365493454e-17 
-1.144610814619166e-16 -1.204159943045451e-16 -3.599229890768908e-18 -7.470228883383092e-17 7.367981150168563e-17 6.686474241684148e-18 -1.991592209464202e-17 -4.60223071338786e-17 -2.571793609110968e-16 -6.131909282592154e-18 -5.093770155871931e-17 -4.32788450575482e-19 -6.876259274532338e-18 
3.232977370715783e-18 -1.569828677303145e-17 -1.47382846764087e-17 -8.997604702030873e-17 6.988720434892865e-17 -1.695925744862822e-17 -2.037125402815769e-17 -1.268903252382916e-17 -3.700022357224981e-17 -1.152545744423597e-17 -8.678153990803684e-18 3.449446807201694e-18 -5.107803907250352e-18 
6.040371421371697e-18 -1.158025830997956e-17 1.135537113609886e-17 -3.697493720371243e-17 6.948431880094292e-17 -7.139757876724264e-18 -4.452709788184712e-18 -3.196591787533729e-18 -4.931929011461743e-17 -5.340698572391518e-18 2.626560321655266e-18 9.856497099839809e-18 4.14142490323048e-20 
1.116464911743755e-17 -6.421357808868097e-18 2.209199024383515e-18 -1.315085368211111e-17 2.440299271179267e-17 -1.150915296354839e-18 2.075621623882194e-18 -1.862643521113961e-18 -3.911260910696991e-17 -6.782343232627192e-19 5.25323605012079e-18 5.387841808040605e-18 6.302763603274762e-19 
-2.459603467286664e-17 -5.338907425096563e-18 -8.3970405473001e-18 -7.673871345905095e-17 3.333437255933101e-17 -9.619501722057467e-18 -1.322556807607649e-17 -1.808244023916165e-17 -6.911377271667805e-17 -6.11572331509433e-18 -1.100057732783907e-19 5.803518617736895e-18 -1.016096254868458e-18 
-4.107493320617099e-18 -1.208513219453919e-18 -1.648307728467666e-17 -5.381215006136482e-17 3.062184618637187e-17 -3.979116747572045e-18 -4.86138691766102e-18 -6.238767979297723e-18 -8.284908234743258e-18 -6.957110039616888e-19 -1.911249283532658e-18 -6.37092755466854e-19 4.174687761804024e-19 
-7.728206434446175e-17 -8.108879587163066e-18 -4.802421498409878e-17 -1.757523524923497e-16 -1.04749539964264e-17 -2.636547535734807e-17 -6.04361926877685e-17 -4.222282608292758e-17 2.384123669264606e-17 -1.548987161680573e-17 -3.41425203926483e-17 -1.940626538679215e-17 -1.02487256611568e-17 
-1.50937706737663e-18 -1.318048542030281e-17 1.286074574263707e-18 -3.251188753751927e-18 1.012861028645678e-17 -3.453296238110422e-18 1.177189428273872e-20 -1.210538903243125e-18 -3.738859392393308e-17 1.2283040406819e-18 -2.283741262254532e-18 -1.572841026693305e-18 -1.029509187017746e-18 
-1.190173137429359e-16 1.38357647797424e-16 1.255016707170528e-16 -4.241956397502284e-17 -1.251408883429482e-17 -3.682916973759092e-17 -2.486258466239762e-17 4.515510495296434e-17 3.386902098327292e-16 -8.539804969017524e-17 1.016979510948047e-16 7.024144051175385e-17 2.020063410856774e-17 
-2.577995063865837e-16 -7.93804359965273e-16 -2.781570215220713e-17 2.962408316571756e-17 4.617281498731674e-17 -2.32032062198344e-16 -3.105932163171968e-16 1.066248808342798e-17 -2.875655547833408e-16 -3.108877548140797e-17 -6.338783507234762e-17 -1.441345828441799e-16 -2.08104368461364e-17 
