solver_type L2R_L2LOSS_SVC_DUAL
nr_class 4
label 1 2 3 4
nr_feature 909
bias 1
w
4.348245496126792e-23 -3.093033147383232e-23 -3.133745264139076e-23 -4.241303188035913e-23 
7.031343015679743e-22 -1.303578824139966e-21 -1.384242881526752e-21 -8.745016859314359e-22 
4.539079975332374e-21 -3.426927357148557e-21 -3.569203715032934e-21 -4.283123307764286e-21 
3.188907023931766e-23 -2.349841950126555e-23 -2.497414624591655e-23 -2.930630422212481e-23 
9.717757182720554e-26 -7.98902456783495e-25 1.553833371639137e-26 -8.003127221661376e-25 
1.123367822733459e-24 -2.383570880926146e-24 -6.568335201832707e-25 -2.573446459278521e-24 
1.284988527056382e-24 -1.084940532708605e-24 -9.154067526985281e-25 -1.406302381728219e-24 
8.733596397524046e-25 -3.825566175764136e-24 -3.578996793672101e-25 -3.899338519089703e-24 
6.913654626309074e-26 -2.409128275338323e-25 -2.523621818996616e-26 -2.533027121838703e-25 
1.151104454837881e-23 -8.14033148750013e-24 -8.151099801959841e-24 -1.136922457898391e-23 
1.005223696854653e-24 -7.298017203770642e-25 -8.326307130118165e-25 -8.747147074399701e-25 
4.489791734259509e-25 -3.23010780378248e-25 -3.17846942177312e-25 -4.484061446083836e-25 
-3.57924752391672e-26 -1.017414896719139e-25 4.571821989238169e-26 -1.006291117419492e-25 
-7.55262311286975e-26 -8.860400635317461e-26 7.98469192065841e-26 -8.664487300031595e-26 
2.703630406492833e-25 -1.969518561495226e-25 -1.909535851357369e-25 -2.729230706404521e-25 
-3.711445422081044e-26 -1.912101204902293e-25 5.906276996984251e-26 -1.901321043151056e-25 
4.484666565806145e-25 -3.2856399101539e-25 -3.161701843374303e-25 -4.549990866098035e-25 
1.99549237823796e-25 -3.268433235685753e-25 -1.180122932704562e-25 -3.776858466880589e-25 
6.614396662557346e-25 -6.003252709116625e-25 -4.438872971603875e-25 -7.907085876504834e-25 
1.828998569566125e-24 -1.296002702996046e-24 -1.294699560380924e-24 -1.809643562918395e-24 
5.240075533647064e-23 -3.768534569819305e-23 -3.909033847255664e-23 -4.986361220998386e-23 
-7.055839401929953e-23 -1.441565897748427e-22 5.131872141045198e-23 -1.613479226151888e-22 
5.156941314301822e-24 -3.646001290835065e-24 -3.647293479896265e-24 -5.098051089445084e-24 
-1.079842986508795e-24 -1.505109277599094e-24 1.28221232592399e-24 -1.358396643674033e-24 
4.615513073566932e-25 -3.282493408283262e-25 -3.292536423918304e-25 -4.545068552812978e-25 
-2.31917011377566e-25 -2.523850650015598e-25 2.424726171814181e-25 -2.464709985409294e-25 
-6.083714230566566e-27 -1.312401464032864e-26 7.115203335306313e-27 -1.303035819184533e-26 
1.034214705797236e-21 -1.461239629126029e-21 -5.080859913305113e-22 -1.462390654607715e-21 
3.487436235825944e-19 -3.964016043806774e-19 -3.015243018600456e-19 -3.964287657443492e-19 
1.239235015021136e-19 -1.974100077258719e-19 -5.379488338909184e-20 -1.974201977355043e-19 
9.595137582762411e-23 -7.839397984332015e-23 -1.730205911402139e-22 2.973444357030313e-24 
6.480061856151086e-25 -7.084958465018696e-25 -4.182534782152646e-25 -9.153249150205952e-25 
-1.690798456180586e-24 -7.824213931369744e-23 -5.954358022829134e-23 -7.850788947517158e-23 
2.684124808589395e-24 -1.915278043116844e-23 2.176113784939399e-25 -1.917057396763136e-23 
4.774745477317413e-23 -3.424179009278633e-23 -3.475622878252277e-23 -4.65781161454282e-23 
2.724337745306598e-22 -3.288705297550615e-22 -1.794074816419124e-22 -3.991554999713518e-22 
-3.860095016256103e-25 -4.3636050481356e-25 4.020940976454986e-25 -4.222811222309964e-25 
2.815335191524123e-24 -1.227145674587541e-23 5.718461418424554e-25 -1.217001271451712e-23 
6.260542364077873e-28 -1.343835115682463e-24 1.965301542735199e-25 -1.30285237667788e-24 
5.840566589213124e-23 -4.164836031586215e-23 -4.226260444465347e-23 -5.709121276683833e-23 
6.966691339609605e-18 -4.956591550875961e-18 -4.95521108888632e-18 -6.935829360679012e-18 
1.516309844170071e-19 -2.623397724870048e-19 -1.208681090035176e-19 -2.621779536462769e-19 
1.516854347854687e-19 -1.071948814149182e-19 -1.071140515552854e-19 -1.50135990010263e-19 
1.372789838674415e-25 -9.741325867861072e-26 -9.759977442394347e-26 -1.354616378209809e-25 
4.941515463718709e-24 -3.503987003211579e-24 -3.521278101088408e-24 -4.859511640152643e-24 
2.282218938197739e-25 -1.619409946808828e-25 -1.63589197101609e-25 -2.234793537229225e-25 
-8.591657079393201e-28 -3.875649353131814e-27 1.448882929278994e-27 -4.256627860880893e-27 
-2.867564183011973e-28 -3.65599301131624e-24 5.065393087549242e-25 -3.639114024304166e-24 
-2.587047773273884e-27 -2.10368844616061e-26 5.214412426730583e-27 -2.087861072174717e-26 
1.022721140541988e-26 -7.226876001868531e-27 -7.249489685731772e-27 -1.009331418894981e-26 
4.320489571648349e-26 -3.067973809367021e-26 -3.124134605544452e-26 -4.203265349972839e-26 
4.093743468615582e-27 -2.996622265751756e-27 -2.859139356970101e-27 -4.123318308939189e-27 
2.829789994776717e-21 -2.324756653244897e-21 -2.415637698887984e-21 -2.817899682251994e-21 
-5.33324812162136e-29 -7.115529863958402e-23 -6.434436106698184e-21 4.40043180906514e-24 
2.816057694540287e-22 -1.99857042025937e-22 -1.982387597054689e-22 -2.79924838569179e-22 
4.919476749427063e-22 -2.813616811407095e-22 -2.788346972594619e-22 -2.965148690589699e-21 
3.514272293716285e-23 -2.603745454178476e-23 -2.440199944954981e-23 -3.574698624470631e-23 
3.986148615766735e-22 -3.337698330364828e-22 -2.409768348305931e-22 -4.686059385275477e-22 
1.342169876743688e-20 -9.624423699754392e-21 -8.316198185023142e-21 -1.407590618328882e-20 
2.799243938976539e-23 -4.219200928336949e-23 -1.245665758652224e-23 -4.248792467623349e-23 
1.714275541373987e-21 -1.213798051271852e-21 -1.213718240344918e-21 -1.697321571281208e-21 
1.08518093445221e-22 -8.065308655407088e-23 -8.335861250527829e-23 -1.062085594327233e-22 
8.766892465441083e-22 -4.824143728773695e-22 -4.743871830842249e-22 -1.464294821880838e-21 
1.147547123410938e-18 -8.106654016559991e-19 -8.104102851167839e-19 -1.13560274267663e-18 
2.197927414977775e-21 -1.556783560203761e-21 -1.557644047131179e-21 -2.17816871376173e-21 
1.081507773518787e-21 -2.56938649771313e-21 -4.555473616071223e-22 -2.677184858129447e-21 
1.925545004227575e-21 -1.532753361660781e-21 -1.542499265434592e-21 -2.177067638983775e-21 
2.605556695196124e-22 -1.908711306826074e-22 -1.919517650187342e-22 -2.588556755677261e-22 
4.355585423048107e-19 -3.545157216598968e-19 -5.182906572728325e-19 -3.54533965150234e-19 
1.114421306492521e-26 -1.425965439898374e-25 1.950056747895907e-26 -1.526734231475455e-25 
1.867890719231629e-24 -1.334399576695484e-24 -1.320892510298984e-24 -1.858000409773024e-24 
9.525009820508479e-23 -1.404553558531756e-23 -1.949117331308795e-22 -1.427915619924521e-23 
8.324965909213288e-25 -5.888086567226692e-25 -5.941378930180606e-25 -8.177657825948034e-25 
1.262778989046166e-26 -7.182624295458416e-26 -1.407400815869855e-28 -7.465682484679105e-26 
1.112633177450566e-25 -1.060235530021875e-24 4.533966680776468e-26 -1.058557338632661e-24 
3.594467229788587e-27 -3.667059511690862e-26 2.039126891659328e-27 -3.753305216290083e-26 
1.807899089380534e-25 -1.120281011017387e-24 5.699714345681274e-27 -1.119042342348509e-24 
3.287486102038745e-25 -2.475924456233637e-24 4.468578537312827e-26 -2.473333992168142e-24 
1.218702915033807e-21 -9.171033670193461e-22 -8.77219620314399e-22 -1.214821437935053e-21 
3.942951066856526e-21 -2.921439820906893e-21 -2.940623231120674e-21 -3.967171277482734e-21 
7.440873807560935e-21 -5.290729787623879e-21 -5.297466731158465e-21 -7.373461291570423e-21 
3.738944818537778e-21 -9.446088249579945e-21 -9.72289835810216e-21 -1.211110424810317e-20 
-3.409462870827263e-20 -3.263999166183842e-20 -3.305635192212479e-20 -2.279335458445982e-20 
2.821219691921793e-20 -5.64634799476775e-20 -1.57059418858087e-20 -6.420260808102909e-20 
2.28326815068612e-20 -1.650814910615919e-20 -1.597670841451553e-20 -2.317964753583159e-20 
1.249265061306864e-22 -8.947880488695223e-23 -9.019121054632995e-23 -1.222297831565757e-22 
3.077537013866039e-21 -2.355313394052974e-21 -2.125944005189731e-21 -3.243928820581741e-21 
2.98141553831307e-24 -2.358394164115037e-24 -2.090930058766953e-24 -3.175270132607597e-24 
3.233800110841174e-24 -2.331432924603327e-24 -2.311469112692463e-24 -3.206907911068659e-24 
3.912805984917335e-22 -7.010877090263583e-22 -1.609723984656119e-22 -7.019618989748507e-22 
8.870044124920619e-26 -1.890217574951019e-24 1.778392988086269e-25 -1.887903642383079e-24 
4.870186313446155e-26 -5.417586084718762e-26 -3.334882565187048e-26 -6.512308140185249e-26 
1.245316802267709e-24 -9.008352888513401e-24 1.699276005197197e-25 -9.065195020616167e-24 
-3.957961742976621e-25 -2.843290141934871e-24 7.380696263164198e-25 -2.846538130297604e-24 
1.018798097874775e-25 -2.724349537622966e-25 -3.310921470085823e-26 -2.743947262910599e-25 
4.039951173504688e-26 -1.895205410338962e-25 -1.723059410806088e-26 -2.322744856170533e-25 
8.327361208938189e-20 -4.760880217078163e-20 -8.613216303653117e-20 -4.701823856969795e-20 
1.889141171340475e-21 -1.368020988919593e-21 -1.328750271091953e-21 -1.902844613891434e-21 
3.283961846472079e-22 -2.331210355666809e-22 -2.333021796868069e-22 -3.256621548835024e-22 
3.996265437533707e-22 -2.409603479871043e-21 -2.586850908194611e-23 -2.408353534074515e-21 
5.755978733768722e-22 -4.079626589085539e-22 -4.065306817345709e-22 -5.705993845452826e-22 
3.422544086993134e-24 -2.539880775239405e-24 -2.387190399123741e-24 -3.481741274396207e-24 
6.617736794700115e-23 -4.718026814870865e-23 -4.735437632540517e-23 -6.541827086963852e-23 
1.718747331132602e-25 -1.272120493713976e-25 -1.220182571159703e-25 -1.745722522032423e-25 
1.604058994765202e-22 -2.556367791491429e-22 -6.87532601402921e-23 -2.556502171852121e-22 
1.252176898728956e-18 -8.850240101851306e-19 -8.847652767396914e-19 -1.239580422469675e-18 
-1.129528889687066e-22 -8.498896019076485e-20 -8.612128599752459e-20 6.223567741317842e-22 
-1.31529854394191e-21 -1.303047313739243e-19 -1.34058681184122e-19 1.78563145191947e-20 
3.695824355079012e-22 -2.684127096405573e-22 -2.703568168891863e-22 -3.623835542587869e-22 
1.75887902782984e-23 -1.413770540660003e-23 -1.186661019620863e-23 -1.85436234181174e-23 
2.118167341331151e-23 -1.740532233612195e-23 -1.443477657776342e-23 -2.394199734873825e-23 
2.662424408237471e-24 -4.039744508775234e-24 -1.175458504552222e-24 -4.064161721857847e-24 
2.361130351609967e-24 -1.952813755839365e-24 -1.580490994076826e-24 -2.529962361731986e-24 
5.937325872433015e-22 -4.194724363374166e-22 -4.193860683674262e-22 -5.874356283335274e-22 
3.83670673537447e-23 -2.719846015402744e-23 -2.679916326725927e-23 -3.828156685798253e-23 
1.161448270551427e-22 -8.210280721600396e-23 -8.204172877888478e-23 -1.149242340995764e-22 
1.722523087345597e-22 -2.958270323216408e-22 -6.913315186286123e-23 -2.95586004553891e-22 
1.382449572558406e-24 -1.856576357957935e-24 -7.082934898390529e-25 -1.997906040789899e-24 
1.923441589835863e-24 -1.759546591746511e-24 -1.24628984341233e-24 -2.187147046037997e-24 
1.770483429102212e-23 -4.690352992288062e-23 -5.969907484858399e-24 -4.689206620369639e-23 
1.678170866317863e-23 -2.196371227567713e-23 -8.629573450963631e-24 -2.340317148872052e-23 
1.078581341388155e-23 -7.659209562715638e-24 -7.60790391042057e-24 -1.070370835990774e-23 
7.006295558713685e-23 -6.23467244434492e-23 -4.788928984177438e-23 -8.304188888305859e-23 
8.278080576065664e-24 -5.959423985468859e-24 -5.856611846844814e-24 -8.267774507028179e-24 
2.091862161717322e-27 -2.197790977342242e-25 2.828510211458562e-26 -2.198468079412796e-25 
8.383465699518433e-24 -2.146136143354561e-23 -1.423607815831852e-22 -2.533241507133137e-23 
1.635960297572077e-23 -1.170813318894377e-23 -1.191305792350095e-23 -1.603980384286989e-23 
3.002365250984134e-24 -2.130855058199729e-24 -2.130159182895729e-24 -2.966652264030977e-24 
1.037217097120216e-23 -7.544816796013113e-24 -1.446398970294749e-23 -3.218808852345253e-24 
2.835952868436579e-25 -2.545953152607619e-25 -1.976706597839527e-25 -3.312405131177946e-25 
1.222843221357412e-25 -8.952583851557531e-25 1.386680418170562e-26 -8.965883616162872e-25 
6.592272798549444e-22 -1.010541522194503e-21 -2.904074553645114e-22 -1.015471868461494e-21 
6.222740274879411e-19 -5.845901658575649e-19 -1.026508358891099e-18 -5.842056312744763e-19 
4.286933685378399e-22 -1.061263892076277e-21 -1.713580054542148e-22 -1.105580146320874e-21 
8.639679952432704e-23 -1.720211679330071e-22 -4.752726553075498e-23 -1.907536778505526e-22 
4.164626672572e-23 -2.973932833693709e-23 -2.939173388495554e-23 -4.150254357115257e-23 
-2.196640475420086e-20 -4.517474187941144e-20 -4.576045104576305e-20 -1.812853068906001e-20 
3.007363808483199e-22 -2.141037079048519e-22 -2.14614826613092e-22 -2.977316936341342e-22 
2.014303107209806e-24 -1.609712637645402e-24 -1.610536012035251e-24 -2.149740317328768e-24 
1.864697062571475e-21 -1.198906658788948e-20 -4.471905173570595e-23 -1.198193111655555e-20 
1.335359854546901e-20 -3.257907143192911e-18 -3.260246468873278e-18 -7.650007551913681e-20 
2.393819399322504e-19 -1.69764501918457e-19 -1.634111189924568e-19 -2.415596538078654e-19 
2.860847121310845e-20 -6.397925615473088e-20 -6.2737635784659e-20 1.159154852284285e-19 
3.522783135810938e-19 -2.863916071013246e-19 -2.731474523072141e-19 -2.096440853011028e-19 
6.642984821097492e-23 -4.706006487815035e-23 -4.814884543720108e-23 -6.455421801822289e-23 
1.080321205292071e-19 -7.882678128510373e-20 -7.889205934453471e-20 -1.048728998132673e-19 
8.61680299200572e-21 -6.089186345165744e-21 -6.089199004320624e-21 -8.527350065497311e-21 
1.824308163483033e-20 -1.289617271640622e-20 -1.28941035168844e-20 -1.805705893820728e-20 
1.061943167560763e-22 -7.534023175170394e-23 -7.546510150960009e-23 -1.050449420437911e-22 
9.767220707492884e-25 -6.915919066800995e-25 -7.026678043140889e-25 -9.539461810920222e-25 
4.10119360218972e-26 -4.189676663537588e-26 -2.584514440019991e-26 -5.298557353948817e-26 
2.266969658370756e-27 -4.710772605556963e-27 -1.046397926160398e-27 -5.42117447583014e-27 
5.747483551761927e-26 -4.392590297422478e-26 -4.112690627528255e-26 -5.927755430874308e-26 
4.875730545989097e-27 -3.460483132808774e-26 6.453875410777194e-28 -3.488586136099187e-26 
4.441959345912759e-26 -3.474020932962392e-26 -3.218856207261005e-26 -4.608927930920869e-26 
-7.995631274546175e-27 -8.93487876902452e-27 8.412886639425914e-27 -8.71030694963149e-27 
5.742990049890496e-23 -4.123501437772123e-23 -4.166781370747763e-23 -5.608840528643788e-23 
-4.763924900569868e-25 -1.278247609820032e-24 4.675520786684411e-25 -1.292520023337194e-24 
1.465524969229828e-25 -1.038178361491299e-25 -1.037259553103979e-25 -1.44975247170764e-25 
5.148435992218185e-23 -3.172146381217354e-22 -1.829856510354515e-24 -3.173326369048685e-22 
-9.631132865312246e-28 -8.486147470474958e-27 2.345505711883063e-27 -9.438600907398688e-27 
-3.962293904548159e-24 -4.190333856376076e-24 3.678301846059575e-24 -4.059326421083053e-24 
-1.122953037350373e-24 -1.207561290088972e-24 1.171694350739156e-24 -1.171699154548012e-24 
5.996999973146136e-26 -4.61269898942444e-26 -4.904467428969514e-26 -5.693496323300979e-26 
1.137924688705336e-26 -2.991671559797815e-26 -6.810935384646019e-27 -3.319194817653483e-26 
9.820243462162189e-22 -9.653112888709266e-22 -3.254109583192383e-21 -1.229720955919713e-21 
2.724640462213781e-20 -7.469665794418172e-20 -1.034151380726408e-20 -7.465605524922918e-20 
8.184559045218916e-21 -6.516294141804521e-21 -6.519411483781244e-21 -9.079080360704217e-21 
5.340604411122222e-23 -4.617717344995544e-23 -3.556701434263288e-23 -5.955537273194916e-23 
1.688142128230894e-20 -1.341259734913027e-20 -1.343855462174994e-20 -1.693246057544526e-20 
9.617561947712537e-24 -6.820632730453172e-24 -6.91616940565037e-24 -9.395115209929873e-24 
1.439252584465893e-22 -1.032187898777947e-22 -1.03768876558782e-22 -1.424190181806429e-22 
5.674444659371268e-22 -4.210328981927813e-22 -4.250130329818007e-22 -5.61337452583158e-22 
3.893384377057448e-24 -2.852089981251778e-24 -2.740640219793122e-24 -3.944955895697008e-24 
-3.974790570726445e-23 -9.148658251371588e-23 5.432815635487383e-23 -8.920346370890756e-23 
4.053263928131505e-24 -2.901924578816505e-24 -2.853742831607669e-24 -4.043948685108495e-24 
2.941367124301909e-22 -2.145906216731906e-22 -2.165624999439386e-22 -2.916740929802234e-22 
4.440331723976729e-22 -3.200875406623513e-22 -3.225965089540585e-22 -4.364874430779395e-22 
5.087315673885874e-25 -1.114113950893095e-23 1.037684571720545e-24 -1.112975223983482e-23 
1.487499614767927e-19 -9.29245548055351e-21 -2.015098866448882e-19 -9.301031641899887e-21 
4.351837547376025e-23 -8.660682308848016e-23 -2.394475158619468e-23 -9.590333646877138e-23 
1.750419322306249e-21 -1.183792409881703e-21 -1.192459410449493e-21 -2.071310770013746e-21 
2.475030001919577e-22 -1.775287712322599e-22 -2.353779977771699e-22 -1.862168699610353e-22 
7.223558757053454e-19 -2.188518670555765e-20 -8.142805603974952e-19 -2.187574803193519e-20 
8.661218758667809e-24 -2.725487684466066e-23 -3.527987538203615e-24 -2.861383892064597e-23 
6.614096308268975e-25 -4.157658519542809e-23 -7.395955054631897e-25 -4.097393187483861e-23 
1.506202385427543e-24 -8.760147017810497e-24 -3.557908200443261e-25 -8.737570533253064e-24 
2.577416794001657e-25 -2.977515993193726e-25 -1.593195821807575e-25 -3.848206262026902e-25 
8.034897128253166e-26 -6.36441229865464e-26 -1.567479512349476e-25 1.492811960607234e-26 
-1.032378578880543e-30 -2.008298029395337e-24 1.010076746768068e-30 -1.45749676525862e-24 
8.091965048519135e-24 -3.30286118511028e-23 -2.40746134850366e-24 -3.372919444062146e-23 
1.658118795787739e-23 -1.179741226165104e-23 -1.185601172845047e-23 -1.633395793591386e-23 
1.118468151598859e-22 -8.117303020003955e-23 -8.424115737745254e-23 -1.06731547908548e-22 
2.630719684512143e-24 -2.206337881253998e-24 -1.823302676794495e-24 -2.979216229141154e-24 
3.296048324730828e-23 -2.388931032417589e-23 -2.439668760757299e-23 -3.164596306278585e-23 
1.8255775845528e-26 -1.698904681164452e-26 -1.253229573885105e-26 -2.19092719461148e-26 
4.529508974137759e-26 -6.404351468239632e-25 5.126674258741349e-26 -6.546306750312416e-25 
9.422342524657289e-27 -1.938974729856809e-26 -4.586427412330554e-27 -2.307074488855238e-26 
2.353461389297646e-20 -1.663358248538253e-20 -1.663114574120342e-20 -2.328769983681063e-20 
1.594227934912349e-22 -3.43378211913947e-22 -6.075058338595025e-23 -3.432969582735186e-22 
3.749741423377797e-24 -2.997428190508482e-24 -1.895530047958607e-24 -4.76007541264632e-24 
3.339159598949952e-22 -2.086935136014495e-21 -2.320213402603039e-23 -2.107283966377454e-21 
8.296258056245513e-22 -2.149635675037605e-21 -3.591034672863872e-22 -2.148220579946433e-21 
1.232807713217649e-20 -8.27424366673753e-21 -8.450810442662062e-21 -8.268593073850257e-21 
2.084807586802508e-24 -1.47568979774897e-24 -1.474339036113843e-24 -2.062969932472208e-24 
2.023955827207366e-26 -5.647619617515186e-26 -9.673917644357966e-27 -5.750659943103583e-26 
1.466598715449018e-26 -1.679867813009446e-25 1.149649069944354e-26 -1.684436963741986e-25 
6.411421030277881e-26 -4.112284200326455e-25 3.254677535016957e-27 -4.19352612509014e-25 
1.019151621843682e-25 -3.067134203978609e-25 -4.304639186260362e-26 -3.400409960411431e-25 
-2.223115744752415e-24 -3.0564478282851e-24 2.411114052312078e-24 -3.031588270904496e-24 
-1.080674721326626e-24 -1.165310065610483e-24 1.039179492316279e-24 -1.250368737169497e-24 
-1.105465519992634e-24 -1.948041572234323e-24 1.115396415791975e-24 -1.950477964800585e-24 
2.89802637248758e-25 -7.724057646751979e-25 -1.444091252678823e-25 -8.445417205080454e-25 
4.431855863071876e-29 -8.06189363823838e-27 1.827641174849582e-27 -7.971362813930214e-27 
6.546919103313075e-27 -2.339627848340279e-26 -2.223769943888804e-27 -2.42432206901903e-26 
1.201543758785828e-24 -8.528259184451043e-25 -8.593935532008588e-25 -1.178406524193769e-24 
4.05611661391457e-25 -3.334187432821843e-24 9.168118448327014e-26 -3.330650625215726e-24 
4.106779849156591e-26 -2.905107626680783e-26 -2.918169165414294e-26 -4.046881355976741e-26 
3.595430571789344e-26 -5.654138819423949e-25 4.442522455964743e-26 -5.6405829231642e-25 
2.675933714141751e-22 -2.353589474132537e-22 -4.844636428242372e-22 -2.373472034454942e-22 
1.443016976596242e-25 -1.216733510401427e-24 3.748687678248684e-26 -1.217799924159156e-24 
6.994083965355914e-28 -1.001002720056154e-25 1.307637718507035e-26 -9.978924518237521e-26 
1.180043981263837e-22 -8.389870553544651e-23 -8.40001106506278e-23 -1.170143683664373e-22 
4.184629477008649e-24 -2.963585553718617e-24 -3.020620305997079e-24 -4.076615971955436e-24 
1.672416584080883e-23 -1.224407965367545e-23 -1.186716479337192e-23 -1.671214770213313e-23 
1.636164669723597e-26 -2.370665691073465e-25 1.970188860087729e-26 -2.42164700215493e-25 
1.297771118332897e-27 -1.133489530400677e-27 -8.476853109255085e-28 -1.430718447242687e-27 
-8.621261854000997e-25 -1.903089462749391e-24 9.714418825065881e-25 -1.871381601507211e-24 
6.578192330567315e-26 -7.989237969869737e-26 -3.645442375223353e-26 -8.863733923063085e-26 
2.275986531102999e-25 -3.057289329497614e-24 3.952665599823135e-25 -3.036410964508771e-24 
-5.037407126065751e-25 -2.063586499362921e-23 3.017980857761746e-24 -2.052632306198281e-23 
-2.138695815758278e-24 -1.915444492812473e-24 1.927765577219264e-24 -2.140797527834289e-24 
-1.158629276561691e-24 -1.817517292849627e-24 1.827042005008881e-24 -1.158556635846592e-24 
-1.160831386098756e-24 -2.191830938593607e-24 2.202376954935535e-24 -1.162381800362698e-24 
-4.311336393635792e-24 -8.193619859584483e-24 8.184867158471703e-24 -4.314940172866011e-24 
-1.893468224722867e-20 -3.195547064177201e-20 3.194401649935874e-20 -1.895189429008192e-20 
-6.830661983564324e-24 4.463986855304845e-22 -4.503743566027861e-22 -6.836826868127694e-24 
-1.157301680511777e-24 -1.744174523716304e-24 1.754760010970713e-24 -1.157665120904238e-24 
-8.54103934708918e-24 1.505818916073444e-22 -1.496063468932732e-22 -8.547937557602164e-24 
-8.22118663524723e-26 1.716874813040294e-25 -1.416820322794188e-25 -5.765975843843161e-26 
-4.407787979649051e-22 -8.086458928209194e-22 8.124628630442492e-22 -4.411792642192922e-22 
-2.043771868968022e-26 -3.694555964591057e-26 3.713062907959838e-26 -2.045725131594914e-26 
-1.507188844914882e-22 -2.857334622659986e-22 2.871631718103184e-22 -1.508556836491557e-22 
-5.681667036333874e-22 -1.076783292603787e-21 1.082240975721471e-21 -5.686827605705365e-22 
-6.254039306621777e-23 -1.185992613690421e-22 1.19192922336336e-22 -6.259707171732329e-23 
-1.876657388474851e-23 -3.553555093669951e-23 3.571321124654904e-23 -1.878353628864868e-23 
-5.424095555128861e-28 -1.018129460872278e-27 1.01801465817794e-27 -5.395922539645917e-28 
-2.065520015989557e-26 -3.826925244337393e-26 3.928658163455569e-26 -2.061006355460634e-26 
-1.299481263390479e-24 -2.456460634462349e-24 2.468836576075762e-24 -1.300631079192931e-24 
-2.043983851617757e-26 -3.871925438139297e-26 3.891153521479865e-26 -2.045807602034301e-26 
-1.182765440176e-27 -2.316436856796253e-27 1.350265889482259e-27 -1.104260034551277e-27 
-1.957278075170125e-25 4.11677846860928e-25 -3.408066775974323e-25 -1.362524744342848e-25 
-1.664114903470981e-29 -3.072204185833823e-29 -9.232319063173743e-28 8.268410753094167e-28 
-3.597764149291905e-26 7.317476148034713e-26 -6.028783413653584e-26 -2.539712539053707e-26 
-1.773377333939232e-27 -7.392253958504459e-28 7.552062197982311e-28 -1.607251780721981e-27 
-4.805586929423343e-26 -8.897890336036501e-26 8.962134536615673e-26 -4.794608850184188e-26 
-3.00809278104504e-27 2.016393869154022e-26 -5.307863575108917e-27 -5.124923726829997e-27 
-8.564975954975923e-25 -1.614714318721141e-24 1.622864844863905e-24 -8.574094256778839e-25 
-4.579808408827205e-26 1.518861504130026e-24 -9.540372559034399e-26 -3.622083999220845e-25 
-3.755004045525363e-26 3.97540132644639e-25 -7.313464758282933e-26 -2.554919268774303e-25 
-1.448662973612212e-27 4.678726481684585e-25 3.134003173433473e-27 -1.471299271283454e-24 
-4.147913965988305e-27 -7.05363870996064e-27 7.019492615211501e-27 -4.067023672151682e-27 
-3.655972054812545e-27 5.78333337334709e-27 -4.674243338297926e-27 -3.642481423066589e-27 
-1.254047056487381e-25 -2.155437003750888e-25 2.201778023479983e-25 -1.245361195603827e-25 
-6.778209482361421e-29 -6.012295399316484e-29 6.501931935769098e-29 -9.121844457941936e-29 
-1.083710404876136e-26 -2.007854989141218e-26 2.028804054704061e-26 -1.127204376397546e-26 
-3.860493644377406e-28 -2.655360760490104e-28 4.730129411732309e-28 -3.829741127659068e-28 
-1.270933770336697e-25 -2.402534100441784e-25 2.413271795696628e-25 -1.271661559882032e-25 
-6.133524984590697e-26 -9.735808391491788e-26 1.013524632646335e-25 -6.149946617815116e-26 
-8.882801524793046e-27 1.972595196613223e-26 -1.543551921078544e-26 -1.382518402420897e-26 
-5.646674131426161e-21 1.210721924326724e-20 -9.945122622683004e-21 -3.972015656616994e-21 
-4.963303814490209e-22 1.000939242057739e-21 -1.167539346775055e-21 -4.260942917146482e-21 
-8.590522227899273e-26 -1.588515365359747e-25 1.639256233131394e-25 -8.598365214041898e-26 
-1.012692975079554e-28 -1.853914114504107e-28 1.863062764696465e-28 -1.091386644223208e-28 
-8.231873037932156e-31 -2.554244068295789e-31 2.51109337171119e-31 -1.545652667095549e-29 
-1.650145322774705e-25 -3.124406569628324e-25 3.139021355967517e-25 -1.651641007498329e-25 
-6.445570851320286e-29 -7.641511237224257e-29 8.077377922866592e-29 -6.12274241362315e-29 
-1.383039845929308e-26 -2.620663124289404e-26 2.633723882540953e-26 -1.384281167988755e-26 
-2.046371321294374e-29 3.592294140600739e-29 -3.445719639938048e-29 -9.738925968554688e-30 
-4.601991584807904e-30 3.993410338097639e-30 -1.822784330735716e-28 1.514001113903027e-28 
-2.258363016103624e-28 3.688689560164368e-28 -2.638971404601492e-28 -2.059706294668181e-28 
-3.004035636885317e-23 2.718035227874868e-21 -2.561527959147826e-21 -3.033113332497666e-23 
-1.609421797750919e-19 -1.086635786466769e-19 1.078292994494993e-19 -1.61088610425448e-19 
-5.217407408419108e-18 7.002404588118207e-21 -1.869020796354524e-21 -5.222154207338212e-18 
-2.801434295097423e-21 -4.031018076108182e-22 2.784035627037898e-22 -2.803875895406373e-21 
1.063554617574038e-25 -2.617057828933978e-26 -1.34227102037873e-25 -8.005045719212632e-25 
-6.895705426558571e-22 2.934283179884256e-20 -2.034117315680062e-20 -6.90258706674554e-22 
-2.113996084985442e-21 -3.238724436865059e-22 1.439592966999938e-21 -2.126038629507104e-21 
-6.317621004279395e-21 -2.793714723544543e-24 8.433677256186453e-24 -6.322136322953799e-21 
-1.707698983972196e-20 -3.219218923772019e-20 3.238085726015136e-20 -1.821811495814618e-20 
-3.960781263957132e-26 -7.110645917057763e-26 7.186255548407602e-26 -3.943889238144006e-26 
-3.191873922405203e-25 -3.540416520782755e-25 3.80393305499378e-25 -3.00948418226709e-25 
-1.11514595178393e-24 -1.94704580170473e-24 1.966066842974657e-24 -1.114519118018895e-24 
-1.976484528093044e-25 5.340974238309148e-25 -3.517765302984318e-25 -4.773244332181264e-24 
-6.309992187245573e-26 5.842702918528493e-26 -1.572887698905303e-26 -6.280462817041893e-26 
-1.406096389368235e-23 -2.619907991466612e-23 2.628425173819944e-23 -1.407317468681543e-23 
-6.393228229280605e-24 -1.230746339026531e-23 1.261124797648118e-23 -6.355871718038596e-24 
-4.25173451280941e-25 -4.359887565972935e-25 4.712587556227533e-25 -4.012762268210298e-25 
-1.319594978605209e-24 7.039370366099189e-25 -2.190570657948269e-24 -2.888664789474973e-23 
-2.24831675050143e-29 -2.625829316368899e-29 2.374855665868393e-29 -1.864815011587735e-29 
-1.592922920573224e-28 1.078871296005897e-27 -2.382385555158124e-27 -6.173815414937744e-26 
-2.070289247300489e-28 -2.956612083228213e-28 2.973792431559634e-28 -2.022842345573319e-28 
-1.342892435081435e-27 5.989271827440996e-28 -3.095499408911942e-28 -1.104659331024512e-27 
-1.491820682156622e-29 -3.168386923925063e-28 -1.19583864324938e-28 5.192232142911423e-29 
-1.812335434111681e-27 3.83287853520209e-27 -3.210709336431013e-27 -2.487483851989527e-27 
-1.383177185720538e-26 -2.619356013127268e-26 2.632524644356736e-26 -1.384379609114108e-26 
-2.42294104689619e-29 -1.790898843176799e-27 -9.002405727902944e-28 8.42717783407921e-28 
-3.074188800491051e-26 -4.582097268567222e-26 4.722495619523036e-26 -2.983810716014626e-26 
-1.788250876784765e-21 1.487998123142208e-21 -1.532345211272262e-21 -1.789877860503651e-21 
-1.534707942519131e-20 6.647058153210183e-20 -6.740024978058767e-20 -1.536104268384066e-20 
-4.624415035420283e-23 -5.841193666505075e-24 1.045131958655006e-21 -4.448869382319266e-23 
-3.218837657937261e-21 -1.567256332025624e-21 1.562453640299152e-21 -3.221766132962941e-21 
-4.844139175062801e-19 1.10805609089678e-19 -1.132053413919074e-19 -4.848546479224517e-19 
-9.169474440543613e-23 2.189651347806472e-20 -1.979784043470292e-20 -9.17780282520564e-23 
-4.662260324826623e-20 1.632821258386219e-19 -1.662642813568851e-19 -4.666502432983166e-20 
-8.364367122526531e-20 -1.063760396031229e-23 2.794880683596588e-23 -8.371970932838363e-20 
-2.446516710534224e-20 -1.166775247066718e-20 1.153339034720874e-20 -2.448742752943549e-20 
-3.244593932073259e-23 -3.219107592624581e-22 2.919780454639981e-22 -3.230403753186383e-23 
-1.430658052659212e-25 -2.656285784469086e-25 2.669804035671279e-25 -1.431625452412241e-25 
-5.127609273253209e-23 -9.475920201166404e-23 9.498806875360385e-23 -5.132263179015123e-23 
-1.651358607089867e-25 -3.117598846444905e-25 3.133638912383815e-25 -1.652490206416267e-25 
-7.02471152470204e-27 -1.126348047678516e-26 1.148619186445304e-26 -6.875202816390389e-27 
-3.075319419721897e-23 -5.819153856304583e-23 5.850241727655176e-23 -3.078111503191318e-23 
-1.039477240868549e-22 -1.913235194403033e-22 1.922484454319431e-22 -1.040420812271612e-22 
-1.814328034575408e-26 -3.429340725501986e-26 3.446583761608673e-26 -1.815949965906988e-26 
-5.610403534546779e-24 -1.060279290378724e-23 1.065653568070787e-23 -5.615032550161478e-24 
-3.729950434039171e-24 -6.409154656552516e-24 6.490469317108593e-24 -3.705420869954927e-24 
-5.507397759761058e-24 -9.71636363351711e-24 9.730667304603671e-24 -5.512139200136558e-24 
-5.439424245846494e-24 -9.430249052758969e-24 9.396964866834152e-24 -5.444346611912482e-24 
-1.652883798532056e-25 -3.096316674550916e-25 3.115628163203676e-25 -1.653558046156058e-25 
-1.197231520472702e-25 -2.109158608895354e-25 2.254827385868966e-25 -1.198085187072162e-25 
-2.446099480916784e-23 -4.342592109263574e-23 4.221210643234864e-23 -2.448322161140239e-23 
-4.618974880223499e-23 -8.727045874736371e-23 8.772897208366586e-23 -4.623172718868224e-23 
-3.173812161684171e-26 -1.491365915014213e-26 1.928361519584554e-26 -2.947259082405427e-26 
-1.980472371383367e-25 -2.427684671600189e-25 2.565774001952374e-25 -1.885470875215047e-25 
-3.739081291316829e-25 4.543994759785574e-21 -2.308965796808415e-19 -1.184979993271925e-19 
-3.079467660087594e-24 1.515954820812862e-23 -5.463701888305482e-24 -2.972322962306798e-24 
-1.399547299842908e-26 1.188436219232027e-26 -9.126903088823609e-27 -1.105954015782366e-26 
-3.294619583880348e-28 -4.682306551017732e-28 5.716502130403382e-28 -4.152625840089586e-28 
-6.190983509457832e-26 6.027377861565003e-25 -8.573741867713638e-26 -6.188756348665718e-26 
-2.247700175080571e-24 -3.68154533395787e-24 3.674956220911018e-24 -2.227516547824767e-24 
-7.535692346436656e-25 -8.41488711169569e-23 -1.263121521535335e-24 -4.721377780505589e-25 
-9.249567296720403e-28 6.696129165300494e-26 2.4316333999142e-26 -3.399752087314252e-25 
-1.009887858091916e-25 -1.130059062164693e-25 1.194845884408083e-25 -9.654145651627237e-26 
-7.530359184940627e-29 2.065502283761922e-28 -1.822172031083306e-27 -3.197474214533996e-27 
-6.957416688082996e-26 -1.103449115377935e-25 1.186222609680261e-25 -6.955429364490381e-26 
-1.259496475422579e-28 2.544078330811151e-27 -8.549365109274353e-29 -2.122637255950958e-28 
-2.117051716336232e-27 2.355864752781257e-26 -4.31018118949297e-27 -6.122986173170964e-25 
-3.482528304490967e-27 -6.388369476622943e-27 6.341425657047774e-27 -3.486824783063826e-27 
-3.243158946316528e-25 6.930776559705968e-25 -5.596473732456889e-25 -7.190035402796631e-25 
-2.366029674921161e-25 -4.412536983193185e-25 4.442921127903996e-25 -2.364754896191496e-25 
-9.26303212165019e-27 -1.736170479125999e-26 1.74722962208451e-26 -9.259618075851044e-27 
-1.009455557466827e-30 -1.093867888290758e-30 -3.668689161686567e-29 3.664014567594124e-29 
-8.107308082854303e-24 -9.981642508304406e-24 9.577257643103663e-24 -8.910083836679086e-24 
-1.866251581838881e-23 -3.298702772558454e-23 3.31112499397976e-23 -1.867801746446109e-23 
-2.38034689618941e-23 4.001215934150516e-22 4.519641337574424e-23 -3.756304308119759e-23 
-4.764392061722335e-21 1.002906439399575e-20 -8.279392821630948e-21 -3.342807063989394e-21 
-1.84170673052786e-25 -2.784731750038906e-25 2.784997878063409e-25 -1.785446494208759e-25 
-3.080454941370264e-25 -5.705197317548254e-25 5.718071724293627e-25 -3.075674203105477e-25 
-7.776598805010213e-27 -2.475821161274677e-25 -1.827008024130223e-24 1.994741144129891e-25 
-8.012544176051731e-26 -2.417732246176608e-27 1.673944146532952e-26 -6.985092207886701e-26 
-6.673163028558254e-27 1.689301997755359e-26 -1.831489921830884e-26 -6.477666492845174e-27 
-1.484782847225512e-23 1.928296641082648e-22 8.58812180738938e-22 -3.755035531815759e-19 
-1.90960460299253e-22 4.021507425921219e-22 -3.31787817470377e-22 -1.42962681469833e-22 
-1.930890457154309e-23 1.191600255513684e-22 -3.46365973204092e-23 -4.285904562558564e-21 
-3.145137852048396e-24 1.557522238857767e-21 -8.122495166317668e-20 -2.559855636639927e-20 
-1.802418373823416e-26 4.855118456555327e-26 -3.294576853645852e-26 -5.971198292196102e-25 
-9.991317660328011e-22 -6.983391317500852e-21 1.115449524614836e-21 -1.000040582370038e-21 
-2.867178560225216e-23 3.073014392067021e-21 -2.32373176138949e-20 -1.497876609732988e-19 
-2.622678241038736e-27 -2.727666036615257e-24 1.037804843928686e-24 -7.560680599800171e-24 
-1.322094389761627e-27 -5.739629566629081e-25 1.087807088435698e-27 -2.889388018864109e-27 
-3.488974015680073e-27 -3.104433881914279e-25 7.251501803963868e-25 -1.949656769072709e-24 
-1.572043523809791e-22 -7.634236562192764e-22 -1.969111463483946e-21 -2.280421079665724e-20 
-7.425144747433351e-23 1.573522446930889e-20 -1.219322029870707e-20 -5.933989713272286e-23 
-8.684223150008614e-20 1.04780927146296e-19 -8.30262371950954e-20 -6.083050115341911e-20 
-1.014951112730539e-24 3.287678030898643e-24 -1.763312604506692e-24 -6.293185494496304e-23 
-2.429717249110358e-25 -2.383988560094238e-24 -2.729312690005633e-25 -3.58299707296446e-24 
-4.276578530754986e-27 -1.301952050234257e-23 -3.193448008218368e-25 3.148891477750061e-25 
-3.011447272797095e-25 -5.631838611138376e-25 5.663598516381083e-25 -3.014889249563702e-25 
-3.23837507218264e-28 -6.088451204792092e-28 6.118950738813093e-28 -3.241295894041907e-28 
-5.229383306081385e-27 1.089921689049944e-26 -9.009202365388952e-27 -3.832989872792539e-27 
-1.150312435291699e-28 1.399446129336888e-28 1.842645055225544e-29 -9.335194756945038e-27 
-1.091264308541179e-28 5.824391043135703e-28 8.749733607370245e-29 -3.806911003634378e-26 
-2.66108301071273e-27 5.254887816336953e-27 -4.32268800134053e-27 -1.891301337081648e-27 
-2.764187188224968e-26 -5.239373210217738e-26 5.265688731109273e-26 -2.766620110726633e-26 
-9.22402359300971e-27 -1.733291764987682e-26 1.742773007384537e-26 -9.23238741816789e-27 
-5.017500907548215e-27 -9.472603838174824e-27 9.52167778151087e-27 -5.02783549377611e-27 
-2.078307169707056e-26 -3.619535886013229e-26 3.65957029371335e-26 -2.069966316314766e-26 
-1.377308180366668e-23 -2.604814721888951e-23 2.617845876858306e-23 -1.378562146306092e-23 
-6.82628010698985e-26 -1.293530382367482e-25 1.300047220769446e-25 -6.832018322126076e-26 
-6.191538944891018e-28 1.254771903589668e-27 -1.03767811176485e-27 -4.911611367883266e-28 
-2.639959336885079e-26 -3.966003312034255e-26 4.07558797121361e-26 -2.570768048393596e-26 
-1.145403319919572e-27 2.139393854052246e-27 -1.666544154150471e-27 -9.017411588534888e-28 
-3.039989410836931e-28 6.122881100429814e-28 -5.09893593216866e-28 -2.085090930762322e-28 
-6.567411101954616e-28 1.046261312125531e-27 -8.934743033437705e-28 -5.360035177214305e-28 
-7.623378820972971e-28 -1.249629805753266e-27 1.270352104992043e-27 -7.465165370696626e-28 
-3.605935023691455e-25 -6.797618288565984e-25 6.804410136582371e-25 -3.603833965618123e-25 
-6.867585841948626e-24 -1.206786840560665e-23 1.205950852096803e-23 -6.862665983905012e-24 
-2.079767888955962e-24 -3.844069395564116e-24 3.858704867063244e-24 -2.081469978468043e-24 
-4.346659469787313e-25 6.697276948704731e-25 -5.321770143652972e-25 -3.229345668715676e-25 
-7.830774793631127e-24 1.401864484672871e-23 -1.134179645793461e-23 -7.199535837734025e-24 
-1.58900671937431e-24 -2.259370653319663e-24 2.272769162342407e-24 -1.58725568361339e-24 
-1.093899149580509e-22 1.240679909684305e-19 -1.139752745401574e-19 -1.094895225333008e-22 
-6.690019804775265e-25 1.407385574755392e-24 -1.162072801992733e-24 -4.758018059676056e-25 
-3.875760098044002e-25 3.394587525805204e-25 -2.380559290198215e-25 -3.172626620154381e-25 
-1.672930586262017e-23 1.338072886197598e-22 -5.005185892292065e-23 -8.08316485924327e-22 
-2.015364644247291e-21 5.001725600043434e-22 1.097366254027555e-22 -2.05019848371988e-21 
-5.173099934408262e-20 1.278246879604365e-20 -5.860776706157231e-20 -1.043591880886061e-19 
-1.437974828952643e-23 1.228536575814885e-21 -7.20794372601577e-22 -1.438834519545848e-23 
-2.913798910525301e-26 -5.978407573698137e-26 5.329101417631322e-26 -1.324601175364923e-25 
-1.42531686800583e-28 5.923307971945778e-27 -1.073778597176744e-27 -8.485906423307442e-28 
-1.973869770342869e-28 -8.126971142663358e-25 7.342928249235215e-26 -8.937774777590744e-26 
-2.659778995628903e-27 8.973832962143142e-27 -6.326883375065076e-27 -1.966051317952013e-25 
-1.788279736545711e-28 1.70110282939048e-27 -1.087999939531325e-26 -4.793358520279687e-26 
-9.669373503416146e-25 -1.832241306995809e-24 1.841419052301799e-24 -9.677750812987668e-25 
-5.865290360296188e-26 2.100830568316281e-25 -9.233043459930479e-26 -5.389647232208632e-24 
-5.241686243828891e-24 -7.623098125349385e-24 7.873349275610047e-24 -5.197037940701034e-24 
-7.514664252957318e-25 4.637562790175441e-23 -3.822128452159589e-24 3.61178171604343e-24 
-6.130666461583495e-26 -1.562329751539417e-25 1.124529105857137e-25 -5.927620008759454e-26 
-4.251765208641529e-26 -9.250203024097682e-26 4.892976529212877e-25 -4.158299869709991e-26 
-2.172913330118254e-24 1.518510724333726e-23 -1.306835615099374e-23 -2.174986961425091e-24 
-1.382714123468179e-26 -2.621797072127791e-26 2.683527855021585e-26 -1.384512437753922e-26 
-6.104441794719086e-26 -1.152872099370758e-25 1.159881428956172e-25 -6.110044550374015e-26 
-1.458405233693153e-26 -2.140618895454524e-26 3.364562244507118e-26 -1.470248246553549e-26 
-3.706269547360337e-29 3.049365578411441e-28 1.914225892999518e-29 -1.652716419976409e-26 
-4.081009090647228e-25 5.124947425729085e-25 -6.211581855967946e-25 -2.405526175633751e-25 
-5.005720807372682e-24 1.033434064417811e-23 -8.588934317500905e-24 -3.515945291957394e-24 
-3.13187143833905e-27 -3.373749143250737e-25 1.156609475377379e-26 -5.940351700889721e-26 
-7.38879343940881e-25 1.106853138656705e-24 -9.117273870646343e-25 -5.91900425301553e-25 
-4.103058761376445e-26 1.911781713010705e-22 7.119833825894816e-24 -1.053415511034969e-20 
-2.976848385589708e-27 3.38777602792606e-25 3.078438542722062e-26 -1.879619442922051e-23 
-1.107552949303102e-29 -1.317867974385807e-30 -2.460828016571673e-30 -1.606583258671798e-28 
-3.346852378467279e-26 -5.839955062899369e-26 5.916782807615163e-26 -3.326106740388876e-26 
-1.659370216248837e-28 1.370500890957608e-28 -9.663091701467923e-29 -1.312644204803339e-28 
-1.553991622386183e-27 -2.88843338461433e-27 2.909331667447481e-27 -1.551663354930519e-27 
-2.40080404382974e-27 5.046774125219962e-27 -4.20879778621119e-27 -1.736981208006805e-27 
-1.010339826372883e-28 -1.861379673801827e-28 1.87240824148347e-28 -1.009819595233168e-28 
-2.982029689841165e-26 -5.641159321486666e-26 5.670244782828369e-26 -2.984074405461271e-26 
-9.774466331746806e-27 2.055307050942212e-26 -1.784585416675991e-26 -5.972935083233948e-27 
-3.918750179503209e-27 -7.388089837414979e-27 7.424850103804575e-27 -3.919916860267699e-27 
-1.383010709493373e-26 -2.549623812859547e-26 2.562847527461895e-26 -1.384333731762405e-26 
-9.042303979260057e-30 3.741730706311109e-29 3.174943116185194e-28 -4.17449968064032e-28 
-2.698845961883898e-30 -1.426735605267611e-30 -2.215099979137952e-31 -7.722423282455186e-31 
-6.164585103698554e-27 -1.123927706432011e-26 1.133751390088359e-26 -6.171262978235217e-27 
-3.05513474366228e-25 -5.764163540250469e-25 5.791837624640326e-25 -3.057901821759631e-25 
-9.164668353255729e-25 -1.720317423948833e-24 1.728922908920993e-24 -9.172749405039218e-25 
-2.255071318980163e-25 -4.268013277707558e-25 4.289135558224209e-25 -2.257116461252381e-25 
-1.570503937235002e-28 6.626113997015466e-28 -2.363488663481787e-28 -2.226241081468265e-26 
-4.290233981305156e-26 -7.942113641129359e-26 7.982067063754246e-26 -4.294120452254352e-26 
-1.211243596627429e-26 -2.085282267914379e-26 2.110496872878223e-26 -1.201997847910027e-26 
-3.351813917098818e-24 -6.111494074174047e-24 6.146317744854943e-24 -3.354850612553747e-24 
-5.104971932219572e-24 1.061194949337904e-23 -8.806897672383279e-24 -3.579755562638094e-24 
-1.100259282684827e-25 -1.621361308803318e-25 1.658822612199331e-25 -1.079572283717399e-25 
-4.978852046592276e-26 -6.701097259527042e-26 6.985378174829297e-26 -4.773743359101363e-26 
-1.935972828066176e-25 2.936902101088348e-25 -2.323497870348238e-25 -1.465640989564258e-25 
-1.19865282682163e-25 -1.407713669289404e-25 1.423169691963669e-25 -1.199407922226859e-25 
-1.16447170040596e-29 -2.551219522359693e-30 -5.74932541223633e-33 -1.252624185816153e-29 
-9.441061612727184e-28 -1.748429263904507e-27 1.75909372110116e-27 -9.434234206384696e-28 
-1.812518851251345e-21 7.203886056610951e-18 -8.59231398823105e-18 -1.812177193929635e-21 
-3.060189306383463e-23 -3.160234181729415e-23 3.177263033467967e-23 -3.059603821176568e-23 
-2.786539674444755e-21 -2.881093297298282e-21 2.896905405536756e-21 -2.785811699155475e-21 
-1.06602215774452e-19 -1.100765431209159e-19 1.106798284214005e-19 -1.065748435727947e-19 
-1.583578599093323e-23 -1.650655782938577e-23 1.659523295902402e-23 -1.583289531915096e-23 
-3.69520077960986e-24 -4.943673914339115e-24 4.951852997318407e-24 -3.69600359422666e-24 
-5.275064083702377e-23 -5.455069069953981e-23 5.48841247066862e-23 -5.271355069348734e-23 
-3.7926915538907e-25 -4.113888969917207e-25 4.14278930912865e-25 -3.787515185666139e-25 
-2.864167847855087e-25 -5.350333069024947e-25 5.377929012860764e-25 -2.866126531653965e-25 
-5.332458140115846e-24 -8.269994647254218e-24 8.331640048953619e-24 -5.321650770283038e-24 
-1.625615573540166e-24 -3.052497915598321e-24 3.06796216086849e-24 -1.626932601190165e-24 
-3.441412383647312e-23 -5.665246786909384e-23 5.702873894313927e-23 -3.437380122053271e-23 
-5.317847144493366e-25 -9.686728410632199e-25 9.739429202231056e-25 -5.31939578426556e-25 
-1.12178454555981e-24 -1.863893726039747e-24 1.875979521105226e-24 -1.120659877140436e-24 
-1.612272052274039e-25 -3.033647841615948e-25 3.048950298124037e-25 -1.613629307880809e-25 
-6.892275206797419e-25 -1.178959635099135e-24 1.186179268357449e-24 -6.888258527636067e-25 
-2.189586728503737e-23 -2.585725720044066e-23 2.599379511672917e-23 -2.189560374391642e-23 
-2.087543154438969e-22 -3.954870396716574e-22 3.974708167499072e-22 -2.089402603523831e-22 
-4.724377890226171e-22 -8.914372981470712e-22 8.959439915130495e-22 -4.728309449203353e-22 
-2.794997016088043e-23 -5.297448537262466e-23 5.323996042077856e-23 -2.79750539036827e-23 
-1.321670080605354e-23 -1.322499680147707e-23 1.311014200230947e-23 -1.337526199541926e-23 
-6.072678514501455e-23 -6.252295097307019e-23 6.282258751874384e-23 -6.07521588815574e-23 
-3.322356644849358e-23 -3.42869003728408e-23 3.447727562925293e-23 -3.321335974434284e-23 
-1.510801763508304e-22 -1.162064429466906e-22 1.186063743639061e-22 -1.498110923897408e-22 
-6.712618756305379e-26 -8.953048507770268e-26 8.999584841817365e-26 -6.713903650129836e-26 
-2.447199141090926e-18 1.332806771800213e-17 -1.308095421154907e-20 -2.446737311094454e-18 
-1.928761958957692e-17 -1.991968816178016e-17 2.002670938261744e-17 -1.928410553316582e-17 
-1.064867409636202e-16 -1.099751655938377e-16 1.105671814236318e-16 -1.064666601140312e-16 
-4.7143391792523e-25 -5.081007872548198e-25 5.108215945486859e-25 -4.713591882259383e-25 
-5.104009054386292e-21 -5.271136822319817e-21 5.299518619894507e-21 -5.103042032079361e-21 
-4.487156068737831e-24 -5.247190687155153e-24 5.28815135161382e-24 -4.487061065676124e-24 
-7.79437439976072e-25 -8.040297203274696e-25 8.075362655808024e-25 -7.792938364138428e-25 
-3.859473928592815e-23 -7.230106417722167e-23 7.266339033476012e-23 -3.862853567182503e-23 
-7.267174112010207e-23 -7.600002014458861e-23 7.64087036628459e-23 -7.265905983917327e-23 
-3.607439419566129e-23 -4.471460217243431e-23 4.495060115743575e-23 -3.607602667751079e-23 
-3.936007964451201e-22 -4.067598317383552e-22 4.089503216188462e-22 -3.93526554506178e-22 
-2.826994496619184e-20 -2.919549487393369e-20 2.935249324113146e-20 -2.826460994423153e-20 
-3.439203314394262e-19 -4.403548411964703e-19 3.918904594035823e-19 -3.440651141449096e-19 
-1.259948886701168e-18 -1.310213252154833e-18 1.317234057806526e-18 -1.259644084640566e-18 
-2.658595428930351e-20 1.409254027983834e-21 -2.016257635341288e-20 -2.658475438879999e-20 
-5.080323163939464e-23 -9.611407754034312e-23 9.659552846200639e-23 -5.084879683671566e-23 
-5.374739034738634e-23 -1.019258043923357e-22 1.024357973754424e-22 -5.379620060579311e-23 
-4.400372795400321e-22 -8.20330432769395e-22 8.244786688969503e-22 -4.403934455957949e-22 
-2.472956588083006e-23 -2.844786672823144e-23 2.865905911826252e-23 -2.468715963151725e-23 
-4.663155254978961e-24 -4.520115879545666e-24 4.583689782865886e-24 -4.635197730852165e-24 
-2.840695942470392e-22 -5.369344662910979e-22 5.396123386641944e-22 -2.843278745443308e-22 
-1.788783992528741e-23 -1.870184313384059e-23 1.880244874732903e-23 -1.788471486134688e-23 
-5.962075903890343e-23 -6.880062844373401e-23 6.916540411384342e-23 -5.961839360657809e-23 
-1.425010105298453e-22 -2.69931374827611e-22 2.712859583855495e-22 -1.4262747765921e-22 
-4.567795746861205e-22 -3.601314218544364e-20 2.593683013629555e-20 -4.569710454033365e-22 
-4.861182136086282e-21 -5.529750472928326e-21 5.5745556891161e-21 -4.850318727936187e-21 
-5.305069140812489e-22 -3.527521823126383e-21 2.712296967977079e-21 -5.304484174042931e-22 
-7.622601850280581e-21 -7.835163561721822e-21 7.87721504170228e-21 -7.618922364579179e-21 
-3.865007639043261e-21 -4.555388041783719e-21 4.583628994472425e-21 -3.858016410274496e-21 
-2.090020899162321e-19 -2.157066722012131e-19 2.166205313381398e-19 -2.090862517330177e-19 
-9.0243113541475e-19 -1.735461554269329e-18 1.727949194716915e-18 -9.032518233023617e-19 
-7.003319574702349e-19 -8.222848345252796e-19 6.384729626249132e-19 -7.961422484788832e-19 
-1.493753529423045e-19 -1.55228284872245e-19 1.555049006811793e-19 -1.496198287259673e-19 
-9.698337598824879e-23 -2.505720215005383e-22 4.128188959423904e-22 -9.701880077547603e-23 
-1.679812229389409e-20 -1.017640998159733e-20 8.848733080813023e-21 -1.679514877570811e-20 
-3.817562344195484e-22 -3.529579115235221e-22 3.117861228844331e-22 -3.818316375429264e-22 
-4.040552458978527e-20 -7.428393216206309e-20 7.403753944511678e-20 -4.044161865106026e-20 
-2.648358966271335e-21 -1.121687274795131e-20 1.04059718125572e-20 -2.648020069824619e-21 
-6.946348419752022e-20 -1.30782910327363e-19 1.314375333162903e-19 -6.952443196506375e-20 
-4.787921656630691e-20 -4.944413933908748e-20 4.970941044289876e-20 -4.787019194559225e-20 
-7.968273026413069e-21 -8.036062680918861e-21 8.020983658669018e-21 -7.966913384316682e-21 
-9.0229044387836e-23 -1.196026657292778e-22 1.192378474481105e-22 -9.135902523553926e-23 
-2.464505727980588e-21 -4.131100804677242e-21 4.157696525721235e-21 -2.462162927597285e-21 
-7.792226919524553e-22 -1.440155177524429e-21 1.447538187033406e-21 -7.797733964552457e-22 
-5.825417683910034e-23 -9.060645662522e-23 9.113794398372014e-23 -5.823861334925017e-23 
-9.46756769641498e-23 -1.792448891501875e-22 1.801425200434253e-22 -9.476088006822889e-23 
-5.391976697517181e-24 -9.804988321020641e-24 9.854141164553384e-24 -5.396342219017566e-24 
-3.043082953784666e-22 -5.751082880600785e-22 5.780067881479354e-22 -3.045685502077613e-22 
-8.826447073068392e-24 -1.351322125096524e-23 1.360725765591969e-23 -8.814459624649042e-24 
-1.281414307487918e-23 -1.413416962038623e-23 1.42143038346728e-23 -1.280969308902643e-23 
-4.684141238826428e-21 -7.685175320000349e-21 7.721141440125273e-21 -4.686519896323079e-21 
-1.068843246644701e-19 -1.315065577480367e-19 1.328260939390676e-19 -1.064597215269307e-19 
-5.639242705435324e-18 -1.032288158956482e-17 1.037848257060392e-17 -5.641262832339185e-18 
-4.572740009613993e-18 -4.424687629724206e-18 4.498039276378091e-18 -4.537015140613892e-18 
-3.864660753805999e-19 -3.204340267417168e-19 3.265423405882984e-19 -3.833332830465996e-19 
1.828818899680349e-20 -1.742428893204137e-18 -5.077165270554044e-20 -1.710311760356401e-18 
-2.333568401189188e-21 -1.580944102696446e-19 3.566644635859517e-20 -1.727686483058061e-19 
-7.934179894596794e-20 -9.113493816445173e-20 8.979445524746209e-20 -7.930846234630648e-20 
-4.208193840104942e-23 -4.342706426153161e-23 4.365085721460335e-23 -4.20836365083524e-23 
-3.504224736727659e-23 -3.74214184083951e-23 3.762395465550892e-23 -3.50361223205788e-23 
-9.068630333738044e-22 -9.366722001497831e-22 9.417156785895407e-22 -9.066921005890293e-22 
-6.617740062737469e-22 -6.83428196783959e-22 6.8710869245044e-22 -6.616492506289341e-22 
-6.230358168320758e-23 -1.151532536748333e-22 1.157383580963851e-22 -6.235119529641423e-23 
-1.809640294395393e-23 -2.316619214488637e-23 2.328727391592668e-23 -1.809863468154464e-23 
-6.912678822304973e-22 -6.533878124978065e-22 6.556883054946478e-22 -6.94483593901199e-22 
-1.148757213340267e-22 -1.310959348201834e-22 1.317947435330273e-22 -1.148672464924734e-22 
-7.98819365077962e-24 -8.521378988733659e-24 8.567003369124191e-24 -7.987017893858064e-24 
-5.347813068981839e-18 -5.235423388644221e-18 5.209728748478364e-18 -5.346804651346338e-18 
-9.361180690831879e-22 -1.244179325439183e-21 1.250159538770023e-21 -9.362969799878569e-22 
-2.152540625044335e-19 -2.23782737630043e-19 2.249868839589399e-19 -2.152148015009498e-19 
-8.539102356030246e-19 -1.61778942940304e-18 1.625916429652654e-18 -8.546863208367229e-19 
-6.215412010164389e-19 -1.18071173047599e-18 1.183959463967751e-18 -6.221063654577487e-19 
-5.004785259782367e-19 -6.250404059824001e-19 4.282056468838184e-19 -6.058630111206455e-19 
-1.62032812592999e-19 -1.596639568036808e-19 1.607582233138779e-19 -1.618314121521411e-19 
-3.082592566809696e-20 -3.183667556103964e-20 3.200813338135302e-20 -3.082009261069703e-20 
-2.925924746433976e-19 -3.022101617106133e-19 3.037530052167094e-19 -2.925833132775101e-19 
-3.919418277717089e-17 -8.030085250759476e-18 1.987069969636043e-18 -3.918657296312457e-17 
-4.946739908040323e-19 -2.126657679525181e-23 -1.876524665219248e-22 -4.951240909554141e-19 
-1.513355269548561e-17 -1.556371153170755e-17 1.563703162254674e-17 -1.513070094182e-17 
-1.897077014529169e-20 8.086152578250216e-22 -2.028825852764076e-21 -1.896739005398717e-20 
-2.041313853367119e-20 -3.856601623345341e-20 1.756468699012465e-19 -1.788973366433666e-19 
-1.575318923008765e-21 -1.628454900080697e-21 1.636662627285322e-21 -1.575023267491921e-21 
-6.170889670856684e-20 -6.372583771441471e-20 6.406922867796377e-20 -6.169707801652684e-20 
-1.24340202865683e-22 -1.301815707730891e-22 1.309328497992489e-22 -1.24317312560526e-22 
-1.006672018890371e-19 -1.032553338729346e-19 1.038510006751615e-19 -1.006205143904884e-19 
-1.20831170447584e-21 -6.688638763742168e-21 2.329256314127768e-21 -1.209382360766535e-21 
-5.56100707072463e-18 -5.74329935537029e-18 5.774217890880073e-18 -5.559959077982348e-18 
-1.4456430674621e-21 -1.492203221724969e-21 1.500312236355392e-21 -1.445318924097708e-21 
-4.019034449263492e-21 -4.826878247059634e-21 4.813858422810722e-21 -4.018334276768049e-21 
-3.174160448968638e-22 -5.953984539667924e-22 5.983856756481328e-22 -3.176925882522199e-22 
-1.954755573365108e-21 -2.01896216720429e-21 2.029829636199037e-21 -1.954367361960314e-21 
-2.106030479670448e-18 -3.522463141789437e-18 3.545067662099602e-18 -2.104060344657619e-18 
-1.694279948472735e-21 -2.056837090891002e-21 2.067832101959703e-21 -1.694162397235646e-21 
-1.745692350134604e-20 -2.281472013002194e-20 2.2935183044485e-20 -1.745839611354586e-20 
-1.315281224572145e-21 -2.488990913539588e-21 2.501305068785627e-21 -1.316463258827228e-21 
-1.919361299905743e-22 -3.015797325422968e-22 3.032827463358948e-22 -1.919171294564009e-22 
-1.69047518376729e-22 -2.168836292942835e-20 1.583117680744374e-20 -1.692005673440442e-22 
-7.880015198930737e-24 -9.876101539105107e-24 9.619941365353887e-24 -7.879229570145482e-24 
-6.410594427116965e-22 -9.385473293584005e-22 9.456351179309235e-22 -6.397421375810093e-22 
-1.201138445754223e-19 -1.364228150690104e-19 1.136049975680187e-19 -1.321981736492394e-19 
-4.218153569892251e-19 -7.981609799497237e-19 8.021756592599691e-19 -4.221828728011469e-19 
-2.681937826017294e-19 -2.75334241620873e-19 2.767405751937221e-19 -2.681701855982118e-19 
-6.707090496358041e-22 -6.960335302209678e-22 7.011729361906107e-22 -6.6963088969965e-22 
6.997447873528115e-19 -6.991870013703527e-19 -2.475613901347009e-19 -6.772882052745663e-19 
-1.03188642136053e-21 -1.063708171509749e-21 1.069548198418173e-21 -1.031614012369838e-21 
-2.04445949257737e-20 -2.582211771176952e-20 2.605377987341759e-20 -2.038051979503927e-20 
-8.161690122744189e-19 -6.91086295907675e-19 7.007157209113039e-19 -8.118928388522245e-19 
-1.842819998946184e-18 -1.499165989912134e-18 1.527710632741855e-18 -1.828494475749971e-18 
-4.198150144172967e-20 -4.289463772524097e-20 4.304143446814758e-20 -4.197322515630284e-20 
-2.305891140804864e-23 -3.182842602794122e-23 2.797426376508461e-23 -2.307612157336124e-23 
-5.248100152212745e-24 -9.136025464587059e-24 9.173513573355467e-24 -5.251759621437684e-24 
-4.57519448470187e-21 -4.705701713868713e-21 4.723577475234883e-21 -4.574357715557945e-21 
-8.739090681618646e-19 -1.638726273835139e-18 1.647025098241263e-18 -8.745552604719442e-19 
-1.380320842502831e-16 -1.425442948876672e-16 1.433099216792046e-16 -1.380060743885109e-16 
-9.066910519872144e-21 -2.444585467287518e-20 2.808323200118869e-20 -9.075150152881368e-21 
-9.513375050240498e-23 -1.314522028372641e-22 1.320472692963469e-22 -9.533694567282565e-23 
-3.352601622254793e-22 -6.169781317400394e-22 6.202153257778266e-22 -3.354447283167719e-22 
-2.424184895331127e-22 -4.026536236735978e-22 4.052629191101259e-22 -2.421857891068042e-22 
-2.844268540692958e-23 -2.960039424061158e-23 2.976044700991943e-23 -2.843707683635173e-23 
-2.92294894534948e-24 -5.290116449921276e-24 5.318335829239609e-24 -2.924164162520366e-24 
-4.141072364808526e-22 -4.276390464260713e-22 4.299435136913696e-22 -4.140278984906449e-22 
-1.667858749239238e-23 -1.720285140355722e-23 1.729653097095759e-23 -1.667471474267231e-23 
-5.077840342024976e-23 -5.096358039982425e-23 5.130084323147641e-23 -5.07257582623507e-23 
-3.26195790745215e-22 -5.626243658653322e-22 5.660128818957434e-22 -3.260454567283238e-22 
-4.919867458091698e-24 -9.348665500177859e-24 9.491392765466437e-24 -4.924332156898052e-24 
-4.140599646816262e-23 -7.854700642832742e-23 7.892618349226318e-23 -4.144360015729919e-23 
-1.326995815742048e-25 -1.306871060883539e-25 1.322810253615357e-25 -1.320606921254057e-25 
-1.421095450781714e-23 -2.689536636476936e-23 2.703058505829896e-23 -1.422337118049906e-23 
-2.032531178558441e-25 -3.433830880044034e-25 3.451857380356806e-25 -2.033389475905932e-25 
-1.039362696594772e-25 -2.505559211347405e-25 4.627996785252517e-25 -1.040229334578977e-25 
-1.760259730674061e-23 -2.084065366106201e-23 2.095112491011356e-23 -1.760232747569438e-23 
-3.992372268585917e-27 -4.459030684528647e-27 4.48325571897039e-27 -3.991824770261478e-27 
-8.883368368351029e-26 -2.460555259464851e-25 4.210957334713566e-25 -8.816868447836191e-26 
-8.671737632727361e-19 -8.941661357562251e-19 8.986726140924863e-19 -8.670103520158277e-19 
-1.611436571995752e-18 -1.44908470888432e-18 1.416560661018427e-18 -1.611132669867721e-18 
-4.285100267243891e-17 -4.425627805491335e-17 4.449392213764737e-17 -4.284330826114901e-17 
-2.835217009775064e-18 -2.928130478138444e-18 2.943887738184179e-18 -2.834682739825414e-18 
-2.84678847032483e-20 -2.940160537502458e-20 2.95599065811168e-20 -2.846252080807414e-20 
-1.185644636323641e-19 -1.224505587046441e-19 1.231099232868857e-19 -1.185420793521912e-19 
-7.324386652512818e-17 -7.568922026467422e-17 7.603480460586222e-17 -7.327905581746765e-17 
-1.716609850582875e-18 -1.773335270744279e-18 1.781573535746512e-18 -1.716937391496049e-18 
-2.567528008049808e-21 -1.370602695607091e-21 1.379210718646547e-21 -2.569864133599729e-21 
-1.595620239082468e-19 -2.936231043472277e-19 2.947490234377e-19 -1.59695081379793e-19 
-3.323296626828931e-21 -5.743897553467173e-21 5.772535101327088e-21 -3.325530250027834e-21 
-7.269359737474327e-21 -1.362086675321059e-20 1.369067602906299e-20 -7.274671563655282e-21 
-8.485535200312435e-21 -8.959367779371874e-21 9.008148422124535e-21 -8.483704108816401e-21 
-8.00586110388736e-20 -1.509875729656765e-19 1.517371860705452e-19 -8.013130674782446e-20 
-4.904857586613642e-23 -9.150636152735497e-23 9.13701567442936e-23 -4.909085540571295e-23 
-2.879983422801684e-20 -5.427376599035961e-20 5.454853264466927e-20 -2.882347445321484e-20 
-9.64627938130328e-19 -9.962352341523143e-19 1.001600120954765e-18 -9.644455232439435e-19 
-7.031925051550304e-20 -5.32857185018717e-20 1.050867181265612e-19 -7.030599740008648e-20 
-8.379169199452108e-21 -1.576484366094017e-20 1.584359511227296e-20 -8.386604601718813e-21 
-4.382253597557773e-21 -4.479150844495245e-21 4.535286685271227e-21 -4.359446286176619e-21 
-1.854550205878502e-25 -2.083958754780127e-25 2.094262012292868e-25 -1.854296291229351e-25 
-4.067581492550931e-20 -4.642084281180135e-20 4.663498108220234e-20 -4.06674874535125e-20 
-5.891892199199161e-23 -8.476144617459211e-23 8.520734188238634e-23 -5.893177527482613e-23 
-1.803599031398427e-20 -3.137269690256247e-20 3.156112984756762e-20 -1.802809940857515e-20 
-2.024756869507565e-22 -2.084006035270225e-22 2.090251816446019e-22 -2.027482023011882e-22 
-1.038259602316784e-24 -1.072294466262957e-24 1.078068252994193e-24 -1.038063797962852e-24 
-3.588340017532458e-25 -6.794676889104885e-25 6.828587026704837e-25 -3.591599822547411e-25 
-1.126188643844339e-22 -1.127717767763227e-22 1.135281745440432e-22 -1.124948984201187e-22 
-6.336801703569244e-24 -6.505577527705078e-24 6.519904801961144e-24 -6.356012176864114e-24 
-4.265623457526441e-23 -4.402955150547143e-23 4.426662444977859e-23 -4.264868466283924e-23 
-1.195111160895778e-24 -2.233764400018512e-24 2.244991310811844e-24 -1.196131481154527e-24 
-8.078115032255811e-24 -1.436609170561452e-23 1.444362043365968e-23 -8.080669833606783e-24 
-6.525439616920466e-25 -6.775844926258107e-25 6.81413914951578e-25 -6.523408201427705e-25 
-3.378634307270064e-23 -3.416531703222376e-23 3.437805237571236e-23 -3.376078577068606e-23 
-6.388546451630108e-24 -6.553451140784097e-24 6.599154339434342e-24 -6.380178963870071e-24 
-7.000130097746453e-24 -1.325314644413105e-23 1.331954187411931e-23 -7.006411886923773e-24 
-2.897811969227286e-22 -5.487601535196446e-22 5.51515624592678e-22 -2.900370924569968e-22 
-6.169360751119205e-24 -6.754799905201488e-24 6.790856416255709e-24 -6.168680950443947e-24 
-1.070888009626793e-23 -2.02369260416097e-23 2.033846892396797e-23 -1.071834509302584e-23 
-1.237422392947858e-24 -1.513357776938046e-24 1.521383955778793e-24 -1.237437103847392e-24 
-5.403559749775785e-23 -1.024392454088259e-22 1.029518603013895e-22 -5.4084560473496e-23 
-7.78180210542321e-25 -9.709729468453027e-25 9.760600786789927e-25 -7.782449040459797e-25 
-1.10376534681455e-27 -1.371504585061586e-27 5.0515693068594e-24 -5.043908951581932e-24 
-2.71361673224782e-23 -5.14324674743605e-23 5.169017087202376e-23 -2.716054737456784e-23 
-2.937008776232522e-25 -5.558806021029302e-25 5.586602082959666e-25 -2.939660493294775e-25 
-1.777688761635906e-25 -2.639593686152928e-25 2.653215740359135e-25 -1.778316524666725e-25 
-1.859176418035532e-25 -3.497369865973588e-25 3.514831727294549e-25 -1.860832663746639e-25 
-6.437708038786441e-26 -7.802574166617801e-26 7.843636034310312e-26 -6.437949900698972e-26 
-4.930498061879926e-25 -9.347454520324298e-25 9.394208211715351e-25 -4.934964721527663e-25 
-1.109048295901663e-24 -2.101037694442297e-24 2.111733859864976e-24 -1.110052766045044e-24 
-5.497517387263676e-25 -7.358511371701366e-25 7.417639678764323e-25 -5.484309483078198e-25 
-2.255309367117126e-25 -5.724967688339665e-25 5.56938218147326e-25 -2.257282573260314e-25 
-3.00770480407735e-25 -4.825008716016053e-25 4.841040882580594e-25 -3.009309282815282e-25 
-3.025057912476456e-22 -3.122157831912521e-22 3.138936753917235e-22 -3.024422740679066e-22 
-3.048273978483911e-20 -3.147923853458121e-20 3.164818119686498e-20 -3.047699529366568e-20 
-3.441646111755535e-25 -4.866943284061378e-25 4.890708970218064e-25 -3.442654779492639e-25 
-8.749744532717273e-21 -9.036406214754289e-21 9.085015927389011e-21 -8.748095499107029e-21 
-3.361628579216245e-21 -3.471844467726654e-21 3.490537288335877e-21 -3.360995077230127e-21 
-9.566209258269361e-20 -9.87985472244976e-20 9.933050235095362e-20 -9.564406875347788e-20 
-3.441646111755535e-25 -4.866943284061378e-25 4.890708970218064e-25 -3.442654779492639e-25 
-3.315256128147944e-22 -3.424153637127137e-22 3.442598536936563e-22 -3.314625703167106e-22 
-1.223621084815664e-23 -1.536202163270507e-23 1.552499400916644e-23 -1.223637181053006e-23 
-3.384078584806063e-28 -1.221469967350128e-25 1.401168002924928e-22 -1.169995390227362e-22 
-1.864097183862147e-19 -9.531313164260949e-21 -4.453554674137189e-19 5.780474687756121e-19 
-3.012034706178421e-23 -2.37523206407932e-23 1.47310725774597e-20 -2.140714370162205e-20 
-1.595232778171929e-25 -1.72943241516786e-25 -3.145216355064523e-23 3.256589201643069e-23 
-1.693535476405019e-23 -1.799468208738713e-23 -1.606010222384858e-21 1.604950234779584e-21 
-2.457644004742225e-23 -2.579871029406803e-23 -6.30502326549467e-21 6.297480810252371e-21 
-3.514147149194948e-25 -3.868289427625171e-25 -6.620675384669356e-23 8.363015398136655e-23 
1.341221101643253e-27 -3.496629796967841e-27 1.663191016342152e-25 -1.693021883341053e-25 
1.913477317200356e-27 -2.61865726528142e-27 -8.503107880727867e-27 5.146429706554023e-27 
-4.866600802935367e-30 2.314459270227849e-30 -5.277476499510933e-28 5.211692446088952e-28 
-1.894719954795211e-27 -1.979484303147517e-27 -1.912087549688493e-25 1.910141699693124e-25 
-2.672543275538267e-26 -2.868113415415856e-26 -6.871672523039219e-24 6.863221333034868e-24 
-1.786443263156636e-28 -1.915730632641016e-28 -3.905021969322174e-26 3.900426531141369e-26 
-2.58867986382844e-30 -1.920133656330292e-27 -2.698171880116992e-25 2.677218140426833e-25 
-7.387663588622991e-28 -8.314529942022684e-28 -1.969680274879748e-25 1.966879160926712e-25 
1.020665994260582e-27 -1.024661927044982e-27 -7.143053612764845e-27 5.355287646100956e-27 
-4.240447875999931e-26 -7.733410266786585e-26 -4.167480677390734e-24 4.15521580098577e-24 
-1.210345310394209e-27 -2.151771456916883e-27 -1.306474973162052e-25 1.302928732008608e-25 
2.536127212654796e-25 -2.091571689922067e-25 -2.263188909915727e-25 -2.592805723248614e-25 
1.222532335706591e-25 -1.745180882807855e-25 -7.648121968797542e-25 5.307817253149945e-25 
-1.376945265826136e-25 -1.861468320203927e-25 -3.424098378133162e-23 3.419333206980463e-23 
7.096041162562101e-27 -1.109337372363139e-26 7.357235700015052e-26 -8.611242797234498e-26 
8.035073593276072e-28 -2.524340008215045e-27 2.257477862227987e-25 -2.271250672321131e-25 
-3.179472141551869e-27 -1.539921970533232e-26 3.232014457546892e-25 -3.258422460834937e-25 
8.250614652852551e-27 -4.527368274297549e-26 -7.850824410825566e-27 -4.145881943775174e-26 
-7.859903679960343e-24 -9.825212897000425e-24 -1.722342037354848e-21 2.015809440559228e-20 
-9.747498914046906e-22 -1.022261066630004e-21 -2.537759931444311e-19 2.525503500893016e-19 
-7.362658299767928e-22 -7.934218022232551e-22 -1.652046258618677e-19 1.644777440270981e-19 
-1.275270265802989e-21 -2.407857700215204e-21 -1.392847274643094e-19 1.391261104240257e-19 
-5.755681735444015e-20 -1.610479087293539e-20 -2.496642513778028e-19 2.886597690879872e-19 
-6.514445240105097e-22 -2.998439978244995e-21 -1.541519188581064e-19 1.538645707898083e-19 
-4.771862809216908e-22 -9.690444700206924e-22 -4.464284358584243e-20 4.425131621392987e-20 
-1.190345430954102e-25 -2.150020897263924e-25 -9.247503272406577e-24 9.22017504863378e-24 
-4.710445501649439e-27 -8.173916460827362e-27 -8.552192393989618e-25 8.539389482117436e-25 
-6.179056799985489e-25 -8.12247138993384e-25 -1.666415144954791e-23 1.662045953932445e-23 
-2.406542260656113e-27 -2.598200786637959e-27 2.116137837924266e-27 -5.755801698876083e-28 
-4.558354815938843e-27 -1.49795466093558e-26 -3.418828187402044e-22 5.947675731132068e-22 
-4.758279748547503e-27 -5.023252524829111e-27 -1.124075154974941e-25 1.451834926147591e-25 
-2.347225499916815e-26 -4.049728947020912e-26 -2.173495540267139e-24 2.168035834770649e-24 
-4.339382028697004e-25 -7.958370329522327e-25 -3.496019372054372e-23 3.488908160808733e-23 
-7.91776320644373e-26 -1.460165903168949e-25 -6.45572591563886e-24 6.434022824741672e-24 
-3.261641704150996e-20 -2.162054696916924e-20 -2.110397744241078e-19 2.336159994634224e-19 
-4.498385996412129e-22 -8.302713171345416e-22 -3.465355920270018e-20 3.449271984722259e-20 
-9.458071685568947e-23 -8.930428469163638e-22 -1.156241055761834e-21 1.665997172856568e-22 
-4.637238621522318e-21 -6.499415005445185e-22 -7.902856914394003e-22 -3.591742864692552e-22 
-1.683837132613365e-20 -1.054762980722788e-20 -3.619244416454744e-20 3.059560588960091e-20 
-3.432538686863553e-19 -2.782896637398724e-20 -4.64507234412689e-20 5.303889898802573e-20 
-1.831333144305405e-27 -2.304693529257963e-27 1.227166989341116e-24 -1.225250957308989e-24 
2.794963096417927e-25 -3.613194141007506e-25 6.62288454383175e-26 -5.448236754988573e-25 
-6.769835199504365e-26 -7.766782834607597e-26 -1.775261466719983e-23 1.772800313742001e-23 
-8.989240604577812e-26 -1.007810585819426e-25 -1.736937165505959e-23 1.734939125292596e-23 
-1.339271923306977e-25 -1.411745578106336e-25 -3.46344628025095e-23 3.459209273076175e-23 
2.497909019550487e-29 -3.153727132383777e-28 -7.33516951580804e-27 7.086435870563604e-27 
-2.733550092258086e-25 -3.636530513451201e-25 -7.698424888931496e-23 7.684329891177875e-23 
1.741661085480495e-26 -1.386327338654972e-25 -1.579718569140051e-24 1.517234233142127e-24 
6.092704100650715e-24 -4.410286107094868e-24 -4.534840661668923e-24 -5.805229709302038e-24 
-1.183312955742087e-20 -8.002914586238602e-21 -1.958386873046552e-18 1.959248631805626e-18 
-1.380087465182777e-21 -5.902393101209509e-22 -4.521243935738345e-21 5.290176020991453e-21 
-5.655107892125911e-23 -1.124960782616132e-22 -4.152983515360932e-22 3.021196809671433e-22 
-1.163552120036668e-23 -1.569858451650758e-23 -1.014594271689912e-22 9.986242067846835e-23 
-2.765189019505764e-24 -7.915890531994993e-24 -1.150553906560836e-21 1.719912078469359e-21 
-4.201153953366858e-24 -5.973241047850712e-24 3.853966190015835e-24 -3.891772581051379e-24 
7.103554595293353e-26 -4.919635979407675e-23 -8.790186743262461e-22 8.024840403554303e-22 
-2.520658136674143e-23 -4.805780361940445e-23 -2.040547471777035e-21 2.033924193894793e-21 
-2.800526095044672e-20 -2.402514720702432e-21 -8.882908098991159e-21 9.437795875083847e-21 
-6.358571269778324e-23 -1.20129449107785e-22 -5.461499980468725e-21 5.44274511043777e-21 
-3.019529090246104e-23 -3.179104098587929e-23 -7.409006347264541e-21 7.400024014775357e-21 
-1.056858017263144e-21 -1.395193336931933e-21 -1.663233578848653e-19 1.661462704331443e-19 
-3.838267939166512e-24 -4.014677357344642e-24 3.133181465806269e-22 -3.125927971170803e-22 
-6.184941350344295e-23 -4.949701233761329e-23 -7.305330659319568e-21 7.194261692255031e-21 
-3.669189906467394e-22 -4.487686889073627e-22 -7.269002686463147e-20 7.260043314987508e-20 
-3.28470261537848e-21 -3.468080935334159e-21 -8.169378992991109e-19 8.159047844480783e-19 
-2.746365432860513e-21 -2.923167980009068e-21 -6.971963693963875e-19 6.963481697906837e-19 
-8.375087735514528e-22 -8.791929811633381e-22 -2.058680299222942e-19 2.056357869180456e-19 
-7.969070422500032e-24 -1.695273291748303e-23 2.038941404308406e-22 -1.89963037205399e-22 
-2.07354681683943e-25 -2.196122471990242e-25 5.866792902369505e-22 -5.858424271996589e-22 
-4.757636270153551e-27 -7.401404581047482e-27 -8.038918853561909e-23 5.543619930274551e-23 
-8.862429356374588e-27 -3.878485209305537e-26 1.533783967207103e-25 -1.670023597538153e-25 
1.001506064876748e-23 -7.699079661936359e-24 -8.437684266710646e-24 -8.609691446487278e-24 
-4.894656024171839e-27 -2.437979259248464e-26 7.780862940745368e-24 -7.746120596783924e-24 
4.552907555430222e-26 -4.612275274201587e-26 -3.994973823898453e-25 3.148449397777006e-25 
-2.30126976953453e-26 -2.600396633958092e-26 -5.889773729277741e-24 5.881821021177266e-24 
6.240252538292424e-25 -4.526782025769717e-25 -7.820739168763531e-25 -2.808025880613841e-25 
-1.093350418047381e-26 -4.570651840249102e-23 1.72227390652571e-24 1.290358204023816e-21 
-2.462894631985777e-24 -2.541654532142105e-24 4.415119649696222e-22 -3.69109671678443e-22 
-1.319554113260065e-26 -1.135862359071067e-25 6.471210526181502e-24 -6.793182856969628e-26 
-1.681371289638662e-23 -3.616129900149185e-23 -1.116906747078519e-21 3.488248597370303e-21 
-2.711227888688803e-27 1.286086966865888e-25 1.336891366363864e-24 -8.308482695200961e-24 
-3.752586742549253e-25 -1.997719710050435e-20 5.009733095989685e-22 5.159979084834571e-19 
-1.838741381517065e-24 -1.075563302107582e-21 -5.784452240667616e-24 -1.760222504206278e-21 
-7.702690793647335e-21 -1.456416197388352e-20 -2.730024014772138e-19 2.728994746469629e-19 
-1.386310655279393e-19 -2.741994187319772e-20 -5.077501239434237e-18 5.07135971785927e-18 
-3.791090336466858e-26 1.008066043647532e-25 -1.017938123775544e-20 1.232002887572668e-20 
-7.335747484095518e-26 -8.128391066606125e-26 1.466930580709794e-22 -1.46518623406399e-22 
-1.286049424687184e-25 -2.352078914404893e-25 1.054375779865872e-22 -1.056021232185855e-22 
-4.467258834431604e-25 -4.795492127355787e-25 -7.180132462849534e-23 7.17152694095561e-23 
-3.268222092827226e-25 -3.829574487847515e-25 -6.809686582842312e-23 7.332412392562172e-23 
-8.80130227030015e-25 -9.772339385019118e-25 -2.135871296458695e-22 2.134622121477792e-22 
-4.061571331948192e-25 -7.670344104213914e-25 -3.490735629343473e-23 3.478896632781048e-23 
-2.409365579653252e-26 -2.533526072074993e-26 -5.965242325104879e-24 7.845878401374809e-24 
1.222229882587351e-26 -1.99806710823369e-25 -1.562369541849661e-23 1.547411797821462e-23 
-6.769592966173727e-26 -1.319210344910208e-25 1.303106860281272e-23 -1.335645293375025e-23 
-1.13308517399304e-25 -2.113263804921881e-25 -9.786028766000145e-24 9.76608551400673e-24 
-2.939945767327857e-24 -5.552623042878376e-24 -2.758304222892356e-22 2.751724119120755e-22 
-1.10027289324886e-22 -2.078456643775093e-22 -9.58359905966969e-21 9.566848278834504e-21 
-1.736000417488701e-24 -1.834070927992696e-24 -4.426981810548788e-22 4.423576293625857e-22 
-9.213293415064568e-26 -1.725504880716454e-25 -4.577288875702616e-23 4.525196544285193e-23 
-1.96238690213464e-24 -3.573533975350573e-24 -1.951226500704678e-22 1.945505656182971e-22 
-1.014551492042195e-27 -1.426050987915946e-28 -3.989412031034168e-26 -2.306977127788748e-26 
-2.136753967927706e-23 -4.699563607330597e-23 -1.814374696219356e-20 2.628106918605861e-20 
-2.126981828250326e-19 -1.364731135166072e-20 -3.743718990221188e-19 3.976626595315627e-19 
-6.395895963188632e-21 -6.746538198920239e-21 1.939930289720822e-20 -5.816185424899051e-21 
-1.146519978074802e-22 -1.220569754381031e-22 2.110422137832269e-18 -2.112421690459113e-18 
-1.949459104683651e-20 -4.95075218867316e-20 3.144732156511758e-22 -1.362030011146869e-25 
-1.58666239642531e-20 -3.023958562109122e-21 2.117903615141643e-20 -1.496960148108618e-21 
-2.58648718238474e-20 -2.721153994794065e-20 -9.945934672570183e-19 1.008478321035672e-18 
-8.412341475617038e-20 -8.187716612286977e-21 -1.307890130976848e-20 9.358314771609465e-21 
-2.055863025209896e-26 -5.268080766424839e-26 -5.638074797691557e-25 5.550760814918704e-25 
-3.660420125339944e-25 -6.912503035051203e-25 -9.86830930740258e-24 9.79415464755327e-24 
-1.771525235160329e-28 -2.334937952442684e-28 -1.13934826231295e-26 1.13287831998466e-26 
-4.949267766244091e-26 -9.511802564898505e-26 -2.666913954979427e-24 2.655083845329334e-24 
-1.953463648030506e-23 -3.690671247264728e-23 -1.680588835062632e-21 1.674890572819548e-21 
-3.235683080417684e-23 -6.121878679571477e-23 -2.91065680046789e-21 2.851204731083758e-21 
-8.857879763973147e-27 -6.958819661246406e-26 1.924483597351031e-23 -1.946352818959724e-23 
-4.666689689615823e-25 -8.814561611574893e-25 -4.009222366938746e-23 3.995620184488839e-23 
-2.192730587203057e-23 -4.141802356308397e-23 -1.867283947606549e-21 1.860895193874354e-21 
-6.055806415764858e-24 -9.692514132474274e-24 -1.913398866393388e-23 -4.90689498156792e-22 
-1.435448865884214e-23 -1.508732045959097e-23 1.441985041230685e-20 -1.439677325964807e-20 
-5.203869826861867e-24 -9.819137236020634e-24 -4.1838345676847e-22 4.194155420240777e-22 
-1.591375703461845e-23 -2.102295742299905e-23 9.755016581056494e-21 -1.1987865569709e-20 
-3.983119737759784e-28 -5.206488886998136e-28 -6.164844501151676e-27 7.816989421009467e-27 
-1.712496068150112e-26 -3.012199714166063e-26 -8.494302743744656e-24 9.195530087526616e-24 
-6.002906248719655e-25 -1.046125493311827e-24 -7.379109161929353e-23 7.36978543128824e-23 
-4.21870429671033e-27 -5.618846124177614e-27 -1.027813109376747e-24 1.045115354203024e-24 
-1.453075442650839e-26 -1.66003898008645e-26 -3.545116496246579e-24 3.545182069305089e-24 
-1.095315206791136e-25 -4.14653172150723e-22 1.060004499548949e-22 1.169373173755699e-20 
-1.334779231069784e-21 -1.432915029843061e-21 9.000538586198608e-21 -6.601523427495584e-21 
-5.317165771482392e-22 -4.362672141314483e-22 -1.059206083690514e-19 1.058792768126647e-19 
-2.990072300890366e-25 -7.038683699805788e-21 1.084031510138825e-21 1.98621608943254e-19 
-2.56462212484e-25 -4.679282251879626e-25 2.684223419523452e-21 -2.676654319980884e-21 
-3.046575645213684e-25 -3.160418227412443e-25 -1.371798863266818e-22 6.781611544896406e-23 
9.143855216632635e-23 -1.354815584735945e-22 -1.580098138412971e-22 3.068324304471412e-23 
-7.441376456267906e-24 -9.811224872154635e-24 -1.873236975842021e-21 1.869289474543904e-21 
-3.939127846957975e-27 3.825194982980979e-27 1.232334845651549e-25 -1.513680088636121e-25 
-2.865130288853722e-24 -3.099475321347916e-24 1.561270278457462e-19 -1.559616482807855e-19 
-4.311037283871466e-19 -4.372684618073025e-19 -2.658579147035642e-20 6.932507809785828e-20 
-2.801524395562569e-24 -5.273213639181569e-24 3.661893415214441e-22 -4.507837375255734e-22 
-1.371738544264675e-23 -1.436536648207671e-23 5.510321504845798e-21 -5.501073668324911e-21 
-1.410653874923085e-24 -2.194918507179833e-24 1.898215142810242e-21 -1.89553007921848e-21 
-3.942729881960982e-19 -3.0359872632571e-19 -1.268999464460372e-19 1.924172577409172e-19 
-9.433533520788417e-24 -1.783680231496005e-23 -7.054879059812291e-22 7.028800326994693e-22 
-3.274089500203384e-25 -6.214001288682413e-25 -2.745331486631299e-23 2.735740921487833e-23 
-4.897883937049701e-28 -1.300817908763094e-27 3.405294223096974e-26 -3.462098163859832e-26 
-4.11410199488477e-27 -7.876493440691709e-27 -2.195686556478502e-25 2.184816878169702e-25 
-1.070101107447783e-29 -1.807007646279218e-27 3.989696809350982e-25 -4.005668642668418e-25 
-2.791303110932548e-27 -8.459491305615321e-27 -3.478756047483106e-25 3.445583361709661e-25 
-4.894748071083561e-28 -8.853825445676244e-28 -2.777255896632328e-26 2.764924169591409e-26 
1.890478872539741e-28 -3.898227191560634e-28 2.74751983404789e-25 -2.758893759831093e-25 
-3.153011632740767e-28 -3.386368313564482e-28 -7.191018212686231e-26 7.182392371357697e-26 
-7.19923633805742e-26 -9.262249117833541e-26 -1.737438679163877e-23 1.735027214550594e-23 
-6.266472500264991e-25 -6.56173111705041e-25 -1.275230526492701e-22 1.273809458246294e-22 
-7.824892034151934e-26 -8.754988339956391e-26 -1.566268962746966e-23 1.564217744817243e-23 
-6.202183654879284e-26 -7.627317956463966e-26 -8.145514540698378e-24 8.043009743665108e-24 
3.367816890747032e-26 -2.979141755515624e-26 -1.345602736349617e-25 7.61306090913539e-26 
-1.615964959128031e-26 -6.598983845813626e-26 2.427342479109388e-24 -2.461411491308668e-24 
-4.629048392896143e-28 -2.292989702075012e-27 -3.697629194160079e-25 3.676045205029382e-25 
-2.298504739979169e-29 -1.049710132547817e-29 1.357128433363406e-27 -1.377221684152908e-27 
-4.755042281416781e-30 -3.0438330512368e-30 2.292567006315248e-28 -2.327209007453937e-28 
-1.035497723778356e-21 -1.946892071440645e-21 -2.894477455616083e-19 2.905817887032067e-19 
-7.340550387967247e-24 -2.811759511563978e-23 -1.438864357625528e-19 2.44426708442005e-19 
-2.700538679952542e-22 -5.101260518560369e-22 -1.845198405008676e-20 1.838944741553316e-20 
-1.950273097486837e-26 -3.422116071343052e-26 -1.448123322960465e-23 2.316737870082637e-23 
-1.606619391735419e-24 -3.020574423097811e-24 -8.835192501089375e-21 1.504662082298627e-20 
-1.636141220004061e-23 -2.160886380200276e-22 -9.303341842252131e-20 1.59076045676212e-19 
-1.772300866120849e-22 -3.348028690933581e-22 -1.521769643137587e-20 1.516595821558601e-20 
-2.429721078730847e-25 -4.558478346780531e-25 -3.219726190053388e-23 3.838529354743244e-23 
-1.009723849476611e-25 -5.680512954027228e-25 -2.478868554751991e-22 4.690960463026723e-22 
-1.920712730991722e-20 -3.030699836441398e-20 -6.190806476244225e-19 7.708505534510541e-19 
-7.13591537955308e-20 -5.104888320659194e-21 1.035725684014737e-20 -7.154491088800428e-22 
-1.79202504875457e-25 -7.365171478928609e-24 -7.387295494551573e-22 7.32521062728177e-22 
-4.281676735521839e-25 -2.151515049538703e-24 -1.073404527137676e-22 1.053666710607562e-22 
-1.615755609768605e-24 -3.320031675696284e-24 -4.403983428025886e-22 4.396405309869041e-22 
-7.126380687720222e-23 -7.852624617017627e-23 -1.226595584606909e-20 1.225041601273376e-20 
-9.491253305292211e-27 -1.573156902063308e-26 -6.221997744153023e-23 6.146536861076254e-23 
-5.550094834255782e-25 -5.798993165441712e-25 3.360766243757098e-22 -3.355176692670992e-22 
-1.856101446218668e-24 -2.552410539283165e-24 3.114568788013013e-21 -3.109892548271345e-21 
4.392542754452557e-24 -3.552674124597955e-22 -1.597269379334561e-22 1.347933984324629e-22 
-1.418688362411718e-23 -1.600457416561359e-23 -8.347098600799617e-21 8.996014538929819e-21 
-6.211573458161861e-21 -4.930977488459225e-21 -1.132995655118352e-18 1.132745793298672e-18 
-2.006944868192016e-22 -2.231850449799283e-22 -2.442410393891068e-22 -2.226844791142113e-22 
4.100163435189986e-23 -8.092799615295168e-22 -2.408982765661335e-21 2.257653323613404e-21 
2.023764135318328e-22 -1.621488880912483e-22 -1.806882174472836e-22 -1.720005325178099e-22 
-1.695015588924997e-24 -1.120911391635161e-23 -5.15176332147222e-22 5.086873778239919e-22 
-2.50590418127853e-27 -3.450840657262561e-27 3.315313809331382e-23 -3.30679303867587e-23 
-6.426923885384465e-24 -1.053563031854891e-23 -1.226077728656158e-21 1.222398395154965e-21 
-3.692084694835092e-22 -3.838090410620349e-22 8.259465148531816e-26 -7.880463513231952e-23 
-8.834003162552428e-25 -1.002303076082051e-24 -3.550903197264339e-24 3.456791492014854e-24 
-1.328199763959703e-25 -1.382077091315102e-25 1.478816196154225e-26 -2.325376354862753e-26 
-2.589806569083891e-27 -3.91242253145165e-27 -9.442914258733185e-26 9.088598013653622e-26 
-9.183418375339635e-26 -1.013266947649387e-25 7.280063120607069e-24 -5.989714466028936e-24 
-8.911002681209776e-29 1.06601746550374e-28 2.496243465573274e-26 -2.572301286641374e-26 
-4.805861306359286e-28 -6.752341395652691e-28 -3.093584762737257e-26 3.101616890971344e-26 
-1.620576807114865e-26 -1.739094937070874e-26 2.208233551270482e-23 -2.204779126543357e-23 
-7.203643871640045e-24 -9.476893146980876e-24 -6.12150942120311e-22 6.077066275284799e-22 
3.630809915037172e-24 -1.760197033249975e-23 8.3640210975557e-23 -9.061818088052778e-23 
-4.475082459490147e-26 -4.778119443289591e-26 -1.060809521895982e-23 1.059349618968599e-23 
-5.472503318194045e-26 -6.330784910699656e-26 -1.43459250252053e-23 1.432544156550948e-23 
-6.215972334783413e-26 -7.219043986366717e-26 -9.900588256781491e-24 9.887456491201134e-24 
-1.136844710491295e-28 -5.833103467827181e-28 1.450863927112815e-25 -1.451613398169627e-25 
-1.456658678771959e-26 -2.75266287948856e-26 -1.253250019585619e-24 1.248994477013517e-24 
-4.464899818753866e-28 -1.233643044782244e-27 -1.293281644747082e-25 1.286527434141811e-25 
-1.631808035710291e-29 -1.947261750307603e-29 -8.197293168807645e-28 8.180781474597563e-28 
1.900081326290296e-27 -1.449658060687988e-27 -1.124245246524536e-26 7.923276144746588e-27 
-2.660201982627751e-28 -8.139675443295023e-26 -6.735677508998141e-26 6.727717264549727e-26 
-1.349762886164998e-26 -1.522030476067474e-26 2.069242109579193e-23 -2.058471493949376e-23 
1.195840756987942e-25 -9.329803265358733e-26 -2.190750641827688e-25 1.467160158391698e-26 
-2.473031154025835e-28 -3.261839045287639e-27 4.572554602413081e-25 -4.570880286279308e-25 
5.85243633736273e-29 -4.435215734869537e-28 6.549645218329271e-26 -6.566141055591283e-26 
-4.243699612585429e-29 2.536617360615741e-29 1.84303283134377e-26 -1.84678069105334e-26 
1.315185294325587e-28 -3.223761975879003e-28 2.469268987919412e-25 -2.46629297510813e-25 
-6.75547100277105e-29 -4.386453772996164e-29 -2.626632970151184e-27 2.575821356173266e-27 
-5.953288765790583e-28 -6.969909258349048e-27 1.802099235154234e-25 -1.836455028766576e-25 
4.364735033464808e-28 -1.080797380862716e-27 4.680984047542552e-26 -4.76969817554319e-26 
-4.258180881704717e-23 -1.590864143667196e-22 -3.140250574962676e-21 3.120672208561454e-21 
-3.822786519303214e-25 -6.758818619709182e-25 -2.816221733005984e-23 2.806822864015422e-23 
-9.560825056427242e-24 -2.197319164593434e-23 -8.447727384406857e-22 8.412809884886024e-22 
6.459633660460369e-24 -3.47881267709433e-23 -2.120039248246605e-22 1.984253605735016e-22 
-2.641711112920088e-24 -2.765897195434902e-24 1.115541097326423e-21 -1.113665865842941e-21 
-7.740616411828573e-25 -2.31176433350472e-24 -2.180575082271492e-20 2.05479644424485e-20 
-9.633894025786829e-25 -1.251863809677631e-24 -2.659322849090504e-22 2.65468517224103e-22 
-2.446468008475895e-27 -3.182197489113527e-27 -1.862215574342993e-25 1.85941073898378e-25 
-3.985710335244585e-32 -4.130936757138384e-32 4.140926688795942e-32 -3.990593410098355e-32 
