solver_type L2R_L2LOSS_SVC_DUAL
nr_class 5
label 1 2 3 4 5
nr_feature 225
bias 1
w
-0.003358197220490696 -0.0002658692435322844 -8.239981469510182e-05 0.002847024604620092 0.001389143472480721 
-0.003195101746061778 -0.0007040015289661836 -0.0001025159646899545 0.003124870658919428 0.001238181385370021 
-0.002088058728759863 0.0001365088477753507 0.0007624918747812623 0.0005114571086931106 0.001423932947988851 
-0.003522105651706119 -0.000451332006299309 -2.007032612796954e-05 0.00299519909431803 0.001613730870956673 
-0.002597763754439841 -0.0004919936731987792 -0.0007364459022307334 0.002914120737642124 0.001167541276080596 
0.002611292436233466 -0.0004041756678881739 0.002214551587213971 -0.004598780151790461 0.002108917911565043 
0.003912351328497897 -0.0009151668054980986 0.001975516336147411 -0.004838401445838583 0.00218074697658503 
-0.005352288109799236 0.0005184856853187067 0.001677806208935894 0.002563838400662453 0.001058485597836163 
-0.003098496913583354 -0.0002540904356135627 0.001861854731348425 0.001004609673231491 0.002062060587485571 
-0.004278696030778031 0.0002516798275303856 0.002847980053227926 -0.0002225188294025965 -0.0001934161236111387 
-0.008756574219637089 0.001675667654120326 0.007853556828401911 0.001045936758888878 -0.0001703521898240916 
-0.01030053410283404 0.0005638459721756762 0.009416976462719129 7.836006497446295e-05 0.0002940145877437523 
-0.01149218346820329 0.0006212472826490382 0.007414574070427915 0.001184807482852379 0.0004066640213017006 
-0.007859625736886084 0.002044120978056817 0.005061967200368824 0.002254163227794801 -0.0007511797559218032 
-0.007041054949084507 0.0005252346190526483 0.005338570791561868 -4.495020630179555e-05 -0.0003169058528725635 
-0.008993068127868969 0.0002862070905575143 0.007755187899033912 0.0008164231529432472 2.637934869798571e-05 
-0.009180136688255961 0.0001730693143627312 0.009518579525295529 0.0002506726043725059 0.0007352756561468482 
-0.009978993416692722 0.0008782370950387835 0.005187412308996385 0.002485019001134019 -0.001075068196257288 
-0.01142953433654124 0.001970054843614367 0.007063586534548771 0.0003308086413229125 -0.0002490666592444507 
-0.01019371144773656 0.002050520607549265 0.007413584773870615 0.00102512606820196 -0.001043011910921545 
-0.009211824036031676 0.0002198179842400685 0.003315344240629485 0.00106728908077521 0.0002589936169979291 
-0.0005793640696697644 0.0006888465381443891 -0.002977596548370274 0.001797301878602457 -0.0007264649455731931 
-0.01049045786046978 0.0006592337021851109 0.004420648215469439 0.0002403862060106443 0.0008281272539114886 
-0.009558638382852576 0.0005657812722822809 0.005414824352214668 0.00194500791058163 -0.0005428670096930762 
-0.002710834883785219 0.001389533608484458 0.003826592872477213 0.0004112569747561782 0.0003807266817808524 
-0.007501669551228652 0.001576715843411428 0.003500989801643766 0.001506226575087909 -9.384468724790437e-05 
-0.01132001068870366 -0.0006328681298892918 0.004385375845654987 0.003983786339917599 0.000994525807453226 
-0.002229942651686155 0.0005287118959159288 0.002421526791693347 -0.001333770482559792 0.0006426794027445474 
-0.008245801735406627 0.001903112618121456 -0.0003323842175541598 0.003092496683368053 -0.0005771096890971655 
-0.01166382475665346 0.0008738192062915808 0.0004596581285454096 0.002569232944182408 0.002033593302704818 
-0.01294116204553893 0.0008544086772495303 0.001142787628757673 0.002051426104385575 0.002249667071783903 
-0.00146730426010597 0.0004022475597057692 0.002018365728979319 -0.001060909106513067 0.0004808000210468131 
-0.00171365112443568 0.0005654951168953074 0.002139742542810156 -0.001313476672278272 0.0004310819969365882 
-0.00171365112443568 0.0005654951168953074 0.002139742542810156 -0.001313476672278272 0.0004310819969365882 
-0.00171365112443568 0.0005654951168953074 0.002139742542810156 -0.001313476672278272 0.0004310819969365882 
-0.00177820857577191 0.0008191030793694658 0.001950998373360526 -0.0008723179411054924 -7.916840102242981e-05 
-0.008218367457688551 0.001963815697646652 0.00162150231855613 0.001341812421093309 0.0019648950073684 
-0.01086935167218382 0.003782710620369209 0.0007201901787910678 0.001404635347697054 0.002812341348226064 
-0.01131607632011404 0.0009779316701628944 0.00415535264303936 0.000401749992550768 0.001305263309378369 
-0.0044321951017889 0.0007025310835638352 0.0006848246475880922 0.001751662118366006 0.001039238455532066 
-0.01097274403448318 0.000958384022201746 0.002971012677671488 0.001211797978916415 0.002269620834895251 
-0.004627514915263402 0.001094154295842527 0.001704472176928908 3.446828469535247e-05 0.0005568422173889498 
-0.005240986191624015 0.001549457829599971 0.00170541957967816 0.0005023898283471272 0.0001933530186265139 
-0.00988617722244046 0.003092087580489566 0.0006912075505734311 0.0008059917649783036 0.002812369333621214 
-0.01171613368114343 0.0006060904921917611 0.003251562553724705 0.004084950967215296 -2.412659649670858e-05 
-0.00182925586520398 -0.003088076865686557 0.002179639282414839 0.0009351396740281638 0.001024758635246452 
-0.001835179685656119 -0.00389195107290325 0.003364173947066909 0.0008529785540871838 0.0009738113396316399 
0.003403437851388779 -0.002568665863597129 -0.001355330221232113 0.0004209057391877273 0.0004715956853425423 
0.002582126866134014 -0.002568041064274718 -0.000298855996871985 0.0005253765965236052 0.0003759078295182287 
0.002913598633863408 -0.002801413525629956 -0.0004030005559968148 0.00032635853625054 0.0006381928025081563 
-6.54976586390619e-06 -0.002804423817424379 0.0004522015001516554 0.001031149796621079 0.0007255776846156815 
-0.000867992061149093 -0.002738767307218218 0.00142469363738638 0.001196001920536683 0.00134957868923407 
-7.406351012453083e-05 -0.002421443272319869 0.002760697673473811 0.0008742367438991865 0.001035330569392398 
-0.0007105991014635251 -0.002567051886447643 0.002016250945899202 -0.0002671987133448264 0.001614401483410495 
0.002756390320842187 -0.002931448883860284 -0.0002159212453970543 0.001775489694433627 0.001272409218113295 
0.001121931306785795 -0.002469824463296649 -0.0008584714702418742 0.0009655298771860798 0.001860620575427527 
-5.728450960045592e-06 -0.002431727362896752 -0.0006668334043223207 0.001416401030058689 0.001921397697082414 
-0.0002734812941514262 -0.005177639145223832 0.00230724633326941 6.196403580746742e-05 0.001770426095770877 
0.0005766647775414826 -0.004569971892209711 0.001808152861818229 0.000986734915761793 0.000685746542926934 
0.002017647225431123 -0.002432579595028887 -0.0002887065798740506 0.0006090194595208817 0.0003258705760996004 
0.003462734566814573 -0.002737847587976652 -0.001301963402184265 -0.0008371038851394034 0.003681357471578074 
0.001218576912727796 -0.002353169131601809 0.0001277340261872847 0.0009320535247607869 0.000955193249354986 
0.001974695884292914 -0.001963804203789237 0.0002329826884220734 0.0004914833811351364 0.0007330503062842747 
0.0006560395757545551 -0.001731989042701782 0.0002666589328371323 2.654266476890886e-05 0.001247144563189024 
0.002191297879332876 -0.003816183930691524 -0.0007562245789213091 0.000542727814679487 0.002810412732847593 
0.001951273579931175 -0.002799503710826199 9.139158507132447e-05 6.073738994813139e-05 0.001509218671562157 
0.002695621249065954 -0.002761144381869805 -0.001712210504547649 0.001421117472378981 0.001542491689161365 
0.003321843747719529 -0.003156422796713061 0.0008430124711034949 0.0003010704213185561 0.002707498519621019 
0.002941762377856989 -0.01071837323555349 -0.001004394533293354 -8.533827498152914e-07 0.003737390231045202 
0.001780066290336104 -0.01156267280807476 -0.0003097192662817796 0.001148768916760025 0.006488345966199086 
0.0006509735527696803 -0.001393388058701626 0.0008781891959107876 -4.017464531633875e-05 0.001070202016251443 
0.0006509735527696803 -0.001393388058701626 0.0008781891959107876 -4.017464531633875e-05 0.001070202016251443 
0.0001218073744119266 -0.005673202465492639 -0.0009902089050817194 0.0007841645740370432 0.001564365183930652 
0.002373501243828424 -0.004201990308839975 -0.0002417100864562928 0.0001458079174338679 0.001265247963624472 
0.0006509735527696803 -0.001393388058701626 0.0008781891959107876 -4.017464531633875e-05 0.001070202016251443 
0.000530373063865678 -8.560122234684826e-05 0.0007020161900929782 -2.578823622929236e-05 8.754655912817725e-05 
0.004855432131578092 -0.003666848922079677 0.0001442861719599039 -0.002371401174486442 0.001347058584377887 
0.000588908535792006 -0.002730584970411428 0.001398903361886426 0.001560759198762041 5.957393173281415e-05 
-0.0003715595295847277 -0.002334583748746998 2.717219537030621e-05 0.002436780814858041 0.001269790040376681 
-0.003195101746061778 -0.0007040015289661836 -0.0001025159646899545 0.003124870658919428 0.001238181385370021 
0.0003343775042384188 -0.006845646758917309 -4.629944961680062e-05 -0.0001152721165489238 0.001405641153883305 
0.0005494392720023372 -0.002077716332851637 -0.0004522692685982909 0.001715558522806905 0.001302074022914152 
0.002145142318397558 -0.01010493726871811 0.00144023158137638 0.002158546954102708 0.002084997918760761 
0.0004548268548318027 -0.006491966543671437 0.001571298961025292 0.0004787743995541071 0.005272232871550963 
0.0009218579232092137 -0.0006315883691146847 6.456811095033102e-05 0.0004880140052440282 -0.0001357310190011046 
0.003912351328497897 -0.0009151668054980986 0.001975516336147411 -0.004838401445838583 0.00218074697658503 
0.000922866316340348 -0.008134125527076938 0.001447799364708627 0.0006773472958554354 0.001890795551134366 
0.0008287964999092807 -0.0006924849041657824 -0.0004409355355723803 0.0009984814096448027 -0.000146258136111472 
0.0005241834897339179 -0.00660336127350181 0.001730479364298188 0.0005104761423019335 0.005307992646355508 
0.002099940048738213 -0.009167322592716281 0.0007844147075769385 0.001916343332176475 0.00367993680232355 
-0.002710834883785219 0.001389533608484458 0.003826592872477213 0.0004112569747561782 0.0003807266817808524 
0.006472487779056536 0.002087177523394809 -0.004611614758600525 -0.001553108834744104 5.336479688169076e-05 
0.004702535544693678 0.002236018764873821 -0.00456713255998469 0.001668857659025998 -0.0007749653390302416 
0.006318389650012731 0.0005893882370081113 -0.005881828051430942 0.0006916933006099627 0.002077965040584974 
0.002176643161643432 0.0007749096054735135 -0.002277096399608762 0.0009029414762403803 0.001445344802807715 
0.001043602476878416 0.0009933431730443337 -0.001990022745278261 0.0012706395333528 0.001320308746711549 
0.001043602476878416 0.0009933431730443337 -0.001990022745278261 0.0012706395333528 0.001320308746711549 
0.001626888209544833 0.001219955029014647 -0.002572935645241581 0.001354185981488594 0.001082397174195633 
0.002083804984387764 0.001342644103634588 -0.002845594669770535 0.001098790183815776 0.001148471918726014 
0.00391525939989025 0.0009812073780635269 -0.009416546750465606 0.0028110147980405 9.28888882141428e-05 
0.005989477531303328 0.0008043904937629722 -0.00641663451998629 -5.134310167381487e-05 -0.0001078119832074673 
0.003142458502719412 0.0002438529227384404 -0.003231196010740476 0.002892777106565955 0.001323595181520831 
0.005054814803676489 -0.001182782196537667 -0.01087793368157069 0.001321381630295158 0.0008288385444061404 
0.003142458502719412 0.0002438529227384404 -0.003231196010740476 0.002892777106565955 0.001323595181520831 
0.003142458502719412 0.0002438529227384404 -0.003231196010740476 0.002892777106565955 0.001323595181520831 
0.003142458502719412 0.0002438529227384404 -0.003231196010740476 0.002892777106565955 0.001323595181520831 
0.006151815313419897 -0.0001544255605133674 -0.006278743069108531 -3.831382234225112e-05 0.0006171595955824415 
0.003142458502719412 0.0002438529227384404 -0.003231196010740476 0.002892777106565955 0.001323595181520831 
0.001065248002927668 0.0004150807145793418 -0.001532170335425965 0.0004128180771151208 -0.0003616021999390778 
-0.0005793640696697644 0.0006888465381443891 -0.002977596548370274 0.001797301878602457 -0.0007264649455731931 
0.002370160445888911 -3.983007147960575e-05 -0.00505090306985656 -0.0007506735533422963 0.001427027137049756 
0.002315284616966789 0.000643803551414479 -0.001601573248390288 -0.001496524790310042 -0.0005754712118473552 
0.00480712500711138 0.00163275532367285 -0.007289876375461846 0.001246911171704529 -0.0001090032835216465 
0.002345552869121536 0.0007989965393999302 -0.001454102263255392 -0.001424783499174887 -0.0009955092194415282 
0.00132613098549616 0.0004546925511841073 -0.002505264720484756 0.000403961505050515 0.0005053279661036072 
0.005733036667428883 0.0001547329344311356 -0.006990240790668267 0.0001849869329907602 -0.0005659648641415304 
-0.003124064270642556 -0.0002970738927854344 -0.0002838208456814285 0.002713120972881344 0.001484256316270427 
0.006597936767747514 0.0003801894070026294 -0.009923052017786833 0.0018639874773727 5.074948465314159e-05 
0.002761115498668584 0.0006910678888616717 -0.008884411082292499 0.004689525783070234 0.0001238556084395158 
0.005194030641919662 0.0005143035787085494 -0.008583950286156562 0.002183192339142169 0.0002680980955238034 
0.006289879139996059 -0.0007243664576851415 -0.01038322886871045 0.0006801325901797345 0.001286700079829146 
0.005258282259730523 0.0003492537150336719 -0.008204083265441052 0.001299556178379469 0.0008037244099719554 
0.004030058737394194 0.002375335913094914 -0.00797006519243698 0.0008765859069249485 0.001451501219213307 
0.004680404703790952 0.002192814486559883 -0.00846789020107285 0.001267621041420897 -0.002129068805429606 
0.003857910385971106 0.0001725382834982198 -0.008748741768981059 0.003231440585320524 -0.0007369408877660955 
0.001176150020214987 0.0009219584313429865 -0.006344810296269442 0.001748430475128708 0.0003172652782723677 
0.00280717573962721 0.0001990205165814933 -0.004298555654458974 0.001543914635571009 0.0002782785128762553 
-0.001401372941571311 -0.0002110875411846925 -0.0001551414209005644 0.001736864445615126 0.00112575788408117 
-0.00296014270041351 0.0008491907415873263 0.00109051219548707 0.002353334861223221 -0.0007479570368393193 
0.005613001077330273 0.001098065658718967 -0.01222137498151303 -0.0001065989278067652 0.001614258742490142 
0.001937400103449213 0.001625725507262117 -0.008788129726138882 9.07299885194342e-05 0.002014183990877819 
0.0012048967804064 -0.0003542607524270274 -0.002845369697730184 0.001436052983536926 0.001896404321941123 
0.001746756497259153 0.001730571743648424 -0.01229750657078513 0.001214402783342395 0.003929086574213753 
0.003829060446271262 0.0002601653979882758 -0.01193068233973878 -0.0005780664467294859 0.003409277938659498 
0.003520277118780579 0.0022530614037177 -0.01129572016717189 0.001100309401659858 0.001172188959515822 
-0.0044321951017889 0.0007025310835638352 0.0006848246475880922 0.001751662118366006 0.001039238455532066 
0.0007762684850234379 0.0001164052247018812 0.0005528872612078125 -0.00504399501808322 0.001134676743844173 
0.001392596480956679 0.0006830936379225862 0.001399830147372138 -0.0044830309417997 0.0006661885541410239 
0.001431437592119461 0.0002319405025946888 0.0002809788147151318 -0.002283249152039609 0.001783177509256964 
0.002213343854008868 0.0002148596370115491 0.0009576329677982861 -0.002863852846377783 0.0008491541565336701 
0.0002312214780957887 0.0004332571789650169 0.003362142437705511 -0.002287288902896022 6.15171293612061e-05 
0.00205044838636824 0.0009879533761844429 5.413415553051098e-05 -0.004625694283153424 4.041579433275587e-05 
0.002656329334707629 0.0008917655564191285 -0.0005301105140525799 -0.005882897094143249 0.0006780334992456692 
0.002118723972072376 0.001284006430587515 0.0004330897523938125 -0.004439368265031676 0.001021252270921872 
0.0006954456502955246 0.0007304816366322749 0.001653558447886752 -0.002146467573483829 0.0004194259975503921 
0.0001972510573779201 0.0007853399339964311 0.001794496364276571 -0.001963727787257179 0.0005852797551140424 
0.0001972510573779201 0.0007853399339964311 0.001794496364276571 -0.001963727787257179 0.0005852797551140424 
0.0001972510573779201 0.0007853399339964311 0.001794496364276571 -0.001963727787257179 0.0005852797551140424 
0.0001972510573779201 0.0007853399339964311 0.001794496364276571 -0.001963727787257179 0.0005852797551140424 
0.0001972510573779201 0.0007853399339964311 0.001794496364276571 -0.001963727787257179 0.0005852797551140424 
0.0001972510573779201 0.0007853399339964311 0.001794496364276571 -0.001963727787257179 0.0005852797551140424 
0.0001972510573779201 0.0007853399339964311 0.001794496364276571 -0.001963727787257179 0.0005852797551140424 
0.0007655536212582745 0.000914671949073081 0.001388017445498113 -0.001921878252034418 0.0003822644614555471 
0.001456609925220001 0.0008982601626128763 0.0001627685952718972 -0.00299895891492788 0.0003342720086625628 
-0.0006383555956460867 0.001121622001530967 -0.0001575564858050779 -0.002002268233906525 2.78081316054178e-05 
0.001427504391130229 0.0009972165643024663 0.0002128722938652405 -0.002995188575508087 0.0003459429605935287 
0.001427504391130229 0.0009972165643024663 0.0002128722938652405 -0.002995188575508087 0.0003459429605935287 
0.001427504391130229 0.0009972165643024663 0.0002128722938652405 -0.002995188575508087 0.0003459429605935287 
0.00224862800249449 0.0001530920099251153 0.001312830824541658 -0.0112189125970913 0.003686579151586533 
0.001427504391130229 0.0009972165643024663 0.0002128722938652405 -0.002995188575508087 0.0003459429605935287 
0.001427504391130229 0.0009972165643024663 0.0002128722938652405 -0.002995188575508087 0.0003459429605935287 
0.003670719979325554 0.0008297963637450335 0.000377664652622737 -0.01040495007798911 0.001326497363401592 
0.002241589548231331 0.0006024998460751629 -0.001537065969580957 -0.001549676245820843 -0.0004839735309015789 
0.001480968522821248 0.004088039234879941 0.00148484498961957 -0.01210504876961723 0.002138376793730432 
0.00185472206035392 0.002002224101907635 0.001746450310228627 -0.009542404933929901 0.002938623434319831 
-0.002088058728759863 0.0001365088477753507 0.0007624918747812623 0.0005114571086931106 0.001423932947988851 
0.003912351328497897 -0.0009151668054980986 0.001975516336147411 -0.004838401445838583 0.00218074697658503 
0.002611292436233466 -0.0004041756678881739 0.002214551587213971 -0.004598780151790461 0.002108917911565043 
0.002611292436233466 -0.0004041756678881739 0.002214551587213971 -0.004598780151790461 0.002108917911565043 
0.003912351328497897 -0.0009151668054980986 0.001975516336147411 -0.004838401445838583 0.00218074697658503 
0.003912351328497897 -0.0009151668054980986 0.001975516336147411 -0.004838401445838583 0.00218074697658503 
0.001722868595674913 0.001204927801659204 -0.0004992044946674391 -0.007282874056699107 0.002127559078058195 
0.001849314182811378 0.001970001736899834 0.0003817695092999974 -0.01275076673561982 0.005042296784711233 
0.002765908845473816 0.0003208175570743938 3.240589891567551e-05 -0.002423135260435563 0.001336822183527784 
0.002765908845473816 0.0003208175570743938 3.240589891567551e-05 -0.002423135260435563 0.001336822183527784 
0.002765908845473816 0.0003208175570743938 3.240589891567551e-05 -0.002423135260435563 0.001336822183527784 
0.002765908845473816 0.0003208175570743938 3.240589891567551e-05 -0.002423135260435563 0.001336822183527784 
0.002765908845473816 0.0003208175570743938 3.240589891567551e-05 -0.002423135260435563 0.001336822183527784 
0.001469147121540756 0.000178561501033815 0.003564076895801868 -0.006581920321207621 0.0009986120824286222 
0.001469147121540756 0.000178561501033815 0.003564076895801868 -0.006581920321207621 0.0009986120824286222 
0.0006509563341687663 -9.624629524757438e-05 0.0007228792608666607 -0.0001021969810000468 -2.368356585766531e-06 
0.0006509563341687663 -9.624629524757438e-05 0.0007228792608666607 -0.0001021969810000468 -2.368356585766531e-06 
0.0006509735527696803 -0.001393388058701626 0.0008781891959107876 -4.017464531633875e-05 0.001070202016251443 
0.0003846337179480534 -4.099983462971499e-05 0.001075500252671562 -0.0004033634582645751 0.0001373968321953031 
0.00114015372326916 0.0001440973756289657 0.0004850900361402341 -0.0002047629322062475 -0.0005347536584638499 
0.0002746702499620498 0.0007874404011217851 0.0004602699860445808 0.001037284012594625 -0.00150030380647294 
6.258697902490563e-05 0.0004101184987182285 0.001061996397182864 -0.000333566350936162 -0.0001454113736701183 
0.0002746702499620498 0.0007874404011217851 0.0004602699860445808 0.001037284012594625 -0.00150030380647294 
7.296629315788517e-05 0.0005887658626185281 0.0009716427322386885 -3.50947993991111e-05 -0.0006062727674913236 
0.0001691454055864102 0.0001404651600435042 0.001001867036506039 0.000843997309216104 -0.001780091063118895 
0.00012336761078345 0.001115972733410704 0.00145031842521008 -0.0002568228165119033 -0.002110580577343352 
0.0001691454055864102 0.0001404651600435042 0.001001867036506039 0.000843997309216104 -0.001780091063118895 
0.0001691454055864102 0.0001404651600435042 0.001001867036506039 0.000843997309216104 -0.001780091063118895 
0.002230193580138303 0.003629008712803702 0.004917663176400988 0.001267911795645438 -0.007761717582076205 
0.0001691454055864102 0.0001404651600435042 0.001001867036506039 0.000843997309216104 -0.001780091063118895 
0.002022038466024015 0.001645663581374895 0.0001112380866769564 0.00134397613892467 -0.006769834664626663 
0.001014088007904702 0.004987460318334437 0.001009479425999649 0.001156858123331851 -0.007780296923923211 
0.0001790923356874938 0.0004813156344520541 0.001445029242176271 0.0007741190492660716 -0.002212822370927363 
0.00323098671586579 0.001321591101791223 -0.002894644445388844 0.0009082021144722966 -0.002450426446183461 
0.001233828074446069 0.005070602840852481 0.0008389366102012452 0.001240891248495153 -0.01156127681435106 
8.605465714108513e-05 0.000708707383628801 0.0004954597806130564 0.001322161947142897 -0.001825094102609003 
0.0001421271764970074 0.001093011225784727 0.0001859845970387458 0.0001272341536200996 -0.002132377783996942 
0.0003747574449671843 0.001202811248880814 -1.469385516483288e-06 2.528343781186935e-05 -0.002156659730812244 
0.0003739057941645594 0.0002925752377764665 0.0005488551934113826 0.0008998541196507907 -0.001331090097195903 
0.0004443684846990471 0.0003430514359415199 0.0007154561661318431 0.001079327149204309 -0.00117734493552788 
1.460122390794703e-05 0.00270647745608662 0.001569694207356061 0.003734212847080905 -0.01292726595647312 
0.002558568228696426 0.00329358842683559 0.0005913677050572141 5.865485105167928e-05 -0.01052210369760637 
0.001649239685449289 0.003555577178397575 0.001566249280528669 0.001158920679678089 -0.005540209040798719 
0.002890733925830393 0.003429203894785245 -0.0004983733622189888 0.0003557747069462729 -0.007681335704825088 
-0.0009333182505945504 1.316642763115793e-05 0.001244318719127523 0.0007708251312545224 -0.0009076396751365282 
0.001104909605982694 0.00130057547202155 0.0001353103915260176 0.003951465425749172 -0.01004160753215857 
0.0001275088105662664 0.000922489434664686 0.0005402206518318042 0.00125424998573709 -0.002685520673072973 
0.0002285066871786571 0.0001333205515658672 0.001141777095161167 5.032264249421932e-05 -0.001208205343853394 
0.00442108307866636 0.002794835868317881 0.00319597012496019 0.002454205711931272 -0.01043721791425348 
0.001066789293899197 0.00295105028716302 0.000349385119989417 0.0006549765595094408 -0.009361589271017632 
0.001643635078417635 0.001185787926516758 -0.001276693437306684 0.00330592157531625 -0.007258280252974066 
0.003826837727997475 0.001840539615652586 0.000389814865630733 -0.0002360557645463298 -0.007684976198835576 
0.001598678256900573 0.001285833855821031 0.002196839487752834 0.0007364397756576441 -0.00934094851048874 
-0.001346097303662339 0.00269231179209816 -0.000240669087392404 0.002334789327131121 -0.004469177993671871 
0.0006666993147326711 0.0008963190705001761 0.001614484611355088 -0.0004447105517156403 -0.001808085892164828 
0.0004532418347252141 0.001108067135038674 0.001107415549235236 0.001127237984115053 -0.003792904886160868 
0.001149462880917053 0.0031417957139837 0.001882667799416367 0.0004863291676241252 -0.007120849691665578 
0.0001039279800504591 0.004159714355436539 0.001720526952753389 0.0003416941257918408 -0.008835849845757211 
0.002481311864102633 0.001989821116674472 -0.0009595697365341374 0.0024712209506494 -0.01200608317514945 
0.0006666993147326711 0.0008963190705001761 0.001614484611355088 -0.0004447105517156403 -0.001808085892164828 
-9.991911933128502e-06 1.321431935711846e-07 3.697736387094533e-06 3.946279045200077e-06 3.828795714469303e-06 
